-1.282961726188659668e+00
-6.795616447925567627e-02
-2.063307762145996094e-01
-1.932937800884246826e-01
-1.434973180294036865e-01
-1.140615344047546387e-01
1.125275641679763794e-01
2.776045799255371094e-01
-9.799398779869079590e-01
-2.966884374618530273e-01
2.403895705938339233e-01
-1.114391684532165527e+00
-1.086665034294128418e+00
-7.134715914726257324e-01
-1.026879429817199707e+00
-3.322954773902893066e-01
-3.749292194843292236e-01
-3.288896679878234863e-01
-4.958232045173645020e-01
-2.146042734384536743e-01
-6.978138089179992676e-01
-2.242131903767585754e-02
-8.699013590812683105e-01
-7.468256354331970215e-01
-1.930956095457077026e-01
-7.287567257881164551e-01
-2.887182831764221191e-01
1.776104867458343506e-01
-6.118028759956359863e-01
-4.369114935398101807e-01
-1.084639597684144974e-02
2.527830004692077637e-02
1.945986896753311157e-01
-6.353927254676818848e-01
-8.694782853126525879e-01
-1.107179284095764160e+00
-8.058266043663024902e-01
-1.127567365765571594e-01
-7.073993086814880371e-01
-2.680155336856842041e-01
-3.202141225337982178e-01
-5.640748143196105957e-02
1.515340656042098999e-01
2.347782105207443237e-01
-3.415194749832153320e-01
-7.230988144874572754e-01
-2.683644294738769531e-01
-9.742822051048278809e-01
1.748479753732681274e-01
-3.779836893081665039e-01
-3.060489594936370850e-01
-7.901369929313659668e-01
-4.178190827369689941e-01
-1.270137190818786621e+00
-4.533752202987670898e-01
-1.222028136253356934e+00
-9.507028758525848389e-02
-7.285967469215393066e-01
-2.773577570915222168e-01
-1.008008122444152832e+00
-2.604869902133941650e-01
-1.106267809867858887e+00
8.389055728912353516e-02
3.010116815567016602e-01
-1.361304968595504761e-01
2.772552706301212311e-02
-1.262469887733459473e+00
-3.450802564620971680e-01
-2.658663988113403320e-01
1.312060505151748657e-01
-2.284528017044067383e-01
-4.319543540477752686e-01
-5.327089428901672363e-01
-8.928565979003906250e-01
-1.166502535343170166e-01
-8.958959579467773438e-01
2.324603497982025146e-01
-6.726603507995605469e-01
-6.410297155380249023e-01
-3.510802388191223145e-01
3.323299437761306763e-02
-6.297366619110107422e-01
-8.715448975563049316e-01
-8.629356026649475098e-01
-7.140333056449890137e-01
-6.102281212806701660e-01
-9.281770139932632446e-02
-3.186394572257995605e-01
-1.719498336315155029e-01
-5.232737660408020020e-01
-4.889355301856994629e-01
-4.352743923664093018e-01
-3.435715734958648682e-01
-6.042545437812805176e-01
-3.712396025657653809e-01
3.272556066513061523e-01
-8.536239266395568848e-01
-1.246945500373840332e+00
1.797664284706115723e+00
-1.113913774490356445e+00
3.694652765989303589e-02
-5.983427166938781738e-01
-3.793841302394866943e-01
-8.146004080772399902e-01
4.767553508281707764e-02
1.824668198823928833e-01
-5.755399912595748901e-02
1.798191070556640625e+00
-7.510188221931457520e-01
-2.241722941398620605e-01
2.978119552135467529e-01
-6.214933991432189941e-01
-9.379431605339050293e-02
-1.283807456493377686e-01
1.842491745948791504e+00
1.663573235273361206e-01
-9.723395854234695435e-02
-8.649648427963256836e-01
3.909102827310562134e-02
-4.722553789615631104e-01
4.075572360306978226e-03
-4.640580415725708008e-01
-3.040737211704254150e-01
-4.882416725158691406e-01
-5.461143255233764648e-01
-6.429659128189086914e-01
6.207398697733879089e-02
-7.460957765579223633e-01
-1.721115112304687500e-01
-2.068730145692825317e-01
-7.738175392150878906e-01
-2.641209363937377930e-01
-6.842374205589294434e-01
1.771723747253417969e+00
-1.277369260787963867e-01
-7.131468653678894043e-01
-6.177216395735740662e-02
-1.525457366369664669e-03
-3.040293455123901367e-01
-6.356059312820434570e-01
-6.476356387138366699e-01
-1.057370901107788086e+00
-6.626514792442321777e-01
-1.247897595167160034e-01
-5.428308844566345215e-01
-6.492927670478820801e-01
1.302197426557540894e-01
-5.299497842788696289e-01
-6.037606000900268555e-01
-6.857493519783020020e-01
-1.174863100051879883e+00
-2.595868706703186035e-01
-9.671750664710998535e-01
-3.516466319561004639e-01
-2.095559984445571899e-01
9.365781396627426147e-02
-4.139077067375183105e-01
-2.515982091426849365e-01
1.552449166774749756e-01
-1.487735360860824585e-01
-5.527217984199523926e-01
-3.784984350204467773e-01
-1.002510935068130493e-01
1.379849314689636230e-01
-4.366688132286071777e-01
6.291600316762924194e-02
-2.070110589265823364e-01
-1.184529662132263184e+00
-1.995844483375549316e+00
-8.693115115165710449e-01
1.350352615118026733e-01
1.538749635219573975e-01
-7.363897562026977539e-01
-6.513963937759399414e-01
1.720730960369110107e-01
-9.529981762170791626e-02
-5.211157798767089844e-01
-1.082592010498046875e-01
-4.193972945213317871e-01
-5.854831933975219727e-01
7.230161130428314209e-02
1.993334442377090454e-01
-1.948384791612625122e-01
1.329417619854211807e-02
-3.471322655677795410e-01
-6.656977534294128418e-01
1.339335367083549500e-02
-7.517184019088745117e-01
1.500158160924911499e-01
-8.123279809951782227e-01
8.881916105747222900e-02
-6.034595370292663574e-01
-4.354487359523773193e-01
1.927149891853332520e-01
1.541963368654251099e-01
1.268486678600311279e-01
-8.137645721435546875e-01
-2.266311049461364746e-01
-3.046108186244964600e-01
-5.650134682655334473e-01
-3.197247162461280823e-02
-1.912971436977386475e-01
3.499038815498352051e-01
-2.268247753381729126e-01
-7.832023501396179199e-01
-6.480353474617004395e-01
-8.415299057960510254e-01
5.761682391166687012e-01
3.147485554218292236e-01
-5.112159624695777893e-02
1.397839337587356567e-01
-1.839209347963333130e-01
-5.344964861869812012e-01
-3.018584549427032471e-01
5.498294532299041748e-02
-1.206012010574340820e+00
4.117055609822273254e-02
-2.167365700006484985e-01
-1.834018230438232422e-01
2.264323383569717407e-01
1.549959182739257812e-01
-7.104591131210327148e-01
-1.327222108840942383e+00
-7.124374508857727051e-01
-2.123408764600753784e-01
-5.824059247970581055e-02
-4.923357069492340088e-02
-1.620278835296630859e+00
2.192100510001182556e-02
-2.888321280479431152e-01
2.515998482704162598e-01
-1.422464754432439804e-02
-4.932026863098144531e-01
-1.950112879276275635e-01
-1.077530026435852051e+00
-1.124629974365234375e-01
-5.540794730186462402e-01
1.413752436637878418e-01
-4.625366032123565674e-01
-2.546541765332221985e-02
-1.844144463539123535e-01
1.080224141478538513e-01
-9.388173222541809082e-01
-5.657346248626708984e-01
-3.776905536651611328e-01
-4.176433086395263672e-01
-8.674263954162597656e-01
-1.610510945320129395e+00
-6.219825148582458496e-01
-6.856747865676879883e-01
-3.581006079912185669e-02
-1.215376973152160645e+00
-1.916340440511703491e-01
-5.831140875816345215e-01
-4.346017837524414062e-01
-3.882403075695037842e-01
