-8.559031994082033634e-04 2.116712130373343825e-04 -3.208613023161888123e-02 1.533222850412130356e-03 1.805602200329303741e-02 -5.037681758403778076e-02 6.645596586167812347e-04 2.484419941902160645e-02 -2.423315709165763110e-05 -1.093602832406759262e-02 6.998660508543252945e-03 -2.431667089695110917e-04 -8.458399213850498199e-03 -3.945329226553440094e-03 -1.949185534613206983e-04 -8.598554879426956177e-03 1.393751008436083794e-03 -4.892923170700669289e-04 -2.880997490137815475e-03 -2.079200185835361481e-02 9.645138867199420929e-03 3.475488920230418444e-04 4.095565993338823318e-03 -1.807194203138351440e-02 1.353705767542123795e-03 9.251756593585014343e-03 -3.884900361299514771e-03 -1.799543574452400208e-02 8.473811671137809753e-03 -4.248969489708542824e-04 6.297667860053479671e-04 -1.622875221073627472e-02 2.038073027506470680e-03 1.040197676047682762e-03 5.776624195277690887e-03 -1.365823484957218170e-02 -5.292894202284514904e-04 -2.905844885390251875e-04 -4.809093661606311798e-04 3.896153345704078674e-02 2.073899842798709869e-02 3.723281668499112129e-03 8.374702156288549304e-05 6.246077100513502955e-05 5.601915530860424042e-03 7.832087430870160460e-05 3.964986652135848999e-03 2.430433407425880432e-02 -5.305044760461896658e-05 -1.958570629358291626e-02 -1.974777691066265106e-02 6.254324316978454590e-02 -2.094309963285923004e-02 9.412944316864013672e-03 -2.762634831015020609e-04 -1.935062743723392487e-02 -1.905428071040660143e-04 -1.030233595520257950e-02 1.593752577900886536e-02 1.593373902142047882e-02 1.036168169230222702e-02 6.320600863546133041e-03 1.772633567452430725e-02 -1.671379804611206055e-02 2.363156294450163841e-03 -2.176968939602375031e-02 1.014047116041183472e-02 3.776411176659166813e-04 8.074559271335601807e-03 1.175850443542003632e-02 3.025559708476066589e-04 -4.228482022881507874e-03 3.091666148975491524e-04 -1.874278858304023743e-02 -1.617638190509751439e-04 -1.704879105091094971e-02 -9.524834342300891876e-03 1.107155578210949898e-03 -3.372760862112045288e-02 -1.493929721618769690e-05 -1.254950999282300472e-03 -7.967250421643257141e-03 -4.123348335269838572e-04 -2.128390781581401825e-02 3.736326470971107483e-03 3.818673139903694391e-04 -2.050390903605148196e-04 1.139343157410621643e-02 -1.129647903144359589e-02 1.632473617792129517e-02 -1.594130299054086208e-04 9.415518492460250854e-03 9.510047733783721924e-03 2.509863115847110748e-03 5.663809133693575859e-04 5.188240902498364449e-04 2.061955630779266357e-02 -4.730668384581804276e-03 -5.392341990955173969e-04 3.094946965575218201e-02 3.429191559553146362e-02 -3.393614606466144323e-04 2.807274460792541504e-03 5.728825999540276825e-05 3.044473414774984121e-04 -2.312351018190383911e-02 -1.275104284286499023e-02 -3.824741020798683167e-02 2.777565678115934134e-04 1.415478182025253773e-03 -3.778269820031709969e-05 5.560710178542649373e-06 -9.045933373272418976e-03 4.039192199707031250e-02 4.665563028538599610e-05 -2.821280620992183685e-03 -1.723778550513088703e-04 -4.650026967283338308e-04 -1.904085651040077209e-02 1.369464118033647537e-02 -1.273441128432750702e-03 -3.304558922536671162e-04 -1.053040008991956711e-02 -1.110192295163869858e-02 -6.496468093246221542e-03 -1.347325392998754978e-03 -3.143462911248207092e-02 3.755942452698945999e-03 2.114380709826946259e-02 7.924444071250036359e-05 1.493219006806612015e-02 -1.518407952971756458e-04 -1.289787143468856812e-02 1.422664429992437363e-02 4.266545642167329788e-03 3.169666742905974388e-03 3.027991391718387604e-02 6.306711002252995968e-04 -8.100187405943870544e-04 -8.022175170481204987e-03 3.204288706183433533e-02 9.483320172876119614e-04 1.588851773703936487e-05 3.240544348955154419e-03 1.223416533321142197e-03 -1.070787111530080438e-04 6.166802253574132919e-03 1.632046699523925781e-02 7.345623771470854990e-07 -4.531193152070045471e-02 -9.140469133853912354e-03 -3.173356410115957260e-03 -3.739246167242527008e-04 3.442504385020583868e-05 -5.220382474362850189e-03 -2.766872057691216469e-04 3.007736988365650177e-02 -2.388189022894948721e-04 -1.891914434963837266e-04 -4.852708661928772926e-04 1.761127263307571411e-02 -7.744547445327043533e-03 -2.086644992232322693e-02 2.241919003427028656e-02 -4.424660073709674180e-05 -3.378049877937883139e-04 1.237163523910567164e-04 -1.215357054024934769e-02 2.570219803601503372e-03 -8.107251778710633516e-05 4.299421270843595266e-04 3.774342127144336700e-03 -1.658551581203937531e-02 1.274803467094898224e-02 7.365856319665908813e-03 7.812227122485637665e-04 1.025789044797420502e-02 3.127104043960571289e-02 -1.308651699218899012e-04 1.667783781886100769e-02 1.519571524113416672e-04 9.995900327339768410e-04 -2.119516720995306969e-04 -4.392949267639778554e-05 -1.625712588429450989e-02 -7.505456451326608658e-04 5.833588540554046631e-03 -2.155311638489365578e-03 1.769020780920982361e-02 3.825262247119098902e-04 -1.737216603942215443e-03 2.734292298555374146e-02 -3.093932010233402252e-02 -5.534905358217656612e-04 4.656859382521361113e-04 -1.002039294689893723e-03 -5.816516000777482986e-03 6.117477460065856576e-05 3.414535894989967346e-04 1.006177812814712524e-02 -1.003754418343305588e-02 -8.105399901978671551e-04 -2.328537963330745697e-02 -5.197049584239721298e-03 -2.242017799289897084e-04 1.380675844848155975e-02 6.181738572195172310e-04 -1.426366902887821198e-02 -7.324190810322761536e-03 2.460623509250581264e-04 -1.605475693941116333e-02 -1.838718708313535899e-05 -1.327258441597223282e-02 -3.164698835462331772e-03 -1.501788478344678879e-02 -2.928939647972583771e-02 -3.808182850480079651e-02 4.120736382901668549e-03 4.119298607110977173e-02 -1.835160190239548683e-03 -9.222895838320255280e-03 7.946895202621817589e-04 2.109185978770256042e-02 -2.577721606940031052e-04 3.293409245088696480e-03 8.014501072466373444e-03 -1.200625905767083168e-03 3.745416179299354553e-02 -1.154744531959295273e-02 1.548653747886419296e-02 -5.997872911393642426e-03 -7.402020128211006522e-05 1.126166898757219315e-02 2.516449615359306335e-02 1.843719556927680969e-02 -5.243087187409400940e-03 -1.586970128118991852e-02 -8.559603593312203884e-04 9.015717660076916218e-04 -8.480053395032882690e-03 1.573434929014183581e-05 8.734227158129215240e-03 -4.207320977002382278e-03 3.913450927939265966e-05 7.656369358301162720e-03 -6.171567656565457582e-05 3.469845978543162346e-04 -1.887601241469383240e-02 -5.076324450783431530e-04 -2.142935525625944138e-03 -7.917871698737144470e-03 4.783316690009087324e-04 -2.034849859774112701e-02 8.952508680522441864e-03 -1.850863359868526459e-02 -1.399989053606987000e-02
3.590288339182734489e-03 -6.724767154082655907e-04 8.249672502279281616e-02 2.318961732089519501e-02 1.518696267157793045e-02 3.809899557381868362e-03 -5.441315006464719772e-04 3.817333607003092766e-03 1.367721997667104006e-04 -2.022503502666950226e-02 -2.800908172503113747e-03 -3.284377744421362877e-04 1.092801894992589951e-02 2.552155032753944397e-02 8.384867687709629536e-04 -6.330528762191534042e-03 6.332102930173277855e-04 7.277552504092454910e-05 -3.513722121715545654e-02 6.473800167441368103e-04 -1.684818416833877563e-02 -3.247712156735360622e-04 2.051928080618381500e-03 5.428421497344970703e-02 1.535957399755716324e-02 -4.609318077564239502e-02 -2.564580552279949188e-02 6.412745267152786255e-02 -1.356843300163745880e-02 9.789291070774197578e-04 3.429270000196993351e-04 -7.778873667120933533e-03 2.376829087734222412e-02 1.580299995839595795e-02 1.784820295870304108e-02 -3.669231012463569641e-02 1.606618170626461506e-04 -9.150151163339614868e-05 -1.594674686202779412e-04 -2.192084939451888204e-04 -9.032984264194965363e-03 -7.179448008537292480e-02 4.022637731395661831e-04 8.343048393726348877e-04 1.217897795140743256e-02 1.838139444589614868e-02 1.860112138092517853e-02 1.992078684270381927e-02 -9.943776531144976616e-04 4.411102458834648132e-02 1.881819032132625580e-02 7.486389949917793274e-03 1.982773683266714215e-04 -2.681591548025608063e-02 1.058391644619405270e-03 2.505790442228317261e-03 1.737958399417038891e-07 5.652377847582101822e-03 -1.956053450703620911e-02 1.659962534904479980e-02 -5.536852404475212097e-03 -2.482618147041648626e-04 1.328511908650398254e-02 -5.122684873640537262e-03 2.115066908299922943e-02 8.979820995591580868e-04 -1.228650938719511032e-02 -6.484244950115680695e-04 -2.014526911079883575e-02 -3.244413062930107117e-02 -1.220345875481143594e-04 -4.156497307121753693e-03 4.849835240747779608e-04 1.913101412355899811e-02 3.002443118020892143e-04 1.072282344102859497e-02 -1.516913343220949173e-02 2.833765000104904175e-02 -1.237484393641352654e-03 8.284955401904881001e-04 -3.820475540123879910e-04 -1.409744843840599060e-02 1.039442722685635090e-03 1.837302744388580322e-02 -3.700903058052062988e-02 -1.984419941436499357e-04 5.993463564664125443e-04 2.877490594983100891e-03 2.544244937598705292e-02 -1.209984160959720612e-02 -1.996036060154438019e-02 -4.372486844658851624e-02 1.822248473763465881e-02 -4.600987769663333893e-03 -2.386035775998607278e-04 -4.056894395034760237e-04 4.431127011775970459e-02 1.511396560817956924e-02 4.588780575431883335e-04 1.734498143196105957e-02 3.570921951904892921e-03 4.753871762659400702e-04 -4.046129062771797180e-03 -5.703234928660094738e-04 4.307976923882961273e-04 2.108403109014034271e-02 2.667252533137798309e-02 -3.333245590329170227e-02 1.500586804468184710e-04 9.699205984361469746e-04 8.787881233729422092e-04 -3.084299678448587656e-04 1.448902487754821777e-02 2.374985255300998688e-02 3.476923739071935415e-04 2.053809911012649536e-02 3.140800690744072199e-04 6.593347061425447464e-04 9.161884896457195282e-03 -6.624762900173664093e-03 1.809796132147312164e-02 8.488712774123996496e-05 -6.805681437253952026e-02 5.318048596382141113e-02 1.743989251554012299e-02 -2.811005979310721159e-04 -1.680461456999182701e-03 1.113717211410403252e-03 7.563280407339334488e-03 8.293558494187891483e-04 5.903731286525726318e-02 6.160572520457208157e-04 -1.805858127772808075e-02 -1.101138070225715637e-02 -4.387214779853820801e-02 -1.330438815057277679e-02 1.722644269466400146e-02 3.757738450076431036e-04 9.598956094123423100e-04 -2.847643569111824036e-02 2.352845389395952225e-03 -5.834071338176727295e-02 -4.831117694266140461e-04 2.235450781881809235e-03 6.763511191820725799e-05 -2.025221911026164889e-04 1.493952330201864243e-02 9.879263117909431458e-03 -1.157766455435194075e-04 -9.782440029084682465e-03 2.022026106715202332e-02 1.144790928810834885e-02 1.326555211562663317e-04 1.845630031311884522e-04 9.031346067786216736e-03 -4.983319668099284172e-04 3.875812515616416931e-02 -4.965771222487092018e-04 4.655211523640900850e-04 3.782714193221181631e-04 -5.192275159060955048e-03 1.804811879992485046e-02 1.928226277232170105e-02 -5.269002635031938553e-03 6.175526068545877934e-04 -5.391068989410996437e-04 -3.450203512329608202e-04 7.674605399370193481e-02 8.417700417339801788e-03 -1.484160311520099640e-03 -6.225954275578260422e-04 -2.394904009997844696e-02 3.249549120664596558e-02 2.458735369145870209e-02 1.849026535637676716e-03 -7.487050024792551994e-04 2.588775241747498512e-03 1.206676475703716278e-02 -6.976537988521158695e-04 -1.873639225959777832e-02 -5.481271655298769474e-04 -1.459858263842761517e-03 -3.500060120131820440e-04 6.606035167351365089e-04 6.618535146117210388e-03 1.231948845088481903e-04 -2.746062912046909332e-02 -3.558419179171323776e-03 -2.165391296148300171e-02 -4.297130217310041189e-04 1.322138123214244843e-02 5.698860809206962585e-02 -5.764510016888380051e-03 -5.083142896182835102e-04 -7.375239511020481586e-04 -7.165934657678008080e-04 -8.788899518549442291e-03 -1.503963430877774954e-04 5.325694219209253788e-04 -3.234603907912969589e-03 8.623179164715111256e-04 2.934443578124046326e-02 -6.120668724179267883e-02 8.473484218120574951e-02 -7.983525283634662628e-04 4.497231915593147278e-02 -2.645076601766049862e-04 -1.034952420741319656e-02 -5.406040232628583908e-03 1.057756308000534773e-04 -5.463578272610902786e-03 4.272975493222475052e-04 2.728985063731670380e-02 1.229017507284879684e-02 -3.385149873793125153e-03 -1.116415392607450485e-02 7.536401506513357162e-03 2.524777129292488098e-02 2.485760673880577087e-02 -4.773325636051595211e-04 -5.509326700121164322e-03 6.538706365972757339e-04 6.703504361212253571e-03 9.078112780116498470e-04 3.349223732948303223e-02 3.139798715710639954e-02 4.712894151452928782e-04 -9.836746379733085632e-03 1.213726960122585297e-02 -5.796466488391160965e-03 3.567108651623129845e-03 3.789256734307855368e-04 1.437410432845354080e-02 2.408391609787940979e-02 -3.343462198972702026e-02 6.736540049314498901e-02 3.215271607041358948e-02 -2.359019964933395386e-02 3.842096775770187378e-04 6.973446160554885864e-02 2.205263008363544941e-04 -5.006005521863698959e-03 4.063970223069190979e-02 8.204886398743838072e-05 9.911822155117988586e-03 -4.654089570976793766e-04 -4.159784657531417906e-05 2.938706194981932640e-03 5.329223349690437317e-04 2.840580651536583900e-03 -6.519091548398137093e-04 -5.666303914040327072e-04 4.086963087320327759e-02 -7.212424650788307190e-03 2.810508245602250099e-03 -1.298499666154384613e-02
2.742354199290275574e-02 5.066551966592669487e-04 2.405787352472543716e-03 -1.436514314264059067e-02 -2.438831329345703125e-02 2.344463579356670380e-02 -2.882522530853748322e-04 4.396471660584211349e-03 -7.268856861628592014e-04 -2.903189882636070251e-02 2.420675195753574371e-02 -3.587550600059330463e-04 -8.322292938828468323e-03 1.382362656295299530e-02 -1.867720420705154538e-04 -2.748961374163627625e-02 -2.119238924933597445e-04 -8.100891136564314365e-06 4.769508168101310730e-02 -9.307563304901123047e-03 1.841989532113075256e-02 -4.501619259826838970e-04 -5.340758338570594788e-02 2.696225419640541077e-02 -1.411945372819900513e-02 4.775135777890682220e-03 -6.884187925606966019e-03 6.286264210939407349e-02 6.039883941411972046e-03 7.139403023757040501e-04 4.282181544112972915e-05 3.679620334878563881e-03 4.627821501344442368e-03 9.838351979851722717e-03 -8.565231226384639740e-03 1.980539597570896149e-02 1.061280956491827965e-03 -9.122506889980286360e-05 6.906609050929546356e-04 1.078602857887744904e-02 -2.443528734147548676e-02 -5.169361084699630737e-02 2.346887340536341071e-04 -1.228464534506201744e-03 -6.072735413908958435e-02 3.235140116885304451e-03 -6.296643055975437164e-03 1.171614695340394974e-02 -2.102614525938406587e-04 -6.728786230087280273e-02 -6.273811450228095055e-04 1.154195144772529602e-02 5.689902976155281067e-02 -5.158644914627075195e-02 1.349176891380921006e-04 -2.693802490830421448e-02 -4.247487231623381376e-04 3.592978417873382568e-02 -5.011190101504325867e-02 1.204784307628870010e-02 4.735567793250083923e-02 -4.716610070317983627e-03 1.239718683063983917e-02 -4.594022780656814575e-02 4.202831164002418518e-02 -1.095541100949048996e-02 3.583484888076782227e-02 -1.492703886469826102e-04 -5.231895484030246735e-03 -3.018031083047389984e-02 -1.227705972269177437e-03 -6.193593610078096390e-03 -2.456718066241592169e-04 1.223188941366970539e-03 -6.651458097621798515e-04 -2.816872112452983856e-02 3.557718917727470398e-02 4.891042783856391907e-02 -3.513842448592185974e-02 2.780822105705738068e-04 9.258763166144490242e-04 -1.216718181967735291e-02 -3.781697596423327923e-04 4.484731703996658325e-02 -2.587525174021720886e-02 -7.337792776525020599e-04 -1.641792478039860725e-04 2.638399135321378708e-03 -1.145673263818025589e-02 1.366981677711009979e-02 1.228198036551475525e-02 9.485982009209692478e-04 2.601349726319313049e-02 -1.238994300365447998e-02 2.768444828689098358e-04 4.507189714786363766e-06 -1.548829860985279083e-02 -1.657948084175586700e-02 -1.709366042632609606e-04 -2.790432423353195190e-03 -4.325902834534645081e-02 -1.593591441633179784e-04 -7.111141923815011978e-03 -1.277096598641946912e-04 -3.727315634023398161e-04 -1.103515550494194031e-02 -2.361440286040306091e-02 6.635800469666719437e-03 3.362576535437256098e-04 1.356860622763633728e-03 -1.059841946698725224e-03 1.009515835903584957e-04 2.755327522754669189e-02 -1.226657722145318985e-02 -4.883436122327111661e-05 -2.979026362299919128e-02 3.822746220976114273e-04 2.320893981959670782e-04 3.513178229331970215e-02 1.821209676563739777e-02 -3.899741917848587036e-02 -5.339170456863939762e-04 7.510724477469921112e-03 -3.381301090121269226e-02 -1.462421100586652756e-02 7.357692084042355418e-05 -2.576063945889472961e-02 2.530618570744991302e-03 -4.483185242861509323e-03 1.771731040207669139e-04 1.088220626115798950e-02 -4.916675388813018799e-04 7.537766825407743454e-03 3.658242151141166687e-02 -5.211487784981727600e-02 6.424399092793464661e-03 3.549032378941774368e-03 2.533810911700129509e-04 1.540742086945101619e-04 -2.414679899811744690e-02 -3.120528068393468857e-03 1.736778579652309418e-02 6.038255378371104598e-06 -7.243328541517257690e-02 2.135675749741494656e-04 -5.968281766399741173e-04 -3.213329613208770752e-02 -6.852591759525239468e-04 2.527174074202775955e-04 -2.143514901399612427e-02 -1.988709345459938049e-02 -3.738726954907178879e-03 -4.502537194639444351e-04 1.536333933472633362e-03 -4.167709872126579285e-02 4.686935062636621296e-05 -1.987220905721187592e-02 -9.639786003390327096e-05 -1.193398275063373148e-04 -8.105445303954184055e-04 2.313647605478763580e-02 -9.363688528537750244e-03 6.238242494873702526e-04 -6.838406436145305634e-03 1.210855698445811868e-04 -5.197651335038244724e-04 -1.749085640767589211e-05 -1.961821690201759338e-02 -4.359071608632802963e-03 -6.748031009919941425e-04 4.821263428311794996e-05 1.523025240749120712e-02 1.591338403522968292e-02 1.171867083758115768e-02 -1.775168068706989288e-02 1.082188100554049015e-03 -3.785290569067001343e-02 1.596154086291790009e-02 -2.803345269057899714e-04 -2.398722805082798004e-02 1.389567973092198372e-03 -1.083095790818333626e-03 -5.164581234566867352e-04 -1.050955397658981383e-04 1.562102604657411575e-02 4.351894915544107789e-07 2.956394292414188385e-02 1.943213748745620251e-03 -5.211355909705162048e-02 -3.473251126706600189e-04 -3.266664594411849976e-02 -2.743589319288730621e-02 2.470375597476959229e-02 -2.010597236221656203e-04 -5.205089692026376724e-04 -8.813565364107489586e-05 3.378229681402444839e-03 -1.696527215244714171e-05 -4.703380909631960094e-05 7.294030394405126572e-03 -3.036920726299285889e-02 -2.725946530699729919e-02 -3.245553001761436462e-02 2.894517593085765839e-02 1.712686062091961503e-04 1.502559799700975418e-02 -1.170084578916430473e-05 2.548334933817386627e-02 3.012831136584281921e-02 2.663289487827569246e-04 3.221753612160682678e-02 4.039475170429795980e-04 -2.008098922669887543e-02 -1.735985837876796722e-02 -1.401837822049856186e-02 4.036218672990798950e-02 4.430941306054592133e-03 2.443897351622581482e-02 -1.431487593799829483e-02 -8.307790994876995683e-05 -6.425437983125448227e-03 -7.460002088919281960e-04 1.032429002225399017e-02 -1.250085688297986053e-06 -4.684000462293624878e-02 -2.247376367449760437e-02 -1.619295217096805573e-03 1.987209729850292206e-02 1.469718385487794876e-02 8.789600804448127747e-03 5.881445948034524918e-03 1.019203336909413338e-03 -2.181019447743892670e-02 6.782961543649435043e-03 1.440627034753561020e-02 2.511184662580490112e-02 -1.115843001753091812e-02 2.330848760902881622e-02 -2.750680141616612673e-04 3.435135260224342346e-02 -2.220408759967540391e-06 -6.997109949588775635e-02 8.163929916918277740e-03 -5.041700205765664577e-04 -6.271666847169399261e-03 5.726250237785279751e-04 -3.852769441436976194e-04 6.964906118810176849e-03 -5.621978198178112507e-04 1.259341835975646973e-02 -1.379684265702962875e-02 6.760411197319626808e-04 -4.341007675975561142e-03 2.109840698540210724e-02 2.845120243728160858e-02 7.492874283343553543e-03
-5.920585617423057556e-02 -1.277127885259687901e-03 1.425949763506650925e-02 3.586476296186447144e-02 4.054961726069450378e-03 -4.465481638908386230e-02 -2.697495801839977503e-04 -4.136672243475914001e-03 -5.169901487533934414e-05 -8.720662444829940796e-03 -2.442986238747835159e-03 -8.244474884122610092e-04 -2.865905128419399261e-02 7.210774812847375870e-03 7.585182902403175831e-04 2.782348601613193750e-04 8.081650012172758579e-04 -1.022954005748033524e-03 1.580124162137508392e-02 -8.029721677303314209e-03 7.335021160542964935e-03 -3.522178303683176637e-05 -4.205479472875595093e-02 3.336944803595542908e-02 2.716970164328813553e-03 2.233490906655788422e-02 -1.702676760032773018e-03 1.279020216315984726e-02 2.066024951636791229e-02 -1.162467378890141845e-04 2.571949444245547056e-04 -8.331575989723205566e-02 -1.180681772530078888e-02 3.428363054990768433e-02 3.450191020965576172e-02 -2.157142199575901031e-02 -4.687679393100552261e-06 2.216017746832221746e-04 8.382673258893191814e-04 2.396051399409770966e-02 -1.236100960522890091e-02 3.592814877629280090e-02 3.366205201018601656e-04 -1.320771116297692060e-04 5.902346596121788025e-02 5.072885658591985703e-03 -3.187144547700881958e-02 -1.499507389962673187e-02 2.874939236789941788e-04 2.899285405874252319e-02 2.219995297491550446e-02 2.643151395022869110e-02 2.133231423795223236e-02 1.073649618774652481e-02 -8.790920401224866509e-05 2.129378542304039001e-02 3.390743222553282976e-04 -7.803376764059066772e-03 4.330564662814140320e-02 -1.898402534425258636e-02 4.557536542415618896e-02 -5.164018832147121429e-03 2.004327485337853432e-03 -5.742271244525909424e-02 1.969892904162406921e-02 1.608801819384098053e-02 8.865713141858577728e-03 -2.891543845180422068e-04 2.271115547046065331e-03 -5.401241127401590347e-03 -2.317370090167969465e-04 -1.200893311761319637e-03 1.674668164923787117e-04 2.749476116150617599e-03 -2.195007691625505686e-04 -4.620091989636421204e-02 -8.383385837078094482e-03 -1.071864180266857147e-02 -4.527737572789192200e-02 -4.287020128685981035e-04 9.793876670300960541e-04 -1.924616168253123760e-03 -3.800535923801362514e-04 -1.224154140800237656e-02 2.356549492105841637e-03 -3.824809682555496693e-04 -1.388337695971131325e-04 8.401656523346900940e-03 -1.811574399471282959e-02 -1.558232773095369339e-02 2.863874845206737518e-02 -2.605327032506465912e-02 1.153818145394325256e-02 -1.620430313050746918e-02 3.262859245296567678e-04 -4.001914348918944597e-04 9.059431962668895721e-03 -8.229900896549224854e-02 1.409529941156506538e-04 -8.874205872416496277e-03 7.262253202497959137e-03 4.238111432641744614e-04 -7.187008857727050781e-03 -8.423799299634993076e-04 4.302779852878302336e-04 -4.710230231285095215e-02 -1.530435052700340748e-03 1.241090428084135056e-02 1.697530242381617427e-04 9.196927421726286411e-04 3.949970996472984552e-04 -1.486190012656152248e-03 -4.445258527994155884e-03 8.929419331252574921e-03 -7.747806957922875881e-04 2.610133029520511627e-02 -8.596049738116562366e-04 4.459140473045408726e-04 5.120792891830205917e-03 4.858384840190410614e-03 -3.773783519864082336e-02 3.217338817194104195e-04 -3.276912122964859009e-02 -2.743336372077465057e-02 5.296835675835609436e-03 1.459156046621501446e-03 7.681505288928747177e-03 1.522514596581459045e-02 -7.529425900429487228e-03 -5.563624436035752296e-04 2.548588998615741730e-02 6.197355687618255615e-04 2.015040814876556396e-02 3.937755897641181946e-02 -7.603435777127742767e-03 1.711416058242321014e-02 -1.115865353494882584e-02 3.353795327711850405e-04 3.488658694550395012e-05 -8.345961570739746094e-03 -3.471155464649200439e-02 -7.291552610695362091e-03 3.920218441635370255e-04 1.480824965983629227e-02 -7.414775900542736053e-04 3.819366975221782923e-04 3.279066458344459534e-02 -1.858011260628700256e-02 2.286559029016643763e-04 7.430599536746740341e-03 1.215277425944805145e-02 -8.056592196226119995e-02 2.987461630254983902e-04 -1.774390111677348614e-04 -1.755890808999538422e-02 7.721400470472872257e-04 -2.940161386504769325e-03 1.923648669617250562e-04 8.005071431398391724e-04 -8.145551546476781368e-04 4.067240655422210693e-02 -4.449044819921255112e-03 5.854761693626642227e-03 8.230072446167469025e-03 -6.606079987250268459e-04 1.058326102793216705e-03 -2.267145318910479546e-04 -1.031145546585321426e-02 7.433921098709106445e-02 -4.701862344518303871e-04 5.493675125762820244e-04 -1.992721576243638992e-03 2.446015551686286926e-02 -2.367036417126655579e-02 -1.618633978068828583e-02 -1.484606036683544517e-04 -1.303289644420146942e-02 1.367485430091619492e-02 2.492622879799455404e-04 -4.930246248841285706e-02 5.272366688586771488e-04 5.778468912467360497e-04 -1.056725159287452698e-03 -4.767669597640633583e-04 2.403262630105018616e-02 8.994100498966872692e-04 -2.297960221767425537e-02 7.388973608613014221e-03 -1.019553747028112411e-02 2.580963191576302052e-04 1.613558083772659302e-02 -1.703656464815139771e-02 -2.557513304054737091e-02 4.892222204944118857e-05 -8.860412053763866425e-04 2.404850383754819632e-04 -2.499013021588325500e-02 -1.204955275170505047e-03 1.011651824228465557e-03 -2.720039337873458862e-03 -1.677582040429115295e-02 -2.276902645826339722e-02 -2.283719740808010101e-02 2.584634162485599518e-02 8.923219284042716026e-04 1.415788754820823669e-02 -1.180030521936714649e-04 2.127829566597938538e-02 -1.470748521387577057e-02 3.727100556716322899e-04 -3.276019915938377380e-02 7.913731969892978668e-04 -8.969272486865520477e-03 2.400796674191951752e-02 2.745093218982219696e-02 -1.658741012215614319e-02 -1.173709519207477570e-02 -2.075795456767082214e-02 -2.392242476344108582e-02 -1.430860138498246670e-04 3.425389528274536133e-02 9.770734322955831885e-05 4.072672873735427856e-02 -1.232619542861357331e-04 -3.756457939743995667e-02 -1.114573888480663300e-02 3.113826096523553133e-04 7.018510252237319946e-03 -4.957712069153785706e-02 3.870031330734491348e-03 -1.945510134100914001e-02 1.077142078429460526e-03 7.551323156803846359e-03 -1.919672079384326935e-02 -4.382029920816421509e-02 -8.122615516185760498e-03 1.053688582032918930e-02 -2.956131100654602051e-02 1.460815255995839834e-04 3.229885548353195190e-02 -8.815313340164721012e-04 -1.611997932195663452e-02 7.367922924458980560e-03 -1.368616241961717606e-03 -7.412082049995660782e-03 -7.143228431232273579e-04 6.610100972466170788e-04 -2.666286006569862366e-02 9.495634585618972778e-04 3.967705741524696350e-02 1.426977664232254028e-02 2.489854814484715462e-04 -2.900765836238861084e-02 -4.242203012108802795e-02 -1.209681667387485504e-02 3.687970712780952454e-02
-4.567462578415870667e-02 1.164779649116098881e-03 1.122052222490310669e-02 8.150118403136730194e-03 -8.373735472559928894e-03 -1.580530591309070587e-02 -4.973026225343346596e-04 -1.733351126313209534e-02 -6.099112797528505325e-04 -7.916992530226707458e-03 1.845042593777179718e-02 4.142612451687455177e-04 1.120694167912006378e-02 1.951090246438980103e-02 -9.844170417636632919e-04 -2.422222308814525604e-02 -7.161603425629436970e-04 1.580697135068476200e-04 -6.278272252529859543e-03 1.680157333612442017e-02 2.787286415696144104e-03 1.197460573166608810e-03 3.876757621765136719e-02 2.580454014241695404e-02 2.562973240856081247e-04 -1.151914335787296295e-02 -3.090367466211318970e-02 6.571713835000991821e-02 -1.385959447361528873e-03 8.737914031371474266e-04 -5.839605364599265158e-05 7.835604250431060791e-02 -2.210259437561035156e-02 2.391897700726985931e-02 -2.206617407500743866e-02 -5.383092537522315979e-02 -3.937421715818345547e-04 -6.947917281650006771e-04 1.049589336616918445e-04 7.670034468173980713e-02 1.211172807961702347e-02 -5.848215147852897644e-02 -1.359535235678777099e-04 8.736526797292754054e-05 3.364310786128044128e-02 -1.511971652507781982e-02 6.585036963224411011e-02 2.694465965032577515e-02 -5.784975364804267883e-04 -2.990600885823369026e-03 5.224237591028213501e-02 4.681692644953727722e-02 1.210856251418590546e-02 -2.523294417187571526e-03 -4.511670558713376522e-04 -3.288070857524871826e-02 1.173544078483246267e-04 2.055870369076728821e-03 2.209372259676456451e-02 -1.478120405226945877e-02 -3.574134409427642822e-02 3.737418353557586670e-02 -5.828490108251571655e-02 3.175525926053524017e-03 1.171987354755401611e-01 2.961961738765239716e-02 -7.270190864801406860e-03 -1.551146153360605240e-03 -2.087294310331344604e-02 -1.522553618997335434e-02 6.669808062724769115e-04 -1.780407968908548355e-03 -1.066137454472482204e-03 -2.680022735148668289e-03 1.172019634395837784e-03 -3.737970069050788879e-02 -5.432844907045364380e-02 5.702803842723369598e-03 -1.148693356662988663e-02 -7.537422789027914405e-05 1.009827246889472008e-03 7.963060401380062103e-03 2.338223566766828299e-04 -1.104505173861980438e-02 2.395066805183887482e-02 -1.048824982717633247e-03 8.957012905739247799e-04 6.278141401708126068e-03 -3.779834881424903870e-02 5.206107348203659058e-02 4.138258285820484161e-03 1.696059480309486389e-02 -1.483080326579511166e-03 -6.729171425104141235e-02 -2.205308119300752878e-04 4.425272054504603148e-04 -2.018660679459571838e-02 -3.661790117621421814e-02 8.794954919721931219e-05 5.427227588370442390e-04 -7.754456251859664917e-03 -7.112884195521473885e-04 6.476279348134994507e-03 1.040695933625102043e-04 3.447046328801661730e-04 1.140984334051609039e-02 -2.977947518229484558e-02 2.057676762342453003e-02 3.654211468528956175e-04 5.537605611607432365e-04 4.961124504916369915e-04 -1.502467853242706042e-06 4.885951522737741470e-03 5.053277313709259033e-02 5.575543764280155301e-05 -3.468966111540794373e-02 -1.055059954524040222e-03 3.994738799519836903e-04 -2.284206263720989227e-02 -2.953424118459224701e-03 -2.166320011019706726e-02 -2.236387517768889666e-04 -3.134985687211155891e-03 -4.038587585091590881e-02 9.910567896440625191e-04 3.943249466829001904e-04 8.746833354234695435e-02 -9.938925504684448242e-03 3.846323117613792419e-02 -1.088189892470836639e-03 -1.836854778230190277e-02 -7.118106586858630180e-04 2.114248648285865784e-02 -5.098499823361635208e-03 4.457029700279235840e-02 2.874720084946602583e-04 3.657992929220199585e-04 -3.866094339173287153e-04 2.777798217721283436e-04 -1.494002528488636017e-02 3.971098456531763077e-03 -1.384768635034561157e-03 -1.309583662077784538e-03 -1.945059560239315033e-02 -3.061415045522153378e-04 9.727996075525879860e-04 -6.491282582283020020e-02 4.366420675069093704e-03 8.391810115426778793e-05 2.289519645273685455e-02 9.116699919104576111e-03 -1.011922061443328857e-01 9.855703683570027351e-04 -7.721083820797502995e-04 -2.682238072156906128e-02 2.021756808971986175e-04 -1.514123845845460892e-02 5.945175653323531151e-04 2.764596603810787201e-03 4.237786924932152033e-05 1.415287107229232788e-01 -3.090435639023780823e-02 -9.622902609407901764e-03 2.764452248811721802e-02 -1.706889597699046135e-04 -3.518870507832616568e-04 -3.903329197783023119e-04 -6.255848333239555359e-03 -1.224825740791857243e-03 -1.339574810117483139e-03 -1.551670720800757408e-04 -9.172854013741016388e-03 4.184258356690406799e-02 -2.923642843961715698e-02 -1.272710226476192474e-02 -4.352124524302780628e-04 -1.776805333793163300e-02 1.209866907447576523e-02 -5.835320334881544113e-04 1.727022044360637665e-02 -2.320788480574265122e-04 -3.122599155176430941e-04 8.664368651807308197e-04 2.261342015117406845e-04 3.065273165702819824e-02 1.048251651809550822e-04 3.824323881417512894e-03 4.584826994687318802e-03 -5.582546815276145935e-02 7.146764546632766724e-04 -4.513060301542282104e-02 1.835147477686405182e-02 2.430973760783672333e-02 1.802019396563991904e-04 2.458651124470634386e-06 -9.654310997575521469e-04 5.225681141018867493e-02 -3.244910330977290869e-04 2.267696545459330082e-04 5.641171708703041077e-03 2.049744315445423126e-02 -4.491764679551124573e-02 3.399131447076797485e-02 2.622312121093273163e-02 1.668171171331778169e-04 7.273674011230468750e-03 6.832641665823757648e-04 1.326953526586294174e-03 8.773897774517536163e-03 5.862804246135056019e-04 -1.443862821906805038e-02 5.338559276424348354e-05 3.779396787285804749e-02 9.601267054677009583e-03 2.527436614036560059e-02 -7.422986440360546112e-03 -1.624132879078388214e-02 -5.234090238809585571e-02 1.121923979371786118e-02 5.785183748230338097e-04 1.315707713365554810e-02 -3.807106113526970148e-04 -3.778370469808578491e-02 1.091174417524598539e-04 -9.863751940429210663e-03 1.991637516766786575e-03 -1.222687889821827412e-03 2.263048104941844940e-02 -1.480102632194757462e-02 3.606820851564407349e-02 3.914278931915760040e-03 -5.360649665817618370e-04 -1.483970601111650467e-02 -1.671526208519935608e-02 -2.038563974201679230e-02 1.231668889522552490e-02 1.721873320639133453e-02 2.752562239766120911e-02 3.883485042024403811e-04 1.646199449896812439e-02 -9.370043408125638962e-04 1.793546107364818454e-05 3.235869109630584717e-02 5.031443433836102486e-04 9.982213377952575684e-03 8.058343082666397095e-04 6.933977419976145029e-05 -1.262734271585941315e-02 -6.453222595155239105e-04 1.397582795470952988e-02 1.932176761329174042e-03 1.565343001857399940e-03 -1.717337220907211304e-02 6.947246193885803223e-02 9.896097704768180847e-03 1.983436569571495056e-02
1.441357471048831940e-02 3.771310439333319664e-04 5.993020534515380859e-02 2.202435582876205444e-02 4.827774129807949066e-03 -2.864828146994113922e-02 1.070456528395880014e-05 -1.322910375893115997e-02 -9.431890794076025486e-04 7.076221983879804611e-03 6.474389228969812393e-03 2.876010257750749588e-04 4.800161719322204590e-02 9.107206016778945923e-03 -3.133412974420934916e-04 4.952802136540412903e-02 3.446448827162384987e-04 -1.985146082006394863e-05 -5.916478112339973450e-03 -1.363753993064165115e-02 -9.945099242031574249e-03 -4.419584583956748247e-04 9.660641662776470184e-03 1.834394037723541260e-02 6.074117030948400497e-03 -2.472564764320850372e-02 -9.565241634845733643e-03 -2.946352213621139526e-02 -1.984366774559020996e-02 -5.266825319267809391e-04 -6.309291347861289978e-04 -3.047606535255908966e-02 2.940261922776699066e-02 -1.656306535005569458e-02 1.303504873067140579e-02 5.612327717244625092e-03 -2.683289640117436647e-04 5.185478366911411285e-04 -2.712533459998667240e-04 3.220916911959648132e-02 -4.902391508221626282e-02 -1.767570152878761292e-02 2.385757834417745471e-04 -7.258439436554908752e-04 2.031413465738296509e-02 2.060133777558803558e-02 -5.310028791427612305e-02 3.286081831902265549e-03 1.094197737984359264e-03 -9.481608867645263672e-03 3.496124222874641418e-02 2.673973329365253448e-02 1.360782422125339508e-02 6.730555556714534760e-03 9.345778962597250938e-04 3.173842653632164001e-02 -7.735245744697749615e-04 9.767955169081687927e-03 3.742316504940390587e-03 -1.132034929469227791e-03 -1.391918119043111801e-02 -1.106703653931617737e-02 -2.196313254535198212e-02 -3.580138436518609524e-04 2.404863946139812469e-03 6.120855454355478287e-03 -1.576183177530765533e-02 -1.430641277693212032e-03 -2.550496160984039307e-02 -1.800180040299892426e-02 6.480072897829813883e-06 1.400542794726788998e-03 3.213388845324516296e-04 2.451268769800662994e-02 6.244833930395543575e-04 -9.445051662623882294e-03 -5.100480630062520504e-04 3.999712318181991577e-02 -1.205118652433156967e-02 8.471618057228624821e-04 5.677132285200059414e-04 -1.467004045844078064e-02 -2.898919337894767523e-04 2.964097820222377777e-02 3.063099458813667297e-02 -2.016273792833089828e-03 -5.855332128703594208e-04 1.033379510045051575e-02 -1.115654595196247101e-02 2.584119327366352081e-02 -2.148398570716381073e-02 5.971010774374008179e-03 -1.228412846103310585e-03 -1.012822613120079041e-02 3.481333260424435139e-04 1.799956371542066336e-04 -5.855745449662208557e-02 -3.819559887051582336e-02 -4.330065276008099318e-04 3.308672690764069557e-03 2.152490243315696716e-02 1.152087119407951832e-03 9.913865476846694946e-03 -1.263957237824797630e-03 4.371135728433728218e-04 -5.605135485529899597e-02 1.100490055978298187e-02 1.947418972849845886e-02 -1.059117566910572350e-04 -1.211206836160272360e-04 -8.399062207899987698e-04 -2.103984152199700475e-04 1.910645142197608948e-02 8.609134703874588013e-03 -1.237521064467728138e-04 2.152783982455730438e-02 -6.357738748192787170e-04 -9.239040664397180080e-04 3.878196701407432556e-02 6.968552042962983251e-05 -1.295863091945648193e-02 3.568819956853985786e-04 9.703697636723518372e-03 -2.166279591619968414e-02 -3.117239661514759064e-02 -1.306455815210938454e-03 -7.246077805757522583e-02 -8.920974796637892723e-04 7.064085453748703003e-03 5.122925504110753536e-04 2.448343858122825623e-02 -2.886131405830383301e-04 3.910339437425136566e-03 -3.210392966866493225e-02 1.697041676379740238e-03 -2.020381763577461243e-02 1.075404509902000427e-02 -1.201948733069002628e-03 2.088835390168242157e-05 6.569184362888336182e-03 2.585686743259429932e-03 -2.042318135499954224e-02 -3.431127406656742096e-04 2.014280855655670166e-02 -1.567934959894046187e-04 -1.692900987109169364e-04 3.730401862412691116e-03 -2.654923312366008759e-02 -2.729693369474261999e-04 -3.237133845686912537e-03 2.081648819148540497e-02 -3.854848211631178856e-03 1.248509390279650688e-03 -6.183497589518083259e-06 -2.989881858229637146e-02 1.079955021850764751e-03 -6.983194034546613693e-03 -1.308949867961928248e-04 -1.091896047000773251e-04 5.978778935968875885e-04 -4.071042407304048538e-03 3.157155588269233704e-02 2.028742246329784393e-02 2.562436275184154510e-03 3.561483463272452354e-04 -6.800971459597349167e-04 3.878028364852070808e-04 -2.426157146692276001e-02 -2.807776629924774170e-02 -1.176547011709772050e-04 8.516360539942979813e-04 5.038544535636901855e-02 8.924578316509723663e-03 -2.771265339106321335e-03 -4.317554458975791931e-02 3.766228619497269392e-04 -1.183246634900569916e-02 -1.081480085849761963e-02 -5.183233042771462351e-06 -1.243173028342425823e-03 -1.219592668348923326e-04 -3.909666556864976883e-04 9.174703154712915421e-05 8.400555088883265853e-05 1.591876894235610962e-02 1.432053046301007271e-03 1.941403560340404510e-02 6.846875883638858795e-03 3.157624974846839905e-02 -1.540673983981832862e-04 -1.819469965994358063e-02 -2.539447695016860962e-02 2.038769237697124481e-02 8.544855518266558647e-04 -6.365598528645932674e-04 -1.687272888375446200e-04 -8.031035773456096649e-03 2.648764930199831724e-04 -5.271321278996765614e-04 -1.295820809900760651e-02 2.077722176909446716e-02 -5.473787896335124969e-03 3.608971601352095604e-03 -3.953718114644289017e-03 2.505443408153951168e-04 9.195632301270961761e-03 -6.803711876273155212e-04 -3.246864071115851402e-03 1.755416020750999451e-02 -4.244408628437668085e-04 2.868674928322434425e-03 -5.944070289842784405e-04 -1.532551716081798077e-03 -2.158968895673751831e-02 8.467816747725009918e-03 3.917546477168798447e-03 1.304240804165601730e-02 -8.256710134446620941e-03 -5.516651086509227753e-03 -1.363588089589029551e-04 -1.428572181612253189e-02 2.748258993960916996e-04 8.446231484413146973e-03 4.754547262564301491e-04 -4.254323616623878479e-02 -8.094152808189392090e-02 -5.024640704505145550e-04 1.722196489572525024e-02 -1.894504949450492859e-02 3.038491588085889816e-03 -5.028728861361742020e-03 -1.032795291393995285e-03 -1.678242161870002747e-02 1.119099906645715237e-03 3.409368172287940979e-02 -4.696494899690151215e-03 1.516590360552072525e-02 1.736984215676784515e-02 -1.970439770957455039e-04 -6.910233758389949799e-03 -8.363224333152174950e-04 1.313923671841621399e-02 1.390879624523222446e-03 8.725146471988409758e-05 -2.317688986659049988e-02 -3.106828662566840649e-04 2.857127983588725328e-04 -6.232141330838203430e-02 5.159418215043842793e-04 -1.663136109709739685e-02 2.002492547035217285e-02 -8.296626619994640350e-04 -5.841327458620071411e-02 -6.568471342325210571e-02 2.057080529630184174e-02 -1.560299657285213470e-02
1.786060072481632233e-02 -1.844703365350142121e-04 1.065045408904552460e-02 1.483219768851995468e-02 -3.207310661673545837e-02 4.389301314949989319e-02 -3.973329730797559023e-04 -1.840495318174362183e-02 4.185087746009230614e-04 6.389128975570201874e-04 8.878877386450767517e-03 4.093513998668640852e-04 7.434761617332696915e-03 -4.121251404285430908e-03 8.084226465143729001e-06 4.894562298431992531e-04 -1.448164577595889568e-03 3.698989457916468382e-04 2.979342266917228699e-02 1.813984662294387817e-02 5.436228588223457336e-03 1.315456465817987919e-03 1.190871559083461761e-02 7.761964108794927597e-03 4.161522723734378815e-03 -1.778252422809600830e-02 -3.927720710635185242e-03 1.100040413439273834e-02 1.583186909556388855e-02 4.447671526577323675e-04 3.620948700699955225e-04 1.426968909800052643e-02 -1.338182762265205383e-02 1.027915626764297485e-02 -3.451048396527767181e-03 3.701588138937950134e-02 8.619390428066253662e-04 -1.945294061442837119e-04 -7.221114356070756912e-05 6.402340251952409744e-03 -2.540194615721702576e-02 2.185057289898395538e-02 -4.358089936431497335e-04 2.300203777849674225e-04 -1.116103678941726685e-02 2.766574360430240631e-02 -1.173486653715372086e-02 -1.395814307034015656e-02 -6.341920816339552402e-04 4.047922266181558371e-04 -1.383518800139427185e-02 -1.484492793679237366e-02 -8.628712967038154602e-03 -1.292016357183456421e-02 -1.826373772928491235e-05 1.156834140419960022e-02 -5.937524256296455860e-04 -1.913242507725954056e-03 -1.133269909769296646e-02 1.440442167222499847e-02 -6.642350554466247559e-02 8.382671512663364410e-03 9.451939724385738373e-03 1.091535203158855438e-02 -8.216523565351963043e-04 -4.753292072564363480e-03 6.081730127334594727e-03 -7.774342666380107403e-04 -4.022397473454475403e-02 8.915840648114681244e-03 5.057446469436399639e-05 -1.106434967368841171e-03 4.591543984133750200e-04 1.490277331322431564e-02 -8.340686908923089504e-04 -1.154534611850976944e-02 -3.666162118315696716e-02 -7.785026449710130692e-03 1.267380639910697937e-02 -4.548243305180221796e-04 5.858854274265468121e-04 -3.251371160149574280e-02 -9.359214454889297485e-04 -1.350200828164815903e-02 -2.443378791213035583e-02 4.137915966566652060e-04 -2.716785820666700602e-04 -2.684729115571826696e-04 1.784107461571693420e-02 -8.546168915927410126e-03 1.415553130209445953e-02 1.437555998563766479e-02 1.298842858523130417e-02 -3.759790211915969849e-02 -3.733216435648500919e-04 -8.979703125078231096e-06 -9.974526474252343178e-04 1.903981901705265045e-02 -2.883720117097254843e-05 2.565335482358932495e-02 -1.702576503157615662e-02 3.728070005308836699e-04 -6.852741353213787079e-03 -2.902880660258233547e-04 6.821213173680007458e-04 2.146755158901214600e-02 6.013377103954553604e-03 6.270354986190795898e-02 7.890943379607051611e-05 5.953738582320511341e-04 -5.908646271564066410e-04 1.233729533851146698e-03 -1.465486921370029449e-02 -3.857865184545516968e-02 1.118338084779679775e-03 2.671123668551445007e-02 -7.644056313438341022e-05 -1.058836001902818680e-03 -1.098698191344738007e-02 3.855878859758377075e-02 3.945077583193778992e-02 7.297524716705083847e-04 -2.386346645653247833e-02 -9.367285296320915222e-03 -3.978672623634338379e-02 7.288734195753931999e-04 2.639036101754754782e-04 1.548326201736927032e-02 7.966420613229274750e-03 -7.670436752960085869e-04 3.477464197203516960e-03 -4.698526463471353054e-04 1.603468437679111958e-03 2.833998575806617737e-02 -1.867047976702451706e-03 1.824443810619413853e-03 2.488851919770240784e-02 9.168581891572102904e-05 1.080169458873569965e-03 4.507422912865877151e-03 1.736750081181526184e-02 6.641865242272615433e-03 2.777253102976828814e-04 3.983623161911964417e-02 3.329942119307816029e-04 -9.372397325932979584e-04 1.654894463717937469e-02 -3.098734468221664429e-02 2.369415597058832645e-05 3.823493141680955887e-03 -2.137033035978674889e-03 -1.862375414930284023e-03 2.609897928778082132e-04 3.750533214770257473e-04 1.446932274848222733e-02 -7.656449452042579651e-04 -9.192262776196002960e-03 -1.175669953227043152e-03 4.752704116981476545e-04 1.140889246016740799e-03 -6.916784215718507767e-03 1.458681002259254456e-02 2.242869883775711060e-02 4.004750400781631470e-02 2.135844260919839144e-04 5.610950756818056107e-05 -3.603484365157783031e-04 6.145830266177654266e-03 -8.299522101879119873e-03 -9.478046558797359467e-05 7.447976386174559593e-04 -3.521474078297615051e-02 6.495929323136806488e-03 7.824383676052093506e-03 -4.307004809379577637e-02 -4.766744386870414019e-04 1.048539392650127411e-02 -2.213089540600776672e-02 4.526609263848513365e-04 -2.530852705240249634e-02 1.264527323655784130e-03 -1.834946306189522147e-04 6.028934731148183346e-04 -1.857614843174815178e-03 -1.629389449954032898e-02 1.167842056020163000e-04 7.972248829901218414e-03 -1.223838655278086662e-03 -1.205849368125200272e-02 1.416685990989208221e-04 -1.227169577032327652e-02 -1.002876646816730499e-02 -2.659915946424007416e-03 2.139943098882213235e-04 6.884782342240214348e-04 7.848812383599579334e-04 -7.603908888995647430e-03 1.257538096979260445e-03 -1.326195888395886868e-05 1.557501731440424919e-03 -5.037061404436826706e-03 1.685853488743305206e-02 -5.486526526510715485e-03 -2.455560117959976196e-02 6.183144287206232548e-04 -3.880421817302703857e-02 2.949007612187415361e-04 -1.062399148941040039e-02 1.573088951408863068e-02 -1.055661778082139790e-04 -1.677120104432106018e-02 -1.225095475092530251e-04 -1.353901531547307968e-02 -3.570574522018432617e-02 1.543716061860322952e-02 -1.040462404489517212e-02 -2.751364000141620636e-02 1.655850186944007874e-02 1.370980497449636459e-02 4.904054367216303945e-05 -5.010693799704313278e-03 2.962888975162059069e-04 -1.651536207646131516e-03 5.309368134476244450e-04 -2.757104486227035522e-02 -8.732683025300502777e-03 6.770448526367545128e-04 -3.755656303837895393e-03 -4.921379731968045235e-04 -3.093662671744823456e-03 9.289855137467384338e-03 -3.194020246155560017e-05 -1.491281762719154358e-02 1.450036186724901199e-02 -1.564182527363300323e-02 -3.712330386042594910e-02 -1.084276661276817322e-02 1.870234869420528412e-02 -4.067934060003608465e-05 -5.974258761852979660e-03 2.949881718450342305e-06 -2.198847569525241852e-02 1.956470310688018799e-03 -4.830324032809585333e-04 -1.629092171788215637e-02 1.660460111452266574e-04 7.661726558580994606e-04 2.807388082146644592e-02 4.489115090109407902e-04 -6.083838175982236862e-03 -1.879831979749724269e-04 3.008193161804229021e-04 2.235652180388569832e-03 -1.590804755687713623e-02 -2.152877394109964371e-03 -5.451217293739318848e-03
2.646203711628913879e-02 5.326269310899078846e-04 -1.920031197369098663e-02 7.366694509983062744e-02 -4.325451701879501343e-02 4.307288303971290588e-02 3.774275537580251694e-04 4.969065263867378235e-02 -3.583238139981403947e-05 -1.607026532292366028e-02 2.799571666400879622e-04 -2.049000177066773176e-04 -3.922596946358680725e-02 -7.843035273253917694e-03 -1.514294399385107681e-05 8.654319681227207184e-03 -2.462082011334132403e-05 -1.285550679313018918e-04 1.516804657876491547e-02 2.463077753782272339e-02 4.385423846542835236e-03 6.176898023113608360e-04 1.792247220873832703e-02 -1.769674243405461311e-03 1.524567976593971252e-02 3.838344290852546692e-02 -2.094601467251777649e-02 -6.516177090816199780e-04 -1.611766964197158813e-02 1.568970619700849056e-04 1.267005922272801399e-03 3.197056427597999573e-02 -1.056292187422513962e-02 -5.546490103006362915e-02 -5.198809504508972168e-02 8.685007691383361816e-02 5.939721013419330120e-04 -6.993682472966611385e-05 1.080120797269046307e-03 1.038406789302825928e-02 3.846056386828422546e-02 2.295862184837460518e-03 2.672928094398230314e-04 1.640808768570423126e-04 -2.202382311224937439e-03 -1.484497264027595520e-02 1.545957662165164948e-02 -2.564366208389401436e-03 -2.589725190773606300e-04 -6.268090009689331055e-02 -4.731689766049385071e-02 2.061656443402171135e-03 -2.587583474814891815e-02 -2.525785379111766815e-02 4.963459214195609093e-04 1.641509495675563812e-02 -3.619991184677928686e-04 -7.740260101854801178e-03 -3.484955430030822754e-02 -1.268305536359548569e-02 -1.137538906186819077e-02 -3.789839148521423340e-02 -4.282037261873483658e-03 3.285035025328397751e-03 3.181302174925804138e-02 9.049471118487417698e-04 2.207241579890251160e-02 -5.755044985562562943e-04 9.676124900579452515e-03 2.058410458266735077e-02 3.038464055862277746e-04 6.353389471769332886e-04 -3.705940252984873950e-05 -1.497968286275863647e-02 -1.818438759073615074e-04 -1.121496898122131824e-03 1.475908234715461731e-02 -1.461287494748830795e-02 2.279578894376754761e-02 -6.872271769680082798e-04 -1.112028956413269043e-03 2.149946428835391998e-02 -7.006822852417826653e-04 -6.174998270580545068e-05 1.194870099425315857e-02 7.207884336821734905e-04 -7.427833625115454197e-04 -1.190747134387493134e-02 1.317043323069810867e-02 7.603449281305074692e-03 -9.964154101908206940e-03 -2.437829785048961639e-02 -6.574606057256460190e-03 1.937420852482318878e-02 3.004707104992121458e-04 -4.247195029165595770e-04 -1.384247466921806335e-02 1.287575718015432358e-02 3.058073634747415781e-04 -1.733443886041641235e-02 -7.694987952709197998e-02 1.060938229784369469e-04 -7.149316370487213135e-03 4.116623313166201115e-04 -5.535313393920660019e-04 1.790443435311317444e-02 -2.401462569832801819e-02 3.775923699140548706e-02 -1.701410947134718299e-04 4.289099597372114658e-04 -3.660361981019377708e-04 -7.394248386844992638e-04 -1.311211381107568741e-02 -1.939953886903822422e-03 9.262573439627885818e-05 4.985219240188598633e-02 -6.428574561141431332e-04 8.802938391454517841e-04 1.364226359874010086e-02 1.096481643617153168e-02 5.560699850320816040e-03 -5.746437236666679382e-04 -3.346060169860720634e-03 -2.162512391805648804e-03 -1.288468949496746063e-02 -7.806489593349397182e-04 -3.998315706849098206e-02 -3.682131879031658173e-03 -1.722654141485691071e-02 1.627275632927194238e-04 -3.453129529953002930e-02 8.010204765014350414e-04 -5.169554147869348526e-03 8.548660203814506531e-03 7.079412695020437241e-03 -2.036838792264461517e-02 -1.331336889415979385e-02 1.370859332382678986e-03 -1.111949750338681042e-04 -5.029769241809844971e-02 3.310471028089523315e-02 5.103438347578048706e-02 6.006863550283014774e-04 -6.510967761278152466e-02 6.717065698467195034e-04 -1.242999685928225517e-03 -9.617386013269424438e-02 1.120210904628038406e-02 6.827324395999312401e-04 3.406225144863128662e-02 -2.784021385014057159e-02 1.688271528109908104e-03 1.182619016617536545e-03 -2.245517825940623879e-04 -4.196468740701675415e-02 8.703116327524185181e-05 -3.547604009509086609e-02 -3.339721006341278553e-04 2.151228982256725430e-04 -8.148463093675673008e-04 2.276166900992393494e-02 -1.358422078192234039e-02 -9.084146469831466675e-03 -2.247726079076528549e-03 -1.301649026572704315e-04 2.062369458144530654e-04 -1.781110477168112993e-04 -2.445826493203639984e-02 -7.840558141469955444e-02 3.174263401888310909e-04 2.566660987213253975e-04 2.516104467213153839e-02 2.195881213992834091e-03 1.681529101915657520e-03 2.138753607869148254e-02 1.170264906249940395e-03 -3.293744102120399475e-02 2.140939794480800629e-02 -2.154788817279040813e-04 2.741161547601222992e-02 -4.183367491350509226e-05 7.171549368649721146e-04 -8.972357027232646942e-04 -1.177621306851506233e-04 4.253006773069500923e-04 -1.098663924494758248e-04 -3.113074973225593567e-02 -4.068995360285043716e-03 -1.272458676248788834e-02 2.059411344816908240e-04 -4.043715447187423706e-02 7.305270992219448090e-03 -2.187797054648399353e-02 -5.949618062004446983e-04 -1.448549483029637486e-05 -4.076240875292569399e-04 1.467452477663755417e-02 -2.765256504062563181e-04 -7.691715145483613014e-04 -6.872980389744043350e-03 -1.251694513484835625e-03 4.238227382302284241e-03 2.343147620558738708e-02 -5.008374154567718506e-02 -8.457499789074063301e-04 -7.428284734487533569e-03 -7.407318917103111744e-04 -3.260164055973291397e-03 -4.263146221637725830e-02 -7.575189811177551746e-04 -1.176387257874011993e-02 -5.331083666533231735e-04 1.709285192191600800e-02 -4.162781313061714172e-02 9.278415702283382416e-03 -2.204949967563152313e-02 9.608997963368892670e-03 2.993467822670936584e-02 -2.126772701740264893e-02 -4.079732461832463741e-04 -2.308713272213935852e-02 -1.795786083675920963e-03 1.783862709999084473e-02 -1.093135942937806249e-04 3.182521089911460876e-02 -5.961146578192710876e-02 4.349655646365135908e-04 9.934938512742519379e-03 2.036190032958984375e-02 8.247204124927520752e-03 -5.183784291148185730e-03 -6.650374853052198887e-04 -3.322272747755050659e-02 -9.388299658894538879e-03 -8.457770571112632751e-03 -9.494588710367679596e-03 -1.543977670371532440e-02 -3.224364668130874634e-02 3.731063334271311760e-04 -3.541037905961275101e-03 6.041934248059988022e-04 4.919444024562835693e-02 -2.879592822864651680e-03 9.111319668591022491e-04 -5.598608776926994324e-02 3.514863492455333471e-04 -1.581840333528816700e-03 -3.583478927612304688e-02 1.019039245875319466e-05 -3.093237057328224182e-02 -3.245004266500473022e-02 -4.107279237359762192e-04 1.099635753780603409e-02 4.381200298666954041e-02 -1.164671499282121658e-02 -6.205732002854347229e-03
7.070455700159072876e-03 5.863090627826750278e-04 -4.581722989678382874e-02 4.297364968806505203e-03 -3.317952505312860012e-04 1.347638014703989029e-02 -7.928105187602341175e-04 2.956154197454452515e-02 -5.688289529643952847e-04 -5.016309767961502075e-02 -8.359863422811031342e-03 -4.226067976560443640e-04 5.600390955805778503e-03 2.854605950415134430e-02 -1.291657390538603067e-04 1.515918225049972534e-02 -1.315772078669397160e-05 -5.614585825242102146e-04 -9.980055503547191620e-03 4.702231287956237793e-02 8.910880424082279205e-03 -1.264671664102934301e-05 9.531124681234359741e-02 -2.082287147641181946e-02 -5.040539894253015518e-03 5.633990745991468430e-03 7.568282075226306915e-03 2.489808388054370880e-02 -1.227636821568012238e-02 -9.647318620409350842e-06 -3.813389630522578955e-04 -2.379351295530796051e-02 -5.511920433491468430e-03 -7.661117240786552429e-03 1.406454667448997498e-02 -1.917870901525020599e-02 9.588722605258226395e-04 -1.086778356693685055e-03 -9.180966881103813648e-04 -3.031416796147823334e-02 -5.180744454264640808e-03 -9.402066469192504883e-03 4.792796098627150059e-04 3.614978922996670008e-04 -1.703584194183349609e-02 -9.773558005690574646e-03 -1.409012079238891602e-02 2.003159932792186737e-02 -1.320616429438814521e-04 1.527244783937931061e-02 -9.397226385772228241e-03 -3.909154608845710754e-02 -6.578394025564193726e-02 5.647851899266242981e-02 -1.066746335709467530e-04 1.275231363251805305e-03 5.266158841550350189e-04 1.864735223352909088e-02 -1.645548082888126373e-02 4.925520624965429306e-04 2.590844780206680298e-02 1.313633751124143600e-02 3.662111982703208923e-02 -4.851067811250686646e-02 -4.093554243445396423e-02 1.269854232668876648e-02 -4.226533696055412292e-03 -7.314272224903106689e-04 1.170054078102111816e-02 4.809079691767692566e-02 -6.344604189507663250e-04 2.148530678823590279e-03 -9.506439528195187449e-05 -4.195833578705787659e-03 -5.051040789112448692e-04 -4.456933587789535522e-02 2.225855365395545959e-03 -3.911804780364036560e-02 -5.891938135027885437e-02 -4.106820415472611785e-05 -7.082643569447100163e-04 1.237642252817749977e-03 3.086442011408507824e-04 1.370531413704156876e-02 1.135272905230522156e-02 3.628960985224694014e-04 -3.638524140114895999e-05 1.999921398237347603e-03 -7.846090942621231079e-02 1.120852585881948471e-02 -1.544179208576679230e-02 -2.308369986712932587e-02 1.958906836807727814e-02 -3.178858757019042969e-02 -7.447518146364018321e-05 -6.764482241123914719e-04 1.431748829782009125e-02 4.168821126222610474e-02 7.074357708916068077e-04 -4.038336686789989471e-03 -1.800533384084701538e-03 -2.143884048564359546e-04 1.510021276772022247e-03 2.115773895638994873e-05 8.310806879308074713e-05 -3.763609752058982849e-02 -1.020555011928081512e-02 -2.904115011915564537e-03 -6.656776531599462032e-04 1.330233790213242173e-04 -4.513295134529471397e-04 6.352519267238676548e-04 6.271485239267349243e-03 2.793803624808788300e-02 -3.247531712986528873e-04 3.814975731074810028e-03 3.126693191006779671e-04 8.205046760849654675e-04 -2.300521731376647949e-02 -2.710648253560066223e-02 -2.541899867355823517e-02 7.120497175492346287e-04 -5.366199836134910583e-02 -1.828394364565610886e-03 -2.226430177688598633e-02 4.978753277100622654e-04 4.014220554381608963e-03 -1.505649089813232422e-02 6.343163084238767624e-03 -1.046483987011015415e-03 -3.432566672563552856e-02 1.155158272013068199e-03 1.806037127971649170e-02 -3.483709692955017090e-02 -4.040973260998725891e-02 -8.211920969188213348e-03 2.820181660354137421e-03 1.197128876810893416e-04 9.609953849576413631e-05 2.771988220047205687e-04 -3.149930760264396667e-02 1.510928291827440262e-02 -1.060805283486843109e-03 5.372173711657524109e-02 -8.112461073324084282e-04 -7.691418431932106614e-05 1.956637948751449585e-02 2.879498060792684555e-03 -1.377291278913617134e-03 -2.544250339269638062e-03 3.642454277724027634e-03 2.170989289879798889e-03 1.362756243906915188e-03 7.058004848659038544e-04 -1.028216560371220112e-03 2.935084339696913958e-04 2.450971864163875580e-02 -1.048324862495064735e-03 -2.214565320173278451e-04 4.291181685402989388e-04 6.616104394197463989e-02 -1.023805700242519379e-02 -1.255597546696662903e-02 -1.515391096472740173e-02 -3.852140798699110746e-04 4.604989953804761171e-06 -1.606039586476981640e-03 -1.257531344890594482e-02 -1.050640456378459930e-02 -4.223994037602096796e-04 7.078609778545796871e-04 1.359987724572420120e-02 2.244207262992858887e-02 -1.139318570494651794e-02 -5.863482132554054260e-02 2.747237158473581076e-04 -3.397314250469207764e-02 8.826724253594875336e-03 7.960423827171325684e-04 -8.148293942213058472e-02 -5.137984990142285824e-04 -1.982563553610816598e-04 -3.715908678714185953e-04 5.427491851150989532e-04 1.227715797722339630e-02 5.436036153696477413e-04 -3.007678687572479248e-02 6.233472842723131180e-03 2.016037888824939728e-02 1.027700956910848618e-03 5.662900581955909729e-02 -7.649648468941450119e-04 -2.862806431949138641e-02 -1.475452445447444916e-04 1.494739903137087822e-03 1.123158726841211319e-04 1.695764251053333282e-02 1.187051529996097088e-04 3.789034963119775057e-04 1.422443194314837456e-03 -1.518973615020513535e-02 -4.660849273204803467e-02 -3.526291251182556152e-02 -1.868943311274051666e-02 -5.062869167886674404e-04 1.982780732214450836e-02 9.652293374529108405e-05 6.751520559191703796e-03 -2.406658604741096497e-02 -3.440730552028981037e-06 3.803653875365853310e-03 -2.404485567240044475e-04 -2.138653304427862167e-03 -1.658307947218418121e-02 1.568328775465488434e-02 1.622585766017436981e-02 -7.529777940362691879e-03 -3.408367186784744263e-02 -8.267232915386557579e-04 -9.756992221809923649e-05 1.404906343668699265e-02 -7.085370016284286976e-04 1.668157987296581268e-02 3.580262637115083635e-05 -1.186305307783186436e-03 2.612022683024406433e-02 1.079725334420800209e-03 3.977518528699874878e-03 5.228551104664802551e-02 2.131446963176131248e-03 7.150706369429826736e-03 -1.110090408474206924e-03 8.222705684602260590e-03 -6.533814594149589539e-03 3.675953671336174011e-02 4.196270834654569626e-03 -7.693910505622625351e-03 -1.764821633696556091e-02 1.671799400355666876e-04 -2.277558669447898865e-02 -7.627549348399043083e-04 -4.090932197868824005e-03 2.727806940674781799e-02 -6.883083842694759369e-04 -9.230075520463287830e-04 -8.991481445264071226e-05 1.298912451602518559e-03 5.416350904852151871e-03 8.752109715715050697e-04 -1.182103529572486877e-02 2.913153357803821564e-02 -1.726628106553107500e-04 1.341658830642700195e-02 -1.988577097654342651e-02 1.308677531778812408e-02 -4.343052394688129425e-03
8.576903492212295532e-03 -7.233286160044372082e-04 -1.659587398171424866e-02 -2.629435621201992035e-02 1.505553815513849258e-02 1.977340690791606903e-02 -9.192560683004558086e-04 -1.958597265183925629e-02 -8.247651858255267143e-04 2.273068577051162720e-02 -2.910798974335193634e-02 4.708129563368856907e-04 3.118089633062481880e-03 1.967401243746280670e-02 -3.285620186943560839e-04 -3.281052410602569580e-02 5.372414671001024544e-05 -2.907219750341027975e-04 -4.518089070916175842e-02 4.081604629755020142e-02 -1.948243193328380585e-02 1.067902659997344017e-03 2.225041761994361877e-02 2.305995859205722809e-02 -1.116024795919656754e-02 8.597714826464653015e-03 -2.690144628286361694e-02 3.787066414952278137e-02 -1.920935139060020447e-02 1.707696064841002226e-04 9.622917859815061092e-04 2.467633597552776337e-02 6.170115433633327484e-03 -1.282515469938516617e-02 -1.123152323998510838e-03 -8.826069533824920654e-03 -3.096626096521504223e-05 -9.678647620603442192e-04 4.122407117392867804e-04 1.158885285258293152e-02 3.228888660669326782e-02 -3.277397155761718750e-02 5.207209615036845207e-04 6.808910984545946121e-04 -1.472841762006282806e-02 9.327725507318973541e-03 -3.871551947668194771e-03 -3.413364291191101074e-02 8.448668813798576593e-05 -1.908661914058029652e-03 9.634235873818397522e-03 -2.128666965290904045e-03 -3.914336860179901123e-02 4.244577139616012573e-03 8.844567346386611462e-04 -1.112584117799997330e-02 7.590787572553381324e-05 1.061407197266817093e-02 -2.926495298743247986e-02 -3.513440955430269241e-03 6.723352521657943726e-02 -4.975625872611999512e-02 5.765808373689651489e-02 -5.288848280906677246e-02 -1.702782697975635529e-02 -1.438163599232211709e-04 -2.033946663141250610e-02 -5.273523856885731220e-04 5.360564682632684708e-03 2.248806320130825043e-02 -4.077074991073459387e-04 -3.583542071282863617e-03 -3.849921049550175667e-04 3.094717161729931831e-03 1.726000627968460321e-04 4.952198360115289688e-03 -7.407633587718009949e-03 1.636354997754096985e-02 -3.432668000459671021e-02 -1.456945028621703386e-04 -1.327851496171206236e-04 1.751890406012535095e-02 3.361900235177017748e-05 6.312045734375715256e-03 -4.357764124870300293e-02 -2.840753295458853245e-04 9.466951596550643444e-04 9.296223521232604980e-03 3.037027083337306976e-03 -1.445069257169961929e-02 -2.284174785017967224e-02 5.396321415901184082e-02 8.764644153416156769e-03 4.047273844480514526e-02 -2.840886591002345085e-04 -2.693076094146817923e-04 1.823885180056095123e-02 1.582541503012180328e-02 -3.223206440452486277e-04 -2.425950719043612480e-03 5.174248013645410538e-03 2.449668536428362131e-04 2.120260149240493774e-03 -8.930611656978726387e-04 4.829351964872330427e-04 1.639275252819061279e-02 -1.036124583333730698e-02 -9.029533714056015015e-03 1.093315891921520233e-03 -8.106177847366780043e-05 2.855421917047351599e-04 -3.429948410484939814e-04 2.620640210807323456e-03 1.377621758729219437e-02 9.176622843369841576e-04 -1.425465103238821030e-02 -5.136735489941202104e-05 -5.111424252390861511e-04 1.369153708219528198e-02 -4.986876621842384338e-03 4.528869874775409698e-03 -4.075898905284702778e-04 -6.235015112906694412e-03 3.487583994865417480e-02 -8.824914693832397461e-03 -2.534795494284480810e-04 -1.488230424001812935e-03 1.482524629682302475e-02 -4.508573934435844421e-02 3.194036835338920355e-04 9.631412685848772526e-04 8.658402366563677788e-04 1.906472491100430489e-03 1.928194984793663025e-02 1.575850509107112885e-02 -1.857958175241947174e-02 -5.624658893793821335e-03 -7.072641164995729923e-04 -1.510939182480797172e-04 -9.335033595561981201e-03 4.876977205276489258e-02 -7.472288608551025391e-02 -7.594465278089046478e-04 -1.972280879272148013e-04 1.085477764718234539e-03 7.251396309584379196e-04 1.089137140661478043e-02 -4.645861685276031494e-03 4.652953939512372017e-04 9.256359189748764038e-03 1.029102690517902374e-02 -8.885337971150875092e-03 -4.074804310221225023e-04 4.158414958510547876e-04 -6.933584064245223999e-02 -3.978681925218552351e-04 2.535400167107582092e-02 -2.447572478558868170e-04 2.566052717156708241e-05 -2.575271355453878641e-04 2.166673913598060608e-02 2.572286757640540600e-04 6.323632318526506424e-03 8.416580967605113983e-03 4.944152315147221088e-04 3.245309198973700404e-05 -2.855304628610610962e-04 2.564222924411296844e-02 7.302353624254465103e-03 -1.515995973022654653e-04 1.243427512235939503e-03 -2.606963040307164192e-03 7.991099730134010315e-03 3.211552684661000967e-04 -4.001074284315109253e-02 2.320057537872344255e-04 -8.834026753902435303e-02 -4.337729141116142273e-02 9.352849447168409824e-04 -4.153645597398281097e-03 6.048563518561422825e-04 2.730466803768649697e-07 -7.432760903611779213e-04 7.458746549673378468e-04 9.552440606057643890e-03 4.301460867282003164e-04 3.887872397899627686e-02 9.351857006549835205e-03 -5.712188407778739929e-02 4.852821803069673479e-05 -5.355888232588768005e-02 4.247095435857772827e-02 8.203290402889251709e-03 7.556149503216147423e-04 3.763459681067615747e-04 -5.885027931071817875e-04 -1.751046802382916212e-04 -1.402622088789939880e-03 -1.916918554343283176e-04 -5.254071205854415894e-03 3.971332311630249023e-02 -2.223797328770160675e-02 2.600342780351638794e-02 2.272798307240009308e-02 9.355974034406244755e-04 -2.969397976994514465e-02 -2.603801112854853272e-05 -1.695062220096588135e-02 3.893307596445083618e-02 -2.103117003571242094e-04 4.595654085278511047e-03 -3.507478322717361152e-05 -3.501788014546036720e-03 -1.290639117360115051e-02 -5.341554526239633560e-03 4.769085720181465149e-02 2.865849761292338371e-03 -6.490452587604522705e-02 3.966564312577247620e-02 3.739358799066394567e-04 -5.087695084512233734e-03 -9.264354011975228786e-04 2.485110238194465637e-02 -7.954236352816224098e-04 -1.785520697012543678e-03 2.318828552961349487e-02 -1.214880030602216721e-03 -4.697814211249351501e-02 1.805031485855579376e-02 -2.835135161876678467e-02 -7.862755097448825836e-03 -4.308788920752704144e-04 -4.688479751348495483e-02 8.954483782872557640e-04 -7.307666353881359100e-03 1.031793747097253799e-02 -1.331725250929594040e-02 2.614355273544788361e-02 1.063077477738261223e-03 2.859924361109733582e-02 1.047457219101488590e-03 1.701407693326473236e-02 2.000536210834980011e-02 -8.597219857620075345e-05 2.082997374236583710e-02 -1.577762304805219173e-04 -1.235406525665894151e-04 -3.488523513078689575e-02 -7.521794759668409824e-04 -1.936443336308002472e-02 1.635918952524662018e-02 1.083766110241413116e-04 4.552603513002395630e-02 1.041346974670886993e-02 1.768440706655383110e-03 8.536298264516517520e-05
-1.465104520320892334e-03 -4.832179693039506674e-04 -8.862643502652645111e-03 1.283921953290700912e-02 7.032053172588348389e-02 -2.568830363452434540e-02 9.874419774860143661e-04 -9.631352499127388000e-03 -7.136999047361314297e-04 -2.690375223755836487e-02 9.433333761990070343e-03 -5.803382009617052972e-05 -8.907936513423919678e-03 -7.120204158127307892e-03 -3.032175009138882160e-04 2.540896274149417877e-02 -1.903528172988444567e-04 -6.415222287614597008e-06 4.603798314929008484e-02 5.321275442838668823e-02 1.226336043328046799e-02 3.459247236605733633e-04 -5.526166781783103943e-02 2.724312013015151024e-03 6.640108302235603333e-03 -1.786059141159057617e-02 6.386690773069858551e-03 5.496055260300636292e-02 1.210473943501710892e-02 -5.936375819146633148e-04 1.038098591379821301e-03 -5.245539173483848572e-02 -1.155135873705148697e-02 -3.197475522756576538e-02 -1.067629642784595490e-02 9.581482037901878357e-03 -4.122222599107772112e-04 9.249035501852631569e-04 1.187132671475410461e-03 -1.539435237646102905e-02 7.523362338542938232e-02 3.762965649366378784e-02 -5.655606510117650032e-04 2.985805040225386620e-04 -5.821457877755165100e-02 6.138906814157962799e-03 -6.996796932071447372e-03 2.556789293885231018e-02 -1.023789081955328584e-05 6.329325493425130844e-03 -4.608248174190521240e-02 -9.954987326636910439e-04 7.483938708901405334e-03 2.904764749109745026e-02 -1.635719381738454103e-04 3.046073578298091888e-02 4.329408693592995405e-04 -5.886156111955642700e-03 -3.083555959165096283e-02 2.020308561623096466e-02 5.029201135039329529e-02 -8.578484505414962769e-02 1.104211285710334778e-01 -3.753565251827239990e-02 -1.823490299284458160e-02 2.519507333636283875e-02 1.302653364837169647e-02 -7.317163981497287750e-04 8.081861585378646851e-02 2.428824780508875847e-03 -3.858487471006810665e-04 1.023790217004716396e-03 4.260826390236616135e-04 -5.066768731921911240e-03 9.699050860945135355e-05 -3.253470361232757568e-02 4.572106525301933289e-02 -2.142207324504852295e-02 -3.396880999207496643e-02 4.367229121271520853e-05 -1.059463131241500378e-03 8.884774148464202881e-02 1.312094245804473758e-04 -4.746688064187765121e-03 6.920439656823873520e-03 -6.111573311500251293e-04 1.629073085496202111e-04 3.686524461954832077e-03 -4.967964813113212585e-02 -3.455221652984619141e-02 1.448026020079851151e-02 -2.752172760665416718e-02 -6.387248868122696877e-04 5.184595286846160889e-02 -1.299350115004926920e-04 6.546368240378797054e-04 1.684626750648021698e-02 -1.238423050381243229e-03 2.034405188169330359e-04 2.281679026782512665e-02 3.502438962459564209e-02 1.150635362137109041e-04 8.838347159326076508e-03 1.781422324711456895e-04 -1.841207384131848812e-03 -2.576128765940666199e-02 -8.034515194594860077e-03 -3.433454781770706177e-02 -9.989249520003795624e-04 -1.212408766150474548e-03 -6.871158257126808167e-04 4.009987460449337959e-04 1.175571326166391373e-02 -2.346243150532245636e-02 -1.068407582351937890e-04 -7.183056790381669998e-03 6.671295850537717342e-04 -2.727381979639176279e-05 -1.228298805654048920e-02 3.207540884613990784e-02 -7.439874112606048584e-02 -3.451953525654971600e-04 3.490020334720611572e-02 -5.192583426833152771e-02 -2.030852995812892914e-02 -1.799360325094312429e-04 -3.827421739697456360e-02 -4.302836954593658447e-03 1.668005064129829407e-02 1.332689280388876796e-04 4.300503060221672058e-02 1.298395916819572449e-03 2.310190349817276001e-02 7.221934944391250610e-02 1.914399862289428711e-02 1.190945133566856384e-02 1.826772093772888184e-02 2.244785573566332459e-04 9.336131915915757418e-05 1.625367067754268646e-02 3.963631391525268555e-02 -3.199322521686553955e-02 5.986494361422955990e-04 2.349223196506500244e-02 -2.009617310250177979e-04 3.760676481761038303e-04 1.567157730460166931e-02 -6.194312125444412231e-02 2.736114838626235723e-04 4.246349632740020752e-02 -1.387560460716485977e-02 1.004437077790498734e-02 -9.335788199678063393e-04 -5.059618852101266384e-04 -3.698662295937538147e-02 -3.730018506757915020e-04 -1.460707746446132660e-02 -2.614257391542196274e-04 -1.162154367193579674e-03 2.642530598677694798e-04 -6.857601925730705261e-03 -1.017651055008172989e-02 -8.431200985796749592e-04 1.690440624952316284e-02 2.130271168425679207e-03 -6.457589333876967430e-04 2.733599685598164797e-04 8.045373484492301941e-03 -3.346612909808754921e-03 -1.621287374291568995e-04 4.157136136200278997e-04 7.806723937392234802e-03 1.879657059907913208e-02 3.601226210594177246e-02 -2.343749394640326500e-03 6.410415517166256905e-04 -8.286634832620620728e-02 -2.959258668124675751e-02 -2.091727219521999359e-04 3.675253689289093018e-02 -2.345472021261230111e-04 8.799044007901102304e-05 -1.235275529325008392e-03 1.034129643812775612e-03 -4.936594050377607346e-03 4.476206086110323668e-04 -1.593554951250553131e-02 -3.912465646862983704e-03 -2.762555703520774841e-02 1.581814140081405640e-04 5.125163868069648743e-02 4.782706126570701599e-02 1.562138367444276810e-02 2.448143786750733852e-04 -5.903487544856034219e-05 -3.079990274272859097e-04 2.915818057954311371e-02 -2.958913100883364677e-04 6.808874895796179771e-04 -2.860627835616469383e-03 -1.511766668409109116e-02 1.027415134012699127e-02 3.692917153239250183e-02 -6.333600729703903198e-02 -2.161090233130380511e-04 -1.582198962569236755e-02 2.990741049870848656e-04 3.137001395225524902e-02 -1.095780916512012482e-02 -3.816251119133085012e-04 1.154381874948740005e-02 -3.610654312069527805e-05 2.358142472803592682e-02 -1.113675348460674286e-02 1.852514594793319702e-02 1.398082915693521500e-02 3.824332356452941895e-02 -1.569138281047344208e-02 2.732255868613719940e-02 5.863803671672940254e-04 1.905251666903495789e-02 -9.294810588471591473e-04 -4.084301739931106567e-02 -6.949438247829675674e-04 2.790473401546478271e-02 5.272966809570789337e-03 7.688097866775933653e-06 -3.853729739785194397e-02 -4.993591085076332092e-02 -3.767038462683558464e-03 -4.561081528663635254e-03 -4.425685983733274043e-05 -5.336804315447807312e-02 2.283914946019649506e-02 -5.375596880912780762e-02 -1.475488115102052689e-02 2.918534213677048683e-03 3.750713542103767395e-03 4.468367842491716146e-04 -4.199489951133728027e-02 -2.503216092009097338e-04 5.923562496900558472e-02 7.551647257059812546e-03 7.863385835662484169e-04 -5.399454757571220398e-02 3.912185493391007185e-04 -7.196962833404541016e-04 -2.261123061180114746e-02 1.735073165036737919e-04 -1.747996732592582703e-02 6.614029407501220703e-02 -2.061602863250300288e-04 2.005114406347274780e-02 -5.260134115815162659e-03 1.200165692716836929e-02 5.932109896093606949e-03
4.070529341697692871e-02 5.200215382501482964e-04 -9.092431515455245972e-03 1.612489297986030579e-02 7.500641047954559326e-02 -4.594722122419625521e-04 5.596340633928775787e-04 -7.168425247073173523e-03 -8.167952764779329300e-04 2.319287694990634918e-02 1.936731487512588501e-02 2.181532181566581130e-04 -2.790685743093490601e-02 1.852186396718025208e-02 -1.969387376448139548e-04 3.393330797553062439e-02 -3.870881046168506145e-04 9.718442452140152454e-04 4.115148913115262985e-03 -4.054967314004898071e-02 2.494779974222183228e-02 -3.080483584199100733e-04 -5.491700768470764160e-02 2.781202085316181183e-02 5.755939055234193802e-03 2.063373662531375885e-02 -1.152144186198711395e-02 -5.889844149351119995e-03 -1.600097306072711945e-02 7.341342279687523842e-04 2.826849813573062420e-04 -3.549230843782424927e-02 -3.947144746780395508e-02 -1.977945491671562195e-02 -1.911802962422370911e-02 1.170989824458956718e-03 2.905960718635469675e-04 -5.844595216331072152e-05 1.719772990327328444e-04 1.448631752282381058e-02 -5.294659361243247986e-02 -4.349891468882560730e-02 -8.139080600813031197e-04 -5.461982800625264645e-04 3.098667599260807037e-03 -2.441349206492304802e-03 -6.249804981052875519e-03 -1.981610991060733795e-02 4.531290323939174414e-04 -2.879644744098186493e-02 4.260691348463296890e-03 2.093021292239427567e-03 -6.360315717756748199e-03 -3.066616132855415344e-02 5.814610631205141544e-05 5.305958166718482971e-02 5.265364234219305217e-05 3.897090442478656769e-03 3.707992844283580780e-03 1.251056510955095291e-02 1.455372199416160583e-03 -2.703647501766681671e-02 2.208890952169895172e-02 -2.774933725595474243e-02 1.069056428968906403e-02 1.721959444694221020e-03 1.005547586828470230e-02 1.039541442878544331e-03 -2.226710692048072815e-02 1.048728264868259430e-02 2.399319637333974242e-04 5.867127911187708378e-04 5.654006381519138813e-04 -1.755682006478309631e-02 1.040831441059708595e-03 -4.376731812953948975e-02 -4.202996566891670227e-02 9.209013544023036957e-03 -2.268032915890216827e-02 7.217230740934610367e-04 -3.889947547577321529e-04 -9.074941626749932766e-04 6.399559206329286098e-04 -1.033850945532321930e-02 8.186527527868747711e-03 1.687599251454230398e-05 2.238703018520027399e-05 -5.791037809103727341e-03 2.549443393945693970e-02 9.769628755748271942e-03 -1.629584841430187225e-02 1.909130997955799103e-02 9.960973635315895081e-03 -9.540288709104061127e-03 -6.253296160139143467e-04 1.794015115592628717e-04 -2.492427267134189606e-02 3.408446162939071655e-02 1.015804009512066841e-03 3.780489088967442513e-03 7.277856767177581787e-02 -4.789892409462481737e-04 -6.923900451511144638e-03 1.592904009157791734e-04 -2.961950085591524839e-04 -1.249044295400381088e-02 -2.426441758871078491e-02 -1.389629673212766647e-02 -2.981512516271322966e-04 5.645074415951967239e-04 -1.197263190988451242e-04 8.684362401254475117e-04 -5.522034596651792526e-03 -5.039691459387540817e-03 1.073587220162153244e-03 3.252770751714706421e-02 -2.189749066019430757e-04 -2.658558951225131750e-04 -1.771187223494052887e-02 3.065627242904156446e-04 -3.465016558766365051e-02 -1.337774301646277308e-04 4.111008346080780029e-02 -4.183655232191085815e-02 -2.754725702106952667e-02 1.972953905351459980e-04 3.235526755452156067e-02 -2.291495911777019501e-04 2.662525279447436333e-03 -1.153234479716047645e-04 1.186466030776500702e-02 6.248307181522250175e-04 2.258356893435120583e-03 9.947303682565689087e-03 1.974879950284957886e-02 -1.534502301365137100e-02 -1.077918685041368008e-03 -7.303595775738358498e-04 1.305461744777858257e-03 1.672833599150180817e-02 -8.332833647727966309e-03 6.098081357777118683e-03 9.980519280361477286e-06 -4.828535020351409912e-02 3.066534191020764410e-05 4.975958145223557949e-04 -1.759480498731136322e-02 -8.387795835733413696e-02 -3.600693016778677702e-04 1.899494789540767670e-02 -4.361968114972114563e-02 -2.635556156747043133e-04 -1.414492260664701462e-03 -3.307153237983584404e-04 3.415417298674583435e-02 7.014890434220433235e-04 -9.394046850502490997e-03 -5.050750332884490490e-04 4.332215467002242804e-04 -2.248861710540950298e-05 2.213445305824279785e-02 -2.211491763591766357e-02 -1.725014485418796539e-02 3.380942158401012421e-03 7.313121459446847439e-04 2.855075290426611900e-04 3.455397672951221466e-04 -4.485870711505413055e-03 -1.047620456665754318e-02 8.593707752879709005e-05 8.857659413479268551e-04 -4.181234166026115417e-02 3.050211817026138306e-03 1.004871446639299393e-02 6.631821161136031151e-04 8.784027886576950550e-04 3.576409071683883667e-02 -5.031574051827192307e-03 -6.066308706067502499e-04 -1.774444803595542908e-02 7.970067672431468964e-04 -2.813743776641786098e-04 7.217100355774164200e-04 -5.563650047406554222e-04 8.115323260426521301e-03 9.243010572390630841e-05 1.612496445886790752e-03 4.028550349175930023e-03 3.271529823541641235e-02 7.809771923348307610e-04 5.618567392230033875e-02 -1.138361915946006775e-02 1.176389399915933609e-02 4.820818430744111538e-04 -4.505792167037725449e-04 5.230561364442110062e-04 -1.797209493815898895e-02 1.176682872028322890e-05 1.480986829847097397e-04 -6.124422419816255569e-03 2.868090569972991943e-02 8.585659670643508434e-04 2.318085730075836182e-02 -4.207673296332359314e-02 -4.786907811649143696e-04 -1.003642473369836807e-02 4.324241308495402336e-04 -1.803044974803924561e-02 2.495056949555873871e-03 7.604241545777767897e-05 8.736143936403095722e-04 -6.684173131361603737e-04 2.175884554162621498e-03 9.337886236608028412e-03 -1.795861683785915375e-02 6.529439706355333328e-03 2.497036382555961609e-02 8.309865742921829224e-02 7.246823981404304504e-03 -2.784034295473247766e-04 -1.359970867633819580e-02 5.666550714522600174e-04 1.711403764784336090e-02 -8.085371518973261118e-06 -5.656416062265634537e-03 2.786266803741455078e-02 -6.249201251193881035e-04 3.088761679828166962e-02 -1.518729701638221741e-02 9.758286178112030029e-03 -1.985981129109859467e-03 3.052885876968502998e-04 5.609744042158126831e-02 7.495065219700336456e-03 -3.397040441632270813e-02 2.172973565757274628e-02 -9.478465653955936432e-04 3.410736331716179848e-03 -4.208875179756432772e-04 1.855093613266944885e-02 -1.461959211155772209e-03 -8.737986907362937927e-03 6.287767551839351654e-03 -4.507674602791666985e-04 6.596393883228302002e-02 -8.472523186355829239e-04 -3.023733443114906549e-04 4.047060012817382812e-02 -1.482009305618703365e-03 -1.001332048326730728e-02 1.603278331458568573e-02 4.602289118338376284e-04 -3.346050623804330826e-03 -1.413461752235889435e-02 2.537519671022891998e-03 7.550797890871763229e-03
-2.221539383754134178e-03 -9.251237497664988041e-04 2.043043961748480797e-03 -6.136157084256410599e-03 -9.504768066108226776e-03 2.303032018244266510e-02 3.185463356203399599e-05 -3.408801183104515076e-02 -5.432618781924247742e-04 -6.690264493227005005e-02 8.293549530208110809e-03 -1.275763148441910744e-03 -1.451869402080774307e-02 2.416020072996616364e-02 -3.073115076404064894e-04 3.533302247524261475e-02 5.402778624556958675e-04 -2.862242981791496277e-04 -2.121858112514019012e-02 4.938400350511074066e-03 -5.550249293446540833e-02 -6.437952979467809200e-04 -1.150388550013303757e-02 3.637588769197463989e-02 1.055266521871089935e-02 2.700891532003879547e-02 -1.220830064266920090e-02 5.549687892198562622e-03 2.768801059573888779e-04 -3.915680281352251768e-04 7.115534972399473190e-04 5.420161411166191101e-02 5.224302783608436584e-02 5.642792955040931702e-02 1.024362444877624512e-01 3.059237264096736908e-02 3.998836327809840441e-04 8.228598744608461857e-04 -3.222046507289633155e-05 1.814825227484107018e-03 -2.817666530609130859e-02 9.774236241355538368e-04 -9.071360691450536251e-04 -3.942303592339158058e-04 3.230986371636390686e-02 -1.162004098296165466e-02 -3.197302669286727905e-02 1.560319866985082626e-02 -2.258854656247422099e-04 -4.763318225741386414e-02 3.156544174998998642e-03 -1.608412899076938629e-02 -1.789740845561027527e-02 -3.867698460817337036e-02 4.515390173764899373e-06 1.829770393669605255e-03 1.093544298782944679e-03 1.588297076523303986e-02 4.964786581695079803e-03 -1.582270115613937378e-02 -2.678454294800758362e-02 -1.995490118861198425e-02 3.637083619832992554e-02 3.613905981183052063e-02 -1.872393488883972168e-02 -1.334158144891262054e-02 6.485603516921401024e-04 -1.637683482840657234e-03 -2.635032683610916138e-02 6.270183622837066650e-02 -1.465389970690011978e-03 1.057002809830009937e-03 3.637510817497968674e-04 5.580924078822135925e-02 4.222280986141413450e-04 -3.440683707594871521e-03 5.773406010121107101e-03 -3.492129221558570862e-02 2.067534998059272766e-02 5.245760257821530104e-05 7.111258455552160740e-04 -4.284461215138435364e-02 -3.949506499338895082e-04 -9.563583880662918091e-03 4.219656437635421753e-02 3.291174361947923899e-04 1.166596557595767081e-04 -3.528676228597760201e-03 1.783131808042526245e-02 4.674825072288513184e-02 1.253057736903429031e-02 -1.355431787669658661e-02 1.556447241455316544e-02 7.713962346315383911e-02 -4.256888059899210930e-04 -4.219678521621972322e-04 -1.270009553991258144e-03 1.252011023461818695e-02 -8.802684897091239691e-05 1.162923127412796021e-02 1.025022007524967194e-02 5.160817090654745698e-05 -3.179232589900493622e-03 4.538767971098423004e-04 2.272023702971637249e-04 -4.421558976173400879e-02 3.770664706826210022e-02 -7.700461894273757935e-03 -8.211935055442154408e-04 -8.469148888252675533e-04 -5.784219247289001942e-04 4.161440010648220778e-04 -2.238011360168457031e-02 3.074628487229347229e-02 -3.414137463551014662e-04 -1.674882881343364716e-02 -4.698542179539799690e-04 -8.875071653164923191e-04 7.366604357957839966e-02 5.917365197092294693e-03 -2.179724909365177155e-02 -3.793590585701167583e-04 4.665902629494667053e-02 -1.668845489621162415e-02 2.329432405531406403e-02 -5.876349750906229019e-04 -1.489927712827920914e-02 -9.745024144649505615e-04 3.149573132395744324e-02 -1.086795746232382953e-04 -4.537190869450569153e-02 3.262092068325728178e-04 -1.358533371239900589e-02 4.565588757395744324e-02 2.297063171863555908e-02 -7.824085652828216553e-03 -1.565885916352272034e-02 2.207835641456767917e-04 8.350436110049486160e-05 -4.048544168472290039e-02 -1.887803897261619568e-02 -1.296271476894617081e-02 6.573926657438278198e-04 -2.115957252681255341e-02 -1.394581282511353493e-03 4.952428862452507019e-04 8.493021875619888306e-02 -6.396765355020761490e-03 1.609971368452534080e-04 -2.324243076145648956e-02 8.305817842483520508e-02 -1.979664713144302368e-02 -1.513674069428816438e-04 -1.773430849425494671e-04 1.512683462351560593e-02 -1.675857783993706107e-04 1.524185668677091599e-02 -6.175758317112922668e-04 9.356973459944128990e-04 6.849929341115057468e-04 4.506887868046760559e-02 2.693568356335163116e-02 4.490822181105613708e-02 2.932041697204113007e-02 -7.878918549977242947e-04 4.413246642798185349e-05 1.709761418169364333e-04 9.435013053007423878e-04 -2.082425914704799652e-02 -5.533072981052100658e-04 -1.055842265486717224e-03 8.641449734568595886e-03 5.965901073068380356e-04 1.129896147176623344e-03 6.904232315719127655e-03 6.220671930350363255e-04 -4.714906215667724609e-02 -1.108111441135406494e-02 1.228690962307155132e-03 9.086671285331249237e-03 -5.900079268030822277e-04 -1.165756140835583210e-03 -5.488828173838555813e-04 6.954472337383776903e-05 -3.259709104895591736e-02 -5.136437248438596725e-04 -6.305258721113204956e-03 1.202175114303827286e-02 1.023810077458620071e-02 3.953866544179618359e-04 4.549371823668479919e-02 1.324204057455062866e-01 -1.588533259928226471e-02 -5.436989013105630875e-04 -9.980058530345559120e-04 -1.303447876125574112e-03 1.475395262241363525e-02 6.266844575293362141e-04 -1.428762101568281651e-03 -2.019687090069055557e-03 -3.911765664815902710e-02 -1.135505270212888718e-02 2.994155138731002808e-02 7.883402705192565918e-02 -3.548394306562840939e-05 -1.405945047736167908e-02 -2.348455891478806734e-04 1.697853440418839455e-03 -1.254097279161214828e-02 2.900828258134424686e-04 7.146433927118778229e-03 1.015960355289280415e-03 -4.774900618940591812e-03 -3.697560727596282959e-02 -1.197587326169013977e-02 3.975284844636917114e-02 -2.629240043461322784e-02 4.470884799957275391e-02 3.696858510375022888e-02 3.535887808538973331e-04 6.783545948565006256e-03 -2.599388244561851025e-04 -5.380007997155189514e-02 3.538659948389977217e-04 -6.995600182563066483e-03 1.077034976333379745e-02 -7.763790927128866315e-05 6.264265161007642746e-03 2.746355533599853516e-02 1.758809201419353485e-02 1.767659443430602551e-03 -6.753617199137806892e-04 -4.054841399192810059e-02 -4.006024450063705444e-03 1.579690724611282349e-02 2.287808433175086975e-02 -5.326284468173980713e-02 5.369360558688640594e-03 1.980134838959202170e-04 6.786730140447616577e-02 2.767514088191092014e-04 2.805367298424243927e-02 4.044051468372344971e-02 6.205413374118506908e-04 -5.007167905569076538e-02 1.126725255744531751e-04 -5.703814094886183739e-04 1.668776385486125946e-02 -4.883472574874758720e-04 9.906271100044250488e-02 -5.638707056641578674e-02 -7.665195153094828129e-04 -2.360075153410434723e-02 -2.542839013040065765e-02 3.569773864001035690e-03 -7.762315683066844940e-03
