1.286216266453266144e-02 -4.456954821944236755e-02 2.197055378928780556e-03 2.107904525473713875e-03 4.749296233057975769e-02 -5.261280015110969543e-02 2.294327830895781517e-03 -2.362210117280483246e-02 2.684236504137516022e-03 2.917875535786151886e-03 1.181030832231044769e-02 -4.883112385869026184e-02 2.367147477343678474e-03 -3.460361659526824951e-01 2.935558324679732323e-03 -1.516801770776510239e-02 -9.527019411325454712e-02 2.113035414367914200e-03 -1.267857700586318970e-01 1.979077160358428955e-01 -1.000724285840988159e-01 2.613271586596965790e-03 1.686995266936719418e-03 2.388429362326860428e-03 2.691506175324320793e-03 -4.407102167606353760e-01 2.881268505007028580e-03 2.352046780288219452e-03 2.432045293971896172e-03 2.866913564503192902e-03 2.841848181560635567e-03 -8.079341650009155273e-01 3.071090765297412872e-02 -6.568254530429840088e-02 2.437696559354662895e-03 2.537523163482546806e-03 2.122427104040980339e-03 2.976112300530076027e-03 -2.358567476272583008e+00 2.053930424153804779e-03 2.496288623660802841e-03 -7.267086952924728394e-02 -1.368131488561630249e-01 2.380101243034005165e-03 -1.751294583082199097e-01 2.914708340540528297e-03 2.105001360177993774e-03 2.960950601845979691e-03 2.566316397860646248e-03 -1.136847659945487976e-01 2.598957624286413193e-03 1.974998507648706436e-03 2.824884373694658279e-03 -7.894217967987060547e-02 -1.019263938069343567e-01 1.843158504925668240e-03 2.996981143951416016e-03 2.705349121242761612e-03 -9.141319245100021362e-02 -1.131087839603424072e-01 2.436945447698235512e-03 2.790149534121155739e-03 -5.985774993896484375e-01 2.837015083059668541e-03 -3.653274476528167725e-02 1.848202897235751152e-03 2.651568502187728882e-03 -9.780550748109817505e-02 2.886828267946839333e-03 -1.089539751410484314e-01 2.584622008726000786e-03 -5.228855088353157043e-02 2.774998778477311134e-03 2.698009600862860680e-03 -5.134407803416252136e-02 1.884135301224887371e-03 4.962933063507080078e-02 2.844257745891809464e-03 -2.474897652864456177e-01 2.359591657295823097e-03 -1.102891042828559875e-01 2.691566478461027145e-03 2.807755488902330399e-03 2.840844914317131042e-03 -9.775292873382568359e-02 2.455113222822546959e-03 2.139232587069272995e-03 -2.131995372474193573e-02 2.607679693028330803e-03 -3.330489993095397949e-02 -6.592423468828201294e-02 -1.888227760791778564e-01 2.435000613331794739e-03 2.619721228256821632e-03 -5.689121782779693604e-02 -6.031125411391258240e-02 4.144133999943733215e-02 -1.823861151933670044e-01 2.875066827982664108e-03 -6.147175654768943787e-02 2.439260482788085938e-03 2.838862827047705650e-03 -4.593989253044128418e-02 2.933888928964734077e-03 2.843361580744385719e-03 -3.410982340574264526e-02 1.828491454944014549e-03 2.737225033342838287e-03 2.393512614071369171e-02 2.489819889888167381e-03 4.744779691100120544e-02 -3.925313428044319153e-02 -2.971771061420440674e-01 -7.080604135990142822e-02 -7.035763561725616455e-02 2.233905019238591194e-03 -8.055930584669113159e-02 1.371434330940246582e-02 2.644864376634359360e-03 7.405260205268859863e-02 1.872497959993779659e-03 -3.253190219402313232e-01 -2.530797012150287628e-02 2.456227783113718033e-03 2.455835044384002686e-02 -3.124982491135597229e-02 2.718309639021754265e-03 4.156640917062759399e-02 2.831804100424051285e-03 1.928246580064296722e-03 2.919677412137389183e-03 -1.505366563796997070e-01 2.223866293206810951e-03 -7.721035182476043701e-02 -1.156594008207321167e-01 2.346814377233386040e-03 -5.552486702799797058e-02 -1.429683417081832886e-01 2.480964642018079758e-03 2.738486509770154953e-03 2.148587489500641823e-03 -2.179474085569381714e-01 2.351212082430720329e-03 9.354856447316706181e-04 -2.359776347875595093e-01 -3.754372522234916687e-02 2.365299733355641365e-03 1.709223724901676178e-03 8.995628356933593750e-02 7.526855915784835815e-02 2.346083289012312889e-03 -4.089011251926422119e-01 -1.872257739305496216e-01 -5.162892937660217285e-01 2.761573065072298050e-03 2.586166607216000557e-03 2.433553803712129593e-03 2.546109491959214211e-03 -1.589169260114431381e-04 -6.866647601127624512e-01 2.962891710922122002e-03 2.543343231081962585e-03 2.877510152757167816e-03 2.553835744038224220e-03 2.781636547297239304e-03 1.004063040018081665e-01 -1.734315603971481323e-01 -1.499438136816024780e-01 2.734400797635316849e-03 2.891125623136758804e-03 2.272896701470017433e-03 -5.781230926513671875e-01 2.970187226310372353e-03 -1.141868308186531067e-01 2.275508129969239235e-03 2.331234049052000046e-03 2.997563220560550690e-03 8.354645222425460815e-02 1.369279474020004272e-01 2.854691818356513977e-03 2.251388505101203918e-03 -1.849902868270874023e-01 2.212115749716758728e-02 -3.959839046001434326e-02 -1.242676004767417908e-01 2.512777224183082581e-03 2.472223946824669838e-03 2.768982667475938797e-03 -4.142637178301811218e-02 4.009883105754852295e-02 2.598985331133008003e-03 5.304014682769775391e-01 2.794300951063632965e-02 -5.672663077712059021e-02 -8.339767158031463623e-02 -4.277439787983894348e-02 -8.437409996986389160e-02 2.598847961053252220e-03 -9.654098749160766602e-02 2.194707281887531281e-03 2.910265000537037849e-03 -2.607239782810211182e-01 2.632005838677287102e-03 5.859236046671867371e-02 2.701974939554929733e-03 2.474697539582848549e-03 1.815522555261850357e-03 7.247722744941711426e-01 2.846481045708060265e-03 2.601020503789186478e-03 -1.221898198127746582e-01 2.614163793623447418e-03 4.392105620354413986e-03 -1.424278020858764648e-01 1.673481776379048824e-03 -3.151081129908561707e-02 -5.445194989442825317e-02 2.066475804895162582e-03 -1.125049889087677002e-01 -1.365841329097747803e-01 -8.473536930978298187e-03 2.489381702616810799e-03 1.340289134532213211e-02 -1.178387552499771118e-02 2.763129305094480515e-03 -5.386940017342567444e-02 2.956162206828594208e-03 2.441446064040064812e-03 2.296656602993607521e-03 -1.980638504028320312e-01 2.561541972681879997e-03 2.508202334865927696e-03 1.478497753851115704e-03 -2.004958689212799072e-01 -1.978681385517120361e-01 1.524610794149339199e-03 2.561272354796528816e-03 -1.057446375489234924e-01 2.457322785630822182e-03 -8.957313001155853271e-02 2.415524562820792198e-03 1.821475569158792496e-03 -3.732798993587493896e-01 -1.864304393529891968e-01 -1.462948024272918701e-01 2.716162241995334625e-03 3.109754621982574463e-02 2.612688811495900154e-03 2.788801444694399834e-03 2.923137741163372993e-03 2.907438902184367180e-03 2.972687128931283951e-03 -3.399154543876647949e-01 2.430827822536230087e-03 2.984308172017335892e-03 3.600566834211349487e-02
