5.998380780220031738e-01
2.744606733322143555e+00
-3.002691781148314476e-03
-3.002689452841877937e-03
4.036209583282470703e-01
1.021883726119995117e+00
-3.002712037414312363e-03
2.028685331344604492e+00
-3.002654295414686203e-03
-3.002481767907738686e-03
1.938648939132690430e+00
8.115029931068420410e-01
-3.002727869898080826e-03
2.320900559425354004e-01
-3.002304118126630783e-03
5.788377761840820312e+00
-1.182330608367919922e+00
-3.000337164849042892e-03
5.392344594001770020e-01
1.160044908523559570e+00
4.310270771384239197e-02
-3.002679673954844475e-03
-3.002167679369449615e-03
-3.002300160005688667e-03
-3.002616111189126968e-03
7.684510946273803711e-01
-3.002578392624855042e-03
-3.002228680998086929e-03
-3.002715064212679863e-03
-3.002607729285955429e-03
-3.002428682520985603e-03
2.137472331523895264e-01
5.944862961769104004e-01
4.342876672744750977e-01
-3.002534853294491768e-03
-3.001966048032045364e-03
-3.002736950293183327e-03
-3.001183504238724709e-03
6.781130790710449219e+00
-3.002732060849666595e-03
-3.002679673954844475e-03
1.771916508674621582e+00
1.026936531066894531e+00
-3.002720652148127556e-03
1.479640245437622070e+00
-3.002572571858763695e-03
-3.002711571753025055e-03
-3.002230543643236160e-03
-3.002719953656196594e-03
1.843774437904357910e+00
-3.002675483003258705e-03
-3.002543933689594269e-03
-3.002638695761561394e-03
-1.047554731369018555e+00
9.178983420133590698e-02
-3.002729034051299095e-03
-3.000146709382534027e-03
-3.002702724188566208e-03
1.582353591918945312e+00
-8.784568309783935547e-01
-3.002726472914218903e-03
-3.002650337293744087e-03
6.816234588623046875e-01
-3.002565121278166771e-03
2.711350440979003906e+00
-3.002739977091550827e-03
-3.002693876624107361e-03
9.703724980354309082e-01
-3.002599580213427544e-03
2.357376366853713989e-01
-3.002709709107875824e-03
1.370528221130371094e+00
-3.002668730914592743e-03
-3.002698766067624092e-03
2.473170042037963867e+00
-3.002672456204891205e-03
2.918941974639892578e+00
-3.002563957124948502e-03
2.178064584732055664e+00
-3.002670360729098320e-03
2.555173873901367188e+00
-3.002641256898641586e-03
-3.002584679052233696e-03
-3.002651501446962357e-03
2.427008152008056641e-01
-3.002093872055411339e-03
-3.002731828019022942e-03
4.273505508899688721e-01
-3.002681769430637360e-03
1.887066364288330078e+00
-8.754367232322692871e-01
3.075736045837402344e+00
-3.002528566867113113e-03
-3.002698067575693130e-03
2.560875177383422852e+00
8.832667469978332520e-01
-7.243692129850387573e-02
2.113162517547607422e+00
-3.002530196681618690e-03
2.181911170482635498e-01
-3.002694807946681976e-03
-3.002611221745610237e-03
1.410458832979202271e-01
-3.000471508130431175e-03
-3.000275930389761925e-03
3.287975072860717773e+00
-3.002720186486840248e-03
-3.002602839842438698e-03
1.216724634170532227e+00
-3.002667566761374474e-03
1.012826681137084961e+00
1.229483604431152344e+00
5.743719339370727539e-01
3.245133638381958008e+00
1.650486230850219727e+00
-3.002671292051672935e-03
8.291611075401306152e-01
3.037824869155883789e+00
-3.002664772793650627e-03
1.555054783821105957e+00
-3.002740908414125443e-03
-4.764198303222656250e+00
1.733144879341125488e+00
-3.002727637067437172e-03
5.631952285766601562e-01
1.667786389589309692e-01
-3.002655925229191780e-03
2.516971588134765625e+00
-3.002617973834276199e-03
-3.002725774422287941e-03
-3.002574667334556580e-03
6.651237964630126953e+00
-3.002508310601115227e-03
-1.744596004486083984e+00
1.918445527553558350e-01
-3.002602839842438698e-03
6.963454484939575195e-01
8.285531997680664062e-01
-3.002464538440108299e-03
-3.002660116180777550e-03
-3.002737648785114288e-03
4.368090152740478516e+00
-3.002711106091737747e-03
6.708233356475830078e-01
9.510890841484069824e-01
3.583884954452514648e+00
-3.002667101100087166e-03
-3.002731595188379288e-03
1.501476883888244629e+00
1.699050307273864746e+00
-3.002720652148127556e-03
-5.736561492085456848e-02
2.125113964080810547e+00
1.566855311393737793e+00
-3.002601442858576775e-03
-3.002689918503165245e-03
-3.002709476277232170e-03
-3.002576995640993118e-03
5.178784132003784180e-01
-1.071490123867988586e-01
-3.002337412908673286e-03
-3.002716228365898132e-03
-3.002197016030550003e-03
-3.002674784511327744e-03
-3.002605168148875237e-03
8.163641095161437988e-01
8.916372060775756836e-01
9.697534143924713135e-02
-3.002650337293744087e-03
-3.001971635967493057e-03
-3.002728801220655441e-03
1.016520619392395020e+00
-3.002166282385587692e-03
1.547339439392089844e+00
-3.002729732543230057e-03
-3.002730198204517365e-03
-2.997735980898141861e-03
6.929842829704284668e-01
1.256572365760803223e+00
-3.002436365932226181e-03
-3.002692246809601784e-03
-2.591745927929878235e-02
2.139277935028076172e+00
6.302810311317443848e-01
1.533760190010070801e+00
-3.002675948664546013e-03
-3.002723911777138710e-03
-2.988481428474187851e-03
8.554773926734924316e-01
2.692214488983154297e+00
-3.002695972099900246e-03
4.481547355651855469e+00
3.083182334899902344e+00
9.498918056488037109e-02
1.947445981204509735e-02
2.025304555892944336e+00
2.829038858413696289e+00
-3.002675948664546013e-03
-1.443126678466796875e+00
-3.002735320478677750e-03
-3.002581652253866196e-03
1.424011230468750000e+00
-3.002688288688659668e-03
7.509989738464355469e-01
-3.002633107826113701e-03
-3.002711338922381401e-03
-3.002740675583481789e-03
1.911754369735717773e+00
-3.002550220116972923e-03
-3.002633340656757355e-03
2.648099899291992188e+00
-3.002714831382036209e-03
2.098855733871459961e+00
2.490500211715698242e-01
-3.002736717462539673e-03
-1.404602229595184326e-01
9.607020020484924316e-01
-3.002702491357922554e-03
3.529622852802276611e-01
2.765429019927978516e+00
-1.313138127326965332e+00
-3.002676414325833321e-03
2.808146953582763672e+00
1.461732268333435059e+00
-3.002660116180777550e-03
3.101542949676513672e+00
-3.001989098265767097e-03
-3.038151888176798820e-03
-3.002716694027185440e-03
3.057532310485839844e-01
-3.002707846462726593e-03
-3.002708544954657555e-03
-3.002736950293183327e-03
2.565536975860595703e+00
8.685970902442932129e-01
-3.002738114446401596e-03
-3.002715529873967171e-03
3.383858501911163330e-02
-3.002684330567717552e-03
6.278284192085266113e-01
-3.002706216648221016e-03
-3.002729266881942749e-03
-1.365053772926330566e+00
1.236866116523742676e+00
2.283275842666625977e+00
-3.002695972099900246e-03
1.526043772697448730e+00
-3.002645680680871010e-03
-3.002230543643236160e-03
-3.002351615577936172e-03
-3.002526471391320229e-03
-3.001886419951915741e-03
4.399648666381835938e+00
-3.002697601914405823e-03
-3.000461496412754059e-03
5.300272941589355469e+00
