2.316961623728275299e-02
3.233699500560760498e-02
4.390815645456314087e-02
8.121506310999393463e-03
-2.460381656419485807e-04
3.218760341405868530e-02
-2.807557175401598215e-04
2.327222004532814026e-02
-4.036843311041593552e-04
4.700819402933120728e-02
4.439482837915420532e-02
2.462488785386085510e-02
-4.094385949429124594e-04
9.627429768443107605e-03
2.685751207172870636e-02
-4.985333653166890144e-04
-3.123606729786843061e-04
2.136877179145812988e-02
9.937410242855548859e-03
-3.709010488819330931e-04
3.342592157423496246e-03
3.980629844591021538e-04
2.751980349421501160e-02
3.483898937702178955e-02
5.317086353898048401e-03
-4.048281698487699032e-04
2.449083328247070312e-02
1.966624334454536438e-02
-8.062578737735748291e-03
1.738589815795421600e-02
-1.046419423073530197e-02
2.699190378189086914e-02
2.790430188179016113e-02
9.728437289595603943e-03
7.316457573324441910e-03
1.462202490074560046e-04
-2.403897087788209319e-04
-5.658030277118086815e-04
1.102584064938127995e-03
-4.013196157757192850e-04
2.023857459425926208e-02
3.844555094838142395e-02
-3.023372846655547619e-04
-2.567547198850661516e-04
-5.583781166933476925e-04
1.354209613054990768e-02
-1.045643439283594489e-04
-2.624277258291840553e-04
-4.988482105545699596e-04
-3.905719859176315367e-05
-9.926797793013975024e-05
2.070516347885131836e-02
-4.169038147665560246e-04
-8.284635259769856930e-04
-4.605359397828578949e-03
-2.376336924498900771e-04
-6.127277738414704800e-04
3.336796164512634277e-02
-6.102538900449872017e-04
4.174042493104934692e-03
1.966871554031968117e-03
-5.380114307627081871e-04
-3.699806111399084330e-04
3.065688349306583405e-02
2.339602913707494736e-03
2.130050212144851685e-02
-4.652774892747402191e-03
2.126967161893844604e-02
-1.132365665398538113e-03
9.476346895098686218e-03
1.299334224313497543e-02
1.015617046505212784e-02
4.848385869991034269e-04
3.368261083960533142e-02
-3.780160914175212383e-04
2.556211128830909729e-02
8.828403661027550697e-04
-3.965747891925275326e-04
8.160879835486412048e-03
-3.577707102522253990e-04
-4.524507094174623489e-04
-6.595626473426818848e-04
1.968952082097530365e-02
2.022531256079673767e-02
-4.374511481728404760e-04
1.773831807076931000e-02
1.888382993638515472e-02
2.623691782355308533e-02
1.054764492437243462e-03
-5.216170684434473515e-04
5.113146733492612839e-03
1.145396847277879715e-02
-5.683620925992727280e-03
1.396951265633106232e-02
-3.887585480697453022e-04
4.494463652372360229e-02
8.866974152624607086e-03
-3.572113055270165205e-04
1.083573047071695328e-02
1.380831189453601837e-02
-6.524730706587433815e-04
1.842247880995273590e-02
-4.466352111194282770e-04
1.701826788485050201e-02
-5.481200059875845909e-04
1.689329184591770172e-02
1.012265216559171677e-02
-8.278986439108848572e-03
-3.293784975539892912e-04
-2.415860071778297424e-04
-7.125866250135004520e-04
3.064605034887790680e-02
1.931446138769388199e-03
1.939916796982288361e-02
3.565800609067082405e-03
4.069711081683635712e-03
5.267558991909027100e-02
2.567162364721298218e-02
4.683174565434455872e-02
1.154213584959506989e-02
5.717639811336994171e-03
-4.306792689021676779e-04
-4.029880801681429148e-04
2.265088073909282684e-02
-7.419086759909987450e-04
5.824194289743900299e-03
1.043486315757036209e-02
-2.944281790405511856e-03
3.271585330367088318e-02
1.038626395165920258e-02
-3.270282468292862177e-04
2.042314410209655762e-02
3.668861091136932373e-02
2.600276470184326172e-02
-4.189012106508016586e-04
-4.556890344247221947e-04
-3.082236042246222496e-03
9.672868996858596802e-03
2.981714904308319092e-02
1.565811224281787872e-02
8.586806245148181915e-03
-4.902368527837097645e-04
-5.409637233242392540e-04
-7.876059040427207947e-03
7.094937376677989960e-03
2.082191035151481628e-02
2.550161443650722504e-02
6.964010186493396759e-03
3.007656149566173553e-02
2.126591280102729797e-02
1.309164892882108688e-02
1.340934447944164276e-02
-1.593813358340412378e-04
5.134412553161382675e-03
7.899004966020584106e-03
2.216831408441066742e-02
5.305868759751319885e-02
2.597674541175365448e-02
9.617273695766925812e-03
3.869287297129631042e-02
1.377336774021387100e-02
-3.255117917433381081e-04
1.539880596101284027e-02
2.705719694495201111e-02
1.522100158035755157e-02
-5.612010136246681213e-04
3.548056632280349731e-02
9.611647576093673706e-03
6.210044957697391510e-03
3.826992213726043701e-02
-1.445136003894731402e-04
-2.727067621890455484e-04
-6.551592377945780754e-05
2.342828176915645599e-02
-5.039272946305572987e-04
1.067279744893312454e-02
9.765747934579849243e-03
3.211186733096837997e-03
-3.999122127424925566e-04
2.449978329241275787e-02
1.139656058512628078e-03
2.774988533928990364e-03
1.301254704594612122e-02
2.504931017756462097e-02
6.212903186678886414e-03
7.585483603179454803e-03
-5.880158860236406326e-04
1.840357482433319092e-02
2.357998304069042206e-02
2.062593819573521614e-03
-2.319518662989139557e-02
-3.268313594162464142e-04
2.860212139785289764e-02
-1.569130981806665659e-04
4.251262173056602478e-03
-2.847926807589828968e-04
-2.757293405011296272e-04
1.155848335474729538e-02
3.460199758410453796e-02
5.967161618173122406e-03
1.334651373326778412e-02
1.581253856420516968e-02
3.447358962148427963e-03
5.955656524747610092e-03
-4.150465130805969238e-03
-9.219128638505935669e-03
-4.255593230482190847e-04
-2.223016199423000216e-04
-2.866056456696242094e-04
6.731368601322174072e-03
2.413135766983032227e-02
-3.606217505875974894e-04
1.288658939301967621e-02
-9.532250114716589451e-04
-6.027263007126748562e-04
-3.367144381627440453e-04
-7.468710653483867645e-03
3.785957023501396179e-02
-3.060485469177365303e-04
9.587134234607219696e-03
1.166867278516292572e-02
3.785370290279388428e-02
1.140790898352861404e-02
-6.386733613908290863e-03
1.311598066240549088e-02
-3.458000719547271729e-04
-6.053595570847392082e-04
-5.761403590440750122e-04
2.631370164453983307e-02
2.651806361973285675e-02
-4.679491277784109116e-03
2.483754418790340424e-03
2.870647981762886047e-02
-4.015708807855844498e-03
7.995079271495342255e-03
-6.003930466249585152e-04
-1.347908400930464268e-04
3.048089146614074707e-02
-5.797585472464561462e-04
3.720733895897865295e-02
4.644029249902814627e-04
-4.551638849079608917e-04
-4.458710085600614548e-03
-3.733660851139575243e-04
4.228573292493820190e-02
3.161117061972618103e-02
1.149869896471500397e-02
3.056023269891738892e-02
2.207704447209835052e-02
-7.169606979005038738e-04
2.294167131185531616e-02
-1.112038828432559967e-02
-1.073478907346725464e-02
4.462948441505432129e-02
2.186129428446292877e-02
-4.909082781523466110e-04
