4.925463348627090454e-02 -7.474850118160247803e-02 2.197403926402330399e-03 2.107622334733605385e-03 -6.580981612205505371e-02 1.266969442367553711e-01 2.294366480782628059e-03 7.094138115644454956e-02 2.684397622942924500e-03 2.917921403422951698e-03 -3.344277441501617432e-01 3.222205489873886108e-02 2.367157954722642899e-03 -2.952017188072204590e-01 2.935533644631505013e-03 -5.923468470573425293e-01 -9.577237069606781006e-02 2.113609341904520988e-03 8.780126273632049561e-02 -4.993200004100799561e-01 2.970970980823040009e-02 2.613342134281992912e-03 1.740791718475520611e-03 2.402200829237699509e-03 2.691766479983925819e-03 -1.179422214627265930e-01 2.881227293983101845e-03 2.341343788430094719e-03 2.432035980746150017e-03 2.866931259632110596e-03 2.842029323801398277e-03 -2.257000058889389038e-01 -3.444105684757232666e-01 3.644728958606719971e-01 2.437891904264688492e-03 2.543448004871606827e-03 2.122420817613601685e-03 2.975885989144444466e-03 -5.319584533572196960e-02 2.053967677056789398e-03 2.496522851288318634e-03 2.206180989742279053e-02 -1.022035330533981323e-01 2.380074467509984970e-03 -8.164084553718566895e-01 2.914710901677608490e-03 2.105438616126775742e-03 2.960997167974710464e-03 2.566326176747679710e-03 -1.460250616073608398e-01 2.599008381366729736e-03 1.975255087018013000e-03 2.824915805831551552e-03 -9.163077175617218018e-02 -1.500623375177383423e-01 1.843193080276250839e-03 2.996963215991854668e-03 2.705360529944300652e-03 2.852381467819213867e-01 3.613094687461853027e-01 2.436941722407937050e-03 2.790262456983327866e-03 6.425969302654266357e-02 2.836835570633411407e-03 -1.433685421943664551e-01 1.848237356171011925e-03 2.651636488735675812e-03 7.824362069368362427e-02 2.886846195906400681e-03 -5.010823905467987061e-02 2.584611298516392708e-03 -5.391425639390945435e-02 2.775011118501424789e-03 2.698006108403205872e-03 -2.561933100223541260e-01 1.884091529063880444e-03 -2.105589769780635834e-02 2.844281727448105812e-03 2.385023608803749084e-02 2.359657781198620796e-03 -3.340775668621063232e-01 2.691673813387751579e-03 2.807527314871549606e-03 2.840827452018857002e-03 2.295107766985893250e-02 2.421740209683775902e-03 2.139163669198751450e-03 -3.834637627005577087e-02 2.607705770060420036e-03 1.702026836574077606e-02 1.276561170816421509e-01 3.941212892532348633e-01 2.436054404824972153e-03 2.619760110974311829e-03 9.185205101966857910e-01 -2.792241424322128296e-02 5.187723413109779358e-02 7.817128300666809082e-01 2.875088248401880264e-03 -1.197941228747367859e-01 2.439436968415975571e-03 2.838818589225411415e-03 3.741583600640296936e-02 2.933426527306437492e-03 2.844288712367415428e-03 -1.486562639474868774e-01 1.828419743105769157e-03 2.737319329753518105e-03 5.435869842767715454e-02 2.489815931767225266e-03 -1.029966771602630615e-01 7.090390920639038086e-01 6.315451581031084061e-03 1.334318965673446655e-01 -5.404545739293098450e-02 2.233535051345825195e-03 -7.693401724100112915e-02 3.294162079691886902e-02 2.644921187311410904e-03 1.344238594174385071e-02 1.872506458312273026e-03 -1.754759192466735840e+00 6.743904948234558105e-02 2.456220798194408417e-03 -1.001361533999443054e-01 4.273150488734245300e-02 2.718372270464897156e-03 -2.102330476045608521e-01 2.831756370142102242e-03 1.928306999616324902e-03 2.919693244621157646e-03 -3.231906294822692871e-01 2.225227188318967819e-03 3.299359232187271118e-02 5.324557423591613770e-01 2.347965957596898079e-03 -5.581665039062500000e-01 -1.793870478868484497e-01 2.481635659933090210e-03 2.738514216616749763e-03 2.148586791008710861e-03 -1.825751811265945435e-01 2.351245377212762833e-03 -1.601090580224990845e-01 -3.663732409477233887e-01 -1.334276199340820312e-01 2.365093212574720383e-03 1.709255622699856758e-03 -1.494333297014236450e-01 -9.220334887504577637e-02 2.346055116504430771e-03 4.126643240451812744e-01 3.313535079360008240e-02 -8.387379348278045654e-02 2.761600771918892860e-03 2.586174523457884789e-03 2.433761721476912498e-03 2.546255709603428841e-03 -2.446428500115871429e-02 1.166547015309333801e-01 2.962891245260834694e-03 2.543333917856216431e-03 2.878294093534350395e-03 2.553891157731413841e-03 2.781475195661187172e-03 -2.423858493566513062e-01 3.138417005538940430e-01 -1.095991358160972595e-01 2.734367968514561653e-03 2.892087446525692940e-03 2.272881101816892624e-03 -8.996413648128509521e-02 2.970199799165129662e-03 -6.708418130874633789e-01 2.275546314194798470e-03 2.331219613552093506e-03 2.997596748173236847e-03 -5.573591962456703186e-02 -1.554402559995651245e-01 2.854549791663885117e-03 2.251354511827230453e-03 -1.183757632970809937e-01 -3.826159611344337463e-02 -2.261690497398376465e-01 -1.423390507698059082e-01 2.512601902708411217e-03 2.472224412485957146e-03 2.765885787084698677e-03 -2.027844041585922241e-01 -2.478337287902832031e-01 2.598913852125406265e-03 -1.052990555763244629e-01 -1.340414136648178101e-01 -1.478913985192775726e-02 -1.107115969061851501e-01 -3.656668961048126221e-02 -9.478659033775329590e-01 2.598959254100918770e-03 -7.385969161987304688e-02 2.194716129451990128e-03 2.910280134528875351e-03 4.428213462233543396e-02 2.631970448419451714e-03 4.591460525989532471e-02 2.702025463804602623e-03 2.474636770784854889e-03 1.815523835830390453e-03 3.298581391572952271e-02 2.846640534698963165e-03 2.601018873974680901e-03 -1.194229274988174438e-01 2.614166121929883957e-03 3.263708204030990601e-02 3.303913399577140808e-02 1.673569786362349987e-03 -7.655640691518783569e-02 3.516717851161956787e-01 2.066553337499499321e-03 6.906183362007141113e-01 8.157202601432800293e-02 -7.064703106880187988e-02 2.489592181518673897e-03 -6.023902073502540588e-02 -1.158309057354927063e-01 2.763124648481607437e-03 -1.613309025764465332e+00 2.956175245344638824e-03 2.442625816911458969e-03 2.296694787219166756e-03 -1.764103770256042480e-02 2.561518223956227303e-03 2.508218167349696159e-03 1.478529651649296284e-03 2.600515028461813927e-03 -2.216335684061050415e-01 1.524667488411068916e-03 2.561282366514205933e-03 5.488032102584838867e-02 2.457195660099387169e-03 3.435866832733154297e-01 2.415605587884783745e-03 1.821514684706926346e-03 -7.227255403995513916e-02 -1.748190373182296753e-01 4.907781630754470825e-02 2.716168761253356934e-03 -3.269467651844024658e-01 2.612933283671736717e-03 2.790008671581745148e-03 2.923174528405070305e-03 2.907456131651997566e-03 2.972671063616871834e-03 1.578926108777523041e-02 2.430858556181192398e-03 2.984510734677314758e-03 3.545092046260833740e-02
