-1.711258199065923691e-03
-3.271367459092289209e-04
2.453628368675708771e-02
1.781785744242370129e-03
6.606583483517169952e-04
2.260762825608253479e-02
-2.502482384443283081e-03
2.768302895128726959e-02
-2.616196579765528440e-04
-6.557264830917119980e-03
-4.233440267853438854e-04
1.940134726464748383e-02
1.703088491922244430e-04
-4.240735433995723724e-04
-3.360043629072606564e-04
1.549882814288139343e-03
-5.628110957331955433e-04
2.242242172360420227e-02
1.653874292969703674e-02
-4.445004451554268599e-04
8.531438186764717102e-03
1.099207811057567596e-02
-3.265882551204413176e-04
1.503345556557178497e-02
2.291272580623626709e-02
1.288771629333496094e-02
-3.863394667860120535e-04
1.665888354182243347e-02
1.242870185524225235e-02
5.202531069517135620e-02
1.337194116786122322e-03
7.103947456926107407e-03
7.055699359625577927e-03
-4.685104067903012037e-04
6.540937349200248718e-03
-5.382858682423830032e-03
-4.421630583237856627e-04
9.469593875110149384e-03
1.600319519639015198e-02
1.944875530898571014e-02
7.078121881932020187e-03
1.533972471952438354e-02
-1.891008723760023713e-04
1.890917122364044189e-02
9.047924540936946869e-03
8.740627206861972809e-03
2.708504535257816315e-02
1.648209430277347565e-02
-5.838702782057225704e-04
-5.748392431996762753e-04
9.676721878349781036e-03
-3.219006757717579603e-04
1.254569180309772491e-02
6.096811033785343170e-03
7.899080403149127960e-03
-2.386657433817163110e-04
-4.525965487118810415e-04
-4.347131180111318827e-04
-2.817531640175729990e-04
-8.917863480746746063e-03
7.922876626253128052e-03
2.507175132632255554e-02
-2.737350296229124069e-04
3.092024102807044983e-02
2.289260737597942352e-02
-3.222692059352993965e-03
2.118648495525121689e-03
-4.667531175073236227e-04
6.239560898393392563e-03
-3.547950182110071182e-04
2.372550033032894135e-02
9.470640179642941803e-06
4.848219454288482666e-03
2.960357442498207092e-02
1.303349807858467102e-02
-4.800719674676656723e-03
-5.981819704174995422e-04
-6.956075085327029228e-04
2.306256815791130066e-02
-2.882972476072609425e-04
-6.265587289817631245e-04
-5.979591514915227890e-04
3.490683063864707947e-02
-3.245037514716386795e-04
-3.938355075661092997e-04
-3.831252979580312967e-04
9.232335723936557770e-03
-5.047300946898758411e-04
1.465633511543273926e-03
-3.222353116143494844e-04
1.135260332375764847e-02
2.408971078693866730e-02
1.698012463748455048e-02
1.026624627411365509e-02
-4.818922607228159904e-04
2.281509898602962494e-02
7.369867991656064987e-03
-3.301324904896318913e-04
2.594083547592163086e-03
8.980209939181804657e-03
1.179825700819492340e-02
-3.543895727489143610e-04
1.371926721185445786e-02
4.700429737567901611e-02
-3.903370234183967113e-04
2.420850284397602081e-02
2.646200009621679783e-04
3.972961567342281342e-03
1.288859732449054718e-02
1.597819477319717407e-02
2.067833021283149719e-02
7.747226394712924957e-03
1.816831529140472412e-02
1.530931796878576279e-02
9.749278426170349121e-03
8.129381574690341949e-03
2.166973613202571869e-02
2.237148955464363098e-02
5.538232289836741984e-05
1.958875916898250580e-02
-5.032331682741641998e-04
-3.422801673877984285e-04
2.157086879014968872e-02
2.094933390617370605e-02
4.837952088564634323e-03
1.297022565267980099e-03
8.930525742471218109e-03
-3.531915426719933748e-04
2.424407191574573517e-02
1.334900595247745514e-02
-2.514604013413190842e-03
3.400508314371109009e-03
-7.376593421213328838e-04
6.789271254092454910e-03
2.200118638575077057e-02
-3.633961023297160864e-04
4.837342072278261185e-03
5.031242035329341888e-03
5.620167125016450882e-03
-4.167620791122317314e-04
-2.412828471278771758e-04
8.787792176008224487e-04
1.650180667638778687e-02
1.024753041565418243e-02
-3.485581546556204557e-04
-1.084085647016763687e-02
1.505163218826055527e-02
4.231540113687515259e-02
-5.690328544005751610e-04
1.631895825266838074e-02
5.020372103899717331e-03
2.112892642617225647e-02
1.205778680741786957e-02
-2.866541908588260412e-04
2.663613110780715942e-02
-2.054893784224987030e-02
2.472664043307304382e-02
2.472962066531181335e-02
2.297251485288143158e-02
1.236526202410459518e-02
2.003849670290946960e-02
-3.957065753638744354e-03
1.339316461235284805e-02
2.201060391962528229e-02
2.792323194444179535e-02
-6.537799723446369171e-03
1.280609611421823502e-02
6.438862066715955734e-03
-6.974617717787623405e-04
-3.372073406353592873e-04
-8.148816996254026890e-04
-5.185994668863713741e-04
-5.446854047477245331e-04
-6.046577473171055317e-04
2.914719469845294952e-02
1.295649446547031403e-02
1.998410373926162720e-02
4.273462668061256409e-02
1.646945998072624207e-02
2.394345588982105255e-02
1.343701779842376709e-02
6.205508019775152206e-03
1.367033086717128754e-02
-1.486772234784439206e-04
1.021392550319433212e-02
2.205087430775165558e-02
8.152132853865623474e-03
-4.419018805492669344e-04
1.117178890854120255e-02
6.797106936573982239e-03
1.237282762303948402e-03
-3.721651446539908648e-04
3.199877589941024780e-02
-2.584550820756703615e-04
-2.788687706924974918e-04
-3.570975363254547119e-02
2.465005591511726379e-02
1.859842427074909210e-02
2.452033571898937225e-03
-2.235367282992228866e-04
-4.990809829905629158e-04
-2.344584558159112930e-03
1.595126278698444366e-02
5.460601765662431717e-03
3.491383977234363556e-03
1.597487740218639374e-02
9.010578505694866180e-03
-3.542047634255141020e-04
-2.836759667843580246e-04
1.043880544602870941e-02
6.560435052961111069e-03
2.258687512949109077e-03
-1.846592058427631855e-03
-6.317590014077723026e-04
1.475848071277141571e-02
1.113183330744504929e-03
-3.082112176343798637e-03
3.269927110522985458e-03
7.938766852021217346e-03
-5.112644867040216923e-04
1.718691550195217133e-02
1.878514885902404785e-02
1.192663796246051788e-02
1.548571884632110596e-02
1.029076147824525833e-02
-9.603900252841413021e-05
3.288470616098493338e-04
-3.485275665298104286e-03
-3.269684966653585434e-04
3.830835968255996704e-02
-4.212054482195526361e-04
-4.340041428804397583e-02
1.094644516706466675e-02
3.651052538771182299e-04
1.385557372123003006e-02
1.136115286499261856e-02
1.488867029547691345e-02
-6.895285332575440407e-05
-3.614312445279210806e-04
-5.204553599469363689e-04
-5.590452346950769424e-04
-1.039071008563041687e-03
1.305382326245307922e-02
-8.163224265445023775e-05
3.415879327803850174e-03
2.283624000847339630e-02
9.803931228816509247e-03
-4.066802503075450659e-04
1.010927557945251465e-02
4.555410239845514297e-03
1.786754815839231014e-03
2.506223320960998535e-02
-3.745293943211436272e-03
2.719748020172119141e-02
-1.998959807679057121e-03
1.463910285383462906e-02
