-9.374033659696578979e-03 5.794147145934402943e-04 -1.282307930523529649e-04 -3.236571326851844788e-02 5.149269942194223404e-03 -5.165191250853240490e-04 7.129312143661081791e-04 8.922478184103965759e-03 5.976794753223657608e-03 -2.609845437109470367e-02 1.457644611946307123e-05 -5.529547925107181072e-04 -7.679262780584394932e-04 -6.491110543720424175e-04 -2.617652644403278828e-04 1.390751451253890991e-03 2.586801908910274506e-02 9.192017838358879089e-03 1.145613350672647357e-04 -2.201589941978454590e-02 2.901638485491275787e-02 1.187738031148910522e-02 4.098082717973738909e-05 -4.156733048148453236e-04 9.497440769337117672e-04 4.740339863928966224e-05 -3.386122989468276501e-04 -5.450346693396568298e-02 6.659638136625289917e-03 -1.117536984384059906e-02 1.609162427484989166e-02 -5.727485986426472664e-04 -9.868285618722438812e-03 -6.575624924153089523e-03 -1.456155069172382355e-02 3.938578814268112183e-02 -2.356856712140142918e-04 9.385499171912670135e-03 5.078040529042482376e-03 2.996490150690078735e-02 1.010352652519941330e-02 -4.370183160062879324e-04 3.651282191276550293e-02 1.827847585082054138e-02 3.600849770009517670e-03 8.345158770680427551e-03 -1.485656015574932098e-03 -4.697417840361595154e-02 -3.933351545128971338e-04 -2.313288860023021698e-04 -1.370517350733280182e-02 -9.074799891095608473e-05 -2.922594314441084862e-03 3.169447556138038635e-02 -2.981709875166416168e-02 1.587058790028095245e-02 -2.916810626629740000e-04 -1.071021324605681002e-04 -2.982655772939324379e-03 8.488168008625507355e-03 7.609779480844736099e-03 -1.713633351027965546e-02 -2.639464510139077902e-04 -1.063905004411935806e-02 2.012452110648155212e-02 -2.069279365241527557e-02 -2.737648226320743561e-02 -2.004066295921802521e-02 -9.360997937619686127e-03 2.010018652072176337e-04 -1.545138377696275711e-02 -2.417145669460296631e-02 1.630151644349098206e-02 3.971209283918142319e-03 -6.652435753494501114e-03 -9.190555429086089134e-04 3.267300501465797424e-02 2.891456242650747299e-03 -5.401247180998325348e-03 -6.921069871168583632e-05 -1.029914943501353264e-03 -2.112994901835918427e-02 -1.586811989545822144e-02 2.337827114388346672e-03 1.404738891869783401e-02 2.510530129075050354e-02 -5.378334783017635345e-03 -1.041813567280769348e-02 4.283831641077995300e-02 -3.540451580192893744e-04 3.986384719610214233e-02 -1.462031807750463486e-02 8.273679763078689575e-03 -4.321734607219696045e-02 2.424243837594985962e-02 -1.272482238709926605e-02 1.461538579314947128e-02 -2.963089616969227791e-03 -1.535253319889307022e-02 2.052158815786242485e-03 -4.716404873761348426e-05 3.458552993834018707e-03 1.516278553754091263e-02 8.242908865213394165e-03 1.574679976329207420e-03 1.155818812549114227e-02 9.278656914830207825e-03 5.172217264771461487e-03 -1.404461509082466364e-04 8.554907981306314468e-04 -9.464242495596408844e-03 -2.039986895397305489e-03 6.970491260290145874e-03 1.190176140516996384e-02 7.600472122430801392e-02 -2.454166114330291748e-02 -2.207048609852790833e-02 1.372638624161481857e-03 -2.997863804921507835e-03 5.170770455151796341e-03 -1.478877966292202473e-03 -1.805414445698261261e-02 2.521621994674205780e-02 -2.273980528116226196e-03 -1.089097280055284500e-02 -3.510171081870794296e-03 -5.071768909692764282e-02 -7.016386371105909348e-03 -6.877644918859004974e-03 9.365432895720005035e-03 1.904394826851785183e-03 -2.908924594521522522e-03 2.397170290350914001e-02 -6.056678015738725662e-03 2.028259950748179108e-05 7.699733600020408630e-03 1.247441954910755157e-02 1.036987826228141785e-02 -4.070239374414086342e-04 -3.450475167483091354e-03 -7.645973819307982922e-04 1.442412286996841431e-02 8.189691230654716492e-03 1.959180645644664764e-02 3.181090205907821655e-02 -1.423976733349263668e-03 1.018560677766799927e-02 -6.280533038079738617e-03 -1.023679040372371674e-02 3.542805789038538933e-03 1.262148260138928890e-03 -2.118187025189399719e-03 5.327503895387053490e-04 8.852654136717319489e-03 -1.036798115819692612e-02 2.324846806004643440e-03 1.499566249549388885e-02 -1.847450993955135345e-02 -8.102400228381156921e-03 -1.931033842265605927e-02 -5.212529376149177551e-02 -9.089800529181957245e-03 -1.185452379286289215e-02 3.666104003787040710e-02 -1.330595114268362522e-03 -5.556030198931694031e-02 -1.226352644152939320e-03 -1.111559756100177765e-02 3.588368743658065796e-02 1.237170584499835968e-02 1.783308573067188263e-02 -1.297301969316322356e-05 1.888149417936801910e-03 -2.108898013830184937e-03 6.562084425240755081e-03 -4.893918521702289581e-04 -1.789636723697185516e-02 -1.707158982753753662e-02 -2.289234398631379008e-04 5.487019079737365246e-04 1.262197084724903107e-02 -8.145798929035663605e-03 -1.900215446949005127e-02 1.611509546637535095e-02 -2.159738168120384216e-02 -6.948103546164929867e-04 1.274340227246284485e-02 -5.912623601034283638e-04 1.030308566987514496e-02 -8.049061289057135582e-04 -7.921492215245962143e-04 -2.438019873807206750e-04 -1.026402041316032410e-02 3.645779332146048546e-03 -9.282977320253849030e-03 -3.002898301929235458e-04 8.108664304018020630e-03 1.013009023154154420e-05 8.097953163087368011e-03 1.215348485857248306e-03 -3.531956172082573175e-04 -2.997998613864183426e-03 -1.674109511077404022e-02 -3.275385871529579163e-02 2.984542334161233157e-05 2.697172202169895172e-02 6.909406511113047600e-04 -1.274108886718750000e-02 1.889648847281932831e-03 -6.626182002946734428e-04 6.174918380565941334e-04 -1.574661437189206481e-04 1.617491431534290314e-02 -5.397402564994990826e-04 -1.256700779777020216e-04 -3.883872553706169128e-02 -2.071336470544338226e-02 -7.903140969574451447e-03 -7.247744593769311905e-03 -1.588159939274191856e-03 -4.360097227618098259e-04 -1.789825782179832458e-02 2.638269215822219849e-03 1.528389286249876022e-02 -4.859401658177375793e-02 4.096894699614495039e-04 -2.617753669619560242e-02 2.297581546008586884e-02 -4.411359841469675303e-04 1.495282445102930069e-02 -1.306424615904688835e-03 4.162291996181011200e-03 2.667532302439212799e-03 -8.485058206133544445e-04 -7.104344666004180908e-02 -1.756743731675669551e-04 -2.497774921357631683e-02 -1.272156462073326111e-02 -5.192190292291343212e-04 -2.477754279971122742e-02 1.091432571411132812e-02 -1.689533516764640808e-02 -4.014054313302040100e-03 7.337841816479340196e-05 1.040053647011518478e-02 5.447510164231061935e-03 8.317668922245502472e-03 -3.735414519906044006e-02 1.593010383658111095e-04 -1.549566537141799927e-02 9.648498147726058960e-03 2.778796013444662094e-03 -9.746153227752074599e-05 1.934282481670379639e-02 -1.241611875593662262e-02 -2.988297492265701294e-02
9.717046283185482025e-03 3.198384947609156370e-04 1.411400735378265381e-04 -3.794824471697211266e-03 -1.520823128521442413e-02 1.623148098587989807e-02 -9.058783180080354214e-04 6.025963276624679565e-02 9.645555168390274048e-03 -1.005550939589738846e-02 -5.668827798217535019e-03 -2.140578144462779164e-04 -3.296158974990248680e-04 7.564207189716398716e-04 5.969979101791977882e-04 -4.885017406195402145e-04 4.621620848774909973e-02 5.904959980398416519e-03 -1.319874450564384460e-02 5.023877322673797607e-02 -3.945074509829282761e-03 3.745774179697036743e-02 3.182613581884652376e-04 3.254250332247465849e-04 6.470079533755779266e-04 -1.799459569156169891e-04 -1.066576456651091576e-03 5.096014589071273804e-02 -1.480499189347028732e-02 -2.395024523138999939e-02 -2.490542456507682800e-02 -8.378448546864092350e-04 6.960939615964889526e-02 3.886403515934944153e-02 1.294357981532812119e-02 -2.784214355051517487e-02 5.177891580387949944e-04 -5.626442283391952515e-02 2.503470517694950104e-02 -7.637986709596589208e-05 2.708145976066589355e-02 -1.073094177991151810e-02 5.441290512681007385e-02 -1.978692039847373962e-02 2.628183178603649139e-02 -1.482462161220610142e-03 5.029528983868658543e-04 -9.866788983345031738e-03 -4.659552359953522682e-04 -3.689462391776032746e-05 1.645616628229618073e-02 4.832490230910480022e-04 -1.684100739657878876e-02 -2.548967674374580383e-02 1.355014089494943619e-02 3.636798262596130371e-02 1.271391374757513404e-04 9.789472096599638462e-05 -4.954224568791687489e-04 -1.903992146253585815e-02 9.835830889642238617e-03 1.997728087007999420e-02 4.883793299086391926e-04 3.721999470144510269e-03 3.011294640600681305e-02 3.192545846104621887e-02 -1.764170266687870026e-02 -2.273408696055412292e-02 -3.715150058269500732e-03 -1.656496606301516294e-04 -1.331707183271646500e-02 -1.079347636550664902e-02 -3.354425728321075439e-02 1.692183874547481537e-02 -7.111464161425828934e-03 1.493882504291832447e-03 -4.929428454488515854e-03 -2.309884317219257355e-02 1.905286684632301331e-02 4.348414659034460783e-04 -2.984140010084956884e-04 -1.285366062074899673e-02 -2.146957069635391235e-02 -2.948556654155254364e-02 2.610228955745697021e-03 -1.304552145302295685e-02 -1.846170052886009216e-02 -4.673403687775135040e-03 -6.114865094423294067e-02 -6.521765142679214478e-02 -2.062844112515449524e-02 2.092267200350761414e-02 3.460759669542312622e-02 -1.179374102503061295e-02 3.047273866832256317e-02 -4.083430767059326172e-02 2.310615405440330505e-02 -3.087574848905205727e-03 2.248804457485675812e-02 -2.110728807747364044e-02 -2.674064307939261198e-04 2.459716983139514923e-02 -1.951793022453784943e-02 -2.772143483161926270e-02 6.962582701817154884e-04 -2.158060111105442047e-02 3.291183710098266602e-02 -1.907210797071456909e-02 4.699101671576499939e-02 3.373362997081130743e-04 1.636307686567306519e-02 1.589919440448284149e-02 4.499307833611965179e-03 3.928141295909881592e-02 1.551689952611923218e-02 3.402526304125785828e-02 -5.087053403258323669e-02 9.839599020779132843e-03 1.054632570594549179e-02 -2.102137915790081024e-02 -2.459662780165672302e-02 1.128973066806793213e-02 3.285555541515350342e-02 5.360977411328349262e-06 -2.362865023314952850e-02 -1.853218674659729004e-02 3.838566364720463753e-03 -2.380946464836597443e-02 -1.658751629292964935e-02 3.050239011645317078e-02 -2.989521063864231110e-02 5.097647663205862045e-03 1.894669048488140106e-02 -1.096385344862937927e-02 -1.043570155161432922e-04 7.481209002435207367e-03 3.737869206815958023e-03 2.793817035853862762e-02 7.976248743943870068e-04 -6.076410412788391113e-02 -1.116457278840243816e-03 -1.281111850403249264e-03 7.688762247562408447e-02 1.858726260252296925e-03 -1.258423645049333572e-02 1.150715351104736328e-02 -2.915523387491703033e-02 -3.192559815943241119e-03 -5.745935253798961639e-03 -8.473496884107589722e-03 1.434427592903375626e-02 -8.540015667676925659e-03 1.159213861683383584e-04 4.046074301004409790e-02 -1.702457293868064880e-02 9.812845848500728607e-03 -1.593977957963943481e-02 -2.731215208768844604e-02 4.446883127093315125e-02 -1.407094765454530716e-02 -5.920685827732086182e-03 -9.512334363535046577e-04 3.445301204919815063e-02 2.311044186353683472e-02 -1.367512624710798264e-03 -2.648797072470188141e-02 -7.795519381761550903e-02 5.637108162045478821e-02 4.262793809175491333e-02 -8.232972584664821625e-03 3.844388993456959724e-03 -6.420468562282621861e-04 7.849335670471191406e-03 6.374020874500274658e-02 3.218231350183486938e-02 3.082894720137119293e-02 2.347138524055480957e-02 8.183313161134719849e-02 -3.127086965832859278e-04 -7.791710086166858673e-04 8.062327280640602112e-03 1.414009463042020798e-02 2.219183370471000671e-03 8.395823650062084198e-03 1.047755219042301178e-02 -3.782133280765265226e-04 -3.102558478713035583e-02 4.001196066383272409e-04 2.363354153931140900e-02 6.476767011918127537e-04 -4.854952567256987095e-04 4.596433136612176895e-04 -1.508879009634256363e-02 5.221388768404722214e-03 -5.382433068007230759e-03 -4.593676712829619646e-04 5.294572561979293823e-02 4.159352101851254702e-04 2.341870218515396118e-02 -1.439743582159280777e-02 -2.274537255289033055e-04 -1.915686763823032379e-02 -4.583228752017021179e-02 3.381438180804252625e-02 -7.500795763917267323e-04 -3.362656012177467346e-02 -1.320827193558216095e-02 -3.838299214839935303e-02 -4.657821555156260729e-04 3.090915828943252563e-02 -2.901948615908622742e-02 -1.792702387319877744e-04 8.903120644390583038e-03 5.481285625137388706e-04 9.500957094132900238e-03 -3.785610198974609375e-02 -3.970847651362419128e-02 -2.107854187488555908e-02 7.181546650826931000e-03 3.491230891086161137e-04 1.419789250940084457e-02 -1.393170095980167389e-02 2.882899530231952667e-02 -1.772461272776126862e-02 4.683735966682434082e-02 3.554402501322329044e-04 1.934072747826576233e-02 1.770494878292083740e-02 2.034596545854583383e-04 -7.026494294404983521e-02 8.567085751565173268e-05 -3.291023895144462585e-02 -6.828777492046356201e-03 -3.293175995349884033e-02 1.712400093674659729e-02 1.162568572908639908e-03 4.468450695276260376e-02 -1.597671397030353546e-02 -2.027149870991706848e-02 2.558717504143714905e-03 -1.299916300922632217e-03 9.750310331583023071e-03 4.102770611643791199e-02 -5.201276508159935474e-04 5.000955611467361450e-02 -1.572865061461925507e-02 4.334348253905773163e-03 1.802898570895195007e-02 1.238041184842586517e-02 2.649533003568649292e-02 1.870745979249477386e-02 -1.215817965567111969e-02 3.858958953060209751e-04 -3.319079056382179260e-02 1.848629489541053772e-02 -1.621646247804164886e-02
1.938169635832309723e-02 1.533846836537122726e-03 3.302528639324009418e-04 9.729737415909767151e-03 -3.804424032568931580e-02 1.500514801591634750e-02 3.701388777699321508e-04 2.572626248002052307e-02 -1.136954315006732941e-02 3.768716007471084595e-03 2.131064422428607941e-03 -1.166306901723146439e-03 -6.134943105280399323e-04 -1.705587201286107302e-04 -4.636392695829272270e-04 -3.281274985056370497e-04 -4.808570817112922668e-02 -1.436593942344188690e-02 5.815529264509677887e-03 3.730932250618934631e-02 -2.616995573043823242e-02 1.883853971958160400e-02 1.028110156767070293e-03 1.737595722079277039e-02 -1.649554935283958912e-03 4.890982527285814285e-04 3.008129424415528774e-04 -3.207121044397354126e-02 -2.188298385590314865e-03 -2.542419731616973877e-02 -2.229724638164043427e-02 5.795724428026005626e-05 -1.013032905757427216e-02 2.127864025533199310e-02 1.366875041276216507e-02 -1.219780743122100830e-02 7.154059130698442459e-04 -3.895040601491928101e-02 -3.423685207962989807e-02 4.096483066678047180e-02 -1.628809608519077301e-02 9.322080761194229126e-03 8.170719258487224579e-03 -2.492993511259555817e-02 2.287416718900203705e-02 -4.299859330058097839e-02 1.445791777223348618e-02 1.714787259697914124e-02 -2.380243531661108136e-04 -2.539673878345638514e-04 7.120084017515182495e-03 -2.035980578511953354e-04 3.784297406673431396e-02 -1.296497322618961334e-02 -1.369386352598667145e-02 -2.187992446124553680e-02 -6.591527926502749324e-05 7.499147905036807060e-04 -4.021631320938467979e-05 -3.221254562959074974e-03 2.319133095443248749e-02 3.403440583497285843e-03 -1.830464752856642008e-04 6.897289305925369263e-03 -4.702476784586906433e-03 -1.190924830734729767e-02 -1.494919066317379475e-03 -1.285364851355552673e-02 1.776306331157684326e-02 -4.018314648419618607e-04 8.558607078157365322e-04 1.157526765018701553e-02 -3.891867236234247684e-04 1.909833285026252270e-03 1.067609991878271103e-03 3.041011514142155647e-04 1.725621335208415985e-02 6.610252894461154938e-03 -4.265302419662475586e-02 -6.729021552018821239e-04 7.651442429050803185e-04 -2.960063284263014793e-03 -1.409477181732654572e-02 -1.866105757653713226e-02 3.629165887832641602e-02 -7.679228205233812332e-03 -1.520296279340982437e-02 2.555187791585922241e-02 -1.153809577226638794e-02 -3.866212442517280579e-02 1.967158727347850800e-02 1.156258676201105118e-02 2.408780716359615326e-02 -4.867340996861457825e-02 -2.433740906417369843e-02 1.544199977070093155e-02 2.305153757333755493e-02 8.614328689873218536e-03 -4.230633005499839783e-02 -3.425911534577608109e-03 -5.359260831028223038e-04 1.436069980263710022e-02 -5.537036340683698654e-04 2.776706777513027191e-02 1.139199230237863958e-04 1.689341105520725250e-02 2.017002552747726440e-02 -5.987294018268585205e-02 -4.252110794186592102e-02 1.712036202661693096e-03 -2.734101377427577972e-02 1.956100016832351685e-02 1.937991380691528320e-02 2.142941206693649292e-02 3.849656134843826294e-02 6.611334159970283508e-03 -1.032591145485639572e-02 1.227834820747375488e-02 -3.564512729644775391e-02 -1.048909965902566910e-02 1.935493201017379761e-02 -4.070708062499761581e-03 -7.073178421705961227e-03 1.897230686154216528e-04 -2.799767069518566132e-02 -1.031525619328022003e-02 8.060527965426445007e-03 4.964632913470268250e-02 2.727088704705238342e-02 -4.512872546911239624e-02 -3.075148444622755051e-03 -3.664765134453773499e-02 -6.292791664600372314e-02 1.512285234639421105e-04 -1.307841856032609940e-03 -3.775002900511026382e-03 4.093184135854244232e-03 -2.634065970778465271e-02 -3.949593228753656149e-04 1.167510636150836945e-02 4.798766167368739843e-04 -3.626886382699012756e-02 -2.185786515474319458e-02 1.291203312575817108e-02 -3.760992735624313354e-02 -4.160038195550441742e-03 3.347744792699813843e-02 -5.265160463750362396e-03 -4.229867085814476013e-02 -4.404707998037338257e-02 3.386718034744262695e-02 -2.550705522298812866e-02 2.747301768977195024e-04 1.807570643723011017e-02 1.250931294634938240e-03 1.617389358580112457e-02 1.633211225271224976e-02 2.872919291257858276e-02 -1.542422268539667130e-02 3.106698393821716309e-02 3.241370245814323425e-02 -3.435169905424118042e-02 -5.597795825451612473e-03 1.368072163313627243e-02 2.318793721497058868e-02 -2.628922648727893829e-02 -4.532212018966674805e-02 -1.528667937964200974e-02 -4.121630638837814331e-02 2.004264155402779579e-03 -1.922057941555976868e-02 7.561112288385629654e-04 1.744434237480163574e-02 8.804465644061565399e-03 -1.516912505030632019e-02 9.248778223991394043e-03 -1.269802078604698181e-02 -1.282985601574182510e-02 -7.275826064869761467e-04 -4.307477211114019156e-04 -1.906293816864490509e-02 -8.306978852488100529e-04 -1.013311836868524551e-02 -3.014245629310607910e-02 3.122216463088989258e-02 -2.666398650035262108e-04 -4.425866156816482544e-02 6.108537199907004833e-04 -1.738859107717871666e-03 -1.232783426530659199e-03 5.534960073418915272e-04 -7.079342030920088291e-04 -8.647795766592025757e-03 3.303496167063713074e-02 -1.024069730192422867e-02 -6.787398597225546837e-04 -4.014224279671907425e-03 8.608812349848449230e-04 -7.592360954731702805e-03 1.585228741168975830e-02 1.684662856860086322e-05 -1.096936687827110291e-02 -2.024385333061218262e-02 3.053036890923976898e-02 -3.340711991768330336e-04 2.580373361706733704e-02 -1.066372822970151901e-02 -4.441685229539871216e-02 -1.157176797278225422e-03 -1.478592306375503540e-02 -8.479834534227848053e-03 6.810263730585575104e-04 2.537650801241397858e-02 -1.045774086378514767e-03 7.079376373440027237e-03 5.489700473845005035e-03 4.830544348806142807e-03 1.589438319206237793e-02 1.379839051514863968e-02 2.971025242004543543e-04 -2.791460789740085602e-02 -2.795440144836902618e-02 -2.634738571941852570e-02 -7.289260160177946091e-03 -6.459753960371017456e-02 -1.052026092906999111e-07 -1.920972578227519989e-02 -2.130272984504699707e-02 1.167228096164762974e-03 1.458616554737091064e-02 4.880435881204903126e-04 -2.660524845123291016e-02 -2.294853888452053070e-02 2.151313610374927521e-02 5.069976300001144409e-02 6.038466744939796627e-05 1.921305991709232330e-02 -4.128121957182884216e-02 2.186609664931893349e-03 -1.182319875806570053e-02 5.438666790723800659e-03 -1.873147860169410706e-02 1.465837191790342331e-02 -4.280696157366037369e-04 1.034438144415616989e-02 2.262016758322715759e-02 3.578289598226547241e-02 -3.371843602508306503e-03 -4.098733887076377869e-03 1.382555812597274780e-02 -4.380733706057071686e-03 2.894369419664144516e-03 -4.586226423271000385e-04 -1.489727385342121124e-02 -3.193424269556999207e-02 6.558202952146530151e-02
1.301353983581066132e-02 -3.796091768890619278e-04 7.838999154046177864e-04 3.561339527368545532e-02 9.742913767695426941e-03 -1.560222450643777847e-02 2.591347147244960070e-04 5.313758179545402527e-02 3.243235498666763306e-02 -1.962862536311149597e-02 1.247142069041728973e-02 -3.376830718480050564e-04 -4.121488309465348721e-04 -3.873515233863145113e-04 6.946607027202844620e-04 3.641627845354378223e-04 5.441072583198547363e-02 -9.443780034780502319e-02 1.781076006591320038e-02 1.219332311302423477e-02 -8.377099409699440002e-03 -1.280092168599367142e-02 2.026464644586667418e-04 -1.697136461734771729e-02 -7.818158483132719994e-04 1.088238554075360298e-03 -8.917741943150758743e-04 -5.316946282982826233e-02 2.023593522608280182e-03 -2.254093997180461884e-02 -5.890310741961002350e-03 -1.300511998124420643e-03 4.821801558136940002e-03 5.874697584658861160e-03 -1.337514910846948624e-02 -1.313087996095418930e-02 -1.956265041371807456e-04 -3.907971829175949097e-02 -7.761484384536743164e-02 -2.438014186918735504e-02 1.114963306463323534e-04 7.018833886831998825e-03 -2.622266998514533043e-03 2.006883546710014343e-02 4.928230773657560349e-03 6.166937295347452164e-03 -2.003545127809047699e-02 -2.031834237277507782e-02 -4.360922321211546659e-04 2.591579686850309372e-04 -1.486374530941247940e-02 -1.195076401927508414e-05 -1.381368655711412430e-02 1.585928909480571747e-02 -3.947502747178077698e-02 -5.690134316682815552e-02 4.724337486550211906e-04 -2.975858224090188742e-04 4.729374870657920837e-02 1.550664938986301422e-02 -1.316982880234718323e-02 3.709379956126213074e-02 -2.429456617392133921e-05 2.825378999114036560e-02 -6.210685707628726959e-03 1.463166717439889908e-02 1.219121459871530533e-02 1.962746120989322662e-02 1.739128120243549347e-02 -2.692462003324180841e-04 1.036415901035070419e-02 2.410720475018024445e-02 -2.186692878603935242e-02 -1.833216659724712372e-02 1.043688878417015076e-02 3.140572880511172116e-05 2.434592321515083313e-02 -7.207645103335380554e-03 -4.548659175634384155e-02 1.313586690230295062e-04 8.619581931270658970e-04 -2.713455818593502045e-02 7.325423415750265121e-03 1.798945106565952301e-02 3.667156398296356201e-02 3.407804667949676514e-02 1.865144260227680206e-02 -2.060626447200775146e-02 5.185845773667097092e-03 -2.409275621175765991e-02 1.899508759379386902e-02 9.947485523298382759e-04 -2.104403637349605560e-02 1.384939625859260559e-02 -3.731846809387207031e-02 -1.325770653784275055e-02 -2.416188083589076996e-02 9.695785120129585266e-04 1.921825110912322998e-02 2.657923661172389984e-02 -2.309244300704449415e-04 9.147223085165023804e-03 -2.376650273799896240e-02 -8.247236721217632294e-03 1.018049195408821106e-03 3.452435508370399475e-02 5.895431339740753174e-02 6.220615468919277191e-03 -2.220283076167106628e-02 9.600740158930420876e-04 1.893931883387267590e-03 -1.342175435274839401e-02 -1.371384691447019577e-02 -2.087751030921936035e-02 1.141993422061204910e-02 -6.279344670474529266e-03 -5.922250077128410339e-02 4.505869001150131226e-02 -4.553832486271858215e-02 1.987978816032409668e-02 -1.897403784096240997e-02 -3.774506039917469025e-04 1.534489542245864868e-02 -1.032109488733112812e-03 3.197777085006237030e-03 2.161897346377372742e-02 2.161491289734840393e-02 6.354347337037324905e-03 -1.176146883517503738e-02 -3.997616842389106750e-02 3.031480871140956879e-02 2.419533580541610718e-02 -1.487641874700784683e-02 -8.776050992310047150e-03 -7.086095865815877914e-04 6.749004125595092773e-02 2.678449265658855438e-02 -6.962870247662067413e-03 4.654680087696760893e-04 -1.986497314646840096e-03 1.152388431364670396e-04 1.877757720649242401e-02 -9.545028209686279297e-03 6.215853150933980942e-03 -3.499598428606987000e-02 9.454424493014812469e-03 -2.939138002693653107e-02 -6.388632953166961670e-02 -7.781181484460830688e-02 -4.455398768186569214e-02 3.487067669630050659e-02 -4.955983255058526993e-03 9.200291242450475693e-04 -1.771482639014720917e-02 1.444588880985975266e-02 4.709804058074951172e-02 9.200511500239372253e-03 -2.083209715783596039e-02 -6.614142656326293945e-02 -3.691066429018974304e-02 -2.140760421752929688e-02 -3.587466105818748474e-02 -8.035053499042987823e-03 1.113749574869871140e-02 4.956373944878578186e-03 -8.778919465839862823e-03 -2.505517750978469849e-02 1.288019586354494095e-02 6.231810897588729858e-03 -3.962287306785583496e-02 -5.999067425727844238e-02 1.186631197924725711e-04 -1.644171960651874542e-02 -3.905222564935684204e-02 2.262234501540660858e-02 -4.962104558944702148e-02 3.439286351203918457e-02 5.459520220756530762e-02 1.636091037653386593e-04 -7.566013373434543610e-04 -6.805497407913208008e-02 1.824278943240642548e-02 -3.808321058750152588e-02 2.744010183960199356e-03 1.559081207960844040e-02 8.153441012836992741e-04 -3.795740753412246704e-02 -2.905332366935908794e-04 3.058204427361488342e-03 4.231745697325095534e-05 6.156667368486523628e-04 7.674003136344254017e-04 3.969585988670587540e-03 1.302775461226701736e-02 -6.007066462188959122e-03 6.891351949889212847e-05 -4.148452728986740112e-02 -1.213580952025949955e-03 2.601568587124347687e-02 1.712533831596374512e-02 2.952427312266081572e-04 3.368886932730674744e-02 -5.838014185428619385e-03 -1.315223705023527145e-02 8.573808590881526470e-04 5.813066847622394562e-03 -3.473072871565818787e-02 1.888100616633892059e-02 5.094275111332535744e-04 -3.873859718441963196e-02 -5.859367549419403076e-03 1.656489475863054395e-04 -1.558982767164707184e-02 4.386504879221320152e-04 -9.594437666237354279e-03 -5.715313833206892014e-03 1.106335595250129700e-02 -7.200387865304946899e-02 -1.656931824982166290e-02 -3.194692544639110565e-04 4.282918572425842285e-02 -1.625828631222248077e-02 2.157229371368885040e-02 -2.801419980823993683e-02 -3.545146808028221130e-02 6.395315285772085190e-04 4.485071077942848206e-02 -3.014139831066131592e-02 -1.028547761961817741e-03 -6.740882061421871185e-03 1.528589345980435610e-04 1.199829950928688049e-02 1.455838233232498169e-02 -1.541296113282442093e-02 7.318394258618354797e-03 4.524604300968348980e-04 2.339871972799301147e-02 -1.131824310868978500e-02 -6.784828845411539078e-03 -2.799039334058761597e-02 2.508089644834399223e-03 -7.605027407407760620e-03 -1.466385670937597752e-03 -1.583170727826654911e-03 2.850348316133022308e-02 -4.634028766304254532e-03 -5.523042287677526474e-03 8.920874446630477905e-03 3.744423016905784607e-02 -7.784046232700347900e-03 1.609025709331035614e-02 -7.062082644551992416e-03 -4.438725591171532869e-04 5.504244007170200348e-03 1.699337922036647797e-02 2.875303849577903748e-02
2.242655260488390923e-03 1.319727743975818157e-03 -7.345933699980378151e-04 2.314798720180988312e-02 3.959917649626731873e-02 1.935125328600406647e-02 -9.045687038451433182e-04 4.407062660902738571e-03 4.142604768276214600e-02 3.056637244299054146e-03 -1.852915994822978973e-02 -2.277565799886360765e-04 1.081592286936938763e-03 1.035997061990201473e-03 -6.404790910892188549e-04 -1.120597473345696926e-03 -3.824147582054138184e-02 -6.078445166349411011e-02 2.696136012673377991e-03 1.911670900881290436e-02 -4.741978645324707031e-02 5.605668411590158939e-04 -1.866422826424241066e-05 1.533427089452743530e-02 3.740937609109096229e-05 6.157841999083757401e-04 -7.718771230429410934e-04 -3.301084414124488831e-02 -2.944501116871833801e-03 -5.170261487364768982e-03 7.697251625359058380e-03 2.417085052002221346e-04 -4.118740092962980270e-03 9.673709049820899963e-03 1.004155911505222321e-02 3.382888063788414001e-02 -4.117609641980379820e-04 -3.029196988791227341e-03 -2.597466111183166504e-02 3.776264935731887817e-02 1.896880567073822021e-02 7.987963035702705383e-03 -6.410444620996713638e-03 1.966100372374057770e-02 -6.427497137337923050e-03 -1.412333361804485321e-02 -3.037405945360660553e-02 3.198654577136039734e-02 2.388366847299039364e-04 -1.105237752199172974e-04 1.238651666790246964e-02 1.108247088268399239e-03 -4.005992040038108826e-02 -3.373413905501365662e-02 1.268292497843503952e-02 -1.571705192327499390e-02 5.839538789587095380e-05 3.251851012464612722e-04 -1.852721348404884338e-02 -4.516169428825378418e-02 9.454273618757724762e-03 -4.189684696029871702e-04 -6.599073531106114388e-04 -4.168977960944175720e-02 -2.811704576015472412e-02 -2.280030772089958191e-02 1.177669968456029892e-02 -2.273442409932613373e-02 2.702115103602409363e-02 -2.169092040276154876e-04 1.788526540622115135e-03 1.150238979607820511e-02 9.264302439987659454e-03 -9.921715594828128815e-03 1.030162945389747620e-01 -9.989226236939430237e-04 4.699058458209037781e-02 -8.661998435854911804e-03 -3.673803061246871948e-02 -9.498760919086635113e-04 1.451801857911050320e-03 -3.152458230033516884e-03 -1.114021707326173782e-02 -6.121852435171604156e-03 4.560715332627296448e-02 3.895831480622291565e-02 6.135039031505584717e-03 1.443952508270740509e-02 1.449796184897422791e-02 4.712414368987083435e-02 -1.724763773381710052e-02 -1.544092781841754913e-02 -1.797387027181684971e-03 2.639061398804187775e-02 -9.460722655057907104e-02 4.429064574651420116e-04 -4.556342493742704391e-03 1.502257119864225388e-02 -4.960452392697334290e-02 -1.703041722066700459e-03 -6.490948726423084736e-04 7.332304958254098892e-03 -1.339612621814012527e-02 -1.444317679852247238e-02 4.851235644309781492e-05 1.111478656530380249e-01 1.532529015094041824e-02 2.402621466899290681e-04 5.945241451263427734e-02 8.748379332246258855e-05 3.944057971239089966e-02 1.305371522903442383e-02 1.661960035562515259e-02 5.026484373956918716e-03 6.913998723030090332e-02 8.022149652242660522e-02 -2.978780306875705719e-02 1.259728986769914627e-02 -9.090791456401348114e-03 4.294728394597768784e-03 -3.713807091116905212e-02 -6.375229358673095703e-02 1.487160660326480865e-02 -5.853194743394851685e-04 4.397441074252128601e-02 -3.713619336485862732e-02 -3.527538478374481201e-02 1.928253099322319031e-02 2.672641724348068237e-02 -3.636828064918518066e-02 1.338955364190042019e-03 -6.182827055454254150e-03 -1.717803999781608582e-03 -1.666175574064254761e-02 -6.176019669510424137e-04 4.292173311114311218e-03 -1.412214059382677078e-02 -6.597732752561569214e-02 -4.949801368638873100e-04 -3.050542902201414108e-03 1.583474841027054936e-05 -2.496816404163837433e-02 -2.493493817746639252e-02 -2.118357084691524506e-02 8.724040351808071136e-03 -1.176872756332159042e-02 -1.712365262210369110e-02 -8.414974063634872437e-02 -1.305017769336700439e-01 -1.084797456860542297e-02 9.862182661890983582e-03 -1.999525353312492371e-02 6.245207623578608036e-04 -1.428416115231812000e-03 -2.425816468894481659e-02 1.155166234821081161e-02 1.370623707771301270e-02 8.098831027746200562e-02 1.396526861935853958e-02 -7.764787413179874420e-03 4.395229741930961609e-02 9.737167507410049438e-03 1.068647950887680054e-02 -7.608606945723295212e-03 -4.724557045847177505e-03 3.332759812474250793e-02 -1.510094851255416870e-02 3.238861681893467903e-03 1.029105111956596375e-02 3.265090752393007278e-03 3.616532310843467712e-02 1.136119244620203972e-04 2.314154058694839478e-02 -2.575214020907878876e-02 2.248653769493103027e-02 -1.318332087248563766e-02 3.262824565172195435e-02 -9.727885015308856964e-03 -1.808730303309857845e-04 4.159795062150806189e-04 4.363986104726791382e-02 -1.911013270728290081e-03 1.954368501901626587e-02 2.386163920164108276e-02 -1.092632487416267395e-02 3.448440402280539274e-04 1.671953126788139343e-02 -5.041321855969727039e-04 2.070527896285057068e-02 1.017249669530428946e-04 6.777292583137750626e-06 2.233001578133553267e-05 -1.407089643180370331e-03 2.344211796298623085e-03 9.640303440392017365e-03 -1.095544896088540554e-03 2.077275328338146210e-02 -3.946179058402776718e-04 2.188713848590850830e-02 -3.463265020400285721e-03 7.679227273911237717e-04 -2.994833141565322876e-02 -1.832036487758159637e-02 1.388529408723115921e-02 1.403868518536910415e-04 1.618314534425735474e-02 2.075869776308536530e-02 -1.267889607697725296e-02 1.002475153654813766e-03 1.868125982582569122e-02 -2.585927955806255341e-03 -2.429862943245097995e-04 9.720965172164142132e-04 -7.560439407825469971e-04 4.052755422890186310e-03 2.414775080978870392e-02 -1.778907142579555511e-02 1.389331463724374771e-02 2.334349974989891052e-02 7.534796022810041904e-04 -9.746910072863101959e-03 6.903826259076595306e-03 2.363122254610061646e-02 -4.445949196815490723e-02 -3.272910416126251221e-02 -7.606865256093442440e-04 2.562701329588890076e-02 -4.932960867881774902e-02 1.148057752288877964e-03 -3.429471701383590698e-02 2.058222424238920212e-03 -1.856774650514125824e-02 -3.219076618552207947e-02 -9.576136246323585510e-03 2.881701802834868431e-03 5.628057988360524178e-05 -5.549317691475152969e-03 -3.256924450397491455e-03 -1.235997956246137619e-02 1.600024662911891937e-02 1.725147478282451630e-03 4.857433028519153595e-03 -1.934607280418276787e-03 4.512048035394400358e-04 -2.377730980515480042e-02 7.207003980875015259e-02 8.141354657709598541e-03 1.752774789929389954e-02 1.054366002790629864e-03 1.471369992941617966e-03 -3.802844323217868805e-03 1.087868493050336838e-02 -3.949887177441269159e-04 3.447225689888000488e-02 -1.732497359625995159e-03 -1.023240108042955399e-02
-3.753011580556631088e-03 -8.095261873677372932e-04 -6.463580066338181496e-04 -2.709249965846538544e-02 1.119420118629932404e-02 -1.428699865937232971e-02 2.486823650542646646e-04 -1.312146428972482681e-02 -5.706663243472576141e-03 1.263106521219015121e-02 -1.911652460694313049e-02 -1.316399866482242942e-04 9.473792742937803268e-04 3.862605080939829350e-04 -1.379065724904648960e-05 5.015034112147986889e-04 6.207501888275146484e-02 -3.659234941005706787e-02 -1.885325089097023010e-02 -4.184074234217405319e-03 -1.517859473824501038e-02 1.509532146155834198e-02 3.834574308712035418e-04 -2.492726547643542290e-03 8.216845453716814518e-04 5.834779003635048866e-04 1.675020757829770446e-04 1.709686033427715302e-02 -2.425348944962024689e-02 -2.488208375871181488e-02 -3.441706672310829163e-02 4.592725890688598156e-04 3.786844760179519653e-02 1.019990257918834686e-02 -1.179632078856229782e-02 -1.233776565641164780e-02 -6.673282478004693985e-04 1.875092624686658382e-03 -4.867742955684661865e-02 2.952235192060470581e-02 -6.405956577509641647e-03 -2.381496503949165344e-02 -8.400400169193744659e-03 -2.458166331052780151e-03 -1.364927366375923157e-02 5.602427944540977478e-02 1.126290392130613327e-02 -1.585371606051921844e-02 8.671950781717896461e-04 -3.656924818642437458e-04 -3.568882355466485023e-03 1.348731690086424351e-03 3.201248124241828918e-02 -2.797102369368076324e-02 -4.279585927724838257e-02 5.691536143422126770e-02 -1.035570283420383930e-03 8.018407970666885376e-04 -3.429258614778518677e-02 4.349743947386741638e-02 -7.136763539165258408e-03 2.255233377218246460e-02 8.473431807942688465e-04 -1.919618435204029083e-02 2.671886235475540161e-02 -8.497104048728942871e-03 1.724390313029289246e-02 2.910862490534782410e-02 -3.865110501646995544e-02 -3.029220388270914555e-04 8.633889257907867432e-03 2.864366630092263222e-03 4.303033649921417236e-02 1.900306157767772675e-02 3.280020132660865784e-02 5.922713316977024078e-04 3.375679627060890198e-02 4.301205277442932129e-02 1.672505750320851803e-03 2.587436465546488762e-04 -1.362843468086794019e-04 -3.993126004934310913e-02 2.510521002113819122e-02 -8.064081892371177673e-03 2.964053768664598465e-03 -5.434710066765546799e-03 -5.938902497291564941e-02 -9.192867204546928406e-03 -1.122989226132631302e-02 -2.219575457274913788e-03 -4.720747470855712891e-02 -4.059440642595291138e-02 3.681843401864171028e-03 -9.306972846388816833e-03 9.259310318157076836e-04 -8.809372037649154663e-02 1.142777875065803528e-02 6.279571447521448135e-03 9.685882180929183960e-02 -6.833195686340332031e-02 3.603920340538024902e-04 4.760102555155754089e-02 -2.213228680193424225e-02 -9.694871841929852962e-04 5.353590240702033043e-04 3.896385198459029198e-03 9.313282556831836700e-03 -8.620847365818917751e-04 1.585337566211819649e-03 -2.623650361783802509e-04 -6.731986999511718750e-03 -4.642102401703596115e-03 -5.421869922429323196e-03 1.025055255740880966e-02 -6.623056717216968536e-03 -5.947517976164817810e-02 -7.476177066564559937e-03 -3.393714502453804016e-02 -5.232944153249263763e-03 -2.584688551723957062e-02 1.929808221757411957e-02 1.139152515679597855e-02 3.750225156545639038e-02 -8.993032679427415133e-05 1.274846773594617844e-02 2.587349340319633484e-02 5.239914753474295139e-04 1.302541512995958328e-02 3.222526609897613525e-02 -3.901975601911544800e-02 -6.925378926098346710e-03 6.244659051299095154e-02 -1.628162572160363197e-03 -3.480385523289442062e-03 3.996385785285383463e-04 -3.072437131777405739e-03 -1.782296597957611084e-02 2.277701161801815033e-02 3.388373079360462725e-05 -2.532154135406017303e-02 8.809523569652810693e-05 -3.730797767639160156e-02 -3.277050331234931946e-02 5.783371999859809875e-02 -1.520493905991315842e-02 -1.019079890102148056e-02 2.040213905274868011e-02 -2.535499818623065948e-02 -3.116638632491230965e-03 -1.352646574378013611e-02 1.448914036154747009e-02 4.736998584121465683e-03 7.857579621486365795e-04 2.563476003706455231e-02 3.674931451678276062e-02 -2.338764816522598267e-02 -1.945182122290134430e-02 6.662058643996715546e-03 -3.770250082015991211e-02 2.551836706697940826e-02 -1.795918494462966919e-02 -1.406774949282407761e-02 2.615498565137386322e-02 1.516976766288280487e-02 2.111410163342952728e-02 1.614377833902835846e-02 1.112338714301586151e-02 7.107449928298592567e-04 4.293445497751235962e-02 8.983968757092952728e-03 -1.273681409657001495e-02 5.218223668634891510e-04 -7.876315503381192684e-04 2.145911939442157745e-02 1.007587090134620667e-02 2.993728965520858765e-02 6.829268764704465866e-03 -5.419231951236724854e-03 -6.852391525171697140e-04 -5.769517156295478344e-04 -2.658083662390708923e-02 3.582643344998359680e-03 -1.084560528397560120e-02 -8.255084045231342316e-03 -2.846607752144336700e-02 8.531657513231039047e-04 3.039743378758430481e-02 -4.884715235675685108e-05 7.640706375241279602e-03 3.216781478840857744e-04 -4.972868555341847241e-05 9.132886189036071301e-04 -2.439576946198940277e-02 -7.746352348476648331e-04 3.091202490031719208e-02 5.127558251842856407e-04 -3.724700585007667542e-02 6.389025365933775902e-04 1.348936464637517929e-03 -2.299420721828937531e-02 7.742871530354022980e-04 -1.086252089589834213e-02 3.018117323517799377e-02 5.703417584300041199e-03 1.567292056279256940e-04 -3.877403959631919861e-02 -5.422775447368621826e-02 -2.188101969659328461e-02 3.578552277758717537e-04 -1.400392055511474609e-01 -1.235729455947875977e-02 -1.070658094249665737e-03 2.814585110172629356e-03 -1.295630238018929958e-03 4.391846060752868652e-02 6.508459802716970444e-03 -4.512834362685680389e-03 2.791333571076393127e-02 5.496206576935946941e-04 1.144589332398027182e-04 -6.328878551721572876e-02 2.156730182468891144e-02 -1.462717354297637939e-02 2.986012585461139679e-02 -5.943068116903305054e-02 -8.546190802007913589e-04 -1.540786307305097580e-02 4.287208896130323410e-03 4.571329918690025806e-04 -2.637895010411739349e-02 -1.217977725900709629e-03 -2.648507058620452881e-02 -3.125863615423440933e-03 -3.204218670725822449e-02 -1.378077734261751175e-02 6.899698055349290371e-04 -2.838061656802892685e-03 3.355517610907554626e-02 -3.502624854445457458e-02 -1.927895820699632168e-03 -2.745354548096656799e-03 1.282932702451944351e-02 5.717689171433448792e-02 -3.882775781676173210e-04 4.032937437295913696e-02 5.813432857394218445e-03 2.253176877275109291e-03 -5.248716101050376892e-03 5.602755118161439896e-03 -6.427101325243711472e-03 1.136158127337694168e-02 -3.719472512602806091e-02 7.144763949327170849e-04 1.624419383006170392e-04 -3.022921457886695862e-02 -1.872967183589935303e-02
2.968130260705947876e-02 4.207080346532166004e-04 3.084478958044201136e-04 -8.560518734157085419e-03 2.399169141426682472e-03 1.762119308114051819e-02 -2.121734578395262361e-04 -9.123773314058780670e-03 2.025746507570147514e-03 -1.763902232050895691e-02 -3.664460498839616776e-03 6.078668520785868168e-04 1.102937152609229088e-03 -9.281752281822264194e-04 -3.130180411972105503e-04 -1.205396692967042327e-04 -7.392886909656226635e-04 -3.988846018910408020e-02 8.249939419329166412e-03 2.929927781224250793e-03 7.169746793806552887e-03 1.761468127369880676e-03 -3.464152541710063815e-05 3.708258504047989845e-03 -1.757400750648230314e-04 -2.282654750160872936e-04 -7.982739480212330818e-04 1.777794957160949707e-02 1.563357189297676086e-02 -2.489230129867792130e-03 1.107386779040098190e-02 2.609162766020745039e-04 1.817294396460056305e-02 5.128418095409870148e-03 -1.201019342988729477e-02 -4.274578765034675598e-03 -1.735105979605577886e-05 -3.686639247462153435e-03 -1.244084327481687069e-03 3.463811939582228661e-03 3.807080443948507309e-03 5.663604941219091415e-03 -2.591526694595813751e-02 -1.068766415119171143e-02 -2.288160147145390511e-03 1.739911921322345734e-02 -3.200020641088485718e-02 2.125862054526805878e-02 -3.051070671062916517e-04 -4.136180796194821596e-04 -1.442106906324625015e-02 4.447777464520186186e-04 1.463020872324705124e-02 1.810463890433311462e-02 3.048066864721477032e-04 -8.535806089639663696e-03 -3.375986707396805286e-04 -9.816809324547648430e-04 -2.253499068319797516e-02 2.875635959208011627e-02 -2.838765503838658333e-04 1.277186442166566849e-02 6.598436739295721054e-04 9.109397418797016144e-03 -1.177716907113790512e-02 -3.587084636092185974e-02 8.178321644663810730e-03 1.184169109910726547e-02 -5.434167105704545975e-03 2.052202471531927586e-04 4.112595692276954651e-03 -4.112261813133955002e-03 -3.214719891548156738e-02 -5.011370033025741577e-02 3.349520266056060791e-03 -9.350779582746326923e-04 -3.563686460256576538e-02 -1.548251789063215256e-02 -1.679622754454612732e-02 2.742201031651347876e-04 3.881531883962452412e-04 -8.385252207517623901e-03 -9.371355175971984863e-03 -2.158598508685827255e-03 6.917588412761688232e-03 -4.520959686487913132e-03 -3.328207531012594700e-04 -5.802821367979049683e-03 -1.151531934738159180e-02 5.397205241024494171e-03 3.538252552971243858e-03 -1.225003856234252453e-03 1.590291224420070648e-02 1.660532876849174500e-02 -6.143734324723482132e-03 3.607389703392982483e-02 8.921661414206027985e-03 -1.626958511769771576e-02 -6.042615510523319244e-03 7.705362048000097275e-03 5.816075718030333519e-04 7.566335145384073257e-03 -7.667720317840576172e-03 -1.839984394609928131e-02 5.475712241604924202e-04 1.092381123453378677e-02 1.699971407651901245e-02 3.439597785472869873e-02 -1.777871698141098022e-02 3.546165535226464272e-04 4.131211899220943451e-03 2.619787817820906639e-03 -1.169060007669031620e-03 3.515502903610467911e-03 -6.909088790416717529e-02 7.100454997271299362e-03 1.991501264274120331e-02 -2.263828180730342865e-02 -1.502428483217954636e-02 1.047247368842363358e-02 -1.188529096543788910e-02 3.096241969615221024e-03 -5.590535234659910202e-03 -3.741346299648284912e-04 2.131417160853743553e-03 1.220442727208137512e-02 -1.167098991572856903e-02 -1.573734171688556671e-02 1.028587482869625092e-02 1.367147732526063919e-02 -5.172064993530511856e-04 1.021238788962364197e-02 1.006975211203098297e-02 3.717925772070884705e-02 -6.427002372220158577e-04 1.065862923860549927e-02 -6.481858436018228531e-03 2.045090124011039734e-02 7.661137497052550316e-04 -5.100154317915439606e-03 -7.867690874263644218e-04 2.779161371290683746e-02 2.325500128790736198e-03 -1.392159517854452133e-02 1.707279309630393982e-02 -2.856158278882503510e-02 1.266896631568670273e-02 -3.294513374567031860e-02 6.074450910091400146e-03 -3.552182752173393965e-04 -3.240317851305007935e-02 -2.849521301686763763e-02 1.445877365767955780e-03 7.954823784530162811e-03 5.252319853752851486e-03 -9.288186207413673401e-03 1.259301602840423584e-02 1.455499790608882904e-02 1.445672567933797836e-02 -6.511480081826448441e-03 -9.093016269616782665e-04 -1.012010034173727036e-02 -1.760959252715110779e-02 -5.688568577170372009e-03 2.119874209165573120e-02 5.483661219477653503e-02 -6.030225194990634918e-03 1.815624418668448925e-03 -1.180719397962093353e-02 1.350288861431181431e-03 5.047720856964588165e-03 -4.548793367575854063e-04 6.582774687558412552e-03 -4.448440391570329666e-03 -8.321371860802173615e-04 8.224014192819595337e-03 2.540532499551773071e-02 8.148828521370887756e-03 9.491033852100372314e-04 1.549311564303934574e-04 -1.046680659055709839e-02 1.735976524651050568e-02 -1.021998468786478043e-03 -3.008934296667575836e-02 -3.479553386569023132e-02 2.676572476048022509e-04 -2.284720167517662048e-02 1.578910741955041885e-04 -2.910584583878517151e-02 7.477910839952528477e-04 -4.351485986262559891e-04 4.613539204001426697e-04 -3.655069321393966675e-02 2.805361337959766388e-02 6.872994825243949890e-03 -2.170054358430206776e-04 -1.836805418133735657e-02 4.788725345861166716e-04 -5.654118955135345459e-03 1.799431815743446350e-02 2.167917409678921103e-04 5.751726683229207993e-03 1.129244174808263779e-02 -2.768828719854354858e-02 8.496215450577437878e-04 -9.775468148291110992e-03 1.686114259064197540e-02 7.973891682922840118e-03 2.514622756280004978e-04 -2.405138872563838959e-02 -3.162013366818428040e-02 -4.072294395882636309e-04 3.572488203644752502e-03 -9.134677238762378693e-04 5.943592172116041183e-03 8.242953568696975708e-03 -1.700546406209468842e-02 4.611590504646301270e-02 2.302154665812849998e-03 6.807519821450114250e-04 1.313425600528717041e-03 7.544500287622213364e-03 2.701074630022048950e-02 6.846116390079259872e-03 2.787983231246471405e-02 -1.675393286859616637e-04 2.418081089854240417e-02 3.057570895180106163e-03 7.884108345024287701e-04 -4.050092771649360657e-03 -1.333348220214247704e-03 1.042441464960575104e-02 4.780884459614753723e-02 8.734795264899730682e-03 1.137590035796165466e-02 -4.943500389344990253e-04 -1.577350124716758728e-02 8.320485241711139679e-03 -2.351732179522514343e-02 -5.565588828176259995e-03 3.760365769267082214e-03 8.742045611143112183e-03 -4.016277845948934555e-03 -5.302155041135847569e-04 3.209715359844267368e-04 1.162597350776195526e-02 3.737376630306243896e-02 7.025874219834804535e-03 2.334379404783248901e-02 -1.913044974207878113e-02 -1.401688903570175171e-02 1.619263738393783569e-02 -6.228129495866596699e-04 -3.341426327824592590e-02 1.779461854312103242e-05 -3.253433620557188988e-03
-7.371289283037185669e-02 2.228810772066935897e-04 -9.569265239406377077e-05 2.019466599449515343e-03 -2.751641161739826202e-02 -6.888074334710836411e-03 -2.625954221002757549e-04 -1.850583218038082123e-02 -1.782407239079475403e-02 -3.305616602301597595e-02 -4.825192317366600037e-02 -3.953773411922156811e-04 5.164746544323861599e-04 -2.710381813813000917e-04 1.935436448547989130e-04 -2.286476810695603490e-04 1.579262316226959229e-02 2.384194359183311462e-02 -2.715086564421653748e-02 4.940177313983440399e-03 -4.230348393321037292e-02 -7.368487771600484848e-03 7.301386795006692410e-04 -3.677119733765721321e-03 4.840339533984661102e-04 -5.189162911847233772e-04 9.983580093830823898e-04 4.065581411123275757e-02 -2.689521946012973785e-02 8.107815519906580448e-04 3.091501258313655853e-02 7.342991884797811508e-04 -3.351523354649543762e-02 -1.435180287808179855e-02 -1.506570912897586823e-02 1.974457129836082458e-02 1.536034396849572659e-04 2.152798697352409363e-02 1.459372928366065025e-03 4.354121908545494080e-02 -1.063818950206041336e-02 -3.269425407052040100e-02 -7.496676407754421234e-03 2.092427201569080353e-02 5.129678756929934025e-04 1.850623637437820435e-02 -9.913512039929628372e-04 4.407080635428428650e-02 -3.219534410163760185e-04 6.094122072681784630e-04 -1.443509105592966080e-02 -8.969226037152111530e-04 -2.303754165768623352e-02 2.483642660081386566e-02 1.529035973362624645e-03 5.691516771912574768e-02 -5.808395217172801495e-04 1.795903954189270735e-04 -2.903800457715988159e-02 -6.346126552671194077e-03 -1.053172815591096878e-02 -5.691032856702804565e-02 -8.107424946501851082e-04 -5.739823915064334869e-03 -2.382032573223114014e-02 3.318668156862258911e-02 -5.617751739919185638e-03 -9.545442648231983185e-03 -2.363921841606497765e-03 -6.108513916842639446e-04 -1.192030962556600571e-02 1.775298733264207840e-03 -3.431054204702377319e-02 -1.898340508341789246e-02 1.900875754654407501e-02 -8.237087167799472809e-04 3.967068158090114594e-03 2.690076269209384918e-02 -1.570790633559226990e-02 -4.700995923485606909e-04 -8.715568692423403263e-04 3.911512717604637146e-02 1.004141662269830704e-02 2.156006544828414917e-02 2.195167168974876404e-02 4.281247500330209732e-03 1.287580095231533051e-02 -6.738511845469474792e-03 4.977459087967872620e-02 4.512003436684608459e-02 -1.780289039015769958e-02 -2.157757245004177094e-02 -6.192912696860730648e-04 3.094896674156188965e-03 4.549844935536384583e-02 4.128451645374298096e-02 -5.332818254828453064e-03 1.944906264543533325e-02 8.008681237697601318e-03 -2.442608121782541275e-03 -4.626284644473344088e-04 -2.200614288449287415e-02 1.648455276153981686e-03 1.812405511736869812e-02 -2.302847278770059347e-04 4.012479633092880249e-02 -3.485755622386932373e-02 4.786085803061723709e-03 7.132856175303459167e-03 6.244754767976701260e-04 2.144641801714897156e-02 -1.108693704009056091e-02 -1.043221820145845413e-02 -3.696555271744728088e-03 2.963509969413280487e-02 -1.542234444059431553e-03 -3.947639372199773788e-03 -7.037742994725704193e-03 -1.849306374788284302e-02 -3.056983277201652527e-02 -1.855902560055255890e-02 2.127593755722045898e-02 -2.892210707068443298e-02 4.073278978466987610e-04 2.335031889379024506e-02 4.077481105923652649e-02 1.790626440197229385e-03 3.925620391964912415e-02 1.403525192290544510e-02 2.927793562412261963e-02 -2.602402307093143463e-02 8.761657401919364929e-03 -1.709772273898124695e-02 -1.758940331637859344e-02 -6.428082124330103397e-04 -2.496982365846633911e-02 -3.819586336612701416e-02 4.915000405162572861e-03 1.545906707178801298e-04 4.315803200006484985e-02 -6.089079033699817955e-05 1.862777397036552429e-02 -5.858405493199825287e-03 -4.710061475634574890e-03 -9.031676687300205231e-03 -6.226611137390136719e-02 -2.773194387555122375e-02 1.981323026120662689e-02 2.793687954545021057e-02 -1.174012850970029831e-02 4.603759944438934326e-02 -2.377398684620857239e-02 7.840733160264790058e-04 3.547294065356254578e-03 2.425183076411485672e-03 -3.993641585111618042e-02 -1.624581776559352875e-02 6.236730143427848816e-02 -2.065132372081279755e-02 -4.057017713785171509e-02 3.554365411400794983e-02 -1.167501322925090790e-02 -1.759284362196922302e-02 -6.118500605225563049e-02 1.505733933299779892e-02 -3.339587710797786713e-03 2.680375799536705017e-02 7.231044117361307144e-03 -3.739305585622787476e-02 -5.793368443846702576e-02 -7.190282456576824188e-03 -5.466572838486172259e-05 -4.691599868237972260e-03 9.775322861969470978e-03 -3.869182616472244263e-02 5.961435846984386444e-03 7.868448272347450256e-03 4.551713354885578156e-03 -4.072053125128149986e-04 4.579185406328178942e-05 -2.052894094958901405e-03 -2.812293544411659241e-02 -5.725481361150741577e-02 2.237257547676563263e-02 6.404449231922626495e-03 -8.020332315936684608e-04 -8.011664263904094696e-03 -6.247839191928505898e-04 -2.166647091507911682e-02 2.895160869229584932e-04 6.300469394773244858e-04 1.115060411393642426e-03 -4.518063273280858994e-03 -1.666343188844621181e-03 -1.044505741447210312e-02 -1.988805524888448417e-05 1.033817138522863388e-02 -1.184454187750816345e-03 -3.980433940887451172e-02 -2.207356505095958710e-02 -4.925695247948169708e-05 -3.233583644032478333e-02 2.467085234820842743e-02 7.371058687567710876e-03 -6.524694035761058331e-04 5.775903165340423584e-02 -2.246678061783313751e-02 9.345852769911289215e-03 6.990192923694849014e-04 -2.076290175318717957e-02 2.557531697675585747e-03 -8.225049823522567749e-04 -2.040365897119045258e-02 1.051696017384529114e-03 -8.466136059723794460e-04 2.121401019394397736e-02 5.411446094512939453e-02 -3.460868075489997864e-02 -7.559624034911394119e-03 -2.615005942061543465e-04 -1.369248889386653900e-02 -6.016466766595840454e-02 7.345777750015258789e-02 -6.417241413146257401e-03 2.190107852220535278e-02 6.028328789398074150e-04 4.070667549967765808e-03 -2.148836851119995117e-02 1.078559434972703457e-03 1.354047935456037521e-02 -1.807508291676640511e-03 1.322676613926887512e-02 2.224618010222911835e-02 3.878791630268096924e-02 -3.776512667536735535e-02 1.229304005391895771e-03 5.693462677299976349e-03 -2.137937769293785095e-02 3.652083873748779297e-02 -1.693259552121162415e-02 1.135769300162792206e-03 -1.900254935026168823e-02 -2.497156523168087006e-02 8.967501344159245491e-05 3.684543818235397339e-02 7.444568723440170288e-02 -5.742084234952926636e-02 -7.119879871606826782e-02 -3.544781729578971863e-02 -8.831424638628959656e-03 -4.941529035568237305e-02 5.605702288448810577e-03 9.231320000253617764e-04 6.563297472894191742e-03 -7.906831055879592896e-02 3.705994412302970886e-02
-9.281410835683345795e-03 1.316956186201423407e-04 5.575503455474972725e-04 5.541110876947641373e-03 1.024813856929540634e-02 3.012785129249095917e-02 -8.784939418546855450e-04 -4.625090956687927246e-02 -4.428115859627723694e-02 7.848872803151607513e-03 2.355899475514888763e-02 -3.916844143532216549e-04 1.433408760931342840e-04 7.676411187276244164e-04 2.003264526138082147e-04 6.138695753179490566e-04 1.353588700294494629e-02 1.867713872343301773e-03 -7.306776475161314011e-03 -3.892397880554199219e-02 1.872750371694564819e-02 -1.185457804240286350e-03 -4.482320509850978851e-04 1.866247877478599548e-02 -6.716211792081594467e-04 -6.278878427110612392e-04 6.483488250523805618e-04 3.826823458075523376e-02 -7.152773439884185791e-03 -3.285887092351913452e-02 3.655263455584645271e-03 -7.020551129244267941e-04 6.310468888841569424e-04 1.751354336738586426e-02 2.498091571033000946e-02 5.516580305993556976e-03 5.187756614759564400e-04 5.875572189688682556e-02 -1.478826627135276794e-02 -1.969918981194496155e-02 -6.839625537395477295e-03 3.976788371801376343e-03 -1.160593423992395401e-02 6.927867420017719269e-03 3.173621371388435364e-02 1.137104909867048264e-02 -5.969350039958953857e-02 -8.322555571794509888e-03 -1.400553737767040730e-04 -3.100316389463841915e-04 1.410386525094509125e-02 -4.301971348468214273e-04 3.993425983935594559e-03 -1.934222131967544556e-02 -1.143456064164638519e-02 -1.172682177275419235e-02 9.071665117517113686e-04 3.465398622211068869e-04 -7.517769932746887207e-03 -1.642439141869544983e-02 2.057944796979427338e-02 -1.085381023585796356e-02 3.432072990108281374e-04 1.440304890275001526e-02 1.572156883776187897e-02 1.753567531704902649e-02 -2.245913445949554443e-02 -6.962400674819946289e-02 1.148698013275861740e-02 -6.022757952450774610e-05 -1.173711474984884262e-02 -5.881332326680421829e-04 2.687733154743909836e-03 1.341808307915925980e-02 -7.855513133108615875e-03 9.438509005121886730e-05 -7.176313083618879318e-03 1.214984431862831116e-02 -4.831129312515258789e-02 -1.536810013931244612e-04 -5.501825362443923950e-04 -1.368262525647878647e-02 2.402419596910476685e-02 1.398309320211410522e-02 -2.244605682790279388e-02 -3.083085641264915466e-02 -6.659368984401226044e-03 1.066591683775186539e-02 4.258035216480493546e-03 3.583614155650138855e-02 6.934796925634145737e-03 1.804200466722249985e-03 -2.688940614461898804e-03 -7.343619596213102341e-03 1.840096898376941681e-02 3.277077525854110718e-02 -7.028360851109027863e-03 1.459570601582527161e-02 -6.560214329510927200e-03 -1.482478436082601547e-02 -8.495071961078792810e-05 -1.194931846112012863e-02 1.277073193341493607e-02 6.053525112292845733e-07 -3.517371078487485647e-05 8.352311328053474426e-03 -8.623651415109634399e-02 4.272728785872459412e-02 2.455926500260829926e-02 6.935963756404817104e-04 -3.400231525301933289e-02 2.715206146240234375e-02 1.227556448429822922e-02 -1.056980248540639877e-02 -1.113845873624086380e-02 -1.077376119792461395e-02 -7.966305129230022430e-03 3.309982828795909882e-03 -4.986518621444702148e-02 4.162318073213100433e-03 -6.839838810265064240e-03 2.444852888584136963e-02 -1.653335429728031158e-02 -1.265340950340032578e-03 -1.159578002989292145e-02 6.564955692738294601e-03 1.594906486570835114e-02 -6.261548399925231934e-02 2.407508157193660736e-02 -2.352754771709442139e-02 3.812089934945106506e-02 -1.302264630794525146e-02 6.447836011648178101e-02 -2.946059964597225189e-02 -5.226388457231223583e-04 1.928018964827060699e-02 -2.065221546217799187e-03 -2.074955403804779053e-02 -4.715243267128244042e-05 -8.980168960988521576e-03 -9.048885549418628216e-04 -4.180039279162883759e-03 1.262146513909101486e-02 4.963004030287265778e-03 3.390286350622773170e-03 1.159242354333400726e-02 3.099742904305458069e-02 6.393711082637310028e-03 -2.089567855000495911e-02 -5.113567039370536804e-02 -1.015831064432859421e-02 8.329866454005241394e-03 9.851140202954411507e-04 3.815287724137306213e-03 -2.060915529727935791e-02 1.637261547148227692e-02 -1.574081950820982456e-03 1.703718444332480431e-03 -4.554996266961097717e-02 -4.951671883463859558e-02 3.273875627201050520e-04 -3.712733834981918335e-02 -1.626338780624791980e-04 -1.953106489963829517e-03 3.302614018321037292e-02 -2.264008112251758575e-02 1.706477068364620209e-02 -8.827981539070606232e-03 -2.209628932178020477e-02 -3.176077827811241150e-02 2.774443291127681732e-02 -2.753954031504690647e-04 1.875449344515800476e-02 -2.299317903816699982e-02 -1.366546656936407089e-02 6.116417702287435532e-03 -4.826981946825981140e-02 -2.939205430448055267e-02 4.547649878077208996e-04 -1.090369536541402340e-03 -2.451153658330440521e-02 4.166844300925731659e-03 -1.976353232748806477e-04 1.592494733631610870e-02 -7.068507838994264603e-03 2.795918044284917414e-05 4.921988584101200104e-03 7.015782757662236691e-04 -2.764151804149150848e-02 7.565648411400616169e-04 7.049917476251721382e-04 -9.241707157343626022e-04 2.625996246933937073e-02 -2.154497057199478149e-02 -9.076140820980072021e-03 2.855277271009981632e-04 -3.934527281671762466e-03 -2.516904496587812901e-04 -1.478633563965559006e-02 2.345987362787127495e-03 4.778680158779025078e-04 3.282095491886138916e-02 1.220490224659442902e-02 7.824691012501716614e-03 -3.342701238580048084e-04 -7.260054349899291992e-03 -1.030521653592586517e-02 3.438803181052207947e-02 5.267955712042748928e-04 -1.614331640303134918e-02 3.997003287076950073e-02 -4.977100179530680180e-04 1.849525980651378632e-02 2.135535934939980507e-03 -1.432144828140735626e-02 -2.643943578004837036e-02 5.338562652468681335e-03 -1.386267691850662231e-02 1.979910023510456085e-02 -4.626725567504763603e-04 1.502391509711742401e-02 -3.437583893537521362e-02 -1.722392998635768890e-02 -1.807138510048389435e-02 2.363190986216068268e-02 -4.624930443242192268e-04 6.065765395760536194e-03 -2.686144411563873291e-02 3.447533817961812019e-04 -2.460803650319576263e-02 -1.749003713484853506e-04 -1.705616712570190430e-02 6.106163840740919113e-03 -1.588761992752552032e-02 9.991918690502643585e-03 2.778535417746752501e-04 5.566151812672615051e-03 -9.733891929499804974e-04 -1.703130640089511871e-02 -2.688466943800449371e-02 -1.138885226100683212e-02 -2.686386182904243469e-02 -1.075824070721864700e-02 -1.964158582268282771e-04 5.601302906870841980e-02 8.536620065569877625e-03 4.666187742259353399e-04 -1.370813511312007904e-02 -1.987528521567583084e-03 2.011107653379440308e-02 1.880287006497383118e-02 -1.226968597620725632e-02 -5.385122130974195898e-05 1.009362516924738884e-03 5.730655044317245483e-03 -6.254266202449798584e-02
1.657129451632499695e-02 -6.451857043430209160e-04 1.624939177418127656e-04 1.766708865761756897e-02 -3.125373274087905884e-03 -1.913407817482948303e-02 -8.498674724251031876e-04 -6.212734617292881012e-03 1.227831561118364334e-02 2.152533456683158875e-02 1.440348918549716473e-03 -3.145626396872103214e-04 6.859819986857473850e-04 2.370323520153760910e-03 2.577497070888057351e-05 7.370733655989170074e-04 -4.229940101504325867e-02 5.746388807892799377e-02 -1.670778542757034302e-02 4.843529686331748962e-02 -1.147456374019384384e-02 3.287487477064132690e-02 -1.953404425876215100e-04 -1.387678645551204681e-02 4.677740216720849276e-04 5.362075171433389187e-04 -1.138250925578176975e-03 1.872013881802558899e-02 -6.460038945078849792e-03 -4.069892689585685730e-02 -2.860320918262004852e-02 9.268484427593648434e-05 6.160833686590194702e-02 -3.308683261275291443e-02 -8.534478023648262024e-03 8.774290792644023895e-03 -3.803447543759830296e-05 -6.954496353864669800e-02 -8.867297321557998657e-03 1.327352225780487061e-02 5.353787168860435486e-02 -3.093827329576015472e-02 -1.762189716100692749e-02 5.228351335972547531e-03 -1.641707867383956909e-02 -4.516385495662689209e-02 -3.641377761960029602e-02 1.278768666088581085e-02 -5.325417150743305683e-04 3.766705922316759825e-04 6.682005710899829865e-03 -3.600433410611003637e-04 5.511062219738960266e-02 1.123810186982154846e-02 2.835107780992984772e-02 -3.621449321508407593e-02 1.114899496315047145e-04 3.237423370592296124e-04 8.406287990510463715e-03 -4.750220105051994324e-02 -2.182110771536827087e-02 -6.151209585368633270e-03 -1.447903487132862210e-04 5.524686723947525024e-02 2.330604009330272675e-02 -7.081893272697925568e-03 -4.432991147041320801e-03 -4.867799580097198486e-02 -2.213735878467559814e-02 1.042609685100615025e-03 -6.014124955981969833e-03 -1.093909516930580139e-02 -2.391772158443927765e-02 9.619651362299919128e-03 4.043136723339557648e-03 -5.978212575428187847e-04 -4.084184300154447556e-03 -9.094384498894214630e-03 -3.849247097969055176e-02 -2.415945928078144789e-04 -2.480762777850031853e-04 -2.353495359420776367e-02 -5.918930470943450928e-02 2.171719819307327271e-02 -5.168075859546661377e-02 1.364467386156320572e-02 3.630432859063148499e-02 -2.509705349802970886e-02 -2.216574735939502716e-02 4.452658817172050476e-03 -3.582803998142480850e-03 -3.492959658615291119e-04 5.334945861250162125e-03 3.711834549903869629e-02 2.424021624028682709e-02 1.940170186571776867e-03 7.709496276220306754e-05 3.611533716320991516e-02 -2.636495977640151978e-02 1.900659501552581787e-02 2.999864591402001679e-05 -2.150412462651729584e-02 4.018882755190134048e-03 -6.341198831796646118e-02 4.217331588733941317e-04 6.267043761909008026e-03 -6.837025284767150879e-02 1.864328421652317047e-02 6.800226867198944092e-02 -1.575859350850805640e-04 -1.407514326274394989e-02 -2.942783012986183167e-02 -2.574233151972293854e-02 1.142199058085680008e-02 4.121788591146469116e-02 9.876198135316371918e-03 5.366022512316703796e-02 -7.934429682791233063e-03 -2.736610360443592072e-02 -7.949261926114559174e-03 5.144486948847770691e-02 4.602516070008277893e-02 -9.056131355464458466e-03 -4.907691618427634239e-04 2.601733664050698280e-03 8.238736540079116821e-03 -8.441206067800521851e-03 1.141202542930841446e-02 -1.318556629121303558e-02 1.020944793708622456e-03 -1.673003658652305603e-02 -3.860873356461524963e-02 3.528374433517456055e-02 -7.909280806779861450e-02 -1.084626885131001472e-03 -2.481607021763920784e-03 1.440634950995445251e-02 -4.292948171496391296e-02 -5.795752804260700941e-05 1.500927004963159561e-02 -2.192321553593501449e-04 2.815213240683078766e-02 2.470113895833492279e-02 4.526749544311314821e-04 2.392966859042644501e-02 2.962878160178661346e-02 3.597233071923255920e-02 4.151770379394292831e-03 -2.712423726916313171e-02 -4.542096704244613647e-02 3.896920382976531982e-02 4.123595356941223145e-02 3.654151223599910736e-04 2.676353044807910919e-02 -8.023983985185623169e-02 1.439357409253716469e-03 -2.218316495418548584e-02 -1.381813315674662590e-03 -1.978139160200953484e-03 3.007164597511291504e-02 1.058448292315006256e-02 -1.669904403388500214e-02 1.634730771183967590e-02 -7.790514267981052399e-03 -1.884438213892281055e-03 -2.968819625675678253e-02 -1.186752412468194962e-02 2.829539403319358826e-02 8.366112597286701202e-03 6.594113260507583618e-02 2.580177411437034607e-02 5.454890197142958641e-04 -1.523908041417598724e-02 4.026362672448158264e-02 6.984563078731298447e-03 1.046625524759292603e-02 -1.649431698024272919e-02 -6.972624105401337147e-04 2.607663627713918686e-04 -5.053238128311932087e-04 5.646164063364267349e-03 -7.519565988332033157e-03 5.120751634240150452e-02 -2.867832779884338379e-02 1.004836056381464005e-03 1.144808265962637961e-04 1.753904041834175587e-03 5.234575946815311909e-04 4.194528330117464066e-03 1.026061090669827536e-05 -7.842780905775725842e-04 -1.318546419497579336e-04 1.039815600961446762e-02 -6.693646777421236038e-03 -2.521848306059837341e-03 -3.097635344602167606e-04 -3.847020491957664490e-02 -4.622696433216333389e-04 9.520740248262882233e-03 -3.391931951045989990e-02 7.578068180009722710e-04 -8.691132999956607819e-03 -2.228533849120140076e-02 1.134665100835263729e-03 5.049094324931502342e-04 -1.918836031109094620e-03 3.552214428782463074e-02 8.071072399616241455e-03 2.666323271114379168e-04 2.956980280578136444e-02 2.335737459361553192e-02 1.590807914908509701e-05 3.026289232366252691e-05 -8.997549230116419494e-06 -4.151208791881799698e-03 4.949290305376052856e-03 -1.633264496922492981e-02 2.002052590250968933e-02 -1.127500645816326141e-02 1.141473068855702877e-03 1.174718048423528671e-02 2.710040286183357239e-02 -1.712401024997234344e-02 -3.682442381978034973e-02 1.045302674174308777e-02 -4.899001396552193910e-06 -4.746653605252504349e-03 -2.911897748708724976e-02 -5.084604490548372269e-04 -6.278690695762634277e-02 -2.428762847557663918e-03 4.390019178390502930e-02 1.071426924318075180e-02 3.896659472957253456e-03 6.502313166856765747e-02 -8.708563982509076595e-04 2.503144554793834686e-02 -2.485677786171436310e-02 6.202116608619689941e-02 2.114766649901866913e-02 9.514173143543303013e-04 3.247983753681182861e-02 2.880969457328319550e-02 7.693796069361269474e-04 -1.883937977254390717e-02 1.454261969774961472e-02 -1.830043853260576725e-03 -4.004408046603202820e-02 -7.825707085430622101e-03 3.178516170009970665e-03 -1.286611333489418030e-02 -1.716119423508644104e-02 8.162696030922234058e-04 -1.272177416831254959e-02 -6.126634310930967331e-03 -2.223369479179382324e-02
-6.226060539484024048e-02 3.037536516785621643e-04 -7.773749530315399170e-04 4.661029577255249023e-02 6.753152702003717422e-03 3.206145716831088066e-03 3.691203310154378414e-04 3.538930614013224840e-04 -1.938695204444229603e-03 1.193196326494216919e-02 -8.313955739140510559e-03 -1.223802450112998486e-03 8.618512074463069439e-04 -9.080754243768751621e-04 -3.887349739670753479e-04 1.163314300356432796e-04 2.390974201261997223e-02 3.609863342717289925e-03 3.008171170949935913e-02 4.161234200000762939e-02 7.326169870793819427e-03 1.711689285002648830e-03 3.273058246122673154e-05 9.624809958040714264e-03 4.739343130495399237e-04 -6.319611566141247749e-04 -6.616883911192417145e-04 6.787464953958988190e-04 1.366961654275655746e-02 -1.962061412632465363e-02 1.178008224815130234e-02 -5.702385678887367249e-04 -2.318290807306766510e-02 1.755199022591114044e-02 1.740321400575339794e-03 3.881544573232531548e-03 -4.576701903715729713e-04 -2.630452625453472137e-02 -1.390830241143703461e-02 -1.585896685719490051e-02 -1.188642159104347229e-02 1.667778193950653076e-02 -7.663734722882509232e-03 7.412274181842803955e-02 7.594054564833641052e-03 3.052752092480659485e-02 -5.455142632126808167e-02 -4.011751711368560791e-02 6.308957235887646675e-04 -2.087265456793829799e-04 3.838360775262117386e-03 6.344172288663685322e-05 -2.816627733409404755e-02 -6.646848283708095551e-03 -2.153504267334938049e-02 9.213972836732864380e-03 8.465715218335390091e-04 1.590377505635842681e-04 -1.014598412439227104e-03 -3.937499597668647766e-02 1.826230902224779129e-03 -2.261542901396751404e-02 1.647000171942636371e-04 -2.852938883006572723e-02 3.536035120487213135e-02 3.652884438633918762e-02 7.501189410686492920e-02 2.782359346747398376e-02 1.573127508163452148e-02 3.605918318498879671e-04 9.185532480478286743e-02 7.370838895440101624e-03 -6.275702267885208130e-02 3.677649796009063721e-02 -2.542060799896717072e-02 -7.082219235599040985e-04 -6.051209196448326111e-02 -5.916267167776823044e-03 -3.204674273729324341e-02 5.476375808939337730e-04 -1.026520389132201672e-03 -6.142998859286308289e-02 -1.014126744121313095e-02 4.677769728004932404e-03 -2.109726704657077789e-02 -2.752868458628654480e-03 1.002657320350408554e-02 9.461554698646068573e-03 2.928962744772434235e-02 -1.799515011953189969e-04 3.060938324779272079e-03 4.092060774564743042e-02 1.073330920189619064e-02 -8.436893695034086704e-04 6.776468944735825062e-04 3.447633609175682068e-02 2.390391379594802856e-02 7.429827237501740456e-04 -3.714540600776672363e-02 2.102874778211116791e-02 -3.454700054135173559e-04 -1.341594033874571323e-03 4.953376948833465576e-02 -9.352592378854751587e-02 -7.338229333981871605e-04 -1.857189461588859558e-02 -6.091272458434104919e-02 8.180512115359306335e-03 2.323325537145137787e-02 -8.992715738713741302e-04 2.102628350257873535e-02 1.882803998887538910e-02 1.115046348422765732e-02 -5.640184041112661362e-03 -1.826230622828006744e-02 -1.268666796386241913e-02 9.633486159145832062e-03 -5.668448284268379211e-04 -1.650623604655265808e-02 3.599599748849868774e-02 1.480875536799430847e-02 6.610262393951416016e-02 -1.971079036593437195e-02 -6.615929305553436279e-04 -6.661319639533758163e-04 2.763390354812145233e-02 1.802437193691730499e-02 4.570879414677619934e-02 5.178729072213172913e-02 -4.144033789634704590e-02 7.411424815654754639e-02 3.834430500864982605e-02 -1.584752276539802551e-02 -7.981874793767929077e-02 -8.969026566774118692e-06 -3.037654235959053040e-02 5.279241129755973816e-03 -1.609770394861698151e-02 1.344685733783990145e-05 -5.101863644085824490e-04 2.492716012056916952e-04 2.131721377372741699e-02 5.511816125363111496e-03 7.437082007527351379e-03 2.768194302916526794e-02 3.795514348894357681e-03 -1.297207642346620560e-02 2.542310953140258789e-02 -1.340477820485830307e-02 -8.107131579890847206e-04 3.001580387353897095e-02 2.686768956482410431e-02 -6.787286256439983845e-04 -2.625358104705810547e-02 -7.789332419633865356e-02 -1.217333693057298660e-02 1.647698320448398590e-02 -6.752870045602321625e-03 -3.293533995747566223e-02 6.996493786573410034e-03 -9.258902631700038910e-03 -1.923465169966220856e-02 -5.691582802683115005e-03 4.627339076250791550e-03 4.695573821663856506e-02 5.785572808235883713e-03 3.243272751569747925e-02 1.598313683643937111e-03 5.158673226833343506e-02 -4.387767240405082703e-02 -3.699069470167160034e-02 -1.422329107299447060e-03 1.485884934663772583e-02 -1.583157852292060852e-02 1.831698976457118988e-02 2.837637439370155334e-02 2.119321934878826141e-02 -2.478091744706034660e-03 4.175499634584411979e-05 -1.197369347210042179e-04 1.149958651512861252e-02 -1.159140560775995255e-02 -3.794436901807785034e-02 -3.968668170273303986e-03 3.185234591364860535e-02 7.815532735548913479e-04 -6.307180505245923996e-03 5.840441444888710976e-04 -5.372974090278148651e-03 -6.102949264459311962e-04 6.870769429951906204e-04 -6.577648455277085304e-04 1.829798333346843719e-02 1.457844674587249756e-02 -1.838719472289085388e-02 8.578092092648148537e-05 1.063896343111991882e-02 -1.106805066228844225e-04 1.540493220090866089e-02 2.868542820215225220e-02 -4.405785293783992529e-04 9.802903980016708374e-02 -7.494374644011259079e-03 -7.427155505865812302e-03 -2.672352711670100689e-04 3.077744506299495697e-03 -1.982646621763706207e-02 1.101825106889009476e-02 -4.489312705118209124e-04 1.068214885890483856e-02 2.059307508170604706e-02 4.124822953599505126e-05 8.588283322751522064e-03 -2.302257344126701355e-03 -6.764235440641641617e-04 8.198958821594715118e-03 1.562786102294921875e-02 3.381079761311411858e-03 5.540961399674415588e-03 6.027834751876071095e-05 2.023887634277343750e-02 3.336985036730766296e-02 9.728247299790382385e-03 -3.802270069718360901e-02 -2.096500992774963379e-02 3.858974669128656387e-04 -7.188018644228577614e-04 -3.227976337075233459e-02 -4.144462000112980604e-04 -7.163304835557937622e-02 -9.385615121573209763e-04 -6.096078548580408096e-03 2.556941844522953033e-02 3.074221871793270111e-02 -8.307697251439094543e-03 -2.800734946504235268e-04 -2.822280675172805786e-02 1.414219662547111511e-02 7.488526403903961182e-02 2.656040899455547333e-02 1.376008847728371620e-03 1.556815300136804581e-02 -2.621181309223175049e-03 1.353639992885291576e-03 -6.327203009277582169e-03 -7.375651970505714417e-03 -6.861661374568939209e-02 -1.455776207149028778e-02 -1.165661960840225220e-02 6.651917006820440292e-03 -1.760319108143448830e-03 2.921887487173080444e-02 -8.006835123524069786e-04 -6.327396631240844727e-02 6.300265900790691376e-03 6.227106787264347076e-03
-1.965401228517293930e-03 -1.050241407938301563e-04 3.955109568778425455e-04 -3.812258690595626831e-02 8.509390056133270264e-03 1.918233931064605713e-02 8.853034232743084431e-04 -1.810318045318126678e-02 1.442909613251686096e-02 -8.043607696890830994e-03 -1.072329469025135040e-03 -4.021065833512693644e-04 -9.434708626940846443e-04 1.152104698121547699e-03 -5.289603141136467457e-04 -7.024380611255764961e-04 1.747813448309898376e-02 1.888894848525524139e-02 -2.657891251146793365e-02 1.274344325065612793e-02 -2.741838060319423676e-02 8.558839559555053711e-03 -6.240736693143844604e-04 1.992313750088214874e-02 3.666927805170416832e-04 -9.863324230536818504e-04 -4.412988491822034121e-04 -8.988828398287296295e-03 -5.475451238453388214e-03 7.068947423249483109e-03 -9.358039498329162598e-02 -4.975089541403576732e-05 6.881418637931346893e-03 -2.336700074374675751e-02 5.393040832132101059e-03 4.181272909045219421e-02 -3.596720853238366544e-05 1.366360578685998917e-02 1.226517744362354279e-02 3.811603784561157227e-02 1.412613131105899811e-02 -1.134425029158592224e-02 -3.422396257519721985e-02 -8.618039079010486603e-03 -6.059355568140745163e-03 5.158561095595359802e-02 -2.145758597180247307e-03 7.741805166006088257e-02 4.554587940219789743e-04 -5.099443951621651649e-04 5.157388281077146530e-03 -1.042169053107500076e-03 4.460382089018821716e-02 2.067450620234012604e-02 -2.619684673845767975e-02 2.200883254408836365e-02 4.345627967268228531e-04 -1.657690445426851511e-04 -5.209090188145637512e-03 3.636460378766059875e-02 3.338363487273454666e-03 -2.575195394456386566e-02 -8.062243578024208546e-04 5.581400357186794281e-03 -5.561631917953491211e-02 -2.939891256392002106e-02 2.417333610355854034e-02 4.573209211230278015e-02 -1.982701383531093597e-02 1.289026578888297081e-03 3.382214903831481934e-02 -2.303684595972299576e-03 -1.121471729129552841e-02 7.453350350260734558e-03 1.326120644807815552e-02 9.176151797873899341e-05 -2.010479755699634552e-02 -4.409808665513992310e-03 -3.227724228054285049e-04 -2.077725512208417058e-04 -2.879881940316408873e-04 -5.288099125027656555e-02 2.817091345787048340e-02 3.991838172078132629e-02 1.544794440269470215e-02 1.460255775600671768e-02 2.480147220194339752e-02 6.721886340528726578e-03 -2.532938495278358459e-03 2.110044844448566437e-02 3.835750976577401161e-04 5.493557453155517578e-02 9.926980361342430115e-03 3.113481961190700531e-02 -1.165814884006977081e-02 3.220302984118461609e-02 9.011197835206985474e-03 -3.458968549966812134e-02 3.709556162357330322e-02 -2.082285098731517792e-02 5.688332748832181096e-05 -2.994897402822971344e-02 2.578490972518920898e-02 4.540015012025833130e-03 -1.462247455492615700e-04 6.850034464150667191e-03 8.876112848520278931e-02 -3.937485162168741226e-03 -6.453409325331449509e-03 -1.712530065560713410e-04 -1.781870424747467041e-02 -1.101663429290056229e-02 7.287462707608938217e-03 1.728313043713569641e-02 -3.211381146684288979e-03 -1.986039336770772934e-03 4.953072406351566315e-03 5.848459433764219284e-03 -6.188165571074932814e-05 -1.661708950996398926e-02 -3.407938056625425816e-04 -1.757708191871643066e-02 5.757796391844749451e-02 -9.888054337352514267e-04 2.311513945460319519e-02 2.240062877535820007e-02 2.058116951957345009e-03 -3.584032133221626282e-02 1.544892322272062302e-03 -3.105634450912475586e-02 1.352202519774436951e-02 4.538735747337341309e-02 -5.219301674515008926e-03 1.187172532081604004e-02 -3.845551400445401669e-04 -4.299459233880043030e-02 7.235593162477016449e-03 -8.666927926242351532e-03 3.719686646945774555e-04 -1.545946486294269562e-02 -2.568708732724189758e-04 3.697085380554199219e-02 8.859238587319850922e-03 -4.095943644642829895e-02 -1.761828735470771790e-02 -2.352900104597210884e-03 -5.326089449226856232e-04 4.270651377737522125e-03 -7.389947772026062012e-03 -9.151755832135677338e-03 6.400700658559799194e-02 -2.627568552270531654e-03 -1.135007594712078571e-03 1.849110797047615051e-02 3.627521544694900513e-02 -2.546204952523112297e-03 -1.378042274154722691e-03 -1.150498283095657825e-03 1.593199186027050018e-02 -2.623641863465309143e-02 -1.310758525505661964e-03 -1.935140602290630341e-02 1.882949285209178925e-02 -3.121088631451129913e-02 2.747500315308570862e-02 -1.711024716496467590e-02 5.659392569214105606e-03 2.002909593284130096e-02 2.369882911443710327e-02 -8.612662553787231445e-02 4.726720228791236877e-02 3.680630761664360762e-04 1.877673715353012085e-02 -1.210582628846168518e-02 2.150416187942028046e-02 9.537951089441776276e-03 -4.307055845856666565e-03 -1.401717029511928558e-02 -3.130802360828965902e-05 -1.045596945914439857e-05 3.800625447183847427e-03 -1.295747701078653336e-02 -3.834331035614013672e-02 -8.930327743291854858e-02 -3.408198244869709015e-03 2.639821905177086592e-04 -1.259799674153327942e-02 5.991103826090693474e-04 -3.389298170804977417e-02 1.106035269913263619e-04 -8.216859423555433750e-04 -2.825389092322438955e-04 -3.035788424313068390e-02 -1.895763166248798370e-02 -5.979339033365249634e-02 7.537148194387555122e-04 3.702922910451889038e-02 -6.242551025934517384e-04 2.524533867835998535e-02 -4.154733195900917053e-02 2.700510667636990547e-04 5.348822101950645447e-02 -2.071330882608890533e-02 1.045775320380926132e-02 -7.136243511922657490e-04 4.700525850057601929e-02 -5.406371876597404480e-02 1.447487622499465942e-02 7.282270817086100578e-04 1.164242066442966461e-02 -9.773728437721729279e-03 -2.546160249039530754e-04 8.702941238880157471e-03 1.188980881124734879e-03 -5.400240048766136169e-02 -9.361307602375745773e-04 2.026410214602947235e-02 -2.254653722047805786e-02 2.313037775456905365e-02 -5.206696805544197559e-04 -8.844665251672267914e-03 8.626849390566349030e-03 -2.539636753499507904e-02 2.149457484483718872e-02 -1.343768835067749023e-02 -4.720145079772919416e-04 8.511066553182899952e-04 4.231650847941637039e-03 -4.430114931892603636e-04 1.342976558953523636e-02 4.487559199333190918e-03 -6.274419371038675308e-03 5.681825801730155945e-02 1.098884036764502525e-03 -5.692551657557487488e-02 6.257509230636060238e-04 6.536375731229782104e-02 2.623446844518184662e-02 9.498903527855873108e-03 -1.306829228997230530e-02 -5.731595680117607117e-03 -2.822689013555645943e-03 -2.108801715075969696e-02 4.547903372440487146e-04 -3.723524883389472961e-02 2.336344681680202484e-02 7.904304191470146179e-03 2.342150174081325531e-02 -1.547141466289758682e-02 6.824345793575048447e-03 9.695830754935741425e-03 -2.252197638154029846e-02 1.953495957423001528e-04 2.648013085126876831e-02 -2.539518848061561584e-02 1.002520788460969925e-02
-1.464829687029123306e-02 -1.815331052057445049e-03 4.151918110437691212e-04 -8.558093104511499405e-04 -5.589123349636793137e-03 -1.282442454248666763e-02 -1.290528598474338651e-04 -8.037659339606761932e-03 -1.786046288907527924e-02 6.475480739027261734e-03 -1.985571812838315964e-03 -1.233162707649171352e-03 4.336612983024679124e-05 7.746135815978050232e-04 -4.211469495203346014e-04 6.472759559983387589e-05 2.494858764111995697e-02 -4.934101016260683537e-04 -1.093645021319389343e-02 2.777540497481822968e-02 2.245431207120418549e-02 1.485581789165735245e-02 6.914617260918021202e-04 -2.002047002315521240e-02 2.709226100705564022e-05 -8.099886472336947918e-04 -1.107634976506233215e-03 2.213767264038324356e-03 -2.392349531874060631e-03 -1.341150980442762375e-02 2.529184101149439812e-03 -5.233937990851700306e-04 3.428969159722328186e-02 5.906634032726287842e-03 1.534890104085206985e-02 2.722227200865745544e-02 6.041566375643014908e-04 -3.451699391007423401e-02 -3.046072646975517273e-02 -2.040705457329750061e-02 -6.923767179250717163e-02 -2.252785256132483482e-03 2.671478502452373505e-02 -1.612854376435279846e-02 2.939366176724433899e-02 4.599501378834247589e-03 -2.027760492637753487e-03 -9.061545133590698242e-03 1.431055134162306786e-04 -9.655499161453917623e-05 1.232226658612489700e-02 -3.048313083127140999e-04 5.883056670427322388e-02 -1.199380215257406235e-02 2.330528572201728821e-02 -5.343228112906217575e-04 9.871354559436440468e-04 4.379510064609348774e-04 -8.858012035489082336e-03 3.432554751634597778e-02 -4.720755852758884430e-03 2.336505614221096039e-02 2.384023100603371859e-04 -3.466792404651641846e-02 -1.861233077943325043e-02 -8.669297210872173309e-03 -2.383014798397198319e-04 1.379754487425088882e-02 -1.252941600978374481e-02 5.788641865365207195e-04 -2.046944573521614075e-02 1.311220508068799973e-02 3.927643597126007080e-02 -2.615408156998455524e-04 -1.968504860997200012e-03 -9.773435303941369057e-04 1.438219100236892700e-02 -4.478703066706657410e-02 -5.523683037608861923e-03 -2.430957538308575749e-04 5.965682794339954853e-04 5.664886557497084141e-04 4.012203961610794067e-02 -2.624828182160854340e-02 7.188665214926004410e-03 -2.796949259936809540e-02 -2.443354763090610504e-02 -1.398955471813678741e-02 2.238063141703605652e-02 -1.850535860285162926e-03 3.985662013292312622e-03 1.353975571691989899e-02 9.900054894387722015e-03 1.774691790342330933e-02 9.861780330538749695e-03 -2.324566803872585297e-02 -1.299677044153213501e-02 9.682448580861091614e-03 4.698831122368574142e-03 2.318395487964153290e-02 -2.235232677776366472e-04 5.700789764523506165e-02 -2.863515727221965790e-02 -2.055147197097539902e-03 5.862360703758895397e-04 2.432784810662269592e-02 8.134014904499053955e-02 -1.725047826766967773e-02 6.947326660156250000e-02 -8.452852489426732063e-04 1.326414570212364197e-02 2.608372084796428680e-02 -1.535802055150270462e-02 1.223857700824737549e-02 -1.876294612884521484e-02 -3.062918782234191895e-02 -5.937981978058815002e-02 -1.607900019735097885e-03 2.537481253966689110e-03 2.255779225379228592e-03 2.457913942635059357e-02 3.253327310085296631e-02 -3.092702478170394897e-02 1.006757258437573910e-03 2.514956705272197723e-02 2.249013865366578102e-03 -1.946283504366874695e-02 3.868700237944722176e-03 -1.905937562696635723e-03 3.948172088712453842e-03 -1.380960177630186081e-02 2.145027741789817810e-02 -4.009620752185583115e-03 -1.290642656385898590e-02 8.894887869246304035e-04 6.222227215766906738e-02 -3.336743637919425964e-02 4.761129617691040039e-03 -9.023405436892062426e-05 -1.564959622919559479e-02 4.960429505445063114e-04 -1.128540723584592342e-03 1.676424406468868256e-02 -8.850432001054286957e-03 4.569648206233978271e-02 -1.247139531187713146e-03 2.483620308339595795e-02 -5.682093091309070587e-03 -1.960752345621585846e-02 -1.990812271833419800e-02 -7.966846227645874023e-03 2.996735647320747375e-02 1.370857353322207928e-04 9.584608487784862518e-03 -3.221382200717926025e-02 2.213317342102527618e-02 -9.562562219798564911e-03 -4.917657747864723206e-02 -4.480481147766113281e-02 1.295585092157125473e-02 -3.931888565421104431e-02 3.140030428767204285e-02 4.228305444121360779e-02 4.730076342821121216e-02 -1.466769166290760040e-02 9.153489954769611359e-03 -2.008114941418170929e-02 4.237053217366337776e-04 -3.347107023000717163e-02 3.598172590136528015e-02 4.978509247303009033e-02 -2.399677032371982932e-04 -1.491071563214063644e-02 5.834710970520973206e-02 -3.529474139213562012e-02 2.605001674965023994e-03 4.765843506902456284e-03 -1.409257296472787857e-02 1.321266754530370235e-03 -2.694193426577840000e-05 5.828962102532386780e-02 5.356072634458541870e-02 1.904199458658695221e-02 -5.077662318944931030e-02 1.822411641478538513e-02 -3.818436234723776579e-04 1.874871319159865379e-03 -1.478302001487463713e-04 -6.118559464812278748e-02 3.196644538547843695e-04 -3.315263602416962385e-04 1.518042699899524450e-04 2.201712504029273987e-02 -2.166292397305369377e-04 -2.097521163523197174e-02 -6.531372782774269581e-04 -3.168242797255516052e-02 9.285924606956541538e-04 -4.154730960726737976e-02 -8.120989426970481873e-03 4.419582255650311708e-04 5.060670431703329086e-03 -4.059064015746116638e-02 -7.967360317707061768e-03 -1.292343949899077415e-04 1.145700342021882534e-03 1.591106317937374115e-02 -2.591960318386554718e-02 4.924079403281211853e-04 1.462652534246444702e-02 2.237838692963123322e-02 1.082528033293783665e-03 -1.246178895235061646e-02 -1.413536811014637351e-04 -2.130602672696113586e-02 1.404901593923568726e-02 2.392414398491382599e-02 9.587667882442474365e-03 -1.227705087512731552e-02 -1.782451145118102431e-04 9.162110090255737305e-02 1.290069241076707840e-02 -2.237430028617382050e-02 -5.434010643512010574e-03 -4.321256279945373535e-02 9.387549362145364285e-04 -4.752738866955041885e-03 6.587130017578601837e-03 3.923011827282607555e-04 5.863517522811889648e-03 3.582561912480741739e-04 -1.104883197695016861e-02 -9.183282963931560516e-03 -1.865293085575103760e-02 -1.165298931300640106e-02 -9.084736811928451061e-04 1.364111807197332382e-02 1.500259060412645340e-02 -1.487079076468944550e-02 3.013619780540466309e-02 1.389481709338724613e-03 -6.974750757217407227e-02 -2.653594687581062317e-02 2.997829687956254929e-05 1.822531968355178833e-02 -2.710138633847236633e-02 -2.585900947451591492e-02 -3.461598232388496399e-02 5.615447834134101868e-02 2.142374962568283081e-02 2.148871310055255890e-02 1.637014187872409821e-02 -3.860449942294508219e-04 2.892677299678325653e-02 7.664533331990242004e-03 3.240752220153808594e-02
