-9.210901707410812378e-02 -9.423617124557495117e-01 2.196659799665212631e-03 2.107837237417697906e-03 3.102927934378385544e-03 3.704478964209556580e-02 2.294368576258420944e-03 -5.310462713241577148e-01 2.683407161384820938e-03 2.917892299592494965e-03 -5.005764961242675781e-01 2.836349979043006897e-02 2.367150969803333282e-03 -2.721354663372039795e-01 2.935644239187240601e-03 5.451571941375732422e-02 2.176717370748519897e-01 1.071301521733403206e-03 7.741275429725646973e-02 -7.186684012413024902e-02 5.358169600367546082e-02 2.613317221403121948e-03 1.332511659711599350e-03 2.405673032626509666e-03 2.692154143005609512e-03 -1.666562110185623169e-01 2.881286898627877235e-03 2.332780743017792702e-03 2.432071371003985405e-03 2.866838127374649048e-03 2.842132002115249634e-03 -1.353732347488403320e-01 -1.048454716801643372e-01 1.630390435457229614e-01 2.437771065160632133e-03 2.517761895433068275e-03 2.122386591508984566e-03 2.976216375827789307e-03 -1.323325000703334808e-02 2.053946722298860550e-03 2.496218308806419373e-03 1.476908568292856216e-02 -1.731344014406204224e-01 2.380094025284051895e-03 4.627278074622154236e-02 2.914677606895565987e-03 2.105612773448228836e-03 2.960950601845979691e-03 2.566347597166895866e-03 -2.666788995265960693e-01 2.599015133455395699e-03 1.970405923202633858e-03 2.824911614879965782e-03 -1.400267519056797028e-02 5.682190135121345520e-02 1.843241858296096325e-03 2.996967174112796783e-03 2.705352380871772766e-03 1.838030852377414703e-02 8.685967326164245605e-02 2.436949405819177628e-03 2.790257334709167480e-03 -5.399489402770996094e-01 2.837060485035181046e-03 -1.292021851986646652e-02 1.848215935751795769e-03 2.651669085025787354e-03 8.594904839992523193e-02 2.886829897761344910e-03 3.328240662813186646e-02 2.584620844572782516e-03 8.055405318737030029e-02 2.775003435090184212e-03 2.698027063161134720e-03 6.345193088054656982e-02 1.884047756902873516e-03 6.094817817211151123e-02 2.844273578375577927e-03 -5.685040727257728577e-02 2.359519945457577705e-03 -1.137877553701400757e-01 2.690548542886972427e-03 2.807755721732974052e-03 2.840864472091197968e-03 -4.126609861850738525e-02 2.464235527440905571e-03 2.139107324182987213e-03 1.296026557683944702e-01 2.607682952657341957e-03 -2.517683804035186768e-01 2.155484445393085480e-02 -5.379562973976135254e-01 2.435899106785655022e-03 2.619734965264797211e-03 -2.835803747177124023e+00 -4.530365467071533203e-01 1.371490806341171265e-01 2.241351455450057983e-02 2.875083126127719879e-03 -1.439835727214813232e-01 2.439424628391861916e-03 2.838911954313516617e-03 8.427200466394424438e-02 2.927111461758613586e-03 2.840052591636776924e-03 -8.315739035606384277e-02 1.828604727052152157e-03 2.737304661422967911e-03 -1.386839866638183594e+00 2.490201033651828766e-03 4.139366000890731812e-02 9.906973689794540405e-02 -6.254211068153381348e-02 5.068871974945068359e-01 2.314216643571853638e-01 2.233522711321711540e-03 8.081956207752227783e-02 7.215096149593591690e-03 2.644883934408426285e-03 2.140170186758041382e-01 1.872497494332492352e-03 -2.852721214294433594e-01 -4.675848782062530518e-02 2.456227084621787071e-03 9.600615501403808594e-02 2.594043910503387451e-01 2.718364121392369270e-03 1.956264972686767578e-01 2.831803634762763977e-03 1.928392332047224045e-03 2.919693710282444954e-03 2.751368097960948944e-02 2.225260948762297630e-03 5.185130238533020020e-02 1.003842428326606750e-01 2.345603890717029572e-03 9.258006513118743896e-02 1.072046533226966858e-02 2.484085736796259880e-03 2.738517476245760918e-03 2.148595405742526054e-03 9.847796708345413208e-02 2.351228380575776100e-03 -1.660145521163940430e-01 -1.485157757997512817e-02 -6.249500438570976257e-03 2.365923486649990082e-03 1.709227683022618294e-03 -1.865284144878387451e-01 4.469928517937660217e-02 2.346129156649112701e-03 1.448745932430028915e-02 1.319682002067565918e-01 -1.333730220794677734e-01 2.761682961136102676e-03 2.586117247119545937e-03 2.433464629575610161e-03 2.543440088629722595e-03 -2.465392649173736572e-01 -3.101420700550079346e-01 2.962891710922122002e-03 2.543357899412512779e-03 2.877740655094385147e-03 2.553440863266587257e-03 2.781538525596261024e-03 -1.702713407576084137e-02 -7.583069056272506714e-02 6.555739045143127441e-02 2.734370296820998192e-03 2.891970332711935043e-03 2.272895304486155510e-03 7.517521083354949951e-02 2.970202593132853508e-03 1.448406428098678589e-01 2.275506732985377312e-03 2.331227995455265045e-03 2.997570205479860306e-03 -1.587346792221069336e-01 2.195475995540618896e-02 2.854482503607869148e-03 2.251520520076155663e-03 2.047134935855865479e-02 -1.728724688291549683e-01 1.453030854463577271e-01 -3.082646243274211884e-02 2.512654988095164299e-03 2.472241641953587532e-03 9.994787396863102913e-04 -1.490676403045654297e-02 -7.120728492736816406e-01 2.598962280899286270e-03 8.273101598024368286e-02 -2.111412584781646729e-01 2.181169018149375916e-02 4.163784682750701904e-01 6.807143986225128174e-02 3.642586246132850647e-02 2.599007915705442429e-03 7.751245796680450439e-02 2.194725908339023590e-03 2.910278039053082466e-03 -3.034311830997467041e-01 2.632007701322436333e-03 -1.092884242534637451e-01 2.702010562643408775e-03 2.474683802574872971e-03 1.815564814023673534e-03 6.987591087818145752e-02 2.846448915079236031e-03 2.600418403744697571e-03 1.288741827011108398e-01 2.614174503833055496e-03 9.665283560752868652e-02 8.983551710844039917e-02 1.673614257015287876e-03 -5.645757317543029785e-01 2.720270073041319847e-03 2.066134242340922356e-03 -1.014769554138183594e+00 -2.523991763591766357e-01 -8.199800550937652588e-02 2.489682752639055252e-03 1.405239105224609375e-01 -2.121546745300292969e+00 2.763177966699004173e-03 -5.244704484939575195e-01 2.956425538286566734e-03 2.442119177430868149e-03 2.296543214470148087e-03 -9.223381429910659790e-02 2.561515429988503456e-03 2.508208155632019043e-03 1.478498219512403011e-03 9.818063676357269287e-02 5.359685420989990234e-01 1.524463761597871780e-03 2.561281202360987663e-03 2.041394412517547607e-01 2.457311609759926796e-03 5.705090165138244629e-01 2.415576716884970665e-03 1.821469399146735668e-03 1.156240254640579224e-01 3.080974332988262177e-02 1.123019009828567505e-01 2.716165967285633087e-03 -3.829930126667022705e-01 2.613127464428544044e-03 2.787469420582056046e-03 2.923110732808709145e-03 2.907428890466690063e-03 2.972831251099705696e-03 -3.651211261749267578e-01 2.431010827422142029e-03 2.984609920531511307e-03 8.565921336412429810e-02
