-3.115383349359035492e-02 2.089853025972843170e-02 -2.492635883390903473e-02 1.404827367514371872e-02 -1.321116089820861816e-02 1.517824735492467880e-02 -3.565988270565867424e-03 1.875702105462551117e-02 2.242875844240188599e-02 -4.109376575797796249e-03 -1.271987333893775940e-02 -2.785188704729080200e-02 -3.355407342314720154e-02 7.423506584018468857e-03 2.502253651618957520e-02 3.339009592309594154e-03 -2.176488284021615982e-03 -1.103255245834589005e-02 -3.360332548618316650e-02 7.508862763643264771e-03 6.579541135579347610e-03 -1.824575825594365597e-03 -2.468081191182136536e-03 3.570080175995826721e-02 -5.083877593278884888e-02 1.579098589718341827e-02 2.002129890024662018e-02 1.060889661312103271e-02 1.540765166282653809e-02 -4.577741958200931549e-03 1.345662865787744522e-02 -2.632677741348743439e-02 -8.882287889719009399e-03 2.020341716706752777e-02 -7.090370636433362961e-03 -1.137693761847913265e-03 1.718511059880256653e-02 3.336491063237190247e-02 1.392904948443174362e-02 5.435420200228691101e-02 1.719580031931400299e-02 -2.392869815230369568e-02 -3.174315765500068665e-02 7.284899707883596420e-03 -2.303498052060604095e-02 -2.143796719610691071e-02 -2.923727501183748245e-03 -7.672643987461924553e-04 -3.095236606895923615e-02 2.184466831386089325e-02 8.447877131402492523e-03 -2.036704123020172119e-02 1.064059883356094360e-02 -2.567768841981887817e-02 1.899350248277187347e-02 1.636655069887638092e-03 1.437295507639646530e-02 2.236288972198963165e-02 8.144576102495193481e-03 2.329827257199212909e-04 7.531550712883472443e-03 1.571357436478137970e-02 9.419770911335945129e-03 -5.349489860236644745e-03 -4.324035253375768661e-03 2.196637541055679321e-02 -2.460874244570732117e-02 -5.494285747408866882e-02 1.637705718167126179e-03 1.856159977614879608e-02 1.685700938105583191e-02 -4.684179648756980896e-02 -1.582436636090278625e-02 1.484953518956899643e-02 -2.792046219110488892e-02 -2.471919870004057884e-03 2.879826352000236511e-02 -2.076788991689682007e-02 2.503101527690887451e-02 -1.458527054637670517e-02 -5.177931394428014755e-03 -9.171967394649982452e-03 -6.229235790669918060e-03 7.694662548601627350e-03 9.617651812732219696e-03 1.216056384146213531e-02 8.276379667222499847e-03 9.748615324497222900e-03 -1.648157462477684021e-02 1.134812086820602417e-02 4.001405090093612671e-03 3.427398577332496643e-02 6.211886648088693619e-03 2.036995999515056610e-02 1.350717712193727493e-02 1.145084388554096222e-02 9.936548769474029541e-03 3.923995420336723328e-03 -2.422212995588779449e-02 4.860590025782585144e-02 -1.109159924089908600e-02 -4.082845989614725113e-03 1.937188394367694855e-02 -1.368895079940557480e-02 1.590098626911640167e-02 -3.592420369386672974e-02 1.912528276443481445e-02 3.171687480062246323e-03 2.137714764103293419e-03 -3.139292076230049133e-02 3.645456628873944283e-03 1.160789094865322113e-02 -9.305697865784168243e-03 1.541590224951505661e-02 -8.090044371783733368e-03 -3.661904856562614441e-02 -2.463688608258962631e-03 -7.387051300611346960e-05 1.295048277825117111e-02 4.098283499479293823e-02 9.267136454582214355e-03 -8.150722086429595947e-02 1.175594516098499298e-02 9.698786772787570953e-03 7.675465196371078491e-03 -1.716767251491546631e-02 -1.479462441056966782e-02 -1.825390383601188660e-02 6.190118379890918732e-03 1.976749487221240997e-02 1.476372871547937393e-02 -7.145990617573261261e-03 1.260660309344530106e-02 -5.510069895535707474e-04 1.830142922699451447e-02 4.852385725826025009e-03 3.482605144381523132e-02 1.856785267591476440e-02 1.386405620723962784e-02 3.856499120593070984e-02 -1.315396558493375778e-02 1.096213236451148987e-02 -6.761733442544937134e-03 1.563851535320281982e-02 2.158557437360286713e-02 1.749949716031551361e-02 1.688446849584579468e-02 5.910219158977270126e-03 1.386430300772190094e-02 -8.413822390139102936e-03 -6.875766068696975708e-02 -7.778916042298078537e-03 -2.043754793703556061e-02 1.979887112975120544e-02 2.265474759042263031e-02 -1.200550515204668045e-02 2.944384142756462097e-02 1.168366987258195877e-02 -3.539332002401351929e-02 7.490465417504310608e-03 -3.622383624315261841e-02 -3.705355338752269745e-03 -1.614302047528326511e-03 -2.543562278151512146e-02 -5.360054783523082733e-03 -2.947104396298527718e-03 -2.285049483180046082e-02 -1.497656665742397308e-02 8.706833235919475555e-03 -4.875594750046730042e-02 -1.330324355512857437e-02 1.668910682201385498e-02 6.149613298475742340e-03 2.305617183446884155e-02 2.370717190206050873e-02 -9.127608500421047211e-04 2.191370725631713867e-02 1.799150370061397552e-02 -8.894867263734340668e-03 2.517073880881071091e-03 -1.269438210874795914e-02 9.970725513994693756e-04 2.817041240632534027e-02 6.503140088170766830e-03 2.181398496031761169e-02 -1.479218341410160065e-02 3.953959327191114426e-03 -3.236803039908409119e-02 -5.220338329672813416e-02 2.437064051628112793e-02 9.889119304716587067e-03 4.550775047391653061e-03 -7.095511537045240402e-04 1.406402233988046646e-02 3.523434698581695557e-02 2.886991202831268311e-02 1.816544309258460999e-02 1.369231264106929302e-03 1.154054608196020126e-02 1.397741027176380157e-03 -1.230029389262199402e-02 -1.316549722105264664e-02 1.562717929482460022e-02 -8.219705522060394287e-02 1.570592634379863739e-02 1.844916865229606628e-02 9.793797507882118225e-04 6.469568237662315369e-03 4.033918492496013641e-03 -2.429471351206302643e-02 1.096711680293083191e-02 -2.902984619140625000e-02 2.966764150187373161e-04 2.746442100033164024e-03 2.460158895701169968e-03 -6.997562199831008911e-02 -1.504058856517076492e-02 1.989303342998027802e-02 -1.133980508893728256e-02 -2.085754275321960449e-02 -1.833356916904449463e-02 1.261249370872974396e-02 1.647005602717399597e-02 -9.512608870863914490e-03 1.732280850410461426e-02 2.984947897493839264e-02 -2.314563468098640442e-02 -1.934355683624744415e-02 3.606512024998664856e-02 5.765238893218338490e-04 -7.043440826237201691e-03 -1.829274185001850128e-02 2.627412974834442139e-02 -2.998738549649715424e-03 1.441467460244894028e-02 -1.256735902279615402e-02 -1.836980134248733521e-02 -4.278597608208656311e-02 1.039437018334865570e-02 1.620892435312271118e-02 4.144904669374227524e-03 1.419243589043617249e-02 7.864618673920631409e-03 5.458063445985317230e-03 -1.128256320953369141e-02 -1.450536027550697327e-02 -5.831965245306491852e-03 2.429340593516826630e-02 -1.127997878938913345e-02 7.433992810547351837e-03 1.100920978933572769e-02 1.717790588736534119e-02 -6.836740300059318542e-03 1.081299223005771637e-02 -4.719074070453643799e-02 -1.578431949019432068e-02
-8.026732248254120350e-04 1.170511532109230757e-04 5.626275087706744671e-04 2.417610448901541531e-05 1.323729375144466758e-04 -9.000496938824653625e-04 -8.452345500700175762e-04 -3.907351347152143717e-04 -6.380133563652634621e-04 -5.311048589646816254e-04 -6.875359686091542244e-04 4.686662869062274694e-04 -4.800262104254215956e-04 -8.213352411985397339e-04 6.555676227435469627e-04 -5.998752021696418524e-05 -4.389331734273582697e-04 3.700640809256583452e-04 -3.734119818545877934e-04 -3.612238506320863962e-04 -3.811106944340281188e-05 -3.649865393526852131e-04 -5.663877236656844616e-04 -4.301490553189069033e-04 3.734679776243865490e-04 5.813797470182180405e-04 -4.693873052019625902e-04 -5.959662375971674919e-04 -9.151551639661192894e-04 -6.543804192915558815e-04 3.677242493722587824e-04 2.782745868898928165e-04 8.133241499308496714e-05 -1.418915460817515850e-03 -3.703298862092196941e-04 -8.570225909352302551e-04 5.208905786275863647e-04 1.047091325744986534e-03 1.316264271736145020e-03 3.611558349803090096e-05 -1.091169251594692469e-04 1.527732820250093937e-04 1.235413132235407829e-03 -1.002665012492798269e-04 5.681327311322093010e-04 -2.570913347881287336e-04 7.233564392663538456e-04 4.904830711893737316e-04 -1.349375117570161819e-03 -1.215090393088757992e-03 -4.153167828917503357e-04 -4.994440241716802120e-04 9.148682147497311234e-05 2.562000881880521774e-04 -4.109540604986250401e-04 1.055167638696730137e-03 -6.496491259895265102e-04 1.406169030815362930e-04 6.486860220320522785e-04 -1.648596808081492782e-04 8.142064325511455536e-05 -3.259597287978976965e-04 -6.565221119672060013e-04 7.044147932901978493e-04 -7.461545174010097980e-04 2.209362719440832734e-04 -1.358231296762824059e-03 -3.881431184709072113e-04 3.120589826721698046e-04 -8.677353034727275372e-04 -6.477509741671383381e-04 2.778191119432449341e-04 3.546554653439670801e-04 -3.144705551676452160e-04 -7.937108748592436314e-04 -5.218064179643988609e-04 -7.451641722582280636e-04 -7.282881415449082851e-04 -1.327357138507068157e-03 -8.150475914590060711e-04 5.737311948905698955e-05 2.303746878169476986e-04 -5.207737558521330357e-04 -1.518368953838944435e-03 2.293001452926546335e-04 3.347182355355471373e-04 3.010731888934969902e-04 -4.567845026031136513e-04 7.193121746240649372e-06 4.034220473840832710e-04 3.476017154753208160e-04 -3.603059740271419287e-04 9.212882141582667828e-04 -1.624884680495597422e-05 -6.423488957807421684e-04 -3.199369239155203104e-04 1.076922519132494926e-03 -1.046495162881910801e-04 5.775940953753888607e-04 -4.299571155570447445e-04 6.486789789050817490e-04 -8.549549384042620659e-04 -1.194386059069074690e-04 -9.020803845487535000e-04 -1.383378519676625729e-03 2.678593154996633530e-04 -1.018673719954676926e-04 -2.748357837845105678e-05 -8.292668499052524567e-04 1.109258446376770735e-04 -1.733089680783450603e-03 4.287349293008446693e-04 -7.906779064796864986e-04 -2.128002524841576815e-04 -6.008886266499757767e-04 3.445659531280398369e-04 -1.015261863358318806e-03 -7.162187830545008183e-04 7.235196972033008933e-05 -1.142427092418074608e-03 -2.011951000895351171e-04 -6.037147613824345171e-05 3.117634623777121305e-04 2.252098493045195937e-04 -4.565429990179836750e-04 -7.562698010588064790e-05 1.098276989068835974e-04 -1.344410004094243050e-03 -9.566916269250214100e-04 -3.040956216864287853e-04 -6.374306394718587399e-04 -9.202414657920598984e-04 2.440831485728267580e-05 -4.205300938338041306e-04 -4.178196541033685207e-04 -1.792180235497653484e-03 -1.106470474041998386e-03 -7.584994309581816196e-04 -3.301735341665335000e-05 9.425100288353860378e-04 4.957255441695451736e-04 -4.318899300415068865e-04 -6.404488231055438519e-04 -8.250016253441572189e-04 1.031966065056622028e-03 -3.999592154286801815e-04 -5.109461490064859390e-04 -5.639833398163318634e-04 -6.508384249173104763e-04 -1.948571843968238682e-05 3.599493065848946571e-04 -6.544119096361100674e-04 4.275126848369836807e-04 -9.944466874003410339e-04 -3.221461083739995956e-04 -5.668152589350938797e-04 5.163824534974992275e-04 -1.218828110722824931e-04 -1.459100167267024517e-04 -2.215450163930654526e-03 2.941548882517963648e-04 3.602647338993847370e-04 -1.155326390289701521e-05 -2.154486282961443067e-04 2.082860592054203153e-04 -3.386744647286832333e-04 -4.051311407238245010e-04 3.988288226537406445e-04 -4.324365872889757156e-04 -1.175768673419952393e-03 3.162364882882684469e-04 6.040082662366330624e-04 9.521513857180252671e-05 -3.666396078187972307e-04 2.909373142756521702e-04 -1.651714439503848553e-03 -2.358425263082608581e-04 -4.255554813425987959e-04 9.432855877093970776e-04 -1.079528665286488831e-04 3.487121721263974905e-04 -5.358950147638097405e-05 -7.754431571811437607e-04 -6.716765929013490677e-04 5.723190843127667904e-04 -2.832037280313670635e-04 -1.836613228078931570e-04 -2.177340938942506909e-04 1.999830128625035286e-04 -6.174467853270471096e-04 -3.805339511018246412e-04 -3.914235567208379507e-04 -3.467841597739607096e-04 -3.159068874083459377e-04 -2.632732503116130829e-04 -7.653495413251221180e-04 1.569103449583053589e-03 -8.050748729147017002e-04 -2.870005846489220858e-04 -1.344566233456134796e-03 -3.987918607890605927e-04 -2.884511195588856936e-04 -1.194449359900318086e-04 -1.266284147277474403e-03 -1.550029410282149911e-04 -3.002638404723256826e-04 4.222993156872689724e-04 2.793915336951613426e-04 -7.577437791042029858e-04 -7.770961383357644081e-04 -1.040695118717849255e-03 -7.056984468363225460e-04 2.556094550527632236e-04 -3.525707870721817017e-04 -6.368730100803077221e-04 9.295088239014148712e-04 -1.496789627708494663e-04 -8.961798448581248522e-05 -1.535017043352127075e-03 -7.776971324346959591e-04 8.767173276282846928e-04 5.583549500443041325e-04 -3.014054964296519756e-04 -5.498065147548913956e-04 1.454946584999561310e-03 -2.311289717908948660e-04 5.075063672848045826e-04 -1.366020063869655132e-03 -4.642170097213238478e-04 -5.480199433804955333e-06 -6.264698458835482597e-04 -5.674103740602731705e-04 -8.807808044366538525e-04 4.738331481348723173e-04 -5.732934805564582348e-04 2.965642779599875212e-04 -9.653704182710498571e-05 -1.022445037961006165e-03 -9.875319665297865868e-04 4.842288908548653126e-04 -3.435896651353687048e-04 -1.118459855206310749e-03 1.178594320663250983e-04 9.269664878956973553e-04 8.697422890691086650e-05 -3.946253273170441389e-04 8.470115717500448227e-04 -2.934492658823728561e-04 2.453268389217555523e-04 3.341236442793160677e-04 -7.187055307440459728e-04 3.773181233555078506e-04 3.648377896752208471e-04 5.574073293246328831e-04 -3.715750062838196754e-04 -9.202580549754202366e-04
-5.123630631715059280e-03 7.961369119584560394e-03 -8.783199824392795563e-03 2.692809328436851501e-03 4.242528975009918213e-02 6.286509800702333450e-03 -1.185399945825338364e-02 1.915670698508620262e-03 1.416201703250408173e-02 -3.034545481204986572e-02 -5.205264687538146973e-02 -1.184424944221973419e-02 -3.577079996466636658e-02 2.141766715794801712e-03 2.572583267465233803e-03 4.071752773597836494e-04 -8.084092289209365845e-03 1.862819492816925049e-02 1.194953732192516327e-02 1.870965468697249889e-03 -3.184132976457476616e-03 -1.115547306835651398e-02 -6.428012158721685410e-03 4.062451049685478210e-02 -9.330596076324582100e-04 1.546450983732938766e-02 1.351565215736627579e-02 1.204172614961862564e-02 6.925874855369329453e-03 -1.098567899316549301e-02 -1.733675785362720490e-02 -2.725757658481597900e-03 -1.958368532359600067e-02 2.441814728081226349e-02 4.266367759555578232e-03 -1.183254551142454147e-02 -1.489970274269580841e-02 -3.668546304106712341e-02 -3.031023964285850525e-02 3.408427536487579346e-02 1.528834109194576740e-03 2.243896760046482086e-02 4.333028197288513184e-02 8.167336694896221161e-03 1.276164874434471130e-02 -6.694525945931673050e-03 -1.034199818968772888e-02 2.980050630867481232e-03 -8.406794071197509766e-02 -1.427344046533107758e-02 7.566043641418218613e-03 2.446719445288181305e-02 -1.049942336976528168e-03 -4.483966156840324402e-02 -2.097294293344020844e-02 5.792103474959731102e-04 1.811535656452178955e-02 2.017294801771640778e-02 -4.689092561602592468e-02 -6.934832036495208740e-02 1.240184251219034195e-02 3.048230893909931183e-03 -2.097570896148681641e-02 2.850325033068656921e-02 4.542205482721328735e-03 4.104988183826208115e-03 -1.074716541916131973e-02 6.741348654031753540e-02 -1.904714293777942657e-02 -8.757069008424878120e-04 2.279150299727916718e-02 1.710909977555274963e-02 2.276366204023361206e-02 -2.314485842362046242e-03 1.364219281822443008e-02 -2.799335494637489319e-02 4.657447710633277893e-02 -1.553586125373840332e-02 -1.879060990177094936e-03 -1.639590226113796234e-02 -2.372609265148639679e-02 -2.926109824329614639e-03 -6.736188195645809174e-03 -9.036870324052870274e-04 -4.915108438581228256e-03 1.926602981984615326e-02 3.800302045419812202e-03 -3.018521331250667572e-02 -5.904005095362663269e-02 3.294614329934120178e-02 -1.081792451441287994e-02 1.965742558240890503e-02 3.021823009476065636e-03 5.234298296272754669e-03 1.986945513635873795e-03 1.261779293417930603e-02 -1.145447837188839912e-03 -6.666637491434812546e-03 -8.278817869722843170e-03 3.254573047161102295e-02 -7.080909330397844315e-03 -1.932848244905471802e-02 8.517557755112648010e-03 9.141257032752037048e-03 6.109649688005447388e-02 3.410585690289735794e-03 7.999909110367298126e-03 -1.770300418138504028e-02 -3.421918721869587898e-03 -4.256014246493577957e-03 1.229309104382991791e-02 1.452434808015823364e-02 8.849952369928359985e-03 3.193324431777000427e-02 -7.668919861316680908e-03 -1.684700604528188705e-03 4.101217258721590042e-03 -1.969881355762481689e-03 7.719464483670890331e-04 -1.679165847599506378e-02 -2.451518317684531212e-03 1.326127909123897552e-02 3.355740010738372803e-02 1.024238392710685730e-02 -5.056009627878665924e-03 -3.653549123555421829e-03 3.397354856133460999e-02 -1.183379255235195160e-02 -4.828399512916803360e-03 -4.031809419393539429e-02 6.501533556729555130e-03 4.082173109054565430e-03 5.420085508376359940e-03 -1.371009275317192078e-02 1.067469362169504166e-02 -1.007393095642328262e-02 2.894044481217861176e-02 -1.140250079333782196e-02 8.963195607066154480e-03 8.500878466293215752e-04 -7.533132098615169525e-03 4.655797500163316727e-03 -9.556418284773826599e-03 1.971152052283287048e-02 -9.222281165421009064e-03 1.112302578985691071e-02 -1.723817898891866207e-03 -9.450334124267101288e-03 5.009364802390336990e-03 1.636469364166259766e-02 -9.677146561443805695e-03 -3.150675073266029358e-02 2.760966680943965912e-02 2.650386886671185493e-03 -2.239152236143127084e-04 -3.021573275327682495e-02 1.210751198232173920e-02 -1.101907528936862946e-02 -4.970277473330497742e-02 1.811889559030532837e-02 -4.525428265333175659e-02 -1.050213538110256195e-02 6.901803892105817795e-03 -2.014829032123088837e-02 9.988560341298580170e-03 -9.572776965796947479e-03 -1.463558990508317947e-03 3.132006525993347168e-02 -4.271791782230138779e-03 4.806835204362869263e-02 -2.628246881067752838e-02 9.044189937412738800e-03 -1.134816091507673264e-02 1.426657778210937977e-03 -2.098972909152507782e-02 2.392588369548320770e-02 -4.545147996395826340e-03 1.132461708039045334e-03 9.717589244246482849e-03 1.124029513448476791e-02 -4.260862246155738831e-03 -1.900332607328891754e-02 7.403292227536439896e-03 4.525855183601379395e-03 1.038930658251047134e-02 5.913583096116781235e-03 8.305008523166179657e-03 -2.923649549484252930e-02 2.639734419062733650e-03 -2.678184956312179565e-02 -5.509753827936947346e-04 -1.778748584911227226e-03 -2.011464536190032959e-02 6.645530462265014648e-03 1.480447314679622650e-02 1.635628193616867065e-02 2.395403105765581131e-03 3.668158897198736668e-04 -2.333113178610801697e-02 1.319468580186367035e-02 2.319072559475898743e-02 1.031295582652091980e-02 -3.015844337642192841e-02 5.645796656608581543e-03 -9.080761112272739410e-03 1.179548352956771851e-02 -5.324301891960203648e-04 -3.596297651529312134e-02 -1.857976615428924561e-02 -4.210075363516807556e-03 1.542345155030488968e-02 -1.056147739291191101e-02 6.339229177683591843e-03 1.518395263701677322e-02 1.379289664328098297e-03 1.700550504028797150e-02 -1.697785593569278717e-02 1.534933596849441528e-02 -2.567525720223784447e-03 -5.632423795759677887e-03 -3.845312073826789856e-02 2.830880694091320038e-03 1.060117781162261963e-02 -6.164500955492258072e-03 4.115462303161621094e-03 3.429294005036354065e-02 -3.486424311995506287e-02 -1.343662384897470474e-02 3.179102018475532532e-02 5.401221103966236115e-03 3.269048407673835754e-02 -8.486420847475528717e-03 3.442493453621864319e-02 4.285499919205904007e-03 -2.547044679522514343e-02 7.443062495440244675e-03 -2.103964425623416901e-02 1.345721259713172913e-02 -4.167840257287025452e-02 8.602938614785671234e-03 -1.154246926307678223e-02 6.699914112687110901e-03 -4.704027669504284859e-04 -4.057542420923709869e-03 -8.373477030545473099e-04 -2.695711888372898102e-02 5.749805830419063568e-03 -1.285248529165983200e-02 5.853799637407064438e-03 3.686603903770446777e-02 3.488886635750532150e-03 -8.930507116019725800e-03 -4.566426575183868408e-02 7.686104159802198410e-03 7.315181195735931396e-03 3.745685517787933350e-02
2.078097686171531677e-02 9.653964079916477203e-03 -6.835962994955480099e-04 2.195937326177954674e-03 1.046156976372003555e-02 6.280847359448671341e-03 -1.644078525714576244e-03 -2.010809024795889854e-03 -1.763057662174105644e-03 -8.068541996181011200e-03 2.397740818560123444e-02 -1.636106893420219421e-02 -2.915794029831886292e-02 1.026122178882360458e-02 -1.885289698839187622e-02 -7.922785356640815735e-03 1.606846414506435394e-02 -2.560242824256420135e-02 -1.884744130074977875e-02 1.329031307250261307e-02 2.546620555222034454e-02 -1.613939367234706879e-02 -2.678862772881984711e-03 -1.237084716558456421e-02 -2.094466052949428558e-02 -2.613091841340065002e-02 1.370675489306449890e-02 -1.399701694026589394e-03 1.000411622226238251e-02 -2.215637080371379852e-02 1.178955100476741791e-02 -3.029755130410194397e-02 -2.262399904429912567e-02 1.707691326737403870e-02 -9.545584209263324738e-03 1.770258694887161255e-02 3.033968620002269745e-02 -1.456073136068880558e-03 2.294665947556495667e-02 -3.282299730926752090e-03 3.178181126713752747e-03 -1.508070062845945358e-02 1.332356315106153488e-02 6.931635551154613495e-03 5.762688349932432175e-03 2.588417381048202515e-03 3.144374117255210876e-03 -1.680390909314155579e-02 -1.338748354464769363e-02 -7.085657864809036255e-02 -8.371316827833652496e-03 -1.514577679336071014e-02 8.537633344531059265e-03 -8.204204961657524109e-03 1.780141144990921021e-02 3.411462530493736267e-03 2.553421771153807640e-03 -2.935559954494237900e-03 1.154597196727991104e-02 1.486496068537235260e-02 -3.210226772353053093e-03 9.048881474882364273e-04 1.421868451870977879e-03 -2.301149815320968628e-02 -9.054889902472496033e-03 2.159265428781509399e-02 3.859421936795115471e-03 -1.626418158411979675e-02 2.795000560581684113e-02 3.059893380850553513e-03 1.285928208380937576e-02 1.463676057755947113e-02 2.924483269453048706e-03 7.985146716237068176e-03 -7.346249371767044067e-02 2.147525921463966370e-02 5.268257576972246170e-03 1.562820561230182648e-02 3.768917638808488846e-03 -1.128348056226968765e-02 -6.402007420547306538e-05 -3.869041427969932556e-02 -2.657965989783406258e-03 -1.221105735749006271e-02 9.247601032257080078e-03 8.522941730916500092e-03 3.701729467138648033e-03 1.376996748149394989e-02 -6.171629764139652252e-03 -6.874255370348691940e-03 1.012063957750797272e-02 1.240455824881792068e-02 9.514580480754375458e-03 -1.240122597664594650e-03 3.059303387999534607e-03 2.540488913655281067e-02 -2.282884530723094940e-02 1.172075420618057251e-02 1.903912983834743500e-02 1.284371316432952881e-02 -1.436460856348276138e-02 1.839081011712551117e-02 3.933248575776815414e-03 -1.133848261088132858e-02 5.478344392031431198e-03 -1.049254834651947021e-02 8.340213447809219360e-03 1.556846406310796738e-02 8.624400943517684937e-03 2.677678316831588745e-02 9.266865439713001251e-03 -1.884568110108375549e-02 -2.329934947192668915e-02 9.559776633977890015e-03 1.396544277667999268e-03 -5.983076989650726318e-03 -1.094451081007719040e-02 -2.582011558115482330e-02 3.219136502593755722e-03 -2.374434843659400940e-02 5.856146570295095444e-03 1.021666359156370163e-02 2.050141338258981705e-03 -1.114712283015251160e-02 1.141021028161048889e-02 -1.596683636307716370e-02 8.637075312435626984e-03 -1.647788658738136292e-02 3.507516533136367798e-02 8.300156332552433014e-03 6.012549623847007751e-03 -3.027851693332195282e-02 2.612021635286509991e-04 8.760850876569747925e-03 -8.640403859317302704e-03 1.195334363728761673e-02 -1.172458473592996597e-02 2.861841209232807159e-02 -4.979106411337852478e-02 -2.402284648269414902e-03 3.216632409021258354e-03 2.684963680803775787e-02 1.743479259312152863e-02 -5.886117927730083466e-03 2.069701440632343292e-02 -8.155123330652713776e-03 -8.170148357748985291e-03 -2.066383510828018188e-02 4.775171983055770397e-04 3.642727062106132507e-02 5.145243555307388306e-02 -1.178835611790418625e-02 1.561021339148283005e-02 -2.499621361494064331e-03 9.848562069237232208e-03 -1.308881770819425583e-02 1.460711844265460968e-02 1.256635598838329315e-02 1.534398086369037628e-02 8.472043089568614960e-03 -1.026382204145193100e-03 -2.439105510711669922e-02 3.730702679604291916e-03 -3.307651728391647339e-02 -1.135959289968013763e-02 1.813494600355625153e-02 -1.118139363825321198e-02 -1.134395413100719452e-02 6.546897813677787781e-03 4.613363370299339294e-02 2.425654046237468719e-02 1.514823827892541885e-02 1.624709367752075195e-02 1.251536048948764801e-02 1.487927976995706558e-02 -8.136852644383907318e-03 4.304660484194755554e-03 -1.079075387679040432e-03 2.642879821360111237e-02 7.475059945136308670e-03 -2.591162361204624176e-02 4.574913065880537033e-03 1.386086083948612213e-02 4.772493615746498108e-03 -1.047276891767978668e-02 -2.374288812279701233e-02 6.547873839735984802e-03 3.298130817711353302e-03 -1.223070546984672546e-02 2.638205885887145996e-03 -2.151953987777233124e-03 8.533530053682625294e-04 1.786292903125286102e-02 3.050290979444980621e-03 2.640087530016899109e-02 -2.201478555798530579e-02 -6.025623879395425320e-04 1.880514807999134064e-02 1.197751890867948532e-02 1.117841340601444244e-02 -3.083108225837349892e-03 1.634929701685905457e-02 1.783602684736251831e-02 -4.458109033294022083e-04 1.389194838702678680e-02 2.566182427108287811e-02 -1.574768102727830410e-03 2.487990260124206543e-02 1.144868601113557816e-02 -1.698735542595386505e-02 -1.184098888188600540e-02 -1.348349079489707947e-02 8.709777146577835083e-03 7.832567207515239716e-03 1.030549686402082443e-02 -1.304176542907953262e-02 7.326726336032152176e-03 -2.054748125374317169e-02 -1.959717087447643280e-02 6.715865340083837509e-03 9.957821108400821686e-03 4.504734650254249573e-03 -6.769546773284673691e-03 -5.380216520279645920e-03 -3.128592856228351593e-03 3.246669424697756767e-03 -3.143217647448182106e-03 -1.830431446433067322e-02 -2.470766380429267883e-02 1.217994652688503265e-02 -1.505195163190364838e-02 -7.182348053902387619e-03 -3.476402256637811661e-03 -2.898646052926778793e-03 1.107561867684125900e-03 8.036308921873569489e-03 1.585588790476322174e-02 1.758383214473724365e-02 1.783041097223758698e-02 1.988331973552703857e-02 5.647855345159769058e-03 1.797682046890258789e-02 -1.844829320907592773e-02 1.135848462581634521e-02 -8.426753804087638855e-03 1.758263632655143738e-02 5.487027578055858612e-03 -5.391971673816442490e-03 -3.613486140966415405e-02 -1.229712180793285370e-02 7.856744341552257538e-03 -1.107268966734409332e-02 1.546109933406114578e-02 1.027237903326749802e-02 5.107501987367868423e-03 -1.621179096400737762e-02
-8.405743166804313660e-03 1.724890619516372681e-02 3.721179813146591187e-02 1.296983286738395691e-02 3.252806514501571655e-02 2.449961006641387939e-02 -1.131536345928907394e-02 2.403936721384525299e-02 2.726425975561141968e-02 -2.993487380445003510e-02 -1.916206069290637970e-02 -8.560610003769397736e-04 -5.261635407805442810e-02 1.075673196464776993e-02 1.713526202365756035e-03 -2.570905722677707672e-03 -2.122149802744388580e-03 2.125179953873157501e-02 3.280358389019966125e-02 7.053959183394908905e-03 -8.773566782474517822e-02 -1.105542760342359543e-03 8.479348383843898773e-03 8.935051970183849335e-03 -1.216179039329290390e-02 6.088482681661844254e-03 1.319608371704816818e-02 -2.936047967523336411e-03 7.114806678146123886e-03 1.794447307474911213e-03 -8.263696916401386261e-03 -1.465295348316431046e-02 -3.103499114513397217e-02 6.608294323086738586e-03 1.221492141485214233e-02 1.528526539914309978e-03 1.046136766672134399e-02 -1.366941165179014206e-02 -1.875594817101955414e-02 -2.013729698956012726e-02 2.367574907839298248e-02 3.454456850886344910e-02 3.994486108422279358e-02 1.245428156107664108e-02 4.128650203347206116e-02 2.412037923932075500e-03 1.390442810952663422e-02 -7.334639783948659897e-03 -6.104352325201034546e-02 -1.602148264646530151e-02 9.950269013643264771e-03 -3.696596715599298477e-03 4.751699045300483704e-03 -2.816780004650354385e-03 -6.754586845636367798e-02 2.127748914062976837e-02 -8.146532811224460602e-03 1.247061416506767273e-03 4.651102703064680099e-03 -1.741206273436546326e-02 -1.753969676792621613e-02 1.425588317215442657e-02 -1.215418428182601929e-02 5.417837761342525482e-03 2.198523283004760742e-02 -4.168172553181648254e-02 -8.289755322039127350e-03 2.464461326599121094e-02 -3.029146604239940643e-02 -1.386534981429576874e-02 -5.844526737928390503e-02 3.454891592264175415e-02 2.658252976834774017e-02 -4.060152918100357056e-02 8.586741052567958832e-03 2.147006802260875702e-03 -5.305171012878417969e-02 -2.831793203949928284e-02 -5.561954528093338013e-02 -2.780579775571823120e-02 -6.993649899959564209e-02 6.431621033698320389e-03 1.077895751222968102e-03 3.077552188187837601e-03 2.718506194651126862e-02 4.209723323583602905e-02 2.153020352125167847e-02 7.087973644956946373e-04 -1.872580125927925110e-02 -7.418647408485412598e-03 -1.836359733715653419e-03 4.370950045995414257e-04 1.784464158117771149e-02 2.324407175183296204e-02 2.232808433473110199e-02 3.213283792138099670e-02 -2.667668648064136505e-02 3.322254633530974388e-05 1.497838646173477173e-02 -3.274891152977943420e-02 7.381778676062822342e-03 3.032415546476840973e-02 3.486490249633789062e-02 2.729328908026218414e-02 3.661639988422393799e-02 2.927201800048351288e-02 2.584415674209594727e-02 -1.468229480087757111e-02 7.568166125565767288e-03 2.156612463295459747e-02 -1.041092351078987122e-01 -1.486765977460891008e-04 9.959032759070396423e-03 -3.146392852067947388e-02 -1.803145743906497955e-02 2.165733836591243744e-02 1.619516313076019287e-02 -1.051757950335741043e-02 1.878366433084011078e-02 -5.678404122591018677e-02 2.022406458854675293e-02 2.406753227114677429e-02 2.126515284180641174e-02 -2.451783977448940277e-02 1.501942053437232971e-02 -6.366361863911151886e-03 1.150690298527479172e-02 8.134176023304462433e-03 1.388940121978521347e-02 -1.957852393388748169e-02 2.560005709528923035e-02 1.647406630218029022e-02 1.908832415938377380e-02 1.550596114248037338e-02 3.062726557254791260e-02 -6.069774273782968521e-03 -6.407363340258598328e-03 -9.234102442860603333e-03 3.511104267090559006e-03 -4.480206966400146484e-02 1.449933834373950958e-02 -6.722709164023399353e-03 -2.525349613279104233e-03 -4.744612053036689758e-02 -4.373225942254066467e-02 8.155290037393569946e-03 4.519918933510780334e-03 -1.624819822609424591e-02 2.712240442633628845e-02 1.717699319124221802e-02 1.047254540026187897e-02 -1.822828315198421478e-03 -1.121897529810667038e-02 2.394339814782142639e-02 -1.396943069994449615e-02 -3.252196311950683594e-02 -6.527152378112077713e-03 -5.304744001477956772e-03 -7.833800278604030609e-03 -6.137706805020570755e-03 9.008712950162589550e-04 -1.628435216844081879e-02 1.685249246656894684e-02 -1.620637066662311554e-02 -4.432383179664611816e-02 1.959675922989845276e-02 2.174723148345947266e-02 5.708517972379922867e-03 1.408473961055278778e-02 -2.040117280557751656e-03 1.697316206991672516e-02 -6.702623516321182251e-02 2.603403106331825256e-02 -3.138007596135139465e-02 -1.394381187856197357e-02 2.753976359963417053e-02 -7.396474946290254593e-03 2.167358621954917908e-02 2.553978003561496735e-02 -2.103681908920407295e-03 1.841258257627487183e-02 -1.633019559085369110e-02 3.623997559770941734e-03 8.653772994875907898e-03 -7.452737772837281227e-04 8.569922298192977905e-03 2.597936056554317474e-02 -3.399733453989028931e-02 -5.895731039345264435e-03 -2.652394399046897888e-02 -1.916333660483360291e-02 3.333678096532821655e-02 -2.842282690107822418e-02 2.757981047034263611e-02 -8.817828260362148285e-03 -8.538771420717239380e-03 1.193582732230424881e-02 1.084237173199653625e-02 -4.184431955218315125e-02 1.142913848161697388e-02 2.251047268509864807e-02 2.512746676802635193e-02 -3.392283618450164795e-02 2.541168965399265289e-02 -5.780741572380065918e-03 1.116126193664968014e-03 4.267434589564800262e-03 -5.912354961037635803e-02 2.632041694596409798e-03 9.664346463978290558e-03 -4.272559657692909241e-02 1.077679824084043503e-02 3.567962674424052238e-03 6.770635023713111877e-03 1.209178939461708069e-02 -1.175805693492293358e-03 -2.648079209029674530e-02 -4.874112829566001892e-02 -8.119134232401847839e-03 9.846501983702182770e-03 -3.541719540953636169e-02 1.051233429461717606e-02 2.238646335899829865e-02 8.017931249924004078e-04 2.217314578592777252e-02 9.449861012399196625e-03 -6.468053907155990601e-03 1.039795484393835068e-02 1.424989290535449982e-02 2.266290597617626190e-02 -1.461594738066196442e-02 -4.656766541302204132e-03 -3.992799669504165649e-02 6.265729665756225586e-03 -3.533631563186645508e-02 4.885613918304443359e-02 -3.900175169110298157e-02 5.463699344545602798e-03 -2.888781391084194183e-02 -6.766512244939804077e-02 -8.208370953798294067e-02 3.214100841432809830e-03 -4.984107613563537598e-02 1.166970562189817429e-02 -5.860555451363325119e-03 -7.779894769191741943e-02 1.042721886187791824e-02 -2.124412421835586429e-04 1.916077919304370880e-02 1.278140582144260406e-02 4.698139615356922150e-03 5.568251945078372955e-03 2.708106767386198044e-03 1.392965670675039291e-02 3.598907217383384705e-02 3.063211217522621155e-02
3.376816166564822197e-03 -5.493536219000816345e-02 -2.404248807579278946e-03 9.479943662881851196e-03 5.649859667755663395e-04 2.475222013890743256e-02 8.534679189324378967e-03 7.042943616397678852e-04 2.472238801419734955e-02 8.016827516257762909e-03 -2.376253018155694008e-03 1.059299684129655361e-03 -1.529308408498764038e-02 9.519294835627079010e-03 -1.847046986222267151e-02 6.975608412176370621e-03 2.309513045474886894e-03 -6.462864112108945847e-03 1.055360492318868637e-02 6.447065621614456177e-03 -1.124121993780136108e-02 1.403420697897672653e-03 -2.835534978657960892e-03 -3.554609045386314392e-02 -5.103823263198137283e-03 -1.238745357841253281e-02 2.420712262392044067e-02 -2.500042878091335297e-02 7.557400967925786972e-04 -1.289733033627271652e-02 5.651668470818549395e-05 1.467707194387912750e-02 -7.489110808819532394e-03 4.844826646149158478e-03 2.398546412587165833e-02 -9.308491833508014679e-03 -2.152436599135398865e-02 2.361770952120423317e-03 7.630762178450822830e-03 -3.734185546636581421e-02 -1.149033103138208389e-02 2.957698330283164978e-02 -1.758026331663131714e-02 -1.097385864704847336e-02 8.913986384868621826e-03 -1.341131515800952911e-02 -2.738676592707633972e-02 8.159948512911796570e-03 -2.005484886467456818e-03 1.635323651134967804e-02 3.787462599575519562e-03 1.633759588003158569e-02 1.808263594284653664e-03 9.818397462368011475e-03 -1.568037644028663635e-02 -7.630501640960574150e-04 7.358950562775135040e-03 9.159881621599197388e-03 4.781441530212759972e-04 2.172290533781051636e-02 1.908752694725990295e-02 -6.090237875469028950e-04 -8.359564235433936119e-04 3.376342356204986572e-02 -2.335861325263977051e-03 1.215005945414304733e-02 -1.965004019439220428e-02 3.341494873166084290e-02 -5.367505829781293869e-03 1.027433574199676514e-02 -1.178260706365108490e-02 -2.368294447660446167e-02 2.318564988672733307e-02 -1.850302331149578094e-02 2.639475278556346893e-02 7.293855014722794294e-05 -3.477549180388450623e-02 -1.077250670641660690e-02 -2.796449232846498489e-03 1.618419308215379715e-03 -8.271694183349609375e-03 -4.445738624781370163e-03 8.100193925201892853e-03 -4.813370760530233383e-03 -5.748255178332328796e-03 -9.491370059549808502e-03 -5.629921332001686096e-02 -5.679942667484283447e-03 1.673650182783603668e-02 8.655450306832790375e-03 -5.997315165586769581e-04 -2.527201175689697266e-02 2.112390706315636635e-03 1.566040795296430588e-03 -2.820355631411075592e-02 1.691518584266304970e-03 -5.601629614830017090e-03 1.963751623407006264e-03 -8.335840888321399689e-03 -2.569184266030788422e-02 -3.823760896921157837e-02 1.234518131241202354e-03 2.498465217649936676e-02 -2.877968922257423401e-02 7.769099320285022259e-04 1.348836626857519150e-02 2.329599484801292419e-02 -1.454436033964157104e-02 -2.642943710088729858e-02 -7.905444130301475525e-03 8.766355924308300018e-03 -9.714521584101021290e-04 2.499961666762828827e-02 1.858129166066646576e-02 2.646698849275708199e-03 -2.072710171341896057e-02 -1.536175422370433807e-02 -3.249697037972509861e-04 -3.309824038296937943e-03 -6.405025720596313477e-03 -1.266869716346263885e-02 2.051400206983089447e-02 -2.076389826834201813e-02 -3.168451134115457535e-03 -8.098537800833582878e-04 8.738217875361442566e-03 -1.377967745065689087e-02 -1.521498337388038635e-02 2.550136670470237732e-02 1.613423577509820461e-03 2.498323656618595123e-02 4.348170477896928787e-03 -2.851380035281181335e-03 -1.248274371027946472e-02 -2.183097414672374725e-02 1.149041485041379929e-02 -1.286846771836280823e-02 2.419026335701346397e-03 8.984670974314212799e-03 1.169664785265922546e-02 2.215903997421264648e-02 -4.652144387364387512e-02 1.936111785471439362e-02 -3.618714213371276855e-02 1.221451628953218460e-02 2.735965186730027199e-03 -4.021404311060905457e-03 -3.515308722853660583e-03 2.483382448554039001e-02 1.657713949680328369e-02 -2.074425481259822845e-02 -1.457997015677392483e-03 2.113051479682326317e-03 2.153312321752309799e-03 -1.393060944974422455e-02 9.860448539257049561e-03 -4.064888507127761841e-02 1.417661365121603012e-02 2.123716659843921661e-02 1.940943859517574310e-02 2.344645373523235321e-02 -3.084114193916320801e-02 -3.394250199198722839e-02 -2.792585641145706177e-03 1.032180152833461761e-03 -1.846847939305007458e-03 9.516634978353977203e-03 1.868583448231220245e-02 6.591442972421646118e-03 1.387289445847272873e-02 3.539656847715377808e-02 -7.293657399713993073e-04 -2.253037411719560623e-03 1.809521950781345367e-02 1.198036409914493561e-02 -2.518422901630401611e-02 -3.304444486275315285e-03 -5.425458773970603943e-03 -6.350902374833822250e-03 -2.072493731975555420e-02 3.387676784768700600e-03 1.977178500965237617e-03 -4.955637454986572266e-02 -1.200489932671189308e-03 -5.717127583920955658e-03 2.388540096580982208e-02 -2.841753512620925903e-02 -2.299064770340919495e-03 1.544127520173788071e-02 2.146037761121988297e-03 -6.893296260386705399e-03 9.376341477036476135e-03 1.777177909389138222e-03 2.336452901363372803e-02 -3.081899881362915039e-02 -1.224328391253948212e-02 2.382311038672924042e-03 -2.688673697412014008e-02 1.558937877416610718e-02 1.545236073434352875e-02 1.693273708224296570e-02 1.379907247610390186e-03 1.380681712180376053e-02 2.228832105174660683e-03 7.168486248701810837e-03 -1.055482216179370880e-02 9.779017418622970581e-03 -2.205381169915199280e-02 -6.960767786949872971e-03 8.236413821578025818e-03 -2.713981829583644867e-02 6.877874489873647690e-03 -1.573877595365047455e-02 -2.011625561863183975e-03 -1.281006168574094772e-02 3.237606957554817200e-02 -2.637394890189170837e-02 -3.560337424278259277e-02 6.919296458363533020e-03 -2.321922592818737030e-02 -1.355330343358218670e-03 5.390596925280988216e-04 -2.444699406623840332e-03 -3.344388678669929504e-03 2.810209756717085838e-03 -4.027873650193214417e-02 -1.847156696021556854e-02 1.893802778795361519e-03 -3.403515368700027466e-02 -4.293671622872352600e-02 7.341628428548574448e-03 -1.840662397444248199e-02 -2.926144190132617950e-02 -2.706052269786596298e-03 -5.920837167650461197e-03 7.155532948672771454e-04 -1.540567493066191673e-03 -6.618029437959194183e-03 9.992867708206176758e-03 -8.668350987136363983e-03 1.660148380324244499e-03 -4.099521413445472717e-02 -1.844523102045059204e-02 -5.114589817821979523e-03 1.317859045229852200e-03 2.368178917095065117e-03 -1.819773204624652863e-02 -8.949024602770805359e-03 -7.294265553355216980e-03 1.957384683191776276e-02 -1.535000279545783997e-02 -9.200687520205974579e-03 -1.502931676805019379e-02 -4.745755810290575027e-03 -1.377062220126390457e-02 1.044763531535863876e-02
-5.548418848775327206e-04 4.111157904844731092e-04 -2.910376351792365313e-04 -3.345558361615985632e-04 -6.779597242712043226e-06 -2.581558073870837688e-04 -9.876086842268705368e-04 -6.316703511402010918e-04 -2.496977685950696468e-04 -4.197438538540154696e-04 -8.008132135728374124e-05 -1.253827940672636032e-03 -2.591575321275740862e-04 4.448134859558194876e-04 -1.144058536738157272e-03 4.734170215670019388e-04 -8.845624397508800030e-04 -1.273329951800405979e-03 -3.709999728016555309e-04 -8.333590230904519558e-04 -6.880724104121327400e-04 -5.936123779974877834e-04 -2.037461817963048816e-04 -8.358910417882725596e-05 -5.394199397414922714e-04 -8.861559035722166300e-05 -6.012634839862585068e-04 -1.704833703115582466e-03 1.685321622062474489e-04 -4.539682995527982712e-04 5.404203548096120358e-04 7.335660629905760288e-04 1.126312417909502983e-04 -5.820434889756143093e-04 -6.675294716842472553e-04 -1.649298064876347780e-04 -3.148608084302395582e-04 -1.042074523866176605e-03 -4.738572533824481070e-05 -8.199033909477293491e-04 -1.613636850379407406e-04 -4.740892909467220306e-04 -2.992833324242383242e-04 -1.323956879787147045e-03 -4.868641262874007225e-04 -9.060264565050601959e-04 6.240826332941651344e-04 -4.506941477302461863e-04 -7.916238391771912575e-04 -1.387081923894584179e-03 -7.613641791976988316e-04 4.611653566826134920e-04 -2.175360423279926181e-04 5.002172547392547131e-04 1.636865490581840277e-04 -5.051155458204448223e-04 1.952043821802362800e-04 -9.053007815964519978e-04 2.740386698860675097e-04 -5.222758045420050621e-04 -1.560810254886746407e-03 3.696934727486222982e-04 -8.042979752644896507e-04 -3.783058782573789358e-04 2.984894672408699989e-04 5.417913780547678471e-04 -1.924216048792004585e-03 -4.571294703055173159e-04 -9.085527854040265083e-04 -1.813169219531118870e-03 6.439159187721088529e-05 -3.290294262114912271e-04 -2.280738845001906157e-04 -2.116118557751178741e-03 -6.600308115594089031e-04 -1.103001995943486691e-03 -4.831104597542434931e-04 -1.002111122943460941e-03 5.015188362449407578e-04 -5.334225133992731571e-04 1.349051744909957051e-04 -1.031460356898605824e-03 -4.940158687531948090e-04 4.363010884844698012e-05 -3.882602322846651077e-05 -9.004466119222342968e-04 -1.563798519782721996e-03 3.053228138014674187e-04 1.124863265431486070e-04 2.507651879568584263e-05 -4.511143197305500507e-04 -1.779332087608054280e-04 3.368206962477415800e-04 -9.689528960734605789e-04 1.558834628667682409e-05 3.875470720231533051e-04 -1.145475078374147415e-03 -8.673533011460676789e-05 1.639760594116523862e-04 1.544004888273775578e-03 -1.139262691140174866e-03 4.352685937192291021e-04 -7.695942767895758152e-04 -1.455021119909361005e-04 -6.561018526554107666e-04 1.224188134074211121e-03 -1.198847603518515825e-04 -1.688668620772659779e-03 -1.515691750682890415e-03 -5.284198559820652008e-04 -8.983638836070895195e-04 4.639200342353433371e-04 7.165995339164510369e-05 -7.576234638690948486e-04 -1.061071641743183136e-03 8.888122974894940853e-04 -4.122558675589971244e-05 -2.788395795505493879e-04 -6.046442431397736073e-04 -1.320232870057225227e-03 2.579273714218288660e-04 1.205363543704152107e-03 -1.702996087260544300e-04 -3.836129617411643267e-04 -1.360425841994583607e-03 2.971514477394521236e-04 7.629258325323462486e-04 5.737257888540625572e-04 -4.100644146092236042e-04 -1.316761481575667858e-03 2.148505300283432007e-04 -8.312282152473926544e-04 6.841449649073183537e-04 1.675289240665733814e-04 -9.558500023558735847e-04 -3.354471118655055761e-04 -1.154865603893995285e-03 1.908214908326044679e-04 -9.369844337925314903e-05 3.264370025135576725e-05 1.259267010027542710e-04 7.747516065137460828e-05 -2.007730799959972501e-04 1.579359959578141570e-04 -7.490608841180801392e-04 -1.119211432524025440e-03 -1.321308081969618797e-03 1.026114623527973890e-04 -9.084588964469730854e-05 9.273597970604896545e-04 -6.429167697206139565e-04 -5.627680220641195774e-04 -3.076286811847239733e-04 -4.083053790964186192e-04 -3.144774818792939186e-04 -2.585102047305554152e-04 -1.239983714185655117e-03 -6.714886985719203949e-04 -4.429927503224462271e-04 7.262996514327824116e-04 -1.094105071388185024e-03 3.038983959413599223e-05 -4.043082299176603556e-04 -6.154113361844792962e-05 -3.396148385945707560e-04 -8.270696853287518024e-04 5.017861258238554001e-05 -4.444746882654726505e-04 -8.646002970635890961e-05 -1.670558936893939972e-03 -1.781261526048183441e-03 6.718327058479189873e-04 -7.112860330380499363e-04 8.254207205027341843e-05 -6.838216795586049557e-04 7.720862631686031818e-04 -9.801393607631325722e-04 1.015098023344762623e-04 1.264352467842400074e-04 -7.675015949644148350e-04 -1.451925956644117832e-03 -2.641504688654094934e-04 -1.906566467368975282e-04 3.084412601310759783e-04 -1.212940318509936333e-03 7.139190565794706345e-04 -1.747938687913119793e-03 -7.873628055676817894e-04 -2.583283057902008295e-04 1.673404476605355740e-04 -1.814131624996662140e-03 2.190033119404688478e-04 -4.155556671321392059e-04 4.689091292675584555e-04 -5.339948111213743687e-04 2.876703802030533552e-04 -1.065963646396994591e-03 -1.687122159637510777e-03 -1.322977826930582523e-03 1.282660377910360694e-04 5.491201882250607014e-04 -1.174009055830538273e-03 -5.174283869564533234e-04 -1.331735053099691868e-03 9.869381319731473923e-04 4.349355585873126984e-04 -1.143146189860999584e-03 -1.169686089269816875e-03 -1.274534501135349274e-03 -9.750844328664243221e-04 -2.757498295977711678e-04 -2.901791012845933437e-04 -5.372371524572372437e-04 -2.173646498704329133e-04 2.292113094881642610e-05 -2.281939086969941854e-04 -3.909809165634214878e-04 3.032846143469214439e-04 9.963526099454611540e-05 -3.746603615581989288e-04 -1.101692789234220982e-03 1.059499103575944901e-03 -1.249878900125622749e-03 6.320059765130281448e-04 5.784696550108492374e-04 -1.614940934814512730e-03 -7.891511777415871620e-04 -1.397197047481313348e-05 -1.755487872287631035e-03 -6.925600464455783367e-04 -6.943830521777272224e-04 -1.598095404915511608e-04 -8.841989911161363125e-04 -8.677034202264621854e-05 -9.394274093210697174e-04 -1.353736151941120625e-04 -6.256216147448867559e-05 3.228356654290109873e-04 -6.951332907192409039e-04 5.801141378469765186e-04 -1.097844331525266171e-03 -1.413831923855468631e-04 -2.056334167718887329e-03 7.819054299034178257e-04 -1.224913285113871098e-03 -1.261390163563191891e-03 2.599165018182247877e-04 7.767390343360602856e-04 1.276471157325431705e-04 -3.183703520335257053e-04 -3.131116100121289492e-04 7.899961201474070549e-04 -5.055145011283457279e-04 -3.109338285867124796e-04 -6.189888226799666882e-04 -3.860464203171432018e-04
-3.428705036640167236e-03 -3.573040012270212173e-03 -5.777459125965833664e-03 1.201983261853456497e-02 2.433100715279579163e-02 5.784737411886453629e-03 -1.379603426903486252e-02 9.765074588358402252e-03 1.015800982713699341e-02 -1.689204014837741852e-02 -8.234146982431411743e-02 -5.475112702697515488e-03 -5.648213438689708710e-03 6.376320379786193371e-04 1.856798864901065826e-02 1.059035025537014008e-02 -4.023143090307712555e-03 4.600749816745519638e-03 1.044935081154108047e-02 6.310632452368736267e-03 -2.544291317462921143e-02 -1.001493539661169052e-02 2.421504817903041840e-02 2.083938755095005035e-02 -1.154236961156129837e-02 -2.243091585114598274e-03 4.881062544882297516e-03 1.028381474316120148e-02 9.505785070359706879e-03 -5.109732039272785187e-03 -8.370242081582546234e-03 -8.785320445895195007e-03 -9.350280277431011200e-03 3.541638702154159546e-02 3.285031765699386597e-03 -4.876875318586826324e-03 -1.512963231652975082e-02 6.659934297204017639e-03 -3.550377907231450081e-03 7.723222486674785614e-03 9.664121083915233612e-03 -1.479659508913755417e-02 2.129179984331130981e-02 1.354638516204431653e-04 -2.115087024867534637e-02 -2.983275800943374634e-03 -5.716147366911172867e-03 -3.161599161103367805e-03 -4.021266475319862366e-02 -2.915273362305015326e-04 1.024998375214636326e-03 -1.766918785870075226e-02 8.027523756027221680e-03 5.921818781644105911e-03 -2.285998687148094177e-02 1.085746567696332932e-02 3.270890191197395325e-02 2.007185667753219604e-02 -1.574493944644927979e-02 -8.609165437519550323e-03 -2.050992287695407867e-02 8.396981284022331238e-03 8.157070726156234741e-03 2.206969819962978363e-02 3.397360211238265038e-03 -3.239239333197474480e-03 -1.222602650523185730e-02 1.537918485701084137e-02 1.954086765181273222e-04 6.477531511336565018e-03 -6.408228073269128799e-03 1.159876119345426559e-03 5.289592780172824860e-03 1.770791481249034405e-03 -1.272162422537803650e-02 -2.522596623748540878e-03 6.022673100233078003e-03 -1.559837255626916885e-02 6.655863020569086075e-03 -2.743144333362579346e-02 -1.662070862948894501e-02 6.497545633465051651e-03 1.760346814990043640e-02 1.649062335491180420e-02 2.112952759489417076e-03 -2.259186282753944397e-02 -1.525469683110713959e-02 -5.279038567095994949e-03 3.990727011114358902e-03 8.334857411682605743e-03 3.544376697391271591e-03 2.715273201465606689e-02 5.812089890241622925e-03 3.861869219690561295e-03 -3.002886427566409111e-03 -6.486137863248586655e-03 1.603549160063266754e-02 -8.243416086770594120e-04 2.104095881804823875e-03 2.420630538836121559e-03 -2.061891183257102966e-02 -6.647237110882997513e-03 3.362552030012011528e-03 1.774447783827781677e-02 3.190376982092857361e-02 1.855290174717083573e-04 5.923055112361907959e-03 7.304954342544078827e-03 9.001163765788078308e-03 1.337635889649391174e-02 9.228391572833061218e-03 2.683327533304691315e-02 -5.374715663492679596e-03 2.040062658488750458e-02 -7.801563944667577744e-03 -3.233985975384712219e-02 -6.691253744065761566e-03 9.870263747870922089e-03 2.324031665921211243e-03 -4.841086640954017639e-02 3.726112656295299530e-03 1.604342833161354065e-02 3.808414936065673828e-02 1.608075108379125595e-03 4.488378763198852539e-03 5.128853954374790192e-03 4.591438453644514084e-03 -2.392073720693588257e-02 3.076900029554963112e-03 -5.754427518695592880e-03 2.285861643031239510e-03 -3.047679550945758820e-02 6.260753143578767776e-03 -1.695905695669353008e-03 9.106508456170558929e-03 -1.270437962375581264e-03 1.093703904189169407e-03 1.855480298399925232e-02 9.163158945739269257e-03 1.056981552392244339e-02 -3.285980224609375000e-02 -1.096064411103725433e-02 -1.466182293370366096e-04 3.961889073252677917e-03 1.541301840916275978e-03 1.589147374033927917e-02 1.912925764918327332e-02 1.198067446239292622e-03 1.767023466527462006e-03 2.170348912477493286e-02 -1.237635593861341476e-02 -3.000741638243198395e-02 1.780942454934120178e-02 5.383916664868593216e-03 4.115623421967029572e-03 1.622343808412551880e-02 -1.034447457641363144e-03 -3.053509164601564407e-03 -1.401907112449407578e-02 2.212851494550704956e-02 -5.941333249211311340e-03 2.075395174324512482e-02 4.348017275333404541e-03 -2.032127697020769119e-03 -2.734094625338912010e-03 -4.673881456255912781e-03 -5.064271762967109680e-02 1.254008151590824127e-02 3.462877357378602028e-03 -4.579507280141115189e-03 -1.232004351913928986e-02 -8.358490304090082645e-04 1.093641272746026516e-03 1.454734336584806442e-02 3.755071433261036873e-03 1.077930163592100143e-02 1.705217524431645870e-03 5.467084236443042755e-03 8.543720468878746033e-03 2.840139204636216164e-03 -2.911192737519741058e-02 5.561831872910261154e-03 3.145605791360139847e-03 5.361548159271478653e-03 1.409675646573305130e-02 1.333571970462799072e-02 7.243419066071510315e-03 -1.071494165807962418e-02 -3.834358882158994675e-03 -4.285433795303106308e-03 2.345133945345878601e-02 -3.175776451826095581e-03 -7.371344603598117828e-03 1.082202885299921036e-03 1.000426430255174637e-02 2.304084040224552155e-02 1.456058491021394730e-02 -1.459455210715532303e-02 -1.056281197816133499e-02 1.524506509304046631e-02 1.068233791738748550e-02 1.529460214078426361e-02 -6.283298600465059280e-03 2.520368993282318115e-02 7.846013759262859821e-04 -2.901470055803656578e-03 1.387768331915140152e-02 -9.713572449982166290e-03 1.088132523000240326e-02 9.736560285091400146e-03 -2.138134092092514038e-02 -1.176711823791265488e-02 2.877916907891631126e-03 3.037200681865215302e-02 -8.270850405097007751e-03 5.721902940422296524e-03 -2.276581153273582458e-02 6.510168313980102539e-03 2.801897935569286346e-03 1.468200609087944031e-02 -5.862753093242645264e-02 4.925804212689399719e-03 8.980996906757354736e-03 -8.656730642542243004e-04 1.454509049654006958e-02 3.303838521242141724e-02 -1.526692695915699005e-02 3.686571726575493813e-03 1.442289561964571476e-03 -1.341526769101619720e-02 3.812107024714350700e-04 -1.494778989581391215e-04 3.762429347261786461e-03 -7.260912680067121983e-04 -1.274968381039798260e-03 -2.711003459990024567e-02 -1.591894030570983887e-02 -3.515227697789669037e-03 -9.635549969971179962e-03 -1.480137347243726254e-03 -7.519519422203302383e-03 -2.926545683294534683e-03 -2.048218622803688049e-02 1.860588206909596920e-03 5.245937034487724304e-03 -2.868961542844772339e-02 -1.432783028576523066e-04 -5.547106266021728516e-04 -1.081295218318700790e-02 2.896900102496147156e-02 1.001006364822387695e-02 3.023358248174190521e-02 -1.769146881997585297e-02 4.928843583911657333e-03 -1.422038022428750992e-02 8.654939010739326477e-03
-7.740409346297383308e-04 -9.870236972346901894e-04 -1.550099113956093788e-05 -7.292167865671217442e-04 2.807300479616969824e-04 -1.185817411169409752e-03 1.088262535631656647e-03 -4.637401725631207228e-04 -1.956587511813268065e-04 -2.397262724116444588e-04 -4.972938331775367260e-04 3.879040013998746872e-04 -1.074491068720817566e-03 -4.794683482032269239e-04 -1.752094831317663193e-03 -1.769158116076141596e-04 2.301148633705452085e-04 -3.275073249824345112e-04 -6.168378749862313271e-04 6.619443593081086874e-05 -8.547918405383825302e-04 -4.205594887025654316e-04 -4.740045696962624788e-04 -6.883600726723670959e-04 -8.720539044588804245e-04 5.067990277893841267e-04 -1.322475378401577473e-03 -1.341920346021652222e-03 9.527639485895633698e-05 -6.470655789598822594e-04 -9.024926112033426762e-04 -3.129825927317142487e-04 -3.779592516366392374e-04 -1.187143730930984020e-03 -4.631715710274875164e-04 -5.162079105502925813e-05 2.266812225570902228e-04 -4.566276911646127701e-04 -9.175022714771330357e-04 5.591141525655984879e-04 -5.473797500599175692e-05 8.029210148379206657e-04 -1.057768473401665688e-03 -4.788174992427229881e-04 4.727450868813320994e-05 -9.321255492977797985e-04 1.546975836390629411e-04 2.329445705981925130e-04 -9.213779121637344360e-04 1.384419505484402180e-03 -9.308676089858636260e-05 -3.018793067894876003e-04 3.437637933529913425e-04 8.621344022685661912e-05 -5.709771648980677128e-04 6.163836806081235409e-04 -9.095381828956305981e-04 -5.393238971009850502e-04 -5.825959960930049419e-04 -1.209116075187921524e-03 4.175011126790195704e-04 -1.216416363604366779e-03 -6.008307100273668766e-04 4.956644843332469463e-04 -2.468237107677850872e-05 6.717982469126582146e-04 -5.812231684103608131e-04 8.991104550659656525e-05 6.027094204910099506e-04 -5.164837348274886608e-04 -1.302741584368050098e-04 -1.119979540817439556e-03 -1.331106410361826420e-03 -1.269323751330375671e-03 5.059933755546808243e-04 -1.982141657208558172e-05 -5.548925037146545947e-05 -2.312866126885637641e-04 -4.055926401633769274e-04 -1.346298959106206894e-03 -7.154347840696573257e-04 -1.409805612638592720e-03 3.347192541696131229e-04 -8.655111305415630341e-04 -5.587400519289076328e-04 -3.657868001027964056e-05 4.982284735888242722e-04 -1.079838490113615990e-03 -4.786651115864515305e-04 -2.916656958404928446e-04 -9.287451975978910923e-04 1.303955650655552745e-04 -7.624151185154914856e-04 8.476682705804705620e-05 5.389683065004646778e-04 -8.557939436286687851e-04 -7.181870169006288052e-04 1.772681571310386062e-04 -1.472395611926913261e-03 -1.101957168430089951e-03 -5.790514405816793442e-04 -3.081281029153615236e-04 -2.549072451074607670e-05 3.612478030845522881e-04 -1.430870033800601959e-04 -4.239643458276987076e-04 -1.231122529134154320e-03 -2.568048366811126471e-04 -1.506611355580389500e-03 -1.080160960555076599e-03 -8.844375843182206154e-04 4.496978945098817348e-04 -3.040250448975712061e-04 -1.158939325250685215e-03 -9.735024650581181049e-04 7.649168837815523148e-04 3.298307274235412478e-05 -1.656317384913563728e-03 -1.151003380073234439e-04 2.411356254015117884e-04 -1.047569967340677977e-04 1.100893787224777043e-04 -1.331976265646517277e-03 -7.938596536405384541e-04 -3.972697304561734200e-04 8.565119060222059488e-05 -1.223283354192972183e-03 3.436499100644141436e-04 9.248926071450114250e-04 -4.026210517622530460e-04 7.159225642681121826e-04 3.919060691259801388e-04 -2.498126414138823748e-04 9.233219316229224205e-04 -1.109547447413206100e-03 -1.145772170275449753e-03 -1.254098257049918175e-03 8.591333607910200953e-05 7.260515121743083000e-04 -3.330774779897183180e-04 -5.172705277800559998e-04 -2.342139341635629535e-04 5.098586188978515565e-05 -2.369136927882209420e-04 2.094969204335939139e-05 -2.079682162730023265e-04 2.636270073708146811e-04 -1.134770689532160759e-03 2.333913143957033753e-04 -4.385214415378868580e-04 -8.985991589725017548e-04 -5.685053765773773193e-04 -8.092280477285385132e-04 -1.634002663195133209e-03 -4.058662161696702242e-04 4.618681850843131542e-04 1.351736573269590735e-04 -5.326421814970672131e-04 -3.877603739965707064e-04 -1.093118102289736271e-03 -4.926886758767068386e-04 3.861665900330990553e-04 -3.121969348285347223e-04 -4.041822394356131554e-04 -2.967387263197451830e-04 -1.116538187488913536e-04 1.796607102733105421e-04 -1.213049516081809998e-03 -6.861641886644065380e-04 3.326027363073080778e-04 -2.359576174058020115e-04 -5.946831661276519299e-04 -2.550569188315421343e-04 -3.933296538889408112e-04 -2.425634447718039155e-04 3.177082398906350136e-04 -1.347712008282542229e-03 -8.608602220192551613e-04 -3.295459900982677937e-04 -1.338883885182440281e-03 3.305695136077702045e-04 -1.122110872529447079e-03 -4.976691561751067638e-04 -5.001057870686054230e-04 -1.459667400922626257e-04 -9.707119897939264774e-04 -5.060732946731150150e-04 -6.955674616619944572e-04 -1.104458351619541645e-03 -8.682276238687336445e-04 -9.644142846809700131e-05 1.415110309608280659e-03 -7.784199551679193974e-04 2.998693380504846573e-04 -7.275489624589681625e-04 3.234350588172674179e-04 -5.171885713934898376e-04 -5.016016657464206219e-04 -9.878408163785934448e-04 -4.309044452384114265e-04 -1.434178848285228014e-04 -1.136472215875983238e-03 -4.505341930780559778e-04 -8.822761592455208302e-04 4.036080499645322561e-04 3.920280141755938530e-04 3.788319590967148542e-04 3.264801634941250086e-04 -1.763830543495714664e-03 1.091718324460089207e-03 -1.676935062278062105e-04 -6.612683064304292202e-04 -1.332664280198514462e-03 -5.840546800754964352e-04 -8.664422784931957722e-04 -7.636726950295269489e-04 -8.093176875263452530e-04 -4.006098315585404634e-04 -1.104575814679265022e-03 -6.149387918412685394e-04 -1.186989364214241505e-03 -3.079103480558842421e-04 -1.622578711248934269e-03 -6.151352426968514919e-04 -1.292691798880696297e-03 1.686428877292200923e-04 1.897411420941352844e-04 1.826902152970433235e-03 -4.808866942767053843e-04 -1.517334720119833946e-03 -1.927999983308836818e-04 -3.798590041697025299e-04 3.281820318079553545e-05 -8.470678003504872322e-04 -1.361731556244194508e-04 -4.013697907794266939e-04 6.927764625288546085e-04 -9.573170682415366173e-04 -1.456122030504047871e-03 6.959007441764697433e-05 -2.065641310764476657e-04 5.106495809741318226e-04 -5.404890398494899273e-04 -1.050449209287762642e-03 5.484483554027974606e-04 -1.305957674048841000e-03 -3.358368703629821539e-04 -1.652040635235607624e-03 -5.163089372217655182e-04 -1.309229119215160608e-04 -7.263965671882033348e-04 -2.186359051847830415e-04 -4.173654888290911913e-04 1.059876405633985996e-03 4.530769947450608015e-04 -7.066102698445320129e-04
-8.327904157340526581e-03 -5.708340555429458618e-03 9.856076911091804504e-03 8.418082259595394135e-03 4.691490903496742249e-04 5.960313137620687485e-03 -1.452239602804183960e-02 5.932189989835023880e-03 7.704734802246093750e-03 -2.706834487617015839e-02 -2.166558615863323212e-02 -1.779968291521072388e-02 -5.809732526540756226e-02 1.498278975486755371e-02 -2.777482382953166962e-03 -8.492213673889636993e-03 1.308456435799598694e-02 1.110688503831624985e-02 -8.272866718471050262e-03 1.215050928294658661e-02 1.044874358922243118e-02 -1.290016155689954758e-02 -2.485022135078907013e-02 2.707506157457828522e-02 -1.285580638796091080e-02 -5.945437122136354446e-03 1.165713649243116379e-02 1.617187284864485264e-03 -1.162371714599430561e-03 -2.142265730071812868e-04 -3.532613441348075867e-02 -2.860632725059986115e-02 -1.501635368913412094e-02 -1.335675735026597977e-02 -6.189331877976655960e-03 7.858032360672950745e-03 -5.269800312817096710e-03 3.457077965140342712e-02 6.931737530976533890e-03 4.113218188285827637e-02 -2.022652328014373779e-02 -3.760324325412511826e-03 5.489899776875972748e-04 1.257157605141401291e-02 3.678987920284271240e-02 9.577591903507709503e-03 5.322157870978116989e-03 9.754261001944541931e-03 -6.627560406923294067e-02 -7.962000556290149689e-03 1.422085147351026535e-02 -2.073687314987182617e-02 5.036572460085153580e-03 -2.190005406737327576e-02 -1.185408979654312134e-02 2.038883045315742493e-02 9.556486271321773529e-03 4.842648282647132874e-03 -1.785518415272235870e-02 8.742852136492729187e-03 1.311755832284688950e-02 7.049682084470987320e-03 -1.026077382266521454e-02 8.098152466118335724e-03 4.938319325447082520e-03 -2.364760823547840118e-02 -4.731538146734237671e-02 -1.980551285669207573e-03 -8.341650478541851044e-03 1.016421895474195480e-02 5.034428089857101440e-02 -2.229138975962996483e-03 3.392231010366231203e-04 7.688971236348152161e-03 -1.706892997026443481e-02 -2.785208448767662048e-02 5.727680400013923645e-02 -1.660792715847492218e-02 -1.060163322836160660e-02 -1.477831229567527771e-02 1.438068575225770473e-03 -1.028007455170154572e-02 -8.905961178243160248e-03 -1.257562357932329178e-02 1.673098653554916382e-02 2.109250612556934357e-02 3.513250965625047684e-03 -3.765430673956871033e-02 -2.169922553002834320e-02 2.242575585842132568e-02 1.142545323818922043e-02 1.018253061920404434e-02 1.213801186531782150e-02 7.296543568372726440e-03 1.797151006758213043e-02 1.771350391209125519e-02 -1.037193182855844498e-02 1.007651723921298981e-02 3.204851970076560974e-02 5.707411095499992371e-02 -2.378822769969701767e-03 3.428421914577484131e-02 1.250746380537748337e-02 -2.859250269830226898e-02 4.233807325363159180e-02 2.497205277904868126e-03 2.982920734211802483e-03 -9.241305524483323097e-04 3.793757641687989235e-03 7.928110659122467041e-03 -3.340456262230873108e-02 -4.379569739103317261e-02 -1.597715541720390320e-02 -1.369454315863549709e-03 -1.134209334850311279e-02 9.575149975717067719e-03 4.941951949149370193e-03 2.163809258490800858e-03 1.097562443464994431e-02 1.677478291094303131e-02 1.144576631486415863e-02 -4.979651886969804764e-03 1.967304199934005737e-02 2.551376633346080780e-02 1.073740702122449875e-02 -2.950622513890266418e-02 9.748832322657108307e-03 -1.434779819101095200e-02 1.237623766064643860e-02 -2.138124033808708191e-02 9.513219818472862244e-03 -6.487983278930187225e-03 2.043221145868301392e-03 7.321712095290422440e-03 1.681462675333023071e-02 9.808277711272239685e-03 3.695258870720863342e-03 2.145428955554962158e-02 -9.699366055428981781e-03 -2.270887343911454082e-04 -2.319704741239547729e-02 -1.954557932913303375e-02 1.759666390717029572e-02 3.845690516754984856e-03 -1.309358142316341400e-02 6.989620160311460495e-03 1.269416511058807373e-02 -1.229942962527275085e-02 1.346335746347904205e-03 1.570618338882923126e-02 -6.573122460395097733e-03 -6.640019267797470093e-02 -7.927669212222099304e-03 8.975121192634105682e-03 -8.142546721501275897e-05 4.961148835718631744e-03 -1.149576716125011444e-02 1.459521520882844925e-02 2.422817196929827332e-04 -5.919972434639930725e-03 -7.901318371295928955e-03 -9.820831473916769028e-04 2.720527350902557373e-03 -2.096633240580558777e-02 1.700007915496826172e-02 1.927371695637702942e-02 -2.277826861245557666e-04 8.562883595004677773e-04 7.856950163841247559e-03 -1.183640118688344955e-02 1.153058186173439026e-02 2.936446294188499451e-02 1.893919520080089569e-02 2.307487651705741882e-03 2.915696240961551666e-03 -1.282588113099336624e-03 5.193871911615133286e-03 6.193936336785554886e-03 9.809031151235103607e-03 2.506134565919637680e-03 -1.414029300212860107e-02 -4.341764841228723526e-03 -3.906196798197925091e-04 4.882975947111845016e-03 2.682113554328680038e-04 4.363791085779666901e-03 -1.526546292006969452e-02 -4.457363858819007874e-02 -2.427306771278381348e-02 -2.277012169361114502e-02 -2.275158278644084930e-02 3.307916922494769096e-03 1.273644808679819107e-02 4.029497504234313965e-03 5.482396809384226799e-04 -3.516088705509901047e-03 1.186578301712870598e-03 -6.277857348322868347e-03 -4.564831964671611786e-03 2.233713166788220406e-03 8.160831202985718846e-05 9.481715969741344452e-03 -6.175498012453317642e-03 -4.001339524984359741e-02 7.799193728715181351e-03 5.589797510765492916e-04 6.428280845284461975e-03 -3.739763423800468445e-02 -7.238471880555152893e-03 -6.301946006715297699e-03 1.024560350924730301e-02 -6.962102837860584259e-03 1.709055341780185699e-02 -4.089049622416496277e-02 -2.499279752373695374e-02 -2.269585989415645599e-02 -3.446793183684349060e-02 -4.474402870982885361e-03 1.572937332093715668e-02 -4.013031348586082458e-02 5.961712915450334549e-03 1.211732067167758942e-02 9.496844373643398285e-03 -6.852247752249240875e-03 4.649110138416290283e-03 2.352292276918888092e-02 -8.079586550593376160e-03 6.527613848447799683e-03 -1.791663584299385548e-03 1.950088073499500751e-03 2.030044607818126678e-02 -4.119644872844219208e-04 5.249478854238986969e-03 -2.835226710885763168e-03 -9.234171593561768532e-04 3.359956294298171997e-02 1.977599784731864929e-02 -1.882038428448140621e-03 -2.297644736245274544e-03 -2.389240451157093048e-02 9.380148723721504211e-03 -9.007667191326618195e-03 3.070854349061846733e-03 1.157416868954896927e-02 -8.729206398129463196e-03 -1.764386892318725586e-03 1.780510647222399712e-04 -6.037028040736913681e-03 9.133010171353816986e-03 -1.001854334026575089e-02 6.650724448263645172e-03 3.426941693760454655e-04 -3.182694315910339355e-02 1.508577726781368256e-02 1.173548866063356400e-02 2.797690965235233307e-02
5.792194278910756111e-04 3.000308061018586159e-05 7.129668374545872211e-04 -1.544416445540264249e-04 -5.049089086242020130e-04 7.385744829662144184e-04 -5.229694070294499397e-04 3.555481962393969297e-04 3.669406287372112274e-04 2.693049027584493160e-04 -1.006633625365793705e-03 -1.307281199842691422e-03 -5.898567033000290394e-04 6.693547475151717663e-04 -5.377517081797122955e-04 -1.741793676046654582e-04 -6.135541480034589767e-04 6.698329234495759010e-04 -8.843838004395365715e-04 -5.243155173957347870e-04 -1.085410709492862225e-03 1.682840775174554437e-05 -7.416125736199319363e-04 -7.303244783543050289e-04 -9.623625664971768856e-04 5.136497202329337597e-04 3.981381814810447395e-05 2.629780210554599762e-04 -9.318798547610640526e-04 -1.009550178423523903e-03 -6.136752781458199024e-04 -2.570430806372314692e-04 -1.593646360561251640e-03 -1.284250174649059772e-03 -7.579305674880743027e-04 -5.386406555771827698e-04 -4.341784224379807711e-04 2.297332830494269729e-04 -1.944153045769780874e-04 -1.925060205394402146e-04 -3.231129667256027460e-04 -7.846671360312029719e-05 3.629210987128317356e-04 1.355551299639046192e-03 -4.340682062320411205e-04 -1.019411371089518070e-03 -7.849040557630360126e-04 -4.695114621426910162e-04 -1.346417702734470367e-03 -9.859657438937574625e-05 2.455466601531952620e-04 -1.043902942910790443e-03 -7.841544575057923794e-04 -6.742604309692978859e-04 -9.303430124418810010e-05 -5.008643493056297302e-04 9.186447714455425739e-04 -1.155775273218750954e-03 5.422074900707229972e-05 2.794942304262804100e-07 -7.776031270623207092e-04 -6.732734036631882191e-04 3.439430438447743654e-04 -2.650446003826800734e-05 -4.025418311357498169e-04 -1.037213136442005634e-03 -6.501574534922838211e-04 -2.554759848862886429e-04 -1.074228435754776001e-03 -6.780758267268538475e-04 -1.072249142453074455e-03 6.846971809864044189e-04 -6.967550871195271611e-05 -6.579815526492893696e-04 -4.588267183862626553e-04 -7.626453880220651627e-04 -3.381258284207433462e-05 -7.157963700592517853e-04 -4.954626783728599548e-04 -6.436770199798047543e-04 4.126399580854922533e-04 -1.190802780911326408e-03 9.244242100976407528e-04 -1.652322360314428806e-03 -7.431379053741693497e-04 9.686950215836986899e-05 -6.070304079912602901e-04 2.061561972368508577e-04 -1.134847174398601055e-03 -9.626143146306276321e-04 -1.201965846121311188e-03 -7.087002741172909737e-04 3.725783608388155699e-04 -3.036729176528751850e-04 1.787714609235990793e-05 1.115891616791486740e-03 -7.327787461690604687e-04 2.204396696470212191e-05 2.764376113191246986e-04 -6.289676530286669731e-04 -1.224095583893358707e-03 -1.054436899721622467e-03 8.377853082492947578e-04 -1.406330266036093235e-04 -2.585898910183459520e-04 7.237945101223886013e-05 2.298899562447331846e-05 -8.796968613751232624e-04 2.682644408196210861e-04 -3.121962945442646742e-04 -6.365396548062562943e-04 -2.272634883411228657e-04 3.020502335857599974e-04 6.327629671432077885e-05 -1.250733155757188797e-03 -4.385561624076217413e-04 4.519686335697770119e-04 1.538390497444197536e-04 -5.407397984527051449e-04 -1.978066284209489822e-04 -1.076738000847399235e-03 -2.563210146035999060e-04 1.355097512714564800e-03 -7.587249274365603924e-04 4.596073704306036234e-04 -2.705460938159376383e-04 -1.262953039258718491e-03 -1.815114635974168777e-03 -1.052012084983289242e-03 -2.038208767771720886e-04 -7.832985720597207546e-04 -1.007121289148926735e-03 7.048185943858698010e-05 8.504817378707230091e-04 -1.216751406900584698e-03 -6.853319355286657810e-04 5.338985938578844070e-04 -1.205703010782599449e-03 -1.251731300726532936e-03 5.779656348749995232e-04 -7.302109734155237675e-04 1.041451585479080677e-03 -4.389197856653481722e-04 3.689395962283015251e-04 -2.144599857274442911e-04 -9.017559932544827461e-04 -1.776144054019823670e-04 -5.958299734629690647e-04 -3.345812729094177485e-04 3.263632825110107660e-04 3.404484232305549085e-07 -2.083116560243070126e-04 -1.451567746698856354e-03 -6.970317917875945568e-04 4.531995800789445639e-04 4.220856862957589328e-05 -9.870505164144560695e-05 -3.456861013546586037e-04 9.983022464439272881e-04 -1.856989183579571545e-05 -1.270203269086778164e-03 -9.246078843716531992e-05 2.986207546200603247e-04 -3.198523481842130423e-04 -1.691946090431883931e-04 6.464681355282664299e-04 6.758997333236038685e-04 6.690298905596137047e-04 -2.585061010904610157e-04 1.203006599098443985e-03 -7.418554741889238358e-04 -1.700288616120815277e-03 -4.756074922624975443e-04 1.121343593695200980e-04 1.148802912211976945e-04 1.410413067787885666e-03 -8.577806293033063412e-04 -1.415009228367125615e-05 -7.818661979399621487e-04 -3.395329113118350506e-04 3.603322547860443592e-04 -6.393523071892559528e-04 -1.331167459284188226e-05 -8.776596514508128166e-04 -1.329208957031369209e-03 2.881692780647426844e-04 -7.197080412879586220e-04 -1.193684292957186699e-03 -8.418301586061716080e-04 -8.646570495329797268e-05 -7.594664348289370537e-04 1.002470147795975208e-03 -1.591451349668204784e-03 -7.537200581282377243e-04 -9.206943213939666748e-04 -3.799748956225812435e-04 -2.174343972001224756e-04 -9.923522593453526497e-04 -2.273633435834199190e-04 -5.063085700385272503e-05 -2.550873432483058423e-05 2.934221120085567236e-04 -4.167156002949923277e-04 -7.527617271989583969e-04 5.004086415283381939e-04 -6.519658491015434265e-04 -6.167552783153951168e-04 -2.513172803446650505e-04 3.677006752695888281e-04 1.112712852773256600e-04 4.161973483860492706e-04 -6.485801422968506813e-04 3.788692119996994734e-04 -2.620315644890069962e-04 -9.723629918880760670e-04 5.566058680415153503e-04 -2.770127612166106701e-04 -1.931488986883778125e-05 -7.943606469780206680e-04 7.098459755070507526e-04 -1.098821405321359634e-03 -7.182218250818550587e-04 5.679593887180089951e-04 -4.455016751307994127e-04 8.067720045801252127e-05 7.367690704995766282e-05 -4.320908046793192625e-04 -4.653660289477556944e-04 -1.166804649983532727e-04 -4.313222598284482956e-04 -3.247705753892660141e-04 1.198276659124530852e-04 -5.417992360889911652e-04 -1.191691262647509575e-03 -2.099087694659829140e-03 1.182758947834372520e-03 -5.659702001139521599e-04 2.283342619193717837e-04 -6.869416683912277222e-04 -1.611854677321389318e-04 6.553567945957183838e-04 -2.728563595155719668e-05 -2.960393321700394154e-04 -2.997849660459905863e-04 -1.733834360493347049e-04 -4.905539099127054214e-04 -5.923239223193377256e-05 1.973316830117255449e-05 -4.829984973184764385e-04 -8.681455510668456554e-04 -4.520895308814942837e-04 -1.478318008594214916e-03 2.621846506372094154e-04 -5.867049330845475197e-04 -2.689574612304568291e-04 -3.711234603542834520e-04
-5.467156320810317993e-02 2.099294960498809814e-02 -5.723212659358978271e-02 5.302219185978174210e-03 1.474621053785085678e-02 1.806668192148208618e-02 -8.060750551521778107e-03 1.010386552661657333e-02 1.596173271536827087e-02 8.479981683194637299e-03 -7.529835402965545654e-02 2.056260360404849052e-03 -4.066758230328559875e-02 -6.769723724573850632e-03 6.229147780686616898e-03 2.263701520860195160e-03 3.995530307292938232e-02 3.013028996065258980e-03 -2.114538569003343582e-03 -1.613033819012343884e-04 1.437903568148612976e-02 6.348445080220699310e-03 -3.566997498273849487e-02 -8.942860586103051901e-05 -1.397074665874242783e-02 -5.398964136838912964e-02 1.093458011746406555e-02 4.733672540169209242e-04 -1.597100053913891315e-03 2.677346393465995789e-02 -3.612044081091880798e-02 -6.168478354811668396e-02 1.661817170679569244e-02 2.182359620928764343e-02 -5.287175998091697693e-02 -6.811656057834625244e-03 -3.091175574809312820e-03 -1.120156259275972843e-03 4.091966897249221802e-02 -5.216192919760942459e-03 1.161005906760692596e-02 6.238415371626615524e-03 9.044220671057701111e-03 -3.378214314579963684e-03 -3.248533979058265686e-02 2.182792499661445618e-02 -1.528705283999443054e-02 3.063505515456199646e-02 2.428998239338397980e-03 3.877857699990272522e-02 -4.453380778431892395e-02 2.364605851471424103e-02 -4.490279126912355423e-03 -2.896680310368537903e-02 -5.483277491293847561e-04 7.234812248498201370e-03 2.300016209483146667e-02 1.073456369340419769e-02 2.207515994086861610e-03 -5.161400884389877319e-02 -1.284312922507524490e-02 -1.877662027254700661e-03 1.084350608289241791e-02 -3.898216038942337036e-02 -8.063007262535393238e-04 2.703102864325046539e-02 1.692877337336540222e-02 -1.120888162404298782e-02 3.726255893707275391e-02 -2.089892281219363213e-03 3.204173594713211060e-02 8.301891386508941650e-03 -3.842148557305335999e-02 4.133077338337898254e-02 6.576959509402513504e-03 -2.885815873742103577e-02 -7.984413765370845795e-03 -1.573655195534229279e-02 4.309519007802009583e-02 4.378839861601591110e-03 1.145877293311059475e-03 2.914906851947307587e-02 2.763505838811397552e-02 -2.508047036826610565e-03 -8.586601354181766510e-03 -4.196364898234605789e-04 4.718254320323467255e-03 -3.998923674225807190e-02 -4.619266465306282043e-02 -3.998531773686408997e-02 -5.263513419777154922e-03 2.137879095971584320e-02 -1.911366358399391174e-03 4.093368479516357183e-04 -1.436457782983779907e-02 -1.221543923020362854e-02 7.614510250277817249e-04 4.449133202433586121e-02 1.860861852765083313e-02 1.535409782081842422e-02 1.846833154559135437e-02 1.552088093012571335e-02 1.160350441932678223e-02 2.037535421550273895e-02 1.749018020927906036e-02 1.698842272162437439e-02 1.802241057157516479e-02 1.697661168873310089e-02 6.161031313240528107e-03 2.536107599735260010e-02 9.808903560042381287e-03 -3.116483055055141449e-02 2.995866723358631134e-02 3.524356521666049957e-03 -5.697791930288076401e-03 -7.878850214183330536e-03 1.992446742951869965e-02 8.324502035975456238e-03 -2.914984943345189095e-03 -1.021697279065847397e-02 -3.650562372058629990e-03 5.603860598057508469e-03 5.602454766631126404e-03 -9.686069563031196594e-03 -3.297093324363231659e-03 -6.612407416105270386e-02 2.153951674699783325e-03 1.239265780895948410e-02 -6.264649797230958939e-03 -3.148074820637702942e-02 1.836044900119304657e-02 3.514305455610156059e-03 4.431449342519044876e-03 -4.419302102178335190e-03 1.099420827813446522e-03 4.117940738797187805e-02 2.281755907461047173e-03 -2.240715920925140381e-02 1.742912456393241882e-02 2.791068889200687408e-02 1.397803798317909241e-02 1.470686029642820358e-02 2.524159662425518036e-02 1.320463139563798904e-02 2.882822230458259583e-02 -2.673421753570437431e-03 7.494099903851747513e-03 5.920344498008489609e-03 2.142243273556232452e-02 1.772231981158256531e-02 2.737163007259368896e-02 -5.009897053241729736e-02 4.434910137206315994e-03 5.823427811264991760e-03 4.645691066980361938e-02 -5.216789618134498596e-02 -1.105720922350883484e-02 4.859953373670578003e-02 -5.884830281138420105e-02 1.470011379569768906e-02 -5.021173506975173950e-02 -2.949748933315277100e-02 -1.827150583267211914e-03 1.771178655326366425e-02 3.857857733964920044e-02 -4.275799728929996490e-03 7.258184719830751419e-03 -4.619418829679489136e-02 -6.906048394739627838e-03 -1.632184721529483795e-02 -4.116733744740486145e-02 3.226129710674285889e-02 -6.808446254581212997e-03 2.713496237993240356e-02 4.947317019104957581e-02 3.102944046258926392e-02 2.778872475028038025e-02 5.400113295763731003e-03 -5.814326554536819458e-02 -5.076001398265361786e-03 5.792134441435337067e-03 -3.617105307057499886e-03 3.972151130437850952e-02 3.715316765010356903e-03 -1.183116808533668518e-03 -2.168477280065417290e-03 2.873233333230018616e-02 -2.623771503567695618e-02 -3.666152805089950562e-02 -4.976791143417358398e-02 -1.843783538788557053e-04 5.479961633682250977e-03 2.274315990507602692e-02 1.776299253106117249e-02 3.393337503075599670e-02 3.045151941478252411e-03 3.516827942803502083e-03 -2.126324176788330078e-02 2.849254012107849121e-02 1.247623749077320099e-02 -4.952585697174072266e-02 -5.605775490403175354e-02 3.335810452699661255e-02 1.834550313651561737e-02 4.343469440937042236e-02 -4.856186453253030777e-03 -2.831118647009134293e-03 2.727087214589118958e-02 1.578360237181186676e-02 -4.442271217703819275e-02 -2.040099352598190308e-02 2.160629373975098133e-04 -6.136101204901933670e-03 -5.582737503573298454e-04 2.502345107495784760e-02 -1.721284165978431702e-02 5.906317383050918579e-03 -1.135947927832603455e-02 -2.832421660423278809e-02 3.147137584164738655e-03 -3.569766134023666382e-02 5.767610855400562286e-04 3.805970191024243832e-04 -1.288057304918766022e-02 6.242284085601568222e-03 5.284719634801149368e-03 -6.397923082113265991e-02 -5.455787479877471924e-02 1.561947166919708252e-02 1.894944719970226288e-02 -4.841313883662223816e-02 7.844776846468448639e-03 -1.096109487116336823e-02 -1.151787769049406052e-02 2.219328284263610840e-02 3.932776395231485367e-03 5.568393506109714508e-03 7.266306318342685699e-03 3.525292873382568359e-02 -1.920655556023120880e-02 2.262261696159839630e-02 -6.973130628466606140e-03 3.760632127523422241e-02 -2.761877840384840965e-03 -9.612452238798141479e-03 -8.220607414841651917e-03 3.955972194671630859e-02 3.402464091777801514e-02 1.488630101084709167e-02 1.945994980633258820e-02 5.486595444381237030e-03 -3.824312938377261162e-03 -6.651935726404190063e-02 -2.212870400398969650e-03 9.771393612027168274e-03 -4.305611364543437958e-03
-4.551653563976287842e-02 1.813922449946403503e-02 -8.189585804939270020e-02 2.874328522011637688e-03 2.112810127437114716e-02 1.760258339345455170e-02 -1.075675617903470993e-02 7.899289950728416443e-03 1.511640008538961411e-02 -1.339158229529857635e-02 -4.011594131588935852e-02 -9.061822667717933655e-03 -5.555779486894607544e-02 1.569661078974604607e-03 8.490067906677722931e-03 -5.148222204297780991e-03 2.720651403069496155e-02 -4.721290431916713715e-03 -9.501296095550060272e-03 -9.018945274874567986e-04 1.640438917092978954e-03 -1.214322051964700222e-03 -3.670379891991615295e-02 -5.979376845061779022e-03 -2.057548612356185913e-02 -4.817017540335655212e-02 1.921321079134941101e-02 -1.404839451424777508e-03 -5.917344707995653152e-03 1.109403837472200394e-02 -3.684861958026885986e-02 -7.605417817831039429e-02 -9.244283661246299744e-03 2.847293019294738770e-02 -5.540727451443672180e-02 3.471841337159276009e-03 2.216878160834312439e-02 3.080285526812076569e-02 3.667550534009933472e-02 -5.308892577886581421e-03 1.437001395970582962e-02 4.467992112040519714e-03 1.486178766936063766e-02 -3.454815596342086792e-03 -5.148306954652070999e-03 4.319160245358943939e-03 -4.378949757665395737e-03 1.958085410296916962e-02 -1.686923019587993622e-02 1.835276745259761810e-02 -2.347051352262496948e-02 -7.456264575012028217e-04 2.051164192380383611e-04 -4.540579020977020264e-02 6.389439571648836136e-03 9.544022381305694580e-03 1.974063366651535034e-02 7.980990223586559296e-03 6.178370676934719086e-03 -4.130437970161437988e-02 -9.323002770543098450e-03 3.403939772397279739e-03 2.670527668669819832e-03 -3.320855647325515747e-02 -2.188823884353041649e-03 2.124513499438762665e-02 9.823505766689777374e-03 -4.970409721136093140e-02 2.840882912278175354e-02 6.668485235422849655e-03 3.202301263809204102e-02 1.082499697804450989e-02 -3.317091241478919983e-02 2.884785085916519165e-02 -1.973378472030162811e-02 -2.844699285924434662e-02 -4.328834358602762222e-03 -1.122287474572658539e-02 2.396176196634769440e-02 -1.652058213949203491e-02 -3.936917986720800400e-03 1.475063152611255646e-02 3.997887670993804932e-02 -7.290994282811880112e-03 5.316383205354213715e-03 2.792718587443232536e-04 -1.151698452304117382e-04 -3.382355347275733948e-02 -7.661592215299606323e-02 -2.941400557756423950e-02 2.511439612135291100e-03 2.505226247012615204e-02 5.644801538437604904e-03 3.394193714484572411e-03 -5.285948980599641800e-03 7.919445633888244629e-03 -1.511319912970066071e-02 3.493698313832283020e-02 6.713249720633029938e-03 2.367592230439186096e-02 -1.159486081451177597e-02 2.160147018730640411e-02 1.015211269259452820e-02 1.594592072069644928e-02 3.077746741473674774e-02 8.980350568890571594e-03 1.913933455944061279e-02 1.069509238004684448e-02 -1.021588221192359924e-03 2.137090824544429779e-02 7.693146355450153351e-03 -4.733638465404510498e-02 2.090043760836124420e-02 -3.234707110095769167e-04 -9.365017525851726532e-03 -2.958388999104499817e-02 6.118844263255596161e-03 2.567296382039785385e-03 2.446905476972460747e-03 -1.188186090439558029e-02 2.397141186520457268e-03 -1.172058051452040672e-03 6.028495263308286667e-03 -1.090910658240318298e-02 2.828231081366539001e-03 -7.674361020326614380e-02 -1.393608865328133106e-03 -9.018113836646080017e-03 -3.334199776872992516e-03 -1.681698672473430634e-02 1.933498121798038483e-02 -2.010931447148323059e-02 -7.543670362792909145e-04 -4.866518545895814896e-03 2.366655040532350540e-03 3.118393942713737488e-02 -1.386818196624517441e-02 1.592277735471725464e-02 -3.482228843495249748e-03 1.530466880649328232e-02 5.468965973705053329e-03 1.170952524989843369e-02 3.124390728771686554e-02 -1.456662197597324848e-03 1.837270520627498627e-02 -1.276869699358940125e-02 1.524577196687459946e-02 -6.637577898800373077e-03 1.817003823816776276e-02 1.825620979070663452e-02 2.864999696612358093e-02 -6.840562820434570312e-02 -2.501212246716022491e-02 9.581014513969421387e-03 3.351946175098419189e-02 -4.509621858596801758e-02 -2.879040781408548355e-03 3.803452849388122559e-02 -5.103654786944389343e-02 8.602964691817760468e-03 -5.159494653344154358e-02 -2.488294430077075958e-02 -6.283633410930633545e-03 1.188927097246050835e-03 1.951187849044799805e-02 8.328096009790897369e-03 -8.447532542049884796e-03 -4.091866314411163330e-02 4.132792353630065918e-03 -1.792935887351632118e-03 -3.825483098626136780e-02 3.587485849857330322e-02 7.831126451492309570e-03 1.896937750279903412e-02 3.354039043188095093e-02 2.511462196707725525e-02 2.118569612503051758e-02 4.693618975579738617e-03 -3.857944160699844360e-02 -2.734755165874958038e-03 -7.921221666038036346e-03 -3.996544051915407181e-03 3.786745294928550720e-02 -5.867863073945045471e-04 3.432263154536485672e-03 -8.197728544473648071e-03 2.561001479625701904e-02 -2.965216338634490967e-02 -4.257194325327873230e-02 -5.078203976154327393e-02 1.770311035215854645e-03 1.073923986405134201e-02 2.268041670322418213e-02 1.593665592372417450e-02 3.921229764819145203e-02 7.181847195170121267e-06 7.019250653684139252e-03 -2.265259250998497009e-02 2.785458229482173920e-02 1.087034773081541061e-02 -3.960328549146652222e-02 -4.702240973711013794e-02 3.051859326660633087e-02 7.139777299016714096e-03 3.022675402462482452e-02 -6.181986071169376373e-03 -1.112933084368705750e-02 2.248319983482360840e-02 1.515731122344732285e-02 -5.258003622293472290e-02 -2.533488534390926361e-02 -5.644826218485832214e-03 -6.908027455210685730e-03 -3.521030303090810776e-03 1.357637159526348114e-02 -2.360072918236255646e-02 -7.758460473269224167e-03 -3.317386284470558167e-02 -1.035942975431680679e-02 9.571162052452564240e-03 -3.076277114450931549e-02 2.844503149390220642e-03 -4.225312732160091400e-03 -1.144442800432443619e-02 -8.376797777600586414e-04 6.236404646188020706e-03 -4.370897635817527771e-02 -7.027295231819152832e-02 -3.677420783787965775e-03 1.975257880985736847e-02 -3.888615220785140991e-02 -3.999918699264526367e-03 -2.785194292664527893e-02 -1.385474111884832382e-02 -1.320429291808977723e-04 7.743726950138807297e-03 7.822323590517044067e-03 -4.273703234503045678e-05 4.214857146143913269e-02 -9.604969061911106110e-03 1.763138733804225922e-02 -3.716402687132358551e-03 1.204978488385677338e-02 3.651077393442392349e-03 -9.824100881814956665e-03 -1.551799662411212921e-02 2.947285585105419159e-02 1.382095832377672195e-02 5.454569123685359955e-03 7.945951074361801147e-03 -1.443748944438993931e-03 1.576209254562854767e-02 -5.118109285831451416e-02 -3.622484626248478889e-03 7.607333362102508545e-03 -4.676228389143943787e-03
-4.195898771286010742e-03 1.024046447128057480e-02 -6.074339896440505981e-02 7.583455648273229599e-03 9.203879162669181824e-03 2.521086251363158226e-03 -2.402430586516857147e-02 7.975692860782146454e-03 5.903753452003002167e-03 -1.375172007828950882e-02 1.075996551662683487e-02 6.312482059001922607e-03 -2.940243296325206757e-02 2.271433593705296516e-03 2.165768668055534363e-02 -3.351343050599098206e-02 -2.826154697686433792e-03 -2.669165655970573425e-02 -1.747822575271129608e-02 4.035838879644870758e-03 -2.234932594001293182e-02 3.793469164520502090e-03 -4.738835617899894714e-03 3.308203443884849548e-02 -9.688680991530418396e-03 1.881748624145984650e-02 -9.932575747370719910e-03 1.211565081030130386e-02 1.415603049099445343e-02 1.049757469445466995e-02 1.291204430162906647e-02 2.064406126737594604e-02 -1.847235672175884247e-02 5.092643667012453079e-03 2.122775837779045105e-02 1.739872433245182037e-02 -3.557572886347770691e-02 2.027653099503368139e-04 -1.452607102692127228e-02 3.085580840706825256e-02 1.135565922595560551e-03 1.874221861362457275e-02 8.474056608974933624e-03 9.601939469575881958e-03 1.192635856568813324e-02 -2.700694138184189796e-03 1.520516909658908844e-02 -1.018680911511182785e-02 2.566425129771232605e-03 2.825866267085075378e-02 -2.811679989099502563e-02 5.547124892473220825e-03 5.459891632199287415e-03 2.317411452531814575e-02 -9.301750920712947845e-03 -6.621327716857194901e-03 -1.751841045916080475e-02 3.670300124213099480e-03 -1.847597653977572918e-03 -6.009833887219429016e-03 3.392696008086204529e-02 4.048855043947696686e-03 2.692854031920433044e-02 1.775879971683025360e-02 -1.888243481516838074e-03 -1.577727682888507843e-02 -2.613384462893009186e-02 -2.973538823425769806e-02 2.437893563183024526e-04 2.022794447839260101e-02 2.222377434372901917e-02 -3.018229501321911812e-03 -9.562693536281585693e-03 1.407969370484352112e-02 -6.536109372973442078e-03 -1.995499432086944580e-02 2.549089118838310242e-02 -2.060491591691970825e-02 -4.066583234816789627e-03 -6.544883945025503635e-04 -1.449159067124128342e-02 -7.991844788193702698e-03 -1.520008663646876812e-03 9.209139272570610046e-03 -7.307325722649693489e-04 2.265753224492073059e-02 1.831222884356975555e-02 -3.898069262504577637e-03 1.006062608212232590e-02 -3.917616792023181915e-03 1.591053791344165802e-02 -5.450140684843063354e-03 6.875980179756879807e-03 3.640939714387059212e-03 4.876839462667703629e-03 7.824946194887161255e-03 -2.434209175407886505e-02 -2.847991883754730225e-03 1.502769906073808670e-02 1.563323289155960083e-02 -3.808308159932494164e-03 -2.489516511559486389e-03 1.237178314477205276e-02 2.326980419456958771e-02 1.601884886622428894e-02 -1.530001685023307800e-02 -4.611442796885967255e-03 5.046453326940536499e-03 1.725504733622074127e-02 1.307034399360418320e-02 -1.623471826314926147e-02 2.161404816433787346e-03 5.418850108981132507e-02 -2.054554596543312073e-02 -2.006060443818569183e-02 -9.884272702038288116e-03 4.427102394402027130e-03 2.283301018178462982e-02 -5.386655175243504345e-05 1.701888442039489746e-02 2.839682274498045444e-04 -2.825715206563472748e-02 -3.271674504503607750e-03 2.603217214345932007e-02 4.093613475561141968e-03 1.254661288112401962e-02 2.468300051987171173e-03 3.492494346573948860e-03 -1.975731225684285164e-03 4.613365978002548218e-03 4.857089370489120483e-03 2.855723351240158081e-02 2.322236821055412292e-02 -1.582712284289300442e-03 1.002709381282329559e-02 -5.067670717835426331e-03 3.473759815096855164e-02 -1.297986321151256561e-02 -7.886441424489021301e-03 -3.131058812141418457e-02 2.294326573610305786e-02 -9.137523011304438114e-04 -3.508752211928367615e-02 5.729079712182283401e-03 -2.204326167702674866e-02 2.939394209533929825e-03 6.147953681647777557e-03 -5.449614021927118301e-03 3.030670573934912682e-03 -3.653138130903244019e-02 2.214135602116584778e-03 -1.738659292459487915e-02 -1.764182001352310181e-02 4.018187988549470901e-03 1.175791956484317780e-02 3.834337403532117605e-04 1.233108434826135635e-02 -2.326986053958535194e-03 -5.866323597729206085e-03 -1.758811250329017639e-02 2.565302653238177299e-03 2.624398656189441681e-02 -9.007325395941734314e-03 1.415661629289388657e-02 2.776795998215675354e-03 -4.810008220374584198e-03 2.239573188126087189e-02 3.688354743644595146e-03 4.176280635874718428e-04 -3.433013334870338440e-02 -4.238123539835214615e-03 1.150302123278379440e-02 -4.534127656370401382e-04 -2.629346027970314026e-02 -4.370460752397775650e-03 -2.080690301954746246e-02 -2.079030312597751617e-02 6.037930492311716080e-03 -1.150649599730968475e-02 1.903544645756483078e-03 1.575439795851707458e-02 1.849379763007164001e-02 1.053026691079139709e-02 4.989445209503173828e-03 1.034893188625574112e-02 -3.642290830612182617e-02 1.658155396580696106e-02 -3.109167888760566711e-02 -1.424898114055395126e-02 4.622082342393696308e-04 2.282849326729774475e-02 5.603993311524391174e-03 -3.344817087054252625e-02 2.448753220960497856e-03 -5.789406597614288330e-03 1.370469760149717331e-02 1.473817229270935059e-02 1.391616929322481155e-02 1.582715474069118500e-02 -2.532506361603736877e-02 -8.634055033326148987e-03 -1.584720797836780548e-02 1.275626011192798615e-02 1.973498426377773285e-02 -1.702963560819625854e-02 -2.478738129138946533e-02 1.791479624807834625e-02 -1.155115757137537003e-02 5.746350623667240143e-03 2.192334085702896118e-02 3.996409103274345398e-02 -4.309295490384101868e-02 5.727864801883697510e-03 -1.545902900397777557e-02 -2.445128047838807106e-03 -7.068258244544267654e-03 -1.595683582127094269e-02 -7.309629116207361221e-03 1.015899120829999447e-03 1.195136923342943192e-02 9.766601026058197021e-03 -3.824534724117256701e-05 7.676028646528720856e-03 1.962704770267009735e-02 1.435576938092708588e-02 1.026844605803489685e-02 6.277067586779594421e-03 -2.732446789741516113e-02 3.062872774899005890e-02 7.774631492793560028e-03 -5.044645164161920547e-03 2.464728429913520813e-03 6.992488168179988861e-03 1.148283295333385468e-02 -5.540684331208467484e-03 3.930783644318580627e-02 -2.370796352624893188e-02 7.040798664093017578e-03 -2.079187519848346710e-02 -8.033249527215957642e-03 2.797751873731613159e-02 6.337398663163185120e-03 1.530340220779180527e-02 5.096679553389549255e-03 2.365298755466938019e-02 -1.597767695784568787e-02 -2.220595953986048698e-03 -1.422259118407964706e-02 1.497638411819934845e-02 -2.635533921420574188e-02 8.749254979193210602e-03 8.538422174751758575e-03 -1.820173673331737518e-02 -6.488991901278495789e-03 1.566916005685925484e-03 3.422196581959724426e-02
-1.327747944742441177e-02 4.622159991413354874e-03 1.711872592568397522e-02 2.122602984309196472e-02 -5.270225554704666138e-02 1.164206396788358688e-02 7.207876536995172501e-03 2.257690951228141785e-02 1.033002045005559921e-02 5.162244662642478943e-03 8.270069956779479980e-03 2.475241012871265411e-02 -2.151276730000972748e-02 2.572031691670417786e-02 2.338112331926822662e-02 1.664414443075656891e-02 3.340347111225128174e-02 3.922627493739128113e-02 -7.888244464993476868e-03 2.148531377315521240e-02 -6.260541081428527832e-02 2.175647765398025513e-02 -3.589370846748352051e-02 -5.317918211221694946e-02 2.472533658146858215e-02 -1.327090058475732803e-02 1.024240441620349884e-02 2.237043902277946472e-02 1.315366011112928391e-02 2.763307467103004456e-02 -2.269472554326057434e-02 -2.058701775968074799e-02 -9.903584606945514679e-03 -3.005314245820045471e-02 -2.367417328059673309e-02 3.194323182106018066e-02 -1.830252073705196381e-02 6.139541976153850555e-03 3.053613239899277687e-03 -6.786469370126724243e-02 7.430525496602058411e-03 -4.852421581745147705e-03 -4.472242295742034912e-02 2.176182717084884644e-02 2.422314882278442383e-02 2.240844257175922394e-02 3.700618818402290344e-02 2.953236550092697144e-02 4.636154510080814362e-03 -2.890713699162006378e-02 -1.150419283658266068e-02 -3.944264724850654602e-02 2.310334518551826477e-02 -1.257269829511642456e-02 -2.465204894542694092e-02 1.881572417914867401e-02 2.925211004912853241e-02 1.688014529645442963e-02 1.566847041249275208e-02 -2.853060699999332428e-02 -1.090075541287660599e-02 2.274452336132526398e-02 1.086475886404514313e-02 -5.218484997749328613e-02 1.808865740895271301e-02 -3.805054351687431335e-02 8.816920220851898193e-03 1.193300914019346237e-02 2.936503151431679726e-03 2.543899044394493103e-02 -5.545523390173912048e-02 1.579673774540424347e-02 -1.232261070981621742e-03 -7.584951817989349365e-03 2.309395745396614075e-02 2.282029017806053162e-02 -7.607511430978775024e-02 4.589702002704143524e-03 -8.942131884396076202e-03 1.598482392728328705e-02 -1.595444977283477783e-02 2.836687676608562469e-02 9.794957004487514496e-03 1.625413820147514343e-02 1.790948957204818726e-02 -7.463186979293823242e-03 2.616327069699764252e-02 -1.491943188011646271e-02 -8.501688018441200256e-03 -5.713552236557006836e-04 3.101079165935516357e-02 -5.440370365977287292e-02 2.450911514461040497e-02 2.069425769150257111e-02 2.434805780649185181e-02 1.870978996157646179e-02 5.563833750784397125e-03 3.564311563968658447e-02 2.818101458251476288e-02 -8.696807920932769775e-02 1.770090684294700623e-02 2.187500894069671631e-02 1.297409646213054657e-02 1.133756898343563080e-02 -6.375791132450103760e-02 2.236953191459178925e-02 8.759006857872009277e-03 2.505397796630859375e-02 1.840339787304401398e-02 2.354865707457065582e-02 -9.123310446739196777e-03 -2.833434566855430603e-02 -2.249759435653686523e-02 -2.770683029666543007e-03 2.253300510346889496e-03 2.764850668609142303e-02 2.464684098958969116e-02 2.066839300096035004e-02 2.176609449088573456e-02 -4.883973672986030579e-02 2.392518334090709686e-02 1.502400729805231094e-02 -3.029494732618331909e-02 -1.884481869637966156e-02 2.294249273836612701e-02 -2.016862295567989349e-02 -5.179108306765556335e-02 2.608794718980789185e-02 -3.693950362503528595e-03 -2.945681044366210699e-04 1.246401574462652206e-02 2.481770515441894531e-02 1.816285029053688049e-02 2.071906067430973053e-02 2.227305434644222260e-02 3.069086559116840363e-02 -3.969122096896171570e-02 -4.215227905660867691e-03 1.826626621186733246e-02 -1.701077097095549107e-03 7.768436917103827000e-04 1.175811700522899628e-02 1.026467140763998032e-02 -7.452186197042465210e-02 6.633451266679912806e-05 1.745610497891902924e-02 3.911112621426582336e-02 1.266573555767536163e-02 1.119455788284540176e-02 3.714693337678909302e-02 4.075943026691675186e-03 1.562677696347236633e-02 -2.181890234351158142e-02 2.340923808515071869e-02 -6.386739201843738556e-03 -4.121154546737670898e-02 -7.925597019493579865e-03 1.580962911248207092e-02 1.930814585648477077e-03 1.284025330096483231e-02 -4.464251454919576645e-03 7.752973120659589767e-03 1.548634935170412064e-02 6.010204087942838669e-03 -6.448547937907278538e-04 2.237874083220958710e-02 1.275557465851306915e-02 -1.391334738582372665e-02 2.759341336786746979e-02 -3.258022665977478027e-02 -2.294097654521465302e-02 -4.234215989708900452e-02 1.665100455284118652e-02 9.099179878830909729e-03 7.148992270231246948e-03 1.766476407647132874e-02 9.820701554417610168e-03 1.914899609982967377e-02 -1.746494881808757782e-02 2.145827002823352814e-02 2.880723774433135986e-02 1.539227273315191269e-02 2.184144919738173485e-03 1.929578930139541626e-02 2.474589459598064423e-02 3.784965723752975464e-02 5.876183509826660156e-03 6.031095515936613083e-03 -3.456944832578301430e-03 -1.891259476542472839e-02 7.963278330862522125e-03 2.088981308043003082e-02 1.809308305382728577e-02 1.298475917428731918e-02 -6.879124045372009277e-02 1.528197433799505234e-02 2.210914902389049530e-02 1.444720849394798279e-02 -5.553523544222116470e-03 3.501910343766212463e-02 -1.055977307260036469e-02 -2.496885135769844055e-02 -3.953370614908635616e-04 1.725452602840960026e-03 1.728181727230548859e-02 2.296461723744869232e-03 1.864413917064666748e-02 -3.990866243839263916e-02 2.733184583485126495e-02 -2.637236751616001129e-02 -2.941879630088806152e-02 1.182781439274549484e-02 2.245151437819004059e-02 1.451030559837818146e-02 1.373539771884679794e-02 1.269991695880889893e-02 -6.859783083200454712e-03 -7.754165679216384888e-02 -3.000307828187942505e-02 8.030518889427185059e-03 -2.028833515942096710e-02 2.338030375540256500e-02 2.156598307192325592e-02 1.338092330843210220e-02 2.238301001489162445e-02 -5.508184060454368591e-02 -1.578272087499499321e-03 3.218931844457983971e-03 -2.366533689200878143e-02 3.225713968276977539e-02 -5.062783602625131607e-03 2.095214650034904480e-02 -8.239625394344329834e-02 1.070288941264152527e-02 -2.202497236430644989e-02 2.517830766737461090e-02 5.467981100082397461e-03 -3.064725548028945923e-02 -2.918945159763097763e-03 -2.046852558851242065e-02 -4.053154028952121735e-03 9.371321648359298706e-03 -1.837412826716899872e-02 2.387010492384433746e-02 1.651579141616821289e-02 -2.845015376806259155e-02 3.509626910090446472e-02 9.593566064722836018e-04 3.592553734779357910e-02 7.429334800690412521e-03 1.809745654463768005e-02 -8.093840442597866058e-03 5.172721575945615768e-03 2.323788963258266449e-02 1.401085313409566879e-02 -2.071803249418735504e-02
