-4.412160813808441162e-02 -2.058362662792205811e-01 2.197142923250794411e-03 2.107679843902587891e-03 -4.521015286445617676e-02 -9.242465347051620483e-02 2.294358564540743828e-03 -1.718565523624420166e-01 2.684286562725901604e-03 2.917901612818241119e-03 4.415453076362609863e-01 4.290109872817993164e-02 2.367157256230711937e-03 1.147735118865966797e-01 2.935447031632065773e-03 -2.077991217374801636e-01 -2.029059678316116333e-01 2.113709691911935806e-03 -6.925509124994277954e-02 -5.907276272773742676e-02 -3.965339064598083496e-02 2.613315824419260025e-03 1.717256964184343815e-03 2.386504784226417542e-03 2.691600704565644264e-03 5.740034952759742737e-02 2.881244290620088577e-03 2.345947083085775375e-03 2.432054141536355019e-03 2.866934053599834442e-03 2.842007670551538467e-03 7.147832512855529785e-01 -6.989474594593048096e-02 4.190822318196296692e-02 2.436949405819177628e-03 2.536459593102335930e-03 2.122398698702454567e-03 2.975897397845983505e-03 2.191116474568843842e-02 2.053951611742377281e-03 2.496233209967613220e-03 -2.189367264509201050e-01 -9.404398798942565918e-01 2.380072139203548431e-03 -9.531456977128982544e-02 2.914702985435724258e-03 2.105063991621136665e-03 2.960920566692948341e-03 2.566311508417129517e-03 -1.533167362213134766e-01 2.598998136818408966e-03 1.974707935005426407e-03 2.824896946549415588e-03 6.628236174583435059e-02 1.758196502923965454e-01 1.843224395997822285e-03 2.996966242790222168e-03 2.705355174839496613e-03 -8.603399246931076050e-02 -5.025296658277511597e-02 2.436939394101500511e-03 2.790175145491957664e-03 3.465062007308006287e-02 2.836905186995863914e-03 4.243675619363784790e-02 1.848210813477635384e-03 2.651594346389174461e-03 -4.073353111743927002e-02 2.886834321543574333e-03 -1.914415806531906128e-01 2.584605477750301361e-03 -1.118732318282127380e-01 2.774972701445221901e-03 2.697999123483896255e-03 -2.712611667811870575e-02 1.883661258034408092e-03 -3.093331754207611084e-01 2.844276372343301773e-03 -1.035368070006370544e-01 2.359663834795355797e-03 6.970570236444473267e-02 2.691636327654123306e-03 2.807621611282229424e-03 2.840828849002718925e-03 -4.479043930768966675e-02 2.454414032399654388e-03 2.139203948900103569e-03 -4.508589580655097961e-02 2.607702277600765228e-03 -6.333707273006439209e-02 -8.528618514537811279e-02 1.758558005094528198e-01 2.435648813843727112e-03 2.619744744151830673e-03 3.083912655711174011e-02 -1.679679304361343384e-01 1.269217431545257568e-01 2.475268580019474030e-02 2.875091275200247765e-03 -3.158187866210937500e-01 2.439346164464950562e-03 2.838781569153070450e-03 -1.545566022396087646e-01 2.932872623205184937e-03 2.843082416802644730e-03 3.302340209484100342e-02 1.828276901505887508e-03 2.737285802140831947e-03 -4.058134853839874268e-01 2.489542588591575623e-03 -4.133349061012268066e-01 2.647520042955875397e-02 -3.530593216419219971e-01 1.409607194364070892e-02 -1.040973812341690063e-01 2.233728999271988869e-03 -1.960923224687576294e-01 9.063537418842315674e-02 2.644887659698724747e-03 5.008183047175407410e-02 1.872502500191330910e-03 -1.364777386188507080e-01 -6.722217798233032227e-02 2.456218004226684570e-03 -1.812267154455184937e-01 -7.644865661859512329e-02 2.718352712690830231e-03 -1.433366239070892334e-01 2.831746591255068779e-03 1.928293262608349323e-03 2.919679973274469376e-03 1.441073231399059296e-02 2.223683288320899010e-03 1.561521203257143497e-03 -1.018234342336654663e-01 2.346841152757406235e-03 -6.307781487703323364e-02 -2.736132442951202393e-01 2.480164170265197754e-03 2.738508861511945724e-03 2.148578641936182976e-03 6.654543280601501465e-01 2.351257018744945526e-03 -8.860405534505844116e-02 -1.295919865369796753e-01 -1.125949770212173462e-01 2.364986343309283257e-03 1.709256786853075027e-03 2.350438013672828674e-02 4.544996842741966248e-02 2.346066059544682503e-03 -1.755171567201614380e-01 6.315067876130342484e-03 -3.614108562469482422e-01 2.761458745226264000e-03 2.586201764643192291e-03 2.433580579236149788e-03 2.545828232541680336e-03 -1.938193850219249725e-02 -1.068837866187095642e-01 2.962888451293110847e-03 2.543323440477252007e-03 2.877434482797980309e-03 2.553740050643682480e-03 2.781584858894348145e-03 -1.036995127797126770e-01 1.895044557750225067e-02 -4.608774930238723755e-02 2.734291600063443184e-03 2.890908857807517052e-03 2.272867364808917046e-03 3.129889816045761108e-02 2.970202360302209854e-03 -2.298554480075836182e-01 2.275528851896524429e-03 2.331226598471403122e-03 2.997593022882938385e-03 -6.808978319168090820e-02 -1.050542369484901428e-01 2.854443620890378952e-03 2.251242520287632942e-03 -4.189111888408660889e-01 -5.304376408457756042e-02 -2.106227725744247437e-02 -9.640246629714965820e-02 2.512597944587469101e-03 2.472215564921498299e-03 2.772437175735831261e-03 -1.595648378133773804e-01 -1.109664514660835266e-01 2.598918275907635689e-03 3.848809897899627686e-01 -1.698676645755767822e-01 -1.633991152048110962e-01 3.417013958096504211e-02 -9.822914004325866699e-01 -6.053066253662109375e-02 2.598841907456517220e-03 -8.048054575920104980e-02 2.194705419242382050e-03 2.910270588472485542e-03 -9.030328691005706787e-02 2.631956944242119789e-03 -1.059021353721618652e-01 2.702009398490190506e-03 2.474622102454304695e-03 1.815504860132932663e-03 -9.035166352987289429e-02 2.846596529707312584e-03 2.600887324661016464e-03 -1.321141421794891357e-01 2.614164492115378380e-03 -3.491184115409851074e-02 -4.140939116477966309e-01 1.673533814027905464e-03 9.588712453842163086e-02 -2.046908289194107056e-01 2.066559158265590668e-03 -1.000801473855972290e-01 -1.383485794067382812e-01 -3.569355979561805725e-02 2.489526756107807159e-03 1.389500051736831665e-01 -1.060030981898307800e-01 2.763072028756141663e-03 -1.863998472690582275e-01 2.956004347652196884e-03 2.441710093989968300e-03 2.296687569469213486e-03 1.574902795255184174e-02 2.561504021286964417e-03 2.508220029994845390e-03 1.478524878621101379e-03 5.341511592268943787e-02 3.240065276622772217e-02 1.524647930637001991e-03 2.561277942731976509e-03 -3.103482425212860107e-01 2.457138849422335625e-03 9.169319272041320801e-02 2.415569964796304703e-03 1.821516314521431923e-03 5.666491016745567322e-02 -7.218040525913238525e-02 -1.056416258215904236e-01 2.716156654059886932e-03 -8.447062224149703979e-02 2.612382173538208008e-03 2.789662918075919151e-03 2.922964980825781822e-03 2.907461021095514297e-03 2.972589572891592979e-03 -6.722539067268371582e-01 2.430708380416035652e-03 2.984468359500169754e-03 -5.340940505266189575e-02
