-6.154911220073699951e-02 1.188218477182090282e-03 2.196957124397158623e-03 2.107869600877165794e-03 -1.828717291355133057e-01 -8.304632455110549927e-02 2.294345060363411903e-03 -5.520602315664291382e-02 2.684288192540407181e-03 2.917893929407000542e-03 -7.661778479814529419e-02 -3.059498406946659088e-02 2.367152366787195206e-03 -5.962378159165382385e-02 2.935542725026607513e-03 2.586017549037933350e-01 -8.267176151275634766e-02 2.113035414367914200e-03 -2.890686392784118652e-01 -2.358326464891433716e-01 -1.151003241539001465e-01 2.613289048895239830e-03 1.716619590297341347e-03 2.386481501162052155e-03 2.691525267437100410e-03 -1.418136507272720337e-01 2.881280845031142235e-03 2.349996240809559822e-03 2.432055538520216942e-03 2.866924507543444633e-03 2.841964364051818848e-03 -8.884174376726150513e-02 -1.090746283531188965e+00 -1.387689262628555298e-01 2.437049755826592445e-03 2.538117347285151482e-03 2.122425241395831108e-03 2.976187737658619881e-03 9.421379119157791138e-02 2.053942298516631126e-03 2.496239496394991875e-03 1.579495519399642944e-02 -5.891256779432296753e-02 2.380102174356579781e-03 -1.217975094914436340e-01 2.914712764322757721e-03 2.105001360177993774e-03 2.960956189781427383e-03 2.566318726167082787e-03 -5.107276141643524170e-02 2.598982304334640503e-03 1.974777784198522568e-03 2.824885770678520203e-03 -1.134724318981170654e-01 5.177531838417053223e-01 1.843184349127113819e-03 2.996982308104634285e-03 2.705355873331427574e-03 -2.463789135217666626e-01 2.377555370330810547e-01 2.436948707327246666e-03 2.790176542475819588e-03 -6.354711949825286865e-02 2.837030682712793350e-03 -4.079111292958259583e-02 1.848211279138922691e-03 2.651581307873129845e-03 -1.301047056913375854e-01 2.886836184188723564e-03 -5.713621899485588074e-02 2.584623871371150017e-03 -2.678250372409820557e-01 2.775009721517562866e-03 2.698014723137021065e-03 -2.938079088926315308e-02 1.883729128167033195e-03 -1.168417930603027344e-01 2.844268456101417542e-03 -3.368207067251205444e-02 2.359621692448854446e-03 1.388303749263286591e-02 2.691628877073526382e-03 2.807773416861891747e-03 2.840853063389658928e-03 -2.519910931587219238e-01 2.455239417031407356e-03 2.139259129762649536e-03 8.636329323053359985e-03 2.607691101729869843e-03 1.029541566967964172e-01 4.130633771419525146e-01 6.324625760316848755e-02 2.436131471768021584e-03 2.619735663756728172e-03 -2.230923771858215332e-01 -5.885534733533859253e-02 -8.760543912649154663e-02 -1.439676433801651001e-01 2.875076374039053917e-03 -2.524071633815765381e-01 2.439325209707021713e-03 2.838835120201110840e-03 -1.098999902606010437e-01 2.932784846052527428e-03 2.842203481122851372e-03 1.771578490734100342e-01 1.828486216254532337e-03 2.737263916060328484e-03 -5.678063631057739258e-01 2.489901147782802582e-03 -1.061967387795448303e-02 -7.880501449108123779e-02 -2.837460637092590332e-01 5.083240196108818054e-02 -1.071037501096725464e-01 2.233906881883740425e-03 -2.651828527450561523e-01 7.846686989068984985e-02 2.644858323037624359e-03 1.139416359364986420e-02 1.872504828497767448e-03 -9.147451072931289673e-02 -2.478211373090744019e-01 2.456231508404016495e-03 -6.566253304481506348e-01 1.881711930036544800e-02 2.718337811529636383e-03 1.524719037115573883e-02 2.831798046827316284e-03 1.928289188072085381e-03 2.919682301580905914e-03 1.053201705217361450e-01 2.224314957857131958e-03 7.193352282047271729e-02 -5.107483267784118652e-01 2.346685854718089104e-03 -2.725505232810974121e-01 -1.905912756919860840e-01 2.480376046150922775e-03 2.738500246778130531e-03 2.148590050637722015e-03 -1.580086827743798494e-04 2.351235831156373024e-03 -1.554423570632934570e-01 -1.209207028150558472e-01 2.926691249012947083e-02 2.365338383242487907e-03 1.709242584183812141e-03 -1.261157263070344925e-02 -5.420016497373580933e-02 2.346097491681575775e-03 2.460644207894802094e-02 -2.750073373317718506e-01 -3.213991820812225342e-01 2.761492971330881119e-03 2.586187329143285751e-03 2.433593850582838058e-03 2.545919036492705345e-03 -1.429040879011154175e-01 -3.168784677982330322e-01 2.962896134704351425e-03 2.543344628065824509e-03 2.877510152757167816e-03 2.553764497861266136e-03 2.781614661216735840e-03 -9.864602684974670410e-01 -1.389476656913757324e-01 -2.670961618423461914e-01 2.734389156103134155e-03 2.891034120693802834e-03 2.272896235808730125e-03 -5.091530680656433105e-01 2.970190253108739853e-03 -1.351605653762817383e-01 2.275521168485283852e-03 2.331238472834229469e-03 2.997581614181399345e-03 5.673410892486572266e-01 -5.430841445922851562e-02 2.854740247130393982e-03 2.251381520181894302e-03 -2.222898304462432861e-01 4.379034787416458130e-02 -5.389686226844787598e-01 -1.289493590593338013e-01 2.512788632884621620e-03 2.472233958542346954e-03 2.770771505311131477e-03 -1.309496611356735229e-01 5.749453231692314148e-02 2.598985098302364349e-03 4.314668849110603333e-02 1.379511058330535889e-01 5.510681774467229843e-03 2.961505018174648285e-02 -1.152473315596580505e-01 -3.017941117286682129e-01 2.598818158730864525e-03 9.560519829392433167e-03 2.194713801145553589e-03 2.910275477916002274e-03 -1.029491499066352844e-01 2.632008399814367294e-03 3.077637776732444763e-02 2.701992169022560120e-03 2.474692650139331818e-03 1.815520925447344780e-03 -1.530132889747619629e-01 2.846550894901156425e-03 2.601087791845202446e-03 2.177520468831062317e-02 2.614168683066964149e-03 -9.672896936535835266e-03 -1.092691421508789062e+00 1.673516817390918732e-03 -2.012268602848052979e-01 1.988640241324901581e-02 2.066434128209948540e-03 -3.015334606170654297e-01 -2.195079438388347626e-02 -2.387110888957977295e-01 2.489496720954775810e-03 -8.139462023973464966e-02 -5.340523123741149902e-01 2.763134427368640900e-03 8.709351718425750732e-02 2.956188516691327095e-03 1.938937697559595108e-03 2.296681050211191177e-03 -3.479847013950347900e-01 2.561540575698018074e-03 2.508210949599742889e-03 1.478511258028447628e-03 -8.259254693984985352e-01 -2.457966282963752747e-02 1.524632098153233528e-03 2.561282599344849586e-03 -1.954946517944335938e-01 2.457287628203630447e-03 -6.483917236328125000e-01 2.415547147393226624e-03 1.821500831283628941e-03 -2.168181389570236206e-01 -9.450532495975494385e-02 1.164660230278968811e-02 2.716168528422713280e-03 -1.030174195766448975e-01 2.612662967294454575e-03 2.788290381431579590e-03 2.923131221905350685e-03 2.907451009377837181e-03 2.972683403640985489e-03 2.958600595593452454e-02 2.430832479149103165e-03 2.984435996040701866e-03 1.478330343961715698e-01
