2.852838486433029175e-02
-4.601317341439425945e-04
4.606206435710191727e-03
1.365778408944606781e-02
3.645106451585888863e-03
6.273321062326431274e-02
2.098488807678222656e-02
2.102943835780024529e-03
2.205172181129455566e-02
6.666842103004455566e-02
8.031211793422698975e-03
4.156238585710525513e-02
3.842242527753114700e-03
-1.603114418685436249e-02
-1.254435745067894459e-03
4.457567259669303894e-02
-8.565643802285194397e-03
-2.904148132074624300e-04
-2.617019042372703552e-02
-5.856046918779611588e-04
1.507605146616697311e-02
-3.896466642618179321e-02
4.533307510428130627e-04
7.510562427341938019e-03
-2.810426987707614899e-02
5.559888482093811035e-02
1.904895529150962830e-02
-2.129016356775537133e-04
2.030174247920513153e-03
2.487080171704292297e-02
5.972382053732872009e-02
1.750503107905387878e-02
1.032936573028564453e-02
2.446065191179513931e-03
3.084358945488929749e-02
3.368372097611427307e-02
2.111396752297878265e-02
-5.341700161807239056e-04
-4.283892631065100431e-04
7.934669964015483856e-03
2.994785457849502563e-02
3.376873210072517395e-02
3.557172417640686035e-02
5.398831143975257874e-02
-1.630413345992565155e-02
3.177906945347785950e-02
1.076017878949642181e-02
-1.068451558239758015e-03
2.538907527923583984e-02
1.030669640749692917e-02
1.902298256754875183e-02
1.441377773880958557e-02
-5.607835482805967331e-04
4.390246700495481491e-03
-3.712506731972098351e-04
2.758245728909969330e-02
-5.775901809101924300e-05
2.184374816715717316e-02
2.819355390965938568e-02
1.663464307785034180e-02
3.756871819496154785e-02
1.971563883125782013e-02
-6.348854862153530121e-03
-2.249919064342975616e-02
-2.501297928392887115e-02
4.029739275574684143e-02
-9.859544661594554782e-05
1.254487317055463791e-02
-3.113817074336111546e-04
2.842149883508682251e-02
-4.160263575613498688e-03
2.694931067526340485e-02
-6.292656064033508301e-03
5.916589405387639999e-03
-3.128997341264039278e-04
1.835928484797477722e-02
-3.197638434357941151e-04
2.275358652696013451e-03
-2.356438199058175087e-04
6.196914706379175186e-03
4.994865506887435913e-03
2.874010615050792694e-02
3.950150683522224426e-02
-2.264141512569040060e-04
2.624123543500900269e-02
1.772127673029899597e-02
1.414669025689363480e-02
-1.057555899024009705e-03
3.299535065889358521e-02
4.838176444172859192e-02
9.225261397659778595e-03
1.553150545805692673e-02
3.368123993277549744e-02
4.141680896282196045e-03
3.111394308507442474e-02
-3.441025502979755402e-03
-7.243016152642667294e-04
-1.322614122182130814e-02
-5.683042691089212894e-04
-6.121968850493431091e-03
9.070317260921001434e-03
-3.730332851409912109e-02
-3.611544088926166296e-04
-5.304876249283552170e-04
1.516713760793209076e-02
4.541667923331260681e-02
-8.692027069628238678e-03
-8.092269999906420708e-04
8.526578545570373535e-03
-5.908959428779780865e-04
-1.385863870382308960e-02
-2.816080581396818161e-03
-2.381693758070468903e-02
-1.025625411421060562e-02
2.640940481796860695e-03
1.832482591271400452e-02
7.186025381088256836e-03
1.857772842049598694e-02
3.134642168879508972e-02
1.562533713877201080e-02
-6.142325000837445259e-04
2.550887875258922577e-02
1.266624080017209053e-03
4.190018400549888611e-02
1.023679692298173904e-02
4.124284256249666214e-03
1.311008259654045105e-02
-7.533635362051427364e-04
1.144381053745746613e-02
8.330037817358970642e-03
-1.018402725458145142e-02
3.713084384799003601e-02
4.330775514245033264e-02
1.609025336802005768e-02
3.443849086761474609e-02
-5.944086587987840176e-04
7.211921270936727524e-03
3.083856776356697083e-02
2.131582237780094147e-02
3.571533598005771637e-03
1.864679343998432159e-02
-5.242193001322448254e-04
6.146140769124031067e-02
-6.065754569135606289e-04
1.637373678386211395e-02
4.463674128055572510e-02
4.460001736879348755e-02
2.410006127320230007e-04
2.214774675667285919e-02
6.302397698163986206e-02
-1.250148657709360123e-02
-1.623895019292831421e-02
1.334169600158929825e-02
-6.832851795479655266e-04
2.055017836391925812e-02
1.443960145115852356e-02
3.651507571339607239e-02
-1.035721579683013260e-04
-1.139346510171890259e-02
8.306413888931274414e-03
2.000081725418567657e-02
-6.184947211295366287e-03
1.064577605575323105e-02
-1.005064975470304489e-02
-2.242945134639739990e-02
2.796227112412452698e-02
1.488765515387058258e-02
4.426480270922183990e-03
-1.879037939943373203e-03
-1.988627191167324781e-04
1.519408822059631348e-02
-3.835410345345735550e-03
2.779840119183063507e-02
1.638768799602985382e-02
-1.357182918582111597e-04
9.290617890655994415e-03
1.593737117946147919e-02
-3.172443248331546783e-04
5.189942661672830582e-03
1.162049919366836548e-02
4.172908887267112732e-02
1.099582482129335403e-02
-1.304046716541051865e-02
9.043560363352298737e-03
8.174560032784938812e-03
-3.835137235000729561e-03
4.020785167813301086e-02
-1.474479446187615395e-03
-4.994930932298302650e-04
1.657934114336967468e-02
3.275279328227043152e-02
1.746541471220552921e-03
1.090307347476482391e-02
6.082876026630401611e-02
4.894367977976799011e-02
4.423113714437931776e-04
3.841430693864822388e-02
2.448183018714189529e-03
2.508021146059036255e-02
1.856440119445323944e-02
2.954055182635784149e-02
-4.469757841434329748e-04
1.190611161291599274e-02
2.938645333051681519e-02
1.412985101342201233e-02
-4.054969467688351870e-04
1.459470298141241074e-02
1.102953217923641205e-02
2.169158868491649628e-02
4.195316135883331299e-02
4.511147737503051758e-02
-1.231117872521281242e-03
2.567315474152565002e-02
5.224097520112991333e-03
1.272971741855144501e-02
1.125200558453798294e-02
1.100815087556838989e-02
3.015758842229843140e-02
-5.597789306193590164e-03
-3.183717140927910805e-03
2.708493731915950775e-02
1.081492099910974503e-02
5.706124380230903625e-02
-7.488272967748343945e-04
8.678996935486793518e-03
3.361249400768429041e-04
3.998803719878196716e-02
-5.333017092198133469e-03
-1.328834053128957748e-02
-3.015501610934734344e-02
-5.528594483621418476e-04
3.186207031831145287e-03
1.835647155530750751e-03
-3.887115977704524994e-03
1.288047991693019867e-02
-7.289496250450611115e-03
5.807703360915184021e-03
8.095758967101573944e-03
1.858115009963512421e-02
3.595245629549026489e-02
-2.783947857096791267e-04
3.403136506676673889e-02
-2.144247852265834808e-02
-5.999872228130698204e-04
-3.969921381212770939e-04
5.999556160531938076e-04
3.343313187360763550e-02
3.626794368028640747e-02
1.137069519609212875e-02
2.030661562457680702e-03
1.210596039891242981e-02
1.169183989986777306e-03
1.351419463753700256e-02
8.727125823497772217e-03
3.767708316445350647e-02
6.432641297578811646e-03
