2.495693042874336243e-03 2.993062371388077736e-03 2.212079707533121109e-03 -1.850106269121170044e-01 3.245529532432556152e-02 1.857907976955175400e-03 -3.399103581905364990e-01 2.810138044878840446e-03 2.804672811180353165e-03 -1.767801493406295776e-01 -1.462291032075881958e-01 2.252243459224700928e-03 -1.564692109823226929e-01 2.154116285964846611e-03 2.490672981366515160e-03 2.300596795976161957e-03 -1.607233285903930664e-01 2.908349735662341118e-03 -1.066828742623329163e-01 2.645534090697765350e-02 2.450039377436041832e-03 2.762352349236607552e-03 2.084289910271763802e-03 2.707970328629016876e-03 6.152910366654396057e-02 2.354762982577085495e-03 2.620946615934371948e-03 -5.709926411509513855e-02 -5.922808870673179626e-02 -4.067557454109191895e-01 -4.810423776507377625e-02 -1.444464474916458130e-01 2.822918351739645004e-03 -3.934372365474700928e-01 2.086927881464362144e-03 -8.922319412231445312e-01 2.325869398191571236e-03 3.363597020506858826e-02 2.823518589138984680e-03 -5.960710346698760986e-02 2.552609657868742943e-03 -1.497959941625595093e-01 -6.253062933683395386e-02 9.910720400512218475e-04 -1.184822320938110352e-01 1.404889672994613647e-02 -5.110413953661918640e-02 2.800117013975977898e-03 2.692120522260665894e-02 -1.903437077999114990e-01 2.967300824820995331e-03 2.873049583286046982e-03 2.470688894391059875e-02 2.605983987450599670e-03 -7.704422622919082642e-02 2.476754365488886833e-03 2.574241254478693008e-03 -2.062599062919616699e-01 1.826364663429558277e-03 1.755318022333085537e-03 -2.881737425923347473e-02 -7.285165041685104370e-02 2.463407116010785103e-03 2.213829159736633301e-01 6.285075843334197998e-02 2.921970095485448837e-03 -8.929518610239028931e-02 -1.817476600408554077e-01 2.441702643409371376e-03 1.924667274579405785e-03 2.711727982386946678e-03 5.219112709164619446e-02 2.551752375438809395e-03 3.392533212900161743e-02 2.502185292541980743e-03 1.992386765778064728e-03 -4.366533085703849792e-02 2.593167126178741455e-03 4.947916418313980103e-02 2.202466130256652832e-03 -7.508806884288787842e-02 -5.904218181967735291e-02 1.368593773804605007e-03 2.519151661545038223e-03 2.928900066763162613e-03 2.231261925771832466e-03 -2.945513129234313965e-01 2.989798551425337791e-03 2.497301902621984482e-03 2.693954389542341232e-03 2.514585852622985840e-03 -2.260425128042697906e-02 2.198781352490186691e-03 -4.402417317032814026e-02 -8.864931017160415649e-02 2.679527970030903816e-03 1.221462734974920750e-03 2.469849539920687675e-03 -3.048340976238250732e-01 2.959345467388629913e-02 2.207556273788213730e-03 -1.434097182936966419e-03 -1.182744577527046204e-01 -1.207286957651376724e-02 2.560041844844818115e-03 2.400714205577969551e-03 -5.758803486824035645e-01 2.268231241032481194e-03 -1.990278363227844238e-01 4.412009939551353455e-02 2.358739729970693588e-03 -1.418116390705108643e-01 2.634654520079493523e-03 4.849586635828018188e-02 -2.019889205694198608e-01 3.305025398731231689e-02 2.395647577941417694e-03 3.407353535294532776e-02 -2.282091975212097168e-01 -3.646972179412841797e-01 2.843102440237998962e-03 -1.780755668878555298e-01 2.814460545778274536e-03 1.338705071248114109e-03 5.335132777690887451e-02 2.537125954404473305e-03 -3.369601964950561523e-01 4.253843799233436584e-02 -2.286992222070693970e-01 2.590300748124718666e-03 -4.429667890071868896e-01 2.037884667515754700e-03 2.602295950055122375e-03 2.409174572676420212e-03 1.984184533357620239e-01 2.648176159709692001e-03 -8.239372819662094116e-02 9.471742808818817139e-02 2.832136582583189011e-03 2.304742578417062759e-03 1.751503907144069672e-03 7.480658241547644138e-04 -4.196948558092117310e-02 2.409440232440829277e-03 1.815959112718701363e-03 2.629356691613793373e-03 2.213530009612441063e-03 2.571588382124900818e-03 -2.503479719161987305e-01 5.988787859678268433e-02 -2.330071032047271729e-01 1.667827181518077850e-02 2.507183467969298363e-03 2.822392852976918221e-03 2.932673087343573570e-03 5.936576426029205322e-02 -1.888936758041381836e-01 2.992113353684544563e-03 -2.032414525747299194e-01 2.530790166929364204e-03 2.901040017604827881e-03 2.966043306514620781e-03 2.653539180755615234e-03 2.880047308281064034e-03 -1.458173096179962158e-01 -3.786441385746002197e-01 -3.343890309333801270e-01 2.753709908574819565e-03 3.582805395126342773e-02 2.583283698186278343e-03 -7.662262022495269775e-02 -3.726066052913665771e-01 -4.712443426251411438e-02 1.856077578850090504e-03 -6.477572768926620483e-02 2.188506536185741425e-03 5.116940140724182129e-01 -3.366383910179138184e-01 -1.870889663696289062e-01 2.464179415255784988e-03 2.513910410925745964e-03 2.839593682438135147e-03 2.258524764329195023e-03 -4.110695794224739075e-02 -3.041047155857086182e-01 2.862559072673320770e-02 2.468493301421403885e-03 5.382567271590232849e-02 2.611184259876608849e-03 2.050915034487843513e-03 2.619345206767320633e-03 -4.740717634558677673e-02 2.913842443376779556e-03 2.560417866334319115e-03 -4.325964674353599548e-02 7.354527711868286133e-02 2.302736043930053711e-03 -1.940112411975860596e-01 5.652923509478569031e-02 -9.594140946865081787e-02 2.212446182966232300e-03 2.852910896763205528e-03 -3.004373013973236084e-01 2.934847027063369751e-03 -5.775075033307075500e-02 2.807371784001588821e-03 2.492185449227690697e-03 2.773858373984694481e-03 -6.887833476066589355e-01 8.051332086324691772e-03 2.389574656262993813e-03 2.907709218561649323e-03 2.317729173228144646e-03 -2.956787869334220886e-02 -1.092680320143699646e-01 -2.921030819416046143e-01 -1.812486499547958374e-01 -1.919192820787429810e-01 -5.849469080567359924e-02 -1.244868487119674683e-01 2.134148031473159790e-03 2.682814374566078186e-03 -8.977688103914260864e-02 1.627628207206726074e-01 4.857524111866950989e-02 2.780863642692565918e-02 -6.556656211614608765e-02 1.897028996609151363e-03 2.574719022959470749e-03 -8.891763091087341309e-01 6.902184337377548218e-02 -8.289150148630142212e-02 6.627033650875091553e-02 6.302800774574279785e-02 -2.630262970924377441e-01 2.971073612570762634e-02 5.693460628390312195e-02 -6.680628657341003418e-02 -1.384028047323226929e-01 -6.782048940658569336e-02 -6.574054807424545288e-02 2.316467696800827980e-03 1.883332151919603348e-03 2.983167767524719238e-03 2.590961288660764694e-03 2.573128789663314819e-03 1.714781075716018677e-01 2.760630100965499878e-03 2.326777204871177673e-02 2.354990458115935326e-03 1.868680352345108986e-03 -4.328461363911628723e-02 -6.250300407409667969e-01 2.697203541174530983e-03 -1.132173612713813782e-01 7.541086524724960327e-02
