-2.497650310397148132e-02 1.231559552252292633e-02 -1.634049415588378906e-02 5.786588415503501892e-03 2.052026800811290741e-02 -4.641130194067955017e-02 1.812626793980598450e-02 1.962978020310401917e-02 -1.573981158435344696e-02 -6.370674818754196167e-03 -1.956809870898723602e-02 -1.467860955744981766e-02 -2.376725152134895325e-02 4.711152054369449615e-03 -1.524567510932683945e-02 -4.421265795826911926e-03 -1.001346297562122345e-02 -3.353798389434814453e-02 -3.499414771795272827e-02 2.668584510684013367e-02 2.034825272858142853e-02 1.699496293440461159e-03 -5.025783088058233261e-03 -1.270301360636949539e-02 2.115911804139614105e-02 -2.228990942239761353e-02 2.541943080723285675e-02 4.465625435113906860e-02 8.428136818110942841e-03 3.674037288874387741e-03 -2.851066819857805967e-04 -4.628958180546760559e-02 4.137630760669708252e-02 2.054700255393981934e-02 -2.956471592187881470e-02 -4.480065777897834778e-02 1.169150974601507187e-02 -2.578265219926834106e-02 1.058541145175695419e-02 -1.492459792643785477e-02 5.126832984387874603e-03 1.939512044191360474e-02 -4.739144071936607361e-02 1.524655614048242569e-02 1.969860121607780457e-02 -1.377251185476779938e-02 -5.408016964793205261e-03 -1.989673450589179993e-02 -1.518629305064678192e-02 -1.982861757278442383e-02 2.935910131782293320e-03 -1.424761302769184113e-02 -2.048182999715209007e-03 -1.035667397081851959e-02 -3.226546943187713623e-02 -3.101528808474540710e-02 1.805567927658557892e-02 1.224318984895944595e-02 1.603916287422180176e-02 -1.063844840973615646e-02 -1.961375772953033447e-02 2.476566471159458160e-02 -1.909658499062061310e-02 1.334486715495586395e-02 4.547061771154403687e-02 8.737808093428611755e-03 2.659187652170658112e-03 1.618156675249338150e-04 -4.410890117287635803e-02 4.245958104729652405e-02 1.396923977881669998e-02 -3.331767395138740540e-02 -4.693207889795303345e-02 6.328752264380455017e-03 -2.689583227038383484e-02 8.846622891724109650e-03 -1.731569133698940277e-02 5.241231527179479599e-03 2.044185250997543335e-02 -4.808432608842849731e-02 1.280906982719898224e-02 1.997020281851291656e-02 -1.151070743799209595e-02 -3.618822665885090828e-03 -1.973318867385387421e-02 -1.595073565840721130e-02 -1.819597184658050537e-02 2.380253747105598450e-03 -1.308214757591485977e-02 -9.453808306716382504e-04 -7.855675183236598969e-03 -3.052500821650028229e-02 -3.285794705152511597e-02 1.505672559142112732e-02 4.315690137445926666e-03 1.768248900771141052e-02 -1.184785179793834686e-02 -1.916398294270038605e-02 2.303550019860267639e-02 -1.218070182949304581e-02 6.539334543049335480e-03 4.549965262413024902e-02 9.857641533017158508e-03 4.238064866513013840e-03 -3.256582131143659353e-04 -4.093024879693984985e-02 4.114964231848716736e-02 2.291705459356307983e-02 -2.954118698835372925e-02 -6.695109605789184570e-02 1.383271906524896622e-02 -2.939154766499996185e-02 7.051716558635234833e-03 -1.741512864828109741e-02 5.379263777285814285e-03 1.914271339774131775e-02 -4.814023897051811218e-02 9.538354352116584778e-03 2.001433447003364563e-02 -1.093591563403606415e-02 -2.182075288146734238e-03 -1.895267143845558167e-02 -1.577977649867534637e-02 -1.571090519428253174e-02 -8.916048682294785976e-05 -1.379912160336971283e-02 -1.343887764960527420e-03 -9.328263811767101288e-03 -3.118970617651939392e-02 -3.330985829234123230e-02 1.774002425372600555e-02 1.585067808628082275e-02 1.493223197758197784e-02 -1.121502928435802460e-02 -1.310349069535732269e-02 2.028127387166023254e-02 -4.283254966139793396e-03 1.839874428696930408e-03 4.731935262680053711e-02 1.004656590521335602e-02 3.358553396537899971e-03 -2.323899243492633104e-04 -3.993814066052436829e-02 3.414895012974739075e-02 2.889084070920944214e-02 -2.309180796146392822e-02 -6.122261285781860352e-02 7.822297513484954834e-03 -3.070298396050930023e-02 5.876807030290365219e-03 -1.150336768478155136e-02 3.436192870140075684e-03 1.838959939777851105e-02 -4.803589358925819397e-02 6.667488720268011093e-03 2.069066464900970459e-02 -8.769922889769077301e-03 -8.422893588431179523e-04 -1.997288130223751068e-02 -1.577912829816341400e-02 -1.503256428986787796e-02 -3.932622785214334726e-04 -1.361812185496091843e-02 -1.445104554295539856e-02 -1.260837726294994354e-02 -2.733880095183849335e-02 -3.880682587623596191e-02 1.835199445486068726e-02 1.918968185782432556e-02 1.050143386237323284e-03 -1.903852820396423340e-02 -8.890846744179725647e-03 1.652799919247627258e-02 1.111176889389753342e-02 1.300137490034103394e-02 4.972835630178451538e-02 9.492807090282440186e-03 4.593305289745330811e-03 -1.691710203886032104e-04 -3.769720718264579773e-02 3.452410176396369934e-02 2.561763487756252289e-02 -3.238632529973983765e-02 -5.752350389957427979e-02 2.425395138561725616e-02 -3.274629637598991394e-02 4.580601584166288376e-03 -8.957669138908386230e-03 3.467277158051729202e-03 1.911949925124645233e-02 -4.771118611097335815e-02 3.599663265049457550e-03 2.041851170361042023e-02 -4.428080283105373383e-03 -9.725254494696855545e-04 -1.833955571055412292e-02 -1.531791966408491135e-02 -1.380256470292806625e-02 -1.297379494644701481e-03 -1.362551841884851456e-02 -3.399895504117012024e-03 -1.119851134717464447e-02 -3.004109673202037811e-02 -4.040280729532241821e-02 1.988288387656211853e-02 2.617380209267139435e-02 3.163658780977129936e-03 -1.753160171210765839e-02 -1.393954642117023468e-02 9.329663589596748352e-03 3.834010334685444832e-03 7.821156643331050873e-03 5.181667208671569824e-02 9.815993718802928925e-03 3.182296175509691238e-03 8.823215030133724213e-04 -3.709777817130088806e-02 2.869617566466331482e-02 2.806127071380615234e-02 -2.625575847923755646e-02 -5.328251421451568604e-02 2.475063502788543701e-02 -3.515838459134101868e-02 4.370278678834438324e-03 -3.891259431838989258e-03 1.660124631598591805e-03 1.998285576701164246e-02 -4.872129112482070923e-02 -1.078424742445349693e-03 1.964806951582431793e-02 -7.444671937264502048e-04 9.337570518255233765e-04 -1.959160529077053070e-02 -1.506205089390277863e-02 -1.314450614154338837e-02 -1.416296232491731644e-03 -1.383243687450885773e-02 -2.890056930482387543e-03 -1.710518263280391693e-02 -3.133028000593185425e-02 -4.664762690663337708e-02 1.482859160751104355e-02 2.649516798555850983e-02 3.176921047270298004e-03 -1.355765853077173233e-02 -1.412196364253759384e-02 5.968472454696893692e-03 6.057334598153829575e-03 5.094386637210845947e-03 5.387991666793823242e-02 8.111216127872467041e-03 3.639616072177886963e-03 -1.069083300535567105e-04 -3.693671897053718567e-02 2.911229245364665985e-02 2.456381544470787048e-02 -2.733826078474521637e-02 -3.820136934518814087e-02 1.717373915016651154e-02 -3.614313900470733643e-02 5.339261144399642944e-03 -2.936462988145649433e-04 8.059538668021559715e-04 1.996772363781929016e-02 -4.883808270096778870e-02 -4.603425506502389908e-03 1.930968649685382843e-02 2.040743827819824219e-03 -9.357435919810086489e-05 -1.780702732503414154e-02 -1.508520822972059250e-02 -1.430204696953296661e-02 -1.489653950557112694e-03 -1.349802967160940170e-02 -1.674804720096290112e-03 -3.152158576995134354e-03 -3.222024440765380859e-02 -4.331680387258529663e-02 1.335811149328947067e-02 2.709666639566421509e-02 1.272892765700817108e-02 -1.101037953048944473e-02 -9.700750932097434998e-03 -1.157085411250591278e-03 7.471147459000349045e-03 9.908378124237060547e-03 5.554198473691940308e-02 8.140115067362785339e-03 4.198024515062570572e-03 3.538439341355115175e-04 -3.609701991081237793e-02 2.622703462839126587e-02 1.142834406346082687e-02 -3.841286525130271912e-02 -3.578677773475646973e-02 9.356927126646041870e-03 -3.909027576446533203e-02 7.486331742256879807e-03 2.411802532151341438e-03 9.648493141867220402e-04 1.843659579753875732e-02 -4.835489019751548767e-02 -8.922623470425605774e-03 1.818462461233139038e-02 5.961881484836339951e-03 1.229561050422489643e-03 -1.880401186645030975e-02 -1.388176903128623962e-02 -1.522552780807018280e-02 -2.385466126725077629e-03 -1.313839666545391083e-02 1.191016193479299545e-02 1.867015263997018337e-03 -3.253103792667388916e-02 -3.669383376836776733e-02 4.852341488003730774e-03 3.438811004161834717e-02 1.551076862961053848e-02 -1.439880393445491791e-02 -1.207052543759346008e-02 -1.656912080943584442e-02 4.843186587095260620e-03 1.491356175392866135e-02 5.759898945689201355e-02 7.113349158316850662e-03 3.246485954150557518e-03 3.171617208863608539e-05 -3.687940910458564758e-02 2.109985426068305969e-02 7.728784345090389252e-03 -3.017546609044075012e-02 -1.872000470757484436e-02 1.796580478549003601e-02 -4.030689969658851624e-02 1.057582348585128784e-02 9.792158380150794983e-03 2.585537498816847801e-03 1.882499083876609802e-02 -4.807049036026000977e-02 -1.375708822160959244e-02 1.548286061733961105e-02 9.401976130902767181e-03 2.103462582454085350e-03 -1.837079599499702454e-02 -1.475981716066598892e-02 -1.649788394570350647e-02 -2.069880953058600426e-03 -1.198848895728588104e-02 3.035835921764373779e-02 -1.391555066220462322e-03 -3.365649282932281494e-02 -4.757900163531303406e-02 -1.183774787932634354e-03 2.263892069458961487e-02 1.659707166254520416e-02 -1.066743023693561554e-02 -2.225375734269618988e-02 -1.021361071616411209e-02 8.209886960685253143e-03 1.926141232252120972e-02 6.130817905068397522e-02 5.233009811490774155e-03 4.199516493827104568e-03 -1.230745343491435051e-03 -3.750862181186676025e-02 2.016645111143589020e-02 -5.837307777255773544e-03 -3.306212276220321655e-02 -1.571612246334552765e-02 1.994243822991847992e-02 3.328848630189895630e-02 -3.501260187476873398e-03 8.690631948411464691e-03 -1.167222391813993454e-02 -1.907002367079257965e-02 -1.450780872255563736e-02 7.773242425173521042e-03 1.314913947135210037e-02 -1.311489846557378769e-03 3.834000974893569946e-02 1.269099488854408264e-02 -1.400995627045631409e-02 -8.727070875465869904e-03 1.871526055037975311e-02 -4.238080698996782303e-03 -1.572273322381079197e-04 1.471174065954983234e-03 -8.280799724161624908e-03 -1.515802554786205292e-02 -6.794626824557781219e-03 1.434986945241689682e-02 -5.576675292104482651e-03 2.019447833299636841e-02 1.038457266986370087e-02 -1.031712535768747330e-02 -1.432253979146480560e-02 -1.522198971360921860e-02 3.022620454430580139e-03 1.733911968767642975e-02 4.139991942793130875e-03 -6.494349334388971329e-03 4.246802069246768951e-03 -1.996567472815513611e-02 1.522997394204139709e-02 -1.205680333077907562e-02 2.587137185037136078e-02 1.344566047191619873e-02 -1.834874041378498077e-02 -1.924905336636584252e-05 1.875698380172252655e-02 -1.031396817415952682e-02 1.409029401838779449e-02 2.578884304966777563e-04 -1.026543136686086655e-02 -8.841248229146003723e-03 -8.068165741860866547e-03 1.664111763238906860e-02 -1.066127140074968338e-02 2.195099368691444397e-02 2.037536911666393280e-02 -5.889037624001502991e-03 1.341230701655149460e-03 8.862992981448769569e-04 -8.672717958688735962e-03 5.431530065834522247e-03 1.273389626294374466e-02 7.323418976739048958e-04 5.690158577635884285e-04 9.687935933470726013e-03 3.380493028089404106e-03 -1.544863916933536530e-02 1.514641009271144867e-02 2.178583992645144463e-03 -2.039424702525138855e-02 -7.776504382491111755e-03 2.624773047864437103e-02 -1.849844492971897125e-02 2.024943567812442780e-02 1.570449769496917725e-02 4.153023939579725266e-03 9.915820322930812836e-03 2.278039418160915375e-02 9.149624034762382507e-03 -7.168606854975223541e-03 1.112085487693548203e-02 -1.253811758942902088e-03 -1.951930485665798187e-02 2.060732338577508926e-03 7.038263604044914246e-03 3.997708670794963837e-03 1.320415642112493515e-02 4.850058257579803467e-02 1.041254028677940369e-02 -1.047985814511775970e-02 5.744314286857843399e-03 -3.007258521392941475e-03 -1.771013252437114716e-02 1.128877792507410049e-02 -1.128520071506500244e-02 -1.804176531732082367e-02 -2.525037853047251701e-03 2.411715686321258545e-02 -1.536026038229465485e-02 -1.099797803908586502e-02 4.900917038321495056e-02 -1.043741870671510696e-02 -2.140697464346885681e-02 -1.367036253213882446e-03 -1.701457542367279530e-03 -6.423222832381725311e-03 4.748612176626920700e-03 -1.193734537810087204e-02 -2.005389705300331116e-02 -1.126709114760160446e-02 -1.490179542452096939e-02 7.887373678386211395e-03 1.165549643337726593e-02 5.148021131753921509e-02 1.258229929953813553e-02 -1.389223895967006683e-02 -1.457368861883878708e-02 -8.600497618317604065e-03 -3.722183778882026672e-02 4.908330272883176804e-03 1.810013432987034321e-03 -1.551482919603586197e-02 -2.567765675485134125e-02
-1.420529908500611782e-03 -7.886640727519989014e-03 1.040965900756418705e-03 1.146108284592628479e-02 3.534884424880146980e-03 2.392771095037460327e-02 -1.422065589576959610e-02 -1.025586947798728943e-02 3.611224237829446793e-04 7.838063873350620270e-03 2.704967511817812920e-03 1.276167854666709900e-02 -2.832166850566864014e-02 -3.498443169519305229e-03 -2.216832153499126434e-02 4.946991801261901855e-03 4.227077588438987732e-03 -2.402638085186481476e-03 7.160861976444721222e-03 -1.455140579491853714e-02 -6.057365331798791885e-03 -2.165127079933881760e-03 -9.751825709827244282e-04 8.152754977345466614e-03 -1.203847117722034454e-03 1.551225222647190094e-02 1.140809524804353714e-02 5.297617986798286438e-03 8.724831975996494293e-03 -1.150052901357412338e-02 -5.829576402902603149e-04 5.993833392858505249e-02 1.614964939653873444e-02 6.578432768583297729e-02 -1.495120377512648702e-04 6.842493312433362007e-04 4.961654078215360641e-03 -2.829054836183786392e-03 -7.020805962383747101e-03 2.179800067096948624e-03 1.092584896832704544e-02 3.431620541960000992e-03 2.282338775694370270e-02 -1.311820000410079956e-02 -1.113015599548816681e-02 1.250542700290679932e-04 7.117914501577615738e-03 2.794866682961583138e-03 1.232592854648828506e-02 -2.891173772513866425e-02 -3.533243434503674507e-03 -2.093219570815563202e-02 1.125966315157711506e-03 6.578950677067041397e-03 -4.660401493310928345e-03 7.327213883399963379e-03 -1.403335109353065491e-02 -6.034293328411877155e-04 -4.866859409958124161e-03 -1.837824820540845394e-03 1.098048407584428787e-02 -4.071426112204790115e-03 6.572223268449306488e-03 1.652066223323345184e-02 7.282921113073825836e-03 9.348242543637752533e-03 -1.132751721888780594e-02 3.836514370050281286e-04 6.216168403625488281e-02 1.324719283729791641e-02 7.138486206531524658e-02 4.256920423358678818e-03 1.303490903228521347e-02 6.202412303537130356e-03 -9.963412303477525711e-04 -2.833022736012935638e-03 -5.859177326783537865e-05 1.158798765391111374e-02 4.828359000384807587e-03 2.264197729527950287e-02 -1.319200638681650162e-02 -1.217503286898136139e-02 6.017103441990911961e-04 7.563004735857248306e-03 2.869464689865708351e-03 1.469012442976236343e-02 -3.061871044337749481e-02 -2.830134937539696693e-03 -2.100795321166515350e-02 6.636103615164756775e-03 3.775745630264282227e-03 -5.861748941242694855e-03 1.247110497206449509e-02 -1.253016851842403412e-02 -1.150231226347386837e-03 5.512574221938848495e-03 -8.009201847016811371e-03 1.095433998852968216e-02 -4.430211614817380905e-03 7.807020447216928005e-04 2.778760530054569244e-02 9.418084286153316498e-03 1.062848512083292007e-02 -1.047454960644245148e-02 5.028425948694348335e-04 6.969711184501647949e-02 1.184375677257776260e-02 7.608892768621444702e-02 1.387860532850027084e-02 1.878620684146881104e-02 -6.406804081052541733e-03 -4.824546704185195267e-05 5.485518486239016056e-04 -7.964887190610170364e-04 1.067249756306409836e-02 4.094665870070457458e-03 2.259769849479198456e-02 -1.279372163116931915e-02 -1.297270227223634720e-02 -6.682651583105325699e-04 7.785174529999494553e-03 1.384029630571603775e-03 1.419990789145231247e-02 -3.086965344846248627e-02 -3.619443159550428391e-03 -1.962430030107498169e-02 -2.647880464792251587e-03 9.426804259419441223e-03 -7.328663486987352371e-03 8.682090789079666138e-03 -9.620866738259792328e-03 -8.305605151690542698e-04 2.975558396428823471e-03 -1.342814229428768158e-02 9.050427936017513275e-03 2.680271398276090622e-03 -5.114153958857059479e-03 1.635466516017913818e-02 1.314004696905612946e-02 1.161937694996595383e-02 -1.147163659334182739e-02 9.144626528723165393e-05 7.310232520103454590e-02 1.603620499372482300e-02 7.207856327295303345e-02 2.491893805563449860e-02 3.836797922849655151e-02 -3.692669328302145004e-03 1.407225499860942364e-03 8.618302643299102783e-03 -2.412469126284122467e-03 9.618935175240039825e-03 5.989350378513336182e-03 2.204377762973308563e-02 -1.289869192987680435e-02 -1.274143438786268234e-02 4.190071485936641693e-04 7.880290970206260681e-03 8.234393899329006672e-04 1.446004118770360947e-02 -3.022648021578788757e-02 -5.015356000512838364e-03 -1.912352442741394043e-02 -5.652768537402153015e-03 9.236541576683521271e-03 -7.958803325891494751e-03 9.108136408030986786e-03 -9.983644820749759674e-03 7.411079131998121738e-04 -4.709638655185699463e-03 -9.410183876752853394e-03 1.118616387248039246e-02 5.295382812619209290e-03 -1.325164642184972763e-02 1.475252211093902588e-02 1.590584591031074524e-02 1.164553780108690262e-02 -1.146342884749174118e-02 -1.104857074096798897e-03 7.703900337219238281e-02 1.645539514720439911e-02 7.256405055522918701e-02 2.011483535170555115e-02 4.450862854719161987e-02 -1.507533062249422073e-02 2.883069915696978569e-03 1.497890707105398178e-02 -1.017933245748281479e-02 1.012874580919742584e-02 5.817695520818233490e-03 2.122810110449790955e-02 -1.234038081020116806e-02 -1.403559651225805283e-02 1.295553811360150576e-04 7.130640558898448944e-03 -2.675323630683124065e-04 1.429873518645763397e-02 -3.163282945752143860e-02 -5.693542305380105972e-03 -1.794550940394401550e-02 2.398265292868018150e-03 4.894759971648454666e-03 -6.638052873313426971e-03 1.214711647480726242e-02 -8.831486105918884277e-03 2.670119982212781906e-03 1.252578804269433022e-03 -1.919584907591342926e-02 1.339650526642799377e-02 2.184120239689946175e-03 -2.206301502883434296e-02 2.012337930500507355e-02 1.915771886706352234e-02 1.253678556531667709e-02 -1.067036297172307968e-02 2.774635686364490539e-05 8.455657958984375000e-02 1.490110717713832855e-02 8.036300539970397949e-02 2.757734060287475586e-02 4.459399729967117310e-02 -3.454283624887466431e-02 4.103653598576784134e-03 2.208071202039718628e-02 -1.633597724139690399e-02 9.616136550903320312e-03 5.519808735698461533e-03 2.040828391909599304e-02 -1.242187432944774628e-02 -1.396081317216157913e-02 3.429476346354931593e-04 8.216219022870063782e-03 -1.007418613880872726e-03 1.512975525110960007e-02 -3.169571608304977417e-02 -6.844348274171352386e-03 -1.709656044840812683e-02 2.159790456062182784e-04 3.245686180889606476e-03 -5.147099494934082031e-03 7.299230434000492096e-03 -8.891101926565170288e-03 7.378699374385178089e-04 -3.813078394159674644e-03 -2.715113945305347443e-02 1.451205648481845856e-02 2.749679842963814735e-04 -3.468840941786766052e-02 1.778952777385711670e-02 2.220674790441989899e-02 1.328869909048080444e-02 -1.081152539700269699e-02 6.657006451860070229e-05 8.963880687952041626e-02 1.679134555160999298e-02 7.759957015514373779e-02 4.182587191462516785e-02 4.856728017330169678e-02 -1.821615546941757202e-02 7.112973369657993317e-03 3.053408116102218628e-02 -2.320543862879276276e-02 9.652190841734409332e-03 6.017000880092382431e-03 2.016910910606384277e-02 -1.350624952465295792e-02 -1.543630193918943405e-02 5.480782710947096348e-04 7.550598587840795517e-03 -2.756727393716573715e-03 1.610199920833110809e-02 -3.160959854722023010e-02 -8.978709578514099121e-03 -1.496953237801790237e-02 5.291303619742393494e-03 6.644794717431068420e-03 3.226088127121329308e-03 -6.198947667144238949e-04 -8.985558524727821350e-03 2.805983182042837143e-03 -1.155948918312788010e-02 -2.165866084396839142e-02 1.245365664362907410e-02 1.260740100406110287e-03 -5.020109936594963074e-02 1.157730724662542343e-02 2.516617253422737122e-02 1.350144855678081512e-02 -1.048448588699102402e-02 -8.923149434849619865e-04 9.426455944776535034e-02 2.196635119616985321e-02 7.048744708299636841e-02 5.133790150284767151e-02 6.017757207155227661e-02 -2.954524569213390350e-02 1.025454234331846237e-02 4.117749631404876709e-02 -2.889017015695571899e-02 1.044597942382097244e-02 6.209341343492269516e-03 2.074998244643211365e-02 -1.218498405069112778e-02 -1.643631793558597565e-02 1.347536919638514519e-03 8.318699896335601807e-03 -4.393733572214841843e-03 1.666150987148284912e-02 -3.245760500431060791e-02 -1.321557164192199707e-02 -1.527251303195953369e-02 4.533912520855665207e-03 8.743596263229846954e-03 9.400701150298118591e-03 -2.776751294732093811e-03 -1.091893762350082397e-02 1.351450290530920029e-02 -1.110428012907505035e-02 -2.907971106469631195e-02 5.337905138731002808e-03 2.680092118680477142e-03 -8.128875494003295898e-02 -9.278295910917222500e-04 2.874678187072277069e-02 1.379952672868967056e-02 -1.106066443026065826e-02 -1.469304988859221339e-04 1.017766520380973816e-01 1.928030140697956085e-02 7.010160386562347412e-02 7.207212597131729126e-02 9.745030105113983154e-02 -3.140064701437950134e-02 1.403415668755769730e-02 5.374645441770553589e-02 -3.758402168750762939e-02 1.006692182272672653e-02 6.941043771803379059e-03 2.142975851893424988e-02 -1.329862605780363083e-02 -1.807199977338314056e-02 1.707896357402205467e-03 7.745190989226102829e-03 -5.327865015715360641e-03 1.738797128200531006e-02 -3.459677845239639282e-02 -1.992951519787311554e-02 -1.549983117729425430e-02 -4.093344788998365402e-03 8.829597383737564087e-03 1.515519712120294571e-02 6.945502944290637970e-03 -2.171616256237030029e-02 9.628589265048503876e-03 -7.316789124161005020e-03 -2.063658833503723145e-02 1.920254901051521301e-02 -9.606007486581802368e-03 -9.468057006597518921e-02 -5.681716836988925934e-03 3.252457082271575928e-02 1.358197443187236786e-02 -1.045697834342718124e-02 -5.065739969722926617e-04 1.017103046178817749e-01 2.334872819483280182e-02 6.284943968057632446e-02 6.384163349866867065e-02 8.261863887310028076e-02 -3.261105343699455261e-02 -6.760021205991506577e-03 1.218432933092117310e-02 -3.247281163930892944e-02 -4.050303250551223755e-02 4.711011933977715671e-05 2.654009731486439705e-03 6.285080220550298691e-03 -1.192638650536537170e-03 5.882409866899251938e-03 -2.576911635696887970e-02 2.538074739277362823e-02 -1.315717864781618118e-02 3.041731566190719604e-02 -8.322143927216529846e-03 1.397948712110519409e-03 -3.048332408070564270e-02 -3.753078356385231018e-02 1.658077165484428406e-02 -2.596030710265040398e-03 2.722398936748504639e-02 -3.654944477602839470e-03 4.131696652621030807e-03 -1.862787269055843353e-02 2.989244833588600159e-02 -1.001091953366994858e-02 2.318132854998111725e-02 -2.007755637168884277e-02 5.608753766864538193e-03 -1.439566817134618759e-02 -2.745586819946765900e-02 7.648305501788854599e-03 -1.253300718963146210e-02 -7.935116998851299286e-03 -9.913266636431217194e-03 -6.273289211094379425e-03 -1.282634027302265167e-02 2.906140312552452087e-02 -1.632056199014186859e-02 1.603644527494907379e-02 4.759835544973611832e-03 8.777326904237270355e-03 -1.949767954647541046e-02 -1.647781766951084137e-02 -2.484380267560482025e-03 -1.949974894523620605e-02 -2.424976322799921036e-03 -3.044659271836280823e-03 -5.235121585428714752e-03 -2.068353816866874695e-02 2.371291629970073700e-02 -2.171587012708187103e-02 8.378771133720874786e-03 -1.307238941080868244e-03 -8.656249847263097763e-04 -3.126098215579986572e-02 -3.685922920703887939e-02 -3.589811502024531364e-03 -2.207211405038833618e-02 -3.293014888186007738e-04 -1.391072385013103485e-02 -5.997496657073497772e-03 -1.960647851228713989e-02 3.429256752133369446e-02 -1.065889559686183929e-02 3.754251869395375252e-03 1.467191264964640141e-03 3.821249119937419891e-03 -3.102407231926918030e-02 -3.153064846992492676e-02 -4.360419698059558868e-03 -1.860643550753593445e-02 -1.927016302943229675e-02 -1.136985141783952713e-02 1.893884851597249508e-03 -1.988827623426914215e-02 4.000714048743247986e-02 -2.219945937395095825e-02 1.156720146536827087e-02 2.167910424759611487e-04 3.569772699847817421e-03 -2.898236364126205444e-02 -4.272278025746345520e-02 -5.568550899624824524e-03 -1.985159702599048615e-02 -7.976379245519638062e-03 -7.258411496877670288e-03 1.455638674087822437e-03 -7.686046417802572250e-03 3.882934898138046265e-02 -2.583490498363971710e-02 -6.847466807812452316e-03 9.492336772382259369e-03 2.623063046485185623e-03 -3.673826903104782104e-02 -2.999292686581611633e-02 -4.839883476961404085e-04 -2.106224745512008667e-02 1.594710722565650940e-02 -7.566491141915321350e-03 -2.337634941795840859e-04 -3.849962027743458748e-03 2.773543819785118103e-02 -2.683679573237895966e-02 -2.748957136645913124e-03 -3.000168828293681145e-03 -5.162329412996768951e-03 -1.896533928811550140e-02 -2.283457480370998383e-02 4.249647725373506546e-03 -1.052447780966758728e-02 1.208296045660972595e-02 -2.526245079934597015e-02 5.507276509888470173e-04 -8.506171405315399170e-03 4.431647062301635742e-02 -1.811700500547885895e-02 3.172629512846469879e-03
-2.656137384474277496e-02 -1.390606723725795746e-02 6.419441848993301392e-02 5.156454630196094513e-03 -1.591582782566547394e-02 -7.404301315546035767e-03 -2.893385710194706917e-03 -2.099092118442058563e-03 6.496427813544869423e-04 -2.109858673065900803e-03 -6.155874114483594894e-03 6.087671499699354172e-03 -3.834541514515876770e-02 1.102725882083177567e-02 -2.109957300126552582e-02 -2.565940609201788902e-03 -2.224996685981750488e-03 -9.465684182941913605e-03 -2.878350205719470978e-02 -1.269656606018543243e-02 8.909192867577075958e-03 1.472779363393783569e-02 1.751873828470706940e-02 1.980052143335342407e-02 -3.387004882097244263e-02 3.024701145477592945e-04 -4.156186711043119431e-03 -4.909940995275974274e-03 3.587903082370758057e-02 -1.722435280680656433e-02 -5.118475528433918953e-04 -1.188382506370544434e-02 -2.496290020644664764e-02 -5.935300607234239578e-03 4.205933772027492523e-03 -5.995258688926696777e-02 -2.438561990857124329e-02 -2.663012407720088959e-02 -1.710379309952259064e-02 6.244165077805519104e-02 5.110853351652622223e-03 -1.548300962895154953e-02 -8.135405369102954865e-03 -4.133846610784530640e-03 -3.378875786438584328e-03 9.910698281601071358e-04 -1.141198095865547657e-03 -5.570715293288230896e-03 7.552830968052148819e-03 -3.881201893091201782e-02 1.010187994688749313e-02 -2.099421992897987366e-02 -3.213290357962250710e-03 -4.605023190379142761e-03 -1.280776318162679672e-02 -2.446546591818332672e-02 -9.447377175092697144e-03 3.540253033861517906e-03 7.989425212144851685e-03 1.612202078104019165e-02 1.053692027926445007e-02 -2.298093214631080627e-02 -9.556322358548641205e-03 6.662356667220592499e-03 -2.796766581013798714e-03 3.419757261872291565e-02 -1.728262566030025482e-02 3.445439797360450029e-04 -1.548062730580568314e-02 -2.428124099969863892e-02 -1.585831120610237122e-02 -5.225691478699445724e-03 -5.490824580192565918e-02 -1.072801370173692703e-02 -2.491809241473674774e-02 -2.115726843476295471e-02 6.244978681206703186e-02 4.762200638651847839e-03 -1.613127440214157104e-02 -9.025562554597854614e-03 -6.695223506540060043e-03 -4.714698065072298050e-03 1.115846447646617889e-03 4.683200313593260944e-05 -5.011953413486480713e-03 8.444266393780708313e-03 -4.122684523463249207e-02 1.016874145716428757e-02 -2.026385627686977386e-02 -7.274846429936587811e-04 -7.543742191046476364e-03 -1.863417960703372955e-02 -1.920586451888084412e-02 -3.526384476572275162e-03 -2.050350885838270187e-03 6.291287951171398163e-03 1.692291535437107086e-02 1.284621842205524445e-02 -2.324105240404605865e-02 -8.921935805119574070e-04 9.105726145207881927e-03 -1.769433845765888691e-03 3.283828496932983398e-02 -1.735678128898143768e-02 7.922530639916658401e-04 -1.118432171642780304e-02 -2.901688963174819946e-02 -1.547126099467277527e-02 4.203920718282461166e-03 -4.261922091245651245e-02 -1.769885793328285217e-02 -2.486683800816535950e-02 -2.409723214805126190e-02 6.223642081022262573e-02 4.290375858545303345e-03 -1.513636484742164612e-02 -9.808838367462158203e-03 -7.248968817293643951e-03 -4.899473860859870911e-03 3.526200889609754086e-04 6.067941430956125259e-04 -4.156911280006170273e-03 8.590032346546649933e-03 -4.208742827177047729e-02 9.529170580208301544e-03 -2.093533426523208618e-02 -2.690668916329741478e-03 -1.093137264251708984e-02 -1.654431037604808807e-02 -2.080806344747543335e-02 -1.116037834435701370e-02 -4.713191650807857513e-03 1.609844341874122620e-02 1.225413195788860321e-02 9.710096754133701324e-03 -2.681121043860912323e-02 -5.028568208217620850e-03 5.263429600745439529e-03 -5.664571071974933147e-04 3.113093972206115723e-02 -1.660044677555561066e-02 -1.135627273470163345e-03 -9.246028028428554535e-03 -2.276186458766460419e-02 -1.207399414852261543e-03 1.427419856190681458e-02 -4.034776985645294189e-02 -1.866686902940273285e-02 -2.237305603921413422e-02 -2.678546682000160217e-02 6.423756480216979980e-02 3.755080047994852066e-03 -1.580611430108547211e-02 -1.137753855437040329e-02 -7.740604225546121597e-03 -5.349569953978061676e-03 -1.694649690762162209e-03 1.395837636664509773e-03 -2.883119741454720497e-03 9.096133522689342499e-03 -4.267000406980514526e-02 8.269544690847396851e-03 -2.200017496943473816e-02 -3.379635978490114212e-03 -4.821358714252710342e-03 -1.654481142759323120e-02 -2.289416082203388214e-02 -8.532887324690818787e-03 -1.404430251568555832e-03 5.636200774461030960e-03 1.303066220134496689e-02 1.050511002540588379e-02 -1.159525942057371140e-02 -1.399658899754285812e-02 1.085439417511224747e-02 -6.198224727995693684e-04 2.925546281039714813e-02 -1.783415302634239197e-02 -1.005663798423483968e-04 -1.191643439233303070e-02 -2.822526730597019196e-02 -1.616740832105278969e-03 7.246853318065404892e-03 -4.642768949270248413e-02 1.769949682056903839e-02 -2.096380293369293213e-02 -3.038804605603218079e-02 6.765792518854141235e-02 3.596805268898606300e-03 -1.650106906890869141e-02 -1.258312258869409561e-02 -9.928052313625812531e-03 -6.003019865602254868e-03 -1.754324068315327168e-03 2.556860446929931641e-03 -2.740209689363837242e-03 9.859175421297550201e-03 -4.232708364725112915e-02 7.514398545026779175e-03 -2.028672024607658386e-02 1.700493739917874336e-03 -2.968881977722048759e-03 -1.047536637634038925e-02 -2.368823811411857605e-02 -1.147711835801601410e-02 7.267223205417394638e-03 1.019608508795499802e-02 8.769532665610313416e-03 1.417285948991775513e-02 1.551866298541426659e-03 -1.049898471683263779e-02 1.769156754016876221e-02 -1.206052373163402081e-03 2.704454958438873291e-02 -1.798630133271217346e-02 4.968103603459894657e-04 -8.401310071349143982e-03 -2.862100303173065186e-02 8.767578750848770142e-03 6.304034497588872910e-03 -8.078648149967193604e-02 2.993500325828790665e-03 -1.885724067687988281e-02 -3.728473559021949768e-02 6.826022267341613770e-02 3.529498353600502014e-03 -1.609615609049797058e-02 -1.203786581754684448e-02 -1.253975648432970047e-02 -6.480375770479440689e-03 -1.324759679846465588e-03 3.030208870768547058e-03 -1.848014071583747864e-03 1.132572907954454422e-02 -4.312185570597648621e-02 7.055007386952638626e-03 -2.126283384859561920e-02 -1.302880467846989632e-03 -8.294149301946163177e-03 -1.024393085390329361e-02 -2.963451109826564789e-02 -3.370820777490735054e-03 6.313419900834560394e-03 8.281482383608818054e-03 2.826188458129763603e-03 1.292343158274888992e-02 4.391897004097700119e-03 -2.318706177175045013e-02 6.352986674755811691e-03 -1.580908428877592087e-03 2.541246265172958374e-02 -1.786013320088386536e-02 -2.564622845966368914e-04 -4.476731643080711365e-03 -2.898284047842025757e-02 3.799412632361054420e-03 2.322184480726718903e-02 -8.149389177560806274e-02 1.287814602255821228e-02 -1.624455861747264862e-02 -4.302619397640228271e-02 7.381545752286911011e-02 3.097758395597338676e-03 -1.700392551720142365e-02 -1.259672641754150391e-02 -1.493228692561388016e-02 -6.232876796275377274e-03 -1.286430866457521915e-03 3.693439532071352005e-03 -1.454173005186021328e-03 1.173964980989694595e-02 -4.044668003916740417e-02 3.762125736102461815e-03 -2.052697725594043732e-02 -2.144592115655541420e-03 -1.603014022111892700e-02 2.824249910190701485e-03 -4.091030359268188477e-02 1.976860919967293739e-03 7.322075311094522476e-03 8.781321346759796143e-03 2.655655553098767996e-04 3.037738800048828125e-02 1.855134731158614159e-03 -3.799189254641532898e-02 5.251196213066577911e-03 -2.804684918373823166e-03 2.307954616844654083e-02 -1.751171052455902100e-02 -2.906226427512592636e-06 -1.198793412186205387e-03 -2.866516634821891785e-02 1.904125325381755829e-02 4.923870414495468140e-02 -1.078986898064613342e-01 2.764922752976417542e-02 -1.258025411516427994e-02 -4.976774379611015320e-02 8.091219514608383179e-02 3.456755075603723526e-03 -1.798609271645545959e-02 -1.319193653762340546e-02 -1.750686392188072205e-02 -5.170244723558425903e-03 -2.772985491901636124e-03 4.290021955966949463e-03 -1.230606343597173691e-03 1.505163498222827911e-02 -4.071710258722305298e-02 8.342243963852524757e-04 -2.136183902621269226e-02 5.549688823521137238e-03 -1.788884028792381287e-02 1.799928583204746246e-02 -4.816636815667152405e-02 4.435519687831401825e-03 4.622729960829019547e-03 2.183723635971546173e-02 -5.377806257456541061e-03 5.602284893393516541e-02 -7.441165391355752945e-03 -4.942634701728820801e-02 5.503204651176929474e-03 -2.845607697963714600e-03 2.072193846106529236e-02 -1.784017868340015411e-02 1.055118264048360288e-04 6.176225841045379639e-03 -2.829243242740631104e-02 2.505537308752536774e-02 6.005652621388435364e-02 -1.290886849164962769e-01 3.309548646211624146e-02 -8.937091566622257233e-03 -6.088323518633842468e-02 8.951748162508010864e-02 3.199587808921933174e-03 -1.951654814183712006e-02 -1.190483104437589645e-02 -2.194551005959510803e-02 -5.496657453477382660e-03 -3.017449518665671349e-03 5.282107740640640259e-03 -1.034757704474031925e-03 1.654881611466407776e-02 -4.146058857440948486e-02 -3.573513356968760490e-03 -2.286566235125064850e-02 3.138396656140685081e-03 -1.956739276647567749e-02 2.325818873941898346e-02 -5.112347006797790527e-02 8.001415058970451355e-03 1.182822976261377335e-02 2.264619991183280945e-02 3.361460985615849495e-03 6.680077314376831055e-02 2.241112291812896729e-03 -6.595849245786666870e-02 9.462618269026279449e-03 -3.262177808210253716e-03 1.805342175066471100e-02 -1.819101721048355103e-02 1.248464250238612294e-04 1.042767707258462906e-02 -3.203449398279190063e-02 2.319481782615184784e-02 7.840846478939056396e-02 -1.386005431413650513e-01 3.469275683164596558e-02 1.375730521976947784e-02 -2.847918123006820679e-02 -3.596183657646179199e-02 2.407127991318702698e-02 1.318258047103881836e-02 -4.163986817002296448e-02 1.188465859740972519e-03 -6.783062126487493515e-03 -2.956739161163568497e-03 -5.625998601317405701e-03 -1.477245800197124481e-02 -1.953989453613758087e-02 7.851052097976207733e-03 2.310039103031158447e-02 -3.411302715539932251e-02 -3.888829424977302551e-02 8.895877748727798462e-03 -3.503254614770412445e-03 -4.008159041404724121e-02 7.299694232642650604e-03 -1.809215359389781952e-02 -1.000913232564926147e-02 -2.762743830680847168e-02 1.464434992522001266e-02 -2.329157479107379913e-02 7.238426245748996735e-03 4.523152485489845276e-03 -3.607232868671417236e-02 -2.768535353243350983e-02 8.454972878098487854e-03 -1.195357413962483406e-03 -4.175338894128799438e-02 4.239313304424285889e-03 -1.005082391202449799e-02 2.415925264358520508e-03 -3.518544137477874756e-02 8.795250207185745239e-03 -2.419880218803882599e-02 -1.055750157684087753e-02 -8.988325484097003937e-03 -3.894948959350585938e-02 -2.916792221367359161e-02 2.138395421206951141e-02 6.072916090488433838e-03 -4.082109034061431885e-02 1.487017795443534851e-02 2.082587918266654015e-03 -1.188400760293006897e-02 -1.965917646884918213e-02 1.627025753259658813e-02 -2.519837208092212677e-02 -2.740454394370317459e-03 1.207947731018066406e-02 -4.281084239482879639e-02 -1.920887641608715057e-02 -3.702986985445022583e-03 -4.760360810905694962e-03 -3.158795833587646484e-02 -5.796848330646753311e-03 -1.146705262362957001e-02 7.041391450911760330e-03 -2.254527062177658081e-02 1.677255704998970032e-02 -2.709252946078777313e-02 -1.315751392394304276e-02 -3.655737265944480896e-03 -2.544587478041648865e-02 -2.347163669764995575e-02 -2.131720446050167084e-02 4.050475545227527618e-03 -1.920567266643047333e-02 2.014043182134628296e-02 -9.430626407265663147e-03 -1.958364620804786682e-03 -1.929741725325584412e-02 4.258776083588600159e-03 -3.372155502438545227e-02 -6.946419831365346909e-03 -2.743650111369788647e-04 -4.253833368420600891e-02 -7.905229926109313965e-03 -1.381484512239694595e-02 -5.155964754521846771e-03 -2.565719746053218842e-02 5.673631094396114349e-03 -4.263152077328413725e-04 -1.843009144067764282e-02 -2.312608063220977783e-02 -6.194860674440860748e-03 -1.726746186614036560e-02 1.054080855101346970e-02 4.287656396627426147e-03 -2.650742605328559875e-02 1.088699232786893845e-02 -1.393929030746221542e-02 -8.117265067994594574e-03 -2.224642969667911530e-02 -4.369191301520913839e-04 -3.710150253027677536e-03 3.496455028653144836e-03 -1.621135510504245758e-02 2.510438300669193268e-02 -1.293378695845603943e-02 1.695816777646541595e-02 8.079101680777966976e-04 -2.844577468931674957e-02 4.426754266023635864e-02 -2.598543278872966766e-02 -2.397466078400611877e-02 -2.257858961820602417e-02 1.488258247263729572e-03 -6.430596113204956055e-03 3.210854157805442810e-02 -1.051802095025777817e-02 1.325752306729555130e-02 -1.687287166714668274e-02 1.779869943857192993e-02
3.879395779222249985e-03 -1.119597069919109344e-02 -1.252193376421928406e-02 -4.484492354094982147e-03 -7.617362774908542633e-03 4.840861947741359472e-04 4.028263501822948456e-03 -1.158693572506308556e-03 -1.135409343987703323e-02 1.418507937341928482e-02 -4.112367052584886551e-03 1.699649728834629059e-02 -1.318380329757928848e-02 -4.630763083696365356e-03 -1.796271093189716339e-02 -1.013562642037868500e-02 1.190103776752948761e-02 2.666381653398275375e-03 7.259309059008955956e-04 -9.246855974197387695e-03 -5.894349887967109680e-04 -4.858122207224369049e-03 -1.115541346371173859e-02 -1.112656295299530029e-02 1.245987042784690857e-02 5.889387335628271103e-03 1.399785652756690979e-02 3.866598382592201233e-02 -1.340244989842176437e-02 -1.556869503110647202e-02 9.138011955656111240e-04 -3.097271313890814781e-03 5.473059136420488358e-03 1.650292426347732544e-02 -2.181643992662429810e-02 -1.352598518133163452e-02 8.689912967383861542e-03 5.055344663560390472e-03 -1.009387243539094925e-02 -9.004425257444381714e-03 -6.313007324934005737e-03 -7.021562661975622177e-03 -5.601251032203435898e-04 4.019516054540872574e-03 -1.850284403190016747e-03 -1.261260919272899628e-02 1.246534567326307297e-02 -5.383608862757682800e-03 1.650842837989330292e-02 -1.148791797459125519e-02 -4.540047142654657364e-03 -1.838256791234016418e-02 -6.242771632969379425e-03 1.969814673066139221e-02 6.906022317707538605e-04 -3.441260196268558502e-03 -9.751390665769577026e-03 -1.047735917381942272e-03 -1.416839845478534698e-02 -1.073066052049398422e-02 -1.078590564429759979e-02 4.629329312592744827e-03 -6.891170516610145569e-03 5.221466068178415298e-03 4.037901386618614197e-02 -1.804979890584945679e-02 -1.530750934034585953e-02 -4.508072379394434392e-06 -2.472608583047986031e-03 -2.548162359744310379e-03 1.744595728814601898e-02 -2.779689617455005646e-02 -1.367976982146501541e-02 1.224892213940620422e-02 4.192841239273548126e-03 -1.029136218130588531e-02 -7.742243353277444839e-03 -8.298000320792198181e-03 -4.678988363593816757e-03 -1.026763929985463619e-04 4.136570263653993607e-03 -2.311095362529158592e-03 -1.459819637238979340e-02 1.267621479928493500e-02 -7.443840615451335907e-03 1.546531822532415390e-02 -1.046898216009140015e-02 -5.292802117764949799e-03 -1.963642612099647522e-02 -1.246308814734220505e-02 2.322658896446228027e-02 1.022632815875113010e-03 -9.413520805537700653e-03 -5.867060739547014236e-03 -6.850357749499380589e-04 -7.859809324145317078e-03 -7.541740778833627701e-03 -1.113036088645458221e-02 2.516796346753835678e-03 -7.990464568138122559e-03 -2.132921013981103897e-03 4.354016110301017761e-02 -2.152924239635467529e-02 -1.553199533373117447e-02 -1.527514396002516150e-04 -5.231421673670411110e-04 -7.081194315105676651e-03 1.186269521713256836e-02 -3.135671094059944153e-02 1.944888499565422535e-03 -6.750954780727624893e-03 5.834795068949460983e-03 -8.277690038084983826e-03 -1.258180662989616394e-02 -9.110847488045692444e-03 -4.080629441887140274e-03 -1.594596076756715775e-03 3.574838628992438316e-03 -2.495713299140334129e-03 -1.657021604478359222e-02 1.258202083408832550e-02 -8.448612876236438751e-03 1.418368518352508545e-02 -1.121405418962240219e-02 -5.369222722947597504e-03 -2.009511925280094147e-02 1.778287987690418959e-04 2.147503755986690521e-02 -3.080472117289900780e-03 -8.110123686492443085e-03 -2.024317625910043716e-03 -6.299174390733242035e-03 -7.397424895316362381e-03 -8.948509581387042999e-03 -1.308914087712764740e-02 8.907691575586795807e-03 3.022286808118224144e-03 -1.167331472970545292e-03 4.539837688207626343e-02 -2.479604072868824005e-02 -1.578952744603157043e-02 1.245927996933460236e-04 7.957228226587176323e-04 -8.806298486888408661e-03 8.444177918136119843e-03 -1.426321361213922501e-02 1.299782004207372665e-02 -2.967467717826366425e-02 7.034550886601209641e-03 -5.190066993236541748e-03 -1.751358993351459503e-02 -9.843042120337486267e-03 -2.111070789396762848e-03 -2.150850836187601089e-03 3.912128508090972900e-03 -2.810744801536202431e-03 -1.789776049554347992e-02 1.053786184638738632e-02 -9.265498258173465729e-03 1.286941301077604294e-02 -9.803942404687404633e-03 -5.582335405051708221e-03 -1.987768709659576416e-02 -8.424315019510686398e-04 2.042514644563198090e-02 -4.711632616817951202e-03 -2.865848597139120102e-03 -1.532936003059148788e-03 -4.373630508780479431e-03 -1.143770205089822412e-04 -1.885370723903179169e-02 -1.465064566582441330e-02 4.425686784088611603e-03 2.016791142523288727e-03 1.179721672087907791e-02 4.884318634867668152e-02 -2.703554742038249969e-02 -1.555989589542150497e-02 4.518858331721276045e-04 2.127659041434526443e-03 -1.162322238087654114e-02 -8.103606291115283966e-03 1.481763273477554321e-02 1.528089307248592377e-02 -3.542003780603408813e-02 9.732559323310852051e-03 -3.488452406600117683e-03 -2.443966642022132874e-02 -1.011541858315467834e-02 -2.292590914294123650e-03 -3.717766609042882919e-03 3.982791677117347717e-03 -2.279516775161027908e-03 -2.005246467888355255e-02 1.225049886852502823e-02 -1.107685919851064682e-02 1.179571077227592468e-02 -8.097664453089237213e-03 -5.325932987034320831e-03 -2.009526081383228302e-02 -7.815415970981121063e-03 2.024380303919315338e-02 -1.530018076300621033e-02 7.305822800844907761e-03 -1.123721944168210030e-03 5.382816772907972336e-03 1.881088712252676487e-03 -2.262975089251995087e-02 -8.404416032135486603e-03 6.860751193016767502e-03 -7.783503271639347076e-03 -4.180626943707466125e-03 4.843074828386306763e-02 -3.132599219679832458e-02 -1.536385528743267059e-02 2.984604507219046354e-04 5.348878912627696991e-03 -1.840584538877010345e-02 -2.041131025180220604e-03 1.447331625968217850e-02 1.860881783068180084e-02 -3.360145166516304016e-02 1.309095881879329681e-02 -8.692606934346258640e-04 -3.467907384037971497e-02 -1.098327059298753738e-02 -2.146803773939609528e-03 -4.408698994666337967e-03 5.796233192086219788e-03 -1.774387550540268421e-03 -2.114050649106502533e-02 1.190771255642175674e-02 -1.365728303790092468e-02 1.194555498659610748e-02 -8.564274758100509644e-03 -6.018234416842460632e-03 -2.124383300542831421e-02 -2.136871684342622757e-03 1.707613095641136169e-02 -1.936689205467700958e-02 1.273519452661275864e-02 2.564426278695464134e-03 -2.083760220557451248e-03 2.249207347631454468e-03 -2.852403745055198669e-02 -3.812608076259493828e-03 1.362731563858687878e-03 -8.280550129711627960e-03 1.245766645297408104e-03 5.122002586722373962e-02 -3.589030727744102478e-02 -1.568643189966678619e-02 2.461618860252201557e-04 7.931718602776527405e-03 -2.052800729870796204e-02 -7.458580192178487778e-03 3.278568014502525330e-02 1.660739444196224213e-02 -4.826803505420684814e-02 1.682624965906143188e-02 7.498287013731896877e-04 -4.647425189614295959e-02 -1.021448429673910141e-02 1.121407258324325085e-04 -6.749304942786693573e-03 7.583276368677616119e-03 1.827140804380178452e-04 -2.270372956991195679e-02 1.185547467321157455e-02 -1.507226005196571350e-02 1.206577755510807037e-02 -9.552262723445892334e-03 -6.603879388421773911e-03 -2.228560857474803925e-02 -8.820451796054840088e-03 1.909199915826320648e-02 -2.043546549975872040e-02 1.691031269729137421e-02 8.256523869931697845e-03 -1.884825527667999268e-02 -1.329496502876281738e-03 -2.717798389494419098e-02 3.686047391965985298e-03 -6.458843592554330826e-03 -1.377815846353769302e-02 -7.509178016334772110e-03 4.977902770042419434e-02 -3.867280855774879456e-02 -1.497272029519081116e-02 4.894527373835444450e-04 1.102822367101907730e-02 -2.458271197974681854e-02 -2.066344721242785454e-03 4.640587046742439270e-02 1.514248922467231750e-02 -5.848187580704689026e-02 2.152612246572971344e-02 2.735275076702237129e-03 -5.862066522240638733e-02 -1.172240544110536575e-02 -2.716362068895250559e-04 -7.895569317042827606e-03 9.919533506035804749e-03 7.104313117451965809e-04 -2.754860743880271912e-02 1.291482988744974136e-02 -1.796958409249782562e-02 1.267599966377019882e-02 -1.093876734375953674e-02 -8.789041079580783844e-03 -2.471548691391944885e-02 -3.455996979027986526e-03 1.809232123196125031e-02 -1.809975504875183105e-02 2.760900929570198059e-02 2.255365066230297089e-02 -4.983470588922500610e-02 -2.152399392798542976e-03 -3.581891581416130066e-02 1.476577483117580414e-02 -1.587469689548015594e-02 -2.255104482173919678e-02 -1.986357755959033966e-02 4.933676496148109436e-02 -4.226749017834663391e-02 -1.527505554258823395e-02 -3.414360107854008675e-04 1.699633896350860596e-02 -2.913634665310382843e-02 -3.444645320996642113e-03 8.721354603767395020e-02 3.139344742521643639e-03 -7.835788279771804810e-02 2.962809056043624878e-02 4.930765833705663681e-03 -7.277877628803253174e-02 -1.126410625874996185e-02 9.344689315184950829e-04 -9.732576087117195129e-03 1.298209466040134430e-02 2.213604282587766647e-03 -3.468300029635429382e-02 1.274797972291707993e-02 -1.982437260448932648e-02 1.376965828239917755e-02 -1.384850125759840012e-02 -1.062535960227251053e-02 -2.833132259547710419e-02 -1.116878166794776917e-02 1.422825362533330917e-02 -2.452880330383777618e-02 4.412873089313507080e-02 5.219826474785804749e-03 -7.439610362052917480e-02 -2.634794451296329498e-03 -4.078111052513122559e-02 2.509109303355216980e-02 -1.798615977168083191e-02 -3.448363393545150757e-02 -1.605413854122161865e-02 4.953945428133010864e-02 -4.500756785273551941e-02 -1.551078259944915771e-02 4.010541888419538736e-04 1.659337989985942841e-02 -3.327945247292518616e-02 -8.123163133859634399e-03 1.413327157497406006e-01 -5.234598182141780853e-03 -4.786856099963188171e-02 6.686362437903881073e-03 2.041336521506309509e-02 -1.868862309493124485e-03 -2.303276583552360535e-02 -1.085522864013910294e-02 1.787172257900238037e-02 9.341748664155602455e-04 5.927916616201400757e-03 2.689560875296592712e-03 -2.506180293858051300e-02 -5.761880427598953247e-03 -2.484208159148693085e-02 2.365438640117645264e-02 -8.999222889542579651e-03 1.197827700525522232e-02 -2.787106484174728394e-02 -2.268587052822113037e-02 -1.036772620864212513e-03 1.933604665100574493e-02 3.272110223770141602e-02 -1.256551477126777172e-03 -1.405473053455352783e-02 -2.400215715169906616e-02 8.055964484810829163e-03 -1.327102910727262497e-02 2.341131865978240967e-02 1.194856886286288500e-04 5.880047567188739777e-03 -1.190429739654064178e-02 -1.738117076456546783e-02 -1.207009237259626389e-02 1.029991637915372849e-02 6.740032695233821869e-03 -8.386554196476936340e-03 -5.068119615316390991e-03 -8.872766979038715363e-03 3.615711582824587822e-03 -9.299510158598423004e-03 1.648247800767421722e-02 -7.596310693770647049e-03 7.134851533919572830e-03 -2.463617734611034393e-02 -1.137666869908571243e-02 -1.996100135147571564e-02 6.231133360415697098e-03 1.601466909050941467e-02 -6.453116424381732941e-03 1.406454597599804401e-03 -2.362049184739589691e-02 4.414762835949659348e-03 -9.909879416227340698e-03 1.290726568549871445e-02 -3.523032646626234055e-03 -1.156812999397516251e-02 -2.255351841449737549e-02 5.267264787107706070e-03 5.526644526980817318e-04 -2.572777215391397476e-03 6.888776551932096481e-03 -7.491872645914554596e-03 9.749942459166049957e-03 -2.040282264351844788e-02 -8.111227303743362427e-03 -1.315809600055217743e-02 6.352527998387813568e-03 2.342710644006729126e-02 -1.560349762439727783e-02 -1.718028075993061066e-02 -1.633317582309246063e-02 -1.706546545028686523e-02 -8.439586497843265533e-03 1.554846391081809998e-02 -1.484282780438661575e-02 2.375443652272224426e-02 -1.986369676887989044e-02 1.182086765766143799e-02 -2.026874572038650513e-02 8.989248424768447876e-03 -6.473202665802091360e-05 -6.041438784450292587e-03 -1.010158937424421310e-02 -2.131251432001590729e-02 -1.935264095664024353e-02 -2.191037684679031372e-02 -2.015807898715138435e-03 2.186827827244997025e-03 1.594449393451213837e-02 -2.499976195394992828e-02 2.035810798406600952e-02 -1.140167657285928726e-02 1.826676912605762482e-02 1.351054105907678604e-02 -6.005499977618455887e-03 9.481245651841163635e-03 -2.125403843820095062e-02 -9.429494850337505341e-03 -1.479761488735675812e-02 2.389520592987537384e-02 -5.695953499525785446e-03 2.012788131833076477e-02 -2.368300780653953552e-02 8.040673099458217621e-03 -1.641916669905185699e-02 4.229254554957151413e-03 -2.177219279110431671e-02 -2.260400541126728058e-02 -9.909706190228462219e-03 -2.007787674665451050e-02 -2.147832512855529785e-02 -6.586522795259952545e-03 8.415968157351016998e-03 -2.503350004553794861e-02 6.239580921828746796e-03 -4.570621997117996216e-03 1.292991335503757000e-03 -1.591813936829566956e-02 3.729138290509581566e-03
2.674790471792221069e-02 -4.634420573711395264e-02 2.397463889792561531e-03 -1.555244252085685730e-02 -7.082468364387750626e-03 -1.694631576538085938e-02 1.332227047532796860e-02 1.453972049057483673e-02 -5.576359108090400696e-03 -2.348171314224600792e-03 4.862363450229167938e-03 2.904938720166683197e-02 2.238216623663902283e-02 -1.311972388066351414e-03 5.340568255633115768e-03 1.920213806442916393e-03 -8.256623521447181702e-03 1.816537260310724378e-04 -6.734913680702447891e-03 8.199630305171012878e-03 -6.622131448239088058e-03 8.533162763342261314e-04 -7.647713180631399155e-03 -1.969967270269989967e-03 4.035106394439935684e-03 1.154616195708513260e-02 -2.240877831354737282e-03 -1.163237262517213821e-03 -2.521524764597415924e-02 -2.205492183566093445e-02 2.593101089587435126e-05 4.344851523637771606e-02 6.387888453900814056e-03 5.447085481137037277e-03 1.141303498297929764e-02 4.597917199134826660e-02 -1.192069519311189651e-02 2.625913359224796295e-02 -3.970622271299362183e-02 -1.821482554078102112e-03 -1.656743884086608887e-02 -5.598922725766897202e-03 -1.654903218150138855e-02 1.341481506824493408e-02 1.494259666651487350e-02 -5.086267367005348206e-03 -2.589058363810181618e-03 4.292666446417570114e-03 2.829342149198055267e-02 2.239390276372432709e-02 -1.094889827072620392e-03 5.229747854173183441e-03 -4.937467165291309357e-03 3.245094092562794685e-03 -1.022252137772738934e-03 1.211224123835563660e-03 -2.018979517742991447e-03 -1.401857566088438034e-02 -1.488992245867848396e-03 -5.357419140636920929e-03 -8.866362622939050198e-04 4.059098195284605026e-03 6.842660252004861832e-03 4.658875055611133575e-03 -1.241342979483306408e-03 -2.872969023883342743e-02 -2.232172526419162750e-02 1.976365601876750588e-04 4.514679312705993652e-02 1.146628754213452339e-03 2.293082186952233315e-03 5.641480907797813416e-03 3.653275966644287109e-02 -9.899527765810489655e-03 2.477709390223026276e-02 -3.326535969972610474e-02 -5.014527123421430588e-03 -1.592358388006687164e-02 -5.055530462414026260e-03 -1.681178249418735504e-02 1.327099837362766266e-02 1.353776268661022186e-02 -6.401028949767351151e-03 -2.813992090523242950e-03 3.370380960404872894e-03 2.867319248616695404e-02 2.144152484834194183e-02 -1.225205603986978531e-03 4.885189700871706009e-03 -2.621056977659463882e-03 8.436519652605056763e-03 2.359919715672731400e-03 2.689045155420899391e-03 -3.497927915304899216e-03 -1.441425736993551254e-02 -3.253723727539181709e-03 -1.071453792974352837e-03 -2.032403601333498955e-03 6.141454447060823441e-03 1.113183703273534775e-02 3.100388916209340096e-03 -2.962877973914146423e-03 -3.224594146013259888e-02 -2.260899730026721954e-02 -1.158574086730368435e-04 5.365948751568794250e-02 9.455318562686443329e-03 -1.776896417140960693e-02 3.033833927474915981e-04 3.202764317393302917e-02 -1.019970327615737915e-02 2.458184398710727692e-02 -2.779603749513626099e-02 -7.394900079816579819e-03 -1.420826185494661331e-02 -5.511227995157241821e-03 -1.681444793939590454e-02 1.325311698019504547e-02 1.224451418966054916e-02 -8.073507808148860931e-03 -2.835785038769245148e-03 2.803088398650288582e-03 2.809850499033927917e-02 2.185834199190139771e-02 -3.581362543627619743e-04 6.919178646057844162e-03 -4.092378949280828238e-04 6.255569867789745331e-03 6.614073645323514938e-03 -9.426746692042797804e-05 -7.275525946170091629e-03 -1.939814910292625427e-02 -4.744024015963077545e-03 -2.632493618875741959e-03 4.371125716716051102e-03 4.677277058362960815e-03 1.400271337479352951e-02 5.614716093987226486e-03 -4.562395624816417694e-03 -3.518051654100418091e-02 -2.304636314511299133e-02 7.771466625854372978e-04 5.673160776495933533e-02 1.412487868219614029e-02 -1.688729412853717804e-02 5.705483490601181984e-04 2.585706114768981934e-02 -1.476417481899261475e-02 2.403516881167888641e-02 -1.992846280336380005e-02 -1.100541278719902039e-02 -1.493561733514070511e-02 -5.327499937266111374e-03 -1.733980327844619751e-02 1.141637936234474182e-02 1.067381165921688080e-02 -8.940528146922588348e-03 -2.072544768452644348e-03 3.045459743589162827e-03 2.800312265753746033e-02 2.156708762049674988e-02 9.127944940701127052e-04 6.199737545102834702e-03 2.011450938880443573e-03 7.075087632983922958e-03 7.720431778579950333e-03 7.259926758706569672e-03 -5.161708686500787735e-03 -1.409541722387075424e-02 -1.988028816413134336e-05 2.978371921926736832e-03 5.724563729017972946e-03 9.270085021853446960e-03 1.667942665517330170e-02 2.446265425533056259e-03 -7.427013479173183441e-03 -3.851176425814628601e-02 -2.367811463773250580e-02 2.035399083979427814e-04 6.202669069170951843e-02 2.272893115878105164e-02 -2.159369550645351410e-02 1.201356761157512665e-02 3.853034600615501404e-02 -1.370021793991327286e-02 2.336240187287330627e-02 -1.206328719854354858e-02 -1.397436112165451050e-02 -1.491886377334594727e-02 -5.568612832576036453e-03 -1.634368672966957092e-02 1.304857712239027023e-02 1.031786482781171799e-02 -9.459235705435276031e-03 -1.109785865992307663e-03 2.767009660601615906e-03 2.763624303042888641e-02 2.081654965877532959e-02 2.138696843758225441e-03 5.869801156222820282e-03 3.770892741158604622e-03 7.547579705715179443e-03 1.095394790172576904e-02 9.959804825484752655e-03 -4.727288614958524704e-03 -1.249550562351942062e-02 7.280681282281875610e-03 2.530437428504228592e-03 7.846115157008171082e-03 9.220270439982414246e-03 1.915423199534416199e-02 -6.694868206977844238e-03 -1.142380386590957642e-02 -4.151515290141105652e-02 -2.288752421736717224e-02 -3.809112968156114221e-06 6.613259017467498779e-02 2.843395434319972992e-02 -2.931056730449199677e-02 1.538013201206922531e-02 5.423189699649810791e-02 -8.082966320216655731e-03 2.390117011964321136e-02 -2.343900036066770554e-03 -1.633862592279911041e-02 -1.407275348901748657e-02 -5.689258687198162079e-03 -1.525866985321044922e-02 1.270678453147411346e-02 6.877116393297910690e-03 -9.361434727907180786e-03 -2.131693996489048004e-03 3.401174675673246384e-03 2.815756574273109436e-02 2.121018618345260620e-02 2.293100580573081970e-03 4.563346970826387405e-03 -6.633488927036523819e-03 1.486348267644643784e-02 9.944395162165164948e-03 2.125579491257667542e-02 -1.277904212474822998e-02 -1.528210472315549850e-02 5.913485307246446609e-03 4.374536511022597551e-04 8.340603671967983246e-03 1.171167939901351929e-02 2.550911903381347656e-02 -5.757554434239864349e-03 -1.650912314653396606e-02 -4.505271837115287781e-02 -2.265515737235546112e-02 1.954568870132789016e-04 7.251664996147155762e-02 3.162655234336853027e-02 -2.680516429245471954e-02 1.113478001207113266e-02 6.176974624395370483e-02 -1.246711425483226776e-02 2.366312779486179352e-02 6.607628427445888519e-03 -1.983925327658653259e-02 -1.416858658194541931e-02 -4.985721781849861145e-03 -1.402269024401903152e-02 1.266047544777393341e-02 4.970858339220285416e-03 -1.088326796889305115e-02 -1.456933445297181606e-03 1.457594684325158596e-03 2.890775911509990692e-02 2.208736725151538849e-02 4.364861175417900085e-03 4.875462967902421951e-03 -3.196067176759243011e-03 1.875443197786808014e-02 1.587136648595333099e-02 1.515201199799776077e-02 -1.662303507328033447e-02 -1.350961998105049133e-02 -2.965590392705053091e-04 4.676892713177949190e-04 1.110104098916053772e-02 2.021943032741546631e-02 3.407532721757888794e-02 4.020578227937221527e-03 -2.167862094938755035e-02 -4.741642996668815613e-02 -2.328507602214813232e-02 3.098608285654336214e-04 7.532890886068344116e-02 4.276122525334358215e-02 -2.638823725283145905e-02 1.095897797495126724e-02 6.519434601068496704e-02 -1.693443581461906433e-02 2.398820593953132629e-02 1.745801419019699097e-02 -2.470824494957923889e-02 -1.423471700400114059e-02 -5.276179872453212738e-03 -1.316377799957990646e-02 1.325315330177545547e-02 1.526666106656193733e-03 -1.268281042575836182e-02 2.778548805508762598e-04 1.696158200502395630e-03 2.923029474914073944e-02 2.268215455114841461e-02 7.188714575022459030e-03 4.730387125164270401e-03 1.990036107599735260e-03 6.388841662555932999e-03 1.799075864255428314e-02 2.401471696794033051e-02 -2.980590239167213440e-02 -1.498343143612146378e-02 -2.808419754728674889e-03 -6.392254494130611420e-03 1.332672312855720520e-02 2.427959442138671875e-02 3.844495862722396851e-02 1.314953202381730080e-03 -2.709344588220119476e-02 -4.834561049938201904e-02 -2.312095277011394501e-02 -2.609799557831138372e-04 8.026322722434997559e-02 5.603565648198127747e-02 -3.264963254332542419e-02 3.401072323322296143e-02 6.889790296554565430e-02 -3.112837113440036774e-02 2.631346136331558228e-02 2.828835695981979370e-02 -3.175007551908493042e-02 -1.189660467207431793e-02 -6.069045048207044601e-03 -1.150236092507839203e-02 1.357706077396869659e-02 -2.085014246404170990e-03 -1.385824847966432571e-02 -1.455604331567883492e-03 6.448957137763500214e-04 2.992968820035457611e-02 2.466459572315216064e-02 9.037217125296592712e-03 5.759441293776035309e-03 -8.464503102004528046e-03 -6.098262500017881393e-03 2.983336895704269409e-02 6.545655429363250732e-03 -5.676808208227157593e-02 -6.704727187752723694e-03 -2.731862768996506929e-04 -1.064714044332504272e-02 1.401356887072324753e-02 5.176084488630294800e-02 3.201823681592941284e-02 3.601784119382500648e-03 -3.183480724692344666e-02 -4.877613484859466553e-02 -2.314945869147777557e-02 8.197555871447548270e-05 8.423090726137161255e-02 5.495561286807060242e-02 4.862978123128414154e-03 4.473311826586723328e-02 6.306862086057662964e-02 -1.141510996967554092e-02 -1.624676957726478577e-02 1.652291044592857361e-02 6.514459848403930664e-03 -1.076975651085376740e-02 4.713295493274927139e-03 1.407075952738523483e-02 -1.237336546182632446e-02 -1.568835345096886158e-03 3.431063378229737282e-03 -1.360416878014802933e-02 1.164233894087374210e-03 1.473417069064453244e-04 2.239811234176158905e-02 -3.968400880694389343e-03 7.986716926097869873e-03 -1.344043877907097340e-03 -1.182869076728820801e-02 8.276812732219696045e-03 1.876251585781574249e-02 -1.151747535914182663e-02 1.793285086750984192e-02 -7.324687205255031586e-03 -6.177864503115415573e-03 6.034153979271650314e-03 -1.275111176073551178e-02 2.121568098664283752e-02 2.926326589658856392e-03 3.145035356283187866e-03 9.459097869694232941e-03 -9.299040772020816803e-03 1.317891874350607395e-03 2.599037252366542816e-02 -1.826751790940761566e-02 1.382539235055446625e-02 -1.063975505530834198e-02 -1.807746663689613342e-02 5.667729768902063370e-03 1.157383061945438385e-02 2.527955546975135803e-02 2.400309131189715117e-05 8.791637606918811798e-03 -1.616018998902291059e-04 -1.392454467713832855e-02 2.308239927515387535e-03 2.178337611258029938e-02 -6.570297759026288986e-03 3.496416611596941948e-03 -2.629967639222741127e-03 -1.884571649134159088e-02 2.586809359490871429e-02 -6.897347979247570038e-03 2.463854104280471802e-02 -1.142732799053192139e-02 8.645774796605110168e-03 1.267600804567337036e-03 -8.987598121166229248e-03 6.573931314051151276e-03 2.737774513661861420e-02 -3.548624459654092789e-03 2.033108472824096680e-02 -1.694982126355171204e-02 -1.371905114501714706e-02 7.575417868793010712e-03 7.791528012603521347e-03 1.450837310403585434e-02 -2.488547377288341522e-02 7.761397864669561386e-03 -5.274941679090261459e-03 -1.269814465194940567e-02 -1.982351066544651985e-03 2.571104653179645538e-02 8.711411617696285248e-03 7.664791774004697800e-03 1.179459132254123688e-02 -9.086759760975837708e-03 2.081585489213466644e-02 1.127677690237760544e-02 2.783011458814144135e-02 -7.537361234426498413e-03 1.313829701393842697e-02 1.220796629786491394e-02 -1.823786273598670959e-02 3.495969343930482864e-03 2.647600881755352020e-02 1.609149156138300896e-03 5.675362423062324524e-03 -9.704576805233955383e-03 1.711272820830345154e-02 1.260173786431550980e-02 2.081668563187122345e-02 3.121404536068439484e-02 -8.933745324611663818e-03 6.760340649634599686e-03 2.468877006322145462e-03 -1.176410447806119919e-02 9.703527204692363739e-03 3.371401503682136536e-02 2.000785432755947113e-03 8.257744833827018738e-03 -8.237945847213268280e-03 1.555356138851493597e-04 1.145735941827297211e-02 1.709031127393245697e-02 2.215630933642387390e-02 -1.411375869065523148e-02 2.407603710889816284e-02 5.086755845695734024e-03 -1.338402926921844482e-02 9.380135685205459595e-03 3.317271173000335693e-02 8.760667406022548676e-03 4.798125941306352615e-03 -1.072035729885101318e-02 2.579922229051589966e-02 2.821093052625656128e-02 2.653890475630760193e-02 1.895797252655029297e-02
-6.775428354740142822e-02 -4.898854531347751617e-03 2.810629643499851227e-02 -1.795632881112396717e-03 -2.154788188636302948e-02 -1.045087631791830063e-02 1.536372862756252289e-02 -8.184416219592094421e-03 1.204141043126583099e-02 -1.886116340756416321e-02 3.103565610945224762e-02 -4.057905636727809906e-03 -6.647789478302001953e-02 -5.589755252003669739e-03 -2.518399851396679878e-03 5.300237680785357952e-04 -1.367530785501003265e-02 -1.780118048191070557e-02 3.693684237077832222e-03 -6.864635739475488663e-03 -8.659614250063896179e-03 -5.847628694027662277e-03 1.014432311058044434e-02 1.156541984528303146e-02 -2.138616703450679779e-02 8.366300724446773529e-03 -1.951115555129945278e-03 1.630884595215320587e-02 4.246243089437484741e-02 1.548269880004227161e-03 -5.037873634137213230e-04 7.274225819855928421e-03 9.006643085740506649e-04 -1.953355409204959869e-02 -5.165293067693710327e-02 -3.869094327092170715e-02 -8.743922226130962372e-03 -6.872230768203735352e-02 -7.190572097897529602e-03 2.695518359541893005e-02 -3.230922156944870949e-03 -2.110085636377334595e-02 -1.206523086875677109e-02 1.608284562826156616e-02 -7.991906255483627319e-03 1.173632498830556870e-02 -1.927712000906467438e-02 3.165109455585479736e-02 -3.773864824324846268e-03 -6.702061742544174194e-02 -4.258921369910240173e-03 -3.034841269254684448e-03 -6.715651601552963257e-03 -1.039326004683971405e-02 -1.710378751158714294e-02 3.211268456652760506e-03 2.550274366512894630e-03 -8.275927044451236725e-03 -6.305655464529991150e-03 9.008452296257019043e-03 6.311609409749507904e-03 -1.133028231561183929e-02 1.520188059657812119e-02 -1.317576505243778229e-02 1.686479151248931885e-02 3.845437988638877869e-02 1.076455228030681610e-03 1.398814783897250891e-04 6.264808587729930878e-03 -5.856093484908342361e-04 -3.174247220158576965e-02 -5.200332403182983398e-02 -4.174446314573287964e-02 -1.506787165999412537e-02 -6.953448057174682617e-02 -1.092341821640729904e-02 2.776021137833595276e-02 -5.145997740328311920e-03 -2.371906116604804993e-02 -1.229237671941518784e-02 1.627202890813350677e-02 -8.921759203076362610e-03 1.037984807044267654e-02 -1.947816088795661926e-02 3.155479207634925842e-02 -3.590036649256944656e-03 -6.701522320508956909e-02 -4.861677065491676331e-03 -2.892807358875870705e-03 -3.746281145140528679e-03 -1.246288325637578964e-02 -1.579420268535614014e-02 7.649345323443412781e-03 -1.015983987599611282e-03 -1.068935729563236237e-02 2.863039262592792511e-03 3.586823586374521255e-03 9.301239624619483948e-03 -7.785034831613302231e-03 1.075095683336257935e-02 -8.804896846413612366e-03 1.615514792501926422e-02 3.569246083498001099e-02 1.756121637299656868e-03 -3.648598794825375080e-04 1.141416747123003006e-02 2.088275505229830742e-03 -3.152008727192878723e-02 -2.508168481290340424e-02 -4.688062518835067749e-02 -2.413154952228069305e-02 -7.074202597141265869e-02 -1.246186438947916031e-02 2.487844787538051605e-02 -5.346149671822786331e-03 -2.330100908875465393e-02 -1.299801841378211975e-02 1.611829549074172974e-02 -9.040480479598045349e-03 8.784972131252288818e-03 -1.892867870628833771e-02 3.061392903327941895e-02 -2.780121983960270882e-03 -6.779219210147857666e-02 -4.631432238966226578e-03 -4.698243457823991776e-03 -6.118021439760923386e-03 -1.095277536660432816e-02 -8.119151927530765533e-03 -3.738720435649156570e-03 -1.425475813448429108e-02 -1.175103802233934402e-02 5.443953908979892731e-03 5.649206228554248810e-03 9.203266352415084839e-03 -1.031670719385147095e-02 3.589272266253829002e-03 -2.149184048175811768e-02 1.624866202473640442e-02 3.101067058742046356e-02 1.690867007710039616e-03 -3.416437539272010326e-04 1.200278382748365402e-02 2.098022028803825378e-03 -2.093200944364070892e-02 -4.382026940584182739e-02 -4.216624796390533447e-02 -2.131916815415024757e-03 -7.093156874179840088e-02 -1.388129685074090958e-02 2.508059516549110413e-02 -6.182070821523666382e-03 -2.477110177278518677e-02 -1.440436672419309616e-02 1.548517402261495590e-02 -1.022107340395450592e-02 6.998784374445676804e-03 -1.767634972929954529e-02 3.260987997055053711e-02 -2.417739480733871460e-03 -6.807757169008255005e-02 -5.119653418660163879e-03 -7.992476224899291992e-03 -1.053567230701446533e-02 -1.037063915282487869e-02 -4.139970056712627411e-03 -1.957873115316033363e-03 -1.203623879700899124e-02 -2.461747499182820320e-03 5.245335400104522705e-03 1.160046830773353577e-02 1.431401632726192474e-02 -4.017900675535202026e-03 3.593854373320937157e-03 -1.748706400394439697e-02 1.440703775733709335e-02 2.635680511593818665e-02 1.985451672226190567e-03 -4.107632266823202372e-04 1.234932523220777512e-02 -1.048316597007215023e-03 -9.559198282659053802e-03 -4.274650663137435913e-02 -4.301657527685165405e-02 -7.738871499896049500e-03 -7.342481613159179688e-02 -1.690373755991458893e-02 2.547244541347026825e-02 -7.297265343368053436e-03 -2.528427541255950928e-02 -1.419815886765718460e-02 1.377360988408327103e-02 -1.122719421982765198e-02 6.714189425110816956e-03 -1.702508516609668732e-02 3.282729536294937134e-02 -1.803860766813158989e-03 -6.621620804071426392e-02 -4.344664514064788818e-03 -8.499863557517528534e-03 -1.170754432678222656e-02 -5.510982125997543335e-03 -2.526474883779883385e-03 -2.754322951659560204e-03 -1.114484388381242752e-02 -3.570874687284231186e-03 7.286650128662586212e-03 2.452020533382892609e-03 1.805598475039005280e-02 3.525772830471396446e-03 8.641772903501987457e-03 -2.076429687440395355e-02 1.204254850745201111e-02 2.225033938884735107e-02 1.945122261531651020e-03 -8.697343291714787483e-04 1.356741692870855331e-02 2.722721546888351440e-03 -3.563926147762686014e-04 -5.272136628627777100e-02 -6.502346694469451904e-02 -1.217361912131309509e-02 -7.431939244270324707e-02 -1.951659284532070160e-02 2.396995387971401215e-02 -9.178578853607177734e-03 -2.437243051826953888e-02 -1.483363378793001175e-02 1.510329637676477432e-02 -1.175894308835268021e-02 4.727777093648910522e-03 -1.655920967459678650e-02 3.323878720402717590e-02 -1.688449876382946968e-03 -6.481306999921798706e-02 -4.851873964071273804e-03 -1.020679157227277756e-02 -1.474695000797510147e-02 -2.812870545312762260e-03 1.550626591779291630e-03 -2.677611191757023335e-04 1.537412870675325394e-03 -3.812390146777033806e-03 -3.142160363495349884e-03 -1.549068372696638107e-03 1.123492885380983353e-02 6.036426872014999390e-03 6.696964148432016373e-03 -1.058829110115766525e-02 9.164708666503429413e-03 1.656785048544406891e-02 1.723237219266593456e-03 1.004775622277520597e-04 1.894239708781242371e-02 -3.424034453928470612e-03 4.253409279044717550e-04 -3.299317508935928345e-02 -5.884528532624244690e-02 -1.889112219214439392e-02 -7.379870116710662842e-02 -2.394911646842956543e-02 2.393965050578117371e-02 -1.142749749124050140e-02 -2.458318695425987244e-02 -1.444733981043100357e-02 1.438458357006311417e-02 -1.101947668939828873e-02 5.218520760536193848e-03 -1.564716361463069916e-02 3.173809498548507690e-02 1.273118687095120549e-04 -6.406651437282562256e-02 -4.995615687221288681e-03 -1.158249378204345703e-02 -1.530666835606098175e-02 -6.488007493317127228e-03 1.064444612711668015e-02 -7.460196036845445633e-03 -2.793427847791463137e-04 2.843846566975116730e-03 1.210488379001617432e-02 4.924542736262083054e-04 1.882992498576641083e-02 6.191392429172992706e-03 -4.468993865884840488e-04 -1.595805399119853973e-02 6.174067966639995575e-03 1.201219763606786728e-02 1.478225225582718849e-03 -6.665920955128967762e-04 1.907033286988735199e-02 -1.856639399193227291e-03 1.304276846349239349e-02 -1.546472776681184769e-02 -7.080873847007751465e-02 -4.816789180040359497e-03 -7.578407973051071167e-02 -2.774911373853683472e-02 2.524989843368530273e-02 -1.051858812570571899e-02 -2.555569633841514587e-02 -1.394917815923690796e-02 1.474519819021224976e-02 -9.956898167729377747e-03 4.494650289416313171e-03 -1.310986932367086411e-02 3.392035886645317078e-02 9.056414128281176090e-04 -6.303907930850982666e-02 -5.058302078396081924e-03 -1.331070717424154282e-02 4.065447952598333359e-03 -1.554647227749228477e-03 1.826461777091026306e-02 -5.843284539878368378e-03 -3.234260715544223785e-03 -7.782943081110715866e-03 1.880469545722007751e-02 7.634114008396863937e-03 3.646826371550559998e-02 -1.167674176394939423e-02 -1.189582422375679016e-02 -1.968182064592838287e-02 3.958697896450757980e-03 9.334570728242397308e-03 8.224902558140456676e-04 5.340978968888521194e-04 2.458773367106914520e-02 -7.243933156132698059e-03 1.888110302388668060e-02 -2.767866663634777069e-02 -8.296594023704528809e-02 -1.338074170053005219e-02 -7.638572901487350464e-02 -3.539662808179855347e-02 2.707342989742755890e-02 -9.174723178148269653e-03 -2.526894211769104004e-02 -1.336191128939390182e-02 1.359029393643140793e-02 -1.056696195155382156e-02 1.588804647326469421e-03 -1.143668685108423233e-02 3.481976315379142761e-02 2.867821836844086647e-03 -6.509058177471160889e-02 -7.311056833714246750e-03 -1.700602844357490540e-02 -8.596491999924182892e-03 -3.829054068773984909e-03 3.354053199291229248e-02 -1.198295038193464279e-02 -1.704081660136580467e-03 -2.495078137144446373e-03 1.525791827589273453e-02 2.175936661660671234e-02 4.609317332506179810e-02 -9.836744517087936401e-03 -3.488955274224281311e-02 -1.680819131433963776e-02 1.722567947581410408e-03 4.766738973557949066e-03 2.388463355600833893e-03 2.030702889896929264e-04 3.015892580151557922e-02 -1.131428219377994537e-02 2.278268896043300629e-02 -9.860897436738014221e-03 -9.282222390174865723e-02 1.972958818078041077e-02 1.594128832221031189e-02 -2.826516702771186829e-02 -5.526749882847070694e-03 1.643587835133075714e-02 1.003100071102380753e-02 -2.725636772811412811e-02 -1.895168609917163849e-02 -4.358864948153495789e-02 3.039606614038348198e-03 9.993637213483452797e-04 -1.311578787863254547e-02 -2.943416684865951538e-02 -1.889090798795223236e-02 1.899772882461547852e-02 -4.115752875804901123e-02 -8.476450602756813169e-05 1.615776121616363525e-02 -2.007800387218594551e-03 -2.160428278148174286e-02 -1.398635935038328171e-02 -3.314802423119544983e-02 -1.162971649318933487e-02 -1.425549108535051346e-02 5.365975201129913330e-03 -2.959652617573738098e-02 -2.079992368817329407e-02 -1.605428173206746578e-03 -3.620384633541107178e-02 5.633682943880558014e-03 1.151065062731504440e-02 6.080060265958309174e-03 -2.562952972948551178e-02 -1.178316492587327957e-02 -3.399418294429779053e-02 1.872500753961503506e-03 -1.991322264075279236e-02 4.001739900559186935e-03 -3.232248872518539429e-02 -3.136123716831207275e-02 -2.194842137396335602e-02 -3.870909661054611206e-02 -1.397935906425118446e-03 1.728844642639160156e-02 7.650888990610837936e-03 -3.227874264121055603e-02 -1.009266008622944355e-03 -1.718534901738166809e-02 -5.783326458185911179e-03 -2.141265943646430969e-02 1.402153447270393372e-02 -3.613597899675369263e-02 -2.569219656288623810e-02 -3.952133003622293472e-03 -3.659286350011825562e-02 5.706793162971735001e-03 4.072156152687966824e-04 4.631762392818927765e-03 -3.079848177731037140e-02 3.412511665374040604e-03 -2.490538358688354492e-02 1.090987119823694229e-03 -4.146025166846811771e-04 1.703363656997680664e-02 -2.561236545443534851e-02 -3.044205531477928162e-02 -2.309618704020977020e-02 -4.347166791558265686e-02 4.433724563568830490e-03 -1.282135490328073502e-02 2.084626030409708619e-04 -1.915411651134490967e-02 -1.578409341163933277e-03 -1.531457714736461639e-02 1.948928111232817173e-03 2.223234478151425719e-04 1.894210465252399445e-02 -1.382268127053976059e-02 -1.090487837791442871e-02 -4.705163650214672089e-03 -3.586977720260620117e-02 4.538007546216249466e-03 -2.764453552663326263e-02 -1.201252453029155731e-02 -1.777459681034088135e-02 1.354289986193180084e-02 3.693430451676249504e-03 -1.789877191185951233e-03 -2.570645592641085386e-04 1.378172636032104492e-02 -1.216448564082384109e-02 1.562792994081974030e-02 -7.173698861151933670e-03 -1.027018111199140549e-02 2.354597114026546478e-02 -3.059035725891590118e-02 -2.050062827765941620e-02 -6.412602961063385010e-03 -1.545276585966348648e-02 7.315955008380115032e-04 3.409253200516104698e-03 -1.167907472699880600e-02 8.746181614696979523e-03 -1.384359318763017654e-02 2.140939608216285706e-02 8.727268315851688385e-03 1.699011027812957764e-02 4.331803694367408752e-02 -3.849710524082183838e-02 -2.249232679605484009e-02 5.616952548734843731e-04 -3.928552847355604172e-03 3.091468289494514465e-02 3.159051015973091125e-02 -1.549866236746311188e-02 9.663952514529228210e-03 -4.332622513175010681e-03 3.053337708115577698e-02
-5.563837476074695587e-03 1.374122686684131622e-02 2.012726664543151855e-02 -1.107260701246559620e-03 -2.240192331373691559e-02 1.575514790602028370e-03 -1.018410082906484604e-02 4.066586028784513474e-03 -2.733836648985743523e-03 7.280714344233274460e-03 -5.052442662417888641e-03 1.384671923005953431e-04 2.375775203108787537e-02 -1.853129453957080841e-02 -5.254582501947879791e-03 -3.824810264632105827e-03 1.618745177984237671e-02 -1.423062570393085480e-02 4.115613643079996109e-03 1.292656455188989639e-02 1.772437989711761475e-02 3.640145994722843170e-03 1.619779877364635468e-02 -5.179746076464653015e-03 1.954078034032136202e-04 1.335006859153509140e-02 -5.550974514335393906e-03 -7.060938514769077301e-03 -6.897361483424901962e-03 1.082529872655868530e-02 2.240338362753391266e-04 4.436535760760307312e-03 -5.723712220788002014e-02 6.888409703969955444e-02 1.522660627961158752e-02 3.795680031180381775e-02 5.710852798074483871e-03 -3.858722746372222900e-03 1.833313331007957458e-02 2.155921049416065216e-02 5.098982728668488562e-05 -2.056539058685302734e-02 -6.353998905979096889e-04 -8.091869764029979706e-03 4.502495285123586655e-03 -3.102613380178809166e-03 5.764764733612537384e-03 -4.572593141347169876e-03 1.849229447543621063e-04 2.237535081803798676e-02 -1.733840815722942352e-02 -5.904638674110174179e-03 4.893396515399217606e-03 9.674621745944023132e-03 -1.204781606793403625e-02 4.221212118864059448e-03 8.484261110424995422e-03 4.870669450610876083e-03 1.588200917467474937e-03 1.136326510459184647e-02 -1.170786679722368717e-03 -3.923543728888034821e-03 1.370843127369880676e-02 -1.025047060102224350e-02 -4.783834330737590790e-03 -5.006998311728239059e-03 1.161561626940965652e-02 2.999010212079156190e-05 1.906433142721652985e-03 -6.807634234428405762e-02 7.372175157070159912e-02 2.199247665703296661e-02 4.370813444256782532e-02 4.232079954817891121e-04 -1.727656926959753036e-03 2.172698825597763062e-02 2.564716339111328125e-02 -1.343642245046794415e-03 -1.929147914052009583e-02 -1.182409119792282581e-03 -7.461523637175559998e-03 5.478807725012302399e-03 -4.308298230171203613e-03 6.311313714832067490e-03 -4.540202673524618149e-03 -3.893011016771197319e-04 2.228065207600593567e-02 -1.660738326609134674e-02 -6.483878940343856812e-03 -1.616133231436833739e-04 1.046156976372003555e-02 -1.000268757343292236e-02 7.210875395685434341e-03 -1.164357759989798069e-03 5.147843156009912491e-03 -5.370748694986104965e-03 1.136448979377746582e-02 -2.651191083714365959e-03 -5.815163254737854004e-03 1.200427301228046417e-02 -1.300158165395259857e-02 -2.191599225625395775e-03 -2.815596526488661766e-03 1.151165552437305450e-02 8.679636521264910698e-04 1.090857433155179024e-03 -8.406863361597061157e-02 6.811710447072982788e-02 2.885373868048191071e-02 4.122318327426910400e-02 6.306507624685764313e-03 4.128524451516568661e-04 2.612362615764141083e-02 2.816916257143020630e-02 -1.562771503813564777e-03 -1.909518800675868988e-02 -1.573107321746647358e-03 -7.958114147186279297e-03 5.212421063333749771e-03 -4.095872398465871811e-03 6.746740546077489853e-03 -2.216546097770333290e-03 -1.941131893545389175e-03 2.239231765270233154e-02 -1.643243059515953064e-02 -8.340084925293922424e-03 -2.814314793795347214e-03 9.527287445962429047e-03 -2.823183778673410416e-03 3.981574904173612595e-03 -2.821931615471839905e-03 7.625136524438858032e-03 -9.791809134185314178e-04 1.872817799448966980e-02 1.184363733045756817e-03 -1.593237975612282753e-03 9.251278825104236603e-03 -1.315963640809059143e-02 7.817407022230327129e-04 -6.178658222779631615e-04 1.158559508621692657e-02 3.361598355695605278e-04 7.337977876886725426e-04 -9.567020088434219360e-02 6.114540994167327881e-02 3.644282743334770203e-02 3.455380350351333618e-02 1.380728930234909058e-02 3.214531578123569489e-03 2.829005196690559387e-02 3.342971578240394592e-02 -1.674072234891355038e-03 -1.864874549210071564e-02 -1.753771794028580189e-03 -6.761960685253143311e-03 5.868198815733194351e-03 -4.593043122440576553e-03 5.572878289967775345e-03 -2.457177499309182167e-03 -6.348381284624338150e-04 2.313726022839546204e-02 -1.622271910309791565e-02 -9.765327908098697662e-03 -1.913633459480479360e-04 9.932689368724822998e-03 -1.805636449716985226e-03 -1.050795617629773915e-05 5.089339334517717361e-03 7.909926585853099823e-03 -2.727961633354425430e-03 1.385577768087387085e-02 6.328987888991832733e-03 1.007602736353874207e-02 8.100463077425956726e-03 -9.714473970234394073e-03 4.595445469021797180e-03 2.356252371100708842e-04 1.139472890645265579e-02 5.126942414790391922e-04 1.601905445568263531e-03 -1.069337204098701477e-01 5.009657517075538635e-02 3.515497595071792603e-02 1.523062493652105331e-02 2.116038464009761810e-02 7.229040376842021942e-03 2.834389917552471161e-02 3.961031883955001831e-02 -3.013964043930172920e-03 -1.770009100437164307e-02 -2.678707707673311234e-03 -6.801678333431482315e-03 6.314125377684831619e-03 -3.900919342413544655e-03 4.770155064761638641e-03 -1.961040776222944260e-03 -6.262061651796102524e-04 2.287313714623451233e-02 -1.581723801791667938e-02 -1.007989794015884399e-02 -3.471309028100222349e-04 7.235339377075433731e-03 1.743913162499666214e-03 -1.562634366564452648e-03 -1.001146156340837479e-03 1.845593936741352081e-02 3.997272870037704706e-04 1.243567001074552536e-02 5.881201941519975662e-03 1.502841990441083908e-02 1.047131512314081192e-02 -1.004867721349000931e-02 6.898723077028989792e-03 2.007039263844490051e-03 1.100011728703975677e-02 -7.369850936811417341e-05 1.329046324826776981e-03 -1.225596666336059570e-01 6.074875593185424805e-02 5.719747021794319153e-02 2.317231846973299980e-03 1.028323080390691757e-02 1.131657324731349945e-02 2.940378524363040924e-02 4.396320134401321411e-02 -2.798729343339800835e-03 -1.692810282111167908e-02 -1.431115786544978619e-03 -6.737076211720705032e-03 5.742982961237430573e-03 -4.174684174358844757e-03 4.462075885385274887e-03 1.828615204431116581e-04 -1.089593395590782166e-03 2.615311555564403534e-02 -1.451596524566411972e-02 -1.279041171073913574e-02 -2.143127610906958580e-03 1.575341448187828064e-03 4.972102586179971695e-03 -7.493907585740089417e-03 5.030725151300430298e-04 1.937982253730297089e-02 -3.241954138502478600e-03 1.697359047830104828e-02 7.249663118273019791e-03 2.744717337191104889e-02 1.549372216686606407e-03 -1.728073880076408386e-02 9.134051389992237091e-03 2.793355146422982216e-03 1.090077217668294907e-02 5.028074374422430992e-04 1.337149995379149914e-03 -1.362504065036773682e-01 5.220891535282135010e-02 7.270662486553192139e-02 5.063496530055999756e-03 2.190956659615039825e-02 1.631773449480533600e-02 3.096957504749298096e-02 5.403425544500350952e-02 -2.766954712569713593e-03 -1.556100882589817047e-02 -1.664623385295271873e-03 -8.388179354369640350e-03 5.897749681025743484e-03 -3.952945582568645477e-03 4.611199256032705307e-03 -5.076489105704240501e-05 -6.699440418742597103e-04 2.741958014667034149e-02 -1.397856045514345169e-02 -1.500051002949476242e-02 -4.734824877232313156e-03 -4.563198424875736237e-03 4.917850252240896225e-03 -2.638754667714238167e-03 4.287695046514272690e-03 1.287177018821239471e-02 -7.085126824676990509e-03 1.547350641340017319e-02 1.080205765902064741e-04 3.250367194414138794e-02 7.528038229793310165e-03 -1.879524439573287964e-02 1.094844564795494080e-02 2.820014953613281250e-03 1.168077066540718079e-02 -2.797571651171892881e-04 -5.397014901973307133e-04 -1.488711088895797729e-01 5.655714124441146851e-02 1.008161753416061401e-01 1.877328567206859589e-02 5.456636101007461548e-02 2.231771871447563171e-02 3.464795276522636414e-02 6.890836358070373535e-02 -3.798523219302296638e-03 -1.637805625796318054e-02 -2.662092447280883789e-03 -9.311938658356666565e-03 5.770132411271333694e-03 -4.440573509782552719e-03 3.827584208920598030e-03 1.959540415555238724e-03 -1.476781180826947093e-04 3.047717362642288208e-02 -1.396392192691564560e-02 -1.846825517714023590e-02 -1.802938757464289665e-03 -1.989408768713474274e-02 5.146995536051690578e-04 -1.020528934895992279e-02 8.452352136373519897e-03 1.031085290014743805e-02 4.585263086482882500e-04 5.370761733502149582e-03 -9.763829410076141357e-03 3.972613066434860229e-02 -1.294512185268104076e-03 -2.610172890126705170e-02 1.374208740890026093e-02 3.399722045287489891e-03 1.130362134426832199e-02 -6.218231865204870701e-04 -4.487030208110809326e-03 -1.633075773715972900e-01 5.431344360113143921e-02 1.421879380941390991e-01 5.112627521157264709e-02 7.296399027109146118e-02 3.153618052601814270e-02 3.942662850022315979e-02 9.165421128273010254e-02 -5.889510735869407654e-03 -1.653275080025196075e-02 -2.476403256878256798e-03 -1.004032511264085770e-02 6.906270515173673630e-03 -6.997366901487112045e-03 2.489034552127122879e-03 2.572051249444484711e-03 -7.439979235641658306e-04 3.289757296442985535e-02 -1.413621194660663605e-02 -2.296954207122325897e-02 9.611424058675765991e-03 -1.173311006277799606e-02 2.685798099264502525e-03 1.857238123193383217e-03 -1.003702916204929352e-02 1.236440613865852356e-02 3.085740143433213234e-03 1.658356003463268280e-02 -3.949552774429321289e-03 4.009910300374031067e-02 1.955353072844445705e-04 -3.031650185585021973e-02 1.538444589823484421e-02 4.177595954388380051e-03 1.181522570550441742e-02 -5.490674811881035566e-05 -5.756157916039228439e-03 -1.766608357429504395e-01 6.230481714010238647e-02 1.329261064529418945e-01 2.967008203268051147e-02 8.090312778949737549e-02 1.494274847209453583e-02 1.208204776048660278e-02 -1.346211880445480347e-02 -2.907805889844894409e-02 -1.294905506074428558e-02 2.680875733494758606e-02 5.321459844708442688e-03 9.784705005586147308e-03 -2.685065381228923798e-03 -2.079451270401477814e-02 1.616060733795166016e-02 1.678152009844779968e-02 5.288138519972562790e-03 1.601392286829650402e-03 9.417355991899967194e-03 -6.167888175696134567e-03 -1.095914188772439957e-02 -1.841972954571247101e-02 1.776988804340362549e-02 -1.018037460744380951e-02 1.521736290305852890e-02 -6.648534908890724182e-04 -1.102346088737249374e-02 8.328714407980442047e-03 2.779194712638854980e-02 8.493819274008274078e-03 -1.376935094594955444e-02 1.868592761456966400e-02 1.591321639716625214e-02 -2.446126006543636322e-02 -4.757321148645132780e-04 1.560973282903432846e-02 4.420340992510318756e-03 1.618437096476554871e-02 1.063002552837133408e-02 -1.649799197912216187e-02 -4.084384068846702576e-03 3.155677020549774170e-02 2.340116724371910095e-02 6.400803104043006897e-03 2.442310377955436707e-02 1.480101235210895538e-02 -1.423410978168249130e-02 -5.002011079341173172e-03 1.977601274847984314e-02 -1.160961389541625977e-02 6.274123210459947586e-03 6.588009186089038849e-03 -2.503082342445850372e-02 1.428460981696844101e-02 2.235133945941925049e-02 1.770188845694065094e-02 8.694651536643505096e-03 1.390738412737846375e-02 1.361924689263105392e-02 -2.478702552616596222e-02 4.501327406615018845e-03 2.326637879014015198e-02 -1.732807722873985767e-03 6.169134867377579212e-04 -8.211910724639892578e-03 -2.089844644069671631e-02 9.705898351967334747e-03 3.530358523130416870e-02 2.547285892069339752e-02 1.147621963173151016e-02 5.908851162530481815e-04 8.441533893346786499e-03 -1.651422306895256042e-02 -8.268722333014011383e-03 1.856587454676628113e-02 -2.458274830132722855e-03 8.040379732847213745e-03 -2.066440507769584656e-02 -2.819978073239326477e-02 1.791322231292724609e-02 3.115061298012733459e-02 1.736092939972877502e-02 -9.139747358858585358e-03 -1.101184915751218796e-02 8.807912468910217285e-03 -1.832796446979045868e-02 -2.059454796835780144e-03 6.870776880532503128e-03 -1.565425843000411987e-02 -2.396791096543893218e-04 -6.532159168273210526e-03 -3.684996813535690308e-02 1.071814075112342834e-02 4.325024411082267761e-02 9.334147907793521881e-03 -1.728445058688521385e-03 -2.890656469389796257e-03 -8.312019519507884979e-03 -1.617633365094661713e-02 -2.015139762079343200e-04 7.287902291864156723e-03 -3.039592411369085312e-03 5.077476613223552704e-03 -6.323819514364004135e-03 -1.594991795718669891e-02 1.567064598202705383e-02 4.371880367398262024e-02 2.150108106434345245e-02 -1.297400984913110733e-02 -1.214156951755285263e-02 -4.208539146929979324e-03 -1.955499872565269470e-03 5.573544185608625412e-03 8.053506724536418915e-03 -5.500777065753936768e-02 -2.975844312459230423e-03 -2.087302878499031067e-02 -9.902026504278182983e-03 -1.682751229964196682e-03 2.843254245817661285e-02 1.211182586848735809e-02
3.613184392452239990e-02 1.883107610046863556e-02 4.716347530484199524e-02 -1.951831020414829254e-02 2.941400511190295219e-03 2.084830775856971741e-02 5.961988121271133423e-03 -1.519086421467363834e-03 2.580763399600982666e-02 -3.761009871959686279e-02 -6.195870693773031235e-03 5.845025647431612015e-03 -2.264953032135963440e-02 1.974131911993026733e-02 -3.145493392366915941e-04 -2.011453179875388741e-04 6.200146861374378204e-03 3.847962012514472008e-03 -2.418925985693931580e-02 -3.447884460911154747e-03 8.103140629827976227e-03 -7.750377524644136429e-03 6.252421531826257706e-03 -1.760457083582878113e-02 6.285557523369789124e-03 1.093505974858999252e-02 -1.993972249329090118e-02 -1.497349888086318970e-02 3.020612057298421860e-03 1.215495262295007706e-02 -6.099636666476726532e-04 -2.716612070798873901e-02 2.261139079928398132e-02 1.732897385954856873e-02 2.458753623068332672e-02 -2.338665071874856949e-03 4.442567005753517151e-04 3.581004217267036438e-02 2.038035541772842407e-02 4.771918430924415588e-02 -1.932937093079090118e-02 3.425808157771825790e-03 2.049565874040126801e-02 4.651941824704408646e-03 -1.700285240076482296e-03 2.637222968041896820e-02 -3.922387957572937012e-02 -5.860567092895507812e-03 5.971493199467658997e-03 -2.262177504599094391e-02 1.852580904960632324e-02 -9.411334758624434471e-04 -8.024839684367179871e-03 6.360474508255720139e-03 1.828203676268458366e-04 -2.428550459444522858e-02 -1.591607113368809223e-03 1.525351218879222870e-02 4.138323492952622473e-05 5.049262195825576782e-03 -1.989215798676013947e-02 1.296333037316799164e-02 2.119366778060793877e-03 -1.279611978679895401e-02 -1.716305688023567200e-02 1.295593450777232647e-03 1.162664685398340225e-02 -1.035969180520623922e-04 -2.697119303047657013e-02 3.080892749130725861e-02 6.201049312949180603e-03 1.734920218586921692e-02 8.586578071117401123e-03 7.724091992713510990e-04 3.718938305974006653e-02 2.002454735338687897e-02 4.545031115412712097e-02 -1.896484009921550751e-02 3.400824731215834618e-03 1.947700791060924530e-02 4.340179730206727982e-03 -1.243839855305850506e-03 2.683231420814990997e-02 -3.807720169425010681e-02 -6.407464388757944107e-03 3.810563124716281891e-03 -2.039525657892227173e-02 1.833876781165599823e-02 -1.407274976372718811e-03 -1.249279081821441650e-02 4.612839315086603165e-03 2.779417904093861580e-03 -1.910414360463619232e-02 8.228180930018424988e-03 1.000962313264608383e-02 2.648883732035756111e-03 7.081254851073026657e-03 -2.201868034899234772e-02 2.041937969624996185e-02 -4.492380190640687943e-03 -1.032252889126539230e-02 -1.727869920432567596e-02 1.370505779050290585e-03 1.241580396890640259e-02 1.520785881439223886e-04 -2.941193990409374237e-02 4.281587526202201843e-02 7.661298383027315140e-03 1.742042601108551025e-02 1.682141213677823544e-03 -3.241659374907612801e-03 3.770368918776512146e-02 2.033672668039798737e-02 4.387512803077697754e-02 -1.847600564360618591e-02 4.183836281299591064e-03 1.898193173110485077e-02 2.894875593483448029e-03 -8.493009227095171809e-05 2.730623446404933929e-02 -3.798184916377067566e-02 -7.416150067001581192e-03 2.328599337488412857e-03 -1.899021863937377930e-02 1.699542254209518433e-02 -9.881147416308522224e-04 3.296607406809926033e-03 6.875098217278718948e-03 8.996520773507654667e-04 -2.173171192407608032e-02 1.444744691252708435e-02 6.237254012376070023e-03 9.564603096805512905e-04 -1.043537165969610214e-03 -1.670889183878898621e-02 1.486420724540948868e-02 -1.209934055805206299e-02 -1.187883317470550537e-03 -1.871895231306552887e-02 -2.099641824315767735e-05 1.254290807992219925e-02 6.715022027492523193e-04 -3.009828552603721619e-02 4.698043316602706909e-02 7.767054252326488495e-03 1.257312670350074768e-02 2.910303650423884392e-03 -4.953798488713800907e-04 3.955545648932456970e-02 2.126433514058589935e-02 4.465724900364875793e-02 -1.717734895646572113e-02 4.055721685290336609e-03 1.890417560935020447e-02 3.495359560474753380e-03 1.055666827596724033e-03 2.801357768476009369e-02 -3.878514096140861511e-02 -7.746465038508176804e-03 2.673772862181067467e-03 -1.780824735760688782e-02 1.546409260481595993e-02 -7.857104064896702766e-04 9.342663921415805817e-03 1.190627735923044384e-04 -5.583086516708135605e-03 -4.517612047493457794e-03 1.529756840318441391e-02 -5.175399128347635269e-04 -4.038258455693721771e-03 -5.507938563823699951e-03 -1.714779064059257507e-02 1.735145971179008484e-02 -1.046299096196889877e-02 6.257789675146341324e-03 -2.033120021224021912e-02 3.263219014115747996e-06 1.226560678333044052e-02 3.266587445978075266e-04 -3.105402924120426178e-02 5.727731809020042419e-02 1.631311140954494476e-02 1.838036440312862396e-02 1.576517522335052490e-02 5.242996849119663239e-03 4.005255922675132751e-02 2.124260179698467255e-02 4.770429804921150208e-02 -1.602271758019924164e-02 3.200991079211235046e-03 1.865380816161632538e-02 3.513671690598130226e-03 2.327712252736091614e-03 2.838756330311298370e-02 -3.971138596534729004e-02 -9.824072942137718201e-03 8.674190030433237553e-04 -1.657285355031490326e-02 1.537975762039422989e-02 -6.605556700378656387e-04 7.159177679568529129e-03 2.572427503764629364e-03 -1.219876948744058609e-02 -6.817034445703029633e-04 1.853147707879543304e-02 3.270558081567287445e-03 -1.938749570399522781e-03 -4.597605671733617783e-03 -1.645419374108314514e-02 1.297274883836507797e-02 3.045935882255434990e-04 -3.242626320570707321e-03 -2.201473526656627655e-02 -3.903623146470636129e-04 1.186852715909481049e-02 -1.976511266548186541e-04 -3.320435434579849243e-02 6.397917866706848145e-02 1.200812682509422302e-02 2.080869488418102264e-02 7.519164588302373886e-03 2.446695789694786072e-02 3.946365043520927429e-02 2.318192273378372192e-02 4.845191910862922668e-02 -1.612799242138862610e-02 3.094180254265666008e-03 1.515322457998991013e-02 3.438770771026611328e-03 4.496179521083831787e-03 2.756804786622524261e-02 -3.896601870656013489e-02 -1.006237324327230453e-02 3.780838742386549711e-04 -1.491800975054502487e-02 1.365699060261249542e-02 -1.064187381416559219e-03 6.741553544998168945e-03 -5.415013991296291351e-03 -1.836413145065307617e-02 1.024927943944931030e-02 1.914462260901927948e-02 1.218986464664340019e-03 3.997572697699069977e-03 4.539418499916791916e-03 -1.682251505553722382e-02 1.403595879673957825e-02 -5.827587097883224487e-03 -1.679469272494316101e-02 -2.224811911582946777e-02 -6.087846704758703709e-04 1.258869003504514694e-02 3.794273361563682556e-04 -3.621227294206619263e-02 7.520590722560882568e-02 1.969433203339576721e-02 1.177318207919597626e-02 1.138223335146903992e-02 1.244343910366296768e-02 4.021072387695312500e-02 2.334003336727619171e-02 5.277095735073089600e-02 -1.484326273202896118e-02 1.940009533427655697e-03 1.508233603090047836e-02 4.500266630202531815e-03 5.199296399950981140e-03 2.856735698878765106e-02 -3.932492807507514954e-02 -1.130813732743263245e-02 -1.700649590929970145e-04 -1.421350333839654922e-02 1.304607372730970383e-02 -2.684876555576920509e-03 3.715799655765295029e-03 -6.351449061185121536e-03 -2.022602967917919159e-02 1.996369659900665283e-02 3.167061507701873779e-02 1.869778148829936981e-02 -8.600056171417236328e-03 1.206073720823042095e-04 -1.321354229003190994e-02 6.149099208414554596e-03 -2.254597609862685204e-03 -2.428402379155158997e-02 -2.318842895328998566e-02 -8.918922685552388430e-05 1.216054987162351608e-02 4.009178956039249897e-04 -3.749372810125350952e-02 8.280796557664871216e-02 1.871607452630996704e-02 1.738049089908599854e-03 -2.783791162073612213e-03 3.154336661100387573e-02 3.870573267340660095e-02 2.442638948559761047e-02 5.817721411585807800e-02 -1.424693781882524490e-02 -3.580269403755664825e-04 1.283399481326341629e-02 5.697484593838453293e-03 8.094254881143569946e-03 2.857765741646289825e-02 -3.983256593346595764e-02 -1.333573181182146072e-02 -7.496726466342806816e-04 -1.324934326112270355e-02 1.194644439965486526e-02 -4.191079176962375641e-03 -2.723647747188806534e-03 -1.073966175317764282e-02 -3.252119570970535278e-02 2.796909958124160767e-02 3.673929348587989807e-02 2.218212932348251343e-02 -1.623984612524509430e-02 -1.688602380454540253e-03 -1.346603780984878540e-02 4.122237674891948700e-03 5.842115730047225952e-03 -1.862449571490287781e-02 -2.258819341659545898e-02 3.671804151963442564e-04 1.221439335495233536e-02 -1.089912693714722991e-04 -4.153403267264366150e-02 9.769400954246520996e-02 3.217004239559173584e-02 -4.579955246299505234e-03 -5.226033274084329605e-03 5.915093794465065002e-02 3.784892335534095764e-02 2.291131019592285156e-02 6.608405709266662598e-02 -1.276161707937717438e-02 -6.472904351539909840e-04 1.067002862691879272e-02 8.597305044531822205e-03 1.055765245109796524e-02 3.340599313378334045e-02 -4.285947605967521667e-02 -1.393136568367481232e-02 -1.077556167729198933e-03 -1.321067661046981812e-02 1.176657713949680328e-02 -4.167160484939813614e-03 9.675752371549606323e-03 -2.001592330634593964e-02 -3.856290504336357117e-02 3.042445145547389984e-02 3.783816844224929810e-02 4.449998587369918823e-02 -1.676552183926105499e-02 5.644305143505334854e-03 -1.921399869024753571e-02 2.198222652077674866e-02 2.292197011411190033e-02 -2.929459325969219208e-02 -2.098932489752769470e-02 1.205045409733429551e-04 1.173350866883993149e-02 -2.748947881627827883e-04 -4.623985290527343750e-02 1.089153513312339783e-01 2.986840344965457916e-02 -2.038273029029369354e-02 -2.777444198727607727e-02 3.592072427272796631e-02 -4.568777978420257568e-03 1.014435570687055588e-02 -5.953697487711906433e-03 -2.943823114037513733e-02 1.383765786886215210e-02 -6.434020120650529861e-03 -4.086799453943967819e-03 1.189456414431333542e-02 -2.345594018697738647e-02 4.897207021713256836e-03 -4.847381729632616043e-03 -1.987582538276910782e-03 2.082162909209728241e-02 -3.129232907667756081e-03 7.485792040824890137e-03 -1.893312111496925354e-02 -2.655322663486003876e-02 1.136196870356798172e-02 -3.462935611605644226e-02 1.223058253526687622e-02 2.012847550213336945e-02 -1.827543042600154877e-02 3.123210277408361435e-03 1.244664378464221954e-02 -1.730860583484172821e-02 2.141080051660537720e-02 2.975528128445148468e-03 -1.913954503834247589e-03 -6.252740975469350815e-03 -3.530606999993324280e-02 1.922246185131371021e-03 -1.945390738546848297e-02 4.623312503099441528e-03 2.599164284765720367e-02 -6.644911132752895355e-03 -5.064981523901224136e-03 -3.241521771997213364e-03 -3.557420335710048676e-03 2.836701646447181702e-02 -7.978584617376327515e-03 -1.289184147026389837e-04 -1.843886077404022217e-02 -4.414470866322517395e-02 4.862380214035511017e-03 -2.617764845490455627e-02 6.098315585404634476e-03 3.432312235236167908e-02 -9.510111995041370392e-03 -5.554094444960355759e-03 1.733729615807533264e-02 -1.062799151986837387e-02 3.498091176152229309e-02 -1.430287119001150131e-02 6.379986647516489029e-03 -1.580714248120784760e-02 -2.842775173485279083e-02 2.594156190752983093e-03 -1.466370932757854462e-02 -1.472056191414594650e-02 2.915276400744915009e-02 -2.271390520036220551e-03 -9.774514473974704742e-03 1.642701774835586548e-02 -1.385565008968114853e-02 3.954473510384559631e-02 -2.175018563866615295e-02 -9.612276335246860981e-04 -2.359880320727825165e-02 -3.414831683039665222e-02 -1.101078698411583900e-03 -1.285384409129619598e-02 -8.718539029359817505e-03 2.067588828504085541e-02 -3.984818700700998306e-03 1.287159975618124008e-03 2.733658067882061005e-02 -2.629825472831726074e-02 2.112914435565471649e-02 -1.999348029494285583e-02 -1.388454996049404144e-02 -4.662564489990472794e-03 -3.820617124438285828e-02 5.979328881949186325e-03 -1.758907921612262726e-02 -2.466840669512748718e-02 2.169415168464183807e-02 -8.672646246850490570e-03 1.781700761057436466e-03 3.499364480376243591e-02 -2.465415373444557190e-02 1.457772124558687210e-02 -1.851274631917476654e-02 -5.281353369355201721e-03 -2.194784581661224365e-02 -2.736003510653972626e-02 9.353232569992542267e-03 -3.135493025183677673e-02 -1.652592606842517853e-02 1.301203481853008270e-02 -1.040950324386358261e-02 -2.230075624538585544e-04 3.530141711235046387e-02 -1.998583972454071045e-02 1.488881185650825500e-02 -1.599020324647426605e-02 -1.219363417476415634e-02 -2.015994116663932800e-02 -3.539304062724113464e-02 -3.269615117460489273e-03 -7.931926287710666656e-03 -5.703371763229370117e-02 2.016159333288669586e-02 7.063476368784904480e-03 -8.370627649128437042e-03 2.286718413233757019e-02 2.459600102156400681e-03 -2.389981038868427277e-02
