5.104022026062011719e-01 -1.966408193111419678e-01 -5.726914480328559875e-02 1.177972555160522461e-02 -2.429685741662979126e-02 2.628392353653907776e-02 3.028939478099346161e-02 1.783979684114456177e-02 -2.748168632388114929e-02 -3.331482037901878357e-02 1.834566332399845123e-02 9.568114764988422394e-03 6.584524177014827728e-03 6.565583404153585434e-03 -1.975180953741073608e-02 1.875878311693668365e-02 1.298249140381813049e-02 -9.582955390214920044e-03 4.672056064009666443e-02 -7.494168728590011597e-02 -3.181776404380798340e-02 2.466490305960178375e-02 -3.321415279060602188e-03 -1.150408759713172913e-02 5.891123041510581970e-02 -3.502482548356056213e-02 -1.859476417303085327e-02 1.761588454246520996e+00 -1.041093945503234863e+00 1.755687594413757324e-02 -1.742652058601379395e-02 -6.488551199436187744e-02 1.203529685735702515e-01 -4.042197391390800476e-02 2.002802789211273193e-01 -7.279437780380249023e-02 1.726695597171783447e-01 3.916699886322021484e-01 -1.682333797216415405e-01 -5.762067809700965881e-02 1.407895889133214951e-02 -1.599328219890594482e-02 1.724117621779441833e-02 3.160316869616508484e-02 1.572845620103180408e-03 -1.988157071173191071e-02 -2.779823727905750275e-02 2.055958844721317291e-02 -1.333067892119288445e-03 1.497676316648721695e-02 -3.171529970131814480e-04 -1.394409220665693283e-02 1.615970209240913391e-02 2.288284944370388985e-03 -1.211559027433395386e-02 -6.319556385278701782e-03 -4.549601301550865173e-02 -1.611290499567985535e-02 9.340361692011356354e-03 -1.015405263751745224e-02 -1.026328653097152710e-02 2.712732367217540741e-02 -1.338218618184328079e-02 -1.710894331336021423e-02 1.853437662124633789e+00 -1.129865646362304688e+00 1.682046987116336823e-02 -1.679216325283050537e-02 -5.640999972820281982e-02 1.538800895214080811e-01 -7.414839416742324829e-02 1.511156857013702393e-01 -9.741713292896747589e-03 1.315800547599792480e-01 2.862353920936584473e-01 -1.382877379655838013e-01 -6.749744713306427002e-02 1.836992427706718445e-02 -1.131585985422134399e-02 1.207921095192432404e-02 2.943352982401847839e-02 -1.017730124294757843e-02 -5.860188510268926620e-03 -2.191746793687343597e-02 2.098617702722549438e-02 -9.105261415243148804e-03 1.921556890010833740e-02 -4.568615462630987167e-03 -6.099462043493986130e-03 5.632650107145309448e-03 -2.002262044697999954e-03 -3.693287726491689682e-03 -4.195316880941390991e-02 -2.801726572215557098e-02 -1.003800611943006516e-02 9.322034195065498352e-03 -1.159669551998376846e-02 -3.078706562519073486e-03 2.203265763819217682e-02 -8.362736552953720093e-03 -4.396891221404075623e-03 1.941488146781921387e+00 -1.262216448783874512e+00 1.571748405694961548e-02 -1.670102402567863464e-02 -4.614154621958732605e-02 1.871185153722763062e-01 -9.835800528526306152e-02 1.107706651091575623e-01 -1.855826191604137421e-02 1.036422476172447205e-01 1.893518418073654175e-01 -1.055662259459495544e-01 -7.062858343124389648e-02 2.229334414005279541e-02 -1.085662189871072769e-02 8.148008026182651520e-03 2.534370683133602142e-02 -1.499957684427499771e-02 6.891350727528333664e-03 -1.844342052936553955e-02 1.933178305625915527e-02 -1.431955955922603607e-02 2.160283364355564117e-02 -6.542091257870197296e-03 -6.599012995138764381e-04 -1.159869693219661713e-02 -7.721047848463058472e-03 -1.317020040005445480e-03 -7.030805200338363647e-02 -2.068616263568401337e-02 -8.612182922661304474e-03 7.988054305315017700e-03 -1.276562362909317017e-02 -5.811271723359823227e-03 2.531751245260238647e-02 -2.913630451075732708e-04 1.579672913067042828e-03 1.997330904006958008e+00 -1.420867919921875000e+00 1.465400960296392441e-02 -1.656588166952133179e-02 -4.911965504288673401e-02 2.231408804655075073e-01 -1.200550273060798645e-01 8.123092353343963623e-02 -4.578795284032821655e-02 5.351871252059936523e-02 9.299861639738082886e-02 -7.726353406906127930e-02 -6.916249543428421021e-02 2.446726337075233459e-02 -1.177014131098985672e-02 4.700607154518365860e-03 2.062429487705230713e-02 -2.013621293008327484e-02 1.606305129826068878e-02 -1.226889435201883316e-02 1.553012896329164505e-02 -1.559318695217370987e-02 2.107157558202743530e-02 -6.060265935957431793e-03 6.010412238538265228e-03 -1.205986365675926208e-02 -1.010478567332029343e-02 -5.210391245782375336e-03 -6.824736297130584717e-02 -2.091845683753490448e-02 8.403318002820014954e-03 3.635051427409052849e-03 -1.799836941063404083e-02 -6.787689402699470520e-03 3.461346402764320374e-02 8.306018076837062836e-03 4.864839371293783188e-03 2.006200075149536133e+00 -1.593716979026794434e+00 1.591780409216880798e-02 -1.792515628039836884e-02 -4.745866730809211731e-02 2.589600086212158203e-01 -9.768125414848327637e-02 6.513199955224990845e-02 -5.940059199929237366e-02 1.451315078884363174e-02 -9.479888714849948883e-03 -4.654322192072868347e-02 -6.458081305027008057e-02 2.714996784925460815e-02 -1.240323577076196671e-02 1.318375812843441963e-03 1.519018877297639847e-02 -2.340168133378028870e-02 2.521177381277084351e-02 -4.831749945878982544e-03 7.122764363884925842e-03 -1.295733265578746796e-02 2.117787487804889679e-02 -3.388461424037814140e-03 9.658200666308403015e-03 -1.008779648691415787e-02 -1.037957705557346344e-02 -1.012325379997491837e-02 -6.593140959739685059e-02 -1.067896280437707901e-02 1.145739015191793442e-02 3.662299830466508865e-03 -2.129488252103328705e-02 -1.180184073746204376e-02 5.650878697633743286e-02 1.078754477202892303e-02 -3.275763476267457008e-03 1.963845014572143555e+00 -1.767772793769836426e+00 1.580485515296459198e-02 -1.716870814561843872e-02 -4.109524562954902649e-02 2.764829695224761963e-01 -8.981034159660339355e-02 5.919925868511199951e-02 -4.502850770950317383e-02 -5.587671324610710144e-02 -1.129627078771591187e-01 -1.385310199111700058e-02 -4.899804294109344482e-02 2.983842231333255768e-02 -6.364639848470687866e-03 -2.466195961460471153e-03 9.220642037689685822e-03 -2.738616988062858582e-02 2.987900935113430023e-02 1.069288467988371849e-03 -3.033189568668603897e-03 -1.139588467776775360e-02 1.953855715692043304e-02 -7.222000276669859886e-04 1.214501168578863144e-02 -5.435455124825239182e-03 -7.216244935989379883e-03 -9.700014255940914154e-03 -5.769738182425498962e-02 1.725765503942966461e-02 1.594250276684761047e-02 1.138311461545526981e-03 -1.199441961944103241e-02 -1.525162160396575928e-02 7.790586352348327637e-02 5.268454551696777344e-03 1.137120067141950130e-03 1.882845282554626465e+00 -1.934099793434143066e+00 1.677616685628890991e-02 -1.882563903927803040e-02 -4.089641571044921875e-02 2.625278532505035400e-01 -7.402281463146209717e-02 5.506992712616920471e-02 -7.958304136991500854e-02 -8.103566616773605347e-02 -2.205822467803955078e-01 2.613615058362483978e-02 -3.230436518788337708e-02 3.147720918059349060e-02 5.309543572366237640e-03 -5.944525822997093201e-03 6.264550145715475082e-03 -2.664705924689769745e-02 2.663274109363555908e-02 5.476103629916906357e-03 -2.161369286477565765e-02 -9.065642021596431732e-03 1.837008073925971985e-02 3.118203952908515930e-03 1.341450680047273636e-02 -1.335228513926267624e-02 -1.749450154602527618e-02 -4.752812907099723816e-03 -5.390942096710205078e-02 2.999601885676383972e-02 2.091479860246181488e-02 -4.162133205682039261e-03 1.334319822490215302e-02 -1.048933714628219604e-02 7.874205708503723145e-02 1.334652118384838104e-02 1.410591066814959049e-03 1.777017951011657715e+00 -2.087021350860595703e+00 1.682140491902828217e-02 -1.781758852303028107e-02 -5.298182740807533264e-02 2.344247549772262573e-01 4.010718781501054764e-03 1.020367443561553955e-01 -1.016848757863044739e-01 -9.867037832736968994e-02 -3.274104297161102295e-01 8.470074087381362915e-02 -3.398699313402175903e-02 2.511466480791568756e-02 3.363520652055740356e-02 -1.025132555514574051e-02 1.697830669581890106e-02 -2.607602439820766449e-02 -1.662709983065724373e-03 9.607178159058094025e-03 -5.045263841748237610e-02 -7.553999777883291245e-03 1.910996809601783752e-02 5.998960696160793304e-03 1.428391225636005402e-02 -1.964162848889827728e-02 -3.794960305094718933e-02 4.392016213387250900e-03 -4.686392098665237427e-02 9.938731091096997261e-04 3.120191395282745361e-03 -1.332243066281080246e-02 4.045895487070083618e-02 -6.130082998424768448e-03 6.865341961383819580e-02 2.178077399730682373e-02 -8.381756488233804703e-04 1.664225101470947266e+00 -2.220480918884277344e+00 1.900304295122623444e-02 -1.920992694795131683e-02 -7.323067635297775269e-02 1.964995414018630981e-01 9.842527657747268677e-02 2.071991711854934692e-01 -1.497746706008911133e-01 -7.180469483137130737e-02 -4.333097934722900391e-01 1.504914760589599609e-01 -1.127274408936500549e-01 1.061092596501111984e-02 5.779213085770606995e-02 9.584384039044380188e-03 7.753801345825195312e-02 -5.217850953340530396e-02 -6.859045475721359253e-02 1.678514294326305389e-02 -6.814661622047424316e-02 2.740741148591041565e-02 1.123091205954551697e-02 1.940840622410178185e-03 -7.568121887743473053e-03 -1.075128931552171707e-02 -5.366666987538337708e-02 2.058004029095172882e-02 -5.259083956480026245e-02 -3.431235253810882568e-02 -4.469026252627372742e-02 -7.607574574649333954e-03 4.910519719123840332e-02 7.330577936954796314e-04 -2.959680510684847832e-03 4.694915190339088440e-02 4.745107516646385193e-02 1.562295198440551758e+00 -2.283259391784667969e+00 -3.535837400704622269e-03 -1.863597705960273743e-02 -8.616133779287338257e-02 1.297544836997985840e-01 2.158744186162948608e-01 3.602253198623657227e-01 -4.999894648790359497e-02 6.277402490377426147e-02 1.598271168768405914e-02 -3.171027079224586487e-02 -2.695064432919025421e-02 -5.458670668303966522e-03 9.630822390317916870e-02 2.937768027186393738e-02 -3.026912454515695572e-03 -8.500105887651443481e-02 8.075636811554431915e-03 -6.106078252196311951e-02 -3.235352050978690386e-04 -1.146023944020271301e-01 1.816654354333877563e-01 -2.994564734399318695e-02 -1.169753912836313248e-02 -3.718357160687446594e-02 4.276308696717023849e-03 7.920063287019729614e-02 7.059738971292972565e-03 8.935709297657012939e-02 -7.491300255060195923e-02 8.753758855164051056e-03 -6.961441040039062500e-02 -2.304240502417087555e-02 -1.026981174945831299e-01 2.618909180164337158e-01 -7.758273929357528687e-02 -1.632054895162582397e-02 -1.020260434597730637e-02 -4.482690244913101196e-03 5.592852085828781128e-02 4.420280456542968750e-03 4.128744080662727356e-02 -7.328502088785171509e-02 1.925753057003021240e-02 -7.583691924810409546e-02 -6.499873474240303040e-03 -9.979563206434249878e-02 2.951265275478363037e-01 -8.736661076545715332e-02 -1.973056048154830933e-02 -1.347031816840171814e-02 1.704816590063273907e-03 3.931172937154769897e-02 5.386472214013338089e-03 6.260833144187927246e-02 -4.744425788521766663e-02 8.365128189325332642e-03 -7.969356328248977661e-02 -5.368977785110473633e-03 -1.150557994842529297e-01 3.026197552680969238e-01 -5.191199481487274170e-02 -2.662004157900810242e-02 3.418740816414356232e-03 1.328228134661912918e-02 2.037145383656024933e-02 -7.231330499053001404e-03 3.961743786931037903e-02 -3.250052779912948608e-02 -3.629941865801811218e-02 -7.810030132532119751e-02 3.875216469168663025e-03 -1.013213694095611572e-01 2.730693519115447998e-01 -1.018792837858200073e-01 -2.299256995320320129e-02 3.064814582467079163e-02 -5.705794785171747208e-03 1.786728203296661377e-02 -2.696983888745307922e-02 4.821846634149551392e-02 1.745201833546161652e-02 -8.929676376283168793e-03 -5.980933830142021179e-02 3.903634380549192429e-03 -1.268757581710815430e-01 2.120624333620071411e-01 -1.334813386201858521e-01 -2.003323659300804138e-02 3.284540399909019470e-02 -1.189989037811756134e-02 8.632312528789043427e-05 -4.533183574676513672e-02 2.875903807580471039e-02 4.545477032661437988e-02 -5.267670005559921265e-02 -4.109160602092742920e-02 1.112857949919998646e-03 -1.260274052619934082e-01 1.262361705303192139e-01 -1.242728307843208313e-01 -7.792150601744651794e-03 2.580111101269721985e-02 -2.078989334404468536e-02 -4.002519324421882629e-02 -7.985652983188629150e-02 -4.462917894124984741e-02 5.886013433337211609e-02 -4.539189860224723816e-02 9.006953798234462738e-03 -2.706753462553024292e-02 -1.355015188455581665e-01 6.512148678302764893e-02 -6.635897606611251831e-02 2.540865726768970490e-02 2.144376002252101898e-02 -4.299303516745567322e-02 -9.167162328958511353e-02 -7.768576592206954956e-02 -1.014870256185531616e-01 3.514839336276054382e-02 -3.023783117532730103e-02 4.125091060996055603e-02 -1.876479014754295349e-02 -7.796364277601242065e-02 -1.688989065587520599e-02
-8.321629166603088379e-01 -1.662057787179946899e-01 -7.798989862203598022e-02 -1.118519529700279236e-01 2.475343942642211914e-01 -6.087631732225418091e-02 1.564363688230514526e-01 2.010877579450607300e-01 8.924729377031326294e-02 -3.783421814441680908e-01 -5.862840265035629272e-02 -2.689077854156494141e-01 2.152787894010543823e-01 1.243107989430427551e-01 -3.657451868057250977e-01 5.242346599698066711e-02 -1.781797967851161957e-02 -4.804872348904609680e-02 -1.417692005634307861e-01 6.971279624849557877e-03 -7.231228053569793701e-02 9.638652205467224121e-02 1.388684809207916260e-01 1.511059142649173737e-02 -2.406985014677047729e-01 -1.295998692512512207e-01 1.546881068497896194e-02 -2.465927451848983765e-01 7.299478352069854736e-02 -5.070569738745689392e-02 -2.059692293405532837e-01 2.774672210216522217e-01 3.826262354850769043e-01 -1.232791900634765625e+00 -1.383041262626647949e+00 -3.016698360443115234e-01 2.021405100822448730e-01 -9.156022071838378906e-01 -2.057159245014190674e-01 -8.402933180332183838e-02 -9.863227605819702148e-02 2.338271439075469971e-01 -6.047704070806503296e-02 1.270431578159332275e-01 2.083201408386230469e-01 1.030583903193473816e-01 -3.680676519870758057e-01 -5.459719151258468628e-02 -2.644862830638885498e-01 2.023665308952331543e-01 1.169090345501899719e-01 -3.475646674633026123e-01 5.438750982284545898e-02 -8.417119830846786499e-02 -6.546695530414581299e-02 -1.011769697070121765e-01 3.177817538380622864e-02 -2.536347508430480957e-02 6.928575038909912109e-02 7.908315211534500122e-02 -2.988980524241924286e-02 -2.509522438049316406e-02 -7.102819532155990601e-02 5.409214273095130920e-02 -2.188936322927474976e-01 -3.801394253969192505e-03 -5.402626469731330872e-02 -2.050599753856658936e-01 2.368894815444946289e-01 9.360724687576293945e-01 -8.559725284576416016e-01 -6.745737791061401367e-01 -2.871738672256469727e-01 1.982498019933700562e-01 -1.013391852378845215e+00 -2.491116970777511597e-01 -7.384884357452392578e-02 -8.409892767667770386e-02 2.268415987491607666e-01 -5.542530491948127747e-02 1.037119850516319275e-01 2.170087099075317383e-01 1.192220151424407959e-01 -3.637018799781799316e-01 -4.845256358385086060e-02 -2.632560431957244873e-01 1.996150165796279907e-01 1.099990084767341614e-01 -3.174971044063568115e-01 3.545759245753288269e-02 -2.411075867712497711e-02 -3.005406819283962250e-02 -3.343992680311203003e-02 2.252283506095409393e-02 7.494956254959106445e-03 3.928532451391220093e-02 1.035798862576484680e-01 -5.818026605993509293e-03 4.405507072806358337e-02 -9.679097682237625122e-02 5.957001447677612305e-02 -2.399487793445587158e-01 -7.405334711074829102e-02 -5.639780685305595398e-02 -2.045812159776687622e-01 1.582995504140853882e-01 1.511179208755493164e+00 -7.568110227584838867e-01 -5.836589932441711426e-01 -2.597577273845672607e-01 1.626219004392623901e-01 -1.119902610778808594e+00 -2.898911535739898682e-01 -4.727435484528541565e-02 -7.374779134988784790e-02 2.206465005874633789e-01 -4.925294592976570129e-02 8.675146847963333130e-02 2.287094891071319580e-01 1.372332572937011719e-01 -3.625835478305816650e-01 -4.204319417476654053e-02 -2.593673765659332275e-01 2.007665038108825684e-01 1.039501354098320007e-01 -2.917148768901824951e-01 2.474165335297584534e-02 5.339565873146057129e-02 1.625269278883934021e-02 3.306586295366287231e-02 3.236651048064231873e-02 4.714127164334058762e-03 4.452235996723175049e-02 1.261774450540542603e-01 2.175512909889221191e-02 7.364598661661148071e-02 -8.244274556636810303e-02 3.889593482017517090e-02 -3.077775835990905762e-01 -1.194894835352897644e-01 -5.875599384307861328e-02 -2.048538476228713989e-01 6.494508683681488037e-02 2.192439317703247070e+00 -9.110863804817199707e-01 -5.144226551055908203e-01 -2.217610627412796021e-01 2.519028186798095703e-01 -1.232883095741271973e+00 -3.312696814537048340e-01 -2.290465869009494781e-02 -6.061524897813796997e-02 2.175444066524505615e-01 -3.931959345936775208e-02 7.273896038532257080e-02 2.446935325860977173e-01 1.591808944940567017e-01 -3.581290841102600098e-01 -3.633318841457366943e-02 -2.542864680290222168e-01 2.038792371749877930e-01 1.038718670606613159e-01 -2.675919532775878906e-01 3.232010081410408020e-02 1.210904195904731750e-01 7.409540563821792603e-02 3.434573858976364136e-02 2.965863607823848724e-02 -3.819388570263981819e-03 3.932979330420494080e-02 1.015721783041954041e-01 4.996475204825401306e-02 1.242771744728088379e-01 -7.338395714759826660e-02 3.976074606180191040e-02 -4.127216637134552002e-01 -1.360904872417449951e-01 -6.070376187562942505e-02 -2.044708132743835449e-01 -9.390705823898315430e-02 3.073646545410156250e+00 -1.298956394195556641e+00 -4.619896411895751953e-01 -1.651443094015121460e-01 2.749389111995697021e-01 -1.358780741691589355e+00 -3.772457540035247803e-01 3.174415323883295059e-03 -4.938141256570816040e-02 2.167843729257583618e-01 -2.650398761034011841e-02 6.093344092369079590e-02 2.631972134113311768e-01 1.787066459655761719e-01 -3.524435162544250488e-01 -3.634703159332275391e-02 -2.477595657110214233e-01 2.061818540096282959e-01 1.055207923054695129e-01 -2.410117238759994507e-01 6.287400424480438232e-02 1.719405353069305420e-01 7.763696461915969849e-02 -2.308415621519088745e-02 2.462692931294441223e-02 -9.375285357236862183e-03 3.921920061111450195e-02 4.087509214878082275e-02 6.142675131559371948e-02 1.347060650587081909e-01 -7.705994695425033569e-02 5.846537649631500244e-02 -5.398533344268798828e-01 -1.123323515057563782e-01 -6.193174421787261963e-02 -2.050068825483322144e-01 -3.293075859546661377e-01 4.178852558135986328e+00 -1.899391770362854004e+00 -4.815368354320526123e-01 -7.302516698837280273e-02 2.726290524005889893e-01 -1.498137235641479492e+00 -4.400238394737243652e-01 -1.152735203504562378e-02 -3.778112307190895081e-02 2.105839252471923828e-01 -1.546740718185901642e-02 4.789539426565170288e-02 2.833403646945953369e-01 1.958946883678436279e-01 -3.390748500823974609e-01 -4.381338879466056824e-02 -2.421291619539260864e-01 2.054231613874435425e-01 1.098765432834625244e-01 -2.139360457658767700e-01 5.775262042880058289e-02 1.593423336744308472e-01 5.165305361151695251e-02 -1.275951713323593140e-01 2.514732256531715393e-02 -1.967618428170681000e-02 5.335947498679161072e-02 -3.702943772077560425e-02 3.085722215473651886e-02 1.020170375704765320e-01 -5.756540596485137939e-02 3.438309207558631897e-02 -6.745297908782958984e-01 -4.921544343233108521e-02 -6.225247308611869812e-02 -2.053667157888412476e-01 -6.347976326942443848e-01 5.522545814514160156e+00 -2.521357774734497070e+00 -5.973857045173645020e-01 -2.709674239158630371e-01 2.910421788692474365e-01 -1.664913296699523926e+00 -5.379820466041564941e-01 -1.216365247964859009e-01 -1.751687750220298767e-02 1.941436380147933960e-01 -7.701446302235126495e-03 3.027282096445560455e-02 3.013176918029785156e-01 2.096768766641616821e-01 -3.196033537387847900e-01 -6.355946511030197144e-02 -2.371828556060791016e-01 1.955382674932479858e-01 1.161083653569221497e-01 -1.923764497041702271e-01 5.872105434536933899e-02 9.777854382991790771e-02 2.414639107882976532e-03 -2.017604261636734009e-01 2.118499949574470520e-02 -3.979292884469032288e-02 5.098178610205650330e-02 -1.179871186614036560e-01 2.411651983857154846e-02 2.666829340159893036e-02 -5.277321115136146545e-02 -7.825791253708302975e-04 -7.964329719543457031e-01 5.006017163395881653e-02 -6.190781295299530029e-02 -2.059023827314376831e-01 -1.011332631111145020e+00 7.045003890991210938e+00 -3.293714761734008789e+00 -9.207445979118347168e-01 -4.914309978485107422e-01 2.630732357501983643e-01 -1.892027735710144043e+00 -6.874922513961791992e-01 -3.613199889659881592e-01 9.508271701633930206e-03 1.495380848646163940e-01 -1.178850512951612473e-02 6.392843555659055710e-03 3.264141976833343506e-01 2.158979028463363647e-01 -2.907078266143798828e-01 -1.000709161162376404e-01 -2.303498536348342896e-01 1.624903082847595215e-01 1.278741955757141113e-01 -1.920687705278396606e-01 7.397033274173736572e-02 -9.265915490686893463e-03 -1.379124969244003296e-01 -3.043848574161529541e-01 1.248711496591567993e-01 -2.680039964616298676e-02 3.777644038200378418e-02 -1.804139465093612671e-01 5.044199153780937195e-02 -4.496126994490623474e-02 -4.706998541951179504e-02 -2.444655448198318481e-02 -8.861981034278869629e-01 1.836040318012237549e-01 -6.198762357234954834e-02 -2.054169625043869019e-01 -1.379698872566223145e+00 8.727522850036621094e+00 -4.233086109161376953e+00 -2.000413894653320312e+00 -8.415715694427490234e-01 1.716848015785217285e-01 -2.283825159072875977e+00 -9.156635403633117676e-01 -7.645239830017089844e-01 4.015066847205162048e-02 4.710144177079200745e-02 -2.186723984777927399e-02 -4.792410135269165039e-02 3.620281517505645752e-01 2.421781420707702637e-01 -2.370129078626632690e-01 -1.363376528024673462e-01 -1.964773833751678467e-01 9.122640639543533325e-02 1.388666629791259766e-01 -2.763261497020721436e-01 -8.414492011070251465e-02 1.786039471626281738e-01 -5.581561923027038574e-01 -6.312974691390991211e-01 3.242036998271942139e-01 1.380676180124282837e-01 2.201410010457038879e-03 9.987953305244445801e-02 4.763188585638999939e-02 8.771300315856933594e-02 4.533452913165092468e-03 -2.242322415113449097e-01 -9.178320765495300293e-01 3.787394762039184570e-01 -8.385551720857620239e-02 -2.042588889598846436e-01 -1.875070810317993164e+00 1.059870815277099609e+01 -5.422402381896972656e+00 -4.884854793548583984e+00 -2.137418985366821289e+00 4.782981276512145996e-01 7.424236834049224854e-02 -4.632269740104675293e-01 3.684610500931739807e-02 -1.843324303627014160e-01 2.813636660575866699e-01 -6.517206430435180664e-01 -4.725006222724914551e-01 -8.080178499221801758e-01 -2.071657180786132812e-01 8.801563829183578491e-02 6.171433627605438232e-02 -3.388873636722564697e-01 -5.948546528816223145e-01 6.341525819152593613e-03 -3.998522162437438965e-01 1.363416910171508789e-01 -1.613104045391082764e-01 2.010875940322875977e-01 -5.819165706634521484e-01 -4.306901693344116211e-01 -6.882835030555725098e-01 -2.562921047210693359e-01 6.300378590822219849e-02 -5.223616212606430054e-02 -2.563160657882690430e-01 -6.286965012550354004e-01 5.826428160071372986e-02 -3.778313100337982178e-01 1.982020288705825806e-01 -1.607828140258789062e-01 1.205593869090080261e-01 -5.431704521179199219e-01 -4.363559484481811523e-01 -6.529989242553710938e-01 -2.657464742660522461e-01 5.327185243368148804e-02 -1.110961064696311951e-01 -2.082697898149490356e-01 -6.101264953613281250e-01 1.521384119987487793e-01 -2.789456546306610107e-01 2.419555634260177612e-01 -1.824852377176284790e-01 9.795933961868286133e-02 -4.766518771648406982e-01 -5.017213225364685059e-01 -6.480856537818908691e-01 -2.312613427639007568e-01 1.371552646160125732e-01 -1.817122399806976318e-01 -2.027482986450195312e-01 -5.844779610633850098e-01 2.356504797935485840e-01 -1.991245597600936890e-01 1.817572116851806641e-01 -1.991569548845291138e-01 8.784839510917663574e-02 -4.281481206417083740e-01 -3.594669699668884277e-01 -6.393584012985229492e-01 -1.887157708406448364e-01 2.005806714296340942e-01 -2.629577219486236572e-01 -2.076497077941894531e-01 -6.350241899490356445e-01 2.451199442148208618e-01 -4.690402746200561523e-02 7.546730339527130127e-02 -1.921654343605041504e-01 7.161927223205566406e-02 -3.440408110618591309e-01 -3.108970224857330322e-01 -6.319848299026489258e-01 -2.944366261363029480e-02 2.933754920959472656e-01 -2.832512855529785156e-01 -1.791791617870330811e-01 -7.182366251945495605e-01 4.951064288616180420e-01 6.513537466526031494e-02 -1.091691479086875916e-01 -2.030593156814575195e-01 6.656966358423233032e-02 -2.597586512565612793e-01 -2.091945707798004150e-01 -6.191916465759277344e-01 2.195722311735153198e-01 3.491761684417724609e-01 -2.970267832279205322e-01 -2.062414139509201050e-01 -7.689085602760314941e-01 4.958631992340087891e-01 1.752104163169860840e-01 -3.959550857543945312e-01 -1.557513028383255005e-01 3.730430826544761658e-02 -1.924632489681243896e-01 -2.530444785952568054e-02 -5.279316902160644531e-01 6.011095643043518066e-01 4.200603663921356201e-01 -1.465590149164199829e-01 -2.842405438423156738e-01 -8.003489971160888672e-01 4.048168957233428955e-01 3.841225206851959229e-01 -9.766783118247985840e-01 -1.088717132806777954e-01 -2.314647287130355835e-02 -2.364193350076675415e-01 2.239164412021636963e-01 -2.232151478528976440e-01 1.052003145217895508e+00 5.357599258422851562e-01 1.487061195075511932e-02 -6.074997782707214355e-01 -7.442023158073425293e-01
5.148992538452148438e-01 -2.523739337921142578e-01 -2.332810461521148682e-01 -7.171708345413208008e-02 -4.380878061056137085e-02 -2.909585535526275635e-01 1.060292646288871765e-01 1.617024838924407959e-01 -1.567091345787048340e-01 4.989469945430755615e-01 6.467887759208679199e-01 -2.307877242565155029e-01 -1.798701137304306030e-01 5.917343497276306152e-01 4.988324642181396484e-02 -1.185441762208938599e-01 -2.353442609310150146e-01 3.611741364002227783e-01 3.838463872671127319e-02 -1.850737184286117554e-01 7.533711940050125122e-02 1.314906328916549683e-01 -5.713028367608785629e-03 4.892471432685852051e-02 8.897672295570373535e-01 -1.899253576993942261e-01 4.810645431280136108e-02 -4.123933911323547363e-01 -1.229353770613670349e-01 1.057151332497596741e-01 -1.817163527011871338e-01 -2.841614484786987305e-01 7.038614749908447266e-01 8.963708281517028809e-01 -3.567142784595489502e-02 -1.306450664997100830e-01 -8.420353382825851440e-02 5.024538040161132812e-01 -2.839747965335845947e-01 -2.101073265075683594e-01 -7.292664796113967896e-02 -2.733209356665611267e-02 -2.611984014511108398e-01 9.931122511625289917e-02 1.476777195930480957e-01 -1.388371139764785767e-01 4.907330572605133057e-01 6.438174247741699219e-01 -2.416011542081832886e-01 -1.559415757656097412e-01 5.959280729293823242e-01 5.839518085122108459e-02 -3.455860540270805359e-02 -1.178974807262420654e-01 2.121805697679519653e-01 -9.696774929761886597e-02 -2.512404620647430420e-01 1.016673520207405090e-01 8.081585913896560669e-02 -3.789246082305908203e-02 6.839451845735311508e-03 3.937515318393707275e-01 8.315898478031158447e-02 7.031708210706710815e-02 -3.676543831825256348e-01 -7.254359126091003418e-02 1.017819866538047791e-01 -1.805317252874374390e-01 -2.470420300960540771e-01 7.233510613441467285e-01 1.414069056510925293e+00 -3.294061720371246338e-01 1.095261946320533752e-01 -9.882308542728424072e-02 4.904519915580749512e-01 -3.136315345764160156e-01 -2.182687222957611084e-01 -6.546857953071594238e-02 -9.062967263162136078e-03 -2.380107343196868896e-01 9.316226094961166382e-02 1.342498809099197388e-01 -1.222809180617332458e-01 4.929358661174774170e-01 6.414202451705932617e-01 -2.531220614910125732e-01 -1.434300988912582397e-01 6.002063751220703125e-01 6.364963203668594360e-02 -3.227788954973220825e-02 -8.576832711696624756e-02 1.354058980941772461e-01 -8.087408542633056641e-02 -2.447364628314971924e-01 1.300439238548278809e-01 9.143849462270736694e-02 -2.763046137988567352e-02 -5.748091638088226318e-02 2.105716764926910400e-01 1.703130751848220825e-01 1.020791754126548767e-01 -2.925867438316345215e-01 -4.560003429651260376e-02 9.921173006296157837e-02 -1.806818097829818726e-01 -2.124492675065994263e-01 7.280288338661193848e-01 1.748412251472473145e+00 -2.220507711172103882e-01 1.580881513655185699e-02 -6.051493063569068909e-02 4.868900477886199951e-01 -3.407293260097503662e-01 -2.366391420364379883e-01 -5.469866469502449036e-02 3.200306091457605362e-03 -2.184379696846008301e-01 8.869080990552902222e-02 1.224919259548187256e-01 -1.100579202175140381e-01 4.989199340343475342e-01 6.342278122901916504e-01 -2.675965428352355957e-01 -1.306416690349578857e-01 6.017112135887145996e-01 6.824357807636260986e-02 -3.875885903835296631e-02 -1.034532189369201660e-01 6.192499026656150818e-02 -2.971887029707431793e-02 -2.114068716764450073e-01 1.479956358671188354e-01 1.257899105548858643e-01 -5.282576382160186768e-02 -1.176840737462043762e-01 9.778559207916259766e-02 2.098578512668609619e-01 1.173157319426536560e-01 -2.012996673583984375e-01 -4.333995282649993896e-02 9.673023223876953125e-02 -1.800037324428558350e-01 -1.922134011983871460e-01 7.372053265571594238e-01 1.997701287269592285e+00 -6.711824983358383179e-02 -1.062925457954406738e-01 -1.615911424160003662e-01 4.871377348899841309e-01 -3.664869666099548340e-01 -2.600111067295074463e-01 -4.498597607016563416e-02 1.481878105551004410e-02 -1.994270980358123779e-01 8.632868528366088867e-02 1.121207624673843384e-01 -1.035745292901992798e-01 5.069876313209533691e-01 6.258662343025207520e-01 -2.823360562324523926e-01 -1.175882294774055481e-01 6.003244519233703613e-01 7.583510130643844604e-02 -6.647629290819168091e-02 -1.081085801124572754e-01 -1.371130719780921936e-02 6.159168109297752380e-02 -2.071069329977035522e-01 1.503403335809707642e-01 1.568562388420104980e-01 -2.525432780385017395e-02 -1.870820075273513794e-01 7.439482957124710083e-02 2.023507654666900635e-01 7.493209838867187500e-02 -1.097533330321311951e-01 -6.904058158397674561e-02 9.571199864149093628e-02 -1.802774667739868164e-01 -2.289961725473403931e-01 6.911720633506774902e-01 2.182333230972290039e+00 -8.618077635765075684e-02 -3.765008226037025452e-02 -2.321628630161285400e-01 4.861998260021209717e-01 -3.879108130931854248e-01 -2.768705189228057861e-01 -4.122045636177062988e-02 2.416494861245155334e-02 -1.822806000709533691e-01 8.458142727613449097e-02 1.053368151187896729e-01 -9.681018441915512085e-02 5.169577598571777344e-01 6.176159381866455078e-01 -3.014931678771972656e-01 -9.767816215753555298e-02 5.996447205543518066e-01 8.486028760671615601e-02 -6.865093111991882324e-02 -5.864044651389122009e-02 -4.189555719494819641e-02 1.030206456780433655e-01 -1.511729955673217773e-01 1.214711293578147888e-01 1.511337310075759888e-01 -8.645314723253250122e-03 -2.174272537231445312e-01 1.217218190431594849e-01 2.365612387657165527e-01 5.621033534407615662e-02 -3.597263991832733154e-02 -1.202152594923973083e-01 9.431248903274536133e-02 -1.801869571208953857e-01 -3.254662156105041504e-01 5.406586527824401855e-01 2.353708505630493164e+00 -2.603489160537719727e-01 2.704395912587642670e-02 -3.468888700008392334e-01 4.787695109844207764e-01 -4.124674797058105469e-01 -2.585448622703552246e-01 -4.361546784639358521e-02 3.184693679213523865e-02 -1.631025373935699463e-01 7.924690097570419312e-02 9.862937778234481812e-02 -9.092977643013000488e-02 5.227947235107421875e-01 6.136824488639831543e-01 -3.196751177310943604e-01 -6.973717361688613892e-02 6.004110574722290039e-01 9.590020775794982910e-02 -4.391259700059890747e-02 -1.102662645280361176e-02 -8.141360012814402580e-04 1.382750570774078369e-01 -1.311323195695877075e-01 9.099014848470687866e-02 1.311962753534317017e-01 3.913787752389907837e-02 -2.527692914009094238e-01 2.282053381204605103e-01 2.326274514198303223e-01 5.047551542520523071e-02 9.249798022210597992e-03 -1.856247186660766602e-01 9.357348829507827759e-02 -1.810783892869949341e-01 -4.892630875110626221e-01 2.845970392227172852e-01 2.344010829925537109e+00 -4.856234788894653320e-01 1.879369169473648071e-01 -3.272374272346496582e-01 4.710866212844848633e-01 -4.341854453086853027e-01 -2.086032927036285400e-01 -5.245979502797126770e-02 4.111165180802345276e-02 -1.456618160009384155e-01 6.687776744365692139e-02 9.164092689752578735e-02 -8.046182245016098022e-02 5.263493061065673828e-01 6.135692000389099121e-01 -3.400633633136749268e-01 -3.504618257284164429e-02 6.023858785629272461e-01 1.112355515360832214e-01 -3.913245350122451782e-02 -3.463290049694478512e-04 1.031417697668075562e-01 8.358820527791976929e-02 -1.971923708915710449e-01 1.077669486403465271e-01 1.594635546207427979e-01 7.840776443481445312e-02 -3.944340646266937256e-01 2.787543237209320068e-01 2.815180122852325439e-01 1.495219767093658447e-02 2.510376460850238800e-02 -2.581319808959960938e-01 9.370112419128417969e-02 -1.810223013162612915e-01 -7.333415150642395020e-01 -1.322470009326934814e-01 2.092408895492553711e+00 -5.138383507728576660e-01 4.142779707908630371e-01 -3.100964725017547607e-01 4.730348885059356689e-01 -4.634657204151153564e-01 -8.772148191928863525e-02 -6.404951214790344238e-02 5.097063630819320679e-02 -1.270862668752670288e-01 4.078484699130058289e-02 8.299081772565841675e-02 -5.737137794494628906e-02 5.183762907981872559e-01 6.230589747428894043e-01 -3.677629530429840088e-01 -5.913951899856328964e-03 6.052714586257934570e-01 1.352848708629608154e-01 -4.603474587202072144e-02 -9.847957640886306763e-02 7.276730239391326904e-02 1.587572693824768066e-02 -1.558305174112319946e-01 1.055868491530418396e-01 2.255146503448486328e-01 -1.426372956484556198e-02 -5.349190831184387207e-01 -1.969079859554767609e-02 2.830347418785095215e-01 4.639934375882148743e-02 1.748589240014553070e-02 -3.244032561779022217e-01 9.263703972101211548e-02 -1.806632429361343384e-01 -1.079442262649536133e+00 -7.546350359916687012e-01 1.762032270431518555e+00 1.900695860385894775e-01 4.410591721534729004e-01 3.094510175287723541e-02 5.250934958457946777e-01 -5.162668228149414062e-01 2.275438606739044189e-01 -8.397538959980010986e-02 5.695920437574386597e-02 -9.727981686592102051e-02 -2.692917129024863243e-03 8.133780956268310547e-02 1.752031850628554821e-03 5.009477734565734863e-01 6.622810959815979004e-01 -3.843052983283996582e-01 -2.750872820615768433e-02 5.985878705978393555e-01 1.343515366315841675e-01 4.779219999909400940e-02 -4.474385082721710205e-02 -3.380305171012878418e-01 8.601938188076019287e-02 4.169234037399291992e-01 3.389188945293426514e-01 5.261039733886718750e-01 -1.038458123803138733e-01 -1.109212994575500488e+00 -1.376667618751525879e+00 -2.884009107947349548e-02 7.140778750181198120e-02 7.760697510093450546e-03 -3.519616127014160156e-01 7.225207984447479248e-02 -1.795764714479446411e-01 -1.607720971107482910e+00 -1.606421589851379395e+00 1.512870907783508301e+00 1.909708261489868164e+00 1.580139249563217163e-01 9.598627686500549316e-01 -6.191694736480712891e-01 -9.502987265586853027e-01 9.337278604507446289e-01 1.277606844902038574e+00 -3.618956506252288818e-01 -7.113851606845855713e-02 -5.394493341445922852e-01 9.962340593338012695e-01 8.087128400802612305e-02 9.861798286437988281e-01 -9.941752254962921143e-02 5.786208510398864746e-01 -4.530826807022094727e-01 -9.182264804840087891e-01 -8.848409652709960938e-01 8.160464763641357422e-01 1.179529428482055664e+00 -5.676778554916381836e-01 1.088586673140525818e-01 -7.888545393943786621e-01 9.508987665176391602e-01 2.609680593013763428e-01 1.213848233222961426e+00 -1.698965430259704590e-01 4.578019976615905762e-01 -3.916659057140350342e-01 -7.503770589828491211e-01 -8.124577403068542480e-01 6.607082486152648926e-01 1.071756124496459961e+00 -8.070801496505737305e-01 1.802527457475662231e-01 -5.345910787582397461e-01 9.595905542373657227e-01 3.947748839855194092e-01 1.417750477790832520e+00 -1.665251702070236206e-01 2.499065399169921875e-01 -3.347252309322357178e-01 -8.507053852081298828e-01 -7.331936955451965332e-01 5.533633828163146973e-01 9.828537702560424805e-01 -1.019497752189636230e+00 2.742385268211364746e-01 -7.708479762077331543e-01 1.132327675819396973e+00 5.309941768646240234e-01 1.618484258651733398e+00 -1.141654327511787415e-01 2.331685423851013184e-01 -3.729306161403656006e-01 -6.907562017440795898e-01 -7.681586742401123047e-01 5.320910811424255371e-01 1.005299210548400879e+00 -1.166256070137023926e+00 1.962038576602935791e-01 -8.971343040466308594e-01 1.305588603019714355e+00 6.167740225791931152e-01 1.843468189239501953e+00 -5.407283082604408264e-02 2.585718929767608643e-01 -3.697992265224456787e-01 -6.408214569091796875e-01 -8.894312381744384766e-01 7.379183173179626465e-01 1.054311037063598633e+00 -1.171996831893920898e+00 5.115953274071216583e-03 -1.228078961372375488e+00 1.589284658432006836e+00 5.763393044471740723e-01 2.009026288986206055e+00 -1.177084352821111679e-02 3.566433787345886230e-01 -2.240961641073226929e-01 -8.635731935501098633e-01 -1.019448637962341309e+00 9.854542016983032227e-01 1.114464640617370605e+00 -1.278953909873962402e+00 -2.845829725265502930e-01 -1.012319326400756836e+00 1.845876693725585938e+00 5.259250402450561523e-01 2.148710727691650391e+00 9.627584367990493774e-02 5.381051301956176758e-01 -1.110033243894577026e-01 -1.391079068183898926e+00 -1.263777613639831543e+00 1.273393511772155762e+00 1.237026691436767578e+00 -1.225727796554565430e+00 -6.325452327728271484e-01 -9.287338852882385254e-01 2.157135963439941406e+00 5.195083618164062500e-01 2.195757389068603516e+00 3.321321904659271240e-01 7.069875597953796387e-01 -6.641309708356857300e-02 -1.741619944572448730e+00 -1.477054834365844727e+00 1.192956209182739258e+00 1.421656370162963867e+00 -1.159822106361389160e+00 -9.495336413383483887e-01 -5.643346309661865234e-01 2.439792633056640625e+00 6.280686259269714355e-01 1.995531797409057617e+00 7.602807283401489258e-01 7.782026529312133789e-01 -8.995264023542404175e-02
-7.682611048221588135e-02 1.413366496562957764e-01 6.351819038391113281e-01 1.076292172074317932e-01 2.497163414955139160e-01 -5.912817120552062988e-01 2.957653999328613281e-01 -1.115768179297447205e-01 4.719974473118782043e-03 -4.217119887471199036e-02 3.438455760478973389e-01 -1.698201149702072144e-01 1.283509284257888794e-01 3.086878657341003418e-01 7.134605944156646729e-02 3.816394135355949402e-03 -1.175975129008293152e-01 5.325365439057350159e-02 1.591969579458236694e-01 5.979432724416255951e-03 5.772151798009872437e-02 1.608156785368919373e-02 1.970638632774353027e-01 1.262517124414443970e-01 4.271555840969085693e-01 -1.329207569360733032e-01 -1.262143254280090332e-02 1.023160740733146667e-01 -4.657551050186157227e-01 -5.620344281196594238e-01 -4.484233856201171875e-01 3.908439576625823975e-01 7.117789983749389648e-01 -1.197545528411865234e+00 6.743007898330688477e-02 -5.948547720909118652e-01 1.312667131423950195e-01 -9.644650667905807495e-02 1.373013556003570557e-01 6.402012109756469727e-01 1.132559105753898621e-01 2.499648183584213257e-01 -5.750867724418640137e-01 2.860363423824310303e-01 -1.032133847475051880e-01 5.274076946079730988e-03 -4.446042701601982117e-02 3.536431193351745605e-01 -1.540062576532363892e-01 1.187705993652343750e-01 3.097366690635681152e-01 6.235548108816146851e-02 -1.515596453100442886e-02 -7.320430129766464233e-02 -6.991478614509105682e-03 5.706614255905151367e-02 8.869831450283527374e-03 6.400665640830993652e-02 -2.605093643069267273e-02 2.001167535781860352e-01 1.264172047376632690e-01 1.686971187591552734e-01 -4.863875731825828552e-02 2.261077985167503357e-02 5.720745027065277100e-02 -4.059328734874725342e-01 -5.662096142768859863e-01 -4.477212429046630859e-01 4.714576303958892822e-01 7.975415587425231934e-01 -6.493570208549499512e-01 1.190913468599319458e-02 -1.346645951271057129e-01 5.241432040929794312e-02 -1.208725422620773315e-01 1.414357870817184448e-01 6.371074318885803223e-01 1.178231611847877502e-01 2.529863715171813965e-01 -5.619171261787414551e-01 2.703311145305633545e-01 -9.396715462207794189e-02 -3.249385626986622810e-03 -4.851944372057914734e-02 3.616520166397094727e-01 -1.435355395078659058e-01 1.031170338392257690e-01 3.145135045051574707e-01 5.353742092847824097e-02 -2.604901045560836792e-02 -4.734877869486808777e-02 -2.364123985171318054e-02 6.141326390206813812e-03 2.527789678424596786e-03 3.591058403253555298e-02 -4.849483072757720947e-02 1.898342519998550415e-01 9.941779822111129761e-02 1.382914930582046509e-01 1.091182581149041653e-03 8.264506235718727112e-03 4.160898178815841675e-02 -3.424803912639617920e-01 -5.690340399742126465e-01 -4.476203024387359619e-01 5.372781157493591309e-01 9.317030310630798340e-01 -2.811709046363830566e-01 1.330981403589248657e-01 -1.206180602312088013e-01 7.737179845571517944e-02 -1.354191899299621582e-01 1.431546360254287720e-01 6.365040540695190430e-01 1.175333634018898010e-01 2.591896057128906250e-01 -5.496141314506530762e-01 2.504880726337432861e-01 -8.526157587766647339e-02 -1.310449186712503433e-02 -5.352765694260597229e-02 3.722828328609466553e-01 -1.366057097911834717e-01 8.699037134647369385e-02 3.255538046360015869e-01 4.504484310746192932e-02 -3.558697178959846497e-02 -3.602168709039688110e-02 -3.715920448303222656e-02 -1.652129180729389191e-02 -7.893020287156105042e-03 4.302598070353269577e-03 -4.044032841920852661e-02 1.718972325325012207e-01 5.696476250886917114e-02 1.363755166530609131e-01 6.500022113323211670e-02 9.187590330839157104e-03 5.045033991336822510e-02 -2.774773538112640381e-01 -5.701074004173278809e-01 -4.480316042900085449e-01 6.222883462905883789e-01 1.112120985984802246e+00 -7.005735486745834351e-02 2.766771614551544189e-01 -2.121647000312805176e-01 1.488437503576278687e-01 -1.443444639444351196e-01 1.408462524414062500e-01 6.280070543289184570e-01 1.206782907247543335e-01 2.686697840690612793e-01 -5.372891426086425781e-01 2.331426441669464111e-01 -7.560207694768905640e-02 -2.546579949557781219e-02 -5.583937466144561768e-02 3.856801986694335938e-01 -1.329648047685623169e-01 7.127840816974639893e-02 3.413949310779571533e-01 3.588442504405975342e-02 -7.127145305275917053e-03 2.903970191255211830e-03 -6.134061515331268311e-02 -2.668687142431735992e-02 -2.113895677030086517e-02 -3.948001656681299210e-03 -2.929545938968658447e-02 1.760751008987426758e-01 4.484348930418491364e-03 1.380235254764556885e-01 1.098037883639335632e-01 1.236951537430286407e-02 7.032606005668640137e-02 -2.094681859016418457e-01 -5.720974802970886230e-01 -4.472200572490692139e-01 7.142915725708007812e-01 1.369258999824523926e+00 7.564725726842880249e-02 4.205673933029174805e-01 -3.287977278232574463e-01 2.404158860445022583e-01 -1.417681872844696045e-01 1.284044384956359863e-01 6.340585350990295410e-01 1.259099841117858887e-01 2.776037752628326416e-01 -5.275172591209411621e-01 2.145536094903945923e-01 -6.135265529155731201e-02 -3.899662196636199951e-02 -6.338554620742797852e-02 4.032764136791229248e-01 -1.334837824106216431e-01 5.228540301322937012e-02 3.602502942085266113e-01 2.277674525976181030e-02 -1.223537232726812363e-02 3.130653128027915955e-02 -9.400214999914169312e-02 -3.039186261594295502e-02 -2.018673531711101532e-02 1.196091342717409134e-02 -1.855391077697277069e-02 1.706410199403762817e-01 -6.309276074171066284e-02 1.205974593758583069e-01 1.560855656862258911e-01 2.775947377085685730e-02 9.129836410284042358e-02 -1.368799507617950439e-01 -5.738219022750854492e-01 -4.479790329933166504e-01 8.247970938682556152e-01 1.672770500183105469e+00 1.893443167209625244e-01 5.786689519882202148e-01 -4.045047760009765625e-01 3.517262339591979980e-01 -1.261547207832336426e-01 1.002094149589538574e-01 6.414639949798583984e-01 1.333846747875213623e-01 2.880758643150329590e-01 -5.223435759544372559e-01 1.977397054433822632e-01 -4.365864396095275879e-02 -5.358298495411872864e-02 -6.813760846853256226e-02 4.279116690158843994e-01 -1.383141577243804932e-01 3.153263032436370850e-02 3.816256821155548096e-01 9.694767184555530548e-03 -1.051069982349872589e-02 7.606764137744903564e-02 -1.611379235982894897e-01 -1.178562734276056290e-02 1.443517487496137619e-02 3.713118657469749451e-02 -1.556812599301338196e-02 1.504719555377960205e-01 -9.200450032949447632e-02 6.975811719894409180e-02 1.655515134334564209e-01 2.994611300528049469e-02 1.088694110512733459e-01 -5.762477219104766846e-02 -5.739253163337707520e-01 -4.477024674415588379e-01 9.644135236740112305e-01 2.106822967529296875e+00 5.281190276145935059e-01 8.067223429679870605e-01 -3.904024064540863037e-01 4.799346923828125000e-01 -9.946889430284500122e-02 5.401758849620819092e-02 6.316504478454589844e-01 1.375583857297897339e-01 3.016270101070404053e-01 -5.237981677055358887e-01 1.834416389465332031e-01 -2.359284274280071259e-02 -6.579193472862243652e-02 -7.361917942762374878e-02 4.590201079845428467e-01 -1.462538689374923706e-01 5.234207957983016968e-03 4.004482328891754150e-01 4.868445976171642542e-04 -4.022057633846998215e-03 1.674511879682540894e-01 -2.687161862850189209e-01 -7.924718665890395641e-04 1.416922826319932938e-02 4.940437525510787964e-02 -2.708389051258563995e-02 1.338853538036346436e-01 -1.190611496567726135e-01 -1.918683573603630066e-02 1.285815536975860596e-01 4.257517307996749878e-02 1.198841854929924011e-01 2.947729639708995819e-02 -5.731966495513916016e-01 -4.478792548179626465e-01 1.151186347007751465e+00 2.673052549362182617e+00 1.195072650909423828e+00 7.286403179168701172e-01 -4.103713333606719971e-01 5.054863095283508301e-01 -6.729600578546524048e-02 -8.727603591978549957e-03 6.199502944946289062e-01 1.474531292915344238e-01 3.090596497058868408e-01 -5.341529846191406250e-01 1.614940166473388672e-01 -4.159740172326564789e-03 -6.971521675586700439e-02 -8.283939957618713379e-02 4.961653649806976318e-01 -1.606813818216323853e-01 -2.696457877755165100e-02 4.218734204769134521e-01 -1.426207181066274643e-02 2.767195738852024078e-02 2.533771097660064697e-01 -4.259180724620819092e-01 -8.640618622303009033e-02 3.748995065689086914e-02 7.743597775697708130e-02 -7.294064760208129883e-02 6.407772004604339600e-02 -2.088515311479568481e-01 -4.906025528907775879e-02 9.497883170843124390e-02 5.247078463435173035e-02 1.348546147346496582e-01 1.291466653347015381e-01 -5.733757615089416504e-01 -4.478387832641601562e-01 1.387092351913452148e+00 3.387052059173583984e+00 2.162527084350585938e+00 2.841449081897735596e-01 -3.137449026107788086e-01 4.755973517894744873e-01 -3.738733753561973572e-02 -1.153665482997894287e-01 6.266859173774719238e-01 1.587279289960861206e-01 2.940584421157836914e-01 -5.373955368995666504e-01 9.838233888149261475e-02 2.376262657344341278e-02 -2.172295749187469482e-02 -1.057788729667663574e-01 5.677022933959960938e-01 -1.531448811292648315e-01 -7.908010482788085938e-02 4.604210555553436279e-01 -8.236405253410339355e-02 3.494241088628768921e-02 3.892039954662322998e-01 -7.810645103454589844e-01 -5.299482345581054688e-01 1.409846842288970947e-01 -1.365390373393893242e-03 -1.405462920665740967e-01 -1.920925825834274292e-02 -4.472458660602569580e-01 2.154958695173263550e-01 7.096698284149169922e-01 -1.330474577844142914e-02 1.674457490444183350e-01 2.889528870582580566e-01 -5.950849652290344238e-01 -4.479513764381408691e-01 1.677479147911071777e+00 4.172866821289062500e+00 3.599198341369628906e+00 -5.942515134811401367e-01 -1.595190048217773438e+00 2.316303253173828125e-01 1.219541877508163452e-01 -2.301399856805801392e-01 3.038604855537414551e-01 3.945709466934204102e-01 9.979893267154693604e-02 -2.097570598125457764e-01 4.383524358272552490e-01 7.104762792587280273e-01 2.241582609713077545e-02 3.958790898323059082e-01 -5.875108838081359863e-01 2.203255891799926758e-01 -1.597192883491516113e-01 1.560502648353576660e-01 -2.179620712995529175e-01 3.084892034530639648e-01 4.172968566417694092e-01 -9.351427853107452393e-02 -1.674537360668182373e-01 3.505898118019104004e-01 6.576081514358520508e-01 1.591377556324005127e-01 5.699044466018676758e-01 -5.604858398437500000e-01 1.632734686136245728e-01 -1.697106808423995972e-01 1.994259357452392578e-01 -1.801868230104446411e-01 3.558984398841857910e-01 4.502817690372467041e-01 -2.615780532360076904e-01 -1.112791001796722412e-01 4.065034389495849609e-01 5.684430003166198730e-01 2.798155248165130615e-01 6.480251550674438477e-01 -5.125523209571838379e-01 1.356249898672103882e-01 -1.862737983465194702e-01 2.082690000534057617e-01 -1.245747953653335571e-01 3.725675344467163086e-01 4.984107017517089844e-01 -3.244606852531433105e-01 -8.313445746898651123e-02 3.097874522209167480e-01 5.098227262496948242e-01 3.730531036853790283e-01 6.999221444129943848e-01 -5.303917527198791504e-01 1.502281129360198975e-01 -1.989136785268783569e-01 1.488344818353652954e-01 -1.357645690441131592e-01 3.581607043743133545e-01 5.018203854560852051e-01 -3.052156865596771240e-01 -6.496576964855194092e-02 3.164668679237365723e-01 4.680067598819732666e-01 4.954202175140380859e-01 6.950523853302001953e-01 -5.503106117248535156e-01 2.057606875896453857e-01 -1.747414767742156982e-01 1.546027511358261108e-01 -1.517052501440048218e-01 3.374624252319335938e-01 5.673211216926574707e-01 -3.290915787220001221e-01 -8.935950696468353271e-02 3.228513896465301514e-01 4.644685387611389160e-01 5.898653864860534668e-01 6.795445680618286133e-01 -5.300822854042053223e-01 2.397594153881072998e-01 -1.021265462040901184e-01 1.847817897796630859e-01 -1.516158133745193481e-01 3.144877851009368896e-01 6.233795881271362305e-01 -2.487955987453460693e-01 -1.133269220590591431e-01 3.203003108501434326e-01 5.184536576271057129e-01 7.266664505004882812e-01 6.340348720550537109e-01 -5.001780390739440918e-01 3.470270335674285889e-01 -6.184386834502220154e-02 9.584315121173858643e-02 -1.585826873779296875e-01 1.998963057994842529e-01 6.576770544052124023e-01 -1.440792679786682129e-01 -1.764975488185882568e-01 3.374627232551574707e-01 6.006506085395812988e-01 8.317058682441711426e-01 6.225951313972473145e-01 -4.294496476650238037e-01 4.131547808647155762e-01 -3.995099291205406189e-02 -1.498794648796319962e-02 -1.660392880439758301e-01 -3.990967199206352234e-02 6.072531342506408691e-01 -1.306282822042703629e-02 -2.503317594528198242e-01 2.491625696420669556e-01 7.489708065986633301e-01 8.106242418289184570e-01 6.273676156997680664e-01 -2.571667730808258057e-01 3.889208137989044189e-01 -5.919070914387702942e-03
9.981485456228256226e-02 -6.700230240821838379e-01 -2.829259820282459259e-02 -5.254656076431274414e-01 -1.805704683065414429e-01 -1.712535619735717773e-01 9.899768978357315063e-02 8.268939256668090820e-01 -6.599531769752502441e-01 -9.291837364435195923e-02 8.207332491874694824e-01 -3.972997367382049561e-01 4.522367417812347412e-01 -3.576036915183067322e-02 3.834315836429595947e-01 -6.824307143688201904e-02 -1.949700564146041870e-01 3.622293174266815186e-01 2.305024415254592896e-01 5.387513712048530579e-02 -1.332259029150009155e-01 6.825771182775497437e-02 1.894654333591461182e-01 6.227406859397888184e-01 1.775677800178527832e-01 -2.702578306198120117e-01 -4.019646346569061279e-01 -2.391948103904724121e-01 -3.387545049190521240e-02 4.094794094562530518e-01 2.375192791223526001e-01 -1.427661299705505371e+00 -5.048625469207763672e-01 1.704281687736511230e+00 -1.034721016883850098e+00 -4.668340086936950684e-01 -1.444319169968366623e-02 6.661973148584365845e-02 -6.380450725555419922e-01 -7.050003856420516968e-02 -5.002141594886779785e-01 -2.215474247932434082e-01 -1.546514332294464111e-01 1.248014867305755615e-01 8.173075914382934570e-01 -6.476069688796997070e-01 -1.108125895261764526e-01 8.384798765182495117e-01 -3.772017359733581543e-01 4.333465397357940674e-01 -7.692572660744190216e-03 2.937546372413635254e-01 -6.013546139001846313e-02 -1.739155501127243042e-01 1.856505274772644043e-01 1.284879148006439209e-01 4.830551519989967346e-02 -1.115453839302062988e-01 4.694709554314613342e-02 1.407723873853683472e-01 4.950959384441375732e-01 2.826879546046257019e-02 -1.568175703287124634e-01 -1.565021723508834839e-01 -1.751563549041748047e-01 -2.962618693709373474e-02 4.057511985301971436e-01 2.381194531917572021e-01 -1.312201261520385742e+00 -5.247635841369628906e-01 1.812528014183044434e+00 -8.502581715583801270e-01 -4.037329182028770447e-02 -4.032856822013854980e-01 3.204538300633430481e-02 -5.882229804992675781e-01 -1.398874521255493164e-01 -4.834931194782257080e-01 -2.641405761241912842e-01 -1.424401402473449707e-01 1.634455919265747070e-01 8.088855743408203125e-01 -6.350194811820983887e-01 -1.236821487545967102e-01 8.570044636726379395e-01 -3.648087382316589355e-01 4.109694659709930420e-01 2.305816113948822021e-02 2.027521729469299316e-01 -3.882474452257156372e-02 -2.539918422698974609e-01 2.246214263141155243e-02 1.521474123001098633e-01 9.839493781328201294e-02 -4.128668829798698425e-02 3.228539135307073593e-03 1.530728191137313843e-01 3.829065561294555664e-01 6.562262773513793945e-02 -5.512114614248275757e-02 -5.189304426312446594e-02 -1.144332513213157654e-01 -4.019466042518615723e-02 4.040460586547851562e-01 2.375433593988418579e-01 -1.181370139122009277e+00 -5.431578755378723145e-01 2.079614400863647461e+00 -7.413430213928222656e-01 -9.531842172145843506e-02 -5.474305748939514160e-01 -2.066491171717643738e-03 -5.517765879631042480e-01 -1.976399272680282593e-01 -4.661538302898406982e-01 -3.050595521926879883e-01 -1.348215490579605103e-01 2.101975083351135254e-01 8.106141686439514160e-01 -6.156579852104187012e-01 -1.418059021234512329e-01 8.761559128761291504e-01 -3.541019856929779053e-01 3.957470953464508057e-01 6.123201549053192139e-02 1.179508194327354431e-01 -4.877707734704017639e-02 -2.332782149314880371e-01 -1.778021827340126038e-02 1.878420710563659668e-01 2.065932899713516235e-01 2.468645758926868439e-02 2.618508227169513702e-02 1.360249817371368408e-01 2.648443877696990967e-01 1.014841943979263306e-01 1.472464390099048615e-02 -9.833930991590023041e-03 -5.787977948784828186e-02 -5.598577111959457397e-02 4.033436775207519531e-01 2.378450781106948853e-01 -1.104567170143127441e+00 -5.480989813804626465e-01 2.352676153182983398e+00 -8.062940239906311035e-01 -1.417554169893264771e-01 -5.103441476821899414e-01 -3.182873502373695374e-02 -5.376895666122436523e-01 -2.235961705446243286e-01 -4.533893167972564697e-01 -3.484916985034942627e-01 -1.312938630580902100e-01 2.581027448177337646e-01 8.157663941383361816e-01 -5.855374336242675781e-01 -1.712629795074462891e-01 8.925237059593200684e-01 -3.455444276332855225e-01 3.870958983898162842e-01 1.017130762338638306e-01 4.053737595677375793e-02 -3.036044724285602570e-02 -2.673142850399017334e-01 -1.417769342660903931e-01 2.400593161582946777e-01 2.858996987342834473e-01 6.850855052471160889e-02 8.752531558275222778e-02 1.079358458518981934e-01 1.598444730043411255e-01 1.980094760656356812e-01 -1.400498906150460243e-03 -1.443216856569051743e-02 -1.452582236379384995e-02 -7.477948814630508423e-02 4.005813300609588623e-01 2.379985004663467407e-01 -1.034685611724853516e+00 -5.142385959625244141e-01 2.736311912536621094e+00 -6.815374493598937988e-01 -2.577560544013977051e-01 -3.621191680431365967e-01 -5.490045621991157532e-02 -5.425165891647338867e-01 -2.522169053554534912e-01 -4.392388463020324707e-01 -3.891087174415588379e-01 -1.301387399435043335e-01 3.064517378807067871e-01 8.369175195693969727e-01 -5.510571002960205078e-01 -2.027135938405990601e-01 9.096859097480773926e-01 -3.422117233276367188e-01 3.891303241252899170e-01 1.408522725105285645e-01 -2.267270721495151520e-02 2.868109941482543945e-02 -2.880043387413024902e-01 -2.705749571323394775e-01 2.123740613460540771e-01 4.044919013977050781e-01 8.743698894977569580e-02 1.129378601908683777e-01 1.730968207120895386e-01 4.997120425105094910e-02 2.702888846397399902e-01 -5.707398056983947754e-02 -4.483492672443389893e-02 1.116914115846157074e-02 -9.032444655895233154e-02 3.996513783931732178e-01 2.371188998222351074e-01 -1.021987795829772949e+00 -4.354078173637390137e-01 3.091724395751953125e+00 -4.851394593715667725e-01 -5.776647925376892090e-01 -3.146130442619323730e-01 -7.565667480230331421e-02 -5.797666311264038086e-01 -3.003696799278259277e-01 -4.308326244354248047e-01 -4.310683906078338623e-01 -1.327320337295532227e-01 3.567073345184326172e-01 8.779791593551635742e-01 -5.170459747314453125e-01 -2.302722483873367310e-01 9.258401393890380859e-01 -3.461425304412841797e-01 4.009581208229064941e-01 1.755237877368927002e-01 -6.482247263193130493e-02 3.720713406801223755e-02 -3.705737888813018799e-01 -3.348955512046813965e-01 1.664088219404220581e-01 4.892087876796722412e-01 7.683321088552474976e-02 1.045398041605949402e-01 2.447075545787811279e-01 -2.908404357731342316e-02 4.042592346668243408e-01 -4.746454209089279175e-02 -3.707340918481349945e-03 2.188046462833881378e-02 -1.012386232614517212e-01 3.997342884540557861e-01 2.368482351303100586e-01 -1.028939366340637207e+00 -3.272883594036102295e-01 3.533351659774780273e+00 -3.979341685771942139e-01 -1.199833750724792480e+00 -3.085339367389678955e-01 -8.905278891324996948e-02 -6.570964455604553223e-01 -3.708594441413879395e-01 -4.297738671302795410e-01 -4.744941890239715576e-01 -1.359658390283584595e-01 3.922846317291259766e-01 9.307159781455993652e-01 -4.843484759330749512e-01 -2.585193812847137451e-01 9.399266242980957031e-01 -3.593218624591827393e-01 4.192993640899658203e-01 2.035322934389114380e-01 -8.109807223081588745e-02 -3.175342828035354614e-02 -4.988372921943664551e-01 -3.171190917491912842e-01 3.116419166326522827e-02 5.381032824516296387e-01 4.510278627276420593e-02 8.051329851150512695e-02 3.399426043033599854e-01 -1.729846745729446411e-01 5.284013748168945312e-01 -3.508508205413818359e-02 -3.048763237893581390e-02 1.809241622686386108e-02 -1.061727032065391541e-01 3.994525671005249023e-01 2.372431755065917969e-01 -1.135933041572570801e+00 -1.829088330268859863e-01 4.019122600555419922e+00 -3.981094062328338623e-01 -1.669125556945800781e+00 -2.704510688781738281e-01 -9.254536777734756470e-02 -7.732783555984497070e-01 -4.616720080375671387e-01 -4.331185221672058105e-01 -5.143288969993591309e-01 -1.382516175508499146e-01 4.079161882400512695e-01 9.957917928695678711e-01 -4.549465179443359375e-01 -2.855859994888305664e-01 9.548782110214233398e-01 -3.814479112625122070e-01 4.428324401378631592e-01 2.262650430202484131e-01 -7.647417485713958740e-02 1.108928676694631577e-02 -6.386905908584594727e-01 -3.849557638168334961e-01 -9.154997766017913818e-02 6.790060400962829590e-01 -3.778396546840667725e-02 4.086237400770187378e-02 3.861428499221801758e-01 -3.145198225975036621e-01 7.443053126335144043e-01 5.597123876214027405e-02 -7.129628211259841919e-02 4.386479035019874573e-03 -9.785564243793487549e-02 3.982443213462829590e-01 2.378915250301361084e-01 -1.301872134208679199e+00 -3.391460329294204712e-02 4.610369682312011719e+00 -3.964054882526397705e-01 -2.010537147521972656e+00 -1.536419689655303955e-01 -8.132980763912200928e-02 -9.298143386840820312e-01 -5.011843442916870117e-01 -4.439464807510375977e-01 -5.591087341308593750e-01 -1.273310929536819458e-01 4.061872661113739014e-01 1.079372406005859375e+00 -4.223985075950622559e-01 -3.109081089496612549e-01 9.855310916900634766e-01 -4.031534790992736816e-01 4.743423759937286377e-01 2.550225257873535156e-01 -6.505838781595230103e-02 9.636779129505157471e-02 -6.761146783828735352e-01 -6.536474227905273438e-01 -1.154699027538299561e-01 1.380189895629882812e+00 -7.989989966154098511e-02 -3.327213926240801811e-03 4.864963889122009277e-01 -5.352020263671875000e-01 1.147247314453125000e+00 5.572157502174377441e-01 -1.962754577398300171e-01 -7.160189561545848846e-03 -4.566344618797302246e-02 3.827144205570220947e-01 2.371419370174407959e-01 -1.603675484657287598e+00 1.050024256110191345e-01 5.090837001800537109e+00 -2.426535040140151978e-01 -2.491799592971801758e+00 6.483906507492065430e-01 -6.896232962608337402e-01 -8.721871972084045410e-01 5.662241205573081970e-02 4.172537624835968018e-01 -8.108189702033996582e-01 2.633788287639617920e-01 2.098878771066665649e-01 1.216795444488525391e+00 -2.798104286193847656e-01 5.798560380935668945e-01 -1.276109963655471802e-01 -5.334065482020378113e-02 -5.749024152755737305e-01 -7.701284885406494141e-01 -9.592909812927246094e-01 1.546874195337295532e-01 6.071245074272155762e-01 -6.494254469871520996e-01 1.441140919923782349e-01 8.580017089843750000e-02 1.188096284866333008e+00 5.714263021945953369e-02 6.612658500671386719e-01 -2.396764904260635376e-01 -3.224584460258483887e-01 -5.632894039154052734e-01 -8.265697956085205078e-01 -9.960505366325378418e-01 4.094934761524200439e-01 5.987578630447387695e-01 -7.831290960311889648e-01 -6.747120618820190430e-02 8.014364540576934814e-02 1.362740635871887207e+00 7.616230845451354980e-02 6.296059489250183105e-01 -1.499623954296112061e-01 -1.841128021478652954e-01 -4.072206914424896240e-01 -8.881335854530334473e-01 -9.939696192741394043e-01 3.111605048179626465e-01 5.328744053840637207e-01 -8.985810875892639160e-01 -2.830137908458709717e-01 -9.350982727482914925e-04 1.722331047058105469e+00 2.055631577968597412e-01 8.328763246536254883e-01 -1.537205874919891357e-01 7.574879378080368042e-02 -5.309185981750488281e-01 -1.042538166046142578e+00 -1.105757236480712891e+00 3.949174880981445312e-01 5.257240533828735352e-01 -1.174434423446655273e+00 -4.661470949649810791e-01 3.248125910758972168e-01 2.028929710388183594e+00 2.009183317422866821e-01 9.911904335021972656e-01 -2.386348694562911987e-01 2.817212939262390137e-01 -6.566843390464782715e-01 -8.431745171546936035e-01 -1.115619659423828125e+00 4.347436428070068359e-01 4.917106628417968750e-01 -1.216233015060424805e+00 -5.467720031738281250e-01 3.426506817340850830e-01 2.352659702301025391e+00 3.443211913108825684e-01 1.315912723541259766e+00 -4.390940964221954346e-01 3.920384943485260010e-01 -1.164218068122863770e+00 -9.508809447288513184e-01 -1.241765379905700684e+00 4.610868990421295166e-01 4.295516908168792725e-01 -1.461993575096130371e+00 -6.696182489395141602e-01 2.019754424691200256e-02 2.558548212051391602e+00 4.656792879104614258e-01 1.513898253440856934e+00 -5.970803499221801758e-01 4.610758423805236816e-01 -1.536117792129516602e+00 -1.415164947509765625e+00 -1.278755187988281250e+00 4.800331890583038330e-01 2.734377384185791016e-01 -1.528210401535034180e+00 -8.458675146102905273e-01 1.307930648326873779e-01 2.618697404861450195e+00 3.876606225967407227e-01 1.733390092849731445e+00 -5.174347162246704102e-01 6.999385952949523926e-01 -2.349274158477783203e+00 -1.391691207885742188e+00 -1.190903186798095703e+00 4.178380668163299561e-01 2.559946775436401367e-01 -1.483815073966979980e+00 -8.278940320014953613e-01 1.805597692728042603e-01 2.898649215698242188e+00 1.940478682518005371e-01 2.130463123321533203e+00 -2.655880153179168701e-01 1.129609465599060059e+00 -3.466292858123779297e+00
-6.161407232284545898e-01 -1.642098277807235718e-01 -2.168968617916107178e-01 2.033789604902267456e-01 -3.217486292123794556e-02 -8.226434141397476196e-02 -2.519460953772068024e-02 2.565597184002399445e-03 -7.073196116834878922e-03 1.908521801233291626e-01 -4.519830644130706787e-02 -1.706122606992721558e-01 -9.723300486803054810e-02 5.241537466645240784e-02 2.780917100608348846e-03 -1.340402197092771530e-02 -6.930624693632125854e-02 -1.129672303795814514e-02 3.910754621028900146e-02 3.075590915977954865e-02 -1.888851821422576904e-02 1.405284367501735687e-02 1.067861318588256836e-01 5.741667747497558594e-02 -1.385831274092197418e-02 -4.669624939560890198e-02 7.816734910011291504e-02 -4.349257331341505051e-03 -3.797865509986877441e-01 1.276804506778717041e-01 1.580472141504287720e-01 1.078888177871704102e-01 3.444615602493286133e+00 1.176506876945495605e-01 9.195644855499267578e-01 1.407587379217147827e-01 -1.807218976318836212e-02 -5.508415699005126953e-01 -1.506962776184082031e-01 -1.686031222343444824e-01 1.774061471223831177e-01 -2.570775337517261505e-02 -8.744800835847854614e-02 -1.967213675379753113e-02 -9.250759147107601166e-03 -8.575367741286754608e-03 1.642920523881912231e-01 -1.861641928553581238e-02 -1.584006398916244507e-01 -1.021802946925163269e-01 4.597007483243942261e-02 -2.608882030472159386e-03 -3.170712152495980263e-03 -1.545266015455126762e-03 -5.317162349820137024e-02 9.582105278968811035e-02 -1.331907138228416443e-02 4.576717503368854523e-03 5.936915986239910126e-03 1.009720116853713989e-01 3.577760234475135803e-02 -8.002098649740219116e-02 -3.847749903798103333e-03 4.557091742753982544e-02 -8.217043429613113403e-02 -2.860006690025329590e-01 1.257448345422744751e-01 1.579672992229461670e-01 2.869489789009094238e-02 3.067055702209472656e+00 1.274250596761703491e-01 5.622777938842773438e-01 5.425075441598892212e-02 5.840566754341125488e-02 -4.702901840209960938e-01 -1.372443288564682007e-01 -1.560721546411514282e-01 1.557178199291229248e-01 -1.473110914230346680e-02 -9.718638658523559570e-02 -1.406306121498346329e-02 -1.817814819514751434e-02 -1.809851266443729401e-02 1.389021426439285278e-01 4.512550774961709976e-03 -1.523095518350601196e-01 -1.066186800599098206e-01 4.101626202464103699e-02 -2.193299867212772369e-02 9.262653999030590057e-03 1.972271315753459930e-02 -4.764822497963905334e-02 8.533891290426254272e-02 -8.774407207965850830e-03 1.101787295192480087e-02 8.994183503091335297e-03 6.067237257957458496e-02 -1.370245032012462616e-02 -5.374050885438919067e-02 2.630710788071155548e-02 3.045637346804141998e-02 -1.029598489403724670e-01 -2.026608288288116455e-01 1.240014210343360901e-01 1.573927402496337891e-01 -7.131798565387725830e-02 2.623088598251342773e+00 1.340348869562149048e-01 5.938499569892883301e-01 -4.121924936771392822e-02 2.789284475147724152e-02 -3.806236684322357178e-01 -1.313574463129043579e-01 -1.543270796537399292e-01 1.341484338045120239e-01 -8.946137502789497375e-03 -1.039935573935508728e-01 -1.110030710697174072e-02 -2.149736881256103516e-02 -3.139819204807281494e-02 1.164062768220901489e-01 1.880957931280136108e-02 -1.473446041345596313e-01 -1.096618473529815674e-01 3.576847538352012634e-02 -4.906958714127540588e-02 1.533437334001064301e-02 2.588298171758651733e-02 -2.552655152976512909e-02 4.450796544551849365e-02 -1.010164432227611542e-02 2.273019775748252869e-02 2.374493889510631561e-02 2.059185504913330078e-02 -3.502408415079116821e-02 -4.844629019498825073e-02 2.467702142894268036e-02 1.815775409340858459e-02 -7.149688899517059326e-02 -1.395223587751388550e-01 1.215637922286987305e-01 1.575795561075210571e-01 -2.063628584146499634e-01 1.973819255828857422e+00 1.345976740121841431e-01 6.302853822708129883e-01 -8.948647230863571167e-02 -1.563696376979351044e-02 -2.871017158031463623e-01 -1.322507560253143311e-01 -1.282199621200561523e-01 1.107858493924140930e-01 -8.339079096913337708e-03 -1.057748422026634216e-01 -1.178025174885988235e-02 -2.481070533394813538e-02 -4.888725280761718750e-02 8.627994358539581299e-02 2.873100712895393372e-02 -1.391988694667816162e-01 -1.095981523394584656e-01 3.145892918109893799e-02 -7.993856072425842285e-02 7.294199429452419281e-03 9.564777836203575134e-03 1.885396242141723633e-02 3.599322587251663208e-02 7.032760884612798691e-03 2.141334675252437592e-02 2.785428240895271301e-02 -2.331492863595485687e-02 -3.099890053272247314e-02 -1.073566824197769165e-02 3.526897355914115906e-02 8.365306071937084198e-03 2.014107536524534225e-03 -1.025851517915725708e-01 1.211881637573242188e-01 1.580703109502792358e-01 -3.493545055389404297e-01 9.339302182197570801e-01 1.650976687669754028e-01 6.350429654121398926e-01 -5.820022895932197571e-02 -5.091056600213050842e-02 -1.938665211200714111e-01 -1.391753852367401123e-01 -5.170566961169242859e-02 8.175411820411682129e-02 -1.394089125096797943e-02 -1.087876334786415100e-01 -1.151112746447324753e-02 -2.264226600527763367e-02 -6.663410365581512451e-02 4.463465884327888489e-02 3.594508767127990723e-02 -1.280443966388702393e-01 -1.068427562713623047e-01 2.755336649715900421e-02 -1.105667427182197571e-01 -9.766294533619657159e-05 -1.756948605179786682e-02 6.592559814453125000e-02 -3.788027213886380196e-03 8.154152892529964447e-03 1.049047056585550308e-02 2.575694955885410309e-02 -5.829955264925956726e-02 -6.099416641518473625e-04 5.897815804928541183e-03 2.183741144835948944e-02 -8.215527050197124481e-03 1.112994700670242310e-01 -9.966788440942764282e-02 1.207735911011695862e-01 1.577158123254776001e-01 -5.750210881233215332e-01 -8.105682134628295898e-01 1.354750692844390869e-01 6.205570101737976074e-01 -5.000497400760650635e-02 -9.982893615961074829e-02 -8.947429060935974121e-02 -1.607850939035415649e-01 1.429166346788406372e-01 3.810344263911247253e-02 -2.224465645849704742e-02 -1.100433692336082458e-01 -1.234158687293529510e-02 -1.606114767491817474e-02 -8.733450621366500854e-02 -1.279713492840528488e-02 5.042960494756698608e-02 -1.122578233480453491e-01 -1.007038950920104980e-01 2.490479312837123871e-02 -1.448030322790145874e-01 -1.444055000320076942e-03 -1.706253923475742340e-02 8.487550169229507446e-02 -3.410486876964569092e-02 1.981132104992866516e-02 -1.285961735993623734e-02 3.305559605360031128e-02 -5.782573670148849487e-02 2.846439927816390991e-02 5.989459156990051270e-02 -3.904588753357529640e-03 -3.349000215530395508e-02 2.691352665424346924e-01 -1.420797854661941528e-01 1.192341148853302002e-01 1.581183969974517822e-01 -8.447718620300292969e-01 -3.493798494338989258e+00 2.022532224655151367e-01 6.717766523361206055e-01 -4.604205489158630371e-02 -1.400247365236282349e-01 4.144385829567909241e-02 -2.030486315488815308e-01 5.226852893829345703e-01 -2.699324302375316620e-02 -2.267038449645042419e-02 -1.178140267729759216e-01 -1.725923456251621246e-02 -6.697269156575202942e-03 -1.084828600287437439e-01 -9.377391636371612549e-02 8.511421084403991699e-02 -9.624883532524108887e-02 -8.595984429121017456e-02 1.789325661957263947e-02 -1.791453659534454346e-01 -1.890191808342933655e-02 3.547910973429679871e-02 8.789631724357604980e-02 -5.872829258441925049e-02 2.618920244276523590e-02 -3.736723214387893677e-02 8.195984177291393280e-03 -2.250140905380249023e-02 3.863584250211715698e-02 6.829103827476501465e-02 -5.512329563498497009e-02 -2.613999135792255402e-02 4.718994498252868652e-01 -2.355263382196426392e-01 1.204102858901023865e-01 1.588954329490661621e-01 -1.213247418403625488e+00 -7.184695720672607422e+00 2.899839282035827637e-01 6.472555994987487793e-01 -1.415002048015594482e-01 -1.260334402322769165e-01 2.269785255193710327e-01 -2.767747640609741211e-01 1.120843172073364258e+00 -1.098332554101943970e-01 -4.604783374816179276e-03 -1.289738565683364868e-01 -2.969948202371597290e-02 6.774787791073322296e-03 -1.209055930376052856e-01 -2.018530070781707764e-01 1.542084217071533203e-01 -8.350826799869537354e-02 -6.716790050268173218e-02 7.535724900662899017e-03 -2.071632593870162964e-01 -2.207724004983901978e-02 5.617996677756309509e-03 4.985242336988449097e-02 -6.990308314561843872e-02 6.545685231685638428e-02 -3.582665324211120605e-02 1.810353016480803490e-03 -1.682428643107414246e-02 -5.702754482626914978e-02 9.626612812280654907e-02 -2.827521413564682007e-02 2.487184479832649231e-02 7.030799984931945801e-01 -3.854950964450836182e-01 1.218254715204238892e-01 1.592618227005004883e-01 -1.469531893730163574e+00 -1.156009769439697266e+01 5.256595611572265625e-01 3.762505352497100830e-01 -1.782376319169998169e-01 -2.470248937606811523e-01 5.311423540115356445e-01 -3.872763514518737793e-01 1.909851551055908203e+00 -2.115266472101211548e-01 5.334923788905143738e-02 -1.211252734065055847e-01 -4.990696534514427185e-02 1.328807137906551361e-02 -7.655517011880874634e-02 -3.252534866333007812e-01 3.265925645828247070e-01 -5.656883865594863892e-02 -7.086116075515747070e-02 -4.450560081750154495e-03 -2.522280812263488770e-01 -2.122388221323490143e-03 -9.475822746753692627e-02 -1.284218132495880127e-01 1.492095142602920532e-01 5.742974951863288879e-02 1.174785662442445755e-02 -2.109844796359539032e-02 -1.102234721183776855e-01 -2.842774391174316406e-01 -2.544335424900054932e-01 8.906792849302291870e-02 1.406956017017364502e-01 9.518674015998840332e-01 -5.482320189476013184e-01 9.954985231161117554e-02 1.585569083690643311e-01 -1.806396126747131348e+00 -1.675935935974121094e+01 8.361655473709106445e-01 9.838381409645080566e-01 -2.027237117290496826e-01 -4.847143590450286865e-01 2.654419541358947754e-01 -3.416741266846656799e-02 -2.844095695763826370e-03 1.732815951108932495e-01 1.421827077865600586e-01 -1.248466521501541138e-01 1.934156715869903564e-01 -5.715460330247879028e-02 -1.015403270721435547e-01 -2.608643770217895508e-01 1.811304688453674316e-01 1.759624690748751163e-03 1.156384572386741638e-01 2.915289700031280518e-01 -1.072140559554100037e-01 -5.554163828492164612e-02 1.830015331506729126e-01 5.287709832191467285e-02 -1.956785842776298523e-02 4.591710567474365234e-01 -8.442860841751098633e-02 -9.176755696535110474e-02 -3.106785714626312256e-01 1.115222573280334473e-01 4.235456138849258423e-02 4.473226144909858704e-02 3.018018603324890137e-01 -6.871449202299118042e-02 -1.216385066509246826e-01 2.021257281303405762e-01 1.195700466632843018e-02 1.219175979495048523e-01 6.204788088798522949e-01 -3.127951547503471375e-02 -4.950786009430885315e-02 -4.012692570686340332e-01 1.723850965499877930e-01 4.961209744215011597e-02 -1.576891168951988220e-02 4.009181261062622070e-01 -1.171268522739410400e-01 -1.710368692874908447e-01 1.965931951999664307e-01 -2.738293074071407318e-02 1.885626912117004395e-01 6.267420649528503418e-01 -1.397707313299179077e-02 9.551027324050664902e-04 -4.182469248771667480e-01 1.949602812528610229e-01 8.032593876123428345e-02 -2.099002897739410400e-02 5.073758959770202637e-01 -2.396641671657562256e-01 -1.318888813257217407e-01 1.928470879793167114e-01 -6.441162526607513428e-02 2.323115319013595581e-01 6.954322457313537598e-01 2.414447953924536705e-03 3.997370600700378418e-02 -4.223742783069610596e-01 2.555506825447082520e-01 7.478445023298263550e-02 1.507613714784383774e-02 5.725060701370239258e-01 -3.790378570556640625e-01 2.703533740714192390e-03 1.220235377550125122e-01 -7.795856148004531860e-02 2.271306663751602173e-01 7.872814536094665527e-01 -7.843229919672012329e-02 7.413794845342636108e-02 -3.968915641307830811e-01 2.360083758831024170e-01 5.540173500776290894e-02 1.217807829380035400e-02 5.705593824386596680e-01 -4.401723146438598633e-01 1.836907565593719482e-01 9.661578387022018433e-02 -6.862838566303253174e-02 1.912069469690322876e-01 7.067448496818542480e-01 -1.617588102817535400e-01 1.208093762397766113e-01 -3.025934696197509766e-01 2.070272117853164673e-01 -1.559523050673305988e-03 6.670141965150833130e-02 5.244714021682739258e-01 -3.950016498565673828e-01 3.184261023998260498e-01 1.623888313770294189e-02 -6.494943052530288696e-02 1.654891669750213623e-01 5.441713333129882812e-01 -1.845102310180664062e-01 1.003870740532875061e-01 -1.910715401172637939e-01 9.879273176193237305e-02 -1.250294446945190430e-01 1.364999562501907349e-01 3.275385499000549316e-01 -3.426870405673980713e-01 4.242242276668548584e-01 -4.611624777317047119e-02 -3.260506689548492432e-02 2.022843062877655029e-01 3.557130992412567139e-01 -2.287157624959945679e-01 -1.053166016936302185e-01 -8.392528444528579712e-02 -1.422544121742248535e-01 -2.141246199607849121e-01 2.248179167509078979e-01
-2.163482159376144409e-01 -1.828645765781402588e-01 8.512414991855621338e-03 4.200374335050582886e-02 -7.867485284805297852e-02 -2.997277304530143738e-03 2.004290744662284851e-02 3.656725212931632996e-02 -6.615342199802398682e-02 -5.646391585469245911e-02 2.031542360782623291e-02 1.508454792201519012e-02 6.782125681638717651e-02 1.402379292994737625e-02 -1.495004072785377502e-02 -2.261924184858798981e-02 -2.298493310809135437e-02 6.045886129140853882e-02 3.657431807368993759e-03 6.383833289146423340e-02 -1.077507343143224716e-02 -5.379506852477788925e-03 -1.248890813440084457e-02 8.706962689757347107e-03 -1.155950725078582764e-01 -1.142639666795730591e-02 1.386933727189898491e-04 1.520909428596496582e+00 2.049535512924194336e+00 4.233132582157850266e-03 -2.372437343001365662e-02 -5.827328935265541077e-02 6.334193795919418335e-02 -6.283222883939743042e-02 -2.897319495677947998e-01 8.396089822053909302e-02 9.893777221441268921e-02 -1.407218128442764282e-01 -1.498188376426696777e-01 1.218433957546949387e-02 4.022608324885368347e-02 -8.294827491044998169e-02 -5.097508430480957031e-03 1.451922673732042313e-02 3.309921920299530029e-02 -5.582122877240180969e-02 -4.918186739087104797e-02 1.920935511589050293e-02 8.688039961270987988e-04 6.654517352581024170e-02 6.360427942126989365e-03 -5.569330416619777679e-03 -2.253230847418308258e-02 -3.094386868178844452e-02 3.110272809863090515e-02 3.549258038401603699e-02 1.342437136918306351e-02 -1.380776427686214447e-02 5.677482113242149353e-03 -4.962862003594636917e-03 -1.432091277092695236e-02 -5.076493695378303528e-02 -2.043932443484663963e-03 1.580596901476383209e-02 1.641463518142700195e+00 2.025563955307006836e+00 -4.866713716182857752e-04 -2.259826846420764923e-02 -4.277098178863525391e-02 1.085408106446266174e-01 -2.369074709713459015e-02 -2.309831529855728149e-01 -4.496592283248901367e-02 1.004941165447235107e-01 -7.099904865026473999e-02 -1.220065206289291382e-01 2.421477623283863068e-02 3.476386517286300659e-02 -8.839228004217147827e-02 -5.834399256855249405e-03 1.372703723609447479e-02 3.020452521741390228e-02 -4.406495019793510437e-02 -4.327656701207160950e-02 2.068009972572326660e-02 -1.011543720960617065e-02 6.753114610910415649e-02 3.912721294909715652e-03 3.586052916944026947e-03 -1.807020604610443115e-02 -4.072405025362968445e-02 8.366708643734455109e-03 5.735645815730094910e-02 1.693834178149700165e-02 3.841319121420383453e-03 -2.796901855617761612e-03 4.735019057989120483e-03 -1.477347221225500107e-02 -1.365197449922561646e-02 -1.383081544190645218e-02 1.828495040535926819e-02 1.780713677406311035e+00 1.956541061401367188e+00 -2.817164175212383270e-03 -2.198715135455131531e-02 -2.976464480161666870e-02 1.621036976575851440e-01 -2.019941573962569237e-03 -9.735152870416641235e-02 -1.896848678588867188e-01 9.823679178953170776e-02 -5.475121084600687027e-03 -1.004687175154685974e-01 3.566690161824226379e-02 2.848067320883274078e-02 -9.636318683624267578e-02 -5.974881350994110107e-03 1.208979357033967972e-02 2.892651036381721497e-02 -3.261718526482582092e-02 -3.900571539998054504e-02 2.504579536616802216e-02 -1.576337590813636780e-02 7.128848880529403687e-02 2.097302582114934921e-03 7.402478717267513275e-03 -1.160720363259315491e-02 -4.177479818463325500e-02 3.930137027055025101e-03 5.144416540861129761e-02 1.419514976441860199e-02 2.326719835400581360e-02 -9.318294003605842590e-03 1.694171689450740814e-02 -6.952648516744375229e-03 1.365782972425222397e-02 -1.447430253028869629e-02 -3.634286113083362579e-03 1.914807438850402832e+00 1.849168777465820312e+00 -4.417487420141696930e-03 -2.179976925253868103e-02 -1.152485795319080353e-02 2.275078296661376953e-01 -4.295550170354545116e-04 -4.517595097422599792e-02 -2.419089078903198242e-01 8.897908031940460205e-02 4.854624718427658081e-02 -8.004887402057647705e-02 4.376893863081932068e-02 2.257414534687995911e-02 -1.045612543821334839e-01 -7.426034659147262573e-03 1.151506043970584869e-02 2.614442072808742523e-02 -2.220361120998859406e-02 -3.296793252229690552e-02 3.059526532888412476e-02 -1.956098712980747223e-02 7.680533826351165771e-02 -2.459520765114575624e-04 1.493195351213216782e-02 -1.402424089610576630e-02 -3.421852365136146545e-02 4.649873881135135889e-04 4.037372767925262451e-02 -1.292032073251903057e-03 3.246192634105682373e-02 -3.053000429645180702e-03 2.124152518808841705e-02 3.392992075532674789e-03 2.329534851014614105e-02 2.049987902864813805e-03 -2.098210901021957397e-02 2.024178504943847656e+00 1.710974454879760742e+00 -5.984632298350334167e-03 -2.125312387943267822e-02 2.809682162478566170e-03 3.099316954612731934e-01 2.361945435404777527e-02 -3.748898394405841827e-03 -2.206925898790359497e-01 1.060690209269523621e-01 9.331022202968597412e-02 -5.540270358324050903e-02 4.507927596569061279e-02 1.309946365654468536e-02 -1.082427054643630981e-01 -7.092802319675683975e-03 9.120028465986251831e-03 2.313719503581523895e-02 -1.144116278737783432e-02 -2.653391100466251373e-02 3.509621322154998779e-02 -2.073981799185276031e-02 7.997176796197891235e-02 -1.323686796240508556e-03 2.230268903076648712e-02 -1.937581971287727356e-02 -1.757047884166240692e-02 -7.165198680013418198e-03 1.878506690263748169e-02 -5.024136044085025787e-04 3.782384470105171204e-02 -2.586773829534649849e-03 2.314023859798908234e-02 1.764979586005210876e-02 2.291680313646793365e-03 2.503283508121967316e-02 -1.267289742827415466e-02 2.094466924667358398e+00 1.552231192588806152e+00 -6.089637987315654755e-03 -2.180595695972442627e-02 3.076901473104953766e-02 3.811149299144744873e-01 7.169742137193679810e-02 -4.095599800348281860e-02 -1.961007714271545410e-01 9.719639271497726440e-02 1.307788789272308350e-01 -1.991566456854343414e-02 5.423213541507720947e-02 6.315021310001611710e-03 -1.051421165466308594e-01 -7.818808779120445251e-03 7.277776952832937241e-03 1.914916932582855225e-02 -2.583024092018604279e-03 -2.062568813562393188e-02 3.280451148748397827e-02 -2.280420437455177307e-02 8.552132546901702881e-02 -1.866499078460037708e-03 2.902028150856494904e-02 -1.862721145153045654e-02 -1.913649757625535131e-04 -9.839209727942943573e-03 2.440274227410554886e-03 -6.785064004361629486e-03 2.626630663871765137e-02 -7.669772021472454071e-03 2.082453481853008270e-02 9.115798398852348328e-03 -2.252695895731449127e-02 4.960104078054428101e-02 -4.759163130074739456e-03 2.126865863800048828e+00 1.382940769195556641e+00 -7.252376526594161987e-03 -2.102234214544296265e-02 4.875213280320167542e-02 4.518634676933288574e-01 1.581135839223861694e-01 -3.579213097691535950e-02 -1.350469589233398438e-01 1.105237230658531189e-01 1.597767472267150879e-01 3.315497189760208130e-02 7.088779658079147339e-02 2.780801849439740181e-03 -9.385555982589721680e-02 -7.365037687122821808e-03 6.330418866127729416e-03 1.664428971707820892e-02 3.027032362297177315e-03 -1.360739208757877350e-02 1.949300244450569153e-02 -2.517668902873992920e-02 8.851761370897293091e-02 3.838152915704995394e-04 3.714125230908393860e-02 -9.795809164643287659e-03 1.429550535976886749e-02 -2.446476835757493973e-03 -8.937790058553218842e-03 -1.193010807037353516e-02 9.710729122161865234e-03 -2.220796793699264526e-02 2.116630785167217255e-02 9.174217469990253448e-03 -3.841820359230041504e-02 5.314294993877410889e-02 5.077459383755922318e-03 2.124731302261352539e+00 1.221719264984130859e+00 -7.636278402060270309e-03 -2.042931504547595978e-02 5.328504368662834167e-02 5.272960066795349121e-01 2.714662551879882812e-01 -1.146958209574222565e-02 -3.320017457008361816e-02 6.913136690855026245e-02 1.936556845903396606e-01 1.170687302947044373e-01 7.017941027879714966e-02 1.984991133213043213e-03 -6.676439940929412842e-02 -5.937500856816768646e-03 1.428079977631568909e-02 1.442850381135940552e-02 -4.455492831766605377e-03 1.091253012418746948e-03 -1.156707294285297394e-02 -2.408440783619880676e-02 9.728352725505828857e-02 2.452860353514552116e-03 4.536774381995201111e-02 3.592259949073195457e-03 2.640775032341480255e-02 -1.009310316294431686e-02 9.159347973763942719e-03 -5.659810849465429783e-04 -8.276004344224929810e-03 -1.316666044294834137e-02 2.005805075168609619e-02 2.255303785204887390e-02 -2.814787626266479492e-02 2.769419737160205841e-02 2.144388109445571899e-02 2.100928544998168945e+00 1.083971858024597168e+00 -7.699105422943830490e-03 -2.030962146818637848e-02 4.441759735345840454e-02 5.955915451049804688e-01 4.260678291320800781e-01 1.468509137630462646e-01 3.708415478467941284e-02 1.502129528671503067e-02 2.505773305892944336e-01 2.155846208333969116e-01 9.915734408423304558e-04 5.541092716157436371e-03 -4.236766323447227478e-02 1.159660425037145615e-02 5.031802877783775330e-02 -1.302500022575259209e-03 -4.027897492051124573e-02 1.958385668694972992e-02 -4.677600413560867310e-02 1.480427599744871259e-04 1.178549677133560181e-01 -4.378912970423698425e-03 4.705025255680084229e-02 7.023377344012260437e-03 2.776033990085124969e-02 -3.366442630067467690e-03 1.002151742577552795e-01 1.102668978273868561e-02 -7.384459674358367920e-02 -4.948211461305618286e-02 1.984694227576255798e-02 2.606518752872943878e-02 3.114088252186775208e-02 -5.823751911520957947e-02 5.758439004421234131e-02 2.072887897491455078e+00 1.014347195625305176e+00 -2.331789210438728333e-02 -2.039966173470020294e-02 6.558417528867721558e-02 6.445871591567993164e-01 6.306462287902832031e-01 3.090340793132781982e-01 1.707861423492431641e-01 -1.468721181154251099e-01 -5.308012291789054871e-02 -7.938796281814575195e-02 6.547212135046720505e-03 -3.465873748064041138e-02 1.077082753181457520e-01 -2.827097475528717041e-02 1.423749607056379318e-03 3.441259264945983887e-02 -5.469680204987525940e-02 -2.706306986510753632e-02 -5.873887985944747925e-02 -1.260449737310409546e-01 -1.995320022106170654e-01 2.649924019351601601e-03 -3.922817483544349670e-02 2.861074358224868774e-02 -1.037229597568511963e-01 1.399960815906524658e-01 1.182819902896881104e-02 -7.163864374160766602e-02 6.212206929922103882e-02 -2.073952369391918182e-02 2.238651970401406288e-03 -7.799308001995086670e-02 -9.977734088897705078e-02 -1.760179996490478516e-01 -7.464781403541564941e-02 -1.902587525546550751e-02 8.072205632925033569e-02 -1.254390329122543335e-01 1.523726433515548706e-01 1.188592240214347839e-02 -2.910938858985900879e-02 7.919151335954666138e-02 -9.317874908447265625e-03 1.961971633136272430e-02 -9.199785441160202026e-02 -7.784534245729446411e-02 -2.576155588030815125e-02 -1.161833852529525757e-01 2.781363949179649353e-02 1.094223782420158386e-01 -1.229991167783737183e-01 1.794187575578689575e-01 7.493413519114255905e-03 2.756932936608791351e-02 8.926635235548019409e-02 -3.758347034454345703e-02 1.330062281340360641e-02 -9.436366707086563110e-02 -5.780530348420143127e-02 1.702190190553665161e-01 -1.471497565507888794e-01 2.992634102702140808e-02 1.140428259968757629e-01 -1.056221202015876770e-01 1.696152389049530029e-01 2.410542918369174004e-03 2.085422910749912262e-02 1.062072813510894775e-01 -5.381614342331886292e-02 2.167866379022598267e-02 -8.846952021121978760e-02 -3.222738951444625854e-02 3.458743691444396973e-01 -1.423480361700057983e-01 1.686765998601913452e-02 8.029948174953460693e-02 -8.069466054439544678e-02 1.602407544851303101e-01 4.462933167815208435e-02 2.081132866442203522e-02 1.285352706909179688e-01 -5.744819343090057373e-02 2.176270447671413422e-02 -4.764443263411521912e-02 -2.655768208205699921e-02 4.516603350639343262e-01 -1.463696956634521484e-01 1.398527063429355621e-02 9.745553135871887207e-02 -8.379559963941574097e-02 1.466403156518936157e-01 5.971232056617736816e-02 5.647607520222663879e-02 1.484475135803222656e-01 -7.340650260448455811e-02 3.644001111388206482e-02 -7.069521117955446243e-03 -2.191436290740966797e-02 5.117211341857910156e-01 -1.201669797301292419e-01 2.698333188891410828e-02 1.298028975725173950e-01 -6.297978758811950684e-02 1.272713392972946167e-01 6.612845510244369507e-02 2.238722704350948334e-02 1.288225054740905762e-01 -7.209548354148864746e-02 5.893807858228683472e-02 4.821018502116203308e-02 -1.902575418353080750e-02 5.247008800506591797e-01 -9.003170579671859741e-02 3.041936084628105164e-02 9.972213208675384521e-02 -1.581531390547752380e-02 6.490615010261535645e-02 5.352832376956939697e-02 -2.995730191469192505e-02 1.302925050258636475e-01 -3.871031850576400757e-02 8.407647162675857544e-02 1.175977066159248352e-01 -4.403354227542877197e-02 5.085473060607910156e-01
-6.601663827896118164e-01 -4.440129101276397705e-01 -3.258241713047027588e-01 4.324971511960029602e-02 -6.948563456535339355e-02 -1.032334100455045700e-02 8.503042161464691162e-02 -7.852597162127494812e-03 1.376935001462697983e-02 3.655947744846343994e-02 3.353872895240783691e-02 4.072069749236106873e-02 9.416129440069198608e-02 9.429747611284255981e-02 1.001556441187858582e-01 -2.640308253467082977e-02 -7.305904477834701538e-02 1.050972044467926025e-01 5.369782075285911560e-02 -6.767957657575607300e-02 -1.169992517679929733e-02 7.816657423973083496e-03 4.153344780206680298e-02 2.109495177865028381e-02 6.701575219631195068e-02 -8.689592033624649048e-02 8.036505430936813354e-03 -4.327569156885147095e-03 -3.702518045902252197e-01 -4.845654591917991638e-02 9.877767413854598999e-02 -2.156070709228515625e+00 3.018847942352294922e+00 -3.443122655153274536e-02 5.156174302101135254e-01 -2.768968343734741211e-01 1.268802490085363388e-02 -5.975191593170166016e-01 -4.229595363140106201e-01 -3.216227591037750244e-01 3.956836834549903870e-02 -5.534924194216728210e-02 8.828040445223450661e-04 8.635494858026504517e-02 -2.045415341854095459e-02 8.882597088813781738e-03 2.084437757730484009e-02 5.652343109250068665e-02 4.289818555116653442e-02 8.880350738763809204e-02 8.287239074707031250e-02 8.652473241090774536e-02 -1.700988784432411194e-02 -2.700640447437763214e-02 1.771417632699012756e-02 9.008525311946868896e-02 -1.933454163372516632e-02 9.402124211192131042e-03 3.602200420573353767e-03 8.292060345411300659e-02 4.054933041334152222e-02 -3.463158383965492249e-02 -3.879085415974259377e-03 1.156595349311828613e-02 -6.015411391854286194e-02 -2.815245985984802246e-01 -5.026081204414367676e-02 9.871280193328857422e-02 -2.011441469192504883e+00 2.775356769561767578e+00 4.276578128337860107e-02 2.420918196439743042e-01 -1.518871933221817017e-01 2.881616540253162384e-02 -5.222792625427246094e-01 -3.971113860607147217e-01 -3.345554471015930176e-01 3.695941716432571411e-02 -4.386343806982040405e-02 7.713739294558763504e-03 8.706026524305343628e-02 -2.806326188147068024e-02 -1.061572460457682610e-03 3.520383266732096672e-03 7.437545061111450195e-02 4.657799378037452698e-02 8.025746047496795654e-02 7.590187340974807739e-02 5.320967361330986023e-02 -4.580764565616846085e-03 -2.088630571961402893e-02 1.296660955995321274e-02 7.813198119401931763e-02 -5.345998797565698624e-03 2.058205660432577133e-03 1.692115911282598972e-03 6.753776222467422485e-02 3.612738847732543945e-02 -4.828108847141265869e-02 2.047379314899444580e-02 2.407513745129108429e-02 -7.884590327739715576e-02 -2.066164612770080566e-01 -5.326658114790916443e-02 9.883641451597213745e-02 -1.909284710884094238e+00 2.501774311065673828e+00 7.216717302799224854e-02 2.450027167797088623e-01 -1.031177788972854614e-01 6.954210251569747925e-02 -4.431227445602416992e-01 -3.605926036834716797e-01 -3.444432914257049561e-01 3.322616964578628540e-02 -3.949856385588645935e-02 1.442930847406387329e-02 8.336050808429718018e-02 -3.450931981205940247e-02 -1.761122234165668488e-02 -1.147120818495750427e-02 8.494088053703308105e-02 4.991783946752548218e-02 7.409603893756866455e-02 6.456395238637924194e-02 1.422554627060890198e-02 2.821111585944890976e-03 -4.110579192638397217e-02 2.098652347922325134e-02 6.095194816589355469e-02 8.615017868578433990e-03 -9.128319099545478821e-03 -6.366909947246313095e-03 4.526206478476524353e-02 9.485491551458835602e-03 -1.014412473887205124e-02 2.014718391001224518e-02 3.329771384596824646e-02 -6.317776441574096680e-02 -1.494269520044326782e-01 -5.483151972293853760e-02 9.972895681858062744e-02 -1.722889184951782227e+00 2.084302425384521484e+00 5.007032677531242371e-02 2.030058801174163818e-01 -1.596232950687408447e-01 8.751769363880157471e-02 -3.701311349868774414e-01 -3.095027506351470947e-01 -3.168441057205200195e-01 2.448683418333530426e-02 -4.090776666998863220e-02 2.141783013939857483e-02 7.822318375110626221e-02 -3.923338279128074646e-02 -3.674196451902389526e-02 -3.614892810583114624e-02 8.864203095436096191e-02 5.457245931029319763e-02 6.742017716169357300e-02 4.768873006105422974e-02 -2.714713662862777710e-02 -7.839680649340152740e-03 -6.060959398746490479e-02 1.138660870492458344e-02 3.359903767704963684e-02 2.333193831145763397e-02 -1.738169975578784943e-02 -7.435170002281665802e-03 1.816922798752784729e-02 -4.906024038791656494e-02 -2.693105489015579224e-03 2.606769837439060211e-02 3.962763771414756775e-02 -1.875680126249790192e-02 -1.137627586722373962e-01 -5.602231621742248535e-02 9.880705922842025757e-02 -1.389433026313781738e+00 1.341293334960937500e+00 7.797285914421081543e-02 1.725123375654220581e-01 -1.091780066490173340e-01 6.872780621051788330e-02 -2.998664081096649170e-01 -2.403950691223144531e-01 -2.399469017982482910e-01 5.189583636820316315e-03 -5.165744200348854065e-02 2.227710187435150146e-02 7.022341340780258179e-02 -4.153842106461524963e-02 -5.851437151432037354e-02 -6.728874891996383667e-02 9.326068311929702759e-02 5.680763348937034607e-02 5.932494997978210449e-02 3.134633600711822510e-02 -7.172428816556930542e-02 2.430957276374101639e-03 -7.829767465591430664e-02 -4.035083949565887451e-02 -9.889231063425540924e-03 2.436391822993755341e-02 -2.992671355605125427e-02 1.561348093673586845e-03 -2.134427661076188087e-03 -9.672687947750091553e-02 2.419105358421802521e-02 2.802895940840244293e-02 3.156824409961700439e-02 5.691311880946159363e-02 -1.020876467227935791e-01 -5.655216425657272339e-02 9.904785454273223877e-02 -7.838062644004821777e-01 5.087926983833312988e-02 1.769176274538040161e-01 7.971122860908508301e-02 -8.495992422103881836e-02 3.072091564536094666e-02 -2.253360003232955933e-01 -1.485606282949447632e-01 -7.762873172760009766e-02 -2.419571764767169952e-02 -7.019437104463577271e-02 1.702123694121837616e-02 5.799414590001106262e-02 -4.408723488450050354e-02 -8.050611615180969238e-02 -1.097596660256385803e-01 1.002708971500396729e-01 6.010345742106437683e-02 5.620238929986953735e-02 1.297287270426750183e-02 -1.149136796593666077e-01 -6.828742567449808121e-03 -1.131557002663612366e-01 -1.144846007227897644e-01 -5.108465999364852905e-02 5.373387411236763000e-02 -4.036020487546920776e-02 5.905732046812772751e-03 -3.410850837826728821e-02 -1.720789819955825806e-01 7.826780527830123901e-02 4.715166240930557251e-02 3.666301444172859192e-02 1.712821722030639648e-01 -1.208976581692695618e-01 -5.617079883813858032e-02 9.826012700796127319e-02 3.134668171405792236e-01 -2.015804529190063477e+00 3.478912413120269775e-01 1.639032177627086639e-02 2.017630496993660927e-03 1.549397874623537064e-02 -1.177956983447074890e-01 -2.191513217985630035e-02 2.286162078380584717e-01 -7.120098173618316650e-02 -9.153621643781661987e-02 7.626100443303585052e-03 4.272851720452308655e-02 -4.470776766538619995e-02 -9.990686178207397461e-02 -1.669531613588333130e-01 1.267092525959014893e-01 6.427137553691864014e-02 6.010969355702400208e-02 3.588949039112776518e-05 -1.518859267234802246e-01 -2.543536014854907990e-02 -1.332487165927886963e-01 -1.572261154651641846e-01 -8.955860882997512817e-02 6.967191398143768311e-02 -3.428149223327636719e-02 6.728060077875852585e-03 -2.056057006120681763e-02 -2.068636864423751831e-01 1.741881221532821655e-01 7.404334098100662231e-02 5.627838149666786194e-02 3.340005278587341309e-01 -1.789988726377487183e-01 -5.586435645818710327e-02 9.717552363872528076e-02 2.103819608688354492e+00 -5.135789871215820312e+00 5.159155130386352539e-01 2.052265554666519165e-01 1.587154418230056763e-01 -9.495622362010180950e-04 8.039981126785278320e-02 1.471513360738754272e-01 7.515066266059875488e-01 -1.358746588230133057e-01 -8.453368395566940308e-02 4.733089357614517212e-03 2.713986858725547791e-02 -4.369203001260757446e-02 -1.153183728456497192e-01 -2.487746626138687134e-01 1.928153187036514282e-01 8.070704340934753418e-02 7.534879446029663086e-02 -1.493172626942396164e-02 -1.771861612796783447e-01 -1.683163456618785858e-02 -6.200598925352096558e-02 -7.312369346618652344e-02 2.771225292235612869e-03 1.655765250325202942e-02 -3.119092620909214020e-02 1.741203304845839739e-04 6.688722968101501465e-02 -5.854139849543571472e-02 2.494415640830993652e-01 3.045690990984439850e-02 5.804865062236785889e-02 5.507622957229614258e-01 -2.742340266704559326e-01 -5.685677006840705872e-02 9.655984491109848022e-02 4.683627128601074219e+00 -9.593840599060058594e+00 8.360180854797363281e-01 8.059105873107910156e-01 3.598360121250152588e-01 -9.617193788290023804e-02 4.442456364631652832e-01 3.532411158084869385e-01 1.440130949020385742e+00 -2.188813835382461548e-01 6.356200901791453362e-04 5.232047662138938904e-02 2.171139977872371674e-02 -5.009650066494941711e-02 -8.912929892539978027e-02 -3.683397471904754639e-01 3.748410344123840332e-01 1.490773856639862061e-01 8.872693777084350586e-02 -3.931814804673194885e-02 -2.134578377008438110e-01 3.933843225240707397e-03 9.453129768371582031e-02 3.243966698646545410e-01 4.352524876594543457e-01 -3.012655675411224365e-01 -2.526993304491043091e-02 -3.644971922039985657e-02 2.619965076446533203e-01 5.444754958152770996e-01 2.918112277984619141e-01 -1.398341953754425049e-01 1.037050187587738037e-01 8.061378598213195801e-01 -3.757906258106231689e-01 -7.337463647127151489e-02 9.695893526077270508e-02 7.707891464233398438e+00 -1.530846786499023438e+01 1.192056298255920410e+00 2.045555830001831055e+00 1.716334223747253418e-01 -2.631077766418457031e-01 2.146099805831909180e-01 -1.708235889673233032e-01 -3.968521058559417725e-01 6.313806027173995972e-02 -2.368389517068862915e-01 -3.815554454922676086e-02 4.297595843672752380e-02 -4.112743213772773743e-02 -2.953588031232357025e-02 -4.630266726016998291e-01 -9.772270917892456055e-02 -1.773290783166885376e-01 4.625615477561950684e-02 2.309963554143905640e-01 -1.558176428079605103e-01 -2.463752925395965576e-01 1.629750579595565796e-01 -1.573038250207901001e-01 3.484116494655609131e-02 -7.440228480845689774e-03 -7.051507383584976196e-02 -2.827327325940132141e-02 -4.528491497039794922e-01 -5.920673534274101257e-02 -1.307308822870254517e-01 1.802579313516616821e-02 2.944206893444061279e-01 -1.027382537722587585e-01 -1.043539717793464661e-01 2.830573618412017822e-01 -7.831615954637527466e-02 1.049660444259643555e-01 5.689338967204093933e-02 1.169933658093214035e-02 1.433326490223407745e-02 -4.189029633998870850e-01 -2.748908707872033119e-03 -7.501693069934844971e-02 4.119103774428367615e-02 2.174836844205856323e-01 -9.179481863975524902e-02 -5.350297316908836365e-02 3.718555271625518799e-01 -2.826735004782676697e-02 1.604497879743576050e-01 9.564375877380371094e-02 8.783542364835739136e-02 1.010236144065856934e-01 -3.887712359428405762e-01 1.025764197111129761e-01 2.215220779180526733e-02 7.334832102060317993e-02 1.813350021839141846e-01 -1.249751597642898560e-01 -5.296934768557548523e-02 3.876338601112365723e-01 1.833214424550533295e-02 1.669268012046813965e-01 2.034317553043365479e-01 1.654166430234909058e-01 1.487957686185836792e-01 -3.119201958179473877e-01 1.863609403371810913e-01 6.112736091017723083e-02 1.381818801164627075e-01 1.119591519236564636e-01 -2.376936376094818115e-01 -1.699760556221008301e-01 4.300071299076080322e-01 4.600517824292182922e-02 1.117822229862213135e-01 1.871157139539718628e-01 2.204863578081130981e-01 1.078169345855712891e-01 -2.043017446994781494e-01 2.185909152030944824e-01 8.734106272459030151e-02 1.340927779674530029e-01 2.436698786914348602e-02 -3.693253993988037109e-01 -2.953263521194458008e-01 4.219713807106018066e-01 8.487242460250854492e-02 -1.226537488400936127e-02 2.496007382869720459e-01 1.898054182529449463e-01 1.588599570095539093e-02 -6.466213613748550415e-02 2.450652718544006348e-01 7.140729576349258423e-02 5.857610329985618591e-02 -5.214684084057807922e-02 -5.256486535072326660e-01 -4.945308864116668701e-01 4.380165338516235352e-01 1.389006078243255615e-01 -2.014862596988677979e-01 2.953670322895050049e-01 1.486188322305679321e-01 -1.175251677632331848e-01 1.505637764930725098e-01 2.445092797279357910e-01 9.236895292997360229e-02 -1.441356688737869263e-01 -6.431664526462554932e-02 -6.456122994422912598e-01 -4.314165711402893066e-01 5.819829702377319336e-01 2.145093977451324463e-01 -3.716824948787689209e-01 1.692137718200683594e-01 1.178788170218467712e-01 -5.057248845696449280e-02 3.094499707221984863e-01 3.251204192638397217e-01 8.783894777297973633e-02 -4.597990512847900391e-01
