-4.748372733592987061e-02 -5.892735207453370094e-04 7.197416562121361494e-05 1.314523909240961075e-02 1.863264333223924041e-04 -1.593019254505634308e-02 5.856062844395637512e-02 -6.575277657248079777e-04 -5.818266072310507298e-04 3.359685069881379604e-04 -5.156647413969039917e-03 6.122971419245004654e-03 -6.026426795870065689e-03 4.059008788317441940e-03 1.249726163223385811e-03 -1.374053210020065308e-02 -5.145492497831583023e-03 2.065902017056941986e-02 -5.432351026684045792e-04 2.726399526000022888e-02 6.269576493650674820e-03 -1.091895042918622494e-03 2.822389360517263412e-03 1.238069235114380717e-04 1.909716054797172546e-02 -1.228358014486730099e-03 1.442026626318693161e-02 2.366130356676876545e-04 -2.901443978771567345e-03 8.447076193988323212e-03 4.198732972145080566e-02 -6.719058845192193985e-03 -5.478900857269763947e-04 4.009712859988212585e-02 -1.446047099307179451e-03 -1.806017011404037476e-02 -1.505825109779834747e-02 -9.305119514465332031e-03 7.452115823980420828e-05 -9.183084475807845592e-04 2.816638152580708265e-04 1.651990227401256561e-02 -2.808270417153835297e-02 1.763601787388324738e-02 5.069870501756668091e-03 3.569812106434255838e-04 -9.805472567677497864e-03 -7.666140329092741013e-03 2.557289414107799530e-02 3.408722579479217529e-03 2.229689806699752808e-02 -1.905249431729316711e-02 4.738263669423758984e-04 -8.495619520545005798e-03 -2.988018654286861420e-02 -2.064108382910490036e-03 5.666256183758378029e-04 -7.611683569848537445e-03 -3.430468589067459106e-02 -1.447090413421392441e-02 1.475655008107423782e-02 -7.692798506468534470e-03 7.298743730643764138e-05 -1.930280632223002613e-05 7.861485704779624939e-03 -1.843859325163066387e-03 1.198122836649417877e-02 -3.722626017406582832e-03 8.036782382987439632e-04 -1.745662419125437737e-03 -6.521137896925210953e-03 -5.599262294708751142e-05 -4.472453147172927856e-02 4.255676230968674645e-06 -2.652678266167640686e-02 1.155488498625345528e-04 -1.816359907388687134e-02 -7.519040722399950027e-03 -3.127579111605882645e-04 -1.691034878604114056e-03 1.798914559185504913e-02 -9.942187927663326263e-03 5.569314956665039062e-02 2.021977119147777557e-02 6.445311737479642034e-05 3.127247095108032227e-02 9.622493758797645569e-03 -2.193386317230761051e-04 -2.899237722158432007e-02 -1.562187913805246353e-03 7.888866239227354527e-04 9.153835475444793701e-03 -1.379664521664381027e-03 3.909259103238582611e-03 8.280762122012674809e-04 1.864564954303205013e-03 8.502687560394406319e-04 6.559112807735800743e-04 9.814741089940071106e-03 4.722798708826303482e-03 6.870268378406763077e-03 1.638315588934347034e-04 -1.807273220038041472e-04 3.466570982709527016e-03 -2.235032431781291962e-02 1.738872565329074860e-02 4.936902318149805069e-03 -4.769256338477134705e-04 6.232291460037231445e-03 6.976222153753042221e-03 -3.111842670477926731e-04 8.403854735661298037e-05 1.199935097247362137e-02 -1.160544622689485550e-02 2.387322857975959778e-02 -2.616301178932189941e-03 -1.448363624513149261e-02 -1.350727677345275879e-02 2.083542203763499856e-04 1.334584783762693405e-02 1.952219381928443909e-02 6.043944880366325378e-02 6.445915903896093369e-03 -1.304412726312875748e-04 -4.226408433169126511e-03 -1.488478574901819229e-02 -4.425420239567756653e-02 1.144593348726630211e-03 -2.802722156047821045e-02 5.870757251977920532e-02 -2.808004431426525116e-02 -9.681095834821462631e-04 4.405627027153968811e-03 1.060033246176317334e-04 2.841438981704413891e-04 1.604620250873267651e-03 -6.403980660252273083e-04 2.277295105159282684e-03 -2.063823677599430084e-02 9.417268447577953339e-04 1.386657077819108963e-02 -3.422637528274208307e-04 -1.091456855647265911e-03 7.681582588702440262e-03 -9.080493822693824768e-03 2.142562298104166985e-03 -5.620842799544334412e-03 9.195005986839532852e-04 -1.995038427412509918e-02 -2.611103234812617302e-03 1.324544940143823624e-02 1.400100998580455780e-02 -1.667275093495845795e-02 5.526749882847070694e-04 -2.434000372886657715e-02 4.493582528084516525e-03 4.847079108003526926e-04 -3.481312887743115425e-05 -6.863043643534183502e-03 1.091868733055889606e-03 5.910680629312992096e-03 -2.256931364536285400e-02 -2.963220700621604919e-02 2.472844161093235016e-02 1.537923794239759445e-02 2.461367473006248474e-02 -1.049277745187282562e-02 2.460389211773872375e-02 -6.472573149949312210e-04 1.265624421648681164e-03 -8.072884753346443176e-03 -1.008564326912164688e-02 -1.692596473731100559e-03 -4.084574989974498749e-03 -6.868127093184739351e-05 4.461051867110654712e-05 -4.510914150159806013e-04 1.190349692478775978e-03 -1.134763658046722412e-02 4.409692715853452682e-03 -2.535838633775711060e-02 -8.605595678091049194e-03 -1.974679529666900635e-02 6.919765146449208260e-04 2.894164249300956726e-02 -9.918212890625000000e-03 -5.512242787517607212e-04 1.438264735043048859e-02 -1.964635960757732391e-02 3.700040653347969055e-02 -1.387956924736499786e-02 -2.247374504804611206e-02 -9.168967604637145996e-03 2.834731247276067734e-03 1.395147573202848434e-02 1.452358067035675049e-02 -1.852257922291755676e-02 -1.168669550679624081e-03 -4.352439194917678833e-03 1.188817666843533516e-03 3.453176934272050858e-03 3.085560398176312447e-03 -3.918909467756748199e-03 -3.888022154569625854e-02 3.796738747041672468e-04 -6.625005509704351425e-03 -2.024605171754956245e-03 9.339042589999735355e-04 4.647495225071907043e-04 -1.015968061983585358e-02 -3.877125913277268410e-03 -1.942485687322914600e-03 1.701255445368587971e-03 -1.341046392917633057e-02 1.078686094842851162e-03 4.015488375443965197e-04 -1.758182607591152191e-02 -1.374422293156385422e-02 2.951004169881343842e-02 -1.821869052946567535e-02 -9.654667228460311890e-03 1.176383253186941147e-02 -3.141414141282439232e-03 7.554437033832073212e-04 -1.955898106098175049e-02 -1.593850180506706238e-02 6.594968494027853012e-03 -2.108730375766754150e-02 2.391744032502174377e-02 -3.051120787858963013e-03 1.436668680980801582e-03 -5.793373566120862961e-03 -1.672794111073017120e-02 4.094624891877174377e-04 -9.439699351787567139e-03 -1.465731766074895859e-04 1.049305777996778488e-02 2.862429246306419373e-02 2.490979619324207306e-02 1.704726368188858032e-02 -8.086771704256534576e-03 -1.173648750409483910e-03 2.368409419432282448e-03 -8.336711674928665161e-03 1.510986126959323883e-02 7.615287322551012039e-03 -7.302115554921329021e-04 2.489106729626655579e-02 4.035086184740066528e-02 3.493779804557561874e-04 -1.509753987193107605e-03 3.663391573354601860e-03 2.170197479426860809e-02 -4.269389319233596325e-04 7.646511308848857880e-03 1.257360260933637619e-02
7.235531508922576904e-02 -2.883393608499318361e-04 2.833986363839358091e-04 -5.594943067990243435e-04 -1.303722965531051159e-03 -1.699703745543956757e-02 -1.350039429962635040e-02 -1.184001885121688247e-04 -7.189600728452205658e-04 1.001120544970035553e-03 4.142313823103904724e-02 -1.496189553290605545e-02 -2.728184126317501068e-02 -1.544391922652721405e-02 2.800426445901393890e-04 2.395336516201496124e-02 6.382695864886045456e-03 9.649347513914108276e-03 4.400493635330349207e-04 -3.189892973750829697e-03 2.309827366843819618e-03 1.425423100590705872e-02 3.227884694933891296e-02 -1.537275267764925957e-03 8.959699189290404320e-04 5.659296875819563866e-04 8.599111810326576233e-03 1.817033335100859404e-04 -1.554672606289386749e-02 5.885173007845878601e-02 2.058236300945281982e-02 3.417650610208511353e-02 -1.397683518007397652e-04 -4.207318648695945740e-02 -3.288461267948150635e-02 2.395154349505901337e-02 2.368869818747043610e-02 1.547316904179751873e-03 8.406519773416221142e-04 6.100471946410834789e-04 4.251076024957001209e-04 -8.913336321711540222e-03 2.166181057691574097e-02 2.393100224435329437e-02 1.006638910621404648e-02 -3.008669009432196617e-04 8.874095976352691650e-03 -9.710863232612609863e-03 -2.082333341240882874e-02 -1.149381790310144424e-02 3.750545671209692955e-03 1.905925222672522068e-03 -5.361860385164618492e-04 -5.236437078565359116e-03 -3.471664711833000183e-02 -2.869898220524191856e-03 8.130295900627970695e-04 3.833856806159019470e-02 3.170795040205121040e-03 -3.143969224765896797e-03 -2.501446567475795746e-02 1.868939585983753204e-02 -1.646062301006168127e-04 -9.632612927816808224e-04 -7.445848495990503579e-06 -2.244206007162574679e-05 -1.776234246790409088e-02 1.950061507523059845e-02 -4.552296886686235666e-04 -2.587749063968658447e-02 6.833579391241073608e-03 1.497046469012275338e-04 1.025536209344863892e-01 -1.168442075140774250e-03 1.874482259154319763e-02 1.472552394261583686e-04 6.526562571525573730e-02 -2.268654666841030121e-02 5.389071884565055370e-05 -7.286013569682836533e-03 4.695928189903497696e-03 -5.102828145027160645e-02 5.822689272463321686e-04 2.124034985899925232e-02 8.312468416988849640e-04 1.943137682974338531e-02 3.205313161015510559e-02 -1.249382912646979094e-04 1.082674250937998295e-03 -1.229312364012002945e-02 -1.506512891501188278e-02 -1.798142865300178528e-02 3.474728146102279425e-04 -1.395298074930906296e-02 -1.118647167459130287e-03 8.252509869635105133e-03 -3.339189861435443163e-04 2.846879069693386555e-04 4.572657402604818344e-03 -5.514251440763473511e-02 -3.962436690926551819e-03 1.117834472097456455e-04 3.815909440163522959e-04 -3.841968253254890442e-02 2.118755690753459930e-02 -1.189961005002260208e-02 1.688743196427822113e-02 -3.344187280163168907e-05 -4.520106595009565353e-03 2.254730090498924255e-02 2.530518104322254658e-04 -5.621952586807310581e-04 -1.387010328471660614e-02 5.697950720787048340e-02 9.216076135635375977e-02 -1.432023104280233383e-02 -1.282755564898252487e-02 -9.010839276015758514e-03 -4.236469976603984833e-04 1.980277895927429199e-02 1.286963466554880142e-02 -1.562620326876640320e-02 -1.008335780352354050e-02 -2.184709766879677773e-03 -1.725294999778270721e-02 4.265949875116348267e-02 -1.992189884185791016e-02 -7.014764705672860146e-04 4.717487469315528870e-02 2.045022137463092804e-02 6.978668738156557083e-03 1.356595312245190144e-03 2.245077490806579590e-02 2.019177190959453583e-04 5.339481867849826813e-04 9.130316972732543945e-02 -4.486659890972077847e-04 -1.193300355225801468e-03 -1.425155252218246460e-02 9.021991863846778870e-03 -1.566894911229610443e-02 -1.253200607607141137e-04 1.211538678035140038e-03 1.887583732604980469e-02 -2.079405821859836578e-02 1.581561192870140076e-02 2.947972156107425690e-03 7.855118019506335258e-04 -1.466176565736532211e-02 -4.030280560255050659e-02 2.042902633547782898e-02 -2.036243863403797150e-02 1.908775186166167259e-03 2.442875120323151350e-04 3.311057761311531067e-02 1.341576129198074341e-02 8.166537736542522907e-04 -4.201538104098290205e-04 3.018291294574737549e-02 -3.818127152044326067e-04 2.914426848292350769e-02 1.199894119054079056e-03 -1.105424389243125916e-02 2.672377973794937134e-03 -6.827297620475292206e-03 -8.279256522655487061e-03 3.786557540297508240e-02 -6.569634657353162766e-03 9.211996570229530334e-03 -8.192907087504863739e-03 4.485841095447540283e-02 -1.271308865398168564e-02 -2.970556488435249776e-05 -9.571283124387264252e-03 -3.349552280269563198e-04 6.186983082443475723e-04 4.692289803642779589e-04 -2.697408199310302734e-04 1.141888182610273361e-02 -2.098324475809931755e-03 -7.469580508768558502e-03 -8.817343041300773621e-03 -1.577741466462612152e-02 5.067174788564443588e-04 1.286921789869666100e-03 2.534514525905251503e-03 -1.600759424036368728e-04 -4.439619183540344238e-02 -6.359943188726902008e-03 1.606253534555435181e-02 3.259232267737388611e-02 5.391070619225502014e-02 3.308430686593055725e-02 2.427764236927032471e-02 9.227521717548370361e-03 7.454175502061843872e-02 1.919882558286190033e-02 -2.670797039172612131e-05 -4.757175967097282410e-02 2.698465622961521149e-02 -6.370281334966421127e-03 -4.080023616552352905e-02 3.648437187075614929e-02 3.680331574287265539e-04 1.090453224605880678e-04 -8.883401751518249512e-02 3.583256155252456665e-02 1.676404644967988133e-04 7.917992770671844482e-04 1.169518474489450455e-02 2.765227481722831726e-02 2.392239170148968697e-03 1.076130545698106289e-03 -7.813765667378902435e-03 -6.638948689214885235e-04 -1.380531350150704384e-03 4.157621413469314575e-02 -1.681250706315040588e-02 4.218926653265953064e-03 4.561857134103775024e-02 2.189149963669478893e-04 -1.281557977199554443e-02 -1.549846865236759186e-02 2.638184814713895321e-04 9.894899092614650726e-03 1.981145329773426056e-02 1.226412411779165268e-02 -1.568076759576797485e-02 7.850440219044685364e-03 2.572162635624408722e-02 -8.511735359206795692e-04 1.723330933600664139e-03 -2.113501168787479401e-02 -8.484342251904308796e-04 2.271822653710842133e-02 1.286141632590442896e-04 -6.882277317345142365e-03 -1.283429563045501709e-02 -2.359661739319562912e-03 -3.605019301176071167e-03 6.073424592614173889e-04 -6.014176644384860992e-03 -1.328888908028602600e-02 -1.657172292470932007e-02 1.265960000455379486e-02 7.008329033851623535e-03 6.902355817146599293e-04 -5.870285630226135254e-02 -3.120978549122810364e-02 -1.072906452463939786e-04 -1.213055010885000229e-02 1.462642475962638855e-02 -3.465947136282920837e-02 -2.158296667039394379e-02 -5.168400704860687256e-02 -1.722478680312633514e-02
-1.690714433789253235e-02 -4.582253677654080093e-05 4.766831698361784220e-04 -6.127872318029403687e-02 -6.885545444674789906e-04 -4.721681773662567139e-02 -1.700347475707530975e-02 1.208421774208545685e-03 -1.210691290907561779e-03 1.893981359899044037e-02 1.783165708184242249e-02 3.117744065821170807e-02 -2.082874812185764313e-02 3.000072762370109558e-02 -1.390482648275792599e-03 -1.210671849548816681e-02 -2.780484594404697418e-02 -4.400343075394630432e-02 1.441503874957561493e-03 -1.086133811622858047e-02 -2.803952991962432861e-02 -1.695865183137357235e-03 1.099699456244707108e-02 2.731779532041400671e-04 1.641929335892200470e-02 8.027329458855092525e-04 1.962649263441562653e-02 -5.580983124673366547e-04 -1.895800232887268066e-02 1.977689377963542938e-02 9.345691651105880737e-03 8.687805384397506714e-04 6.564845680259168148e-04 9.692787192761898041e-03 1.600109227001667023e-02 -5.733879748731851578e-03 8.077031932771205902e-03 -3.141045197844505310e-02 1.028385595418512821e-03 1.765235356288030744e-04 -5.476360674947500229e-04 2.500342950224876404e-02 2.195261418819427490e-02 -3.626796230673789978e-02 -5.872750654816627502e-02 2.950357156805694103e-04 5.086440593004226685e-03 9.000164270401000977e-02 -4.813689272850751877e-03 -3.914420679211616516e-02 -1.148408930748701096e-02 1.105925906449556351e-02 -2.564019523561000824e-04 1.460316125303506851e-02 -3.983428329229354858e-02 2.406405285000801086e-02 -8.603574824519455433e-04 2.052863687276840210e-02 -3.466206602752208710e-03 1.339120906777679920e-03 4.202700033783912659e-02 1.132322661578655243e-02 -1.441704109311103821e-03 4.847142263315618038e-04 1.408700644969940186e-02 1.889541163109242916e-04 -6.257077306509017944e-02 -2.941753901541233063e-02 -1.128310905187390745e-04 -1.523930113762617111e-02 5.219548474997282028e-03 1.077040142263285816e-04 4.764212761074304581e-03 9.044376201927661896e-04 -6.609552353620529175e-02 1.467632682761177421e-05 3.313251957297325134e-02 4.829423851333558559e-04 6.526195211336016655e-04 4.133268445730209351e-02 -1.124611776322126389e-02 -4.455999936908483505e-03 -1.101399119943380356e-02 8.968673646450042725e-03 1.516102231107652187e-03 -1.240275916643440723e-03 -1.311565865762531757e-03 1.581004762556403875e-04 3.334325447212904692e-04 2.762379124760627747e-02 -8.924833498895168304e-03 1.758494228124618530e-02 1.480692066252231598e-03 2.406516112387180328e-02 2.319247141713276505e-04 3.161598369479179382e-02 8.952046300692018121e-06 -5.033852648921310902e-04 5.195605102926492691e-03 -9.747979231178760529e-03 6.735918577760457993e-03 4.120109369978308678e-04 7.065693498589098454e-04 -2.751739230006933212e-03 -8.321076631546020508e-03 7.544047548435628414e-05 -1.633414067327976227e-02 -2.168356149923056364e-04 1.923796534538269043e-02 2.194905467331409454e-02 -2.063471183646470308e-04 4.679129051510244608e-04 4.363135434687137604e-03 -7.227792590856552124e-02 -1.983272098004817963e-02 1.844982430338859558e-02 -2.311693970113992691e-03 -1.337421033531427383e-02 -1.092709717340767384e-03 5.063353106379508972e-03 3.440711274743080139e-02 1.767081022262573242e-02 -4.436471313238143921e-02 2.235381491482257843e-02 -1.319504994899034500e-02 5.185178946703672409e-03 -1.251950953155755997e-02 -1.964478724403306842e-04 2.797039039433002472e-02 -2.278693765401840210e-02 5.501311644911766052e-02 -5.624375771731138229e-04 -1.591993309557437897e-02 -1.466212270315736532e-04 -1.032290281727910042e-03 -4.357581958174705505e-03 -4.988378495909273624e-04 1.157167740166187286e-02 4.044073447585105896e-02 -4.953653365373611450e-02 3.145292401313781738e-02 -8.021220128284767270e-05 8.165928884409368038e-04 1.585519500076770782e-02 3.907175734639167786e-03 -1.567558012902736664e-02 1.548775006085634232e-02 6.269295699894428253e-04 4.230779409408569336e-02 -2.124281600117683411e-03 -1.882488373667001724e-03 -2.703799679875373840e-02 -9.807743132114410400e-03 6.316163344308733940e-04 -8.308107964694499969e-03 2.830951474606990814e-03 5.794433527626097202e-04 9.071742533706128597e-04 -2.039746847003698349e-03 3.409377241041511297e-04 6.240546703338623047e-03 -5.087711289525032043e-02 -2.038360573351383209e-03 -5.613535642623901367e-03 3.723039699252694845e-04 1.926732808351516724e-02 1.477841287851333618e-02 -3.054521605372428894e-02 -6.514973938465118408e-02 2.632882446050643921e-02 1.305204536765813828e-02 -2.606724202632904053e-02 -6.827762117609381676e-04 2.450511557981371880e-03 4.696445539593696594e-04 -8.014678023755550385e-04 1.389898534398525953e-04 3.396820393390953541e-04 4.067346826195716858e-02 1.075373496860265732e-02 -3.632825613021850586e-02 5.575656890869140625e-03 3.487071488052606583e-03 -6.770742766093462706e-05 -1.515517663210630417e-02 -2.090189047157764435e-02 3.620894567575305700e-04 -2.267908118665218353e-02 2.863463200628757477e-02 1.363324932754039764e-02 2.713670022785663605e-02 -3.175948932766914368e-02 1.991795748472213745e-02 -1.493765972554683685e-02 2.495017088949680328e-02 -6.182244513183832169e-03 -2.533162385225296021e-02 2.231585240224376321e-04 -2.276111394166946411e-02 -6.367373466491699219e-02 -2.051841840147972107e-02 -1.055576093494892120e-02 -3.747396543622016907e-02 1.098597049713134766e-02 -3.573546200641430914e-05 2.217111177742481232e-02 1.707702688872814178e-02 -7.223833235912024975e-04 1.083471652236767113e-04 -4.403907805681228638e-03 -2.040891908109188080e-02 -5.041657015681266785e-02 1.312984526157379150e-02 4.899199120700359344e-03 6.604122609132900834e-05 3.921358147636055946e-04 3.643869422376155853e-04 -7.146213203668594360e-02 -3.920278698205947876e-02 2.049149014055728912e-02 -7.899318635463714600e-02 -1.724622398614883423e-02 -1.330563146620988846e-02 -1.412286888808012009e-03 4.125836119055747986e-02 -2.061041817069053650e-02 1.353003177791833878e-02 -7.565487641841173172e-03 -5.312118679285049438e-03 1.384576666168868542e-03 8.475697599351406097e-03 -4.036335274577140808e-03 3.426488116383552551e-02 -8.656745776534080505e-04 8.999473415315151215e-03 1.183675412903539836e-04 3.718153806403279305e-03 2.250023651868104935e-03 1.691490411758422852e-02 -6.485347170382738113e-03 3.614209825173020363e-03 -3.432472422719001770e-02 -1.947356387972831726e-03 -4.733073990792036057e-03 2.962668950203806162e-04 7.112634368240833282e-03 -1.463284388592001051e-05 2.280667191371321678e-03 -2.632881142199039459e-02 -3.108656965196132660e-04 -1.681458321399986744e-03 -5.862443894147872925e-02 8.709958754479885101e-03 -1.072683557868003845e-02 7.888280088081955910e-04 1.442925655283033848e-03
3.067817725241184235e-02 -5.339562194421887398e-04 9.248091373592615128e-05 -2.249429747462272644e-02 6.637260667048394680e-04 -3.244290128350257874e-02 -5.551975592970848083e-02 -1.033679349347949028e-03 -2.337342448299750686e-05 -2.032361179590225220e-02 1.313132140785455704e-02 -2.296893484890460968e-02 9.627979248762130737e-03 -2.794145792722702026e-02 1.766625500749796629e-04 4.376188444439321756e-04 3.576403111219406128e-02 -6.386383902281522751e-03 6.073607364669442177e-04 1.351841259747743607e-03 1.342953555285930634e-02 6.357186287641525269e-02 -9.071957319974899292e-03 -1.272925146622583270e-04 -1.948545314371585846e-02 -1.077580614946782589e-03 -1.200026180595159531e-02 5.407891003414988518e-04 1.608022861182689667e-02 -6.173521652817726135e-02 1.420328952372074127e-02 -4.713134840130805969e-02 -7.377047440968453884e-04 -5.064578726887702942e-03 -1.102488208562135696e-02 -9.264136664569377899e-03 -2.104793302714824677e-02 1.349520869553089142e-02 6.177573231980204582e-04 4.920435603708028793e-04 5.094045191071927547e-04 -8.098351769149303436e-03 -1.394508685916662216e-02 1.781893894076347351e-03 3.623924031853675842e-02 8.255841094069182873e-04 1.174267847090959549e-02 3.466333448886871338e-02 -2.854339836630970240e-04 1.053543388843536377e-02 7.646655663847923279e-03 -1.706461049616336823e-02 -3.312655317131429911e-04 -2.208922430872917175e-02 -4.416074231266975403e-02 -2.147586271166801453e-02 3.436481711105443537e-05 2.924768719822168350e-03 -1.883626170456409454e-02 4.958317056298255920e-02 -5.643070209771394730e-03 -1.917102001607418060e-02 5.299925687722861767e-04 9.042226593010127544e-04 3.514071926474571228e-03 -1.039440860040485859e-03 -2.087193913757801056e-02 4.407059773802757263e-02 1.609076396562159061e-03 8.167536929249763489e-03 -1.765078306198120117e-02 -6.378319230861961842e-04 -4.074241220951080322e-02 -1.140066160587593913e-04 1.785657927393913269e-02 1.600090909050777555e-04 -2.564393542706966400e-02 4.040836938656866550e-04 3.889051149599254131e-04 2.335471659898757935e-02 9.385089389979839325e-03 -6.690470967441797256e-03 -4.328238591551780701e-02 2.811235189437866211e-02 3.674450999824330211e-05 1.585430651903152466e-02 1.924678450450301170e-03 -9.297748329117894173e-05 2.790109021589159966e-03 -2.511741034686565399e-02 -3.812398016452789307e-02 4.761985503137111664e-03 -9.097367292270064354e-04 7.992164231836795807e-03 -1.408356823958456516e-03 1.775415055453777313e-02 -5.090356571599841118e-04 1.378435554215684533e-04 -5.099123343825340271e-03 -2.078413031995296478e-02 8.568190038204193115e-03 1.020973897539079189e-03 4.324802648625336587e-05 -1.274534873664379120e-02 -5.916119366884231567e-02 3.287892788648605347e-02 -1.065497845411300659e-02 -1.570861932123079896e-04 -1.168040279299020767e-02 -4.152688197791576385e-03 7.180756074376404285e-04 6.438248092308640480e-04 2.290307357907295227e-02 -3.792104125022888184e-02 3.130346909165382385e-02 1.476569846272468567e-02 2.149277739226818085e-02 1.287276204675436020e-02 7.851813570596277714e-04 -2.658973634243011475e-02 -3.012510389089584351e-02 -1.130466442555189133e-02 -1.361604966223239899e-02 -2.301905304193496704e-02 -1.018589362502098083e-03 -1.654234901070594788e-02 -3.343142941594123840e-02 2.599014260340481997e-04 1.825592853128910065e-02 -5.812296178191900253e-03 9.010646492242813110e-02 1.584234851179644465e-04 1.154717616736888885e-02 1.046822289936244488e-04 -5.951620987616479397e-04 -2.029256522655487061e-02 1.706284936517477036e-03 1.209521433338522911e-04 -7.238640915602445602e-03 -5.913170520216226578e-03 -2.144323661923408508e-02 8.643068722449243069e-04 4.115327610634267330e-04 1.145949866622686386e-02 -2.456393558531999588e-03 -5.075064487755298615e-03 -1.335078943520784378e-02 2.194761764258146286e-04 2.445842139422893524e-02 -2.227406948804855347e-02 -3.650621045380830765e-03 2.303493395447731018e-02 9.095450863242149353e-03 -6.062696920707821846e-04 4.202134441584348679e-03 -3.330976888537406921e-02 -4.927770351059734821e-04 -4.244404262863099575e-04 -7.804798427969217300e-03 -1.182474807137623429e-05 2.586620301008224487e-02 -1.982284151017665863e-02 -1.018785312771797180e-02 9.611088782548904419e-03 2.789704874157905579e-02 -2.864652499556541443e-02 -6.677811034023761749e-03 1.620189473032951355e-02 -2.423381432890892029e-03 5.240795202553272247e-03 -9.344201534986495972e-03 2.520997263491153717e-02 6.662373198196291924e-04 2.197151072323322296e-02 -1.381320413202047348e-03 4.432574787642806768e-04 2.118564734701067209e-04 2.902999403886497021e-05 -1.340856216847896576e-02 -1.638846658170223236e-02 -6.460375338792800903e-02 -1.561260409653186798e-02 4.832784645259380341e-03 7.053423905745148659e-04 -9.881811216473579407e-03 1.503789890557527542e-02 -9.531942196190357208e-04 -1.994620542973279953e-03 -2.020015008747577667e-02 3.301449865102767944e-02 4.557856544852256775e-02 -3.423376008868217468e-02 7.392447907477617264e-03 -1.111436542123556137e-02 3.222968196496367455e-03 -4.166262224316596985e-02 -3.482977626845240593e-03 7.476258906535804272e-04 -5.747098103165626526e-02 3.634013980627059937e-02 3.267789259552955627e-02 -2.426385134458541870e-02 -6.007849238812923431e-03 -6.966326385736465454e-03 4.635081568267196417e-04 2.410944551229476929e-02 -1.932773180305957794e-02 4.404676437843590975e-04 1.018850744003430009e-04 -1.584959588944911957e-02 -2.025484805926680565e-03 9.131023660302162170e-03 -9.467135183513164520e-03 2.371725067496299744e-02 7.757130661047995090e-04 -6.570050027221441269e-04 -2.290511690080165863e-02 -3.300995007157325745e-02 1.053924020379781723e-02 4.259170964360237122e-02 -3.474961500614881516e-03 -2.860538475215435028e-02 -1.579911098815500736e-03 3.498601145111024380e-04 -2.142255753278732300e-02 1.513215340673923492e-02 1.982371322810649872e-02 2.707083476707339287e-03 1.488753361627459526e-03 4.436575993895530701e-02 -1.980156078934669495e-02 2.539978362619876862e-02 2.919774502515792847e-02 -4.521207883954048157e-04 -1.906216260977089405e-03 4.353620752226561308e-04 5.608718842267990112e-03 1.418400369584560394e-02 -5.849437322467565536e-03 -3.456476703286170959e-02 -2.890798961743712425e-03 -7.216775417327880859e-02 2.132404036819934845e-02 -4.629267752170562744e-02 -9.848572080954909325e-04 -1.022478472441434860e-02 -7.255500531755387783e-04 -1.683433726429939270e-02 -2.858552150428295135e-02 -2.288731484441086650e-04 -1.008717995136976242e-02 1.860816148109734058e-03 3.289201483130455017e-02 -2.974533662199974060e-02 -9.998818859457969666e-03 9.682378731667995453e-03
1.835154742002487183e-02 9.093736298382282257e-04 -1.113575301133096218e-03 -5.537589266896247864e-02 -6.770019535906612873e-04 -9.485560469329357147e-03 -7.447744905948638916e-02 -5.116587271913886070e-04 1.043127384036779404e-03 1.119566801935434341e-02 -1.489663682878017426e-02 1.626634225249290466e-02 -4.549919627606868744e-03 1.944134011864662170e-02 -9.791244519874453545e-04 2.445692941546440125e-02 -3.184068202972412109e-02 2.007603272795677185e-02 -5.199946463108062744e-05 1.292794756591320038e-02 2.082751691341400146e-02 8.387108147144317627e-02 4.241442680358886719e-02 5.573956295847892761e-04 -2.980679459869861603e-02 1.360806345473974943e-04 8.925542235374450684e-03 6.945662898942828178e-04 -1.001100055873394012e-03 -3.436441719532012939e-02 1.182313263416290283e-02 -2.171561866998672485e-02 -4.743070749100297689e-04 -1.777381822466850281e-02 3.924322128295898438e-02 2.040051622316241264e-03 9.847097098827362061e-03 2.709830366075038910e-02 6.506884819827973843e-04 3.701919922605156898e-04 7.048764382489025593e-04 6.735876202583312988e-03 4.714591428637504578e-03 -2.392735145986080170e-02 -1.805469021201133728e-02 -1.312888576649129391e-03 4.665130376815795898e-02 1.838959939777851105e-02 -7.431081961840391159e-03 2.570296637713909149e-02 -2.598941512405872345e-02 4.976553469896316528e-02 -1.813394483178853989e-04 -1.544744614511728287e-02 1.247511245310306549e-03 1.854059170000255108e-03 -6.408893386833369732e-04 4.752173088490962982e-03 -7.965272292494773865e-03 -6.325420737266540527e-02 1.125229336321353912e-02 -4.573805630207061768e-02 8.307553362101316452e-04 2.646648790687322617e-04 -4.460978507995605469e-02 -9.931244421750307083e-04 -1.517696399241685867e-02 -1.112166140228509903e-02 8.444889681413769722e-04 2.750608325004577637e-02 9.726664051413536072e-03 5.682075279764831066e-04 6.683505605906248093e-03 1.135950908064842224e-03 -4.521433729678392410e-03 -5.442466936074197292e-04 7.907724007964134216e-03 8.262427523732185364e-03 -6.176971364766359329e-04 -8.507978171110153198e-03 2.110122889280319214e-02 -6.788144819438457489e-03 -4.174363240599632263e-02 -1.150145567953586578e-02 -2.312491560587659478e-04 3.377193212509155273e-02 -1.446508103981614113e-03 7.587830623378977180e-05 2.580269239842891693e-02 2.028862945735454559e-02 1.049937866628170013e-02 3.408550983294844627e-03 -8.047464652918279171e-04 -5.743055604398250580e-03 -4.199388495180755854e-04 -1.501068938523530960e-02 7.340014562942087650e-04 7.172314799390733242e-04 2.755311084911227226e-03 3.108851052820682526e-02 -3.806137014180421829e-03 -3.619893104769289494e-04 4.850094683206407353e-06 8.057464845478534698e-03 -6.107977405190467834e-02 5.576134100556373596e-02 8.055792190134525299e-03 -1.026193931465968490e-04 1.950779929757118225e-02 -1.878589950501918793e-02 -7.720877183601260185e-04 -6.231433362700045109e-04 -4.588424693793058395e-03 -6.436441838741302490e-02 -2.419872581958770752e-02 -1.048343908041715622e-02 -9.341424447484314442e-04 3.135455772280693054e-03 8.500844705849885941e-04 -2.430019713938236237e-02 -1.413466222584247589e-02 4.852592013776302338e-03 -2.819314226508140564e-02 1.508013252168893814e-02 1.234607584774494171e-02 1.533629465848207474e-02 -2.878399193286895752e-02 1.804826461011543870e-04 -7.750607095658779144e-03 3.639899939298629761e-02 1.881950907409191132e-02 1.509052381152287126e-04 -1.237560063600540161e-02 -1.294019399210810661e-03 -6.072013638913631439e-04 8.478773757815361023e-03 1.020086812786757946e-03 -1.212188974022865295e-02 8.169210515916347504e-03 -3.914073854684829712e-02 1.093135122209787369e-02 2.085703890770673752e-04 -8.890315075404942036e-05 -1.261418126523494720e-02 -9.874789975583553314e-03 4.131330922245979309e-02 1.257723476737737656e-02 -3.199308412149548531e-04 -1.185813639312982559e-02 5.459723621606826782e-02 1.126842573285102844e-02 4.712980240583419800e-03 1.260423846542835236e-02 7.930969004519283772e-04 3.221708908677101135e-02 -3.803805634379386902e-02 -3.488068468868732452e-04 5.000300589017570019e-04 -3.321741940453648567e-03 7.811948307789862156e-04 5.378809571266174316e-02 -4.846007749438285828e-02 -5.973056890070438385e-03 -1.095490297302603722e-03 -6.140210200101137161e-03 5.058490671217441559e-03 -3.186871996149420738e-03 4.758940637111663818e-02 3.450457938015460968e-03 -3.963267896324396133e-03 2.018635906279087067e-02 6.670650094747543335e-03 1.375257037580013275e-03 -1.663367496803402901e-03 1.630608312552794814e-04 -8.429551962763071060e-05 -1.174776931293308735e-03 1.052903360687196255e-03 -2.260643988847732544e-03 1.566376164555549622e-02 -4.327119886875152588e-02 -3.674394637346267700e-02 -7.849100045859813690e-03 1.639144495129585266e-03 -1.466324366629123688e-02 -4.696576390415430069e-03 -7.715488318353891373e-04 5.791987758129835129e-03 -6.463913712650537491e-03 1.068384014070034027e-02 2.170411311089992523e-02 -7.813207060098648071e-02 -1.603906229138374329e-02 6.897480785846710205e-02 -1.280313474126160145e-03 -1.204625423997640610e-02 -1.180540584027767181e-02 -3.429078496992588043e-04 -1.627111062407493591e-02 3.347691148519515991e-02 2.071803435683250427e-02 1.321354880928993225e-03 -7.082998007535934448e-02 -6.978579796850681305e-03 -5.561881116591393948e-04 1.972255297005176544e-02 6.457301229238510132e-02 1.059679663740098476e-03 -3.251490124966949224e-04 8.415349572896957397e-02 1.889850199222564697e-02 3.706050664186477661e-02 -3.523320332169532776e-02 1.804335415363311768e-02 8.656165446154773235e-04 -1.259775366634130478e-03 3.960416093468666077e-02 -6.687711179256439209e-02 5.781059153378009796e-03 1.493702083826065063e-02 -1.007857918739318848e-02 -4.400539025664329529e-02 -3.158391453325748444e-03 1.072560917236842215e-04 -3.523229062557220459e-02 -6.541331764310598373e-03 5.207439884543418884e-02 -1.594423432834446430e-03 -1.254515722393989563e-03 -2.764992043375968933e-02 1.230905391275882721e-02 -2.617957070469856262e-04 -6.870755925774574280e-03 1.359219895675778389e-04 2.117524127243086696e-04 -3.748309973161667585e-04 2.331489510834217072e-02 2.005910966545343399e-03 -5.100453644990921021e-02 -3.554927930235862732e-02 -2.830790821462869644e-03 -7.159351557493209839e-02 -4.929421469569206238e-03 5.889002606272697449e-02 4.880935698747634888e-02 9.025992825627326965e-03 -7.074880413711071014e-04 -5.682639032602310181e-02 -2.943993732333183289e-02 -6.241355440579354763e-04 5.974079482257366180e-03 5.541197955608367920e-03 3.464836627244949341e-02 -3.854791447520256042e-02 1.647177338600158691e-02 -2.435749163851141930e-03
2.067227847874164581e-03 1.187572022899985313e-03 6.911359960213303566e-04 5.149427335709333420e-03 -4.800302558578550816e-04 6.733652669936418533e-03 -1.232697907835245132e-02 3.742363478522747755e-04 -6.084839114919304848e-04 1.592690590769052505e-03 7.452940568327903748e-03 -3.981372341513633728e-03 -2.264850959181785583e-02 -1.442129490897059441e-03 2.809680299833416939e-04 -2.757957018911838531e-02 -3.876335453242063522e-03 -5.722669884562492371e-03 6.629941635765135288e-04 3.177347360178828239e-03 2.001069672405719757e-02 4.867122694849967957e-02 -2.885664999485015869e-02 -7.294554961845278740e-04 4.730033501982688904e-02 -2.744993835221976042e-04 -9.790536016225814819e-03 -1.446251873858273029e-03 -2.919540554285049438e-02 -8.560877293348312378e-02 6.774009764194488525e-02 2.420457080006599426e-02 -4.888562034466303885e-05 3.194167278707027435e-03 9.049185318872332573e-04 2.541934512555599213e-02 8.586886338889598846e-03 1.694255694746971130e-02 4.718967538792639971e-04 6.396089156623929739e-05 -8.110834751278162003e-04 -1.791183836758136749e-02 -4.762875288724899292e-02 1.902476511895656586e-02 8.219577372074127197e-02 -7.812066469341516495e-04 2.136650495231151581e-03 3.270749747753143311e-02 -2.950831316411495209e-02 -1.146371103823184967e-02 3.596482053399085999e-02 6.659142090938985348e-04 -4.291530640330165625e-04 1.606178469955921173e-02 7.537587732076644897e-02 -3.624720871448516846e-02 -2.920257684309035540e-04 8.670606650412082672e-03 -5.238619167357683182e-03 7.537294644862413406e-03 -7.913888432085514069e-03 1.332765072584152222e-02 2.259268512716516852e-04 3.305661084596067667e-04 -4.070189595222473145e-02 2.064581058220937848e-04 3.051946870982646942e-02 -1.211165264248847961e-01 -6.651025032624602318e-04 -2.445786073803901672e-02 2.080434001982212067e-03 -1.040440285578370094e-03 4.267296195030212402e-02 -1.270213397219777107e-04 4.885249957442283630e-02 -1.654422885621897876e-05 -1.119016949087381363e-02 -3.469487652182579041e-02 1.467985101044178009e-03 -2.911986224353313446e-02 -3.003936819732189178e-02 -1.948850788176059723e-02 -2.339931903406977654e-03 -2.535660564899444580e-02 5.493498174473643303e-04 6.588663160800933838e-02 6.098439916968345642e-02 -1.095812884159386158e-03 2.493280917406082153e-02 -9.194474667310714722e-03 2.427098900079727173e-02 -1.540491729974746704e-02 -9.471557132201269269e-05 -9.823110885918140411e-03 1.067705452442169189e-04 -1.658980548381805420e-02 -2.280049811815842986e-04 2.603052707854658365e-04 -6.908472627401351929e-03 4.835820570588111877e-02 2.377429511398077011e-03 -3.927118377760052681e-04 6.662045489065349102e-04 7.493549026548862457e-03 2.532678842544555664e-02 4.948370158672332764e-02 4.213961656205356121e-04 4.635433288058266044e-05 -1.038964837789535522e-02 1.125187426805496216e-02 -3.715894708875566721e-04 4.371456743683665991e-04 -3.104029223322868347e-02 -6.460263580083847046e-02 -2.951499074697494507e-02 -1.215249020606279373e-02 -1.818817667663097382e-02 -3.156132623553276062e-02 1.092081402020994574e-05 2.219017408788204193e-02 4.024547711014747620e-02 -1.054225955158472061e-03 3.853633627295494080e-02 -1.938477507792413235e-03 -2.256559580564498901e-02 1.029835175722837448e-02 -2.894290490075945854e-03 -5.601285374723374844e-04 3.008622303605079651e-02 1.793904975056648254e-02 1.456249784678220749e-02 5.737416795454919338e-04 7.201766129583120346e-03 3.586116945371031761e-04 1.694067323114722967e-04 2.708642370998859406e-02 -5.457428051158785820e-04 -9.111959487199783325e-03 -1.991582661867141724e-02 3.134211525321006775e-02 -3.999594191554933786e-04 8.470305474475026131e-04 -4.373426490928977728e-04 -9.069134481251239777e-03 4.048059135675430298e-02 -2.051257900893688202e-02 -2.471929416060447693e-03 2.632285468280315399e-04 -3.198127448558807373e-02 4.311131313443183899e-02 2.664907602593302727e-03 -4.495679587125778198e-02 2.763028256595134735e-02 -8.644737536087632179e-04 -1.850888505578041077e-02 2.230479381978511810e-02 -2.216485736425966024e-04 -1.165555207990109921e-03 -7.987467572093009949e-03 -5.856969510205090046e-04 -3.278241027146577835e-03 9.011982008814811707e-03 -1.012511458247900009e-02 -8.866529911756515503e-03 1.502934261225163937e-03 6.949293613433837891e-02 8.420576341450214386e-03 3.166253864765167236e-02 -6.601025350391864777e-03 4.665108863264322281e-03 -4.508736543357372284e-03 -2.918552141636610031e-03 -1.221309503307566047e-04 -2.399359270930290222e-02 -2.446568105369806290e-04 -7.522171363234519958e-04 1.599512994289398193e-03 6.218508933670818806e-04 1.864687656052410603e-03 -2.278718398883938789e-03 5.399487540125846863e-02 4.851331934332847595e-02 -2.653942443430423737e-02 2.613184333313256502e-04 -1.556496974080801010e-02 2.422939985990524292e-02 4.200533439870923758e-04 -3.907493315637111664e-03 -1.470178365707397461e-02 3.211433812975883484e-02 1.410484127700328827e-02 -1.537916436791419983e-02 1.467250473797321320e-02 -3.725669905543327332e-02 -3.863361477851867676e-02 1.809310750104486942e-03 -1.409806776791810989e-02 4.086933622602373362e-04 2.606219425797462463e-02 3.887984156608581543e-02 -3.720862558111548424e-03 -2.555726468563079834e-02 2.633648458868265152e-03 -9.335482609458267689e-04 -9.228687267750501633e-04 3.116378933191299438e-02 -4.704087972640991211e-02 1.665615127421915531e-04 -4.365628701634705067e-04 -6.684683263301849365e-02 -3.117750771343708038e-02 5.306481570005416870e-02 5.753863975405693054e-02 3.187918337062001228e-03 1.973709295270964503e-04 -1.137632760219275951e-03 4.975107498466968536e-03 1.685183611698448658e-03 -4.230276867747306824e-02 1.752415671944618225e-02 -3.305852413177490234e-02 -6.069071590900421143e-03 -1.388899050652980804e-02 -1.039139577187597752e-03 4.846098308917135000e-04 6.468204408884048462e-02 8.387962356209754944e-03 -3.004248999059200287e-02 8.147120475769042969e-03 9.823098778724670410e-03 6.796192377805709839e-03 -1.689288951456546783e-02 2.754283137619495392e-03 -7.867634849390015006e-05 -9.968723170459270477e-03 -3.041099116671830416e-04 -1.790946163237094879e-02 -2.477333322167396545e-02 -1.528024673461914062e-02 -6.496183574199676514e-03 -4.378425888717174530e-03 -3.592416271567344666e-02 -2.884160540997982025e-02 -1.006280444562435150e-02 -2.604001760482788086e-02 -1.103102136403322220e-02 -7.903678488219156861e-05 -2.700373902916908264e-02 -2.031599357724189758e-02 6.822788272984325886e-04 -9.743187110871076584e-04 -9.906694293022155762e-03 -2.410214766860008240e-02 -1.218437310308218002e-02 -7.281928788870573044e-03 -2.466286905109882355e-02
1.660319045186042786e-02 -3.622302028816193342e-04 -1.254199014510959387e-04 9.249724680557847023e-04 -3.342540294397622347e-04 -5.363970063626766205e-03 -2.546255849301815033e-02 8.939784020185470581e-04 9.718038927530869842e-05 9.206871502101421356e-03 1.150570716708898544e-02 1.108046853914856911e-03 1.041584461927413940e-02 7.434451952576637268e-03 -5.433551632449962199e-05 1.191497128456830978e-02 1.195427589118480682e-02 7.640711031854152679e-03 -6.374350050464272499e-05 1.399289071559906006e-02 1.407338120043277740e-02 9.612629190087318420e-03 6.746870931237936020e-03 1.023076940327882767e-03 -1.750321313738822937e-02 -4.282426089048385620e-04 -6.159934680908918381e-03 -8.333314326591789722e-04 1.711257616989314556e-03 -5.862629041075706482e-03 1.162570901215076447e-02 -1.748359762132167816e-02 8.761867647990584373e-04 3.558288887143135071e-02 -1.314107049256563187e-02 -5.073512904345989227e-03 1.194047369062900543e-02 2.269459888339042664e-03 -9.045261540450155735e-04 -5.084131262265145779e-04 9.833616204559803009e-04 -2.355828182771801949e-03 -7.845243439078330994e-03 3.567211795598268509e-03 1.681933179497718811e-02 -4.726464976556599140e-04 2.816586522385478020e-03 -1.054440438747406006e-02 3.587108850479125977e-02 8.091304451227188110e-03 -8.122221915982663631e-04 1.592485606670379639e-02 1.621091505512595177e-04 2.598132565617561340e-02 6.381578277796506882e-03 4.417943302541971207e-03 -7.550218142569065094e-04 -1.450699660927057266e-02 -1.694522425532341003e-02 1.362772472202777863e-02 7.536470424383878708e-03 3.535184776410460472e-03 8.756321039982140064e-04 8.534860680811107159e-04 -1.550696790218353271e-02 -3.275116905570030212e-04 1.440126076340675354e-02 1.780728995800018311e-02 1.126955728977918625e-03 -2.471156977117061615e-02 1.435687765479087830e-02 1.028278609737753868e-03 2.841111272573471069e-03 -3.808786859735846519e-04 1.069097500294446945e-02 5.289873224683105946e-04 2.520384080708026886e-02 -1.400993787683546543e-04 -7.084500393830239773e-04 -7.151120225898921490e-04 -6.925430614501237869e-03 -1.230407785624265671e-02 -1.476489752531051636e-02 -3.810257418081164360e-03 -2.061358885839581490e-03 1.012339349836111069e-02 -1.454936061054468155e-02 2.396275376668199897e-04 4.112877417355775833e-03 -2.720413263887166977e-03 -3.675821470096707344e-03 2.261687070131301880e-02 7.009159307926893234e-04 -3.076459094882011414e-02 -5.137345287948846817e-04 -5.804618820548057556e-03 -4.071697476319968700e-04 3.704301489051431417e-04 3.578642755746841431e-02 -3.546885773539543152e-02 2.071420289576053619e-02 -6.129522225819528103e-04 -6.197862239787355065e-05 -9.545079432427883148e-03 2.116003073751926422e-02 3.786241402849555016e-03 -4.728822037577629089e-03 5.035397480241954327e-04 -2.120064571499824524e-03 1.836780644953250885e-02 1.146654831245541573e-03 8.208579674828797579e-05 6.737269461154937744e-03 -4.778635688126087189e-03 2.047416288405656815e-03 1.445256453007459641e-02 -2.123093418776988983e-02 -8.136273361742496490e-03 1.966711715795099735e-04 -4.731859639286994934e-02 1.467580534517765045e-02 -2.226839400827884674e-02 -5.774269811809062958e-03 -4.409664776176214218e-03 -5.545611958950757980e-03 -1.129597704857587814e-02 -8.240066817961633205e-04 -7.305461331270635128e-04 -7.779118604958057404e-03 -1.671593450009822845e-02 5.263780709356069565e-03 1.428879331797361374e-04 -2.463131584227085114e-02 8.103505824692547321e-04 5.524494918063282967e-04 2.926699072122573853e-02 1.658180379308760166e-03 2.684645354747772217e-02 9.242212399840354919e-03 5.942686926573514938e-03 4.864752292633056641e-03 -1.382345885758695658e-06 6.592514691874384880e-04 2.160442247986793518e-02 6.797054409980773926e-02 6.156635005027055740e-03 3.490251954644918442e-03 5.240011378191411495e-04 3.381161717697978020e-03 -1.443765312433242798e-02 -2.247380279004573822e-02 6.093746982514858246e-03 1.381875481456518173e-02 -3.136089653708040714e-04 3.943749237805604935e-03 -1.899589039385318756e-02 -6.183910882100462914e-04 8.993573137558996677e-04 5.557359196245670319e-03 -4.578107618726789951e-04 -1.050687674432992935e-02 -2.336807781830430031e-03 -7.022117730230093002e-03 -1.492377836257219315e-02 8.228382212109863758e-04 -2.193964552134275436e-03 4.944826941937208176e-03 1.739717274904251099e-02 -6.806379649788141251e-03 1.723060198128223419e-02 1.417199056595563889e-02 -4.805216565728187561e-03 -2.116540854331105947e-04 3.537618368864059448e-02 -4.894200246781110764e-04 3.836305986624211073e-04 7.984658004716038704e-04 -1.776883982529398054e-05 1.402861066162586212e-02 -3.091611899435520172e-03 -9.348266758024692535e-03 -3.778793849050998688e-03 -5.393030005507171154e-05 -1.832237830967642367e-05 -1.068887207657098770e-02 9.432190097868442535e-03 -1.099684042856097221e-03 1.223558653146028519e-02 -2.699054311960935593e-03 -3.803905472159385681e-02 1.113030780106782913e-02 9.497043676674365997e-03 1.631295308470726013e-02 -5.089876707643270493e-03 -2.719017118215560913e-02 -1.578209176659584045e-02 3.834408475086092949e-03 -6.335314246825873852e-04 -3.508571907877922058e-02 -2.990858629345893860e-04 6.062054075300693512e-03 1.716021448373794556e-02 -2.193102845922112465e-03 -3.417551284655928612e-03 8.298057946376502514e-05 3.813148010522127151e-03 2.082016086205840111e-03 4.140239616390317678e-04 3.275653289165347815e-04 -4.047571681439876556e-03 3.528192406520247459e-03 -6.299612578004598618e-03 -1.315085031092166901e-02 1.170091424137353897e-02 -3.627849218901246786e-04 4.927726695314049721e-04 9.905183687806129456e-03 -1.639581657946109772e-02 -3.603530302643775940e-02 6.300233770161867142e-03 -5.910742282867431641e-02 -2.840438624843955040e-03 5.369030870497226715e-03 -8.212765096686780453e-04 3.407241310924291611e-03 2.572224661707878113e-02 -8.888474665582180023e-03 -6.449561566114425659e-03 1.279426459223031998e-02 1.059907022863626480e-02 1.692979596555233002e-02 -5.501794163137674332e-03 4.050341993570327759e-02 -4.296045517548918724e-04 1.149066956713795662e-03 4.482723015826195478e-04 2.492907643318176270e-02 1.664929091930389404e-02 -6.177673116326332092e-02 5.744313355535268784e-03 1.443718560039997101e-02 -6.324440706521272659e-03 -1.299215713515877724e-03 -3.687776857987046242e-03 -1.901455968618392944e-02 -2.688152948394417763e-03 6.015264079906046391e-04 3.202245011925697327e-02 -7.852960377931594849e-03 -6.714994669891893864e-04 3.319358453154563904e-02 -2.333858609199523926e-02 -7.757964078336954117e-03 1.471809856593608856e-02 -1.179940905421972275e-02 2.169732190668582916e-02
-6.321813445538282394e-03 -2.838969521690160036e-04 -8.380927029065787792e-04 3.656950080767273903e-03 3.623760712798684835e-04 -1.449760794639587402e-02 9.213478304445743561e-03 -1.633250067243352532e-04 -3.330656909383833408e-04 -1.091114524751901627e-02 1.037520705722272396e-03 -8.764144964516162872e-03 6.713961809873580933e-02 -1.421870104968547821e-02 -9.375751251354813576e-04 2.745648287236690521e-02 3.688626363873481750e-02 -9.982917457818984985e-03 1.155079808086156845e-03 4.318844992667436600e-03 -4.796620085835456848e-02 -3.676453488878905773e-04 1.578675396740436554e-02 -2.122220903402194381e-04 -1.691702753305435181e-02 -2.260300389025360346e-04 -1.092172577045857906e-03 3.452612145338207483e-04 -3.736944496631622314e-02 2.174811251461505890e-02 -4.638269916176795959e-02 -1.762041449546813965e-02 -3.539453900884836912e-04 -3.441593050956726074e-02 -3.257497400045394897e-02 5.228722002357244492e-04 9.488671086728572845e-03 -2.844880521297454834e-02 3.087669610977172852e-04 5.245399079285562038e-04 2.840337401721626520e-04 9.137185406871140003e-04 -1.013550255447626114e-02 1.256631570868194103e-03 -1.833978854119777679e-02 4.160400712862610817e-04 3.129632771015167236e-02 -1.157297194004058838e-02 -3.879582509398460388e-02 -4.895383864641189575e-02 -7.734274026006460190e-03 -4.457674920558929443e-03 2.802893286570906639e-04 9.537204750813543797e-04 2.950073219835758209e-02 6.958011537790298462e-03 -8.173934184014797211e-04 -3.114179242402315140e-03 4.359383136034011841e-03 -1.564999483525753021e-02 -5.081539973616600037e-03 1.468107849359512329e-02 -1.801382895791903138e-04 1.139674219302833080e-03 -1.835767365992069244e-02 2.982790756504982710e-04 -6.455852091312408447e-02 2.449456043541431427e-02 -6.757400115020573139e-05 -9.888072498142719269e-03 1.492818701080977917e-03 -8.804711396805942059e-04 -8.130589500069618225e-03 -6.094751879572868347e-04 1.934967562556266785e-02 -8.901878027245402336e-04 3.070606850087642670e-02 -2.920025959610939026e-02 6.485677295131608844e-05 2.125312946736812592e-02 6.809762679040431976e-03 -1.912654191255569458e-02 2.300380729138851166e-02 1.789011061191558838e-02 -1.043906668201088905e-03 1.409300137311220169e-02 -4.185623303055763245e-02 -6.624154630117118359e-04 1.046757400035858154e-02 -1.034317258745431900e-02 1.363688427954912186e-02 -3.734645247459411621e-02 3.360898699611425400e-04 1.683361083269119263e-02 1.945984986377879977e-04 -4.072102159261703491e-02 -3.636832116171717644e-04 -6.182648940011858940e-04 -5.784526094794273376e-02 4.369856789708137512e-02 1.653922721743583679e-02 -1.046538454829715192e-04 -5.138023989275097847e-04 3.686368698254227638e-03 -6.995324976742267609e-03 -6.992350332438945770e-03 2.552402950823307037e-02 -2.882991975639015436e-04 -2.903545682784169912e-04 -8.516962639987468719e-03 -3.292015753686428070e-04 -7.289096829481422901e-04 -3.285152465105056763e-02 -5.333996377885341644e-03 -2.168672904372215271e-02 -2.876218967139720917e-02 -4.334240406751632690e-02 -2.263061143457889557e-02 5.892173503525555134e-04 -8.450578898191452026e-03 9.412499144673347473e-03 7.994801737368106842e-03 -2.009940706193447113e-02 -4.291237331926822662e-03 -3.102222830057144165e-02 -2.570506371557712555e-02 2.197880484163761139e-02 -2.431897155474871397e-04 -8.903287351131439209e-03 -4.776168987154960632e-02 -4.701394960284233093e-02 2.043656859314069152e-04 4.851770121604204178e-03 6.107382796471938491e-05 -3.442391171120107174e-04 2.931875642389059067e-03 -3.022265154868364334e-04 -4.519722983241081238e-02 2.244485775008797646e-03 3.046276979148387909e-03 -3.019934054464101791e-03 -7.872699061408638954e-04 -5.756586688221432269e-06 -2.250051498413085938e-02 -3.015254437923431396e-02 1.034587342292070389e-02 -1.732598175294697285e-03 -2.206827484769746661e-04 7.656205445528030396e-02 5.540345795452594757e-03 -3.972288221120834351e-02 3.495907410979270935e-02 -2.553599886596202850e-02 -3.396368992980569601e-04 2.096907608211040497e-02 -8.782900869846343994e-03 5.247023073025047779e-04 2.296505590493325144e-05 5.307321902364492416e-03 8.923821151256561279e-04 -1.046070456504821777e-02 -4.004093352705240250e-03 5.348554113879799843e-04 -1.104380283504724503e-02 -9.842440485954284668e-03 1.351287961006164551e-02 2.480280958116054535e-02 -6.429607514292001724e-03 7.178869564086198807e-03 -4.188153520226478577e-02 2.225198037922382355e-02 -3.373038396239280701e-02 -2.958780096378177404e-04 -1.447030995041131973e-02 1.587580627528950572e-04 1.938156929099932313e-04 2.141914228559471667e-05 1.131402386818081141e-04 -2.447890862822532654e-02 -4.884556867182254791e-03 5.358837917447090149e-02 1.383425784297287464e-03 -2.262008748948574066e-02 -1.124459595303051174e-04 1.845653355121612549e-02 -4.194952175021171570e-02 -3.457264974713325500e-04 5.275270715355873108e-02 -3.768957033753395081e-02 8.464943617582321167e-03 -1.246253214776515961e-02 2.141394466161727905e-02 5.015431903302669525e-03 3.857339266687631607e-03 -2.206720411777496338e-02 -2.598388120532035828e-02 3.673560544848442078e-02 7.436501909978687763e-04 4.171093925833702087e-02 1.234202645719051361e-02 1.799742877483367920e-02 -3.359690308570861816e-02 1.555437874048948288e-02 1.261995732784271240e-02 6.793793872930109501e-04 6.059962883591651917e-02 4.718334227800369263e-02 -2.636686258483678102e-04 3.497154393699020147e-04 5.943317897617816925e-03 2.903521433472633362e-02 -1.230360381305217743e-02 -9.724481962621212006e-03 -7.425720989704132080e-02 -2.946468011941760778e-04 1.123840338550508022e-03 1.176076848059892654e-02 3.612592816352844238e-02 -4.855057597160339355e-02 -2.052742615342140198e-02 -1.348595041781663895e-02 1.885049976408481598e-02 -5.696785822510719299e-02 -2.327635447727516294e-04 -4.959871992468833923e-03 -2.111207693815231323e-02 3.246735781431198120e-02 -2.656393311917781830e-02 -6.912413984537124634e-03 -1.205629389733076096e-02 -3.351529128849506378e-03 -3.415915369987487793e-02 -4.629137401934713125e-04 1.666094176471233368e-04 1.890126988291740417e-02 3.910755331162363291e-04 1.124200969934463501e-02 -3.377397730946540833e-02 -5.826448556035757065e-03 -3.414610773324966431e-02 -9.271771647036075592e-03 2.188521437346935272e-02 -3.814278542995452881e-02 -2.734684571623802185e-02 -3.928956110030412674e-03 1.009198185056447983e-02 -3.905077755916863680e-04 2.200214192271232605e-02 1.628820411860942841e-02 -8.721004705876111984e-04 -4.762357473373413086e-02 2.703573741018772125e-02 1.763926818966865540e-02 -1.013907976448535919e-02 -6.691335141658782959e-02 -2.940058149397373199e-02
8.975172415375709534e-03 3.651186416391283274e-04 3.599222691264003515e-04 -4.368327185511589050e-02 5.611892629531212151e-05 -1.237841439433395863e-03 5.071609746664762497e-03 -6.538199959322810173e-04 -4.156950453761965036e-04 9.027074091136455536e-03 -2.831761492416262627e-03 -1.246172701939940453e-03 4.441289603710174561e-02 -3.046919882763177156e-04 2.930923656094819307e-04 -1.371410768479108810e-02 1.579739525914192200e-02 4.888617992401123047e-02 5.359879578463733196e-04 6.624599918723106384e-03 4.546196199953556061e-03 -2.672816393896937370e-03 -4.491311032325029373e-03 -2.916944795288145542e-04 -1.131660770624876022e-02 5.919006653130054474e-04 1.462321728467941284e-02 9.908036190608981997e-06 2.631336450576782227e-02 6.474842317402362823e-03 8.648253045976161957e-03 -7.872073911130428314e-03 7.603165577165782452e-04 7.472478318959474564e-04 -1.402000151574611664e-02 3.435125807300209999e-03 -1.504885032773017883e-02 -8.067999035120010376e-03 5.887362640351057053e-04 3.730088646989315748e-04 6.898993160575628281e-04 6.164340302348136902e-03 5.735436920076608658e-03 2.219673944637179375e-03 -2.515248209238052368e-02 -2.625210436235647649e-05 -5.040237307548522949e-02 -7.041172683238983154e-02 1.151757221668958664e-02 2.989074401557445526e-02 -6.716414541006088257e-02 -6.256875395774841309e-02 -7.483506924472749233e-04 -2.384903095662593842e-02 1.129357982426881790e-02 9.898128919303417206e-03 -5.235304124653339386e-04 -3.987246006727218628e-02 -1.539311651140451431e-02 -6.015229504555463791e-03 -1.318912580609321594e-02 1.979731954634189606e-02 -6.205326644703745842e-05 3.662990056909620762e-04 -6.673958618193864822e-03 -5.978043918730691075e-05 9.266043081879615784e-03 6.871736049652099609e-02 2.444494748488068581e-04 -8.743764832615852356e-03 8.476795628666877747e-03 5.106853786855936050e-04 -2.999649615958333015e-03 -6.063647451810538769e-04 -4.048212245106697083e-02 4.677211836678907275e-05 -6.042238790541887283e-03 -8.944855071604251862e-03 1.889257691800594330e-03 -1.231940276920795441e-02 -1.882645674049854279e-02 7.962997071444988251e-03 2.136968076229095459e-02 -2.865505963563919067e-02 1.211046474054455757e-03 2.034307271242141724e-02 3.423051163554191589e-02 2.803181268973276019e-05 -1.564617641270160675e-02 3.317818744108080864e-03 2.604792080819606781e-02 -9.687231853604316711e-03 -8.712070848559960723e-05 -1.539057772606611252e-02 -5.888022715225815773e-04 1.093964371830224991e-02 2.672717964742332697e-04 3.660910879261791706e-04 1.218862552195787430e-02 4.178109765052795410e-02 -3.553723171353340149e-02 1.718414714559912682e-04 -3.721132525242865086e-04 -3.144135326147079468e-02 2.824672125279903412e-02 1.998333027586340904e-03 3.105961345136165619e-02 4.004172224085777998e-04 9.891036897897720337e-03 -1.653104834258556366e-02 5.555160460062325001e-04 1.014843815937638283e-03 3.941382747143507004e-03 -2.742889104411005974e-03 1.357484608888626099e-02 2.366218250244855881e-03 2.454459667205810547e-02 4.759021569043397903e-03 6.559198955073952675e-04 -7.150269579142332077e-03 -1.168867014348506927e-02 2.569752000272274017e-02 -5.939443130046129227e-03 1.644451869651675224e-03 6.437092088162899017e-03 3.171694232150912285e-03 -2.903817966580390930e-02 -4.177129303570836782e-04 1.500217895954847336e-02 -1.778101781383156776e-03 -4.427842050790786743e-02 -3.587848186725750566e-05 -1.895663328468799591e-02 -1.109071890823543072e-03 5.312319262884557247e-04 2.825834974646568298e-02 -8.146173204295337200e-04 3.430158132687211037e-03 -1.527743786573410034e-02 -4.234705585986375809e-03 1.364105497486889362e-03 -4.176436632405966520e-04 -7.226160505524603650e-06 1.867194287478923798e-02 2.113028801977634430e-02 -2.773537300527095795e-02 1.198634132742881775e-02 -3.351649502292275429e-04 -2.299197018146514893e-02 -1.501384377479553223e-02 -7.463585119694471359e-03 3.458037972450256348e-02 -4.171430133283138275e-03 -3.640075738076120615e-04 5.598611664026975632e-03 -1.886856183409690857e-02 6.002053851261734962e-04 -2.301217173226177692e-04 3.042815066874027252e-02 2.775150351226329803e-04 -2.999393083155155182e-02 -1.896801404654979706e-02 -7.650554645806550980e-03 -8.133369497954845428e-03 8.790818974375724792e-03 1.844656281173229218e-02 -4.067260026931762695e-02 -4.010843113064765930e-02 3.226381540298461914e-02 -1.497799437493085861e-02 9.225566871464252472e-03 2.537086606025695801e-02 -1.885122619569301605e-04 -6.073494907468557358e-03 -2.093352231895551085e-04 4.003832000307738781e-04 -2.004377776756882668e-03 2.931387280113995075e-04 2.897896058857440948e-02 1.360345818102359772e-02 3.422221168875694275e-02 -2.346780523657798767e-02 1.197854429483413696e-02 -4.134090704610571265e-05 -2.241398394107818604e-02 -8.371273055672645569e-03 -4.585988644976168871e-04 2.553881146013736725e-02 -7.500811014324426651e-03 7.693877443671226501e-03 6.444632075726985931e-03 -5.628876970149576664e-04 3.426449256949126720e-04 1.738860644400119781e-02 -2.561419270932674408e-02 1.455231849104166031e-02 -3.856003656983375549e-02 1.325390039710327983e-04 -2.617114037275314331e-02 -2.032160758972167969e-02 -3.245232254266738892e-02 -6.398981902748346329e-03 2.782870642840862274e-02 -3.938637301325798035e-02 4.443692450877279043e-04 1.362418942153453827e-02 3.847960848361253738e-03 3.680013178382068872e-04 -4.928589332848787308e-04 -1.273476984351873398e-02 -3.313827887177467346e-02 -1.366188935935497284e-02 -1.050112489610910416e-02 9.066193364560604095e-03 1.289209321839734912e-04 -8.308731594297569245e-06 -2.888243645429611206e-02 -8.702601306140422821e-03 3.171500936150550842e-02 7.820772007107734680e-03 -2.629980444908142090e-02 -3.376246243715286255e-02 5.748161114752292633e-03 -6.002292593620950356e-06 -8.179707452654838562e-03 -8.950198069214820862e-03 -6.308090686798095703e-02 1.195589918643236160e-02 -6.983469938859343529e-04 7.380316033959388733e-03 2.024797163903713226e-02 3.043316863477230072e-02 -4.570353403687477112e-02 -1.246601110324263573e-03 8.124834275804460049e-04 1.515445319455466233e-06 2.486058138310909271e-02 2.016962738707661629e-03 1.500072330236434937e-02 -2.162229642271995544e-02 2.403090009465813637e-03 -2.565378323197364807e-02 1.211183797568082809e-02 -5.577503144741058350e-02 -3.266128152608871460e-02 1.719810441136360168e-02 -3.213195886928588152e-04 -1.696500740945339203e-02 -3.550316393375396729e-02 1.131609082221984863e-03 -3.779664402827620506e-03 8.377090096473693848e-02 -1.049983222037553787e-02 -8.231522224377840757e-05 -3.199193999171257019e-02 -9.421351365745067596e-03
2.241702564060688019e-02 -9.444236638955771923e-06 5.635085981339216232e-04 -3.548728302121162415e-02 3.877124108839780092e-04 7.940387353301048279e-03 8.889695629477500916e-03 9.528133668936789036e-04 -7.956848712638020515e-04 -2.586187981069087982e-02 -1.989890635013580322e-02 -1.698694378137588501e-02 2.156872488558292389e-02 -1.658756099641323090e-02 -1.056984532624483109e-03 2.420158823952078819e-03 -2.746789902448654175e-02 -5.057664588093757629e-03 4.307715280447155237e-04 8.568516001105308533e-03 -3.728645155206322670e-03 -2.742612175643444061e-02 2.927232906222343445e-02 -6.841428112238645554e-04 1.032342482358217239e-02 -5.513110081665217876e-04 -2.819059230387210846e-02 1.132321660406887531e-03 -1.080511044710874557e-02 3.281870111823081970e-02 -3.031287342309951782e-03 4.916322603821754456e-02 -7.365868077613413334e-04 8.854639716446399689e-03 4.238782823085784912e-02 9.881339035928249359e-03 7.083539385348558426e-03 -2.386631444096565247e-03 2.008404262596741319e-04 9.276592754758894444e-04 -2.524871379137039185e-04 -2.062114328145980835e-02 3.673744574189186096e-02 -4.326615855097770691e-02 -1.804555207490921021e-02 -3.863294259645044804e-04 -9.422931820154190063e-03 1.018677838146686554e-02 -9.011393412947654724e-03 2.069820649921894073e-03 -3.384851291775703430e-02 2.332369424402713776e-02 4.453053115867078304e-04 6.434870883822441101e-03 3.786697983741760254e-02 -2.856244891881942749e-02 -1.377330976538360119e-03 2.840264141559600830e-02 -2.349108457565307617e-02 2.187460847198963165e-02 -1.682452857494354248e-02 -5.937517806887626648e-02 3.695366322062909603e-04 3.887687853421084583e-05 1.768831163644790649e-02 -4.700047429651021957e-05 -3.513193503022193909e-02 2.993424050509929657e-02 -9.761343972058966756e-05 7.060867268592119217e-03 -2.965632639825344086e-02 -3.130600962322205305e-04 6.006715819239616394e-02 1.114340266212821007e-03 -7.086558640003204346e-02 -5.070776096545159817e-04 1.930061914026737213e-02 -4.690500441938638687e-03 9.247298003174364567e-04 7.960392162203788757e-03 -1.972974278032779694e-02 -4.717660695314407349e-02 -1.574879325926303864e-02 -4.235040768980979919e-02 -9.066970087587833405e-04 5.086675286293029785e-02 -2.567732473835349083e-03 -7.701324066147208214e-04 -3.371751168742775917e-03 -2.175571396946907043e-02 -6.626219255849719048e-04 -3.432560246437788010e-03 8.478942327201366425e-04 1.391838584095239639e-02 -1.426232192898169160e-04 1.118765491992235184e-02 3.629583079600706697e-05 -3.262194804847240448e-04 4.402237012982368469e-03 -1.156441401690244675e-02 2.374089788645505905e-03 7.177275838330388069e-04 -7.562206883449107409e-05 4.398693796247243881e-03 5.882386118173599243e-02 3.208769857883453369e-02 -3.015939518809318542e-02 -1.508144778199493885e-04 -3.207090869545936584e-02 3.107674187049269676e-03 9.929297957569360733e-04 1.010558917187154293e-04 -7.109826896339654922e-03 2.502359077334403992e-02 -1.121330820024013519e-02 -2.373406663537025452e-02 -4.748718347400426865e-03 -1.497903279960155487e-02 7.035038433969020844e-04 1.839060895144939423e-02 1.817517727613449097e-02 1.293132267892360687e-02 -3.391724079847335815e-02 -2.678841538727283478e-02 -3.790194401517510414e-03 2.890699170529842377e-02 -1.882360130548477173e-02 4.953338066115975380e-04 4.588023293763399124e-03 1.205330435186624527e-02 -5.001303926110267639e-02 -9.238752536475658417e-04 -2.264933288097381592e-02 5.682731862179934978e-04 -4.006986273452639580e-04 1.164853423833847046e-01 -2.700347977224737406e-04 -2.918309532105922699e-03 -1.129239983856678009e-02 -4.254538565874099731e-02 -8.220707066357135773e-03 9.799452964216470718e-04 -6.412219954654574394e-04 -2.003788203001022339e-02 3.398120170459151268e-03 1.813420280814170837e-02 -2.212676219642162323e-02 9.667661506682634354e-04 -6.568074226379394531e-02 3.818633034825325012e-02 5.131605267524719238e-02 2.150350809097290039e-02 -6.397756282240152359e-03 -7.628549938090145588e-04 7.298508659005165100e-03 2.366475202143192291e-02 -6.272075552260503173e-05 1.602464588358998299e-03 -3.307172656059265137e-02 -1.536302384920418262e-03 2.936655888333916664e-03 -2.839266136288642883e-02 -1.166033744812011719e-02 2.849094453267753124e-04 -1.119051780551671982e-02 -2.126812934875488281e-03 -4.813470877707004547e-04 -2.740788459777832031e-02 8.608245290815830231e-03 -1.551687810570001602e-02 2.619789727032184601e-02 8.177768439054489136e-03 -2.166421836591325700e-05 -1.909186691045761108e-02 -5.066141602583229542e-04 -2.016245562117546797e-04 -4.560714587569236755e-04 8.927625458454713225e-05 -1.151506509631872177e-02 -2.547963336110115051e-02 1.002009119838476181e-02 -1.034600287675857544e-02 -1.347237825393676758e-02 -8.488711901009082794e-04 -1.949587650597095490e-02 -7.442141883075237274e-03 9.597373718861490488e-05 1.171655394136905670e-02 4.093040898442268372e-02 -3.205653280019760132e-02 -3.674666583538055420e-02 1.069474779069423676e-02 -1.444989442825317383e-02 4.381870105862617493e-02 -3.557144431397318840e-03 5.130589753389358521e-02 -2.472882531583309174e-02 1.360238966299220920e-04 4.050178080797195435e-02 -1.097975298762321472e-03 -4.440852999687194824e-02 -2.244295552372932434e-03 5.132710561156272888e-03 -8.932712953537702560e-04 -9.807353490032255650e-05 -1.114923361456021667e-04 3.208521381020545959e-02 5.076061352156102657e-04 -3.290810564067214727e-04 5.084889382123947144e-02 -1.883005909621715546e-02 -1.044351421296596527e-02 -2.965016523376107216e-03 5.301625281572341919e-02 -2.499444235581904650e-04 -1.007489860057830811e-03 2.848704345524311066e-02 -1.923890039324760437e-02 2.717472985386848450e-02 -4.104720056056976318e-02 9.093094617128372192e-03 -1.919167488813400269e-02 -1.477950811386108398e-02 -1.910885912366211414e-04 -7.953974418342113495e-03 -5.233334377408027649e-03 -2.752680517733097076e-02 -8.160885423421859741e-03 7.380562834441661835e-03 -2.417849609628319740e-03 -9.857589378952980042e-03 -1.101549994200468063e-02 -4.992897622287273407e-03 1.235734671354293823e-04 -3.377280011773109436e-02 3.837650583591312170e-04 -4.105466417968273163e-03 -5.812845192849636078e-03 9.615279734134674072e-03 7.098289206624031067e-04 3.819552250206470490e-03 -1.064605638384819031e-02 -2.028995566070079803e-02 4.468865320086479187e-02 1.596122607588768005e-02 -2.508927881717681885e-02 -2.321480860700830817e-04 1.656354754231870174e-03 -5.160170421004295349e-02 -3.533002163749188185e-04 3.865327453240752220e-03 2.673108316957950592e-02 -7.652364671230316162e-02 2.036817558109760284e-02 2.151918970048427582e-02 -1.530143152922391891e-02
2.039312093984335661e-04 6.869783974252641201e-04 -2.760469506029039621e-04 -3.476261347532272339e-02 -4.685815365519374609e-04 -3.704447671771049500e-02 -1.214104425162076950e-02 -1.026408514007925987e-03 3.166160895489156246e-04 1.963045448064804077e-03 4.660619422793388367e-03 -4.547558724880218506e-03 4.118577018380165100e-02 -2.252340316772460938e-02 -4.254571467754431069e-05 2.422286570072174072e-02 4.284494370222091675e-02 -4.029904957860708237e-03 -2.898321836255490780e-04 6.495481939055025578e-04 5.220112204551696777e-02 -2.921797707676887512e-02 3.879945725202560425e-02 -1.426738308509811759e-04 1.422149594873189926e-02 -3.694559272844344378e-04 5.907448939979076385e-03 1.105285118683241308e-04 1.692586205899715424e-02 -4.120505414903163910e-03 -1.357413083314895630e-02 2.396989846602082253e-03 8.258842281065881252e-04 1.055589411407709122e-03 -2.963153645396232605e-02 1.066543720662593842e-02 1.270325295627117157e-02 4.717385396361351013e-02 -2.152847300749272108e-04 -1.093920436687767506e-03 7.837990997359156609e-04 -3.893569111824035645e-03 9.812686592340469360e-03 -6.918412167578935623e-03 -3.674744442105293274e-02 2.688003223738633096e-05 1.483047194778919220e-02 -2.111535519361495972e-02 -6.766419857740402222e-03 3.292880579829216003e-02 -1.371059473603963852e-02 -5.037444084882736206e-02 1.990687160287052393e-04 2.511409297585487366e-02 -5.450264550745487213e-03 1.302773971110582352e-02 -1.971078454516828060e-04 -6.255192216485738754e-03 -5.478755757212638855e-02 -5.823851376771926880e-02 -1.204772997880354524e-04 -5.728099867701530457e-02 6.928679649718105793e-04 -3.330552135594189167e-04 1.263014376163482666e-01 -4.697467084042727947e-04 -1.904088445007801056e-02 -1.176669728010892868e-02 4.505184188019484282e-04 -2.237164229154586792e-02 -9.777933591976761818e-04 -5.556772230193018913e-04 -8.558961562812328339e-03 -4.303933819755911827e-04 1.560073066502809525e-02 5.342227523215115070e-04 2.650645328685641289e-03 3.862289246171712875e-03 9.275174816139042377e-04 -5.481273401528596878e-03 2.425662986934185028e-02 -2.759773284196853638e-02 1.452959235757589340e-02 -4.000872746109962463e-02 -1.739465806167572737e-04 -1.770166493952274323e-02 -5.839424673467874527e-03 -7.866907253628596663e-05 -1.992094144225120544e-02 -3.288361709564924240e-03 -7.302743848413228989e-03 6.837103981524705887e-03 2.545430324971675873e-04 4.444940481334924698e-03 4.247963661327958107e-04 -5.120148509740829468e-02 6.191457505337893963e-04 5.027297083870507777e-05 -4.892996978014707565e-03 4.073730483651161194e-02 7.848861627280712128e-03 -2.650220703799277544e-04 -6.531042163260281086e-04 1.565472036600112915e-02 1.828853599727153778e-02 -3.149743750691413879e-02 1.051636599004268646e-02 1.033142791129648685e-03 -1.021117158234119415e-02 1.853655651211738586e-02 4.206035227980464697e-04 -4.029724732390604913e-05 8.862796239554882050e-03 2.024581655859947205e-02 -2.570877969264984131e-02 1.738415472209453583e-02 4.999422933906316757e-03 1.942181959748268127e-02 1.120200962759554386e-03 3.431807458400726318e-02 8.673114702105522156e-03 1.180965453386306763e-02 -3.220169618725776672e-02 5.568302236497402191e-03 1.617117784917354584e-03 3.712244704365730286e-02 -2.258039312437176704e-03 4.482850199565291405e-04 -2.592505188658833504e-03 3.092007013037800789e-03 -4.220874980092048645e-02 9.076576097868382931e-04 -4.957303032279014587e-02 4.136776260565966368e-04 -8.460337994620203972e-04 7.967702113091945648e-03 3.898742725141346455e-04 -1.811878941953182220e-02 8.114892058074474335e-03 -2.181895077228546143e-02 -5.970039870589971542e-03 2.821136440616101027e-04 -1.431053242413327098e-04 5.994877312332391739e-03 -3.159669868182390928e-04 3.390226513147354126e-02 1.062876265496015549e-02 4.562851390801370144e-04 2.669405564665794373e-02 -1.905723358504474163e-03 1.409429498016834259e-02 -2.049861010164022446e-03 5.157048627734184265e-02 -5.118982517160475254e-05 2.476503327488899231e-02 2.874938771128654480e-02 -1.155446661869063973e-04 2.439688396407291293e-04 -1.611756160855293274e-03 -8.640403975732624531e-04 -3.701508417725563049e-02 -3.888327628374099731e-02 -2.087079919874668121e-03 5.195945035666227341e-03 1.179441902786493301e-02 4.612349439412355423e-03 8.642945438623428345e-03 3.187767229974269867e-03 -5.887482315301895142e-03 -4.695416428148746490e-03 2.134347520768642426e-02 8.383617550134658813e-02 -1.014020061120390892e-03 -9.035247378051280975e-03 6.812624633312225342e-04 6.724066915921866894e-04 -4.536760752671398222e-05 4.092863819096237421e-04 -1.914214715361595154e-02 9.565723012201488018e-04 4.473023582249879837e-03 6.033650133758783340e-03 3.034533746540546417e-02 -9.531432879157364368e-04 -3.444359824061393738e-02 3.562030568718910217e-02 6.993437418714165688e-04 9.752158075571060181e-03 -1.522092334926128387e-02 -4.856958612799644470e-02 -6.266215443611145020e-02 3.348315507173538208e-02 1.061328593641519547e-02 9.906057268381118774e-03 1.440972276031970978e-02 -8.935183286666870117e-03 -1.417321246117353439e-02 2.867896400857716799e-04 -2.253841049969196320e-02 1.852976158261299133e-02 -5.391384661197662354e-02 4.784648190252482891e-04 2.477357164025306702e-02 1.475437451153993607e-02 1.357489032670855522e-03 1.073286496102809906e-02 1.187956053763628006e-02 -4.903200315311551094e-04 1.405343413352966309e-03 -3.384258225560188293e-02 2.146888058632612228e-03 2.806646004319190979e-02 1.176306977868080139e-02 9.873902052640914917e-02 -3.025949699804186821e-04 1.057314453646540642e-03 6.656846962869167328e-03 -3.584991022944450378e-02 1.716611906886100769e-02 -4.350928962230682373e-02 -7.088771555572748184e-03 -1.553283538669347763e-02 4.414700902998447418e-03 3.658204805105924606e-04 -5.903952196240425110e-02 3.398242220282554626e-02 5.141911096870899200e-03 1.814672350883483887e-02 -1.203550607897341251e-03 -6.416446715593338013e-02 1.986798088182695210e-05 3.273801878094673157e-03 2.347876317799091339e-02 -1.536970259621739388e-03 1.519322395324707031e-02 -5.326931204763241112e-05 -4.215120861772447824e-04 -1.342962402850389481e-02 6.780507415533065796e-02 -2.918972074985504150e-02 -1.023232704028487206e-03 -3.281556069850921631e-02 1.519131846725940704e-02 2.352993935346603394e-03 -4.195268824696540833e-02 2.017419226467609406e-02 -5.218550795689225197e-04 4.261420574039220810e-03 3.985290601849555969e-02 -7.017155876383185387e-04 -1.273051835596561432e-02 2.533218078315258026e-02 -8.305084705352783203e-02 4.727111384272575378e-02 -6.850458681583404541e-03 -8.345605805516242981e-03
2.896505221724510193e-02 -8.307844400405883789e-04 -1.418174011632800102e-03 2.342055179178714752e-02 3.940856549888849258e-04 1.226717606186866760e-02 4.312920384109020233e-03 -4.775814304593950510e-04 -3.646834520623087883e-04 6.693926174193620682e-03 3.394334763288497925e-02 1.103942096233367920e-02 1.507489383220672607e-02 8.794956840574741364e-03 -4.653472860809415579e-04 -3.537916392087936401e-02 -3.377161547541618347e-02 -2.086992561817169189e-02 -1.427569486622815020e-06 4.433789290487766266e-03 2.251115813851356506e-02 3.291791677474975586e-02 -3.312552347779273987e-02 -5.422671092674136162e-04 -5.234359204769134521e-02 -4.821124312002211809e-04 1.600015163421630859e-02 -1.071158039849251509e-04 -4.679264035075902939e-03 -5.558649078011512756e-03 -3.452598676085472107e-02 1.975953951478004456e-02 4.187568556517362595e-04 -1.909128017723560333e-02 2.629127539694309235e-02 4.482430592179298401e-02 2.746292389929294586e-02 2.026807144284248352e-02 7.380031165666878223e-04 -6.910183001309633255e-04 6.120790203567594290e-05 9.639103896915912628e-03 -6.914291530847549438e-02 3.252478688955307007e-02 2.278338186442852020e-02 -1.063660951331257820e-03 -3.667275607585906982e-02 1.913665048778057098e-02 -9.524310939013957977e-03 -3.639164380729198456e-03 7.732340600341558456e-03 1.621881313621997833e-02 4.433118738234043121e-04 2.098000794649124146e-02 -1.543708029203116894e-03 2.433433011174201965e-02 4.120357625652104616e-04 3.742795437574386597e-02 1.597815006971359253e-02 3.371151909232139587e-02 1.948560588061809540e-02 -1.910814829170703888e-02 8.270101388916373253e-04 -3.061814932152628899e-04 3.291520103812217712e-02 -2.863924310076981783e-04 -4.912689700722694397e-02 4.989799857139587402e-02 -2.985219471156597137e-04 9.185812436044216156e-03 7.083960343152284622e-03 3.952797269448637962e-04 2.712640725076198578e-02 -1.808151719160377979e-04 5.826509557664394379e-03 -7.714776438660919666e-04 -8.310445584356784821e-03 -8.153442293405532837e-03 1.158571452833712101e-03 3.716655774042010307e-03 -3.303483128547668457e-02 -1.618050597608089447e-02 7.261917926371097565e-04 -1.874824799597263336e-02 3.343330463394522667e-04 3.292826563119888306e-02 -5.205232277512550354e-02 -1.461884239688515663e-04 4.167590290307998657e-02 1.022297330200672150e-02 6.244690157473087311e-03 1.084030023775994778e-03 2.105467283399775624e-04 1.588811748661100864e-03 5.272986018098890781e-04 1.207928359508514404e-02 -1.168747548945248127e-04 -2.880546089727431536e-04 1.122985777328722179e-04 -7.803518325090408325e-02 3.748635202646255493e-02 3.843051963485777378e-04 -4.902803921140730381e-04 4.258209373801946640e-03 7.927374914288520813e-03 4.049617797136306763e-02 -1.110099349170923233e-02 1.558885909616947174e-03 -7.308420725166797638e-03 2.028301358222961426e-02 3.729821182787418365e-04 -6.041292799636721611e-04 -5.117558874189853668e-03 4.905293695628643036e-03 6.515803746879100800e-03 -4.917567223310470581e-02 6.223084405064582825e-03 1.802901155315339565e-03 -3.082107577938586473e-04 -2.088250406086444855e-02 3.571115434169769287e-03 4.512377083301544189e-02 7.705933414399623871e-03 1.407179981470108032e-02 -1.541191246360540390e-02 -2.443209663033485413e-02 -5.198329454287886620e-04 1.600316318217664957e-05 8.137713186442852020e-03 2.344241179525852203e-02 -3.293026937171816826e-03 1.620447030290961266e-03 -6.577844172716140747e-02 -1.711162767605856061e-04 9.074517292901873589e-04 2.693240903317928314e-02 -1.446211099391803145e-04 -4.933576565235853195e-03 2.498827688395977020e-02 1.847564615309238434e-02 1.838853210210800171e-02 -9.336546645499765873e-05 9.334271453553810716e-05 2.954451926052570343e-02 -4.888128489255905151e-02 -4.750502761453390121e-03 5.957336165010929108e-03 2.501806011423468590e-04 6.920334696769714355e-02 1.362373493611812592e-02 3.021421097218990326e-02 5.178712680935859680e-02 4.401176422834396362e-02 2.550723147578537464e-04 -3.845052421092987061e-02 -1.846067979931831360e-02 -5.698850145563483238e-04 4.201996853225864470e-05 5.932098720222711563e-03 6.101204198785126209e-04 3.872312977910041809e-02 2.696541510522365570e-02 5.289630033075809479e-03 5.257925018668174744e-03 -7.370419800281524658e-03 -3.224966349080204964e-03 1.020504906773567200e-02 -2.326696552336215973e-02 1.744999922811985016e-02 -7.799881696701049805e-02 -3.460428863763809204e-02 -1.691141724586486816e-02 -4.476721514947712421e-04 -2.241280302405357361e-02 -3.953774285037070513e-04 -5.822140337841119617e-06 -9.464749600738286972e-04 -5.811810842715203762e-04 -3.020408004522323608e-02 7.346034049987792969e-03 1.861210353672504425e-02 -4.878358542919158936e-02 2.007766859605908394e-03 5.241291946731507778e-04 -3.487477079033851624e-02 5.529682338237762451e-02 3.169616320519708097e-05 3.208695910871028900e-03 1.421411801129579544e-02 -4.215760529041290283e-02 -3.516678139567375183e-02 -9.296239353716373444e-03 3.378270193934440613e-02 -2.249615266919136047e-02 3.086494654417037964e-02 6.387866102159023285e-03 -6.622865051031112671e-02 -3.610371204558759928e-04 -9.064754843711853027e-02 6.419716030359268188e-02 -9.112097322940826416e-03 9.392157196998596191e-03 -1.182948891073465347e-02 2.799168229103088379e-02 6.282245740294456482e-04 -1.526282913982868195e-02 -4.113211855292320251e-02 -2.377893397351726890e-04 2.649094967637211084e-04 6.587964948266744614e-03 -5.724247172474861145e-02 -1.673168130218982697e-02 -4.908115416765213013e-02 6.401329487562179565e-02 1.266526756808161736e-03 -6.694241892546415329e-04 8.930413750931620598e-04 2.390764094889163971e-02 3.853437490761280060e-03 -2.744159288704395294e-02 1.945278979837894440e-02 -1.302773039788007736e-02 2.498595602810382843e-02 -5.260671023279428482e-04 -7.894111797213554382e-03 5.795666947960853577e-02 1.648360304534435272e-02 -2.295004203915596008e-03 6.192479282617568970e-03 6.474057585000991821e-02 1.562462095171213150e-02 -1.849042996764183044e-02 -5.582036077976226807e-02 -1.397009473294019699e-04 1.356020290404558182e-02 -8.162048761732876301e-04 5.475137382745742798e-02 -1.678926055319607258e-03 -5.392926745116710663e-03 1.107051037251949310e-02 7.186090573668479919e-03 -3.370121866464614868e-02 1.663164468482136726e-03 -4.164530336856842041e-02 2.269865386188030243e-02 1.935582980513572693e-02 1.519321231171488762e-04 7.279007229954004288e-03 1.059482339769601822e-02 -5.801716179121285677e-05 9.546216577291488647e-03 -4.739853739738464355e-02 1.475845347158610821e-03 1.449908688664436340e-02 3.539184853434562683e-02 -1.199809648096561432e-02
-6.499720364809036255e-02 5.463532288558781147e-04 1.087499404093250632e-04 -2.289975062012672424e-02 -2.919237886089831591e-04 -3.082328289747238159e-02 -2.337001264095306396e-02 8.258259622380137444e-04 -6.916614947840571404e-04 9.496857528574764729e-04 3.920226171612739563e-02 7.151914294809103012e-03 5.710025504231452942e-02 5.994493607431650162e-03 -3.584400401450693607e-04 1.181111112236976624e-02 -2.317178063094615936e-02 -4.453648347407579422e-03 8.617200655862689018e-04 -5.476493388414382935e-04 1.289111282676458359e-02 -2.297343499958515167e-02 -2.679016673937439919e-03 2.303905785083770752e-04 3.520963340997695923e-02 -5.339938797987997532e-04 6.423230748623609543e-03 8.380602812394499779e-04 -9.069905616343021393e-03 1.905495673418045044e-02 3.514698147773742676e-02 1.087408959865570068e-01 -3.757007070817053318e-04 -2.087651519104838371e-03 1.430141739547252655e-02 -6.653665564954280853e-03 -1.725039258599281311e-02 5.140314809978008270e-03 3.206178371328860521e-05 -3.288445295765995979e-04 8.921967673813924193e-05 -1.458525657653808594e-02 3.105851123109459877e-03 -1.100294757634401321e-02 6.290680915117263794e-02 3.975418221671134233e-04 3.109496610704809427e-04 -2.162848040461540222e-02 -8.185353130102157593e-03 1.819852925837039948e-02 6.165765970945358276e-02 3.821662859991192818e-03 7.196489605121314526e-04 -2.938417159020900726e-02 -1.589259319007396698e-02 3.849696135148406029e-03 3.315875073894858360e-04 -1.143283117562532425e-02 2.421011216938495636e-03 -3.770268708467483521e-02 -1.406821049749851227e-02 4.430524632334709167e-02 -3.915797569788992405e-04 -5.109981429995968938e-05 3.189003840088844299e-02 -8.035456994548439980e-04 1.933822780847549438e-02 5.894427187740802765e-03 5.132794613018631935e-04 -5.505007226020097733e-03 -9.035213850438594818e-03 4.977003554813563824e-04 9.562927484512329102e-02 -8.871543686836957932e-04 4.040868952870368958e-02 2.798759669531136751e-04 3.919956088066101074e-02 1.209216192364692688e-02 -1.183287240564823151e-03 -3.642371390014886856e-03 7.580094505101442337e-03 2.419472672045230865e-03 -5.314617976546287537e-02 1.688968390226364136e-02 -2.031794516369700432e-03 1.531695015728473663e-02 -4.557079076766967773e-02 -9.375279187224805355e-04 -1.592594943940639496e-02 1.608235761523246765e-02 -1.722615212202072144e-02 3.752849996089935303e-03 -1.079421141184866428e-03 1.053988002240657806e-02 1.174248682218603790e-04 -4.297375679016113281e-02 1.070915372110903263e-03 -6.904302426846697927e-05 4.283492744434624910e-04 -6.565165240317583084e-03 -6.066352128982543945e-02 4.581560788210481405e-04 -2.673112030606716871e-04 -4.948419705033302307e-02 -2.658193744719028473e-02 -3.095189109444618225e-03 -2.475480362772941589e-02 6.000958383083343506e-04 -5.096258828416466713e-04 -1.803009398281574249e-02 -1.301417709328234196e-03 9.375040463055483997e-06 8.976454846560955048e-03 -2.273669280111789703e-02 -3.763623535633087158e-02 -1.969026029109954834e-02 7.737872190773487091e-03 -6.709095556288957596e-03 3.191508294548839331e-04 4.952358454465866089e-02 -3.069059550762176514e-02 -2.957143262028694153e-02 -7.274319650605320930e-04 1.625335402786731720e-02 -7.023351732641458511e-03 1.380554214119911194e-02 -2.776317298412322998e-02 1.146740250987932086e-04 -2.303995192050933838e-02 5.531356111168861389e-02 2.267346903681755066e-02 -3.222785890102386475e-04 8.830395527184009552e-03 9.995856089517474174e-05 3.828062472166493535e-05 5.572027061134576797e-03 -8.373327436856925488e-04 2.879782207310199738e-02 6.788906641304492950e-03 -1.413801684975624084e-02 -1.766521716490387917e-03 -2.996215189341455698e-04 -1.016941852867603302e-03 2.864473685622215271e-02 -1.782880909740924835e-02 9.274530224502086639e-03 -1.718304865062236786e-02 4.412240232340991497e-04 -1.466223504394292831e-02 -3.124473616480827332e-02 -1.496780849993228912e-02 3.831311315298080444e-02 -4.330466035753488541e-03 -5.890300963073968887e-04 -7.632632739841938019e-03 5.453910678625106812e-02 -6.196582689881324768e-04 4.331326344981789589e-04 -1.057743374258279800e-02 -6.862506852485239506e-04 1.596511341631412506e-02 -8.841646835207939148e-03 -6.875146925449371338e-02 -9.326633065938949585e-03 1.771432653185911477e-05 -3.220039606094360352e-02 -8.580669760704040527e-03 1.190072577446699142e-02 2.629047632217407227e-02 -3.731847926974296570e-02 4.404626321047544479e-03 -2.053138613700866699e-02 3.416774561628699303e-04 1.476645190268754959e-02 8.620293810963630676e-04 1.053638523444533348e-03 4.895050078630447388e-04 -3.179039631504565477e-04 1.845873706042766571e-02 -4.360097460448741913e-03 -1.753675565123558044e-02 4.564888030290603638e-02 -2.112093754112720490e-02 8.216012065531685948e-05 -7.589507102966308594e-02 -8.558829315006732941e-03 -6.704123807139694691e-04 3.442595526576042175e-02 1.158359926193952560e-02 2.430365420877933502e-03 1.755379023961722851e-03 -1.537886820733547211e-02 1.961613073945045471e-02 -2.340097445994615555e-03 1.680640131235122681e-02 5.536184459924697876e-02 2.032924257218837738e-02 -3.076268767472356558e-04 -6.214898824691772461e-02 -4.256560280919075012e-02 -1.102666743099689484e-02 1.406899001449346542e-02 2.878013066947460175e-03 -3.596365451812744141e-02 9.377585956826806068e-04 4.678060114383697510e-02 -7.916034758090972900e-02 8.693240233696997166e-04 -2.408162108622491360e-04 1.266101608052849770e-03 1.795606315135955811e-02 1.235631387680768967e-02 2.798716910183429718e-02 4.862911254167556763e-02 -4.548062570393085480e-04 6.949187954887747765e-04 -2.605318091809749603e-03 2.005377784371376038e-02 -3.184770792722702026e-02 1.049586571753025055e-02 -1.486290805041790009e-02 -7.719889283180236816e-02 2.243832312524318695e-02 -6.674240466963965446e-07 5.216954648494720459e-02 -1.171487476676702499e-02 -9.703251998871564865e-04 -1.845864206552505493e-02 -1.238465867936611176e-02 -1.312101166695356369e-02 -1.973887719213962555e-02 1.419459935277700424e-02 -2.546026371419429779e-02 -9.397394605912268162e-04 -1.031227502971887589e-02 -1.953153405338525772e-04 -2.496225200593471527e-02 1.339122653007507324e-02 -4.209938924759626389e-03 4.799711517989635468e-03 9.692836552858352661e-03 -7.823746651411056519e-03 1.358062587678432465e-02 -4.358900710940361023e-03 1.037743221968412399e-02 2.279477892443537712e-03 -4.744234029203653336e-04 3.603300079703330994e-02 2.026554569602012634e-02 -1.420697779394686222e-03 2.994113042950630188e-02 -8.697573095560073853e-03 -4.823628347367048264e-03 2.230671467259526253e-03 4.784158989787101746e-02 -4.790108068846166134e-04
