2.495584310963749886e-03 2.993084490299224854e-03 2.212125575169920921e-03 -3.125599026679992676e-01 8.216993510723114014e-02 1.857858733274042606e-03 -5.514628812670707703e-02 2.810108708217740059e-03 2.804607618600130081e-03 -8.325136899948120117e-01 -6.215357184410095215e-01 2.252631355077028275e-03 -6.214661002159118652e-01 2.154148416593670845e-03 2.490822225809097290e-03 2.300638705492019653e-03 -5.398528575897216797e-01 2.908335765823721886e-03 -3.478744253516197205e-02 -1.606659889221191406e-01 2.437186427414417267e-03 2.781000453978776932e-03 2.012643497437238693e-03 2.707783831283450127e-03 -1.636435538530349731e-01 2.358560683205723763e-03 2.652633702382445335e-03 -2.838062942028045654e-01 -3.309628963470458984e-01 1.288479287177324295e-02 -6.928622722625732422e-02 8.218030631542205811e-02 2.822061069309711456e-03 -4.181003868579864502e-01 2.087045228108763695e-03 -3.265771567821502686e-01 2.323597203940153122e-03 -5.876852571964263916e-02 2.824395662173628807e-03 -1.647229045629501343e-01 2.549600088968873024e-03 -1.408922225236892700e-01 -3.790926933288574219e-01 9.909888030961155891e-04 -2.329544425010681152e-01 -5.217815637588500977e-01 -1.463336348533630371e+00 2.800153102725744247e-03 -7.691605389118194580e-02 -1.592353582382202148e-01 2.967925742268562317e-03 2.873020246624946594e-03 -2.098940908908843994e-01 2.605519257485866547e-03 -1.506229162216186523e+00 2.477226080372929573e-03 2.574472455307841301e-03 -5.974457859992980957e-01 1.826835796236991882e-03 1.755547244101762772e-03 -1.315984725952148438e-01 -8.985475450754165649e-02 2.463426208123564720e-03 -5.452717468142509460e-02 -8.112281560897827148e-02 2.922015730291604996e-03 7.977322489023208618e-02 -6.265793442726135254e-01 2.396382624283432961e-03 1.924625132232904434e-03 2.711687935516238213e-03 -1.861286908388137817e-01 2.551748882979154587e-03 8.901962079107761383e-03 2.497461624443531036e-03 1.992467558011412621e-03 -8.166980147361755371e-01 2.592673059552907944e-03 2.427090145647525787e-02 2.202783012762665749e-03 -1.694803982973098755e-01 4.320405423641204834e-02 1.369075966067612171e-03 2.518589841201901436e-03 2.929163165390491486e-03 2.231325255706906319e-03 2.816153876483440399e-02 2.989642089232802391e-03 2.495509572327136993e-03 2.694264985620975494e-03 2.514572814106941223e-03 -1.961789727210998535e-01 2.199134090915322304e-03 -3.676463961601257324e-01 -3.815111517906188965e-02 2.679555676877498627e-03 -8.339938521385192871e-02 2.469937782734632492e-03 2.309286035597324371e-02 -5.023639532737433910e-04 2.207386540248990059e-03 -2.949937619268894196e-02 -9.658795595169067383e-01 -5.039609074592590332e-01 2.559347543865442276e-03 2.400603611022233963e-03 -4.975899308919906616e-02 2.268260810524225235e-03 -1.666755229234695435e-01 -1.229632645845413208e-01 2.358375117182731628e-03 -5.198568478226661682e-02 2.634663833305239677e-03 -8.630955219268798828e-02 1.455831527709960938e-01 -1.287353634834289551e+00 2.396000549197196960e-03 2.645536139607429504e-02 -6.385197043418884277e-01 1.675342954695224762e-02 2.843063091859221458e-03 -1.312325596809387207e+00 2.826096257194876671e-03 1.338666304945945740e-03 -9.766151309013366699e-01 2.537135966122150421e-03 -3.653630912303924561e-01 -1.813247203826904297e-01 -2.715148031711578369e-01 2.590677700936794281e-03 3.216214850544929504e-02 2.037891885265707970e-03 2.609938615933060646e-03 2.409165259450674057e-03 4.057384282350540161e-02 2.648202003911137581e-03 -1.338891535997390747e-01 5.392470210790634155e-02 2.832051366567611694e-03 2.304690424352884293e-03 1.751490635797381401e-03 8.875306695699691772e-02 -2.856660485267639160e-01 2.410143846645951271e-03 1.791949034668505192e-03 2.629377413541078568e-03 2.213238039985299110e-03 2.571600954979658127e-03 -4.036571979522705078e-01 -3.565933704376220703e-01 -9.242363572120666504e-01 -4.020072817802429199e-01 2.502311952412128448e-03 2.822525100782513618e-03 2.929550828412175179e-03 -1.352559924125671387e-01 3.561531379818916321e-02 2.992167603224515915e-03 -1.544434875249862671e-01 2.530850237235426903e-03 2.900357823818922043e-03 2.966083586215972900e-03 2.653553849086165428e-03 2.879693405702710152e-03 -7.903084158897399902e-02 -3.573032319545745850e-01 -5.680067464709281921e-02 2.753966487944126129e-03 -4.061985611915588379e-01 2.583390567451715469e-03 -1.329229921102523804e-01 1.813263818621635437e-02 -7.370034605264663696e-02 1.856037764810025692e-03 -3.918630480766296387e-01 2.188452053815126419e-03 7.719057053327560425e-02 -7.111656069755554199e-01 -9.394178539514541626e-02 2.464135410264134407e-03 2.512866863980889320e-03 2.839267253875732422e-03 2.258414868265390396e-03 -6.205416917800903320e-01 -7.037030458450317383e-01 -7.644482702016830444e-02 2.468433231115341187e-03 1.823165640234947205e-02 2.611244563013315201e-03 2.016162499785423279e-03 2.618452068418264389e-03 -3.536963760852813721e-01 2.912552794441580772e-03 2.560163615271449089e-03 -2.282160371541976929e-01 -1.649486869573593140e-01 2.299689454957842827e-03 -1.852280735969543457e+00 -8.194004297256469727e-01 3.981018438935279846e-02 2.212489023804664612e-03 2.806788310408592224e-03 8.969223499298095703e-02 2.934931078925728798e-03 -7.562518119812011719e-01 2.805976197123527527e-03 2.492119790986180305e-03 2.773666754364967346e-03 -1.107134297490119934e-01 2.381741441786289215e-02 2.389843808487057686e-03 2.907568123191595078e-03 2.317753154784440994e-03 -4.035171270370483398e-01 -1.194351017475128174e-01 3.695937618613243103e-02 -1.089855469763278961e-02 9.313296526670455933e-02 1.102002896368503571e-02 -7.188122719526290894e-02 2.133328001946210861e-03 2.682947088032960892e-03 -7.129026055335998535e-01 -1.613246947526931763e-01 9.770903736352920532e-02 2.668371237814426422e-02 9.093730896711349487e-02 1.897104433737695217e-03 2.574628219008445740e-03 -1.227008998394012451e-01 -2.176860421895980835e-01 3.076773602515459061e-03 2.932540886104106903e-02 -4.813441336154937744e-01 -1.146277487277984619e-01 -1.126631647348403931e-01 -4.704761505126953125e-01 -4.649024084210395813e-02 -5.366522073745727539e-01 -2.160767316818237305e-01 2.141441553831100464e-01 2.316463738679885864e-03 1.883400138467550278e-03 2.983235521242022514e-03 2.591009251773357391e-03 2.573234960436820984e-03 -1.553203314542770386e-01 2.760681090876460075e-03 -1.821102499961853027e-01 2.354341093450784683e-03 1.868719584308564663e-03 -9.075826406478881836e-02 4.032827913761138916e-01 2.697155345231294632e-03 -1.242262870073318481e-01 2.783276140689849854e-02
