-3.002712968736886978e-03
-3.001078031957149506e-03
-3.002710873261094093e-03
1.166700601577758789e+00
1.005522727966308594e+00
-3.002737881615757942e-03
1.102936863899230957e+00
-3.002603072673082352e-03
-3.002625191584229469e-03
3.734883964061737061e-01
1.982462286949157715e+00
-3.002712735906243324e-03
3.148983716964721680e+00
-3.002738812938332558e-03
-3.002719953656196594e-03
-3.002732526510953903e-03
3.638498485088348389e-01
-3.002491313964128494e-03
5.642876029014587402e-01
1.043867990374565125e-01
-3.002407029271125793e-03
-3.000745549798011780e-03
-3.002274315804243088e-03
-3.002662444487214088e-03
2.422318696975708008e+00
-3.002186771482229233e-03
-3.002241486683487892e-03
7.744817137718200684e-01
-4.763360023498535156e-01
2.618933200836181641e+00
1.041866183280944824e+00
8.505622148513793945e-01
-3.002490149810910225e-03
7.670194506645202637e-01
-3.002732293680310249e-03
-8.188083022832870483e-02
-3.002021927386522293e-03
-1.788585633039474487e-01
-3.002530196681618690e-03
2.559936523437500000e+00
-3.002254059538245201e-03
2.454011291265487671e-01
1.500121712684631348e+00
-3.002740675583481789e-03
2.281726803630590439e-03
2.934954881668090820e+00
5.755771398544311523e-01
-3.002671059221029282e-03
2.293425053358078003e-01
3.571355819702148438e+00
-3.001418896019458771e-03
-3.002621233463287354e-03
3.024412095546722412e-01
-3.002530895173549652e-03
-1.877154111862182617e-01
-3.002687124535441399e-03
-3.002661978825926781e-03
-3.639072179794311523e-01
-3.002717625349760056e-03
-3.002736484631896019e-03
-4.816986992955207825e-02
3.169860124588012695e+00
-3.002719720825552940e-03
-2.060817554593086243e-03
1.901157259941101074e+00
-3.002563491463661194e-03
3.201115846633911133e+00
1.702458620071411133e+00
-2.998470095917582512e-03
-3.002739278599619865e-03
-3.002690616995096207e-03
7.542091608047485352e-01
-3.002715297043323517e-03
-4.833853244781494141e-02
-3.002623096108436584e-03
-3.002736251801252365e-03
1.643988728523254395e+00
-3.002654295414686203e-03
9.513691067695617676e-01
-3.002695040777325630e-03
1.340296149253845215e+00
2.641216278076171875e+00
-3.002742771059274673e-03
-3.002687357366085052e-03
-3.002285026013851166e-03
-3.002736950293183327e-03
1.105250477790832520e+00
-3.001148579642176628e-03
-3.002599580213427544e-03
-3.002671059221029282e-03
-3.002718091011047363e-03
7.958842515945434570e-01
-3.002713667228817940e-03
-1.166087627410888672e+00
-8.642818331718444824e-01
-3.002461278811097145e-03
7.878437042236328125e-01
-3.002724144607782364e-03
2.463616132736206055e+00
1.956464290618896484e+00
-3.002642653882503510e-03
9.750192761421203613e-01
2.482521384954452515e-01
-1.948245018720626831e-01
-3.002621000632643700e-03
-3.002713667228817940e-03
1.327667713165283203e+00
-3.002734621986746788e-03
7.490251660346984863e-01
8.420670628547668457e-01
-3.002694807946681976e-03
1.060687661170959473e+00
-3.002694575116038322e-03
2.226343750953674316e-01
1.165900588035583496e+00
2.899110794067382812e+00
-3.002698067575693130e-03
1.912227034568786621e+00
9.372987151145935059e-01
3.951888978481292725e-01
-3.002657787874341011e-03
1.209808707237243652e+00
-2.994009060785174370e-03
-3.002743469551205635e-03
5.670775175094604492e-01
-3.002726705744862556e-03
5.536439418792724609e-01
2.101804494857788086e+00
3.223448276519775391e+00
-3.002687124535441399e-03
8.437485098838806152e-01
-3.002740209922194481e-03
-3.001939970999956131e-03
-3.002720419317483902e-03
2.232504844665527344e+00
-3.002715297043323517e-03
-2.886529266834259033e-01
1.191971898078918457e+00
-3.002508310601115227e-03
-3.002733457833528519e-03
-3.002740442752838135e-03
1.004088282585144043e+00
3.913293480873107910e-01
-3.002692246809601784e-03
-4.514865398406982422e+00
-3.002715762704610825e-03
-3.002711106091737747e-03
-3.002723911777138710e-03
1.156818747520446777e+00
4.936182871460914612e-02
3.046308279037475586e+00
5.756368637084960938e-01
-3.002345561981201172e-03
-3.002640325576066971e-03
-3.001807723194360733e-03
6.562614440917968750e-01
1.012108623981475830e-01
-3.001512493938207626e-03
1.264359951019287109e+00
-3.002702491357922554e-03
-3.002467332407832146e-03
-3.002116922289133072e-03
-3.002708312124013901e-03
-3.002370242029428482e-03
-2.765720486640930176e-01
1.546194911003112793e+00
1.537950158119201660e+00
-3.001839620992541313e-03
2.355704456567764282e-01
-3.002693410962820053e-03
2.204919576644897461e+00
6.392383575439453125e-01
1.899183988571166992e+00
-3.002741141244769096e-03
2.413321971893310547e+00
-3.002722514793276787e-03
8.035588860511779785e-01
7.894536256790161133e-01
9.866946339607238770e-01
-3.002716694027185440e-03
-3.002560464665293694e-03
-3.002589801326394081e-03
-3.002723911777138710e-03
4.723314762115478516e+00
3.325741767883300781e+00
3.049359321594238281e+00
-3.002714132890105247e-03
1.068926811218261719e+00
-3.002720186486840248e-03
-3.002585377544164658e-03
-3.002584213390946388e-03
9.337267875671386719e-01
-3.001926233991980553e-03
-3.002690151333808899e-03
2.274071238934993744e-02
8.899943828582763672e-01
-3.002627287060022354e-03
3.797612667083740234e+00
1.070179462432861328e+00
-1.573555730283260345e-02
-3.002730198204517365e-03
-2.997113158926367760e-03
7.541573047637939453e-01
-3.002550452947616577e-03
5.741959214210510254e-01
-3.002395853400230408e-03
-3.002717159688472748e-03
-3.002616111189126968e-03
5.954823493957519531e-01
5.135802626609802246e-01
-3.002715529873967171e-03
-3.002491313964128494e-03
-3.002695739269256592e-03
2.113094806671142578e+00
1.045631289482116699e+00
-1.014308571815490723e+00
-3.726409375667572021e-01
6.793243288993835449e-01
2.265445470809936523e+00
-2.175331562757492065e-01
-3.002696903422474861e-03
-3.002681769430637360e-03
2.216190576553344727e+00
8.200057148933410645e-01
7.759637236595153809e-01
2.510458230972290039e-01
-1.175488606095314026e-01
-3.002729034051299095e-03
-3.002715995535254478e-03
6.678475141525268555e-01
3.383259296417236328e+00
8.658477067947387695e-01
1.302879750728607178e-01
-5.076365470886230469e-01
6.326701045036315918e-01
7.630327939987182617e-01
1.261188268661499023e+00
2.506939411163330078e+00
-2.496213018894195557e-01
8.423969149589538574e-01
3.203094244003295898e+00
-3.002732759341597557e-03
-3.002694109454751015e-03
-3.001615172252058983e-03
-3.002712968736886978e-03
-3.002711106091737747e-03
9.953139722347259521e-02
-3.002662444487214088e-03
2.405700206756591797e+00
-3.002700163051486015e-03
-3.002730198204517365e-03
1.576796531677246094e+00
2.365516185760498047e+00
-3.002678044140338898e-03
-6.578708291053771973e-01
1.144143700599670410e+00
