-7.120983209460973740e-03 4.717729520052671432e-03 -5.890637170523405075e-03 1.130260177887976170e-03 -3.333107801154255867e-03 6.787904421798884869e-04 -3.654257627204060555e-03 -7.705461699515581131e-03 1.027754321694374084e-02 3.358646295964717865e-03 2.845249837264418602e-03 -3.943494055420160294e-03 9.719941881485283375e-04 1.163636916317045689e-03 -3.294392023235559464e-03 9.592829272150993347e-03 -4.983927588909864426e-03 -5.565368337556719780e-04 3.353454638272523880e-03 3.754470031708478928e-03 -4.553201433736830950e-04 -2.886586356908082962e-03 1.272530481219291687e-02 -3.140080953016877174e-03 4.689641762524843216e-03 -2.065702341496944427e-03 1.355572883039712906e-02 3.585049416869878769e-03 1.263244426809251308e-03 -1.068899594247341156e-02 3.125563031062483788e-03 -7.427169475704431534e-03 1.042494270950555801e-02 -3.273966489359736443e-03 -1.409550430253148079e-03 -4.289774224162101746e-03 9.923893958330154419e-03 -1.170657668262720108e-02 3.757283091545104980e-03 3.817040240392088890e-03 1.316236332058906555e-03 3.511545248329639435e-03 -5.314394365996122360e-03 1.322865020483732224e-03 1.574824214912950993e-03 3.850385546684265137e-03 -1.177501026540994644e-02 -2.740715630352497101e-03 -1.470647845417261124e-02 -1.752833276987075806e-02 1.016604900360107422e-02 6.257813423871994019e-03 1.596327871084213257e-02 -8.039562962949275970e-03 4.850559402257204056e-03 1.948384306160733104e-04 -2.202870696783065796e-02 1.183237787336111069e-02 8.748610503971576691e-03 9.496392682194709778e-03 5.496951751410961151e-03 -7.231416646391153336e-03 1.561438781209290028e-03 -9.398984722793102264e-03 5.816154647618532181e-03 -7.478106766939163208e-03 -1.235747151076793671e-02 -6.534739397466182709e-03 1.898066885769367218e-02 -2.954785712063312531e-03 8.540862239897251129e-03 -5.102456081658601761e-03 -2.960595593322068453e-04 -1.101169269531965256e-02 -2.440101467072963715e-03 -5.896313581615686417e-03 9.393950924277305603e-03 5.267819389700889587e-03 -8.269201498478651047e-04 4.771780688315629959e-03 5.127496086061000824e-03 2.176198363304138184e-02 1.252713333815336227e-02 1.231202483177185059e-02 -6.719487137161195278e-04 1.270603737793862820e-03 -1.298750168643891811e-03 1.197972428053617477e-02 -2.589645097032189369e-03 4.523577634245157242e-03 -1.176961930468678474e-03 -1.683262363076210022e-02 1.299793180078268051e-02 -5.255372263491153717e-03 9.342482313513755798e-03 1.645734999328851700e-03 -9.560253471136093140e-03 8.633854798972606659e-03 5.702661350369453430e-03 1.699680835008621216e-02 -3.781474661082029343e-03 -3.662661416456103325e-03 1.145617756992578506e-02 4.740640055388212204e-03 1.571636460721492767e-02 -3.008108760695904493e-04 -9.912791661918163300e-03 1.721943379379808903e-03 3.090891987085342407e-03 4.602917004376649857e-03 -6.121186539530754089e-03 4.461009986698627472e-03 1.332392916083335876e-02 -1.323093194514513016e-02 -6.146901752799749374e-03 -1.029541622847318649e-02 -6.078605074435472488e-03 -3.018963383510708809e-03 -9.229841642081737518e-03 -5.794993136078119278e-03 -2.275692299008369446e-02 -5.191509611904621124e-03 -1.769208582118153572e-03 2.271337434649467468e-03 1.929471472976729274e-04 -2.575169783085584641e-03 -7.008237764239311218e-03 6.269385572522878647e-03 3.453745739534497261e-03 3.825932973995804787e-03 -4.412730224430561066e-03 -4.568310920149087906e-03 8.666379377245903015e-03 -1.392828300595283508e-02 9.863427840173244476e-03 -1.525054872035980225e-02 7.352922111749649048e-03 -6.459388881921768188e-03 3.479714738205075264e-03 2.213537081843242049e-04 6.347310845740139484e-04 5.821443162858486176e-03 4.281563218683004379e-03 1.073670224286615849e-03 1.428306568413972855e-02 1.880509080365300179e-03 -1.328179426491260529e-02 2.405811101198196411e-02 8.948230184614658356e-03 -1.938636414706707001e-02 -1.400194037705659866e-02 -3.887998173013329506e-03 5.436572711914777756e-03 -2.875834936276078224e-03 5.193712655454874039e-03 7.503513246774673462e-03 9.430928155779838562e-03 -1.115229818969964981e-02 9.453449747525155544e-04 -9.354095906019210815e-03 5.367036908864974976e-03 -4.991628229618072510e-04 -7.906882092356681824e-03 7.850054651498794556e-03 -6.703687831759452820e-03 -8.563501760363578796e-03 -3.409915370866656303e-03 -2.106180973351001740e-02 -1.356786955147981644e-02 -1.208857726305723190e-02 4.119832534343004227e-03 6.393963936716318130e-03 -3.233953029848635197e-04 1.738344784826040268e-03 -3.881821641698479652e-03 1.803392806323245168e-04 -1.189775299280881882e-02 -1.394237019121646881e-02 1.417112885974347591e-03 -8.049431256949901581e-03 2.217779401689767838e-03 -1.182794477790594101e-02 1.189484912902116776e-02 -3.836492076516151428e-03 -1.927188597619533539e-03 8.841648697853088379e-03 -4.676083102822303772e-03 -2.934720739722251892e-02 -1.017207163386046886e-03 -8.563630282878875732e-03 -8.173743262887001038e-03 6.586602889001369476e-03 -6.107525434345006943e-03 7.753658108413219452e-03 5.453588441014289856e-03 3.473820164799690247e-03 4.824217874556779861e-03 1.353728491812944412e-02 -6.294637918472290039e-03 -7.358054164797067642e-03 -7.852756418287754059e-03 -8.230263367295265198e-03 -2.394133945927023888e-03 1.381927262991666794e-02 -1.121228933334350586e-02 -1.866641826927661896e-02 -4.552361555397510529e-03 1.473260577768087387e-02 -2.236285246908664703e-03 -5.421687383204698563e-03 7.923987694084644318e-03 6.162649951875209808e-03 -2.263883361592888832e-03 -6.597099825739860535e-03 -4.146677907556295395e-03 -2.036895602941513062e-03 -1.239830907434225082e-02 -1.173814199864864349e-02 6.576636806130409241e-03 -3.035347443073987961e-03 1.419115625321865082e-02 -2.229189733043313026e-03 -1.285213790833950043e-02 -5.031601758673787117e-04 7.368217222392559052e-03 2.893596328794956207e-02 2.065604319795966148e-03 -4.645530600100755692e-03 1.487769419327378273e-03 -9.723863564431667328e-03 1.178540475666522980e-02 4.124805331230163574e-03 -9.585958905518054962e-03 -2.245802665129303932e-03 -1.061921659857034683e-02 9.607365354895591736e-03 2.196099376305937767e-03 1.586539298295974731e-02 -8.642830885946750641e-03 1.144752651453018188e-02 -2.917885780334472656e-03 -6.759298499673604965e-03 -4.173221532255411148e-03 -5.677413195371627808e-03 6.242725066840648651e-03 7.046729326248168945e-03 1.011637784540653229e-02 -2.038908377289772034e-02 1.297327037900686264e-02 -5.588334053754806519e-03 5.435877945274114609e-03 1.534798182547092438e-02 1.118392311036586761e-02 6.431497167795896530e-04 -1.583402627147734165e-03 5.606814753264188766e-03
9.082636795938014984e-03 -5.103783914819359779e-04 6.820551119744777679e-03 3.666124539449810982e-03 -3.613111330196261406e-03 1.065259333699941635e-03 -3.884365432895720005e-04 -8.287119679152965546e-03 -1.879453659057617188e-03 -2.530990727245807648e-02 5.064940080046653748e-03 2.435729606077075005e-03 -1.141103543341159821e-02 1.067275088280439377e-02 -1.118678785860538483e-02 -1.246957574039697647e-02 -3.477840917184948921e-03 2.050625719130039215e-02 -9.542067535221576691e-03 9.282548911869525909e-03 -2.770624123513698578e-02 2.082762308418750763e-02 -1.701728207990527153e-03 -2.060398086905479431e-02 1.808197237551212311e-03 3.437487641349434853e-03 1.151470094919204712e-02 -2.843099646270275116e-03 -1.145979668945074081e-02 -1.385851483792066574e-02 2.059064060449600220e-02 3.028772538527846336e-03 1.117598917335271835e-02 7.435100153088569641e-03 1.937440596520900726e-02 -9.999306639656424522e-04 -1.816479116678237915e-02 2.577486261725425720e-02 1.467610336840152740e-02 -9.562330320477485657e-03 -7.479122839868068695e-03 1.853382564149796963e-03 9.026778861880302429e-03 -4.292522557079792023e-03 -7.997187785804271698e-03 -8.339667692780494690e-03 -1.459107850678265095e-03 -3.385628759860992432e-02 -3.069986123591661453e-04 1.244980469346046448e-02 -8.596294559538364410e-03 -3.163703531026840210e-02 4.461089614778757095e-03 -1.226347777992486954e-02 -2.068244619295001030e-03 2.202096395194530487e-03 9.534360724501311779e-04 -1.073000300675630569e-02 -2.364556677639484406e-02 2.632738091051578522e-03 -1.241281745024025440e-03 9.802943095564842224e-03 2.089801058173179626e-02 -1.161366514861583710e-02 -5.418874789029359818e-03 8.650573901832103729e-03 1.475522387772798538e-02 3.145252540707588196e-02 -6.122532766312360764e-03 -4.047446418553590775e-03 5.576473660767078400e-03 7.407841621898114681e-04 -7.887356914579868317e-03 1.734898542053997517e-03 1.192642934620380402e-02 1.621552929282188416e-02 1.188121852464973927e-03 -1.778145134449005127e-02 -2.112058363854885101e-02 -2.344252774491906166e-03 1.323226373642683029e-02 3.029301529750227928e-03 -2.276262827217578888e-02 -1.110189408063888550e-02 -3.358112182468175888e-03 -2.354505285620689392e-02 3.123914357274770737e-03 -2.736683469265699387e-03 9.829976595938205719e-03 -6.553532439284026623e-04 2.017582580447196960e-02 3.081067465245723724e-03 -3.875741502270102501e-03 -1.695931702852249146e-02 -2.205177908763289452e-03 2.079848572611808777e-02 -9.521722793579101562e-03 2.663794532418251038e-02 -1.138196885585784912e-02 -1.045233663171529770e-02 -4.779253154993057251e-03 -2.300059422850608826e-02 -5.952538456767797470e-03 -1.759149017743766308e-03 -2.262010052800178528e-02 -3.836642252281308174e-03 2.987471409142017365e-02 1.777236722409725189e-02 2.040817774832248688e-02 3.569973865523934364e-03 2.721159160137176514e-02 1.230500731617212296e-02 -2.350504364585503936e-04 -7.779998239129781723e-03 -4.397494252771139145e-03 1.973269693553447723e-02 -1.509414426982402802e-02 -9.765466675162315369e-03 2.983256056904792786e-02 -1.273951865732669830e-02 -2.337526530027389526e-02 -3.809586167335510254e-02 2.713613212108612061e-02 2.228085510432720184e-02 7.293468806892633438e-03 2.586235478520393372e-02 -1.892824284732341766e-02 -9.186909534037113190e-03 -2.826403826475143433e-03 1.953600160777568817e-02 -4.172063432633876801e-03 1.391378231346607208e-02 -2.408711239695549011e-03 -1.318654604256153107e-02 1.749703660607337952e-02 -2.473587170243263245e-03 1.931820809841156006e-02 -2.350795082747936249e-02 -2.952550072222948074e-03 8.125620894134044647e-03 -1.632466539740562439e-02 -4.682087339460849762e-03 1.761646568775177002e-02 8.222921751439571381e-03 -3.114997781813144684e-02 4.293248523026704788e-03 1.267237868160009384e-02 2.946109510958194733e-02 7.733664009720087051e-03 1.584487594664096832e-02 -4.303410183638334274e-03 -1.024946197867393494e-02 1.993189938366413116e-02 -1.575708948075771332e-02 9.623965248465538025e-03 -1.364017929881811142e-02 1.756530627608299255e-02 -2.922574058175086975e-04 3.265366191044449806e-03 3.863123856717720628e-05 -4.966129083186388016e-03 -6.510266568511724472e-03 -5.114199593663215637e-04 2.923130989074707031e-03 1.594639569520950317e-02 1.597186550498008728e-02 -7.536569144576787949e-03 -1.905533135868608952e-03 9.492567740380764008e-03 8.558185771107673645e-03 -3.530908608809113503e-03 -2.737134695053100586e-03 -2.205462567508220673e-02 2.510392107069492340e-03 -8.693696931004524231e-03 -4.324192181229591370e-03 1.210965216159820557e-02 1.334006246179342270e-02 1.849452219903469086e-02 1.018802449107170105e-02 1.430601626634597778e-02 -1.555035822093486786e-02 4.065959074068814516e-04 -1.274847658351063728e-03 -2.085548080503940582e-02 1.927643269300460815e-02 -1.747345924377441406e-02 2.291176281869411469e-02 3.084501950070261955e-03 -9.293971583247184753e-03 -8.000538800843060017e-04 -2.826257841661572456e-03 -5.734281148761510849e-03 1.506824232637882233e-02 7.999293506145477295e-03 -2.363450592383742332e-03 4.045861959457397461e-02 -2.077366597950458527e-02 1.454914174973964691e-02 -1.678303256630897522e-02 5.872070323675870895e-03 -2.122963545843958855e-03 1.506926491856575012e-04 -4.106658976525068283e-03 2.316500246524810791e-02 -2.226784825325012207e-03 9.545164357405155897e-05 -3.532505594193935394e-03 1.120794215239584446e-03 4.250532388687133789e-02 -7.407694123685359955e-03 1.366640254855155945e-02 -1.934962160885334015e-02 -9.740902110934257507e-03 -1.895673200488090515e-02 5.911084590479731560e-04 -4.843721166253089905e-03 -2.831136621534824371e-02 -1.908971369266510010e-02 2.588768862187862396e-02 1.995178125798702240e-02 4.482930526137351990e-03 -2.220557630062103271e-02 8.840209804475307465e-03 1.387493405491113663e-02 -1.697662845253944397e-02 1.410482637584209442e-02 2.057801373302936554e-02 1.860655285418033600e-02 7.753846235573291779e-03 1.429958827793598175e-02 2.617107145488262177e-02 1.024619303643703461e-02 5.232785362750291824e-03 -1.147474069148302078e-02 -2.206126693636178970e-03 3.864191239699721336e-03 -2.516308985650539398e-02 1.668992079794406891e-02 -1.153773814439773560e-02 1.700154133141040802e-02 4.812192637473344803e-03 2.151902206242084503e-02 2.429890073835849762e-02 -2.003961615264415741e-02 3.378875553607940674e-02 -1.490015443414449692e-02 3.473712876439094543e-02 1.823115348815917969e-02 6.326608825474977493e-03 1.742258295416831970e-02 8.982934377854689956e-05 2.173294499516487122e-02 2.586794085800647736e-03 1.404362265020608902e-02 2.450104244053363800e-02
1.158749335445463657e-03 2.447071112692356110e-02 3.708478834596462548e-05 -4.769493360072374344e-03 -1.111362315714359283e-02 -4.485979676246643066e-03 9.207786992192268372e-03 7.021162658929824829e-03 1.315192412585020065e-02 -2.240812405943870544e-02 2.594386227428913116e-02 1.573412306606769562e-02 -1.865446381270885468e-02 2.263625385239720345e-03 -9.419377893209457397e-03 6.352102849632501602e-03 -8.900327607989311218e-03 -9.590926580131053925e-03 -2.423842251300811768e-02 -8.708339184522628784e-03 1.700956560671329498e-02 1.028946321457624435e-02 -2.062108367681503296e-02 2.073414437472820282e-02 1.168233528733253479e-02 8.259548805654048920e-03 -1.184780523180961609e-02 -2.567910589277744293e-02 1.779451780021190643e-02 1.002670614980161190e-03 -5.013992078602313995e-03 2.600122243165969849e-03 1.310571935027837753e-02 -9.394743829034268856e-04 -1.009778678417205811e-02 7.857810123823583126e-04 -1.672838814556598663e-02 -3.130556549876928329e-03 -4.029950127005577087e-03 -9.342310950160026550e-03 -1.810471341013908386e-02 -6.498614791780710220e-03 -2.834046608768403530e-04 -1.144918426871299744e-02 5.993672180920839310e-03 1.724134315736591816e-03 7.326160557568073273e-03 1.484454609453678131e-02 9.708383586257696152e-04 7.760130334645509720e-03 -8.356633596122264862e-03 6.636676844209432602e-03 1.881002448499202728e-02 -2.181812934577465057e-02 -2.110386453568935394e-02 8.201317861676216125e-03 -1.538970880210399628e-02 1.102672796696424484e-02 -6.800453644245862961e-03 2.466890029609203339e-02 1.156285032629966736e-02 7.917227223515510559e-03 -1.050777267664670944e-02 8.439919911324977875e-03 1.722627505660057068e-02 1.659180270507931709e-03 6.623864173889160156e-03 -2.492221770808100700e-03 -1.167682372033596039e-02 1.065248344093561172e-02 4.428317770361900330e-03 3.077066130936145782e-02 -9.584091603755950928e-03 -1.948356814682483673e-02 -6.914132274687290192e-03 1.067984011024236679e-02 2.072227001190185547e-02 -3.042289055883884430e-02 -2.495867200195789337e-03 -9.322372265160083771e-03 7.066071964800357819e-03 3.007734939455986023e-02 -1.176528725773096085e-02 -1.666335389018058777e-02 1.600662246346473694e-02 -2.251035161316394806e-02 -6.750862579792737961e-03 -7.164068520069122314e-03 -2.387994900345802307e-03 -2.550859749317169189e-02 3.491520881652832031e-03 -3.274718066677451134e-03 -9.790717624127864838e-03 -3.941635601222515106e-03 2.485194802284240723e-02 -7.747186347842216492e-03 1.304650772362947464e-02 1.316696405410766602e-02 -1.349794305860996246e-02 -1.027642167173326015e-03 1.156537886708974838e-02 -6.205335725098848343e-03 1.328352186828851700e-02 4.741889890283346176e-03 -3.024012781679630280e-02 4.937413614243268967e-03 5.999355576932430267e-03 -5.685258656740188599e-03 2.133834734559059143e-02 5.555388983339071274e-03 -9.506924077868461609e-03 1.027023885399103165e-02 1.727475039660930634e-02 3.984349314123392105e-03 1.008773315697908401e-02 1.651309058070182800e-02 1.792740635573863983e-02 5.792248528450727463e-03 -1.581426896154880524e-02 1.669512502849102020e-02 -2.969302237033843994e-03 2.255103550851345062e-02 2.216310240328311920e-02 -2.266231458634138107e-03 -5.832850001752376556e-03 1.135913282632827759e-02 -1.420391839928925037e-03 1.508151739835739136e-02 -1.982611417770385742e-02 -7.975391112267971039e-03 2.993828384205698967e-03 2.207543235272169113e-03 -6.109116598963737488e-03 -1.252716034650802612e-02 -1.269373390823602676e-02 -1.784852892160415649e-02 7.987606339156627655e-03 -2.423946280032396317e-03 3.995780833065509796e-03 9.731625206768512726e-03 7.776037324219942093e-03 -1.000095531344413757e-02 -2.484802529215812683e-02 -2.387989126145839691e-02 8.155300281941890717e-03 -6.921974942088127136e-03 2.354548545554280281e-03 -1.414905674755573273e-02 -1.458655577152967453e-02 -6.378974299877882004e-03 -2.699276059865951538e-02 1.690352708101272583e-02 -1.613714359700679779e-02 -1.411176472902297974e-02 1.438015419989824295e-02 -1.232773624360561371e-02 -1.633335836231708527e-02 1.839479431509971619e-02 3.474103286862373352e-02 -3.706639399752020836e-03 -5.395565181970596313e-03 -4.443972837179899216e-03 -1.349946577101945877e-02 -2.957718388643115759e-04 -6.584287621080875397e-03 1.273389719426631927e-02 -1.880057901144027710e-02 2.749626897275447845e-02 3.950646612793207169e-03 2.563323592767119408e-03 8.646246045827865601e-03 -1.718829758465290070e-02 -8.452179841697216034e-03 -1.458366587758064270e-02 -3.431078512221574783e-03 -4.140630830079317093e-03 -2.691938728094100952e-02 -5.608855281025171280e-03 -5.897355731576681137e-04 6.007043179124593735e-03 8.562233299016952515e-03 1.877466961741447449e-02 -4.637274518609046936e-02 -1.093771494925022125e-02 -3.223367733880877495e-03 1.248074602335691452e-02 1.428804639726877213e-02 1.240317337214946747e-02 -9.590532630681991577e-03 -4.341325722634792328e-03 -7.606470491737127304e-03 -1.671652495861053467e-02 1.325008366256952286e-02 -1.157605182379484177e-02 -2.564220875501632690e-02 -3.020093962550163269e-02 -1.109701953828334808e-02 1.106749009341001511e-02 -2.715006936341524124e-03 4.524020012468099594e-03 2.910917159169912338e-03 -1.141901407390832901e-02 -2.041503030341118574e-04 5.858185468241572380e-04 1.234201015904545784e-03 -1.182123087346553802e-02 -1.402913313359022141e-02 8.839161135256290436e-03 1.305148471146821976e-02 8.755260147154331207e-03 1.184616051614284515e-02 1.993048470467329025e-03 6.354982033371925354e-03 7.358702365309000015e-03 1.078438013792037964e-02 3.637449117377400398e-03 -1.916579529643058777e-02 -6.365224253386259079e-03 1.467270310968160629e-02 1.593448780477046967e-02 -2.245943614980205894e-04 -1.334188319742679596e-02 -1.961882598698139191e-02 -6.964110303670167923e-03 8.549690246582031250e-03 -9.429131634533405304e-03 2.262770012021064758e-02 -1.038612984120845795e-02 -4.901437088847160339e-03 1.400956697762012482e-02 -6.105748005211353302e-03 -3.242769744247198105e-03 9.284279309213161469e-03 3.864555852487683296e-03 3.708716947585344315e-03 8.975155651569366455e-03 -1.830293796956539154e-02 7.913011126220226288e-03 6.917833234183490276e-04 -4.408558364957571030e-03 2.168901264667510986e-02 -5.412999540567398071e-03 2.061963267624378204e-02 -1.190284360200166702e-02 1.772604882717132568e-02 -3.386607021093368530e-02 -2.053750446066260338e-03 8.301972411572933197e-03 6.732676178216934204e-03 4.275857470929622650e-03 3.452777629718184471e-03 -2.105149254202842712e-02 -1.843784353695809841e-03 -1.822448335587978363e-02 -9.194623678922653198e-03 -1.792083121836185455e-02
4.597890365403145552e-04 8.559552021324634552e-03 4.748705832753330469e-04 2.019830606877803802e-02 -2.311793528497219086e-02 1.287027448415756226e-02 3.320944088045507669e-04 1.052845828235149384e-02 1.500361482612788677e-03 1.218749117106199265e-02 9.873117320239543915e-03 2.535224705934524536e-02 -3.131613135337829590e-02 1.250932831317186356e-02 1.392002683132886887e-03 -1.279867719858884811e-02 -1.260067708790302277e-02 6.106802611611783504e-04 8.384242653846740723e-03 4.006567411124706268e-03 1.110646594315767288e-02 1.469730585813522339e-02 -2.639296092092990875e-02 -5.409647244960069656e-03 -1.175271067768335342e-02 -1.506500993855297565e-03 1.076207961887121201e-02 -1.905068196356296539e-02 -7.671701256185770035e-03 -1.473860442638397217e-02 1.833141595125198364e-02 3.167945425957441330e-03 -1.167161483317613602e-02 -3.229132667183876038e-02 8.058764971792697906e-03 9.390577673912048340e-03 -8.550641126930713654e-03 1.564983092248439789e-02 -4.571520257741212845e-03 -4.975841846317052841e-03 5.382143426686525345e-03 1.084409188479185104e-02 1.886086538434028625e-02 -1.039897650480270386e-02 -1.676975376904010773e-02 3.143971785902976990e-03 -1.360851898789405823e-02 -1.166377216577529907e-02 -2.869296586140990257e-03 -2.695109136402606964e-02 3.384579613339155912e-04 1.132667437195777893e-02 4.374612588435411453e-03 -1.008247840218245983e-03 1.961964368820190430e-02 -8.029851131141185760e-03 7.046692539006471634e-03 -1.325997803360223770e-02 -1.893556304275989532e-02 -7.657488342374563217e-03 -2.860424108803272247e-03 -3.799906466156244278e-03 -7.571049500256776810e-03 5.427435040473937988e-03 7.944404496811330318e-04 -3.309467807412147522e-03 1.523223239928483963e-02 -1.001431606709957123e-02 -2.238821052014827728e-02 6.125237792730331421e-03 -1.317473361268639565e-03 1.898095943033695221e-02 5.513346754014492035e-03 2.677407488226890564e-02 -1.770215854048728943e-02 2.420427510514855385e-03 -3.350058337673544884e-03 8.254598826169967651e-03 -1.002388354390859604e-02 1.129435189068317413e-02 -7.058264687657356262e-03 -1.176549308001995087e-02 4.457447212189435959e-03 -2.645708434283733368e-02 2.361503057181835175e-02 -1.999634690582752228e-02 -9.830716066062450409e-03 -1.560619473457336426e-02 -9.728679433465003967e-03 -2.438735961914062500e-02 7.575154304504394531e-03 5.527412868104875088e-04 -1.246038451790809631e-02 8.866636082530021667e-03 7.102533127181231976e-04 -1.425917167216539383e-02 -8.415957563556730747e-04 -4.062252584844827652e-03 1.386942900717258453e-02 -8.412528783082962036e-03 8.664106018841266632e-03 -1.508062519133090973e-02 -7.555111777037382126e-03 2.044719457626342773e-02 -2.180656185373663902e-03 1.403176225721836090e-02 -1.173010375350713730e-02 -1.328251138329505920e-02 -1.902228593826293945e-02 3.294931491836905479e-03 -2.669335715472698212e-02 1.355637214146554470e-04 -3.040647599846124649e-03 8.304040238726884127e-05 -8.708128705620765686e-03 4.372257273644208908e-03 1.555271726101636887e-02 -3.773023840039968491e-03 -2.344032691325992346e-04 2.068113302811980247e-03 6.710017565637826920e-03 -9.896016679704189301e-03 -1.159441564232110977e-02 5.511420313268899918e-03 -2.440575696527957916e-02 2.319309161975979805e-03 -2.962708007544279099e-03 9.913043119013309479e-03 3.889027750119566917e-03 -2.886891178786754608e-02 2.038977574557065964e-03 7.851083762943744659e-03 -1.289937086403369904e-02 -1.659756340086460114e-02 1.487902551889419556e-02 -5.403564311563968658e-03 1.355200167745351791e-02 2.431680634617805481e-02 -5.151571705937385559e-03 -9.964386001229286194e-03 5.640634335577487946e-03 6.827083416283130646e-03 -6.468810606747865677e-03 8.244724594987928867e-04 -7.176282815635204315e-03 -3.733885707333683968e-03 2.147645223885774612e-03 1.706362515687942505e-02 2.014841511845588684e-02 1.653025671839714050e-02 -1.361188944429159164e-02 -7.580142002552747726e-03 -1.845825836062431335e-02 1.133689936250448227e-02 1.235821843147277832e-02 1.650547794997692108e-02 2.162043564021587372e-02 1.700630038976669312e-02 -3.075855225324630737e-02 2.089212089776992798e-02 5.379357840865850449e-03 1.889578439295291901e-02 -4.932536743581295013e-03 1.553649920970201492e-02 -5.306096281856298447e-03 2.513404935598373413e-02 6.139426026493310928e-03 7.853439310565590858e-04 -2.342843264341354370e-02 -1.185483671724796295e-02 -1.932837441563606262e-02 7.530584116466343403e-04 -2.767420560121536255e-02 4.493979737162590027e-03 -2.293613972142338753e-03 1.213109493255615234e-02 -1.459142006933689117e-02 -2.052659168839454651e-02 -2.002696273848414421e-03 -8.427417837083339691e-03 1.932937279343605042e-02 -2.352174604311585426e-03 -1.359216496348381042e-02 2.058262005448341370e-03 -9.990390390157699585e-03 -4.901291336864233017e-03 -1.739592850208282471e-02 1.480655511841177940e-03 -2.224575029686093330e-03 -5.465801805257797241e-03 -1.292079128324985504e-02 -1.001796685159206390e-02 -4.903457593172788620e-03 -3.569282591342926025e-03 -4.058748017996549606e-03 1.463607884943485260e-02 2.628130465745925903e-02 8.575947023928165436e-03 -1.946444064378738403e-02 -2.960087265819311142e-03 -1.236540731042623520e-03 2.230243198573589325e-02 -5.898348987102508545e-03 1.853859424591064453e-02 -1.109684258699417114e-02 -1.721771992743015289e-02 5.148475058376789093e-03 7.532765739597380161e-04 -5.624573677778244019e-03 -6.949136964976787567e-03 -1.833890564739704132e-02 6.199282128363847733e-03 -1.395727274939417839e-03 2.069984748959541321e-02 2.625923953019082546e-04 1.205209922045469284e-02 -6.292816251516342163e-04 -3.945598378777503967e-03 -4.564652219414710999e-03 -1.126519683748483658e-02 4.331540316343307495e-03 -3.292892500758171082e-02 -2.155310101807117462e-02 -9.933076798915863037e-03 -7.526494446210563183e-04 4.298705141991376877e-03 -2.140371873974800110e-02 -6.471973843872547150e-03 -1.956222578883171082e-02 2.577824890613555908e-02 -2.991656074300408363e-03 1.467314548790454865e-02 -6.228410173207521439e-03 -1.778567954897880554e-02 -2.972589433193206787e-02 9.839250706136226654e-04 -1.769830286502838135e-02 -2.895419020205736160e-03 -1.876468583941459656e-02 5.023605655878782272e-03 -5.478190258145332336e-03 3.042985918000340462e-03 2.381411939859390259e-02 -2.812891080975532532e-02 -1.009002327919006348e-02 -1.594310812652111053e-02 1.291011832654476166e-02 -4.073336720466613770e-03 3.524456173181533813e-03 -1.862259581685066223e-02 -1.082445960491895676e-02 -1.725375885143876076e-03 6.521329749375581741e-03 3.276766976341605186e-03 -2.974304836243391037e-03 -8.786850608885288239e-03
2.058971486985683441e-02 -1.886026002466678619e-02 -7.497100625187158585e-03 2.462329529225826263e-02 -4.199819173663854599e-03 -3.046252019703388214e-02 -8.286770433187484741e-03 -1.500339899212121964e-02 2.820362104102969170e-03 -2.866599522531032562e-02 -6.593436934053897858e-03 -6.876484025269746780e-03 1.314864400774240494e-02 3.611922496929764748e-03 -2.414906583726406097e-02 -2.589206025004386902e-02 1.506520342081785202e-02 1.611097902059555054e-02 1.599879376590251923e-02 7.800491061061620712e-03 -9.665855206549167633e-03 -1.436386723071336746e-02 -1.016882434487342834e-02 -2.464155666530132294e-02 -1.857028156518936157e-02 -1.747550815343856812e-02 -7.664283737540245056e-03 -2.106864936649799347e-02 -1.648864522576332092e-02 -1.891861297190189362e-02 2.006428688764572144e-02 -1.310326810926198959e-02 -2.223820891231298447e-03 1.152725704014301300e-02 -8.918059989809989929e-03 -1.164694782346487045e-02 -2.089621499180793762e-02 -7.296320050954818726e-03 2.059791702777147293e-03 -1.507177390158176422e-02 2.679266035556793213e-02 1.743257977068424225e-02 -3.929943311959505081e-03 6.083231419324874878e-03 8.856086060404777527e-03 -1.892636902630329132e-02 -1.997353509068489075e-02 -7.005639839917421341e-03 2.799507603049278259e-02 -1.829520799219608307e-02 4.644736181944608688e-03 -1.495270337909460068e-02 -4.672832321375608444e-03 3.652807092294096947e-03 2.503407746553421021e-02 4.563343711197376251e-03 1.208349410444498062e-02 2.375813666731119156e-03 2.103007631376385689e-03 1.296187052503228188e-03 1.120650395750999451e-02 -1.172639243304729462e-02 4.998996388167142868e-03 2.814241684973239899e-02 4.301045555621385574e-03 2.928669191896915436e-02 3.964575007557868958e-03 -1.160347647964954376e-02 1.503368653357028961e-02 1.997348107397556305e-02 -7.785117719322443008e-03 4.666696768254041672e-03 -2.921333350241184235e-02 -4.266884177923202515e-03 1.810997165739536285e-02 1.193538121879100800e-02 1.605591177940368652e-02 -1.516823749989271164e-02 -1.300029363483190536e-02 -2.942908555269241333e-03 -6.356426747515797615e-04 -1.555050141178071499e-03 -3.924592863768339157e-03 -2.569989301264286041e-03 1.855340041220188141e-02 1.215970609337091446e-02 -9.148739278316497803e-03 2.249766141176223755e-03 -2.370414091274142265e-03 1.668726280331611633e-02 -3.466450376436114311e-03 1.472231931984424591e-02 3.031120402738451958e-03 -8.034099824726581573e-03 4.330527037382125854e-02 -1.718191057443618774e-02 -2.777806250378489494e-03 -2.514185756444931030e-02 -2.051173895597457886e-02 -2.113776281476020813e-02 7.955657318234443665e-03 -1.607665233314037323e-02 1.299796253442764282e-02 -7.235727272927761078e-03 -1.588876545429229736e-02 -1.300847344100475311e-02 1.658459566533565521e-02 2.673592977225780487e-02 -4.229547455906867981e-03 -7.883014157414436340e-03 -1.485017826780676842e-03 -7.015912793576717377e-03 -4.011815879493951797e-03 3.142684325575828552e-02 -1.534718926995992661e-02 1.460020802915096283e-02 1.008117385208606720e-02 -6.503906100988388062e-03 -4.197510425001382828e-03 -3.715002443641424179e-03 1.732194423675537109e-02 3.959257900714874268e-02 4.504409618675708771e-03 5.521814338862895966e-03 -1.081040967255830765e-02 1.074088457971811295e-02 2.757615642622113228e-03 8.137991651892662048e-03 1.752693951129913330e-02 -2.462177164852619171e-02 7.594270631670951843e-03 -9.089402854442596436e-03 -2.276262268424034119e-02 -3.881276398897171021e-02 -1.404173579066991806e-02 9.363486431539058685e-03 1.061222609132528305e-02 1.205072458833456039e-02 -2.450644969940185547e-04 -8.338402025401592255e-03 2.194268815219402313e-02 2.767735719680786133e-02 -1.675561629235744476e-02 1.064647268503904343e-02 1.308912783861160278e-02 -1.509139593690633774e-02 -8.513298816978931427e-03 -1.013866811990737915e-02 -8.834151551127433777e-03 1.823495258577167988e-03 -1.368003524839878082e-02 -1.160734915174543858e-03 -4.575199913233518600e-03 -3.071503946557641029e-03 2.136445976793766022e-02 1.766791194677352905e-02 -2.360920980572700500e-02 -2.824875060468912125e-03 6.553295068442821503e-03 1.805346272885799408e-02 3.398570697754621506e-04 1.210529450327157974e-02 1.912760920822620392e-02 -3.704822389408946037e-03 9.388609789311885834e-03 1.067376811988651752e-03 -8.802372030913829803e-03 1.009424123913049698e-02 9.516560821793973446e-04 -5.669179838150739670e-03 -1.312017557211220264e-03 -3.266508504748344421e-02 -8.873783983290195465e-03 -1.047186739742755890e-02 3.592332452535629272e-02 3.288672491908073425e-02 -1.416891161352396011e-02 -2.009778097271919250e-02 -5.654211854562163353e-04 -1.858957670629024506e-02 -1.039957627654075623e-02 -3.498716652393341064e-02 -1.148699503391981125e-02 2.162509784102439880e-02 -1.894601061940193176e-02 8.946411311626434326e-03 -1.073747314512729645e-02 -1.012546848505735397e-02 -1.732682995498180389e-02 1.541528943926095963e-02 -2.875591861084103584e-03 1.792016439139842987e-02 -7.569372653961181641e-03 -1.784243620932102203e-02 -1.447044964879751205e-02 3.419860964640974998e-03 3.377903997898101807e-02 -3.266033157706260681e-02 1.803079270757734776e-03 -1.893755607306957245e-02 1.176078617572784424e-02 -4.639586899429559708e-03 1.041552424430847168e-02 5.368247162550687790e-03 -1.605453714728355408e-02 -1.167198084294795990e-02 -6.213970016688108444e-03 1.356313936412334442e-03 -3.881009062752127647e-03 -1.506257802248001099e-02 6.314085330814123154e-04 -1.966839097440242767e-02 -1.874261349439620972e-02 1.260780636221170425e-02 4.731737077236175537e-03 -5.708582233637571335e-03 -1.179897412657737732e-02 1.381807122379541397e-02 4.183540586382150650e-03 2.539941342547535896e-03 1.860776171088218689e-02 -2.688526734709739685e-02 1.209426671266555786e-02 -3.782953601330518723e-03 4.454577807337045670e-03 -2.148947305977344513e-02 1.846473291516304016e-02 -5.023458506911993027e-03 1.718329079449176788e-02 1.302660163491964340e-02 -6.396859884262084961e-03 -2.059916965663433075e-02 1.584813743829727173e-02 3.788006026297807693e-03 -1.384548936039209366e-02 -7.464324124157428741e-03 1.623507589101791382e-02 -2.972159907221794128e-02 -1.029895991086959839e-02 -1.135467924177646637e-02 1.493897102773189545e-02 -5.467537324875593185e-03 -5.091388709843158722e-03 -1.985749416053295135e-02 2.950172172859311104e-03 -1.784424483776092529e-02 2.466380968689918518e-02 -1.758661819621920586e-03 -1.825761981308460236e-02 -1.375325024127960205e-02 2.078580437228083611e-03 7.865883409976959229e-03 1.139910239726305008e-02 6.367562804371118546e-03 -2.784102689474821091e-03 -2.802268601953983307e-02
-1.772498898208141327e-02 9.376872330904006958e-03 2.726844698190689087e-02 3.602083306759595871e-03 2.079691737890243530e-03 -5.864078179001808167e-03 4.235837259329855442e-04 -1.233707554638385773e-02 -1.467977557331323624e-02 -6.702444981783628464e-03 4.263454582542181015e-03 1.418702863156795502e-02 1.696550659835338593e-02 -3.050264203920960426e-03 -2.122939191758632660e-02 -5.758295301347970963e-03 1.164312660694122314e-02 -9.964163415133953094e-03 5.134777631610631943e-03 -9.333943016827106476e-03 2.359683858230710030e-03 9.259003214538097382e-03 -1.180709898471832275e-02 3.153415396809577942e-03 -1.116723846644163132e-02 2.964386716485023499e-03 -1.291512046009302139e-02 1.175720803439617157e-02 9.167218580842018127e-03 9.138780646026134491e-03 -1.735264901071786880e-03 -1.492347940802574158e-02 2.155327424407005310e-02 1.872241613455116749e-03 1.748232915997505188e-02 6.329811178147792816e-03 -1.672759093344211578e-02 1.520865783095359802e-02 -1.602691598236560822e-02 6.773314904421567917e-03 5.877945572137832642e-03 2.362356288358569145e-03 -2.394307404756546021e-02 -1.874972507357597351e-02 7.554395589977502823e-03 7.939862087368965149e-03 -1.850345171988010406e-02 6.317256484180688858e-03 -1.441132836043834686e-02 2.775012329220771790e-02 1.130141690373420715e-02 -9.284754050895571709e-04 1.455948222428560257e-04 -1.315273717045783997e-02 -1.039614528417587280e-02 -2.562732063233852386e-02 -6.457609124481678009e-03 -7.593617774546146393e-03 -3.372815251350402832e-02 -1.192542724311351776e-02 -1.488008908927440643e-02 3.032099339179694653e-04 1.804989203810691833e-02 1.904792268760502338e-03 1.683682948350906372e-02 1.255462411791086197e-02 -2.176321484148502350e-02 5.332713946700096130e-03 -5.666304379701614380e-03 -2.320878207683563232e-02 7.068805862218141556e-04 -3.803414851427078247e-02 1.105479337275028229e-02 1.569576747715473175e-02 -5.667347926646471024e-03 2.770219184458255768e-02 1.370696164667606354e-02 -2.182178385555744171e-02 -1.500663626939058304e-02 2.395267412066459656e-02 6.623780820518732071e-03 -8.286425843834877014e-03 -1.459566596895456314e-02 9.348089806735515594e-03 -1.376973558217287064e-02 -3.025064989924430847e-02 -1.105994172394275665e-02 1.206543063744902611e-03 -1.503928098827600479e-02 -3.846797160804271698e-03 5.086778197437524796e-03 -5.198853323236107826e-04 -9.368792176246643066e-03 -4.808903671801090240e-03 -6.448763888329267502e-03 6.331563927233219147e-03 9.809555485844612122e-03 -2.466298639774322510e-03 5.510665476322174072e-03 -9.532220661640167236e-03 1.753109134733676910e-02 -1.428151316940784454e-02 -3.687417134642601013e-02 -1.291705481708049774e-02 1.383518055081367493e-02 -1.007126457989215851e-02 -1.880608126521110535e-02 -7.302178069949150085e-03 1.361930835992097855e-02 3.227928653359413147e-03 -2.797172637656331062e-03 -4.533940460532903671e-03 2.778309024870395660e-02 -5.701203830540180206e-03 9.652272798120975494e-03 7.975979708135128021e-03 1.670786924660205841e-02 -5.991804879158735275e-03 -8.855972439050674438e-03 -1.159362494945526123e-02 7.012197747826576233e-03 -8.400700986385345459e-03 5.175061989575624466e-03 1.023847144097089767e-03 -6.170496810227632523e-03 -2.998783485963940620e-03 1.493386365473270416e-02 -3.742766275536268950e-04 -3.336008521728217602e-04 3.437512321397662163e-03 1.680505275726318359e-02 1.558375079184770584e-02 7.351859938353300095e-03 -3.399895504117012024e-02 -1.185505371540784836e-02 3.865171922370791435e-03 1.903457567095756531e-02 2.116541936993598938e-02 -9.505008347332477570e-03 1.502432278357446194e-03 -3.754114150069653988e-04 1.128687337040901184e-02 -5.018270108848810196e-03 -2.202168339863419533e-03 7.572322618216276169e-03 -3.067030105739831924e-03 2.916714921593666077e-02 2.199148386716842651e-02 -1.350971311330795288e-02 8.694608695805072784e-03 5.844108294695615768e-03 2.057363977655768394e-03 9.320191107690334320e-03 1.161606144160032272e-02 9.775859070941805840e-04 1.825805194675922394e-02 -9.086000733077526093e-03 8.371003903448581696e-03 3.021458350121974945e-02 6.662290543317794800e-03 -1.562408171594142914e-02 -9.390585124492645264e-03 -3.679343964904546738e-03 -2.968694269657135010e-02 -1.524666137993335724e-02 1.322395168244838715e-02 1.963265798985958099e-02 1.689307950437068939e-02 -1.927330531179904938e-02 -3.912943415343761444e-03 -3.677222644910216331e-03 -7.029144559055566788e-03 -3.363130148500204086e-03 1.618948299437761307e-03 1.676788926124572754e-02 8.535152301192283630e-04 -8.234681561589241028e-03 -6.331187323667109013e-04 -2.752454020082950592e-03 3.807134460657835007e-03 -7.850606925785541534e-03 1.724901236593723297e-02 -4.417451098561286926e-02 8.693504147231578827e-03 9.097467176616191864e-03 2.079409547150135040e-02 6.081413477659225464e-03 1.030798722058534622e-02 -9.305396088166162372e-05 -1.075258851051330566e-02 3.428059862926602364e-04 1.842154376208782196e-02 -1.137115247547626495e-02 -5.826879292726516724e-03 -1.930629462003707886e-02 -8.487337618134915829e-05 -2.823162078857421875e-02 5.288317915983498096e-04 1.120785810053348541e-02 -1.169930677860975266e-02 -7.493637036532163620e-03 -5.232281400822103024e-04 -3.931830869987607002e-04 -1.508937496691942215e-02 -1.171275321394205093e-02 1.749251596629619598e-02 -1.057262998074293137e-02 8.047667215578258038e-04 1.236701849848031998e-02 3.518525278195738792e-03 1.067113969475030899e-02 -6.663264706730842590e-03 -3.789457259699702263e-03 8.893965743482112885e-03 9.154601953923702240e-03 4.817313514649868011e-03 -8.332697674632072449e-03 7.241370622068643570e-04 -1.276798895560204983e-03 -2.377754636108875275e-02 1.245315652340650558e-02 -1.337449066340923309e-02 -2.041082596406340599e-03 6.335660349577665329e-03 8.463474805466830730e-04 -3.135199844837188721e-02 5.718547385185956955e-03 5.912689957767724991e-03 -2.028381079435348511e-02 -2.884473418816924095e-03 -1.606150902807712555e-02 3.601049305871129036e-03 -1.322781573981046677e-02 4.220382310450077057e-03 -4.765050020068883896e-03 1.366642862558364868e-02 5.503620952367782593e-03 -1.010954286903142929e-02 4.973141010850667953e-03 -6.177809555083513260e-03 -3.316661110147833824e-03 1.800028979778289795e-02 -1.560916937887668610e-02 2.654832787811756134e-02 -2.211961895227432251e-03 1.447358727455139160e-02 -2.721605263650417328e-02 4.669794347137212753e-03 -2.974983537569642067e-03 1.352415140718221664e-02 -2.752868691459298134e-03 -3.188678296282887459e-03 4.209137707948684692e-02 -1.966996118426322937e-02 1.251973304897546768e-02 -2.075967378914356232e-02
8.358141407370567322e-03 -3.954614512622356415e-03 -9.419520385563373566e-03 -9.665735997259616852e-03 1.646183314733207226e-03 3.274380788207054138e-02 6.595098413527011871e-03 -1.677327789366245270e-02 -8.700708858668804169e-03 9.062809869647026062e-03 -2.711224369704723358e-03 -4.487106110900640488e-03 7.380647119134664536e-03 -2.359350444748997688e-03 1.044646929949522018e-02 7.916166447103023529e-03 6.421203259378671646e-03 1.404900569468736649e-03 -2.194813266396522522e-02 -2.200156915932893753e-03 1.270447950810194016e-02 -1.317953877151012421e-02 -2.302916953340172768e-03 -1.234009023755788803e-02 -1.736636087298393250e-02 4.798654466867446899e-03 6.427319720387458801e-03 7.247112691402435303e-03 -7.231177296489477158e-04 -2.083835005760192871e-02 8.014469407498836517e-03 -6.026798859238624573e-03 -6.865039467811584473e-03 -3.658414818346500397e-03 2.357956394553184509e-02 3.165768692269921303e-03 -1.033427007496356964e-02 -7.925246027298271656e-04 1.384035102091729641e-03 -7.724985014647245407e-03 -5.143790040165185928e-03 -1.457018405199050903e-02 1.057334709912538528e-02 1.528464723378419876e-03 -1.627676654607057571e-03 -6.767222657799720764e-03 -2.545434515923261642e-03 6.553407758474349976e-03 6.862484151497483253e-04 9.426030330359935760e-03 3.987594507634639740e-03 -3.643473144620656967e-03 -2.665216801688075066e-03 -4.464321304112672806e-03 1.176960766315460205e-02 8.900871500372886658e-03 1.411998295225203037e-03 2.345405286177992821e-03 4.480584058910608292e-03 -8.362449705600738525e-03 -1.373090199194848537e-03 1.148092467337846756e-02 3.773040371015667915e-03 2.136285183951258659e-03 6.954423151910305023e-03 -8.797817863523960114e-03 -4.953667987138032913e-03 1.315733417868614197e-03 2.068016864359378815e-02 8.775506168603897095e-03 -4.402336198836565018e-03 -5.387830315157771111e-04 6.271733436733484268e-03 1.059895567595958710e-02 8.060260675847530365e-03 1.607360690832138062e-02 3.565172664821147919e-03 1.543333381414413452e-02 1.307760132476687431e-03 -5.169317126274108887e-03 -4.801622126251459122e-03 3.508511185646057129e-02 -2.005794551223516464e-03 7.801137398928403854e-03 6.082565523684024811e-03 4.909190465696156025e-04 1.488359458744525909e-02 -1.906804856844246387e-03 -4.983307328075170517e-03 3.703529480844736099e-03 -8.436698466539382935e-03 1.943641691468656063e-03 -7.210337091237306595e-03 -4.832575563341379166e-03 -1.469572074711322784e-02 -4.153681453317403793e-03 -3.501415485516190529e-04 -8.917130529880523682e-03 2.235099440440535545e-03 1.434621773660182953e-02 7.610374595969915390e-03 1.499584759585559368e-03 -1.213331823237240314e-03 -1.067505218088626862e-02 -7.840787875466048717e-04 -1.028725784271955490e-02 6.675807759165763855e-03 6.421386729925870895e-03 -5.438989493995904922e-03 1.663938537240028381e-02 -4.912662785500288010e-03 9.732246398925781250e-03 3.614889865275472403e-04 1.738318242132663727e-02 -1.078194472938776016e-02 -6.641710177063941956e-03 -1.967442221939563751e-03 1.209830213338136673e-02 -7.063707336783409119e-03 -2.574202232062816620e-02 5.299089942127466202e-03 -4.085225053131580353e-03 -1.591620966792106628e-02 -1.529362611472606659e-02 5.521805956959724426e-03 9.597965516149997711e-03 5.008100531995296478e-03 8.419142104685306549e-03 -6.127337925136089325e-03 -1.169523503631353378e-02 6.186351529322564602e-04 -1.590446755290031433e-02 -3.868442960083484650e-03 2.417433308437466621e-03 -4.042705986648797989e-03 1.673509553074836731e-02 -1.573068834841251373e-02 1.533634494990110397e-02 -2.489099046215415001e-03 2.054239623248577118e-02 -1.604451797902584076e-02 -2.372766844928264618e-03 8.658388629555702209e-03 -1.263599935919046402e-02 1.508717890828847885e-02 -1.777155906893312931e-03 1.041919458657503128e-02 4.949674941599369049e-03 -1.150756701827049255e-02 1.155460346490144730e-02 3.686666022986173630e-03 -1.119031012058258057e-02 1.126361172646284103e-02 2.730704145506024361e-03 -1.059272419661283493e-02 1.114745251834392548e-02 9.391668252646923065e-03 3.831072943285107613e-03 -1.607114635407924652e-02 3.177261445671319962e-03 -3.144768998026847839e-03 8.835825719870626926e-04 6.968272849917411804e-03 2.359268441796302795e-02 8.780651725828647614e-03 -5.077085457742214203e-03 -5.511385388672351837e-03 8.496299386024475098e-03 1.056625694036483765e-02 1.667758263647556305e-02 1.032728143036365509e-02 -1.486063562333583832e-02 -1.244421489536762238e-02 2.832624316215515137e-02 -4.409638058859854937e-04 -9.229437448084354401e-03 3.743601846508681774e-04 -7.942043012008070946e-04 -8.480424992740154266e-03 -1.157168182544410229e-03 -2.222448028624057770e-02 6.769171915948390961e-03 -1.183130126446485519e-02 7.826230488717556000e-03 -1.762125873938202858e-03 -1.362471096217632294e-02 -1.193062588572502136e-02 -7.029738044366240501e-04 1.960885897278785706e-02 -4.114170093089342117e-03 -3.896805690601468086e-03 1.237758668139576912e-03 1.180830039083957672e-02 -8.648869581520557404e-03 1.523737446404993534e-03 -3.815007628872990608e-03 -3.745869034901261330e-03 1.109251100569963455e-02 2.300341613590717316e-03 -6.462139543145895004e-03 -4.825634416192770004e-03 -8.378971368074417114e-03 -1.229307893663644791e-02 -1.980380853638052940e-03 -3.699834691360592842e-03 7.146480958908796310e-03 3.588941646739840508e-03 2.833347581326961517e-02 1.271146163344383240e-02 3.916031681001186371e-03 5.060592666268348694e-03 6.487355567514896393e-04 -2.176014333963394165e-02 2.156857214868068695e-02 -4.276046238373965025e-04 9.452132508158683777e-03 -8.388538844883441925e-03 -2.996370894834399223e-03 2.090293710352852941e-04 1.604871638119220734e-02 7.901214994490146637e-03 -1.504931133240461349e-03 -2.268912503495812416e-04 -8.517951704561710358e-03 -5.234773852862417698e-04 1.019302103668451309e-02 8.736346848309040070e-03 1.265226583927869797e-02 -3.569619962945580482e-03 1.730247051455080509e-03 -1.277652755379676819e-02 1.063943374902009964e-03 -3.000243799760937691e-03 -6.916543468832969666e-03 2.485208213329315186e-03 -1.910446397960186005e-02 -3.300360171124339104e-03 8.363287895917892456e-03 7.196229416877031326e-04 5.254231393337249756e-03 -4.993584938347339630e-03 -6.215135799720883369e-04 1.687969639897346497e-02 4.100213700439780951e-04 1.336954650469124317e-03 1.906165038235485554e-03 -9.418275207281112671e-03 7.520225364714860916e-03 6.610353477299213409e-03 -4.307594615966081619e-03 2.214622125029563904e-02 -6.722228135913610458e-03 3.799034981057047844e-03 -3.328502411022782326e-03 1.708467304706573486e-02 -2.527021104469895363e-03
-6.144982296973466873e-03 7.495724130421876907e-03 2.120112441480159760e-02 -4.333082586526870728e-03 5.846294108778238297e-03 -2.284019812941551208e-02 -7.097467780113220215e-03 -8.836774155497550964e-03 4.441927652806043625e-03 4.406323190778493881e-03 -1.237264834344387054e-02 -2.412095200270414352e-03 4.022051114588975906e-03 1.721822470426559448e-02 1.935449056327342987e-02 -7.397972047328948975e-03 1.099457405507564545e-02 -5.810642614960670471e-03 5.092072766274213791e-03 1.348002720624208450e-02 3.857234492897987366e-03 -4.040374979376792908e-02 1.827629655599594116e-02 -1.080859173089265823e-02 -1.453272439539432526e-02 -1.013653445988893509e-02 1.512807235121726990e-02 1.374998223036527634e-02 -3.620839491486549377e-02 9.774957783520221710e-03 -9.575173258781433105e-03 2.267764881253242493e-03 -9.834589436650276184e-03 1.658374816179275513e-02 -1.491883210837841034e-02 -3.435665043070912361e-03 6.720740348100662231e-03 5.758129060268402100e-03 7.371105602942407131e-04 -3.914522938430309296e-03 6.946315057575702667e-03 8.459101081825792789e-05 2.670030109584331512e-03 1.748508587479591370e-02 -1.364989019930362701e-02 1.335905049927532673e-03 7.647576276212930679e-03 2.598325663711875677e-04 1.774448715150356293e-02 -2.111437171697616577e-02 2.552119316533207893e-03 2.805865136906504631e-03 1.809199154376983643e-02 1.441140752285718918e-02 -1.910934597253799438e-02 4.978386219590902328e-03 2.835521847009658813e-02 7.307282183319330215e-03 -2.306472975760698318e-03 6.349353119730949402e-03 1.113693695515394211e-02 -8.462406694889068604e-03 6.914818193763494492e-03 -1.624784246087074280e-02 5.793077405542135239e-03 3.426401410251855850e-03 -2.353248000144958496e-02 -1.679558865725994110e-02 -1.347361598163843155e-02 3.195727942511439323e-03 -3.771746531128883362e-03 -8.565615862607955933e-03 -3.915774635970592499e-03 -1.115647610276937485e-02 8.211172185838222504e-03 -3.514157142490148544e-03 -3.713123733177781105e-03 6.008134223520755768e-03 8.031135424971580505e-03 2.077559381723403931e-02 -2.739062719047069550e-02 -1.243612729012966156e-02 -4.630653187632560730e-03 -1.035576779395341873e-02 -4.030440468341112137e-03 1.566001772880554199e-02 -1.014338899403810501e-02 -2.940256334841251373e-02 8.406091481447219849e-03 1.149696484208106995e-02 2.865934371948242188e-02 1.115179527550935745e-02 6.591681391000747681e-03 2.075511589646339417e-02 1.115351356565952301e-02 -1.570685766637325287e-02 -5.223424639552831650e-03 -3.036886220797896385e-03 -1.229404564946889877e-02 1.378120668232440948e-02 -2.784081734716892242e-02 1.319897454231977463e-02 3.172399848699569702e-02 -5.643840879201889038e-03 8.326504379510879517e-03 -1.371441967785358429e-02 -4.836218431591987610e-03 -3.328594029881060123e-04 -6.373979267664253712e-04 -1.210832130163908005e-02 -3.864363534376025200e-03 -5.294120870530605316e-03 -9.206001646816730499e-03 1.306269504129886627e-02 -1.202033460140228271e-02 2.160684950649738312e-02 9.581956546753644943e-04 -7.517358288168907166e-03 -2.245370065793395042e-03 -5.065143108367919922e-03 4.728752188384532928e-03 -5.477588623762130737e-03 -2.817607112228870392e-02 1.218408253043889999e-02 -1.009028498083353043e-02 -2.372999116778373718e-02 1.237774547189474106e-02 3.914188593626022339e-03 -2.838433953002095222e-03 2.613727562129497528e-02 -2.278766036033630371e-02 6.151535548269748688e-03 2.147398889064788818e-03 2.738830167800188065e-03 -2.842963114380836487e-02 -6.100079976022243500e-03 2.202225849032402039e-02 -1.519992481917142868e-03 1.568810269236564636e-02 -4.637154750525951385e-03 -5.994927138090133667e-03 -3.008217178285121918e-02 -6.607917137444019318e-03 7.195265498012304306e-03 8.121613413095474243e-03 -4.106301348656415939e-03 2.175567485392093658e-02 1.004794612526893616e-02 -2.432868443429470062e-02 1.769981579855084419e-03 1.454916223883628845e-02 3.807151224464178085e-04 -1.536206807941198349e-02 -4.566622897982597351e-03 -2.103579603135585785e-02 -1.024689897894859314e-02 -4.569597542285919189e-02 -2.509170211851596832e-02 -1.532141468487679958e-03 1.044529117643833160e-02 -1.765556260943412781e-02 -4.330431576818227768e-03 1.976730488240718842e-02 2.487999573349952698e-02 -1.538200397044420242e-02 -3.701007226482033730e-03 2.349445363506674767e-03 5.418264120817184448e-02 8.093455806374549866e-03 1.172800268977880478e-02 1.942939497530460358e-02 8.471271721646189690e-04 1.261624135076999664e-02 -1.113281957805156708e-02 1.845275051891803741e-02 1.407197955995798111e-02 -1.835287548601627350e-02 -8.518063463270664215e-03 -2.351479232311248779e-02 9.818589314818382263e-03 -2.390807494521141052e-02 -8.382877334952354431e-03 1.227234769612550735e-02 -1.554804202169179916e-02 -6.449234206229448318e-03 -5.952433682978153229e-03 2.008219063282012939e-02 3.239906206727027893e-02 1.825041696429252625e-02 -9.635742753744125366e-03 6.426039151847362518e-03 -8.860738947987556458e-03 2.467305585741996765e-02 8.303008042275905609e-03 -8.742135018110275269e-03 -2.247357508167624474e-03 -2.722483873367309570e-02 -1.307549048215150833e-02 -8.733558468520641327e-03 -1.495909318327903748e-02 -1.534575363621115685e-03 1.458580978214740753e-02 -3.132095327600836754e-03 1.202586013823747635e-02 1.601539179682731628e-02 -2.348258346319198608e-02 -2.034352719783782959e-02 -1.659130491316318512e-02 1.413767598569393158e-02 7.410678081214427948e-03 1.040209271013736725e-02 -4.113705363124608994e-03 6.850589066743850708e-03 -5.203978507779538631e-04 1.320563908666372299e-02 2.051754156127572060e-03 -4.249284043908119202e-03 -2.797476015985012054e-02 2.649190463125705719e-02 9.823441505432128906e-03 -1.001495867967605591e-02 1.350922696292400360e-02 9.677596390247344971e-03 -4.978074503014795482e-05 -8.652835153043270111e-03 1.286290353164076805e-03 -2.106062835082411766e-03 -9.902797173708677292e-04 -1.835312880575656891e-02 -1.162661472335457802e-03 9.317785501480102539e-03 -2.650465071201324463e-02 3.859747899696230888e-03 -1.865537464618682861e-02 -3.677319735288619995e-03 1.979205384850502014e-02 8.076784200966358185e-03 -4.431790206581354141e-03 2.793177496641874313e-03 -2.758404426276683807e-02 -1.317387167364358902e-02 -4.513220861554145813e-03 2.397264726459980011e-02 -2.910450659692287445e-02 -2.553529106080532074e-03 -5.946300923824310303e-03 1.383419148623943329e-02 1.648554392158985138e-02 2.511723898351192474e-02 8.207482285797595978e-03 -1.413718797266483307e-02 9.106696583330631256e-03 -1.163046620786190033e-02 9.247233159840106964e-03 -8.039475651457905769e-04 -1.556369569152593613e-02
-1.116118393838405609e-02 -7.653467822819948196e-03 1.979596912860870361e-02 -1.436099689453840256e-02 5.629006773233413696e-03 -2.159941243007779121e-03 3.810462774708867073e-03 -4.283166024833917618e-03 -2.393686771392822266e-02 -4.084102343767881393e-03 -7.113681058399379253e-04 -1.780398935079574585e-02 -1.416440401226282120e-02 -1.632659323513507843e-02 -8.153318427503108978e-03 6.990563124418258667e-03 3.677434287965297699e-03 -9.578660130500793457e-03 1.493437774479389191e-02 -9.337023831903934479e-03 -4.025456495583057404e-03 -2.937239332823082805e-05 -2.126446180045604706e-02 1.966818794608116150e-02 -2.844123868271708488e-03 5.120013840496540070e-03 8.647469803690910339e-03 3.417306765913963318e-02 1.092244870960712433e-03 -2.811076585203409195e-03 -8.825266733765602112e-03 -1.344097591936588287e-02 1.642103120684623718e-02 9.261602535843849182e-03 1.019795518368482590e-02 -1.627059653401374817e-03 8.164022117853164673e-03 -1.392501220107078552e-02 -6.560158915817737579e-03 1.066633034497499466e-02 8.939430117607116699e-03 -1.463206578046083450e-02 -7.140637375414371490e-03 2.013354189693927765e-02 -1.555124297738075256e-03 6.091366056352853775e-03 1.028050854802131653e-02 -8.806977421045303345e-03 1.558090839534997940e-02 -1.376858726143836975e-02 3.031589323654770851e-03 1.950471289455890656e-02 8.224917575716972351e-03 1.591381244361400604e-02 -2.026231959462165833e-02 3.447265923023223877e-02 -9.499891661107540131e-03 9.664673358201980591e-03 -3.716382011771202087e-02 1.556402537971735001e-02 -1.514651626348495483e-02 3.570847678929567337e-03 -3.790418850257992744e-03 2.152896672487258911e-02 9.742511436343193054e-03 9.823564440011978149e-03 -1.978070009499788284e-03 -1.141907647252082825e-02 -7.049181032925844193e-03 2.995389327406883240e-02 -3.229505091439932585e-04 -1.038707210682332516e-03 -2.708964515477418900e-03 -1.025702245533466339e-02 4.914535209536552429e-03 -1.353077124804258347e-02 -1.169351302087306976e-02 -6.161388475447893143e-03 6.182137876749038696e-04 3.122852416709065437e-03 -1.792691089212894440e-02 -1.292655058205127716e-02 2.022560313344001770e-02 8.516512811183929443e-03 6.640891660936176777e-04 -1.126883085817098618e-02 -1.816459186375141144e-02 1.792572811245918274e-02 -5.407856777310371399e-03 -6.092734169214963913e-03 -5.798823549412190914e-04 -2.690667472779750824e-02 -2.151600830256938934e-02 -9.850991889834403992e-03 -2.926481887698173523e-02 4.689603578299283981e-03 -5.902145523577928543e-03 1.196355093270540237e-03 9.380117990076541901e-03 1.841234858147799969e-03 -1.122518908232450485e-02 -5.983237060718238354e-04 9.122480638325214386e-03 1.584297418594360352e-02 1.594137214124202728e-02 -8.788830018602311611e-04 3.073865734040737152e-02 -8.166340179741382599e-03 -1.606699428521096706e-03 -1.462408807128667831e-02 2.416498959064483643e-03 -1.828273572027683258e-02 -1.389459334313869476e-02 -1.379565428942441940e-02 2.035499783232808113e-03 -1.051087863743305206e-02 3.939436282962560654e-03 -1.494349166750907898e-02 1.197604462504386902e-02 5.062120500952005386e-03 -1.109659764915704727e-02 -2.648724615573883057e-02 -1.661298982799053192e-02 -1.765746809542179108e-02 6.180241703987121582e-03 6.491573294624686241e-04 -2.547022886574268341e-03 -1.030707615427672863e-03 -1.039990107528865337e-03 -9.936306159943342209e-04 -1.194674242287874222e-02 6.914843805134296417e-03 -7.448575925081968307e-03 -1.669241487979888916e-02 -1.142514590173959732e-02 -5.132548511028289795e-03 -2.237311797216534615e-03 1.356796454638242722e-02 1.896356977522373199e-02 -1.621095836162567139e-02 -1.969466917216777802e-02 7.159097003750503063e-04 2.942596934735774994e-02 -8.566766045987606049e-03 -6.815684493631124496e-03 8.823047392070293427e-03 1.561618782579898834e-02 -6.374051794409751892e-03 -1.015855744481086731e-02 6.677395664155483246e-03 -2.465996891260147095e-02 -1.948969252407550812e-02 6.996070500463247299e-03 1.750476472079753876e-02 -6.976458244025707245e-04 -1.283521298319101334e-02 1.274644117802381516e-02 -5.986632779240608215e-03 -4.005264025181531906e-03 3.713166341185569763e-03 -6.506439298391342163e-03 -2.539299242198467255e-02 -1.269689388573169708e-02 -1.843480160459876060e-03 -3.973535075783729553e-02 -8.012479171156883240e-03 -6.298359221545979381e-05 -1.436239294707775116e-02 5.221851635724306107e-03 1.112842466682195663e-02 1.093712635338306427e-02 6.977901328355073929e-03 -1.158736180514097214e-02 1.997058279812335968e-02 1.069876831024885178e-03 5.447486415505409241e-03 -1.542478799819946289e-02 1.656770519912242889e-02 -1.340359728783369064e-02 5.288938991725444794e-03 -1.244293898344039917e-02 1.685564965009689331e-02 4.177163168787956238e-02 -5.888075102120637894e-04 1.611421816051006317e-02 9.595003910362720490e-03 1.436627469956874847e-03 2.112887240946292877e-02 1.289246720261871815e-03 4.298066720366477966e-03 -1.080757752060890198e-02 3.368254285305738449e-03 -1.340436376631259918e-02 -7.260786369442939758e-03 -3.680869704112410545e-03 4.254049155861139297e-03 6.636481266468763351e-03 1.874203793704509735e-02 -1.331076212227344513e-02 1.685124821960926056e-02 1.908389292657375336e-02 -3.674748120829463005e-03 -1.445087487809360027e-03 2.136214869096875191e-03 -1.328231417573988438e-03 2.715319208800792694e-02 2.374791167676448822e-02 6.232134997844696045e-03 2.428142353892326355e-02 -1.179680414497852325e-02 9.068385697901248932e-03 1.987710967659950256e-02 -5.405217874795198441e-03 6.591527257114648819e-03 -2.349745295941829681e-02 -7.520100101828575134e-03 7.513027172535657883e-03 1.448853220790624619e-02 2.087725326418876648e-02 1.293229125440120697e-02 -2.064155600965023041e-02 -8.668465889059007168e-04 -7.733157370239496231e-03 -5.792928393930196762e-03 1.588909886777400970e-02 2.152361720800399780e-02 2.510078193154186010e-04 -1.013575587421655655e-02 -5.005110986530780792e-03 1.408011466264724731e-02 -7.071358151733875275e-03 2.848762646317481995e-02 1.324874628335237503e-02 7.931173779070377350e-03 -9.988610632717609406e-03 1.159875933080911636e-02 9.993160143494606018e-03 -1.690694130957126617e-03 1.699276082217693329e-02 -1.959254406392574310e-02 1.304849330335855484e-02 1.524352934211492538e-02 2.297811955213546753e-02 -1.138096582144498825e-02 3.113911952823400497e-03 1.754450611770153046e-02 5.818217177875339985e-04 -7.011256646364927292e-03 1.837933622300624847e-02 1.308190263807773590e-02 -3.443540632724761963e-02 1.014566048979759216e-02 1.468687900342047215e-03 -9.486124850809574127e-03 -1.728304103016853333e-02 3.405647817999124527e-03
-1.965428004041314125e-03 -1.755370199680328369e-02 1.090267859399318695e-02 -2.393143996596336365e-02 2.608320862054824829e-02 1.197869144380092621e-02 1.877604983747005463e-02 -1.266044564545154572e-02 -2.067134901881217957e-02 1.272304076701402664e-02 -8.691561408340930939e-03 -2.033740282058715820e-02 -3.682157490402460098e-03 2.532322425395250320e-03 1.422814559191465378e-02 1.872791722416877747e-02 -1.601733849383890629e-03 -8.770097629167139530e-04 9.508756920695304871e-03 7.677580229938030243e-03 9.612391702830791473e-03 -3.317060181871056557e-03 1.491891220211982727e-02 -2.195488894358277321e-03 5.962507799267768860e-03 -7.124476134777069092e-03 2.258840575814247131e-02 1.249330211430788040e-02 -3.499038575682789087e-04 -4.555867519229650497e-03 -5.211801268160343170e-03 -2.619318850338459015e-02 -5.645868834108114243e-03 -1.582478435011580586e-04 1.061561866663396358e-03 -4.961682134307920933e-04 8.922137320041656494e-03 2.206113934516906738e-02 6.376469973474740982e-03 -1.692277751863002777e-02 7.028106134384870529e-03 -1.144131366163492203e-02 1.152394033852033317e-04 1.208597142249345779e-02 -2.359971962869167328e-02 -2.302322391187772155e-04 3.363261464983224869e-03 9.688570164144039154e-03 1.111818756908178329e-02 1.120518520474433899e-02 -2.369658648967742920e-02 -1.686735264956951141e-02 -7.061386946588754654e-03 -1.196499634534120560e-02 -2.332232892513275146e-02 -2.250225096940994263e-02 1.528693083673715591e-02 -2.419622614979743958e-02 3.767831251025199890e-03 6.242925766855478287e-03 -2.168229036033153534e-02 4.504262935370206833e-03 8.089915849268436432e-03 1.594074629247188568e-02 -1.968260388821363449e-03 -4.608817398548126221e-03 -9.722120128571987152e-03 1.096587162464857101e-02 2.683789469301700592e-02 -8.420245721936225891e-03 -2.421144023537635803e-02 -1.018814276903867722e-02 -4.740403965115547180e-03 -2.422688528895378113e-02 -4.061391111463308334e-03 4.063858650624752045e-03 5.441754590719938278e-03 -5.821992177516222000e-03 -2.382054552435874939e-02 -1.684326119720935822e-02 8.036555722355842590e-03 2.073614299297332764e-02 -1.754095964133739471e-02 -2.746000327169895172e-02 -1.746280118823051453e-02 2.789311343804001808e-03 7.146167103201150894e-03 3.187602560501545668e-04 -3.081194870173931122e-02 1.221451163291931152e-02 -6.418089382350444794e-03 -1.126695331186056137e-02 -2.077144011855125427e-02 8.316701278090476990e-03 -4.390110261738300323e-03 1.724102720618247986e-02 3.494853386655449867e-03 -1.212381944060325623e-02 3.827932523563504219e-03 -1.114872656762599945e-02 4.884469090029597282e-04 -4.299414344131946564e-03 -3.247675951570272446e-03 5.579786840826272964e-03 1.096669957041740417e-02 -9.604477323591709137e-03 3.526019398123025894e-03 -1.845118473283946514e-03 4.176292102783918381e-03 -2.108094282448291779e-02 9.470051154494285583e-03 1.964973285794258118e-02 1.803550496697425842e-02 7.166366092860698700e-03 2.011788077652454376e-02 3.511947812512516975e-03 -7.341376505792140961e-03 -2.016222476959228516e-02 2.980278339236974716e-03 -3.605172410607337952e-02 -2.034390531480312347e-02 2.111365832388401031e-02 7.320667617022991180e-03 1.826040819287300110e-02 -1.353070233017206192e-02 -1.454122550785541534e-02 8.257647044956684113e-03 -1.030357182025909424e-02 4.153790418058633804e-03 -7.640213705599308014e-03 9.963752701878547668e-03 -1.668239571154117584e-02 -1.780183054506778717e-03 -8.160677738487720490e-03 -9.849733673036098480e-03 -1.709163933992385864e-02 -2.731125429272651672e-02 8.492796681821346283e-03 -1.205256115645170212e-02 -1.381171168759465218e-03 3.858771407976746559e-03 2.481922740116715431e-03 2.105541341006755829e-02 4.859121516346931458e-03 2.440880285575985909e-03 7.361327763646841049e-03 1.527799107134342194e-02 -7.491748780012130737e-03 -2.531663328409194946e-02 -2.515011234208941460e-03 -1.062508393079042435e-02 -4.577363375574350357e-03 3.336409106850624084e-02 -9.929534047842025757e-03 1.009241305291652679e-02 2.026983303949236870e-03 -3.021562471985816956e-03 2.571358578279614449e-03 2.191248722374439240e-02 5.153147038072347641e-03 -1.539746206253767014e-02 -2.831473201513290405e-02 -7.676639361307024956e-04 -3.447293129283934832e-04 1.309063751250505447e-02 -1.569010131061077118e-02 2.580337598919868469e-02 1.495403237640857697e-02 7.315006107091903687e-03 -2.492388524115085602e-02 -2.259004302322864532e-02 1.095507014542818069e-02 -8.833442814648151398e-03 4.726186394691467285e-03 1.304289512336254120e-02 9.498873841948807240e-04 -1.329050678759813309e-02 7.692786864936351776e-03 -3.056799061596393585e-02 1.915445178747177124e-02 -9.577596560120582581e-03 1.591705717146396637e-03 4.153322800993919373e-02 6.934507749974727631e-03 8.639868348836898804e-03 3.459017025306820869e-03 -9.310539811849594116e-03 1.659941393882036209e-03 -1.244471501559019089e-02 -5.543434992432594299e-03 -6.467612460255622864e-03 1.016077212989330292e-02 -1.261150278151035309e-02 9.854554198682308197e-03 1.138788647949695587e-02 2.255914919078350067e-02 5.698500899598002434e-04 -2.437559887766838074e-02 1.549185626208782196e-02 2.039326541125774384e-02 -8.547734469175338745e-03 -1.018434669822454453e-02 1.629265840165317059e-03 2.127237059175968170e-02 -3.335820510983467102e-03 5.593589041382074356e-03 1.116354297846555710e-02 -7.057680748403072357e-03 1.198119251057505608e-03 -1.200111000798642635e-03 -8.460157550871372223e-03 3.900414798408746719e-03 -2.058857120573520660e-02 -1.755123399198055267e-02 -1.230757101438939571e-03 1.766651682555675507e-02 2.004045993089675903e-02 -3.374067833647131920e-03 2.256478182971477509e-02 -1.586285419762134552e-02 -1.706909760832786560e-02 -8.051853626966476440e-03 -4.082324157934635878e-04 3.008026629686355591e-03 -4.535654559731483459e-03 -5.754013080149888992e-03 4.279248532839119434e-04 -4.573325160890817642e-03 1.167665468528866768e-03 6.618677638471126556e-03 7.101628463715314865e-03 -3.888903884217143059e-03 2.023108117282390594e-02 -1.052914373576641083e-02 1.569436863064765930e-02 9.685010649263858795e-03 1.653332635760307312e-02 -1.579706929624080658e-02 2.641817322000861168e-03 1.473879441618919373e-02 1.512624230235815048e-02 1.317532733082771301e-02 2.487271791324019432e-03 1.578515209257602692e-02 -6.830018479377031326e-03 6.142605561763048172e-03 1.047760248184204102e-03 1.247705775313079357e-03 2.798225730657577515e-02 1.502576004713773727e-02 -3.167848102748394012e-03 1.408217102289199829e-02 -1.879419386386871338e-02 2.041217684745788574e-02 -8.997367694973945618e-03 1.060882490128278732e-02
-2.138826064765453339e-03 -1.206771563738584518e-02 -2.108802273869514465e-02 4.138391814194619656e-04 3.722346201539039612e-02 -5.057883448898792267e-03 8.967153728008270264e-03 1.212158333510160446e-02 1.886147889308631420e-03 1.337729580700397491e-02 1.020164228975772858e-02 -2.939363941550254822e-02 -8.870855672284960747e-04 6.652564276009798050e-03 -1.978803612291812897e-02 -1.329035032540559769e-02 -9.470067918300628662e-03 5.380700342357158661e-03 -6.696172022202517837e-06 4.500347655266523361e-03 -6.376365665346384048e-03 -3.867499763146042824e-03 7.786555215716362000e-03 -7.019538432359695435e-03 -4.088244400918483734e-03 -1.209751702845096588e-02 2.750415820628404617e-03 5.011674482375383377e-03 -1.137172337621450424e-03 5.201312713325023651e-03 1.246075378730893135e-03 -1.984644914045929909e-04 -3.916932269930839539e-03 -8.435957133769989014e-03 -1.157642807811498642e-02 2.671942114830017090e-02 9.891140274703502655e-03 -2.365840412676334381e-02 -1.741921156644821167e-02 4.047214984893798828e-03 -1.611281000077724457e-02 -1.871634647250175476e-02 3.986214753240346909e-03 4.812804050743579865e-03 -1.575252390466630459e-03 5.978449713438749313e-03 1.084836572408676147e-02 -2.936279634013772011e-03 -1.710708253085613251e-02 -1.103680860251188278e-02 1.301077846437692642e-02 1.553258765488862991e-02 -1.187733933329582214e-02 1.960914582014083862e-02 8.373126387596130371e-03 2.025765832513570786e-03 -5.071423016488552094e-03 -1.970257423818111420e-02 -3.223620820790529251e-03 1.178186200559139252e-02 -3.737066639587283134e-03 -2.833534032106399536e-02 -4.861366935074329376e-03 8.735268376767635345e-03 -6.072522141039371490e-03 -1.022453699260950089e-02 -8.040862157940864563e-03 1.692024804651737213e-02 1.776645705103874207e-02 -2.514532534405589104e-03 -5.408935714513063431e-03 -5.994996987283229828e-03 1.186681725084781647e-02 1.117557621910236776e-04 -2.144977450370788574e-02 -1.694403821602463722e-03 2.182543836534023285e-02 8.555072359740734100e-03 1.029790285974740982e-02 -6.353615317493677139e-03 1.958573935553431511e-03 -2.418746612966060638e-02 7.983047515153884888e-03 -1.818181946873664856e-02 -5.468693561851978302e-03 -7.556281983852386475e-03 -1.511723268777132034e-02 -1.679119840264320374e-02 -4.919562954455614090e-03 3.533299267292022705e-02 1.537956390529870987e-02 -1.323295664042234421e-02 1.102595869451761246e-02 -4.424407612532377243e-03 -1.103560719639062881e-02 4.091820679605007172e-03 1.515547651797533035e-02 5.759488791227340698e-03 1.334842946380376816e-02 1.357775088399648666e-02 7.085266988724470139e-03 -8.957999758422374725e-03 -5.062695126980543137e-03 1.696889474987983704e-02 1.026162039488554001e-02 8.984445594251155853e-03 -1.916703768074512482e-02 -8.972141891717910767e-03 1.644555479288101196e-02 -7.106523495167493820e-03 5.088465753942728043e-03 -1.031299587339162827e-03 -2.008586935698986053e-02 -1.906363107264041901e-02 1.298505626618862152e-02 8.852187544107437134e-03 -3.628677874803543091e-02 -1.758479140698909760e-02 -1.391915511339902878e-02 1.216894388198852539e-02 -6.236474961042404175e-03 1.651886291801929474e-02 -2.253998816013336182e-02 1.243984140455722809e-02 -1.548098307102918625e-02 -6.047072820365428925e-03 -6.477240938693284988e-03 -1.149144209921360016e-02 3.076369687914848328e-02 -6.045813672244548798e-03 -1.557428576052188873e-02 -8.852228522300720215e-03 1.107041072100400925e-02 -2.682993188500404358e-03 1.273545809090137482e-02 -4.130430519580841064e-02 -1.272913068532943726e-02 4.386509303003549576e-03 -3.308568615466356277e-03 5.365542601794004440e-03 1.280681416392326355e-02 -9.050461812876164913e-04 9.653990156948566437e-03 2.032686956226825714e-03 3.657961962744593620e-03 2.994498424232006073e-02 -8.980330079793930054e-03 2.346710674464702606e-02 -1.632562093436717987e-02 -2.101173438131809235e-02 1.283832243643701077e-03 4.408488050103187561e-03 -5.178501363843679428e-03 -6.586200324818491936e-04 1.121918112039566040e-02 -4.351201467216014862e-03 5.251063499599695206e-03 1.203748304396867752e-02 -3.825092455372214317e-03 1.845519244670867920e-02 -2.168971486389636993e-02 -1.397580560296773911e-02 -1.569379866123199463e-02 -4.593833349645137787e-03 -9.752750047482550144e-04 -8.171718567609786987e-03 2.396681159734725952e-02 -6.499344483017921448e-03 -9.443813003599643707e-03 1.046980358660221100e-02 -1.176325883716344833e-02 2.200271189212799072e-02 -6.157798692584037781e-03 1.082259416580200195e-02 -8.003490045666694641e-03 -1.423810026608407497e-04 -1.011640485376119614e-02 -6.916750688105821609e-03 1.742876367643475533e-03 2.267317473888397217e-02 -3.294724598526954651e-02 -2.079849131405353546e-02 -3.584994468837976456e-03 -4.479761701077222824e-03 -1.716659218072891235e-02 -1.386858243495225906e-02 2.355068363249301910e-02 6.888104602694511414e-03 2.777416259050369263e-03 1.097026187926530838e-02 3.197046741843223572e-02 -1.778377033770084381e-02 1.525683980435132980e-02 8.383218664675951004e-04 5.437671672552824020e-03 1.495562773197889328e-02 -1.184097770601511002e-02 9.654807508923113346e-04 1.017446722835302353e-02 -4.632082767784595490e-03 -2.575751766562461853e-02 1.615389622747898102e-02 -3.977809846401214600e-02 6.172870751470327377e-03 -1.206440152600407600e-03 1.352982129901647568e-02 1.373942289501428604e-02 1.005551870912313461e-02 -2.965907100588083267e-03 -9.218946099281311035e-03 2.211558818817138672e-02 -6.874000653624534607e-03 1.140348520129919052e-02 1.720079965889453888e-02 5.836501950398087502e-04 -9.266705252230167389e-03 2.163525670766830444e-02 1.017780136317014694e-02 -1.908163190819323063e-03 1.037186291068792343e-02 -1.065315958112478256e-02 -1.482620183378458023e-02 -1.234072353690862656e-02 -2.571986755356192589e-03 -9.138317778706550598e-03 8.662407286465167999e-03 4.467134363949298859e-03 7.391728577204048634e-04 5.323976438376121223e-05 -5.692245904356241226e-04 -1.725203241221606731e-03 1.280034333467483521e-02 -4.010868724435567856e-03 4.132275003939867020e-03 -2.144531905651092529e-02 1.761263585649430752e-03 -1.658341288566589355e-02 2.653749473392963409e-02 1.739125326275825500e-02 -5.242065526545047760e-04 -3.102722810581326485e-03 5.326775368303060532e-03 -6.456740666180849075e-03 -2.940792182926088572e-04 -3.172576427459716797e-02 -1.597207010490819812e-04 -1.526708155870437622e-02 8.732301183044910431e-03 -1.128296554088592529e-02 2.408803626894950867e-02 5.628648214042186737e-04 9.390635415911674500e-03 4.153707530349493027e-03 7.793779484927654266e-03 7.687978446483612061e-03 -2.735453890636563301e-03
1.201837672851979733e-03 -2.290695440024137497e-03 1.329205231741070747e-03 -7.857332006096839905e-03 7.267185952514410019e-03 8.159538730978965759e-03 1.226070453412830830e-03 -6.739776581525802612e-03 2.189749153330922127e-03 7.819274440407752991e-03 1.631081104278564453e-02 -1.091795880347490311e-02 7.486897520720958710e-03 -2.505720965564250946e-02 -4.531177226454019547e-03 -2.513169310986995697e-03 6.364188157021999359e-03 -1.764417812228202820e-02 4.226664081215858459e-03 7.940359646454453468e-04 -7.970496080815792084e-03 1.105178892612457275e-02 1.009381189942359924e-02 1.396541204303503036e-02 7.526879198849201202e-03 2.019193954765796661e-02 -2.178731840103864670e-03 1.090480573475360870e-02 -4.527663812041282654e-03 -8.618743158876895905e-04 2.249580575153231621e-03 -6.227296777069568634e-03 2.802852774038910866e-03 7.398087065666913986e-03 1.121586188673973083e-02 1.689415611326694489e-02 1.091060601174831390e-02 -1.638441532850265503e-02 -6.401601713150739670e-03 -1.195319928228855133e-02 -1.618526410311460495e-03 -5.054311826825141907e-03 -8.014235645532608032e-03 -2.705750241875648499e-02 1.158657576888799667e-02 4.136845935136079788e-03 -1.043406501412391663e-02 -8.408951573073863983e-03 1.036179158836603165e-02 6.175507791340351105e-03 1.053318753838539124e-02 -2.046252228319644928e-02 -6.330176722258329391e-03 6.148213986307382584e-03 -7.465992122888565063e-03 -1.177681144326925278e-02 -6.723285652697086334e-03 -1.287632901221513748e-02 -2.983133122324943542e-02 1.447533257305622101e-02 5.635359324514865875e-03 -1.698064431548118591e-02 2.113315090537071228e-02 4.431839101016521454e-03 1.566979102790355682e-02 -7.689875550568103790e-03 9.774402715265750885e-03 -2.866942202672362328e-03 -3.172029275447130203e-03 -7.392634171992540359e-03 -4.584441427141427994e-03 -2.853026427328586578e-02 2.033843845129013062e-02 1.870801299810409546e-02 -1.373294554650783539e-02 1.205683685839176178e-03 -8.908844552934169769e-03 -3.151597827672958374e-02 1.986333727836608887e-02 6.894623395055532455e-03 6.879709195345640182e-03 -8.392721414566040039e-03 -2.221927512437105179e-03 1.203848887234926224e-02 -1.539824763312935829e-03 3.954691812396049500e-03 3.206355730071663857e-03 -8.805219084024429321e-03 1.069914922118186951e-02 2.044919133186340332e-02 7.885573431849479675e-03 -1.009272690862417221e-02 -8.055899525061249733e-04 2.308329194784164429e-02 6.133473478257656097e-03 -9.848751360550522804e-04 1.426608860492706299e-02 -6.947499699890613556e-03 1.281907316297292709e-02 -7.713326718658208847e-03 -1.058204751461744308e-02 1.670582592487335205e-02 -5.092815030366182327e-03 1.391857658745720983e-04 1.396861486136913300e-02 -1.074000727385282516e-02 2.686965744942426682e-03 5.446118768304586411e-03 -2.236396819353103638e-02 2.187211625277996063e-02 -2.684019692242145538e-02 -3.357370616868138313e-03 1.996104978024959564e-02 -2.943731611594557762e-03 1.085604541003704071e-02 -2.043766342103481293e-02 -1.092049200087785721e-02 1.474155019968748093e-02 -1.045648846775293350e-02 -1.084460876882076263e-02 -1.114888000302016735e-03 -8.444301201961934566e-04 -3.103706054389476776e-02 -1.655403524637222290e-03 1.228409819304943085e-02 -2.743162214756011963e-03 -3.631236776709556580e-02 4.565970448311418295e-04 6.593388505280017853e-03 -1.021727174520492554e-02 1.674088463187217712e-02 6.362189073115587234e-03 3.865821287035942078e-03 -3.337924834340810776e-03 8.047915063798427582e-03 2.356460504233837128e-02 -9.390003047883510590e-03 -4.603908397257328033e-03 -1.143118250183761120e-03 -1.394434925168752670e-02 -5.497325211763381958e-03 6.857670377939939499e-03 -3.968019038438796997e-02 1.405862532556056976e-02 1.493513863533735275e-02 -2.278506057336926460e-03 1.098799612373113632e-02 7.203138433396816254e-03 -2.743205986917018890e-02 -1.433139434084296227e-03 1.026069559156894684e-02 5.302919540554285049e-03 1.427543815225362778e-03 -3.732447978109121323e-03 -1.185459550470113754e-02 -1.202077325433492661e-02 -3.822233527898788452e-02 1.446988154202699661e-02 1.248989626765251160e-02 2.481027739122509956e-03 -3.041115030646324158e-02 -3.721143293660134077e-04 2.104221284389495850e-02 -1.904792501591145992e-03 -7.295592688024044037e-03 -1.126438938081264496e-02 -1.728294044733047485e-02 5.996367428451776505e-03 -1.514871371909976006e-03 -3.493636613711714745e-03 -4.113351926207542419e-03 5.809543654322624207e-03 6.581543479114770889e-03 -2.081493288278579712e-02 1.021279531414620578e-04 1.309816492721438408e-03 7.108509074896574020e-03 -1.258993521332740784e-02 1.093494519591331482e-02 1.300435699522495270e-02 -2.897061780095100403e-02 -2.729664091020822525e-03 -6.901462562382221222e-03 1.312802266329526901e-02 4.380331840366125107e-03 1.026308629661798477e-02 1.448607165366411209e-02 9.957861155271530151e-03 1.767222955822944641e-02 -1.253727544099092484e-02 9.382616728544235229e-03 2.051498554646968842e-02 7.164187263697385788e-03 7.220963016152381897e-03 -7.006679195910692215e-03 1.731440797448158264e-02 -1.917042955756187439e-02 -1.066204276867210865e-03 -3.508578287437558174e-03 -8.692906238138675690e-03 1.042736042290925980e-02 -1.513773459009826183e-03 -3.346514189615845680e-03 1.539871655404567719e-02 7.752441801130771637e-03 2.833771705627441406e-02 -2.919674664735794067e-02 1.524481642991304398e-02 6.190053652971982956e-03 4.065831657499074936e-03 2.897720783948898315e-03 2.814203500747680664e-03 -1.171948015689849854e-02 -3.121443325653672218e-03 7.602528203278779984e-04 -2.469110861420631409e-02 1.272553484886884689e-02 -1.724872156046330929e-03 -1.774185337126255035e-02 9.168744087219238281e-03 -1.386879384517669678e-02 5.278205964714288712e-03 9.004216641187667847e-03 -1.647614687681198120e-02 -4.307098221033811569e-03 -2.032982558012008667e-02 2.292344288434833288e-04 -1.207854505628347397e-02 1.931824907660484314e-02 3.013539593666791916e-03 -8.174529299139976501e-03 -1.117890793830156326e-02 9.746985509991645813e-03 1.650360412895679474e-02 -1.715508289635181427e-02 -4.329529590904712677e-03 1.752891764044761658e-02 1.397021766752004623e-02 -1.954905129969120026e-02 1.706205680966377258e-02 -2.433089306578040123e-03 1.349486690014600754e-02 -3.953604027628898621e-03 1.809369586408138275e-02 -7.213103817775845528e-04 -1.115111261606216431e-02 1.536240801215171814e-03 3.864249959588050842e-02 -1.022544968873262405e-02 -1.555212959647178650e-02 -1.515360362827777863e-02 -1.007850863970816135e-03 1.132612116634845734e-03 -1.042173430323600769e-02 6.289009004831314087e-03 -7.237926125526428223e-03
-2.208767645061016083e-02 -1.421146932989358902e-02 1.039690990000963211e-02 3.318638727068901062e-02 1.897863810881972313e-03 2.239124290645122528e-02 2.659207582473754883e-02 -1.356193050742149353e-02 2.079705893993377686e-02 3.261491283774375916e-02 -2.481037937104701996e-02 8.911333978176116943e-03 4.406339675188064575e-02 4.500792548060417175e-02 1.089088269509375095e-03 1.401866599917411804e-02 1.492169499397277832e-02 1.863185688853263855e-02 2.431033179163932800e-02 3.295560181140899658e-02 -1.094982307404279709e-02 3.368375590071082115e-03 -4.911002703011035919e-03 4.344163462519645691e-02 3.022637590765953064e-02 3.515195567160844803e-03 3.069962188601493835e-02 -7.303016027435660362e-04 1.748522557318210602e-02 1.768735982477664948e-02 1.955501548945903778e-02 1.042120391502976418e-03 1.978326775133609772e-02 -4.525538161396980286e-02 3.185974666848778725e-03 1.087557990103960037e-02 2.884984016418457031e-02 1.486236345954239368e-03 -2.364142052829265594e-02 -4.615407809615135193e-02 3.163763880729675293e-02 3.159430623054504395e-02 -1.926793158054351807e-02 2.760240994393825531e-02 1.554017048329114914e-02 5.277956649661064148e-02 -8.681298233568668365e-03 1.698942296206951141e-02 3.877592971548438072e-04 -1.383630093187093735e-03 4.913415294140577316e-03 1.620586961507797241e-02 1.321171503514051437e-02 9.691996499896049500e-03 3.606711700558662415e-02 -1.318217255175113678e-02 -2.064461074769496918e-02 2.717819064855575562e-02 -2.102831006050109863e-02 2.988670021295547485e-03 4.224414750933647156e-02 3.554043546319007874e-02 1.180233620107173920e-02 1.286423392593860626e-02 -1.458475086838006973e-02 7.670608814805746078e-03 1.321783568710088730e-02 1.462451834231615067e-02 -6.222281977534294128e-02 5.031507462263107300e-02 -1.745971478521823883e-02 -3.301011025905609131e-02 -2.115095220506191254e-02 7.408326026052236557e-03 6.561428774148225784e-03 3.224135190248489380e-02 -1.529356231912970543e-03 4.569823667407035828e-02 -1.379858888685703278e-02 3.107785806059837341e-02 -3.611064702272415161e-02 2.541356906294822693e-02 2.305233851075172424e-02 -2.932888921350240707e-03 9.126468561589717865e-03 6.589456927031278610e-03 -4.390877671539783478e-03 3.199205175042152405e-02 -1.957130432128906250e-02 -2.486325427889823914e-02 5.297146365046501160e-02 -3.723790636286139488e-03 -9.809377370402216911e-04 -3.356342390179634094e-02 2.387488819658756256e-02 7.017849478870630264e-03 -1.196316210553050041e-03 4.523881897330284119e-02 3.958943858742713928e-02 -1.925038173794746399e-02 1.007785275578498840e-02 -2.079914696514606476e-02 8.876659907400608063e-03 -1.701989583671092987e-02 9.902976453304290771e-03 3.818147629499435425e-02 3.460605069994926453e-02 -1.415817812085151672e-02 -8.432209491729736328e-03 -1.248834450962021947e-04 6.683685816824436188e-03 -5.336374044418334961e-03 -1.166888419538736343e-02 1.785160042345523834e-02 -1.328718848526477814e-02 3.023931570351123810e-02 9.276915341615676880e-03 1.146705169230699539e-02 1.090363226830959320e-02 -1.742922887206077576e-02 4.915522411465644836e-03 -1.089637540280818939e-02 2.234142832458019257e-02 -7.467713207006454468e-03 -1.414076052606105804e-02 -1.938515529036521912e-02 3.031781315803527832e-02 1.784398627933114767e-04 -6.619018968194723129e-03 -1.236603129655122757e-02 9.603898040950298309e-03 -4.948028363287448883e-03 5.311555042862892151e-02 -1.303107128478586674e-03 4.466240108013153076e-02 2.734604058787226677e-04 -5.269478540867567062e-03 -4.018173366785049438e-02 -9.124682284891605377e-03 -7.309212349355220795e-03 5.507722124457359314e-02 -2.249534986913204193e-02 -3.900584531947970390e-03 -2.246445976197719574e-02 -1.416579633951187134e-02 1.475421153008937836e-02 3.756836056709289551e-02 2.412186004221439362e-02 4.311785567551851273e-03 2.182750403881072998e-02 1.439214404672384262e-02 5.397707968950271606e-02 -1.826497726142406464e-02 -1.056610955856740475e-03 3.101197630167007446e-02 1.841639168560504913e-02 7.318096235394477844e-03 1.446579769253730774e-02 -2.965754643082618713e-02 1.541854068636894226e-02 2.222488075494766235e-02 -6.696168798953294754e-03 -5.031794309616088867e-02 1.899553835391998291e-02 5.651678517460823059e-02 1.000674627721309662e-02 -1.755547942593693733e-03 1.358474884182214737e-02 3.594192862510681152e-02 3.626613691449165344e-02 -1.013097818940877914e-02 1.332048792392015457e-02 -2.328370139002799988e-02 4.971155431121587753e-03 2.274884283542633057e-02 1.556487008929252625e-02 -2.707521244883537292e-02 -2.016239799559116364e-02 -2.510323561728000641e-02 1.997063308954238892e-02 -3.160578198730945587e-04 1.498224586248397827e-02 -1.574319414794445038e-02 3.343251009937375784e-04 -1.332962792366743088e-02 8.722910657525062561e-03 2.289681695401668549e-02 -4.790015053004026413e-03 -1.399533008225262165e-03 2.917806245386600494e-02 1.299341674894094467e-02 -1.159390434622764587e-02 -3.332476690411567688e-02 5.641914531588554382e-02 -1.534207817167043686e-02 1.845897175371646881e-02 4.023681860417127609e-03 -3.611481748521327972e-03 5.377663546823896468e-05 1.679330505430698395e-02 4.733060300350189209e-02 -1.760551147162914276e-02 8.799528703093528748e-03 1.322948187589645386e-02 -9.789985604584217072e-03 2.780202776193618774e-02 1.380618428811430931e-03 1.659004949033260345e-02 4.546809941530227661e-03 -5.571313668042421341e-03 3.216356411576271057e-02 1.196435373276472092e-02 3.108431212604045868e-02 1.906844601035118103e-02 -2.135730721056461334e-02 5.008509382605552673e-03 -1.192503236234188080e-02 -4.204896278679370880e-03 -2.509137848392128944e-03 2.072741463780403137e-02 2.040898054838180542e-02 9.205574169754981995e-03 -5.103839095681905746e-03 1.774110458791255951e-02 -3.310918435454368591e-02 3.827183274552226067e-03 2.259165607392787933e-02 3.326177597045898438e-03 2.701142057776451111e-02 1.414603088051080704e-03 -2.381168492138385773e-02 2.974211238324642181e-02 -8.661758038215339184e-04 9.519024752080440521e-03 2.039318904280662537e-02 2.591702155768871307e-02 2.054365910589694977e-02 4.222252964973449707e-02 1.428085938096046448e-02 -1.697607152163982391e-02 3.899986390024423599e-03 -3.892014501616358757e-03 -2.827382646501064301e-03 -1.142773684114217758e-02 3.306182473897933960e-02 -2.065094560384750366e-02 -1.251713559031486511e-02 -5.737710371613502502e-02 1.532036159187555313e-02 1.383069436997175217e-02 3.654305264353752136e-02 2.384907333180308342e-03 -2.300240658223628998e-02 -2.030276134610176086e-02 1.677669025957584381e-02 2.497282624244689941e-02
