4.951381124556064606e-03 -3.483815589788719080e-06 8.736002258956432343e-03 -3.575146431103348732e-03 4.394063726067543030e-03 -2.393024740740656853e-03 8.016172796487808228e-03 -6.965046282857656479e-03 -1.542492117732763290e-02 -1.203283201903104782e-02 -1.684942469000816345e-02 -8.905507624149322510e-03 3.439038759097456932e-03 1.816411502659320831e-02 5.556126125156879425e-03 -6.089638452976942062e-03 1.517478493042290211e-03 -1.364003028720617294e-02 -7.355099543929100037e-03 -2.235650457441806793e-02 -6.158003583550453186e-03 -6.512344349175691605e-03 -6.148750428110361099e-03 -1.116743218153715134e-02 8.837421424686908722e-03 1.534639624878764153e-03 7.480056025087833405e-03 2.609364921227097511e-03 -7.726025767624378204e-03 1.967110438272356987e-03 4.660912090912461281e-04 7.265326101332902908e-03 -6.249736063182353973e-03 -6.020183209329843521e-03 -1.622561598196625710e-03 1.005313545465469360e-02 8.398587815463542938e-03 2.649590605869889259e-03 -5.898756906390190125e-03 -1.611299254000186920e-02 -6.715326569974422455e-03 4.666020162403583527e-03 7.085175719112157822e-03 6.697849021293222904e-04 1.395519450306892395e-02 9.218635968863964081e-03 -1.466808607801795006e-03 -1.335712522268295288e-02 -7.582756225019693375e-03 9.018331766128540039e-03 -7.206465117633342743e-03 -4.035976249724626541e-03 -1.245233695954084396e-02 1.218915265053510666e-02 6.751590408384799957e-03 1.933581754565238953e-02 3.615034278482198715e-03 1.970609882846474648e-03 2.155652502551674843e-03 -7.313733454793691635e-03 8.599840104579925537e-03 9.753542952239513397e-03 -1.019155606627464294e-02 -6.112352013587951660e-03 3.102187765762209892e-03 5.357964430004358292e-03 1.276146434247493744e-02 -1.256011193618178368e-03 5.162770394235849380e-04 3.310189116746187210e-03 -5.328626837581396103e-03 -3.508499125018715858e-03 4.080347716808319092e-03 2.514583058655261993e-03 1.464338041841983795e-03 6.481894757598638535e-03 -4.315347468946129084e-04 8.235712535679340363e-03 4.304511938244104385e-03 4.633934702724218369e-03 4.115021787583827972e-03 1.171816792339086533e-02 -7.271111942827701569e-03 1.028993865475058556e-03 4.065284039825201035e-03 8.460335433483123779e-03 4.293817561119794846e-03 -7.734350860118865967e-03 1.396754756569862366e-02 -4.157692193984985352e-03 3.283272730186581612e-03 2.529085846617817879e-03 -4.524455405771732330e-03 -1.247189007699489594e-02 -1.843158528208732605e-02 -5.845201085321605206e-04 6.179171614348888397e-03 -6.230451166629791260e-03 -4.512024112045764923e-03 1.674075983464717865e-02 -8.270346559584140778e-03 3.266664687544107437e-03 9.285485371947288513e-03 -4.404775332659482956e-03 4.113976377993822098e-03 -4.309029784053564072e-03 6.715102936141192913e-04 1.974111795425415039e-02 -5.966313648968935013e-03 -8.629446383565664291e-04 -1.177618978545069695e-03 -4.355215933173894882e-03 -8.753097616136074066e-03 6.033103913068771362e-03 -6.195260677486658096e-03 -1.562494225800037384e-02 -7.225571665912866592e-03 1.100653689354658127e-02 -7.780324667692184448e-03 1.468957052566111088e-04 5.064034368842840195e-03 1.416119979694485664e-03 -1.137285772711038589e-02 9.719375520944595337e-03 1.222248096019029617e-02 -1.798829622566699982e-02 5.991940852254629135e-03 -2.923009684309363365e-03 -8.903418667614459991e-03 -9.347752667963504791e-03 1.660078018903732300e-02 7.791511248797178268e-03 -9.447570890188217163e-03 -8.176086703315377235e-04 9.046851657330989838e-03 -4.838504828512668610e-03 -8.150792680680751801e-03 -6.910378113389015198e-03 -8.352700620889663696e-03 6.377636920660734177e-03 2.310490794479846954e-02 3.382992232218384743e-03 -1.740418374538421631e-02 1.025184523314237595e-02 -1.095886807888746262e-03 -1.183256693184375763e-02 1.991388015449047089e-02 6.916802376508712769e-03 1.015152502804994583e-02 -5.980543792247772217e-03 -8.041294291615486145e-03 7.484480738639831543e-03 -5.872064735740423203e-03 -3.910610452294349670e-03 6.660009268671274185e-03 2.237703884020447731e-03 -8.207211270928382874e-03 -9.976509027183055878e-03 1.441785600036382675e-02 -3.815087024122476578e-03 4.270478966645896435e-04 1.266495324671268463e-03 -2.289512660354375839e-03 -9.343801997601985931e-03 1.055323146283626556e-02 1.105091162025928497e-02 -6.507844664156436920e-03 1.905239070765674114e-03 3.589072031900286674e-03 4.880982451140880585e-04 1.306641194969415665e-02 -1.910563558340072632e-03 8.866642601788043976e-03 6.619521882385015488e-03 -1.352117862552404404e-02 -6.021387875080108643e-03 1.582317287102341652e-03 2.081133658066391945e-03 2.937620040029287338e-03 3.403574926778674126e-03 -2.460107207298278809e-04 1.595087908208370209e-02 6.918340455740690231e-03 1.185408886522054672e-02 -5.754547193646430969e-03 -8.627888746559619904e-03 -8.751459419727325439e-03 -4.832439124584197998e-03 1.329415291547775269e-02 -4.236467648297548294e-03 -8.508751488989219069e-05 -7.269325200468301773e-03 -2.243490703403949738e-02 -2.593411365523934364e-03 -4.903853405267000198e-03 -1.998285530135035515e-03 -1.043360587209463120e-02 7.223621942102909088e-03 7.526376284658908844e-03 -7.542346604168415070e-03 8.780909702181816101e-03 -1.319197844713926315e-02 2.394869923591613770e-02 2.048356225714087486e-03 1.003385987132787704e-02 3.876567119732499123e-03 -8.150778710842132568e-03 -1.303833909332752228e-02 8.422872982919216156e-03 -1.639747177250683308e-03 2.307607792317867279e-03 1.208819169551134109e-02 -8.285743533633649349e-04 -8.996730670332908630e-03 -2.260847017168998718e-03 9.798265062272548676e-03 -1.212039613164961338e-03 4.283323942217975855e-04 -1.697227917611598969e-02 2.248460892587900162e-03 4.279027227312326431e-03 9.388051112182438374e-04 -9.209928102791309357e-03 8.654314093291759491e-03 7.295531220734119415e-03 -5.875820294022560120e-03 1.077963388524949551e-03 -4.602377768605947495e-03 -3.004907630383968353e-03 1.738670864142477512e-03 -4.118583165109157562e-03 -8.706784807145595551e-03 6.651255767792463303e-03 -1.018301863223314285e-02 8.368946611881256104e-03 -6.674242205917835236e-03 2.682482125237584114e-03 3.371019382029771805e-03 1.999863423407077789e-03 -2.012105658650398254e-03 -1.007680036127567291e-02 3.919461276382207870e-03 1.181186456233263016e-02 -1.083423662930727005e-02 -5.140598863363265991e-03 -4.348870832473039627e-03 1.711202552542090416e-03 -3.610798157751560211e-03 -8.534511434845626354e-04 -8.330874145030975342e-03 -1.226384192705154419e-02 1.096456591039896011e-02 1.913126185536384583e-02 -4.027105867862701416e-03 4.961988423019647598e-03 2.912085503339767456e-03
-4.812923725694417953e-03 -4.366843961179256439e-03 6.152424612082540989e-04 1.440412458032369614e-02 -1.005266234278678894e-02 -3.635151661001145840e-04 1.945289841387420893e-05 7.086291443556547165e-03 -4.820718895643949509e-03 -1.387163344770669937e-02 8.123523555696010590e-03 -4.592861048877239227e-03 8.977454155683517456e-03 5.025457590818405151e-03 6.691456306725740433e-03 4.207990691065788269e-02 -4.222760442644357681e-03 -1.022590696811676025e-02 -1.243524812161922455e-02 -3.745377529412508011e-03 -5.305751226842403412e-03 -3.700833301991224289e-03 1.807823590934276581e-02 1.825655577704310417e-03 6.241446360945701599e-03 -6.170694250613451004e-03 9.966908954083919525e-03 2.376502193510532379e-02 1.409478578716516495e-02 1.936289109289646149e-02 -4.350109491497278214e-03 2.263319119811058044e-02 2.367718704044818878e-02 -1.134316157549619675e-02 -2.635533455759286880e-03 4.683038685470819473e-03 6.245963275432586670e-03 -1.318301726132631302e-02 -1.800378970801830292e-02 2.021080069243907928e-02 7.193787489086389542e-03 5.012131761759519577e-03 -2.147394604980945587e-02 -1.556639838963747025e-02 -1.610595174133777618e-02 1.285258773714303970e-02 -1.273594796657562256e-02 1.889000460505485535e-02 -2.995921485126018524e-02 -6.449209060519933701e-03 -1.661547645926475525e-02 5.678445566445589066e-03 1.584933721460402012e-03 6.583551876246929169e-03 -1.697756350040435791e-02 5.168766714632511139e-03 1.181005220860242844e-02 -6.767238955944776535e-03 1.465753372758626938e-02 4.145655257161706686e-04 1.925640366971492767e-02 -2.477310597896575928e-03 1.744327694177627563e-02 4.192756488919258118e-03 8.203695528209209442e-03 1.009353250265121460e-02 8.538749068975448608e-03 2.347471937537193298e-02 2.788098528981208801e-02 -1.587699353694915771e-02 2.362357266247272491e-02 -5.370045546442270279e-03 -7.360605988651514053e-03 2.959014149382710457e-03 7.615400478243827820e-03 1.848234678618609905e-03 1.795928739011287689e-02 1.646288298070430756e-02 -7.291177753359079361e-03 -1.979054883122444153e-02 -5.555578041821718216e-03 -5.262825638055801392e-03 1.780155673623085022e-02 -3.081727772951126099e-03 1.476469449698925018e-02 9.598293341696262360e-03 3.569768508896231651e-03 1.397496555000543594e-02 -2.566972747445106506e-03 2.766774501651525497e-03 -1.495830342173576355e-02 8.409271948039531708e-03 -1.260376535356044769e-02 -1.566892489790916443e-02 -5.194265395402908325e-03 1.884642988443374634e-02 1.244303770363330841e-02 8.413825184106826782e-03 -1.016834657639265060e-02 1.477082958444952965e-03 2.051643840968608856e-02 1.269090641289949417e-02 -1.577517203986644745e-02 -3.849467262625694275e-03 1.090092118829488754e-02 2.606987021863460541e-03 -1.998117659240961075e-03 -7.114183157682418823e-03 3.444054350256919861e-02 1.408472284674644470e-02 7.490462157875299454e-03 1.016703061759471893e-02 -3.549445653334259987e-03 2.334558591246604919e-02 -5.348675884306430817e-03 5.273223854601383209e-03 -5.020808894187211990e-03 -2.153722755610942841e-02 -9.304095059633255005e-03 9.229348041117191315e-03 -1.006946992129087448e-02 1.514512207359075546e-02 1.813055947422981262e-02 1.512337662279605865e-02 1.019683759659528732e-02 3.031165571883320808e-03 8.888877928256988525e-03 -6.096201250329613686e-04 -8.438559249043464661e-03 -8.203357458114624023e-03 -8.426538668572902679e-03 1.982170855626463890e-03 -1.806986704468727112e-02 -1.358105242252349854e-02 -1.157848257571458817e-02 4.780414514243602753e-03 1.132367365062236786e-02 -9.482676163315773010e-03 8.396993391215801239e-03 -3.725768998265266418e-03 8.894780650734901428e-03 9.245212189853191376e-03 4.415194503962993622e-03 1.576546393334865570e-02 1.141706202179193497e-02 -1.556801237165927887e-02 8.652315475046634674e-03 3.629958955571055412e-03 1.612885482609272003e-02 -2.828045748174190521e-03 1.807115785777568817e-02 -1.764342159731313586e-04 -1.306113437749445438e-03 2.328120172023773193e-02 -1.195208285935223103e-03 4.283483605831861496e-03 -2.995905932039022446e-03 3.697994723916053772e-02 -1.368933357298374176e-03 5.188684444874525070e-03 2.130434615537524223e-03 2.812940860167145729e-03 -7.652079220861196518e-03 -2.589758485555648804e-02 3.641395014710724354e-04 -1.566315628588199615e-02 -9.071845561265945435e-03 -1.527828630059957504e-02 -1.424962189048528671e-02 1.226491644047200680e-03 2.813304029405117035e-02 -6.088866502977907658e-04 -2.031322335824370384e-03 2.169227955164387822e-04 1.973108947277069092e-02 -1.157383993268013000e-02 3.226605243980884552e-03 7.119372952729463577e-03 -6.934530567377805710e-03 1.981640607118606567e-02 -7.005519699305295944e-03 1.804731599986553192e-02 3.232140094041824341e-02 2.441448718309402466e-02 2.756533212959766388e-02 7.322968449443578720e-03 -4.553483799099922180e-03 2.133612148463726044e-02 -6.233648397028446198e-03 -1.537425722926855087e-02 -3.294439241290092468e-02 -1.458513271063566208e-02 -4.254394210875034332e-03 -1.600287854671478271e-03 1.034331973642110825e-02 2.910437062382698059e-02 8.344833739101886749e-03 -1.677985675632953644e-02 -2.078220807015895844e-02 3.562394296750426292e-03 -3.897299757227301598e-03 -1.031561475247144699e-02 -1.765827089548110962e-02 -8.958142250776290894e-03 -4.724755417555570602e-03 1.026945770718157291e-03 6.223099771887063980e-03 -5.766282323747873306e-03 1.842350885272026062e-02 -1.916854456067085266e-02 6.292606703937053680e-04 3.076970577239990234e-02 1.378194335848093033e-02 2.577169099822640419e-03 2.127680461853742599e-03 8.359253406524658203e-03 9.580327197909355164e-03 -1.002420857548713684e-02 5.580220371484756470e-03 5.206154659390449524e-03 2.074496587738394737e-03 3.031428437680006027e-03 1.076076366007328033e-02 3.849816694855690002e-02 3.565999912098050117e-03 5.276405136100947857e-04 5.463044624775648117e-03 -5.741966422647237778e-03 -2.015602309256792068e-03 1.339357439428567886e-02 5.000454373657703400e-03 1.085077505558729172e-02 -1.479187607765197754e-02 1.436311099678277969e-02 -7.739610970020294189e-03 -1.506785396486520767e-03 1.556686311960220337e-02 -2.447211742401123047e-02 2.552911639213562012e-02 6.271210964769124985e-03 1.196437515318393707e-02 3.140357322990894318e-03 -8.966655470430850983e-03 2.362331189215183258e-02 -4.340119659900665283e-03 5.634893663227558136e-03 5.466726608574390411e-03 -8.449424058198928833e-03 -3.005062928423285484e-03 7.853113114833831787e-03 1.420980039983987808e-02 -2.583469962701201439e-03 6.837699562311172485e-03 -7.314745802432298660e-03 2.827705582603812218e-03 -3.548819338902831078e-03
-2.164698438718914986e-03 1.253044512122869492e-02 -9.418543777428567410e-04 1.318208174780011177e-03 -7.496896199882030487e-03 9.429899975657463074e-03 -3.844823222607374191e-03 -2.988488879054784775e-03 2.807166613638401031e-02 -1.097012031823396683e-02 6.080857478082180023e-03 -3.221551422029733658e-03 4.596196115016937256e-03 -2.652344293892383575e-02 -1.903308369219303131e-02 1.834144257009029388e-02 -1.764652202837169170e-03 -2.558708377182483673e-02 3.434308990836143494e-02 4.198153037577867508e-03 -1.099494099617004395e-02 3.155152080580592155e-03 -7.103334646672010422e-03 3.193937940523028374e-03 1.550451200455427170e-02 7.552742026746273041e-03 -9.323997423052787781e-03 -2.070485241711139679e-02 -1.867059059441089630e-02 -2.776057831943035126e-02 -4.873291123658418655e-03 9.014854207634925842e-03 -8.855016902089118958e-03 -4.334419220685958862e-02 1.920747570693492889e-02 -2.210832946002483368e-02 -3.328364109620451927e-03 -1.350128557533025742e-02 1.740228384733200073e-02 -7.774358149617910385e-03 -2.602628432214260101e-02 3.562711644917726517e-03 1.214321237057447433e-02 1.183787098852917552e-04 -2.009767293930053711e-02 -6.311636883765459061e-03 -9.802165441215038300e-04 -2.181033045053482056e-02 -4.728955216705799103e-03 4.076747689396142960e-03 -5.088623613119125366e-03 2.295152470469474792e-02 9.902490302920341492e-03 5.890080705285072327e-03 -7.437930908054113388e-03 -7.741004228591918945e-03 8.413094095885753632e-03 -9.211924043484032154e-04 1.503239199519157410e-02 6.490173749625682831e-03 -4.484756384044885635e-03 1.382718514651060104e-02 -3.153069643303751945e-03 8.256624452769756317e-03 9.490380994975566864e-03 -3.587039886042475700e-03 -1.196522824466228485e-02 1.374616101384162903e-02 -1.574171520769596100e-02 -2.559389919042587280e-03 -7.740284781903028488e-03 -9.721173904836177826e-03 2.038918808102607727e-02 -1.376388943754136562e-03 6.839578505605459213e-03 1.578962244093418121e-02 9.088356979191303253e-03 9.689551661722362041e-04 -8.764866739511489868e-03 -9.628499858081340790e-03 1.852702698670327663e-03 2.160588651895523071e-02 1.396998111158609390e-02 -2.023562975227832794e-02 -1.337643712759017944e-02 -1.625028811395168304e-02 3.105644136667251587e-03 -2.804818097501993179e-03 1.380104757845401764e-02 5.341107491403818130e-03 2.732521388679742813e-03 -2.617866173386573792e-02 8.536115288734436035e-03 7.675031665712594986e-03 1.064201537519693375e-02 1.000112667679786682e-02 -4.627787973731756210e-03 -4.519827663898468018e-03 1.073650363832712173e-02 2.798921987414360046e-02 2.140490105375647545e-03 -3.865264588966965675e-03 -1.424199622124433517e-02 -8.073623292148113251e-03 3.615516237914562225e-03 1.652073487639427185e-02 -9.130585007369518280e-03 -1.120048342272639275e-03 -2.315775677561759949e-02 -1.062170974910259247e-02 5.027786828577518463e-04 1.560541102662682533e-03 1.765622012317180634e-02 4.550694953650236130e-03 1.687748171389102936e-02 -4.412326030433177948e-03 1.063442043960094452e-02 -3.679989650845527649e-02 1.334854774177074432e-02 5.451160017400979996e-03 -7.976455381140112877e-04 -4.859790671616792679e-03 8.827039971947669983e-03 -1.469001546502113342e-02 -1.446104288334026933e-04 -3.208207665011286736e-03 -5.711850710213184357e-03 2.257407829165458679e-02 3.929107915610074997e-03 -3.230375936254858971e-03 8.601394481956958771e-03 -1.776200532913208008e-02 3.684410080313682556e-02 -3.870032960548996925e-03 -5.188498180359601974e-03 6.440097931772470474e-03 -1.078261341899633408e-02 4.557862877845764160e-03 -5.138480570167303085e-03 9.436818771064281464e-03 2.904737601056694984e-03 8.359037339687347412e-03 1.471001747995615005e-02 3.146504983305931091e-03 1.038752216845750809e-02 -1.121234614402055740e-03 -5.196768324822187424e-03 -1.081602647900581360e-02 3.799567697569727898e-03 -4.326720722019672394e-03 -1.160560920834541321e-02 1.165474951267242432e-02 3.308711806312203407e-03 2.426055260002613068e-03 2.267881296575069427e-02 -3.469344519544392824e-04 -1.532821636646986008e-02 8.179561118595302105e-04 -3.426829818636178970e-03 9.405749849975109100e-03 1.658611930906772614e-02 1.527335494756698608e-02 2.093401039019227028e-03 3.230027481913566589e-02 9.243090637028217316e-03 -1.829147525131702423e-02 9.756580926477909088e-03 -9.125170297920703888e-03 -1.426907628774642944e-02 -5.301141180098056793e-03 2.817173115909099579e-02 -1.020709145814180374e-02 -3.105166926980018616e-02 -1.151716429740190506e-02 1.144466269761323929e-02 -2.172082290053367615e-02 5.677728448063135147e-03 -2.346369437873363495e-03 2.689562737941741943e-02 1.756288227625191212e-03 6.320043466985225677e-03 3.793664509430527687e-03 -1.945031061768531799e-02 -6.855337414890527725e-03 2.579787187278270721e-02 -1.937085529789328575e-03 1.626296713948249817e-02 5.110942758619785309e-03 9.372824802994728088e-03 2.946124295704066753e-04 -9.185794740915298462e-03 -1.160962227731943130e-02 -6.269560661166906357e-03 5.066020879894495010e-03 -1.672150194644927979e-02 4.128119442611932755e-03 2.233000844717025757e-02 -2.266381122171878815e-02 -7.815082557499408722e-03 9.640408679842948914e-03 -2.524163201451301575e-02 6.127331871539354324e-03 1.119149755686521530e-02 8.559466805309057236e-04 3.156686900183558464e-03 -2.535700611770153046e-02 -3.149036550894379616e-03 3.742720466107130051e-03 -1.739368215203285217e-02 2.676154486835002899e-02 2.632938511669635773e-02 2.820984227582812309e-03 2.340193837881088257e-02 1.009887736290693283e-02 3.806163324043154716e-03 -3.820659592747688293e-02 -2.297359891235828400e-02 9.437605738639831543e-03 -2.068568393588066101e-02 3.628321224823594093e-03 -2.153485082089900970e-02 6.983533035963773727e-03 7.164969108998775482e-03 2.024098532274365425e-03 2.620923041831701994e-04 9.607080370187759399e-03 7.410276215523481369e-03 -2.050757594406604767e-02 7.436767220497131348e-03 4.837435670197010040e-03 -1.150420680642127991e-02 -1.109640486538410187e-02 -1.644491218030452728e-03 -9.313858114182949066e-03 -1.086004637181758881e-02 -3.515207022428512573e-02 -1.344333053566515446e-03 -6.652460899204015732e-03 2.968225860968232155e-03 1.537148188799619675e-02 1.722747646272182465e-02 1.015882007777690887e-02 -9.171614423394203186e-03 1.653301063925027847e-03 1.136144530028104782e-02 8.662360720336437225e-03 -4.980873782187700272e-03 1.190062332898378372e-02 3.450142219662666321e-03 6.450580433011054993e-03 -2.461201511323451996e-04 9.168095886707305908e-03 -1.625111885368824005e-02 3.232693066820502281e-03 -7.419572211802005768e-03 -1.099420827813446522e-03
2.694936096668243408e-02 -3.724371083080768585e-03 2.804581820964813232e-02 2.635368146002292633e-02 2.518599387258291245e-03 1.079034432768821716e-02 8.010514080524444580e-03 7.683512289077043533e-03 1.937966421246528625e-02 -3.373159095644950867e-02 7.784568704664707184e-03 8.592033758759498596e-03 9.024680475704371929e-04 -1.388095971196889877e-02 -1.614275947213172913e-02 8.357768878340721130e-03 5.458870902657508850e-03 -3.650246188044548035e-02 1.415498554706573486e-02 -1.708180643618106842e-02 1.861457526683807373e-02 1.485638320446014404e-02 -1.323759835213422775e-02 3.992565348744392395e-02 1.443664077669382095e-02 1.270425855182111263e-03 5.225396249443292618e-03 6.288516335189342499e-03 -1.226368267089128494e-02 -1.326963212341070175e-02 5.903181154280900955e-04 1.173883490264415741e-02 1.221519988030195236e-02 -2.305887825787067413e-02 1.944933086633682251e-02 -2.383158134762197733e-04 2.059514867141842842e-03 9.706765413284301758e-03 1.257931347936391830e-02 1.549489423632621765e-02 -2.834665961563587189e-02 -5.640899762511253357e-03 -7.113287691026926041e-03 -1.630000211298465729e-02 -1.109331194311380386e-02 2.142570214346051216e-03 -2.586582268122583628e-04 -1.492446102201938629e-02 4.793667700141668320e-03 -1.982474932447075844e-03 -1.748092286288738251e-02 -1.396273635327816010e-02 -4.772480577230453491e-03 -1.175761595368385315e-02 -7.619603537023067474e-03 -5.684083793312311172e-03 -1.268892735242843628e-02 -2.564880764111876488e-03 -6.918782833963632584e-03 8.153461851179599762e-03 -1.265117712318897247e-02 1.126228366047143936e-02 1.514622708782553673e-03 2.971022622659802437e-04 1.251480309292674065e-03 5.392035935074090958e-03 1.500163879245519638e-02 8.191120810806751251e-03 -1.561602298170328140e-02 -8.645907044410705566e-03 9.889459470286965370e-04 -1.463639643043279648e-02 6.228905171155929565e-03 8.934869430959224701e-03 -9.796648286283016205e-03 -1.250216737389564514e-02 7.350814063102006912e-03 8.397602476179599762e-03 -3.887630067765712738e-03 -5.115814972668886185e-03 -5.716522689908742905e-03 5.707063712179660797e-03 -5.955112166702747345e-03 -1.464530732482671738e-02 4.166071489453315735e-02 -1.961140893399715424e-02 4.577848128974437714e-03 -1.258217636495828629e-02 1.377418823540210724e-02 -5.392296239733695984e-03 -8.341665379703044891e-03 4.689978435635566711e-03 -2.395833656191825867e-02 -1.278044190257787704e-03 -3.271499415859580040e-03 -1.184798404574394226e-02 -1.285519730299711227e-02 2.370060188695788383e-03 -7.103417534381151199e-03 -6.091397721320390701e-03 -4.991834284737706184e-04 2.790426369756460190e-03 2.104979008436203003e-02 -1.675430871546268463e-02 -2.190071390941739082e-03 -1.385386288166046143e-02 1.445379387587308884e-02 5.139532499015331268e-03 -1.186246890574693680e-02 2.850219141691923141e-03 9.137342683970928192e-03 -8.657666854560375214e-03 -4.059698432683944702e-03 -2.800499321892857552e-03 6.037640850991010666e-03 -3.351740911602973938e-02 7.676578126847743988e-03 2.014321973547339439e-03 1.162856584414839745e-03 -1.239379774779081345e-02 -1.322969514876604080e-02 -2.604703418910503387e-02 2.187837846577167511e-02 -1.454494148492813110e-02 -2.564624138176441193e-02 -3.753159567713737488e-02 9.206210263073444366e-03 1.926641166210174561e-02 8.257857523858547211e-03 -8.954713121056556702e-03 -1.283522415906190872e-02 7.574754767119884491e-03 2.143518766388297081e-03 1.858985982835292816e-03 -1.850600726902484894e-02 8.864154107868671417e-03 -2.839256823062896729e-02 -7.666919380426406860e-03 1.667658612132072449e-02 5.843649152666330338e-03 -9.757865220308303833e-03 1.181175000965595245e-02 1.764288172125816345e-02 1.593420282006263733e-02 -3.846517065539956093e-03 4.546772316098213196e-02 -1.533500500954687595e-03 -5.974038038402795792e-03 -2.121054567396640778e-02 3.472092212177813053e-04 -1.412780676037073135e-02 -8.895189501345157623e-03 1.324995420873165131e-02 -1.507742097601294518e-03 -5.583244841545820236e-03 -1.729747280478477478e-02 1.502798125147819519e-02 -2.522584609687328339e-02 -3.996773157268762589e-04 9.046779945492744446e-03 2.282058703713119030e-04 -1.875660941004753113e-02 3.634694498032331467e-03 -8.644660934805870056e-03 6.181383971124887466e-03 -1.377010997384786606e-02 9.779452346265316010e-03 -3.293630201369524002e-03 3.554926486685872078e-03 2.122951671481132507e-03 9.652429725974798203e-04 -1.697716303169727325e-02 1.445339410565793514e-03 -1.235958375036716461e-02 -7.218758575618267059e-03 -6.830938626080751419e-03 -1.880779862403869629e-02 -1.538230758160352707e-02 -6.177756935358047485e-03 -3.981567453593015671e-03 1.160677988082170486e-02 1.335705397650599480e-03 -5.114726722240447998e-03 1.191317848861217499e-02 1.325165759772062302e-02 -1.223392970860004425e-02 -2.320012077689170837e-03 -1.516618672758340836e-02 -1.793932355940341949e-02 -4.964574240148067474e-03 2.344119362533092499e-02 -3.400601819157600403e-02 -6.081584433559328318e-05 1.900782249867916107e-02 1.521148951724171638e-03 -1.143878605216741562e-02 6.761143915355205536e-03 -1.387203112244606018e-02 -5.911135580390691757e-03 -1.158644165843725204e-02 -2.717175520956516266e-03 4.943137522786855698e-03 -5.356772337108850479e-03 1.862234901636838913e-03 1.975146681070327759e-02 -6.409749388694763184e-03 1.419472042471170425e-02 -1.240898109972476959e-02 4.790105856955051422e-03 3.376697888597846031e-03 2.352588996291160583e-02 1.702717738226056099e-03 3.369420999661087990e-03 1.621964573860168457e-02 -3.266141936182975769e-02 8.713584393262863159e-03 1.046534627676010132e-02 4.541845992207527161e-03 1.111936662346124649e-02 1.938628591597080231e-02 -1.119082910008728504e-03 -1.132180448621511459e-02 3.348856233060359955e-03 2.250368939712643623e-03 1.267988793551921844e-02 -1.572113297879695892e-02 2.381807379424571991e-02 -2.648410154506564140e-03 6.040858104825019836e-03 1.800641976296901703e-02 1.452040765434503555e-02 4.622903652489185333e-03 -8.046136237680912018e-03 -9.869256988167762756e-03 -1.921780034899711609e-02 -2.066088095307350159e-02 -2.962769474834203720e-03 -7.605195045471191406e-03 8.026034571230411530e-03 -1.164527703076601028e-02 -1.184540614485740662e-02 5.223314277827739716e-03 -1.655870862305164337e-02 1.279405783861875534e-02 8.084762841463088989e-03 1.493650302290916443e-02 6.937059573829174042e-03 -1.716886088252067566e-02 -5.613357760012149811e-03 3.747654613107442856e-03 -3.929013386368751526e-03 -3.312095301225781441e-03 -2.377826161682605743e-02 -8.170829154551029205e-03 -1.328799873590469360e-02 4.324339330196380615e-03
2.351082861423492432e-02 -6.220066454261541367e-03 2.374526299536228180e-02 -9.356804192066192627e-03 -2.185268327593803406e-02 1.180078182369470596e-02 -6.744672078639268875e-03 -2.101780846714973450e-02 1.173324417322874069e-02 7.041107746772468090e-04 -2.015704661607742310e-02 -6.995597388595342636e-03 7.987743243575096130e-03 -1.521883718669414520e-02 -2.566578565165400505e-03 2.051906194537878036e-03 -2.132695866748690605e-03 -8.130594156682491302e-03 3.335830941796302795e-02 4.094528034329414368e-03 -2.147521823644638062e-03 2.005450369324535131e-04 -1.735748723149299622e-02 -7.101215887814760208e-03 1.395079679787158966e-02 8.690777234733104706e-03 2.615921199321746826e-03 -1.034421008080244064e-02 4.574325401335954666e-03 -3.249057754874229431e-02 -8.835997432470321655e-03 -9.733349084854125977e-03 1.586456969380378723e-02 1.868546381592750549e-02 2.695350348949432373e-02 -3.538580378517508507e-03 -1.412110589444637299e-02 -1.966634998098015785e-03 9.315739385783672333e-03 -8.227457292377948761e-03 -2.572254091501235962e-02 3.081663697957992554e-02 -3.107965691015124321e-03 -1.139063760638237000e-02 9.191295830532908440e-04 -3.885494312271475792e-03 5.997448461130261421e-04 -9.730304591357707977e-03 -2.501877211034297943e-02 -1.821101293899118900e-03 3.576728049665689468e-03 1.726387999951839447e-02 -2.052737027406692505e-02 -1.949269883334636688e-02 1.697564730420708656e-03 -2.183895558118820190e-02 -3.536185948178172112e-03 1.786824688315391541e-02 -2.281769737601280212e-02 1.167440973222255707e-02 -1.867717504501342773e-02 -1.101115252822637558e-02 -3.264802973717451096e-03 -6.597810424864292145e-03 8.873213664628565311e-04 -2.131909877061843872e-02 -7.121519651263952255e-03 -5.086969118565320969e-03 -7.081762421876192093e-03 1.604216755367815495e-03 2.020710520446300507e-02 4.028751980513334274e-03 3.677828935906291008e-04 1.088850852102041245e-02 -1.648097764700651169e-03 -4.370691720396280289e-03 2.006471715867519379e-02 7.507258560508489609e-03 2.980375138577073812e-04 -9.029880166053771973e-03 -1.831859163939952850e-02 1.296718977391719818e-02 -7.554000243544578552e-03 7.969259168021380901e-04 -4.817810654640197754e-02 -8.669693954288959503e-03 -7.646789308637380600e-03 2.395785879343748093e-03 8.179725147783756256e-03 3.830199595540761948e-03 -1.536428742110729218e-02 -2.144076279364526272e-04 4.373757983557879925e-04 2.233921550214290619e-02 9.281529113650321960e-03 -2.415587753057479858e-02 1.163436938077211380e-02 6.964177824556827545e-03 1.310601271688938141e-02 -3.441679477691650391e-02 6.182678509503602982e-03 -1.148815173655748367e-02 2.901908010244369507e-03 -5.506208632141351700e-03 6.183862686157226562e-03 3.691411344334483147e-03 2.458784915506839752e-02 2.933516353368759155e-02 -1.669873856008052826e-02 6.074100383557379246e-04 -9.566241875290870667e-03 6.234443280845880508e-03 2.285218099132180214e-03 1.085260603576898575e-02 -5.979520268738269806e-03 -2.355596981942653656e-02 5.104424431920051575e-03 3.763052821159362793e-02 -1.463671773672103882e-02 9.783169254660606384e-03 -1.422415254637598991e-03 -1.151938550174236298e-02 2.012258861213922501e-03 7.834041491150856018e-03 -1.128592621535062790e-02 2.564646489918231964e-02 -1.404630206525325775e-02 -2.270480850711464882e-03 -5.941996350884437561e-03 1.802327483892440796e-02 7.469517178833484650e-03 -8.041229099035263062e-03 1.860099285840988159e-02 4.344836343079805374e-03 -9.664552286267280579e-03 8.574458770453929901e-03 2.891378710046410561e-03 -3.367153462022542953e-03 2.962906379252672195e-03 -2.534780465066432953e-02 -2.372772432863712311e-03 7.065903395414352417e-03 -2.598746446892619133e-03 1.278231851756572723e-02 1.497007347643375397e-02 -2.218472771346569061e-02 -3.304520994424819946e-02 -3.170155221596360207e-03 -1.730376854538917542e-02 -1.118278596550226212e-02 -3.873417619615793228e-03 2.548995986580848694e-02 -1.312900101765990257e-03 1.580511406064033508e-02 1.218076609075069427e-02 -1.742199994623661041e-02 5.200610961765050888e-03 -1.333471480756998062e-02 2.473401650786399841e-02 9.366902522742748260e-03 -6.595033220946788788e-03 -2.366231940686702728e-02 7.099560927599668503e-03 -5.659285001456737518e-03 -2.906374260783195496e-02 -3.644176293164491653e-03 2.268588542938232422e-02 3.002804517745971680e-02 -1.219301391392946243e-02 4.519525915384292603e-03 -8.754703216254711151e-03 5.196901038289070129e-03 5.759309977293014526e-03 3.144867718219757080e-03 1.654465124011039734e-02 -1.045113895088434219e-02 -5.017498624511063099e-04 -1.563252136111259460e-02 4.696830641478300095e-03 -1.711801066994667053e-02 -2.997698262333869934e-03 1.596411317586898804e-02 -5.354336462914943695e-03 4.076304659247398376e-02 2.197344042360782623e-02 2.759804949164390564e-02 1.170806773006916046e-02 -4.724488779902458191e-02 -2.575834095478057861e-02 3.309004474431276321e-03 2.264627069234848022e-02 -8.158054202795028687e-03 4.239299800246953964e-03 -5.275586154311895370e-03 -1.238561142235994339e-02 1.993807731196284294e-03 1.686706207692623138e-02 -3.270698478445410728e-03 -1.027579698711633682e-02 1.647979021072387695e-02 3.587323054671287537e-02 2.207940816879272461e-02 -2.041653729975223541e-02 -1.027989573776721954e-02 1.671014726161956787e-02 1.634988375008106232e-02 3.765345085412263870e-03 -1.041359733790159225e-02 -1.321695279330015182e-02 -6.115859374403953552e-03 -2.133590728044509888e-02 6.654903758317232132e-03 5.092837964184582233e-04 2.338842488825321198e-02 -2.558604814112186432e-02 1.024990994483232498e-02 -1.816102652810513973e-03 -1.923190546222031116e-03 3.269323147833347321e-03 6.498733069747686386e-03 -4.449058789759874344e-03 -1.526193460449576378e-03 5.457247607409954071e-03 1.538656651973724365e-02 3.569070482626557350e-03 2.448689378798007965e-02 -1.568537764251232147e-02 2.592441067099571228e-02 1.833429909311234951e-03 -1.365581192658282816e-05 3.759168030228465796e-04 2.829793142154812813e-03 1.188280526548624039e-02 -7.915059104561805725e-03 2.280254149809479713e-03 -1.479981350712478161e-03 -1.240029092878103256e-02 -1.827490329742431641e-02 -1.635299529880285263e-03 -3.912362456321716309e-02 1.273998059332370758e-02 -1.087813288904726505e-03 2.822285285219550133e-03 9.991613216698169708e-03 -3.946057055145502090e-03 -1.113128382712602615e-02 -6.558049935847520828e-03 -2.491339668631553650e-02 -2.991605550050735474e-02 1.684683188796043396e-02 1.662655384279787540e-03 -1.195126213133335114e-02 -1.063779182732105255e-02 6.350043229758739471e-03 9.118893649429082870e-04 1.544926874339580536e-02
-1.105384435504674911e-02 -7.570306304842233658e-03 -6.822772789746522903e-03 -3.914703149348497391e-03 -1.634530839510262012e-03 1.188528258353471756e-02 -1.128044724464416504e-02 -4.719229880720376968e-03 1.138442661613225937e-03 -8.110210299491882324e-03 3.532101109158247709e-04 -1.027898769825696945e-02 -2.019036002457141876e-02 1.276557333767414093e-02 -9.541170671582221985e-03 2.138692140579223633e-02 2.236771397292613983e-03 1.381278038024902344e-02 -6.136983633041381836e-03 -3.267077263444662094e-03 4.301885608583688736e-03 3.459852305240929127e-04 1.417767349630594254e-02 -1.849140599370002747e-02 3.262188285589218140e-03 5.147410556674003601e-03 1.297685084864497185e-03 2.961769932880997658e-03 3.503398597240447998e-02 1.237507909536361694e-02 -1.927914284169673920e-02 3.922502975910902023e-03 -9.724457748234272003e-03 -1.633532461710274220e-03 -1.510728243738412857e-02 -1.278468500822782516e-02 2.045914297923445702e-03 -7.007015403360128403e-03 1.331321150064468384e-02 5.937030538916587830e-03 4.331980831921100616e-03 9.965101256966590881e-03 5.249641835689544678e-03 -2.590701729059219360e-02 -2.140324562788009644e-02 6.701308768242597580e-03 3.647981211543083191e-03 -5.885075777769088745e-03 -3.115483326837420464e-03 -1.661116443574428558e-02 1.063190051354467869e-03 -1.374663319438695908e-02 -8.685702458024024963e-03 -5.739727523177862167e-03 -5.099610425531864166e-03 4.106047749519348145e-02 6.499239709228277206e-03 3.399520413950085640e-03 5.957309622317552567e-04 -3.803386818617582321e-03 -2.642264962196350098e-02 1.564035564661026001e-02 9.625514969229698181e-03 -2.598033519461750984e-03 -3.582333447411656380e-03 -5.668760859407484531e-04 -6.820871960371732712e-03 1.479020575061440468e-03 8.043806999921798706e-03 -2.563389716669917107e-03 -3.783415537327528000e-03 6.185565143823623657e-04 -1.728273113258183002e-03 9.893096983432769775e-03 -1.385939400643110275e-02 1.222712639719247818e-02 2.162815444171428680e-02 -2.728163450956344604e-02 -9.041215293109416962e-03 6.688788416795432568e-04 -2.785333059728145599e-02 -2.590827643871307373e-03 4.078956553712487221e-04 -4.314942285418510437e-03 2.922774292528629303e-02 8.009395562112331390e-03 -4.261902067810297012e-03 1.504223980009555817e-02 -2.618396887555718422e-03 -3.695144783705472946e-03 -6.060636602342128754e-03 -1.749723963439464569e-02 1.842701248824596405e-02 6.053640507161617279e-03 4.800089518539607525e-04 2.127115614712238312e-02 9.444793686270713806e-03 1.332877203822135925e-03 -1.018104143440723419e-02 -8.603233844041824341e-03 -9.488048963248729706e-03 3.411317477002739906e-03 -1.686013862490653992e-02 1.663199812173843384e-02 -8.961086161434650421e-03 1.906290464103221893e-02 -4.636826924979686737e-03 -1.067296229302883148e-02 1.021523680537939072e-02 1.829284359700977802e-03 -4.818121436983346939e-03 2.348484238609671593e-03 -9.652779437601566315e-03 -9.794197045266628265e-03 -6.450788117945194244e-03 -1.153473183512687683e-02 -1.135441474616527557e-03 4.016818944364786148e-03 -8.271368569694459438e-04 3.635536879301071167e-02 -1.720752008259296417e-02 1.057213358581066132e-02 -1.173208933323621750e-02 1.464000251144170761e-02 8.546263910830020905e-03 -3.035636804997920990e-02 -1.436910475604236126e-03 4.407478030771017075e-03 -3.748804703354835510e-02 1.691668666899204254e-02 1.264089439064264297e-02 -1.437208522111177444e-02 4.263793525751680136e-04 1.849730906542390585e-04 1.683172071352601051e-03 5.948044825345277786e-03 9.674318134784698486e-03 -1.665467629209160805e-03 9.018930606544017792e-03 6.603917106986045837e-03 -2.447108551859855652e-02 1.147729126387275755e-04 6.670669186860322952e-03 -1.853751204907894135e-02 -1.282613910734653473e-02 3.782532736659049988e-02 -1.598064042627811432e-02 3.880374366417527199e-03 -4.807482939213514328e-03 -1.354064792394638062e-02 -1.967910304665565491e-02 -3.126713214442133904e-03 4.730963148176670074e-03 -1.629961095750331879e-02 -1.170406863093376160e-02 6.198112852871417999e-03 1.221555564552545547e-02 6.639727856963872910e-03 -2.076631225645542145e-02 -2.340880309930071235e-04 -2.380841784179210663e-02 2.024302631616592407e-02 4.527215845882892609e-03 -1.252334378659725189e-02 -9.857266210019588470e-03 -1.260508690029382706e-02 3.804843872785568237e-03 -2.304990403354167938e-02 2.733277715742588043e-02 3.247646149247884750e-03 -5.246926099061965942e-02 -9.729119949042797089e-03 3.476780606433749199e-03 -4.173669964075088501e-03 1.317105634370818734e-04 3.905967110767960548e-03 -1.810621656477451324e-02 6.167653482407331467e-04 1.495252945460379124e-03 2.648271154612302780e-03 3.504588268697261810e-03 2.355123125016689301e-02 8.002073504030704498e-03 -2.235856605693697929e-03 -1.446051336824893951e-02 -1.325435098260641098e-02 -1.972142234444618225e-02 -2.852918952703475952e-02 1.920060627162456512e-02 3.692423924803733826e-03 1.643651537597179413e-02 -6.870801560580730438e-03 -5.614333320409059525e-03 1.246236730366945267e-02 -6.658634636551141739e-03 -1.294080517254769802e-03 2.546162717044353485e-02 1.775272749364376068e-02 5.531185772269964218e-03 -1.464133616536855698e-02 1.188290212303400040e-02 2.332402952015399933e-02 -1.823189854621887207e-02 2.092546597123146057e-02 1.434183912351727486e-03 -1.861982455011457205e-04 -1.687557809054851532e-02 4.195352550595998764e-03 -2.320890314877033234e-03 2.950866473838686943e-03 2.680008858442306519e-02 -3.283879486843943596e-03 4.101901780813932419e-03 -4.366849549114704132e-03 -1.028863899409770966e-02 1.601311191916465759e-02 -3.371786093339323997e-03 1.384047907777130604e-03 -1.216182485222816467e-02 -6.898995954543352127e-03 -1.071415841579437256e-02 9.283107938244938850e-04 -7.741209585219621658e-03 3.023288398981094360e-02 2.901640348136425018e-02 -7.797626312822103500e-03 -2.280898392200469971e-03 -2.282086294144392014e-03 5.421134177595376968e-03 -2.229707082733511925e-03 -3.818419761955738068e-03 6.442756857722997665e-03 8.069119416177272797e-03 1.324075739830732346e-02 3.426122013479471207e-03 -1.431687269359827042e-02 1.436098827980458736e-03 -7.783564738929271698e-03 6.018329877406358719e-03 -1.388263609260320663e-02 5.064387340098619461e-03 -3.113266313448548317e-03 1.711413351586088538e-04 6.281878449954092503e-04 -3.998260013759136200e-03 1.894571178127080202e-04 1.486123818904161453e-02 3.340576309710741043e-03 -1.267470791935920715e-02 -1.513543352484703064e-02 -3.114701830781996250e-04 -2.171748084947466850e-03 -1.652188412845134735e-02 7.809354458004236221e-03 -1.293024979531764984e-02 2.435150370001792908e-02
-1.903009600937366486e-02 4.635235760360956192e-03 -1.805850770324468613e-03 8.756273426115512848e-03 -3.078820183873176575e-03 8.531942963600158691e-03 -6.454266986111178994e-05 -6.561712361872196198e-03 1.096441876143217087e-02 -1.445498201064765453e-04 -1.325672771781682968e-02 -5.698445718735456467e-03 5.216839257627725601e-03 4.599952138960361481e-03 -1.745635992847383022e-03 -4.881801083683967590e-03 -6.526147015392780304e-03 5.311052780598402023e-03 -3.365749958902597427e-03 1.511076185852289200e-02 -8.636138954898342490e-05 -3.487951820716261864e-03 7.626392762176692486e-04 2.015529200434684753e-02 -1.144745759665966034e-02 -1.265467237681150436e-02 -5.253071896731853485e-03 1.106054056435823441e-03 1.825843588449060917e-03 -8.012005127966403961e-03 3.171287942677736282e-03 -8.303062990307807922e-03 7.347717415541410446e-03 -7.376531139016151428e-03 -4.438495088834315538e-04 2.574052894487977028e-03 1.203142385929822922e-02 -9.446442127227783203e-03 1.870597363449633121e-03 1.456672884523868561e-02 3.606605157256126404e-02 -1.183629408478736877e-02 -1.944550499320030212e-02 -7.934613153338432312e-03 -3.458380699157714844e-03 -5.956814158707857132e-03 -8.289625984616577625e-04 4.601802211254835129e-03 -1.043120305985212326e-02 -8.742001838982105255e-03 5.138266365975141525e-03 5.822245962917804718e-03 6.992983631789684296e-03 -1.352408248931169510e-02 1.646165503188967705e-03 -7.579639088362455368e-03 -5.459577077999711037e-04 -2.082698605954647064e-02 -5.736256949603557587e-03 -5.629302002489566803e-03 -8.264060132205486298e-03 5.028675775974988937e-03 1.217088475823402405e-02 4.905266687273979187e-03 2.706962404772639275e-03 -1.032610330730676651e-02 -8.347332477569580078e-03 -4.575989209115505219e-03 2.149802073836326599e-02 1.439946517348289490e-02 3.073544474318623543e-03 7.724261842668056488e-03 4.913602489978075027e-03 -8.633229881525039673e-03 -3.843629034236073494e-03 -8.078982122242450714e-03 1.253287401050329208e-02 -1.963506639003753662e-02 5.704086739569902420e-03 -1.274295267648994923e-03 -6.171846296638250351e-03 -1.132728625088930130e-02 8.362170192413032055e-04 -6.613954436033964157e-03 6.785838864743709564e-03 1.667181611992418766e-03 -1.253093127161264420e-03 1.452598348259925842e-02 -1.987068913877010345e-02 -2.527040895074605942e-03 1.013228576630353928e-02 8.497703820466995239e-03 2.976326504722237587e-03 9.445372037589550018e-03 -3.270287765190005302e-03 4.674417723435908556e-04 -6.193571025505661964e-04 -1.951115904375910759e-03 -4.771532956510782242e-03 -3.506736457347869873e-02 9.759007021784782410e-03 -3.722977126017212868e-03 -1.776600605808198452e-03 1.210766471922397614e-02 -1.116530969738960266e-02 -2.588767674751579762e-04 -1.426852541044354439e-03 -6.535742431879043579e-03 1.102712471038103104e-02 1.375084090977907181e-02 1.592219248414039612e-02 5.831674672663211823e-03 1.445102412253618240e-02 -2.709037158638238907e-03 -3.564873943105340004e-03 6.430541630834341049e-03 -7.948513142764568329e-03 4.845062270760536194e-03 -1.245731767266988754e-02 -7.430003490298986435e-03 -4.146042279899120331e-03 7.412367034703493118e-03 6.093741860240697861e-03 -2.757534617558121681e-03 -2.477540262043476105e-02 -7.604493293911218643e-03 8.753638714551925659e-03 3.851533867418766022e-03 2.831620397046208382e-03 -6.912631215527653694e-04 -4.090458154678344727e-03 4.156284267082810402e-04 2.544152550399303436e-03 4.595707170665264130e-03 -2.280491753481328487e-04 1.124998205341398716e-03 1.213683467358350754e-02 -9.907934581860899925e-04 6.031743716448545456e-03 -4.627881571650505066e-03 -7.952014915645122528e-03 3.193040145561099052e-03 1.315139047801494598e-02 7.943519391119480133e-03 1.415673177689313889e-02 -2.210272708907723427e-03 -1.139128487557172775e-02 -8.017542422749102116e-04 6.371674826368689537e-04 4.662792198359966278e-03 -1.214179326780140400e-03 -7.000749465078115463e-04 5.469546886160969734e-04 -1.355931628495454788e-02 -1.318421028554439545e-02 -2.276233397424221039e-03 1.321078836917877197e-02 4.927524831146001816e-03 3.185353940352797508e-03 1.509260479360818863e-02 1.654554391279816628e-03 6.235579494386911392e-03 -8.603006601333618164e-03 -1.331396284513175488e-03 -4.655099939554929733e-03 -1.661296468228101730e-03 -5.458632484078407288e-03 -6.775720394216477871e-04 -4.541961941868066788e-03 -5.566005595028400421e-03 -9.942333213984966278e-03 -1.206539571285247803e-02 -6.981072016060352325e-03 -8.113678544759750366e-03 1.024392060935497284e-02 6.013390608131885529e-03 7.178459316492080688e-03 -4.667462781071662903e-03 -3.505641361698508263e-03 -2.154485555365681648e-03 1.901853643357753754e-02 9.225885383784770966e-03 1.095330691896378994e-03 -2.897049300372600555e-03 -1.093732571462169290e-04 -6.861102301627397537e-03 8.676320314407348633e-03 -3.658718487713485956e-04 4.054851888213306665e-04 5.294412840157747269e-03 1.122797001153230667e-02 1.142710819840431213e-02 1.370108220726251602e-02 4.837634973227977753e-03 2.948092762380838394e-03 -1.994687132537364960e-03 -6.467726198025047779e-04 6.372041534632444382e-03 -2.064729342237114906e-03 2.258669555885717273e-04 3.445391077548265457e-03 1.840804144740104675e-02 -1.538863312453031540e-02 4.663792438805103302e-03 -1.448117662221193314e-03 -1.100876927375793457e-02 5.666372366249561310e-03 9.593653492629528046e-03 -4.280557390302419662e-03 1.486671529710292816e-02 3.533812006935477257e-03 -2.839124761521816254e-03 6.971770897507667542e-03 5.428205477073788643e-04 -5.360804498195648193e-04 4.127419553697109222e-03 1.928372774273157120e-03 5.838969955220818520e-04 -2.391434833407402039e-02 -1.325614843517541885e-02 1.063321344554424286e-02 5.253546871244907379e-03 1.055928412824869156e-02 -2.848997013643383980e-03 6.457388401031494141e-03 -5.755707155913114548e-03 -4.077523481100797653e-03 1.424432382918894291e-03 8.452835492789745331e-03 1.532028982182964683e-04 -8.325153030455112457e-03 1.523149199783802032e-02 -6.838334724307060242e-03 -4.952743183821439743e-03 1.567054190672934055e-03 7.741720881313085556e-03 -3.010735148563981056e-03 -4.405031446367502213e-03 8.909983560442924500e-03 1.443576719611883163e-02 5.129156634211540222e-03 3.245750674977898598e-03 -1.594237517565488815e-03 5.029401741921901703e-03 -3.059013746678829193e-02 6.550556980073451996e-03 8.295084349811077118e-03 -5.292749032378196716e-03 -4.056459292769432068e-03 6.704177707433700562e-03 5.900613963603973389e-03 -6.187860388308763504e-03 -1.224959082901477814e-02 7.976069115102291107e-03 -9.678781963884830475e-03 2.659310353919863701e-03
-9.185968665406107903e-04 -9.357714094221591949e-03 -5.601386073976755142e-03 -2.011840604245662689e-02 -4.498931113630533218e-03 -4.484934732317924500e-03 -2.422981197014451027e-03 6.105711683630943298e-03 1.511311344802379608e-02 8.770273998379707336e-03 -8.601269684731960297e-03 -3.408974502235651016e-03 2.707065828144550323e-02 -1.828975975513458252e-02 1.834272034466266632e-02 -1.376216392964124680e-02 6.372984033077955246e-03 -6.760518532246351242e-03 1.334125455468893051e-02 2.214009175077080727e-03 -1.138827297836542130e-02 -1.929759234189987183e-02 8.312542922794818878e-03 -1.141829602420330048e-02 3.742579836398363113e-03 -2.009605243802070618e-02 6.331986747682094574e-03 -1.827225461602210999e-02 1.933847740292549133e-02 -1.008403394371271133e-02 6.782419048249721527e-03 4.103882238268852234e-03 -2.816740982234477997e-02 4.344234615564346313e-02 6.481559947133064270e-03 7.367431651800870895e-03 -2.151413820683956146e-02 -1.373747549951076508e-02 6.601891946047544479e-03 -4.083492327481508255e-03 5.005638115108013153e-03 1.245030481368303299e-02 -1.572408596985042095e-03 -1.346122752875089645e-02 7.073615211993455887e-03 -3.955990541726350784e-03 5.742775741964578629e-03 -4.948189109563827515e-02 -2.002054639160633087e-02 1.058263145387172699e-02 7.567801047116518021e-03 -2.146278508007526398e-02 9.296259959228336811e-04 -1.877845823764801025e-02 -2.338498458266258240e-02 -6.414694711565971375e-03 9.059009142220020294e-03 -5.259940866380929947e-03 -1.808909885585308075e-02 -1.195229683071374893e-02 -2.995407907292246819e-03 3.563173348084092140e-03 -1.790995337069034576e-02 -8.240532130002975464e-03 7.212940603494644165e-03 4.560116678476333618e-03 -1.068780571222305298e-02 -2.498439326882362366e-02 -1.459305547177791595e-02 -1.855996064841747284e-02 -1.248855330049991608e-02 1.232861634343862534e-02 -7.868324406445026398e-03 -6.396883632987737656e-03 -1.653930358588695526e-02 1.002124045044183731e-02 -3.069566003978252411e-02 -1.637580804526805878e-03 -5.549534689635038376e-04 7.616748102009296417e-03 7.745514623820781708e-03 9.020779281854629517e-03 -9.939646348357200623e-03 -2.501110313460230827e-03 -1.059077493846416473e-02 -7.011282723397016525e-04 1.739842072129249573e-02 -1.373690669424831867e-03 5.556217394769191742e-03 3.791735321283340454e-02 -1.389385201036930084e-03 -1.040886342525482178e-02 -3.893198299920186400e-05 3.235075995326042175e-02 -1.084928750060498714e-03 -2.440952323377132416e-02 2.791562862694263458e-02 -9.600337594747543335e-03 1.356441807001829147e-02 -3.809486748650670052e-03 6.171842105686664581e-03 -2.696551941335201263e-02 -1.216002926230430603e-02 5.422628484666347504e-03 -2.015624009072780609e-02 -1.997339166700839996e-02 -4.264674149453639984e-03 1.181861080112867057e-04 -9.973085485398769379e-03 2.616208232939243317e-02 1.097214501351118088e-02 -1.225317548960447311e-02 1.031088270246982574e-02 -9.019010700285434723e-03 -1.930927508510649204e-03 -5.709059070795774460e-03 2.573286183178424835e-03 1.383034687023609877e-04 -1.088705286383628845e-02 -8.948875591158866882e-03 -4.950937815010547638e-03 -5.811588373035192490e-03 1.487827394157648087e-02 -4.522196250036358833e-04 7.474205456674098969e-03 4.770071245729923248e-03 -2.703969180583953857e-02 -3.130125626921653748e-02 1.289251726120710373e-02 -1.081672089640051126e-04 -2.327547222375869751e-02 1.986570132430642843e-04 -9.015519171953201294e-03 -1.948681473731994629e-02 -9.265473112463951111e-03 -2.077759243547916412e-02 -2.087624557316303253e-02 -9.720917791128158569e-03 8.929808973334729671e-04 -1.009354926645755768e-02 -1.506152469664812088e-02 3.633428132161498070e-03 -6.375901866704225540e-03 1.645604521036148071e-02 4.507597535848617554e-03 -1.989509910345077515e-03 -1.191497221589088440e-02 -8.507323451340198517e-03 5.020327400416135788e-03 2.626103721559047699e-02 1.323702838271856308e-02 9.154281578958034515e-03 2.063389867544174194e-02 -1.821440458297729492e-02 6.171297747641801834e-03 -8.097781799733638763e-03 -1.042576506733894348e-02 -2.597958222031593323e-02 -5.908612161874771118e-03 -9.632442146539688110e-03 8.294667117297649384e-03 -7.999724708497524261e-03 -5.339594557881355286e-03 -8.588189259171485901e-03 3.598435316234827042e-03 8.294468745589256287e-03 1.212488207966089249e-02 3.080228576436638832e-03 1.261015981435775757e-02 -1.922987774014472961e-02 -3.309021936729550362e-03 1.002917066216468811e-02 -9.026862680912017822e-03 1.353306142846122384e-04 -1.783833280205726624e-02 8.128081448376178741e-03 -5.123371956869959831e-04 -7.215862628072500229e-03 1.427084114402532578e-02 -1.985543780028820038e-02 -8.763894438743591309e-03 -1.645173691213130951e-02 1.669103652238845825e-02 -2.106461301445960999e-02 -9.679013863205909729e-03 1.035845722071826458e-03 -6.684401887468993664e-04 -9.052691981196403503e-03 -2.166198100894689560e-03 6.728739477694034576e-03 -8.412221213802695274e-04 3.839247627183794975e-03 -1.549519132822751999e-02 2.278904663398861885e-03 6.001909729093313217e-03 -2.908729575574398041e-02 -1.131139695644378662e-02 -2.297813771292567253e-03 -2.941623795777559280e-03 7.165712886489927769e-04 7.358464878052473068e-03 -1.627959683537483215e-02 -7.478583138436079025e-03 5.816138815134763718e-03 -5.557768046855926514e-03 -1.429050602018833160e-02 -1.185878831893205643e-02 8.311058394610881805e-03 -1.280183438211679459e-02 1.062487158924341202e-02 2.855690196156501770e-02 -1.605091616511344910e-02 1.424369518645107746e-03 -3.262203419581055641e-03 2.768175210803747177e-03 -5.594657268375158310e-03 9.320092387497425079e-03 6.479539442807435989e-03 1.161139458417892456e-02 -5.384064745157957077e-03 -9.050661697983741760e-03 -1.082187797874212265e-02 3.473656950518488884e-03 1.224083080887794495e-02 -6.993921007961034775e-03 -8.677827194333076477e-03 3.512057708576321602e-03 -4.291908815503120422e-03 3.484511747956275940e-03 -9.632520377635955811e-03 1.010084408335387707e-03 -1.746685057878494263e-02 7.333488203585147858e-03 2.462104335427284241e-02 -4.182140983175486326e-04 -2.782297786325216293e-03 1.821133680641651154e-02 -1.993094198405742645e-02 3.636212088167667389e-03 -2.346598729491233826e-02 5.325781181454658508e-03 2.968878252431750298e-03 2.461990807205438614e-03 -1.652492955327033997e-02 1.320828869938850403e-02 -1.317617576569318771e-02 -2.053786441683769226e-02 -3.849214175716042519e-03 9.732916951179504395e-03 -1.891339570283889771e-02 -2.707498520612716675e-02 1.156215649098157883e-02 1.012637093663215637e-02 1.186078041791915894e-02 3.207420930266380310e-03 -2.333513693884015083e-03
-6.414207164198160172e-03 -2.104405546560883522e-03 -3.732758341357111931e-03 -1.006603986024856567e-02 -1.836839481256902218e-03 5.711195990443229675e-03 1.514563616365194321e-02 1.418816018849611282e-02 -2.373872138559818268e-02 -1.214695721864700317e-02 2.110137604176998138e-02 1.953366771340370178e-02 1.060177385807037354e-02 -2.483560005202889442e-03 1.630600728094577789e-02 -1.574868895113468170e-02 -9.106196463108062744e-03 -1.127563416957855225e-02 5.274562630802392960e-03 -3.461585380136966705e-03 3.314645588397979736e-02 -2.852244302630424500e-02 -1.627042889595031738e-02 -5.799184553325176239e-03 7.024126127362251282e-03 1.254566013813018799e-02 -7.259381469339132309e-03 -1.047061663120985031e-02 -1.057478250004351139e-03 8.648345828987658024e-05 -2.701548626646399498e-03 2.285923110321164131e-03 -6.247090175747871399e-03 1.180762192234396935e-03 -1.076899562031030655e-02 -4.625824745744466782e-03 -1.819773227907717228e-03 -2.806641394272446632e-03 1.182200154289603233e-03 -1.618090830743312836e-02 -7.042705081403255463e-03 -8.698146790266036987e-03 7.765164598822593689e-03 -1.856389828026294708e-02 3.855756251141428947e-03 -3.332744119688868523e-03 1.595018059015274048e-02 1.060047280043363571e-02 -5.244599189609289169e-03 -3.985715564340353012e-03 -9.141096961684525013e-04 -8.623156696557998657e-03 -2.732201712206006050e-03 1.260187290608882904e-02 -1.810285262763500214e-02 -9.809269104152917862e-04 1.716598495841026306e-02 2.050878293812274933e-02 -1.023324858397245407e-02 -3.880308067891746759e-04 -2.331240847706794739e-02 8.066563867032527924e-03 -1.291827065870165825e-04 -2.814723551273345947e-02 1.279921154491603374e-03 6.813321961089968681e-04 -1.043052691966295242e-02 -1.532029081135988235e-02 1.846878230571746826e-02 -8.746481616981327534e-04 7.639874238520860672e-03 -9.310536086559295654e-03 1.584514044225215912e-02 1.704951561987400055e-02 -5.421962123364210129e-03 -7.077326066792011261e-03 4.184706136584281921e-03 9.355423040688037872e-03 1.857604086399078369e-02 -5.674233194440603256e-03 -8.890344761312007904e-03 2.152778021991252899e-02 5.647188518196344376e-03 1.781742088496685028e-02 1.009364612400531769e-02 2.016358450055122375e-02 3.596873953938484192e-03 -1.304217381402850151e-03 -1.198478601872920990e-02 -1.346335466951131821e-02 -3.941311151720583439e-04 2.297730371356010437e-02 5.406309850513935089e-03 -1.087806373834609985e-02 -9.482790715992450714e-03 -8.606764022260904312e-04 -4.797346889972686768e-03 -5.581947509199380875e-03 -1.574108493514358997e-03 -1.720054261386394501e-02 2.077139727771282196e-02 -7.012293208390474319e-03 6.491167470812797546e-03 1.004797872155904770e-03 2.741630887612700462e-03 -1.387093681842088699e-02 -2.257143205497413874e-04 -5.288638174533843994e-03 -6.501218304038047791e-03 5.006732884794473648e-03 -6.200647912919521332e-03 -2.085171453654766083e-02 2.214657887816429138e-02 7.260046899318695068e-03 -6.670145317912101746e-03 1.333502121269702911e-02 4.939712234772741795e-04 1.158459391444921494e-02 5.998220294713973999e-03 -5.717798136174678802e-03 8.691475726664066315e-03 2.347101084887981415e-02 -1.338016823865473270e-03 9.551364928483963013e-03 1.047862600535154343e-02 -2.078631147742271423e-02 7.569982670247554779e-03 -2.244026167318224907e-03 3.515947842970490456e-03 -1.990114711225032806e-02 4.296525381505489349e-03 1.062126178294420242e-02 1.064195763319730759e-02 -1.949693821370601654e-02 -2.295158803462982178e-03 -6.052386946976184845e-03 2.176286838948726654e-02 -1.229205372510477901e-04 -1.088018156588077545e-02 1.665172725915908813e-02 1.765087433159351349e-02 5.328920087777078152e-04 -2.020796760916709900e-03 1.267360057681798935e-02 -1.090480131097137928e-03 -1.404734142124652863e-02 -1.151733472943305969e-02 -4.413758404552936554e-03 1.374166458845138550e-02 -1.520901545882225037e-02 4.505096003413200378e-03 6.943318527191877365e-03 6.856308318674564362e-03 2.318246988579630852e-03 -1.366513874381780624e-02 -2.607023110613226891e-03 -2.960732439532876015e-03 5.452129989862442017e-03 -4.959566053003072739e-03 -3.634770866483449936e-03 -3.701717779040336609e-02 1.303830742835998535e-02 -9.051014669239521027e-03 -1.774207502603530884e-02 1.231300458312034607e-02 4.349441267549991608e-03 -1.832814514636993408e-02 3.539569152053445578e-04 2.127243019640445709e-02 3.221197053790092468e-03 -9.394473396241664886e-03 -5.730237346142530441e-03 2.541626244783401489e-02 -2.168584428727626801e-02 -9.673682972788810730e-03 -2.806845121085643768e-03 4.439013719093054533e-04 -2.173211425542831421e-03 4.659833852201700211e-03 2.219649590551853180e-02 1.787567697465419769e-02 -2.590358955785632133e-03 -6.729957647621631622e-03 7.469025440514087677e-03 -6.475170608609914780e-03 -4.288573283702135086e-03 -2.940629422664642334e-02 -7.445640512742102146e-04 2.241083420813083649e-02 5.563972517848014832e-03 1.884645037353038788e-02 1.403730275342240930e-04 3.099810332059860229e-03 -1.255935709923505783e-02 -1.031856890767812729e-02 -1.220605242997407913e-02 8.452031761407852173e-03 -1.656599459238350391e-03 1.949827559292316437e-02 1.168927177786827087e-02 1.428050827234983444e-02 6.213205400854349136e-03 3.071177052333950996e-03 2.365660481154918671e-02 -4.310206510126590729e-03 4.121539369225502014e-02 9.069451130926609039e-03 -8.756658062338829041e-03 1.079456973820924759e-02 8.959975093603134155e-03 -1.866687671281397343e-03 3.092542057856917381e-03 -1.650336384773254395e-02 -1.398865715600550175e-03 -4.027294460684061050e-03 1.080530695617198944e-02 -1.743560656905174255e-02 -6.468225736171007156e-03 -3.328351676464080811e-02 1.271988917142152786e-02 1.715081557631492615e-02 8.021793328225612640e-03 1.200477220118045807e-02 -4.713727626949548721e-03 1.130016427487134933e-02 1.932885148562490940e-03 -6.615079939365386963e-03 -8.229726925492286682e-03 1.509104948490858078e-02 -2.321453392505645752e-02 -1.578459143638610840e-02 1.653963699936866760e-03 2.907941350713372231e-03 8.962838910520076752e-03 -9.307241998612880707e-03 1.049159839749336243e-02 3.062133491039276123e-02 -2.408816013485193253e-03 5.786387249827384949e-03 8.354354649782180786e-03 -8.268112316727638245e-03 -1.084563601762056351e-02 2.540183812379837036e-02 1.519689150154590607e-02 -2.634860202670097351e-02 1.329366466961801052e-03 -2.531206049025058746e-02 5.231428425759077072e-03 1.538556441664695740e-02 -1.236136443912982941e-02 -2.492813393473625183e-02 1.459964434616267681e-03 -7.507359143346548080e-03 -1.896315021440386772e-03 6.200937088578939438e-03 8.201215416193008423e-03
4.187829108559526503e-05 1.793963462114334106e-02 -2.967942692339420319e-02 -1.595966145396232605e-02 -9.510448202490806580e-03 -1.779413595795631409e-02 4.972058814018964767e-03 -2.276249928399920464e-03 -2.054753713309764862e-04 -4.127709195017814636e-03 -1.993329264223575592e-02 1.285474048927426338e-03 -1.274786330759525299e-02 1.916149165481328964e-03 1.321600633673369884e-03 7.462256588041782379e-03 9.712341241538524628e-03 1.292036660015583038e-02 6.806863937526941299e-03 -1.193801686167716980e-02 1.340295094996690750e-02 -1.774914562702178955e-02 1.354400254786014557e-02 3.706435745698399842e-05 -3.628378501161932945e-03 1.156259793788194656e-02 -1.349903177469968796e-02 1.412688195705413818e-02 -5.994000006467103958e-03 1.746649667620658875e-02 -1.333818119019269943e-02 -1.040164474397897720e-02 -8.691175840795040131e-03 -2.162756770849227905e-02 2.733634412288665771e-02 2.491441089659929276e-03 -1.793842017650604248e-02 8.294423110783100128e-03 -8.854408748447895050e-03 -4.626857407856732607e-04 -2.710572630167007446e-02 -6.545260548591613770e-03 -1.081572263501584530e-03 8.969972841441631317e-03 -2.006542868912220001e-03 -1.746114157140254974e-02 5.482139065861701965e-03 -6.654901426372816786e-06 -6.821307353675365448e-03 8.974554017186164856e-03 1.815378293395042419e-02 -6.127614993602037430e-03 -3.482901025563478470e-03 1.897903904318809509e-02 -2.022391557693481445e-02 1.079788710922002792e-02 -5.274550523608922958e-03 -2.838220074772834778e-02 1.227696891874074936e-02 -4.860186018049716949e-03 -2.777273068204522133e-03 -5.478440318256616592e-03 -2.171873301267623901e-02 -1.204123347997665405e-02 4.731551744043827057e-03 -1.173254009336233139e-02 -2.413664944469928741e-02 2.258900087326765060e-03 -3.314936533570289612e-02 1.241192035377025604e-02 -6.167348008602857590e-03 1.773458323441445827e-03 -3.590818727388978004e-03 -2.442302356939762831e-04 -4.356184508651494980e-03 -1.303061936050653458e-02 -4.535814747214317322e-03 1.203671656548976898e-02 -2.975070092361420393e-04 -3.894570516422390938e-03 1.265993434935808182e-02 8.108778856694698334e-03 1.799458079040050507e-02 2.495960332453250885e-03 -1.955761574208736420e-02 -8.703686296939849854e-03 -1.835527084767818451e-02 4.550895467400550842e-02 -1.921975612640380859e-02 -1.465935353189706802e-02 2.071629976853728294e-03 7.371543906629085541e-03 2.850867342203855515e-03 6.672816234640777111e-04 -8.925833739340305328e-03 1.539217866957187653e-02 1.309940870851278305e-02 1.242933142930269241e-02 -7.001542835496366024e-04 2.089847065508365631e-02 1.409695111215114594e-02 2.677466347813606262e-02 -1.791624911129474640e-02 -1.990091055631637573e-02 -1.842923089861869812e-02 -7.190692704170942307e-03 -3.355222055688500404e-03 1.455911085940897465e-03 1.938320230692625046e-03 -7.884666323661804199e-03 -1.158798299729824066e-02 1.099812146276235580e-02 1.261931844055652618e-02 -1.669081975705921650e-04 -2.168618701398372650e-02 1.150977239012718201e-02 -3.732099721673876047e-04 8.991381153464317322e-03 1.267114561051130295e-02 6.547171156853437424e-03 3.225795226171612740e-03 3.549735993146896362e-02 -1.845145039260387421e-02 -9.382396820001304150e-04 5.163309164345264435e-03 8.098433725535869598e-03 8.069609291851520538e-03 8.194175548851490021e-03 -5.459678359329700470e-03 -1.748883165419101715e-02 1.796975359320640564e-02 4.779808223247528076e-03 1.145376358181238174e-02 9.171912446618080139e-03 -3.807693021371960640e-03 6.977858021855354309e-03 -2.045734971761703491e-02 -2.921826578676700592e-02 -9.181218221783638000e-03 2.127648144960403442e-02 1.345195714384317398e-02 9.098111651837825775e-03 -1.079821493476629257e-02 -3.589850664138793945e-02 -6.817644461989402771e-03 -1.885213330388069153e-02 -4.431247711181640625e-03 -9.856391698122024536e-03 1.208451017737388611e-02 -1.247851550579071045e-02 -1.320698950439691544e-02 -1.658296398818492889e-02 6.865605711936950684e-03 5.633034743368625641e-03 -1.408468373119831085e-02 1.307805720716714859e-02 -1.793104573152959347e-03 1.012502820231020451e-03 5.950356135144829750e-04 -2.106061670929193497e-03 6.470534484833478928e-03 1.082175876945257187e-02 2.535062097012996674e-02 -1.914766989648342133e-02 -8.904753252863883972e-03 -1.716131530702114105e-02 2.784097567200660706e-03 2.329533221200108528e-03 2.821541018784046173e-02 -1.238440279848873615e-03 3.137884428724646568e-03 -4.036431666463613510e-03 -1.249171607196331024e-02 -2.242707833647727966e-02 -1.494384091347455978e-02 1.289912592619657516e-02 -4.833129700273275375e-03 1.505511347204446793e-02 2.560075605288147926e-03 1.637353561818599701e-02 -6.565776187926530838e-03 -1.466939132660627365e-02 2.175600500777363777e-03 7.592326030135154724e-03 -1.338599366135895252e-03 1.800778508186340332e-02 -1.107890624552965164e-02 1.172488462179899216e-02 1.171811763197183609e-02 -4.955385345965623856e-03 1.948234066367149353e-02 -1.449646987020969391e-02 -9.637074545025825500e-03 -6.642707623541355133e-03 -3.162003122270107269e-03 -1.547712273895740509e-02 -1.004327461123466492e-02 -1.206950563937425613e-02 -2.534022089093923569e-03 1.097237505018711090e-02 1.644865609705448151e-02 -4.370313603430986404e-03 1.452953647822141647e-02 3.424526657909154892e-03 1.061914581805467606e-02 -1.425663474947214127e-02 1.214945502579212189e-02 1.952160382643342018e-03 2.599019370973110199e-02 3.509387839585542679e-03 -3.654584288597106934e-03 4.406556021422147751e-03 -2.740642428398132324e-02 -6.891795899718999863e-03 2.536998130381107330e-03 -3.859483171254396439e-03 -1.087586302310228348e-02 -6.300434935837984085e-03 4.080699756741523743e-03 1.267525181174278259e-02 8.093076758086681366e-03 -1.504495739936828613e-02 -1.103716436773538589e-02 1.753548160195350647e-02 -8.220862597227096558e-03 -6.850569508969783783e-03 -1.287337951362133026e-02 7.151408586651086807e-03 4.963417537510395050e-03 -2.477788738906383514e-02 -1.584849320352077484e-02 -3.951449878513813019e-03 3.830352798104286194e-03 1.042705029249191284e-02 -5.779373925179243088e-03 3.754786681383848190e-03 -6.008134689182043076e-03 -6.491720210760831833e-03 -6.258183275349438190e-04 9.954849956557154655e-04 -6.302576046437025070e-03 -3.235816583037376404e-02 5.988068878650665283e-03 -1.438057515770196915e-03 -1.432343292981386185e-02 -2.219091542065143585e-02 -7.285230094566941261e-04 -1.472543925046920776e-02 -1.605799049139022827e-02 -7.507521193474531174e-03 1.217816025018692017e-02 -7.550116628408432007e-03 4.198744893074035645e-02 3.188521601259708405e-03 -1.093566883355379105e-02 2.063988707959651947e-02
-1.050396822392940521e-02 1.095759123563766479e-02 -9.891773574054241180e-03 -1.766659406712278724e-04 3.395689278841018677e-02 -1.456811558455228806e-02 1.738516148179769516e-03 -7.324144709855318069e-03 -1.114818546921014786e-02 -6.525017321109771729e-03 1.794825680553913116e-02 -8.717876859009265900e-03 -1.300969533622264862e-02 6.018994841724634171e-03 -1.341230142861604691e-02 -2.473261207342147827e-03 2.676523290574550629e-03 1.718664169311523438e-02 -1.982406247407197952e-03 -1.103803329169750214e-02 1.810149662196636200e-02 -1.559308543801307678e-02 3.917323891073465347e-03 -1.464281883090734482e-02 8.445952087640762329e-03 1.791422627866268158e-02 -1.385491807013750076e-03 7.153954822570085526e-03 2.401119843125343323e-02 -8.352014236152172089e-03 -2.634300850331783295e-02 2.013387420447543263e-04 -2.867836738005280495e-03 -1.115300506353378296e-02 1.209349744021892548e-02 4.488352569751441479e-04 -1.918827928602695465e-02 1.208386849611997604e-02 -1.115896273404359818e-02 1.587606221437454224e-02 6.483131088316440582e-03 7.870882749557495117e-03 -1.231882814317941666e-02 -1.381847821176052094e-02 1.486523263156414032e-02 -3.856254741549491882e-02 2.005042508244514465e-02 1.015851646661758423e-02 -1.990251243114471436e-03 -1.074341870844364166e-02 4.272277001291513443e-03 -1.741076074540615082e-02 1.486782450228929520e-03 -3.082486102357506752e-03 -1.635383628308773041e-02 -2.721233852207660675e-02 2.833114005625247955e-02 -2.317852154374122620e-02 9.478745982050895691e-03 -2.338967751711606979e-03 -6.418670993298292160e-03 -2.007557824254035950e-02 1.302921772003173828e-02 3.074039414059370756e-04 8.466991595923900604e-03 -9.457076084800064564e-04 -2.123879082500934601e-02 -7.598815951496362686e-03 7.037325296550989151e-03 -5.462905392050743103e-03 -7.147061638534069061e-03 2.615441381931304932e-02 -3.943927120417356491e-03 3.379203844815492630e-03 -1.680917665362358093e-02 -9.848995134234428406e-03 -1.354597881436347961e-02 1.090039126574993134e-02 -1.310886815190315247e-02 2.684399252757430077e-03 -6.457677111029624939e-03 2.345361374318599701e-02 2.180156297981739044e-03 1.198295317590236664e-02 -8.612534962594509125e-03 -6.738187279552221298e-03 -1.502030808478593826e-02 1.029158290475606918e-02 -1.380735915154218674e-02 -2.308912947773933411e-02 -1.175333512946963310e-03 7.902019657194614410e-03 2.037334954366087914e-03 -3.509148722514510155e-03 -2.188309095799922943e-02 -1.380099635571241379e-02 6.914282683283090591e-03 -9.876204654574394226e-03 -1.037852931767702103e-02 2.258684486150741577e-02 -1.793248206377029419e-02 -1.826937869191169739e-02 -7.527208654209971428e-04 7.929483428597450256e-03 2.071658149361610413e-03 -1.004850026220083237e-02 -1.466226018965244293e-02 9.816026315093040466e-03 -3.271516412496566772e-03 -4.084547515958547592e-03 -1.952158845961093903e-02 8.007126161828637123e-04 -9.692441672086715698e-03 9.438985958695411682e-03 1.861122809350490570e-02 2.839521691203117371e-02 -2.576462365686893463e-02 -6.445456529036164284e-04 3.427201136946678162e-02 1.182965096086263657e-02 1.566545478999614716e-02 9.575934149324893951e-03 -1.096782041713595390e-03 1.698165759444236755e-02 3.174273530021309853e-03 5.581076256930828094e-03 6.824571173638105392e-03 -7.021932862699031830e-03 6.681795231997966766e-03 -1.320361066609621048e-02 3.323896322399377823e-03 1.430476456880569458e-02 -1.547274738550186157e-02 -1.069335360080003738e-02 -1.589697413146495819e-02 -1.919030025601387024e-02 -7.541603408753871918e-03 6.567668635398149490e-03 7.704691495746374130e-03 -1.087074261158704758e-02 1.206418219953775406e-02 -4.372329451143741608e-03 -1.585860620252788067e-03 1.602713391184806824e-02 -2.387974224984645844e-02 1.748258434236049652e-02 1.856297254562377930e-02 -9.799421764910221100e-03 -1.974695920944213867e-02 9.951988467946648598e-04 -2.350920066237449646e-02 -1.953887753188610077e-02 -1.340986043214797974e-02 -1.249393727630376816e-02 -2.121432451531291008e-03 9.631515480577945709e-03 5.997964646667242050e-03 -1.075576175935566425e-03 -7.302565965801477432e-03 -1.887490227818489075e-02 1.068630255758762360e-02 1.869086176156997681e-02 3.518611192703247070e-02 -1.196366548538208008e-02 -1.422501355409622192e-02 -2.117918618023395538e-02 -2.911631250753998756e-03 2.053556963801383972e-03 3.889898303896188736e-03 -4.010111093521118164e-02 3.407319262623786926e-02 -2.956293895840644836e-02 2.028158120810985565e-02 -2.079352736473083496e-03 6.414354313164949417e-03 1.115429215133190155e-02 8.654619450680911541e-04 2.531706355512142181e-02 1.064803451299667358e-02 1.523881405591964722e-02 2.122566103935241699e-02 1.184580847620964050e-02 3.513223491609096527e-03 -3.517455607652664185e-02 -1.118649262934923172e-02 -1.018000207841396332e-02 -1.423134282231330872e-02 -9.994509629905223846e-03 8.570374920964241028e-03 5.132865160703659058e-02 1.365280896425247192e-02 4.697253927588462830e-03 6.199963390827178955e-04 6.249056663364171982e-03 1.602161489427089691e-02 -2.521397359669208527e-02 1.313213258981704712e-02 -1.794303953647613525e-02 6.208112463355064392e-04 1.061439793556928635e-02 -1.534899696707725525e-02 1.512966025620698929e-02 2.304773777723312378e-02 -2.494820952415466309e-02 1.317924703471362591e-03 2.264828793704509735e-02 9.824185632169246674e-03 9.874420240521430969e-03 1.379426941275596619e-02 1.443879492580890656e-02 -1.896170200780034065e-03 1.104519423097372055e-02 -8.571796119213104248e-03 7.281255442649126053e-03 7.820837199687957764e-03 5.908452905714511871e-03 1.536025665700435638e-02 3.234032168984413147e-02 -7.967195473611354828e-03 1.140600070357322693e-02 4.487739875912666321e-03 3.743054810911417007e-03 -1.900171302258968353e-02 -1.377573888748884201e-02 -1.220261026173830032e-02 2.591416239738464355e-03 1.635501347482204437e-02 -2.801478095352649689e-02 -3.037161752581596375e-02 -2.713187597692012787e-02 -3.286008909344673157e-02 3.377877548336982727e-02 1.406761631369590759e-02 -8.613672107458114624e-03 -7.490181364119052887e-03 -1.361894886940717697e-03 -1.505304314196109772e-02 1.805543201044201851e-03 1.138255093246698380e-02 -1.224619057029485703e-02 -1.244918443262577057e-02 -8.203815668821334839e-03 1.645528711378574371e-02 -1.523610297590494156e-02 1.924328505992889404e-02 2.704726764932274818e-03 -3.531103581190109253e-02 -4.640511702746152878e-03 2.693988010287284851e-02 6.705314386636018753e-03 1.049026288092136383e-02 8.691450348123908043e-04 -3.869693959131836891e-03 -2.288136072456836700e-02 1.744491979479789734e-02 8.816487970761954784e-04
9.382365271449089050e-03 2.362151397392153740e-03 -4.176873248070478439e-03 5.022365599870681763e-03 -1.473806425929069519e-02 8.687166497111320496e-03 -2.852036803960800171e-02 1.136348024010658264e-02 6.627284921705722809e-03 -1.115937717258930206e-02 7.010978646576404572e-03 1.395011413842439651e-02 1.477484591305255890e-03 8.451991714537143707e-03 -4.639489634428173304e-04 9.730913734529167414e-05 -2.133345790207386017e-02 1.116790249943733215e-02 2.118459437042474747e-03 2.743663499131798744e-03 6.162202917039394379e-03 -3.373255208134651184e-02 7.383396383374929428e-03 -1.237705582752823830e-03 -1.710822992026805878e-02 6.129185203462839127e-04 1.259630545973777771e-03 1.251176465302705765e-02 4.721224308013916016e-03 -5.178113467991352081e-03 -1.257720310240983963e-02 -6.660710554569959641e-03 5.695788189768791199e-03 5.556938704103231430e-03 1.414354424923658371e-02 3.077929140999913216e-03 1.340606994926929474e-02 1.980336755514144897e-02 1.596880843862891197e-03 1.746147638186812401e-03 -5.161885637789964676e-03 -1.153086684644222260e-02 -3.893647342920303345e-03 -4.369642585515975952e-03 1.133130583912134171e-02 -2.061055414378643036e-02 1.307328604161739349e-02 -2.642590552568435669e-02 -9.616213850677013397e-03 -1.780349947512149811e-02 -1.967131905257701874e-02 3.598410403355956078e-03 9.520620806142687798e-04 -1.725737378001213074e-02 -6.534651853144168854e-03 -1.552453497424721718e-03 1.194488909095525742e-02 7.991569116711616516e-03 -1.303215883672237396e-02 -1.277360413223505020e-02 1.955621642991900444e-03 8.353996090590953827e-03 -6.191456341184675694e-04 1.354580558836460114e-02 -9.532935917377471924e-03 4.773829132318496704e-03 -1.393576152622699738e-02 -1.123481150716543198e-02 1.470273081213235855e-02 -1.538270805031061172e-02 2.229803241789340973e-02 3.548712655901908875e-02 1.945141330361366272e-02 6.204665638506412506e-03 -2.623532339930534363e-02 4.512400366365909576e-03 -2.074109157547354698e-03 1.167879160493612289e-02 -7.810819894075393677e-03 -3.496950119733810425e-02 -6.132482551038265228e-03 -4.063244909048080444e-03 1.967981457710266113e-02 1.239027455449104309e-02 -1.621979847550392151e-02 4.007875919342041016e-03 1.527438312768936157e-02 3.783880919218063354e-02 1.779593527317047119e-02 8.779128082096576691e-03 1.366192661225795746e-02 1.283113146200776100e-03 3.240720601752400398e-03 4.135190509259700775e-03 -4.331030882894992828e-03 -1.088214106857776642e-02 -3.522438229992985725e-03 1.871364377439022064e-02 3.199835773557424545e-03 -1.463797409087419510e-03 -1.813825685530900955e-03 -7.497871760278940201e-03 1.412559952586889267e-02 -9.160963236354291439e-04 -2.098849741742014885e-03 8.020555600523948669e-03 6.681553204543888569e-04 -5.671474500559270382e-04 -4.607869312167167664e-03 1.568127539940178394e-03 2.897175960242748260e-02 -1.735793054103851318e-02 -1.511402428150177002e-02 -1.454758457839488983e-03 1.987525029107928276e-03 -1.303242519497871399e-03 -1.341558527201414108e-02 -5.269020330160856247e-03 -1.157800760120153427e-02 -2.283315174281597137e-03 -9.511157870292663574e-03 2.176017733290791512e-03 -5.508102010935544968e-03 -8.672519586980342865e-03 -1.146171800792217255e-02 -3.471848787739872932e-03 9.306767024099826813e-03 7.027506828308105469e-03 -8.395530167035758495e-04 -5.974294617772102356e-03 2.755945315584540367e-03 -4.696692922152578831e-04 -5.634179804474115372e-03 -3.128785872831940651e-03 1.258656568825244904e-02 -3.189089521765708923e-02 2.056100778281688690e-02 7.035021204501390457e-03 1.131764892488718033e-02 1.314086839556694031e-03 6.034195539541542530e-04 -1.873520016670227051e-02 -7.562222890555858612e-03 -1.663394644856452942e-02 4.770234227180480957e-03 -1.382514648139476776e-02 -2.658644691109657288e-02 1.046287454664707184e-02 -4.948317073285579681e-03 -9.117486886680126190e-03 5.472661927342414856e-03 -1.153253205120563507e-02 1.721374504268169403e-02 7.297948002815246582e-03 8.626408874988555908e-03 1.456962432712316513e-02 -3.978221118450164795e-02 -7.206464186310768127e-03 -1.396583300083875656e-02 7.956413552165031433e-03 -3.750731237232685089e-03 -9.891949594020843506e-03 4.402923397719860077e-03 -5.578630138188600540e-03 9.154508821666240692e-03 -1.125421933829784393e-02 3.718197345733642578e-02 1.242807228118181229e-02 -1.617022557184100151e-03 -2.848936710506677628e-03 -3.818661440163850784e-03 2.780468948185443878e-02 -1.275330432690680027e-04 1.566877774894237518e-02 2.119149267673492432e-02 -4.656550008803606033e-03 8.652028627693653107e-03 8.143122307956218719e-03 -1.055161468684673309e-02 3.139498410746455193e-03 -3.501339117065072060e-03 2.626269869506359100e-02 -1.254396233707666397e-02 1.620447449386119843e-02 -8.370215655304491520e-04 4.314677789807319641e-03 -2.237048931419849396e-03 -9.405615739524364471e-03 3.138880943879485130e-03 2.778952941298484802e-03 1.260451413691043854e-02 -4.798348236363381147e-04 -1.368429418653249741e-02 -3.980053297709673643e-04 1.565229613333940506e-03 8.752712979912757874e-03 -1.485091727226972580e-02 -8.922885172069072723e-03 -1.846251264214515686e-02 6.252652965486049652e-04 6.712939590215682983e-03 -7.988030090928077698e-03 2.405051328241825104e-02 4.511209670454263687e-03 1.646689372137188911e-03 6.135596893727779388e-03 -2.754936739802360535e-02 7.908834144473075867e-03 6.953562144190073013e-03 1.017658971250057220e-02 2.257113531231880188e-02 1.581760589033365250e-04 -8.287193253636360168e-03 -5.436975508928298950e-03 1.353051164187490940e-03 -4.037346225231885910e-03 -5.189513321965932846e-03 1.201620791107416153e-03 2.164614573121070862e-02 1.522022578865289688e-02 2.645490923896431923e-03 1.833544485270977020e-02 -2.521511865779757500e-03 3.475941251963376999e-03 5.677281413227319717e-03 1.087937597185373306e-02 -8.820317452773451805e-04 4.679620265960693359e-03 3.720623906701803207e-03 5.966986063867807388e-03 2.251647226512432098e-02 -3.844698192551732063e-03 -1.949567906558513641e-02 2.999219112098217010e-03 -3.426037728786468506e-03 9.123827912844717503e-04 -9.503837674856185913e-03 4.251066595315933228e-03 -8.477637544274330139e-03 8.429220877587795258e-03 7.178736850619316101e-03 -4.556621424853801727e-03 1.410440448671579361e-02 7.114598061889410019e-03 -9.620243217796087265e-04 -9.224258363246917725e-03 -2.297169715166091919e-02 -1.110869832336902618e-02 2.148159034550189972e-02 1.120792701840400696e-02 2.701757848262786865e-02 1.815236359834671021e-02 -2.074740594252943993e-03 -1.067756488919258118e-02 -2.257729694247245789e-02 1.138916611671447754e-02
3.221032395958900452e-02 1.665639877319335938e-02 1.344680413603782654e-02 -1.554979477077722549e-02 3.318063914775848389e-02 5.017303302884101868e-02 -1.844700239598751068e-02 -2.027658512815833092e-03 1.279946765862405300e-03 3.011861350387334824e-03 -4.456682130694389343e-03 2.934370376169681549e-02 1.430156454443931580e-02 4.217957332730293274e-02 2.201566239818930626e-03 -1.649468578398227692e-02 5.314792692661285400e-02 5.483573302626609802e-03 -2.891948260366916656e-02 8.430019021034240723e-03 7.174167316406965256e-03 -1.905695907771587372e-02 1.463760994374752045e-02 1.648012734949588776e-02 2.106848172843456268e-02 2.018550038337707520e-02 2.698726020753383636e-02 -7.528746966272592545e-03 1.929562352597713470e-02 -2.119250781834125519e-02 -3.624229505658149719e-02 1.046794746071100235e-02 9.452533908188343048e-03 7.671297062188386917e-03 2.048035897314548492e-02 5.569905042648315430e-03 -3.094433806836605072e-02 1.018033176660537720e-02 -4.925483372062444687e-03 -4.022835567593574524e-02 3.141074255108833313e-02 -4.256770946085453033e-03 4.212887212634086609e-02 9.555700235068798065e-03 -1.426434051245450974e-02 -1.145925652235746384e-02 8.403604850172996521e-03 -1.468860730528831482e-02 5.984590854495763779e-03 1.143382675945758820e-02 3.832163987681269646e-03 1.921404153108596802e-03 2.800147980451583862e-02 1.642606966197490692e-02 1.829718053340911865e-02 -2.640292420983314514e-02 -1.610654965043067932e-02 -4.105241969227790833e-03 1.729143410921096802e-02 2.042121440172195435e-02 -1.748529262840747833e-02 3.474494814872741699e-02 2.721837023273110390e-03 1.694980636239051819e-02 -3.765486553311347961e-02 1.440386381000280380e-02 8.398384088650345802e-04 1.152078714221715927e-02 -3.126076981425285339e-02 -9.377273730933666229e-03 2.952116914093494415e-02 -1.211666502058506012e-02 6.314300000667572021e-02 -3.420614404603838921e-03 2.384516847087070346e-04 1.953573431819677353e-03 1.887307316064834595e-02 -2.459959872066974640e-02 9.883078746497631073e-03 -7.200541440397500992e-03 2.942497842013835907e-02 1.783048361539840698e-02 -1.061347033828496933e-02 9.569723042659461498e-04 1.008416712284088135e-02 -2.126879803836345673e-02 -1.418246887624263763e-02 -6.148985587060451508e-03 -3.036774322390556335e-02 -3.986219526268541813e-04 1.509104296565055847e-02 1.764502003788948059e-02 -2.047351747751235962e-02 -4.120853729546070099e-03 1.931156404316425323e-02 1.915386179462075233e-03 1.394162978976964951e-02 -1.462466921657323837e-02 6.470345705747604370e-02 6.511040497571229935e-03 5.076113622635602951e-03 1.311578322201967239e-02 -1.158060040324926376e-02 3.294709697365760803e-02 1.408832706511020660e-02 1.614006608724594116e-02 2.649446949362754822e-02 1.409023348242044449e-02 6.399675039574503899e-04 8.327658288180828094e-03 -6.514753680676221848e-03 -1.904349301184993237e-05 6.474426016211509705e-03 2.043074928224086761e-02 -7.796659338055178523e-05 -2.476635156199336052e-03 -1.005544210784137249e-03 -7.949485443532466888e-03 1.135509228333830833e-03 2.818554639816284180e-02 4.544100910425186157e-02 4.577196668833494186e-03 -1.380950398743152618e-02 6.379272788763046265e-03 -1.298464182764291763e-02 -5.993333179503679276e-03 3.115157969295978546e-02 1.037085894495248795e-02 2.636645687744021416e-03 -1.354356668889522552e-02 1.442592497915029526e-02 2.680543251335620880e-02 5.358916707336902618e-03 2.960540354251861572e-02 -1.734238117933273315e-02 -2.068400615826249123e-03 2.035765646724030375e-04 1.193661708384752274e-02 2.243654057383537292e-02 4.526695236563682556e-03 4.630509763956069946e-02 1.514303032308816910e-03 1.099165808409452438e-02 -1.580320671200752258e-02 3.557276725769042969e-02 2.331090718507766724e-02 -1.536990236490964890e-02 4.027064889669418335e-02 8.387962356209754944e-03 -9.927500505000352859e-04 3.950532898306846619e-02 -1.906140893697738647e-02 3.758931532502174377e-02 1.023469492793083191e-02 2.711377292871475220e-02 2.066598460078239441e-02 -2.946107451862189919e-05 1.707661896944046021e-03 2.684535086154937744e-02 -7.611724548041820526e-03 2.004174143075942993e-02 1.731453463435173035e-02 5.833884701132774353e-03 -1.997653889702633023e-04 -1.881645992398262024e-03 -3.973971307277679443e-02 3.420412912964820862e-02 2.157911844551563263e-02 3.154505789279937744e-02 2.354617044329643250e-02 1.072050537914037704e-02 -4.652671515941619873e-02 -2.008789218962192535e-02 7.464182097464799881e-03 3.433087095618247986e-02 4.072550684213638306e-02 2.296457067131996155e-03 -7.773629040457308292e-04 2.533444389700889587e-02 4.655931517481803894e-02 5.432012956589460373e-03 2.694865455850958824e-03 9.318428114056587219e-03 -1.674846746027469635e-02 -1.079452689737081528e-03 2.889327239245176315e-03 1.270920038223266602e-02 1.734342984855175018e-02 1.849135756492614746e-02 -2.841918496415019035e-03 4.247249290347099304e-02 2.215350978076457977e-02 3.828027751296758652e-03 1.743518747389316559e-03 -3.469946235418319702e-02 1.270119100809097290e-02 3.996025305241346359e-03 9.926627390086650848e-04 -7.871026755310595036e-04 1.010649558156728745e-02 1.623523607850074768e-02 1.370568014681339264e-02 -4.306682199239730835e-02 3.972287103533744812e-02 2.732371911406517029e-02 5.745744798332452774e-03 2.861603163182735443e-02 5.291266832500696182e-03 1.389073766767978668e-02 -3.368467092514038086e-03 2.618361962959170341e-03 8.794516324996948242e-03 3.760298946872353554e-03 1.735749654471874237e-02 -1.350827631540596485e-03 -9.062591940164566040e-03 2.580007910728454590e-02 3.286758810281753540e-02 -5.283069796860218048e-03 -2.581396512687206268e-02 5.297950655221939087e-02 7.072411011904478073e-03 -1.322809886187314987e-02 2.388314902782440186e-02 -9.092808701097965240e-03 -3.610375151038169861e-02 1.333674695342779160e-02 1.822303608059883118e-02 -2.737398631870746613e-02 -3.010199777781963348e-02 -3.252237103879451752e-03 -2.577166305854916573e-04 3.811609745025634766e-02 1.370041910558938980e-02 3.339810296893119812e-03 -7.680849637836217880e-03 2.354248717892915010e-04 1.996542094275355339e-03 -7.187008392065763474e-03 4.671425558626651764e-03 1.116856466978788376e-02 2.479034475982189178e-03 -1.356608700007200241e-02 8.959271945059299469e-03 -8.417013101279735565e-03 5.299999192357063293e-02 -1.199825853109359741e-02 1.533066015690565109e-02 -3.269953420385718346e-03 3.263949230313301086e-02 -7.708182092756032944e-03 5.125613510608673096e-02 4.057884216308593750e-02 1.134407520294189453e-02 -1.028546784073114395e-02 3.023655526340007782e-02
