-1.309437211602926254e-02
-1.417177449911832809e-02
3.078957833349704742e-02
2.482510544359683990e-02
-3.242507204413414001e-02
1.037279739975929260e-01
1.989122712984681129e-03
-2.101395651698112488e-02
-4.081539064645767212e-02
-4.104978591203689575e-02
3.162434324622154236e-02
4.922715015709400177e-03
1.912679057568311691e-03
6.652498617768287659e-03
3.859955444931983948e-02
5.391358584165573120e-02
2.623974904417991638e-02
1.521356403827667236e-02
2.605191618204116821e-02
-6.147376727312803268e-03
2.200559526681900024e-02
3.168265894055366516e-02
6.106988713145256042e-02
5.039336904883384705e-02
4.788313433527946472e-02
-3.895935043692588806e-02
4.418941959738731384e-02
1.505058910697698593e-02
-3.912024199962615967e-03
4.449830576777458191e-02
-1.363505609333515167e-02
-2.297078073024749756e-02
-2.515265718102455139e-02
3.157589957118034363e-02
-4.447318613529205322e-02
1.951122283935546875e-02
-4.717523232102394104e-02
5.210598930716514587e-02
1.866225153207778931e-02
4.086132720112800598e-02
2.207193523645401001e-02
9.728320292197167873e-04
1.235216017812490463e-02
9.377839742228388786e-04
4.227790981531143188e-02
5.454911664128303528e-02
-7.491503842175006866e-03
1.458498276770114899e-02
-2.428102679550647736e-02
6.004213169217109680e-02
2.553336136043071747e-02
-5.082938820123672485e-03
1.718099229037761688e-02
4.433619324117898941e-03
-2.200056798756122589e-02
4.072649870067834854e-03
1.032640319317579269e-02
3.640136495232582092e-02
6.871438026428222656e-02
2.744398079812526703e-03
-1.782908663153648376e-02
3.565768525004386902e-02
-1.059045642614364624e-02
-2.565810829401016235e-02
-3.739275038242340088e-02
5.063872411847114563e-02
4.012797400355339050e-02
1.616408117115497589e-02
1.268288027495145798e-02
5.523045081645250320e-03
-1.290463842451572418e-02
1.301757059991359711e-02
1.060765143483877182e-02
2.969641610980033875e-02
8.537311106920242310e-03
1.477244216948747635e-02
6.467417813837528229e-03
-3.184723481535911560e-02
-8.533950312994420528e-04
5.113347992300987244e-02
3.222675994038581848e-02
-7.039848715066909790e-02
4.963868111371994019e-02
1.241011638194322586e-02
-8.313416503369808197e-03
2.409845031797885895e-02
-6.317481864243745804e-03
2.486629784107208252e-02
3.156069666147232056e-02
3.157218173146247864e-02
2.869782783091068268e-02
-1.299257390201091766e-03
-2.293668501079082489e-02
4.929843824356794357e-03
-9.062089025974273682e-03
1.400998327881097794e-02
-4.264846816658973694e-02
-2.071601152420043945e-02
7.575633004307746887e-03
-2.822335995733737946e-02
8.798944950103759766e-02
3.215783461928367615e-02
-3.520438820123672485e-02
7.909698039293289185e-02
2.845121175050735474e-02
-1.745630800724029541e-02
4.458024352788925171e-02
3.716120868921279907e-02
-1.955296285450458527e-02
-3.418334573507308960e-02
3.009288012981414795e-02
7.773542311042547226e-03
6.342601496726274490e-03
-2.425899915397167206e-02
6.564510613679885864e-02
5.988355353474617004e-02
-2.742739627137780190e-03
2.471123635768890381e-02
6.756765395402908325e-02
4.382652416825294495e-02
-4.480806365609169006e-02
8.829064667224884033e-03
3.445819392800331116e-02
3.929401561617851257e-02
4.133283626288175583e-03
-1.598626375198364258e-02
2.731137350201606750e-02
-2.624036557972431183e-02
-1.241804100573062897e-02
3.065738454461097717e-02
-5.516494065523147583e-02
-2.062029764056205750e-02
6.149918586015701294e-02
3.767458349466323853e-02
-5.261104181408882141e-02
4.266381263732910156e-02
6.623676512390375137e-03
6.897479761391878128e-03
-1.057085674256086349e-02
-3.243879880756139755e-03
3.021253831684589386e-02
-1.559846685267984867e-03
4.877125099301338196e-02
3.163036704063415527e-02
5.294332280755043030e-02
-5.519426614046096802e-02
-8.021464571356773376e-03
9.453812614083290100e-03
2.527704089879989624e-02
-2.754829265177249908e-02
-3.516490105539560318e-03
2.213066257536411285e-02
-2.154388651251792908e-02
-5.148648098111152649e-02
-2.598781883716583252e-02
5.897185206413269043e-02
3.661839663982391357e-02
3.052651323378086090e-02
2.777706831693649292e-02
1.748283207416534424e-02
-3.030799329280853271e-03
-1.136089675128459930e-02
1.801540143787860870e-02
7.443228736519813538e-03
1.238304302096366882e-01
-3.385770320892333984e-02
-1.275983545929193497e-02
-2.962878346443176270e-02
8.959602564573287964e-04
5.510949064046144485e-03
2.311766892671585083e-02
-1.057385839521884918e-02
-1.036265771836042404e-02
-1.472975779324769974e-02
-1.341075357049703598e-02
2.951731905341148376e-02
3.624378517270088196e-02
2.361450577154755592e-03
-2.613878808915615082e-02
-6.369586335495114326e-04
4.038889706134796143e-02
5.544178187847137451e-02
3.179981838911771774e-03
-2.106509730219841003e-02
3.342237696051597595e-02
-7.945309393107891083e-03
2.816321887075901031e-02
5.388724457588978112e-05
-2.803228853736072779e-04
8.655879646539688110e-02
1.433598157018423080e-02
-2.963355928659439087e-02
-9.556758217513561249e-03
-1.072321247193031013e-04
9.549395181238651276e-03
2.784574031829833984e-02
1.104223355650901794e-02
-7.966586388647556305e-03
-1.980396732687950134e-02
-1.992307230830192566e-02
-7.282963022589683533e-03
-2.709843963384628296e-02
-2.266564406454563141e-02
-2.327611297369003296e-02
5.782909318804740906e-02
-2.509835921227931976e-02
4.901019483804702759e-02
3.171885013580322266e-02
-1.475192257203161716e-03
2.986538968980312347e-02
2.756263874471187592e-02
2.512538805603981018e-03
6.817905232310295105e-03
8.655846118927001953e-02
4.622839018702507019e-02
5.381489545106887817e-02
2.667573839426040649e-02
-5.178539082407951355e-03
7.475151121616363525e-02
6.055854633450508118e-02
-4.544873372651636600e-04
7.793426048010587692e-03
-1.579191535711288452e-02
1.416759844869375229e-02
2.931793779134750366e-02
-2.193686179816722870e-02
1.453119423240423203e-02
-4.576827585697174072e-02
5.162008455954492092e-04
1.625373400747776031e-02
8.792421780526638031e-03
7.387686520814895630e-03
1.811627112329006195e-02
-3.761209174990653992e-02
-4.069631174206733704e-02
-5.311941355466842651e-02
4.879627376794815063e-02
-2.050464600324630737e-02
4.394308105111122131e-02
4.017116967588663101e-03
5.056393519043922424e-02
1.168864127248525620e-02
-1.339770108461380005e-02
1.217739004641771317e-02
5.258556455373764038e-03
4.393547400832176208e-02
7.566960901021957397e-02
1.864573918282985687e-02
2.902145497500896454e-03
-5.114232748746871948e-02
-1.723448373377323151e-02
2.401305548846721649e-02
1.286789402365684509e-02
-1.669046841561794281e-02
8.801350742578506470e-02
7.785238325595855713e-03
