-4.823561757802963257e-03
3.234423696994781494e-02
-1.129162032157182693e-02
-2.232288243249058723e-03
1.504006423056125641e-02
2.078975550830364227e-02
-4.459971096366643906e-03
-9.240069426596164703e-03
4.255077801644802094e-03
-1.256279833614826202e-02
-2.293097227811813354e-02
-3.784110024571418762e-02
4.096722975373268127e-02
1.017403881996870041e-02
1.308157015591859818e-02
-2.935148403048515320e-02
-1.687194779515266418e-02
-4.189908038824796677e-03
-8.928506635129451752e-03
-2.249066345393657684e-02
2.578410319983959198e-02
2.429509535431861877e-02
-1.096620224416255951e-03
-2.396303229033946991e-02
-8.432055823504924774e-03
-2.276509441435337067e-02
-1.598768983967602253e-03
2.436043694615364075e-02
-1.655936241149902344e-02
-1.926461234688758850e-02
5.651467945426702499e-03
2.143681421875953674e-02
3.269881755113601685e-02
1.770549267530441284e-02
-1.695874705910682678e-02
-1.582076959311962128e-02
-1.528385793790221214e-03
5.301133729517459869e-03
-3.829035209491848946e-03
4.656081087887287140e-03
1.192458439618349075e-02
3.137905150651931763e-03
-2.048794552683830261e-02
5.069896113127470016e-03
1.015381794422864914e-02
3.445264697074890137e-02
-5.762096494436264038e-03
-1.468179374933242798e-02
-1.743427664041519165e-02
2.548106014728546143e-02
2.475188300013542175e-02
8.106215856969356537e-03
6.585416267625987530e-04
1.431992370635271072e-02
1.104311645030975342e-02
8.311215206049382687e-04
2.087241411209106445e-02
3.449162840843200684e-02
6.035956740379333496e-02
-2.946307882666587830e-02
-4.306433722376823425e-03
-1.116808783262968063e-02
-1.474490854889154434e-02
-8.203771896660327911e-03
1.828173175454139709e-02
4.547965247184038162e-03
-4.633173346519470215e-03
1.286458922550082207e-03
-9.222161956131458282e-03
1.491061039268970490e-02
1.260252203792333603e-02
3.947408869862556458e-02
5.621280986815690994e-03
1.385425124317407608e-02
2.877942658960819244e-02
9.169816970825195312e-03
-8.597731590270996094e-03
-7.049780339002609253e-03
-3.593120025470852852e-03
-2.900804951786994934e-02
2.620141208171844482e-02
-5.258759018033742905e-03
3.192514181137084961e-02
1.646937802433967590e-02
-1.270298007875680923e-02
2.588888630270957947e-02
5.656679160892963409e-03
2.101928927004337311e-02
3.666017437353730202e-04
-2.659954130649566650e-02
2.043397165834903717e-02
6.137602496892213821e-03
1.164978183805942535e-02
-1.410004589706659317e-02
1.436943467706441879e-02
7.957014255225658417e-03
-3.578732488676905632e-03
-1.763332635164260864e-02
1.249496638774871826e-02
2.285053394734859467e-02
5.993463099002838135e-03
2.207856439054012299e-02
1.673985645174980164e-02
4.167793784290552139e-03
1.390471309423446655e-02
5.324399564415216446e-03
1.635323464870452881e-02
-1.496857777237892151e-02
3.530543670058250427e-02
3.341585397720336914e-02
6.725683808326721191e-02
-1.827699318528175354e-02
3.776419162750244141e-02
3.053860552608966827e-02
-1.515996363013982773e-02
1.263540890067815781e-02
4.942163359373807907e-04
-4.870565608143806458e-02
1.157153863459825516e-02
9.609046392142772675e-03
-3.032949985936284065e-03
7.655089721083641052e-03
2.621112763881683350e-02
-1.610784977674484253e-02
-6.485284771770238876e-03
1.947805657982826233e-02
8.317592553794384003e-03
-4.575356375426054001e-03
-8.490383625030517578e-03
9.894363582134246826e-03
-1.766194030642509460e-02
1.447610091418027878e-03
-1.083926763385534286e-03
1.197331771254539490e-02
-1.310258230660110712e-04
2.242397144436836243e-02
3.487404063344001770e-02
-5.733496043831110001e-03
2.618303522467613220e-02
3.769204020500183105e-02
-3.029297664761543274e-02
1.239436492323875427e-02
1.516394596546888351e-02
2.343148365616798401e-02
-1.973466388881206512e-02
1.248442009091377258e-02
2.725688391365110874e-04
3.964310511946678162e-02
-2.636518515646457672e-02
-3.957650065422058105e-02
9.976205416023731232e-03
-1.353272236883640289e-02
2.042167074978351593e-02
2.380068972706794739e-02
2.163561293855309486e-03
-9.939335286617279053e-03
-3.767408430576324463e-03
-2.561771869659423828e-02
-4.838013090193271637e-03
-2.640067134052515030e-03
2.617455832660198212e-02
-2.284717373549938202e-02
4.316196427680552006e-04
-2.337331650778651237e-03
-1.155627053231000900e-02
1.857303828001022339e-02
-4.015539586544036865e-02
8.399293571710586548e-02
1.042332127690315247e-02
4.386259987950325012e-02
3.494158759713172913e-02
-2.839999739080667496e-03
5.362411588430404663e-02
2.229123003780841827e-02
-5.073154717683792114e-02
-2.078071609139442444e-02
2.983895689249038696e-02
1.199985668063163757e-02
3.892222046852111816e-02
-2.075538598001003265e-02
-1.918486878275871277e-02
4.121366143226623535e-02
-3.108083736151456833e-03
2.134930901229381561e-02
3.162386640906333923e-02
1.154497615061700344e-03
3.323328495025634766e-02
2.095716260373592377e-02
8.358611725270748138e-03
-5.709467455744743347e-03
-4.096130281686782837e-02
4.702638834714889526e-02
6.267943885177373886e-03
5.692895129323005676e-02
-3.143632784485816956e-02
-3.400812670588493347e-02
1.883726683445274830e-03
-1.399854291230440140e-02
1.122324913740158081e-02
-1.240854524075984955e-02
6.392275914549827576e-03
2.177868038415908813e-02
-2.837889827787876129e-02
-5.286811850965023041e-03
-2.737730555236339569e-02
-3.054397180676460266e-03
1.655094325542449951e-02
8.961749263107776642e-03
2.484065108001232147e-02
2.446993719786405563e-03
-8.130041882395744324e-03
-4.006844945251941681e-03
2.087361179292201996e-02
-3.922279458492994308e-03
-1.528364489786326885e-03
-1.181800849735736847e-02
2.359931357204914093e-02
5.016262829303741455e-02
-2.084593055769801140e-03
-1.680568605661392212e-02
-1.668248511850833893e-02
-6.732702255249023438e-03
2.686590515077114105e-02
1.285574212670326233e-02
1.175946276634931564e-02
1.070318650454282761e-02
-2.661914331838488579e-03
3.494880720973014832e-02
3.217560297343879938e-04
-2.536179125308990479e-02
-1.120758708566427231e-02
-7.583162747323513031e-03
3.971647843718528748e-02
1.436252379789948463e-03
-5.912317428737878799e-03
1.198429847136139870e-03
-7.372858002781867981e-03
-1.422276534140110016e-02
1.709376648068428040e-02
1.108242850750684738e-02
9.069482795894145966e-03
-2.565900608897209167e-02
-4.870143253356218338e-03
1.446553738787770271e-03
1.201459579169750214e-02
1.525033451616764069e-02
8.589382283389568329e-03
2.239085361361503601e-02
-4.123726487159729004e-02
2.021362632513046265e-02
3.672989457845687866e-02
2.911431528627872467e-02
2.077949419617652893e-02
-1.064924895763397217e-02
2.238286286592483521e-02
7.108941674232482910e-03
