-1.376069188117980957e-01 -3.432033210992813110e-02 8.595466613769531250e-02 -1.878559216856956482e-02 -6.140966340899467468e-02 -1.228741332888603210e-01 6.899806670844554901e-03 8.976726979017257690e-02 8.119119703769683838e-02 6.916184909641742706e-03 9.946555644273757935e-02 4.988313838839530945e-02 -3.383932635188102722e-02 1.204989999532699585e-01 5.246355384588241577e-02 7.443867623805999756e-02 2.231192961335182190e-02 1.108799651265144348e-01 7.825917005538940430e-02 -1.070241257548332214e-01 -1.149604283273220062e-02 -2.943318709731101990e-02 5.836963281035423279e-02 -7.925897836685180664e-02 7.841493189334869385e-02 -1.160076335072517395e-01 2.704682946205139160e-02 1.003442239016294479e-02 5.938798561692237854e-02 -1.186678558588027954e-01 -1.562575697898864746e-01 6.000402569770812988e-02 -6.286954879760742188e-02 -6.370559334754943848e-02 6.843779236078262329e-02 1.346356272697448730e-01 2.302317135035991669e-02 -2.409952320158481598e-02 1.316387392580509186e-02 -1.300949901342391968e-01 -8.485788106918334961e-02 1.663217544555664062e-01 2.327027171850204468e-02 -6.234697625041007996e-02 -1.232018619775772095e-01 -7.416942715644836426e-02 -5.134085565805435181e-02 9.345696889795362949e-04 -2.799667045474052429e-02 1.780862361192703247e-01 -6.133743096143007278e-03 1.051036715507507324e-01 -4.379926621913909912e-02 8.844042569398880005e-02 -3.953604772686958313e-02 8.990100026130676270e-02 -8.023076504468917847e-02 -1.750216484069824219e-01 -3.025967068970203400e-02 -5.005319416522979736e-02 8.058988302946090698e-02 -7.207705173641443253e-03 1.531884912401437759e-02 2.864854224026203156e-02 -2.187537774443626404e-02 -3.051837906241416931e-03 8.089075796306133270e-03 -8.057256042957305908e-02 -1.525327470153570175e-02 4.847924038767814636e-02 -5.283499602228403091e-03 -5.841574817895889282e-02 -5.046930909156799316e-02 2.832173556089401245e-02 -1.282427608966827393e-01 -6.558611243963241577e-02 -1.183519586920738220e-01 1.624166667461395264e-01 -2.976476550102233887e-01 -4.022919165436178446e-04 -4.268511012196540833e-02 -2.225320190191268921e-01 -1.918835937976837158e-01 -7.086301594972610474e-02 -1.612436324357986450e-01 -9.687101095914840698e-02 -2.161829024553298950e-01 -9.059564769268035889e-02 -1.843737252056598663e-02 -1.869651675224304199e-02 -6.859647575765848160e-03 7.958507537841796875e-02 -3.096773289144039154e-02 4.036149755120277405e-02 5.847420915961265564e-02 5.474516749382019043e-02 -1.074713543057441711e-01 -1.952008344233036041e-02 9.921586513519287109e-02 1.600630134344100952e-01 -2.835046686232089996e-02 1.076677348464727402e-02 3.798981383442878723e-02 -3.898904100060462952e-02 -1.049539223313331604e-01 1.776197925209999084e-02 -5.435116216540336609e-02 -9.844696149230003357e-03 -1.059308554977178574e-02 -6.737064570188522339e-02 -2.253145910799503326e-03 3.821523860096931458e-02 5.597187206149101257e-02 7.084953039884567261e-02 -5.938385799527168274e-02 9.127268940210342407e-02 5.680844187736511230e-02 -9.586318396031856537e-03 6.527039408683776855e-02 -2.523486018180847168e-01 4.021048918366432190e-02 -1.596625894308090210e-01 1.216349378228187561e-02 -8.035819977521896362e-02 8.530925214290618896e-02 -1.353556364774703979e-01 2.495411224663257599e-02 5.107785388827323914e-02 1.906407810747623444e-02 -1.508112531155347824e-02 -7.398144155740737915e-02 8.829546277411282063e-04 9.798450022935867310e-02 -9.668492525815963745e-02 -1.469328701496124268e-01 3.730415180325508118e-02 4.146542400121688843e-02 1.263997405767440796e-01 8.728598803281784058e-02 -2.220876142382621765e-02 1.024549752473831177e-01 -1.582027971744537354e-01 -9.208410233259201050e-02 2.609598450362682343e-02 1.819721311330795288e-01 5.082766711711883545e-02 1.331915520131587982e-02 -9.837899357080459595e-02 3.504692018032073975e-02 1.134799420833587646e-02 -4.333757609128952026e-02 3.585761878639459610e-03 1.118113053962588310e-03 -3.472559154033660889e-02 4.534989967942237854e-02 -5.986022204160690308e-02 -7.988040149211883545e-02 -2.412366867065429688e-02 -1.274451911449432373e-01 -1.297428160905838013e-01 1.274750232696533203e-01 1.124154478311538696e-01 -8.059944212436676025e-02 7.400134205818176270e-02 7.068349514156579971e-03 5.404437333345413208e-02 -1.004900559782981873e-01 4.782174155116081238e-02 9.839354455471038818e-02 -1.121474057435989380e-01 -1.143787130713462830e-01 -4.683082923293113708e-02 5.335026606917381287e-02 4.355894774198532104e-02 8.412624150514602661e-02 6.224053353071212769e-02 8.053721487522125244e-02 1.593140661716461182e-01 2.901693060994148254e-02 -1.521385759115219116e-01 -3.669369220733642578e-02 -6.745296716690063477e-02 7.877295464277267456e-02 1.506262109614908695e-03 -6.861483305692672729e-02 -1.843836531043052673e-02 6.415839493274688721e-02 -7.284200191497802734e-02 -1.903081545606255531e-03 -6.124382838606834412e-02 -6.774147972464561462e-03 4.708469659090042114e-02 4.610554873943328857e-02 8.394099771976470947e-02 -2.107118219137191772e-01 -2.794509055092930794e-03 8.680877834558486938e-02 -2.892209030687808990e-02 -3.672927990555763245e-02 6.808391958475112915e-02 1.576911285519599915e-02 1.011954918503761292e-01 1.559336930513381958e-01 2.718913892749696970e-04 -1.720134727656841278e-02 -5.634418502449989319e-02 -4.289758205413818359e-02 -2.599984109401702881e-01 -1.946744471788406372e-01 7.005565613508224487e-02 -1.879536509513854980e-01 -1.021757423877716064e-01 9.817860275506973267e-02 -9.518517553806304932e-02 -2.643196657299995422e-02 -3.547399044036865234e-01 9.547173976898193359e-03 -9.575097262859344482e-02 -2.629995346069335938e-02 -9.720700792968273163e-03 6.797590851783752441e-02 -2.696863003075122833e-02 -1.164239421486854553e-01 -1.426487118005752563e-01 4.032782465219497681e-02 3.498655185103416443e-02 4.106628522276878357e-02 -9.781665354967117310e-02 -5.055354442447423935e-03 3.626435622572898865e-02 -1.794347725808620453e-02 2.274195104837417603e-02 -9.448184072971343994e-02 3.917888551950454712e-02 -7.547693699598312378e-02 1.199213266372680664e-01 -8.151977509260177612e-02 -1.276889536529779434e-02 1.990132965147495270e-03 5.183009803295135498e-02 5.702318623661994934e-02 9.537782520055770874e-02 -8.278605528175830841e-03 3.980621322989463806e-02 -2.845377847552299500e-02 1.019817441701889038e-01 -5.693183094263076782e-02 2.148218825459480286e-02 -8.041629940271377563e-02 2.046566456556320190e-01 -8.006595820188522339e-02 5.080501735210418701e-02 2.766255661845207214e-02 3.410376608371734619e-02 -2.102806232869625092e-02 -2.497467398643493652e-02
-1.733717024326324463e-01 3.478232771158218384e-02 6.322188675403594971e-02 1.412129495292901993e-02 -4.286811500787734985e-02 1.024526506662368774e-01 -1.332664489746093750e-01 -2.746674977242946625e-02 -6.566900294274091721e-03 -1.018189713358879089e-01 6.056016683578491211e-02 4.531360045075416565e-02 -2.726601064205169678e-02 -8.403771370649337769e-02 9.277419745922088623e-02 -3.678403049707412720e-02 -7.152434438467025757e-02 -4.152758419513702393e-02 -4.167932644486427307e-02 1.988296061754226685e-01 2.734138444066047668e-02 -3.365180641412734985e-02 -7.490957528352737427e-02 9.371652454137802124e-02 5.333434417843818665e-02 2.553854603320360184e-03 -5.475109908729791641e-03 -1.499667614698410034e-01 -1.035545691847801208e-01 4.201372340321540833e-02 1.205690577626228333e-01 6.617704778909683228e-02 1.243085935711860657e-01 8.045999566093087196e-04 -6.054225191473960876e-02 5.124547705054283142e-02 -1.194788068532943726e-01 1.644879952073097229e-02 6.656713038682937622e-02 7.303389906883239746e-02 -1.923534721136093140e-01 1.973686926066875458e-02 6.434789858758449554e-03 -5.513064563274383545e-02 -6.773754954338073730e-02 7.945136725902557373e-02 1.044955179095268250e-01 3.605267032980918884e-02 -1.411589384078979492e-01 1.296728849411010742e-01 -4.361201077699661255e-02 1.038971915841102600e-01 -2.724974229931831360e-02 -2.923180535435676575e-02 -1.173782274127006531e-01 8.574503473937511444e-03 -2.454017549753189087e-01 1.760484278202056885e-02 -5.938970297574996948e-02 -6.294500827789306641e-02 2.065276801586151123e-01 -3.222305327653884888e-02 8.573843166232109070e-03 3.578973188996315002e-02 1.009218469262123108e-01 -1.288011670112609863e-03 9.371232241392135620e-02 1.567720063030719757e-02 -5.936871841549873352e-02 1.183779686689376831e-01 2.340175211429595947e-03 8.429124951362609863e-03 1.157935559749603271e-01 -1.207099203020334244e-02 -9.775102138519287109e-02 -1.043217405676841736e-01 -5.909821018576622009e-02 -1.023820042610168457e-01 -1.054477691650390625e-01 9.137798100709915161e-02 -5.816099420189857483e-02 7.313326466828584671e-03 -6.580216437578201294e-02 -4.777447320520877838e-03 1.333207730203866959e-02 -1.408009976148605347e-01 9.503449499607086182e-02 1.090303361415863037e-01 2.740836516022682190e-02 1.357189714908599854e-01 -4.999878257513046265e-02 1.020831465721130371e-01 -4.538515582680702209e-02 1.168151423335075378e-01 -7.981703430414199829e-02 9.208070114254951477e-03 -8.762687444686889648e-02 9.827527403831481934e-02 -1.392804384231567383e-01 4.194962233304977417e-02 -8.529876917600631714e-02 -2.059181183576583862e-01 8.559004217386245728e-02 -7.995916157960891724e-02 4.687586054205894470e-02 4.031246935483068228e-04 1.271238625049591064e-01 -3.967957198619842529e-02 -1.088045686483383179e-01 5.733572319149971008e-02 1.176249906420707703e-01 -6.430981308221817017e-02 1.579208299517631531e-02 2.814879640936851501e-02 -7.386190444231033325e-02 -1.952009499073028564e-01 -2.628134097903966904e-03 2.772785723209381104e-02 -1.153775528073310852e-01 -1.023497506976127625e-01 -1.281394064426422119e-01 -5.981965735554695129e-02 5.555558577179908752e-02 3.500170260667800903e-02 -1.759063303470611572e-01 5.862363055348396301e-02 6.583185493946075439e-02 6.962175667285919189e-02 -2.728046104311943054e-02 -5.040985345840454102e-02 1.133338660001754761e-01 -9.055046364665031433e-03 -3.492462262511253357e-02 -7.558654993772506714e-02 3.443728201091289520e-03 -2.738737687468528748e-02 -1.759977936744689941e-01 5.009000748395919800e-02 5.808179825544357300e-02 -3.902772814035415649e-02 -4.703250527381896973e-02 -8.207424730062484741e-02 5.147219449281692505e-02 6.053767725825309753e-02 9.904136508703231812e-02 8.516517281532287598e-02 -4.448265582323074341e-02 -6.780660897493362427e-02 -1.238504610955715179e-02 -6.294556707143783569e-02 1.471715793013572693e-02 7.932224869728088379e-02 -6.903162598609924316e-02 -4.841222986578941345e-02 3.787946328520774841e-02 1.870283335447311401e-01 1.072935461997985840e-01 -3.539441153407096863e-02 4.430442303419113159e-02 -1.497014611959457397e-01 9.052296727895736694e-02 6.779776513576507568e-02 1.230261381715536118e-02 3.374664112925529480e-02 -1.738756708800792694e-02 3.909836709499359131e-02 4.159195348620414734e-02 -1.518904864788055420e-01 -7.334814220666885376e-02 1.510915718972682953e-02 1.947880089282989502e-01 -6.435779482126235962e-02 5.536770448088645935e-03 4.283541068434715271e-02 -2.975772321224212646e-02 -8.475433290004730225e-02 -4.494969919323921204e-02 5.549045652151107788e-02 1.603209413588047028e-02 -2.442897111177444458e-02 -1.164186894893646240e-01 9.344330430030822754e-02 -4.731923714280128479e-02 3.023775294423103333e-02 1.103719249367713928e-01 2.094911411404609680e-02 8.873522281646728516e-02 -3.658742830157279968e-02 -6.971674412488937378e-02 1.072348933666944504e-02 -1.151059940457344055e-01 7.778498809784650803e-03 -1.504819989204406738e-01 -2.714262530207633972e-02 -1.763986609876155853e-02 9.159763157367706299e-02 7.306343317031860352e-02 7.959489524364471436e-02 -1.512388139963150024e-02 2.623283863067626953e-01 6.763965636491775513e-02 -1.502587050199508667e-01 -4.959821328520774841e-02 2.794735506176948547e-02 -4.480196535587310791e-02 -5.117280036211013794e-02 8.161994069814682007e-02 2.574745118618011475e-01 -1.128917410969734192e-01 8.780872076749801636e-02 -7.113548461347818375e-03 1.299173757433891296e-02 -4.656585399061441422e-03 -2.479928731918334961e-02 5.995890498161315918e-02 -9.097213298082351685e-02 8.595850318670272827e-02 5.660222098231315613e-02 -2.322349697351455688e-02 1.121853217482566833e-01 1.206704508513212204e-02 -8.600807934999465942e-02 2.899366430938243866e-02 1.019854694604873657e-01 1.009499132633209229e-01 9.111228585243225098e-02 -1.068933121860027313e-02 2.930681034922599792e-02 7.558525353670120239e-02 1.651525869965553284e-02 -2.654107660055160522e-02 6.991421431303024292e-02 7.191113382577896118e-02 2.175374701619148254e-02 -1.239398568868637085e-01 -3.712437301874160767e-02 -3.461146354675292969e-02 5.090711265802383423e-02 3.634707629680633545e-02 -2.602318068966269493e-03 -1.645817756652832031e-01 -7.957536727190017700e-02 -6.718505173921585083e-02 1.817336492240428925e-02 1.522872000932693481e-01 1.915854066610336304e-01 -8.603121340274810791e-02 3.465875238180160522e-02 -1.733968406915664673e-02 -1.496543437242507935e-01 -3.752693301066756248e-03 -5.179601162672042847e-02 5.947410315275192261e-02 1.767276674509048462e-01 -7.458048313856124878e-02 -1.767958253622055054e-01
4.804922267794609070e-02 -7.563095539808273315e-02 -4.873348027467727661e-02 1.391370873898267746e-02 -1.234358325600624084e-01 -3.096409514546394348e-02 -6.399182975292205811e-02 6.053538993000984192e-02 -1.322378218173980713e-01 -1.099947243928909302e-01 -2.965005859732627869e-02 -4.201794788241386414e-02 4.482511430978775024e-03 -1.352950232103466988e-03 -2.164599001407623291e-01 -2.704673632979393005e-02 5.209328234195709229e-02 -6.813922524452209473e-02 -3.200212959200143814e-03 1.301498413085937500e-01 1.282100081443786621e-01 1.064818073064088821e-02 -1.026479750871658325e-01 7.920464128255844116e-02 2.788746170699596405e-02 -2.927324920892715454e-02 4.997476562857627869e-02 2.167042344808578491e-01 -8.497136086225509644e-02 4.870901256799697876e-02 9.914246201515197754e-02 1.053009554743766785e-01 7.401406019926071167e-02 6.517940759658813477e-02 3.190280497074127197e-02 3.725728392601013184e-02 -1.950391195714473724e-02 6.394427269697189331e-02 -6.882955878973007202e-02 -6.306345015764236450e-02 6.298957765102386475e-02 -4.226506128907203674e-02 -2.255448848009109497e-01 1.173613891005516052e-01 8.006639033555984497e-02 9.486302733421325684e-02 -5.908381566405296326e-02 -8.204906433820724487e-02 1.824131757020950317e-01 -3.064786083996295929e-02 -2.398218028247356415e-02 4.211099073290824890e-02 8.029420673847198486e-02 1.654995381832122803e-01 7.383602857589721680e-02 -2.512539364397525787e-02 9.216346777975559235e-03 1.169328540563583374e-01 1.284269499592483044e-03 9.547555446624755859e-02 6.707778573036193848e-02 -8.270861953496932983e-02 7.864885032176971436e-02 6.629406660795211792e-02 -1.421835422515869141e-01 -7.616915553808212280e-02 1.034934371709823608e-01 -3.211250156164169312e-02 7.013788819313049316e-02 3.649495542049407959e-02 4.088831320405006409e-02 -4.666149243712425232e-02 1.195287555456161499e-01 9.712551534175872803e-02 -9.925656765699386597e-02 2.400825265794992447e-03 -3.715781122446060181e-02 -1.062138378620147705e-02 -1.317287795245647430e-02 -2.009938061237335205e-01 8.374770730733871460e-02 6.541071832180023193e-02 1.135550588369369507e-01 -1.162593066692352295e-01 -1.398178935050964355e-01 8.118196576833724976e-02 1.289853081107139587e-02 -6.410682201385498047e-02 -2.285075746476650238e-02 -2.410879172384738922e-02 1.411256045103073120e-01 -1.398363988846540451e-02 -2.056015422567725182e-03 2.605469711124897003e-02 1.549826655536890030e-02 1.730468720197677612e-01 -1.586412489414215088e-01 -1.714262552559375763e-02 4.891924560070037842e-02 1.429854985326528549e-02 -3.903082758188247681e-02 1.667616814374923706e-01 2.355488948523998260e-02 4.497162252664566040e-02 -8.321228623390197754e-02 3.044400550425052643e-02 -1.735518276691436768e-01 2.845822274684906006e-02 1.524498909711837769e-01 -3.478911891579627991e-02 -1.012886390089988708e-01 1.822554618120193481e-01 -4.644921794533729553e-02 -2.307683229446411133e-02 5.663169547915458679e-02 4.349043965339660645e-02 -7.209692895412445068e-02 1.030973810702562332e-02 2.455369383096694946e-02 -1.020720899105072021e-01 5.968551337718963623e-02 1.424679905176162720e-02 -8.108983188867568970e-02 4.795343056321144104e-02 -7.720021158456802368e-02 -6.299109756946563721e-02 -5.650654807686805725e-02 -1.222954839468002319e-01 -2.849024720489978790e-02 -3.852983936667442322e-02 3.140428662300109863e-02 3.246694430708885193e-02 1.095763966441154480e-01 6.828863918781280518e-02 -8.824690431356430054e-02 2.638689242303371429e-02 7.995365187525749207e-03 2.236463688313961029e-02 -6.067225709557533264e-03 7.563530467450618744e-03 -8.824829757213592529e-02 -4.064638540148735046e-02 -1.148239243775606155e-02 2.189700305461883545e-01 5.170275270938873291e-02 1.317093707621097565e-02 -5.210183560848236084e-02 -2.285725474357604980e-01 -1.747080497443675995e-02 4.111162573099136353e-02 9.637797251343727112e-03 8.917245268821716309e-02 -8.764021843671798706e-02 1.148237008601427078e-02 7.437237352132797241e-02 7.150463014841079712e-02 -2.062457986176013947e-02 -1.708948798477649689e-02 -1.958014257252216339e-02 -1.019698604941368103e-01 7.872478663921356201e-02 -8.366154879331588745e-02 -4.677533358335494995e-02 -1.874892227351665497e-02 1.605307683348655701e-02 -5.314220115542411804e-02 -3.364321589469909668e-02 7.675609085708856583e-03 -9.761203825473785400e-02 -1.145345810800790787e-02 3.156046383082866669e-03 1.310328543186187744e-01 2.023658528923988342e-02 -1.273147575557231903e-02 9.087402373552322388e-02 -3.744307532906532288e-02 -1.727386265993118286e-01 1.023530140519142151e-01 -2.525146901607513428e-01 4.850686341524124146e-02 3.356188535690307617e-02 9.027516841888427734e-02 7.474511116743087769e-02 -1.750668138265609741e-01 7.384021580219268799e-02 -8.081256598234176636e-02 1.344107091426849365e-01 -8.782816119492053986e-03 -1.468036472797393799e-01 -1.091820150613784790e-01 1.689054258167743683e-02 1.397912353277206421e-01 -8.572364598512649536e-02 -8.321321755647659302e-02 -5.569608509540557861e-02 -4.402273148298263550e-02 -2.999890595674514771e-02 2.198522984981536865e-01 1.303591281175613403e-01 4.945887252688407898e-02 -4.406011104583740234e-02 -2.870501950383186340e-02 -7.386088371276855469e-02 -2.270233258605003357e-02 -9.688742458820343018e-02 -1.505884975194931030e-01 7.817875593900680542e-02 1.408682614564895630e-01 -4.601817054208368063e-04 3.530703112483024597e-02 1.604206860065460205e-02 -5.046953912824392319e-03 5.895457789301872253e-02 -1.571570485830307007e-01 -1.599153503775596619e-02 -6.382004171609878540e-02 4.219391196966171265e-02 1.017882749438285828e-01 1.387944817543029785e-01 1.716521941125392914e-02 1.195667162537574768e-01 -3.470481559634208679e-02 -9.342595934867858887e-02 2.809468097984790802e-02 -8.559184521436691284e-02 -8.834524080157279968e-03 -1.050380840897560120e-01 -4.345948994159698486e-02 -2.163521572947502136e-02 -5.510402470827102661e-02 1.987887322902679443e-01 -1.143435239791870117e-01 -2.924433946609497070e-01 -7.433653622865676880e-02 2.073740512132644653e-01 2.385767363011837006e-02 2.655301801860332489e-02 1.200891844928264618e-02 6.013458594679832458e-02 -8.359023369848728180e-03 6.018548272550106049e-03 1.244503911584615707e-02 -1.330725103616714478e-01 -1.151498332619667053e-01 -9.857326745986938477e-02 -3.575536981225013733e-02 5.321890488266944885e-02 -2.046056091785430908e-01 -1.081977877765893936e-02 9.535633958876132965e-03 5.461942404508590698e-03 -1.178895011544227600e-01 -7.802867144346237183e-02 4.596380889415740967e-02 2.908653020858764648e-02 -4.298359900712966919e-02
-1.435092836618423462e-01 8.289803564548492432e-02 -4.180927574634552002e-02 1.549349352717399597e-02 -5.756091792136430740e-03 -2.038619369268417358e-01 6.149805337190628052e-02 6.854417175054550171e-02 7.170522212982177734e-02 8.970179408788681030e-02 4.535067453980445862e-02 1.218296512961387634e-01 4.707618150860071182e-03 1.422521620988845825e-01 1.480674147605895996e-01 -1.015568077564239502e-01 8.490869775414466858e-03 -8.045169524848461151e-03 2.912377566099166870e-02 1.979251056909561157e-01 5.295200645923614502e-02 -2.304887771606445312e-01 8.457029610872268677e-02 -3.948814049363136292e-02 2.745122276246547699e-02 -9.593477100133895874e-02 -7.309201173484325409e-03 6.269413232803344727e-02 2.520415186882019043e-02 1.487538125365972519e-02 -6.442185491323471069e-02 -2.147608548402786255e-01 -4.664447158575057983e-02 -1.297738999128341675e-01 -2.081476449966430664e-01 4.835754260420799255e-02 -5.436364188790321350e-02 -2.313314191997051239e-02 3.416352719068527222e-02 5.005098134279251099e-02 -5.322127789258956909e-02 -9.578103572130203247e-02 -1.633301824331283569e-01 -3.979044035077095032e-03 -1.619894951581954956e-01 -2.753698453307151794e-02 -1.422808766365051270e-01 9.197716414928436279e-02 4.798441752791404724e-02 -1.206205636262893677e-01 2.795719541609287262e-02 5.902276188135147095e-02 -8.592806011438369751e-02 2.606501244008541107e-02 1.220715418457984924e-01 -1.815297827124595642e-02 -3.472954034805297852e-02 4.942468553781509399e-02 3.372833505272865295e-02 5.846571177244186401e-02 -3.139269724488258362e-02 7.617988437414169312e-02 -8.368270099163055420e-02 -7.186341285705566406e-02 4.388691484928131104e-02 -5.163618922233581543e-02 4.980174079537391663e-02 -5.091955885291099548e-02 -1.576694846153259277e-02 8.785852044820785522e-02 -1.847582985647022724e-03 1.802606433629989624e-01 -2.621875377371907234e-03 -5.899488553404808044e-02 2.209329009056091309e-01 7.929453626275062561e-03 1.248133089393377304e-02 9.731560200452804565e-02 -5.948454886674880981e-02 -8.082190901041030884e-02 -5.955669283866882324e-02 8.163116872310638428e-02 1.307234913110733032e-02 -1.386348009109497070e-01 4.983319342136383057e-02 -5.135441944003105164e-02 1.039417311549186707e-01 -4.863509163260459900e-02 4.423875734210014343e-02 1.249952167272567749e-01 2.518756315112113953e-02 -1.471661776304244995e-01 -2.141870856285095215e-01 -1.368723437190055847e-02 -6.407764554023742676e-02 2.766825258731842041e-02 6.753423251211643219e-03 1.136737167835235596e-01 8.734161406755447388e-02 -5.878923088312149048e-02 -5.810943245887756348e-02 -2.950425259768962860e-02 4.216919466853141785e-02 3.492699936032295227e-02 1.285190731287002563e-01 6.600189954042434692e-02 6.130101624876260757e-03 1.099037006497383118e-01 -5.312778055667877197e-03 5.436907708644866943e-02 4.944979399442672729e-02 2.814575843513011932e-02 -2.410187944769859314e-02 2.263494022190570831e-02 4.870403185486793518e-02 5.105909332633018494e-02 2.343976944684982300e-01 8.536905795335769653e-02 7.457367330789566040e-02 -1.843586191534996033e-02 -2.834173291921615601e-02 -1.536401361227035522e-01 -7.525720447301864624e-02 1.844225972890853882e-01 1.650552898645401001e-01 -3.561002016067504883e-02 2.508773095905780792e-02 -1.776604205369949341e-01 7.564725726842880249e-02 1.265626214444637299e-02 1.896025612950325012e-02 -4.591902345418930054e-02 6.573016196489334106e-02 8.520890772342681885e-02 -7.005232572555541992e-02 1.341670453548431396e-01 -5.645781755447387695e-02 2.622776199132204056e-03 -4.739187657833099365e-02 -2.627383358776569366e-02 -7.362087070941925049e-02 -3.573994338512420654e-02 -5.470855906605720520e-02 -1.604161560535430908e-01 4.886344447731971741e-02 -7.406319677829742432e-02 -1.610084921121597290e-01 1.198053508996963501e-01 -1.715543493628501892e-02 -7.223502546548843384e-02 -4.247134551405906677e-02 -1.015611961483955383e-01 -9.913937002420425415e-02 -2.111919410526752472e-02 -1.040875613689422607e-01 -2.740650065243244171e-02 -9.666327387094497681e-02 -2.486730180680751801e-02 -6.328738480806350708e-02 -5.840647220611572266e-02 -5.699960887432098389e-02 -5.640231817960739136e-02 8.706318587064743042e-02 -3.773762146010994911e-03 1.779861375689506531e-02 -2.903038449585437775e-02 1.123374328017234802e-02 -1.146884541958570480e-02 -1.773817837238311768e-01 -6.241537258028984070e-02 -6.805898249149322510e-02 -9.545411914587020874e-02 9.284251183271408081e-02 -1.377065293490886688e-02 3.153884038329124451e-02 3.321200609207153320e-02 -1.448782831430435181e-01 -8.560466021299362183e-02 -1.624299399554729462e-02 -1.496803611516952515e-01 -5.318815633654594421e-02 -1.391812711954116821e-01 1.157439127564430237e-01 -1.193995401263237000e-01 -1.549480576068162918e-02 -7.731686532497406006e-02 5.408705770969390869e-02 -1.911235451698303223e-01 -9.049302339553833008e-02 1.045923121273517609e-02 6.558906286954879761e-03 -4.039862006902694702e-02 -1.043241024017333984e-01 1.241922006011009216e-02 7.868730276823043823e-02 -1.238173842430114746e-01 1.280776560306549072e-01 1.124614402651786804e-01 -9.290047734975814819e-02 1.671346575021743774e-01 -1.023208722472190857e-01 -4.246203228831291199e-02 -9.807151742279529572e-03 -1.789944432675838470e-02 -7.091187685728073120e-02 -5.021614488214254379e-03 9.865026921033859253e-03 -3.207428008317947388e-02 4.565559327602386475e-02 -2.699300460517406464e-02 -1.788366585969924927e-02 -4.159529507160186768e-02 -5.768155213445425034e-03 -6.226833537220954895e-02 8.323641121387481689e-02 -4.412300419062376022e-03 -8.543728291988372803e-02 7.054808735847473145e-02 -1.325163692235946655e-01 -9.094321727752685547e-02 -8.680743724107742310e-02 5.957699194550514221e-02 1.014563068747520447e-01 2.181991003453731537e-03 -5.430996045470237732e-02 1.926050707697868347e-02 1.078615114092826843e-01 1.003818735480308533e-01 -5.344222113490104675e-02 -1.446764618158340454e-01 1.028725132346153259e-01 -1.974600553512573242e-01 4.805770143866539001e-02 9.732518345117568970e-02 -2.868031524121761322e-02 -6.084671244025230408e-02 3.241921588778495789e-02 -9.638585895299911499e-02 -4.496371001005172729e-02 -1.117535904049873352e-01 -1.079849451780319214e-01 -1.461975276470184326e-01 -1.091060787439346313e-01 -6.118272989988327026e-02 -1.146665439009666443e-01 -5.846742168068885803e-02 -1.049629319459199905e-02 -6.230168417096138000e-02 -7.244495302438735962e-02 3.113816082477569580e-01 4.237746074795722961e-02 -1.147025972604751587e-01 -4.461906850337982178e-02 2.205026522278785706e-02 5.038823559880256653e-02 -9.876641631126403809e-02
-1.299313269555568695e-02 -2.403607405722141266e-02 -1.256531178951263428e-01 -2.492868304252624512e-01 -3.132231160998344421e-02 -2.270592376589775085e-02 1.122593656182289124e-01 9.744655340909957886e-02 -7.691352814435958862e-02 -1.019347384572029114e-01 8.176626265048980713e-02 -2.970133163034915924e-02 -6.868730485439300537e-02 -2.166153676807880402e-02 -5.495661124587059021e-02 8.540678024291992188e-02 1.105737462639808655e-01 -4.718230292201042175e-02 -6.185979768633842468e-02 5.532176792621612549e-02 -1.717170514166355133e-02 1.292020678520202637e-01 4.404446855187416077e-02 -1.304667294025421143e-01 2.094211243093013763e-02 -5.729037802666425705e-03 4.819615185260772705e-02 1.461305618286132812e-01 -1.228138804435729980e-02 -1.131718605756759644e-01 3.547424450516700745e-02 -1.756680905818939209e-01 -3.038781881332397461e-02 -1.229465156793594360e-01 1.475766450166702271e-01 -1.002474948763847351e-01 8.297244459390640259e-02 9.485459327697753906e-02 -1.063871309161186218e-01 6.834659725427627563e-02 -1.466134786605834961e-01 -8.944855630397796631e-02 -1.248544380068778992e-01 -1.276930570602416992e-01 -6.376406550407409668e-02 -1.770716309547424316e-01 -4.429815709590911865e-02 6.968327611684799194e-02 4.286037012934684753e-02 1.237557306885719299e-01 1.078248769044876099e-01 6.863901019096374512e-02 3.586503863334655762e-02 5.114424601197242737e-02 -2.056072652339935303e-01 -3.799230232834815979e-02 -1.375896930694580078e-01 -8.967581391334533691e-02 3.355565294623374939e-02 1.726357452571392059e-02 8.495741337537765503e-02 1.241182759404182434e-01 -2.073414064943790436e-02 -3.691552206873893738e-02 -7.922678440809249878e-02 2.871030382812023163e-02 -6.985548138618469238e-02 7.233749330043792725e-02 -1.526100635528564453e-01 -2.108489573001861572e-01 1.702579408884048462e-01 -1.210964005440473557e-02 -4.743749275803565979e-02 5.905626341700553894e-02 -4.994950443506240845e-02 2.108380384743213654e-02 1.718523539602756500e-02 1.975747942924499512e-02 -6.306602805852890015e-02 -8.878479152917861938e-02 5.012639984488487244e-02 1.390760689973831177e-01 -1.235611215233802795e-01 -1.053580939769744873e-01 -3.490408509969711304e-02 1.554695665836334229e-01 -1.954610794782638550e-01 1.579620391130447388e-01 -1.484648287296295166e-01 -1.868786662817001343e-02 -5.158750340342521667e-02 -1.044833138585090637e-01 -1.294915080070495605e-01 -7.893121242523193359e-02 -2.418884076178073883e-02 1.639505624771118164e-01 3.787735849618911743e-02 3.442833200097084045e-02 7.474201172590255737e-02 2.274037525057792664e-02 -8.258929103612899780e-02 2.090302295982837677e-02 1.695735007524490356e-02 -4.458738118410110474e-02 1.715937405824661255e-01 -8.377141505479812622e-02 -4.178441688418388367e-02 9.301106445491313934e-03 -2.278883941471576691e-02 2.222049683332443237e-01 1.433505713939666748e-01 1.051283478736877441e-01 1.089170109480619431e-02 6.823841482400894165e-02 -2.105236984789371490e-02 6.152388080954551697e-02 -1.272601541131734848e-02 -5.141849443316459656e-02 -1.687118113040924072e-01 4.914048686623573303e-02 -8.363235741853713989e-02 -4.574923217296600342e-02 -9.895054996013641357e-02 3.018691204488277435e-02 1.845224387943744659e-02 5.364357680082321167e-02 2.022055722773075104e-02 -7.345421705394983292e-03 3.345268964767456055e-02 2.183697745203971863e-02 -7.300269603729248047e-02 -2.083404920995235443e-02 -2.268036305904388428e-01 -9.813355281949043274e-03 3.809140622615814209e-02 -9.517174959182739258e-02 2.458712318912148476e-03 -1.961948163807392120e-02 1.192720606923103333e-01 -2.373801730573177338e-02 9.694582968950271606e-02 6.120814755558967590e-02 -3.261559084057807922e-02 9.912094101309776306e-03 4.766015708446502686e-02 3.546764329075813293e-02 -1.191685795783996582e-01 1.868319883942604065e-02 -5.877687036991119385e-02 -7.943560183048248291e-02 4.084593430161476135e-02 1.835573650896549225e-02 1.904772035777568817e-02 3.112546540796756744e-02 -9.520300477743148804e-02 -2.515970915555953979e-02 -2.646331861615180969e-02 -3.617403656244277954e-02 4.218857362866401672e-02 2.626476623117923737e-02 6.669682916253805161e-03 -1.280312985181808472e-01 1.037115156650543213e-01 6.717357784509658813e-02 -1.488735526800155640e-01 -8.263924717903137207e-02 -7.794394344091415405e-02 -2.573355799540877342e-03 7.164567359723150730e-04 -1.785382330417633057e-01 -5.958293378353118896e-02 6.919454038143157959e-02 -3.794818371534347534e-02 -9.709723293781280518e-02 -1.454205363988876343e-01 9.936269372701644897e-02 -6.215145438909530640e-02 1.049058288335800171e-01 2.567866072058677673e-02 9.696706384420394897e-02 -4.581978917121887207e-02 3.972173482179641724e-02 -1.444964110851287842e-01 -4.870293661952018738e-02 -2.242761999368667603e-01 4.028651397675275803e-03 1.409761793911457062e-02 -1.241458430886268616e-01 1.009120196104049683e-01 3.303400054574012756e-02 1.767304353415966034e-02 3.015679307281970978e-02 -4.353256151080131531e-02 9.472636133432388306e-02 1.040980219841003418e-01 -5.964188277721405029e-02 -1.005325391888618469e-01 -7.833722233772277832e-02 1.146726459264755249e-01 -1.456431001424789429e-01 3.210550919175148010e-02 -8.646707981824874878e-02 -4.998878017067909241e-02 1.393437087535858154e-01 -1.138849765993654728e-03 -3.885086625814437866e-02 -1.462899148464202881e-01 5.050071328878402710e-02 -4.615365341305732727e-02 4.145785793662071228e-02 -1.050303280353546143e-01 -5.946654826402664185e-03 -7.656630873680114746e-02 -2.482624724507331848e-02 -1.008107885718345642e-02 -3.669713810086250305e-02 -4.299147427082061768e-02 -2.149247936904430389e-02 -5.062944442033767700e-02 2.071403712034225464e-01 -6.967521458864212036e-02 -1.425204575061798096e-01 7.146365940570831299e-02 1.044305041432380676e-01 1.003425866365432739e-01 5.994355771690607071e-03 -8.474294096231460571e-03 5.545968562364578247e-02 -6.342718005180358887e-02 -3.510482842102646828e-03 -3.820975869894027710e-02 7.640980649739503860e-03 -6.009267643094062805e-02 1.643316000699996948e-01 1.349045895040035248e-02 2.826118655502796173e-02 2.387887798249721527e-02 2.632379531860351562e-01 2.362724766135215759e-02 9.356888011097908020e-03 -3.167700953781604767e-03 1.259966939687728882e-01 -6.219208240509033203e-02 1.118093356490135193e-01 5.556495487689971924e-02 -3.627228736877441406e-02 3.355993330478668213e-02 -5.204140394926071167e-02 6.135574541985988617e-03 8.559357374906539917e-03 -7.011383771896362305e-02 -3.326912820339202881e-01 4.516838118433952332e-03 -1.008911896497011185e-02 -3.170919045805931091e-02 1.366624142974615097e-02
-1.113969273865222931e-02 -9.452425688505172729e-02 5.600424483418464661e-02 6.551270931959152222e-02 1.130366846919059753e-01 1.374862529337406158e-02 -3.963649272918701172e-02 8.279786258935928345e-02 -8.174095302820205688e-02 5.704901739954948425e-02 -2.990987710654735565e-02 1.076619923114776611e-01 -1.164773330092430115e-01 1.558046787977218628e-02 5.907803773880004883e-02 -1.080484539270401001e-01 5.242082104086875916e-02 -9.585013985633850098e-02 -4.241894930601119995e-02 1.008066982030868530e-01 -1.258280277252197266e-01 -6.141486018896102905e-02 -1.058004423975944519e-01 -5.374073982238769531e-02 2.303650416433811188e-02 -5.701960995793342590e-02 -4.522440023720264435e-03 1.814971119165420532e-01 -2.721500582993030548e-02 -2.224819362163543701e-02 -8.177316933870315552e-02 4.547354578971862793e-02 -5.589523166418075562e-02 -9.677619487047195435e-02 -1.409876858815550804e-03 9.977240860462188721e-02 8.012476563453674316e-02 5.841813981533050537e-03 2.996458858251571655e-02 4.577538056764751673e-04 -1.211225092411041260e-01 3.999364376068115234e-02 1.603922992944717407e-01 5.313990637660026550e-02 6.218744069337844849e-02 1.802200824022293091e-02 -1.008340120315551758e-01 2.699452079832553864e-02 -9.991838037967681885e-02 -1.761483699083328247e-01 -2.016444951295852661e-01 -3.483216464519500732e-02 1.083743572235107422e-01 -1.361303962767124176e-02 -7.855478674173355103e-02 3.883251920342445374e-02 -5.789851769804954529e-02 7.496158033609390259e-02 1.059821099042892456e-01 -1.111348718404769897e-01 -8.390945941209793091e-02 6.420424580574035645e-02 1.041073352098464966e-01 4.653600975871086121e-02 2.461266471073031425e-03 6.877261400222778320e-02 -3.860002756118774414e-02 -3.076845780014991760e-03 2.300546132028102875e-02 -9.683405607938766479e-02 1.368180476129055023e-02 1.443319618701934814e-01 1.117498651146888733e-01 1.069447919726371765e-01 -6.219038739800453186e-02 -1.715412139892578125e-01 7.777118682861328125e-02 1.229771971702575684e-02 -9.354189038276672363e-02 1.022025197744369507e-01 -1.307755857706069946e-01 4.734012857079505920e-02 4.013302549719810486e-02 5.570153146982192993e-02 -8.861726522445678711e-02 1.446548253297805786e-01 -4.031081043649464846e-04 5.221430212259292603e-02 -1.003642799332737923e-03 -9.853191673755645752e-03 1.266814023256301880e-01 1.918898709118366241e-02 1.257076393812894821e-02 -5.401053349487483501e-04 -1.018744185566902161e-01 -4.214243218302726746e-02 -3.904728591442108154e-02 1.321870535612106323e-01 -2.113831043243408203e-01 7.223884016275405884e-02 -3.925432264804840088e-02 1.330473870038986206e-01 -1.367404907941818237e-01 1.201537996530532837e-01 9.193807095289230347e-02 1.751252710819244385e-01 -9.011470526456832886e-02 -2.708665467798709869e-02 -1.828539371490478516e-01 8.690773695707321167e-02 -1.387909948825836182e-01 1.723890006542205811e-01 3.366576135158538818e-02 1.399898976087570190e-01 -2.531173638999462128e-02 1.129981279373168945e-01 -6.515114754438400269e-02 2.326683998107910156e-01 -6.402511149644851685e-02 3.148716315627098083e-02 7.231818884611129761e-02 5.697139352560043335e-02 2.518094889819622040e-02 -9.170394390821456909e-02 1.684296131134033203e-01 -2.956356154754757881e-03 -1.244781762361526489e-01 3.956710454076528549e-03 -1.520591229200363159e-01 1.072989329695701599e-01 -1.220814418047666550e-02 2.114913612604141235e-02 9.934994392096996307e-03 6.165229901671409607e-02 5.417079199105501175e-03 -7.554074376821517944e-02 -4.021512344479560852e-02 8.815706521272659302e-02 -1.534305065870285034e-01 1.052267029881477356e-01 -6.603591144084930420e-02 -1.286536455154418945e-01 4.967099428176879883e-02 -8.704876154661178589e-02 3.296375740319490433e-03 -1.351007968187332153e-01 -8.201755583286285400e-02 -6.072046607732772827e-02 -3.259215876460075378e-02 -3.334141336381435394e-03 -1.363189965486526489e-01 4.113038256764411926e-02 -1.981663107872009277e-01 2.257375605404376984e-02 -2.121263295412063599e-01 6.036680191755294800e-02 -1.328741759061813354e-01 7.965331524610519409e-02 -8.568912744522094727e-02 -5.736123397946357727e-02 9.265067428350448608e-02 -1.322401911020278931e-01 4.272957891225814819e-02 9.200580418109893799e-02 -1.215855404734611511e-01 9.999682009220123291e-02 -1.279207468032836914e-01 6.846192479133605957e-02 6.037579104304313660e-02 -8.359713107347488403e-02 2.596201561391353607e-02 -1.186013594269752502e-01 -7.782404869794845581e-02 3.907718136906623840e-02 2.212823182344436646e-02 -1.459079831838607788e-01 1.144528668373823166e-02 6.785832345485687256e-02 -4.567598551511764526e-02 7.347805798053741455e-02 -1.238562166690826416e-02 -4.782782867550849915e-02 4.542172327637672424e-02 1.125774532556533813e-02 2.910201437771320343e-02 -1.119346246123313904e-01 -6.431053578853607178e-02 -1.329968869686126709e-01 -1.650314629077911377e-01 -1.385147869586944580e-01 1.639018021523952484e-02 1.677666604518890381e-01 9.882996976375579834e-02 -1.482510864734649658e-01 1.252401024103164673e-01 4.828812927007675171e-02 3.634222969412803650e-02 -6.312429904937744141e-02 -1.179831698536872864e-01 -9.669261425733566284e-02 5.964487791061401367e-02 1.298681646585464478e-01 -4.780087620019912720e-02 5.545217543840408325e-02 -2.217397838830947876e-02 1.049665063619613647e-01 -7.690123468637466431e-02 1.837697327136993408e-01 2.724275365471839905e-02 2.487199157476425171e-01 -1.249866336584091187e-01 -8.124782145023345947e-02 -5.248221568763256073e-04 6.198332831263542175e-02 -1.691486984491348267e-01 8.245237916707992554e-02 3.633055463433265686e-02 -1.095371022820472717e-01 7.118681073188781738e-02 -1.022818833589553833e-01 -3.026959486305713654e-02 -1.217856723815202713e-02 8.867095224559307098e-03 6.972539424896240234e-02 8.050496131181716919e-02 -4.340460896492004395e-02 -1.076003983616828918e-01 2.197186462581157684e-02 8.499427884817123413e-02 2.388605289161205292e-02 -2.273006364703178406e-02 2.198587730526924133e-02 1.054322719573974609e-01 1.114273536950349808e-02 1.847638562321662903e-02 8.211609721183776855e-02 -4.264531284570693970e-02 6.048895791172981262e-02 1.614533178508281708e-02 1.064926013350486755e-01 -3.025232627987861633e-02 6.094371154904365540e-02 1.150546446442604065e-01 -5.419242382049560547e-02 -3.332893550395965576e-02 5.422138422727584839e-02 -1.314756870269775391e-01 -2.974016778171062469e-02 -1.364215929061174393e-02 -1.099590882658958435e-01 -2.143546193838119507e-02 -2.005893364548683167e-02 -4.355065152049064636e-02 -2.944066189229488373e-02 -8.675920963287353516e-02 5.465746298432350159e-02
-2.016644477844238281e-01 -5.900289863348007202e-02 -1.362372487783432007e-01 3.274941071867942810e-02 -9.879627823829650879e-02 -3.951176535338163376e-03 5.618336796760559082e-02 2.388100326061248779e-02 -1.653483659029006958e-01 -1.899171806871891022e-02 -8.785659819841384888e-02 3.610550612211227417e-02 -6.092772632837295532e-02 -1.919644623994827271e-01 -1.492150574922561646e-01 3.419118747115135193e-02 6.352183222770690918e-02 -1.806024014949798584e-01 -8.498432487249374390e-02 -6.499009579420089722e-02 -9.786638617515563965e-02 1.010464131832122803e-02 -1.137527674436569214e-01 -2.495497278869152069e-02 1.210401356220245361e-01 -1.878295652568340302e-02 9.429995715618133545e-02 -9.533618390560150146e-02 1.255980134010314941e-01 -1.361675709486007690e-01 6.423801183700561523e-03 -1.897478997707366943e-01 2.037621662020683289e-02 -5.061721429228782654e-02 -2.179588973522186279e-01 3.675436973571777344e-02 3.669541701674461365e-02 -2.864151261746883392e-02 7.059364765882492065e-02 2.780128829181194305e-02 -4.660981893539428711e-02 1.616879254579544067e-01 -4.865412041544914246e-02 -3.374532610177993774e-02 -5.206238105893135071e-02 1.010206341743469238e-01 -9.121783822774887085e-02 -1.350598633289337158e-01 4.640720784664154053e-02 -1.471191365271806717e-02 -1.547688804566860199e-02 -7.016754895448684692e-02 9.350398182868957520e-02 -9.246784448623657227e-02 -6.275252252817153931e-02 -1.484742164611816406e-01 1.212654635310173035e-01 1.657533273100852966e-02 3.352674469351768494e-02 6.376520544290542603e-02 4.238531738519668579e-02 7.636983692646026611e-02 -5.767599120736122131e-02 2.689140439033508301e-01 -7.874363660812377930e-02 -1.281245201826095581e-01 8.288204669952392578e-02 -7.478129118680953979e-02 -4.091622680425643921e-02 -2.082354724407196045e-01 -6.088216230273246765e-02 -5.544906482100486755e-02 -9.302351623773574829e-02 -3.405761346220970154e-02 -1.030832305550575256e-01 -6.260163150727748871e-03 2.407384477555751801e-02 4.128102213144302368e-02 -6.105129607021808624e-03 1.046078186482191086e-02 -6.004251539707183838e-02 4.390506818890571594e-02 -1.977237910032272339e-01 -2.292623685207217932e-04 -1.810485571622848511e-01 -2.211518026888370514e-02 9.457888454198837280e-02 1.101722195744514465e-01 1.091687604784965515e-01 6.813477724790573120e-03 -1.074231043457984924e-02 -4.471906274557113647e-02 -1.073738932609558105e-01 -4.537798464298248291e-02 5.367889255285263062e-02 7.366371154785156250e-02 -2.133030910044908524e-03 -6.968476623296737671e-02 -1.146705225110054016e-01 -5.217922478914260864e-02 -4.779131710529327393e-02 -8.985708653926849365e-02 2.088404819369316101e-02 -6.160039454698562622e-02 8.980716019868850708e-02 1.778912614099681377e-03 -1.099164783954620361e-01 7.429907470941543579e-02 -1.860285848379135132e-01 -2.026374042034149170e-01 7.788660936057567596e-03 -8.977675810456275940e-03 6.724276393651962280e-02 -1.667118519544601440e-01 4.930232465267181396e-02 1.049092411994934082e-01 1.118639633059501648e-01 1.121436581015586853e-01 -2.348118647933006287e-02 -2.149490267038345337e-02 4.085403308272361755e-02 6.167011708021163940e-02 -3.190464898943901062e-02 1.223055794835090637e-01 -1.940766721963882446e-02 1.104096546769142151e-01 -1.195018142461776733e-01 5.291109532117843628e-02 -1.673539914190769196e-02 -7.452429831027984619e-02 -1.093939989805221558e-01 3.737515583634376526e-02 9.529964067041873932e-03 6.478111445903778076e-02 1.624684967100620270e-02 -1.060844138264656067e-01 -3.532718867063522339e-03 -5.436379089951515198e-02 -5.267961323261260986e-02 -6.409376114606857300e-02 6.247839704155921936e-02 -5.644428730010986328e-02 1.862108707427978516e-01 2.032778039574623108e-02 -7.612264156341552734e-02 2.781596221029758453e-02 -6.108310818672180176e-02 2.205807529389858246e-02 4.429247975349426270e-02 -1.054132636636495590e-02 6.996977329254150391e-02 -1.314490139484405518e-01 1.367040127515792847e-01 1.714629232883453369e-01 5.594147741794586182e-02 -5.542118567973375320e-03 -8.437950164079666138e-02 -9.255957603454589844e-02 1.044134795665740967e-01 -1.078321561217308044e-01 1.012899726629257202e-01 1.437612771987915039e-01 7.195902615785598755e-02 -3.432163223624229431e-02 -4.885631054639816284e-02 1.777661442756652832e-01 -5.933361500501632690e-02 6.349334027618169785e-03 -1.974530071020126343e-01 -6.002112105488777161e-02 -8.369249850511550903e-02 2.327200397849082947e-02 -2.482383325695991516e-02 7.888160645961761475e-02 -7.508931308984756470e-02 -4.547334089875221252e-02 2.144887149333953857e-01 -2.997232601046562195e-02 1.121947541832923889e-01 4.750648513436317444e-02 -9.946636855602264404e-02 -3.358561173081398010e-02 1.812260895967483521e-01 -1.249689459800720215e-01 -9.923127293586730957e-02 -2.921487949788570404e-02 1.848839409649372101e-02 -5.520207434892654419e-02 -4.016918316483497620e-02 -2.780286828055977821e-03 -2.928090840578079224e-02 8.512864261865615845e-02 -2.575606852769851685e-02 6.066250801086425781e-02 1.842574588954448700e-02 4.418843984603881836e-02 -7.209964841604232788e-02 4.395345598459243774e-02 6.649372726678848267e-02 1.347750052809715271e-02 -3.911689668893814087e-02 -1.099268253892660141e-02 -1.502463817596435547e-01 1.266873627901077271e-02 1.495949625968933105e-01 -8.228582143783569336e-02 1.472398340702056885e-01 -4.270825907588005066e-02 -6.307086348533630371e-02 -9.408459812402725220e-02 -8.659054338932037354e-02 1.229754835367202759e-02 8.058952540159225464e-02 5.779988691210746765e-02 7.172027230262756348e-02 -8.876666426658630371e-02 -6.568887829780578613e-02 1.940913498401641846e-01 -1.263339668512344360e-01 -1.581496745347976685e-01 -2.830886468291282654e-02 -1.160547137260437012e-01 5.056718736886978149e-02 -1.971225142478942871e-01 -1.800007000565528870e-02 1.307832151651382446e-01 -1.389122158288955688e-01 -5.289194639772176743e-03 6.625040620565414429e-02 3.598051518201828003e-02 -7.627487927675247192e-02 8.373492956161499023e-02 -6.293090432882308960e-02 -1.031836122274398804e-01 5.610488727688789368e-02 9.478784352540969849e-02 1.096557974815368652e-01 -5.938002094626426697e-02 -5.419212952256202698e-02 -2.543748542666435242e-02 -8.616046607494354248e-02 -1.584504917263984680e-02 -4.482993856072425842e-02 -1.398562043905258179e-01 2.182772383093833923e-02 -1.253268867731094360e-01 1.764574274420738220e-02 2.578239701688289642e-02 7.245305925607681274e-02 -1.181597262620925903e-02 -4.877536557614803314e-03 1.526802405714988708e-02 -1.673570089042186737e-02 4.243756458163261414e-02 2.308198437094688416e-02 -1.176716480404138565e-02
-4.092522710561752319e-02 -1.446050703525543213e-01 1.761994510889053345e-01 1.181560382246971130e-01 -1.014757081866264343e-01 -2.551600635051727295e-01 -1.185661703348159790e-01 3.999068588018417358e-02 -1.623995229601860046e-02 1.758527308702468872e-01 3.845466673374176025e-02 3.310258686542510986e-02 1.505142543464899063e-02 2.936524525284767151e-02 -8.888002485036849976e-03 1.583167910575866699e-02 -1.359565705060958862e-01 2.073278278112411499e-01 1.129516121000051498e-02 -5.289954133331775665e-03 4.071344807744026184e-02 1.327962893992662430e-02 -4.937963094562292099e-04 1.071742177009582520e-01 4.986029863357543945e-02 1.697186976671218872e-01 1.011620536446571350e-01 -3.843551734462380409e-03 -2.634752355515956879e-02 -1.944603770971298218e-02 -1.887948960065841675e-01 -7.349500805139541626e-02 -7.106308359652757645e-03 5.738895758986473083e-02 7.816626876592636108e-02 -2.332420200109481812e-01 6.696935743093490601e-02 3.902200609445571899e-02 -2.979319170117378235e-02 6.124981679022312164e-03 7.989637553691864014e-02 -6.446029990911483765e-03 5.001549422740936279e-02 7.539951708167791367e-03 3.874962916597723961e-03 1.827849447727203369e-02 9.131553769111633301e-02 1.029111593961715698e-01 5.137896165251731873e-02 1.495040394365787506e-02 7.078034430742263794e-02 -4.625503346323966980e-02 -3.108483254909515381e-01 -4.226721450686454773e-02 1.111942343413829803e-02 2.349808514118194580e-01 -5.123086739331483841e-03 -2.256907522678375244e-02 1.642260551452636719e-01 -5.209054052829742432e-02 -1.303694546222686768e-01 4.469981417059898376e-02 -9.074789285659790039e-02 -4.422453418374061584e-02 -4.149860236793756485e-03 7.946671545505523682e-02 -4.442262277007102966e-02 -1.432451009750366211e-01 -1.627687178552150726e-02 3.015868738293647766e-02 9.279762953519821167e-02 9.264455735683441162e-02 -6.210390105843544006e-02 1.606741570867598057e-03 -8.322142809629440308e-02 -2.080019563436508179e-02 -2.356848679482936859e-03 -1.084715966135263443e-02 1.893028430640697479e-02 1.089400239288806915e-02 1.476717181503772736e-02 3.842610865831375122e-02 -6.764970719814300537e-02 -2.989536337554454803e-02 -4.398095980286598206e-02 1.135906428098678589e-01 4.506695270538330078e-02 2.152149751782417297e-02 6.245770677924156189e-02 6.853709369897842407e-02 -4.856114462018013000e-02 1.289690434932708740e-01 -1.691498309373855591e-01 1.458303779363632202e-01 -8.455878496170043945e-02 -4.932362213730812073e-02 7.722417265176773071e-02 9.224688261747360229e-02 3.405807167291641235e-02 -1.305544674396514893e-01 -2.722970210015773773e-02 3.640240058302879333e-02 -1.047590374946594238e-01 1.290587186813354492e-01 -1.637423783540725708e-01 1.269432753324508667e-01 -6.710236519575119019e-02 -4.330012202262878418e-02 6.272193789482116699e-02 8.842848241329193115e-02 1.591415703296661377e-02 -3.465111553668975830e-02 -6.344173848628997803e-02 -1.152078583836555481e-01 6.733555346727371216e-02 1.022061780095100403e-01 1.286239549517631531e-02 4.542797803878784180e-02 -7.356655597686767578e-02 -8.355163782835006714e-02 6.444414705038070679e-02 -4.423619806766510010e-02 -5.937035754323005676e-02 6.880002468824386597e-02 -9.442881494760513306e-02 6.642717868089675903e-02 -1.257290244102478027e-01 -1.104781776666641235e-01 -4.570695385336875916e-02 -1.428576260805130005e-01 9.692613035440444946e-03 1.125226914882659912e-02 8.300645649433135986e-02 9.781897813081741333e-02 -2.612170949578285217e-02 -1.149609759449958801e-01 -2.027527242898941040e-02 4.369673877954483032e-02 2.040303125977516174e-02 -6.257419940084218979e-03 -4.252028092741966248e-02 -1.146720424294471741e-01 1.587543040513992310e-01 -1.021350026130676270e-01 -2.056122869253158569e-01 -1.063372939825057983e-01 -1.879685558378696442e-02 1.324260383844375610e-01 7.180695235729217529e-02 -4.142390191555023193e-02 1.361684948205947876e-01 1.612239032983779907e-01 -1.242675632238388062e-01 -4.753676801919937134e-02 7.161553949117660522e-02 1.162275075912475586e-01 1.947671175003051758e-02 7.625575363636016846e-02 1.662489958107471466e-02 1.030497923493385315e-01 4.041960462927818298e-02 -5.766393244266510010e-02 -2.762926928699016571e-02 -1.172231733798980713e-01 1.881399005651473999e-02 6.813403218984603882e-02 1.871666871011257172e-02 -6.110979244112968445e-02 -1.782452166080474854e-01 2.206456847488880157e-02 -7.698998600244522095e-02 -2.830720040947198868e-03 -3.510107100009918213e-02 -1.956466352567076683e-03 -7.805941253900527954e-02 8.339768648147583008e-02 3.529724478721618652e-02 1.550243645906448364e-01 1.422029733657836914e-02 4.076674580574035645e-02 -7.025989238172769547e-03 -1.267307437956333160e-02 -1.524743735790252686e-01 1.879233717918395996e-01 5.240374431014060974e-02 1.826825737953186035e-02 -2.825837768614292145e-02 4.192540422081947327e-02 -6.991913076490163803e-03 -1.525866687297821045e-01 -1.504981704056262970e-02 -6.584445945918560028e-03 2.936968021094799042e-02 7.421265542507171631e-02 -1.139125972986221313e-01 -5.602365359663963318e-02 -1.116318553686141968e-01 -5.973265320062637329e-02 5.848839133977890015e-02 6.052875146269798279e-02 8.618567883968353271e-02 -5.106876790523529053e-02 -7.687978446483612061e-02 2.016291022300720215e-02 4.091962054371833801e-02 9.073985368013381958e-02 1.686569005250930786e-01 -1.426730751991271973e-01 -8.279425674118101597e-04 2.943218871951103210e-02 -7.002308219671249390e-02 -4.841206222772598267e-02 7.641831785440444946e-02 -4.947453737258911133e-03 5.753771588206291199e-02 3.061728365719318390e-02 -1.228845342993736267e-01 -5.184848979115486145e-02 -1.432107985019683838e-01 5.937709659337997437e-02 5.425462126731872559e-02 -3.026895411312580109e-02 7.089724391698837280e-02 1.830516941845417023e-02 -4.163226112723350525e-02 -1.693660393357276917e-02 -1.365772783756256104e-01 -4.008500277996063232e-02 9.969039261341094971e-02 1.523046344518661499e-01 1.976293139159679413e-02 -1.178565155714750290e-02 2.040770091116428375e-02 1.146049052476882935e-01 1.293562650680541992e-01 5.073110759258270264e-02 -4.934509843587875366e-02 -3.347073867917060852e-02 5.293502658605575562e-02 8.538223057985305786e-02 -1.109197828918695450e-02 4.293497651815414429e-03 -2.820420078933238983e-02 3.309217095375061035e-02 2.593232132494449615e-02 1.123118326067924500e-01 -1.675719581544399261e-02 6.474900990724563599e-02 3.560006991028785706e-02 -1.023006737232208252e-01 1.088809594511985779e-01 -5.935014039278030396e-02 -1.156663894653320312e-01 8.340179175138473511e-02 2.296454608440399170e-01 2.637761645019054413e-02
-2.367948181927204132e-02 6.133243441581726074e-02 -1.389189064502716064e-01 -8.726922422647476196e-02 8.369142562150955200e-02 -1.707977950572967529e-01 -1.329414825886487961e-02 -7.592244446277618408e-02 1.126328334212303162e-01 5.784488469362258911e-02 -7.576978206634521484e-02 1.761720329523086548e-02 -2.003694139420986176e-02 -9.145423769950866699e-02 -2.213690727949142456e-01 -2.903267554938793182e-02 5.528048425912857056e-02 -4.810034763067960739e-03 -2.132873982191085815e-02 -1.436990350484848022e-01 -7.885313034057617188e-02 1.475737392902374268e-01 -1.131247729063034058e-01 -3.463510796427726746e-02 -3.854943206533789635e-03 1.067344397306442261e-01 5.433119460940361023e-02 -4.569615423679351807e-02 7.853657007217407227e-03 2.014833502471446991e-03 -2.832579985260963440e-02 -8.922258019447326660e-02 4.799148812890052795e-02 -1.024514362215995789e-01 4.417667165398597717e-02 2.286855131387710571e-01 3.186131641268730164e-02 9.510921686887741089e-02 -9.581023827195167542e-03 5.063366144895553589e-02 7.893119938671588898e-03 -1.543225944042205811e-01 1.680939458310604095e-02 -1.878081858158111572e-01 1.710585504770278931e-01 7.917321473360061646e-02 9.195410460233688354e-02 6.748792529106140137e-02 -1.114528849720954895e-01 -5.885538831353187561e-02 2.179073356091976166e-02 2.919683977961540222e-02 -4.767879098653793335e-02 8.451082743704319000e-03 -1.014036163687705994e-01 1.888242550194263458e-02 8.672721683979034424e-02 2.618140168488025665e-02 -5.456352606415748596e-02 -1.085417196154594421e-01 -1.043821349740028381e-01 5.894837900996208191e-02 -9.280059486627578735e-02 -1.908377371728420258e-02 -9.701826423406600952e-02 1.490347534418106079e-01 -1.794350594282150269e-01 4.949808120727539062e-02 1.000935360789299011e-01 1.356392949819564819e-01 -5.900937318801879883e-02 5.067681148648262024e-02 -8.210724592208862305e-02 1.149841547012329102e-01 -7.149392366409301758e-02 -8.097267895936965942e-02 -2.106190100312232971e-02 -7.833521813154220581e-02 -1.053516939282417297e-02 4.910980165004730225e-02 -9.124129265546798706e-02 1.124443337321281433e-01 -7.360988855361938477e-02 3.365013748407363892e-02 -6.922599673271179199e-02 1.051113605499267578e-01 -1.610790640115737915e-01 -1.782833635807037354e-01 9.458947926759719849e-02 -5.441771820187568665e-02 -1.541246622800827026e-01 3.436058387160301208e-02 7.530848681926727295e-02 4.187472164630889893e-03 -1.188630145043134689e-02 -3.646996244788169861e-02 -1.138347983360290527e-01 -4.755861684679985046e-02 5.568929016590118408e-03 2.297738008201122284e-02 -7.323171943426132202e-02 6.226257886737585068e-03 7.337457686662673950e-02 -2.705402486026287079e-02 7.302181422710418701e-02 1.175180152058601379e-01 -5.240774527192115784e-02 -2.723252773284912109e-02 -3.157765418291091919e-02 -5.681336671113967896e-02 -9.404905885457992554e-02 -2.018074132502079010e-02 7.970497943460941315e-03 -9.389414638280868530e-02 -4.379822686314582825e-02 -7.617888599634170532e-02 -4.222025349736213684e-02 -5.518921837210655212e-02 -6.138671934604644775e-02 1.234450712800025940e-01 -5.245599150657653809e-02 -8.710678666830062866e-02 8.998850733041763306e-02 2.221220284700393677e-01 -1.598032563924789429e-01 -7.168797403573989868e-02 2.148034796118736267e-02 7.535400241613388062e-02 -6.767800450325012207e-02 -7.235564291477203369e-02 -5.385430529713630676e-02 -3.368112072348594666e-02 8.130216971039772034e-03 1.471314728260040283e-01 -1.416442692279815674e-01 4.385307431221008301e-03 -4.594974964857101440e-02 6.713146716356277466e-02 -2.223427221179008484e-02 -4.888324812054634094e-02 -1.503774821758270264e-01 1.521065235137939453e-01 8.856329321861267090e-02 -6.450006365776062012e-02 1.595155447721481323e-01 1.621651500463485718e-01 -8.130678534507751465e-02 4.988525435328483582e-02 5.377262458205223083e-02 2.233449555933475494e-02 -7.509507238864898682e-03 6.603984534740447998e-02 -1.125268861651420593e-01 -8.428423851728439331e-02 -1.113585308194160461e-01 -1.019597724080085754e-01 1.251998990774154663e-01 -3.598741069436073303e-02 8.009608089923858643e-02 -6.508871912956237793e-02 3.849497064948081970e-02 -6.663714349269866943e-02 -7.732275128364562988e-02 -5.450140312314033508e-02 -8.696977980434894562e-03 1.198742315173149109e-01 4.402574151754379272e-02 2.473777532577514648e-02 -1.121831238269805908e-01 -1.974689774215221405e-02 -6.892269849777221680e-02 1.133425068110227585e-02 -7.419869303703308105e-02 -3.880189359188079834e-02 1.212600395083427429e-01 -1.121160462498664856e-01 -2.169286757707595825e-01 7.973449304699897766e-03 -3.433017432689666748e-02 -4.815428692381829023e-04 -2.639529295265674591e-02 -1.471119523048400879e-01 -1.203547939658164978e-01 1.080305501818656921e-02 3.941689152270555496e-03 1.586231291294097900e-01 1.142469607293605804e-02 -1.019530892372131348e-01 1.018587648868560791e-01 5.017552152276039124e-02 -1.069243401288986206e-01 -1.151652485132217407e-01 1.614520400762557983e-01 3.327180445194244385e-02 -4.165450111031532288e-02 7.069337368011474609e-02 3.314369544386863708e-02 1.819391101598739624e-01 -1.203772611916065216e-02 4.442945867776870728e-02 -5.112818628549575806e-02 1.419420242309570312e-01 1.464930027723312378e-01 1.942182891070842743e-02 1.003269478678703308e-02 6.149580329656600952e-02 9.697552770376205444e-02 -4.484860599040985107e-02 -1.312390156090259552e-02 3.861593082547187805e-02 -5.901348218321800232e-02 -1.369265168905258179e-01 1.584441661834716797e-01 -5.376470088958740234e-02 -8.617390692234039307e-02 1.148266950622200966e-03 -4.021440446376800537e-02 1.265904009342193604e-01 1.666190326213836670e-01 -5.594174191355705261e-02 -1.074138134717941284e-01 -4.832709580659866333e-02 6.090456619858741760e-03 -7.757785916328430176e-02 -5.445172544568777084e-03 6.427512317895889282e-02 -1.615365850739181042e-03 1.039017066359519958e-01 -1.788113564252853394e-01 -2.840474992990493774e-02 7.295447587966918945e-02 -7.429385557770729065e-03 -5.830700695514678955e-02 1.807118356227874756e-01 -1.210567355155944824e-02 8.367443829774856567e-02 -1.098759248852729797e-01 5.991662293672561646e-02 -6.296002119779586792e-02 1.327039767056703568e-02 -3.041217662394046783e-02 1.583620160818099976e-01 2.286761067807674408e-02 2.634893357753753662e-02 -2.118992805480957031e-01 -9.068250656127929688e-02 -8.601505309343338013e-02 -7.495342940092086792e-02 9.151378646492958069e-03 1.576930843293666840e-02 -1.509968191385269165e-01 2.222678661346435547e-01 -7.808146625757217407e-02 -2.844500355422496796e-02 -1.122106388211250305e-01 -7.593541592359542847e-02
3.037065453827381134e-02 -1.147110760211944580e-01 -3.691229596734046936e-02 8.537786453962326050e-02 -1.907701790332794189e-01 9.521666169166564941e-02 -8.433534950017929077e-02 -9.232407063245773315e-02 -5.689536035060882568e-02 -1.951498910784721375e-02 -2.454278990626335144e-02 -5.335007980465888977e-02 -7.159110903739929199e-02 -1.136680692434310913e-01 1.440491676330566406e-01 2.827648818492889404e-01 -4.961194470524787903e-02 -6.757166981697082520e-02 -6.558649241924285889e-02 -5.202325060963630676e-02 4.524344112724065781e-03 -3.596901521086692810e-02 -9.565961360931396484e-02 7.083233445882797241e-02 1.963629387319087982e-02 9.802670776844024658e-02 6.968667358160018921e-02 6.769256293773651123e-02 4.127631336450576782e-02 -3.363238275051116943e-02 -3.647737950086593628e-02 1.038192510604858398e-01 -6.701335310935974121e-02 2.728040143847465515e-02 -7.139046490192413330e-02 -6.191211938858032227e-02 4.206151887774467468e-02 -3.539135679602622986e-02 -1.904486492276191711e-02 1.140026226639747620e-01 -1.838331669569015503e-02 5.586325749754905701e-02 1.282884329557418823e-01 3.584766387939453125e-02 8.357018977403640747e-02 5.325173959136009216e-02 -8.183285593986511230e-02 -7.954970002174377441e-02 -8.675585687160491943e-02 1.142292097210884094e-01 -4.951820895075798035e-02 7.438677549362182617e-02 -6.290531158447265625e-02 -2.060243040323257446e-01 -2.053634077310562134e-01 -2.876259759068489075e-02 4.628934711217880249e-02 -9.584166109561920166e-02 1.017607152462005615e-01 4.472710564732551575e-02 -4.209212213754653931e-02 -9.191030263900756836e-02 -7.609199732542037964e-02 -9.977599978446960449e-02 -1.339169293642044067e-01 -1.463760137557983398e-01 8.649522438645362854e-03 5.414221435785293579e-02 1.359305065125226974e-02 -3.792610391974449158e-02 -8.823772519826889038e-02 -1.216436401009559631e-01 -5.114724114537239075e-02 7.977499067783355713e-02 -6.136460974812507629e-02 -8.628298342227935791e-02 -6.575495353899896145e-04 3.979493305087089539e-02 -3.063409775495529175e-02 3.510573133826255798e-02 -6.092778220772743225e-02 6.047219038009643555e-02 7.254160195589065552e-02 -4.153842851519584656e-02 1.556591987609863281e-01 4.516014084219932556e-02 -2.547082863748073578e-02 -7.478415220975875854e-02 -1.529189944267272949e-02 -7.828384637832641602e-02 3.094564564526081085e-02 -1.365815550088882446e-01 -2.787889726459980011e-02 -1.457197498530149460e-02 -6.744276732206344604e-02 2.502915821969509125e-02 3.922978788614273071e-02 1.180321127176284790e-01 9.056542068719863892e-02 -1.093267947435379028e-01 2.034127265214920044e-01 -8.094222098588943481e-02 -4.546615295112133026e-03 -1.283632665872573853e-01 -7.972184568643569946e-02 5.156417936086654663e-02 -3.779193758964538574e-02 1.610822826623916626e-01 8.111191540956497192e-02 4.298975318670272827e-02 9.805747866630554199e-02 7.177598029375076294e-02 2.386867254972457886e-02 5.961341038346290588e-02 1.231119856238365173e-01 5.591840296983718872e-02 -1.681514456868171692e-02 -5.987761914730072021e-02 2.333158403635025024e-01 -2.356071397662162781e-02 -1.000903099775314331e-01 -4.187670350074768066e-02 5.878220777958631516e-03 -4.615459591150283813e-02 -3.374260663986206055e-02 2.737258188426494598e-02 2.095537260174751282e-02 2.612799778580665588e-02 6.754819303750991821e-02 -7.282936573028564453e-02 5.655732937157154083e-03 -1.722268760204315186e-01 -1.091856732964515686e-01 8.628720417618751526e-03 1.106401160359382629e-01 7.937125861644744873e-02 -8.087749034166336060e-02 -1.626454442739486694e-01 -1.428670138120651245e-01 -1.980991847813129425e-02 -2.727223932743072510e-02 -6.225909665226936340e-02 1.795693486928939819e-02 -1.271607279777526855e-01 1.934365928173065186e-01 -1.515987515449523926e-01 -2.063812874257564545e-02 -4.549210146069526672e-02 2.085089832544326782e-01 2.727280836552381516e-03 7.478349655866622925e-02 4.325152933597564697e-02 -7.182248681783676147e-02 -6.291873753070831299e-02 -2.487845718860626221e-02 -3.077782224863767624e-03 6.235263869166374207e-02 7.669357955455780029e-02 -1.485768612474203110e-02 1.772419959306716919e-01 7.734211534261703491e-02 8.113701641559600830e-02 7.727916538715362549e-02 6.293817609548568726e-02 7.695002853870391846e-02 1.409045159816741943e-01 1.252296268939971924e-01 -1.941019594669342041e-01 2.928474545478820801e-02 -1.966201514005661011e-01 1.968530714511871338e-01 -2.947743237018585205e-02 -2.679026126861572266e-02 8.338791877031326294e-02 -3.583426401019096375e-02 8.458735793828964233e-02 3.903450816869735718e-02 5.593913421034812927e-02 -3.721566870808601379e-02 -2.098123282194137573e-01 -1.317452043294906616e-01 -5.239968746900558472e-02 -4.032776877284049988e-02 -8.141052722930908203e-02 5.189765617251396179e-02 5.133490264415740967e-02 1.669276803731918335e-01 5.047360807657241821e-02 -2.454654499888420105e-02 5.124568939208984375e-02 1.235986724495887756e-01 7.066623866558074951e-02 1.133296489715576172e-01 1.383636295795440674e-01 -9.039229154586791992e-02 3.627091273665428162e-02 2.743352763354778290e-02 2.981316298246383667e-02 -5.605584755539894104e-02 2.813817001879215240e-02 -2.206703089177608490e-02 3.471303731203079224e-02 -6.645681709051132202e-02 -4.076163470745086670e-02 3.346250206232070923e-02 1.372787803411483765e-01 5.706763640046119690e-02 5.867229029536247253e-02 -8.439734578132629395e-02 -1.170424744486808777e-01 8.099216222763061523e-02 1.131182443350553513e-02 -1.078739538788795471e-01 5.051299557089805603e-02 -3.968065138906240463e-03 5.569211672991514206e-03 -4.504785314202308655e-02 2.578547038137912750e-02 -6.769899278879165649e-03 -3.758106753230094910e-02 -1.513927727937698364e-01 -8.842393290251493454e-04 9.722520597279071808e-03 8.604823052883148193e-02 1.418738160282373428e-02 -6.663309037685394287e-02 1.103487461805343628e-01 1.293038018047809601e-02 6.057331711053848267e-02 1.980219036340713501e-02 1.678898483514785767e-01 1.454829126596450806e-01 -1.071843579411506653e-01 -2.768202498555183411e-02 1.270687133073806763e-01 -1.960450857877731323e-01 9.658828377723693848e-02 9.114840626716613770e-02 -1.358450651168823242e-01 -1.069931965321302414e-02 -6.399215757846832275e-02 6.873582303524017334e-02 1.234333440661430359e-01 4.517166689038276672e-02 -1.836856603622436523e-01 -2.607310563325881958e-02 9.533937275409698486e-02 4.343685507774353027e-02 8.802276849746704102e-02 6.790877133607864380e-02 -7.221236824989318848e-02 -6.254205852746963501e-02 7.038723677396774292e-02 -1.396394520998001099e-01 -1.203798055648803711e-01 8.441752940416336060e-02
-4.729587212204933167e-02 -6.667844951152801514e-02 -3.526142239570617676e-02 1.266859620809555054e-01 8.700718753971159458e-04 -1.249131634831428528e-01 -7.304517179727554321e-02 -5.120325833559036255e-02 1.533848047256469727e-02 -1.067402660846710205e-01 -1.317410543560981750e-02 -1.077368296682834625e-02 2.970510104205459356e-04 -1.193498894572257996e-01 -1.617604494094848633e-01 -8.334472775459289551e-02 -4.876018315553665161e-02 1.787507981061935425e-01 -5.354588106274604797e-02 -1.866673976182937622e-01 3.660919517278671265e-02 -3.753224387764930725e-02 1.945985108613967896e-01 -9.631831198930740356e-02 -1.832167655229568481e-01 -9.361747652292251587e-02 1.095352470874786377e-01 4.997700825333595276e-02 8.162081241607666016e-03 -7.323362678289413452e-02 -1.270032972097396851e-01 -7.021008431911468506e-02 6.560187041759490967e-02 -3.911891020834445953e-03 9.231253713369369507e-02 2.081285230815410614e-02 -1.974780410528182983e-01 2.505005151033401489e-02 -6.673143059015274048e-02 -1.631492972373962402e-01 -2.115396596491336823e-02 4.043959081172943115e-02 -1.921141892671585083e-02 -6.436902284622192383e-02 1.180406659841537476e-01 -6.299697607755661011e-02 2.102670632302761078e-02 -1.872841715812683105e-01 -2.326610125601291656e-02 2.631050720810890198e-02 -1.048732101917266846e-01 1.505548059940338135e-01 -1.988998204469680786e-01 -7.406794466078281403e-03 -1.848845630884170532e-01 -1.825649477541446686e-02 -1.155404001474380493e-01 1.036718785762786865e-01 1.659933626651763916e-01 1.224033907055854797e-01 -2.688999474048614502e-02 4.247369617223739624e-02 -1.935900305397808552e-03 -9.165988117456436157e-02 -4.206993430852890015e-02 -5.458151921629905701e-02 -3.505382314324378967e-02 -7.007287442684173584e-02 -4.702319949865341187e-02 -3.942231833934783936e-02 -9.925597161054611206e-02 -8.119083195924758911e-02 -1.070978268980979919e-01 -4.552496597170829773e-02 -3.513989597558975220e-02 7.649987190961837769e-02 5.430133268237113953e-02 1.274986308999359608e-03 -6.072602991480380297e-05 -8.206675201654434204e-02 -1.769596710801124573e-02 6.907805800437927246e-02 -2.517521381378173828e-02 1.175199896097183228e-01 -7.836519926786422729e-02 1.923966705799102783e-01 2.025057971477508545e-01 5.881309509277343750e-02 1.562094967812299728e-02 -5.434920638799667358e-02 3.779231011867523193e-02 -2.262640893459320068e-01 3.065979667007923126e-02 3.388292342424392700e-02 -8.556453511118888855e-03 1.339018940925598145e-01 1.047414168715476990e-02 3.506709262728691101e-02 -1.380864977836608887e-01 -4.677093401551246643e-02 -1.492465734481811523e-01 1.385664492845535278e-01 -5.851047858595848083e-02 2.902283519506454468e-02 -8.953914791345596313e-02 4.676692932844161987e-02 -5.710188299417495728e-02 -4.018541425466537476e-02 -5.239367019385099411e-03 -6.511119659990072250e-03 3.937406837940216064e-02 1.035329625010490417e-01 7.360513508319854736e-02 6.229086592793464661e-02 -2.348761446774005890e-02 -1.402516812086105347e-01 8.542423136532306671e-03 -1.686388254165649414e-02 9.265636652708053589e-02 -1.090478897094726562e-01 -8.225695043802261353e-02 1.045347079634666443e-01 8.083600550889968872e-02 -3.210702165961265564e-02 9.517933242022991180e-03 2.563403453677892685e-03 1.146502513438463211e-02 5.149560049176216125e-02 1.582347750663757324e-01 4.346952214837074280e-02 -9.389610588550567627e-02 4.554734379053115845e-02 -2.035288810729980469e-01 2.252590656280517578e-02 -8.834378421306610107e-02 2.148887328803539276e-02 -1.189522594213485718e-01 1.001192927360534668e-01 -3.360589221119880676e-02 -7.164001464843750000e-02 -7.667602505534887314e-03 1.153207495808601379e-01 1.238199695944786072e-01 -8.384988456964492798e-02 8.119431138038635254e-02 1.522129029035568237e-01 -4.825487732887268066e-02 5.865129828453063965e-02 6.207211688160896301e-02 4.328094422817230225e-02 -1.137162372469902039e-01 8.690627664327621460e-02 -3.358551114797592163e-02 2.898249961435794830e-02 1.497535705566406250e-01 -8.683477342128753662e-02 -1.147528961300849915e-01 7.917591929435729980e-02 8.582375943660736084e-02 -6.439854949712753296e-02 -3.212851285934448242e-02 -1.290799081325531006e-01 -1.982705742120742798e-01 -1.146956346929073334e-02 3.234363347291946411e-02 -5.197346210479736328e-02 1.014635059982538223e-02 -8.303647860884666443e-03 8.677937090396881104e-02 -4.268760234117507935e-02 -2.383899874985218048e-02 -1.176512017846107483e-01 -2.701921388506889343e-02 7.957085222005844116e-02 2.349795401096343994e-02 -3.390403464436531067e-02 -4.170925170183181763e-02 -8.889835327863693237e-02 -2.000255435705184937e-01 -7.951714843511581421e-02 1.181156188249588013e-01 1.127908453345298767e-01 1.272285878658294678e-01 4.491461813449859619e-02 1.405418515205383301e-01 1.145492047071456909e-01 1.129748821258544922e-01 1.081681344658136368e-02 -1.219355594366788864e-02 1.070495098829269409e-01 4.654869809746742249e-02 -1.459899917244911194e-02 2.948696352541446686e-02 6.102583929896354675e-02 -7.025855034589767456e-02 -3.880095854401588440e-02 9.004060924053192139e-02 -1.318297386169433594e-01 6.182637810707092285e-02 -6.491078436374664307e-02 3.604158386588096619e-02 -8.205308020114898682e-02 -8.214820921421051025e-02 6.425119191408157349e-02 -6.981473416090011597e-03 -6.820186227560043335e-02 -7.181836664676666260e-02 1.457009091973304749e-02 1.262764539569616318e-02 -2.591504482552409172e-03 -4.823312535881996155e-02 1.941740280017256737e-03 8.067972958087921143e-02 -1.408332288265228271e-01 1.198027208447456360e-01 -9.781379252672195435e-02 -6.151495501399040222e-02 -3.581027686595916748e-02 -1.368803996592760086e-02 -2.749960683286190033e-02 -3.877513483166694641e-02 -9.063243120908737183e-02 2.740062773227691650e-02 3.374252235516905785e-03 -5.655214190483093262e-02 1.041081398725509644e-01 1.522682141512632370e-02 9.840726107358932495e-02 6.757198274135589600e-02 2.293756976723670959e-02 -1.810154169797897339e-01 -4.119150340557098389e-02 1.815634369850158691e-01 -4.076248034834861755e-02 -1.531281024217605591e-01 -4.029132053256034851e-02 -2.210798114538192749e-02 -1.244387477636337280e-01 1.570090055465698242e-01 -1.300657391548156738e-01 -1.168274320662021637e-02 -5.412208288908004761e-02 6.603215634822845459e-02 -1.942341960966587067e-02 -9.735579043626785278e-02 -1.246761158108711243e-02 3.247858211398124695e-02 -5.866196751594543457e-02 -7.399407029151916504e-02 5.451057851314544678e-02 1.281252503395080566e-01 -8.940188563428819180e-04 6.736036855727434158e-03 -1.775774359703063965e-01 -1.147495862096548080e-02 1.029613148421049118e-02
-4.526168107986450195e-02 3.814948350191116333e-02 2.084067277610301971e-02 2.892986498773097992e-02 1.389729604125022888e-02 -4.987821727991104126e-02 -4.304968751966953278e-03 -1.056939885020256042e-01 7.434528321027755737e-02 -1.886603236198425293e-01 -6.412150710821151733e-02 1.432782858610153198e-01 1.446514874696731567e-01 2.082612365484237671e-01 5.313294380903244019e-02 7.949329167604446411e-02 1.435873843729496002e-02 8.657260239124298096e-02 3.137689828872680664e-02 2.388798817992210388e-02 -1.627877354621887207e-01 -4.185864701867103577e-02 1.590029569342732430e-03 1.940733343362808228e-01 6.687325239181518555e-02 -8.768331259489059448e-03 -8.725126273930072784e-03 -6.109396368265151978e-02 -1.821780391037464142e-02 9.740290790796279907e-02 3.225782513618469238e-02 7.348680496215820312e-02 1.016761213541030884e-01 -1.140073034912347794e-02 9.094609320163726807e-02 4.938464611768722534e-02 -6.888873875141143799e-02 4.112161695957183838e-02 -1.247773021459579468e-01 -9.167921543121337891e-02 -1.722313091158866882e-02 2.294471859931945801e-02 -9.598640725016593933e-03 -1.864591799676418304e-02 -1.399706006050109863e-01 7.579866051673889160e-02 -8.076911419630050659e-02 -3.031713888049125671e-02 1.712447591125965118e-02 -3.137478977441787720e-02 3.665093332529067993e-02 1.096928045153617859e-01 4.456756263971328735e-02 -3.064913488924503326e-02 -6.577314436435699463e-02 -4.405670613050460815e-02 -1.488327682018280029e-01 -2.988088689744472504e-02 -8.708820678293704987e-03 -6.583336740732192993e-02 8.537481725215911865e-02 -2.811104059219360352e-02 -1.129639148712158203e-01 -2.407437376677989960e-02 -7.504459470510482788e-02 -4.295159503817558289e-02 -1.420224457979202271e-02 3.012962825596332550e-02 -1.343535929918289185e-01 1.286001205444335938e-01 -2.283465713262557983e-01 -1.099957898259162903e-01 2.405537478625774384e-02 2.355905249714851379e-02 -1.355280429124832153e-01 -4.880534484982490540e-02 -9.916070848703384399e-03 4.746149480342864990e-02 1.227388978004455566e-01 -8.799790591001510620e-02 -4.776884615421295166e-02 -1.023687645792961121e-01 -3.544358536601066589e-02 -3.264777734875679016e-02 -1.504008620977401733e-01 1.463559120893478394e-01 -2.455982007086277008e-02 1.987733244895935059e-01 2.628425881266593933e-02 8.178618736565113068e-03 -6.908147782087326050e-02 1.082846522331237793e-01 6.019980832934379578e-02 -5.408229678869247437e-02 9.777571260929107666e-02 -2.306436002254486084e-01 2.151987142860889435e-02 -1.629383414983749390e-01 1.476437002420425415e-01 -1.758056809194386005e-03 -1.457168534398078918e-02 2.020305953919887543e-02 -1.982577517628669739e-02 -1.463465988636016846e-01 -1.044181808829307556e-01 -1.573090404272079468e-01 6.772282719612121582e-02 -5.626174062490463257e-02 -8.202913403511047363e-02 9.670173376798629761e-02 -3.743745759129524231e-02 -3.498240548651665449e-04 -1.804050505161285400e-01 1.807478815317153931e-02 -1.352894455194473267e-01 9.606331586837768555e-02 2.701832726597785950e-02 1.330265700817108154e-01 1.537896245718002319e-01 1.617702394723892212e-01 -1.829624734818935394e-02 -2.117930911481380463e-03 -6.516311317682266235e-02 6.200307607650756836e-02 6.694015860557556152e-02 -9.949882514774799347e-03 -1.692123711109161377e-02 -6.440804153680801392e-02 1.127244681119918823e-01 -7.837878167629241943e-02 -1.075801774859428406e-01 1.627945154905319214e-01 1.242345720529556274e-01 8.583500236272811890e-02 7.143574301153421402e-03 -6.455531716346740723e-02 -4.281984269618988037e-02 -2.890220656991004944e-02 1.825910210609436035e-01 1.514616794884204865e-02 -1.323336660861968994e-01 -1.299291383475065231e-03 4.391036927700042725e-02 -6.462067365646362305e-02 -8.132047951221466064e-02 -6.620059162378311157e-02 4.803599044680595398e-02 5.605168268084526062e-02 5.767980962991714478e-02 -4.491057991981506348e-02 6.634704768657684326e-02 1.580370515584945679e-01 1.104919333010911942e-02 -1.941398531198501587e-01 -8.524406701326370239e-02 8.853459358215332031e-02 1.279534958302974701e-02 -1.406212598085403442e-01 1.266239136457443237e-01 8.696103096008300781e-02 1.506715118885040283e-01 -3.602621331810951233e-02 -1.401434466242790222e-02 8.795997500419616699e-02 -1.040337681770324707e-01 6.097465753555297852e-02 -9.656623937189579010e-03 9.748666733503341675e-02 7.130139321088790894e-02 2.564421668648719788e-02 -9.325453639030456543e-02 2.312593534588813782e-02 2.242098189890384674e-02 -2.302708663046360016e-02 9.908135235309600830e-02 2.930845506489276886e-02 -5.233583226799964905e-02 -6.725462526082992554e-02 -3.512218967080116272e-02 -4.563774913549423218e-02 -5.543090030550956726e-02 -1.305227130651473999e-01 2.648629620671272278e-02 3.018796257674694061e-02 1.485716700553894043e-01 1.956198737025260925e-02 1.037444472312927246e-01 6.167499721050262451e-02 1.386522650718688965e-01 9.051512926816940308e-02 1.188843026757240295e-01 5.984212830662727356e-02 -7.249436527490615845e-02 -1.409205421805381775e-02 6.393673270940780640e-02 -1.401761267334222794e-02 9.353987872600555420e-02 -5.215524882078170776e-02 1.250707805156707764e-01 -6.158798560500144958e-02 1.787628978490829468e-02 -4.903714731335639954e-02 -1.784191429615020752e-01 7.408567517995834351e-02 1.372536569833755493e-01 -5.603287369012832642e-02 -6.774868816137313843e-02 -1.409493479877710342e-02 7.339180260896682739e-02 2.785898372530937195e-02 8.275884389877319336e-02 -1.346808373928070068e-01 -3.885672427713871002e-03 7.503411918878555298e-02 2.450125105679035187e-02 -2.109574154019355774e-02 -1.419475115835666656e-02 5.756122991442680359e-02 -3.933158889412879944e-02 -1.282481849193572998e-01 3.608235344290733337e-02 -3.575797751545906067e-02 4.997403919696807861e-02 1.695658545941114426e-03 -4.169673472642898560e-02 4.084994271397590637e-02 -1.668296456336975098e-01 4.043365642428398132e-02 2.578602638095617294e-03 1.276907473802566528e-01 5.540326237678527832e-02 -1.417321860790252686e-01 -1.005226448178291321e-01 -3.936535492539405823e-02 -8.823685348033905029e-02 4.953625425696372986e-02 -3.030142188072204590e-02 1.596405915915966034e-02 -1.289058923721313477e-01 1.071474403142929077e-01 -6.179954856634140015e-03 -1.278458535671234131e-01 3.057786822319030762e-01 1.278055608272552490e-01 -4.302717000246047974e-02 -2.207755483686923981e-02 -7.641888409852981567e-02 -3.663074597716331482e-02 5.991793586872518063e-04 -4.732442274689674377e-02 3.774531930685043335e-02 -7.406055927276611328e-02 -3.927989862859249115e-03 -2.045086212456226349e-02 3.717256709933280945e-02 1.254516541957855225e-01
6.091838330030441284e-02 -5.364046618342399597e-02 -7.516032457351684570e-02 -9.397110342979431152e-02 4.695873707532882690e-02 1.467932909727096558e-01 1.026192754507064819e-01 -1.038899198174476624e-01 -1.375130414962768555e-01 -2.060437649488449097e-01 -1.294931769371032715e-01 -2.158595947548747063e-03 -2.011160403490066528e-01 5.262870714068412781e-02 -6.395949423313140869e-02 -3.726182878017425537e-02 -1.288640797138214111e-01 9.243405610322952271e-02 -3.787310421466827393e-02 -1.802208274602890015e-02 -5.618596076965332031e-02 -1.709950901567935944e-02 -7.358000427484512329e-02 -2.054264023900032043e-02 3.664248436689376831e-02 1.377308219671249390e-01 1.753018051385879517e-02 -2.814553678035736084e-02 -4.758815467357635498e-02 -6.225670874118804932e-02 7.430825382471084595e-02 -1.183181721717119217e-02 -1.366547644138336182e-01 -1.375810801982879639e-01 1.300382465124130249e-01 7.937568426132202148e-02 -1.417026668787002563e-01 -4.994729533791542053e-02 -4.549776017665863037e-02 -1.036636084318161011e-01 -6.105034798383712769e-02 3.829077631235122681e-02 -7.823941111564636230e-02 4.187955334782600403e-02 5.710095912218093872e-02 -5.126107949763536453e-03 -3.805696964263916016e-02 7.512870430946350098e-02 3.006260469555854797e-02 -7.047528773546218872e-02 -3.215752309188246727e-03 1.075483020395040512e-02 -2.463066391646862030e-02 -1.501146852970123291e-01 9.976015985012054443e-02 -1.262611430138349533e-02 -1.003454905003309250e-02 -1.596420072019100189e-02 -7.715193927288055420e-02 9.534541517496109009e-03 -7.833889685571193695e-03 1.015138626098632812e-01 6.746834516525268555e-02 2.495625056326389313e-02 3.776754066348075867e-02 1.973718777298927307e-02 -7.197386026382446289e-02 -2.449028380215167999e-02 7.569567114114761353e-02 -4.893769696354866028e-02 -7.575355470180511475e-02 1.450866907835006714e-01 -1.016111224889755249e-01 -3.081458210945129395e-01 -1.262434273958206177e-01 3.325130417943000793e-02 1.222334876656532288e-01 2.431433349847793579e-01 1.327200084924697876e-01 1.091619208455085754e-02 2.758273668587207794e-02 -7.043552398681640625e-02 -6.769677251577377319e-02 -1.602127403020858765e-01 -2.533788420259952545e-02 -7.846667617559432983e-02 2.608716674149036407e-02 7.513656467199325562e-02 1.220413371920585632e-01 1.194724366068840027e-01 -3.389959037303924561e-02 4.749409854412078857e-02 -2.277808450162410736e-02 5.495327338576316833e-02 -6.373221427202224731e-02 1.399640142917633057e-01 -1.270686686038970947e-01 -1.114907674491405487e-02 2.077848091721534729e-02 -4.605981335043907166e-02 1.771365851163864136e-01 8.133968338370323181e-03 -3.443169221282005310e-02 4.241823777556419373e-02 6.215913221240043640e-02 1.035041958093643188e-01 -3.132101614028215408e-03 1.511761639267206192e-02 1.043865531682968140e-01 6.739772111177444458e-02 -5.959757789969444275e-02 2.659460343420505524e-02 -8.322803676128387451e-02 -9.561701864004135132e-02 5.730267241597175598e-02 9.263680875301361084e-02 1.092506125569343567e-01 -7.881480455398559570e-02 1.246905326843261719e-01 -2.471851743757724762e-02 -9.214150905609130859e-02 -4.210796952247619629e-02 -2.390125952661037445e-02 -1.488503348082304001e-02 -6.487312167882919312e-02 -8.846989274024963379e-02 6.787905842065811157e-02 -1.284822225570678711e-01 3.644138202071189880e-02 -6.715387850999832153e-02 -6.347662955522537231e-02 5.384789779782295227e-02 -8.451747149229049683e-02 1.135071367025375366e-01 6.037523224949836731e-02 -4.755407199263572693e-02 2.320260368287563324e-02 1.246217265725135803e-01 1.384046394377946854e-02 2.476483583450317383e-02 2.333612553775310516e-02 1.128006651997566223e-01 -2.146992832422256470e-02 -4.906010627746582031e-02 -2.737225219607353210e-02 -5.864788964390754700e-02 -5.668573081493377686e-02 1.560822967439889908e-02 2.792275846004486084e-01 -6.454157084226608276e-02 -2.474014088511466980e-02 -1.376419961452484131e-01 1.012708172202110291e-01 2.104617506265640259e-01 2.393699437379837036e-02 6.884149275720119476e-03 1.106942147016525269e-01 1.654047816991806030e-01 -4.571739956736564636e-02 2.382996492087841034e-02 1.097438782453536987e-01 -1.311521232128143311e-01 2.618728391826152802e-02 -8.191434666514396667e-03 -4.654785152524709702e-03 9.984492510557174683e-02 -6.982996314764022827e-02 -7.547894865274429321e-02 5.194464325904846191e-02 -2.326399087905883789e-02 -1.236636638641357422e-01 4.593135043978691101e-02 1.009071618318557739e-01 -1.354971379041671753e-01 -3.235883638262748718e-02 6.381872296333312988e-02 -1.488830149173736572e-01 2.630823105573654175e-02 -3.958747163414955139e-02 -8.209693431854248047e-02 8.970837295055389404e-02 1.736183911561965942e-01 -4.606953263282775879e-02 1.554325520992279053e-01 7.240332663059234619e-02 -3.458010405302047729e-02 6.694444268941879272e-02 -1.254668086767196655e-01 -2.285276055335998535e-01 -7.509350031614303589e-02 6.465577520430088043e-03 -2.008126676082611084e-02 -2.225793153047561646e-01 -9.274265915155410767e-02 7.411067187786102295e-02 5.604841560125350952e-02 2.929321024566888809e-03 1.952808909118175507e-02 -1.096646040678024292e-01 1.755273155868053436e-02 -1.051267310976982117e-01 7.887986302375793457e-02 8.283937722444534302e-02 8.143641054630279541e-02 -1.072538197040557861e-01 1.324207894504070282e-02 4.956839233636856079e-02 2.332939021289348602e-02 -9.815623983740806580e-03 -9.051173180341720581e-02 -5.942324176430702209e-02 3.997748345136642456e-02 -4.695262014865875244e-02 -1.402089558541774750e-02 -7.515975832939147949e-02 -6.599651277065277100e-02 -1.662533171474933624e-02 -1.157642975449562073e-01 5.985323712229728699e-02 3.762910515069961548e-02 -3.868674114346504211e-02 -2.890772931277751923e-02 7.552903145551681519e-02 -2.906679175794124603e-02 1.238701399415731430e-02 -4.085789620876312256e-02 -3.900621086359024048e-02 -5.977099016308784485e-02 4.379037022590637207e-02 -1.169473379850387573e-01 3.142253309488296509e-02 -4.129386693239212036e-02 -2.146461047232151031e-02 -1.716823130846023560e-01 4.654740169644355774e-02 -2.337963320314884186e-02 -1.562601178884506226e-01 7.041138410568237305e-02 9.934192150831222534e-02 1.319962553679943085e-02 1.014910340309143066e-01 8.449303917586803436e-03 1.188735887408256531e-01 6.117430329322814941e-02 5.949606653302907944e-03 4.787357524037361145e-02 -1.534734666347503662e-01 1.505094207823276520e-02 8.074665069580078125e-02 -1.521532051265239716e-02 -1.575803011655807495e-01 2.620805203914642334e-01 6.231355667114257812e-02 8.874545991420745850e-02 2.343519963324069977e-02 8.167043328285217285e-02
6.785025447607040405e-02 3.965362533926963806e-02 -8.594229817390441895e-02 1.111010015010833740e-01 6.421505007892847061e-03 6.529492139816284180e-02 -3.282862156629562378e-02 4.227058589458465576e-02 -2.429766207933425903e-02 -2.112204395234584808e-02 9.722964838147163391e-03 -5.573932826519012451e-02 -2.535203397274017334e-01 1.736091226339340210e-01 8.267237246036529541e-02 -2.349244952201843262e-01 -9.621363133192062378e-02 -2.624185010790824890e-02 -8.971153758466243744e-03 2.322921156883239746e-02 -1.257924884557723999e-01 2.198781445622444153e-02 1.266123075038194656e-02 -9.272080659866333008e-02 -1.334392428398132324e-01 8.451663702726364136e-02 8.165022730827331543e-02 -1.140491198748350143e-02 8.281435817480087280e-02 -1.961456239223480225e-02 6.054500583559274673e-03 1.145091205835342407e-01 6.638181954622268677e-02 9.352729469537734985e-02 1.579646319150924683e-01 2.998725697398185730e-02 -1.334487795829772949e-01 5.813066288828849792e-02 -5.333580821752548218e-02 1.181958988308906555e-02 1.458647698163986206e-01 1.123320385813713074e-01 7.603386789560317993e-02 5.206981673836708069e-02 -1.067124865949153900e-02 -1.673283576965332031e-01 1.940054297447204590e-01 -8.927241712808609009e-02 -6.344946473836898804e-02 2.030986547470092773e-02 9.415522217750549316e-03 -2.494909614324569702e-02 5.876666679978370667e-02 1.617716625332832336e-02 6.776204705238342285e-02 4.926541075110435486e-02 -3.239661082625389099e-02 5.149845778942108154e-02 -7.648742198944091797e-02 -1.308887749910354614e-01 -8.751116693019866943e-02 3.699456527829170227e-02 -4.737918078899383545e-02 7.442212663590908051e-03 5.922726169228553772e-02 -1.257719695568084717e-01 1.797120720148086548e-01 -8.141371607780456543e-02 -7.265640050172805786e-02 -2.182515710592269897e-02 1.664682663977146149e-02 -1.309626996517181396e-01 -3.762966394424438477e-02 1.287489081732928753e-03 1.531496644020080566e-01 -2.993878535926342010e-02 -1.166003495454788208e-01 3.567353263497352600e-02 -7.231458555907011032e-03 -5.692275986075401306e-02 -2.368482761085033417e-02 1.064653415232896805e-02 -5.525046214461326599e-02 -7.577405124902725220e-02 6.228801235556602478e-02 -5.914564058184623718e-02 -1.509146392345428467e-01 2.606203034520149231e-02 1.558511108160018921e-01 1.139864251017570496e-01 -3.067471459507942200e-02 -2.086123824119567871e-01 -6.454535573720932007e-02 -6.449229270219802856e-02 4.811702761799097061e-03 1.688397526741027832e-01 -3.819447010755538940e-02 -1.112732887268066406e-01 1.485238969326019287e-01 4.145389795303344727e-02 -1.713023148477077484e-02 1.713264733552932739e-02 -1.655946299433708191e-02 5.831064283847808838e-02 3.764307871460914612e-02 -4.044974222779273987e-02 -4.290137812495231628e-02 -2.152438461780548096e-02 2.776890620589256287e-02 -4.426814615726470947e-02 -1.069217920303344727e-01 -1.505268272012472153e-02 7.214603479951620102e-03 -3.977434337139129639e-02 -3.061708807945251465e-01 4.954115953296422958e-03 -7.565372437238693237e-02 1.001592054963111877e-01 -6.310842186212539673e-02 4.948132485151290894e-02 -1.679423749446868896e-01 1.177660003304481506e-01 -6.627973169088363647e-02 2.201531827449798584e-01 4.132148250937461853e-02 4.353697597980499268e-02 -6.902694702148437500e-02 2.491312916390597820e-04 -2.976444065570831299e-01 -4.448771476745605469e-02 -1.247596070170402527e-01 -1.642657816410064697e-01 6.121736019849777222e-03 2.302347123622894287e-02 9.615949541330337524e-02 1.215817481279373169e-01 -7.179228216409683228e-02 -5.880133062601089478e-02 1.237178295850753784e-01 -4.437835514545440674e-02 -1.180023103952407837e-01 -1.177181303501129150e-01 3.345815464854240417e-02 4.178684949874877930e-02 -6.537906825542449951e-02 6.195423007011413574e-02 -2.156567201018333435e-02 7.633826136589050293e-02 -1.209960207343101501e-01 4.369196668267250061e-02 -2.797543071210384369e-02 -1.900781132280826569e-02 -1.277078874409198761e-02 -2.045693844556808472e-01 -1.695722155272960663e-02 -3.446089103817939758e-02 -8.611086755990982056e-02 -1.517162472009658813e-01 6.974489241838455200e-02 4.774893447756767273e-02 -1.416889131069183350e-01 -5.941943451762199402e-02 -6.399999558925628662e-02 -8.525034785270690918e-02 -1.671741902828216553e-02 5.118060111999511719e-02 3.562976792454719543e-02 -1.139351353049278259e-01 -9.683660417795181274e-02 -6.917371600866317749e-02 5.739932134747505188e-02 3.929731901735067368e-03 -2.636336684226989746e-01 1.334505528211593628e-01 -6.277187913656234741e-02 4.888428375124931335e-02 3.458146005868911743e-02 -2.850989997386932373e-02 1.810715347528457642e-01 2.623854577541351318e-02 -1.922870636917650700e-03 1.177566275000572205e-01 -4.422340169548988342e-02 1.343336887657642365e-02 6.858576834201812744e-02 -8.544237166643142700e-02 1.196058392524719238e-01 1.269586533308029175e-01 6.389000453054904938e-03 9.715726971626281738e-02 -4.627913609147071838e-02 4.148764908313751221e-02 -2.125430764863267541e-04 1.011370941996574402e-01 -5.238585919141769409e-02 2.941014617681503296e-02 -2.691335044801235199e-02 -3.196538193151354790e-03 -4.328902810811996460e-02 1.494900975376367569e-02 6.289615482091903687e-02 7.613608986139297485e-02 -4.395565018057823181e-02 -3.454104438424110413e-02 8.280633389949798584e-02 -4.795997217297554016e-02 -3.600001335144042969e-02 -1.099279001355171204e-01 8.364037494175136089e-04 1.917726397514343262e-01 -1.325267106294631958e-01 1.084156408905982971e-01 -1.618409156799316406e-02 1.045064330101013184e-01 2.198975682258605957e-01 1.034742370247840881e-01 -4.334909841418266296e-02 -1.692468971014022827e-01 7.150610536336898804e-02 -1.734151854179799557e-03 4.756895080208778381e-02 -5.430398508906364441e-02 -4.844295606017112732e-02 3.397720679640769958e-02 -1.489640772342681885e-01 -4.462207481265068054e-02 4.926130548119544983e-02 1.835502870380878448e-02 1.605687886476516724e-01 9.738812223076820374e-03 5.902704596519470215e-02 2.327778562903404236e-02 -4.568785801529884338e-02 -1.226619184017181396e-01 8.633555471897125244e-02 3.706649690866470337e-02 -1.910327002406120300e-02 6.197256222367286682e-02 6.202865857630968094e-03 -1.346309930086135864e-01 -1.081474572420120239e-01 -9.453045576810836792e-02 6.092959642410278320e-02 -9.290122985839843750e-02 -1.670595556497573853e-01 -1.015741028822958469e-03 -2.638991922140121460e-02 -4.027191177010536194e-02 4.256024956703186035e-02 5.874469876289367676e-02 -8.541743457317352295e-02 -4.574645310640335083e-02 5.396397039294242859e-02 -8.615257591009140015e-02 -1.098920926451683044e-01 1.994381286203861237e-02
9.950874745845794678e-02 -7.540555298328399658e-02 2.159800007939338684e-02 -2.611703472211956978e-03 -1.372338086366653442e-01 2.710667625069618225e-02 4.578520357608795166e-02 -6.778940558433532715e-02 -4.230998456478118896e-03 2.935947664082050323e-02 1.082035363651812077e-03 -1.017684191465377808e-01 -4.130933806300163269e-02 8.297048509120941162e-03 9.724778681993484497e-02 -1.929220557212829590e-01 1.427753921598196030e-02 -1.970609873533248901e-01 6.866424530744552612e-02 6.472259759902954102e-02 1.783422231674194336e-01 -4.149001464247703552e-02 1.297597140073776245e-01 -9.093572199344635010e-02 5.384435132145881653e-02 -1.007002666592597961e-01 -1.338971406221389771e-01 1.352182030677795410e-01 -1.128059104084968567e-01 -1.132218539714813232e-01 9.083611518144607544e-02 1.083378121256828308e-01 1.624011062085628510e-02 5.618210509419441223e-02 9.593033045530319214e-02 -1.051210686564445496e-01 -5.382003262639045715e-02 -7.654180377721786499e-02 -4.377962648868560791e-02 -8.201699703931808472e-02 1.131601259112358093e-01 -5.850089341402053833e-02 9.891663491725921631e-02 8.277054131031036377e-02 1.479367911815643311e-01 1.013981699943542480e-01 -1.943331956863403320e-01 4.696145281195640564e-02 5.539683625102043152e-02 -1.681569963693618774e-02 -8.416747301816940308e-02 9.215415269136428833e-02 -7.121246308088302612e-02 -9.751046448945999146e-02 1.002206355333328247e-01 3.187079727649688721e-02 -6.246661022305488586e-02 -2.322885841131210327e-01 1.338997334241867065e-01 2.331322804093360901e-02 1.577952653169631958e-01 2.073849439620971680e-01 -1.234405413269996643e-01 7.057712972164154053e-02 -3.708371520042419434e-02 1.424160785973072052e-02 1.163862496614456177e-01 1.938869059085845947e-01 -9.493016451597213745e-02 4.559696093201637268e-02 -2.393130585551261902e-02 5.176123231649398804e-02 -6.566783040761947632e-02 -1.346932351589202881e-01 -4.873439297080039978e-02 5.051804706454277039e-02 1.660024374723434448e-02 -5.786087736487388611e-02 4.275269340723752975e-03 -2.548502385616302490e-02 -3.592342138290405273e-02 -2.001335471868515015e-02 -3.575247153639793396e-02 3.118125721812248230e-02 -3.507123561576008797e-03 3.017161600291728973e-02 2.728285081684589386e-02 1.674188077449798584e-01 3.694187477231025696e-02 -6.142072752118110657e-02 -1.080236360430717468e-01 -5.010069813579320908e-03 -1.710741668939590454e-01 -6.804982200264930725e-03 1.200788691639900208e-01 1.271863430738449097e-01 -9.917438728734850883e-04 -8.988621830940246582e-02 3.138077259063720703e-02 -4.342798888683319092e-02 7.904257625341415405e-02 -2.262387871742248535e-01 -1.060280762612819672e-02 1.483401954174041748e-01 1.476118266582489014e-01 -1.408563405275344849e-01 3.020726330578327179e-02 6.747277081012725830e-02 -1.638702601194381714e-01 -1.281783729791641235e-01 -1.347193717956542969e-01 -1.176379397511482239e-01 -1.141299214214086533e-02 7.147233933210372925e-02 7.208009809255599976e-02 -5.754718184471130371e-02 -3.897854313254356384e-02 -1.285782009363174438e-01 -5.652999505400657654e-02 9.912870824337005615e-02 4.075007513165473938e-03 -2.943373657763004303e-02 1.342143714427947998e-01 -2.817625999450683594e-01 -7.036417722702026367e-02 2.440905757248401642e-02 9.200121462345123291e-02 -4.463989660143852234e-02 -8.306973427534103394e-02 -7.976275682449340820e-02 -8.048986643552780151e-02 -4.810672719031572342e-03 8.010330796241760254e-02 1.956323236227035522e-01 1.424833084456622601e-03 -2.421366050839424133e-02 2.178790979087352753e-02 -5.630945414304733276e-02 -8.861369639635086060e-02 -4.889075644314289093e-03 1.266091465950012207e-01 -9.596903622150421143e-02 -3.504853323101997375e-02 -2.216669544577598572e-02 -4.957268759608268738e-02 -8.202759176492691040e-02 -1.826986521482467651e-01 -1.061757951974868774e-01 1.180631816387176514e-01 3.433131799101829529e-02 7.929577259346842766e-04 1.040584594011306763e-01 -4.404979944229125977e-02 7.703430205583572388e-02 -9.308043867349624634e-02 1.127293482422828674e-01 -5.126707721501588821e-03 -9.072930365800857544e-02 6.937280995771288872e-04 -9.702657908201217651e-02 3.767878189682960510e-02 -8.317209035158157349e-02 -1.312246918678283691e-01 1.279940456151962280e-01 1.110084913671016693e-02 1.141870953142642975e-02 -3.730171918869018555e-02 -4.363777488470077515e-02 -2.952383831143379211e-02 9.443069994449615479e-02 1.107469201087951660e-01 7.442869991064071655e-02 -1.524717807769775391e-01 6.049457937479019165e-02 4.377512261271476746e-02 -6.854723393917083740e-02 -5.234812851995229721e-03 -4.667537659406661987e-02 1.476122159510850906e-02 -7.587466854602098465e-03 -1.262322366237640381e-01 -5.073601007461547852e-02 -4.813876003026962280e-02 5.925249308347702026e-02 6.153647974133491516e-02 -6.035166978836059570e-02 8.285710960626602173e-02 -2.833165414631366730e-02 -2.729544974863529205e-02 5.575252696871757507e-02 -1.098127439618110657e-01 -7.777240872383117676e-02 1.596509069204330444e-01 -1.566659659147262573e-02 -6.438734009861946106e-03 -4.400368407368659973e-02 9.008937515318393707e-03 -3.016890212893486023e-02 -9.666394442319869995e-02 4.870359599590301514e-02 5.536952242255210876e-02 6.241174787282943726e-02 1.670980453491210938e-02 8.830860257148742676e-02 -2.929952740669250488e-02 -8.961474150419235229e-02 8.371421694755554199e-02 -4.769867658615112305e-02 1.654044836759567261e-01 -9.316915273666381836e-02 -1.513696275651454926e-02 1.288111656904220581e-01 1.387774478644132614e-02 5.178838968276977539e-02 1.441458985209465027e-02 6.656631827354431152e-02 -2.088818550109863281e-01 -4.085703939199447632e-02 -6.933788210153579712e-02 2.385606802999973297e-02 6.804737728089094162e-03 1.321535557508468628e-01 -5.882700532674789429e-02 -3.531767055392265320e-02 6.101317703723907471e-02 6.508448719978332520e-02 -1.896948739886283875e-02 1.325991600751876831e-01 -1.262287050485610962e-01 8.132635056972503662e-02 -9.243690967559814453e-02 -5.132693797349929810e-02 -1.113253980875015259e-01 -1.259897928684949875e-02 -9.240941703319549561e-02 6.183286663144826889e-03 -1.974993571639060974e-02 3.198096156120300293e-02 -1.007322128862142563e-02 1.238608174026012421e-02 1.393611133098602295e-01 7.478291541337966919e-02 2.974850394821260124e-05 -7.996037602424621582e-03 -3.469301015138626099e-02 -1.217534095048904419e-01 4.048858769237995148e-03 -6.156197935342788696e-02 -4.502333700656890869e-02 8.166433870792388916e-02 5.179319903254508972e-02 4.197425395250320435e-02 -1.326355785131454468e-01 -7.602572441101074219e-02 7.132574170827865601e-02 1.788975857198238373e-02
