-1.172549463808536530e-02
-1.920811831951141357e-02
2.679783850908279419e-02
1.804576814174652100e-02
-2.457556314766407013e-02
3.154117241501808167e-02
3.702973481267690659e-03
-1.599096693098545074e-02
2.415183000266551971e-02
2.246437966823577881e-02
9.979801252484321594e-03
2.418089658021926880e-02
1.612604409456253052e-02
3.168055787682533264e-03
4.278553649783134460e-02
2.799160033464431763e-02
-1.948153600096702576e-02
-2.676595374941825867e-02
4.977505281567573547e-02
1.862712390720844269e-02
-3.014825470745563507e-02
3.243701532483100891e-02
-2.306301146745681763e-02
-4.964732564985752106e-03
5.654365569353103638e-02
-3.631810098886489868e-02
-1.415731292217969894e-02
-2.606598660349845886e-02
7.530139293521642685e-03
-8.680123835802078247e-03
-1.781273819506168365e-02
2.379718702286481857e-03
-1.399516593664884567e-02
-1.129620429128408432e-02
-9.584681130945682526e-03
7.205661386251449585e-03
1.312868762761354446e-02
-2.405038662254810333e-02
9.135385043919086456e-03
-1.847355812788009644e-02
-1.047639455646276474e-02
-2.680486068129539490e-02
3.180024400353431702e-02
-1.229099370539188385e-02
4.193728382233530283e-04
-5.186127382330596447e-04
-1.866527087986469269e-02
4.648866504430770874e-02
-1.367198955267667770e-02
-1.707625808194279671e-03
-3.477418795228004456e-02
-2.042424632236361504e-03
-2.085079066455364227e-02
-5.401484202593564987e-03
-1.371566671878099442e-02
-2.447310369461774826e-03
2.681563980877399445e-02
1.423791423439979553e-02
2.756951935589313507e-02
-4.464640747755765915e-03
-4.482404887676239014e-02
-1.875438541173934937e-02
-1.924487017095088959e-02
-3.811602247878909111e-03
-4.340642318129539490e-02
1.903812959790229797e-02
-1.143084187060594559e-02
2.445829845964908600e-02
4.709676280617713928e-02
1.871159672737121582e-02
-1.860847882926464081e-02
6.892846524715423584e-02
4.229714162647724152e-03
-1.204188633710145950e-02
-1.970544457435607910e-02
2.594996429979801178e-02
4.193751141428947449e-03
-2.318046055734157562e-03
2.021336182951927185e-02
-4.177857656031847000e-03
2.399366348981857300e-02
-2.638775110244750977e-02
4.072133451700210571e-02
-4.952321201562881470e-02
-2.684026956558227539e-02
4.089373978786170483e-04
1.739609520882368088e-03
-7.633263245224952698e-03
3.100316412746906281e-02
-4.328840970993041992e-02
2.330592833459377289e-02
1.600454794242978096e-03
9.972129948437213898e-03
-1.571905054152011871e-02
-1.535127218812704086e-02
-1.351682818494737148e-03
5.335225258022546768e-03
-4.863540641963481903e-03
-1.246893778443336487e-02
-6.807747296988964081e-03
4.400080535560846329e-03
4.524768330156803131e-03
1.363788731396198273e-02
4.140180535614490509e-03
1.176977623254060745e-02
1.560753211379051208e-02
3.561896458268165588e-02
-2.178204432129859924e-02
-2.458830364048480988e-02
-3.074785508215427399e-02
-2.210009284317493439e-02
-2.059818617999553680e-02
3.531651943922042847e-02
-1.388007961213588715e-02
-5.395199405029416084e-04
4.665790125727653503e-02
-1.277447957545518875e-02
1.171855721622705460e-02
-1.943328604102134705e-02
-1.706478744745254517e-02
3.309272602200508118e-02
1.570260152220726013e-02
1.718075200915336609e-02
-1.406426168978214264e-02
3.914944827556610107e-03
-2.659861184656620026e-02
1.429490931332111359e-02
-1.946136541664600372e-02
1.613962650299072266e-02
-5.813641101121902466e-02
2.392293140292167664e-02
-3.597833216190338135e-02
-1.222046907059848309e-03
5.949922371655702591e-03
1.603706367313861847e-02
1.132879965007305145e-02
4.038894083350896835e-03
-2.085499465465545654e-02
-4.936583712697029114e-02
2.937988191843032837e-02
-1.444943808019161224e-02
-2.190741524100303650e-02
3.437580168247222900e-02
-2.202525362372398376e-02
-6.724681239575147629e-03
-3.722345083951950073e-02
5.566032975912094116e-02
1.052683405578136444e-02
-2.107621170580387115e-02
1.147083356045186520e-03
5.405597016215324402e-02
-1.650699600577354431e-02
-1.426202058792114258e-02
2.197581529617309570e-02
4.951506853103637695e-02
-8.347573690116405487e-03
1.185766514390707016e-02
-1.440268196165561676e-02
-4.191660135984420776e-02
-2.909516356885433197e-02
-2.776411734521389008e-02
-1.957152411341667175e-02
-3.885696083307266235e-02
-1.064551807940006256e-02
2.257840335369110107e-02
-1.824763894546777010e-04
-1.539586577564477921e-02
8.104130625724792480e-03
-2.565073035657405853e-02
-2.292983792722225189e-02
-2.853423170745372772e-02
5.887167900800704956e-02
-7.648724596947431564e-03
-3.352120984345674515e-03
3.336688503623008728e-02
-6.469487678259611130e-03
-2.272643335163593292e-02
-2.267184481024742126e-02
1.117864530533552170e-02
-1.698481477797031403e-02
2.853107266128063202e-02
4.509159363806247711e-03
-1.046049874275922775e-02
-1.292990427464246750e-02
3.331251675263047218e-03
2.203445136547088623e-02
2.188082225620746613e-02
1.902497932314872742e-02
-1.113486289978027344e-02
8.533330634236335754e-03
9.479368105530738831e-03
1.488118246197700500e-02
-1.443020254373550415e-02
-3.323288261890411377e-02
-1.937945187091827393e-02
-6.713606999255716801e-04
-4.625644534826278687e-03
-1.669252477586269379e-02
2.032774873077869415e-02
-9.734572959132492542e-04
-2.790300175547599792e-02
-2.399910986423492432e-02
-1.072985492646694183e-02
5.821150727570056915e-03
7.181080873124301434e-04
-1.096887979656457901e-02
3.600487112998962402e-02
1.709724403917789459e-02
-6.495160982012748718e-03
6.422268226742744446e-03
1.387092191725969315e-02
1.069529447704553604e-02
-3.001873567700386047e-02
-3.856259211897850037e-02
-1.096268277615308762e-02
-4.516873974353075027e-03
-1.277304254472255707e-02
-1.336977258324623108e-02
8.941939100623130798e-03
-3.600230067968368530e-02
-1.153358817100524902e-02
2.223833277821540833e-02
-4.388132132589817047e-03
-1.045843493193387985e-02
-1.694156043231487274e-02
2.553394623100757599e-02
-1.278689038008451462e-02
-1.049532461911439896e-02
-3.149269893765449524e-02
1.824105344712734222e-02
-3.011942654848098755e-02
-5.154872313141822815e-03
-4.991113673895597458e-03
4.226556047797203064e-03
-2.361485920846462250e-02
4.942025989294052124e-02
7.457037456333637238e-03
-1.493221241980791092e-02
5.740890651941299438e-02
7.852884009480476379e-03
-2.284225821495056152e-02
-5.932377185672521591e-03
-9.380319155752658844e-03
-3.285491466522216797e-02
-2.352586388587951660e-02
6.971048191189765930e-03
5.042604729533195496e-02
1.972916349768638611e-02
2.635410428047180176e-02
-1.020877389237284660e-03
4.425216466188430786e-03
6.602536141872406006e-02
-1.685569807887077332e-02
4.401871189475059509e-02
-2.695033699274063110e-02
-5.469722673296928406e-03
