3.108452856540679932e-01
-2.012918442487716675e-01
1.188706979155540466e-01
4.128283262252807617e-01
2.608568072319030762e-01
2.474607676267623901e-01
2.658086419105529785e-01
2.906567454338073730e-01
-2.287992835044860840e-01
2.587921023368835449e-01
2.957688868045806885e-01
-1.646082699298858643e-01
1.322161108255386353e-01
3.818318247795104980e-01
3.501775860786437988e-01
1.542483121156692505e-01
2.607659101486206055e-01
-4.662433930207043886e-04
8.660671859979629517e-02
-4.085526987910270691e-02
5.698576942086219788e-02
2.451060861349105835e-01
3.467403948307037354e-01
-9.121371805667877197e-02
3.156194090843200684e-01
-8.153408765792846680e-02
3.137312531471252441e-01
3.222588896751403809e-01
3.030387163162231445e-01
3.834199011325836182e-01
7.116735726594924927e-02
2.178393676877021790e-02
2.737755142152309418e-02
3.394000232219696045e-01
-8.943209797143936157e-02
-2.119756489992141724e-01
5.827116314321756363e-03
2.302766442298889160e-01
-2.914739213883876801e-02
3.799219429492950439e-01
2.742037773132324219e-01
-6.721767783164978027e-01
-4.392747581005096436e-01
2.044625282287597656e-01
3.154238462448120117e-01
-1.420197933912277222e-01
-1.532163321971893311e-01
2.523029446601867676e-01
3.047901391983032227e-01
1.079557314515113831e-01
-4.210299253463745117e-02
-3.914413973689079285e-02
4.052507281303405762e-01
3.053589165210723877e-01
2.130072116851806641e-01
-1.973116844892501831e-01
2.010273188352584839e-01
2.772400677204132080e-01
-1.744316965341567993e-01
2.295566201210021973e-01
-2.652008533477783203e-01
3.140805363655090332e-01
-3.324764668941497803e-01
-4.134188964962959290e-02
9.887128323316574097e-02
-3.825488686561584473e-02
2.303863167762756348e-01
2.030177712440490723e-01
2.573232650756835938e-01
-1.603025048971176147e-01
4.001281224191188812e-03
3.377217352390289307e-01
1.019303351640701294e-01
4.072449505329132080e-01
-1.427518278360366821e-01
2.831364572048187256e-01
3.251909315586090088e-01
-3.386238962411880493e-02
3.802950084209442139e-01
3.190922141075134277e-01
4.049292206764221191e-02
2.554874420166015625e-01
1.215571630746126175e-02
-2.506470084190368652e-01
3.935648202896118164e-01
-1.855127066373825073e-01
-1.134155690670013428e-01
3.141451776027679443e-01
1.477929502725601196e-01
1.231789588928222656e-01
-5.342464521527290344e-02
-1.603738963603973389e-01
-8.637567609548568726e-02
2.962944805622100830e-01
-1.027949228882789612e-01
3.859246522188186646e-02
3.443494439125061035e-01
2.165703624486923218e-01
6.302510201930999756e-02
-8.468780666589736938e-02
2.796951234340667725e-01
-1.268335878849029541e-01
2.802369594573974609e-01
2.249571681022644043e-01
8.143774420022964478e-02
3.740571141242980957e-01
8.917456120252609253e-02
1.682562083005905151e-01
-1.346886754035949707e-01
3.813412785530090332e-02
1.712457090616226196e-01
-1.412570029497146606e-01
-7.765486836433410645e-02
2.335641384124755859e-01
2.226303666830062866e-01
-1.970816999673843384e-01
2.257406413555145264e-01
4.097962081432342529e-01
3.784440159797668457e-01
2.341582477092742920e-01
2.606200277805328369e-01
2.024411410093307495e-01
2.462913244962692261e-01
-5.889415740966796875e-02
2.716751396656036377e-01
3.008289039134979248e-01
7.562620937824249268e-02
3.489039838314056396e-01
3.436655402183532715e-01
2.522845268249511719e-01
2.914461791515350342e-01
1.268881931900978088e-02
-1.812251806259155273e-01
1.954735256731510162e-02
3.679637238383293152e-02
-7.160442322492599487e-02
1.898647695779800415e-01
2.957644462585449219e-01
-3.143345415592193604e-01
4.038664400577545166e-01
1.631766110658645630e-01
5.474910885095596313e-02
3.270515203475952148e-01
2.884391248226165771e-01
-2.089241743087768555e-01
1.710064359940588474e-03
2.234788378700613976e-03
-1.767389774322509766e-01
2.462069131433963776e-02
3.190398812294006348e-01
6.736569851636886597e-02
-9.258320182561874390e-02
2.668921947479248047e-01
2.438452690839767456e-01
2.703530490398406982e-01
3.886656463146209717e-01
2.959957718849182129e-01
-3.551557287573814392e-02
-1.289943754673004150e-01
2.757107019424438477e-01
3.457609415054321289e-01
3.206891417503356934e-01
1.152728274464607239e-01
-2.633570320904254913e-02
2.498715668916702271e-01
-5.930634215474128723e-02
2.282480895519256592e-01
3.028114438056945801e-01
1.503738611936569214e-01
2.323836274445056915e-02
-7.004539668560028076e-02
2.280765920877456665e-01
3.034396469593048096e-01
2.617259919643402100e-01
1.018248200416564941e-01
7.521803677082061768e-02
-6.537853181362152100e-02
1.817913949489593506e-01
2.383773177862167358e-01
-2.714431285858154297e-01
-1.244588941335678101e-01
6.989797839196398854e-05
-8.040403015911579132e-03
2.787998616695404053e-01
-3.605602681636810303e-02
2.905413508415222168e-01
-1.301241517066955566e-01
2.928641140460968018e-01
1.698456555604934692e-01
3.362614512443542480e-01
1.537178605794906616e-01
-3.186625242233276367e-01
4.363453015685081482e-02
-3.399992734193801880e-02
2.978785336017608643e-01
1.691754311323165894e-01
-2.719595795497298241e-03
-3.091461658477783203e-01
2.526413202285766602e-01
3.446246683597564697e-01
7.417576760053634644e-02
-3.899170085787773132e-02
2.618387937545776367e-01
1.355300843715667725e-01
6.703563034534454346e-02
-9.701131284236907959e-02
3.542738780379295349e-02
-2.135940790176391602e-01
-2.620639801025390625e-01
3.567662090063095093e-02
-8.644847571849822998e-02
-2.165471762418746948e-02
9.281311929225921631e-02
2.034201622009277344e-01
-2.746083736419677734e-01
3.399810492992401123e-01
6.541741639375686646e-02
1.930691301822662354e-01
2.754630148410797119e-01
3.421918749809265137e-01
-1.055613830685615540e-01
1.790594607591629028e-01
1.646440774202346802e-01
1.825185865163803101e-01
6.578922271728515625e-02
2.112332582473754883e-01
3.937337696552276611e-01
1.649074070155620575e-02
6.156826391816139221e-02
-4.447663575410842896e-02
6.343864649534225464e-02
2.887297272682189941e-01
2.085595130920410156e-01
2.334531694650650024e-01
5.934744328260421753e-02
2.457328140735626221e-02
2.600295841693878174e-01
1.086443141102790833e-01
2.772106230258941650e-01
-1.616669297218322754e-01
-2.887850701808929443e-01
1.068530827760696411e-01
4.158135056495666504e-01
2.377106696367263794e-01
8.474094420671463013e-02
2.421382963657379150e-01
2.783775925636291504e-01
-2.144154459238052368e-01
2.583872526884078979e-02
-2.030726522207260132e-01
-5.028747022151947021e-02
3.690670430660247803e-01
-1.648117303848266602e-01
1.942218989133834839e-01
2.517450451850891113e-01
-5.068891122937202454e-02
