5.325906723737716675e-02 2.309343963861465454e-02 -3.789918497204780579e-02 6.273531168699264526e-02 -5.966328829526901245e-02 -9.512110799551010132e-02 3.306598216295242310e-02 1.210546568036079407e-01 5.840242281556129456e-02 -2.305356971919536591e-02 -8.512469008564949036e-03 1.237582936882972717e-01 -2.058753222227096558e-01 -2.097441814839839935e-02 1.279672831296920776e-01 6.536871939897537231e-02 1.842637732625007629e-02 -1.307049542665481567e-01 -7.444728165864944458e-02 -5.595310032367706299e-02 7.156659662723541260e-02 -2.578939124941825867e-02 5.024241656064987183e-02 6.920177489519119263e-02 9.980002790689468384e-02 5.062235868535935879e-04 -3.817711258307099342e-03 7.134678959846496582e-02 8.183334022760391235e-02 2.758007496595382690e-02 5.888429284095764160e-02 2.507474832236766815e-02 4.124656692147254944e-02 -5.738349258899688721e-02 -1.042001917958259583e-01 -2.469582855701446533e-02 4.201133549213409424e-02 2.533078379929065704e-02 -2.871729806065559387e-02 8.302552998065948486e-02 6.428533047437667847e-02 -3.509319201111793518e-02 -1.932828873395919800e-01 6.037906184792518616e-02 4.501797258853912354e-02 2.078869380056858063e-02 1.680796407163143158e-02 -6.276510655879974365e-02 1.516792625188827515e-01 6.204881891608238220e-02 1.641541123390197754e-01 5.796081200242042542e-02 1.594700366258621216e-01 2.650609984993934631e-02 -9.814847260713577271e-02 -2.969326451420783997e-02 -5.088448524475097656e-02 -3.436529263854026794e-02 1.733909547328948975e-02 1.135472580790519714e-01 -1.154559850692749023e-02 7.306395471096038818e-02 -1.153922900557518005e-01 -7.667667418718338013e-02 -1.788550429046154022e-02 -5.235051736235618591e-02 -9.393814951181411743e-02 7.760728150606155396e-02 -2.214403077960014343e-02 -7.283166795969009399e-02 3.088452294468879700e-02 -5.422899872064590454e-02 1.512645557522773743e-02 9.671157598495483398e-02 -1.116797910071909428e-03 -9.058888070285320282e-03 -3.664929792284965515e-02 4.161733202636241913e-03 -6.137798354029655457e-02 -2.512374520301818848e-02 -4.724011570215225220e-02 -1.169524490833282471e-01 2.895979909226298332e-03 8.284091949462890625e-02 -3.839088603854179382e-02 -3.795389086008071899e-02 3.597248718142509460e-02 3.452952578663825989e-02 4.809236153960227966e-02 1.916446164250373840e-02 3.346656216308474541e-03 -3.356824442744255066e-02 5.850141867995262146e-02 3.670505248010158539e-03 -1.906452178955078125e-01 -1.576113998889923096e-01 -8.478835225105285645e-02 -9.474728256464004517e-02 1.044913977384567261e-01 6.778177618980407715e-02 2.167870849370956421e-01 1.651264131069183350e-01 7.872569561004638672e-02 8.248583227396011353e-02 8.083320409059524536e-02 2.443529292941093445e-02 3.767970204353332520e-02 -4.134852066636085510e-02 3.291536867618560791e-02 -1.228250935673713684e-01 -5.116691067814826965e-02 -3.126793503761291504e-01 -1.264027506113052368e-02 6.807098630815744400e-03 -1.322031170129776001e-01 -4.053030908107757568e-02 -5.100451782345771790e-02 2.486337674781680107e-03 -2.718243747949600220e-02 2.807986363768577576e-02 6.826607137918472290e-02 1.686830371618270874e-01 -4.971292987465858459e-02 1.646849364042282104e-01 1.875559426844120026e-02 2.029144950211048126e-02 5.945885553956031799e-03 2.527520805597305298e-02 -5.083389580249786377e-02 -2.562879119068384171e-03 -5.721931904554367065e-02 4.656303301453590393e-02 2.192670553922653198e-01 -2.187871374189853668e-02 -1.747779250144958496e-01 -5.423256754875183105e-02 2.036103419959545135e-02 2.233996801078319550e-02 2.243293672800064087e-01 -1.230873689055442810e-01 -6.116312742233276367e-02 -3.759995475411415100e-02 9.880928322672843933e-03 -6.054084002971649170e-02 -6.466230750083923340e-02 9.492727927863597870e-03 1.140647567808628082e-03 -1.376436799764633179e-01 -1.308868527412414551e-01 -6.104706227779388428e-02 -1.894584111869335175e-02 -3.964236378669738770e-02 1.309364009648561478e-02 -1.113133504986763000e-02 4.674999788403511047e-02 -2.002139203250408173e-02 1.234771013259887695e-01 -1.874873787164688110e-01 7.388628274202346802e-02 1.238211691379547119e-01 2.145753987133502960e-02 -4.870448261499404907e-02 1.119356378912925720e-01 -1.087989006191492081e-02 3.217878565192222595e-02 -8.361906558275222778e-02 5.594956129789352417e-02 1.517318096011877060e-02 -5.233024805784225464e-02 1.092760786414146423e-01 -1.282363086938858032e-01 6.982755661010742188e-02 -1.485733091831207275e-01 7.660137861967086792e-02 -1.204286441206932068e-01 -7.188671082258224487e-02 -1.309531927108764648e-01 1.866605365648865700e-03 9.873808361589908600e-03 9.865575283765792847e-02 -1.576241105794906616e-01 -7.892911881208419800e-02 -3.545252978801727295e-02 7.656389474868774414e-02 7.854433357715606689e-02 -6.945928186178207397e-02 -2.637775801122188568e-02 -4.933433607220649719e-02 9.293778240680694580e-02 1.244958117604255676e-01 -8.736429363489151001e-02 -7.258448749780654907e-02 -2.249543787911534309e-03 1.242611370980739594e-02 5.704075470566749573e-02 7.852959632873535156e-02 2.118083685636520386e-01 -1.211226582527160645e-01 2.968305349349975586e-02 1.470029652118682861e-01 2.006005495786666870e-01 -7.988785207271575928e-02 -1.143320277333259583e-01 -3.528071939945220947e-02 -1.635855883359909058e-01 7.433201372623443604e-02 -7.607185840606689453e-02 -9.337098151445388794e-02 -4.111162945628166199e-02 1.418150365352630615e-01 -4.863208532333374023e-02 2.001299709081649780e-02 -1.696678437292575836e-02 -1.028149425983428955e-01 6.226889416575431824e-02 1.861727237701416016e-01 -1.793694123625755310e-02 9.571457654237747192e-02 -7.102867960929870605e-02 -1.633367091417312622e-01 2.391627617180347443e-02 -1.017199009656906128e-01 -3.008459508419036865e-02 -1.413089595735073090e-02 -7.046008110046386719e-02 2.802063338458538055e-02 -1.220310926437377930e-01 6.599001586437225342e-02 -8.246877044439315796e-02 -4.103012382984161377e-02 9.675817936658859253e-02 -3.164826333522796631e-02 2.366170287132263184e-02 8.276440203189849854e-02 9.098831564188003540e-02 7.106669247150421143e-02 -4.348516836762428284e-02 -1.055652201175689697e-01 -1.347757428884506226e-01 -1.163924019783735275e-02 -8.862048387527465820e-02 6.262171268463134766e-02 -5.122540146112442017e-02 -2.674305438995361328e-02 -5.831529200077056885e-02 -8.565420657396316528e-02 -8.159450255334377289e-03 -1.302956193685531616e-01 -6.919123977422714233e-02 -6.569478660821914673e-02 5.400898680090904236e-02 -1.260860115289688110e-01 -1.032410636544227600e-01 1.001351997256278992e-01 1.880687028169631958e-01 2.227317839860916138e-01
2.771006198599934578e-03 2.006247788667678833e-01 -5.579062178730964661e-02 1.742962561547756195e-02 -6.931557785719633102e-03 1.914562433958053589e-01 1.963092535734176636e-01 -9.562482684850692749e-02 -3.189409151673316956e-02 1.430128514766693115e-01 8.369489759206771851e-02 -3.933443501591682434e-02 -5.514662340283393860e-02 -6.791512947529554367e-03 -9.294448792934417725e-02 7.599230855703353882e-02 1.048516854643821716e-01 1.198016405105590820e-01 -4.019568860530853271e-02 -7.952000945806503296e-02 9.906440973281860352e-02 9.292355179786682129e-02 2.356483489274978638e-01 1.084380969405174255e-01 -1.340283900499343872e-01 -1.272929906845092773e-01 -5.487453565001487732e-02 1.061616614460945129e-01 -5.803954973816871643e-02 -1.350281685590744019e-01 -1.087341830134391785e-01 4.793997853994369507e-02 -7.714413851499557495e-02 1.945048943161964417e-02 -6.495930999517440796e-02 -2.330171130597591400e-02 2.459960430860519409e-02 -8.031465113162994385e-02 8.770836144685745239e-02 -3.884140402078628540e-02 -7.015319913625717163e-02 1.612449437379837036e-02 8.093734830617904663e-02 -6.612215191125869751e-02 7.899944484233856201e-02 -4.382244497537612915e-02 -7.150834053754806519e-02 7.101949886418879032e-04 -1.012585759162902832e-01 5.200032517313957214e-02 -6.332476437091827393e-02 -1.280142962932586670e-01 -2.861024998128414154e-02 -3.084207512438297272e-02 1.779065281152725220e-02 -9.957733005285263062e-02 7.193854451179504395e-02 1.050874311476945877e-02 -6.199300661683082581e-02 9.841426275670528412e-03 1.140081360936164856e-01 -1.695135422050952911e-02 -2.350531965494155884e-01 -8.578756451606750488e-02 -9.388826787471771240e-02 4.055900499224662781e-02 2.219048328697681427e-02 1.390551179647445679e-01 7.855868339538574219e-02 1.956834346055984497e-01 1.415929198265075684e-01 -3.966642543673515320e-02 -1.236421335488557816e-02 -6.798753142356872559e-02 -1.431334763765335083e-01 1.777659207582473755e-01 -2.954822592437267303e-02 1.262868195772171021e-01 1.233768276870250702e-02 -4.726295173168182373e-02 -6.358154118061065674e-02 -1.908355392515659332e-02 -1.947013735771179199e-01 8.248915523290634155e-02 1.367087010294198990e-02 -7.294141501188278198e-02 2.168646780773997307e-03 -1.427120268344879150e-01 3.511419147253036499e-02 -5.518186464905738831e-02 -8.978305757045745850e-02 -1.451248228549957275e-01 6.520999222993850708e-02 1.453320086002349854e-01 3.135939687490463257e-02 1.407982259988784790e-01 -2.006736956536769867e-02 -2.282217144966125488e-03 -6.826247274875640869e-02 5.748608615249395370e-03 -4.290384799242019653e-02 1.997919898713007569e-04 -4.838765785098075867e-02 -3.852367401123046875e-02 3.348920727148652077e-03 -2.697419747710227966e-02 2.995734103024005890e-02 3.793212771415710449e-02 -1.231385096907615662e-01 -7.542815059423446655e-02 -2.317928522825241089e-02 -2.931541576981544495e-02 4.761478863656520844e-03 -7.607468962669372559e-02 -1.218144223093986511e-01 3.171921521425247192e-02 1.097112521529197693e-01 -2.196943387389183044e-02 -8.009673655033111572e-02 -5.936416611075401306e-02 -1.101404651999473572e-01 -2.963685244321823120e-02 -7.116541266441345215e-02 -4.044977203011512756e-02 2.082113921642303467e-01 2.692038565874099731e-02 8.525594323873519897e-02 4.174881055951118469e-02 -8.727609179913997650e-03 -1.038600057363510132e-01 7.541695144027471542e-03 1.449613738805055618e-02 1.065385341644287109e-01 -1.060901731252670288e-01 7.734484039247035980e-03 -4.869786649942398071e-02 -4.230017587542533875e-02 2.475428283214569092e-01 5.235354974865913391e-02 1.479369103908538818e-01 6.534528732299804688e-02 -3.609415143728256226e-02 -5.796077474951744080e-02 -2.209744229912757874e-02 -1.890446245670318604e-02 7.501190155744552612e-02 -1.223649014718830585e-03 4.232783988118171692e-02 -5.059409886598587036e-02 4.467213526368141174e-02 1.368558257818222046e-01 -1.545868366956710815e-01 -1.128636207431554794e-02 5.184483528137207031e-02 1.375873386859893799e-01 1.201605051755905151e-01 -7.414665073156356812e-02 3.322427801322191954e-04 -5.932506918907165527e-02 1.764139533042907715e-01 -6.433348171412944794e-03 1.288216467946767807e-02 -2.798672206699848175e-02 -4.848111420869827271e-02 4.698875546455383301e-02 -4.662884771823883057e-02 -2.013986259698867798e-01 2.094204165041446686e-02 1.147343069314956665e-01 -3.871770948171615601e-02 -9.145593643188476562e-02 7.492674142122268677e-02 8.433678001165390015e-02 -4.796766210347414017e-03 9.414685517549514771e-02 3.133260412141680717e-03 -4.934417083859443665e-02 1.229284927248954773e-01 -3.986627608537673950e-02 4.227821156382560730e-02 -1.196909472346305847e-01 7.467041164636611938e-02 8.670104295015335083e-02 -3.709554672241210938e-02 5.480906367301940918e-02 2.098911851644515991e-01 -6.865831557661294937e-03 1.225406490266323090e-02 6.910639256238937378e-02 -1.010055318474769592e-01 -1.145074069499969482e-01 8.644060045480728149e-02 2.529564499855041504e-01 7.093352824449539185e-02 -6.282942742109298706e-02 -6.157350540161132812e-02 -2.053955048322677612e-01 5.425158888101577759e-02 -4.380990937352180481e-02 1.178647428750991821e-01 -3.295919671654701233e-02 -1.347365528345108032e-01 7.659287657588720322e-03 -2.412599697709083557e-02 -1.730069965124130249e-01 4.912864416837692261e-02 6.970603018999099731e-02 7.091058790683746338e-02 6.024921312928199768e-02 -7.182756066322326660e-02 -1.954775154590606689e-01 -4.780743643641471863e-02 -9.271430224180221558e-02 4.683334380388259888e-02 -1.170348301529884338e-01 1.214718446135520935e-01 -4.697329550981521606e-02 -2.370672067627310753e-03 -9.356928616762161255e-02 1.164731103926897049e-02 -2.451794221997261047e-02 4.837850481271743774e-02 -4.685817752033472061e-03 -6.882095336914062500e-02 -7.920367270708084106e-02 7.861904054880142212e-02 3.738565742969512939e-02 1.125504076480865479e-01 6.532242149114608765e-02 -2.924232557415962219e-02 7.890721410512924194e-02 8.803876489400863647e-02 4.700043424963951111e-02 -8.637453615665435791e-02 5.733657255768775940e-02 -9.043759852647781372e-02 2.411706373095512390e-02 -8.388332091271877289e-03 -2.999836392700672150e-02 -3.587870299816131592e-02 6.870571523904800415e-02 1.417825967073440552e-01 3.818618878722190857e-02 1.056610792875289917e-01 5.377326626330614090e-03 -5.886149778962135315e-02 3.969552367925643921e-02 -1.627681553363800049e-01 -1.100180298089981079e-01 -4.531142115592956543e-02 5.290799215435981750e-02 -4.335386306047439575e-02 -1.367322355508804321e-01 -9.963918477296829224e-03 -6.422916054725646973e-02 -4.975375905632972717e-02
-1.069959700107574463e-01 9.006735682487487793e-02 2.770062983036041260e-01 3.549386933445930481e-02 -8.738359436392784119e-03 -1.939330548048019409e-01 8.279386162757873535e-02 9.257999248802661896e-03 -2.342050336301326752e-02 -5.977343767881393433e-02 -3.581034764647483826e-02 7.119506597518920898e-02 8.212767541408538818e-03 -1.006865054368972778e-01 -6.067997217178344727e-02 2.983485348522663116e-02 8.727668970823287964e-02 -1.041564345359802246e-01 9.836120903491973877e-02 1.802742108702659607e-02 1.305541992187500000e-01 6.537444144487380981e-02 -1.504280567169189453e-01 -1.162264570593833923e-01 3.308966755867004395e-02 1.627936363220214844e-01 1.229157820343971252e-01 1.129544824361801147e-01 -2.561534568667411804e-02 6.148414313793182373e-02 -9.846656769514083862e-02 9.568583965301513672e-02 -9.436391294002532959e-02 -8.071865886449813843e-03 -1.506983339786529541e-01 9.664366394281387329e-02 -3.125787153840065002e-02 -3.494557365775108337e-02 1.088648065924644470e-01 -4.719099402427673340e-02 -1.974182873964309692e-01 9.188517928123474121e-02 8.574023842811584473e-03 -6.462062895298004150e-02 -8.669952861964702606e-03 -7.328146696090698242e-02 1.521197706460952759e-01 4.372153431177139282e-02 1.142224483191967010e-02 -9.779497049748897552e-03 4.692063480615615845e-02 3.644508495926856995e-02 -1.359271407127380371e-01 -1.214013025164604187e-01 1.228502914309501648e-01 8.464014530181884766e-02 8.912573009729385376e-02 -1.040215715765953064e-01 3.959262371063232422e-02 -5.226733908057212830e-02 1.774585992097854614e-01 3.545103827491402626e-04 -2.577443234622478485e-02 1.375013887882232666e-01 5.054933950304985046e-02 -2.042945474386215210e-02 -1.949930787086486816e-01 -6.953366100788116455e-02 1.570405438542366028e-02 -4.637674242258071899e-02 -2.865086495876312256e-02 8.809422701597213745e-02 1.322722993791103363e-02 5.994794890284538269e-02 -2.441347576677799225e-03 6.797172874212265015e-02 2.850330434739589691e-02 1.192977949976921082e-01 -1.081223264336585999e-01 8.847171813249588013e-02 -5.995159223675727844e-02 -1.916229352355003357e-02 -1.568007022142410278e-01 1.169591676443815231e-02 1.278883665800094604e-01 1.728226430714130402e-02 -5.724487453699111938e-02 -1.392522901296615601e-01 -6.568223237991333008e-02 1.089322045445442200e-01 -4.960369691252708435e-02 -4.430372267961502075e-03 -4.039047285914421082e-02 -3.124919533729553223e-02 -1.550692017190158367e-03 1.027393415570259094e-01 3.764025494456291199e-02 2.918390743434429169e-02 1.029419079422950745e-01 -9.167154133319854736e-02 -1.154465973377227783e-02 1.355950683355331421e-01 2.762671746313571930e-02 -8.090469241142272949e-02 -9.367728978395462036e-02 1.487893238663673401e-02 1.308864355087280273e-01 -2.425601147115230560e-02 -5.912110581994056702e-02 -7.497527450323104858e-02 6.293859332799911499e-02 -5.608535371720790863e-03 4.885851219296455383e-02 1.001957058906555176e-01 4.814363643527030945e-02 5.582018941640853882e-02 -1.508051604032516479e-01 3.318140655755996704e-02 -7.055094838142395020e-02 -1.112419888377189636e-01 1.158649846911430359e-01 -5.175239220261573792e-02 5.092694610357284546e-02 -8.858948200941085815e-02 7.374899834394454956e-02 4.441360756754875183e-02 -6.430944055318832397e-02 8.440344035625457764e-02 -3.286168351769447327e-02 7.139091938734054565e-02 5.778661742806434631e-02 -1.667526736855506897e-02 3.207042027497664094e-05 6.102092564105987549e-02 -9.460623562335968018e-02 5.076374486088752747e-02 8.196661621332168579e-02 1.300098747014999390e-01 1.475083976984024048e-01 -3.693428635597229004e-02 -5.146070942282676697e-02 -5.616248771548271179e-02 -7.868396490812301636e-02 6.549243628978729248e-02 2.643738640472292900e-03 1.707215458154678345e-01 5.512716621160507202e-02 -8.194099366664886475e-02 -6.783717125654220581e-02 -1.542601585388183594e-01 3.318307548761367798e-02 -1.909612864255905151e-01 -2.196449786424636841e-03 -8.537911809980869293e-03 -1.940075308084487915e-01 -8.850623667240142822e-02 -4.617717862129211426e-02 -2.650829218327999115e-02 -3.095258399844169617e-02 3.963326290249824524e-02 -8.487182110548019409e-02 -1.713034659624099731e-01 -3.870714455842971802e-02 -2.149579674005508423e-02 -7.695035636425018311e-02 -1.328116059303283691e-01 1.018095854669809341e-02 -2.962825819849967957e-03 4.669702053070068359e-02 -1.991561986505985260e-02 -2.122959494590759277e-01 -7.113500684499740601e-02 -9.901943057775497437e-02 -6.093595176935195923e-02 7.036373950541019440e-03 1.978445053100585938e-02 -1.518428325653076172e-01 -1.422767341136932373e-01 -5.222217366099357605e-02 2.593510039150714874e-02 1.436123847961425781e-01 7.723499089479446411e-02 -9.857300668954849243e-02 1.486655920743942261e-01 -6.214932352304458618e-02 6.302619725465774536e-02 -9.592090547084808350e-02 9.416891634464263916e-02 2.096178010106086731e-02 -8.698841556906700134e-03 6.193109229207038879e-02 -7.821211218833923340e-02 -2.047274112701416016e-01 3.634630143642425537e-02 -5.221165716648101807e-02 3.889682993758469820e-04 -9.099885821342468262e-02 -3.664184361696243286e-02 9.398990869522094727e-02 -2.247130721807479858e-01 1.116780415177345276e-01 -1.069454401731491089e-01 1.278607249259948730e-01 8.280930109322071075e-03 2.673790045082569122e-02 1.074666082859039307e-01 1.316924989223480225e-01 -5.996563658118247986e-02 1.614170521497726440e-02 -1.297686249017715454e-01 5.579527094960212708e-02 -7.610247284173965454e-02 -4.626811668276786804e-02 7.954860478639602661e-02 4.531432874500751495e-03 -1.136681288480758667e-01 -5.053301900625228882e-02 -1.228736042976379395e-01 6.891353428363800049e-02 -4.815606027841567993e-02 -1.044986099004745483e-01 -1.318037360906600952e-01 -1.211341768503189087e-01 9.843241423368453979e-02 3.319669142365455627e-02 -4.091655090451240540e-02 1.612488776445388794e-01 8.087696880102157593e-02 2.666875161230564117e-02 -9.877693653106689453e-02 -7.472512871026992798e-02 4.746594466269016266e-03 -4.690096527338027954e-02 1.412529796361923218e-01 3.729121759533882141e-02 -4.501009732484817505e-02 -2.128030918538570404e-02 -1.258737742900848389e-01 6.924980133771896362e-02 9.507640451192855835e-02 -2.278988249599933624e-02 -3.009138256311416626e-02 -3.533100336790084839e-02 2.252322733402252197e-01 7.261124253273010254e-02 -8.653695136308670044e-02 2.330412715673446655e-02 -2.004127390682697296e-02 -5.324869975447654724e-02 -6.941799074411392212e-02 8.124109357595443726e-02 -1.130330115556716919e-01 -4.978600516915321350e-02 1.503040175884962082e-02 8.203165978193283081e-02 6.124176084995269775e-03
-1.091088801622390747e-01 -4.593063518404960632e-02 -1.126429289579391479e-01 1.189480498433113098e-01 -1.169960871338844299e-01 -2.677144855260848999e-02 -2.197725325822830200e-01 2.511194907128810883e-02 -9.062829613685607910e-02 9.145996719598770142e-02 -9.371536970138549805e-02 2.104153111577033997e-02 1.237450763583183289e-01 1.222936287522315979e-01 1.183195784687995911e-02 6.620313227176666260e-02 -1.359973847866058350e-01 -9.935018420219421387e-02 -3.473279625177383423e-02 -2.075385861098766327e-02 1.177454739809036255e-01 -7.619874924421310425e-02 -2.599215321242809296e-02 9.441658109426498413e-02 -2.704780101776123047e-01 1.157555207610130310e-01 2.635717950761318207e-02 -4.372103512287139893e-02 -6.575641781091690063e-02 -1.743316650390625000e-01 -1.555399447679519653e-01 -1.280131489038467407e-01 4.434348642826080322e-02 4.106884077191352844e-02 -6.526050716638565063e-02 4.043165221810340881e-02 8.453808724880218506e-02 -8.816122263669967651e-02 2.998351864516735077e-02 5.321177095174789429e-02 7.041154801845550537e-02 -1.798205636441707611e-02 -6.158420071005821228e-02 6.837776303291320801e-02 -1.008290722966194153e-01 1.200453005731105804e-02 -1.029368713498115540e-01 -5.334455147385597229e-02 3.554571419954299927e-03 -7.246239483356475830e-02 5.528652295470237732e-02 -8.867345750331878662e-02 -8.075004070997238159e-02 -7.196921110153198242e-02 3.235674649477005005e-02 4.724480956792831421e-02 5.206104740500450134e-02 6.916761398315429688e-02 -6.940368562936782837e-02 4.674813896417617798e-02 1.558240801095962524e-01 -1.585236638784408569e-01 -4.609103500843048096e-02 -4.423500970005989075e-02 1.917431131005287170e-02 6.328337639570236206e-02 3.176233917474746704e-02 -1.722339093685150146e-01 -8.783210068941116333e-02 5.975649505853652954e-02 1.134656891226768494e-01 3.211020678281784058e-02 -8.869587630033493042e-02 3.179071843624114990e-02 -1.530077457427978516e-01 -7.105414569377899170e-02 -1.818817108869552612e-01 -1.500429678708314896e-02 4.294573888182640076e-02 -5.224125087261199951e-02 4.545661062002182007e-02 1.687209866940975189e-02 6.489680707454681396e-02 6.141380593180656433e-02 4.445389378815889359e-03 -1.704824715852737427e-01 1.163658052682876587e-01 3.855774924159049988e-02 -5.222048610448837280e-02 1.120773982256650925e-02 3.655175864696502686e-02 -2.000596821308135986e-01 -1.914975047111511230e-02 -1.103736162185668945e-01 -5.492812953889369965e-03 -1.359891444444656372e-01 9.393570013344287872e-03 3.739625215530395508e-02 1.100239693187177181e-03 5.025331676006317139e-02 3.765304340049624443e-03 1.458773910999298096e-01 -4.033767059445381165e-02 7.787414640188217163e-02 9.409560263156890869e-02 -4.293699283152818680e-03 -4.005758091807365417e-02 5.332306772470474243e-02 -3.044384159147739410e-02 5.138660967350006104e-02 -1.500902604311704636e-02 -9.533821046352386475e-02 -9.738264232873916626e-02 -2.821993231773376465e-01 9.746320574777200818e-05 1.011638864874839783e-01 5.295199155807495117e-02 -3.724109381437301636e-02 -8.165504038333892822e-02 6.417885422706604004e-02 2.803167887032032013e-02 9.372558444738388062e-02 3.352013230323791504e-02 -1.787302270531654358e-02 -7.474569231271743774e-02 1.111461222171783447e-02 -8.299436420202255249e-02 1.027680784463882446e-01 -2.999215759336948395e-02 -7.323820143938064575e-02 -8.238214999437332153e-02 -5.892254412174224854e-02 -3.411297500133514404e-02 -5.844018980860710144e-02 -1.421977877616882324e-01 -7.812365889549255371e-02 -6.980331242084503174e-02 6.106919609010219574e-03 -2.654798328876495361e-02 1.239430159330368042e-01 -2.625927329063415527e-02 7.075790315866470337e-02 -1.032967567443847656e-01 9.153930842876434326e-02 1.677973419427871704e-01 1.909645088016986847e-02 1.044017076492309570e-02 -1.120301559567451477e-01 1.476883292198181152e-01 9.400861710309982300e-02 3.277248516678810120e-02 2.135403454303741455e-02 -1.447816006839275360e-02 -1.724235527217388153e-02 6.846789736300706863e-03 -6.749512255191802979e-02 -1.612420976161956787e-01 -6.618616171181201935e-03 2.913497760891914368e-02 1.946208998560905457e-02 -9.491229057312011719e-02 8.493746072053909302e-02 2.360374480485916138e-01 -1.830748654901981354e-02 7.275165617465972900e-02 1.867326498031616211e-01 -3.935426473617553711e-02 -1.179816052317619324e-01 -9.285900741815567017e-03 3.876738622784614563e-02 -1.276014894247055054e-01 6.787689402699470520e-03 2.150584459304809570e-01 -1.917530223727226257e-02 5.587978288531303406e-02 -7.143336534500122070e-02 2.299779839813709259e-02 -1.689451038837432861e-01 2.613826096057891846e-02 4.956166818737983704e-02 1.051597148180007935e-01 -1.159060671925544739e-01 -7.314612716436386108e-02 4.980418086051940918e-02 1.371004581451416016e-01 -6.833058595657348633e-02 -1.035997867584228516e-01 -1.503204256296157837e-01 -4.330185055732727051e-02 -2.416229620575904846e-02 1.217010244727134705e-01 3.545144945383071899e-02 -2.093509435653686523e-01 7.176241278648376465e-02 -4.377515614032745361e-02 -1.374631822109222412e-01 -9.285922348499298096e-02 -9.205676615238189697e-04 -5.734030529856681824e-02 -4.144025221467018127e-02 -3.038453310728073120e-02 3.974074497818946838e-02 -8.096948266029357910e-02 -9.062414616346359253e-02 7.031339220702648163e-03 2.193801477551460266e-02 1.824639439582824707e-01 -7.872025668621063232e-02 -3.038921393454074860e-02 1.134658157825469971e-01 3.147073462605476379e-02 6.198258325457572937e-02 1.521549839526414871e-02 1.218839921057224274e-02 8.896927535533905029e-02 -1.462351977825164795e-01 -3.881400625687092543e-04 1.779626496136188507e-02 -1.354152411222457886e-01 -7.458311319351196289e-02 4.858224838972091675e-02 5.881509929895401001e-02 6.059882044792175293e-02 -5.494735389947891235e-02 -2.867135964334011078e-02 -7.748974859714508057e-02 5.129194632172584534e-02 -9.165761619806289673e-02 -7.396237552165985107e-02 1.245806440711021423e-01 -2.417180128395557404e-02 -6.755422055721282959e-02 -1.817470341920852661e-01 1.636487692594528198e-01 9.155044099316000938e-04 -2.204331383109092712e-02 9.964428097009658813e-02 6.056611612439155579e-02 2.196870557963848114e-02 1.779044046998023987e-02 2.711471868678927422e-03 1.166351139545440674e-01 2.194943604990839958e-03 -8.094412088394165039e-02 -1.930175721645355225e-01 4.838599637150764465e-02 1.143353059887886047e-01 -8.411163836717605591e-02 -2.095741480588912964e-01 1.334479660727083683e-03 -4.409341141581535339e-02 -1.014923974871635437e-01 1.741785705089569092e-01 -7.659161835908889771e-02 2.171928808093070984e-02 1.172109097242355347e-01
5.573530867695808411e-02 -7.423350960016250610e-02 1.492627412080764771e-01 1.574896089732646942e-02 -2.595849335193634033e-02 7.031096518039703369e-02 -6.356323510408401489e-02 2.550099045038223267e-03 1.625644564628601074e-01 -1.850852668285369873e-01 9.457173943519592285e-02 1.862856559455394745e-02 8.611147850751876831e-02 -9.420127607882022858e-03 4.116247966885566711e-02 -8.391427993774414062e-02 6.685612350702285767e-02 2.450138330459594727e-02 3.781146369874477386e-03 -7.233059406280517578e-02 -4.509835503995418549e-03 8.760236203670501709e-02 -6.819297373294830322e-02 3.664043615572154522e-04 1.220839098095893860e-02 -7.770409435033798218e-02 2.023866176605224609e-01 5.354803521186113358e-03 3.001310490071773529e-02 -8.969285339117050171e-02 2.417650306597352028e-03 -7.501266151666641235e-02 1.160688884556293488e-02 7.191415131092071533e-02 2.028442770242691040e-01 1.804820597171783447e-01 -5.387915298342704773e-02 4.690464958548545837e-02 1.487756846472620964e-03 -1.653062105178833008e-01 3.264213213697075844e-03 5.839862674474716187e-02 -6.470081210136413574e-02 -8.122415840625762939e-02 9.903498739004135132e-02 8.871275186538696289e-02 -6.767190992832183838e-02 -9.587163478136062622e-02 -2.186846546828746796e-02 7.370360195636749268e-02 -1.029692292213439941e-01 -7.871519774198532104e-03 -1.891673356294631958e-01 2.901089377701282501e-02 1.085378006100654602e-01 -4.378397017717361450e-02 -1.313210874795913696e-01 5.182371661067008972e-02 1.042813360691070557e-01 -5.003774538636207581e-02 -1.695753633975982666e-01 1.320438235998153687e-01 2.950066886842250824e-02 1.518922206014394760e-02 -5.354208871722221375e-02 -7.989940047264099121e-02 -6.799692660570144653e-02 -2.511107304599136114e-04 5.519511178135871887e-02 1.602499783039093018e-01 -1.297824680805206299e-01 -7.119704782962799072e-02 4.991795122623443604e-02 6.040811166167259216e-02 -1.830385415814816952e-03 -6.219312921166419983e-02 -4.267885908484458923e-02 6.928487867116928101e-02 5.204926058650016785e-02 -2.543582115322351456e-03 -1.149514541029930115e-01 -2.623697817325592041e-01 3.392855450510978699e-02 4.833412915468215942e-02 9.009025990962982178e-02 -2.412969805300235748e-02 1.605207682587206364e-03 -4.267577454447746277e-02 2.206316031515598297e-02 5.724213272333145142e-02 1.572360694408416748e-01 -9.900383651256561279e-02 1.010589003562927246e-01 8.734877407550811768e-02 2.077995240688323975e-02 -2.730932459235191345e-02 1.395839601755142212e-01 4.750137776136398315e-02 -1.393732428550720215e-01 -1.181574654765427113e-03 -7.367068529129028320e-02 -3.704241709783673286e-03 1.641506105661392212e-01 9.926589205861091614e-03 1.008198559284210205e-01 9.033387899398803711e-02 -6.238278001546859741e-02 -5.092151090502738953e-02 -4.817051440477371216e-02 -1.169368997216224670e-01 -5.518460646271705627e-02 -1.665074960328638554e-03 -7.021811604499816895e-02 9.815318137407302856e-02 -2.137974370270967484e-03 -1.086111441254615784e-01 -6.178838387131690979e-02 1.015210002660751343e-01 -2.524452470242977142e-02 4.008831828832626343e-02 1.544829607009887695e-01 1.277809441089630127e-01 -5.232669785618782043e-02 -7.244577258825302124e-02 -1.464501321315765381e-01 3.834139555692672729e-02 -9.439232200384140015e-02 -1.259856577962636948e-02 -1.121873781085014343e-01 -1.048580184578895569e-01 -3.361526504158973694e-02 -1.774175837635993958e-02 -7.738918066024780273e-02 1.687415875494480133e-02 1.252283155918121338e-01 -1.371367275714874268e-01 -3.634830564260482788e-02 -6.054283585399389267e-03 -3.735284134745597839e-02 8.322781324386596680e-02 9.584040939807891846e-02 -1.603292375802993774e-01 -1.501989662647247314e-01 8.420492708683013916e-02 1.837954670190811157e-01 -1.754886843264102936e-02 5.248244106769561768e-02 -2.007349878549575806e-01 -7.992014288902282715e-03 -1.872122585773468018e-01 5.498351156711578369e-02 1.579193025827407837e-01 -1.787629723548889160e-02 1.699108034372329712e-01 -1.195375341922044754e-02 1.280805021524429321e-01 8.528914302587509155e-03 -9.415184706449508667e-02 1.460294723510742188e-01 8.648260682821273804e-02 -2.339919563382863998e-03 -1.426363456994295120e-02 1.094209328293800354e-01 -1.558806281536817551e-02 1.832744665443897247e-02 -2.462469786405563354e-02 1.043390408158302307e-01 -4.312289878726005554e-02 1.809645094908773899e-03 -9.769064188003540039e-02 -2.646126970648765564e-02 -4.710866883397102356e-02 -2.038081288337707520e-01 4.054173082113265991e-02 2.726265043020248413e-02 -8.204297721385955811e-02 2.626234898343682289e-03 -3.048246726393699646e-02 5.353770405054092407e-02 4.144481942057609558e-02 9.690411388874053955e-02 2.016172045841813087e-03 -6.243447959423065186e-02 -8.291579782962799072e-03 5.308488756418228149e-02 -7.794038951396942139e-02 8.210512809455394745e-03 2.839137241244316101e-02 1.309494078159332275e-01 6.133423745632171631e-02 -8.679522573947906494e-02 -6.888325512409210205e-02 1.116366237401962280e-01 1.320863068103790283e-01 -1.951394230127334595e-01 -1.032389700412750244e-01 3.095206059515476227e-02 8.124816417694091797e-02 -6.466364860534667969e-02 7.938237860798835754e-03 -3.656281530857086182e-02 -8.844894170761108398e-02 8.113875240087509155e-02 -1.250100135803222656e-01 8.354516327381134033e-02 1.455489452928304672e-02 -1.521513313055038452e-01 -8.358506858348846436e-02 5.059796944260597229e-02 1.059083454310894012e-02 -5.569117143750190735e-02 -2.929024770855903625e-02 -5.476251989603042603e-02 -4.304504394531250000e-02 5.925008654594421387e-02 -2.408110909163951874e-02 1.242550555616617203e-02 8.098071068525314331e-02 -1.011583805084228516e-01 5.144349113106727600e-02 -1.100021824240684509e-01 1.931263059377670288e-01 6.214600428938865662e-02 1.069042980670928955e-01 1.038111075758934021e-01 7.026372104883193970e-02 -4.630949720740318298e-02 2.421193569898605347e-02 7.022839039564132690e-02 -2.793080210685729980e-01 -5.718054249882698059e-02 2.643178030848503113e-02 4.641053453087806702e-02 9.177992492914199829e-02 -1.137464791536331177e-01 5.284128710627555847e-02 -1.083091720938682556e-01 -2.768196165561676025e-02 5.232035741209983826e-02 8.381297439336776733e-02 5.689291656017303467e-02 -1.580524444580078125e-01 -3.249521553516387939e-02 1.047127787023782730e-02 -1.003191247582435608e-01 5.646263435482978821e-02 2.255539000034332275e-01 -8.307664841413497925e-02 -7.156822085380554199e-02 3.288295492529869080e-02 -1.501452527008950710e-03 2.127172052860260010e-02 3.613891825079917908e-02 -9.245879016816616058e-03 -2.931037917733192444e-02 6.227611098438501358e-03
7.012042403221130371e-02 4.329004138708114624e-02 -2.018116880208253860e-03 -6.632322818040847778e-02 2.030533924698829651e-02 3.373219072818756104e-02 -3.191553056240081787e-02 7.114344090223312378e-02 1.934455335140228271e-02 -6.455773022025823593e-03 1.363714635372161865e-01 -7.093208283185958862e-02 1.038952171802520752e-01 -6.030972301959991455e-02 1.273416131734848022e-01 -7.222364097833633423e-02 -3.552735969424247742e-02 2.343422733247280121e-02 -4.658438637852668762e-02 1.030126065015792847e-01 -3.817499056458473206e-02 -1.306605786085128784e-01 7.477424293756484985e-02 -1.708066016435623169e-01 2.150733955204486847e-02 -1.414700299501419067e-01 1.074047479778528214e-02 -3.651625663042068481e-02 -3.525754064321517944e-02 -7.128845900297164917e-02 4.023263230919837952e-02 4.613438993692398071e-02 4.334894567728042603e-02 5.388090759515762329e-02 2.885178476572036743e-02 4.884768277406692505e-03 2.505550626665353775e-03 -9.046246111392974854e-02 -3.249249653890728951e-03 8.740749955177307129e-02 3.726433590054512024e-02 -9.598203003406524658e-02 -1.817937940359115601e-02 8.663509786128997803e-02 -8.634111844003200531e-03 -1.119700893759727478e-01 -1.150202676653862000e-01 -6.087925285100936890e-02 1.203826740384101868e-01 2.420821040868759155e-02 2.200233787298202515e-01 -1.976209282875061035e-01 3.763350099325180054e-02 -1.781439185142517090e-01 -2.186111733317375183e-02 -7.456154376268386841e-02 -5.380306765437126160e-02 5.445700511336326599e-02 -2.422661334276199341e-01 1.787589192390441895e-01 3.175760433077812195e-02 -1.885513775050640106e-02 9.520237147808074951e-02 1.953280903398990631e-02 -6.575591862201690674e-03 5.812629684805870056e-02 1.688496768474578857e-02 -8.977916836738586426e-02 -1.284229755401611328e-02 -1.651691943407058716e-01 -1.235987171530723572e-01 -1.524761915206909180e-01 -2.157333120703697205e-02 2.797288261353969574e-02 -8.588498830795288086e-02 -1.443936377763748169e-01 5.291267111897468567e-02 6.407475471496582031e-02 2.816908620297908783e-02 -1.358352899551391602e-01 -1.472643017768859863e-01 -6.803559511899948120e-02 -6.164061650633811951e-02 -1.431593745946884155e-01 -6.781800836324691772e-02 1.377841830253601074e-02 -7.085078209638595581e-02 8.640342392027378082e-03 -1.345179416239261627e-02 1.692994614131748676e-03 4.853744804859161377e-02 1.428573727607727051e-01 1.057028099894523621e-01 -1.222057640552520752e-02 -1.109189465641975403e-01 5.499099940061569214e-02 -1.194714531302452087e-01 -4.426689818501472473e-02 -5.385606363415718079e-02 8.053346723318099976e-02 -7.724227756261825562e-02 1.641371548175811768e-01 1.201846674084663391e-01 6.706366688013076782e-02 -1.167308613657951355e-01 7.375746499747037888e-03 -1.145542562007904053e-01 5.353493988513946533e-02 -1.316308230161666870e-02 1.289290636777877808e-01 2.270199544727802277e-02 3.275063261389732361e-02 -7.249128539115190506e-03 4.911432415246963501e-02 3.084179386496543884e-02 -6.926003843545913696e-02 -1.393752843141555786e-01 -2.310915105044841766e-02 -4.087610635906457901e-03 -1.740919239819049835e-02 -4.002288728952407837e-02 -1.560606211423873901e-01 6.794092804193496704e-02 -1.092879772186279297e-01 8.290542662143707275e-02 -9.379243478178977966e-03 4.362637642771005630e-03 -1.322659850120544434e-01 -6.440575420856475830e-02 4.701203480362892151e-02 -7.202642410993576050e-02 -7.621591538190841675e-02 5.220352485775947571e-02 -1.403599679470062256e-01 1.576462686061859131e-01 6.101792678236961365e-02 -1.305728554725646973e-01 1.310049295425415039e-01 3.478713333606719971e-02 2.254091389477252960e-02 -3.446328639984130859e-02 -9.597717225551605225e-02 -1.026373133063316345e-01 2.173062972724437714e-02 -6.482340395450592041e-03 6.725585460662841797e-02 4.267776757478713989e-02 1.601254753768444061e-02 -3.871640190482139587e-02 -5.084981396794319153e-02 8.925842493772506714e-02 -1.176759749650955200e-01 -5.337677896022796631e-02 7.266906648874282837e-02 -1.501693725585937500e-01 8.530631661415100098e-02 -3.165655955672264099e-02 -1.068386733531951904e-01 -4.172597080469131470e-02 3.963744267821311951e-02 -2.382210083305835724e-02 -4.230143502354621887e-03 -9.058789163827896118e-02 -8.862822502851486206e-02 -1.329651027917861938e-01 -6.835668534040451050e-02 -1.263804640620946884e-02 3.161231428384780884e-02 1.479910779744386673e-02 -6.492682546377182007e-02 4.071672260761260986e-02 -2.591870911419391632e-02 -4.663299024105072021e-02 -8.304335922002792358e-02 -6.746851652860641479e-02 2.967248670756816864e-02 -2.052696943283081055e-01 -2.177860774099826813e-02 -8.148135989904403687e-02 -8.995267003774642944e-02 -7.189690321683883667e-02 1.370689123868942261e-01 -9.425599873065948486e-02 -7.387901842594146729e-02 -2.752673998475074768e-02 -5.554012954235076904e-02 -8.706909418106079102e-02 -1.184382736682891846e-01 1.287187542766332626e-02 6.260889023542404175e-02 -5.406892672181129456e-02 2.327847108244895935e-02 1.697757542133331299e-01 1.254278868436813354e-01 -2.104656696319580078e-01 1.745135150849819183e-02 -5.280579440295696259e-03 -1.095687076449394226e-01 -1.010000035166740417e-01 -1.259178966283798218e-01 -8.479611948132514954e-03 -8.093896508216857910e-02 -1.153904497623443604e-01 -4.286566376686096191e-02 -3.817871958017349243e-02 4.466271027922630310e-02 6.157992035150527954e-02 7.656547427177429199e-02 -3.403713554143905640e-02 2.296924032270908356e-02 3.799288347363471985e-02 1.414961814880371094e-01 9.341149032115936279e-02 -2.624475359916687012e-01 9.260391816496849060e-04 -7.539488375186920166e-02 7.920972257852554321e-02 8.628278225660324097e-02 5.398143455386161804e-02 1.597159057855606079e-01 7.817749679088592529e-02 3.073549643158912659e-02 5.534065887331962585e-02 8.057896047830581665e-02 3.789197281002998352e-02 -2.229380905628204346e-01 -4.176745656877756119e-03 -2.667295187711715698e-02 3.585188090801239014e-02 1.912119984626770020e-01 -1.759899780154228210e-02 -6.908912956714630127e-02 -2.100721150636672974e-01 1.661335974931716919e-01 5.446761101484298706e-02 -1.002768054604530334e-01 -8.588841557502746582e-02 1.799043416976928711e-01 -1.509811133146286011e-01 -1.206718012690544128e-01 9.124975651502609253e-02 1.113890334963798523e-01 -1.703945547342300415e-01 1.059833243489265442e-01 8.594026416540145874e-02 -1.217438746243715286e-02 9.741166979074478149e-02 -1.424569785594940186e-01 9.447421878576278687e-02 -3.853065893054008484e-02 -1.090802624821662903e-01 1.913062669336795807e-02 -4.012281447649002075e-02 -8.098921179771423340e-02 3.586239367723464966e-02 -9.693034738302230835e-02
7.158363610506057739e-02 6.581361591815948486e-02 -5.613352730870246887e-02 4.273741692304611206e-02 -1.125663369894027710e-01 4.695223644375801086e-02 4.577696695923805237e-02 -9.559025615453720093e-02 2.141512483358383179e-01 1.406934391707181931e-02 1.007260754704475403e-01 -4.190684109926223755e-02 4.257130622863769531e-02 1.585019081830978394e-01 9.876726567745208740e-02 -3.983525186777114868e-02 -4.235363379120826721e-02 -1.530158147215843201e-02 4.236906021833419800e-02 -8.725609630346298218e-02 6.909659504890441895e-02 -7.988685742020606995e-03 2.031376399099826813e-02 -1.328916251659393311e-01 -3.259669989347457886e-02 8.462137728929519653e-02 1.058718040585517883e-01 7.002925127744674683e-02 4.005786404013633728e-02 -1.298760622739791870e-01 1.655065338127315044e-03 4.379210993647575378e-02 1.002900898456573486e-01 -2.955188415944576263e-02 -4.053606651723384857e-03 -1.042495593428611755e-01 1.233409047126770020e-01 -1.599421352148056030e-01 -6.906491518020629883e-02 -4.946996457874774933e-03 2.033724449574947357e-02 -1.599913462996482849e-02 6.441476196050643921e-02 -1.095572561025619507e-01 -6.496662646532058716e-02 -9.460941702127456665e-02 1.497354358434677124e-01 -9.433227777481079102e-02 -1.360103785991668701e-01 -1.646332889795303345e-01 1.378482021391391754e-02 5.374541878700256348e-02 -9.910501539707183838e-02 -1.476193219423294067e-02 -1.754098981618881226e-01 -1.322585195302963257e-01 -2.103000432252883911e-01 1.413401812314987183e-01 -1.802420429885387421e-02 1.012867912650108337e-01 -2.507893834263086319e-03 -6.141984462738037109e-02 -1.116316393017768860e-01 6.593080610036849976e-02 -1.781503856182098389e-01 -3.709312155842781067e-02 5.753179639577865601e-02 -1.037606745958328247e-01 -5.939259193837642670e-03 4.498078301548957825e-02 -6.820186227560043335e-02 1.386845409870147705e-01 -2.973867952823638916e-02 -5.422208085656166077e-02 8.632036298513412476e-02 -5.685527622699737549e-02 -1.040026359260082245e-02 -1.215731799602508545e-01 -9.511108510196208954e-03 -7.886569947004318237e-02 6.804611533880233765e-02 7.643451448529958725e-03 -1.877228356897830963e-02 4.691806808114051819e-02 -5.942481011152267456e-02 6.792445480823516846e-02 -2.473545074462890625e-01 4.604681953787803650e-02 7.445032149553298950e-02 2.387339770793914795e-01 -1.819454878568649292e-02 -9.887726604938507080e-02 6.300459615886211395e-03 -5.708654597401618958e-02 -1.900736987590789795e-02 1.115584820508956909e-01 2.974859438836574554e-03 4.192968457937240601e-02 1.183657050132751465e-01 8.705176413059234619e-02 -5.799094587564468384e-02 -2.057253295788541436e-04 1.734381020069122314e-01 8.329499512910842896e-02 6.510447710752487183e-02 -1.187072247266769409e-01 1.363583803176879883e-01 -8.243014104664325714e-03 7.297952193766832352e-03 -1.133337467908859253e-01 -6.563909351825714111e-02 1.028256118297576904e-01 1.080154776573181152e-01 -2.319829724729061127e-02 5.692017450928688049e-02 -1.287311408668756485e-02 -8.503545075654983521e-02 -1.260910034179687500e-01 5.012354627251625061e-02 -1.231959741562604904e-02 -1.721012443304061890e-01 -6.708629429340362549e-02 5.634099990129470825e-02 4.374226555228233337e-02 -9.796664118766784668e-02 -3.303873538970947266e-02 1.868519783020019531e-01 -5.060140416026115417e-02 -3.376175835728645325e-02 -6.336496770381927490e-02 -6.632448174059391022e-03 3.426009416580200195e-02 2.340406365692615509e-02 -1.358753591775894165e-01 1.212492510676383972e-01 -8.102681487798690796e-02 -1.751902699470520020e-01 2.301036939024925232e-02 1.127770692110061646e-01 5.311153456568717957e-02 -6.227823719382286072e-02 4.212044551968574524e-02 1.139278523623943329e-02 -2.056809663772583008e-01 -1.433120369911193848e-01 -2.738670632243156433e-02 1.097170286811888218e-03 2.589347772300243378e-02 -1.357155591249465942e-01 1.786093413829803467e-02 1.894641481339931488e-02 9.906040132045745850e-02 -3.768305107951164246e-02 -2.046313583850860596e-01 1.468315273523330688e-01 -9.665042906999588013e-02 -1.176320482045412064e-02 -2.683460526168346405e-02 2.334738709032535553e-02 -4.244378767907619476e-03 -1.297248303890228271e-01 -1.236117631196975708e-01 -6.471789628267288208e-02 8.682394772768020630e-02 -3.704880177974700928e-02 -4.063710570335388184e-02 -1.331844739615917206e-02 -2.622384391725063324e-02 1.145350635051727295e-01 -1.040570735931396484e-01 6.655924022197723389e-02 3.116868063807487488e-02 7.954058051109313965e-02 5.470003187656402588e-02 -1.088971048593521118e-01 -1.678746007382869720e-02 -1.113318130373954773e-01 -8.703066036105155945e-03 4.288051277399063110e-02 -8.676268160343170166e-02 8.540754765272140503e-02 4.609568044543266296e-02 1.378277540206909180e-01 4.106320440769195557e-02 1.522173546254634857e-02 -8.370320498943328857e-02 1.366322338581085205e-01 -3.622754663228988647e-02 6.508935987949371338e-02 2.044748701155185699e-02 -3.053626045584678650e-02 -3.725000470876693726e-02 -1.354511827230453491e-01 5.437688156962394714e-02 -1.128415018320083618e-01 -1.161907389760017395e-01 6.587060540914535522e-02 -2.936551906168460846e-02 4.228731244802474976e-02 9.547507017850875854e-02 -1.341904141008853912e-02 -1.147080287337303162e-01 6.606615334749221802e-02 -1.129789203405380249e-01 2.709975279867649078e-02 -7.658206671476364136e-02 -7.212882488965988159e-02 1.015548259019851685e-01 3.205141692887991667e-04 4.095159843564033508e-02 1.377960108220577240e-02 8.653639256954193115e-02 -9.753367304801940918e-02 2.593147568404674530e-02 -1.138090491294860840e-01 -2.224374562501907349e-02 2.127179950475692749e-01 1.182919640996260568e-05 -2.976657450199127197e-02 -1.263598352670669556e-01 3.780970349907875061e-02 -1.450551003217697144e-01 -1.014248281717300415e-01 1.416448205709457397e-01 1.847800910472869873e-01 -3.403417766094207764e-02 9.020700305700302124e-02 -1.857785880565643311e-02 7.250281423330307007e-02 4.281244240701198578e-03 -4.782278090715408325e-02 4.726231843233108521e-02 1.784139685332775116e-02 3.904568776488304138e-02 -9.760981053113937378e-02 1.176893189549446106e-01 5.622919648885726929e-02 -1.210258379578590393e-01 4.677572846412658691e-02 -2.603220753371715546e-02 -7.743838429450988770e-02 -5.031470581889152527e-02 6.471910327672958374e-02 -4.753446951508522034e-02 -8.617988973855972290e-02 -7.062768191099166870e-02 2.552163600921630859e-02 -9.935017675161361694e-02 -3.379571437835693359e-02 -8.591440320014953613e-02 -4.921686276793479919e-02 -9.289153665304183960e-02 1.608885377645492554e-01 3.418021649122238159e-02 -1.006573513150215149e-01 6.065241247415542603e-02
2.966190502047538757e-02 3.270662575960159302e-02 1.644499301910400391e-01 -9.756173193454742432e-02 -3.528042882680892944e-02 9.464414790272712708e-03 6.946516688913106918e-03 2.851821668446063995e-02 -2.142134867608547211e-02 1.366075724363327026e-01 8.671458065509796143e-02 -1.906805858016014099e-02 8.288621902465820312e-02 -1.367863416671752930e-01 2.559743262827396393e-02 -8.561443537473678589e-02 -5.484274402260780334e-02 -3.835644200444221497e-02 9.921813756227493286e-02 -4.998049885034561157e-02 2.056563049554824829e-01 -4.078993946313858032e-02 -1.051812395453453064e-01 -6.697119772434234619e-02 1.010335050523281097e-02 7.344775367528200150e-03 -4.995029047131538391e-02 3.716809675097465515e-02 -1.677512377500534058e-01 4.363449290394783020e-02 -1.186078041791915894e-01 -2.842707373201847076e-02 1.136127710342407227e-01 1.408976167440414429e-01 7.245512306690216064e-02 5.588735267519950867e-02 3.749777749180793762e-02 -3.917569294571876526e-02 -7.014027237892150879e-02 9.117557853460311890e-02 7.463470101356506348e-03 -1.135377362370491028e-01 -2.087444812059402466e-01 -1.120722815394401550e-01 -1.884284317493438721e-01 -4.395065829157829285e-03 -7.780884206295013428e-02 -1.404744852334260941e-02 -1.254105940461158752e-02 9.888305515050888062e-02 1.108975261449813843e-01 3.534217132255434990e-03 -3.203355520963668823e-02 2.290105260908603668e-02 2.977033331990242004e-02 1.620220392942428589e-01 1.351719200611114502e-01 -7.238412648439407349e-02 -1.459521474316716194e-03 -2.593795023858547211e-02 -9.068634361028671265e-03 -1.637748926877975464e-01 1.957116089761257172e-02 -1.604597829282283783e-02 -2.103382796049118042e-01 -1.319653838872909546e-01 1.566469073295593262e-01 1.730615049600601196e-01 8.378173410892486572e-02 -1.543311178684234619e-01 1.553694438189268112e-02 3.499103710055351257e-02 -8.634535968303680420e-02 8.871253579854965210e-02 -8.255856664618477225e-05 -6.655339151620864868e-02 1.611213237047195435e-01 -4.773056507110595703e-02 1.233804970979690552e-01 2.104494720697402954e-01 -8.713231980800628662e-02 6.215286627411842346e-02 8.109305799007415771e-02 -6.400308012962341309e-02 -1.970772817730903625e-02 -5.205911025404930115e-02 6.651048362255096436e-02 -1.181537210941314697e-01 1.020603068172931671e-02 -2.123509161174297333e-02 1.361927837133407593e-01 -2.379407919943332672e-02 1.462530810385942459e-02 8.540892158634960651e-04 -1.657604239881038666e-02 7.368275430053472519e-03 -9.983333945274353027e-02 -1.062706112861633301e-01 -7.309742504730820656e-04 -2.554226107895374298e-02 -9.752332419157028198e-02 -1.288540512323379517e-01 -9.570208936929702759e-02 -3.688805550336837769e-02 7.848483510315418243e-03 1.323365122079849243e-01 -3.105474822223186493e-02 -9.418246150016784668e-02 -7.608484476804733276e-02 -8.261476457118988037e-02 -7.683185487985610962e-02 -8.169478923082351685e-02 1.272636502981185913e-01 9.821169078350067139e-03 6.417925469577312469e-03 2.224026806652545929e-02 1.470757573843002319e-01 -7.263104617595672607e-02 -7.057595252990722656e-02 7.452387362718582153e-02 1.167597398161888123e-01 -8.706863224506378174e-02 4.548169206827878952e-03 -4.977884143590927124e-02 5.542496219277381897e-03 -3.088112734258174896e-02 4.050025343894958496e-02 6.105566024780273438e-02 -4.206994548439979553e-02 -6.352915614843368530e-02 5.836883559823036194e-02 -1.246474012732505798e-01 6.135643273591995239e-02 -2.084307000041007996e-02 3.784101083874702454e-02 5.767581611871719360e-02 -5.249415989965200424e-03 6.215062737464904785e-02 1.500448584556579590e-02 1.692450605332851410e-02 1.238753721117973328e-01 1.363757401704788208e-01 -4.129687696695327759e-02 8.801272488199174404e-04 -2.161583453416824341e-01 -5.504870042204856873e-02 7.859262637794017792e-03 3.332025557756423950e-02 -3.443812578916549683e-02 1.857127621769905090e-02 -3.439509123563766479e-02 -3.669084608554840088e-02 1.110781952738761902e-01 -4.096896201372146606e-02 -9.717049542814493179e-04 -1.265069395303726196e-01 3.429329767823219299e-02 -1.474789828062057495e-01 -5.156401917338371277e-02 3.159816563129425049e-02 -5.342583358287811279e-02 -5.853516608476638794e-02 -1.740221679210662842e-01 4.390150308609008789e-02 9.889449924230575562e-02 1.884035766124725342e-02 -3.127934038639068604e-02 9.101299196481704712e-02 -1.403663754463195801e-01 -2.090049535036087036e-02 1.346645653247833252e-01 6.117407605051994324e-02 1.400999575853347778e-01 1.503018736839294434e-01 -1.140047609806060791e-02 -9.229291975498199463e-02 -1.313643604516983032e-01 -3.536926954984664917e-02 1.311766058206558228e-01 -2.357027120888233185e-02 -1.109064929187297821e-02 -1.686127670109272003e-02 -1.077766194939613342e-01 5.168397352099418640e-02 1.758783161640167236e-01 -3.775834047701209784e-04 -1.756944954395294189e-01 -7.187527418136596680e-02 6.429431028664112091e-03 1.266162097454071045e-01 -7.901165634393692017e-02 1.865889430046081543e-01 -1.167517062276601791e-02 -4.299389198422431946e-02 1.789125781215261668e-05 1.396190375089645386e-02 -6.459680944681167603e-02 -7.016047090291976929e-02 8.471854031085968018e-02 4.645285382866859436e-02 4.996686708182096481e-03 -2.282607834786176682e-03 1.686723902821540833e-02 -7.665616273880004883e-02 2.451308667659759521e-01 1.051171869039535522e-01 7.842265814542770386e-02 -5.024462565779685974e-02 1.341345813125371933e-02 7.210729271173477173e-02 -3.850702568888664246e-02 -1.152979955077171326e-01 1.702210493385791779e-02 -1.276964843273162842e-01 3.424082323908805847e-02 5.965803191065788269e-02 1.786790192127227783e-01 -5.495063215494155884e-02 -1.416040956974029541e-01 -2.374888062477111816e-01 -7.081147283315658569e-02 -2.058051526546478271e-02 -3.537495061755180359e-02 -5.529206618666648865e-02 3.170979768037796021e-02 -5.752343684434890747e-02 2.685826644301414490e-02 -4.386322945356369019e-02 2.758634276688098907e-02 -1.125242635607719421e-01 2.148842066526412964e-02 1.125003322958946228e-01 -4.527515266090631485e-03 -8.352471888065338135e-02 -8.389217406511306763e-02 -5.338661372661590576e-02 -3.373424708843231201e-02 1.257364153861999512e-01 2.315314710140228271e-01 1.858012750744819641e-03 1.005242317914962769e-01 2.257693931460380554e-02 2.957775443792343140e-02 -4.597807303071022034e-02 -1.880071312189102173e-01 1.247606128454208374e-01 -8.219177275896072388e-02 -3.216019645333290100e-02 4.755808331537991762e-04 -4.307075217366218567e-02 -2.142495661973953247e-02 3.234431147575378418e-02 -1.282425671815872192e-01 -1.847956180572509766e-01 -4.928329959511756897e-02 -6.308256089687347412e-02
3.370115160942077637e-02 -6.337808817625045776e-02 9.919631481170654297e-02 -1.190356612205505371e-01 4.682075977325439453e-02 -3.676231950521469116e-02 1.037462651729583740e-01 5.184502899646759033e-02 8.135139942169189453e-02 5.664157494902610779e-02 2.327347733080387115e-02 -5.715531297028064728e-03 8.599707484245300293e-02 1.667161658406257629e-02 -2.161241769790649414e-01 -1.103482171893119812e-01 -2.891520597040653229e-02 -1.379192247986793518e-02 1.777851395308971405e-02 1.731688529253005981e-01 2.454151958227157593e-02 -1.732732504606246948e-01 -7.743626832962036133e-02 4.890942946076393127e-02 -1.732624024152755737e-01 4.026516526937484741e-02 -3.987197123933583498e-04 -4.941559210419654846e-02 2.920982800424098969e-02 1.189207658171653748e-01 1.249494850635528564e-01 -3.047893755137920380e-02 -1.304489374160766602e-01 4.503224417567253113e-02 -6.235756725072860718e-02 -2.518305927515029907e-02 1.275277435779571533e-01 -6.976247578859329224e-02 -1.931349188089370728e-01 3.227848932147026062e-02 1.706598550081253052e-01 -1.261395514011383057e-01 3.798795514740049839e-04 -1.050156950950622559e-01 -8.537114411592483521e-02 2.168952301144599915e-02 -1.974860019981861115e-02 -1.785062812268733978e-02 -1.168850213289260864e-01 6.135158985853195190e-02 1.276352815330028534e-02 -1.955083757638931274e-01 1.145001798868179321e-01 2.523928321897983551e-02 -2.992207556962966919e-02 1.229700371623039246e-01 -5.335167795419692993e-02 -1.594138145446777344e-01 4.707831144332885742e-02 -8.535122498869895935e-03 3.411525487899780273e-02 3.710929304361343384e-02 -4.487742111086845398e-02 -6.564631592482328415e-03 -1.282340288162231445e-01 -1.064516752958297729e-01 -1.784453243017196655e-01 -5.316452309489250183e-02 9.512805845588445663e-04 -4.919371102005243301e-03 1.222817674279212952e-01 6.175393983721733093e-02 7.672316581010818481e-02 1.024505719542503357e-01 5.578598007559776306e-02 1.137740239500999451e-01 -8.137262426316738129e-03 -6.125712767243385315e-02 1.562812924385070801e-02 7.947576791048049927e-02 1.018608827143907547e-02 4.509358108043670654e-02 -7.334579527378082275e-02 5.513231270015239716e-03 1.271678656339645386e-01 -3.631781041622161865e-02 -6.796132028102874756e-02 3.594334423542022705e-02 -5.260802432894706726e-02 -1.462372839450836182e-01 -1.276498734951019287e-01 -6.885785609483718872e-02 3.020165488123893738e-02 -2.092856727540493011e-02 1.389681100845336914e-01 -9.551751427352428436e-03 -9.928173571825027466e-02 -1.670831628143787384e-02 8.485568314790725708e-02 -8.821339160203933716e-02 -7.225953787565231323e-02 -9.120965749025344849e-02 8.488368242979049683e-02 -2.229386717081069946e-01 9.846162050962448120e-02 -1.051144301891326904e-02 4.541088826954364777e-03 -5.822149664163589478e-02 -1.210769191384315491e-01 1.442472487688064575e-01 -6.097351666539907455e-03 1.313186585903167725e-01 1.909402310848236084e-01 -1.230071634054183960e-01 1.252986304461956024e-02 7.088446617126464844e-02 -3.125571832060813904e-02 1.967641524970531464e-02 2.036085352301597595e-02 2.818292379379272461e-02 -5.016350001096725464e-02 4.369826242327690125e-02 7.119730859994888306e-02 1.880962103605270386e-01 4.329031333327293396e-03 -1.276266574859619141e-01 -1.064912304282188416e-01 1.089250948280096054e-02 -4.300337284803390503e-03 1.543135046958923340e-01 -1.249874383211135864e-02 -4.390322044491767883e-02 -2.948454581201076508e-02 -7.753263413906097412e-02 -9.040332399308681488e-03 9.355509281158447266e-02 -1.846052110195159912e-01 1.478316821157932281e-02 -8.528964966535568237e-02 7.869546860456466675e-02 7.897947728633880615e-02 -4.282854497432708740e-02 1.317297667264938354e-01 -5.102266743779182434e-02 1.428737044334411621e-01 7.370224595069885254e-02 9.835556894540786743e-02 -1.495578587055206299e-01 1.398343145847320557e-01 -6.218623742461204529e-02 -1.306933611631393433e-01 2.058128453791141510e-02 7.162561267614364624e-02 6.455712765455245972e-02 -2.129516564309597015e-02 2.628836594521999359e-02 6.525219231843948364e-02 1.754486560821533203e-02 2.349802106618881226e-02 7.958153635263442993e-02 -9.700678288936614990e-03 1.322294324636459351e-01 -7.485072314739227295e-02 6.375741213560104370e-02 8.887348324060440063e-02 6.628555711358785629e-03 -1.114980876445770264e-01 -5.545420944690704346e-02 4.065320640802383423e-02 5.386066436767578125e-02 -1.195325255393981934e-01 1.013490743935108185e-02 -1.923578530550003052e-01 1.194529682397842407e-01 1.350065809674561024e-03 -3.406234830617904663e-02 -3.839153097942471504e-03 -7.811247557401657104e-02 -1.663267239928245544e-02 1.230044141411781311e-01 -1.015387922525405884e-01 5.744400620460510254e-02 2.630920335650444031e-02 -1.520842909812927246e-01 9.535036981105804443e-02 2.554162964224815369e-02 -1.411337852478027344e-01 -1.456780266016721725e-02 -4.921374469995498657e-02 7.144755870103836060e-02 1.157300248742103577e-01 -1.374632306396961212e-02 8.376137912273406982e-02 9.763415157794952393e-02 -1.060608327388763428e-01 -2.270282991230487823e-02 8.125469833612442017e-02 -5.460383743047714233e-02 4.927620664238929749e-02 1.997486352920532227e-01 -1.696876138448715210e-01 -1.991265639662742615e-02 -3.205500543117523193e-02 -6.861873716115951538e-02 1.173824188299477100e-03 7.620489597320556641e-02 -1.264390442520380020e-02 2.168217301368713379e-02 5.322397872805595398e-02 -4.818945378065109253e-02 -7.095421105623245239e-02 2.329709827899932861e-01 -1.200191974639892578e-01 -6.475589424371719360e-02 -2.482722513377666473e-02 -5.435616150498390198e-02 -3.297648206353187561e-02 -1.031976118683815002e-01 -1.282992064952850342e-01 1.107697710394859314e-01 7.550369203090667725e-02 -1.237982958555221558e-01 -6.961691379547119141e-02 -9.209891781210899353e-03 -5.728406831622123718e-02 -1.191186383366584778e-01 -4.279676824808120728e-02 -2.628485485911369324e-02 -3.555314242839813232e-02 -1.896810345351696014e-02 9.410899132490158081e-03 -1.161979734897613525e-01 -3.160277381539344788e-03 4.137326031923294067e-02 -4.961145296692848206e-02 -1.211325079202651978e-01 -1.357683390378952026e-01 -1.064061075448989868e-01 5.578832328319549561e-02 -2.414049766957759857e-02 -4.218474030494689941e-02 -3.614838235080242157e-03 -1.831368207931518555e-01 -4.517704993486404419e-02 -1.825378537178039551e-01 -1.717345416545867920e-01 -1.603078544139862061e-01 1.087657511234283447e-01 1.116777807474136353e-01 7.767180446535348892e-03 5.517698451876640320e-02 -7.018818985670804977e-03 2.104928717017173767e-02 1.253707110881805420e-01 2.590351179242134094e-02 -1.270202267915010452e-02
-1.312946379184722900e-01 1.408641338348388672e-01 -5.665716156363487244e-02 -5.324008874595165253e-03 -1.048136875033378601e-02 9.662786871194839478e-02 -4.785462096333503723e-02 -1.824569329619407654e-02 -4.684060811996459961e-02 -8.311680704355239868e-02 1.194958910346031189e-01 -5.526208505034446716e-02 9.150049090385437012e-02 1.227425262331962585e-01 1.812620311975479126e-01 1.136781945824623108e-01 -1.741835772991180420e-01 3.013682179152965546e-02 -6.833465397357940674e-02 -7.886744290590286255e-02 9.801307693123817444e-03 1.425040364265441895e-01 3.584313020110130310e-02 -1.374754868447780609e-02 -1.027003750205039978e-01 1.640462726354598999e-01 3.213872760534286499e-02 -6.969837099313735962e-02 -1.052354723215103149e-01 1.082870140671730042e-01 3.186307474970817566e-02 1.111282221972942352e-02 1.777764596045017242e-02 -6.093811243772506714e-02 -4.906737431883811951e-02 8.675935119390487671e-02 9.064898639917373657e-02 9.865377843379974365e-02 2.722564851865172386e-03 1.836145073175430298e-01 2.689349651336669922e-02 -1.020713299512863159e-01 -7.630880177021026611e-02 -3.062961809337139130e-02 4.131468757987022400e-02 9.300496429204940796e-02 1.793728955090045929e-02 -2.137327799573540688e-03 -5.509683489799499512e-02 -5.323691293597221375e-02 -2.590437792241573334e-02 -5.641760677099227905e-02 -9.867306053638458252e-02 6.095378100872039795e-02 -1.102741807699203491e-01 -7.138407230377197266e-02 1.646770350635051727e-02 8.818257600069046021e-02 1.683423109352588654e-02 -3.369729593396186829e-02 6.629084050655364990e-02 -2.527918294072151184e-02 1.934943050146102905e-01 3.931269049644470215e-02 9.613527357578277588e-02 -5.315816774964332581e-02 -7.922224700450897217e-02 -5.508354678750038147e-02 -1.613828241825103760e-01 -6.425540894269943237e-02 -3.010628372430801392e-02 -6.263471674174070358e-03 -2.248559296131134033e-01 5.412692576646804810e-02 -1.084577813744544983e-01 -5.304479226469993591e-02 5.081489682197570801e-02 5.290814116597175598e-02 -1.571531444787979126e-01 -2.102865576744079590e-01 -1.940154656767845154e-02 -1.181519627571105957e-01 -7.764685153961181641e-02 -3.210656810551881790e-03 2.091668918728828430e-02 5.380151793360710144e-03 7.539748400449752808e-02 -1.979781780391931534e-03 -7.483844459056854248e-02 -1.092425510287284851e-01 -8.884675800800323486e-02 4.149099066853523254e-02 7.751641422510147095e-02 9.719071909785270691e-03 1.139122173190116882e-01 2.705479040741920471e-02 -4.151166602969169617e-02 -6.653370708227157593e-02 5.584316328167915344e-02 -2.139623463153839111e-02 -7.322880625724792480e-02 -1.974281109869480133e-02 -1.146982684731483459e-01 1.667886227369308472e-01 -1.226221546530723572e-01 8.967231214046478271e-02 5.049528554081916809e-02 -9.192184358835220337e-02 4.202976450324058533e-02 9.749270044267177582e-03 1.879350394010543823e-01 -4.950403817929327488e-04 1.569149494171142578e-01 -1.014958322048187256e-01 -8.040541410446166992e-02 -7.321348786354064941e-02 6.739792972803115845e-02 2.326664030551910400e-01 -6.494952738285064697e-02 5.395764112472534180e-02 -7.201056182384490967e-02 6.808026134967803955e-02 2.069419994950294495e-02 4.917035996913909912e-02 7.552410662174224854e-02 -2.751673199236392975e-02 4.983234405517578125e-02 -4.081044718623161316e-02 1.065275967121124268e-01 -1.141278967261314392e-01 -4.234211519360542297e-02 -6.368663907051086426e-02 -1.928592175245285034e-01 -9.879318065941333771e-03 6.230528280138969421e-02 2.433855459094047546e-02 1.120089143514633179e-01 3.420160850510001183e-03 1.668996214866638184e-01 -1.249538287520408630e-01 6.700079888105392456e-02 8.784075081348419189e-02 -9.934158064424991608e-03 5.025984719395637512e-02 -6.802964955568313599e-02 -2.763769924640655518e-01 1.593588441610336304e-01 -4.413847625255584717e-02 1.026786118745803833e-01 5.337656289339065552e-02 -6.982914358377456665e-02 9.724392741918563843e-02 -1.285022199153900146e-01 1.092841010540723801e-02 -2.006483227014541626e-01 -1.810049712657928467e-01 -2.634057402610778809e-02 -1.116400361061096191e-01 -1.411790996789932251e-01 -1.976429484784603119e-02 -1.281438022851943970e-01 7.162088900804519653e-02 -8.531802892684936523e-02 1.536141782999038696e-01 -2.263944782316684723e-02 -1.103844344615936279e-01 1.530158221721649170e-01 6.468573212623596191e-02 -5.900730192661285400e-02 -2.124942652881145477e-02 6.753700226545333862e-02 6.109777837991714478e-02 1.131532564759254456e-01 -7.909957319498062134e-02 -1.480439007282257080e-01 -6.815806776285171509e-02 2.257757261395454407e-02 -1.034639030694961548e-02 -9.932530112564563751e-03 -7.026292383670806885e-03 3.035747073590755463e-02 -9.651836752891540527e-02 -1.389159858226776123e-01 -8.124608546495437622e-03 8.229825645685195923e-02 8.009776473045349121e-02 1.362079754471778870e-02 1.469285320490598679e-02 1.358500719070434570e-01 -1.375892162322998047e-01 7.224548608064651489e-02 -6.944423541426658630e-03 1.904146522283554077e-01 1.453559659421443939e-02 -4.697160050272941589e-02 -1.256674379110336304e-01 -7.835943251848220825e-02 -9.200364351272583008e-02 1.337936818599700928e-01 1.667755097150802612e-02 1.191684827208518982e-01 -7.517585158348083496e-02 -1.179687399417161942e-02 -8.863595873117446899e-02 -1.246732324361801147e-01 4.832271113991737366e-02 -5.032095313072204590e-02 -3.541387617588043213e-02 -4.360695928335189819e-02 -4.911542683839797974e-02 -5.338060483336448669e-02 2.710499800741672516e-02 -2.737477980554103851e-02 2.259000577032566071e-02 -7.680208981037139893e-02 1.120796352624893188e-01 -7.607443630695343018e-02 -1.245378628373146057e-01 -1.106684654951095581e-01 -5.030487477779388428e-02 7.611919194459915161e-03 5.895577836781740189e-03 -5.786235630512237549e-02 1.610094010829925537e-01 -1.090321168303489685e-01 -1.096955463290214539e-01 -2.771290205419063568e-02 6.645177491009235382e-03 1.383693516254425049e-01 3.265537321567535400e-02 1.144599318504333496e-01 -8.140251785516738892e-02 -4.860048741102218628e-02 -2.656515501439571381e-02 -9.847071021795272827e-02 -6.882689148187637329e-02 -1.056658998131752014e-01 -1.420347243547439575e-01 6.225741654634475708e-02 3.592298179864883423e-02 -9.077528864145278931e-02 -5.364647880196571350e-02 -5.608609318733215332e-02 -1.081831082701683044e-01 2.124993503093719482e-02 2.701345272362232208e-02 -5.974034965038299561e-02 5.491098016500473022e-02 6.017066910862922668e-02 -1.201493572443723679e-02 -5.478020757436752319e-04 2.156513929367065430e-02 3.448487445712089539e-02 1.239186078310012817e-01 -1.057661697268486023e-01 -1.074455007910728455e-01
1.070616841316223145e-01 -6.095503456890583038e-03 6.009365245699882507e-02 5.336263775825500488e-02 8.091029524803161621e-02 -6.482050567865371704e-02 -1.315413042902946472e-02 1.642191559076309204e-01 7.439368963241577148e-02 7.691124826669692993e-02 2.859736559912562370e-03 7.074788212776184082e-02 -6.569279730319976807e-02 1.958591341972351074e-01 -1.268664561212062836e-02 -5.175178870558738708e-03 1.022179201245307922e-01 9.866470098495483398e-02 5.435902997851371765e-02 1.933599114418029785e-01 1.064347699284553528e-01 -5.922618880867958069e-02 6.999855488538742065e-02 8.434236049652099609e-02 1.422055065631866455e-01 -1.021841093897819519e-01 -1.636489778757095337e-01 9.545593522489070892e-03 -9.986120462417602539e-02 -8.481540530920028687e-02 3.938562050461769104e-02 7.613774389028549194e-02 2.028220333158969879e-02 -2.129068598151206970e-02 4.023273661732673645e-02 -2.179470099508762360e-02 -1.315321922302246094e-01 1.622565463185310364e-02 -5.526355467736721039e-03 4.799693822860717773e-03 -3.087635152041912079e-02 -9.524176269769668579e-02 -9.169743955135345459e-02 2.150688134133815765e-02 -2.921371906995773315e-02 -9.896766394376754761e-02 2.557481452822685242e-02 3.476438298821449280e-02 -6.621562689542770386e-02 1.310716867446899414e-01 4.114991426467895508e-02 -4.142480320297181606e-04 -6.772352755069732666e-02 1.126499101519584656e-01 4.532983899116516113e-02 8.731815218925476074e-02 1.188340485095977783e-01 -1.349527537822723389e-01 3.285459475591778755e-03 1.162934377789497375e-01 9.618946164846420288e-02 -4.981287196278572083e-02 -7.875626534223556519e-02 4.313249140977859497e-02 2.150550298392772675e-02 1.428453065454959869e-02 -8.476252853870391846e-02 1.165077984333038330e-01 9.126832336187362671e-02 -3.640707954764366150e-02 1.747331768274307251e-01 -1.122926361858844757e-03 -5.201971158385276794e-02 -5.130727589130401611e-02 1.026690751314163208e-02 -2.372258454561233521e-01 -4.041328281164169312e-02 -5.026978626847267151e-02 -2.099055051803588867e-02 6.699774414300918579e-03 6.772531569004058838e-02 -3.155145049095153809e-02 -8.577860146760940552e-02 8.305559307336807251e-02 -5.719660595059394836e-02 1.733362823724746704e-01 -1.062740683555603027e-01 5.517857894301414490e-02 -1.554597765207290649e-01 7.004871219396591187e-02 -2.346607148647308350e-01 3.585804626345634460e-02 -1.039410158991813660e-01 4.730987176299095154e-02 -7.102359831333160400e-02 9.123709052801132202e-03 7.964851707220077515e-02 -5.740904062986373901e-02 -1.176639199256896973e-01 2.127525396645069122e-02 3.946267534047365189e-03 8.321508765220642090e-02 -2.318333834409713745e-02 -4.322426393628120422e-02 6.723368167877197266e-02 4.129003733396530151e-03 -2.448036521673202515e-02 -1.062224358320236206e-01 8.057187497615814209e-02 -1.236791610717773438e-01 1.546909809112548828e-01 3.332611173391342163e-02 4.304663464426994324e-02 -1.055055707693099976e-01 6.255699694156646729e-02 -5.666634440422058105e-02 6.808156520128250122e-02 4.579715896397829056e-03 -1.375689208507537842e-01 1.479382440447807312e-02 -1.762597262859344482e-02 1.035486981272697449e-01 3.194582462310791016e-02 -1.621501334011554718e-02 -2.765827439725399017e-02 2.055384684354066849e-03 1.352548226714134216e-02 -2.214722633361816406e-01 1.845145365223288536e-03 -1.157698929309844971e-01 1.293507032096385956e-02 -3.844122216105461121e-02 9.072852134704589844e-02 6.483411416411399841e-03 7.220737636089324951e-02 -2.522972226142883301e-02 8.497003465890884399e-02 7.706339657306671143e-02 1.762315630912780762e-03 -4.673052206635475159e-02 -6.646374613046646118e-02 2.349926158785820007e-02 2.866974798962473869e-03 -4.751460254192352295e-02 1.886453181505203247e-01 8.568761497735977173e-02 9.916202723979949951e-02 1.367988735437393188e-01 1.968977153301239014e-01 -3.691203892230987549e-02 3.687069937586784363e-02 -5.330246314406394958e-02 -7.678571343421936035e-02 -1.121578142046928406e-01 7.278621941804885864e-02 -2.026621997356414795e-01 -9.213420748710632324e-02 -9.813147038221359253e-02 9.103184193372726440e-02 1.225400492548942566e-01 -2.646928094327449799e-02 1.028269715607166290e-02 6.421710550785064697e-02 4.516209289431571960e-02 1.854179948568344116e-01 -2.391744852066040039e-01 -3.026381321251392365e-02 -4.739213362336158752e-02 1.046784147620201111e-01 -4.437426105141639709e-02 4.441984463483095169e-03 -1.569405645132064819e-01 -1.930859535932540894e-01 -4.037975892424583435e-02 7.932817935943603516e-02 8.535264432430267334e-02 -1.312148869037628174e-01 -8.124379813671112061e-02 -1.107790842652320862e-01 -1.022200509905815125e-01 -7.200136780738830566e-02 -1.961747929453849792e-02 6.870711594820022583e-02 -3.218585252761840820e-02 -4.853840917348861694e-03 -1.886942237615585327e-01 1.395240575075149536e-01 -8.752559870481491089e-02 3.045173175632953644e-02 -1.626989394426345825e-01 5.670707300305366516e-02 2.595292404294013977e-02 2.530463598668575287e-02 -1.588708609342575073e-01 -1.545749325305223465e-02 1.171251758933067322e-01 -1.462737619876861572e-01 -1.046705171465873718e-01 -2.010251432657241821e-01 -2.675933390855789185e-02 -3.392807766795158386e-02 2.974199131131172180e-02 -1.880913972854614258e-01 -1.428037509322166443e-02 4.360219091176986694e-02 -9.042449295520782471e-02 1.090180128812789917e-02 -7.537968456745147705e-02 -7.747541368007659912e-02 1.269857399165630341e-02 -5.111715197563171387e-02 1.302638500928878784e-01 -7.188091427087783813e-02 3.486299142241477966e-02 -5.895432829856872559e-02 5.167330801486968994e-02 7.923589646816253662e-02 -8.107744902372360229e-02 -5.246904492378234863e-02 -1.745170950889587402e-01 3.064502403140068054e-02 1.852268427610397339e-01 -1.239254511892795563e-02 -1.538787875324487686e-02 -5.002411827445030212e-02 5.552209541201591492e-02 -9.622653573751449585e-02 -2.382165752351284027e-02 1.267547011375427246e-01 -1.246433854103088379e-01 -4.447055980563163757e-02 1.012158989906311035e-01 2.795372158288955688e-02 4.576490446925163269e-02 -7.693173736333847046e-02 -1.505000982433557510e-02 -3.500580787658691406e-02 2.244117110967636108e-02 1.026480570435523987e-01 -8.758061379194259644e-02 5.394729226827621460e-02 -3.907511942088603973e-03 -5.021424964070320129e-02 5.171054974198341370e-02 3.023612871766090393e-02 6.125459447503089905e-02 3.767711296677589417e-02 1.459606923162937164e-02 7.553394138813018799e-02 -4.218209534883499146e-03 -1.291052550077438354e-01 -3.041643276810646057e-02 1.141414716839790344e-01 6.901475042104721069e-02 -1.206322610378265381e-01 1.199180558323860168e-01
2.548302710056304932e-02 1.574770361185073853e-01 -1.947834901511669159e-02 -4.388021305203437805e-02 -9.307338297367095947e-02 2.125894883647561073e-03 3.623518347740173340e-02 -1.084493100643157959e-01 -4.389907419681549072e-02 1.291593909263610840e-01 -8.689174801111221313e-02 -9.466452151536941528e-02 -7.082799822092056274e-02 -7.361925393342971802e-02 1.234072372317314148e-01 1.222774088382720947e-01 3.900362551212310791e-02 -2.465584874153137207e-02 1.204431056976318359e-02 6.376381032168865204e-03 -7.898236811161041260e-02 -1.766907274723052979e-01 -1.632448583841323853e-01 -3.029315546154975891e-02 4.687483422458171844e-03 5.788075271993875504e-03 7.485652714967727661e-02 1.095267087221145630e-01 7.695159316062927246e-02 -9.464973211288452148e-02 3.297923877835273743e-02 -5.930137820541858673e-03 -1.030323728919029236e-01 8.422070741653442383e-02 1.353436708450317383e-01 -9.042640030384063721e-02 -1.598314382135868073e-02 -6.244268640875816345e-02 -8.089769631624221802e-02 1.217573583126068115e-01 1.638449355959892273e-02 9.859353303909301758e-02 -1.282091531902551651e-02 -4.268721491098403931e-02 -3.235042467713356018e-02 3.742041438817977905e-02 4.925528168678283691e-02 -1.121642738580703735e-01 -2.186981216073036194e-02 -8.056303113698959351e-02 -1.831901967525482178e-01 -7.355018705129623413e-02 -1.151307374238967896e-01 -7.854084670543670654e-02 5.789674818515777588e-02 3.198247402906417847e-03 -4.760042577981948853e-02 6.639746576547622681e-02 -1.058176830410957336e-01 1.411467045545578003e-01 5.985453724861145020e-02 1.637093536555767059e-02 -1.008874028921127319e-01 1.289835572242736816e-01 2.655044198036193848e-01 -7.595576345920562744e-02 9.769014269113540649e-02 -1.976442337036132812e-02 1.039750054478645325e-01 -5.988234654068946838e-02 3.256658464670181274e-02 1.473284233361482620e-02 -1.386565715074539185e-01 7.726206630468368530e-02 1.166130453348159790e-01 -4.187834635376930237e-02 2.864306978881359100e-02 -1.028742417693138123e-01 1.051524952054023743e-01 -1.668456345796585083e-01 -5.193425342440605164e-02 4.201794043183326721e-02 -6.804892420768737793e-02 -8.769815415143966675e-02 -8.224107325077056885e-03 6.686553359031677246e-02 2.266135364770889282e-01 -1.415566354990005493e-02 1.369752734899520874e-01 -6.208831444382667542e-02 2.920909970998764038e-02 -1.427179388701915741e-02 4.448803514242172241e-02 -7.633001543581485748e-03 -1.151766106486320496e-01 1.359363347291946411e-01 5.003514140844345093e-02 -3.185214474797248840e-02 -8.746910840272903442e-02 -4.558927938342094421e-02 -1.475345194339752197e-01 1.066473573446273804e-01 -4.614395275712013245e-02 -3.863537451252341270e-03 -1.263065636157989502e-01 -6.336246430873870850e-02 5.806278064846992493e-02 5.157686397433280945e-02 -1.836090832948684692e-01 -1.062476858496665955e-01 -5.784348398447036743e-02 9.975717961788177490e-02 -3.274314105510711670e-02 6.334320455789566040e-02 5.966521054506301880e-02 -2.314960025250911713e-02 -8.567395806312561035e-02 8.445833623409271240e-02 2.590075135231018066e-02 1.320550143718719482e-01 -8.968529850244522095e-02 2.303177267313003540e-01 1.523758620023727417e-01 1.650674152188003063e-03 1.216556876897811890e-01 1.080150380730628967e-01 -3.058738633990287781e-02 -9.676675498485565186e-02 1.115752533078193665e-01 -2.373869530856609344e-02 9.050785750150680542e-02 8.373655378818511963e-02 1.602375060319900513e-01 -4.333760589361190796e-02 -1.083522886037826538e-01 -6.436444818973541260e-02 -1.036773547530174255e-01 -9.490953385829925537e-02 6.764496676623821259e-03 -6.172968819737434387e-02 -1.683662272989749908e-02 6.555480509996414185e-02 -2.261694520711898804e-01 4.793600365519523621e-02 3.328982973471283913e-03 2.963812276721000671e-02 3.233050554990768433e-02 6.870179623365402222e-02 1.474688947200775146e-01 -8.111067116260528564e-02 2.614610828459262848e-02 1.561435591429471970e-02 4.424383863806724548e-02 7.248912006616592407e-02 9.111984074115753174e-02 -1.470270007848739624e-01 1.448687613010406494e-01 -3.655546531081199646e-02 -1.496169716119766235e-01 -4.542189463973045349e-02 8.014077693223953247e-02 1.311145573854446411e-01 1.725269854068756104e-02 -2.912713773548603058e-02 2.071881480515003204e-02 8.824013918638229370e-02 -8.394531160593032837e-02 -4.192178323864936829e-02 3.100690618157386780e-02 1.253865510225296021e-01 -4.086213931441307068e-02 8.243544399738311768e-02 -9.708698838949203491e-02 -6.923130154609680176e-02 -2.989720366895198822e-02 -3.426113724708557129e-02 -3.442043066024780273e-02 9.528354741632938385e-03 1.879274547100067139e-01 -1.511684954166412354e-01 2.899474278092384338e-02 -1.085190549492835999e-01 -1.640638858079910278e-01 -1.863330751657485962e-01 2.614800445735454559e-02 4.796946421265602112e-02 -1.460919231176376343e-01 -2.358819916844367981e-02 -4.735152050852775574e-02 5.158263444900512695e-02 -2.081883698701858521e-02 -9.630678221583366394e-03 -2.407879196107387543e-02 -5.960883945226669312e-02 -4.473632574081420898e-02 1.350206732749938965e-01 4.604692012071609497e-02 -4.875327646732330322e-02 -1.708502322435379028e-01 8.763980865478515625e-02 -1.818417385220527649e-02 1.437224596738815308e-01 -5.905072018504142761e-02 3.297786787152290344e-02 -5.871300399303436279e-02 7.014907896518707275e-02 -6.752521544694900513e-02 4.094005376100540161e-02 9.042835235595703125e-02 -2.613961882889270782e-02 -8.165023475885391235e-02 -1.231615915894508362e-01 -5.775748565793037415e-02 -1.459790510125458241e-03 -1.190721020102500916e-01 -1.544287502765655518e-01 1.822520606219768524e-02 -1.027043312788009644e-01 3.310459852218627930e-02 -1.190636232495307922e-01 -7.965619862079620361e-02 -6.270183622837066650e-02 3.312747925519943237e-02 1.258438825607299805e-01 -7.181820273399353027e-02 1.821484714746475220e-01 -1.127616167068481445e-01 -9.862966835498809814e-02 -7.094537839293479919e-03 -1.177211776375770569e-01 5.955568328499794006e-02 -5.126066971570253372e-03 7.201488316059112549e-02 -6.751192361116409302e-02 -2.493984252214431763e-02 -1.242828592658042908e-01 -5.894185509532690048e-03 -1.914108917117118835e-02 1.078336909413337708e-01 -1.021647378802299500e-01 3.862843662500381470e-02 -7.254006341099739075e-03 -1.779118552803993225e-02 1.608312427997589111e-01 2.290762029588222504e-03 -8.340837061405181885e-02 -1.664486527442932129e-02 4.160001873970031738e-02 -1.034106537699699402e-01 2.356158569455146790e-02 -7.539609819650650024e-02 3.531397134065628052e-02 1.542283743619918823e-01 -3.529044240713119507e-02 -1.123672723770141602e-01 -1.129485014826059341e-02
-2.494432218372821808e-02 -5.206077545881271362e-02 -1.238183826208114624e-01 5.314600467681884766e-02 -6.973111629486083984e-02 7.716701179742813110e-02 3.191860765218734741e-02 1.015751734375953674e-01 3.067184425890445709e-02 6.639052182435989380e-02 1.925674453377723694e-02 6.947728991508483887e-02 -9.570564329624176025e-02 1.922220364212989807e-02 -5.537092685699462891e-02 1.421948820352554321e-01 1.052055507898330688e-01 -3.669954463839530945e-02 3.267170488834381104e-02 -8.550271391868591309e-03 -1.306618303060531616e-01 -7.033064216375350952e-02 2.474803850054740906e-02 3.629566729068756104e-02 -1.401053159497678280e-03 -6.039386615157127380e-02 2.996985428035259247e-02 -1.709602959454059601e-02 -9.951163828372955322e-02 -2.648771181702613831e-02 4.140354227274656296e-03 1.373131275177001953e-01 8.787272870540618896e-02 1.140863373875617981e-01 1.549852546304464340e-02 -1.556799001991748810e-02 1.703812927007675171e-02 -4.340629279613494873e-02 8.233315497636795044e-02 -4.841555282473564148e-02 -4.252398386597633362e-02 -1.297052651643753052e-01 -1.008627414703369141e-01 -1.518590003252029419e-01 4.614212363958358765e-02 -3.651748970150947571e-02 2.168699353933334351e-01 -1.500096470117568970e-01 -5.422982573509216309e-02 4.828239232301712036e-02 -6.999258697032928467e-02 -2.993887849152088165e-02 -2.648816257715225220e-02 -4.109958931803703308e-02 2.201431393623352051e-01 3.430927637964487076e-03 1.609973795711994171e-02 -9.332425147294998169e-02 -5.526719614863395691e-02 -1.005026511847972870e-02 1.489417254924774170e-01 -1.135186851024627686e-02 7.688234560191631317e-03 -1.801520884037017822e-01 -3.608611971139907837e-02 7.316903769969940186e-02 4.371908307075500488e-02 -1.900182515382766724e-01 -6.890924274921417236e-02 3.820878267288208008e-02 -1.265501976013183594e-01 -8.000210672616958618e-02 1.210061237215995789e-01 6.168242543935775757e-02 -1.620517969131469727e-01 1.687327325344085693e-01 -8.111634850502014160e-02 -2.700777538120746613e-02 1.772657632827758789e-01 -7.245673239231109619e-02 1.259405314922332764e-01 2.874433249235153198e-02 -1.123448163270950317e-01 -1.880950778722763062e-01 5.621205642819404602e-02 1.624281853437423706e-01 2.625120431184768677e-02 -1.400840282440185547e-02 -2.005958706140518188e-01 -9.972197562456130981e-02 1.427753865718841553e-01 -8.236621320247650146e-02 -9.298495948314666748e-02 1.556096976855769753e-04 -6.800863891839981079e-02 -5.084691196680068970e-02 -1.322239637374877930e-01 -1.448849588632583618e-01 1.904656551778316498e-02 -5.282776057720184326e-02 1.409811824560165405e-01 6.071081385016441345e-02 -4.897115379571914673e-02 -1.322821229696273804e-01 5.112119764089584351e-02 -4.958103410899639130e-03 1.126300692558288574e-01 -1.241220608353614807e-01 -8.698025345802307129e-02 -8.278966695070266724e-02 -5.002922192215919495e-02 9.553066641092300415e-02 2.188961207866668701e-02 4.089014977216720581e-02 1.081761494278907776e-01 -6.451734155416488647e-02 1.864397525787353516e-02 5.439720675349235535e-02 8.936370722949504852e-03 1.104727759957313538e-01 -2.219340763986110687e-02 -5.744801461696624756e-02 -2.219405025243759155e-02 4.123440757393836975e-02 -8.220342919230461121e-03 2.821553684771060944e-02 1.345256119966506958e-01 -1.877733469009399414e-01 -5.746074020862579346e-02 1.773040927946567535e-02 -4.948789626359939575e-02 -5.570038780570030212e-02 -1.470888853073120117e-01 6.529879570007324219e-02 3.732850030064582825e-02 8.106687664985656738e-02 2.065345644950866699e-02 -9.004690498113632202e-02 9.187343716621398926e-02 -4.577565193176269531e-02 -8.297021687030792236e-02 3.855083510279655457e-02 -1.137875169515609741e-01 -1.122559681534767151e-01 -4.659689590334892273e-02 -6.269450485706329346e-02 1.281597018241882324e-01 3.840042650699615479e-02 -5.250561237335205078e-02 -3.563387319445610046e-02 9.997028391808271408e-04 1.093017160892486572e-01 -6.586954742670059204e-02 1.247493922710418701e-01 6.591210514307022095e-02 4.333331808447837830e-02 5.188960582017898560e-02 -3.566831722855567932e-02 -2.330566011369228363e-02 2.284979633986949921e-02 4.194246232509613037e-02 1.881840080022811890e-01 7.065657526254653931e-02 -8.731672167778015137e-02 6.567922234535217285e-02 -7.077762484550476074e-02 -6.001237034797668457e-02 -9.404378384351730347e-02 2.246121503412723541e-02 4.860333167016506195e-03 -1.487466990947723389e-01 4.236582294106483459e-02 1.712672598659992218e-02 1.258624047040939331e-01 -3.195148333907127380e-02 4.526790976524353027e-02 8.112591505050659180e-02 1.558141200803220272e-03 7.922744750976562500e-02 -5.070500820875167847e-02 -1.221251636743545532e-01 1.054694280028343201e-01 -1.330478489398956299e-01 1.113806068897247314e-01 -1.777330227196216583e-02 6.873462349176406860e-02 -8.049259334802627563e-02 -2.593322470784187317e-02 2.901396900415420532e-02 3.462161868810653687e-03 -9.602233022451400757e-02 1.398218423128128052e-01 -8.696821518242359161e-03 -2.097315490245819092e-01 -8.548371493816375732e-02 -7.869615405797958374e-02 -1.243186369538307190e-01 2.386689744889736176e-02 8.040723204612731934e-02 8.386372774839401245e-02 6.791100651025772095e-02 -1.903451383113861084e-01 7.802498340606689453e-02 -4.529691860079765320e-02 2.124020159244537354e-01 -2.880243659019470215e-01 1.027150601148605347e-01 4.927548114210367203e-03 -6.948815658688545227e-03 1.232190504670143127e-01 1.215528696775436401e-01 -1.366749405860900879e-01 -3.066932782530784607e-02 -8.313612639904022217e-02 -3.349818289279937744e-02 -9.839082509279251099e-02 -1.314691603183746338e-01 4.837584868073463440e-02 -2.676474489271640778e-02 1.306313425302505493e-01 4.692581668496131897e-02 9.979555755853652954e-02 -1.590158604085445404e-02 3.259943425655364990e-02 -9.983193129301071167e-03 4.117969051003456116e-02 -1.500044018030166626e-01 -1.972027719020843506e-01 -1.121913194656372070e-01 1.728854924440383911e-01 -1.111419349908828735e-01 2.724607847630977631e-02 1.575539410114288330e-01 6.706441938877105713e-02 1.208601333200931549e-02 5.247395485639572144e-02 -4.907925426959991455e-02 -1.285071671009063721e-01 3.991924691945314407e-03 5.028143525123596191e-03 -1.567934826016426086e-02 -4.166752472519874573e-02 -9.192296117544174194e-02 -1.619019173085689545e-02 3.645962849259376526e-02 6.445729732513427734e-02 -7.664663344621658325e-02 9.843134880065917969e-02 4.505454376339912415e-02 -1.747684925794601440e-02 6.762519478797912598e-02 -1.046770252287387848e-03 4.803288727998733521e-02 -5.181102454662322998e-02 7.755781710147857666e-02 1.522525101900100708e-01
-1.467473525553941727e-02 -3.344305977225303650e-02 -1.800829768180847168e-01 -6.735999137163162231e-02 -1.239817738533020020e-01 6.498406082391738892e-02 -3.247450664639472961e-02 1.162906065583229065e-01 -8.195561170578002930e-02 -2.660603635013103485e-02 3.169851750135421753e-02 3.423077613115310669e-02 -3.660280257463455200e-02 1.407223492860794067e-01 -6.903019547462463379e-02 1.267004162073135376e-01 -1.123708579689264297e-02 -1.894782185554504395e-01 1.460307985544204712e-01 -6.709337234497070312e-02 -2.729476615786552429e-02 -6.324121356010437012e-02 -1.672574318945407867e-02 -1.084560975432395935e-01 -2.312063612043857574e-02 6.583305448293685913e-02 1.904865354299545288e-01 7.508634030818939209e-02 -2.664827555418014526e-02 7.694008201360702515e-02 -8.829864114522933960e-02 -5.046083033084869385e-02 5.421350523829460144e-02 1.262350566685199738e-02 -8.910687267780303955e-02 -8.609454333782196045e-02 1.524951159954071045e-01 9.806248359382152557e-03 -7.275697588920593262e-02 1.215855497866868973e-02 -4.634907841682434082e-02 -4.507802799344062805e-02 2.187106162309646606e-01 1.223955955356359482e-02 -3.019628673791885376e-02 2.286346815526485443e-02 9.617891162633895874e-02 -7.760012894868850708e-02 -3.332161903381347656e-02 -2.441516816616058350e-01 2.420021593570709229e-01 -3.496080264449119568e-02 1.352898776531219482e-01 -5.114630982279777527e-02 -2.655304595828056335e-02 9.265662729740142822e-02 6.068840995430946350e-02 -1.746719628572463989e-01 -1.003258526325225830e-01 -1.341097243130207062e-02 7.927438616752624512e-02 2.215485572814941406e-01 -8.985533565282821655e-02 4.950231686234474182e-02 1.718295514583587646e-01 -1.091425493359565735e-01 7.426860183477401733e-02 1.544666737318038940e-01 2.197102829813957214e-02 3.882361948490142822e-02 6.338776554912328720e-03 1.596876382827758789e-01 3.415003186091780663e-03 -8.221153169870376587e-02 -4.462767392396926880e-02 -6.667514890432357788e-02 -1.025374233722686768e-01 5.087034660391509533e-04 -4.046221729367971420e-03 -4.959272593259811401e-02 -3.071819492106442340e-06 5.257528647780418396e-02 6.587702035903930664e-02 6.505078822374343872e-02 -8.332613110542297363e-02 -5.913746356964111328e-02 -7.139164209365844727e-02 -3.757892176508903503e-03 -2.715780213475227356e-02 2.250598743557929993e-02 -1.250334084033966064e-02 -8.459583623334765434e-04 -7.841771468520164490e-03 8.081271499395370483e-02 6.575450301170349121e-03 -2.124105207622051239e-02 1.387433558702468872e-01 -6.084822490811347961e-02 -2.224985361099243164e-01 6.417552381753921509e-02 -6.830380856990814209e-02 3.205935284495353699e-02 -3.971445187926292419e-02 2.754026092588901520e-02 -1.710864305496215820e-01 1.351837366819381714e-01 2.863201498985290527e-02 4.816290736198425293e-02 1.440400443971157074e-02 -7.504439353942871094e-02 -6.850424222648143768e-03 9.259400516748428345e-02 5.879407748579978943e-02 3.193870419636368752e-03 -9.106702357530593872e-02 3.236531466245651245e-02 3.672782331705093384e-02 -7.753653824329376221e-02 7.988779991865158081e-02 -1.761657893657684326e-01 6.409703940153121948e-02 -4.020487517118453979e-02 -3.374399244785308838e-02 4.724344611167907715e-02 2.949969656765460968e-02 -1.490128692239522934e-03 -4.318949766457080841e-03 1.141885444521903992e-01 -3.097589826211333275e-03 -1.137902680784463882e-02 4.381357505917549133e-02 1.146634370088577271e-01 2.365206182003021240e-02 6.631384789943695068e-02 7.873712480068206787e-02 -1.362939476966857910e-01 1.188987419009208679e-01 -5.391099303960800171e-02 -8.683135360479354858e-02 -4.198553040623664856e-02 -1.007951274514198303e-01 -5.403245985507965088e-02 -2.935847081243991852e-02 -1.544899791479110718e-01 -1.019831970334053040e-01 4.612997919321060181e-02 3.046728903427720070e-03 8.897623629309237003e-04 -4.183916375041007996e-02 -4.005245864391326904e-03 -1.152586564421653748e-01 6.228370475582778454e-04 4.216824844479560852e-02 -7.103164494037628174e-02 1.271013356745243073e-02 -3.748654201626777649e-02 -1.678152754902839661e-02 -1.213661395013332367e-02 1.867833547294139862e-02 -1.880427263677120209e-02 2.006268203258514404e-01 2.703598141670227051e-01 7.507602125406265259e-02 -1.566085964441299438e-02 -3.845510631799697876e-02 -7.775609195232391357e-02 2.699976228177547455e-02 -1.881714463233947754e-01 1.513193361461162567e-02 -1.287749409675598145e-01 -1.541380584239959717e-02 -1.665009260177612305e-01 -1.434339880943298340e-01 3.893059492111206055e-02 -4.436045885086059570e-03 -8.434993028640747070e-02 9.668136015534400940e-03 1.093269437551498413e-01 -2.057437784969806671e-02 2.069960907101631165e-02 2.385400235652923584e-03 7.460174709558486938e-02 -1.180920824408531189e-01 7.132790237665176392e-02 1.417273283004760742e-01 2.348988503217697144e-02 1.119533437304198742e-03 -2.904731221497058868e-02 5.895301327109336853e-02 2.499370276927947998e-02 -8.675424382090568542e-03 -5.009038373827934265e-02 8.757727593183517456e-02 -6.692965328693389893e-02 -1.260509490966796875e-01 -9.119993448257446289e-02 -7.101722061634063721e-02 1.018514111638069153e-02 -9.345795959234237671e-03 6.188603118062019348e-02 -1.560615096241235733e-02 1.032241284847259521e-01 7.686363905668258667e-02 -1.455038692802190781e-02 -1.204432919621467590e-02 1.222310438752174377e-01 -1.207837276160717010e-02 -5.012464243918657303e-04 6.971947848796844482e-02 -3.346133604645729065e-02 -1.175494715571403503e-01 -3.760759159922599792e-02 1.675280928611755371e-01 3.998628258705139160e-02 8.000978082418441772e-02 -3.338153287768363953e-02 -2.099761217832565308e-01 1.303042322397232056e-01 -1.208319514989852905e-01 4.306996241211891174e-03 1.178980022668838501e-01 -4.775038734078407288e-02 -6.068437919020652771e-02 -9.049222618341445923e-02 4.431696608662605286e-02 -1.893593668937683105e-01 -7.229041773825883865e-03 -1.781430840492248535e-02 -5.131843313574790955e-02 -4.774004966020584106e-02 -2.727492749691009521e-01 1.025296226143836975e-01 -1.385563910007476807e-01 4.796449467539787292e-02 4.923451691865921021e-02 -2.043860591948032379e-02 -1.408716887235641479e-01 -2.826415002346038818e-02 2.151968656107783318e-03 -1.092690005898475647e-01 1.623619347810745239e-01 -8.610502630472183228e-02 1.552841365337371826e-01 5.938271526247262955e-03 -1.373619586229324341e-01 -4.259394481778144836e-03 -9.180074930191040039e-02 1.783349812030792236e-01 -5.703812092542648315e-02 3.421529754996299744e-02 -7.188098877668380737e-02 -2.571708150207996368e-02 -2.690661698579788208e-02 -7.072211802005767822e-02 -1.172854751348495483e-01 1.517356000840663910e-02
-8.774793893098831177e-02 1.081816926598548889e-01 -1.662282198667526245e-01 5.026222392916679382e-02 6.927999109029769897e-02 -1.286300122737884521e-01 1.073664147406816483e-02 -1.045307517051696777e-01 1.704455614089965820e-01 1.136524900794029236e-01 1.508399546146392822e-01 -8.557505160570144653e-02 -3.721549734473228455e-02 -1.037642881274223328e-01 7.670079916715621948e-02 6.580071896314620972e-02 1.223153918981552124e-01 -2.184357494115829468e-02 -1.044134646654129028e-01 -1.268558111041784286e-02 -1.187085509300231934e-01 1.121613755822181702e-02 -7.515000551939010620e-02 -4.097305238246917725e-02 5.128504335880279541e-02 8.880314230918884277e-02 -2.154600340873003006e-03 -4.686810821294784546e-02 1.538133621215820312e-02 -1.524581015110015869e-02 8.712585270404815674e-02 -4.286617413163185120e-02 8.114983141422271729e-02 4.742737114429473877e-02 1.016304343938827515e-01 2.352219447493553162e-02 3.701823949813842773e-02 1.072430759668350220e-01 -3.415073500946164131e-03 -1.257454007863998413e-01 -2.204296141862869263e-01 -1.026655808091163635e-01 1.601380258798599243e-01 1.200924366712570190e-01 4.270847514271736145e-02 -9.052365086972713470e-03 8.420260855928063393e-04 4.609122872352600098e-03 9.090767800807952881e-02 -1.710313111543655396e-01 -1.193677186965942383e-01 1.040515974164009094e-01 -2.647740766406059265e-02 2.752840891480445862e-02 2.914698608219623566e-02 -5.639182031154632568e-02 1.440137922763824463e-01 -9.880238771438598633e-02 -8.115059137344360352e-02 -7.867717742919921875e-02 8.110333234071731567e-02 9.565789997577667236e-02 2.081308215856552124e-01 -1.569054126739501953e-01 4.042521864175796509e-02 8.866217918694019318e-03 -1.306558549404144287e-01 1.775002926588058472e-01 1.553936488926410675e-02 1.222299188375473022e-01 -5.943638831377029419e-02 2.668782696127891541e-02 2.165910974144935608e-02 7.482497394084930420e-02 8.302580565214157104e-02 1.793230175971984863e-01 4.454473033547401428e-02 4.919421672821044922e-02 -2.729885838925838470e-02 -1.457051560282707214e-02 7.166554033756256104e-02 6.256596744060516357e-02 2.896464802324771881e-02 -1.072283759713172913e-01 9.503258019685745239e-02 -1.211866457015275955e-02 -1.835553720593452454e-02 1.006074249744415283e-01 -3.462466970086097717e-02 5.839298665523529053e-02 -4.904412105679512024e-02 6.428156048059463501e-02 8.349710702896118164e-02 -7.359114009886980057e-03 -2.727874740958213806e-02 7.953881286084651947e-03 2.400820143520832062e-02 -1.330299526453018188e-01 -1.592919677495956421e-01 6.892281025648117065e-02 -2.521263249218463898e-02 8.679267764091491699e-02 1.481076925992965698e-01 3.112338250502943993e-03 -2.383449114859104156e-02 -1.271711885929107666e-01 -1.129203364253044128e-01 -1.812077164649963379e-01 -1.674548164010047913e-02 2.656377665698528290e-02 8.988003246486186981e-03 3.979896008968353271e-02 9.430588036775588989e-02 1.441134233027696609e-02 1.679883338510990143e-02 1.008241623640060425e-02 1.574737429618835449e-01 -2.312632836401462555e-02 -3.540296852588653564e-02 -2.743928134441375732e-02 9.301451593637466431e-02 7.306306064128875732e-02 1.004057601094245911e-01 3.038334473967552185e-02 -4.373863339424133301e-02 -1.045337840914726257e-01 4.249547200743108988e-04 1.537081301212310791e-01 -5.398166179656982422e-02 -1.181595921516418457e-01 -1.081319302320480347e-01 -2.507633715867996216e-02 -1.952213421463966370e-02 -4.278755187988281250e-02 3.159690275788307190e-02 -7.573254406452178955e-02 -2.701753377914428711e-01 -1.069162487983703613e-01 5.753443762660026550e-02 6.293654441833496094e-02 -7.117078453302383423e-02 -1.227151229977607727e-01 -5.475728586316108704e-02 7.304665446281433105e-02 -1.823605224490165710e-02 7.176429964601993561e-03 -1.476492136716842651e-01 8.260852843523025513e-02 5.094601213932037354e-02 7.513073086738586426e-02 4.439658299088478088e-02 5.153914913535118103e-03 1.376623362302780151e-01 -7.330878823995590210e-02 -8.456631749868392944e-02 -5.476249754428863525e-02 2.963568083941936493e-02 -1.043102517724037170e-01 9.968724846839904785e-02 1.271626353263854980e-01 -1.412257701158523560e-01 -1.044167801737785339e-01 -3.946817666292190552e-02 -7.878612726926803589e-02 -4.309013485908508301e-02 -8.586086332798004150e-03 -1.468366980552673340e-01 -3.543267771601676941e-02 6.373183429241180420e-02 -1.234976015985012054e-02 -2.735055424273014069e-02 -1.948738121427595615e-03 -7.555112987756729126e-02 5.588387697935104370e-02 -6.011204421520233154e-02 1.113514006137847900e-01 -3.918169438838958740e-02 -4.713639616966247559e-02 2.223953977227210999e-02 3.882630914449691772e-02 -7.981429249048233032e-02 -8.466576039791107178e-02 9.910006076097488403e-02 6.084640044718980789e-03 6.524903327226638794e-02 -5.227764137089252472e-03 -6.806922703981399536e-02 7.492936216294765472e-03 6.863592565059661865e-02 -2.021397463977336884e-02 -1.068356782197952271e-01 1.635911464691162109e-01 -9.613123536109924316e-02 3.702179342508316040e-02 -8.943559974431991577e-02 2.819436788558959961e-02 5.032997578382492065e-02 6.197606679052114487e-03 1.340122520923614502e-01 7.598432153463363647e-02 -1.319529265165328979e-01 2.587471902370452881e-02 -1.218718662858009338e-01 1.304271370172500610e-01 -2.966142594814300537e-01 -7.278446108102798462e-02 8.519954979419708252e-02 -2.173940837383270264e-01 5.712201446294784546e-02 3.483696281909942627e-02 8.695166558027267456e-02 -4.049062728881835938e-03 -4.695588350296020508e-02 -1.046020090579986572e-01 4.663846641778945923e-02 -3.538361191749572754e-02 -5.814319849014282227e-02 -1.320847272872924805e-01 1.425900161266326904e-01 -7.163587957620620728e-02 9.997612237930297852e-02 -2.423952147364616394e-02 -7.056346535682678223e-02 -9.092731028795242310e-02 8.346187882125377655e-03 -4.970746859908103943e-02 -2.367642708122730255e-02 -8.516789227724075317e-02 -9.594020992517471313e-02 6.044565141201019287e-02 -2.307538874447345734e-02 -1.523952037096023560e-01 1.965987868607044220e-02 -6.470695137977600098e-02 -3.403463959693908691e-02 -6.398601830005645752e-02 -8.377231657505035400e-02 -9.778196923434734344e-03 8.675754070281982422e-02 -5.639408528804779053e-02 -7.913111150264739990e-02 -2.455699890851974487e-01 -6.341666728258132935e-02 -3.675587102770805359e-02 -3.038801625370979309e-02 1.315221339464187622e-01 5.623477976769208908e-03 -9.552504122257232666e-02 1.582785509526729584e-02 -5.042197182774543762e-02 4.871924594044685364e-02 1.719946414232254028e-02 -4.763153940439224243e-02 -2.007599174976348877e-01 -1.240801960229873657e-01 -7.294499129056930542e-02
