5.219468474388122559e-02 2.002320811152458191e-02 -4.313365742564201355e-02 6.493260711431503296e-02 -6.207315623760223389e-02 -9.254097193479537964e-02 3.225954994559288025e-02 1.167857572436332703e-01 5.615995079278945923e-02 -2.242824621498584747e-02 -1.121663488447666168e-02 1.234765797853469849e-01 -2.099933922290802002e-01 -2.191556245088577271e-02 1.272392421960830688e-01 6.717077642679214478e-02 9.915335103869438171e-03 -1.306682974100112915e-01 -6.975506246089935303e-02 -5.788053944706916809e-02 6.965450197458267212e-02 -2.842407301068305969e-02 5.044359713792800903e-02 6.859783083200454712e-02 9.484329819679260254e-02 -8.183422498404979706e-03 2.228651894256472588e-03 7.086930423974990845e-02 7.833881676197052002e-02 2.003575861454010010e-02 6.008677557110786438e-02 2.944035083055496216e-02 4.633456841111183167e-02 -6.004156172275543213e-02 -1.105729416012763977e-01 -2.449450083076953888e-02 4.610029980540275574e-02 1.908255741000175476e-02 -2.825064584612846375e-02 7.534615695476531982e-02 5.660888180136680603e-02 -4.295767098665237427e-02 -1.935474425554275513e-01 5.911973118782043457e-02 4.386945068836212158e-02 2.503608353435993195e-02 1.935820840299129486e-02 -6.318493932485580444e-02 1.510447412729263306e-01 6.595475226640701294e-02 1.684810072183609009e-01 5.047141760587692261e-02 1.587563157081604004e-01 2.353675477206707001e-02 -9.669809043407440186e-02 -3.757638111710548401e-02 -5.508331954479217529e-02 -3.112536855041980743e-02 1.400830131024122238e-02 1.114238277077674866e-01 -1.239558123052120209e-02 7.372395694255828857e-02 -1.185093298554420471e-01 -7.337063550949096680e-02 -1.458895485848188400e-02 -5.490024760365486145e-02 -9.319457411766052246e-02 7.412546873092651367e-02 -1.608567871153354645e-02 -7.098137587308883667e-02 3.215141966938972473e-02 -5.256341770291328430e-02 1.417896803468465805e-02 9.541603922843933105e-02 1.836112933233380318e-03 -1.247585657984018326e-02 -3.454051166772842407e-02 6.825124146416783333e-04 -6.018552556633949280e-02 -2.270201407372951508e-02 -4.798002541065216064e-02 -1.131016761064529419e-01 7.340685930103063583e-03 8.077978342771530151e-02 -3.563903272151947021e-02 -3.964935615658760071e-02 4.162266477942466736e-02 3.166697919368743896e-02 5.072333663702011108e-02 2.004481479525566101e-02 -3.431897377595305443e-03 -3.292839974164962769e-02 5.149613320827484131e-02 4.915748722851276398e-03 -1.917729824781417847e-01 -1.526150256395339966e-01 -7.964385300874710083e-02 -1.013304889202117920e-01 9.994623064994812012e-02 6.243620067834854126e-02 2.066840678453445435e-01 1.658577024936676025e-01 7.360681146383285522e-02 8.228705078363418579e-02 8.731543272733688354e-02 2.359062992036342621e-02 3.052908927202224731e-02 -3.845442086458206177e-02 2.938966453075408936e-02 -1.252843737602233887e-01 -5.724639818072319031e-02 -3.171174824237823486e-01 -1.754755154252052307e-02 6.287606433033943176e-03 -1.340295970439910889e-01 -4.366242513060569763e-02 -5.573759600520133972e-02 4.941780585795640945e-03 -2.415401861071586609e-02 2.490195259451866150e-02 6.994955986738204956e-02 1.685981154441833496e-01 -5.516104772686958313e-02 1.644905656576156616e-01 1.534802652895450592e-02 1.712154038250446320e-02 8.802365511655807495e-03 2.547184191644191742e-02 -5.636262521147727966e-02 -1.468698494136333466e-03 -6.131361797451972961e-02 4.185784980654716492e-02 2.228134870529174805e-01 -1.986998133361339569e-02 -1.735952645540237427e-01 -5.916398018598556519e-02 2.030644752085208893e-02 2.177867852151393890e-02 2.238664925098419189e-01 -1.150031015276908875e-01 -5.599527806043624878e-02 -3.613896295428276062e-02 1.256025303155183792e-02 -5.718555673956871033e-02 -6.020270660519599915e-02 1.037526875734329224e-02 1.283126766793429852e-03 -1.360721290111541748e-01 -1.270177811384201050e-01 -6.369172781705856323e-02 -1.974998414516448975e-02 -4.018164426088333130e-02 1.213710661977529526e-02 -1.274705864489078522e-02 4.130809381604194641e-02 -1.994365826249122620e-02 1.300627738237380981e-01 -1.844666898250579834e-01 7.610502094030380249e-02 1.268297880887985229e-01 2.284150384366512299e-02 -4.523048549890518188e-02 1.134482920169830322e-01 -1.333236880600452423e-02 3.394746035337448120e-02 -8.186902105808258057e-02 5.419138818979263306e-02 1.455835253000259399e-02 -5.205916613340377808e-02 1.142508983612060547e-01 -1.274103224277496338e-01 6.728956848382949829e-02 -1.502339392900466919e-01 7.462736964225769043e-02 -1.156602650880813599e-01 -7.560797780752182007e-02 -1.410856992006301880e-01 -1.006030943244695663e-03 7.760667242109775543e-03 9.996963292360305786e-02 -1.637318730354309082e-01 -8.142547309398651123e-02 -3.808170929551124573e-02 8.055446296930313110e-02 7.782188802957534790e-02 -7.386057823896408081e-02 -3.749603405594825745e-02 -5.454918742179870605e-02 9.575429558753967285e-02 1.217209696769714355e-01 -8.503007143735885620e-02 -7.658284902572631836e-02 -4.450404550880193710e-03 7.994858548045158386e-03 5.986673012375831604e-02 7.749731093645095825e-02 2.088719755411148071e-01 -1.233214288949966431e-01 3.236439079046249390e-02 1.498404890298843384e-01 2.058387249708175659e-01 -7.981219887733459473e-02 -1.146955043077468872e-01 -3.633204102516174316e-02 -1.662652343511581421e-01 7.133085280656814575e-02 -8.107607066631317139e-02 -9.400550276041030884e-02 -4.093891754746437073e-02 1.434124410152435303e-01 -4.639149457216262817e-02 2.051288262009620667e-02 -1.968464255332946777e-02 -9.603044390678405762e-02 6.120892241597175598e-02 1.849113702774047852e-01 -1.772828586399555206e-02 9.107598662376403809e-02 -7.099092751741409302e-02 -1.694225072860717773e-01 2.619862183928489685e-02 -1.030999794602394104e-01 -3.031682968139648438e-02 -1.704311929643154144e-02 -7.175234705209732056e-02 2.940611168742179871e-02 -1.237202584743499756e-01 6.501954048871994019e-02 -8.500009030103683472e-02 -4.143262654542922974e-02 9.449151903390884399e-02 -3.579268977046012878e-02 1.427774503827095032e-02 8.010470867156982422e-02 8.901684731245040894e-02 6.554260104894638062e-02 -4.172705858945846558e-02 -1.123634353280067444e-01 -1.342182457447052002e-01 -1.254337187856435776e-02 -8.479162305593490601e-02 6.280785053968429565e-02 -5.068450793623924255e-02 -2.999218739569187164e-02 -6.540741026401519775e-02 -8.048839867115020752e-02 -2.339937025681138039e-03 -1.369092017412185669e-01 -7.051222026348114014e-02 -6.788975000381469727e-02 5.152241140604019165e-02 -1.285486966371536255e-01 -1.088900938630104065e-01 1.042825132608413696e-01 1.876863688230514526e-01 2.163999527692794800e-01
1.050548255443572998e-02 2.033472508192062378e-01 -5.253167822957038879e-02 1.397193036973476410e-02 -1.154924742877483368e-02 1.874641031026840210e-01 1.955485045909881592e-01 -9.737289696931838989e-02 -2.392185851931571960e-02 1.407698243856430054e-01 8.751791715621948242e-02 -3.324763104319572449e-02 -5.884186178445816040e-02 -6.917268503457307816e-03 -8.542340248823165894e-02 7.984749972820281982e-02 1.077069342136383057e-01 1.212390884757041931e-01 -4.068118333816528320e-02 -7.740806788206100464e-02 9.978049993515014648e-02 9.074249118566513062e-02 2.516788840293884277e-01 1.064516603946685791e-01 -1.351641714572906494e-01 -1.227846071124076843e-01 -5.304153263568878174e-02 1.050390228629112244e-01 -5.701371282339096069e-02 -1.321974098682403564e-01 -1.099744960665702820e-01 4.868488013744354248e-02 -7.913539558649063110e-02 2.494887076318264008e-02 -6.318908184766769409e-02 -2.162934467196464539e-02 2.304865606129169464e-02 -7.756971567869186401e-02 9.145672619342803955e-02 -4.091112688183784485e-02 -7.438021898269653320e-02 1.483374834060668945e-02 8.288723975419998169e-02 -6.589660048484802246e-02 7.612090557813644409e-02 -3.887575492262840271e-02 -7.486911863088607788e-02 1.366872992366552353e-02 -1.015095859766006470e-01 5.557468160986900330e-02 -6.041138619184494019e-02 -1.274567395448684692e-01 -2.721324749290943146e-02 -2.807948738336563110e-02 1.452355366200208664e-02 -9.806182235479354858e-02 6.702558696269989014e-02 9.020650759339332581e-03 -6.272962689399719238e-02 8.336827158927917480e-03 1.152679249644279480e-01 -1.251012738794088364e-02 -2.335999161005020142e-01 -8.857071399688720703e-02 -9.623812884092330933e-02 3.287509456276893616e-02 1.982493512332439423e-02 1.399275660514831543e-01 7.940805703401565552e-02 2.001635283231735229e-01 1.422205567359924316e-01 -3.401841968297958374e-02 -3.545065177604556084e-03 -6.732255220413208008e-02 -1.435215920209884644e-01 1.740769147872924805e-01 -2.362648397684097290e-02 1.216900125145912170e-01 9.177305735647678375e-03 -4.601960629224777222e-02 -6.258931756019592285e-02 -1.727649196982383728e-02 -1.956305652856826782e-01 8.593722432851791382e-02 1.063863746821880341e-02 -7.071908563375473022e-02 5.753360223025083542e-03 -1.416680663824081421e-01 3.920301049947738647e-02 -5.285206064581871033e-02 -9.794701635837554932e-02 -1.502038240432739258e-01 6.027851998805999756e-02 1.451355963945388794e-01 3.018311783671379089e-02 1.421241164207458496e-01 -2.276627905666828156e-02 -1.455561257898807526e-02 -6.497661024332046509e-02 4.572254605591297150e-03 -4.812346398830413818e-02 -3.185276873409748077e-03 -4.557052627205848694e-02 -4.014772921800613403e-02 -4.231578204780817032e-03 -2.146669290959835052e-02 3.058184869587421417e-02 3.570443019270896912e-02 -1.221197694540023804e-01 -7.181994616985321045e-02 -1.862933486700057983e-02 -2.704323641955852509e-02 4.956364631652832031e-03 -7.630638033151626587e-02 -1.246395707130432129e-01 3.304262086749076843e-02 1.099378019571304321e-01 -2.348171174526214600e-02 -7.556491345167160034e-02 -6.083587184548377991e-02 -1.190962195396423340e-01 -3.049796447157859802e-02 -7.303408533334732056e-02 -4.222371801733970642e-02 2.079024463891983032e-01 2.319187857210636139e-02 8.345115929841995239e-02 3.789673000574111938e-02 -9.561968035995960236e-03 -1.052206903696060181e-01 6.769666448235511780e-03 1.669705845415592194e-02 1.057529821991920471e-01 -1.049164012074470520e-01 6.827170960605144501e-03 -5.060893297195434570e-02 -4.030874744057655334e-02 2.437305748462677002e-01 5.622527375817298889e-02 1.566839516162872314e-01 6.337930262088775635e-02 -3.598949313163757324e-02 -5.494205281138420105e-02 -1.787321828305721283e-02 -1.827556639909744263e-02 8.347231149673461914e-02 9.476794512011110783e-04 4.610930383205413818e-02 -5.200117453932762146e-02 4.774772748351097107e-02 1.319285333156585693e-01 -1.604538559913635254e-01 -1.319920644164085388e-02 5.174487084150314331e-02 1.325079798698425293e-01 1.238096728920936584e-01 -7.079348713159561157e-02 -2.564741298556327820e-03 -5.591483041644096375e-02 1.727592349052429199e-01 -7.751962635666131973e-03 1.340929698199033737e-02 -2.545385248959064484e-02 -4.067795351147651672e-02 4.358000680804252625e-02 -4.290217161178588867e-02 -1.994313448667526245e-01 2.417433448135852814e-02 1.130395531654357910e-01 -3.722994774580001831e-02 -9.098558872938156128e-02 8.046197891235351562e-02 8.996515721082687378e-02 -1.023716107010841370e-02 9.798640757799148560e-02 2.749573439359664917e-03 -4.458281397819519043e-02 1.274352669715881348e-01 -3.299182653427124023e-02 4.531252011656761169e-02 -1.196891739964485168e-01 7.502216845750808716e-02 8.365895599126815796e-02 -4.017207399010658264e-02 5.138754472136497498e-02 2.104894667863845825e-01 -7.411146536469459534e-03 1.469154562801122665e-02 6.594600528478622437e-02 -9.536456316709518433e-02 -1.156824231147766113e-01 9.043464809656143188e-02 2.474530935287475586e-01 7.340107858180999756e-02 -6.354315578937530518e-02 -5.517985671758651733e-02 -2.018608599901199341e-01 5.219958350062370300e-02 -4.198518022894859314e-02 1.183454021811485291e-01 -3.347807377576828003e-02 -1.367570012807846069e-01 6.669367663562297821e-03 -1.863175816833972931e-02 -1.756275296211242676e-01 5.089496821165084839e-02 6.837254762649536133e-02 6.599527597427368164e-02 5.467063188552856445e-02 -7.351476699113845825e-02 -1.907944232225418091e-01 -5.014001950621604919e-02 -9.167362004518508911e-02 5.274061486124992371e-02 -1.148008853197097778e-01 1.229127347469329834e-01 -4.887687414884567261e-02 -1.020589191466569901e-02 -9.661550819873809814e-02 8.634134195744991302e-03 -2.178419381380081177e-02 4.718324914574623108e-02 -4.500816576182842255e-03 -6.984029710292816162e-02 -7.945661991834640503e-02 8.359342068433761597e-02 3.341430798172950745e-02 1.168875917792320251e-01 6.259669363498687744e-02 -3.065983951091766357e-02 8.003564178943634033e-02 9.178774058818817139e-02 4.403420537710189819e-02 -8.225793391466140747e-02 5.844708159565925598e-02 -9.655192494392395020e-02 2.804606780409812927e-02 -1.117189135402441025e-02 -2.707971632480621338e-02 -3.640931099653244019e-02 7.129255682229995728e-02 1.372680664062500000e-01 3.672472015023231506e-02 1.000248715281486511e-01 7.637036964297294617e-03 -6.562574207782745361e-02 4.898579791188240051e-02 -1.666527241468429565e-01 -1.096276715397834778e-01 -4.239542037248611450e-02 5.505266785621643066e-02 -4.627411067485809326e-02 -1.396438479423522949e-01 -1.160870585590600967e-02 -6.834471225738525391e-02 -5.228582024574279785e-02
-1.090732887387275696e-01 8.956786245107650757e-02 2.715454399585723877e-01 3.216088190674781799e-02 -1.019761990755796432e-02 -1.930683404207229614e-01 7.390436530113220215e-02 1.080831419676542282e-02 -2.120960690081119537e-02 -6.676758825778961182e-02 -2.922499552369117737e-02 7.421019673347473145e-02 6.126048509031534195e-03 -9.875959903001785278e-02 -6.503020972013473511e-02 3.503466397523880005e-02 8.464217931032180786e-02 -1.063963249325752258e-01 1.011520475149154663e-01 1.821376197040081024e-02 1.309070885181427002e-01 6.612477451562881470e-02 -1.515722572803497314e-01 -1.129550486803054810e-01 3.937495499849319458e-02 1.621656417846679688e-01 1.167894303798675537e-01 1.134742051362991333e-01 -2.374992333352565765e-02 6.736599653959274292e-02 -9.773420542478561401e-02 9.963428229093551636e-02 -9.640817344188690186e-02 -2.099150326102972031e-03 -1.510558128356933594e-01 9.926353394985198975e-02 -2.808366715908050537e-02 -3.142777457833290100e-02 1.163433715701103210e-01 -4.199435934424400330e-02 -1.922083497047424316e-01 9.574475139379501343e-02 1.375532057136297226e-02 -6.226978078484535217e-02 -1.070829108357429504e-02 -7.618950307369232178e-02 1.484572440385818481e-01 5.281104147434234619e-02 1.056857500225305557e-02 -1.073396485298871994e-02 4.243161529302597046e-02 3.897161409258842468e-02 -1.321753859519958496e-01 -1.134932190179824829e-01 1.211195588111877441e-01 8.694545924663543701e-02 9.378265589475631714e-02 -9.893141686916351318e-02 4.070727154612541199e-02 -4.839793220162391663e-02 1.774049997329711914e-01 1.144777615991188213e-05 -2.944866940379142761e-02 1.388203352689743042e-01 4.645359888672828674e-02 -1.808982715010643005e-02 -1.964839696884155273e-01 -6.258148699998855591e-02 1.612273603677749634e-02 -4.771275445818901062e-02 -3.239923715591430664e-02 8.276367187500000000e-02 1.387316733598709106e-02 5.630916729569435120e-02 -1.050869352184236050e-03 6.762129813432693481e-02 2.317427657544612885e-02 1.228070557117462158e-01 -1.015481129288673401e-01 8.789436519145965576e-02 -5.889694020152091980e-02 -1.857668347656726837e-02 -1.541934609413146973e-01 1.459299027919769287e-02 1.282229125499725342e-01 2.703206613659858704e-02 -5.871105194091796875e-02 -1.364837735891342163e-01 -6.632779538631439209e-02 1.043669804930686951e-01 -4.797572270035743713e-02 -7.984312251210212708e-03 -4.085031524300575256e-02 -3.377954661846160889e-02 6.813284126110374928e-04 1.000984832644462585e-01 3.937917947769165039e-02 2.876723930239677429e-02 1.059303730726242065e-01 -9.521992504596710205e-02 -8.394277654588222504e-03 1.349525749683380127e-01 2.840379439294338226e-02 -7.698965072631835938e-02 -1.007590889930725098e-01 1.050602924078702927e-02 1.330999881029129028e-01 -2.340649627149105072e-02 -5.839918553829193115e-02 -6.880765408277511597e-02 6.730523705482482910e-02 -4.311766009777784348e-03 4.901058971881866455e-02 1.074991524219512939e-01 4.982342198491096497e-02 5.607735365629196167e-02 -1.436244696378707886e-01 3.487885743379592896e-02 -7.516966760158538818e-02 -1.082367151975631714e-01 1.113410219550132751e-01 -4.873986914753913879e-02 5.353647097945213318e-02 -8.447874337434768677e-02 7.386392354965209961e-02 4.205331951379776001e-02 -6.635227054357528687e-02 8.267261832952499390e-02 -3.052758052945137024e-02 7.034344971179962158e-02 6.118965521454811096e-02 -1.420204527676105499e-02 2.178935974370688200e-04 6.180696561932563782e-02 -9.251481294631958008e-02 5.657109618186950684e-02 8.330120891332626343e-02 1.308424174785614014e-01 1.425296962261199951e-01 -3.452927991747856140e-02 -4.424881562590599060e-02 -6.411650031805038452e-02 -8.479209989309310913e-02 6.196455657482147217e-02 3.230946604162454605e-03 1.772497892379760742e-01 5.928478762507438660e-02 -7.813686132431030273e-02 -6.231572106480598450e-02 -1.580224186182022095e-01 3.694169968366622925e-02 -1.926189213991165161e-01 -5.086400546133518219e-03 -1.050584763288497925e-02 -1.932524889707565308e-01 -8.784917742013931274e-02 -4.132488369941711426e-02 -2.657442353665828705e-02 -3.407960757613182068e-02 4.175238683819770813e-02 -7.669348269701004028e-02 -1.673477739095687866e-01 -3.173348307609558105e-02 -2.043899148702621460e-02 -8.191972970962524414e-02 -1.348560303449630737e-01 6.829678546637296677e-03 -1.914025866426527500e-03 4.007513076066970825e-02 -9.671766310930252075e-03 -2.148386687040328979e-01 -6.759415566921234131e-02 -9.591511636972427368e-02 -6.451657414436340332e-02 3.708349307999014854e-03 1.649991236627101898e-02 -1.471553891897201538e-01 -1.416059285402297974e-01 -4.703353345394134521e-02 2.719082683324813843e-02 1.485580652952194214e-01 7.906840741634368896e-02 -9.849502146244049072e-02 1.511185616254806519e-01 -5.698568746447563171e-02 6.808972358703613281e-02 -9.290637075901031494e-02 8.602385222911834717e-02 1.855755783617496490e-02 -8.382938802242279053e-03 5.498424917459487915e-02 -7.606361061334609985e-02 -1.968185752630233765e-01 3.521857038140296936e-02 -5.567389354109764099e-02 3.809320274740457535e-03 -8.992031961679458618e-02 -3.224001079797744751e-02 8.294347673654556274e-02 -2.246690392494201660e-01 1.145759671926498413e-01 -1.100444570183753967e-01 1.278436034917831421e-01 1.342715974897146225e-02 2.550745755434036255e-02 1.077130362391471863e-01 1.301225721836090088e-01 -5.428471788763999939e-02 2.379582822322845459e-02 -1.365643143653869629e-01 5.482961237430572510e-02 -7.414998859167098999e-02 -4.687799885869026184e-02 8.405645936727523804e-02 5.090272985398769379e-03 -1.010551229119300842e-01 -5.501823872327804565e-02 -1.103700771927833557e-01 7.038383185863494873e-02 -4.542550444602966309e-02 -1.049544811248779297e-01 -1.320773661136627197e-01 -1.226804032921791077e-01 9.868846833705902100e-02 2.971747890114784241e-02 -3.836261853575706482e-02 1.652278304100036621e-01 7.926523685455322266e-02 3.125762194395065308e-02 -9.573563933372497559e-02 -7.623677700757980347e-02 7.185985334217548370e-03 -4.033635184168815613e-02 1.312596797943115234e-01 3.429980203509330750e-02 -4.642168805003166199e-02 -2.707436867058277130e-02 -1.272273659706115723e-01 6.461723148822784424e-02 8.580605685710906982e-02 -2.093951962888240814e-02 -3.065397962927818298e-02 -3.511827811598777771e-02 2.308573424816131592e-01 7.749028503894805908e-02 -8.655369281768798828e-02 2.795351855456829071e-02 -1.786883920431137085e-02 -5.682381987571716309e-02 -6.741270422935485840e-02 8.535999804735183716e-02 -1.122715324163436890e-01 -5.309883505105972290e-02 1.368598546832799911e-02 8.592499792575836182e-02 8.083007298409938812e-03
-1.031872779130935669e-01 -5.588590726256370544e-02 -1.159438118338584900e-01 1.215586289763450623e-01 -1.154496967792510986e-01 -2.344790101051330566e-02 -2.133965045213699341e-01 2.465103752911090851e-02 -9.104391932487487793e-02 9.266885370016098022e-02 -9.464445710182189941e-02 2.214046381413936615e-02 1.244743093848228455e-01 1.266622245311737061e-01 1.842675358057022095e-02 6.644069403409957886e-02 -1.361868083477020264e-01 -9.084727615118026733e-02 -3.390623629093170166e-02 -2.223148569464683533e-02 1.165321841835975647e-01 -7.662627100944519043e-02 -2.469634264707565308e-02 9.832987934350967407e-02 -2.649416327476501465e-01 1.130153089761734009e-01 2.954431064426898956e-02 -4.808517172932624817e-02 -6.069920212030410767e-02 -1.760313063859939575e-01 -1.501080095767974854e-01 -1.217818781733512878e-01 4.795971512794494629e-02 4.117790982127189636e-02 -6.251218914985656738e-02 4.140377417206764221e-02 8.710166066884994507e-02 -8.972926437854766846e-02 3.019393607974052429e-02 5.527213588356971741e-02 7.401599735021591187e-02 -1.656185835599899292e-02 -6.800322234630584717e-02 6.569784134626388550e-02 -9.466382116079330444e-02 1.150587014853954315e-02 -9.860015660524368286e-02 -5.448453873395919800e-02 -3.267107822466641665e-04 -6.849288940429687500e-02 4.970832541584968567e-02 -9.379640966653823853e-02 -8.170677721500396729e-02 -7.579337060451507568e-02 2.586370892822742462e-02 4.672770202159881592e-02 5.265923216938972473e-02 7.407699525356292725e-02 -6.763114780187606812e-02 4.932662844657897949e-02 1.556239426136016846e-01 -1.671759188175201416e-01 -4.483071342110633850e-02 -4.351245984435081482e-02 2.049022540450096130e-02 6.539518386125564575e-02 3.412678837776184082e-02 -1.769745498895645142e-01 -8.157685399055480957e-02 5.780085548758506775e-02 1.160326898097991943e-01 3.392969444394111633e-02 -9.281303733587265015e-02 3.227701038122177124e-02 -1.479902267456054688e-01 -7.939751446247100830e-02 -1.792004257440567017e-01 -1.332798507064580917e-02 4.510520398616790771e-02 -5.087283626198768616e-02 4.043496027588844299e-02 1.959167234599590302e-02 6.699577718973159790e-02 6.619802117347717285e-02 1.111853681504726410e-02 -1.729768216609954834e-01 1.148045882582664490e-01 3.808520734310150146e-02 -4.192971438169479370e-02 1.178494561463594437e-02 3.611819818615913391e-02 -1.998293250799179077e-01 -2.175855636596679688e-02 -1.089683845639228821e-01 -1.156097277998924255e-02 -1.316264420747756958e-01 1.212997920811176300e-02 4.226034879684448242e-02 -1.807995140552520752e-03 4.829757660627365112e-02 4.586778581142425537e-03 1.450224965810775757e-01 -4.029132425785064697e-02 8.232296258211135864e-02 9.290762990713119507e-02 5.229535046964883804e-03 -4.365247115492820740e-02 5.995513871312141418e-02 -2.560044452548027039e-02 5.107766389846801758e-02 -2.098961919546127319e-02 -9.896789491176605225e-02 -9.804975986480712891e-02 -2.822329103946685791e-01 -2.096041571348905563e-03 1.013066470623016357e-01 4.979849606752395630e-02 -3.249648958444595337e-02 -7.517363876104354858e-02 6.471977382898330688e-02 2.955063991248607635e-02 9.009511768817901611e-02 3.160438686609268188e-02 -1.304049603641033173e-02 -7.128083705902099609e-02 1.509719621390104294e-02 -8.726020902395248413e-02 1.044898852705955505e-01 -2.887097001075744629e-02 -6.636603921651840210e-02 -8.448331803083419800e-02 -6.158111989498138428e-02 -3.392234072089195251e-02 -5.709147080779075623e-02 -1.384518742561340332e-01 -8.433958888053894043e-02 -6.946540623903274536e-02 7.748277392238378525e-03 -2.471223287284374237e-02 1.206937283277511597e-01 -2.584982290863990784e-02 7.382845878601074219e-02 -1.006121709942817688e-01 9.479034692049026489e-02 1.682389825582504272e-01 1.382515858858823776e-02 4.571603611111640930e-03 -1.113351508975028992e-01 1.462846100330352783e-01 9.280289709568023682e-02 2.918568253517150879e-02 2.244562096893787384e-02 -1.368104480206966400e-02 -1.377122383564710617e-02 8.615403436124324799e-03 -6.214784830808639526e-02 -1.589776724576950073e-01 -6.748772691935300827e-03 2.806904911994934082e-02 2.326338924467563629e-02 -9.743861109018325806e-02 8.358844369649887085e-02 2.331231683492660522e-01 -1.185451727360486984e-02 7.103602588176727295e-02 1.866278052330017090e-01 -3.691121935844421387e-02 -1.233683526515960693e-01 -5.300113465636968613e-03 4.122241958975791931e-02 -1.244133785367012024e-01 9.767831303179264069e-03 2.052528709173202515e-01 -1.568855904042720795e-02 6.019522249698638916e-02 -7.572764158248901367e-02 2.310356311500072479e-02 -1.691097915172576904e-01 2.769552171230316162e-02 5.088064819574356079e-02 1.020602956414222717e-01 -1.165447607636451721e-01 -7.678525894880294800e-02 5.416151136159896851e-02 1.413307338953018188e-01 -7.579346746206283569e-02 -1.074143797159194946e-01 -1.545532643795013428e-01 -3.623433411121368408e-02 -2.786503918468952179e-02 1.220546066761016846e-01 3.133558854460716248e-02 -2.128391563892364502e-01 6.409947574138641357e-02 -5.169537290930747986e-02 -1.390410959720611572e-01 -9.129805862903594971e-02 3.452317789196968079e-03 -5.341499671339988708e-02 -3.417308628559112549e-02 -2.421164698898792267e-02 4.071115702390670776e-02 -8.068907260894775391e-02 -8.588235080242156982e-02 4.619642160832881927e-03 1.964824646711349487e-02 1.755341887474060059e-01 -7.949771732091903687e-02 -3.244633227586746216e-02 1.172708198428153992e-01 3.241967037320137024e-02 5.861927196383476257e-02 1.915349438786506653e-02 8.162074722349643707e-03 9.149926900863647461e-02 -1.471839547157287598e-01 6.112522911280393600e-03 1.524409651756286621e-02 -1.325667500495910645e-01 -7.465714216232299805e-02 4.915079474449157715e-02 6.278777867555618286e-02 6.174831837415695190e-02 -5.924667418003082275e-02 -3.077021241188049316e-02 -7.917115092277526855e-02 5.775110423564910889e-02 -8.622297644615173340e-02 -6.823545694351196289e-02 1.319060921669006348e-01 -1.763402670621871948e-02 -6.546428054571151733e-02 -1.802862733602523804e-01 1.639126539230346680e-01 3.907471429556608200e-03 -2.269241772592067719e-02 1.027183383703231812e-01 6.533695012331008911e-02 2.242098562419414520e-02 2.068717405200004578e-02 1.124641741625964642e-03 1.207211837172508240e-01 3.812534036114811897e-03 -8.016835153102874756e-02 -1.905409246683120728e-01 4.865422844886779785e-02 1.181485205888748169e-01 -8.194204419851303101e-02 -2.137562930583953857e-01 1.976782688871026039e-03 -4.297779500484466553e-02 -1.053913459181785583e-01 1.709179282188415527e-01 -7.864594459533691406e-02 2.638381160795688629e-02 1.171933338046073914e-01
5.462732538580894470e-02 -7.589799165725708008e-02 1.424409151077270508e-01 1.017689984291791916e-02 -2.553927525877952576e-02 7.179781049489974976e-02 -5.549575388431549072e-02 2.586845774203538895e-03 1.617559790611267090e-01 -1.815564632415771484e-01 9.449750930070877075e-02 1.871965825557708740e-02 8.618030697107315063e-02 -2.303632674738764763e-03 3.750751167535781860e-02 -8.266324549913406372e-02 6.424238532781600952e-02 2.876183763146400452e-02 4.028722178190946579e-03 -7.383237779140472412e-02 -7.190260104835033417e-03 8.815289288759231567e-02 -6.062481179833412170e-02 2.994770416989922523e-03 1.421473175287246704e-02 -7.313400506973266602e-02 2.074400484561920166e-01 6.163598969578742981e-03 3.025682643055915833e-02 -9.040612727403640747e-02 3.084018360823392868e-03 -6.748028099536895752e-02 1.225705351680517197e-02 7.339094579219818115e-02 2.020627558231353760e-01 1.812222152948379517e-01 -4.984482750296592712e-02 4.532158374786376953e-02 -1.140897511504590511e-03 -1.607498675584793091e-01 5.001602228730916977e-03 5.840432643890380859e-02 -6.443626433610916138e-02 -8.164195716381072998e-02 9.678550809621810913e-02 9.299834072589874268e-02 -6.487809121608734131e-02 -9.856678545475006104e-02 -1.852386631071567535e-02 7.577242702245712280e-02 -9.814608842134475708e-02 -6.982316263020038605e-03 -1.899052858352661133e-01 3.041835688054561615e-02 1.063074842095375061e-01 -4.032705724239349365e-02 -1.252912878990173340e-01 4.914377257227897644e-02 1.014652773737907410e-01 -4.936052113771438599e-02 -1.697339266538619995e-01 1.344451308250427246e-01 3.535189852118492126e-02 2.119584381580352783e-02 -5.412111803889274597e-02 -7.849636673927307129e-02 -6.668487191200256348e-02 -1.587200094945728779e-04 6.022800505161285400e-02 1.660116314888000488e-01 -1.278087496757507324e-01 -6.545669585466384888e-02 5.242950841784477234e-02 6.005721166729927063e-02 -4.378675017505884171e-03 -6.137114763259887695e-02 -4.137040674686431885e-02 7.409357279539108276e-02 5.578366667032241821e-02 3.619615687057375908e-03 -1.092692315578460693e-01 -2.602195739746093750e-01 4.133706167340278625e-02 5.561402812600135803e-02 9.583048522472381592e-02 -2.613597735762596130e-02 3.574004629626870155e-03 -4.121507331728935242e-02 2.802315168082714081e-02 5.602605640888214111e-02 1.568485349416732788e-01 -9.816171973943710327e-02 1.041668802499771118e-01 8.504879474639892578e-02 1.825653761625289917e-02 -2.312348969280719757e-02 1.372754275798797607e-01 4.985012859106063843e-02 -1.451696455478668213e-01 -3.847027197480201721e-03 -7.232122868299484253e-02 -3.605192061513662338e-03 1.606067717075347900e-01 6.627891212701797485e-03 9.719691425561904907e-02 8.942777663469314575e-02 -5.698399245738983154e-02 -5.128811299800872803e-02 -4.653838649392127991e-02 -1.216429844498634338e-01 -5.662077665328979492e-02 -1.434720703400671482e-03 -6.730957329273223877e-02 1.006986871361732483e-01 -1.501527731306850910e-03 -1.108374893665313721e-01 -6.004362180829048157e-02 9.969452023506164551e-02 -2.263041585683822632e-02 4.038018733263015747e-02 1.535179018974304199e-01 1.243872717022895813e-01 -4.857405275106430054e-02 -6.936611980199813843e-02 -1.408371031284332275e-01 3.894097357988357544e-02 -9.731845557689666748e-02 -7.657600566744804382e-03 -1.027410030364990234e-01 -1.020689830183982849e-01 -3.677171841263771057e-02 -1.735473424196243286e-02 -7.241257280111312866e-02 1.915444061160087585e-02 1.217712238430976868e-01 -1.321301907300949097e-01 -2.725629694759845734e-02 -8.021739311516284943e-03 -3.477006778120994568e-02 7.809423655271530151e-02 9.495858103036880493e-02 -1.615397930145263672e-01 -1.462275832891464233e-01 7.701081782579421997e-02 1.874793916940689087e-01 -1.985164731740951538e-02 5.233760178089141846e-02 -1.971703916788101196e-01 -6.913826335221529007e-03 -1.862669587135314941e-01 5.514486879110336304e-02 1.562236249446868896e-01 -2.186785638332366943e-02 1.682101637125015259e-01 -7.478875108063220978e-03 1.292576938867568970e-01 1.026038359850645065e-02 -9.278962016105651855e-02 1.466703861951828003e-01 9.162627160549163818e-02 -5.309353116899728775e-03 -1.047747675329446793e-02 1.074641868472099304e-01 -1.525069586932659149e-02 2.854054421186447144e-02 -1.416895445436239243e-02 1.035973951220512390e-01 -4.104226082563400269e-02 3.995229490101337433e-03 -9.799895435571670532e-02 -2.434371784329414368e-02 -4.358498379588127136e-02 -2.062874734401702881e-01 4.514576122164726257e-02 2.975862286984920502e-02 -8.126793801784515381e-02 6.825219839811325073e-03 -2.660840563476085663e-02 6.097364798188209534e-02 3.497380390763282776e-02 9.933997690677642822e-02 5.351368803530931473e-03 -6.093445047736167908e-02 -8.039702661335468292e-03 5.367118120193481445e-02 -7.658361643552780151e-02 3.910031635314226151e-03 2.214972488582134247e-02 1.356165409088134766e-01 5.867125838994979858e-02 -8.436522632837295532e-02 -7.296499609947204590e-02 1.120254173874855042e-01 1.295525878667831421e-01 -1.879973262548446655e-01 -9.630995243787765503e-02 3.160456568002700806e-02 7.694409042596817017e-02 -5.866280570626258850e-02 5.698530003428459167e-03 -3.042032569646835327e-02 -9.114365279674530029e-02 7.965786010026931763e-02 -1.253445893526077271e-01 8.090447634458541870e-02 1.094552502036094666e-02 -1.495679169893264771e-01 -9.174671024084091187e-02 5.442464724183082581e-02 1.205189805477857590e-02 -5.588909611105918884e-02 -3.682769089937210083e-02 -5.190223455429077148e-02 -4.470175877213478088e-02 6.142376735806465149e-02 -2.244766615331172943e-02 1.564840786159038544e-02 8.339636027812957764e-02 -1.005845367908477783e-01 4.922601580619812012e-02 -1.098561435937881470e-01 1.920512765645980835e-01 6.085657328367233276e-02 1.090762242674827576e-01 1.153687387704849243e-01 6.928732991218566895e-02 -4.409692436456680298e-02 1.965905167162418365e-02 7.313989847898483276e-02 -2.783438861370086670e-01 -5.394509807229042053e-02 2.925143204629421234e-02 4.477376118302345276e-02 9.264159202575683594e-02 -1.097749099135398865e-01 5.661811307072639465e-02 -1.063593626022338867e-01 -3.102266974747180939e-02 5.046354979276657104e-02 8.543581515550613403e-02 6.054369732737541199e-02 -1.580165028572082520e-01 -3.596524149179458618e-02 1.185338012874126434e-02 -9.991787374019622803e-02 6.426269561052322388e-02 2.268171906471252441e-01 -8.192403614521026611e-02 -6.969948112964630127e-02 3.663736209273338318e-02 3.145939903333783150e-03 1.928501762449741364e-02 3.477495536208152771e-02 -1.275060977786779404e-02 -2.981148473918437958e-02 9.173199534416198730e-03
7.451184839010238647e-02 4.454379901289939880e-02 -1.278999960049986839e-03 -6.307400763034820557e-02 2.779388055205345154e-02 3.258251771330833435e-02 -2.997407317161560059e-02 7.511445879936218262e-02 2.413592860102653503e-02 -6.350592710077762604e-03 1.407078951597213745e-01 -6.855968385934829712e-02 1.094495877623558044e-01 -6.220795586705207825e-02 1.285486370325088501e-01 -7.143231481313705444e-02 -3.151530027389526367e-02 3.059578500688076019e-02 -4.053911566734313965e-02 1.031565591692924500e-01 -3.717599809169769287e-02 -1.235617175698280334e-01 6.992563605308532715e-02 -1.723354458808898926e-01 2.310414612293243408e-02 -1.445093899965286255e-01 9.130071848630905151e-03 -3.233120590448379517e-02 -3.435045108199119568e-02 -6.932724267244338989e-02 4.583355039358139038e-02 4.879334568977355957e-02 4.514852911233901978e-02 5.678785964846611023e-02 3.566967323422431946e-02 2.955624600872397423e-03 3.371809376403689384e-03 -8.958573639392852783e-02 -4.392873495817184448e-03 9.336589276790618896e-02 4.067416489124298096e-02 -9.207528829574584961e-02 -1.866430416703224182e-02 8.680720627307891846e-02 -7.850401103496551514e-03 -1.152991652488708496e-01 -1.202996000647544861e-01 -6.271388381719589233e-02 1.252462565898895264e-01 2.513960003852844238e-02 2.201593667268753052e-01 -2.005056142807006836e-01 4.043319448828697205e-02 -1.719946414232254028e-01 -2.456644549965858459e-02 -7.521674782037734985e-02 -5.015134811401367188e-02 5.468652769923210144e-02 -2.393385916948318481e-01 1.773410290479660034e-01 2.971213683485984802e-02 -2.136958763003349304e-02 1.018131598830223083e-01 2.579354494810104370e-02 -7.908202707767486572e-03 5.980884656310081482e-02 2.444536238908767700e-02 -9.083186835050582886e-02 -1.122833043336868286e-02 -1.570743471384048462e-01 -1.264997571706771851e-01 -1.567810326814651489e-01 -1.980298385024070740e-02 3.030815534293651581e-02 -8.312654495239257812e-02 -1.403626501560211182e-01 5.663963779807090759e-02 6.603613495826721191e-02 2.660759538412094116e-02 -1.315973550081253052e-01 -1.469946652650833130e-01 -6.619678437709808350e-02 -6.612805277109146118e-02 -1.414776295423507690e-01 -7.319092005491256714e-02 1.436568051576614380e-02 -6.719329208135604858e-02 8.527862839400768280e-03 -1.162583194673061371e-02 2.457950497046113014e-03 4.861950129270553589e-02 1.430163234472274780e-01 1.119813397526741028e-01 -1.363521628081798553e-02 -1.048904433846473694e-01 5.769902467727661133e-02 -1.254618018865585327e-01 -4.041403159499168396e-02 -5.217755213379859924e-02 8.232633769512176514e-02 -7.588759809732437134e-02 1.629787087440490723e-01 1.210316866636276245e-01 6.893179565668106079e-02 -1.177431121468544006e-01 1.221858896315097809e-02 -1.093055754899978638e-01 5.804923176765441895e-02 -5.125842057168483734e-03 1.302991509437561035e-01 2.760266698896884918e-02 3.392419964075088501e-02 9.698677458800375462e-04 5.217955633997917175e-02 3.170729801058769226e-02 -7.114142179489135742e-02 -1.410467177629470825e-01 -1.742567494511604309e-02 -2.410744549706578255e-03 -2.109835855662822723e-02 -4.294155538082122803e-02 -1.486799418926239014e-01 6.820303201675415039e-02 -1.075822487473487854e-01 8.464092761278152466e-02 -8.247715421020984650e-03 2.540338318794965744e-03 -1.262865662574768066e-01 -6.762215495109558105e-02 4.313388839364051819e-02 -7.259706407785415649e-02 -8.124527335166931152e-02 4.671820625662803650e-02 -1.373276710510253906e-01 1.588017046451568604e-01 6.268765032291412354e-02 -1.296070218086242676e-01 1.272833794355392456e-01 3.455545380711555481e-02 2.302016317844390869e-02 -3.648801520466804504e-02 -9.917993843555450439e-02 -1.027681604027748108e-01 1.945755258202552795e-02 -7.975515909492969513e-03 6.227581948041915894e-02 4.822490736842155457e-02 1.473861373960971832e-02 -3.616135194897651672e-02 -4.706770181655883789e-02 8.616406470537185669e-02 -1.139136105775833130e-01 -5.257377400994300842e-02 7.425072044134140015e-02 -1.496030539274215698e-01 8.186163008213043213e-02 -3.425897657871246338e-02 -1.099090799689292908e-01 -4.658104851841926575e-02 3.832408040761947632e-02 -2.595569565892219543e-02 -3.475458128377795219e-03 -8.942699432373046875e-02 -8.578120917081832886e-02 -1.380284279584884644e-01 -6.491637229919433594e-02 -1.490616146475076675e-02 3.706884011626243591e-02 1.304265484213829041e-02 -6.976202130317687988e-02 4.048186913132667542e-02 -2.735018916428089142e-02 -4.296240955591201782e-02 -8.672798424959182739e-02 -6.511854380369186401e-02 3.068168088793754578e-02 -2.096329033374786377e-01 -1.726331561803817749e-02 -8.093718439340591431e-02 -8.657575398683547974e-02 -7.147055119276046753e-02 1.449336707592010498e-01 -9.941577911376953125e-02 -6.668520718812942505e-02 -2.217179164290428162e-02 -5.004567280411720276e-02 -8.887778967618942261e-02 -1.163124963641166687e-01 1.372391264885663986e-02 6.583609431982040405e-02 -4.984279349446296692e-02 1.919378712773323059e-02 1.766436547040939331e-01 1.252207309007644653e-01 -2.130717337131500244e-01 1.329499483108520508e-02 -4.499834496527910233e-03 -1.089253872632980347e-01 -9.934272617101669312e-02 -1.256028413772583008e-01 -6.018735468387603760e-03 -8.287645876407623291e-02 -1.112900078296661377e-01 -3.944807872176170349e-02 -4.014686122536659241e-02 4.805022478103637695e-02 6.246207281947135925e-02 7.486148178577423096e-02 -3.804260119795799255e-02 1.949319057166576385e-02 4.027933254837989807e-02 1.423337757587432861e-01 8.761127293109893799e-02 -2.638011872768402100e-01 6.189654814079403877e-04 -7.154992222785949707e-02 8.258412778377532959e-02 8.585618436336517334e-02 5.381537973880767822e-02 1.625119894742965698e-01 7.417181879281997681e-02 3.385882079601287842e-02 5.361137166619300842e-02 8.783807605504989624e-02 3.800797462463378906e-02 -2.227703928947448730e-01 -4.604547284543514252e-03 -2.236160263419151306e-02 3.550322353839874268e-02 1.891036629676818848e-01 -2.036019787192344666e-02 -6.628396362066268921e-02 -2.076153159141540527e-01 1.649221479892730713e-01 5.588653311133384705e-02 -1.078555211424827576e-01 -8.633872121572494507e-02 1.790216565132141113e-01 -1.477597504854202271e-01 -1.181297078728675842e-01 9.579956531524658203e-02 1.100578233599662781e-01 -1.692791730165481567e-01 1.058762073516845703e-01 9.026847779750823975e-02 -8.123678155243396759e-03 9.568018466234207153e-02 -1.424736529588699341e-01 9.509176015853881836e-02 -3.230057656764984131e-02 -1.052952855825424194e-01 1.567758247256278992e-02 -4.482146352529525757e-02 -8.133411407470703125e-02 3.986203670501708984e-02 -9.982536733150482178e-02
7.834517210721969604e-02 5.992302671074867249e-02 -6.209299713373184204e-02 4.216397926211357117e-02 -1.151725277304649353e-01 4.028190672397613525e-02 4.420651495456695557e-02 -1.008828952908515930e-01 2.132276445627212524e-01 1.917791925370693207e-02 9.555202722549438477e-02 -4.247545450925827026e-02 4.528716579079627991e-02 1.536018401384353638e-01 9.693705290555953979e-02 -4.713444411754608154e-02 -4.149407893419265747e-02 -2.033157646656036377e-02 4.386856034398078918e-02 -8.382849395275115967e-02 6.591446697711944580e-02 -5.416324827820062637e-03 2.267502248287200928e-02 -1.267311424016952515e-01 -3.720968589186668396e-02 8.496776968240737915e-02 9.806461632251739502e-02 6.600990891456604004e-02 4.574751108884811401e-02 -1.263269037008285522e-01 3.693090053275227547e-03 4.552352800965309143e-02 9.447554498910903931e-02 -3.256903216242790222e-02 -6.799095310270786285e-03 -1.040363535284996033e-01 1.313471943140029907e-01 -1.599204540252685547e-01 -6.718944013118743896e-02 -6.016348022967576981e-03 1.684560440480709076e-02 -2.329954691231250763e-02 5.980689823627471924e-02 -1.065765097737312317e-01 -7.406520098447799683e-02 -9.640964120626449585e-02 1.483747810125350952e-01 -9.709361940622329712e-02 -1.335138678550720215e-01 -1.770975589752197266e-01 1.804143562912940979e-02 4.931716993451118469e-02 -9.991547465324401855e-02 -1.463611703366041183e-02 -1.823578476905822754e-01 -1.394109576940536499e-01 -2.124167531728744507e-01 1.379324197769165039e-01 -1.232879981398582458e-02 1.057679429650306702e-01 -1.027371734380722046e-02 -6.398542970418930054e-02 -1.098156198859214783e-01 7.055824249982833862e-02 -1.769592911005020142e-01 -3.748997300863265991e-02 5.876689031720161438e-02 -1.089024022221565247e-01 -1.249442715197801590e-02 4.372282698750495911e-02 -6.849271059036254883e-02 1.379190534353256226e-01 -3.592896834015846252e-02 -5.934496968984603882e-02 8.503435552120208740e-02 -5.998942628502845764e-02 -9.878975339233875275e-03 -1.177995204925537109e-01 -7.757807616144418716e-03 -7.660642266273498535e-02 6.034798920154571533e-02 4.654990043491125107e-03 -1.883970573544502258e-02 4.367861151695251465e-02 -6.278706341981887817e-02 6.570965051651000977e-02 -2.497187852859497070e-01 3.534774109721183777e-02 7.493475079536437988e-02 2.322381585836410522e-01 -2.568077482283115387e-02 -1.013184264302253723e-01 9.667800739407539368e-03 -6.092285364866256714e-02 -1.966733299195766449e-02 1.060819923877716064e-01 2.748418366536498070e-03 4.567239060997962952e-02 1.151270791888237000e-01 9.072287380695343018e-02 -6.333912909030914307e-02 -9.645724669098854065e-03 1.667539030313491821e-01 8.040316402912139893e-02 6.543748825788497925e-02 -1.189960539340972900e-01 1.354516893625259399e-01 -2.022163383662700653e-02 1.180177461355924606e-02 -1.056127622723579407e-01 -6.415908038616180420e-02 1.000761166214942932e-01 1.022008508443832397e-01 -2.321635745465755463e-02 4.829655587673187256e-02 -1.747234165668487549e-02 -7.889064401388168335e-02 -1.285531818866729736e-01 4.923562332987785339e-02 -1.104182098060846329e-02 -1.834412217140197754e-01 -6.155869364738464355e-02 5.378549173474311829e-02 4.558332264423370361e-02 -1.015259027481079102e-01 -4.235514625906944275e-02 1.843886673450469971e-01 -5.003008991479873657e-02 -3.788740932941436768e-02 -5.665281414985656738e-02 -9.185173548758029938e-03 3.087534010410308838e-02 2.582959085702896118e-02 -1.386244148015975952e-01 1.148084327578544617e-01 -8.255196362733840942e-02 -1.665949076414108276e-01 2.262221090495586395e-02 1.126188039779663086e-01 4.956990852952003479e-02 -5.727267637848854065e-02 4.072664305567741394e-02 4.804937634617090225e-03 -2.096181958913803101e-01 -1.409888863563537598e-01 -3.072237595915794373e-02 5.060171708464622498e-03 1.645785197615623474e-02 -1.359836161136627197e-01 1.891582645475864410e-02 1.406164839863777161e-02 1.025416105985641479e-01 -3.865553066134452820e-02 -2.052835077047348022e-01 1.499136537313461304e-01 -9.730834513902664185e-02 -1.573734730482101440e-02 -2.972100302577018738e-02 2.013347670435905457e-02 -1.382320467382669449e-02 -1.336507052183151245e-01 -1.239440962672233582e-01 -6.953581422567367554e-02 9.113491326570510864e-02 -3.729303181171417236e-02 -3.966321051120758057e-02 -1.386689767241477966e-02 -3.408450260758399963e-02 1.041041538119316101e-01 -1.043255031108856201e-01 6.590881943702697754e-02 2.455032616853713989e-02 7.016480714082717896e-02 6.001182645559310913e-02 -9.819675981998443604e-02 -1.915170624852180481e-02 -1.105973124504089355e-01 -2.461815485730767250e-03 4.204623028635978699e-02 -9.252537786960601807e-02 8.881098777055740356e-02 3.914267197251319885e-02 1.444167941808700562e-01 3.502427414059638977e-02 6.985613610595464706e-03 -9.391088783740997314e-02 1.391611248254776001e-01 -4.839544370770454407e-02 6.556442379951477051e-02 1.899580098688602448e-02 -2.881375141441822052e-02 -3.474092483520507812e-02 -1.391847878694534302e-01 4.291116446256637573e-02 -1.121466159820556641e-01 -1.116588562726974487e-01 6.258939951658248901e-02 -3.802704811096191406e-02 3.949745744466781616e-02 9.534427523612976074e-02 -6.155916489660739899e-03 -1.139150708913803101e-01 5.871804431080818176e-02 -1.222520694136619568e-01 2.247698232531547546e-02 -8.049362152814865112e-02 -7.477170974016189575e-02 9.888368844985961914e-02 -1.792031573131680489e-03 4.372498765587806702e-02 5.477963481098413467e-03 7.904154807329177856e-02 -1.002491191029548645e-01 2.379328012466430664e-02 -1.169877275824546814e-01 -1.581128500401973724e-02 2.146575748920440674e-01 -5.333520006388425827e-03 -3.116286918520927429e-02 -1.266795247793197632e-01 3.536499291658401489e-02 -1.546809077262878418e-01 -1.160457655787467957e-01 1.388238072395324707e-01 1.885890215635299683e-01 -2.656333707273006439e-02 8.775880187749862671e-02 -1.827155239880084991e-02 7.421579957008361816e-02 7.087306119501590729e-03 -4.256668314337730408e-02 4.728764295578002930e-02 1.540139317512512207e-02 4.365992546081542969e-02 -9.967947006225585938e-02 1.168047040700912476e-01 5.574044957756996155e-02 -1.254319995641708374e-01 3.742926195263862610e-02 -2.338953316211700439e-02 -8.134105801582336426e-02 -5.770053714513778687e-02 5.640837550163269043e-02 -4.885131493210792542e-02 -9.091921895742416382e-02 -7.547997683286666870e-02 2.137836627662181854e-02 -9.990386664867401123e-02 -3.424644097685813904e-02 -8.370791375637054443e-02 -4.848313704133033752e-02 -9.708680212497711182e-02 1.650419980287551880e-01 3.552444279193878174e-02 -1.073599532246589661e-01 5.888575688004493713e-02
2.798694558441638947e-02 3.787675499916076660e-02 1.607213318347930908e-01 -1.004154309630393982e-01 -4.184430092573165894e-02 1.461507868953049183e-03 7.777025923132896423e-03 2.185921184718608856e-02 -1.576434634625911713e-02 1.327175199985504150e-01 9.191841632127761841e-02 -1.621234044432640076e-02 7.764662057161331177e-02 -1.374099254608154297e-01 2.224344201385974884e-02 -9.138116985559463501e-02 -5.712483078241348267e-02 -4.155772179365158081e-02 9.444808959960937500e-02 -4.910999536514282227e-02 2.082137912511825562e-01 -4.222196713089942932e-02 -1.040814071893692017e-01 -6.524619460105895996e-02 1.221402455121278763e-02 1.305857114493846893e-02 -5.554422363638877869e-02 3.774863481521606445e-02 -1.686073839664459229e-01 4.352992027997970581e-02 -1.162360310554504395e-01 -2.672296948730945587e-02 1.142421364784240723e-01 1.399251967668533325e-01 8.188252896070480347e-02 4.634096845984458923e-02 3.795642778277397156e-02 -3.227057307958602905e-02 -7.867242395877838135e-02 8.802675455808639526e-02 2.491376828402280807e-03 -1.128342449665069580e-01 -2.115997076034545898e-01 -1.032019108533859253e-01 -1.937954425811767578e-01 4.849818651564419270e-04 -7.751347869634628296e-02 -2.105530165135860443e-02 -1.202453020960092545e-02 9.758018702268600464e-02 1.084234416484832764e-01 1.080037653446197510e-02 -3.471432253718376160e-02 2.160489745438098907e-02 3.061377070844173431e-02 1.570928096771240234e-01 1.315644085407257080e-01 -7.147155702114105225e-02 1.479570986703038216e-03 -2.610037662088871002e-02 9.116615401580929756e-04 -1.637804210186004639e-01 1.949306949973106384e-02 -1.846746541559696198e-02 -2.136784791946411133e-01 -1.327196061611175537e-01 1.503101587295532227e-01 1.725533753633499146e-01 8.555721491575241089e-02 -1.606195718050003052e-01 1.202981825917959213e-02 3.001535311341285706e-02 -8.931612968444824219e-02 8.913499116897583008e-02 -2.605881309136748314e-03 -6.184384599328041077e-02 1.676476150751113892e-01 -4.619348421692848206e-02 1.222943291068077087e-01 2.122422307729721069e-01 -8.916505426168441772e-02 6.068770214915275574e-02 7.496163994073867798e-02 -6.430423259735107422e-02 -1.915711909532546997e-02 -6.358275562524795532e-02 6.823483854532241821e-02 -1.107344180345535278e-01 6.121074315160512924e-03 -2.279623597860336304e-02 1.352284401655197144e-01 -2.928825654089450836e-02 1.477784477174282074e-02 -1.502551371231675148e-03 -2.084514312446117401e-02 1.584915071725845337e-02 -9.609413146972656250e-02 -1.032280549407005310e-01 -2.230469690402969718e-04 -2.756737358868122101e-02 -1.011263132095336914e-01 -1.359152048826217651e-01 -9.632762521505355835e-02 -3.617786243557929993e-02 7.345680613070726395e-03 1.301410943269729614e-01 -3.671022132039070129e-02 -9.785932302474975586e-02 -6.979221105575561523e-02 -8.608422428369522095e-02 -7.832794636487960815e-02 -7.755383849143981934e-02 1.280921101570129395e-01 8.549666963517665863e-03 1.546392217278480530e-03 1.779351010918617249e-02 1.500956118106842041e-01 -7.272109389305114746e-02 -8.626491576433181763e-02 7.474873214960098267e-02 1.183253824710845947e-01 -8.806423097848892212e-02 3.839696990326046944e-03 -4.913597926497459412e-02 6.223452277481555939e-03 -3.115208446979522705e-02 4.022950679063796997e-02 5.324978753924369812e-02 -4.641358926892280579e-02 -6.067273393273353577e-02 5.745810642838478088e-02 -1.264143139123916626e-01 5.530374497175216675e-02 -1.752974279224872589e-02 3.088058345019817352e-02 5.027914419770240784e-02 -1.794837042689323425e-02 5.937122553586959839e-02 2.358965948224067688e-02 8.829656057059764862e-03 1.155644953250885010e-01 1.354670077562332153e-01 -3.560661152005195618e-02 -1.542228623293340206e-03 -2.254465073347091675e-01 -4.974666982889175415e-02 6.213202606886625290e-03 3.257346525788307190e-02 -3.780383989214897156e-02 2.556028403341770172e-02 -2.860346809029579163e-02 -4.138568788766860962e-02 1.087111607193946838e-01 -4.396709799766540527e-02 9.912265231832861900e-04 -1.295680552721023560e-01 1.876160688698291779e-02 -1.520010828971862793e-01 -5.814834684133529663e-02 2.663426101207733154e-02 -5.581362545490264893e-02 -6.338354200124740601e-02 -1.817619353532791138e-01 3.851958736777305603e-02 9.926372021436691284e-02 1.909830607473850250e-02 -4.071230441331863403e-02 8.823729306459426880e-02 -1.406472474336624146e-01 -3.373070433735847473e-02 1.384357064962387085e-01 6.222030520439147949e-02 1.388046145439147949e-01 1.450527906417846680e-01 -1.781229488551616669e-02 -8.569888025522232056e-02 -1.370731890201568604e-01 -4.838122427463531494e-02 1.277719438076019287e-01 -2.569716423749923706e-02 -1.012914907187223434e-02 -1.465201936662197113e-02 -1.048694252967834473e-01 4.871470853686332703e-02 1.754572391510009766e-01 -6.097244564443826675e-03 -1.620110273361206055e-01 -6.482633203268051147e-02 -5.881555844098329544e-03 1.294005960226058960e-01 -7.493193447589874268e-02 1.849634945392608643e-01 -1.824717968702316284e-02 -3.616500273346900940e-02 -3.153985599055886269e-03 1.073834020644426346e-02 -6.175628677010536194e-02 -7.515035569667816162e-02 7.802928239107131958e-02 3.891635686159133911e-02 -3.823369974270462990e-03 -5.969283636659383774e-03 2.003083564341068268e-02 -8.326040953397750854e-02 2.461624294519424438e-01 1.025926843285560608e-01 7.867506891489028931e-02 -5.052389949560165405e-02 1.401149015873670578e-02 7.373853772878646851e-02 -3.931647166609764099e-02 -1.189883872866630554e-01 2.076054178178310394e-02 -1.444422900676727295e-01 3.158038109540939331e-02 4.573623836040496826e-02 1.731495112180709839e-01 -5.689748004078865051e-02 -1.376918703317642212e-01 -2.419172674417495728e-01 -7.962059229612350464e-02 -2.178351022303104401e-02 -4.486869648098945618e-02 -5.971163883805274963e-02 4.002608358860015869e-02 -5.022987723350524902e-02 2.476411312818527222e-02 -4.704800993204116821e-02 2.468585409224033356e-02 -1.118613183498382568e-01 1.274274848401546478e-02 1.164498254656791687e-01 -3.902987577021121979e-03 -8.496140688657760620e-02 -8.618825674057006836e-02 -5.250054225325584412e-02 -3.002099879086017609e-02 1.170374378561973572e-01 2.229241877794265747e-01 2.547329757362604141e-03 9.642645716667175293e-02 2.070120349526405334e-02 2.851514890789985657e-02 -5.047036707401275635e-02 -1.893573254346847534e-01 1.201112046837806702e-01 -7.905179262161254883e-02 -3.560372069478034973e-02 -4.011275246739387512e-03 -5.648768320679664612e-02 -2.809549309313297272e-02 2.689119428396224976e-02 -1.206480041146278381e-01 -1.847409158945083618e-01 -4.964236915111541748e-02 -5.153686180710792542e-02
3.558550775051116943e-02 -5.887362733483314514e-02 9.943231940269470215e-02 -1.159396916627883911e-01 5.231788754463195801e-02 -3.557583689689636230e-02 1.056818440556526184e-01 5.175670608878135681e-02 8.391285687685012817e-02 5.857734382152557373e-02 3.232171386480331421e-02 -9.680782444775104523e-03 9.006326645612716675e-02 2.101774699985980988e-02 -2.140976488590240479e-01 -1.004391759634017944e-01 -2.402717992663383484e-02 -1.533397193998098373e-02 1.544412411749362946e-02 1.764218509197235107e-01 2.405333332717418671e-02 -1.731895655393600464e-01 -7.421815395355224609e-02 4.896123334765434265e-02 -1.755768507719039917e-01 3.834000229835510254e-02 -3.409927012398838997e-03 -5.732550472021102905e-02 3.277283161878585815e-02 1.249291598796844482e-01 1.327787935733795166e-01 -3.112315386533737183e-02 -1.322214454412460327e-01 4.780222475528717041e-02 -5.778267607092857361e-02 -2.725157700479030609e-02 1.257772594690322876e-01 -6.579445302486419678e-02 -1.861692368984222412e-01 3.543904423713684082e-02 1.724204719066619873e-01 -1.251685768365859985e-01 3.155604645144194365e-04 -1.062318682670593262e-01 -8.366467803716659546e-02 2.099034562706947327e-02 -1.882671378552913666e-02 -2.156154625117778778e-02 -1.107582598924636841e-01 6.343993544578552246e-02 1.428418327122926712e-02 -1.982968002557754517e-01 1.172338053584098816e-01 2.860276401042938232e-02 -2.946482971310615540e-02 1.207423210144042969e-01 -5.093190073966979980e-02 -1.639904677867889404e-01 4.849883168935775757e-02 -6.832311861217021942e-03 2.459021098911762238e-02 3.951955214142799377e-02 -4.377834871411323547e-02 -1.043824572116136551e-02 -1.316860467195510864e-01 -1.123429164290428162e-01 -1.662364751100540161e-01 -4.585219919681549072e-02 3.605325473472476006e-03 -6.024364847689867020e-03 1.261287331581115723e-01 6.881885230541229248e-02 8.139941096305847168e-02 1.041148379445075989e-01 4.793166369199752808e-02 1.131504476070404053e-01 -5.629331804811954498e-03 -6.352687627077102661e-02 1.592996157705783844e-02 7.478992640972137451e-02 1.023289654403924942e-02 4.187044128775596619e-02 -7.538149505853652954e-02 6.155263166874647141e-03 1.209361851215362549e-01 -3.995583578944206238e-02 -7.176200300455093384e-02 3.816770017147064209e-02 -5.251977592706680298e-02 -1.421961933374404907e-01 -1.257311850786209106e-01 -6.593134254217147827e-02 2.693996019661426544e-02 -2.704944647848606110e-02 1.393118947744369507e-01 -1.112587843090295792e-02 -1.011028438806533813e-01 -2.295168861746788025e-02 9.290663897991180420e-02 -8.661329746246337891e-02 -6.499843299388885498e-02 -8.561187982559204102e-02 9.133583307266235352e-02 -2.141486853361129761e-01 1.010830774903297424e-01 -2.219702815636992455e-03 7.924035191535949707e-03 -5.816499516367912292e-02 -1.198371574282646179e-01 1.501653343439102173e-01 5.975531879812479019e-03 1.309159398078918457e-01 1.856478601694107056e-01 -1.187946125864982605e-01 1.639609225094318390e-02 7.573431730270385742e-02 -3.045459277927875519e-02 2.211186289787292480e-02 2.379457838833332062e-02 3.224106132984161377e-02 -4.948102310299873352e-02 4.662742093205451965e-02 7.280433923006057739e-02 1.968194544315338135e-01 6.296782754361629486e-03 -1.276689171791076660e-01 -1.053954958915710449e-01 9.422536008059978485e-03 -4.012327175587415695e-03 1.493789553642272949e-01 -8.821411989629268646e-03 -3.835389018058776855e-02 -2.924064174294471741e-02 -8.152880519628524780e-02 -5.189570132642984390e-03 9.668051451444625854e-02 -1.856522560119628906e-01 1.589073613286018372e-02 -8.184622228145599365e-02 8.548346906900405884e-02 7.683153450489044189e-02 -4.347648471593856812e-02 1.342358440160751343e-01 -4.397172480821609497e-02 1.394427418708801270e-01 6.805552542209625244e-02 1.012694388628005981e-01 -1.431239694356918335e-01 1.430061608552932739e-01 -6.103634461760520935e-02 -1.328130662441253662e-01 2.177751995623111725e-02 7.131724804639816284e-02 7.092896848917007446e-02 -2.133937180042266846e-02 2.290996909141540527e-02 6.440091133117675781e-02 1.599830575287342072e-02 2.498095296323299408e-02 8.060650527477264404e-02 -1.100355572998523712e-02 1.350324898958206177e-01 -7.420548051595687866e-02 6.643069535493850708e-02 8.864747732877731323e-02 4.644161090254783630e-03 -1.101516559720039368e-01 -5.268593877553939819e-02 4.445612430572509766e-02 5.501263216137886047e-02 -1.208451837301254272e-01 1.224653515964746475e-02 -1.934209465980529785e-01 1.188598349690437317e-01 4.366774111986160278e-03 -3.413830325007438660e-02 -4.923284519463777542e-03 -8.540300279855728149e-02 -1.535148080438375473e-02 1.175303161144256592e-01 -1.066419929265975952e-01 5.568571016192436218e-02 2.301321737468242645e-02 -1.427458971738815308e-01 9.555944055318832397e-02 2.578241191804409027e-02 -1.378593742847442627e-01 -1.039117947220802307e-02 -5.700501054525375366e-02 8.183661848306655884e-02 1.149049997329711914e-01 -1.368189882487058640e-02 8.122555166482925415e-02 9.837228059768676758e-02 -1.018278300762176514e-01 -1.965005882084369659e-02 8.458532392978668213e-02 -5.440665036439895630e-02 4.684200137853622437e-02 1.962245702743530273e-01 -1.761245876550674438e-01 -2.118212915956974030e-02 -2.998751588165760040e-02 -7.051802426576614380e-02 3.031227737665176392e-03 8.014839142560958862e-02 -1.184048037976026535e-02 2.641097828745841980e-02 5.034276843070983887e-02 -4.505172371864318848e-02 -7.381000369787216187e-02 2.360454946756362915e-01 -1.174171939492225647e-01 -6.589876115322113037e-02 -2.648152038455009460e-02 -5.552408471703529358e-02 -2.699034102261066437e-02 -1.041471138596534729e-01 -1.264540702104568481e-01 1.130774840712547302e-01 7.230281084775924683e-02 -1.246279031038284302e-01 -6.924445182085037231e-02 -1.237315777689218521e-02 -5.970593169331550598e-02 -1.181166842579841614e-01 -4.019793868064880371e-02 -1.936197280883789062e-02 -3.677788004279136658e-02 -1.869846880435943604e-02 1.505868602544069290e-02 -1.161956489086151123e-01 -3.661100519821047783e-03 4.403283819556236267e-02 -4.937587678432464600e-02 -1.275096535682678223e-01 -1.321624368429183960e-01 -1.080730184912681580e-01 6.251267343759536743e-02 -2.216360159218311310e-02 -3.610343486070632935e-02 -5.273036193102598190e-03 -1.784733682870864868e-01 -4.229138046503067017e-02 -1.808583885431289673e-01 -1.664493978023529053e-01 -1.546516418457031250e-01 1.113678067922592163e-01 1.119281873106956482e-01 3.535099094733595848e-03 6.099669262766838074e-02 -8.553047664463520050e-03 1.788232475519180298e-02 1.310793310403823853e-01 2.699295058846473694e-02 -9.998681955039501190e-03
-1.279164254665374756e-01 1.339753270149230957e-01 -6.296155601739883423e-02 -7.023119367659091949e-03 -6.910547614097595215e-03 9.978525340557098389e-02 -4.557481408119201660e-02 -1.697039790451526642e-02 -4.767677187919616699e-02 -7.953502237796783447e-02 1.144185960292816162e-01 -5.626792460680007935e-02 9.527748823165893555e-02 1.231218799948692322e-01 1.804229468107223511e-01 1.113533303141593933e-01 -1.765513122081756592e-01 3.335032612085342407e-02 -7.552643120288848877e-02 -7.864993810653686523e-02 9.704469703137874603e-03 1.452673226594924927e-01 3.843504935503005981e-02 -1.131554786115884781e-02 -1.017486825585365295e-01 1.659199744462966919e-01 3.274309635162353516e-02 -6.561000645160675049e-02 -1.034061238169670105e-01 1.100390255451202393e-01 2.615738660097122192e-02 1.076551340520381927e-02 1.724039204418659210e-02 -5.803044140338897705e-02 -5.050471797585487366e-02 8.053707331418991089e-02 8.713122457265853882e-02 9.999257326126098633e-02 2.331490628421306610e-03 1.873307228088378906e-01 2.789757587015628815e-02 -9.930300712585449219e-02 -8.321564644575119019e-02 -3.255957365036010742e-02 4.167834669351577759e-02 9.157576411962509155e-02 1.924457401037216187e-02 -1.165142562240362167e-02 -5.822967737913131714e-02 -5.915884301066398621e-02 -3.266869485378265381e-02 -5.755763128399848938e-02 -9.398191422224044800e-02 5.798970162868499756e-02 -1.139940172433853149e-01 -7.566912472248077393e-02 1.279990840703248978e-02 8.407445996999740601e-02 1.426023524254560471e-02 -3.328744694590568542e-02 6.306282430887222290e-02 -2.539624087512493134e-02 1.936073154211044312e-01 3.557025268673896790e-02 9.877563267946243286e-02 -5.112803354859352112e-02 -7.601577788591384888e-02 -6.360569596290588379e-02 -1.626140922307968140e-01 -6.161683425307273865e-02 -2.885648980736732483e-02 3.638454363681375980e-04 -2.222856134176254272e-01 5.559227615594863892e-02 -1.126146912574768066e-01 -5.568667501211166382e-02 4.590734466910362244e-02 5.492627993226051331e-02 -1.596735119819641113e-01 -2.126765102148056030e-01 -2.241946198046207428e-02 -1.184550076723098755e-01 -8.604750037193298340e-02 -2.710880944505333900e-03 2.070560306310653687e-02 1.680975896306335926e-03 7.700145989656448364e-02 -4.919701721519231796e-03 -8.770268410444259644e-02 -1.085546687245368958e-01 -8.698651939630508423e-02 3.896155580878257751e-02 8.173943310976028442e-02 -7.571844616904854774e-04 1.095460057258605957e-01 2.476434223353862762e-02 -3.722253069281578064e-02 -6.299812346696853638e-02 6.027165800333023071e-02 -2.049191296100616455e-02 -7.331737130880355835e-02 -2.280414290726184845e-02 -1.188341304659843445e-01 1.669582128524780273e-01 -1.208525970578193665e-01 9.601887315511703491e-02 4.802070930600166321e-02 -9.305765479803085327e-02 4.540131613612174988e-02 9.521184489130973816e-03 1.801670640707015991e-01 -4.013117402791976929e-03 1.545432955026626587e-01 -1.025224775075912476e-01 -8.335676044225692749e-02 -6.972753256559371948e-02 6.670732051134109497e-02 2.332769483327865601e-01 -6.993676722049713135e-02 5.127289891242980957e-02 -7.928351312875747681e-02 6.478011608123779297e-02 2.161829359829425812e-02 4.403664916753768921e-02 7.838785648345947266e-02 -2.775451168417930603e-02 4.652577638626098633e-02 -4.122564941644668579e-02 9.785615652799606323e-02 -1.144665852189064026e-01 -4.317009076476097107e-02 -6.159443408250808716e-02 -1.939162462949752808e-01 -9.107186459004878998e-03 5.796916037797927856e-02 1.840700767934322357e-02 1.064976602792739868e-01 2.269596559926867485e-03 1.699622571468353271e-01 -1.374515295028686523e-01 5.785715207457542419e-02 9.060897678136825562e-02 -1.606609299778938293e-02 4.716930538415908813e-02 -7.026630640029907227e-02 -2.775140702724456787e-01 1.586313843727111816e-01 -4.889172315597534180e-02 9.863109886646270752e-02 5.445224046707153320e-02 -7.175459712743759155e-02 9.550628066062927246e-02 -1.291032731533050537e-01 1.124914642423391342e-02 -1.981919407844543457e-01 -1.870006769895553589e-01 -3.694939613342285156e-02 -1.137442588806152344e-01 -1.419993340969085693e-01 -1.854606904089450836e-02 -1.344284713268280029e-01 6.487725675106048584e-02 -9.375607967376708984e-02 1.480702906847000122e-01 -2.233839780092239380e-02 -1.122398972511291504e-01 1.527818292379379272e-01 6.134988367557525635e-02 -5.511674284934997559e-02 -1.966482587158679962e-02 6.956985592842102051e-02 6.529272347688674927e-02 1.053886115550994873e-01 -7.864303141832351685e-02 -1.561318635940551758e-01 -6.310539692640304565e-02 2.073187753558158875e-02 -1.026333030313253403e-02 -8.131495676934719086e-03 -8.767006918787956238e-03 3.264968469738960266e-02 -9.744112938642501831e-02 -1.384384483098983765e-01 -1.552018802613019943e-03 8.252109587192535400e-02 7.652653008699417114e-02 1.103303767740726471e-02 2.257383894175291061e-03 1.223018318414688110e-01 -1.352182030677795410e-01 7.438052445650100708e-02 -8.515324443578720093e-03 1.861553937196731567e-01 1.091313641518354416e-02 -4.802931472659111023e-02 -1.285879015922546387e-01 -8.106107264757156372e-02 -9.073561429977416992e-02 1.337994039058685303e-01 2.001506835222244263e-02 1.144956499338150024e-01 -7.593439519405364990e-02 -1.377202942967414856e-02 -9.514862298965454102e-02 -1.213271915912628174e-01 4.816314205527305603e-02 -4.638418927788734436e-02 -3.736745566129684448e-02 -4.556847736239433289e-02 -5.372803658246994019e-02 -5.398979038000106812e-02 2.437824197113513947e-02 -3.045620396733283997e-02 1.027638092637062073e-02 -7.486383616924285889e-02 1.014528945088386536e-01 -7.250965386629104614e-02 -1.235218793153762817e-01 -1.154616475105285645e-01 -4.659936204552650452e-02 -6.944038905203342438e-04 8.493661880493164062e-03 -6.066938117146492004e-02 1.603890657424926758e-01 -1.055364757776260376e-01 -1.112178191542625427e-01 -2.650677412748336792e-02 5.298569798469543457e-03 1.313759088516235352e-01 3.452621027827262878e-02 1.133697107434272766e-01 -7.425744831562042236e-02 -5.061294138431549072e-02 -2.572405338287353516e-02 -9.507834166288375854e-02 -6.757371872663497925e-02 -1.027898713946342468e-01 -1.448384672403335571e-01 6.320541352033615112e-02 4.036385193467140198e-02 -8.725518733263015747e-02 -4.839297384023666382e-02 -5.888479575514793396e-02 -1.129739657044410706e-01 1.658186689019203186e-02 3.031085617840290070e-02 -5.852210521697998047e-02 6.156601011753082275e-02 5.407926812767982483e-02 -1.794648170471191406e-02 1.315546571277081966e-03 2.323638461530208588e-02 3.579413145780563354e-02 1.225774511694908142e-01 -1.071412861347198486e-01 -1.130848079919815063e-01
1.042437776923179626e-01 -1.299110148102045059e-02 6.637017428874969482e-02 5.330493301153182983e-02 8.479799330234527588e-02 -6.644817441701889038e-02 -1.010138355195522308e-02 1.634013652801513672e-01 7.803003489971160889e-02 7.527226209640502930e-02 -9.889325592666864395e-04 7.086778432130813599e-02 -6.839956343173980713e-02 1.918541342020034790e-01 -1.303921639919281006e-02 -8.698821999132633209e-03 1.125946417450904846e-01 9.560432285070419312e-02 5.224549770355224609e-02 1.992570906877517700e-01 1.061813011765480042e-01 -5.756832286715507507e-02 6.556823104619979858e-02 8.414752781391143799e-02 1.451908797025680542e-01 -1.053582802414894104e-01 -1.611026078462600708e-01 4.309459123760461807e-03 -9.483260661363601685e-02 -9.004798531532287598e-02 3.383280336856842041e-02 6.952963024377822876e-02 1.379955466836690903e-02 -2.081631682813167572e-02 4.351218789815902710e-02 -1.684009842574596405e-02 -1.308279037475585938e-01 1.549865957349538803e-02 -9.412224404513835907e-03 6.313794292509555817e-03 -2.878751978278160095e-02 -9.264204651117324829e-02 -8.959402143955230713e-02 1.353357266634702682e-02 -3.282831981778144836e-02 -9.775316715240478516e-02 2.457736060023307800e-02 3.735179454088211060e-02 -6.922871619462966919e-02 1.302805989980697632e-01 3.908968716859817505e-02 -2.356565324589610100e-03 -7.150501757860183716e-02 1.049229875206947327e-01 5.787669122219085693e-02 8.531894534826278687e-02 1.143610626459121704e-01 -1.358328759670257568e-01 4.895611200481653214e-03 1.159677281975746155e-01 9.938450157642364502e-02 -4.942921921610832214e-02 -8.002256602048873901e-02 4.310087859630584717e-02 2.495151944458484650e-02 1.281219162046909332e-02 -8.498974889516830444e-02 1.166772693395614624e-01 8.909790217876434326e-02 -3.087230958044528961e-02 1.715199649333953857e-01 -1.162250046036206186e-04 -5.840929225087165833e-02 -4.722086340188980103e-02 1.224945392459630966e-02 -2.398339509963989258e-01 -4.470732435584068298e-02 -5.024497210979461670e-02 -2.192424982786178589e-02 1.349122496321797371e-03 7.077196985483169556e-02 -3.506235033273696899e-02 -8.840171992778778076e-02 8.628576993942260742e-02 -5.794886872172355652e-02 1.666698902845382690e-01 -1.066687926650047302e-01 5.414348840713500977e-02 -1.552977561950683594e-01 6.552778184413909912e-02 -2.371399253606796265e-01 3.813306987285614014e-02 -1.051261276006698608e-01 4.226455092430114746e-02 -6.838203966617584229e-02 6.416077725589275360e-03 7.374588400125503540e-02 -5.938969179987907410e-02 -1.252300143241882324e-01 2.895988523960113525e-02 4.909484181553125381e-03 8.297701179981231689e-02 -2.515131793916225433e-02 -4.207265749573707581e-02 6.166645884513854980e-02 4.266532137989997864e-03 -2.337774634361267090e-02 -1.100745722651481628e-01 7.856157422065734863e-02 -1.273249983787536621e-01 1.561775654554367065e-01 2.997835166752338409e-02 4.518697410821914673e-02 -1.104812249541282654e-01 6.633120775222778320e-02 -5.878381803631782532e-02 6.566286832094192505e-02 6.129647139459848404e-03 -1.324304938316345215e-01 1.173824630677700043e-02 -1.594728603959083557e-02 1.004574149847030640e-01 2.761787176132202148e-02 -2.194361574947834015e-02 -2.421373687684535980e-02 3.581086173653602600e-03 1.398406364023685455e-02 -2.148850709199905396e-01 2.457796828821301460e-03 -1.114105656743049622e-01 1.302709057927131653e-02 -3.868336230516433716e-02 9.174031764268875122e-02 1.052391948178410530e-03 7.209660112857818604e-02 -2.833211980760097504e-02 8.285990357398986816e-02 7.371114939451217651e-02 2.271868754178285599e-03 -3.836619853973388672e-02 -7.184268534183502197e-02 2.374117635190486908e-02 -1.480087870731949806e-03 -5.049137026071548462e-02 1.833835393190383911e-01 8.480208367109298706e-02 9.276507049798965454e-02 1.356963962316513062e-01 1.915966421365737915e-01 -3.938411176204681396e-02 3.293896466493606567e-02 -5.406364053487777710e-02 -8.042826503515243530e-02 -1.056484356522560120e-01 7.288080453872680664e-02 -2.097474336624145508e-01 -8.764307200908660889e-02 -1.081008985638618469e-01 9.348261356353759766e-02 1.207336708903312683e-01 -2.181621454656124115e-02 8.347389288246631622e-03 6.097709760069847107e-02 3.889034315943717957e-02 1.810303181409835815e-01 -2.329142838716506958e-01 -3.008872084319591522e-02 -5.044914409518241882e-02 1.044121384620666504e-01 -3.938827663660049438e-02 1.230988069437444210e-03 -1.614224910736083984e-01 -1.911107748746871948e-01 -4.024075344204902649e-02 7.718557119369506836e-02 8.451899886131286621e-02 -1.279474645853042603e-01 -7.958897203207015991e-02 -1.051379293203353882e-01 -1.030249223113059998e-01 -7.264549285173416138e-02 -1.905700564384460449e-02 7.463511824607849121e-02 -3.165609017014503479e-02 -5.340527277439832687e-03 -1.852076649665832520e-01 1.430711597204208374e-01 -8.160643279552459717e-02 3.622702881693840027e-02 -1.663253158330917358e-01 5.064494162797927856e-02 2.785042859613895416e-02 2.048155851662158966e-02 -1.572511196136474609e-01 -1.429328508675098419e-02 1.195845976471900940e-01 -1.550482511520385742e-01 -1.037410870194435120e-01 -2.017996460199356079e-01 -2.512473240494728088e-02 -3.709185868501663208e-02 3.441070020198822021e-02 -1.936060190200805664e-01 -9.598956443369388580e-03 4.679762944579124451e-02 -9.261456131935119629e-02 1.363817788660526276e-02 -7.634725421667098999e-02 -8.491855114698410034e-02 1.098471228033304214e-02 -4.907257854938507080e-02 1.292844861745834351e-01 -7.157008349895477295e-02 4.068509489297866821e-02 -5.943543463945388794e-02 5.409324914216995239e-02 8.500152826309204102e-02 -7.959384471178054810e-02 -4.655280336737632751e-02 -1.694194376468658447e-01 3.107632696628570557e-02 1.819680184125900269e-01 -1.019225828349590302e-02 -1.005479879677295685e-02 -5.071670562028884888e-02 5.651661753654479980e-02 -1.012111082673072815e-01 -3.451862931251525879e-02 1.202240958809852600e-01 -1.308130621910095215e-01 -4.040178656578063965e-02 1.037158593535423279e-01 2.445152960717678070e-02 4.970736429095268250e-02 -7.169870287179946899e-02 -1.822647638618946075e-02 -3.221652656793594360e-02 2.213924750685691833e-02 1.053051725029945374e-01 -8.209287375211715698e-02 5.427379533648490906e-02 -6.170442793518304825e-03 -4.764004424214363098e-02 5.685126036405563354e-02 3.459927812218666077e-02 5.896649509668350220e-02 3.569465875625610352e-02 1.210151985287666321e-02 6.904263049364089966e-02 -1.073933672159910202e-03 -1.259125620126724243e-01 -2.560130879282951355e-02 1.142744868993759155e-01 6.889217346906661987e-02 -1.225797832012176514e-01 1.208888813853263855e-01
2.774255350232124329e-02 1.586472690105438232e-01 -1.932321116328239441e-02 -4.490092396736145020e-02 -9.199725836515426636e-02 2.821338828653097153e-03 4.122297838330268860e-02 -1.039396896958351135e-01 -4.081043228507041931e-02 1.282999664545059204e-01 -8.817838877439498901e-02 -9.712769091129302979e-02 -7.297299057245254517e-02 -7.569438219070434570e-02 1.267719715833663940e-01 1.289634704589843750e-01 4.041294381022453308e-02 -1.717638038098812103e-02 9.189321659505367279e-03 9.048067033290863037e-03 -8.505643904209136963e-02 -1.777752935886383057e-01 -1.618238389492034912e-01 -2.949762903153896332e-02 2.104795305058360100e-03 -6.083020940423011780e-03 7.810604572296142578e-02 1.099110618233680725e-01 8.026120811700820923e-02 -9.648197889328002930e-02 2.897545322775840759e-02 -4.228880628943443298e-03 -1.056724041700363159e-01 7.884603738784790039e-02 1.338393986225128174e-01 -9.670190513134002686e-02 -1.946001686155796051e-02 -6.334698945283889771e-02 -8.384437859058380127e-02 1.199681162834167480e-01 1.970580779016017914e-02 9.742446243762969971e-02 -1.785056106746196747e-02 -5.617802217602729797e-02 -3.387476503849029541e-02 3.293761238455772400e-02 4.559348151087760925e-02 -1.149057224392890930e-01 -3.112979419529438019e-02 -7.810870558023452759e-02 -1.864523440599441528e-01 -7.466859370470046997e-02 -1.217283532023429871e-01 -8.080353587865829468e-02 5.756437033414840698e-02 -1.110645127482712269e-03 -5.108039453625679016e-02 6.216452270746231079e-02 -1.038241982460021973e-01 1.351444721221923828e-01 5.695924907922744751e-02 1.187503617256879807e-02 -1.043209135532379150e-01 1.283727288246154785e-01 2.627976834774017334e-01 -7.870917767286300659e-02 1.003051474690437317e-01 -2.294946834444999695e-02 1.058578640222549438e-01 -6.038250774145126343e-02 3.260799869894981384e-02 1.417904905974864960e-02 -1.316932439804077148e-01 7.531628757715225220e-02 1.189669892191886902e-01 -4.930520430207252502e-02 2.870087698101997375e-02 -1.096635758876800537e-01 9.881059825420379639e-02 -1.708663552999496460e-01 -5.115000903606414795e-02 4.172018915414810181e-02 -6.898617744445800781e-02 -8.485754579305648804e-02 -1.076742634177207947e-02 5.975333973765373230e-02 2.246466875076293945e-01 -1.338593475520610809e-02 1.358369290828704834e-01 -5.702057853341102600e-02 2.520854212343692780e-02 -1.359746884554624557e-02 4.163746163249015808e-02 -9.725487791001796722e-03 -1.194511577486991882e-01 1.406530290842056274e-01 4.552967473864555359e-02 -3.549844399094581604e-02 -8.498592674732208252e-02 -4.762399569153785706e-02 -1.481397151947021484e-01 1.074617132544517517e-01 -4.179924726486206055e-02 -5.609037471003830433e-04 -1.336225569248199463e-01 -5.559333041310310364e-02 5.742637068033218384e-02 5.078022554516792297e-02 -1.793677359819412231e-01 -1.033269464969635010e-01 -5.443514510989189148e-02 9.525413811206817627e-02 -3.312842920422554016e-02 5.203099176287651062e-02 5.955776199698448181e-02 -2.536910772323608398e-02 -8.814272284507751465e-02 8.542685210704803467e-02 2.355064079165458679e-02 1.255289167165756226e-01 -9.688793122768402100e-02 2.293140143156051636e-01 1.499612480401992798e-01 -6.377869867719709873e-04 1.212085336446762085e-01 1.097309812903404236e-01 -3.296998888254165649e-02 -9.584848582744598389e-02 1.075607836246490479e-01 -2.550844848155975342e-02 8.459316939115524292e-02 7.788690179586410522e-02 1.557492762804031372e-01 -5.254889652132987976e-02 -1.056398227810859680e-01 -6.506301462650299072e-02 -1.057020351290702820e-01 -9.769839048385620117e-02 7.305468898266553879e-03 -5.572507157921791077e-02 -2.089421078562736511e-02 6.608863919973373413e-02 -2.288040071725845337e-01 4.723710939288139343e-02 3.787747351452708244e-03 2.529992349445819855e-02 2.962713316082954407e-02 6.830102205276489258e-02 1.413169205188751221e-01 -8.204080164432525635e-02 1.740278676152229309e-02 1.666850782930850983e-02 4.009948670864105225e-02 7.569154351949691772e-02 8.570457994937896729e-02 -1.467339843511581421e-01 1.397476494312286377e-01 -4.471007362008094788e-02 -1.502604037523269653e-01 -4.319083318114280701e-02 7.439371943473815918e-02 1.288453340530395508e-01 7.702447474002838135e-03 -2.946879900991916656e-02 1.041706837713718414e-02 8.717206865549087524e-02 -7.593391090631484985e-02 -3.849418833851814270e-02 3.119628690183162689e-02 1.243411824107170105e-01 -4.539173096418380737e-02 8.247683197259902954e-02 -9.999619424343109131e-02 -7.271838188171386719e-02 -2.983273193240165710e-02 -3.871237486600875854e-02 -3.790017217397689819e-02 8.868869394063949585e-03 1.874058991670608521e-01 -1.511389017105102539e-01 2.374405041337013245e-02 -1.184413954615592957e-01 -1.730617731809616089e-01 -1.836867928504943848e-01 2.414893917739391327e-02 4.451993852853775024e-02 -1.519233286380767822e-01 -2.294451557099819183e-02 -4.507901892066001892e-02 5.086024105548858643e-02 -2.578684128820896149e-02 -1.061442587524652481e-02 -2.840009704232215881e-02 -7.125483453273773193e-02 -4.837396740913391113e-02 1.414249986410140991e-01 4.789416864514350891e-02 -4.687290266156196594e-02 -1.682314872741699219e-01 8.831930160522460938e-02 -2.571912109851837158e-02 1.430466026067733765e-01 -6.301714479923248291e-02 3.505104035139083862e-02 -6.260473281145095825e-02 6.782121211290359497e-02 -7.205628603696823120e-02 3.999150916934013367e-02 8.235136419534683228e-02 -2.999927476048469543e-02 -7.489617168903350830e-02 -1.215852573513984680e-01 -5.886023491621017456e-02 -2.410596003755927086e-03 -1.199027970433235168e-01 -1.548658162355422974e-01 2.298848703503608704e-02 -1.052153408527374268e-01 3.391857072710990906e-02 -1.163242682814598083e-01 -7.902613282203674316e-02 -6.018661335110664368e-02 3.500253707170486450e-02 1.217307820916175842e-01 -7.372117042541503906e-02 1.780740469694137573e-01 -1.112658381462097168e-01 -9.967325627803802490e-02 -1.654936233535408974e-03 -1.183090806007385254e-01 6.209103763103485107e-02 -1.243188232183456421e-02 6.892686337232589722e-02 -6.186898797750473022e-02 -2.468724548816680908e-02 -1.321007460355758667e-01 -3.839875571429729462e-03 -1.671715825796127319e-02 1.134671270847320557e-01 -1.023385971784591675e-01 4.337971284985542297e-02 -1.029345672577619553e-02 -1.688591390848159790e-02 1.571573764085769653e-01 -2.362530445680022240e-03 -8.660194277763366699e-02 -8.443130180239677429e-03 4.142929986119270325e-02 -1.064975857734680176e-01 3.066543675959110260e-02 -7.991342991590499878e-02 3.098360821604728699e-02 1.479687988758087158e-01 -3.997771814465522766e-02 -1.117271855473518372e-01 -1.574979349970817566e-02
-2.207596041262149811e-02 -4.064184799790382385e-02 -1.287152916193008423e-01 5.817674100399017334e-02 -6.785472482442855835e-02 7.012201845645904541e-02 3.484487533569335938e-02 1.039090380072593689e-01 3.377418965101242065e-02 6.405189633369445801e-02 2.657046169042587280e-02 7.252037525177001953e-02 -9.539053589105606079e-02 1.975404471158981323e-02 -5.904882028698921204e-02 1.378497332334518433e-01 1.040657088160514832e-01 -4.028121009469032288e-02 3.476008027791976929e-02 -3.726489841938018799e-03 -1.213780790567398071e-01 -7.859578728675842285e-02 2.665274590253829956e-02 3.086263500154018402e-02 -7.293181959539651871e-03 -6.145472452044487000e-02 2.439008466899394989e-02 -9.184502996504306793e-03 -9.831093251705169678e-02 -2.861121855676174164e-02 2.596113830804824829e-03 1.386317610740661621e-01 9.840247035026550293e-02 1.103249788284301758e-01 1.364032551646232605e-02 -1.042311917990446091e-02 1.592341624200344086e-02 -4.626331850886344910e-02 8.081216365098953247e-02 -5.199481174349784851e-02 -4.100090265274047852e-02 -1.308522820472717285e-01 -1.095037832856178284e-01 -1.518200635910034180e-01 4.420645162463188171e-02 -3.397971019148826599e-02 2.145654857158660889e-01 -1.491039693355560303e-01 -4.291009530425071716e-02 4.182064160704612732e-02 -7.374059408903121948e-02 -3.089022636413574219e-02 -2.612560242414474487e-02 -3.215146064758300781e-02 2.209926694631576538e-01 3.506092820316553116e-03 2.085978165268898010e-02 -8.828395605087280273e-02 -5.949893221259117126e-02 -1.306116767227649689e-02 1.503235250711441040e-01 -1.012506149709224701e-02 6.688645575195550919e-03 -1.872437298297882080e-01 -4.310667142271995544e-02 7.341159880161285400e-02 4.424337670207023621e-02 -1.918019503355026245e-01 -7.532951980829238892e-02 3.412062674760818481e-02 -1.298197209835052490e-01 -7.437977194786071777e-02 1.298011094331741333e-01 5.902681127190589905e-02 -1.631201952695846558e-01 1.759040206670761108e-01 -7.270032912492752075e-02 -2.882393635809421539e-02 1.726085245609283447e-01 -6.781823933124542236e-02 1.292724907398223877e-01 3.183909133076667786e-02 -1.083080768585205078e-01 -1.916253268718719482e-01 4.462074115872383118e-02 1.684961915016174316e-01 2.099553868174552917e-02 -1.147914584726095200e-02 -1.970598548650741577e-01 -9.555314481258392334e-02 1.460682600736618042e-01 -8.074556291103363037e-02 -9.617851674556732178e-02 -5.442586727440357208e-03 -7.272704690694808960e-02 -4.603369906544685364e-02 -1.302833557128906250e-01 -1.482487469911575317e-01 3.010833449661731720e-02 -5.402338132262229919e-02 1.436657309532165527e-01 6.009833887219429016e-02 -4.305659234523773193e-02 -1.355881094932556152e-01 5.698104202747344971e-02 7.191225304268300533e-04 1.271962225437164307e-01 -1.179860234260559082e-01 -9.273982793092727661e-02 -7.752945274114608765e-02 -4.001811891794204712e-02 9.947000443935394287e-02 2.300967648625373840e-02 4.162119328975677490e-02 1.069690063595771790e-01 -6.540106236934661865e-02 1.430736109614372253e-02 5.585798993706703186e-02 6.841202266514301300e-03 1.061743497848510742e-01 -1.707434281706809998e-02 -5.606329068541526794e-02 -2.259107865393161774e-02 3.821683675050735474e-02 -8.404552005231380463e-03 2.357189543545246124e-02 1.332874596118927002e-01 -1.864965111017227173e-01 -5.138384923338890076e-02 1.381935738027095795e-02 -5.112807825207710266e-02 -5.350316315889358521e-02 -1.512539237737655640e-01 5.914745107293128967e-02 4.216889292001724243e-02 8.453034609556198120e-02 2.478120662271976471e-02 -9.502743929624557495e-02 8.829439431428909302e-02 -3.986742720007896423e-02 -8.109824359416961670e-02 3.388286381959915161e-02 -1.162372604012489319e-01 -1.112561747431755066e-01 -4.449886083602905273e-02 -6.575972586870193481e-02 1.264619976282119751e-01 4.009038209915161133e-02 -5.078626424074172974e-02 -3.542880713939666748e-02 1.910198596306145191e-03 1.059531569480895996e-01 -6.850303709506988525e-02 1.226823702454566956e-01 6.506189703941345215e-02 4.336287081241607666e-02 4.462178051471710205e-02 -3.329415246844291687e-02 -2.233420871198177338e-02 2.243989706039428711e-02 3.901625797152519226e-02 1.794625371694564819e-01 6.962502002716064453e-02 -8.012899756431579590e-02 6.716234982013702393e-02 -8.314219862222671509e-02 -6.772547215223312378e-02 -8.546715229749679565e-02 2.055608481168746948e-02 2.124420600011944771e-03 -1.501450240612030029e-01 4.171979054808616638e-02 1.938147656619548798e-02 1.225605309009552002e-01 -2.952397242188453674e-02 3.751460462808609009e-02 8.120037615299224854e-02 -2.170596504583954811e-03 7.306318730115890503e-02 -5.540662631392478943e-02 -1.261106133460998535e-01 1.065730378031730652e-01 -1.381545960903167725e-01 1.112881079316139221e-01 -1.755494438111782074e-02 7.278830558061599731e-02 -8.780462294816970825e-02 -2.192466147243976593e-02 3.176318109035491943e-02 1.391147077083587646e-02 -9.607895463705062866e-02 1.211517751216888428e-01 -3.444805741310119629e-03 -2.061408311128616333e-01 -9.072409570217132568e-02 -8.134867250919342041e-02 -1.148397848010063171e-01 2.291705459356307983e-02 7.601960003376007080e-02 8.487681299448013306e-02 6.689120084047317505e-02 -1.936294734477996826e-01 7.928749173879623413e-02 -4.839679598808288574e-02 2.101645767688751221e-01 -2.752639949321746826e-01 9.702402353286743164e-02 6.292534526437520981e-03 -6.432196591049432755e-03 1.217647343873977661e-01 1.275100558996200562e-01 -1.296206116676330566e-01 -3.633102402091026306e-02 -7.885032892227172852e-02 -3.960716724395751953e-02 -1.029098704457283020e-01 -1.348697692155838013e-01 5.000496283173561096e-02 -2.416509762406349182e-02 1.289963722229003906e-01 4.209320619702339172e-02 9.867458790540695190e-02 -8.355514146387577057e-03 2.583659067749977112e-02 -8.366941474378108978e-03 3.627049550414085388e-02 -1.485602706670761108e-01 -1.925297230482101440e-01 -1.147096380591392517e-01 1.647209525108337402e-01 -1.100270748138427734e-01 2.381617017090320587e-02 1.587267965078353882e-01 6.026839092373847961e-02 6.792358122766017914e-03 5.425917357206344604e-02 -5.958672612905502319e-02 -1.242764666676521301e-01 4.831396508961915970e-03 2.398762386292219162e-03 -2.259662747383117676e-02 -4.582206159830093384e-02 -9.817802160978317261e-02 -1.199550740420818329e-02 4.095745086669921875e-02 6.315954774618148804e-02 -8.675817400217056274e-02 9.802631288766860962e-02 5.391046032309532166e-02 -1.598910428583621979e-02 7.158236950635910034e-02 -8.658983744680881500e-03 3.804010525345802307e-02 -5.060216411948204041e-02 8.705951273441314697e-02 1.511856317520141602e-01
-6.817786488682031631e-03 -3.739725425839424133e-02 -1.836167424917221069e-01 -6.495479494333267212e-02 -1.253855824470520020e-01 6.416478753089904785e-02 -2.810472622513771057e-02 1.160051077604293823e-01 -7.879208773374557495e-02 -2.529186569154262543e-02 3.603481501340866089e-02 3.161654993891716003e-02 -3.431214392185211182e-02 1.448237299919128418e-01 -7.154751569032669067e-02 1.315402388572692871e-01 -1.175352744758129120e-02 -1.878365129232406616e-01 1.558917760848999023e-01 -6.114915013313293457e-02 -2.452918142080307007e-02 -6.207717210054397583e-02 -1.317558810114860535e-02 -1.055374443531036377e-01 -1.988207176327705383e-02 6.843543797731399536e-02 1.906006932258605957e-01 7.271119952201843262e-02 -2.583549916744232178e-02 7.977884262800216675e-02 -7.992053031921386719e-02 -5.234392359852790833e-02 5.761046335101127625e-02 1.241828408092260361e-02 -8.050560951232910156e-02 -8.342225104570388794e-02 1.536233425140380859e-01 1.320465747267007828e-02 -6.463797390460968018e-02 1.712038926780223846e-02 -3.940160945057868958e-02 -4.060925170779228210e-02 2.191592454910278320e-01 1.465680915862321854e-02 -2.695321291685104370e-02 2.260650880634784698e-02 9.665393084287643433e-02 -7.915350049734115601e-02 -2.952978387475013733e-02 -2.441861331462860107e-01 2.428173869848251343e-01 -3.146542608737945557e-02 1.391086280345916748e-01 -5.339714139699935913e-02 -3.267630934715270996e-02 9.419228136539459229e-02 6.622406095266342163e-02 -1.638030409812927246e-01 -9.603124856948852539e-02 -1.203082688152790070e-02 8.685699850320816040e-02 2.184574455022811890e-01 -8.419237285852432251e-02 5.280292779207229614e-02 1.685204356908798218e-01 -1.068727597594261169e-01 7.224678993225097656e-02 1.581032425165176392e-01 2.570586092770099640e-02 3.920356556773185730e-02 1.133893616497516632e-02 1.609262973070144653e-01 6.809523329138755798e-03 -8.150202780961990356e-02 -4.045007750391960144e-02 -6.271649152040481567e-02 -1.030080169439315796e-01 1.711445511318743229e-03 -3.416562220081686974e-03 -5.306461080908775330e-02 3.965633368352428079e-06 5.314101278781890869e-02 6.703140586614608765e-02 6.853199005126953125e-02 -8.252277225255966187e-02 -5.775145813822746277e-02 -6.839312613010406494e-02 -2.354909665882587433e-03 -2.361434698104858398e-02 2.657407522201538086e-02 -6.541943643242120743e-03 2.605030778795480728e-03 -9.230989962816238403e-03 8.533519506454467773e-02 6.443572696298360825e-03 -1.784626021981239319e-02 1.452594399452209473e-01 -6.009889394044876099e-02 -2.247860431671142578e-01 6.330228596925735474e-02 -6.242373585700988770e-02 3.474590554833412170e-02 -4.005293920636177063e-02 2.705893851816654205e-02 -1.704718470573425293e-01 1.359444707632064819e-01 2.878299728035926819e-02 5.384335294365882874e-02 1.748051494359970093e-02 -7.495420426130294800e-02 -5.356206558644771576e-03 1.003499701619148254e-01 6.063190102577209473e-02 2.584189875051379204e-03 -9.291594475507736206e-02 3.646438568830490112e-02 3.932921215891838074e-02 -7.168944925069808960e-02 7.763569802045822144e-02 -1.688401103019714355e-01 5.965580791234970093e-02 -4.106310755014419556e-02 -2.922208420932292938e-02 4.822845757007598877e-02 3.121659532189369202e-02 -9.811264462769031525e-04 -2.680751777006662451e-06 1.111449971795082092e-01 -2.363620325922966003e-03 -1.641533151268959045e-02 4.661199823021888733e-02 1.223232746124267578e-01 1.968961767852306366e-02 6.699152290821075439e-02 7.815478742122650146e-02 -1.332539916038513184e-01 1.271377503871917725e-01 -5.176538228988647461e-02 -8.340770006179809570e-02 -4.458175599575042725e-02 -1.042048409581184387e-01 -5.182636529207229614e-02 -2.795920334756374359e-02 -1.466033011674880981e-01 -9.682011604309082031e-02 4.551256448030471802e-02 1.542446087114512920e-03 6.279764231294393539e-03 -3.868377208709716797e-02 4.211550112813711166e-03 -1.052943840622901917e-01 2.458760049194097519e-03 4.210824519395828247e-02 -6.969530880451202393e-02 1.381675712764263153e-02 -3.085281141102313995e-02 -1.184438355267047882e-02 -6.675207987427711487e-03 1.758973114192485809e-02 -1.120108645409345627e-02 2.005477398633956909e-01 2.728032767772674561e-01 8.215588331222534180e-02 -1.406821142882108688e-02 -3.845242410898208618e-02 -8.347813785076141357e-02 2.447825483977794647e-02 -1.804540902376174927e-01 1.459284313023090363e-02 -1.297714412212371826e-01 -4.729961510747671127e-03 -1.637871116399765015e-01 -1.451312452554702759e-01 4.144684225320816040e-02 -4.698404227383434772e-04 -8.695682138204574585e-02 1.454728469252586365e-02 1.108381226658821106e-01 -1.660000346601009369e-02 2.104156091809272766e-02 7.740571745671331882e-04 7.549049705266952515e-02 -1.208436042070388794e-01 7.364349067211151123e-02 1.452271938323974609e-01 2.426068671047687531e-02 -1.570344436913728714e-03 -2.960355021059513092e-02 5.712586268782615662e-02 3.197635337710380554e-02 -8.079673163592815399e-03 -4.893763735890388489e-02 8.972068876028060913e-02 -6.649330258369445801e-02 -1.313662379980087280e-01 -8.809233456850051880e-02 -6.220518425107002258e-02 1.001563947647809982e-02 -1.026616897433996201e-02 5.905886739492416382e-02 -2.142086066305637360e-02 1.084317117929458618e-01 7.905215024948120117e-02 -1.438704226166009903e-02 -1.242586690932512283e-02 1.304405480623245239e-01 -1.381152775138616562e-02 1.156623475253582001e-04 7.271183282136917114e-02 -3.112777881324291229e-02 -1.161317527294158936e-01 -3.260876983404159546e-02 1.746544837951660156e-01 3.940362483263015747e-02 8.146505802869796753e-02 -3.226223587989807129e-02 -1.989288777112960815e-01 1.333643049001693726e-01 -1.139445900917053223e-01 1.748138573020696640e-03 1.236261129379272461e-01 -3.986452892422676086e-02 -5.905792862176895142e-02 -9.318960458040237427e-02 4.971799999475479126e-02 -1.869682669639587402e-01 -3.334529697895050049e-03 -1.103398203849792480e-02 -4.890827089548110962e-02 -5.091546103358268738e-02 -2.671045064926147461e-01 1.064513996243476868e-01 -1.343262344598770142e-01 4.807331040501594543e-02 4.817667976021766663e-02 -2.055135369300842285e-02 -1.428017318248748779e-01 -2.593296393752098083e-02 7.035120390355587006e-03 -1.139619946479797363e-01 1.611656993627548218e-01 -8.608319610357284546e-02 1.556565016508102417e-01 9.797728620469570160e-03 -1.343909800052642822e-01 -1.348426681943237782e-03 -8.781354129314422607e-02 1.799220293760299683e-01 -4.618318751454353333e-02 3.450691699981689453e-02 -7.716857641935348511e-02 -2.499576099216938019e-02 -2.924520336091518402e-02 -6.852705776691436768e-02 -1.098426654934883118e-01 1.860879734158515930e-02
-9.311897307634353638e-02 1.046393290162086487e-01 -1.720513999462127686e-01 4.830217733979225159e-02 6.620422005653381348e-02 -1.312487423419952393e-01 9.949130937457084656e-03 -1.070632264018058777e-01 1.681213825941085815e-01 1.128467172384262085e-01 1.452827751636505127e-01 -8.577372878789901733e-02 -3.797543421387672424e-02 -1.022380590438842773e-01 7.667759060859680176e-02 6.464683264493942261e-02 1.289792060852050781e-01 -1.960872672498226166e-02 -1.012295261025428772e-01 -1.269919332116842270e-02 -1.196279600262641907e-01 1.347695942968130112e-02 -7.450161129236221313e-02 -4.446250572800636292e-02 5.467882007360458374e-02 8.582480996847152710e-02 -1.304961461573839188e-02 -4.947585240006446838e-02 1.899718493223190308e-02 -1.744092442095279694e-02 8.827693015336990356e-02 -4.127195477485656738e-02 7.820104807615280151e-02 5.062067881226539612e-02 1.001732423901557922e-01 2.896197512745857239e-02 3.268663585186004639e-02 1.037513688206672668e-01 -1.971364021301269531e-03 -1.146016791462898254e-01 -2.181458622217178345e-01 -1.048368960618972778e-01 1.604577302932739258e-01 1.168708726763725281e-01 3.662595897912979126e-02 -1.251099817454814911e-02 -5.841138307005167007e-03 3.103652503341436386e-03 8.738284558057785034e-02 -1.696231663227081299e-01 -1.300621777772903442e-01 1.033122614026069641e-01 -2.300815097987651825e-02 2.043533883988857269e-02 3.225032612681388855e-02 -5.581811815500259399e-02 1.503265649080276489e-01 -9.798015654087066650e-02 -8.571738749742507935e-02 -7.359789311885833740e-02 7.653455436229705811e-02 8.690305799245834351e-02 1.917879134416580200e-01 -1.627447158098220825e-01 3.402966260910034180e-02 1.044333446770906448e-02 -1.312236785888671875e-01 1.733943969011306763e-01 1.373325381428003311e-02 1.142785251140594482e-01 -6.589567661285400391e-02 2.264353819191455841e-02 1.558010000735521317e-02 6.273567676544189453e-02 8.553992956876754761e-02 1.772126704454421997e-01 3.866171836853027344e-02 4.420302808284759521e-02 -3.673176094889640808e-02 -1.672766916453838348e-02 6.575354188680648804e-02 6.537369638681411743e-02 2.973051555454730988e-02 -9.956501424312591553e-02 8.972409367561340332e-02 -7.978993467986583710e-03 -1.744717173278331757e-02 9.360798448324203491e-02 -3.517847508192062378e-02 5.032181367278099060e-02 -5.309303104877471924e-02 6.072583049535751343e-02 7.356500625610351562e-02 -2.331183524802327156e-03 -3.047803975641727448e-02 3.545666579157114029e-03 2.393484860658645630e-02 -1.388055235147476196e-01 -1.658100932836532593e-01 6.752315163612365723e-02 -2.595355175435543060e-02 8.398435264825820923e-02 1.418651342391967773e-01 -8.377215825021266937e-03 -2.529773861169815063e-02 -1.345798075199127197e-01 -1.134346872568130493e-01 -1.816087067127227783e-01 -2.233794331550598145e-02 3.298600390553474426e-02 7.028633262962102890e-03 4.073256626725196838e-02 9.182738512754440308e-02 1.827590540051460266e-02 1.428042724728584290e-02 6.526506505906581879e-03 1.600666344165802002e-01 -2.150645293295383453e-02 -3.465794399380683899e-02 -3.094259835779666901e-02 9.012798219919204712e-02 7.240844517946243286e-02 1.048807576298713684e-01 2.492739632725715637e-02 -5.242525413632392883e-02 -1.110462397336959839e-01 -1.128267962485551834e-02 1.475896686315536499e-01 -4.782244563102722168e-02 -1.218431070446968079e-01 -1.088359951972961426e-01 -2.933542989194393158e-02 -1.454454567283391953e-02 -4.452681168913841248e-02 3.154588863253593445e-02 -7.556751370429992676e-02 -2.738320827484130859e-01 -1.094198524951934814e-01 6.095514073967933655e-02 6.017293408513069153e-02 -6.730397045612335205e-02 -1.339185535907745361e-01 -6.514728069305419922e-02 6.838245689868927002e-02 -1.664606109261512756e-02 5.859563592821359634e-03 -1.454260945320129395e-01 7.838611304759979248e-02 4.772013425827026367e-02 6.506118923425674438e-02 4.762540385127067566e-02 5.168989300727844238e-03 1.359054297208786011e-01 -8.308877795934677124e-02 -8.577626198530197144e-02 -5.827763304114341736e-02 3.573173657059669495e-02 -1.055533140897750854e-01 1.010996326804161072e-01 1.237352415919303894e-01 -1.400436311960220337e-01 -1.086020469665527344e-01 -3.605432808399200439e-02 -8.072528243064880371e-02 -5.387327075004577637e-02 -1.244186703115701675e-02 -1.472142189741134644e-01 -4.002181068062782288e-02 5.539465323090553284e-02 -7.358677219599485397e-03 -3.212744370102882385e-02 -9.652286767959594727e-03 -7.543296366930007935e-02 5.566541105508804321e-02 -6.059007346630096436e-02 1.060327440500259399e-01 -3.304980695247650146e-02 -4.774222522974014282e-02 2.681616321206092834e-02 3.789108246564865112e-02 -8.904732763767242432e-02 -8.787281066179275513e-02 9.282375872135162354e-02 2.181775635108351707e-03 6.313116848468780518e-02 -8.352603763341903687e-03 -5.849315598607063293e-02 3.969103563576936722e-03 7.075081765651702881e-02 -2.743923477828502655e-02 -1.109939962625503540e-01 1.597332656383514404e-01 -9.221516549587249756e-02 4.097470641136169434e-02 -9.182229638099670410e-02 3.342618420720100403e-02 4.504156485199928284e-02 -2.625448629260063171e-03 1.274854093790054321e-01 7.136367261409759521e-02 -1.346388161182403564e-01 2.475758083164691925e-02 -1.295734345912933350e-01 1.254277825355529785e-01 -3.050276041030883789e-01 -7.572281360626220703e-02 7.833159714937210083e-02 -2.242724150419235229e-01 6.174198165535926819e-02 2.850979566574096680e-02 8.223059773445129395e-02 -1.266503892838954926e-02 -4.554876312613487244e-02 -1.012645736336708069e-01 3.998675569891929626e-02 -2.968365699052810669e-02 -5.322830751538276672e-02 -1.288948506116867065e-01 1.416245847940444946e-01 -7.080844789743423462e-02 9.663623571395874023e-02 -2.692912518978118896e-02 -7.664209604263305664e-02 -9.413696080446243286e-02 6.003702990710735321e-03 -4.718058556318283081e-02 -2.837575785815715790e-02 -8.949978649616241455e-02 -9.561092406511306763e-02 6.069833040237426758e-02 -2.472805045545101166e-02 -1.569810658693313599e-01 2.164867147803306580e-02 -7.733976840972900391e-02 -3.347013890743255615e-02 -6.384253501892089844e-02 -8.814874291419982910e-02 -1.264817919582128525e-02 8.525494486093521118e-02 -7.091456651687622070e-02 -7.728033512830734253e-02 -2.543445229530334473e-01 -7.181064039468765259e-02 -4.035414382815361023e-02 -3.247034177184104919e-02 1.295623183250427246e-01 -2.407134743407368660e-04 -9.478632360696792603e-02 1.435404364019632339e-02 -4.603842645883560181e-02 4.681966826319694519e-02 1.310935709625482559e-02 -5.007706955075263977e-02 -2.041796445846557617e-01 -1.198584139347076416e-01 -7.574524730443954468e-02
