4.877204000949859619e-01
4.798093810677528381e-02
-5.948920249938964844e-01
1.044063712470233440e-03
8.315976262092590332e-01
8.568779826164245605e-01
-5.087265968322753906e-01
-1.491777449846267700e-01
-5.856380462646484375e-01
-4.483004510402679443e-01
-7.080925107002258301e-01
4.097421467304229736e-01
5.813547968864440918e-01
8.462098240852355957e-01
7.948518395423889160e-01
-5.063271522521972656e-01
-6.363879442214965820e-01
-6.147445440292358398e-01
8.532692193984985352e-01
7.583935260772705078e-01
-6.573390960693359375e-01
-3.309523165225982666e-01
7.760396599769592285e-01
-4.594889581203460693e-01
2.823426388204097748e-02
-3.039913810789585114e-02
-3.016088604927062988e-01
6.519086360931396484e-01
1.672471016645431519e-01
-7.279523015022277832e-01
-5.980935692787170410e-01
8.974483013153076172e-01
-4.941618144512176514e-01
7.793723344802856445e-01
7.696002721786499023e-01
2.434488534927368164e-01
-4.425016045570373535e-01
7.689743638038635254e-01
5.951852202415466309e-01
-5.844371318817138672e-01
-2.833129465579986572e-01
2.706694602966308594e-01
4.715026617050170898e-01
-7.717738747596740723e-01
-1.084369868040084839e-01
7.630603909492492676e-01
8.751726746559143066e-01
1.694452166557312012e-01
3.308321535587310791e-01
2.840599231421947479e-02
6.465342044830322266e-01
-6.682993173599243164e-01
2.321876585483551025e-01
1.341064274311065674e-01
8.043707013130187988e-01
-7.096226215362548828e-01
-1.061727106571197510e-01
6.441839933395385742e-01
7.864714860916137695e-01
2.005214542150497437e-01
6.896547675132751465e-01
-4.806704819202423096e-01
-5.358282923698425293e-01
7.861832380294799805e-01
-4.996968507766723633e-01
6.459279060363769531e-01
2.362954169511795044e-01
-5.860469341278076172e-01
7.909691333770751953e-01
9.105590581893920898e-01
6.629403233528137207e-01
4.264498353004455566e-01
-9.560653939843177795e-03
8.461219668388366699e-01
8.956028223037719727e-01
5.879802107810974121e-01
6.414883136749267578e-01
6.579654812812805176e-01
7.275648713111877441e-01
-3.310925066471099854e-01
-4.795546531677246094e-01
3.971492871642112732e-02
-5.645676851272583008e-01
-5.861166715621948242e-01
5.677114725112915039e-01
-5.498484373092651367e-01
-7.395271062850952148e-01
7.921102643013000488e-01
1.080753579735755920e-01
-7.430194616317749023e-01
8.044595122337341309e-01
-3.884395658969879150e-01
7.569927573204040527e-01
7.503142356872558594e-01
9.025615453720092773e-02
7.485231161117553711e-01
8.906235694885253906e-01
-3.539206683635711670e-01
7.724453806877136230e-01
-6.013020277023315430e-01
-2.329816669225692749e-01
-7.431005835533142090e-01
1.808060556650161743e-01
6.425171494483947754e-01
-6.616747379302978516e-01
-6.631195545196533203e-01
-5.488911271095275879e-01
7.353484630584716797e-01
-5.926221013069152832e-01
8.535086363554000854e-02
-5.044614151120185852e-02
-6.116469502449035645e-01
2.991165220737457275e-01
4.439007043838500977e-01
-4.932533502578735352e-01
8.497622013092041016e-01
-3.176265656948089600e-01
1.585631817579269409e-01
-8.261643052101135254e-01
7.320805788040161133e-01
6.709527969360351562e-01
7.660243511199951172e-01
-1.768353283405303955e-01
7.200757265090942383e-01
-6.489114165306091309e-01
7.314603328704833984e-01
8.012787699699401855e-01
6.865721940994262695e-01
6.694608330726623535e-01
-3.184215724468231201e-01
-3.710133135318756104e-01
-4.994600117206573486e-01
6.777362227439880371e-01
8.162710070610046387e-01
3.481952250003814697e-01
-6.132820248603820801e-01
-7.694959640502929688e-01
-4.292715489864349365e-01
8.088250756263732910e-01
3.887134790420532227e-01
6.501073241233825684e-01
7.757664918899536133e-01
-7.561102509498596191e-01
8.707787394523620605e-01
-7.423226237297058105e-01
6.849998831748962402e-01
7.775930762290954590e-01
7.351258397102355957e-01
-6.444394588470458984e-01
-7.280571460723876953e-01
-6.853733062744140625e-01
-4.724233448505401611e-01
3.731741383671760559e-02
1.273360997438430786e-01
4.285358488559722900e-01
-5.376805663108825684e-01
8.806362152099609375e-01
7.517216205596923828e-01
7.170549631118774414e-01
3.966242671012878418e-01
8.075256943702697754e-01
-4.850077331066131592e-01
6.662290096282958984e-01
-7.336775660514831543e-01
7.848184704780578613e-01
-4.038855433464050293e-01
5.374113321304321289e-01
1.835530102252960205e-01
-2.351228445768356323e-01
-1.269991695880889893e-01
6.874950528144836426e-01
7.522256970405578613e-01
-5.360816717147827148e-01
5.434637144207954407e-02
5.822747945785522461e-02
-6.036928296089172363e-01
5.925249457359313965e-01
-5.577514171600341797e-01
7.081278562545776367e-01
-6.737611889839172363e-01
7.860963940620422363e-01
-2.359068393707275391e-01
7.461912631988525391e-01
-6.658001542091369629e-01
7.457261681556701660e-01
8.197926878929138184e-01
1.034051179885864258e-01
1.599023342132568359e-01
6.409582495689392090e-01
6.169214248657226562e-01
-5.080149769783020020e-01
-4.899168610572814941e-01
5.712683200836181641e-01
-5.238997936248779297e-01
-5.492991805076599121e-01
-7.495008409023284912e-02
-2.068190127611160278e-01
8.104760646820068359e-01
-6.528885960578918457e-01
3.278463482856750488e-01
6.921607851982116699e-01
-3.093187510967254639e-01
-7.715411782264709473e-01
-1.011162325739860535e-01
8.132890462875366211e-01
9.527981281280517578e-02
-1.394115239381790161e-01
-5.992505550384521484e-01
-6.583892554044723511e-02
8.685402274131774902e-01
6.346866488456726074e-01
-3.367026448249816895e-01
7.658466696739196777e-01
7.650249600410461426e-01
7.457686066627502441e-01
-9.080675989389419556e-02
8.058764338493347168e-01
-7.053990364074707031e-01
5.315686464309692383e-01
-3.545136451721191406e-01
-1.341924965381622314e-01
-6.969394087791442871e-01
-6.435799002647399902e-01
-7.167953252792358398e-01
7.932932376861572266e-01
-2.584045566618442535e-02
7.668890953063964844e-01
-4.541770517826080322e-01
7.988585233688354492e-01
4.678168892860412598e-01
6.225999072194099426e-02
-1.298682242631912231e-01
-2.270029932260513306e-01
-3.463516831398010254e-01
8.405752182006835938e-01
6.873093247413635254e-01
2.070583403110504150e-01
2.281379997730255127e-01
7.844819426536560059e-01
-5.483804345130920410e-01
-7.527267932891845703e-02
-6.273561716079711914e-02
8.201848268508911133e-01
8.168737888336181641e-01
6.127471327781677246e-01
1.308456808328628540e-01
-2.196123450994491577e-01
-5.934721231460571289e-01
-5.936780571937561035e-01
-7.161346077919006348e-01
-6.946599483489990234e-02
6.144224405288696289e-01
-6.920691132545471191e-01
-7.170562744140625000e-01
3.753635883331298828e-01
-5.576214194297790527e-01
