4.219059944152832031e-01
7.718789577484130859e-02
-4.932860434055328369e-01
5.062572956085205078e-01
3.879449367523193359e-01
-4.016490578651428223e-01
4.491987228393554688e-01
3.074187934398651123e-01
3.670337498188018799e-01
2.167146503925323486e-01
-2.776662707328796387e-01
2.348310798406600952e-01
4.232309758663177490e-01
4.341469705104827881e-01
3.110532164573669434e-01
-4.780241847038269043e-01
4.607794880867004395e-01
-1.583352237939834595e-01
5.318754315376281738e-01
4.741035997867584229e-01
3.636852279305458069e-02
3.862964212894439697e-01
2.692703604698181152e-01
4.163073599338531494e-01
3.491553068161010742e-01
5.079780220985412598e-01
-3.633097112178802490e-01
-1.021616254001855850e-02
-3.693838119506835938e-01
5.441882610321044922e-01
5.337184667587280273e-01
-5.012986063957214355e-01
4.116680026054382324e-01
-4.958367645740509033e-01
4.236900508403778076e-01
3.167295455932617188e-01
-4.799188077449798584e-01
4.196095168590545654e-01
-2.613736689090728760e-01
3.571091890335083008e-01
3.001745939254760742e-01
4.300988316535949707e-01
-3.152356445789337158e-01
-3.912682831287384033e-01
-3.182909190654754639e-01
2.669699788093566895e-01
3.929609656333923340e-01
-5.117575526237487793e-01
4.431689381599426270e-01
4.973257184028625488e-01
4.890910685062408447e-01
-4.147558808326721191e-01
4.738177657127380371e-01
4.334999918937683105e-01
4.039554595947265625e-01
4.017412066459655762e-01
3.115889728069305420e-01
3.813563287258148193e-01
4.482174217700958252e-01
-4.447195827960968018e-01
2.970610857009887695e-01
4.645542800426483154e-01
2.726802229881286621e-01
2.994237840175628662e-01
4.276778697967529297e-01
4.084897041320800781e-01
4.554637968540191650e-01
-2.454830706119537354e-01
5.254870653152465820e-01
3.045679628849029541e-01
2.321292012929916382e-01
3.940707445144653320e-01
5.183201432228088379e-01
3.486266136169433594e-01
4.078791737556457520e-01
3.777410686016082764e-01
-4.323460757732391357e-01
5.045742988586425781e-01
-3.772912919521331787e-01
3.773107826709747314e-01
3.645705580711364746e-01
5.040681958198547363e-01
4.355510771274566650e-01
4.455301761627197266e-01
1.219482570886611938e-01
-2.879539132118225098e-01
4.934098422527313232e-01
3.388071954250335693e-01
2.898169755935668945e-01
3.185103833675384521e-01
4.936561882495880127e-01
4.781694710254669189e-01
2.892801761627197266e-01
4.558059275150299072e-01
3.907526731491088867e-01
3.392629921436309814e-01
2.571930885314941406e-01
4.001458287239074707e-01
3.643374741077423096e-01
3.621501922607421875e-01
-4.113717675209045410e-01
4.535426199436187744e-01
4.829015433788299561e-01
4.516892433166503906e-01
2.951427400112152100e-01
5.172405242919921875e-01
-3.067950904369354248e-01
3.051453530788421631e-01
-3.670738637447357178e-01
3.333718776702880859e-01
4.431695342063903809e-01
3.305571377277374268e-01
3.291158676147460938e-01
2.167665362358093262e-01
-5.736020803451538086e-01
3.862138986587524414e-01
-2.749719023704528809e-01
-3.061124682426452637e-01
-5.210419297218322754e-01
2.419808208942413330e-01
1.868672221899032593e-01
3.184831440448760986e-01
-3.153131902217864990e-01
3.760195374488830566e-01
1.417527943849563599e-01
-3.143844604492187500e-01
3.740898966789245605e-01
5.033375620841979980e-01
4.308805763721466064e-01
3.449121415615081787e-01
2.713448405265808105e-01
3.369560241699218750e-01
5.162801146507263184e-01
-3.154105246067047119e-01
2.817015945911407471e-01
2.793545424938201904e-01
3.220324218273162842e-01
-4.836368262767791748e-01
3.309032022953033447e-01
3.535259366035461426e-01
4.512643516063690186e-01
-4.664135277271270752e-01
-2.741397619247436523e-01
2.738460898399353027e-01
5.194478034973144531e-01
5.070015788078308105e-01
-3.439502716064453125e-01
4.588254392147064209e-01
-2.446521222591400146e-01
3.581862151622772217e-01
-4.235746860504150391e-01
3.804316222667694092e-01
4.882126450538635254e-01
2.543457448482513428e-01
-3.795365691184997559e-01
-3.020975887775421143e-01
3.351406157016754150e-01
3.440097272396087646e-01
4.022343158721923828e-01
4.517692029476165771e-01
-3.617892563343048096e-01
3.592248558998107910e-01
5.147684812545776367e-01
-5.240764021873474121e-01
4.318387806415557861e-01
4.292387664318084717e-01
-3.841381371021270752e-01
-3.856722712516784668e-01
-3.745639622211456299e-01
-4.086826145648956299e-01
4.211122691631317139e-01
4.464379251003265381e-01
4.071374237537384033e-01
3.570042252540588379e-01
5.022095441818237305e-01
-4.381644427776336670e-01
1.562930345535278320e-01
-4.135996103286743164e-01
4.983468651771545410e-01
-4.174094498157501221e-01
3.986016809940338135e-01
3.052293062210083008e-01
-4.636403918266296387e-01
5.298951268196105957e-01
2.759250700473785400e-01
3.301108181476593018e-01
-3.573404848575592041e-01
4.516812264919281006e-01
-3.978943526744842529e-01
3.748839795589447021e-01
7.628174126148223877e-02
3.195157945156097412e-01
3.477534055709838867e-01
3.750133812427520752e-01
3.745222389698028564e-01
2.575349509716033936e-01
-3.199124336242675781e-01
3.804355561733245850e-01
-4.078500717878341675e-02
3.340760171413421631e-01
5.007088184356689453e-01
3.873005211353302002e-01
-2.886384427547454834e-01
3.271795213222503662e-01
3.975266516208648682e-01
5.172877907752990723e-01
1.066975891590118408e-01
3.792419433593750000e-01
-4.682939052581787109e-01
2.745297253131866455e-01
-5.173946022987365723e-01
2.577882707118988037e-01
3.558738827705383301e-01
-4.165814220905303955e-01
3.904073238372802734e-01
1.561158150434494019e-01
-3.553120195865631104e-01
4.846735000610351562e-01
-4.897987842559814453e-01
-5.547726750373840332e-01
3.690042793750762939e-01
5.105245709419250488e-01
-4.897306263446807861e-01
4.155385196208953857e-01
4.175292551517486572e-01
2.302016019821166992e-01
4.879308044910430908e-01
-5.012074708938598633e-01
3.871050179004669189e-01
4.157055020332336426e-01
3.386712372303009033e-01
3.938663005828857422e-01
4.571881294250488281e-01
4.773353636264801025e-01
3.585186898708343506e-01
-3.019299805164337158e-01
-4.943095445632934570e-01
5.058286190032958984e-01
3.992088139057159424e-01
5.076776146888732910e-01
-5.115997195243835449e-01
3.618236482143402100e-01
2.926333844661712646e-01
3.095353543758392334e-01
-4.837020933628082275e-01
-4.461974203586578369e-01
4.494408965110778809e-01
3.946308791637420654e-01
4.249157607555389404e-01
4.152465760707855225e-01
3.938308060169219971e-01
4.607708454132080078e-01
4.439125657081604004e-01
3.702173829078674316e-01
-3.124177753925323486e-01
4.035995304584503174e-01
