-5.131594371050596237e-03
-6.254960317164659500e-04
1.272059627808630466e-03
-3.948285430669784546e-02
-2.290453203022480011e-02
1.448521111160516739e-02
-1.034445222467184067e-02
-5.911993794143199921e-03
-1.127095613628625870e-02
5.148951336741447449e-02
-2.961662597954273224e-03
-3.298940835520625114e-03
7.768667768687009811e-03
2.352704061195254326e-03
1.751272566616535187e-02
5.594626069068908691e-03
-3.864236408844590187e-03
3.099820204079151154e-02
1.471753604710102081e-02
1.719866320490837097e-02
7.648739498108625412e-03
3.909609839320182800e-02
-1.878895238041877747e-02
-9.202586486935615540e-03
8.560132235288619995e-03
-5.926412530243396759e-03
-2.746207825839519501e-02
-1.624067686498165131e-02
3.989123553037643433e-02
8.514475077390670776e-03
1.628201641142368317e-02
1.222849078476428986e-02
-4.092146176844835281e-03
3.750179021153599024e-04
-3.457280993461608887e-02
-2.927776612341403961e-02
2.362249046564102173e-02
-6.848281249403953552e-03
-1.326324325054883957e-02
6.018858868628740311e-03
-9.858136996626853943e-03
-7.603598758578300476e-03
-1.075610145926475525e-02
3.733671456575393677e-02
-2.265702188014984131e-02
1.114072743803262711e-02
4.560172557830810547e-03
3.830089792609214783e-02
3.718905523419380188e-02
-1.136280316859483719e-02
7.238812278956174850e-03
2.385568991303443909e-02
-2.933393977582454681e-02
-4.896572325378656387e-03
6.933470070362091064e-02
-9.931427426636219025e-03
5.323035642504692078e-02
-2.218663459643721581e-03
-1.392632815986871719e-02
3.086333628743886948e-03
1.872344315052032471e-02
1.985679939389228821e-02
4.373381659388542175e-02
5.404755007475614548e-03
-1.066097244620323181e-02
2.156536560505628586e-03
-1.993065699934959412e-02
6.434082053601741791e-03
-6.577601656317710876e-03
3.184411674737930298e-02
-4.285854473710060120e-02
2.828572317957878113e-02
-1.309131365269422531e-02
1.047511701472103596e-03
2.409081906080245972e-02
2.349593304097652435e-02
-2.023750729858875275e-02
-3.037009388208389282e-02
2.003594487905502319e-02
3.562871739268302917e-02
-3.854243829846382141e-02
3.211488202214241028e-02
-3.785812295973300934e-04
-2.461746893823146820e-02
-2.122523263096809387e-02
4.763711616396903992e-02
-1.573245739564299583e-03
-2.589398995041847229e-02
4.908334231004118919e-04
1.453325967304408550e-03
3.678756952285766602e-02
-1.928136870265007019e-02
-1.286168117076158524e-02
4.386979155242443085e-03
1.655337214469909668e-02
-1.707103475928306580e-02
8.429884910583496094e-03
-1.701634377241134644e-03
1.798959821462631226e-02
-2.844186313450336456e-02
2.381189167499542236e-02
-1.292212773114442825e-02
6.851447280496358871e-03
5.174246616661548615e-03
-3.131920238956809044e-03
-2.516566077247262001e-03
-1.821315661072731018e-02
1.020002365112304688e-02
2.417439967393875122e-02
-8.438187651336193085e-03
-1.111991610378026962e-02
2.626284724101424217e-03
-3.077583678532391787e-04
7.030606735497713089e-03
1.304832939058542252e-02
2.549184020608663559e-03
2.511953562498092651e-02
-3.303105011582374573e-02
-1.212480198591947556e-02
-4.394287709146738052e-03
2.734457328915596008e-02
-1.443793717771768570e-02
-7.336258888244628906e-03
3.858143836259841919e-02
1.605337671935558319e-02
8.865122683346271515e-03
-3.094539977610111237e-02
1.689700968563556671e-02
6.850251927971839905e-03
6.393294781446456909e-02
3.842525929212570190e-02
-3.023343719542026520e-02
2.467864379286766052e-02
1.232917886227369308e-02
5.290644615888595581e-02
2.404000796377658844e-02
1.336222514510154724e-02
3.912027552723884583e-02
1.032804697751998901e-02
-3.586871549487113953e-02
5.250335205346345901e-03
-1.776196248829364777e-02
-1.048869453370571136e-02
-1.814177073538303375e-02
-2.802837826311588287e-02
-5.070134997367858887e-03
-1.091533247381448746e-02
1.139898411929607391e-02
3.538040677085518837e-03
2.133199572563171387e-02
9.395454078912734985e-03
1.017368864268064499e-03
1.630933396518230438e-02
-1.675521209836006165e-02
-1.217117160558700562e-02
2.341591753065586090e-02
2.080818824470043182e-02
1.369697507470846176e-02
-4.717881791293621063e-03
-2.740537002682685852e-02
-3.394154086709022522e-02
-6.864495575428009033e-03
-1.716846600174903870e-02
-1.786035113036632538e-02
-2.413355186581611633e-02
-5.226639099419116974e-03
-1.491494942456483841e-02
7.629314903169870377e-03
-5.306213628500699997e-03
-6.260723457671701908e-04
-1.637598313391208649e-02
-1.130638178437948227e-02
3.131539747118949890e-02
1.789000816643238068e-02
9.613325819373130798e-04
-1.223901007324457169e-02
8.020380511879920959e-03
4.483876284211874008e-03
1.016657706350088120e-02
-2.502423012629151344e-03
7.418918889015913010e-03
1.245689392089843750e-02
2.071298472583293915e-02
-2.424287237226963043e-02
-3.500195685774087906e-03
1.553042046725749969e-02
-1.538829971104860306e-02
-3.878065152093768120e-03
1.352834631688892841e-03
-1.215434074401855469e-02
2.678925171494483948e-03
3.405973315238952637e-02
3.934367746114730835e-02
-6.212639156728982925e-03
-3.052738308906555176e-02
8.465832099318504333e-03
1.284145936369895935e-02
2.257634140551090240e-02
4.446966573596000671e-02
-1.090133376419544220e-02
-4.003572463989257812e-02
4.315513186156749725e-03
-9.738091612234711647e-04
1.815795153379440308e-02
-1.130052376538515091e-02
2.076824568212032318e-02
1.074778498150408268e-03
2.215590700507164001e-02
-8.148565888404846191e-03
1.076059043407440186e-02
-3.475751029327511787e-03
-7.603507954627275467e-03
2.849354408681392670e-02
2.054271101951599121e-02
-8.389296010136604309e-03
1.140636205673217773e-02
-5.459987558424472809e-03
3.648234531283378601e-03
-2.321792952716350555e-02
-1.419484242796897888e-02
-1.934102363884449005e-02
4.066349565982818604e-02
1.661926857195794582e-03
1.154319290071725845e-02
-9.001929312944412231e-03
2.438344433903694153e-02
-4.059703275561332703e-02
-5.322066601365804672e-03
-1.147402729839086533e-02
-5.859512835741043091e-03
-2.668324485421180725e-02
3.475844115018844604e-02
2.362642064690589905e-02
2.283284068107604980e-02
3.023592941462993622e-02
3.261017799377441406e-02
3.590352088212966919e-02
3.648605942726135254e-02
-1.189792342483997345e-02
-3.012366592884063721e-02
6.021287292242050171e-03
3.504571691155433655e-02
-1.443457975983619690e-02
-1.905328966677188873e-02
-2.403963729739189148e-02
2.149220742285251617e-02
1.993090100586414337e-02
4.006430506706237793e-02
-2.284453436732292175e-02
2.890492416918277740e-02
-2.094229497015476227e-02
-2.285730466246604919e-02
-2.636281959712505341e-02
1.080329716205596924e-02
1.810695230960845947e-02
-7.778785191476345062e-03
