4.505317509174346924e-01 -8.909790039062500000e+00 -5.384369850158691406e+00 -2.467046737670898438e+00 9.439660906791687012e-01 1.511742115020751953e+00 3.483059644699096680e+00 1.836287021636962891e+00 1.994424462318420410e+00 -1.592175364494323730e+00 -7.608825206756591797e+00 6.086899638175964355e-01 2.187134742736816406e+00 9.296875596046447754e-01 -1.057262039184570312e+01 1.233580946922302246e+00 -1.198304176330566406e+00 -8.093123435974121094e+00 -1.935624122619628906e+00 3.516994476318359375e+00 -1.707353949546813965e+00 -3.681146621704101562e+00 7.148305177688598633e-01 -5.525018692016601562e+00 1.599193572998046875e+00 2.579767942428588867e+00 1.415449857711791992e+00 7.179263234138488770e-01 3.286615371704101562e+00 7.205203175544738770e-01 3.214787483215332031e+00 7.773949503898620605e-01 2.494035005569458008e+00 -1.519004821777343750e+00 4.312681257724761963e-01 -1.214760780334472656e+00 -3.417488098144531250e+00 2.553846538066864014e-01 2.593732833862304688e+00 6.910986900329589844e-01 3.888665139675140381e-01 1.044579029083251953e+00 -5.249590873718261719e+00 -1.701457738876342773e+00 5.882062911987304688e+00 7.973039150238037109e-01 -3.156090736389160156e+00 1.558484911918640137e+00 -2.497221231460571289e+00 3.844070732593536377e-01 -5.309540271759033203e+00 1.315817713737487793e+00 -1.857748746871948242e+00 1.719431519508361816e+00 -2.717805385589599609e+00 1.130859136581420898e+00 1.366542458534240723e+00 7.867900729179382324e-01 2.240159511566162109e+00 7.078230381011962891e-01 -3.004787254333496094e+01 -1.315136909484863281e+00 4.636306762695312500e-01 4.851567149162292480e-01 2.241134881973266602e+00 2.149275541305541992e+00 1.493927121162414551e+00 1.139487028121948242e+00 1.241135954856872559e+00 1.095811247825622559e+00 -1.667432785034179688e+01 3.226485848426818848e-01 -9.004743099212646484e-01 7.063349485397338867e-01 2.326227664947509766e+00 -2.122547626495361328e+00 8.061164617538452148e-01 -1.512736320495605469e+00 6.390318274497985840e-01 -1.306490421295166016e+01 9.121981859207153320e-01 -5.682464599609375000e+00 1.234540700912475586e+00 7.718988060951232910e-01 1.241507902741432190e-01 -4.828785419464111328e+00 -4.487942218780517578e+00 -1.485910773277282715e+00 6.026994585990905762e-01 2.078807502985000610e-01 -1.967478394508361816e+00 -9.997873306274414062e-01 2.137163639068603516e+00 4.884293079376220703e+00 1.449560880661010742e+00 -2.350584030151367188e+00 -6.475322723388671875e+00 6.710591912269592285e-01 6.409429311752319336e-01 -5.685483932495117188e+00 4.915292561054229736e-01 5.294104814529418945e-01 -4.605620384216308594e+00 -3.863882064819335938e+00 7.020360827445983887e-01 -2.779062509536743164e+00 3.886777758598327637e-01 1.595635414123535156e+00 4.283766746520996094e-01 6.995452642440795898e-01 -1.259420752525329590e+00 1.774710893630981445e+00 1.244620323181152344e+00 6.197235584259033203e-01 1.539947748184204102e+00 -2.102026939392089844e+00 1.547706604003906250e+00 9.884974360466003418e-01 4.934576153755187988e-01 3.780067563056945801e-01 1.628793835639953613e+00 1.273420691490173340e+00 4.041069447994232178e-01 -1.365996837615966797e+00 8.310503363609313965e-01 3.817678213119506836e+00 -2.979645490646362305e+00 -1.005536079406738281e+00 1.946856498718261719e+00 1.750638008117675781e+00 -2.466124057769775391e+00 -6.112982749938964844e+00 1.042668461799621582e+00 -5.876430988311767578e+00 -1.736928367614746094e+01 2.444788217544555664e-01 5.668900609016418457e-01 7.727239727973937988e-01 6.249690055847167969e-01 9.974523782730102539e-01 -3.921527862548828125e+00 9.637762308120727539e-01 2.706907987594604492e+00 -1.481726765632629395e+00 1.543547749519348145e+00 4.587087154388427734e+00 1.512224793434143066e+00 -1.059526920318603516e+01 2.268326044082641602e+00 -6.204071998596191406e+00 2.354260921478271484e+00 9.475174546241760254e-01 7.911546230316162109e-01 7.117279767990112305e-01 -1.213889718055725098e+00 6.759737133979797363e-01 -1.797582864761352539e+00 2.143710374832153320e+00 6.903746724128723145e-01 9.131669402122497559e-01 3.992009878158569336e+00 2.164040803909301758e+00 -1.910683870315551758e+00 1.835647940635681152e+00 1.336656093597412109e+00 5.638124942779541016e-01 3.060468435287475586e+00 -3.374859809875488281e+00 4.218016624450683594e+00 9.212486743927001953e-01 4.104859828948974609e+00 1.228305101394653320e+00 -9.290100336074829102e-01 1.336643338203430176e+00 3.304647207260131836e+00 -1.588105916976928711e+00 4.455278396606445312e+00 1.373982071876525879e+00 4.358454048633575439e-01 1.398879051208496094e+00 7.349283099174499512e-01 6.730609536170959473e-01 5.619354248046875000e-01 1.139302253723144531e+00 7.990012168884277344e-01 1.008212327957153320e+00 1.922191143035888672e+00 7.781839966773986816e-01 6.877174377441406250e-01 1.289448738098144531e+00 -2.305685758590698242e+00 1.659088492393493652e+00 -1.071598052978515625e+00 -2.001040935516357422e+00 -5.729811191558837891e+00 1.082626700401306152e+00 4.299930334091186523e-01 1.108696460723876953e+00 3.828707695007324219e+00 4.142832756042480469e+00 -4.222550868988037109e+00 4.001457691192626953e-01 -2.318891048431396484e+00 1.197690486907958984e+00 -6.138423442840576172e+00 2.085698127746582031e+00 6.683336496353149414e-01 -1.139244794845581055e+00 -7.867802381515502930e-01 -2.176899671554565430e+00 5.027418136596679688e-01 9.751136302947998047e-01 9.961912035942077637e-01 7.585781216621398926e-01 7.413876056671142578e-01 1.001758933067321777e+00 -1.630544066429138184e+00 5.527620315551757812e-01 -1.297506046295166016e+01 1.095766305923461914e+00 1.551026701927185059e+00 4.338774383068084717e-01 2.276972770690917969e+00 1.640320062637329102e+00 -4.978703022003173828e+00 -1.968594741821289062e+01 -1.571927428245544434e+00 7.776297330856323242e-01 3.695105552673339844e+00 -1.368604063987731934e+00 4.319158554077148438e+00 7.068516016006469727e-01 3.886637985706329346e-01 4.357840418815612793e-01 5.958187580108642578e-01 7.386425733566284180e-01 1.586644947528839111e-01 7.091536521911621094e-01 3.424790501594543457e-01 5.438248515129089355e-01 -1.175020694732666016e+00 3.930210173130035400e-01 1.120235323905944824e+00 9.880889654159545898e-01 2.307056635618209839e-01 2.544918060302734375e-01 -1.147143602371215820e+00 4.989994466304779053e-01 -3.256714582443237305e+00 6.755496263504028320e-01 -1.475091814994812012e+00 -1.589510679244995117e+00 4.802883863449096680e-01 8.372828960418701172e-01 -1.238998770713806152e+00 3.544562339782714844e+00
