3.432173967361450195e+00 3.394889235496520996e-01 -4.814389705657958984e+00 -8.863985538482666016e-01 1.467577695846557617e+00 6.280413866043090820e-01 -7.515701055526733398e-01 -3.046513557434082031e+00 -9.301326870918273926e-01 -6.537079811096191406e-01 -1.034149527549743652e+00 2.689598500728607178e-01 4.131776988506317139e-01 3.831302225589752197e-01 1.919476628303527832e+00 -1.686817932128906250e+01 -3.130934238433837891e+00 -1.109093379974365234e+01 9.550602436065673828e-01 1.047287702560424805e+00 -6.087970733642578125e-01 -7.864440917968750000e+00 4.023228168487548828e+00 -6.993895769119262695e-01 -8.759774565696716309e-01 1.773012042045593262e+00 -4.662651062011718750e+00 -3.514740765094757080e-01 -3.881318569183349609e-01 -1.650140404701232910e+00 -6.121538877487182617e-01 3.466279983520507812e+00 -1.239736676216125488e+00 4.886355400085449219e-01 3.430994749069213867e-01 -7.646421790122985840e-01 -1.287029981613159180e+00 2.100203990936279297e+00 -3.206114470958709717e-01 -1.786310911178588867e+00 -1.581090688705444336e+00 7.691256999969482422e-01 1.831443905830383301e+00 -7.489152550697326660e-01 -3.092083454132080078e+00 2.022177696228027344e+00 2.337739229202270508e+00 6.378270983695983887e-01 -8.080662488937377930e-01 -3.816953182220458984e+00 6.355121731758117676e-01 -4.090347886085510254e-01 3.219138979911804199e-01 8.591225147247314453e-01 2.845822811126708984e+00 -1.326592350006103516e+01 -5.727233290672302246e-01 1.309324979782104492e+00 6.965832114219665527e-01 -4.893938302993774414e-01 6.847807765007019043e-01 -2.176266193389892578e+00 -6.467256069183349609e+00 7.209829688072204590e-01 -4.227941989898681641e+00 3.813566863536834717e-01 -1.128986930847167969e+01 6.721773147583007812e-01 3.264835476875305176e-01 2.372456312179565430e+00 -3.773447275161743164e+00 2.743149757385253906e+00 -4.774224758148193359e+00 2.061275005340576172e+00 1.255098104476928711e+00 4.444685578346252441e-01 4.524869024753570557e-01 6.445131897926330566e-01 7.503959536552429199e-01 -8.515585064888000488e-01 -6.830111503601074219e+00 1.286853909492492676e+00 -3.960231244564056396e-01 -2.185225963592529297e+00 2.994751036167144775e-01 -1.925592780113220215e+00 -4.959875941276550293e-01 2.619621343910694122e-02 6.550101041793823242e-01 -1.176431059837341309e+00 1.576781868934631348e+00 1.942354559898376465e+00 4.546920061111450195e-01 9.104571938514709473e-01 -1.809878706932067871e+00 6.796873211860656738e-01 6.213839650154113770e-01 -4.371624946594238281e+00 2.918149232864379883e+00 -9.616645812988281250e+00 -2.797188282012939453e+00 -4.975660741329193115e-01 -1.170677304267883301e+00 3.094842135906219482e-01 -9.341239929199218750e+00 -7.013652324676513672e-01 -1.913386225700378418e+00 2.232558250427246094e+00 -8.260839581489562988e-01 -1.080353498458862305e+00 1.645262479782104492e+00 -4.813810288906097412e-01 -1.094275236129760742e+00 -9.595436453819274902e-01 -7.083318233489990234e+00 3.272214651107788086e+00 -8.572050094604492188e+00 -6.885337233543395996e-01 -3.023470342159271240e-01 9.614587426185607910e-01 1.283592820167541504e+00 1.549309849739074707e+00 -1.807895421981811523e+00 6.794086098670959473e-01 -7.244632244110107422e-01 1.767585277557373047e+00 9.302029013633728027e-01 4.006669223308563232e-01 -1.941377162933349609e+00 -6.425177574157714844e+00 -1.311737442016601562e+01 -1.525846719741821289e+00 2.703340649604797363e-01 8.941374421119689941e-01 -2.316627025604248047e+00 -3.689500093460083008e-01 -9.865986108779907227e-01 -9.483345031738281250e+00 9.791454076766967773e-01 4.973046183586120605e-01 -2.523063421249389648e+00 8.242503404617309570e-01 -9.730343222618103027e-01 7.298829555511474609e-01 -1.237532258033752441e+00 1.174148321151733398e+00 1.072301030158996582e+00 1.634441018104553223e+00 -8.515344858169555664e-01 -1.792605018615722656e+01 -4.825946331024169922e+00 -6.034623980522155762e-01 -9.424842596054077148e-01 -3.307202756404876709e-01 -1.834169507026672363e+00 -3.253304958343505859e+00 1.499951839447021484e+00 4.065601348876953125e+00 1.173631668090820312e+00 5.659880638122558594e-01 1.529130697250366211e+00 3.078239202499389648e+00 2.853646755218505859e+00 -8.929718136787414551e-01 2.277831315994262695e+00 -9.729216098785400391e-01 1.572400212287902832e+00 -6.444948315620422363e-01 -8.361706733703613281e-01 6.913762092590332031e-01 2.388149738311767578e+00 -4.893843233585357666e-01 -2.686579465866088867e+00 -1.849422812461853027e+00 8.248200416564941406e-01 -1.259183168411254883e+00 8.828899860382080078e-01 -1.278208255767822266e+00 9.044067263603210449e-01 -8.134613633155822754e-01 1.511756896972656250e+00 -1.612455129623413086e+00 1.717694997787475586e+00 -5.267728567123413086e-01 7.316113114356994629e-01 9.098508954048156738e-01 -9.227385520935058594e-01 -6.467210769653320312e+00 3.183948993682861328e-01 5.664821863174438477e-01 -6.837699413299560547e+00 -1.037507629394531250e+01 1.814458489418029785e+00 -4.485037624835968018e-01 -4.250246524810791016e+00 2.094317197799682617e+00 -5.220297574996948242e-01 9.808332920074462891e-01 -3.343297481536865234e+00 -2.278192520141601562e+00 4.428318440914154053e-01 -2.744145154953002930e+00 -5.504945516586303711e-01 -7.470900058746337891e+00 8.251805901527404785e-01 -1.554424762725830078e+00 -1.034123778343200684e+00 -3.045201778411865234e+00 -1.091100573539733887e-01 1.957871437072753906e+00 4.354205131530761719e-01 -2.012419939041137695e+00 2.599924504756927490e-01 1.530357480049133301e+00 7.637388110160827637e-01 -1.338807821273803711e+00 1.237774252891540527e+00 9.772042632102966309e-01 -1.094696331024169922e+01 -2.382726222276687622e-01 -5.588031291961669922e+00 -8.843035101890563965e-01 -1.144544720649719238e+00 -5.077235698699951172e-01 5.710653066635131836e-01 -4.195212841033935547e+00 7.492765188217163086e-01 -2.697352647781372070e+00 -1.028022319078445435e-01 -9.630172252655029297e-01 1.966183423995971680e+00 -4.684310257434844971e-01 -3.459612607955932617e+00 -1.944644927978515625e+01 1.831601977348327637e+00 1.134583473205566406e+00 9.276324510574340820e-01 -3.207909345626831055e+00 1.465885519981384277e+00 -7.369470119476318359e+00 -6.289275884628295898e-01 6.993831992149353027e-01 5.596497058868408203e-01 7.914925217628479004e-01 3.412951231002807617e+00 5.416804552078247070e-01 -3.086429119110107422e+00 -2.808401107788085938e+00 -2.408283710479736328e+00 -1.665175676345825195e+00 1.887274146080017090e+00 5.632141232490539551e-01 -6.052513122558593750e-01 -1.013212680816650391e+00 3.567381501197814941e-01 -5.846861362457275391e+00
