-9.959587827324867249e-03
2.450568042695522308e-02
-5.196062382310628891e-03
2.522341348230838776e-02
1.328576914966106415e-02
-1.179038826376199722e-02
1.700165495276451111e-02
1.012707129120826721e-02
-1.380265410989522934e-02
-8.907758630812168121e-03
-1.754146651364862919e-03
-1.212543062865734100e-02
5.434800684452056885e-02
-1.759073324501514435e-02
5.339257768355309963e-05
-2.236358635127544403e-02
2.452664263546466827e-02
2.290890738368034363e-02
-1.570709049701690674e-02
-1.964092068374156952e-02
7.805224973708391190e-03
2.153948135673999786e-02
-5.442685796879231930e-04
-4.836007952690124512e-03
1.117496634833514690e-03
-1.455955859273672104e-02
-1.138166896998882294e-02
1.526912953704595566e-02
-7.861524820327758789e-03
-2.107982523739337921e-02
1.507405890151858330e-03
4.624058026820421219e-03
1.882591750472784042e-04
-1.488016359508037567e-02
-1.798928342759609222e-02
-2.235339721664786339e-03
-2.514374908059835434e-03
-2.215551771223545074e-02
-8.239357732236385345e-03
2.804588340222835541e-02
3.201405052095651627e-03
1.029387861490249634e-02
-2.756756730377674103e-02
-9.723473340272903442e-03
2.621605992317199707e-02
-9.456912055611610413e-03
-1.723366230726242065e-02
-1.625327393412590027e-02
-1.665853708982467651e-02
-2.602914348244667053e-02
1.438767183572053909e-02
1.807493343949317932e-02
-2.010483853518962860e-02
1.752216741442680359e-02
-2.627353370189666748e-02
9.467069990932941437e-03
2.289141411893069744e-04
3.005780465900897980e-02
1.715943589806556702e-02
7.509760907851159573e-04
-3.982937894761562347e-03
-4.317878931760787964e-02
-2.081125741824507713e-03
2.204871363937854767e-02
-5.442764610052108765e-03
1.566823758184909821e-02
-2.992329560220241547e-02
3.228547750040888786e-03
5.680421367287635803e-03
2.647077105939388275e-02
5.456335097551345825e-02
3.162597119808197021e-02
1.649906858801841736e-02
5.691955331712961197e-03
2.410551719367504120e-02
1.802914962172508240e-02
1.338604930788278580e-02
4.714952409267425537e-02
-2.705942653119564056e-02
3.751060226932168007e-03
4.014539346098899841e-02
1.567628979682922363e-02
-1.688821124844253063e-03
2.487238496541976929e-03
-4.396039620041847229e-02
5.897788330912590027e-03
2.829635888338088989e-02
-6.770211271941661835e-03
1.781735010445117950e-02
-7.507102098315954208e-03
1.236145012080669403e-02
-1.263667643070220947e-02
1.631316728889942169e-02
2.271819673478603363e-02
-3.976096585392951965e-02
6.200755480676889420e-03
-1.875740592367947102e-03
-5.091577768325805664e-04
-3.234020248055458069e-02
-2.171155996620655060e-02
-1.307822670787572861e-02
-2.021651715040206909e-02
-1.430772943422198296e-03
-2.742003276944160461e-02
-7.107210345566272736e-03
-8.640921674668788910e-03
1.644002855755388737e-03
-1.056567020714282990e-02
1.506862509995698929e-02
2.797807380557060242e-02
4.508267715573310852e-02
5.596170201897621155e-03
2.358591184020042419e-02
2.361538447439670563e-02
1.370126474648714066e-02
-2.278153598308563232e-02
1.598196849226951599e-02
7.050483021885156631e-03
8.755699731409549713e-03
2.117552980780601501e-02
4.249855410307645798e-03
8.099517785012722015e-03
-1.438515447080135345e-02
-4.462976939976215363e-03
1.475607696920633316e-02
3.015088289976119995e-02
1.309381215833127499e-03
-1.123031880706548691e-02
2.633721800521016121e-03
3.696746891364455223e-03
-1.972153969109058380e-02
-4.805949050933122635e-03
2.817283757030963898e-02
-1.215971074998378754e-02
-3.516889875754714012e-03
1.182788144797086716e-02
2.760238759219646454e-02
2.026325836777687073e-02
4.667851701378822327e-02
-4.388290923088788986e-03
-1.433666516095399857e-02
-6.622574757784605026e-03
1.395934354513883591e-02
3.254106640815734863e-02
2.839676570147275925e-03
3.508104709908366203e-03
-7.493471261113882065e-03
3.332407027482986450e-02
1.651646755635738373e-02
-3.752657026052474976e-02
-2.188875898718833923e-02
-4.151995759457349777e-03
-1.648249104619026184e-03
-3.300604969263076782e-02
5.551335867494344711e-03
2.198736416175961494e-03
1.017066417261958122e-03
-1.353703718632459641e-02
1.596555672585964203e-02
-1.817536773160099983e-03
6.310736760497093201e-03
-2.315884083509445190e-02
2.646794775500893593e-03
-2.795913629233837128e-02
4.638694808818399906e-04
-2.714456291869282722e-03
-5.688839405775070190e-02
4.027584195137023926e-02
-2.330876188352704048e-03
4.801762476563453674e-02
-1.629747101105749607e-03
-1.344698946923017502e-02
1.364370062947273254e-02
7.914563640952110291e-03
8.612296544015407562e-03
-3.444898640736937523e-03
-1.309640123508870602e-03
4.883687477558851242e-03
-9.313791058957576752e-03
-9.835624368861317635e-04
-2.256770059466362000e-02
2.218666486442089081e-02
3.524120151996612549e-02
-1.132595818489789963e-02
2.422901103273034096e-03
-1.246138848364353180e-02
2.765909396111965179e-02
4.845648631453514099e-02
7.775172125548124313e-04
-1.984470291063189507e-03
2.210330218076705933e-03
3.394054481759667397e-03
-3.508071182295680046e-03
3.796939924359321594e-02
-5.142403393983840942e-02
-5.790721997618675232e-02
2.348385751247406006e-02
-5.782844498753547668e-03
-9.611818008124828339e-03
-2.656309306621551514e-02
2.159166522324085236e-02
-1.984921097755432129e-02
-1.695250906050205231e-02
-9.055494592757895589e-05
1.649630069732666016e-02
1.147978939116001129e-02
-2.414463646709918976e-02
-8.816558867692947388e-03
-2.256407169625163078e-03
1.841197535395622253e-02
2.008768171072006226e-02
-9.564830921590328217e-03
9.983239695429801941e-03
-6.347130401991307735e-04
1.337046641856431961e-02
-2.485953643918037415e-02
-2.045508287847042084e-02
-2.499541733413934708e-03
3.499703714624047279e-03
-1.795345544815063477e-02
-2.128716371953487396e-02
5.898627452552318573e-03
6.122403964400291443e-02
2.107322588562965393e-02
-2.540623582899570465e-02
2.269774302840232849e-02
5.680316593497991562e-03
-2.411416033282876015e-03
-1.776736462488770485e-03
-3.813130082562565804e-03
2.275302819907665253e-02
1.835649274289608002e-02
1.549283275380730629e-03
-4.016990773379802704e-03
-1.461380347609519958e-02
-1.872448250651359558e-02
1.415678299963474274e-02
9.509065188467502594e-03
4.392707254737615585e-03
-2.364429272711277008e-02
-1.131372991949319839e-03
-2.275452949106693268e-02
-1.157066505402326584e-02
-8.169021457433700562e-03
6.009296327829360962e-02
1.066755037754774094e-02
-1.966975287359673530e-05
2.773367427289485931e-02
-1.479819044470787048e-02
-1.706018485128879547e-02
3.823582548648118973e-03
-3.015529830008745193e-03
1.360548939555883408e-02
-2.143300324678421021e-02
-1.445445668650791049e-04
-2.789868228137493134e-02
