7.360842227935791016e-01
-6.507094502449035645e-01
-4.952488541603088379e-01
2.604213356971740723e-01
8.163015842437744141e-01
-3.726009726524353027e-01
8.570007085800170898e-01
-4.839803278446197510e-01
-4.905123710632324219e-01
-4.863440692424774170e-01
-3.433054983615875244e-01
1.553270071744918823e-01
7.352147698402404785e-01
6.641428470611572266e-01
-2.619040310382843018e-01
-3.703522980213165283e-01
-5.630005002021789551e-01
4.542315378785133362e-03
-2.398202866315841675e-01
6.017990708351135254e-01
-4.012725353240966797e-01
6.384410858154296875e-01
7.485483288764953613e-01
1.982944309711456299e-01
2.951251268386840820e-01
1.571021676063537598e-01
-2.360704988241195679e-01
7.974458932876586914e-01
3.635465353727340698e-02
-6.648322939872741699e-01
1.325044780969619751e-01
7.233240604400634766e-01
6.416454315185546875e-01
7.511274814605712891e-01
6.897649168968200684e-01
-4.765514135360717773e-01
-4.551801681518554688e-01
7.127131223678588867e-01
5.747796893119812012e-01
7.629009336233139038e-02
-6.466701030731201172e-01
3.475124835968017578e-01
-6.946799755096435547e-01
-6.889671087265014648e-01
-1.422624886035919189e-01
6.258695721626281738e-01
6.697930097579956055e-01
6.992792487144470215e-01
7.396451830863952637e-01
7.339981198310852051e-01
6.724982857704162598e-01
-4.868446886539459229e-01
6.492864489555358887e-01
-2.817184329032897949e-01
6.928767561912536621e-01
-7.864302992820739746e-01
-2.145681157708168030e-02
1.587649583816528320e-01
6.860014200210571289e-01
1.252595782279968262e-01
2.088866233825683594e-01
1.340979337692260742e-01
6.793429255485534668e-01
7.286663055419921875e-01
7.534341216087341309e-01
6.889493465423583984e-01
5.596548318862915039e-01
-8.398239314556121826e-02
6.441303491592407227e-01
7.839923501014709473e-01
7.608766555786132812e-01
7.832801938056945801e-01
4.080101251602172852e-01
7.950063347816467285e-01
-2.585483491420745850e-01
-4.312443435192108154e-01
-7.114773988723754883e-01
-7.093920111656188965e-01
6.790359020233154297e-01
6.906804442405700684e-01
6.746684908866882324e-01
-1.295780576765537262e-02
7.344244718551635742e-01
-5.865501165390014648e-01
5.897139310836791992e-01
5.836380720138549805e-01
-5.785562992095947266e-01
7.325534224510192871e-01
-3.941997587680816650e-01
-1.053733751177787781e-01
7.834990620613098145e-01
-7.220926880836486816e-01
6.476694345474243164e-01
7.729600667953491211e-01
1.024721562862396240e-01
7.699447870254516602e-01
7.641149759292602539e-01
1.104411631822586060e-01
8.392643332481384277e-01
-4.659202694892883301e-01
4.402777850627899170e-01
-7.532638311386108398e-01
3.932884335517883301e-01
-5.207744836807250977e-01
-7.216029763221740723e-01
-4.135246276855468750e-01
-6.974367499351501465e-01
7.346724271774291992e-01
-3.524281680583953857e-01
1.018883194774389267e-02
3.683535158634185791e-01
-2.300861924886703491e-01
2.952894568443298340e-01
6.929090619087219238e-01
5.373559594154357910e-01
-6.592135429382324219e-01
-6.607182025909423828e-01
7.162746787071228027e-01
-6.514334678649902344e-01
6.656184792518615723e-01
1.937156170606613159e-01
7.872355580329895020e-01
-7.134531140327453613e-01
5.936224460601806641e-01
-6.492729187011718750e-01
6.908835172653198242e-01
7.000654339790344238e-01
-7.094002366065979004e-01
6.253419518470764160e-01
-4.654797613620758057e-01
5.241740345954895020e-01
-2.039961516857147217e-01
6.582238674163818359e-01
7.042959928512573242e-01
-1.134877651929855347e-01
6.754648089408874512e-01
-5.752315521240234375e-01
-9.896678477525711060e-02
7.900055050849914551e-01
4.496315121650695801e-01
6.584876179695129395e-01
7.094854712486267090e-01
-7.123372554779052734e-01
7.395538091659545898e-01
1.528615653514862061e-01
1.010051667690277100e-01
5.516450479626655579e-02
6.772134304046630859e-01
4.454318881034851074e-01
-6.570149660110473633e-01
-6.090321540832519531e-01
-1.556086689233779907e-01
9.807364083826541901e-03
1.063655316829681396e-01
6.713284850120544434e-01
-6.927166581153869629e-01
7.540090084075927734e-01
1.602613478899002075e-01
-7.971823215484619141e-02
5.118588209152221680e-01
8.339713513851165771e-02
-2.078492492437362671e-01
6.274566650390625000e-01
-4.054354727268218994e-01
7.157307863235473633e-01
1.588294208049774170e-01
-1.404008083045482635e-02
-6.460204720497131348e-01
5.252416431903839111e-02
-3.917766511440277100e-01
5.465921163558959961e-01
-6.348350048065185547e-01
-5.911973714828491211e-01
6.344226002693176270e-01
2.140642851591110229e-01
-6.234217286109924316e-01
1.818407028913497925e-01
-4.497329890727996826e-01
6.377996802330017090e-01
-7.007416486740112305e-01
7.498897314071655273e-01
6.633361577987670898e-01
-3.041755259037017822e-01
-6.710871458053588867e-01
5.074722766876220703e-01
2.201494872570037842e-01
5.941468477249145508e-01
3.390008807182312012e-01
6.488278508186340332e-01
6.755105257034301758e-01
-5.340353250503540039e-01
-2.925831377506256104e-01
2.302083224058151245e-01
-4.430406689643859863e-01
-4.379943907260894775e-01
-1.852043271064758301e-01
-1.551333814859390259e-02
3.947801887989044189e-01
-5.965456366539001465e-01
2.802525758743286133e-01
9.782337397336959839e-02
-3.623343706130981445e-01
-5.880618691444396973e-01
2.997794747352600098e-01
6.449481248855590820e-01
1.073827147483825684e-01
3.361221402883529663e-02
-3.476090431213378906e-01
-5.152507871389389038e-02
6.524415016174316406e-01
-4.017472267150878906e-02
3.692457377910614014e-01
-5.789356231689453125e-01
7.380194664001464844e-01
7.136551141738891602e-01
6.375249028205871582e-01
7.235211133956909180e-01
-5.889508724212646484e-01
7.069507241249084473e-01
-2.158885151147842407e-01
3.822288289666175842e-02
-5.756189823150634766e-01
-6.352523565292358398e-01
-6.637914180755615234e-01
-6.836683154106140137e-01
1.236550789326429367e-02
6.899704933166503906e-01
-4.134660065174102783e-01
7.602837681770324707e-01
2.893618345260620117e-01
4.362320601940155029e-01
-3.543489873409271240e-01
-3.756248950958251953e-01
-3.282247781753540039e-01
7.327690124511718750e-01
-3.251155614852905273e-01
5.457752570509910583e-02
2.565488219261169434e-01
-4.720664024353027344e-01
-5.944318771362304688e-01
-3.757464140653610229e-02
-6.651743650436401367e-01
7.305718064308166504e-01
7.383933067321777344e-01
-2.464144527912139893e-01
8.101526647806167603e-02
-5.018139481544494629e-01
-1.001111511141061783e-02
-6.079294681549072266e-01
-5.329319238662719727e-01
-3.900342285633087158e-01
-6.597675085067749023e-01
-6.328726410865783691e-01
7.335705161094665527e-01
1.105767786502838135e-01
-6.481829285621643066e-01
