6.018680706620216370e-02 -8.221920579671859741e-02 -2.562399022281169891e-03 -8.764348179101943970e-02 -1.411455962806940079e-02 3.492791205644607544e-02 1.542987674474716187e-01 -6.758279632776975632e-03 2.234621159732341766e-02 7.909012585878372192e-02 -6.317641586065292358e-02 1.159492805600166321e-01 5.898377299308776855e-02 -1.653782725334167480e-01 -1.956089958548545837e-02 7.416360080242156982e-02 -1.340002566576004028e-01 -1.668881997466087341e-02 -6.562708318233489990e-02 -5.348846688866615295e-02 5.610189586877822876e-02 -6.777419149875640869e-02 4.462591558694839478e-02 -7.426787912845611572e-02 3.035392612218856812e-02 4.442025348544120789e-02 1.080421358346939087e-01 -1.056723594665527344e-01 6.923581659793853760e-02 3.556843101978302002e-02 1.507265120744705200e-01 -9.884712100028991699e-02 -8.687415719032287598e-02 -6.510582286864519119e-03 7.602593302726745605e-02 -1.751161217689514160e-01 -1.077265758067369461e-02 4.812768474221229553e-02 -9.544388949871063232e-02 -6.852931529283523560e-02 -1.591147854924201965e-02 -1.225378736853599548e-01 -5.326020345091819763e-02 -1.419880688190460205e-01 9.654980897903442383e-02 4.929463937878608704e-02 -2.265179902315139771e-02 -7.293788343667984009e-02 -2.194650098681449890e-02 7.139561325311660767e-02 9.935620427131652832e-02 -7.383331656455993652e-02 3.975580260157585144e-02 3.544835140928626060e-03 -4.609473422169685364e-02 -1.622801870107650757e-01 -1.962200924754142761e-02 -2.192920446395874023e-02 1.576670110225677490e-01 4.680757410824298859e-03 -1.049833446741104126e-01 5.885239690542221069e-02 5.487226694822311401e-02 -1.902447454631328583e-02 -3.050275519490242004e-02 9.459935873746871948e-02 -5.789338797330856323e-02 -2.118123508989810944e-02 -1.169795822352170944e-02 -5.888318270444869995e-02 -3.815965726971626282e-02 -9.799872338771820068e-02 -1.995407491922378540e-01 -9.671414643526077271e-02 1.043349802494049072e-01 6.643356382846832275e-02 6.670979410409927368e-02 1.132981255650520325e-01 -5.504621937870979309e-02 1.919340901076793671e-02 -1.788540333509445190e-01 3.397952765226364136e-02 4.319059848785400391e-02 7.128100097179412842e-02 7.921458035707473755e-02 -1.858791112899780273e-01 1.256506238132715225e-02 -2.781048789620399475e-02 3.356181457638740540e-02 9.910192340612411499e-02 -5.379940569400787354e-02 -8.296960964798927307e-03 -9.053666889667510986e-02 1.317543070763349533e-02 3.092200204264372587e-04 4.660144448280334473e-02 1.317150611430406570e-02 4.616226255893707275e-02 4.847509041428565979e-02 -1.744449138641357422e-02 9.452616423368453979e-02 -3.733281418681144714e-02 -1.149789616465568542e-01 -4.508703947067260742e-03 -4.315738007426261902e-02 -7.643266022205352783e-02 3.356749564409255981e-02 3.325890004634857178e-02 7.510735094547271729e-02 1.345821097493171692e-02 5.953819677233695984e-02 1.637039929628372192e-01 3.126366063952445984e-02 -4.263782501220703125e-02 -6.673038005828857422e-02 1.007471084594726562e-01 8.446121215820312500e-02 2.278574258089065552e-01 6.332077085971832275e-02 -2.808759547770023346e-02 -4.054433479905128479e-02 5.646669492125511169e-02 2.612076885998249054e-02 -1.220724508166313171e-01 5.100506544113159180e-02 -6.727042142301797867e-03 -4.869610071182250977e-03 1.342127323150634766e-01 -4.176149144768714905e-02 -5.462657287716865540e-02 -1.817504465579986572e-01 5.410744249820709229e-02 5.211576446890830994e-02 1.160656102001667023e-02 -1.923478208482265472e-02 -4.468443244695663452e-02 -1.407943218946456909e-01 7.373750954866409302e-02 -4.640757665038108826e-02 1.889797449111938477e-01 -3.037561103701591492e-02 1.196490451693534851e-01 2.286899834871292114e-02 -2.351129241287708282e-02 -1.254949569702148438e-01 4.205734282732009888e-02 -1.835316792130470276e-02 -7.045216113328933716e-02 4.900115728378295898e-02 6.210694462060928345e-02 -3.366658091545104980e-01 -1.525560915470123291e-01 1.529735475778579712e-01 7.884198427200317383e-02 2.269419142976403236e-03 -3.463669121265411377e-02 -5.115268006920814514e-02 1.430389843881130219e-02 -2.161295711994171143e-02 -9.689109772443771362e-02 1.269454322755336761e-02 1.458568722009658813e-01 4.269409552216529846e-02 -7.922109961509704590e-02 -4.204384237527847290e-02 -2.222466319799423218e-01 -4.370760917663574219e-02 -1.307734847068786621e-01 1.369754672050476074e-01 -1.998804658651351929e-01 -3.551185131072998047e-02 -1.788682192564010620e-01 1.586307287216186523e-01 1.060780510306358337e-02 5.306909233331680298e-02 1.498493403196334839e-01 1.182565540075302124e-01 4.586626961827278137e-02 5.481722578406333923e-02 9.329319745302200317e-02 4.576069861650466919e-02 3.882784023880958557e-02 1.437208987772464752e-02 7.222651038318872452e-03 -1.169440001249313354e-01 4.983569961041212082e-03 1.350674033164978027e-01 -5.776048451662063599e-02 1.912535913288593292e-02 -1.353375911712646484e-01 2.017585337162017822e-01 -6.947516649961471558e-02 -1.608275175094604492e-01 -1.399873495101928711e-01 6.265085190534591675e-03 -1.468909252434968948e-02 5.379916355013847351e-02 -4.982038214802742004e-02 4.229098092764616013e-03 2.304227836430072784e-02 4.301239736378192902e-03 5.575279518961906433e-02 -1.154059395194053650e-01 -4.633286222815513611e-02 2.282730769366025925e-03 1.573225110769271851e-01 1.934144198894500732e-01 -1.321039795875549316e-01 5.343846604228019714e-02 1.403690725564956665e-01 7.075424492359161377e-02 -6.973557919263839722e-02 -1.003152579069137573e-01 -8.801798522472381592e-02 6.797526776790618896e-02 -4.952362179756164551e-02 5.573910102248191833e-02 -1.949543207883834839e-01 -1.057627946138381958e-01 1.515782475471496582e-01 -8.506839722394943237e-02 3.611918538808822632e-02 -4.279155284166336060e-02 -4.080431908369064331e-02 8.424285054206848145e-02 -1.176705658435821533e-01 -1.573382765054702759e-01 -1.769406646490097046e-01 -8.102120459079742432e-02 4.775095358490943909e-02 -6.256841123104095459e-02 -2.830353006720542908e-02 -1.231606453657150269e-01 -8.276344090700149536e-02 -1.213038414716720581e-01 9.680222719907760620e-02 -1.439489144831895828e-02
-1.036115437746047974e-01 1.920363754034042358e-01 5.990155041217803955e-02 1.622434258460998535e-01 -9.124842472374439240e-03 -1.190853305160999298e-02 -1.089000478386878967e-01 1.043348684906959534e-01 -1.965594291687011719e-02 -2.565631568431854248e-01 3.654701262712478638e-02 1.312613785266876221e-01 -1.029801517724990845e-01 -5.986503884196281433e-02 -8.359770476818084717e-02 -7.838753052055835724e-03 1.106368470937013626e-02 -2.682803757488727570e-02 -5.218453705310821533e-02 -9.981179609894752502e-03 -2.118928544223308563e-02 -4.433269053697586060e-02 -1.775589957833290100e-02 -1.209375411272048950e-01 -3.543193265795707703e-02 1.703866124153137207e-01 3.020338527858257294e-02 3.771388903260231018e-02 3.413156140595674515e-03 9.867354482412338257e-02 1.251540780067443848e-01 8.002461493015289307e-02 -8.041152358055114746e-02 -6.109052523970603943e-02 -1.569260209798812866e-01 -3.163696965202689171e-03 -1.064025759696960449e-01 -1.230834946036338806e-01 1.751652806997299194e-01 -1.194706708192825317e-01 5.539168044924736023e-02 8.513629436492919922e-02 -1.310843676328659058e-01 -1.072774305939674377e-01 1.985305398702621460e-01 -1.115078553557395935e-01 4.702925682067871094e-02 -8.817940205335617065e-02 8.912608772516250610e-02 -5.143494158983230591e-02 -3.045654296875000000e-02 6.300689186900854111e-03 -8.417152799665927887e-03 9.502740949392318726e-02 -3.394846618175506592e-02 1.188538521528244019e-01 3.398168087005615234e-02 3.368103876709938049e-02 -7.435484975576400757e-02 2.045015618205070496e-02 -8.329924941062927246e-02 2.064263224601745605e-01 -2.212562039494514465e-02 -1.797271221876144409e-01 1.277768868021667004e-03 6.066427007317543030e-02 -1.185647249221801758e-01 -6.423389166593551636e-02 -1.012747362256050110e-01 2.328780479729175568e-02 -1.552096381783485413e-02 1.010392010211944580e-01 2.097423560917377472e-02 -8.867466449737548828e-02 -7.558479160070419312e-02 1.832323372364044189e-01 -4.907821863889694214e-02 -4.761224612593650818e-02 -2.088256366550922394e-02 -1.663682758808135986e-01 9.342755377292633057e-02 6.839151680469512939e-02 4.183622077107429504e-02 1.442807465791702271e-01 -1.191779151558876038e-01 4.363096505403518677e-02 5.840581282973289490e-02 -5.138239264488220215e-02 1.588147580623626709e-01 -7.868412137031555176e-02 1.445673108100891113e-01 -6.926728039979934692e-02 2.435490489006042480e-02 -8.515235781669616699e-02 -4.683322459459304810e-02 5.292362347245216370e-02 2.488869614899158478e-02 -5.180696025490760803e-02 -8.108983933925628662e-02 1.593293994665145874e-01 -1.764255948364734650e-02 -2.610221505165100098e-02 1.476129866205155849e-03 2.316444925963878632e-02 -2.075881138443946838e-02 -1.639783978462219238e-01 1.676254123449325562e-01 2.765556797385215759e-02 -4.966662079095840454e-02 1.680092513561248779e-02 -3.066551871597766876e-02 -1.839644610881805420e-01 9.832140058279037476e-02 1.053180247545242310e-01 1.357133537530899048e-01 4.046086594462394714e-02 2.083516418933868408e-01 -1.833228580653667450e-02 -5.082995072007179260e-02 -1.003375500440597534e-01 1.293820887804031372e-01 2.627703826874494553e-03 -4.266213998198509216e-02 -4.645291715860366821e-02 -9.458556026220321655e-02 1.203021705150604248e-01 9.124304354190826416e-02 -8.209659159183502197e-02 -2.634454891085624695e-02 -2.776293456554412842e-02 -1.007631868124008179e-01 1.050668656826019287e-01 1.986527144908905029e-01 -1.139445081353187561e-01 -9.878035634756088257e-02 8.685401082038879395e-02 4.499410837888717651e-02 -9.119649231433868408e-02 7.549694925546646118e-02 -7.334672845900058746e-03 7.685560733079910278e-02 -1.272308379411697388e-01 -5.697735399007797241e-02 6.182428821921348572e-02 -5.517243221402168274e-02 2.972337044775485992e-02 -1.362341642379760742e-02 2.500770986080169678e-02 -2.558650970458984375e-01 6.280864030122756958e-02 -8.571504056453704834e-02 6.983686238527297974e-02 6.415721774101257324e-02 -4.565696045756340027e-02 -3.592932224273681641e-02 -1.947566866874694824e-01 -6.912194192409515381e-02 4.453300312161445618e-02 -3.255734220147132874e-02 3.357027843594551086e-02 6.985852867364883423e-02 3.403812274336814880e-02 9.232692420482635498e-02 1.054950952529907227e-01 2.859704941511154175e-02 -3.673638775944709778e-02 4.900538548827171326e-02 -1.086169406771659851e-01 -2.016707696020603180e-02 -7.406303286552429199e-02 -1.211703717708587646e-01 -6.945435423403978348e-03 2.606331743299961090e-02 2.317030169069766998e-02 -1.726647615432739258e-01 1.171915009617805481e-01 2.191625721752643585e-02 -1.746304682455956936e-03 1.976065635681152344e-01 -1.500932276248931885e-01 8.868246525526046753e-02 -1.501693017780780792e-02 2.010369859635829926e-02 1.023344621062278748e-01 -2.826659707352519035e-03 -8.151548355817794800e-02 -7.747145742177963257e-02 4.751118831336498260e-03 -1.879016781458631158e-04 -4.421025514602661133e-02 -8.042594045400619507e-02 -5.086439102888107300e-02 -2.956962957978248596e-02 1.636303402483463287e-02 7.322055101394653320e-02 3.786076605319976807e-02 -1.430003717541694641e-02 2.021416788920760155e-03 5.379319563508033752e-02 3.262849897146224976e-02 -2.111184038221836090e-02 -9.390162304043769836e-03 6.019305437803268433e-02 -7.301221042871475220e-02 2.896152250468730927e-02 6.143595278263092041e-02 -7.052428275346755981e-02 -9.956099092960357666e-02 -2.174116671085357666e-02 -2.369540631771087646e-01 -5.300122871994972229e-02 6.566505879163742065e-02 -1.337511688470840454e-01 1.865387558937072754e-01 -1.147309690713882446e-02 4.715440049767494202e-02 -9.194381535053253174e-02 -1.525864899158477783e-01 8.017982542514801025e-02 4.599690064787864685e-02 -1.004185620695352554e-02 -1.481252163648605347e-01 8.876726776361465454e-02 -1.894378960132598877e-01 4.509460926055908203e-02 1.522470116615295410e-01 2.438829280436038971e-02 -1.076738238334655762e-01 4.148006066679954529e-02 -6.229878962039947510e-02 3.080847673118114471e-02 3.674083948135375977e-02 -1.039486676454544067e-01 -1.218288857489824295e-02 4.309973865747451782e-02 -1.983857154846191406e-01 4.582197219133377075e-02
4.234265536069869995e-02 1.766049265861511230e-01 -2.096290737390518188e-01 3.863091394305229187e-02 -1.070873737335205078e-01 2.957260608673095703e-02 -3.134115366265177727e-03 -2.797203883528709412e-02 7.890939712524414062e-02 -6.160366535186767578e-02 2.921972051262855530e-02 -5.007688701152801514e-02 7.212447468191385269e-03 -3.144055604934692383e-02 -1.436869651079177856e-01 1.165193691849708557e-01 -3.701143339276313782e-02 -8.257411420345306396e-02 2.856510579586029053e-01 1.818431913852691650e-02 6.609369069337844849e-02 7.352842390537261963e-02 1.878053992986679077e-01 -1.104293242096900940e-01 -5.844321846961975098e-02 -5.687472596764564514e-02 -1.794563233852386475e-02 6.136527657508850098e-02 1.564670354127883911e-02 -2.850309386849403381e-02 -5.836605280637741089e-02 -1.128808930516242981e-01 -8.886972069740295410e-02 4.846838489174842834e-02 -2.959789149463176727e-02 -2.124362885951995850e-01 -2.054768055677413940e-02 -1.991862654685974121e-01 1.296287328004837036e-01 -2.271284610033035278e-01 -1.090074405074119568e-01 -7.485271245241165161e-02 -6.341715902090072632e-02 -3.563095629215240479e-02 -5.617871414870023727e-03 3.749703243374824524e-02 -3.881327062845230103e-02 1.556931287050247192e-01 -3.796972706913948059e-02 -4.060792922973632812e-02 2.167560346424579620e-02 5.720456317067146301e-02 2.410308830440044403e-02 -2.084964327514171600e-02 1.629552543163299561e-01 -3.194192424416542053e-02 9.759510308504104614e-02 -1.705691516399383545e-01 1.065689846873283386e-01 -1.350408643484115601e-01 -2.753176540136337280e-02 -9.110089391469955444e-02 -6.413023918867111206e-02 -3.229439258575439453e-02 9.977255016565322876e-02 8.645016700029373169e-02 -1.826446652412414551e-01 -3.223850950598716736e-02 1.229509152472019196e-02 -7.921911031007766724e-02 -6.353729218244552612e-02 -6.908103823661804199e-02 1.956308446824550629e-02 2.238613180816173553e-02 9.344549477100372314e-02 8.233021944761276245e-02 -1.788380146026611328e-01 1.052888482809066772e-01 -2.340183034539222717e-02 8.312891237437725067e-03 1.525176689028739929e-02 3.281362354755401611e-02 1.572237014770507812e-01 1.152130812406539917e-01 3.567801415920257568e-02 1.810453459620475769e-02 -3.379703685641288757e-02 -6.560912728309631348e-02 -4.999238532036542892e-03 5.075893923640251160e-02 -1.147555187344551086e-01 6.764467805624008179e-02 2.236003726720809937e-01 -5.769690871238708496e-02 1.437882184982299805e-01 -5.982655659317970276e-02 9.254369139671325684e-02 -3.200529888272285461e-02 -2.747320383787155151e-02 -5.366636812686920166e-02 -3.103016689419746399e-02 1.733778417110443115e-01 7.212642114609479904e-03 -1.501104980707168579e-02 3.300685435533523560e-02 -1.030547246336936951e-01 -2.167017757892608643e-01 -8.663363754749298096e-02 -9.373232722282409668e-02 1.452390849590301514e-01 2.219168283045291901e-02 -5.916537251323461533e-03 2.089972496032714844e-01 -3.204775750637054443e-01 -3.994680941104888916e-03 -4.620335996150970459e-02 1.413397770375013351e-02 -3.553603589534759521e-02 3.716709092259407043e-02 2.263456284999847412e-01 1.492691636085510254e-01 1.396329551935195923e-01 4.325639083981513977e-02 4.580499976873397827e-02 -1.836196631193161011e-01 4.491915553808212280e-02 1.217333152890205383e-01 -6.541966646909713745e-02 -4.203753173351287842e-02 -7.332414388656616211e-02 1.725295633077621460e-01 -7.323548942804336548e-02 3.353283181786537170e-02 -6.314736604690551758e-02 8.629278093576431274e-02 2.004664763808250427e-02 4.588125646114349365e-02 -3.557236120104789734e-02 2.030395157635211945e-02 1.505468785762786865e-01 1.643872857093811035e-01 -3.967937082052230835e-02 1.754296198487281799e-02 6.728361546993255615e-02 -5.744472891092300415e-02 3.899649903178215027e-02 1.905773580074310303e-02 -2.065357379615306854e-02 -1.480955630540847778e-01 1.461295485496520996e-01 -6.362386513501405716e-03 1.134401038289070129e-01 -5.028686299920082092e-02 -4.259613156318664551e-02 4.540807381272315979e-02 -5.988552793860435486e-02 -2.260188804939389229e-03 1.655782163143157959e-01 -5.854854732751846313e-02 1.282684504985809326e-01 -2.113370969891548157e-02 -2.115643173456192017e-01 1.040293648838996887e-01 1.409308053553104401e-02 -6.302651017904281616e-02 2.455308102071285248e-02 4.190509766340255737e-02 1.330536752939224243e-01 2.190377935767173767e-02 6.192443892359733582e-02 3.416691347956657410e-02 8.304713666439056396e-02 3.680929541587829590e-02 1.084375008940696716e-02 -2.122696489095687866e-01 1.282708346843719482e-01 2.066647857427597046e-01 1.380596123635768890e-02 -9.906911849975585938e-02 -9.149847179651260376e-02 -3.296738490462303162e-02 8.961584419012069702e-02 -2.452645916491746902e-03 -1.292132213711738586e-02 -9.020666778087615967e-02 8.362618833780288696e-02 -1.025384739041328430e-01 4.616396501660346985e-02 -7.800302654504776001e-02 -8.339786529541015625e-02 1.584164798259735107e-02 1.226509064435958862e-01 5.414551123976707458e-03 -2.058081328868865967e-02 -1.789073273539543152e-02 7.149919122457504272e-02 1.665891557931900024e-01 -5.102948099374771118e-02 4.976522643119096756e-03 -1.030302345752716064e-01 6.167398765683174133e-02 -1.478025913238525391e-01 2.335244864225387573e-01 -5.561700463294982910e-02 1.026444360613822937e-01 -6.710208207368850708e-02 5.087988451123237610e-02 2.191251888871192932e-02 -4.897999390959739685e-02 8.065110445022583008e-02 -1.266688387840986252e-02 8.215121924877166748e-02 -1.653038561344146729e-01 -4.212667420506477356e-02 8.034195005893707275e-02 -9.380600601434707642e-02 8.197811245918273926e-02 -2.068968676030635834e-02 5.165079236030578613e-02 -7.741250097751617432e-02 -1.416483987122774124e-02 -3.793070092797279358e-02 -4.517896100878715515e-02 8.522205799818038940e-02 -4.700390622019767761e-02 -1.695835590362548828e-02 -3.038091212511062622e-02 4.285487905144691467e-02 -2.235338278114795685e-02 2.998182550072669983e-02 -6.604398041963577271e-02 -8.379750698804855347e-02 -5.794417858123779297e-02 2.638441137969493866e-02 9.044688194990158081e-03 5.382328107953071594e-02 -5.743803083896636963e-02
-1.318456232547760010e-02 1.325078867375850677e-02 -9.977634996175765991e-02 8.171956241130828857e-02 1.990755787119269371e-03 8.530698716640472412e-02 -1.359445303678512573e-01 -4.592965170741081238e-02 9.393811225891113281e-03 -3.261511772871017456e-02 4.782393947243690491e-02 2.547297179698944092e-01 -2.928222157061100006e-02 -9.777238592505455017e-03 -3.918833658099174500e-02 9.347178041934967041e-03 4.707317426800727844e-02 -1.996564865112304688e-01 9.014951437711715698e-02 1.406578421592712402e-01 -5.599828809499740601e-02 9.662122465670108795e-03 4.465731233358383179e-02 4.443921521306037903e-02 1.438033282756805420e-01 -1.905941069126129150e-01 8.777502179145812988e-02 -8.822147548198699951e-02 1.455416530370712280e-01 1.186608746647834778e-01 -1.781953126192092896e-01 1.813763380050659180e-01 8.077856153249740601e-03 -5.260077118873596191e-02 -4.051686450839042664e-02 -9.808382391929626465e-02 5.515448749065399170e-02 -2.106997072696685791e-01 -1.202804595232009888e-02 9.142947196960449219e-02 1.242292672395706177e-01 -4.952865466475486755e-02 -5.833122413605451584e-03 3.493075445294380188e-02 -6.650757044553756714e-03 6.489131134003400803e-03 -1.447924375534057617e-01 7.717684656381607056e-02 9.569787234067916870e-02 1.664060652256011963e-01 5.805071443319320679e-02 -1.030564680695533752e-01 -1.018113568425178528e-01 -1.320865657180547714e-02 -2.467024698853492737e-02 -2.391453832387924194e-02 -6.096580252051353455e-02 1.876498013734817505e-02 3.553619235754013062e-02 -2.493484318256378174e-02 -6.767816096544265747e-02 3.743011876940727234e-02 2.403253763914108276e-01 -1.473169177770614624e-01 4.553627595305442810e-02 8.364786952733993530e-02 -5.898921936750411987e-02 -5.617872625589370728e-02 2.627935819327831268e-02 1.164252404123544693e-02 1.211069524288177490e-01 -2.455297857522964478e-02 4.206839075777679682e-04 -1.709040105342864990e-01 7.678805850446224213e-03 2.103652805089950562e-01 4.334784671664237976e-02 -6.557660549879074097e-02 4.484802018851041794e-03 9.910525381565093994e-02 -7.291121035814285278e-02 5.574404448270797729e-02 3.076317720115184784e-02 -4.997677635401487350e-03 -1.409085094928741455e-01 5.084387958049774170e-02 1.065583303570747375e-01 -2.308574132621288300e-02 2.555435523390769958e-02 -2.984798699617385864e-02 4.089813679456710815e-02 -4.117809981107711792e-02 5.666643008589744568e-02 -2.029786109924316406e-01 -2.511217026039958000e-03 -9.113615378737449646e-03 1.327217370271682739e-01 -3.276789560914039612e-02 -1.136811170727014542e-02 -7.340326160192489624e-02 -8.283768594264984131e-02 4.999340046197175980e-03 -1.720849275588989258e-01 3.199465945363044739e-02 2.363063860684633255e-03 -2.456586994230747223e-02 1.456276047974824905e-02 -4.581078514456748962e-02 8.835554867982864380e-02 6.739978492259979248e-02 -1.997752487659454346e-01 6.334844231605529785e-02 1.682650446891784668e-01 7.701929658651351929e-02 -6.214118748903274536e-02 -1.262298673391342163e-01 -8.230561017990112305e-02 8.050438761711120605e-02 -2.949079126119613647e-02 4.800540953874588013e-02 1.102483347058296204e-01 -3.045131079852581024e-02 1.466051675379276276e-02 1.454022130928933620e-03 5.363408848643302917e-02 -1.376255750656127930e-01 -2.044599205255508423e-01 -2.570206671953201294e-02 -2.313929051160812378e-02 1.089295074343681335e-01 4.652539733797311783e-03 1.337703038007020950e-02 -5.203042924404144287e-02 8.631204813718795776e-02 4.821244627237319946e-02 7.509545236825942993e-02 1.498555988073348999e-01 1.393647193908691406e-01 -7.047500461339950562e-02 -4.690558463335037231e-02 -5.810032412409782410e-02 -6.527674850076436996e-03 -1.950658857822418213e-02 6.684839725494384766e-02 6.114203855395317078e-02 5.861929431557655334e-02 6.185850943438708782e-04 5.225730128586292267e-03 3.157371655106544495e-02 -2.173518016934394836e-02 2.241473197937011719e-01 1.154567599296569824e-01 2.575334161520004272e-02 -5.887866765260696411e-02 3.592141345143318176e-02 -3.556521236896514893e-02 -1.284326519817113876e-02 7.071190327405929565e-02 -9.770885854959487915e-02 -3.217071890830993652e-01 2.574414201080799103e-02 1.639404445886611938e-01 -7.181783206760883331e-03 -5.599276162683963776e-03 8.209857344627380371e-02 3.417520597577095032e-02 -1.695781946182250977e-01 -9.526441805064678192e-03 -1.665381491184234619e-01 1.126846820116043091e-01 4.054686520248651505e-03 7.866371423006057739e-02 2.684519998729228973e-02 8.980121463537216187e-02 -5.187394469976425171e-02 4.076715931296348572e-02 -8.560542017221450806e-02 -1.166331302374601364e-02 5.865184590220451355e-02 -8.481883257627487183e-02 1.758633553981781006e-01 -3.801072388887405396e-02 -1.818579738028347492e-03 9.202452003955841064e-02 1.016358137130737305e-01 -5.569744855165481567e-02 -7.529669255018234253e-02 3.597247973084449768e-02 -6.795584410429000854e-02 2.111372500658035278e-01 1.281605958938598633e-01 -2.598154544830322266e-02 9.347385913133621216e-02 5.759116634726524353e-02 6.967370398342609406e-03 -1.080845743417739868e-01 1.416293829679489136e-01 6.327975541353225708e-02 4.190575703978538513e-02 6.106140837073326111e-02 -5.796400364488363266e-03 1.061758771538734436e-01 -3.521551191806793213e-02 8.076094835996627808e-02 2.703421376645565033e-02 7.957922667264938354e-02 5.928310751914978027e-02 -2.243974208831787109e-01 3.034177049994468689e-02 4.315265640616416931e-02 8.841206878423690796e-02 -8.782950788736343384e-02 1.599748246371746063e-02 1.956055685877799988e-02 -1.403519790619611740e-02 -1.421436965465545654e-01 4.361277446150779724e-02 -3.846661420539021492e-04 3.360141813755035400e-02 1.859868317842483521e-01 1.010813191533088684e-01 1.281086951494216919e-01 4.588264040648937225e-03 -9.583534300327301025e-02 1.194692682474851608e-03 4.764913395047187805e-02 8.350314572453498840e-03 -3.446019440889358521e-02 -1.365104224532842636e-02 -9.723140299320220947e-02 7.077635079622268677e-02 1.292102038860321045e-01 -8.366449177265167236e-02 1.006672084331512451e-01 1.160408407449722290e-01 1.281713694334030151e-02 -6.334505230188369751e-02
2.383091114461421967e-02 1.061684936285018921e-01 -2.071237564086914062e-01 -6.645614653825759888e-02 -2.408911585807800293e-01 4.701597616076469421e-02 5.931597948074340820e-02 9.862221032381057739e-02 1.499230563640594482e-01 4.625206440687179565e-02 -1.104500889778137207e-01 -6.619088351726531982e-02 3.112118504941463470e-02 7.432613521814346313e-02 9.423956274986267090e-02 -7.562950253486633301e-02 -3.203615173697471619e-02 9.244855493307113647e-02 1.620440557599067688e-02 4.021193459630012512e-02 -5.128437280654907227e-02 5.645919591188430786e-02 3.861210495233535767e-02 -7.962517440319061279e-02 1.204224005341529846e-01 1.249473765492439270e-01 -8.754278719425201416e-02 -8.459664136171340942e-02 4.496273770928382874e-02 1.223290413618087769e-01 -1.811007037758827209e-02 3.125673159956932068e-02 -1.190589368343353271e-01 3.167873620986938477e-02 5.761203914880752563e-02 -1.751819439232349396e-02 1.449096202850341797e-01 -3.362811356782913208e-02 4.536544531583786011e-02 3.651330247521400452e-02 -4.897779226303100586e-02 -3.686453681439161301e-03 -1.171202212572097778e-01 1.323790103197097778e-01 -2.577032335102558136e-02 7.854582369327545166e-02 6.430723518133163452e-02 7.864733785390853882e-02 2.157027833163738251e-02 1.069750189781188965e-01 1.452122330665588379e-01 -1.484400182962417603e-01 6.205725669860839844e-02 -1.351291239261627197e-01 -1.857691816985607147e-02 1.114126220345497131e-01 -7.192590832710266113e-02 9.555275738239288330e-02 -6.755748391151428223e-02 1.451926380395889282e-01 -6.115345284342765808e-02 3.098065555095672607e-01 -1.127491593360900879e-01 7.483478635549545288e-02 3.485096618533134460e-02 1.451100409030914307e-01 7.065232098102569580e-02 -3.516039345413446426e-03 -1.556864101439714432e-02 1.181475073099136353e-01 -1.044297367334365845e-01 -1.534370481967926025e-01 -1.421747952699661255e-01 6.277730315923690796e-02 8.001332171261310577e-03 -1.427122857421636581e-03 -8.727951347827911377e-02 5.917338654398918152e-02 -8.017393201589584351e-02 1.596043705940246582e-01 1.109572350978851318e-01 -5.171243473887443542e-02 7.971930503845214844e-02 6.812996417284011841e-02 -7.831531763076782227e-02 -7.388558983802795410e-02 6.887789070606231689e-02 -2.481601200997829437e-02 8.371484279632568359e-02 -7.675376534461975098e-02 5.310880392789840698e-02 2.384082041680812836e-02 -8.657288737595081329e-03 -7.604204863309860229e-02 -2.713011112064123154e-03 7.761985063552856445e-02 -1.143807172775268555e-01 -6.839060783386230469e-02 1.560512781143188477e-01 -2.719578798860311508e-03 4.310174658894538879e-02 9.418039768934249878e-02 9.448367170989513397e-03 -1.466883867979049683e-01 5.391971766948699951e-02 -1.001894921064376831e-01 -3.337937220931053162e-02 2.161346055800095201e-04 -2.409999519586563110e-01 -3.728409111499786377e-02 -8.318108320236206055e-02 4.762958362698554993e-02 1.530932784080505371e-01 4.179756343364715576e-02 -5.532452836632728577e-02 -1.065909117460250854e-02 2.312974072992801666e-02 -1.828394681215286255e-01 1.164417341351509094e-01 2.550624869763851166e-02 -7.803191989660263062e-02 -8.404857665300369263e-02 -1.918075382709503174e-01 -1.176551058888435364e-01 9.941454045474529266e-03 2.011069841682910919e-02 -8.879654854536056519e-02 -3.699020668864250183e-02 -7.341678440570831299e-02 -4.684213921427726746e-02 1.030998304486274719e-01 7.146760821342468262e-02 -2.588667906820774078e-02 2.257697097957134247e-02 -1.419320404529571533e-01 1.076062470674514771e-01 -1.046402007341384888e-01 -5.458838865160942078e-02 4.977031797170639038e-02 -3.760007023811340332e-02 -8.134314790368080139e-03 -1.025234013795852661e-01 1.405849009752273560e-01 8.003604412078857422e-02 -7.447888609021902084e-03 -1.970787160098552704e-02 -1.457945704460144043e-01 -1.452116817235946655e-01 7.237309962511062622e-02 5.539971962571144104e-02 -3.356257453560829163e-02 -6.708633899688720703e-02 3.528743050992488861e-03 1.613737046718597412e-01 -1.949431002140045166e-01 3.459254279732704163e-02 6.964398175477981567e-02 3.621104871854186058e-03 1.930690743029117584e-02 -1.323160827159881592e-01 9.519679099321365356e-02 -3.784245997667312622e-02 -1.768687218427658081e-01 -8.558489382266998291e-02 -1.091449111700057983e-01 -1.077609229832887650e-02 1.245716139674186707e-01 -1.260010600090026855e-01 3.389322757720947266e-02 -2.613601274788379669e-02 1.160376667976379395e-01 9.103785455226898193e-02 -1.543850302696228027e-01 -4.039574414491653442e-02 -1.588528156280517578e-01 -4.087952151894569397e-02 -6.206948682665824890e-02 -7.430999726057052612e-02 -4.407890886068344116e-02 -2.097215317189693451e-02 -2.769933640956878662e-02 1.145423874258995056e-01 5.603654775768518448e-03 7.976033538579940796e-02 8.589436858892440796e-02 1.309511810541152954e-01 4.913394339382648468e-03 -3.597491886466741562e-03 -9.363529086112976074e-02 -5.112539604306221008e-02 -1.355865690857172012e-02 -4.455963894724845886e-02 -7.723104208707809448e-02 -9.740632027387619019e-02 -4.877716675400733948e-02 4.467964172363281250e-02 1.342194527387619019e-01 8.417280763387680054e-02 -3.700074274092912674e-03 -5.326589103788137436e-03 6.420220434665679932e-02 6.272278726100921631e-02 -8.198146522045135498e-02 7.680706679821014404e-02 1.508920937776565552e-01 -3.604128584265708923e-02 1.807274110615253448e-02 -1.333511900156736374e-02 5.742953624576330185e-03 -1.407861988991498947e-02 -2.735426090657711029e-02 -1.704677380621433258e-02 1.048804447054862976e-02 -8.265952346846461296e-04 4.313663765788078308e-02 -6.065070629119873047e-02 5.347045511007308960e-02 -3.975671529769897461e-02 8.079198002815246582e-02 1.540866643190383911e-01 2.350346744060516357e-02 -1.391435265541076660e-01 1.852519065141677856e-02 -1.186352074146270752e-01 -7.936131209135055542e-03 -3.405315428972244263e-02 3.499646112322807312e-02 1.194947585463523865e-01 2.287765406072139740e-02 -1.290497481822967529e-01 2.375954017043113708e-02 -9.595373272895812988e-02 -2.324484847486019135e-02 -2.690826309844851494e-03 -5.238184821791946888e-04 3.332307562232017517e-02 1.574173569679260254e-01
-2.219300419092178345e-01 2.864507585763931274e-02 -8.163293451070785522e-02 4.820547625422477722e-02 4.358604550361633301e-02 -1.622615903615951538e-01 -1.150936186313629150e-01 -7.993986457586288452e-02 -1.617942750453948975e-01 9.451974928379058838e-02 2.034135721623897552e-02 -8.354851603507995605e-02 5.087656900286674500e-02 -1.420429199934005737e-01 1.800799369812011719e-02 -1.227715518325567245e-02 1.040785238146781921e-01 3.561978461220860481e-03 2.068745531141757965e-02 1.316526234149932861e-01 2.093248069286346436e-02 3.769684955477714539e-02 1.020917668938636780e-01 -5.681882426142692566e-02 5.498072877526283264e-02 -6.364371627569198608e-02 6.464836001396179199e-02 2.718888819217681885e-01 6.186578422784805298e-02 3.369534388184547424e-02 -3.338123857975006104e-02 8.157086372375488281e-02 -3.340801224112510681e-02 -1.927804574370384216e-02 -5.468870699405670166e-02 3.182448074221611023e-02 1.522821635007858276e-01 4.163000732660293579e-02 6.025382503867149353e-02 -1.876575499773025513e-01 8.636507391929626465e-02 -2.535531762987375259e-03 -7.999400794506072998e-02 1.310931239277124405e-02 -1.735498197376728058e-02 -5.701512843370437622e-02 -4.119526594877243042e-02 -2.813349664211273193e-02 3.351508826017379761e-02 8.140470832586288452e-02 1.188226491212844849e-01 2.355535626411437988e-01 -4.578715935349464417e-02 1.121667772531509399e-01 -4.328970331698656082e-03 -7.518246769905090332e-02 1.607517898082733154e-01 5.656539648771286011e-02 -1.594262868165969849e-01 8.251581341028213501e-02 2.915036305785179138e-02 -3.295388072729110718e-02 2.920933812856674194e-02 1.746538677252829075e-03 5.347974225878715515e-02 -3.609669627621769905e-03 -5.889564380049705505e-02 2.420517057180404663e-02 -8.328675292432308197e-03 7.128848135471343994e-02 -1.057908162474632263e-01 -4.953628033399581909e-02 -1.357741951942443848e-01 -9.171031415462493896e-02 -6.573619693517684937e-02 -1.509626805782318115e-01 4.625996947288513184e-02 -5.333341658115386963e-02 -4.477302730083465576e-02 -1.228884384036064148e-01 -5.786729976534843445e-03 -1.860319636762142181e-02 1.272017043083906174e-02 1.129740998148918152e-01 -1.236418541520833969e-02 8.277514576911926270e-02 1.132003441452980042e-01 -1.295839548110961914e-01 8.188251405954360962e-03 6.503271311521530151e-02 -1.008422598242759705e-01 -1.565634012222290039e-01 1.182887777686119080e-01 9.956001490354537964e-02 -1.220766454935073853e-02 1.510066241025924683e-01 1.587508022785186768e-01 4.568014293909072876e-02 -9.796072542667388916e-02 -5.376952886581420898e-02 4.209369421005249023e-02 3.691683113574981689e-01 9.539248794317245483e-02 2.813311107456684113e-02 -1.055836752057075500e-01 4.420312494039535522e-02 -1.848179250955581665e-01 -6.137435510754585266e-02 1.287479251623153687e-01 3.145227953791618347e-02 -1.123450510203838348e-02 4.518548399209976196e-02 -5.116970464587211609e-02 1.793328374624252319e-01 1.712303608655929565e-01 -2.047627978026866913e-02 8.158707618713378906e-02 -2.260346710681915283e-02 -8.821085840463638306e-02 1.437217462807893753e-02 1.213692128658294678e-01 4.587989300489425659e-03 -1.103478893637657166e-01 1.277804467827081680e-02 5.229553207755088806e-03 -1.162228733301162720e-02 -4.728357121348381042e-02 -2.136399503797292709e-03 -1.887729912996292114e-01 -1.215803530067205429e-02 -1.410162150859832764e-01 -1.536836624145507812e-01 -1.245421245694160461e-01 6.317490339279174805e-02 2.587088569998741150e-02 1.515863537788391113e-01 -1.043689325451850891e-01 3.481665393337607384e-03 2.046712934970855713e-01 5.922009423375129700e-02 1.775695383548736572e-02 3.960986807942390442e-02 -5.400657281279563904e-02 -4.483226314187049866e-02 4.849272593855857849e-02 5.366237834095954895e-02 5.033849552273750305e-02 -9.053457528352737427e-02 1.302431151270866394e-02 -3.003243915736675262e-02 -8.646672964096069336e-02 5.761369690299034119e-02 1.529378443956375122e-01 1.851334422826766968e-02 -5.346752330660820007e-02 -3.376619145274162292e-02 -7.329343259334564209e-02 -1.626970022916793823e-01 4.097883403301239014e-02 1.717278175055980682e-02 -6.979629397392272949e-02 8.302081376314163208e-03 -3.099325671792030334e-02 7.153234630823135376e-02 -5.825354158878326416e-02 4.118303582072257996e-02 6.633894983679056168e-03 5.132824182510375977e-02 -1.057045087218284607e-01 2.505844086408615112e-02 5.225261673331260681e-02 -1.342009902000427246e-01 -1.170343253761529922e-02 -1.160062327980995178e-01 1.366272419691085815e-01 9.181498549878597260e-03 1.597016900777816772e-01 1.017930544912815094e-02 -2.278812602162361145e-02 -1.014040410518646240e-02 6.397870834916830063e-03 5.077064782381057739e-02 -5.947685241699218750e-02 -1.919251121580600739e-02 -1.461240798234939575e-01 -4.173502326011657715e-02 9.978469461202621460e-02 5.400829017162322998e-02 -1.099348962306976318e-01 -6.066443771123886108e-02 -2.431831881403923035e-02 -3.933238238096237183e-02 1.966536790132522583e-02 -8.579604327678680420e-02 -2.097280025482177734e-01 -3.761044889688491821e-02 3.332142904400825500e-02 4.910911247134208679e-02 8.158773928880691528e-02 -1.188879981637001038e-01 -1.744235008955001831e-01 8.580735884606838226e-03 -3.181052207946777344e-02 2.425742894411087036e-02 4.998599365353584290e-02 1.151242852210998535e-01 3.982464969158172607e-02 1.101452559232711792e-01 -3.588141500949859619e-02 1.284475177526473999e-01 -1.364241447299718857e-02 3.045830503106117249e-02 -1.242575570940971375e-01 -3.142535686492919922e-02 -7.934027165174484253e-02 3.735595569014549255e-02 -3.285600990056991577e-02 -1.827052049338817596e-02 -4.306553164497017860e-04 9.261222183704376221e-02 4.388466477394104004e-02 -7.829213887453079224e-02 9.900612384080886841e-02 -2.006724243983626366e-03 1.927783340215682983e-01 6.877979636192321777e-02 1.067590042948722839e-01 1.043540984392166138e-02 -1.343712210655212402e-01 1.909542381763458252e-01 -2.921784296631813049e-03 -1.494383215904235840e-01 -2.099980600178241730e-02 1.731720715761184692e-01 4.950569942593574524e-02 -1.080661080777645111e-02 5.312389507889747620e-02
-4.776234179735183716e-02 5.342922732234001160e-02 -1.328234523534774780e-01 2.452652342617511749e-02 5.969544500112533569e-02 1.364233493804931641e-01 5.430591478943824768e-02 4.630960896611213684e-02 -1.029992699623107910e-01 1.060466691851615906e-01 5.809084326028823853e-02 -3.103424794971942902e-02 -8.990517258644104004e-02 -4.906459525227546692e-02 8.787697879597544670e-04 -4.296917840838432312e-02 -1.274915933609008789e-01 7.323533296585083008e-02 1.181807219982147217e-01 -7.190851494669914246e-03 -1.362855881452560425e-01 4.506230819970369339e-03 -1.453241799026727676e-02 3.475434705615043640e-02 1.497467160224914551e-01 -8.691926300525665283e-02 -1.107303276658058167e-01 9.729302674531936646e-02 -1.691823154687881470e-01 -1.922980397939682007e-01 8.438844978809356689e-02 6.732333567924797535e-04 3.137599676847457886e-02 1.568356752395629883e-01 2.243920266628265381e-01 -1.054071113467216492e-01 -1.002488844096660614e-02 3.972939029335975647e-02 1.206516847014427185e-01 8.546409197151660919e-03 -4.504450038075447083e-02 4.650177434086799622e-02 -3.303944692015647888e-02 -7.071764022111892700e-02 1.059889122843742371e-01 -2.313675731420516968e-02 1.937205706781242043e-05 -9.491477906703948975e-02 -1.532388031482696533e-01 1.278077811002731323e-01 4.572322592139244080e-02 -6.555834412574768066e-02 5.468505900353193283e-03 -1.223048269748687744e-01 -1.528923064470291138e-01 -1.316206306219100952e-01 8.579799532890319824e-02 1.325559914112091064e-01 5.307002738118171692e-02 -8.865665644407272339e-02 1.186401471495628357e-01 -1.038535013794898987e-01 1.732418686151504517e-01 -1.063666269183158875e-01 -1.368229091167449951e-01 4.719392582774162292e-02 2.011979520320892334e-01 -1.148851960897445679e-01 -1.141527667641639709e-01 3.696385771036148071e-02 4.350107919890433550e-04 -1.225046887993812561e-01 1.750854589045047760e-02 -1.063676327466964722e-01 5.348439887166023254e-02 -1.970199793577194214e-01 -6.249554455280303955e-02 6.513660401105880737e-02 2.351574972271919250e-02 3.904264792799949646e-02 -4.248964041471481323e-02 4.431222751736640930e-02 -8.368753641843795776e-02 -4.011978209018707275e-02 1.516412198543548584e-01 8.595379441976547241e-02 -4.166304320096969604e-02 1.279560625553131104e-01 8.855547010898590088e-02 -2.024713344871997833e-02 1.463468372821807861e-01 -7.532680034637451172e-02 1.684952760115265846e-03 -9.042279422283172607e-02 -4.452226310968399048e-02 1.398678123950958252e-01 8.298755437135696411e-02 5.475503951311111450e-02 -1.118911430239677429e-01 3.485443070530891418e-02 1.131411716341972351e-01 9.768125414848327637e-02 3.788900375366210938e-02 7.335836440324783325e-02 2.093920707702636719e-01 1.255611926317214966e-01 7.227963954210281372e-02 -2.240361645817756653e-02 1.263387054204940796e-01 -8.057117462158203125e-02 7.280342979356646538e-04 7.031027972698211670e-02 1.538073569536209106e-01 1.707994639873504639e-01 4.399293288588523865e-02 1.199567690491676331e-02 -1.219526007771492004e-01 9.095340222120285034e-02 6.294149160385131836e-02 -6.155624613165855408e-02 3.673491626977920532e-02 1.529114246368408203e-01 2.609168179333209991e-03 -2.794273942708969116e-02 5.841608345508575439e-02 -2.057807147502899170e-01 2.043212763965129852e-02 8.351945877075195312e-02 -1.687428504228591919e-01 -2.027048170566558838e-01 1.040463224053382874e-01 2.670992910861968994e-01 2.468127198517322540e-02 5.891614779829978943e-02 -1.259657144546508789e-01 -5.297874566167593002e-03 6.427350640296936035e-02 -8.571879565715789795e-02 9.374878369271755219e-03 8.277792483568191528e-02 4.940820857882499695e-02 -7.387429941445589066e-04 -1.973666809499263763e-02 1.044660061597824097e-01 2.942445129156112671e-02 1.089375242590904236e-01 -9.898336976766586304e-02 -1.702594384551048279e-02 -1.582762598991394043e-01 -4.524244740605354309e-02 5.848905816674232483e-02 1.042512804269790649e-02 7.266353815793991089e-02 5.095428973436355591e-02 -1.909959129989147186e-02 4.230708349496126175e-03 -1.824851892888545990e-02 -3.125508502125740051e-02 -5.406716838479042053e-02 -3.524578362703323364e-02 9.047712385654449463e-02 3.355136513710021973e-02 1.273253373801708221e-02 7.445075362920761108e-02 5.035014078021049500e-02 -3.464940562844276428e-02 -8.920668810606002808e-02 1.955770328640937805e-02 -3.247177228331565857e-02 -7.064456492662429810e-02 2.564591541886329651e-02 -5.385686084628105164e-02 6.781472265720367432e-02 -4.860298242419958115e-03 1.366527006030082703e-02 1.781583204865455627e-02 5.545728281140327454e-02 -1.528972666710615158e-02 -1.629963703453540802e-02 -9.777667373418807983e-02 -1.790638417005538940e-01 1.027684193104505539e-02 6.908292323350906372e-02 -2.585603483021259308e-02 9.026882238686084747e-03 -2.796726301312446594e-02 8.434895426034927368e-02 -4.327658191323280334e-02 1.301285922527313232e-01 7.960470020771026611e-02 8.364538848400115967e-02 6.138199195265769958e-02 5.188198387622833252e-02 5.065048858523368835e-02 -4.245755448937416077e-02 2.917816303670406342e-02 -1.834278367459774017e-02 -7.462020963430404663e-02 3.071891702711582184e-02 -6.618002802133560181e-02 1.010887548327445984e-01 -9.881271049380302429e-03 7.738164067268371582e-02 1.101624071598052979e-01 9.387272596359252930e-02 4.372179508209228516e-02 -4.818668961524963379e-02 -2.640922553837299347e-02 2.613168209791183472e-02 -6.508263945579528809e-02 1.258901692926883698e-02 -1.319282650947570801e-01 5.222477018833160400e-02 1.006593555212020874e-01 -1.207342073321342468e-01 9.116565808653831482e-03 -7.300573587417602539e-02 -3.114139474928379059e-02 1.225117892026901245e-01 -5.754890665411949158e-02 -2.140540257096290588e-02 -7.836952060461044312e-02 1.572745591402053833e-01 1.605237126350402832e-01 -6.683889031410217285e-02 -8.403075486421585083e-02 1.106289476156234741e-01 4.707705229520797729e-02 5.097131803631782532e-02 -1.220598910003900528e-02 -1.315044797956943512e-02 6.424092501401901245e-02 8.615215867757797241e-02 -1.691821366548538208e-01 8.133619278669357300e-02 1.979421637952327728e-02 -5.162557587027549744e-02
1.760742217302322388e-01 -1.237599030137062073e-01 1.122006680816411972e-02 8.420699089765548706e-02 -1.189721822738647461e-01 -1.262291073799133301e-01 9.884656220674514771e-02 3.329693526029586792e-02 -1.310377568006515503e-01 -1.971207186579704285e-02 4.396260529756546021e-02 9.746517986059188843e-02 -4.575762525200843811e-02 1.086715832352638245e-01 -2.875095978379249573e-02 -2.354247868061065674e-02 2.846158109605312347e-03 4.461914300918579102e-02 1.043908372521400452e-01 -7.222267240285873413e-02 -5.623406171798706055e-02 5.542378872632980347e-02 -8.002658933401107788e-02 6.000851094722747803e-02 -4.991986602544784546e-02 -7.371364533901214600e-02 -5.959299579262733459e-02 1.479814201593399048e-01 5.054774135351181030e-02 -2.255823910236358643e-01 2.415422722697257996e-02 1.222829148173332214e-01 1.839995384216308594e-02 5.901201069355010986e-02 -5.168119445443153381e-02 6.534088402986526489e-02 2.448922581970691681e-02 1.167575567960739136e-01 -1.859258860349655151e-01 -9.099331498146057129e-02 -4.223659168928861618e-03 -7.532655447721481323e-02 3.857995197176933289e-02 -8.752559870481491089e-02 -1.284939702600240707e-02 -1.456160843372344971e-01 -1.216956824064254761e-01 3.924013115465641022e-03 1.151294074952602386e-02 2.003556042909622192e-01 -3.142629191279411316e-02 -1.120816841721534729e-01 -6.331729888916015625e-02 -1.136710420250892639e-01 1.065255329012870789e-01 4.340079054236412048e-02 5.455091595649719238e-02 -7.724048197269439697e-02 -7.445131987333297729e-02 -4.964968189597129822e-02 2.150418050587177277e-02 -3.660405054688453674e-02 -1.196337416768074036e-01 -1.445053890347480774e-02 1.398382335901260376e-01 1.335521042346954346e-02 -1.533494330942630768e-02 -9.883218258619308472e-02 6.951796356588602066e-03 1.758832484483718872e-01 -5.557594448328018188e-02 1.313977986574172974e-01 1.029205173254013062e-01 -5.535114556550979614e-02 1.933435797691345215e-01 -8.845231682062149048e-02 5.664240941405296326e-02 1.545510739088058472e-01 -1.990784257650375366e-01 7.476315647363662720e-02 1.773899234831333160e-02 1.438580919057130814e-02 -4.253704100847244263e-02 4.861373454332351685e-02 -1.109898760914802551e-01 -3.386997617781162262e-03 -8.096350356936454773e-03 4.108337312936782837e-02 6.143603101372718811e-02 5.145682487636804581e-03 2.439097128808498383e-02 7.483812421560287476e-02 -4.455341398715972900e-02 -8.326847851276397705e-02 -9.249092638492584229e-02 -1.036133337765932083e-02 1.604875028133392334e-01 1.553905904293060303e-01 1.570233553647994995e-01 7.002171874046325684e-02 -8.565788716077804565e-02 1.317720115184783936e-01 -1.226255372166633606e-01 8.159637451171875000e-02 -2.395685762166976929e-02 5.967776477336883545e-02 -6.967697292566299438e-02 -1.845639199018478394e-01 -7.936920970678329468e-02 2.142413333058357239e-02 -9.369548410177230835e-02 -6.496140360832214355e-02 -8.684939891099929810e-02 -1.615715771913528442e-02 1.044408828020095825e-01 9.209252893924713135e-02 -1.693036407232284546e-02 9.530068188905715942e-02 -5.422033835202455521e-03 7.148762047290802002e-02 -1.718590259552001953e-01 -8.852083235979080200e-02 2.074250485748052597e-03 -1.953291520476341248e-02 1.043834984302520752e-01 1.599850803613662720e-01 -5.641256924718618393e-03 1.596803069114685059e-01 -6.585556268692016602e-02 2.709892578423023224e-02 -1.376064121723175049e-01 -7.333217561244964600e-02 -6.499765068292617798e-02 3.429161384701728821e-02 -7.941122353076934814e-02 7.572750747203826904e-02 -6.827542185783386230e-02 -7.465685252100229263e-03 -1.713933199644088745e-01 -8.541272580623626709e-02 1.092808786779642105e-03 -1.370271742343902588e-01 -9.395609050989151001e-02 1.302314400672912598e-01 -1.144662033766508102e-02 1.827926747500896454e-02 1.105786859989166260e-01 5.031478032469749451e-02 8.699920028448104858e-02 -4.500385001301765442e-02 3.175394237041473389e-02 -5.048681423068046570e-02 -7.959493249654769897e-02 1.978420466184616089e-02 -1.178045421838760376e-01 1.330166961997747421e-02 -1.264057755470275879e-01 2.129454612731933594e-01 1.430973876267671585e-02 4.339193180203437805e-02 -1.154371816664934158e-02 -5.237869918346405029e-02 1.229807958006858826e-01 -6.163198128342628479e-02 -1.348434090614318848e-01 -4.923985898494720459e-02 -6.587522476911544800e-02 -1.056858599185943604e-01 -1.816573552787303925e-02 1.594825531356036663e-03 -7.912568747997283936e-02 -6.406461447477340698e-02 1.340089738368988037e-01 -5.304126814007759094e-02 -7.514739781618118286e-02 -7.342826575040817261e-02 -1.158949360251426697e-01 8.712461590766906738e-02 8.967222529463469982e-04 4.634001851081848145e-02 1.167862955480813980e-02 -2.874881774187088013e-02 1.899641901254653931e-01 -8.843999356031417847e-03 4.607391357421875000e-02 -1.937869489192962646e-01 9.252049960196018219e-03 3.085666522383689880e-02 1.695599406957626343e-01 -8.277200907468795776e-02 3.105541691184043884e-03 7.121966686099767685e-03 -2.095011994242668152e-02 1.383139006793498993e-02 -2.060524374246597290e-02 3.291060030460357666e-02 7.316991686820983887e-03 -6.123057752847671509e-02 -1.142355799674987793e-01 9.657939663156867027e-04 6.030976399779319763e-02 -1.163996662944555283e-02 -6.802540272474288940e-02 3.034987859427928925e-02 -1.394002586603164673e-01 -8.490017801523208618e-02 1.831349283456802368e-01 3.754312172532081604e-02 1.099174171686172485e-01 -4.241178184747695923e-02 -9.164512157440185547e-03 -5.553816631436347961e-02 9.332866966724395752e-02 -2.015748322010040283e-01 -1.218639016151428223e-01 -1.253781914710998535e-01 4.000344872474670410e-02 6.383691728115081787e-02 -1.159161701798439026e-01 1.259767077863216400e-02 7.883124053478240967e-02 -6.005902588367462158e-02 2.362207323312759399e-02 2.439163392409682274e-03 2.673970162868499756e-01 4.394722636789083481e-04 1.209011301398277283e-02 1.308695673942565918e-01 9.336854331195354462e-03 -3.308648243546485901e-03 -1.515151094645261765e-02 7.279840856790542603e-02 -1.535725593566894531e-01 1.560774147510528564e-01 5.897284299135208130e-02 -3.837018832564353943e-02 8.842067420482635498e-02
-1.934365332126617432e-01 -5.036604776978492737e-02 -2.563692443072795868e-02 -2.014988958835601807e-01 -7.026250660419464111e-02 -1.623577922582626343e-01 -1.208965666592121124e-03 -5.493824183940887451e-02 2.861012890934944153e-02 -8.349913172423839569e-03 -1.169638056308031082e-02 -3.221237659454345703e-02 -1.455260068178176880e-01 8.709229528903961182e-02 4.404358193278312683e-02 4.007961973547935486e-02 -4.330123960971832275e-02 -2.124206908047199249e-02 7.119750138372182846e-03 1.528165191411972046e-01 1.166665181517601013e-01 -5.110938102006912231e-02 6.734721362590789795e-02 1.606263779103755951e-02 9.577830880880355835e-02 -8.470003306865692139e-02 7.890286296606063843e-02 -7.083316147327423096e-02 -9.410321712493896484e-02 -1.088908314704895020e-01 5.365723371505737305e-02 1.784725338220596313e-01 3.414984792470932007e-02 5.305935069918632507e-02 -1.353266090154647827e-01 -1.109763756394386292e-01 -4.326275363564491272e-02 -2.948079258203506470e-02 1.751352250576019287e-01 9.418667107820510864e-02 3.788260370492935181e-02 1.423876434564590454e-01 -1.160718724131584167e-01 -1.285414248704910278e-01 -2.175646089017391205e-02 -5.678584426641464233e-02 4.309695214033126831e-02 -1.333378702402114868e-01 -7.154792081564664841e-03 5.313926562666893005e-02 -1.312063913792371750e-02 -7.251082360744476318e-02 -1.664559692144393921e-01 -3.236594796180725098e-02 -1.703679747879505157e-02 1.479176431894302368e-01 2.130300737917423248e-02 1.352953314781188965e-01 -7.114581763744354248e-02 2.672323584556579590e-02 -6.081815809011459351e-02 -1.026987358927726746e-01 5.011044815182685852e-02 3.620196133852005005e-02 -2.259685657918453217e-02 1.931180991232395172e-02 9.303893148899078369e-02 -1.276873201131820679e-01 -1.226980164647102356e-01 -3.396574640646576881e-03 -1.092665083706378937e-02 2.672801492735743523e-03 7.443331927061080933e-02 4.462530463933944702e-02 1.364103704690933228e-01 -1.056215763092041016e-01 1.862022578716278076e-01 4.090426862239837646e-02 1.730660796165466309e-01 -9.278566390275955200e-02 7.140275835990905762e-02 8.052378892898559570e-02 1.029509380459785461e-01 -6.208159774541854858e-02 7.938271760940551758e-02 4.954332485795021057e-03 1.789249479770660400e-02 2.072861604392528534e-02 -1.412908136844635010e-01 1.504575950093567371e-03 -4.119449481368064880e-02 -8.284525573253631592e-02 1.055783405900001526e-02 -7.902815192937850952e-02 -1.332342475652694702e-01 -4.138576239347457886e-02 1.055194810032844543e-02 1.199302375316619873e-01 -2.296673133969306946e-02 -1.687387563288211823e-02 1.350316703319549561e-01 -1.496433466672897339e-02 -1.122285798192024231e-01 8.218696713447570801e-02 -9.741709381341934204e-02 1.172670423984527588e-01 1.203303970396518707e-02 -5.526353791356086731e-02 -2.440344169735908508e-02 -8.435610681772232056e-02 3.327215462923049927e-02 -3.879899904131889343e-02 -1.663969084620475769e-02 9.621910750865936279e-02 -1.760585159063339233e-01 -4.464309662580490112e-02 3.886333107948303223e-02 5.640349164605140686e-02 -2.353036031126976013e-02 -5.128017812967300415e-02 -1.070220991969108582e-01 -1.969454251229763031e-02 -2.952376380562782288e-03 5.207880213856697083e-02 -3.232444450259208679e-02 6.409805268049240112e-02 8.240015059709548950e-02 -1.134077906608581543e-01 -2.556395716965198517e-02 -8.702909201383590698e-02 1.405689269304275513e-01 3.859478235244750977e-02 -9.613737463951110840e-02 -6.770672649145126343e-02 3.087431564927101135e-02 -2.754529565572738647e-02 2.891074679791927338e-02 9.680083021521568298e-03 -1.562898904085159302e-01 -5.375379696488380432e-02 -1.479836851358413696e-01 1.081123650074005127e-01 6.217276304960250854e-02 8.242281526327133179e-02 4.261588677763938904e-02 1.298760473728179932e-01 9.041919559240341187e-02 1.184890791773796082e-01 -1.971114128828048706e-01 -3.885085508227348328e-02 1.490326076745986938e-01 3.819845244288444519e-02 -9.771950542926788330e-02 6.536287069320678711e-02 -1.012139171361923218e-01 6.653960049152374268e-02 -4.407979547977447510e-02 -1.846084743738174438e-02 -9.969730675220489502e-02 1.220932826399803162e-01 6.756129674613475800e-03 2.549713253974914551e-01 3.510891646146774292e-02 -1.281178891658782959e-01 -4.600799828767776489e-02 -3.472844511270523071e-02 -3.006462194025516510e-02 -3.622619062662124634e-02 -1.460337196476757526e-03 -5.079905688762664795e-02 -7.867901585996150970e-03 1.229463797062635422e-02 -5.572363734245300293e-02 -1.797357574105262756e-02 -3.458543494343757629e-02 1.718739867210388184e-01 -1.970652490854263306e-01 -2.737378701567649841e-02 -4.480403289198875427e-02 2.362047135829925537e-02 2.053052186965942383e-01 5.201726034283638000e-02 -7.171389460563659668e-02 -5.113868787884712219e-02 1.075591892004013062e-01 -9.537912905216217041e-03 -9.483799338340759277e-02 -2.709326893091201782e-02 5.080285482108592987e-03 2.470081299543380737e-02 -9.143161028623580933e-02 2.466090209782123566e-02 1.392059028148651123e-01 -2.897024899721145630e-02 -6.845868378877639771e-02 1.227865810506045818e-03 3.814351186156272888e-02 1.181667447090148926e-01 4.667741246521472931e-03 -3.845797106623649597e-02 -8.043617010116577148e-02 -4.602011293172836304e-02 -3.042996674776077271e-02 -4.946064576506614685e-02 -2.186572737991809845e-02 6.226479634642601013e-02 4.002567753195762634e-02 1.671832650899887085e-01 3.762804716825485229e-02 -1.022080145776271820e-02 -8.211404830217361450e-02 1.326464265584945679e-01 2.029662020504474640e-02 -2.047287486493587494e-02 9.076518565416336060e-02 -4.488940536975860596e-02 1.296501979231834412e-02 -4.271202534437179565e-02 9.071632288396358490e-03 -1.044219508767127991e-01 -9.828584641218185425e-02 1.935290545225143433e-01 -1.121443361043930054e-01 -5.850568041205406189e-02 -8.732111006975173950e-02 1.217632591724395752e-01 -1.403770148754119873e-01 1.019050776958465576e-01 -6.711717694997787476e-02 4.673388600349426270e-02 -1.569054871797561646e-01 7.306668907403945923e-03 -5.970191210508346558e-02 -2.412129007279872894e-02 -5.568361654877662659e-02 9.270279109477996826e-02 6.419841200113296509e-02
1.525695249438285828e-02 -2.737525478005409241e-02 8.250123821198940277e-03 1.754814237356185913e-01 -1.078971996903419495e-01 1.513424515724182129e-01 -4.920377396047115326e-03 -3.776030987501144409e-02 3.053875081241130829e-02 -6.392694264650344849e-02 4.760454595088958740e-02 -1.052824929356575012e-01 1.672466248273849487e-01 1.585571281611919403e-02 -1.387132257223129272e-01 -3.655945882201194763e-02 4.300512373447418213e-02 -5.452129989862442017e-02 -1.212186738848686218e-02 -6.818797439336776733e-03 9.905798360705375671e-03 -1.313786506652832031e-01 -4.205534234642982483e-02 -9.526236355304718018e-02 -1.098561286926269531e-01 6.880171597003936768e-02 -9.694100171327590942e-02 2.461348623037338257e-01 1.201924830675125122e-01 -7.779268175363540649e-02 2.241615764796733856e-02 -1.640778034925460815e-02 -8.407261967658996582e-02 6.222866475582122803e-02 -3.187973750755190849e-03 1.494038850069046021e-01 -1.581163555383682251e-01 1.231941357254981995e-01 -8.858497440814971924e-02 -3.966689691878855228e-04 -1.953285373747348785e-02 1.271533817052841187e-01 -1.532294750213623047e-01 1.657628454267978668e-02 -2.173461019992828369e-02 -1.036376431584358215e-01 -9.310843795537948608e-02 -2.030940800905227661e-01 -6.061489507555961609e-02 -4.822992533445358276e-02 -6.100815534591674805e-02 1.523821353912353516e-01 -1.886014193296432495e-01 -3.540568053722381592e-02 1.513627320528030396e-01 9.428053349256515503e-02 -1.028092503547668457e-01 1.850147396326065063e-01 -6.478974223136901855e-02 -3.298002108931541443e-02 -8.470495790243148804e-02 5.209653079509735107e-02 -4.100961983203887939e-02 2.117414958775043488e-02 1.102244704961776733e-01 1.383207589387893677e-01 8.905737777240574360e-04 4.494105931371450424e-03 -2.803855203092098236e-02 2.679065242409706116e-02 -1.478536427021026611e-01 -1.115084886550903320e-01 -3.798554651439189911e-03 1.571584939956665039e-01 1.018610522150993347e-01 8.830939233303070068e-02 7.144673168659210205e-02 -8.397206664085388184e-03 5.138156190514564514e-02 6.860285252332687378e-02 -8.640043437480926514e-02 -2.368536777794361115e-02 -2.150912210345268250e-02 -3.975360468029975891e-02 -9.076428599655628204e-03 9.120812267065048218e-02 3.205701336264610291e-02 -1.149758845567703247e-01 -1.371460556983947754e-01 5.127148330211639404e-02 -3.554601967334747314e-02 -4.665580764412879944e-02 -1.019204631447792053e-01 7.805614918470382690e-02 5.338588356971740723e-02 2.080456353724002838e-02 5.112383887171745300e-02 9.744131565093994141e-02 -5.709542892873287201e-03 -1.033932436257600784e-03 -4.095837939530611038e-03 1.517724096775054932e-01 2.633626013994216919e-02 -1.396267563104629517e-01 5.892102047801017761e-02 -4.923114925622940063e-02 8.117969334125518799e-02 2.019163072109222412e-01 -1.922033494338393211e-03 -6.637734919786453247e-02 -2.260007895529270172e-02 2.272550761699676514e-01 -4.652075842022895813e-02 1.240767631679773331e-02 7.237233221530914307e-02 -1.284259487874805927e-03 -3.896622359752655029e-02 8.523181080818176270e-03 4.063068889081478119e-03 -9.818157553672790527e-02 6.779471784830093384e-02 4.832104966044425964e-02 1.157799214124679565e-01 3.146567195653915405e-02 2.180958986282348633e-01 -3.174517676234245300e-02 9.847179800271987915e-02 1.064514666795730591e-01 -7.434892654418945312e-02 5.975243449211120605e-02 1.380010694265365601e-01 1.158574968576431274e-01 3.216142579913139343e-02 -1.317889541387557983e-01 5.437795817852020264e-02 9.807873517274856567e-02 -1.859548874199390411e-02 1.023249626159667969e-01 1.704782396554946899e-01 4.652280360460281372e-02 5.647715926170349121e-02 -8.502811193466186523e-02 5.620959401130676270e-02 1.463234424591064453e-02 -3.254256024956703186e-02 3.454412519931793213e-02 6.057295203208923340e-02 6.642788648605346680e-02 4.213664308190345764e-02 -2.158317565917968750e-01 4.136637970805168152e-02 1.005555167794227600e-01 -2.081854343414306641e-01 -2.000763118267059326e-01 4.149476066231727600e-02 3.286268562078475952e-02 -1.035323813557624817e-01 6.664446741342544556e-02 2.931491099298000336e-02 -1.826300621032714844e-01 6.784723699092864990e-02 5.156738311052322388e-02 -1.096288394182920456e-02 4.353100061416625977e-02 2.912979200482368469e-02 3.637576103210449219e-02 -1.299991607666015625e-01 4.714359715580940247e-02 9.456093609333038330e-02 -9.756714105606079102e-02 6.888283789157867432e-02 -5.289973691105842590e-02 1.053805053234100342e-01 3.298579528927803040e-02 -4.003458656370639801e-03 1.295659989118576050e-01 -5.755007639527320862e-02 5.312827229499816895e-02 1.038851588964462280e-02 1.957129836082458496e-01 -1.134260091930627823e-02 9.357479214668273926e-02 -7.900906354188919067e-02 -1.438100486993789673e-01 -4.615831002593040466e-02 1.933381892740726471e-02 -8.203088492155075073e-02 9.375640004873275757e-02 -4.462673887610435486e-02 -1.141479797661304474e-02 2.197497151792049408e-02 -1.101917922496795654e-01 5.042706802487373352e-02 -7.614160329103469849e-02 8.109938935376703739e-04 1.010238602757453918e-01 2.262007817625999451e-02 6.562579888850450516e-03 -2.196743711829185486e-02 -1.661494672298431396e-01 6.016017124056816101e-02 7.785073667764663696e-02 1.628261357545852661e-01 -6.416223943233489990e-02 1.235022842884063721e-01 -5.087661370635032654e-02 -8.689746260643005371e-02 -3.138614296913146973e-01 7.012503594160079956e-02 7.936514914035797119e-02 -8.442817628383636475e-02 -1.631846874952316284e-01 1.243252586573362350e-02 -8.329111337661743164e-02 -4.045883193612098694e-02 2.762685529887676239e-02 -1.267661154270172119e-01 3.548068925738334656e-02 -5.958664417266845703e-02 -5.367824807763099670e-03 -6.572072207927703857e-02 -3.042720258235931396e-02 -4.055686295032501221e-02 -8.536104112863540649e-02 2.141818590462207794e-02 -1.814494580030441284e-01 -5.488908290863037109e-02 7.800271362066268921e-02 4.162901267409324646e-02 1.278650462627410889e-01 -5.820298194885253906e-02 4.680267721414566040e-02 -2.651536650955677032e-02 1.110296174883842468e-01 2.707282640039920807e-02 1.967770606279373169e-02 7.194077223539352417e-02
8.447507023811340332e-02 5.375174805521965027e-02 -1.024120301008224487e-01 -2.797081321477890015e-02 -4.999526217579841614e-02 1.489713042974472046e-01 2.645373530685901642e-02 9.271439164876937866e-02 1.111131906509399414e-02 -7.648049294948577881e-02 1.277360469102859497e-01 -3.210553154349327087e-02 9.945196099579334259e-03 -5.405344441533088684e-02 -4.523881897330284119e-02 -8.954960107803344727e-02 1.110027357935905457e-02 -1.552207022905349731e-02 -1.597186565049923956e-05 -6.443003565073013306e-02 -3.423046693205833435e-02 -4.676230624318122864e-02 -5.623237788677215576e-02 -1.299991607666015625e-01 -4.241389036178588867e-02 1.243389323353767395e-01 4.572236910462379456e-03 -7.361940294504165649e-02 -1.323923617601394653e-01 2.926401607692241669e-02 -2.116713821887969971e-01 1.506876796483993530e-01 -2.465170808136463165e-02 -6.617139279842376709e-02 -1.057290732860565186e-01 -1.486748009920120239e-01 4.920874163508415222e-02 1.061476916074752808e-01 -8.320052176713943481e-02 1.058955416083335876e-01 -5.091556161642074585e-02 -4.334723949432373047e-02 1.037377342581748962e-01 -6.082994118332862854e-02 6.670620292425155640e-02 -1.382499486207962036e-01 -1.730158329010009766e-01 5.384470522403717041e-02 -1.109600961208343506e-01 4.638408496975898743e-02 -3.384590148925781250e-02 -2.278100140392780304e-02 1.220480427145957947e-01 -5.305776000022888184e-02 -1.968542635440826416e-01 -1.048269942402839661e-01 4.701853264123201370e-03 -2.573162317276000977e-02 3.105628862977027893e-02 1.111233383417129517e-01 7.222918793559074402e-03 -3.083826787769794464e-02 6.695995572954416275e-03 -4.033526033163070679e-02 4.245512560009956360e-02 -6.769347935914993286e-02 -9.229919873178005219e-03 6.499658524990081787e-02 3.441957011818885803e-02 3.123592026531696320e-02 -3.177417442202568054e-02 -6.345715373754501343e-02 -5.824055150151252747e-02 -2.003356516361236572e-01 -3.664360847324132919e-03 -1.127746403217315674e-01 1.428779065608978271e-01 -3.591343387961387634e-02 8.262472599744796753e-02 -1.005485653877258301e-01 1.167063787579536438e-01 7.801004499197006226e-02 -8.833768963813781738e-02 -9.377475827932357788e-03 6.381648778915405273e-02 -8.909990638494491577e-02 -8.924999088048934937e-02 8.104473352432250977e-03 -9.375030547380447388e-02 -1.049739420413970947e-01 -1.750804930925369263e-01 -1.030791848897933960e-01 -1.202282384037971497e-01 -7.747791707515716553e-02 6.949298828840255737e-02 -4.475452378392219543e-02 1.085759326815605164e-01 8.476796746253967285e-02 9.802512824535369873e-02 -1.684645116329193115e-01 -5.405386164784431458e-02 -4.484735801815986633e-02 -2.801848575472831726e-02 -8.095659315586090088e-02 -4.040371626615524292e-03 -4.195130616426467896e-02 1.148508563637733459e-01 1.591846048831939697e-01 6.529455631971359253e-02 -1.160248368978500366e-01 -3.702306374907493591e-02 -6.561043113470077515e-02 -2.364304661750793457e-01 -4.779827967286109924e-02 1.958037726581096649e-02 2.230253815650939941e-02 3.659028932452201843e-02 5.302191898226737976e-02 5.995993688702583313e-02 2.097013145685195923e-01 -9.726105630397796631e-02 -4.851818829774856567e-02 4.182436689734458923e-02 6.532699335366487503e-03 -7.808582484722137451e-02 1.976484060287475586e-02 3.846291080117225647e-02 -8.015021681785583496e-02 -1.644271016120910645e-01 -1.413331646472215652e-02 1.042083054780960083e-01 2.369839400053024292e-01 1.248396839946508408e-02 -4.496433585882186890e-02 -1.110849082469940186e-01 -1.009818688035011292e-01 -4.566036164760589600e-02 -4.954499006271362305e-02 -6.530524045228958130e-02 1.396858319640159607e-02 4.797486215829849243e-02 1.055673807859420776e-01 -2.188025563955307007e-01 1.326099038124084473e-03 -1.016747727990150452e-01 3.725654096342623234e-04 9.330829232931137085e-02 -9.690112620592117310e-02 1.547524631023406982e-01 3.459900990128517151e-02 -6.345057487487792969e-02 -3.329271823167800903e-02 -1.409667730331420898e-01 -4.761077463626861572e-02 4.423544555902481079e-02 9.995052963495254517e-02 1.292102485895156860e-01 9.431394934654235840e-02 -9.511396288871765137e-02 -1.213789358735084534e-01 -2.023034542798995972e-02 -9.896694123744964600e-02 1.559250336140394211e-02 -9.126673638820648193e-02 2.442401088774204254e-02 1.348787397146224976e-01 1.304462552070617676e-01 1.800522953271865845e-01 2.133825235068798065e-02 4.353740811347961426e-02 -2.605869621038436890e-02 1.324376463890075684e-01 -8.486805483698844910e-03 -6.591995805501937866e-02 1.120153963565826416e-01 -7.225987315177917480e-02 3.304653102532029152e-03 -2.524705976247787476e-02 5.765007436275482178e-02 -1.674061715602874756e-01 6.230829283595085144e-02 1.367760449647903442e-01 7.486170623451471329e-03 -9.874515980482101440e-02 3.227794915437698364e-02 5.727373063564300537e-02 7.678712159395217896e-02 1.850951910018920898e-01 9.474779665470123291e-02 -6.516017764806747437e-02 3.798053041100502014e-02 -7.557284086942672729e-02 7.308892160654067993e-02 -9.971295297145843506e-02 2.251780642836820334e-05 -1.119405776262283325e-01 -3.098841570317745209e-02 2.713014604523777962e-03 -1.507277041673660278e-01 9.853820502758026123e-02 1.205874457955360413e-01 1.045908927917480469e-01 5.969341099262237549e-02 -2.095006108283996582e-01 -5.560243502259254456e-02 1.250747144222259521e-01 -2.304068580269813538e-02 4.638736695051193237e-02 -1.432865858078002930e-02 4.913182463496923447e-03 1.017534956336021423e-01 6.991437822580337524e-02 1.430009752511978149e-01 -1.845273077487945557e-01 5.029148608446121216e-02 -6.125807017087936401e-02 -1.472099721431732178e-01 -1.179864630103111267e-01 1.063627600669860840e-01 -1.772518083453178406e-02 3.846456529572606087e-04 -1.517311390489339828e-02 -1.063082367181777954e-02 -1.878918893635272980e-02 -1.034556981176137924e-02 1.974930912256240845e-01 8.766929060220718384e-02 -3.855348750948905945e-02 -5.630291625857353210e-02 1.215635333210229874e-02 -6.038850918412208557e-02 9.331405907869338989e-02 -6.428277492523193359e-02 9.704146068543195724e-04 -1.892858184874057770e-02 -8.261545002460479736e-02 -1.049263309687376022e-02
4.390390962362289429e-02 -6.195665895938873291e-02 1.001137048006057739e-01 -4.488349892199039459e-03 4.220611229538917542e-02 -4.152948781847953796e-02 1.864547282457351685e-02 1.411745138466358185e-02 -5.583377555012702942e-03 -1.448791176080703735e-01 6.391314417123794556e-02 6.772366911172866821e-02 2.334403805434703827e-02 4.501133039593696594e-02 6.054803356528282166e-02 7.054601609706878662e-02 -1.321976184844970703e-01 -3.977681696414947510e-02 1.367660015821456909e-01 3.387250751256942749e-02 2.477355860173702240e-02 -9.478805959224700928e-02 -8.747715502977371216e-02 -1.309240330010652542e-02 -1.939643919467926025e-02 7.398787140846252441e-02 8.861468732357025146e-02 -1.322185546159744263e-01 -6.105321273207664490e-02 1.799996098270639777e-04 -2.303949743509292603e-02 5.674041807651519775e-03 -4.975961521267890930e-02 -1.469324529170989990e-01 -1.511005610227584839e-01 1.756681874394416809e-02 2.283650264143943787e-02 3.364918529987335205e-01 2.854188904166221619e-03 1.253992021083831787e-01 6.440049409866333008e-02 -1.195179522037506104e-01 4.128598421812057495e-02 7.762665860354900360e-03 1.575626879930496216e-01 9.364742785692214966e-02 -3.169696778059005737e-02 -1.918768510222434998e-02 1.190130710601806641e-01 1.210401486605405807e-02 -1.774814575910568237e-01 4.228962212800979614e-02 3.745486214756965637e-02 -4.709196090698242188e-02 1.009779050946235657e-01 -1.128439009189605713e-01 -8.095009624958038330e-02 2.621531300246715546e-02 1.005823537707328796e-01 -5.290561169385910034e-02 -5.252270773053169250e-02 3.102639690041542053e-02 -2.011047676205635071e-02 2.432634867727756500e-02 2.196115851402282715e-01 4.697817843407392502e-03 -2.480280213057994843e-02 -1.539072096347808838e-01 -6.001841276884078979e-02 1.775347143411636353e-01 1.339091174304485321e-02 1.331076025962829590e-01 5.952762812376022339e-02 7.929714024066925049e-02 7.662810385227203369e-02 -6.320162117481231689e-02 -5.113466456532478333e-02 -7.653383910655975342e-02 4.694652184844017029e-02 -1.046720594167709351e-01 -1.463854033499956131e-02 -1.099914088845252991e-01 -8.797011338174343109e-03 4.182977601885795593e-02 -3.165060281753540039e-02 8.183082938194274902e-02 6.182522699236869812e-02 4.931272938847541809e-02 6.396793574094772339e-02 2.089178264141082764e-01 6.990243494510650635e-02 -7.663718611001968384e-02 -1.766085773706436157e-01 6.866920739412307739e-02 1.021926989778876305e-03 1.089783981442451477e-01 -8.371965587139129639e-02 -2.769588679075241089e-02 -1.319947987794876099e-01 -6.515964050777256489e-04 1.384840626269578934e-02 1.619520187377929688e-01 -2.727053314447402954e-02 -1.877892166376113892e-01 4.231813922524452209e-02 -3.111162036657333374e-02 2.465831860899925232e-02 -7.365716993808746338e-02 8.441434055566787720e-02 -1.311045736074447632e-01 -7.735474407672882080e-02 2.575478851795196533e-01 -2.881626226007938385e-02 1.659914702177047729e-01 -7.683693617582321167e-02 8.392991125583648682e-02 2.085643820464611053e-02 -7.008656114339828491e-02 7.289841771125793457e-02 -5.238231271505355835e-03 7.377889752388000488e-02 -1.488612848334014416e-03 2.704867906868457794e-02 -6.648737937211990356e-02 -1.327567845582962036e-01 1.678932458162307739e-02 -5.205190926790237427e-02 -2.357534877955913544e-02 6.820094585418701172e-02 -3.929064422845840454e-02 -1.816600933670997620e-02 1.683316938579082489e-02 -8.900288492441177368e-02 2.931746421381831169e-03 1.096238717436790466e-01 4.721551761031150818e-02 6.842709332704544067e-02 2.063828893005847931e-02 1.218579784035682678e-01 -5.606259033083915710e-02 3.882022202014923096e-02 -9.274569340050220490e-03 5.263634398579597473e-02 -1.948714634636417031e-04 9.029818326234817505e-02 -3.278277348726987839e-03 4.908901173621416092e-03 -1.387928128242492676e-01 1.319274604320526123e-01 -1.738459989428520203e-02 6.294901669025421143e-02 1.391363888978958130e-01 -2.863927185535430908e-02 1.195048466324806213e-01 -1.035179644823074341e-01 1.518069654703140259e-01 -1.838958412408828735e-01 1.520033776760101318e-01 1.431396882981061935e-02 -6.149280816316604614e-03 -8.836625143885612488e-03 -1.015350073575973511e-01 1.043927762657403946e-02 -3.971159458160400391e-02 4.148242250084877014e-02 1.325356662273406982e-01 -1.440349966287612915e-01 8.345837891101837158e-02 -1.192140430212020874e-01 -9.351339936256408691e-02 2.550189383327960968e-02 -1.851731836795806885e-01 2.028004266321659088e-02 -2.677508592605590820e-01 -7.326682657003402710e-02 8.668278902769088745e-02 3.951283544301986694e-02 6.719695776700973511e-02 -5.000342056155204773e-02 -9.006913751363754272e-02 -2.221054956316947937e-02 -6.324089318513870239e-02 3.082947246730327606e-02 -1.486977562308311462e-02 1.059487611055374146e-01 1.419130116701126099e-01 2.182466834783554077e-01 8.595177531242370605e-02 7.966517657041549683e-02 -6.378380954265594482e-02 1.319054663181304932e-01 7.710729259997606277e-03 -4.634249210357666016e-02 1.253731250762939453e-01 1.319109350442886353e-01 5.406027287244796753e-02 -1.570956408977508545e-02 -6.118835881352424622e-02 -6.956057250499725342e-02 -4.328053444623947144e-03 -9.342705458402633667e-02 -5.079501494765281677e-02 1.047075986862182617e-01 -6.020983308553695679e-02 1.857989728450775146e-01 -6.571684777736663818e-02 -1.741126528941094875e-03 1.198698580265045166e-01 -1.635238230228424072e-01 6.294012069702148438e-02 3.259990364313125610e-02 -5.492237955331802368e-02 1.376090794801712036e-01 3.796322271227836609e-02 -6.247397512197494507e-02 -3.662976250052452087e-02 -3.651910647749900818e-02 9.627938270568847656e-03 -5.385529994964599609e-02 -7.806026935577392578e-02 -4.336901009082794189e-03 6.827326864004135132e-02 -7.707820041105151176e-04 -8.884975314140319824e-02 -8.050981163978576660e-02 -1.213406696915626526e-01 4.996288940310478210e-02 1.081553250551223755e-01 -1.803332418203353882e-01 -4.125989228487014771e-02 7.410088181495666504e-02 -4.566267877817153931e-02 -1.646217852830886841e-01 -8.165860176086425781e-02 -5.261685326695442200e-02 1.601672917604446411e-01 -4.685170017182826996e-03
-1.096361549571156502e-03 1.834821105003356934e-01 -6.276385486125946045e-02 -1.089704483747482300e-01 -5.598189309239387512e-02 -1.067930366843938828e-02 1.588983535766601562e-01 5.237112566828727722e-02 -1.522077992558479309e-02 1.449891552329063416e-02 4.114326089620590210e-02 1.129642948508262634e-01 -6.020477414131164551e-02 -4.415713250637054443e-02 -1.160705387592315674e-01 -7.614977657794952393e-02 -3.121313266456127167e-02 1.473817378282546997e-01 5.773236602544784546e-02 -1.087820455431938171e-01 1.085622608661651611e-01 3.732139244675636292e-02 -3.388728480786085129e-03 -2.531432509422302246e-01 1.782398484647274017e-02 -1.749953255057334900e-03 9.034179896116256714e-02 7.711160182952880859e-02 7.513756304979324341e-02 -3.271511197090148926e-02 7.647158205509185791e-02 1.186228916049003601e-01 8.180176466703414917e-02 5.653106421232223511e-02 -1.374552845954895020e-01 -1.685734987258911133e-01 -1.336876451969146729e-01 1.364574879407882690e-01 4.051683098077774048e-02 -2.294384129345417023e-02 2.091804146766662598e-02 3.316677734255790710e-02 1.761718094348907471e-01 3.609070554375648499e-02 -3.389897942543029785e-02 5.486952885985374451e-02 4.117142781615257263e-02 7.947931438684463501e-02 -4.501531273126602173e-02 -3.640906512737274170e-02 -9.157972782850265503e-02 1.048388108611106873e-01 -1.366117298603057861e-01 4.443290457129478455e-02 -3.543324023485183716e-02 1.241798326373100281e-01 4.640822112560272217e-02 -1.275181956589221954e-02 -8.162817358970642090e-02 7.094138115644454956e-02 1.393843293190002441e-01 2.673812806606292725e-01 1.793726906180381775e-02 -4.767245054244995117e-02 1.185500994324684143e-01 6.917678751051425934e-03 5.528017133474349976e-02 7.164555042982101440e-02 4.430133104324340820e-02 3.221549466252326965e-02 -5.651251878589391708e-03 7.793948054313659668e-02 9.430676698684692383e-03 6.481943279504776001e-02 1.512377262115478516e-01 2.035598456859588623e-02 -8.388278633356094360e-02 -4.593588411808013916e-02 -5.333470180630683899e-02 -4.466813057661056519e-02 7.670396007597446442e-03 1.477894484996795654e-01 9.614593535661697388e-02 -3.896588832139968872e-02 1.690503023564815521e-02 1.729212328791618347e-02 2.461207844316959381e-02 -2.609307318925857544e-02 -4.957527667284011841e-02 -6.995992152951657772e-04 1.436305791139602661e-01 1.578116863965988159e-01 -1.706317067146301270e-02 3.500383719801902771e-02 9.018217772245407104e-02 -9.137580543756484985e-02 4.454413056373596191e-02 1.133172661066055298e-01 -2.130119502544403076e-02 -5.060358345508575439e-02 1.137236356735229492e-01 -4.366756882518529892e-03 1.517731230705976486e-02 1.560103148221969604e-01 -1.627798974514007568e-01 -8.136347867548465729e-03 5.124317109584808350e-02 -1.642145812511444092e-01 6.637376733124256134e-03 -1.022427752614021301e-01 -1.800881326198577881e-01 -1.342607885599136353e-01 7.215094566345214844e-02 7.570588588714599609e-02 -3.644490242004394531e-02 -5.945715308189392090e-02 9.221229120157659054e-04 7.396703213453292847e-02 -2.579408138990402222e-02 -4.093019291758537292e-02 4.999903216958045959e-02 -5.655965581536293030e-02 2.959917671978473663e-02 4.627874121069908142e-02 -1.297347992658615112e-01 5.077088624238967896e-02 -1.745917834341526031e-02 8.251958340406417847e-02 7.223167270421981812e-02 3.296904324088245630e-04 1.516908779740333557e-02 5.600543320178985596e-02 -4.043633490800857544e-02 -4.482153058052062988e-02 -2.081294916570186615e-02 7.927915453910827637e-02 5.717736855149269104e-02 2.950426377356052399e-02 4.278879612684249878e-02 1.250559370964765549e-02 4.524079710245132446e-02 -1.118292659521102905e-01 9.343536943197250366e-02 -3.867734223604202271e-02 -4.245287179946899414e-02 -4.075996950268745422e-02 -5.385982245206832886e-02 -7.168649882078170776e-02 -4.339078441262245178e-02 2.856425754725933075e-02 1.016495600342750549e-01 -7.125727087259292603e-02 2.851222641766071320e-02 7.689808961004018784e-03 -4.388326406478881836e-02 -5.597131326794624329e-02 2.562223188579082489e-02 -3.502275049686431885e-02 1.214844509959220886e-01 1.397527288645505905e-02 -6.602505594491958618e-02 -3.105542995035648346e-02 -1.299987733364105225e-01 5.679655075073242188e-02 8.991760015487670898e-02 -9.057084098458290100e-03 5.831157416105270386e-02 -1.457927655428647995e-02 1.831798553466796875e-01 -2.229580841958522797e-02 1.709341853857040405e-01 1.307333167642354965e-02 -1.186061929911375046e-02 6.372733414173126221e-02 2.182363122701644897e-01 3.228776855394244194e-03 1.535025089979171753e-01 -2.400788944214582443e-03 -8.937788009643554688e-02 4.994148015975952148e-02 8.516010828316211700e-03 1.618404984474182129e-01 2.883558906614780426e-02 -4.855351895093917847e-02 5.291061475872993469e-02 2.964950725436210632e-02 3.745632711797952652e-03 -3.930538147687911987e-02 -6.511916965246200562e-02 -2.477456443011760712e-02 1.000051200389862061e-01 8.824238181114196777e-02 1.262919902801513672e-01 -1.849593967199325562e-01 4.727012291550636292e-02 -5.529645457863807678e-02 -1.368412375450134277e-01 -1.271247565746307373e-01 -7.217951584607362747e-03 9.015674144029617310e-02 4.449665546417236328e-02 1.277716457843780518e-01 -7.559183984994888306e-03 9.442525357007980347e-02 -1.311478316783905029e-01 -6.404341757297515869e-02 -2.247015712782740593e-03 -8.141289651393890381e-02 2.265705959871411324e-03 3.939549997448921204e-02 1.205796897411346436e-01 -1.152390614151954651e-01 -1.656964272260665894e-01 1.242111548781394958e-01 -3.929041326045989990e-02 -1.410862058401107788e-01 -7.792092859745025635e-02 1.798609048128128052e-01 -6.103852763772010803e-02 -4.009177535772323608e-02 5.699429288506507874e-02 1.485284864902496338e-01 7.730291783809661865e-02 1.931297825649380684e-03 8.037129789590835571e-02 -4.809170216321945190e-02 5.327169969677925110e-02 -1.639778316020965576e-01 -7.161691039800643921e-02 -5.689479410648345947e-02 8.681103587150573730e-02 -3.382635861635208130e-02 -5.681255087256431580e-02 7.969424128532409668e-02 -1.308705359697341919e-01 -6.321848928928375244e-02 -1.817507445812225342e-01
1.469738036394119263e-01 1.403292268514633179e-01 4.776122421026229858e-02 1.304890215396881104e-01 1.822767965495586395e-02 3.801395185291767120e-03 7.392618060111999512e-02 -1.160059869289398193e-01 -1.915897428989410400e-01 7.788370549678802490e-02 3.503379225730895996e-02 -9.336998313665390015e-02 1.091544255614280701e-01 -4.947279114276170731e-03 -2.377782762050628662e-02 -2.670191600918769836e-02 7.698018848896026611e-02 -1.488438844680786133e-01 6.069858791306614876e-04 1.986844092607498169e-02 -4.248065501451492310e-02 1.276524923741817474e-02 -8.514514192938804626e-03 -4.460715129971504211e-02 5.555620416998863220e-02 5.590545758605003357e-02 -3.187809884548187256e-02 -3.701289370656013489e-02 -1.615813188254833221e-02 1.789035834372043610e-02 -2.966126799583435059e-02 -7.209779694676399231e-03 5.644248425960540771e-02 5.914504826068878174e-02 -3.912054002285003662e-02 -4.162519704550504684e-03 -1.674795448780059814e-01 -4.431942850351333618e-02 3.780719637870788574e-02 -2.552873454988002777e-02 -1.793618351221084595e-01 -3.800225630402565002e-02 5.512778833508491516e-02 -6.010307744145393372e-02 1.071723476052284241e-01 -1.081842035055160522e-01 -5.591046810150146484e-02 -6.990361213684082031e-02 1.438973005861043930e-02 2.328443713486194611e-02 -3.440411761403083801e-02 1.347545236349105835e-01 4.065480455756187439e-02 1.791330426931381226e-01 -1.050764396786689758e-01 -3.572497516870498657e-02 -1.203309148550033569e-01 -4.752985201776027679e-03 -1.950444281101226807e-01 -7.709854096174240112e-02 -4.302870109677314758e-02 2.859391737729310989e-03 -2.249333411455154419e-01 -1.967096775770187378e-01 4.314844496548175812e-03 -3.208455443382263184e-02 -7.445130497217178345e-02 1.070692986249923706e-01 -6.330122798681259155e-02 5.431357771158218384e-02 6.273580342531204224e-02 2.525409162044525146e-01 -7.493042200803756714e-02 -1.600956618785858154e-01 1.260120123624801636e-01 2.862273901700973511e-02 -3.282947093248367310e-02 6.137992814183235168e-02 3.543326631188392639e-02 4.342696815729141235e-02 -2.148039080202579498e-02 -6.603648420423269272e-03 5.140916630625724792e-02 4.083428159356117249e-02 8.421235531568527222e-02 -3.537543490529060364e-02 1.112825423479080200e-01 2.585384249687194824e-02 -1.724725775420665741e-02 2.489240467548370361e-02 2.360649779438972473e-02 -6.560529768466949463e-02 -3.655650466680526733e-02 -1.156279593706130981e-01 6.431759893894195557e-02 2.328072786331176758e-01 5.061130225658416748e-02 1.716292276978492737e-02 1.345393434166908264e-02 -4.272506386041641235e-02 1.012082099914550781e-01 5.245059728622436523e-02 -8.964774012565612793e-02 1.656363755464553833e-01 -5.513448268175125122e-03 -7.443632930517196655e-02 -3.311738371849060059e-02 -1.204468160867691040e-01 4.598055779933929443e-02 6.307708472013473511e-02 6.730428338050842285e-02 2.932876348495483398e-02 8.156619220972061157e-02 1.625028848648071289e-01 4.721075668931007385e-02 -7.595695555210113525e-02 -8.589337021112442017e-02 -9.658540040254592896e-02 6.874069105833768845e-03 -1.980788409709930420e-01 -6.062260270118713379e-02 1.712102629244327545e-02 4.599818959832191467e-02 7.617310434579849243e-02 -1.364402323961257935e-01 5.351873487234115601e-02 -8.665920048952102661e-02 -2.944783307611942291e-02 1.749354898929595947e-01 -3.234436362981796265e-02 -1.299453712999820709e-02 7.147141546010971069e-02 -9.706588834524154663e-02 1.505160983651876450e-02 6.025390326976776123e-02 3.109076060354709625e-02 -8.885418623685836792e-02 4.622771963477134705e-02 -1.238128021359443665e-01 -8.721967786550521851e-02 -5.620201677083969116e-02 7.199952006340026855e-02 8.765464276075363159e-02 1.512381341308355331e-02 4.062121734023094177e-03 7.543094456195831299e-02 -6.741185486316680908e-02 -1.106386035680770874e-01 1.968724429607391357e-01 2.299046963453292847e-01 -1.374199241399765015e-02 1.188327744603157043e-01 8.267583698034286499e-02 -1.814375445246696472e-02 -3.028726391494274139e-02 1.328658498823642731e-02 1.356650441884994507e-01 -3.585040569305419922e-02 2.636478841304779053e-02 -3.920736908912658691e-02 -1.519234031438827515e-01 -1.070443466305732727e-01 2.784158801659941673e-03 -2.793792821466922760e-02 1.444931514561176300e-02 -5.657984688878059387e-02 -8.097108453512191772e-02 1.019476205110549927e-01 3.355562686920166016e-02 -3.032466769218444824e-02 1.290680617094039917e-01 2.518086135387420654e-01 4.432396963238716125e-02 -7.748270034790039062e-02 -8.809188753366470337e-02 -8.250570972450077534e-04 -2.570472955703735352e-01 -2.499720267951488495e-02 -1.782613843679428101e-01 -5.092105641961097717e-02 -6.629183143377304077e-02 -1.318451315164566040e-01 3.525349497795104980e-02 -2.471365593373775482e-02 5.371851846575737000e-03 9.781961329281330109e-03 3.977625444531440735e-02 -7.708620978519320488e-04 2.281449288129806519e-01 -3.705775365233421326e-02 -8.130184561014175415e-02 4.909717664122581482e-02 -1.936651766300201416e-01 1.423428505659103394e-01 6.474015861749649048e-02 -9.104543179273605347e-02 -5.934139247983694077e-03 1.128796786069869995e-01 2.556147798895835876e-02 3.293561190366744995e-02 5.534621700644493103e-02 3.229833841323852539e-01 -1.038563787005841732e-03 1.029483526945114136e-01 -1.307039987295866013e-03 7.554835081100463867e-02 1.189159378409385681e-01 -8.353824913501739502e-02 -9.225843101739883423e-02 5.718494206666946411e-02 -2.753933332860469818e-02 -5.398929119110107422e-02 -2.192059531807899475e-02 2.424905262887477875e-02 1.257734596729278564e-01 1.224751025438308716e-01 3.607586771249771118e-02 -1.323557645082473755e-01 9.585292637348175049e-02 6.211522221565246582e-02 1.967393606901168823e-02 -2.923035249114036560e-02 -8.529851585626602173e-02 -1.238342933356761932e-02 -8.610864728689193726e-02 -8.865416795015335083e-02 -1.647645048797130585e-02 6.615391373634338379e-02 7.664755452424287796e-03 6.629524379968643188e-02 -4.556008055806159973e-02 9.302686154842376709e-02 1.136825233697891235e-01 1.195598319172859192e-01 -2.911393903195858002e-02 4.080692306160926819e-02 1.302506774663925171e-01
1.354251652956008911e-01 -4.245124384760856628e-02 1.761792786419391632e-02 1.580901592969894409e-01 -4.860991612076759338e-02 3.183750063180923462e-02 -5.599322915077209473e-02 -4.015649110078811646e-02 -6.698915362358093262e-02 -4.211542382836341858e-02 1.154190823435783386e-01 -2.717643789947032928e-02 -8.027243614196777344e-02 -5.439992994070053101e-03 -5.859322473406791687e-02 -1.965827308595180511e-02 -1.838018931448459625e-02 -1.465823501348495483e-02 2.586861886084079742e-02 8.257287554442882538e-03 8.890517055988311768e-02 -7.086689025163650513e-02 -2.940835058689117432e-02 -3.238595789298415184e-03 5.447215400636196136e-03 -1.436444371938705444e-01 7.784240692853927612e-02 -8.817945420742034912e-02 1.418189406394958496e-01 -4.037418329971842468e-05 -1.099906023591756821e-02 -7.208906114101409912e-03 2.649130485951900482e-02 3.062370000407099724e-03 2.850332297384738922e-02 -1.677803695201873779e-02 1.143401637673377991e-01 9.447873383760452271e-02 -4.625965654850006104e-02 1.267393827438354492e-01 1.122013293206691742e-02 5.781260505318641663e-02 -2.110377550125122070e-01 7.441557198762893677e-02 -3.430997580289840698e-02 -3.899952396750450134e-02 6.988073885440826416e-02 -3.996354341506958008e-02 -1.378478407859802246e-01 -1.171776354312896729e-01 -3.961910028010606766e-03 1.718101054430007935e-01 -1.042653396725654602e-01 5.984545499086380005e-02 5.463451892137527466e-02 -1.869774051010608673e-02 2.878060638904571533e-01 4.243122786283493042e-02 8.298911899328231812e-02 6.129198521375656128e-02 -3.908966481685638428e-02 -8.047502487897872925e-02 1.181194745004177094e-02 -4.289484769105911255e-02 1.176339015364646912e-01 1.330052316188812256e-01 8.497875183820724487e-02 -5.681651085615158081e-02 -3.235257416963577271e-02 1.262634098529815674e-01 6.596492230892181396e-02 -1.266441028565168381e-02 -6.278618425130844116e-02 5.687195062637329102e-02 1.045681163668632507e-01 1.867546290159225464e-01 1.923405751585960388e-02 -1.700233966112136841e-01 -2.217161096632480621e-02 2.141563147306442261e-01 4.434493184089660645e-02 1.640334725379943848e-01 1.027752459049224854e-01 6.095996126532554626e-02 -1.591130718588829041e-02 -5.605340749025344849e-02 -1.630922406911849976e-01 8.067175745964050293e-02 -1.138695776462554932e-01 -2.424781583249568939e-02 1.877828091382980347e-01 -8.729962259531021118e-02 -2.857278287410736084e-02 3.669562190771102905e-02 -1.317439600825309753e-02 -1.066519320011138916e-01 -6.183227896690368652e-02 -6.757964938879013062e-02 1.608564704656600952e-01 1.971089243888854980e-01 -8.843074738979339600e-02 -1.094235330820083618e-01 4.729763790965080261e-02 5.796739086508750916e-02 7.544422149658203125e-02 5.048267543315887451e-02 -1.630703061819076538e-01 6.722262501716613770e-02 -5.954681709408760071e-02 -2.957095392048358917e-02 1.108427792787551880e-01 1.480484008789062500e-01 -1.561945527791976929e-01 -3.132759407162666321e-02 2.579845860600471497e-02 9.781858883798122406e-03 6.993104703724384308e-03 1.519850045442581177e-01 -1.910340040922164917e-02 7.561472803354263306e-02 -7.040151953697204590e-02 -1.377236396074295044e-01 -1.178757753223180771e-03 -7.288493961095809937e-02 -5.803540721535682678e-02 -1.302996873855590820e-01 3.817432373762130737e-02 -2.196543663740158081e-02 -7.840864360332489014e-02 -1.909432932734489441e-02 -2.920166775584220886e-02 1.453427970409393311e-01 -9.692015126347541809e-03 -1.104068309068679810e-01 6.647946685552597046e-02 3.070597164332866669e-02 -6.434504687786102295e-02 -1.049623563885688782e-01 8.041751384735107422e-02 1.445569545030593872e-01 -8.812074363231658936e-02 7.885099202394485474e-02 1.802488565444946289e-01 -3.629134967923164368e-02 3.406491503119468689e-02 1.060432195663452148e-02 -1.168994326144456863e-02 -1.002885699272155762e-01 6.583492457866668701e-02 6.506264954805374146e-02 2.155040502548217773e-01 1.761627644300460815e-01 5.587375536561012268e-02 1.531990468502044678e-01 6.508217775262892246e-04 1.304791681468486786e-02 1.020672172307968140e-01 -9.475427865982055664e-02 2.156895399093627930e-01 -4.591044783592224121e-02 2.561845816671848297e-03 1.461069844663143158e-02 4.992045089602470398e-02 8.008787781000137329e-02 6.814835220575332642e-02 -2.659613639116287231e-02 4.237018153071403503e-02 -7.311899960041046143e-02 1.626213341951370239e-01 -1.481224875897169113e-02 -4.577329382300376892e-02 -7.758622616529464722e-02 1.560668274760246277e-02 -1.427626796066761017e-02 5.984784103929996490e-03 -4.999830946326255798e-02 4.934150353074073792e-02 4.681178368628025055e-03 -1.241773292422294617e-01 -6.728671491146087646e-02 -1.874508857727050781e-01 -1.560373604297637939e-01 7.827606797218322754e-02 -9.461791813373565674e-02 1.478157639503479004e-01 -1.784033887088298798e-02 7.331448793411254883e-02 4.477348178625106812e-02 -5.110593512654304504e-02 -2.472788654267787933e-02 -2.671604230999946594e-02 -1.710676699876785278e-01 -1.983991265296936035e-01 5.341146606951951981e-03 -1.617729291319847107e-02 -4.074655845761299133e-02 1.560742259025573730e-01 -6.477406620979309082e-02 6.365528702735900879e-02 1.372517179697751999e-02 -1.242242977023124695e-01 1.418401449918746948e-01 2.592878602445125580e-02 9.223240613937377930e-02 -9.247280657291412354e-02 7.777992635965347290e-02 3.527981042861938477e-02 8.559053391218185425e-02 -6.827061623334884644e-02 -5.399148911237716675e-03 -7.259082980453968048e-03 1.407612115144729614e-01 -5.510637536644935608e-03 9.419134259223937988e-02 -1.233911067247390747e-01 -1.542700380086898804e-01 -1.202979609370231628e-01 -7.562146335840225220e-02 1.839347779750823975e-01 -3.137722238898277283e-02 1.015267148613929749e-01 -1.860904693603515625e-02 -1.329868882894515991e-01 1.186824962496757507e-01 -1.858865842223167419e-02 -3.342298790812492371e-02 1.119397860020399094e-02 -6.567606702446937561e-03 -4.064053297042846680e-02 9.325993806123733521e-02 -7.097376137971878052e-02 6.965269893407821655e-02 -1.086594313383102417e-01 -6.800089031457901001e-04 -5.958135053515434265e-02 -1.007606312632560730e-01 4.246355220675468445e-02
-1.846543885767459869e-02 -4.212314635515213013e-02 6.766977161169052124e-02 -1.865237206220626831e-02 1.668561249971389771e-01 5.739302933216094971e-02 -5.827320739626884460e-02 -2.599803917109966278e-02 -1.889701783657073975e-01 6.124094128608703613e-02 -1.684233546257019043e-01 -1.244897842407226562e-01 1.397275459021329880e-02 1.216238439083099365e-01 -6.904304027557373047e-02 4.792230948805809021e-02 1.229771822690963745e-01 -5.733670666813850403e-02 -8.218776434659957886e-02 -4.062981903553009033e-02 1.797454431653022766e-02 -1.483582798391580582e-02 2.157806307077407837e-01 2.461693137884140015e-01 6.929562240839004517e-02 -1.350108440965414047e-02 -1.578041762113571167e-01 2.301540039479732513e-02 -1.532754022628068924e-02 6.911385059356689453e-02 7.780689746141433716e-02 -1.306992489844560623e-02 -2.611832693219184875e-02 -8.577431552112102509e-03 1.801139116287231445e-02 -5.598808079957962036e-02 -5.960941052762791514e-05 9.066648781299591064e-02 -6.954907625913619995e-02 8.147788047790527344e-02 1.129485294222831726e-01 -9.417004883289337158e-03 4.415091499686241150e-02 8.247414231300354004e-02 -7.681523263454437256e-02 -4.733433946967124939e-02 -3.238331153988838196e-02 -1.163615062832832336e-01 -4.597178846597671509e-02 -1.086660400032997131e-01 3.433681279420852661e-02 -9.934319555759429932e-02 4.105768352746963501e-02 6.738864630460739136e-02 3.411111980676651001e-02 -1.541153937578201294e-01 2.987006865441799164e-02 -7.497576624155044556e-02 -3.651475161314010620e-02 -4.079914093017578125e-02 -2.088794484734535217e-02 2.391823753714561462e-02 1.010271534323692322e-01 -2.581129595637321472e-02 -2.943408302962779999e-02 3.058633208274841309e-02 3.365146368741989136e-02 -1.084795221686363220e-01 7.310090959072113037e-02 6.096216663718223572e-02 1.391986161470413208e-01 1.209342628717422485e-01 1.619999180547893047e-03 7.955229282379150391e-02 -6.326507031917572021e-02 1.031925622373819351e-02 9.093508869409561157e-02 -6.959917396306991577e-02 -1.177207604050636292e-01 -1.329460442066192627e-01 -3.095071762800216675e-03 -2.900542505085468292e-02 3.164340928196907043e-02 8.375733345746994019e-02 -7.119257003068923950e-02 3.687154501676559448e-03 9.845756925642490387e-03 2.285134233534336090e-02 -6.929282844066619873e-02 -4.253860563039779663e-02 1.961235851049423218e-01 1.245709285140037537e-01 -6.374004483222961426e-02 1.193004325032234192e-01 1.203908994793891907e-01 7.854928821325302124e-02 -1.136599574238061905e-02 3.169041126966476440e-02 -3.307190909981727600e-02 -2.235848270356655121e-02 9.633751213550567627e-02 -3.056129999458789825e-02 1.269137859344482422e-01 -1.348608136177062988e-01 -2.272398956120014191e-02 -9.593650698661804199e-02 -2.486811764538288116e-02 -4.256028309464454651e-02 1.309327334165573120e-01 -4.536794498562812805e-02 -7.643696665763854980e-02 -3.879406675696372986e-02 1.176099665462970734e-02 -1.233368143439292908e-01 9.147832542657852173e-02 -8.843139559030532837e-02 8.561231940984725952e-02 9.708765894174575806e-03 -8.015111088752746582e-02 -7.872352004051208496e-02 -5.586270242929458618e-02 -1.128343269228935242e-01 5.657153576612472534e-02 -5.929522961378097534e-02 7.622620463371276855e-02 -3.399110957980155945e-02 -2.356985211372375488e-02 -4.032259061932563782e-02 -5.989099666476249695e-02 -2.876881361007690430e-01 7.476372271776199341e-02 1.782418414950370789e-02 -1.374887526035308838e-01 -9.959442913532257080e-02 -3.523245453834533691e-02 4.058307781815528870e-02 7.926428318023681641e-02 4.589504376053810120e-02 6.580839306116104126e-02 1.627118587493896484e-01 5.664879828691482544e-02 1.492961496114730835e-01 -1.444207578897476196e-01 2.735556475818157196e-02 -7.026295363903045654e-02 -3.996429219841957092e-02 -6.997781991958618164e-02 6.422574818134307861e-02 -1.494544297456741333e-01 -2.239095717668533325e-01 1.182082146406173706e-01 -5.169004574418067932e-02 4.170652851462364197e-02 -4.509600624442100525e-02 -1.766458004713058472e-01 4.356076940894126892e-02 3.514080867171287537e-02 1.048324704170227051e-01 5.485833808779716492e-02 5.586982704699039459e-03 4.448158666491508484e-02 1.125496327877044678e-01 -1.349933445453643799e-02 -1.586245894432067871e-01 8.878373540937900543e-03 1.696167886257171631e-02 -1.490592062473297119e-01 8.559928089380264282e-02 -1.141554303467273712e-02 -7.268115878105163574e-02 1.271471083164215088e-01 6.787847727537155151e-03 1.585645228624343872e-02 -2.420837432146072388e-02 1.833847141824662685e-03 1.489086896181106567e-01 6.203581020236015320e-02 3.417970612645149231e-02 -3.794046863913536072e-02 -5.324620753526687622e-03 2.372152172029018402e-02 -1.140707805752754211e-01 7.971627265214920044e-02 -4.273567348718643188e-02 1.041484475135803223e-01 1.198227256536483765e-01 -6.767123937606811523e-02 8.822096511721611023e-03 7.763899117708206177e-02 -1.494517922401428223e-01 6.713443994522094727e-02 -1.534763723611831665e-01 1.213772743940353394e-01 -1.146033033728599548e-01 -1.137990131974220276e-02 4.084328655153512955e-03 2.328843809664249420e-03 -3.889873996376991272e-02 4.785804450511932373e-02 -6.115893833339214325e-03 3.202290087938308716e-02 5.960208922624588013e-02 1.607659459114074707e-01 -7.179939746856689453e-02 -1.653253585100173950e-01 2.731004357337951660e-01 1.248071119189262390e-01 4.550268873572349548e-02 -6.590873748064041138e-02 -9.326870739459991455e-02 -7.517062593251466751e-03 -3.817157447338104248e-02 -2.137129306793212891e-01 -7.714798301458358765e-02 1.772066056728363037e-01 -7.935091853141784668e-02 3.987441211938858032e-02 1.162990629673004150e-01 -1.007027998566627502e-01 -9.155213832855224609e-02 9.403220564126968384e-02 -1.654554754495620728e-01 7.550942897796630859e-02 -1.331475935876369476e-02 -7.889854907989501953e-02 2.316026203334331512e-02 7.059107301756739616e-04 1.040116697549819946e-01 1.116415262222290039e-01 -1.909139156341552734e-01 9.194528311491012573e-02 1.352313719689846039e-02 6.892491132020950317e-03 1.067945137619972229e-01 1.542182713747024536e-01 1.537527441978454590e-01 8.214368671178817749e-02
