1.504942625761032104e-01
-4.845836162567138672e-01
-5.410826206207275391e-02
-1.573127508163452148e-01
-4.326812326908111572e-01
4.261834025382995605e-01
6.072034239768981934e-01
-5.200160145759582520e-01
7.670472860336303711e-01
5.502520203590393066e-01
-4.434137940406799316e-01
-2.989153563976287842e-01
-3.704851865768432617e-01
7.643756866455078125e-01
1.119164749979972839e-01
-7.867025136947631836e-01
8.110374212265014648e-01
1.375646442174911499e-01
-5.344985723495483398e-01
-4.855151772499084473e-01
-5.086498260498046875e-01
-5.800321102142333984e-01
2.359948903322219849e-01
-2.820463478565216064e-01
9.375232458114624023e-01
7.951682806015014648e-01
-6.452778577804565430e-01
-3.721626996994018555e-01
-1.517839580774307251e-01
1.192200630903244019e-01
-3.124169409275054932e-01
1.769934594631195068e-01
4.306507408618927002e-01
-9.633330255746841431e-02
8.613838553428649902e-01
6.779938191175460815e-02
1.840696781873703003e-01
1.406170278787612915e-01
-4.931603074073791504e-01
9.550440311431884766e-01
-5.795170664787292480e-01
-4.136567115783691406e-01
3.344436362385749817e-02
-5.056988000869750977e-01
-3.421424925327301025e-01
-1.977168917655944824e-01
-6.166927218437194824e-01
-6.416463758796453476e-03
-4.082157313823699951e-01
-4.935924708843231201e-01
-4.975638687610626221e-01
7.809745669364929199e-01
-3.244124725461006165e-02
-4.397390484809875488e-01
-6.452680826187133789e-01
2.460533529520034790e-01
7.684267759323120117e-01
-3.825846314430236816e-01
2.570941299200057983e-02
6.571019887924194336e-01
4.748409390449523926e-01
-7.159179449081420898e-01
3.331187739968299866e-02
-7.442893981933593750e-01
-6.065176725387573242e-01
-7.649274468421936035e-01
-1.195069551467895508e-01
-4.917032420635223389e-01
6.398419141769409180e-01
-2.328977137804031372e-01
-4.215458631515502930e-01
-5.353981256484985352e-01
-1.936275213956832886e-01
-3.547134101390838623e-01
3.655047118663787842e-01
3.170423507690429688e-01
-5.052268505096435547e-01
-4.623137414455413818e-01
4.242766201496124268e-01
8.015856146812438965e-01
-3.599863648414611816e-01
-1.260178238153457642e-01
1.919768750667572021e-01
-2.564679384231567383e-01
5.267762392759323120e-02
8.524376749992370605e-01
7.963339686393737793e-01
-2.262942790985107422e-01
5.126428976655006409e-02
4.517207667231559753e-02
8.221655488014221191e-01
7.087797522544860840e-01
5.637458991259336472e-03
-5.329226255416870117e-01
-9.624805301427841187e-02
-4.383611381053924561e-01
-3.085102140903472900e-01
-5.361211299896240234e-01
-1.855762749910354614e-01
-7.044467329978942871e-01
-4.838802851736545563e-03
-3.475064411759376526e-02
-4.433797895908355713e-01
7.606796175241470337e-02
-5.928220748901367188e-01
-6.274073719978332520e-01
1.296249032020568848e-01
-4.525166153907775879e-01
-4.458429813385009766e-01
1.297111511230468750e-01
6.060857176780700684e-01
-6.478188633918762207e-01
8.511363267898559570e-01
-2.625835537910461426e-01
1.679680943489074707e-01
5.581086277961730957e-01
-2.763308882713317871e-01
1.218720823526382446e-01
3.549786210060119629e-01
-5.576636791229248047e-01
-1.977244019508361816e-01
3.899394348263740540e-02
1.379509419202804565e-01
1.628786884248256683e-02
-4.247843921184539795e-01
4.379598796367645264e-01
-5.061714649200439453e-01
-4.747394919395446777e-01
-5.625494718551635742e-01
9.289026260375976562e-01
-7.201084494590759277e-02
-1.222747936844825745e-02
3.691454827785491943e-01
6.496132016181945801e-01
2.407038062810897827e-01
-2.321953177452087402e-01
-3.287708163261413574e-01
8.313186168670654297e-01
6.497603654861450195e-01
-6.654227375984191895e-01
-6.153356432914733887e-01
7.998065352439880371e-01
7.509957253932952881e-02
-2.329722493886947632e-01
7.753056287765502930e-01
-5.748488306999206543e-01
-6.147459149360656738e-01
-2.911252677440643311e-01
-6.892290115356445312e-01
6.711472868919372559e-01
6.488990783691406250e-01
5.064601823687553406e-02
8.458591103553771973e-01
-3.030865490436553955e-01
-4.663847684860229492e-01
-3.446384668350219727e-01
4.642883315682411194e-02
-6.731299161911010742e-01
-6.039671301841735840e-01
7.975474596023559570e-01
1.344086527824401855e-01
-3.169418275356292725e-01
-3.596268296241760254e-01
-6.622097492218017578e-01
-3.609841763973236084e-01
-5.948120951652526855e-01
-5.529232621192932129e-01
5.647372454404830933e-02
-4.757240116596221924e-01
7.356367111206054688e-01
1.647328287363052368e-01
-2.741131484508514404e-01
-1.511470228433609009e-01
8.533093333244323730e-01
7.821123600006103516e-01
5.036703348159790039e-01
-2.964023733511567116e-03
6.497282385826110840e-01
8.368547558784484863e-01
-1.375853121280670166e-01
-3.062435984611511230e-01
8.348407149314880371e-01
-7.387158870697021484e-01
-2.720289491117000580e-02
-4.165121614933013916e-01
4.919638633728027344e-01
3.172046840190887451e-01
-2.316591888666152954e-01
2.108040638267993927e-02
-4.271291196346282959e-01
1.488989740610122681e-01
-2.600864768028259277e-01
7.388326525688171387e-01
7.989280819892883301e-01
-4.384605884552001953e-01
-1.022485345602035522e-01
5.053871273994445801e-01
-2.887465357780456543e-01
4.853030741214752197e-01
-6.794396638870239258e-01
-7.638693600893020630e-02
8.187710046768188477e-01
-4.237736165523529053e-01
-5.445788502693176270e-01
-3.093806207180023193e-01
6.246163249015808105e-01
3.974935412406921387e-01
-6.331171989440917969e-01
-2.230254113674163818e-01
3.212787806987762451e-01
5.487229824066162109e-01
-3.644700646400451660e-01
-1.189472228288650513e-01
1.693280786275863647e-01
8.013816922903060913e-02
-6.492146253585815430e-01
3.172053396701812744e-01
-2.797229401767253876e-02
-6.730576157569885254e-01
-2.943160710856318474e-03
7.674141526222229004e-01
-4.010154008865356445e-01
3.777920305728912354e-01
-3.161922469735145569e-02
9.589034914970397949e-01
-1.774520277976989746e-01
-5.606788396835327148e-01
-3.866457045078277588e-01
7.896507978439331055e-01
7.444990873336791992e-01
9.289330840110778809e-01
-1.666995435953140259e-01
1.912110447883605957e-01
3.357816040515899658e-01
-3.303028941154479980e-01
-6.007701158523559570e-02
-2.284255623817443848e-01
-1.365766078233718872e-01
-6.332508325576782227e-01
-3.748258054256439209e-01
1.954917460680007935e-01
4.198780655860900879e-01
-4.913618266582489014e-01
-6.863313913345336914e-02
8.997104763984680176e-01
4.882956743240356445e-01
5.240975618362426758e-01
-1.648255735635757446e-01
3.091777265071868896e-01
3.563622832298278809e-01
2.868091166019439697e-01
-5.744503811001777649e-02
-6.141705513000488281e-01
1.450917422771453857e-01
-3.974496424198150635e-01
-4.440985620021820068e-01
