1.385750435292720795e-02 -2.877510897815227509e-02 4.761945083737373352e-02 5.205422174185514450e-03 5.165878683328628540e-03 1.468442473560571671e-02 -2.532964944839477539e-02 3.357196599245071411e-02 -1.032937970012426376e-02 -2.367099747061729431e-03 1.250167097896337509e-02 -3.371757641434669495e-02 -2.893410436809062958e-02 2.110970579087734222e-02 -3.123588301241397858e-02 -9.199277497828006744e-03 2.710813656449317932e-02 -1.889536343514919281e-02 2.559030661359429359e-03 -2.442661114037036896e-02 -1.732868701219558716e-02 -2.114454656839370728e-02 -7.075152825564146042e-03 -4.437347501516342163e-02 -7.115817628800868988e-03 1.063767913728952408e-02 1.501434389501810074e-02 -3.490799665451049805e-02 -2.189895324409008026e-02 1.519830711185932159e-02 -9.137007407844066620e-03 -4.690896719694137573e-02 -1.784905977547168732e-02 3.598727751523256302e-03 5.372222978621721268e-03 -5.236111581325531006e-02 1.450136769562959671e-02 -2.345467917621135712e-02 2.004090696573257446e-02 -3.398720175027847290e-02 -2.822877373546361923e-03 -5.071706697344779968e-02 -3.004796244204044342e-02 7.277233526110649109e-03 1.188215892761945724e-02 1.571276783943176270e-02 7.433109451085329056e-03 5.573342088609933853e-03 1.725916378200054169e-02 -1.518966536968946457e-02 2.226997399702668190e-03 -2.948153996840119362e-03 -2.208762802183628082e-02 -1.155046653002500534e-02 2.606567740440368652e-02 -2.911149151623249054e-02 -3.016566485166549683e-02 1.603651605546474457e-02 2.607155591249465942e-02 2.634057542309165001e-03 -1.560747902840375900e-02 2.904730476438999176e-02 -1.357753481715917587e-02 6.945664435625076294e-02 -1.431574113667011261e-02 -2.143449150025844574e-02 1.474631112068891525e-02 4.991585388779640198e-03 1.186902448534965515e-02 4.255346581339836121e-02 1.884895004332065582e-02 -9.748223237693309784e-03 3.462653234601020813e-02 -1.951603963971138000e-02 -2.079690061509609222e-02 2.578176558017730713e-02 6.164252385497093201e-02 -1.786424219608306885e-02 -1.736439950764179230e-02 -4.875930026173591614e-03 -3.561987355351448059e-02 1.390814874321222305e-02 9.157086722552776337e-03 -2.289737015962600708e-02 -9.185707196593284607e-03 -4.039677605032920837e-02 2.429230138659477234e-03 1.001508533954620361e-02 -2.433671848848462105e-03 4.852348472923040390e-03 1.087727677077054977e-02 1.101928018033504486e-02 1.086935400962829590e-02 2.191203460097312927e-02 -2.829114720225334167e-02 -3.548351675271987915e-02 -2.346866019070148468e-02 4.494744539260864258e-02 1.583227701485157013e-02 -9.999216534197330475e-03 3.256597742438316345e-02 3.953967988491058350e-02 3.157565370202064514e-02 9.063865058124065399e-03 1.250488497316837311e-02 1.081270165741443634e-02 -4.185430333018302917e-02 -1.119967363774776459e-02 -3.558495640754699707e-02 1.142819877713918686e-02 -1.297025382518768311e-02 -1.872283406555652618e-02 1.341501995921134949e-02 1.188565511256456375e-02 -3.798279212787747383e-03 -1.681364513933658600e-02 -1.452339999377727509e-02 -1.563749276101589203e-02 2.259701676666736603e-02 2.026754617691040039e-02 -1.346646156162023544e-02 -4.836325347423553467e-02 1.422094646841287613e-02 -5.389716941863298416e-03 -7.400351576507091522e-03 1.179141551256179810e-02 3.670542268082499504e-03 2.905756048858165741e-02 1.783090457320213318e-02 4.487487953156232834e-03 -1.807286217808723450e-02 -1.915715285576879978e-03 -9.525804780423641205e-03 -5.835984367877244949e-03 3.981809131801128387e-04 8.838311769068241119e-03 -3.023972921073436737e-02 -2.697459608316421509e-02 7.846497930586338043e-03 -4.834660142660140991e-02 -3.789582522585988045e-03 -3.640405833721160889e-02 4.247209429740905762e-02 -8.627618663012981415e-03 6.979623809456825256e-03 9.429571218788623810e-03 -1.759458519518375397e-02 -3.992691263556480408e-02 4.228876531124114990e-02 5.727134272456169128e-02 9.631267166696488857e-04 1.120337867178022861e-03 1.068458613008260727e-02 -4.190071299672126770e-02 -2.592392498627305031e-03 3.442690474912524223e-03 2.604746632277965546e-02 1.270869094878435135e-02 -1.380317285656929016e-02 1.215775404125452042e-02 2.806718274950981140e-02 4.784936551004648209e-03 1.010996568948030472e-02 7.375464309006929398e-03 1.344202831387519836e-02 -1.039442606270313263e-02 7.494163699448108673e-03 6.301867961883544922e-02 9.573495946824550629e-03 1.991346850991249084e-02 4.191476851701736450e-02 1.116600073873996735e-02 3.344496246427297592e-03 -1.497312635183334351e-02 -7.084754761308431625e-03 -4.981949925422668457e-03 5.225179251283407211e-03 2.217262983322143555e-02 2.043946180492639542e-03 1.185485627502202988e-02 -4.512702301144599915e-02 1.246011164039373398e-02 1.502021402120590210e-02 -3.503867192193865776e-03 2.615733817219734192e-02 8.128819987177848816e-03 -6.683858111500740051e-03 4.192479327321052551e-02 1.923533715307712555e-02 1.666411757469177246e-02 -3.001930564641952515e-02 -6.321493419818580151e-04 -6.251977756619453430e-03 -4.185774014331400394e-04 3.837148658931255341e-03 3.572116419672966003e-02 -5.899563897401094437e-03 -1.329957041889429092e-02 2.250801399350166321e-02 -9.108628146350383759e-03 1.290136855095624924e-02 2.615294978022575378e-02 1.511008571833372116e-02 -1.481124851852655411e-02 7.967198267579078674e-03 6.408737972378730774e-03 -1.359388232231140137e-02 4.238770925439894199e-04 -1.667088456451892853e-02 -4.459004476666450500e-02 1.879875361919403076e-02 -7.252802141010761261e-03 -2.659519435837864876e-03 3.277394548058509827e-02 5.868522450327873230e-03 -4.711428657174110413e-02 4.296733438968658447e-02 2.220417000353336334e-02 -1.164772361516952515e-02 1.423357985913753510e-02 -2.546590112615376711e-04 4.136350471526384354e-03 -1.499629300087690353e-02 1.416499167680740356e-02 -7.991348393261432648e-03 4.444891586899757385e-02 -4.984124097973108292e-03 -4.646138753741979599e-03 4.127179831266403198e-02 9.748836047947406769e-03 2.926325611770153046e-02 -3.758067265152931213e-02 -1.359970495104789734e-02 -1.206250116229057312e-02 1.532041840255260468e-02 -1.746959052979946136e-02 -1.861975900828838348e-02 1.214316487312316895e-02 -1.749834418296813965e-02 -6.406954489648342133e-03 2.929923869669437408e-02 4.440532252192497253e-02 -6.834445986896753311e-03 -8.337072096765041351e-03 1.250307261943817139e-02 -1.028592418879270554e-02 -1.034158747643232346e-02 -5.322830285876989365e-03 -5.358069203794002533e-03 4.008727148175239563e-02 2.389515191316604614e-02 -7.602438330650329590e-03 7.411344442516565323e-03 5.160116404294967651e-02 -2.293728291988372803e-03 5.620280353468842804e-05
-1.042593852616846561e-03 -8.181930752471089363e-05 6.169457919895648956e-04 -1.266609906451776624e-04 4.009624535683542490e-04 -8.874984923750162125e-04 -8.985528256744146347e-04 -7.746707997284829617e-04 -2.996801340486854315e-04 -2.061873819911852479e-04 -2.057661331491544843e-04 5.836771451868116856e-04 -1.099413959309458733e-03 -1.412364887073636055e-03 2.273129575769416988e-05 -7.351247477345168591e-04 -7.616205839440226555e-04 2.042461856035515666e-04 -3.784988075494766235e-04 -2.889139577746391296e-04 -7.032831199467182159e-04 1.014540248434059322e-04 -9.544007480144500732e-04 -4.222705319989472628e-04 5.537553806789219379e-04 1.762965839589014649e-04 -7.872486603446304798e-04 -6.750967004336416721e-04 -1.562431571073830128e-03 -1.689010241534560919e-04 -9.344357531517744064e-04 5.342367876437492669e-05 -1.291432563448324800e-04 -1.638712477870285511e-03 -5.452898913063108921e-04 -6.082619074732065201e-04 -3.064368793275207281e-04 8.571931393817067146e-04 1.262810314074158669e-03 -1.477603364037349820e-04 -4.609435563907027245e-04 -3.221145307179540396e-04 5.844306433573365211e-04 -8.209763909690082073e-04 2.685349318198859692e-04 -5.979373818263411522e-04 1.883993245428428054e-04 6.349161412799730897e-05 -1.514363451860845089e-03 -8.233516709879040718e-04 -9.126447257585823536e-04 -9.426979813724756241e-04 -1.537766220280900598e-04 -6.342984852381050587e-04 -6.645775283686816692e-04 7.989202858880162239e-04 -7.566501153632998466e-04 6.542751216329634190e-04 7.588607259094715118e-04 -4.601666587404906750e-04 -5.702282069250941277e-04 -8.150078938342630863e-04 -8.499116520397365093e-04 1.288806903176009655e-03 -1.326437224633991718e-03 -5.826270207762718201e-04 -1.222476130351424217e-03 -6.810144986957311630e-04 8.375490142498165369e-05 -1.672039506956934929e-03 -4.101560916751623154e-04 -1.060724243870936334e-04 6.406599422916769981e-04 -5.408806027844548225e-04 -4.441183118615299463e-04 -1.739487517625093460e-03 -7.041905191726982594e-04 -6.084725027903914452e-04 -1.703383866697549820e-03 -6.179079064168035984e-04 4.249993071425706148e-04 7.670639897696673870e-04 -2.292119024787098169e-04 -1.975849969312548637e-03 -6.882851448608562350e-05 5.989979836158454418e-04 3.383712319191545248e-04 -2.322723048564512283e-05 -3.193522570654749870e-05 -1.502802624600008130e-04 3.710406017489731312e-04 -3.691388701554387808e-04 5.170371732674539089e-04 -7.061954238452017307e-04 -5.249712266959249973e-04 -3.686207928694784641e-04 1.853240421041846275e-03 2.659623278304934502e-04 5.293903523124754429e-04 -7.255338132381439209e-04 5.835703341290354729e-04 -7.502878434024751186e-04 -2.547495532780885696e-04 -5.169575451873242855e-04 -1.580079318955540657e-03 -3.390088022570125759e-05 -1.640111877350136638e-04 -1.178020174847915769e-04 -8.009709417819976807e-04 6.030200165696442127e-04 -1.716628554277122021e-03 -6.090564056648872793e-05 -1.349784317426383495e-03 1.518219069112092257e-04 -7.792071555741131306e-04 5.961727947578765452e-05 -9.557411540299654007e-04 -7.641335250809788704e-04 9.641296492191031575e-05 -1.737378188408911228e-03 -5.729170516133308411e-04 2.222088660346344113e-04 5.800349172204732895e-04 -7.137395441532135010e-04 -9.557633311487734318e-04 -1.032146174111403525e-04 -2.376794727751985192e-04 -9.941970929503440857e-04 -6.793586653657257557e-04 -1.133561832830309868e-03 -8.134426898322999477e-04 -1.121124136261641979e-03 -2.167255152016878128e-04 -8.914593490771949291e-04 -6.387197645381093025e-04 -2.086736261844635010e-03 -1.515757525339722633e-03 -1.427863957360386848e-03 -3.256533818785101175e-04 5.197233404032886028e-04 1.882069627754390240e-04 -8.715659496374428272e-04 -2.369535504840314388e-04 -2.657737059053033590e-04 9.408147889189422131e-04 -6.658828351646661758e-04 -9.026160696521401405e-04 -7.329767686314880848e-04 -4.813335253857076168e-04 -2.142323064617812634e-04 4.771434178110212088e-04 -1.116291037760674953e-03 7.294786046259105206e-04 -5.374598549678921700e-04 -1.090854202629998326e-04 -6.681627710349857807e-04 -1.446434325771406293e-04 3.835420357063412666e-04 -5.295361042954027653e-04 -2.523532835766673088e-03 -2.530224155634641647e-04 1.275370304938405752e-04 -6.035554106347262859e-04 -5.395558546297252178e-04 7.072984590195119381e-04 -9.018891141749918461e-04 -7.121372618712484837e-04 4.837945743929594755e-04 -6.577054591616615653e-05 -1.305533107370138168e-03 1.102683716453611851e-03 -7.283634622581303120e-04 1.688951160758733749e-04 -1.089482335373759270e-03 -5.593657842837274075e-04 -1.708116149529814720e-03 1.720030741125810891e-05 -1.041013048961758614e-03 3.291041357442736626e-04 -6.137957097962498665e-05 3.574087459128350019e-04 -3.129079705104231834e-04 -1.130789052695035934e-03 -7.727890624664723873e-04 8.301444904645904899e-05 7.237130921566858888e-05 9.793197386898100376e-05 2.561119908932596445e-04 -1.330684026470407844e-04 -9.111670078709721565e-04 3.524596650095190853e-06 -3.804347361437976360e-04 -1.075914129614830017e-03 -6.394038209691643715e-04 -1.450047828257083893e-03 -4.515142354648560286e-04 8.083364227786660194e-04 -9.853639639914035797e-04 -3.726698632817715406e-04 1.996219680222566240e-06 -8.204999612644314766e-04 -6.074664415791630745e-04 -9.376239031553268433e-04 -1.021643285639584064e-03 -6.699053337797522545e-04 -2.378544595558196306e-04 5.079545735497958958e-05 3.448922943789511919e-04 -2.991062647197395563e-04 -1.697590341791510582e-03 -9.525349596515297890e-04 -9.684503311291337013e-04 2.076869131997227669e-04 -5.004863487556576729e-04 -3.525440697558224201e-04 5.698170862160623074e-04 -3.144206420984119177e-04 -1.006034217425622046e-04 -1.732794684357941151e-03 -1.294461777433753014e-03 7.124349940568208694e-04 -2.257373307656962425e-05 -6.248319405131042004e-04 -5.198794533498585224e-04 1.237859716638922691e-03 -3.812450449913740158e-04 -2.410524175502359867e-04 -1.710819662548601627e-03 -5.417921347543597221e-04 1.033616626955335960e-05 -1.329435035586357117e-03 -5.391689483076334000e-04 -1.710993121378123760e-03 8.015594212338328362e-04 -1.108607277274131775e-03 3.292550682090222836e-04 -3.875506517942994833e-04 -9.102487238124012947e-04 -9.611704736016690731e-04 5.407296703197062016e-04 -1.114230602979660034e-03 -1.331523060798645020e-03 2.665320062078535557e-04 7.098764763213694096e-04 6.738271331414580345e-04 -5.973400548100471497e-04 3.521485195960849524e-04 -5.885511636734008789e-04 -9.466550545766949654e-05 -3.308452141936868429e-04 -4.248657496646046638e-04 -4.657975659938529134e-05 -2.699097676668316126e-04 -1.061271104845218360e-04 -1.677830296102911234e-04 -9.245834080502390862e-04
-3.175210207700729370e-02 -8.678642101585865021e-03 1.987819932401180267e-02 1.553657185286283493e-02 -6.622481159865856171e-03 -9.880470111966133118e-03 8.936760947108268738e-03 -5.371984560042619705e-03 1.772676710970699787e-03 8.364710956811904907e-03 7.701375987380743027e-03 -3.014088235795497894e-02 -7.005314808338880539e-03 -1.008987193927168846e-03 -1.136149745434522629e-02 -1.193639542907476425e-02 2.142528630793094635e-02 -1.277701742947101593e-02 2.184917032718658447e-02 1.289312262088060379e-03 1.298754941672086716e-02 1.339629851281642914e-02 -1.620523398742079735e-03 7.562371902167797089e-03 -1.055555325001478195e-02 3.258828818798065186e-02 -2.926332876086235046e-02 -6.677731405943632126e-03 -2.793561480939388275e-02 3.335178596898913383e-03 -6.618312560021877289e-03 -3.483226522803306580e-03 6.817083805799484253e-03 1.080008503049612045e-02 -4.323901608586311340e-03 -1.383222639560699463e-02 -7.798699196428060532e-03 3.122445568442344666e-02 2.256968803703784943e-02 1.378709729760885239e-02 9.254804812371730804e-03 -3.354129940271377563e-02 2.371479291468858719e-03 -3.794226795434951782e-02 -6.431492976844310760e-03 2.011657506227493286e-02 6.025511305779218674e-03 -1.264482643455266953e-02 -2.152638137340545654e-02 2.279429230839014053e-03 -6.848743185400962830e-03 1.609796076081693172e-03 2.117849141359329224e-02 1.627624034881591797e-02 9.105164790526032448e-04 -5.165800452232360840e-03 1.458116155117750168e-02 -1.698583597317337990e-03 -4.128289874643087387e-03 1.638098806142807007e-02 1.269891392439603806e-03 3.129624947905540466e-02 3.106039798694837373e-07 -2.867480553686618805e-02 -1.883956417441368103e-02 5.290874280035495758e-03 5.368878133594989777e-03 1.618425175547599792e-02 1.741651445627212524e-02 -8.118148543871939182e-04 -2.151860110461711884e-02 1.203507091850042343e-02 6.995620578527450562e-02 -1.488855481147766113e-02 -5.150079727172851562e-03 -1.346896681934595108e-02 2.009184285998344421e-02 2.976826392114162445e-03 7.050038315355777740e-03 1.957819238305091858e-02 -1.363834459334611893e-02 3.576939180493354797e-02 1.918588019907474518e-02 5.881951656192541122e-03 6.888083647936582565e-03 1.684673689305782318e-02 -8.817474357783794403e-03 -8.540442649973556399e-05 3.384822746738791466e-03 9.024119935929775238e-03 3.559450618922710419e-03 5.648334510624408722e-03 -3.299249708652496338e-02 2.205242775380611420e-02 -4.225924983620643616e-02 2.880190685391426086e-02 2.327249618247151375e-03 -9.341989643871784210e-03 -9.321492165327072144e-03 -4.941745282849296927e-05 -6.401044130325317383e-02 -2.916621603071689606e-02 2.484818175435066223e-02 2.603260800242424011e-02 -2.482063369825482368e-03 2.026867866516113281e-02 -9.001687169075012207e-03 1.644815132021903992e-02 1.702865213155746460e-02 6.675098091363906860e-02 2.133495174348354340e-02 1.426765881478786469e-02 3.372278762981295586e-03 -7.865174673497676849e-03 6.883746013045310974e-03 2.049272693693637848e-02 2.541026286780834198e-02 -2.071539685130119324e-02 -7.195634534582495689e-04 1.037938799709081650e-02 -2.953790128231048584e-03 -2.692295052111148834e-02 1.795722916722297668e-02 -1.117530860938131809e-03 2.817483618855476379e-03 -9.302332065999507904e-03 1.207564119249582291e-02 -1.465102075599133968e-03 -8.090673014521598816e-03 9.764950722455978394e-03 -2.106788195669651031e-02 -3.596395254135131836e-02 1.466539339162409306e-03 -4.309063032269477844e-02 1.176408608444035053e-03 -2.241381909698247910e-03 8.707286178832873702e-05 2.839620411396026611e-02 -1.711527258157730103e-02 -5.703070783056318760e-04 2.369560999795794487e-03 1.243163365870714188e-03 2.330678980797529221e-03 1.956478692591190338e-02 -3.852978348731994629e-03 -2.286953479051589966e-02 7.041174918413162231e-03 -4.322302120272070169e-04 8.475403301417827606e-04 1.416783779859542847e-02 8.862155489623546600e-03 -4.929287359118461609e-03 2.041267976164817810e-02 -1.080682221800088882e-02 -6.290275603532791138e-02 -4.445397481322288513e-02 6.606408394873142242e-03 -7.459735032171010971e-03 8.322503417730331421e-03 -6.889352574944496155e-03 -9.137991815805435181e-03 1.466129906475543976e-04 -1.174304913729429245e-02 1.719695329666137695e-02 -1.400789059698581696e-02 5.290103703737258911e-02 5.330781452357769012e-03 4.726450890302658081e-02 -1.609453558921813965e-02 3.115765284746885300e-03 1.609351858496665955e-02 -6.481983233243227005e-03 -3.255860134959220886e-02 -2.627214998938143253e-04 5.783909466117620468e-03 2.438737638294696808e-02 5.475525930523872375e-02 7.694935775361955166e-04 -4.124072194099426270e-02 -1.289814058691263199e-02 1.636580214835703373e-03 8.787225931882858276e-03 1.203631050884723663e-02 2.366139926016330719e-02 -6.174490787088871002e-03 2.336470596492290497e-02 2.058276534080505371e-02 -1.333742961287498474e-02 8.222841657698154449e-03 -6.867704447358846664e-03 1.463405694812536240e-02 2.799195982515811920e-02 -1.869023195467889309e-03 -1.878703944385051727e-02 -6.049386225640773773e-03 -4.644478112459182739e-02 1.181004568934440613e-03 1.096909400075674057e-02 -6.593999918550252914e-03 -1.387017779052257538e-02 -7.956755347549915314e-03 3.994526341557502747e-02 -1.900983159430325031e-03 -2.118695527315139771e-02 2.358886040747165680e-02 1.670362800359725952e-02 8.482143282890319824e-03 -1.389809232205152512e-02 -2.844502031803131104e-02 1.014526840299367905e-02 2.491604723036289215e-02 1.167193427681922913e-02 -4.150515422224998474e-03 1.128961052745580673e-02 -7.093947846442461014e-03 1.000901125371456146e-02 8.449746295809745789e-03 -1.491450425237417221e-02 -2.694360911846160889e-03 3.981858119368553162e-02 2.943620318546891212e-03 -3.941784612834453583e-03 -1.969364238902926445e-03 -7.814352400600910187e-03 -4.228139668703079224e-02 -1.903575658798217773e-02 4.095147177577018738e-02 1.498651131987571716e-02 -6.292591337114572525e-03 2.681099437177181244e-02 2.056393772363662720e-02 -2.644295105710625648e-03 -2.493367530405521393e-03 1.562902517616748810e-02 -3.040938172489404678e-03 9.175535524263978004e-04 -4.304049070924520493e-03 1.299308706074953079e-02 1.467009913176298141e-02 6.145167280919849873e-04 1.039697602391242981e-02 -1.805642060935497284e-02 -1.841332018375396729e-02 -5.478126462548971176e-03 -1.807026937603950500e-02 -5.357753951102495193e-03 1.960882730782032013e-02 -1.214593183249235153e-02 -3.146013990044593811e-02 -1.632330380380153656e-02 -1.037701498717069626e-02 -1.956749148666858673e-02 3.532720729708671570e-02 3.462191298604011536e-02 4.823798779398202896e-03 1.427589263767004013e-02
3.324218094348907471e-02 4.149980470538139343e-02 -1.186574343591928482e-03 -2.002040855586528778e-03 -3.278831019997596741e-02 1.623946800827980042e-02 -7.992432219907641411e-04 2.388065680861473083e-02 -2.932815812528133392e-03 1.872605830430984497e-02 -2.404393628239631653e-02 -1.041031070053577423e-02 1.453491742722690105e-03 4.104638844728469849e-02 -6.668353453278541565e-03 -6.707518827170133591e-03 1.958032138645648956e-03 -2.183767780661582947e-02 -9.752536192536354065e-03 -3.447034955024719238e-02 -9.085442870855331421e-03 7.114943582564592361e-03 5.219743400812149048e-02 -6.402072310447692871e-02 5.471975356340408325e-02 2.848774939775466919e-02 -6.794180721044540405e-02 -1.726705767214298248e-02 -2.323084045201539993e-03 1.459959708154201508e-02 -4.582303110510110855e-03 -5.609688814729452133e-03 8.944624103605747223e-03 9.967549704015254974e-03 3.842737525701522827e-02 1.222149562090635300e-02 3.048825263977050781e-02 -1.721932180225849152e-02 -2.597049809992313385e-03 -6.142081692814826965e-02 -1.482168585062026978e-02 1.384531799703836441e-02 -5.655742436647415161e-02 1.674527674913406372e-02 9.209579788148403168e-03 -7.078075432218611240e-04 4.630027338862419128e-02 4.442743491381406784e-03 2.096409909427165985e-02 2.041481994092464447e-02 -2.906790189445018768e-02 -1.623510755598545074e-02 -1.497121341526508331e-02 1.483320165425539017e-02 1.839067041873931885e-02 -3.023811988532543182e-02 2.315164171159267426e-02 3.061564639210700989e-02 3.545074164867401123e-02 -1.095920219086110592e-03 2.214175090193748474e-02 -3.897343203425407410e-02 -2.661903761327266693e-02 1.697536371648311615e-02 -6.716680526733398438e-02 2.135430462658405304e-02 6.033549550920724869e-03 1.662760041654109955e-02 4.215317312628030777e-03 3.323077782988548279e-02 1.398507878184318542e-02 3.419558983296155930e-03 1.637496054172515869e-02 -1.497840695083141327e-02 7.502317428588867188e-03 -7.939470000565052032e-03 -1.058653113432228565e-03 -1.938869943842291832e-03 -8.901200257241725922e-03 -7.239847443997859955e-03 4.265755880624055862e-03 2.395554212853312492e-03 1.559714041650295258e-02 3.641360206529498100e-03 -1.038167905062437057e-02 2.595703862607479095e-02 -9.477799758315086365e-03 1.506918016821146011e-02 -1.179177220910787582e-02 1.688445569016039371e-03 2.010946720838546753e-02 3.605027496814727783e-02 1.412829197943210602e-02 2.753903716802597046e-02 2.222135849297046661e-02 -1.644191518425941467e-02 -6.319999694824218750e-03 -9.519426152110099792e-03 1.002376247197389603e-02 1.575750112533569336e-02 1.014501601457595825e-02 5.823752284049987793e-02 -9.978487156331539154e-03 6.028585601598024368e-03 2.279499173164367676e-02 6.734002818120643497e-05 1.464976649731397629e-02 1.001641899347305298e-02 2.138740569353103638e-02 8.802302181720733643e-03 4.390904307365417480e-02 -3.630103310570120811e-03 -1.137036923319101334e-02 1.260588690638542175e-02 -8.819014765322208405e-03 1.900426298379898071e-02 3.762251883745193481e-02 1.046989765018224716e-02 3.836778923869132996e-03 3.096310421824455261e-02 -1.261700410395860672e-02 2.477090805768966675e-02 -7.790541741997003555e-03 -1.432265248149633408e-02 2.579227462410926819e-02 1.350753102451562881e-02 -4.574860632419586182e-02 -5.065213772468268871e-04 -5.869829282164573669e-02 -4.816324636340141296e-02 -6.145971827208995819e-03 1.085752435028553009e-02 2.194108441472053528e-02 -8.182020392268896103e-04 -4.518181830644607544e-02 -3.516827709972858429e-03 3.952518571168184280e-03 -1.144792418926954269e-03 -4.178125038743019104e-02 2.117882668972015381e-02 1.021138275973498821e-03 5.153784994035959244e-03 1.242890581488609314e-02 -1.603607833385467529e-02 -3.290364285930991173e-03 2.371880412101745605e-02 2.214966109022498131e-03 -1.396324858069419861e-02 3.293999936431646347e-03 -1.381842046976089478e-02 -2.300996892154216766e-02 -2.967529697343707085e-03 -1.110481750220060349e-02 3.352458402514457703e-02 8.844334632158279419e-03 -1.591752166859805584e-03 1.678270287811756134e-02 -1.018833834677934647e-03 -1.824262924492359161e-02 -2.027820423245429993e-02 -7.893399335443973541e-03 -9.784598834812641144e-03 -2.022482641041278839e-02 6.113024894148111343e-03 1.072283089160919189e-02 -9.567805565893650055e-03 1.006906502880156040e-03 4.703937098383903503e-02 2.295574871823191643e-03 1.972729340195655823e-02 1.349955517798662186e-02 -8.142187446355819702e-02 3.867392987012863159e-02 -4.426582157611846924e-02 1.301982556469738483e-03 -1.078474055975675583e-02 2.942296676337718964e-02 6.293690763413906097e-03 3.601910918951034546e-02 -1.226287335157394409e-03 -3.190325200557708740e-02 6.227111443877220154e-03 -2.974468050524592400e-03 3.402299433946609497e-02 2.496810071170330048e-02 2.382444683462381363e-03 -2.255368046462535858e-02 4.201558232307434082e-02 5.707772448658943176e-03 -1.255373284220695496e-02 -1.561652403324842453e-02 -1.885976083576679230e-02 -1.605491526424884796e-02 4.542889446020126343e-02 -5.169360432773828506e-03 5.856487154960632324e-02 -7.351500447839498520e-03 -1.128015667200088501e-02 7.919834926724433899e-03 1.226653531193733215e-02 1.246136613190174103e-02 1.694166287779808044e-02 5.942127108573913574e-02 4.185771569609642029e-03 1.477817539125680923e-02 7.917153649032115936e-03 -1.959875039756298065e-02 1.182241924107074738e-02 -3.385358257219195366e-03 9.878696873784065247e-03 1.143019180744886398e-02 -2.416649600490927696e-03 -8.847766555845737457e-03 -2.283534500747919083e-03 1.689497567713260651e-02 3.568076761439442635e-03 2.747406810522079468e-02 -3.113103099167346954e-02 -1.059624715708196163e-03 -1.114712189882993698e-02 1.856323331594467163e-03 3.771891072392463684e-02 -1.739636249840259552e-02 -8.439389057457447052e-03 1.658972585573792458e-03 4.575009271502494812e-02 -8.973635733127593994e-03 2.480968646705150604e-02 -8.563525043427944183e-03 -2.338511403650045395e-03 -1.469786837697029114e-02 -6.233167275786399841e-02 -4.752647504210472107e-02 -5.085272341966629028e-02 3.918251022696495056e-02 -9.691488929092884064e-03 6.376480218023061752e-03 4.811070486903190613e-02 -6.779813673347234726e-03 3.681195527315139771e-02 3.769346699118614197e-02 3.630401566624641418e-02 8.076182566583156586e-03 7.474513258785009384e-04 -5.136587098240852356e-02 -7.795040495693683624e-03 2.054288052022457123e-02 4.847963526844978333e-02 3.964185714721679688e-02 3.308604285120964050e-02 -1.774446666240692139e-02 -3.550060838460922241e-02 1.110739726573228836e-02 8.125278167426586151e-03 5.138281732797622681e-02 -8.291627163998782635e-04
1.010861979011679068e-05 -3.220835642423480749e-04 -4.399869067128747702e-04 8.385279215872287750e-05 -1.142114051617681980e-03 -1.235439791344106197e-03 1.118991058319807053e-04 -3.950232057832181454e-04 -9.831443894654512405e-04 2.886142174247652292e-04 -4.878066247329115868e-04 -7.401066250167787075e-04 -4.365440399851650000e-04 -5.491346819326281548e-04 -2.446694270474836230e-05 -6.999884499236941338e-04 -3.076986176893115044e-04 1.494581112638115883e-03 7.154939230531454086e-04 1.197065648739226162e-04 -3.492197138257324696e-04 -3.616736503317952156e-04 -9.661551448516547680e-04 6.974881980568170547e-04 -8.115740638459101319e-05 -3.624694363679736853e-04 -1.334324246272444725e-03 -1.390201505273580551e-04 -1.426571252522990108e-04 -8.846704149618744850e-04 1.396178733557462692e-03 -8.706196094863116741e-04 -5.182083696126937866e-04 -7.355632260441780090e-04 -9.080219897441565990e-04 -7.529038703069090843e-04 -2.699944307096302509e-04 2.288446557940915227e-04 5.990307545289397240e-04 -7.516688783653080463e-04 -8.457830990664660931e-04 3.590302949305623770e-04 7.916567847132682800e-05 -2.229819947388023138e-04 -1.589016290381550789e-03 -3.642821393441408873e-04 -1.068482524715363979e-03 -8.178243879228830338e-04 7.686302997171878815e-04 -1.444412511773407459e-03 -4.440316697582602501e-04 -1.197759993374347687e-04 -3.615134919527918100e-04 -1.640120754018425941e-03 -3.415412793401628733e-04 -1.607917482033371925e-03 -3.585238664527423680e-05 7.929159619379788637e-05 -2.110230998368933797e-04 -6.872871308587491512e-04 -2.848269650712609291e-04 -7.947155390866100788e-04 -6.291237659752368927e-04 3.957193112000823021e-04 5.368001875467598438e-04 -8.368006092496216297e-04 2.326271496713161469e-04 -5.164346657693386078e-04 3.897713322658091784e-04 1.202974744956009090e-04 -6.034590769559144974e-04 -1.465202512918040156e-04 9.817432146519422531e-04 -6.937183788977563381e-04 -5.835124175064265728e-04 -4.010079428553581238e-04 -8.490129257552325726e-04 2.354299358557909727e-04 -6.521583418361842632e-04 -1.266781240701675415e-03 3.050675732083618641e-04 -6.502612959593534470e-04 -5.432784091681241989e-04 6.027225172147154808e-04 6.715086637996137142e-04 -1.236785668879747391e-03 -4.068751877639442682e-04 -4.171228501945734024e-04 -1.269556698389351368e-03 2.269191463710740209e-05 2.506167802494019270e-04 2.469729224685579538e-04 6.076473509892821312e-04 8.281898335553705692e-04 -3.425495524425059557e-04 -2.913847856689244509e-04 2.999293210450559855e-04 -2.027298614848405123e-05 4.314755642553791404e-05 -3.077010042034089565e-04 -1.311791420448571444e-04 -2.844078699126839638e-04 -5.631412568618543446e-05 3.344401775393635035e-04 -2.876623184420168400e-04 -4.010179691249504685e-05 -6.446061888709664345e-05 1.136897597461938858e-03 -3.848263295367360115e-04 -4.514194151852279902e-04 2.840082452166825533e-04 4.225565644446760416e-04 -1.837846823036670685e-03 -3.765783039852976799e-04 1.479102938901633024e-04 -1.841943740146234632e-04 4.291905788704752922e-04 9.302454418502748013e-04 -8.424787665717303753e-04 -8.904344867914915085e-04 -1.628104364499449730e-03 -1.135830767452716827e-03 -2.723403740674257278e-04 -7.504309760406613350e-04 1.409753313055261970e-04 8.408451103605329990e-04 -2.594155666884034872e-04 -1.093034399673342705e-03 -4.833950370084494352e-04 1.630024344194680452e-04 6.330399628495797515e-05 -7.018906762823462486e-05 -1.580938696861267090e-04 -9.021086734719574451e-04 -1.123828929848968983e-03 -4.073983873240649700e-04 -8.487675950163975358e-05 8.749928383622318506e-05 -9.665608522482216358e-04 -1.905090874060988426e-03 -8.173423120751976967e-04 -1.127713592723011971e-03 -7.367578800767660141e-04 -4.537219356279820204e-04 -7.956509361974895000e-04 -5.013563204556703568e-04 -1.587244798429310322e-03 -2.153095556423068047e-05 1.041223411448299885e-03 -1.775655400706455112e-04 -1.478327671065926552e-03 4.154061025474220514e-04 3.065219061682000756e-05 -8.898116648197174072e-04 1.562741701491177082e-03 4.963350511388853192e-05 -4.759501462103798985e-05 -1.126344664953649044e-03 -1.211680122651159763e-03 -3.108724195044487715e-04 1.553590060211718082e-03 -9.421119466423988342e-05 -4.645019998861243948e-06 7.659753318876028061e-04 -4.367973888292908669e-04 2.718808245845139027e-04 -1.531033078208565712e-03 -4.979762015864253044e-04 -3.426267358008772135e-04 -2.032498450716957450e-04 8.682358020450919867e-05 4.058089980389922857e-04 1.242968603037297726e-03 -1.521054655313491821e-04 4.056470643263310194e-04 -3.612813598010689020e-04 -1.090402249246835709e-03 1.130097080022096634e-03 -5.603226018138229847e-04 -1.200637547299265862e-03 2.361898441449739039e-05 -5.753156729042530060e-04 -9.550805552862584591e-04 -1.250201719813048840e-03 -3.313849447295069695e-04 -1.178620965220034122e-03 -1.276946975849568844e-03 -9.055422269739210606e-04 -1.085484167560935020e-03 -4.606879519997164607e-05 -1.204897300340235233e-03 -4.513246531132608652e-04 -5.536774988286197186e-04 -4.994916962459683418e-04 -8.141418802551925182e-04 -5.034577916376292706e-04 3.791640629060566425e-04 -1.785722997738048434e-04 4.465821839403361082e-04 -9.786662412807345390e-04 -2.718932519201189280e-04 1.269194617634639144e-04 -7.195232901722192764e-04 2.185341145377606153e-04 2.024383866228163242e-04 -2.180570445489138365e-04 -5.673028135788626969e-05 8.119676203932613134e-05 -6.467873463407158852e-04 -8.285949661512859166e-06 3.803072031587362289e-04 -6.596613675355911255e-04 -5.365379038266837597e-04 -7.622794946655631065e-04 -3.026527701877057552e-04 -3.372406354174017906e-04 4.166396138316486031e-06 -1.856244198279455304e-04 2.481908086338080466e-05 -3.206113178748637438e-04 4.735813126899302006e-04 5.607394850812852383e-04 -3.449520736467093229e-04 3.604980884119868279e-04 -4.284059396013617516e-04 -1.545974228065460920e-04 -1.299051917158067226e-03 1.099637709558010101e-03 8.119742269627749920e-04 -6.667491979897022247e-04 -1.597601367393508554e-04 -2.677298034541308880e-04 -3.033042730749002658e-06 -4.046850954182446003e-04 -1.637328532524406910e-04 -4.095158365089446306e-04 -1.905917655676603317e-03 -3.608247207012027502e-04 5.128331395098939538e-05 -8.073091157712042332e-04 -6.035548867657780647e-04 1.948082499438896775e-04 -7.317966665141284466e-04 -6.759131792932748795e-04 1.036821704474277794e-04 -2.163640456274151802e-04 4.956976626999676228e-04 2.243703638669103384e-04 -2.989424683619290590e-04 -2.926273737102746964e-04 -5.247832741588354111e-04 -5.177441635169088840e-04 -2.404155238764360547e-04 2.488036407157778740e-04 5.919763352721929550e-04 -6.147414096631109715e-04
-8.905577124096453190e-04 -1.547746942378580570e-03 -8.726060041226446629e-04 -3.082395414821803570e-04 5.442242254503071308e-04 -4.465027304831892252e-04 -1.354546286165714264e-03 -8.349316194653511047e-04 -5.397500353865325451e-04 -5.457313964143395424e-04 4.528127028606832027e-04 -4.817500594072043896e-04 -5.886196740902960300e-04 -4.458018520381301641e-04 -8.285671356134116650e-04 7.784412446198984981e-05 -8.903151610866189003e-04 -6.232035811990499496e-04 -8.274075225926935673e-04 5.077231326140463352e-04 -1.339638023637235165e-03 -1.369223580695688725e-03 -1.617204397916793823e-03 2.564312890172004700e-04 -1.344818883808329701e-04 -6.696649506920948625e-05 -4.114548501092940569e-04 -7.715597166679799557e-04 -3.970590478274971247e-05 -1.384875038638710976e-03 -9.713043691590428352e-04 -4.989373264834284782e-04 -1.694889971986413002e-03 -9.964396303985267878e-05 -1.508135232143104076e-03 -4.904734305455349386e-05 -9.824183071032166481e-04 -6.694329786114394665e-04 -1.672266982495784760e-03 -7.120159571059048176e-04 5.021064498578198254e-05 -5.381666705943644047e-04 -1.765563647495582700e-04 -1.315355533733963966e-03 -5.141815636307001114e-04 -1.400154433213174343e-03 -1.536687836050987244e-03 -4.427354142535477877e-04 -8.160265279002487659e-04 -1.976793282665312290e-04 -2.955676463898271322e-04 -4.782681644428521395e-04 -1.151730029960162938e-04 -6.681951927021145821e-04 -6.667887209914624691e-04 1.810920366551727057e-05 -1.822151709347963333e-03 -7.976277847774326801e-04 4.485492245294153690e-04 -9.997363667935132980e-04 -3.891457745339721441e-04 5.959685076959431171e-04 -1.227303873747587204e-03 -8.486516308039426804e-04 9.478321298956871033e-04 -4.722544108517467976e-04 -6.915089761605486274e-05 -9.288574219681322575e-04 -8.456537616439163685e-04 -9.657756309024989605e-04 -3.542203339748084545e-04 -9.891194058582186699e-04 3.215314063709229231e-04 8.221424650400876999e-05 -3.089139936491847038e-04 1.163895009085536003e-03 4.365410422906279564e-04 -3.977712767664343119e-04 6.421863508876413107e-05 1.371052640024572611e-04 -1.117010950110852718e-03 -2.815432380884885788e-04 -7.627015002071857452e-04 -8.183073950931429863e-04 -1.031242194585502148e-03 -1.590276136994361877e-03 -1.166162081062793732e-03 -7.677492976654320955e-05 -5.567246698774397373e-04 -7.703549345023930073e-04 -1.420047134160995483e-03 -3.352981584612280130e-04 -4.001658817287534475e-04 -5.392398088588379323e-05 -1.757737845764495432e-05 9.408104233443737030e-04 -8.085613953880965710e-04 -5.749115953221917152e-04 9.034325557877309620e-06 -5.299624754115939140e-04 -6.929315859451889992e-04 -2.649446483701467514e-03 -9.948880178853869438e-04 -9.841245628194883466e-05 3.984413342550396919e-04 -3.869303618557751179e-04 5.732401041314005852e-04 -3.513334668241441250e-04 -1.335749751888215542e-03 5.965955278952606022e-05 -4.904210218228399754e-04 -4.157101502642035484e-04 -4.947907291352748871e-04 -8.752767462283372879e-04 -9.048992069438099861e-04 1.602131815161556005e-04 6.496976311609614640e-06 -2.576089718786533922e-05 2.712818386498838663e-04 -1.196882221847772598e-03 -1.816091476939618587e-03 -4.909450653940439224e-04 -1.491052564233541489e-03 -3.121644549537450075e-04 -7.296849798876792192e-05 -7.655406952835619450e-04 -4.132249741815030575e-04 -2.111738576786592603e-04 7.896745810285210609e-04 -1.122052432037889957e-03 -1.277471310459077358e-03 -1.140467822551727295e-03 -3.639019560068845749e-04 -1.164188608527183533e-03 -3.775702789425849915e-04 -7.021183846518397331e-04 -4.381695180200040340e-04 2.548069460317492485e-04 4.547952994471415877e-05 -2.636335557326674461e-04 -4.314297984819859266e-04 -8.059894316829741001e-04 -3.665930416900664568e-04 -4.949268768541514874e-04 -8.741711499169468880e-04 -2.620869199745357037e-04 -1.043861615471541882e-03 9.205787209793925285e-04 -4.844520299229770899e-04 -1.210222253575921059e-03 -1.720212516374886036e-03 -1.077384338714182377e-03 -1.004844089038670063e-03 -9.760805405676364899e-04 -8.000839734449982643e-04 -8.170770597644150257e-04 -9.509372757747769356e-04 6.154354778118431568e-04 3.314068599138408899e-04 -6.348057650029659271e-04 -5.149535354576073587e-05 -1.136521459557116032e-03 -5.824931431561708450e-04 -1.175980665720999241e-03 -9.724135161377489567e-04 -1.076566637493669987e-03 6.644226377829909325e-04 -6.942177424207329750e-04 -7.108877180144190788e-04 -1.004116958938539028e-03 3.624257078627124429e-05 -9.121576440520584583e-04 -5.338113405741751194e-04 -2.178911585360765457e-03 -4.157665534876286983e-04 -2.867889124900102615e-04 3.692564205266535282e-04 1.727082562865689397e-04 2.332199073862284422e-04 -4.460655618458986282e-04 -1.378992892568930984e-04 -1.703548332443460822e-04 -3.026444464921951294e-04 4.602611588779836893e-04 5.184762994758784771e-04 -5.132336518727242947e-04 -2.046117588179185987e-04 -1.514889881946146488e-03 4.770962987095117569e-04 -2.064525033347308636e-04 9.481243323534727097e-04 -7.545438711531460285e-04 -1.155105303041636944e-03 -1.429371041012927890e-04 -5.025899736210703850e-04 -9.027077612699940801e-05 3.464295878075063229e-05 -7.239041733555495739e-04 -9.815271478146314621e-04 -4.237331449985504150e-04 -1.459139515645802021e-03 -5.891963373869657516e-04 -1.173960394226014614e-03 -4.666190943680703640e-04 2.078767283819615841e-04 -7.434818544425070286e-04 -5.373415187932550907e-04 -2.305854723090305924e-04 7.163127884268760681e-04 -1.581957913003861904e-03 -9.339325333712622523e-05 2.258537278976291418e-04 1.234083203598856926e-03 -3.443487512413412333e-04 -6.856786203570663929e-04 7.537858327850699425e-04 -8.442774997092783451e-04 -1.242809521500021219e-04 -2.015347592532634735e-03 -8.996756514534354210e-04 -1.548187137814238667e-04 -7.766517810523509979e-04 -1.249666791409254074e-03 7.583815749967470765e-05 1.022185315378010273e-03 -1.812022528611123562e-04 -6.989886751398444176e-04 -1.218313816934823990e-03 8.317507454194128513e-04 -8.225133060477674007e-04 -1.118282438255846500e-03 -1.344234100542962551e-03 1.394135062582790852e-03 2.146443730453029275e-04 -9.202298824675381184e-04 -4.934789612889289856e-04 -1.092310529202222824e-03 -7.145046256482601166e-04 -1.237584860064089298e-03 -1.150078373029828072e-03 7.275965617736801505e-05 -6.091395625844597816e-04 -1.223602681420743465e-03 -1.096906140446662903e-03 -4.015745071228593588e-04 -2.035086799878627062e-04 7.733681122772395611e-04 -1.277008559554815292e-03 -2.043133834376931190e-03 -1.428237737854942679e-04 -2.635307318996638060e-04 -2.661391336005181074e-04 -3.780798870138823986e-04 -1.053395753842778504e-04 -1.642100629396736622e-03 -4.915872705169022083e-04
1.147899404168128967e-02 6.030598655343055725e-03 -3.776597976684570312e-02 1.583180390298366547e-02 1.121117547154426575e-02 2.963347360491752625e-03 -4.733362235128879547e-03 3.654641285538673401e-02 1.963651506230235100e-03 2.021293155848979950e-02 -1.864476501941680908e-02 1.071901153773069382e-02 8.298177272081375122e-03 2.007106784731149673e-03 1.821701414883136749e-02 -2.247083000838756561e-03 -2.878188155591487885e-03 2.261256426572799683e-02 -2.949754707515239716e-03 2.751695923507213593e-02 2.087666420266032219e-03 1.532482542097568512e-02 5.953516345471143723e-03 1.422791369259357452e-02 1.236877124756574631e-02 -3.770684823393821716e-02 -2.706027589738368988e-02 3.287241607904434204e-02 1.471842825412750244e-02 5.946655757725238800e-03 1.782074198126792908e-02 2.888398617506027222e-02 -1.241550897248089314e-03 -1.933257840573787689e-02 -1.582517474889755249e-02 5.286478553898632526e-04 -1.476639416068792343e-02 2.505247946828603745e-03 1.559000276029109955e-02 3.016329370439052582e-02 1.278119999915361404e-02 1.752975955605506897e-02 1.463075168430805206e-02 1.333973743021488190e-02 1.132290810346603394e-02 1.324321702122688293e-02 -1.206800714135169983e-02 -2.341150678694248199e-02 -4.601446166634559631e-02 -2.215681597590446472e-02 6.431819871068000793e-03 1.694743894040584564e-02 1.763657107949256897e-02 5.512425210326910019e-03 -4.378285724669694901e-03 -3.825721889734268188e-02 1.878469251096248627e-02 -2.033693483099341393e-03 3.420216590166091919e-02 1.516540534794330597e-02 1.543139200657606125e-02 -6.830165535211563110e-02 -1.178991328924894333e-02 -7.769920676946640015e-02 -1.842802017927169800e-02 1.888751611113548279e-02 -1.664607413113117218e-02 3.797394456341862679e-03 1.241306308656930923e-02 9.893197566270828247e-03 -1.291648671030998230e-02 -2.832416677847504616e-03 -2.940258756279945374e-02 1.670159585773944855e-02 3.370934724807739258e-02 -2.405390702188014984e-02 -3.791258856654167175e-02 -5.707068834453821182e-03 3.944837022572755814e-03 -9.518859907984733582e-03 5.114219617098569870e-03 -1.718151755630970001e-02 -5.404083523899316788e-03 3.028415516018867493e-02 2.526495791971683502e-02 -1.608681678771972656e-02 7.992995902895927429e-03 -2.803276292979717255e-03 -1.030691200867295265e-03 8.244725875556468964e-03 -4.112131427973508835e-03 -5.576583091169595718e-03 -1.178443524986505508e-02 -1.203749887645244598e-02 1.268179342150688171e-02 -1.222527492791414261e-02 -7.445795927196741104e-03 -5.378588568419218063e-03 8.576782420277595520e-03 1.872150972485542297e-02 -6.359937135130167007e-03 5.306377634406089783e-02 -7.188603747636079788e-03 -1.468233764171600342e-02 -6.718971766531467438e-03 1.771645247936248779e-02 5.876041483134031296e-03 -2.874815836548805237e-03 5.943586584180593491e-03 -3.798476606607437134e-02 -8.358901366591453552e-03 2.581121772527694702e-02 -2.469224273227155209e-05 -1.306252274662256241e-02 -7.778543978929519653e-03 -1.357447635382413864e-02 -8.264940232038497925e-03 -1.797638274729251862e-02 -8.338836580514907837e-02 -7.073273882269859314e-03 1.085949223488569260e-02 1.376535929739475250e-02 6.787454243749380112e-03 1.860352605581283569e-02 -2.196033112704753876e-02 4.693657625466585159e-03 -7.886959239840507507e-03 -2.762511931359767914e-02 9.722144342958927155e-03 5.046058911830186844e-03 1.485660299658775330e-02 2.210982143878936768e-02 1.248873677104711533e-02 1.624416187405586243e-02 -1.951430225744843483e-03 8.751756511628627777e-03 1.880769990384578705e-02 2.075020223855972290e-02 -3.182958578690886497e-03 -8.913220837712287903e-03 2.391466312110424042e-02 1.113772764801979065e-02 8.327525109052658081e-03 1.273983344435691833e-02 1.145309302955865860e-02 -1.728933118283748627e-02 1.496091950684785843e-02 3.169746696949005127e-02 2.762106619775295258e-02 -1.001875549554824829e-01 2.588962763547897339e-02 4.523462150245904922e-03 -2.844316512346267700e-02 -1.463001966476440430e-02 7.002617232501506805e-03 1.209654286503791809e-02 7.721050642430782318e-03 -2.877659723162651062e-02 2.111166343092918396e-02 -3.354315459728240967e-02 -6.880906224250793457e-02 1.594732329249382019e-02 9.275448508560657501e-03 1.686254516243934631e-02 1.524088997393846512e-02 6.220117677003145218e-03 1.724143140017986298e-02 -5.974061787128448486e-04 2.659715525805950165e-02 -1.203044597059488297e-02 -1.670152135193347931e-02 -5.712264683097600937e-03 7.026203908026218414e-03 -2.179400622844696045e-02 1.172079332172870636e-02 1.149700302630662918e-02 -2.350738085806369781e-02 1.659091748297214508e-02 4.580376669764518738e-02 4.378952831029891968e-02 3.228331729769706726e-02 1.482917927205562592e-03 8.797742775641381741e-04 -2.690231055021286011e-02 2.313333377242088318e-02 1.249822787940502167e-02 3.301359480246901512e-03 2.013667486608028412e-03 -1.337065454572439194e-02 1.637409441173076630e-03 4.079007543623447418e-03 7.246318273246288300e-03 1.704956777393817902e-02 -1.711505651473999023e-02 5.695346742868423462e-03 -3.920574486255645752e-02 -4.101642593741416931e-02 8.543088100850582123e-03 5.046139005571603775e-03 -4.084721207618713379e-03 -3.967361524701118469e-02 2.251831814646720886e-03 1.522260718047618866e-02 2.224722318351268768e-02 5.470068659633398056e-03 1.951989345252513885e-02 1.140624377876520157e-02 -2.101377211511135101e-02 3.176056488882750273e-04 1.360663305968046188e-02 -6.017916835844516754e-03 1.116501819342374802e-02 -1.049109548330307007e-02 -5.857651308178901672e-02 3.689499571919441223e-03 -5.824366118758916855e-03 7.611914072185754776e-03 -3.364221006631851196e-02 2.120058238506317139e-02 2.639266604091972113e-04 1.550733693875372410e-03 1.400173292495310307e-03 1.687683910131454468e-02 2.551935613155364990e-03 4.898701980710029602e-02 -2.442585863173007965e-02 4.022873326903209090e-05 -4.738361574709415436e-03 -6.114429980516433716e-02 -8.817601017653942108e-03 1.787414401769638062e-02 7.360246032476425171e-03 6.275476887822151184e-03 4.089903552085161209e-03 -6.602442357689142227e-03 3.986359760165214539e-02 2.764467149972915649e-02 2.434723637998104095e-02 -2.539291605353355408e-02 2.085542865097522736e-02 -2.310185320675373077e-02 5.238062888383865356e-02 -5.425004288554191589e-03 -9.728299919515848160e-04 -1.196231879293918610e-02 1.568125677295029163e-03 2.434743940830230713e-02 7.762523368000984192e-03 6.951928604394197464e-03 -1.266473345458507538e-02 -4.262420162558555603e-02 -1.150595210492610931e-02 -1.939877867698669434e-02 5.137736909091472626e-03 -2.165159024298191071e-02 -1.805765670724213123e-03
-1.513987872749567032e-02 -1.008064579218626022e-02 8.106223307549953461e-03 1.345002278685569763e-02 -3.291143849492073059e-02 2.708767715375870466e-04 1.250399369746446609e-02 -7.629130966961383820e-03 7.113749161362648010e-03 -1.730267517268657684e-02 2.539536356925964355e-02 7.759042549878358841e-03 3.702287748456001282e-02 -5.897779017686843872e-02 5.409381119534373283e-04 1.306039653718471527e-02 8.707906119525432587e-03 4.200225695967674255e-02 2.586830779910087585e-02 7.730018347501754761e-03 8.530001156032085419e-03 2.405330911278724670e-02 -1.812024414539337158e-02 7.166434079408645630e-03 -6.296887528151273727e-03 -8.882037363946437836e-03 -1.180689968168735504e-02 1.975238509476184845e-02 2.203489467501640320e-02 -2.118839323520660400e-02 1.699637621641159058e-02 -1.149737648665904999e-02 -7.256737910211086273e-03 1.490835100412368774e-02 -1.819919981062412262e-02 3.385871881619095802e-03 -5.101001262664794922e-02 -1.394915021955966949e-02 1.376457326114177704e-02 -3.120286855846643448e-03 2.733506262302398682e-03 2.607634756714105606e-03 -1.416306663304567337e-02 1.004143245518207550e-02 -6.087240763008594513e-03 2.293938212096691132e-02 -2.716551721096038818e-02 1.879890821874141693e-02 -2.219292335212230682e-02 -3.199222264811396599e-03 3.878521174192428589e-02 9.823024272918701172e-03 2.060326188802719116e-02 -4.835479892790317535e-03 1.469152700155973434e-02 -5.244762636721134186e-03 -6.548455567099153996e-04 9.550089947879314423e-03 -3.619290515780448914e-02 2.090019173920154572e-02 -1.164928171783685684e-02 1.508118212223052979e-02 2.197051048278808594e-02 -1.369598135352134705e-02 9.220737032592296600e-03 -4.825419280678033829e-03 2.758405916392803192e-02 9.285337291657924652e-03 1.289152260869741440e-02 -2.533029951155185699e-02 -4.203979857265949249e-03 -1.020057313144207001e-02 -6.005764473229646683e-03 1.397219672799110413e-02 2.672189287841320038e-02 -3.673744853585958481e-03 5.578423384577035904e-03 1.595968380570411682e-02 -5.863451515324413776e-04 2.948402427136898041e-02 -4.258890170603990555e-03 1.143787708133459091e-02 -8.469519205391407013e-03 1.834535598754882812e-02 9.596665389835834503e-03 -8.454171009361743927e-03 6.844517774879932404e-03 -2.965980768203735352e-02 2.479263395071029663e-02 -9.166744537651538849e-03 5.285205785185098648e-03 -3.876502439379692078e-02 1.112890988588333130e-02 -1.124528702348470688e-02 -1.068476028740406036e-02 -1.737259514629840851e-02 -4.510739445686340332e-02 8.125620894134044647e-03 7.033191621303558350e-03 -8.332992903888225555e-03 -5.421359557658433914e-03 -8.571530878543853760e-02 1.960395835340023041e-02 9.413530118763446808e-03 -1.860288344323635101e-02 2.280988916754722595e-02 4.038848914206027985e-03 3.208839148283004761e-02 -2.308691665530204773e-02 3.329278528690338135e-02 -2.509411796927452087e-02 1.907284744083881378e-02 1.396496687084436417e-02 4.934798460453748703e-03 4.114586394280195236e-03 -4.964615218341350555e-04 -1.241125259548425674e-02 4.505132324993610382e-03 2.112688310444355011e-02 -2.932994253933429718e-02 1.171352434903383255e-02 -1.667743176221847534e-02 2.306037954986095428e-02 2.692438475787639618e-02 -2.681366167962551117e-02 -1.826571859419345856e-02 -5.128474440425634384e-03 1.191254332661628723e-02 -6.926554255187511444e-03 -3.192055737599730492e-03 9.201044216752052307e-03 -2.501412993296980858e-03 -3.305547684431076050e-02 1.232175622135400772e-02 2.219789847731590271e-02 1.022962760180234909e-02 -1.099540386348962784e-03 1.102071534842252731e-02 -3.375984728336334229e-02 -6.525717675685882568e-03 1.401989161968231201e-02 -6.637477199546992779e-04 -3.569722920656204224e-02 3.122414276003837585e-02 -1.129853632301092148e-02 -8.302236907184123993e-03 -7.076264009810984135e-04 3.150344640016555786e-02 -1.419772487133741379e-02 2.308893948793411255e-02 3.772355616092681885e-02 1.304973382502794266e-02 2.170355292037129402e-03 -1.412814948707818985e-02 -1.842506579123437405e-03 7.449654396623373032e-03 -7.797793485224246979e-03 1.781879551708698273e-02 1.824822649359703064e-02 3.938158974051475525e-03 1.276182662695646286e-02 1.691457815468311310e-02 1.563425920903682709e-02 1.134856976568698883e-02 4.282091744244098663e-03 1.400594040751457214e-02 5.567352287471294403e-03 -5.583346635103225708e-02 3.916364163160324097e-03 4.585094749927520752e-03 6.748142652213573456e-03 1.324953511357307434e-02 -2.238579094409942627e-02 -4.934902302920818329e-03 1.458028331398963928e-02 2.300710417330265045e-02 -1.046871114522218704e-02 -2.085412386804819107e-03 -1.477244403213262558e-02 1.982774958014488220e-02 3.036956861615180969e-02 1.100826077163219452e-02 8.851812221109867096e-03 -7.397864945232868195e-03 6.136221811175346375e-03 1.449794322252273560e-02 1.489103119820356369e-02 -6.340615916997194290e-03 1.799499616026878357e-02 7.719771936535835266e-03 -1.348824147135019302e-02 2.110305801033973694e-02 1.601415872573852539e-02 -3.555571660399436951e-02 7.712438702583312988e-03 -4.731540754437446594e-02 1.150014158338308334e-02 2.637155540287494659e-02 -3.644214011728763580e-03 -2.492646127939224243e-02 1.014343183487653732e-02 -6.573844235390424728e-03 -8.286996185779571533e-02 8.404583670198917389e-03 2.185417804867029190e-03 8.775274269282817841e-03 2.118907310068607330e-02 -1.459830626845359802e-02 1.710854843258857727e-02 -9.998471476137638092e-03 1.717559248208999634e-02 -3.476834390312433243e-03 8.611214347183704376e-03 2.895857021212577820e-02 7.929723709821701050e-03 9.999073110520839691e-03 -4.930404201149940491e-02 -2.265780000016093254e-03 -2.262363396584987640e-02 2.573420666158199310e-02 2.729270793497562408e-02 -1.672065071761608124e-02 9.042204357683658600e-03 2.691983245313167572e-02 3.299709409475326538e-02 -7.165397703647613525e-02 1.671003736555576324e-02 6.430999841541051865e-03 1.409889664500951767e-02 2.114243619143962860e-02 2.981438487768173218e-02 1.514414791017770767e-03 7.522048428654670715e-03 7.187132723629474640e-03 -2.525525167584419250e-02 -1.440761797130107880e-02 1.052048336714506149e-02 -3.930582106113433838e-02 1.132529601454734802e-02 -4.277610778808593750e-02 -6.673482130281627178e-04 -5.187360569834709167e-02 1.122328080236911774e-02 -2.677649818360805511e-02 9.419946931302547455e-03 2.227598987519741058e-02 1.192342024296522141e-02 -3.035145439207553864e-02 -2.158483490347862244e-02 -4.480460658669471741e-02 -1.805224083364009857e-02 -3.040659986436367035e-02 4.895077552646398544e-03 7.733672391623258591e-03 -2.364529855549335480e-02 2.428753301501274109e-02
3.716038772836327553e-03 1.923359185457229614e-02 -1.971169188618659973e-02 1.322390325367450714e-02 3.698533028364181519e-02 -4.980360344052314758e-02 2.065767720341682434e-02 -8.034716360270977020e-03 -7.564969826489686966e-03 3.286450728774070740e-02 -3.712832182645797729e-02 1.894095540046691895e-02 -7.478605839423835278e-04 -1.551900175400078297e-03 2.572567947208881378e-02 2.266446873545646667e-02 5.355035886168479919e-03 1.984760165214538574e-02 -9.266426786780357361e-03 -1.981296762824058533e-02 2.572803059592843056e-03 -4.761525895446538925e-03 1.182293891906738281e-02 3.940295800566673279e-02 2.275050058960914612e-02 1.882506348192691803e-02 7.370819337666034698e-03 1.799808628857135773e-02 -9.625484235584735870e-03 1.480329781770706177e-02 -7.014894858002662659e-03 4.382916539907455444e-02 1.582369767129421234e-02 -3.978100419044494629e-02 -3.739206294994801283e-04 1.011308934539556503e-02 -9.304055012762546539e-03 -1.415283419191837311e-02 7.112359162420034409e-03 4.732819646596908569e-02 3.555980743840336800e-03 1.956676132977008820e-02 4.010776057839393616e-02 -1.359726395457983017e-02 -2.965302020311355591e-02 1.741987653076648712e-02 -2.511574653908610344e-03 -3.191316872835159302e-02 9.848324581980705261e-03 -4.025436937808990479e-03 3.664776915684342384e-03 1.066456548869609833e-02 1.932886615395545959e-02 1.938861235976219177e-02 -6.449655443429946899e-02 3.558088792487978935e-04 3.096290165558457375e-03 -5.559887364506721497e-02 4.769135266542434692e-03 2.041273191571235657e-02 1.477471087127923965e-02 2.381327003240585327e-02 -2.235015667974948883e-02 -3.302279114723205566e-02 4.067482054233551025e-02 6.732329260557889938e-03 -4.818691685795783997e-02 -1.694014482200145721e-02 4.699859302490949631e-03 1.631085760891437531e-02 -1.728019560687243938e-03 8.199512958526611328e-03 -8.736572228372097015e-03 1.354041136801242828e-02 1.561563927680253983e-03 -4.455188661813735962e-02 -1.200940646231174469e-02 -2.171941287815570831e-02 1.909070299006998539e-03 8.715977892279624939e-03 -5.110052414238452911e-03 1.965053565800189972e-02 3.629468381404876709e-03 2.852999605238437653e-02 3.216010332107543945e-02 1.041530631482601166e-02 1.040437724441289902e-02 8.473512716591358185e-03 1.480988040566444397e-02 2.925261482596397400e-02 -3.283387050032615662e-02 2.352550625801086426e-03 1.124724280089139938e-02 2.772939205169677734e-02 -8.763085934333503246e-04 -5.851540714502334595e-03 -1.310849282890558243e-02 -2.928219176828861237e-02 -3.632885590195655823e-02 1.571539789438247681e-02 -2.891704672947525978e-03 -8.405413478612899780e-03 1.858202554285526276e-02 -8.038792759180068970e-03 1.814199425280094147e-02 -1.194874756038188934e-02 1.667769975028932095e-03 -1.681341230869293213e-02 3.954014182090759277e-02 -7.804330904036760330e-03 2.052053995430469513e-02 2.874016202986240387e-02 2.185215242207050323e-02 -5.999933928251266479e-02 -9.273244999349117279e-03 1.818693615496158600e-02 2.658532187342643738e-02 -1.353469025343656540e-02 -3.098617307841777802e-02 4.177135881036520004e-03 2.835069783031940460e-02 1.441190298646688461e-02 3.028289414942264557e-03 7.487266324460506439e-03 1.459613721817731857e-02 2.125347591936588287e-02 -6.227461155503988266e-03 -1.196262892335653305e-02 2.701298519968986511e-02 4.206005018204450607e-03 1.030406542122364044e-02 -1.173847727477550507e-02 1.394437719136476517e-02 1.147620473057031631e-02 4.516996443271636963e-02 1.012447290122509003e-02 1.894859783351421356e-02 2.864984422922134399e-02 3.371848165988922119e-02 1.095540169626474380e-02 2.908158674836158752e-02 2.163770608603954315e-02 2.283701114356517792e-02 2.762003242969512939e-02 1.087679062038660049e-02 -8.044501766562461853e-03 3.847607970237731934e-02 4.734315443783998489e-03 2.731811627745628357e-02 9.917215444147586823e-03 2.099460735917091370e-02 1.155510079115629196e-02 2.873489633202552795e-02 1.928017474710941315e-02 -8.988516405224800110e-03 1.528865844011306763e-02 2.782415598630905151e-03 -2.004194259643554688e-02 1.504716649651527405e-02 4.473758861422538757e-02 1.682161912322044373e-02 8.222770877182483673e-03 3.831400768831372261e-03 5.083516240119934082e-03 -1.236098073422908783e-02 2.065808698534965515e-02 5.095126572996377945e-03 5.057377740740776062e-02 9.926433674991130829e-03 -9.221201390027999878e-02 -3.596772626042366028e-02 8.800601353868842125e-04 3.582753473892807961e-03 3.190284222364425659e-02 5.052010528743267059e-03 3.695149440318346024e-03 -1.506263669580221176e-02 1.224323641508817673e-02 1.826482824981212616e-02 1.174195203930139542e-02 3.788992762565612793e-02 -2.534905634820461273e-02 6.862520705908536911e-03 3.329386468976736069e-03 -2.459471346810460091e-03 2.105390187352895737e-03 2.681292593479156494e-02 -5.996005237102508545e-02 -2.575264684855937958e-02 2.920702798292040825e-03 1.155059505254030228e-02 3.175686672329902649e-02 1.277735829353332520e-02 3.536654403433203697e-03 -4.913417506031692028e-04 -6.383507698774337769e-02 -5.237720906734466553e-03 1.668299175798892975e-02 -4.219536110758781433e-02 -2.200804185122251511e-03 -4.811971262097358704e-02 2.054964937269687653e-02 1.591698965057730675e-03 1.513301394879817963e-02 -3.303224965929985046e-02 2.203969983384013176e-03 1.173969544470310211e-02 9.375797584652900696e-03 1.870730775408446789e-03 3.340260311961174011e-02 -1.981942355632781982e-02 1.196076255291700363e-02 -5.577403935603797436e-04 -1.713147200644016266e-02 -7.019115611910820007e-03 -2.184504177421331406e-03 1.204087981022894382e-03 7.694157306104898453e-03 4.137173667550086975e-02 5.853820219635963440e-02 -7.604262977838516235e-02 1.588374935090541840e-02 2.363439276814460754e-02 -8.665202185511589050e-03 8.624327369034290314e-03 -4.902828484773635864e-03 1.026759017258882523e-02 1.779228076338768005e-02 2.435002103447914124e-02 -3.224154235795140266e-03 6.893364246934652328e-03 3.057640045881271362e-02 2.478536404669284821e-02 2.278697676956653595e-02 2.204638347029685974e-02 4.616596177220344543e-02 1.925902068614959717e-02 3.377045504748821259e-03 4.966913256794214249e-03 3.980260342359542847e-02 -1.044900435954332352e-02 7.829460315406322479e-03 -2.949177287518978119e-02 3.595440462231636047e-02 5.006784573197364807e-03 1.000806968659162521e-02 2.986323274672031403e-02 1.345625147223472595e-02 1.434454694390296936e-02 1.889570243656635284e-02 -2.709704823791980743e-02 1.421922165900468826e-02 1.507265865802764893e-02 1.670799031853675842e-02 3.353438526391983032e-02 2.890827367082238197e-03
1.667244173586368561e-02 -9.435345418751239777e-03 -7.019312470220029354e-04 1.992282457649707794e-02 -1.037153881043195724e-02 -9.501062333583831787e-03 -1.491129584610462189e-02 1.247898675501346588e-02 -2.595019899308681488e-02 -2.509927004575729370e-02 -1.851493492722511292e-02 7.067822851240634918e-03 2.602183027192950249e-03 2.429600246250629425e-02 6.657614838331937790e-03 -1.945484988391399384e-02 1.707437215372920036e-03 -4.169184248894453049e-03 1.348681747913360596e-02 3.258730471134185791e-02 -2.587601775303483009e-04 -1.257755514234304428e-02 -1.248896354809403419e-03 1.345718931406736374e-02 9.733254089951515198e-03 -1.369654294103384018e-02 -2.996046654880046844e-02 1.371991634368896484e-02 3.044382669031620026e-03 -1.197024900466203690e-02 2.032824046909809113e-02 -1.770671270787715912e-02 -1.298699993640184402e-02 -4.499886184930801392e-03 -9.416828863322734833e-03 -1.566446200013160706e-02 -4.248731955885887146e-02 3.158006444573402405e-02 4.124425817281007767e-03 3.777894750237464905e-02 1.681320555508136749e-02 -1.239272858947515488e-02 2.954984782263636589e-03 1.813335344195365906e-02 -1.193893142044544220e-03 1.994520984590053558e-02 -1.250075735151767731e-02 -3.884943574666976929e-02 -1.952265948057174683e-02 -4.156592115759849548e-02 -4.996697884052991867e-03 -5.383118055760860443e-03 6.587770301848649979e-03 -2.334121242165565491e-02 -2.874868456274271011e-03 -3.405030071735382080e-02 -3.239707648754119873e-02 -2.479670383036136627e-02 5.340763181447982788e-02 2.685886807739734650e-02 -2.557287178933620453e-02 -1.000891323201358318e-03 -1.099524646997451782e-02 -2.270442806184291840e-02 -4.245571047067642212e-02 -2.809635549783706665e-02 1.437734067440032959e-02 -5.089460872113704681e-03 -9.162445785477757454e-04 2.814767509698867798e-02 -6.314928177744150162e-03 4.457166418433189392e-03 -6.453442852944135666e-03 1.247044652700424194e-02 5.934761837124824524e-02 1.015739049762487411e-02 7.945336401462554932e-03 -2.409809269011020660e-02 1.987871015444397926e-03 -2.410143241286277771e-02 -1.988948509097099304e-02 -9.417285211384296417e-03 -1.608911529183387756e-02 -3.510993672534823418e-03 1.119808014482259750e-02 -3.393955901265144348e-02 -7.720746565610170364e-03 -2.980795875191688538e-02 1.263544242829084396e-02 1.345490454696118832e-03 -2.998965792357921600e-02 -1.000092271715402603e-02 2.097172662615776062e-02 -4.266242496669292450e-03 -1.484166551381349564e-02 1.649579405784606934e-02 -7.734244223684072495e-03 8.246260695159435272e-03 -8.462971309199929237e-04 -3.224272653460502625e-02 7.504778448492288589e-03 3.156665340065956116e-02 1.820474863052368164e-02 -3.991816937923431396e-02 1.273286063224077225e-03 5.175098311156034470e-03 -3.967773541808128357e-02 -3.252876549959182739e-02 -8.619595901109278202e-04 -4.173481091856956482e-02 -1.870083250105381012e-02 1.772085018455982208e-02 2.201027004048228264e-03 -2.443946897983551025e-02 1.588233001530170441e-02 -3.226510062813758850e-02 -2.565122395753860474e-02 -4.154239222407341003e-02 1.835761591792106628e-02 1.726033864542841911e-03 -1.693394500762224197e-03 -2.108334191143512726e-02 1.399696897715330124e-02 1.901222951710224152e-02 -2.591424807906150818e-02 -4.105831962078809738e-03 -3.320733085274696350e-02 -1.845294237136840820e-02 1.449812855571508408e-02 2.528773993253707886e-02 1.187834329903125763e-02 6.198373623192310333e-03 -2.510214783251285553e-02 1.317912526428699493e-02 5.320642888545989990e-02 9.737818036228418350e-04 -3.563188388943672180e-02 4.799705464392900467e-03 3.180827200412750244e-02 -1.601408980786800385e-02 -1.161486259661614895e-03 -1.845830585807561874e-03 5.157874431461095810e-03 6.601734552532434464e-03 -2.346807532012462616e-02 -6.474310997873544693e-03 2.234132587909698486e-02 1.388670224696397781e-02 -2.051213569939136505e-02 -1.899393834173679352e-02 3.570757806301116943e-02 3.925578668713569641e-03 -2.245469763875007629e-02 -1.594690419733524323e-02 -2.137735486030578613e-02 2.230091951787471771e-02 2.073132432997226715e-02 1.394008519127964973e-03 2.446240745484828949e-02 -3.605225309729576111e-02 -2.499294281005859375e-02 2.195683307945728302e-02 3.898676950484514236e-03 4.677779041230678558e-03 -1.059027155861258507e-03 -9.366701357066631317e-03 1.105929259210824966e-02 -1.468145381659269333e-02 2.431944012641906738e-03 -9.371437132358551025e-03 2.533124200999736786e-02 -9.115442633628845215e-03 9.354408830404281616e-03 -3.128289058804512024e-02 -3.819455578923225403e-02 1.734427735209465027e-02 -3.371107950806617737e-02 1.567484624683856964e-02 4.137628152966499329e-02 7.039389014244079590e-02 1.507197692990303040e-02 6.928686518222093582e-03 3.294526413083076477e-02 -2.491665259003639221e-02 -4.841751884669065475e-03 4.067177325487136841e-02 2.263241913169622421e-03 -1.004031952470541000e-02 1.438346412032842636e-02 9.587006643414497375e-03 2.246339805424213409e-02 2.554096654057502747e-02 1.396769098937511444e-02 -5.087504163384437561e-02 1.952323690056800842e-02 -6.602040678262710571e-02 2.018466824665665627e-03 1.783988997340202332e-02 -8.163005113601684570e-03 -2.204875834286212921e-02 3.390894969925284386e-03 3.435418475419282913e-04 -1.308911107480525970e-02 1.833822950720787048e-02 -1.044891681522130966e-02 1.843818346969783306e-03 1.994236558675765991e-02 -5.927591025829315186e-02 -1.169574167579412460e-02 -2.243761718273162842e-02 -1.870628446340560913e-02 -2.129475958645343781e-02 -1.851708255708217621e-02 -6.626039277762174606e-03 -2.015489898622035980e-02 -7.195090875029563904e-03 1.908790133893489838e-02 4.204422235488891602e-02 -1.880734227597713470e-02 3.851447254419326782e-03 1.386979874223470688e-02 2.572811790741980076e-04 2.956501767039299011e-02 -1.184916682541370392e-02 3.633771836757659912e-02 -7.006704341620206833e-03 -8.906990289688110352e-03 -4.042201675474643707e-03 -2.525380998849868774e-02 2.590642310678958893e-03 4.990838840603828430e-02 -4.893104545772075653e-03 -1.215548627078533173e-02 4.506417084485292435e-03 2.414604835212230682e-02 2.405109442770481110e-02 2.626124955713748932e-02 2.905019186437129974e-02 -2.084873989224433899e-02 1.469239871948957443e-02 -5.907089635729789734e-02 7.145109027624130249e-02 -2.553649060428142548e-02 4.021281003952026367e-02 1.571726612746715546e-02 -2.257531741634011269e-04 1.805255189538002014e-02 7.511447765864431858e-04 7.823007181286811829e-03 3.519710153341293335e-02 -1.785713061690330505e-02 -3.952177241444587708e-02 2.518884837627410889e-02 2.414135960862040520e-03 -2.928351983428001404e-02 -1.735343597829341888e-02
4.127489030361175537e-02 2.208419330418109894e-02 -6.217556539922952652e-03 -5.885152611881494522e-03 -4.158400744199752808e-02 7.691056467592716217e-03 -1.270393095910549164e-02 2.560827136039733887e-02 -8.739585056900978088e-03 9.999200701713562012e-03 -1.636700518429279327e-02 -1.215812750160694122e-02 3.592686494812369347e-03 4.966128244996070862e-02 1.240202691406011581e-03 -2.019175328314304352e-03 -1.810288615524768829e-02 3.441604552790522575e-03 -2.312854304909706116e-02 -3.314182534813880920e-02 1.599373499630019069e-04 -1.443231850862503052e-02 2.592038922011852264e-02 -8.172459155321121216e-02 6.037469953298568726e-02 1.373945642262697220e-02 -2.495671808719635010e-02 -4.534179344773292542e-03 1.085795648396015167e-02 -1.940408721566200256e-02 1.976107805967330933e-02 -9.058786556124687195e-03 1.855877600610256195e-02 9.030406363308429718e-03 2.731023123487830162e-03 2.454822137951850891e-02 7.470687851309776306e-03 -5.907590314745903015e-02 -1.964035071432590485e-02 -5.307025089859962463e-02 -1.794100552797317505e-02 2.512967772781848907e-02 -6.237355619668960571e-02 3.751434385776519775e-02 1.208145287819206715e-03 -2.022797241806983948e-02 7.390535902231931686e-03 -1.022755913436412811e-02 1.953479275107383728e-02 -9.819494560360908508e-03 -1.363759301602840424e-02 -1.828734762966632843e-02 -1.502248831093311310e-02 -2.095404639840126038e-02 2.180991880595684052e-02 -5.158203188329935074e-03 1.304939482361078262e-02 1.955009810626506805e-02 5.732488632202148438e-02 2.425873419269919395e-03 7.687140256166458130e-03 -5.057336390018463135e-02 -1.232619583606719971e-02 2.222757413983345032e-02 -4.473318532109260559e-02 1.083587063476443291e-03 1.417056098580360413e-02 4.737301729619503021e-03 4.380309954285621643e-03 2.031780034303665161e-02 6.024303380399942398e-03 -4.235167987644672394e-03 -1.439377199858427048e-02 -7.089437916874885559e-03 5.799263343214988708e-02 -1.589521765708923340e-02 -1.285181753337383270e-02 -7.515561301261186600e-03 -1.391701959073543549e-02 -1.998018100857734680e-02 -1.371709816157817841e-02 -2.074705995619297028e-02 9.475680999457836151e-03 7.686554919928312302e-03 -1.905700564384460449e-02 -2.933215815573930740e-03 -1.501454226672649384e-02 -4.485745914280414581e-03 1.130385673604905605e-03 -2.817371487617492676e-02 -2.791818929836153984e-03 3.909851424396038055e-03 3.496696427464485168e-02 7.049281615763902664e-03 3.074791468679904938e-02 -4.417720809578895569e-02 -3.266535466536879539e-03 5.604754667729139328e-03 1.346137840300798416e-02 1.639622822403907776e-02 2.754543349146842957e-02 8.540614694356918335e-02 -2.133944258093833923e-02 -3.005101904273033142e-02 -1.170339621603488922e-02 1.135437004268169403e-02 5.222845356911420822e-03 -9.875951334834098816e-03 -5.517467390745878220e-03 -2.598260343074798584e-02 -2.657097764313220978e-03 6.121839862316846848e-03 -2.220366708934307098e-02 3.078100562561303377e-04 -1.969967782497406006e-02 -7.826299406588077545e-03 -1.448867749422788620e-02 -1.408354262821376324e-03 -4.669195972383022308e-03 7.491664029657840729e-03 -2.373347058892250061e-02 2.906948700547218323e-02 6.565733347088098526e-03 2.092925086617469788e-02 -1.379376370459794998e-02 -2.884136512875556946e-03 -5.240404978394508362e-02 -1.088030450046062469e-02 -2.399873174726963043e-02 -2.070849947631359100e-02 -5.662650335580110550e-03 2.596667781472206116e-02 3.074065968394279480e-02 1.158442255109548569e-02 7.804811000823974609e-03 -1.252053212374448776e-02 1.110193086788058281e-03 -2.231541089713573456e-02 -1.498008496128022671e-03 5.028643179684877396e-03 4.890835378319025040e-03 -2.740854397416114807e-02 2.295469678938388824e-02 -3.543625771999359131e-02 -1.114990748465061188e-02 1.024983730167150497e-02 -1.537922117859125137e-02 7.214678451418876648e-03 4.591750912368297577e-03 -1.202218141406774521e-02 -2.006435394287109375e-02 -3.250982146710157394e-03 -1.040089689195156097e-02 2.430473640561103821e-02 1.998771913349628448e-02 1.437969505786895752e-02 8.481559343636035919e-03 1.207547448575496674e-02 -8.595336228609085083e-03 -1.311473827809095383e-02 -2.117703901603817940e-03 -7.882910780608654022e-03 -4.133039154112339020e-03 7.683159783482551575e-03 1.444873120635747910e-02 -3.855235874652862549e-02 1.679190434515476227e-03 1.951916888356208801e-02 8.691896684467792511e-03 7.094479631632566452e-03 -4.585175774991512299e-03 -2.583096548914909363e-02 3.230002894997596741e-02 -4.688818380236625671e-02 -1.344986539334058762e-02 -6.219920236617326736e-03 -2.299493737518787384e-02 2.047984860837459564e-03 6.174081936478614807e-02 4.742936789989471436e-02 -1.086497306823730469e-02 1.534978020936250687e-02 1.390270888805389404e-02 -9.832363575696945190e-03 3.393616154789924622e-02 2.365456148982048035e-02 -2.775839902460575104e-02 3.823329135775566101e-02 1.002900302410125732e-02 -1.217018440365791321e-02 -9.146234020590782166e-03 -2.068951539695262909e-02 -1.015982870012521744e-02 1.525479182600975037e-02 4.634563811123371124e-03 4.100487008690834045e-02 -1.772990077733993530e-02 -2.932735346257686615e-02 -8.278637193143367767e-03 3.691904712468385696e-03 2.141470834612846375e-02 -6.604067981243133545e-03 2.460004389286041260e-02 8.458338677883148193e-03 -1.190448459237813950e-02 6.476955953985452652e-03 -1.773655787110328674e-02 -4.719405435025691986e-03 -1.825586427003145218e-03 -3.828611923381686211e-03 -1.113258488476276398e-02 -3.886503353714942932e-02 -5.468475166708230972e-03 -1.954291202127933502e-02 1.694197207689285278e-02 9.646216058172285557e-04 1.968135870993137360e-02 7.449362892657518387e-03 5.227275658398866653e-03 -2.496494539082050323e-02 2.469387091696262360e-02 2.113039232790470123e-02 -2.832620963454246521e-02 2.928308444097638130e-03 6.031899899244308472e-02 4.117018356919288635e-02 -3.251869976520538330e-02 2.771969884634017944e-03 -7.418868597596883774e-03 -3.419528715312480927e-03 9.527849033474922180e-03 -5.194211378693580627e-02 -2.859411016106605530e-02 -9.250605851411819458e-02 2.621213346719741821e-02 5.484383087605237961e-03 1.185753848403692245e-02 4.949058964848518372e-02 -1.536225061863660812e-02 2.320699393749237061e-02 1.490644644945859909e-02 6.535381823778152466e-02 5.558948963880538940e-03 -9.608643129467964172e-03 -1.457118801772594452e-02 -2.618523500859737396e-02 1.568334363400936127e-02 3.545357286930084229e-02 5.321418121457099915e-02 1.506783161312341690e-02 -9.216997772455215454e-03 -1.799110695719718933e-02 -1.808771304786205292e-02 -8.436192758381366730e-03 1.988876052200794220e-02 -2.862260118126869202e-02
2.212772332131862640e-02 1.961599476635456085e-02 -3.486701054498553276e-03 1.664784923195838928e-02 -1.312554907053709030e-02 -6.282086018472909927e-03 1.686962507665157318e-02 -3.057396411895751953e-02 -6.752189714461565018e-03 3.910423070192337036e-02 -8.862937800586223602e-03 -2.508320147171616554e-03 -4.856609739363193512e-03 1.111681200563907623e-02 1.011616922914981842e-02 -3.299473598599433899e-02 -1.212862133979797363e-02 1.732397265732288361e-02 7.265134714543819427e-03 -1.452797465026378632e-02 1.188641041517257690e-02 2.136202063411474228e-03 1.680756546556949615e-02 -4.795880243182182312e-02 2.845606766641139984e-02 -7.723733782768249512e-02 -5.817514611408114433e-04 2.350153587758541107e-02 -4.460777342319488525e-02 -7.263610139489173889e-03 1.105550583451986313e-02 1.511730602942407131e-03 2.137101441621780396e-02 1.119020767509937286e-02 5.619991105049848557e-03 -8.865859708748757839e-04 -1.074787694960832596e-02 -1.926711201667785645e-02 1.241348776966333389e-02 -6.725635379552841187e-03 1.101156417280435562e-02 -3.492935211397707462e-04 -2.809632942080497742e-02 -2.697223052382469177e-02 3.495345357805490494e-03 9.728308767080307007e-03 -2.834721701219677925e-03 -5.918236821889877319e-02 7.507768459618091583e-03 -2.635269192978739738e-03 -5.179918371140956879e-03 6.302260328084230423e-03 1.973329484462738037e-02 -9.311860427260398865e-03 -2.168077789247035980e-02 -1.993525959551334381e-02 -4.943913780152797699e-03 -1.516069378703832626e-02 3.025713190436363220e-02 2.399670518934726715e-02 -3.228028863668441772e-02 5.077174864709377289e-03 -3.620562702417373657e-02 -1.903265155851840973e-02 -1.562961749732494354e-02 -2.271319925785064697e-02 -7.046901155263185501e-03 -2.133264904841780663e-03 1.414762623608112335e-02 3.826197935268282890e-03 2.183121815323829651e-02 5.736698396503925323e-03 -1.915932074189186096e-02 1.665155030786991119e-02 3.555782511830329895e-02 -5.212103947997093201e-02 -4.492649808526039124e-03 -4.966683313250541687e-02 7.773480378091335297e-03 -1.955133862793445587e-03 -1.783915609121322632e-02 1.873471192084252834e-03 -9.280758909881114960e-03 1.556728873401880264e-02 4.721159581094980240e-03 -1.826485805213451385e-02 1.121925376355648041e-02 1.285836752504110336e-02 1.228423137217760086e-02 9.752079844474792480e-03 -3.211414813995361328e-02 -1.103440765291452408e-02 1.328317075967788696e-02 1.856260932981967926e-03 2.206782624125480652e-02 7.522183470427989960e-03 1.082601305097341537e-02 3.722611290868371725e-04 1.172061543911695480e-02 -3.469286113977432251e-02 -6.193684041500091553e-02 4.928377643227577209e-02 -1.283280272036790848e-02 7.507565896958112717e-03 -1.154633983969688416e-02 4.178924951702356339e-03 3.976394888013601303e-03 1.379739772528409958e-02 1.010517776012420654e-02 -3.513747081160545349e-02 1.162079162895679474e-02 3.165088221430778503e-02 1.146932505071163177e-02 -1.290855091065168381e-02 7.830214686691761017e-03 -4.450467601418495178e-02 -2.415691560599952936e-04 6.708192173391580582e-03 1.955232024192810059e-02 3.254726994782686234e-03 7.776762824505567551e-03 1.771052135154604912e-03 1.725967973470687866e-02 1.723601669073104858e-02 -1.283604837954044342e-02 2.834709361195564270e-03 -3.672410920262336731e-02 -2.303361892700195312e-02 -1.689156517386436462e-02 -1.493429392576217651e-02 6.272650323808193207e-03 -4.428135976195335388e-02 2.303626015782356262e-02 4.801947157829999924e-03 1.592337619513273239e-03 -1.211448013782501221e-02 -2.238088473677635193e-02 1.196269225329160690e-02 -2.482078038156032562e-02 -3.415913134813308716e-02 3.611406311392784119e-02 1.378321181982755661e-02 3.160560154356062412e-04 -7.698194589465856552e-03 1.110324286855757236e-03 -8.768068253993988037e-02 7.071360945701599121e-03 2.260980382561683655e-02 6.218098569661378860e-03 1.597128435969352722e-02 2.544648759067058563e-02 2.071832120418548584e-02 1.756405830383300781e-02 2.429523132741451263e-02 -8.740787394344806671e-03 -1.908130384981632233e-02 -6.132436916232109070e-03 -1.742810360155999660e-03 2.770066261291503906e-02 9.950207546353340149e-03 2.500341087579727173e-02 1.095164101570844650e-02 6.545443553477525711e-03 1.085721980780363083e-02 1.210423070006072521e-03 -1.231587212532758713e-02 2.059414982795715332e-02 2.259710431098937988e-02 4.832416027784347534e-02 -3.790773451328277588e-02 -2.287323959171772003e-02 -1.081512961536645889e-02 1.630778238177299500e-02 -1.336416881531476974e-02 3.828898305073380470e-03 4.020635504275560379e-03 -7.241836935281753540e-02 1.672388240694999695e-02 2.181925438344478607e-02 4.428091272711753845e-02 3.456164151430130005e-02 6.641407031565904617e-03 -1.835752394981682301e-03 8.923415094614028931e-03 2.678196690976619720e-02 -1.325996476225554943e-03 6.104494445025920868e-03 -1.697980612516403198e-02 1.017944980412721634e-02 -2.638196107000112534e-03 7.115489337593317032e-03 1.297726295888423920e-02 -3.777215024456381798e-03 8.129602298140525818e-03 1.936984062194824219e-02 3.462660685181617737e-02 2.409565960988402367e-03 8.263884228654205799e-04 -1.555205089971423149e-03 -3.570109605789184570e-02 -4.648429341614246368e-03 -2.419845201075077057e-02 3.092873282730579376e-02 1.563103683292865753e-02 -2.472479362040758133e-03 1.186743099242448807e-02 2.011350356042385101e-02 1.044718734920024872e-02 -9.845897555351257324e-02 -1.010147016495466232e-02 1.364425290375947952e-02 8.391169831156730652e-03 -5.444388370960950851e-04 2.440298441797494888e-03 2.701712772250175476e-02 -6.206215173006057739e-02 2.251172438263893127e-02 -3.949514403939247131e-02 6.885421462357044220e-04 -4.030439537018537521e-03 -1.315610297024250031e-02 1.466332469135522842e-02 4.459087271243333817e-03 1.226183585822582245e-02 2.255442552268505096e-02 3.198206797242164612e-02 -1.593117788434028625e-02 2.207533083856105804e-02 2.274499041959643364e-03 9.955436689779162407e-04 3.249707818031311035e-02 -3.428977355360984802e-02 -2.254039607942104340e-02 -2.896361798048019409e-02 2.236092928797006607e-03 2.129370346665382385e-02 2.911388501524925232e-02 2.409409172832965851e-02 7.930554449558258057e-03 2.797346375882625580e-02 -7.732204161584377289e-03 4.490001499652862549e-02 -2.954767842311412096e-05 1.330220489762723446e-03 -8.628792129456996918e-03 -8.307710289955139160e-03 1.980157196521759033e-02 1.574576273560523987e-02 2.510307170450687408e-02 7.448725402355194092e-03 -5.867636296898126602e-03 1.068787090480327606e-02 -5.066373385488986969e-03 1.102063804864883423e-03 1.946893706917762756e-02 -1.622281968593597412e-03
3.852061054203659296e-04 1.559902261942625046e-02 3.075852524489164352e-03 2.186997607350349426e-02 2.459996193647384644e-02 -7.138049229979515076e-03 2.332832291722297668e-02 -2.231173776090145111e-02 4.508066456764936447e-03 1.536946650594472885e-02 -9.895895607769489288e-03 1.410817261785268784e-02 -4.637535661458969116e-03 -9.101548232138156891e-03 2.872815169394016266e-02 -3.211034089326858521e-02 -1.910965773276984692e-03 -4.142648540437221527e-03 1.104718074202537537e-02 -2.563524991273880005e-02 1.531045883893966675e-02 6.346513517200946808e-03 6.438100244849920273e-03 2.572131110355257988e-03 2.089358121156692505e-02 -6.145213916897773743e-02 -8.126131724566221237e-04 2.822065539658069611e-02 -3.011310286819934845e-02 8.914731442928314209e-03 9.315541945397853851e-03 5.504950881004333496e-03 2.208075299859046936e-02 1.961347274482250214e-02 9.096498251892626286e-04 -1.038976851850748062e-02 1.634539477527141571e-02 2.419364266097545624e-02 2.475958876311779022e-02 3.172150254249572754e-02 9.370470419526100159e-03 -2.371149137616157532e-02 -2.377458615228533745e-03 -4.398638010025024414e-02 6.158906500786542892e-03 1.476139668375253677e-02 1.370001211762428284e-02 -4.837208613753318787e-02 2.112470380961894989e-02 -7.025467697530984879e-03 5.165054972167126834e-05 2.057319972664117813e-03 2.599618025124073029e-02 4.882384091615676880e-03 -1.293380744755268097e-02 -1.866972073912620544e-02 1.916229352355003357e-02 -5.986816249787807465e-03 -7.021777797490358353e-03 3.382921963930130005e-02 -1.143039856106042862e-02 -5.206699017435312271e-03 -4.182525724172592163e-02 -3.081805817782878876e-02 -3.667417215183377266e-03 3.805967280641198158e-03 -7.415249478071928024e-03 1.444642804563045502e-02 1.828913390636444092e-02 -3.119893837720155716e-03 -3.116705920547246933e-03 1.871542073786258698e-02 -1.211480982601642609e-02 2.562608569860458374e-02 -8.576608262956142426e-03 -3.445010632276535034e-02 5.741583649069070816e-03 -4.717738553881645203e-02 1.132880244404077530e-02 2.162776514887809753e-02 -1.880178786814212799e-02 1.864205300807952881e-02 1.464241277426481247e-02 -3.398156724870204926e-03 9.490010328590869904e-03 -1.133230328559875488e-02 2.559311315417289734e-02 3.469001501798629761e-02 1.438782643526792526e-02 3.405736386775970459e-02 -3.930857777595520020e-02 1.932160370051860809e-02 1.275362819433212280e-02 8.027620613574981689e-03 -6.143539678305387497e-03 3.199428319931030273e-02 2.458086982369422913e-02 -2.648762660101056099e-03 2.510000485926866531e-03 -6.947022862732410431e-03 -6.595638394355773926e-02 8.723437786102294922e-03 3.086550859734416008e-03 2.690955251455307007e-02 7.783237844705581665e-03 8.399700745940208435e-03 -6.775508169084787369e-03 1.629145257174968719e-02 3.222356364130973816e-02 -2.295855246484279633e-02 2.100789174437522888e-02 3.068066015839576721e-02 2.196025103330612183e-02 -5.671574268490076065e-03 1.803313195705413818e-02 -1.763564534485340118e-02 9.931415319442749023e-03 1.318456698209047318e-02 4.394695907831192017e-02 2.423449186608195305e-03 3.837147087324410677e-04 -7.138430606573820114e-03 4.825104959309101105e-03 7.838274352252483368e-03 1.159397140145301819e-02 2.370437048375606537e-02 -1.467091869562864304e-02 -1.314008515328168869e-02 -1.052226312458515167e-02 1.116901170462369919e-02 1.895848102867603302e-02 -3.501895815134048462e-02 1.449706684798002243e-02 6.189337931573390961e-03 4.799225833266973495e-03 -1.715758815407752991e-02 -2.852170029655098915e-03 1.931847259402275085e-02 -1.645002327859401703e-02 -2.788602374494075775e-02 2.412528544664382935e-02 1.412503793835639954e-02 4.734515212476253510e-03 1.423735055141150951e-03 3.394068405032157898e-02 -9.674307703971862793e-02 2.187803154811263084e-03 2.457478828728199005e-02 2.177787013351917267e-02 2.395575307309627533e-02 3.190519288182258606e-02 2.901772223412990570e-02 2.147370949387550354e-02 1.075396593660116196e-02 -1.987573690712451935e-02 -2.574751712381839752e-02 -1.453737821429967880e-02 1.095794979482889175e-02 2.376322448253631592e-02 2.382588945329189301e-02 1.639315485954284668e-02 1.828452199697494507e-02 1.222867704927921295e-02 1.702882722020149231e-02 1.094250846654176712e-02 3.234482835978269577e-03 2.095248177647590637e-02 6.648574490100145340e-03 4.235082119703292847e-02 -9.990241378545761108e-03 -1.289895735681056976e-02 5.106827709823846817e-03 2.302639186382293701e-03 -5.778993479907512665e-03 -1.631527324207127094e-03 8.550153113901615143e-03 -5.001733452081680298e-02 7.332088891416788101e-03 -2.095133066177368164e-03 9.796005673706531525e-03 3.218732401728630066e-02 1.882225833833217621e-02 -2.371130138635635376e-02 1.243865210562944412e-02 1.999307423830032349e-03 -2.362961322069168091e-02 2.777463011443614960e-02 -3.696665912866592407e-02 1.376873347908258438e-02 1.718091033399105072e-02 3.945079073309898376e-02 2.333561331033706665e-02 -2.578019537031650543e-02 2.645715698599815369e-02 1.724993064999580383e-02 3.092007944360375404e-03 6.483033648692071438e-04 6.905604619532823563e-03 5.760248750448226929e-03 -4.007826372981071472e-02 -1.606034929864108562e-04 -2.311822585761547089e-02 3.064621426165103912e-02 2.798125892877578735e-02 1.414741575717926025e-02 1.551481615751981735e-02 1.870549470186233521e-02 2.120614051818847656e-02 -9.575760364532470703e-02 6.071364041417837143e-03 2.700496651232242584e-02 2.160348370671272278e-02 7.437978405505418777e-03 1.116315461695194244e-02 1.979206129908561707e-02 -4.590557143092155457e-02 9.495951235294342041e-03 -3.015177324414253235e-02 1.902473904192447662e-02 1.603667810559272766e-02 -2.561792358756065369e-02 1.153950393199920654e-02 1.670109108090400696e-02 2.176643535494804382e-02 1.517747342586517334e-02 7.881445810198783875e-03 -6.595584563910961151e-03 2.823090553283691406e-02 -3.187824622727930546e-04 3.168876282870769501e-03 1.485244091600179672e-02 2.005035523325204849e-03 -1.555791124701499939e-02 5.855911877006292343e-03 2.818317152559757233e-02 1.259095314890146255e-02 3.263066336512565613e-02 -8.135505020618438721e-03 1.533954124897718430e-02 3.983291238546371460e-02 -3.870408609509468079e-02 -2.013077493757009506e-03 6.798887159675359726e-03 2.654835768043994904e-02 -2.588488720357418060e-02 1.069129537791013718e-02 2.784076705574989319e-02 1.691055949777364731e-03 8.731952868402004242e-03 2.019424550235271454e-02 1.197940111160278320e-02 1.671216264367103577e-02 1.628340966999530792e-02 2.916290611028671265e-02 4.166197776794433594e-02 1.348179299384355545e-02
2.087072655558586121e-02 8.298456668853759766e-03 -4.332680720835924149e-03 1.267657894641160965e-02 1.778935268521308899e-02 2.666298067197203636e-03 -1.479004044085741043e-02 -8.321751840412616730e-03 -8.884569630026817322e-03 -9.097802452743053436e-03 -4.504435136914253235e-02 1.604893431067466736e-02 -9.387643076479434967e-03 -4.275947867427021265e-04 8.698367513716220856e-03 -7.044039200991392136e-03 5.151541437953710556e-03 -8.559809997677803040e-03 -4.363768920302391052e-02 -1.081774756312370300e-02 -1.366411428898572922e-02 -3.413603827357292175e-02 1.524308114312589169e-03 6.288100499659776688e-03 5.241505801677703857e-02 1.180264353752136230e-02 -1.136567443609237671e-02 3.889877581968903542e-03 2.574311941862106323e-02 -1.408091746270656586e-03 -7.877359166741371155e-03 -8.284592069685459137e-03 4.143008496612310410e-03 -7.765579503029584885e-03 1.823933445848524570e-03 -1.447169925086200237e-03 2.256980165839195251e-02 -2.745722606778144836e-02 -4.192105680704116821e-02 1.735292933881282806e-02 -2.933288179337978363e-02 7.438612170517444611e-03 2.326110750436782837e-02 2.114047994837164879e-03 1.503241714090108871e-02 -1.801722124218940735e-02 1.167911663651466370e-02 -9.419587440788745880e-03 2.837527729570865631e-02 -9.372640401124954224e-03 4.360132850706577301e-03 -2.436698414385318756e-02 3.125770250335335732e-03 1.250375341624021530e-02 1.000599376857280731e-02 2.607564628124237061e-02 -1.389710418879985809e-02 5.297223106026649475e-03 -2.467133570462465286e-03 2.380857057869434357e-02 -7.474010926671326160e-04 -7.468039984814822674e-04 -7.035382091999053955e-03 -3.207602724432945251e-02 2.300295280292630196e-03 -8.040762506425380707e-03 4.275782965123653412e-03 6.037207785993814468e-03 -1.127479830756783485e-03 -6.790197920054197311e-03 3.208525246009230614e-03 -1.893130689859390259e-02 -2.032347582280635834e-02 1.880580745637416840e-02 1.463418453931808472e-02 -1.309616770595312119e-02 1.061423122882843018e-02 -1.083508785814046860e-02 -2.092726528644561768e-02 1.432465016841888428e-02 -1.885232399217784405e-03 -6.128360051661729813e-03 1.205264357849955559e-03 -2.726153656840324402e-02 9.519200772047042847e-03 1.055029314011335373e-02 2.707790024578571320e-02 1.799688301980495453e-02 1.353019569069147110e-02 -1.921726763248443604e-02 -2.877902006730437279e-03 -1.236694632098078728e-03 2.495349384844303131e-02 7.695820648223161697e-03 1.306312624365091324e-03 -2.188973873853683472e-02 -6.100154947489500046e-03 1.401150249876081944e-03 1.951872184872627258e-02 6.224941927939653397e-03 1.198130380362272263e-02 2.294176630675792694e-02 2.661391627043485641e-03 -2.727001719176769257e-02 1.824713498353958130e-02 -1.104652415961027145e-02 -1.827630773186683655e-02 -1.750944182276725769e-02 -1.912219822406768799e-02 -2.366170100867748260e-02 -1.531152287498116493e-03 1.236965693533420563e-02 1.445951499044895172e-02 1.130411401391029358e-02 -1.951205916702747345e-02 1.367229875177145004e-02 -1.670665293931961060e-02 1.695708371698856354e-02 8.979212492704391479e-03 -5.451441742479801178e-03 4.684136714786291122e-03 -2.145598409697413445e-03 -3.280160203576087952e-02 3.731599310413002968e-03 6.831856444478034973e-03 1.003712136298418045e-02 -2.776326984167098999e-02 -1.867135986685752869e-02 7.423919625580310822e-03 1.187446620315313339e-02 1.996748708188533783e-02 1.006992533802986145e-02 -1.680597476661205292e-02 2.562302164733409882e-02 -1.956288702785968781e-03 -7.627332117408514023e-03 1.150290714576840401e-03 -7.288993336260318756e-03 2.685609832406044006e-02 1.896433904767036438e-02 -1.460084877908229828e-02 -2.077943086624145508e-02 1.136940903961658478e-02 -1.386979315429925919e-02 2.105673588812351227e-02 1.008936669677495956e-03 -3.497675806283950806e-02 -9.947610087692737579e-03 -3.416358726099133492e-03 2.325052209198474884e-02 5.146704148501157761e-03 7.152457837946712971e-04 7.337747141718864441e-03 6.099483929574489594e-03 9.448110125958919525e-03 1.665676571428775787e-02 -9.649718180298805237e-03 1.966704986989498138e-02 9.065348654985427856e-03 2.588561363518238068e-02 3.961237519979476929e-02 4.151482135057449341e-03 2.234796248376369476e-02 5.359794944524765015e-03 1.467690058052539825e-02 -1.004138123244047165e-02 1.008258946239948273e-02 2.548529766499996185e-03 3.938874229788780212e-02 -5.344170494936406612e-04 -1.124382298439741135e-02 8.128899149596691132e-03 2.093741856515407562e-02 2.037793956696987152e-02 -3.267077356576919556e-02 -5.368907004594802856e-03 -2.471807971596717834e-02 -5.017167888581752777e-03 2.861255593597888947e-02 3.638688102364540100e-02 -2.884452790021896362e-02 -5.443530622869729996e-03 9.603846818208694458e-03 -1.488771568983793259e-02 -4.723427817225456238e-03 -1.758969039656221867e-03 9.625982493162155151e-03 -1.208393089473247528e-02 5.860272329300642014e-03 2.449392527341842651e-02 -2.219848148524761200e-02 6.645348388701677322e-03 -2.079837583005428314e-02 5.315934866666793823e-02 1.887432154035195708e-04 1.223229523748159409e-02 -2.609341219067573547e-02 1.124882139265537262e-02 7.494772318750619888e-03 -2.039732411503791809e-03 3.582515753805637360e-03 -2.827648259699344635e-02 -1.641513220965862274e-02 2.616736479103565216e-02 -5.661394447088241577e-03 1.102477218955755234e-02 4.074837546795606613e-03 2.671375311911106110e-02 -6.350612267851829529e-03 7.582995458506047726e-04 7.835292257368564606e-03 -2.790297567844390869e-02 2.631103619933128357e-02 3.507682587951421738e-03 -1.113968808203935623e-02 1.591801457107067108e-02 -1.384963095188140869e-02 1.174350734800100327e-02 9.196258150041103363e-03 4.875067621469497681e-03 -1.990169472992420197e-02 1.678195782005786896e-02 2.800838649272918701e-02 1.290541514754295349e-02 4.211541265249252319e-02 -1.604741252958774567e-02 -1.255342364311218262e-02 6.925679743289947510e-03 2.001139521598815918e-02 4.898929502815008163e-03 8.993694558739662170e-03 1.657901145517826080e-02 -1.248596422374248505e-02 -7.857648655772209167e-03 3.591424599289894104e-02 -4.277745727449655533e-03 2.284831739962100983e-02 -4.555670544505119324e-03 -4.954513628035783768e-03 4.281474277377128601e-02 -1.935101673007011414e-02 -4.056085366755723953e-03 1.875650882720947266e-02 1.118865609169006348e-02 2.772960113361477852e-03 -5.915509071201086044e-03 1.883929036557674408e-02 1.653691008687019348e-02 2.364282682538032532e-02 1.370291877537965775e-02 1.763448119163513184e-02 2.106697298586368561e-02 9.774323552846908569e-03 3.994874656200408936e-03 1.642476394772529602e-02 -2.978843636810779572e-02
-2.642902731895446777e-02 -3.460749983787536621e-02 2.446214901283383369e-03 1.792645081877708435e-02 1.573459059000015259e-02 1.409943681210279465e-02 -1.893349364399909973e-02 2.266851253807544708e-02 4.677746910601854324e-03 -9.755730628967285156e-03 -2.785163745284080505e-02 -7.819691672921180725e-03 -3.626250848174095154e-02 2.957315929234027863e-02 -5.485354457050561905e-03 -1.359983626753091812e-02 1.608313620090484619e-02 -1.656253822147846222e-02 -6.485278718173503876e-03 -2.272397838532924652e-02 -1.080909091979265213e-02 -1.336237136274576187e-02 -2.169438451528549194e-02 2.917929366230964661e-02 -4.410470370203256607e-03 2.642870321869850159e-02 -1.516885031014680862e-02 3.560857614502310753e-03 -1.400816906243562698e-02 7.852966897189617157e-03 -2.051288820803165436e-02 6.165932863950729370e-03 1.569455862045288086e-02 2.883277600631117821e-03 -1.593406312167644501e-02 -2.131177857518196106e-02 1.107042934745550156e-02 -2.031101472675800323e-02 1.111823832616209984e-03 3.067667409777641296e-02 -1.066217664629220963e-02 -2.266652509570121765e-02 2.991367690265178680e-02 -4.142967611551284790e-02 8.352168835699558258e-03 -3.089038189500570297e-03 -5.054478067904710770e-03 -9.765630587935447693e-03 -1.295818202197551727e-02 -2.740433206781744957e-03 3.579837968572974205e-03 -7.147398311644792557e-03 1.026572752743959427e-02 6.646574474871158600e-03 9.166884236037731171e-03 -2.387021854519844055e-02 5.615258589386940002e-03 9.926676284521818161e-04 3.320588544011116028e-02 7.056197617202997208e-03 1.575641566887497902e-03 5.879168957471847534e-02 -3.510081022977828979e-02 -4.819894675165414810e-03 -2.122384263202548027e-03 1.903818571008741856e-03 -1.214832440018653870e-02 1.413171458989381790e-02 1.723132282495498657e-02 -6.000455468893051147e-03 -7.193500641733407974e-03 -7.558447308838367462e-03 5.154891312122344971e-02 2.760369563475251198e-03 4.313433892093598843e-04 -3.402196615934371948e-02 1.995237171649932861e-02 1.835588924586772919e-02 -7.133319973945617676e-03 -1.848942483775317669e-03 -7.453342434018850327e-03 1.633020490407943726e-02 -7.025775848887860775e-04 -1.988489553332328796e-02 1.242725551128387451e-02 -1.722937449812889099e-04 9.545421227812767029e-03 9.693490341305732727e-03 2.973259892314672470e-03 8.730416186153888702e-03 8.130478672683238983e-03 3.213268006220459938e-03 -2.584084682166576385e-02 3.195228427648544312e-02 -1.986052282154560089e-02 -1.843735761940479279e-02 -2.166358381509780884e-02 2.751197852194309235e-02 1.388527825474739075e-02 8.838809444569051266e-04 -2.862092107534408569e-02 -7.901731878519058228e-03 1.906304061412811279e-02 4.636037920136004686e-04 -2.467139391228556633e-03 1.527237426489591599e-02 -6.784575060009956360e-03 -1.450032182037830353e-02 7.339924108237028122e-03 8.607611991465091705e-03 -1.180249918252229691e-02 8.756211958825588226e-03 3.923543263226747513e-03 8.832235820591449738e-03 -7.452962920069694519e-03 1.625711470842361450e-02 -4.938969854265451431e-03 3.044984769076108932e-03 1.381351030431687832e-03 -6.149819120764732361e-03 7.812742143869400024e-03 -1.275802683085203171e-02 2.240687375888228416e-03 -1.683800294995307922e-02 8.125774562358856201e-03 -4.041094798594713211e-03 -4.319831263273954391e-03 -1.700065843760967255e-02 2.513180673122406006e-02 2.220566384494304657e-02 -1.802723389118909836e-03 -1.042342372238636017e-02 1.509288232773542404e-02 -2.080638892948627472e-02 2.106940373778343201e-02 3.772283904254436493e-03 3.840795485302805901e-03 2.556958235800266266e-02 3.390843421220779419e-02 -5.044286139309406281e-03 -5.186224821954965591e-03 -1.857059448957443237e-02 2.285430766642093658e-02 -8.756330236792564392e-03 1.790151000022888184e-02 -2.082168497145175934e-02 -2.265170682221651077e-03 -4.394442308694124222e-03 3.544460237026214600e-02 1.929654367268085480e-02 7.977213710546493530e-03 -1.157539617270231247e-02 3.092441707849502563e-03 -3.137225285172462463e-02 -2.652443014085292816e-02 -1.595606282353401184e-02 -7.699578534811735153e-03 -2.532828226685523987e-02 1.065316796302795410e-02 5.488452501595020294e-03 -1.136707235127687454e-02 -4.829796380363404751e-04 1.082026958465576172e-02 1.566890068352222443e-02 1.304950285702943802e-02 3.819076716899871826e-02 6.960565689951181412e-03 5.537841096520423889e-02 7.406712975353002548e-03 1.973565435037016869e-03 2.710763178765773773e-02 3.002198226749897003e-02 -2.626648917794227600e-02 3.887769707944244146e-04 -2.356256591156125069e-03 2.363079041242599487e-02 3.688718751072883606e-02 3.095631487667560577e-03 -3.141972795128822327e-02 1.969605684280395508e-02 -8.224216289818286896e-03 1.271599158644676208e-02 3.191922605037689209e-02 -5.440471693873405457e-03 -2.936236374080181122e-02 3.570270910859107971e-02 7.770378142595291138e-03 -2.045382931828498840e-02 1.065358240157365799e-02 1.282019261270761490e-02 -2.286815457046031952e-02 3.581300843507051468e-03 -4.917856305837631226e-03 -2.911477582529187202e-03 -1.891052164137363434e-02 -4.141396656632423401e-02 -1.002722326666116714e-02 7.154641672968864441e-03 1.195880211889743805e-02 3.752018511295318604e-02 3.111372236162424088e-03 3.093326278030872345e-02 -1.047513168305158615e-02 -5.680968984961509705e-03 1.104560680687427521e-02 1.524329651147127151e-02 1.009702403098344803e-02 1.676459796726703644e-02 -2.610033191740512848e-02 2.579308114945888519e-03 -2.817361149936914444e-03 8.200897835195064545e-03 1.311220042407512665e-02 -4.876151215285062790e-04 -2.680657245218753815e-02 -3.974477003794163465e-04 3.782111033797264099e-02 2.378926984965801239e-02 1.708466373383998871e-02 1.950327865779399872e-02 4.271837882697582245e-03 -1.781528443098068237e-02 6.486782804131507874e-03 5.417744163423776627e-03 -2.646508393809199333e-03 1.592877693474292755e-02 3.660962358117103577e-02 -1.210930384695529938e-02 -1.434508338570594788e-02 1.884295046329498291e-02 4.374850541353225708e-02 2.222610637545585632e-02 2.961044572293758392e-02 1.985602825880050659e-02 -1.756278239190578461e-02 1.566299423575401306e-02 -2.792351646348834038e-03 2.589910849928855896e-02 -4.550866782665252686e-03 1.406739931553602219e-02 -2.668819203972816467e-02 2.636839263141155243e-02 -1.914299355121329427e-05 4.071820527315139771e-02 -2.930139191448688507e-03 -9.550952352583408356e-03 3.674718784168362617e-03 -2.067299745976924896e-02 -4.648907482624053955e-02 9.078093804419040680e-03 -1.145291421562433243e-02 -1.313914731144905090e-02 7.741963025182485580e-03 2.301278524100780487e-02 -4.913383349776268005e-02 -6.125233601778745651e-03
