1.536920759826898575e-02
-2.887657319661229849e-04
2.612811222206801176e-04
3.130101412534713745e-02
-5.609003710560500622e-04
-7.985585834830999374e-04
2.696315757930278778e-03
7.465588278137147427e-04
7.481197360903024673e-03
-5.740360356867313385e-03
1.239641010761260986e-02
3.488137945532798767e-02
2.382859215140342712e-02
8.886238560080528259e-03
-6.640696432441473007e-03
-4.701607394963502884e-04
-5.433614715002477169e-04
2.524443436414003372e-03
3.449088335037231445e-02
9.436327964067459106e-03
-1.570832543075084686e-02
-2.662178303580731153e-04
2.404286153614521027e-02
3.040429204702377319e-02
-4.522527742665261030e-04
-1.082709131878800690e-04
-3.002377634402364492e-04
3.144853934645652771e-02
-6.500552408397197723e-04
-5.354166496545076370e-04
-8.913606143323704600e-05
1.384814176708459854e-02
-1.016557682305574417e-02
1.701883971691131592e-02
3.082643961533904076e-03
2.743598073720932007e-02
-6.498167058452963829e-04
1.241530105471611023e-02
-3.775569493882358074e-04
-7.144351839087903500e-04
-2.553141384851187468e-04
1.432092953473329544e-02
-4.257396212778985500e-04
2.689338475465774536e-02
5.223755259066820145e-03
-6.660451763309538364e-04
-5.230419337749481201e-04
1.239695306867361069e-02
3.081683069467544556e-03
3.992346115410327911e-03
-7.386366487480700016e-04
-6.264923140406608582e-04
-6.474787951447069645e-04
-7.720398716628551483e-03
-3.319972602184861898e-04
7.244525942951440811e-03
1.788925752043724060e-02
3.298191726207733154e-02
-7.803079788573086262e-04
1.111434656195342541e-03
3.290409222245216370e-02
2.350993221625685692e-03
-4.490991996135562658e-04
2.551362477242946625e-02
-7.188054150901734829e-04
2.709794044494628906e-02
1.236504223197698593e-02
-3.273627953603863716e-04
7.612139452248811722e-03
-6.417224067263305187e-04
4.051314666867256165e-02
-1.328203920274972916e-02
1.285295654088258743e-02
4.144691303372383118e-02
9.819173719733953476e-04
4.505266249179840088e-02
3.264847397804260254e-02
-5.163269815966486931e-04
-8.722737431526184082e-03
9.522866457700729370e-03
1.786312833428382874e-02
4.072283208370208740e-02
-3.181030042469501495e-04
2.167176827788352966e-02
-6.982727791182696819e-04
-3.693472535815089941e-04
-6.489290390163660049e-04
7.622919976711273193e-03
8.117019198834896088e-03
6.635780446231365204e-03
4.003620706498622894e-03
5.229819566011428833e-03
-2.861430984921753407e-04
-2.203414216637611389e-03
-3.368578618392348289e-04
-7.036059396341443062e-04
2.435873262584209442e-03
-1.726316404528915882e-03
6.029747892171144485e-03
2.025147154927253723e-02
2.561429888010025024e-02
-2.000036765821278095e-04
5.431555211544036865e-03
1.158514060080051422e-02
-4.486938996706157923e-04
3.216194361448287964e-02
-2.070017391815781593e-03
4.386328160762786865e-03
-3.549072134774178267e-04
-6.188548286445438862e-04
-2.207973302574828267e-04
-2.046834270004183054e-04
-4.992770846001803875e-04
5.130071192979812622e-03
-4.197352391202002764e-04
3.394750179722905159e-03
3.809369867667555809e-03
1.447429601103067398e-02
-1.110123377293348312e-02
2.649034745991230011e-02
-4.144244885537773371e-04
3.364057047292590141e-04
1.811805926263332367e-02
2.176775969564914703e-02
-6.892119534313678741e-03
-3.340254188515245914e-04
1.719731488265097141e-03
-9.389783954247832298e-04
-3.974051796831190586e-04
1.687466166913509369e-02
-6.683771498501300812e-04
1.004537474364042282e-02
6.922724191099405289e-03
1.741064153611660004e-02
3.341118618845939636e-02
8.132411749102175236e-04
-4.396111762616783381e-04
4.417546559125185013e-03
-1.724852772895246744e-04
-3.919438167940825224e-04
-1.089664641767740250e-02
-6.409428548067808151e-03
8.805525489151477814e-03
2.545722527429461479e-04
2.047995803877711296e-03
-3.939492744393646717e-04
-1.238145027309656143e-02
3.381599439308047295e-03
-5.473686615005135536e-04
8.391194976866245270e-03
-6.987878121435642242e-03
2.044180221855640411e-02
2.221298031508922577e-02
3.261038661003112793e-02
-1.762763247825205326e-03
-6.543147610500454903e-04
2.348139882087707520e-03
3.045369521714746952e-04
-4.395639407448470592e-04
2.888623625040054321e-02
4.588628187775611877e-03
6.362239830195903778e-03
5.572353838942945004e-04
3.627032274380326271e-03
-1.980900851776823401e-04
3.989548236131668091e-02
1.272988505661487579e-02
-1.208670809864997864e-02
-2.827936084941029549e-03
-1.961302384734153748e-02
2.504926547408103943e-02
-1.532797759864479303e-04
-3.886456252075731754e-04
3.704347182065248489e-03
1.234915340319275856e-03
2.469887956976890564e-02
-1.177849899977445602e-02
1.182742603123188019e-02
-4.775774141307920218e-04
4.342064261436462402e-02
7.176866754889488220e-03
3.586734086275100708e-02
-6.491857115179300308e-03
1.478620246052742004e-02
9.513998404145240784e-03
-4.402577760629355907e-04
-9.249143186025321484e-04
1.865465752780437469e-02
-1.319414470344781876e-02
-8.595361141487956047e-04
6.110937800258398056e-03
-4.609811585396528244e-04
6.367876660078763962e-03
-7.231311756186187267e-04
1.464573200792074203e-02
1.537302508950233459e-02
1.533763599582016468e-03
2.559319883584976196e-02
-1.456788450013846159e-04
8.089435286819934845e-03
-3.433540987316519022e-04
-3.073090687394142151e-03
6.760817952454090118e-03
8.405304513871669769e-03
-4.598693922162055969e-04
2.102604694664478302e-02
-4.406887455843389034e-04
2.506862767040729523e-02
-4.052270087413489819e-04
3.569238260388374329e-02
-4.710038774646818638e-04
8.237763307988643646e-03
2.762363664805889130e-02
-5.112107610329985619e-04
1.300521427765488625e-03
6.512799300253391266e-03
2.844527596607804298e-03
-2.550615172367542982e-04
-3.001265286002308130e-04
5.473567172884941101e-03
-7.361876778304576874e-03
-4.057815822307020426e-04
-4.678471013903617859e-04
-3.977440064772963524e-04
1.191512565128505230e-03
2.034047618508338928e-02
4.218061454594135284e-03
-9.383207187056541443e-03
-2.739707415457814932e-04
-5.758006009273231030e-04
-6.802312564104795456e-04
6.041844375431537628e-03
4.991278983652591705e-03
6.075284909456968307e-03
2.940653357654809952e-03
-6.033785757608711720e-04
1.543497759848833084e-02
-4.657737445086240768e-04
6.732086185365915298e-03
7.158817723393440247e-03
2.774776890873908997e-03
-3.905070247128605843e-03
7.058811839669942856e-03
-3.638813213910907507e-04
-4.330897354520857334e-04
2.674170210957527161e-02
-9.269032743759453297e-04
1.757484395056962967e-03
-4.909932613372802734e-04
-6.852529477328062057e-04
5.469524301588535309e-03
-4.508346901275217533e-04
-4.384913481771945953e-04
1.423622760921716690e-02
3.304750844836235046e-02
7.728526834398508072e-03
