-7.963734865188598633e-01
-3.121536970138549805e-02
-3.002694342285394669e-03
-3.002661280333995819e-03
-1.004324078559875488e+00
2.818352222442626953e+00
-3.002717625349760056e-03
-8.719912916421890259e-02
-3.002656390890479088e-03
-3.002496901899576187e-03
9.122754335403442383e-01
7.741078734397888184e-02
-3.002729499712586403e-03
1.229617834091186523e+00
-3.002330427989363670e-03
1.227016329765319824e+00
7.711181640625000000e+00
-1.695935986936092377e-02
5.881901383399963379e-01
9.415797591209411621e-01
2.438631057739257812e+00
-3.002694575116038322e-03
-3.002396551892161369e-03
-3.002607729285955429e-03
-3.002668032422661781e-03
2.370909452438354492e+00
-3.002567915245890617e-03
-3.002246608957648277e-03
-3.002705750986933708e-03
-3.002610756084322929e-03
-3.002429381012916565e-03
2.337982654571533203e+00
2.504730224609375000e+00
3.783214092254638672e+00
-3.002625890076160431e-03
-3.002239158377051353e-03
-3.002737881615757942e-03
-3.001250093802809715e-03
-1.638835906982421875e+00
-3.002736717462539673e-03
-3.002695739269256592e-03
-7.588302493095397949e-01
2.840593099594116211e+00
-3.002724144607782364e-03
3.948798775672912598e-01
-3.002586076036095619e-03
-3.002726472914218903e-03
-3.002293873578310013e-03
-3.002723446115851402e-03
-4.612653851509094238e-01
-3.002685727551579475e-03
-3.002533456310629845e-03
-3.002661978825926781e-03
3.738432645797729492e+00
-1.070493221282958984e+00
-3.002730663865804672e-03
-3.000215394422411919e-03
-3.002703655511140823e-03
1.191327214241027832e+00
1.508929371833801270e+00
-3.002729499712586403e-03
-3.002672223374247551e-03
1.241539835929870605e+00
-3.002548357471823692e-03
3.770806789398193359e+00
-3.002742305397987366e-03
-3.002698300406336784e-03
5.175770521163940430e-01
-3.002602839842438698e-03
5.659155845642089844e+00
-3.002714598551392555e-03
1.083991408348083496e+00
-3.002675948664546013e-03
-3.002703655511140823e-03
1.834609173238277435e-02
-3.002689918503165245e-03
1.240727782249450684e+00
-3.002605168148875237e-03
-2.818766355514526367e+00
-3.002676414325833321e-03
1.995262384414672852e+00
-3.002634504809975624e-03
-3.002577228471636772e-03
-3.002651967108249664e-03
6.497726917266845703e+00
-3.000298282131552696e-03
-3.002728335559368134e-03
5.264812111854553223e-01
-3.002689685672521591e-03
1.064396500587463379e+00
1.476517200469970703e+00
5.279795527458190918e-01
-3.002525074407458305e-03
-3.002708544954657555e-03
1.776980042457580566e+00
6.495450139045715332e-01
2.311454296112060547e+00
-3.159998893737792969e+00
-3.002567449584603310e-03
7.428717017173767090e-01
-3.002702957019209862e-03
-3.002610756084322929e-03
3.869171857833862305e+00
-3.000580472871661186e-03
-3.001120174303650856e-03
8.920410871505737305e-01
-3.002722049131989479e-03
-3.002635436132550240e-03
-7.780685275793075562e-02
-3.002667101100087166e-03
5.750948190689086914e-01
7.819851875305175781e+00
3.143020391464233398e+00
1.766459465026855469e+00
8.870446085929870605e-01
-3.002673853188753128e-03
8.376487731933593750e+00
1.226785778999328613e+00
-3.002678742632269859e-03
1.080795407295227051e+00
-3.002741606906056404e-03
7.472565770149230957e-01
9.837002307176589966e-02
-3.002729034051299095e-03
1.362596035003662109e+00
1.515744686126708984e+00
-3.002664539963006973e-03
1.495547533035278320e+00
-3.002613317221403122e-03
-3.002728801220655441e-03
-3.002590499818325043e-03
9.878994822502136230e-01
-3.002490382641553879e-03
-2.777849197387695312e+00
3.889283835887908936e-01
-3.002672921866178513e-03
4.027513980865478516e+00
7.192865848541259766e+00
-3.002593759447336197e-03
-3.002675483003258705e-03
-3.002739278599619865e-03
1.133019402623176575e-01
-3.002713434398174286e-03
-5.759883403778076172e+00
2.087951153516769409e-01
3.816693782806396484e+00
-3.002672223374247551e-03
-3.002731129527091980e-03
1.360169291496276855e+00
1.764251232147216797e+00
-3.002723911777138710e-03
4.763987362384796143e-01
8.626738786697387695e-01
-1.896960020065307617e+00
-3.002609359100461006e-03
-3.002690849825739861e-03
-3.002715529873967171e-03
-3.002596320584416389e-03
7.487180233001708984e-01
7.559058666229248047e-01
-3.002384211868047714e-03
-3.002723911777138710e-03
-3.002370242029428482e-03
-3.002683399245142937e-03
-3.002621233463287354e-03
3.861602306365966797e+00
2.634872913360595703e+00
1.590873122215270996e+00
-3.002650802955031395e-03
-3.002142067998647690e-03
-3.002729034051299095e-03
5.248848915100097656e+00
-3.002224257215857506e-03
-3.113861322402954102e+00
-3.002732526510953903e-03
-3.002732060849666595e-03
-2.998183248564600945e-03
1.137836575508117676e+00
1.042147517204284668e+00
-3.002419136464595795e-03
-3.002694109454751015e-03
4.157565832138061523e-01
-3.320185184478759766e+00
1.162291169166564941e+00
1.620725154876708984e+00
-3.002670826390385628e-03
-3.002726705744862556e-03
-5.079932212829589844e-01
2.633799791336059570e+00
8.436720967292785645e-01
-3.002688288688659668e-03
3.475961923599243164e+00
1.016260623931884766e+00
1.337047457695007324e+00
-4.324287176132202148e-01
7.930233955383300781e+00
1.018060326576232910e+00
-3.002689452841877937e-03
4.397961616516113281e+00
-3.002737881615757942e-03
-3.002594923600554466e-03
2.527100801467895508e+00
-3.002695972099900246e-03
9.598093032836914062e-01
-3.002670826390385628e-03
-3.002707846462726593e-03
-3.002742072567343712e-03
3.972118854522705078e+00
-3.002560464665293694e-03
-3.002627985551953316e-03
1.745767354965209961e+00
-3.002718789502978325e-03
1.088758230209350586e+00
1.400817871093750000e+00
-3.002737881615757942e-03
2.204223632812500000e+00
9.289686083793640137e-01
-3.002694109454751015e-03
5.810523509979248047e+00
1.412602424621582031e+00
2.587046027183532715e-01
-3.002681769430637360e-03
6.744124889373779297e+00
1.023632049560546875e+00
-3.002676879987120628e-03
1.553135216236114502e-01
-3.002066863700747490e-03
-3.002563724294304848e-03
-3.002719720825552940e-03
8.442037701606750488e-01
-3.002713667228817940e-03
-3.002712503075599670e-03
-3.002739045768976212e-03
-2.959339141845703125e+00
1.429850220680236816e+00
-3.002738580107688904e-03
-3.002720186486840248e-03
2.383156299591064453e+00
-3.002685029059648514e-03
3.398388862609863281e+00
-3.002715995535254478e-03
-3.002732526510953903e-03
-1.669221222400665283e-01
4.973085880279541016e+00
2.246108531951904297e+00
-3.002702491357922554e-03
5.168520927429199219e+00
-3.002654993906617165e-03
-3.002261975780129433e-03
-3.002417506650090218e-03
-3.002543235197663307e-03
-3.002062207087874413e-03
1.637242794036865234e+00
-3.002708312124013901e-03
-3.000967670232057571e-03
1.798872947692871094e+00
