-1.506891474127769470e-02 1.188519224524497986e-02 -2.444805949926376343e-02 -1.199997495859861374e-02 1.972248405218124390e-02 2.806345000863075256e-02 5.718223284929990768e-03 -4.689331632107496262e-03 -1.159481331706047058e-02 -6.838142871856689453e-03 2.847501821815967560e-02 6.300124805420637131e-04 -6.806971039623022079e-03 -3.854551166296005249e-02 -8.157882257364690304e-04 4.385220259428024292e-02 6.490683881565928459e-04 -8.738141041249036789e-04 4.232461797073483467e-04 -3.353461250662803650e-02 4.474561661481857300e-02 -2.447719452902674675e-04 -2.759953215718269348e-02 -3.342941775918006897e-02 6.033420213498175144e-04 4.402009071782231331e-04 2.233602292835712433e-02 -5.774249788373708725e-03 8.297077729366719723e-04 -5.181950982660055161e-04 3.153038560412824154e-04 2.309841290116310120e-02 7.572336588054895401e-03 -1.427720580250024796e-02 -6.237815134227275848e-03 3.207536041736602783e-02 1.180642633698880672e-03 8.105591405183076859e-06 -2.815803745761513710e-04 8.436760399490594864e-04 9.559455793350934982e-04 1.894119754433631897e-02 9.163460694253444672e-03 6.100469618104398251e-04 -6.462772376835346222e-03 -5.061777192167937756e-04 2.101643197238445282e-02 5.942774587310850620e-04 -2.994943037629127502e-02 -5.028063314966857433e-04 7.969745434820652008e-03 4.486137477215379477e-04 -6.039066938683390617e-04 -2.452239859849214554e-04 -9.394166991114616394e-04 1.185413333587348461e-03 -5.148630007170140743e-04 -1.195781491696834564e-02 1.404288876801729202e-02 3.213540650904178619e-03 -5.495806690305471420e-03 1.168158720247447491e-03 -6.757761351764202118e-03 -1.436776854097843170e-02 -2.236793190240859985e-02 -6.758311763405799866e-03 1.145721413195133209e-02 8.879733650246635079e-05 -1.813912764191627502e-02 5.273861461319029331e-04 2.593883685767650604e-02 -8.913342608138918877e-04 3.746377769857645035e-04 3.731210483238101006e-03 -1.101538725197315216e-02 -1.603926904499530792e-02 -3.547812625765800476e-02 -1.423921342939138412e-02 -5.548084154725074768e-04 -1.862188056111335754e-02 -7.815208518877625465e-04 2.404825016856193542e-02 -1.653920480748638511e-04 -2.309966273605823517e-02 -8.789328858256340027e-03 2.852982841432094574e-02 -5.381680675782263279e-04 1.330540399067103863e-04 2.463687397539615631e-02 1.997495419345796108e-04 5.101360729895532131e-04 1.361408550292253494e-02 3.638735786080360413e-02 2.764785103499889374e-02 -1.611276384210214019e-04 6.130416295491158962e-05 2.739418123383074999e-04 -2.485196478664875031e-02 7.713563274592161179e-03 4.738619178533554077e-02 1.189398579299449921e-02 3.711240424308925867e-04 8.112894283840432763e-05 -2.188894577557221055e-04 1.735964324325323105e-04 -4.525184631347656250e-03 1.744835055433213711e-03 -4.670975249609909952e-05 -2.172361873090267181e-02 -2.280671149492263794e-03 3.934221604140475392e-05 -2.732055960223078728e-03 -3.620677161961793900e-03 9.246021509170532227e-04 6.445270776748657227e-02 -4.778356815222650766e-04 2.004997245967388153e-02 1.225089374929666519e-02 -3.104573115706443787e-02 -5.906593869440257549e-04 1.722320914268493652e-02 -1.264575496315956116e-02 -1.868605799973011017e-02 -4.397325590252876282e-02 2.016936661675572395e-03 -1.010899432003498077e-03 9.438020177185535431e-03 1.528729312121868134e-02 1.208821777254343033e-04 -1.093230239348486066e-04 -5.972400307655334473e-03 -8.038391388254240155e-05 8.958927355706691742e-03 -8.254230488091707230e-05 -2.219364605844020844e-02 2.984789607580751181e-04 -7.271138019859790802e-04 6.885746028274297714e-03 -1.076464727520942688e-02 -2.144834026694297791e-02 2.984080230817198753e-03 -2.214502019342035055e-04 -2.822268579620867968e-04 -3.346089506521821022e-03 8.087495807558298111e-04 -1.214832533150911331e-02 3.447741270065307617e-02 3.997687716037034988e-03 5.115297064185142517e-02 -1.211111620068550110e-02 -1.995161583181470633e-04 -1.714837923645973206e-02 1.089774887077510357e-03 -2.192165469750761986e-03 1.058856304734945297e-02 -3.776304947677999735e-04 -1.075666048564016819e-03 -5.784584791399538517e-04 -3.323692828416824341e-02 -2.440571406623348594e-04 7.060772040858864784e-04 -1.527746301144361496e-02 -2.796209044754505157e-02 -4.210546030662953854e-04 3.092117607593536377e-02 -8.347471593879163265e-04 -1.635563746094703674e-02 -1.706550456583499908e-02 1.102391257882118225e-02 1.239440962672233582e-02 -1.825614273548126221e-02 -3.934318572282791138e-02 1.782976277172565460e-02 2.167418785393238068e-02 -6.657471414655447006e-03 1.884831726783886552e-04 -3.720496781170368195e-03 1.568030565977096558e-02 -2.895148936659097672e-04 -9.754095663083717227e-05 -1.384930656058713794e-04 2.389987639617174864e-04 -1.697324588894844055e-02 -1.270754449069499969e-02 -9.757190942764282227e-03 5.352169275283813477e-03 6.945417262613773346e-03 -1.123782247304916382e-02 -3.716785460710525513e-03 2.760290354490280151e-02 -7.915661670267581940e-03 -1.490776427090167999e-02 3.607613965868949890e-03 -1.025083241984248161e-03 2.703685313463211060e-04 -1.022343873046338558e-03 -6.697313860058784485e-03 7.480047643184661865e-03 -1.631913910387083888e-04 9.783438872545957565e-04 1.084752730093896389e-03 3.726770228240638971e-05 -9.917086921632289886e-03 6.197704467922449112e-03 1.133252028375864029e-02 -5.683114868588745594e-04 -1.966289710253477097e-05 -1.290193013846874237e-02 2.445566002279520035e-03 3.225630894303321838e-02 1.110985316336154938e-02 5.416080728173255920e-02 5.605734186246991158e-04 -7.377709698630496860e-05 -1.378190238028764725e-03 -4.267786571290344000e-04 -1.502425502985715866e-02 1.493922754889354110e-04 3.067950904369354248e-02 -9.843294974416494370e-04 -4.847093659918755293e-04 3.770059347152709961e-02 3.663252282422035933e-04 1.513968800281872973e-05 6.904367357492446899e-03 4.704173770733177662e-04 -6.745131686329841614e-03 1.895530894398689270e-02 -3.243573382496833801e-02 2.704443468246608973e-04 -5.553295370191335678e-03 -2.199625968933105469e-02 -3.335049550514668226e-04 5.940567934885621071e-04 1.571297459304332733e-02 6.396785378456115723e-03 -3.233040496706962585e-02 -1.612937822937965393e-02 7.961622322909533978e-04 -1.506851240992546082e-02 -2.209290862083435059e-02 -1.649779267609119415e-02 -2.064336836338043213e-02 1.459210179746150970e-04 -9.819473780225962400e-05 -2.794764004647731781e-02 1.098642405122518539e-02 8.568643592298030853e-03 -1.026600971817970276e-02 -2.604012750089168549e-02 1.463251002132892609e-02 3.153489087708294392e-04 -1.693665166385471821e-03 1.149744074791669846e-02 -3.197807120159268379e-03 -7.575240451842546463e-03
2.043887972831726074e-03 1.511043985374271870e-03 3.869556635618209839e-02 -1.361580006778240204e-02 8.150634355843067169e-03 -3.945849835872650146e-02 -5.006836727261543274e-04 2.246501483023166656e-02 -8.892245590686798096e-03 -4.384658485651016235e-02 -1.996530592441558838e-02 -3.724098205566406250e-02 -7.173979654908180237e-03 1.995467394590377808e-02 1.977496576728299260e-04 3.070572763681411743e-02 -2.289133379235863686e-03 3.215634205844253302e-04 3.332950582262128592e-04 3.486323356628417969e-02 2.956282347440719604e-03 -8.558412082493305206e-04 3.640160709619522095e-02 2.821520529687404633e-02 9.509202209301292896e-05 -1.245993043994531035e-04 1.006136741489171982e-02 -9.918235242366790771e-03 -8.286823867820203304e-04 2.378395874984562397e-04 3.458090068306773901e-04 -3.327320516109466553e-02 6.170500814914703369e-02 4.032430239021778107e-03 1.318588573485612869e-02 1.362708676606416702e-02 -4.915947560220956802e-03 5.104268202558159828e-04 -8.298220927827060223e-05 -6.918894941918551922e-04 5.287571111693978310e-04 6.447914522141218185e-03 8.302561007440090179e-03 1.779594167601317167e-04 9.070811793208122253e-03 1.590125495567917824e-03 -3.010559082031250000e-02 9.152105776593089104e-04 -1.220872439444065094e-02 3.668688004836440086e-04 -5.980884190648794174e-03 4.629303293768316507e-04 9.165802039206027985e-04 -1.037508016452193260e-03 5.998333217576146126e-04 -6.159313488751649857e-03 -4.012719364254735410e-05 5.134756676852703094e-03 1.570586487650871277e-02 2.394125051796436310e-02 2.490449137985706329e-02 -1.824425719678401947e-02 -1.389480661600828171e-03 -1.776852458715438843e-02 1.836338342400267720e-04 -2.331342780962586403e-03 2.878516213968396187e-03 6.802353891544044018e-04 1.969790458679199219e-02 -7.168010924942791462e-04 -4.680208861827850342e-02 -5.093542276881635189e-04 5.970918209641240537e-05 3.658155677840113640e-03 1.917978003621101379e-02 8.501480519771575928e-02 1.930643618106842041e-02 4.493510816246271133e-03 4.482780641410499811e-04 -2.638863225001841784e-04 -5.817979108542203903e-04 -1.984263071790337563e-03 5.829428555443882942e-04 -9.156731888651847839e-03 1.111822482198476791e-02 1.480556838214397430e-02 8.368968265131115913e-04 -4.736107075586915016e-04 -1.270436868071556091e-02 -4.540717345662415028e-04 -9.606236708350479603e-04 -8.147804997861385345e-03 4.502916336059570312e-02 -9.437635540962219238e-03 -2.386045962339267135e-04 -5.010326276533305645e-04 -6.566945103259058669e-07 -7.770115043967962265e-03 -1.062715239822864532e-02 8.915799669921398163e-03 -1.014064764603972435e-03 4.229178011883050203e-04 6.812244537286460400e-04 -9.809381299419328570e-05 6.552216946147382259e-04 -2.730920352041721344e-02 4.460237175226211548e-02 -3.048724320251494646e-04 -8.516739122569561005e-03 1.114710350520908833e-03 1.817131298594176769e-03 -2.899342216551303864e-02 3.928849939256906509e-03 1.033642794936895370e-02 2.704805694520473480e-03 2.500141970813274384e-02 1.583697460591793060e-02 9.114648215472698212e-03 6.109726428985595703e-02 3.804097650572657585e-04 -1.604806073009967804e-02 2.557636052370071411e-02 1.483752205967903137e-02 4.401543736457824707e-02 1.785697974264621735e-02 -3.589143161661922932e-04 -1.300595887005329132e-02 1.246748771518468857e-02 3.376483800821006298e-04 1.858661271398887038e-04 -1.587442122399806976e-02 8.001662790775299072e-04 -1.564603066071867943e-03 1.074535539373755455e-03 -2.896503778174519539e-03 1.876271999208256602e-04 4.971834132447838783e-04 -5.362520925700664520e-03 1.727626845240592957e-02 -6.649628281593322754e-02 -1.752226729877293110e-03 6.419007549993693829e-04 9.957159636542201042e-05 4.718078300356864929e-02 -4.863148787990212440e-04 2.417119778692722321e-02 5.017000064253807068e-02 2.016914263367652893e-02 1.429836172610521317e-02 -2.532297931611537933e-02 2.956696413457393646e-02 -1.072548911906778812e-03 2.298586623510345817e-04 8.335867896676063538e-03 -4.337765276432037354e-03 -9.693163883639499545e-05 -7.487662136554718018e-02 -2.568006311776116490e-05 5.603424087166786194e-02 -1.561112148920074105e-04 1.389585342258214951e-02 1.375515293329954147e-02 -2.094598673284053802e-02 -3.456500172615051270e-02 -4.856882616877555847e-02 2.844861010089516640e-04 5.682231858372688293e-03 5.602158606052398682e-02 4.512702301144599915e-02 2.000243589282035828e-02 -4.642165452241897583e-02 2.654624357819557190e-02 2.568548917770385742e-02 -1.430381089448928833e-02 -1.089476142078638077e-02 -1.435637095710262656e-04 -2.470596460625529289e-03 -1.718405284918844700e-03 -9.292383911088109016e-04 -1.359973335638642311e-03 -1.078299595974385738e-03 -1.080757007002830505e-03 -7.466997951269149780e-02 -6.891720928251743317e-03 8.318380569107830524e-04 1.617142930626869202e-02 2.198334224522113800e-02 2.872467786073684692e-02 -1.481418125331401825e-02 3.590138163417577744e-03 -1.289842929691076279e-02 1.224409905262291431e-03 -5.087618157267570496e-02 -4.365172644611448050e-04 -1.030507381074130535e-03 -5.324857193045318127e-04 -2.664444735273718834e-03 -7.875360461184754968e-05 6.281074020080268383e-04 -5.237125878920778632e-05 1.837525283917784691e-03 1.294686808250844479e-04 5.415600258857011795e-03 -3.193255048245191574e-03 4.957326129078865051e-02 7.232250180095434189e-03 -3.245413827244192362e-04 8.735111914575099945e-03 -4.063220112584531307e-04 2.891236171126365662e-02 -5.331117287278175354e-02 2.545864507555961609e-02 -1.828132010996341705e-02 -4.233402432873845100e-04 2.063468843698501587e-02 -2.788009494543075562e-02 -4.282785579562187195e-03 -4.939584177918732166e-04 2.363280206918716431e-02 -2.552832011133432388e-04 -6.160565535537898540e-04 1.656672172248363495e-02 1.897318637929856777e-03 1.011678134091198444e-03 1.842340454459190369e-02 4.953829920850694180e-04 4.190974310040473938e-02 1.225411612540483475e-02 8.416019380092620850e-03 -3.218359127640724182e-02 5.169468466192483902e-03 3.705432638525962830e-02 2.331566647626459599e-04 1.596218498889356852e-04 2.888338454067707062e-02 3.632935509085655212e-02 2.731659915298223495e-03 -4.651785362511873245e-03 2.521534916013479233e-04 -1.913451589643955231e-02 2.043537795543670654e-02 7.855076342821121216e-03 -2.451056614518165588e-02 -1.705350150587037206e-04 -2.389380533713847399e-04 -4.172968119382858276e-02 -1.299441698938608170e-02 -2.678477577865123749e-02 -6.451053544878959656e-03 1.348111499100923538e-02 -8.558635599911212921e-03 -4.003530484624207020e-04 6.215616315603256226e-02 1.849524793215095997e-03 1.128477044403553009e-03 -1.854440383613109589e-02
1.221790537238121033e-02 3.098142566159367561e-03 -5.421195179224014282e-03 -5.276221781969070435e-02 -4.624689742922782898e-02 3.730781003832817078e-02 2.280709519982337952e-02 3.028460487257689238e-04 -5.384295806288719177e-02 -1.074958033859729767e-02 1.990507356822490692e-02 1.104937773197889328e-02 1.519756508059799671e-03 2.261521294713020325e-02 2.089893096126616001e-04 -3.317390754818916321e-02 2.101557515561580658e-02 -1.354275882476940751e-04 6.381303537636995316e-04 2.701519988477230072e-02 -3.349852515384554863e-03 -3.655267937574535608e-04 8.380781859159469604e-03 2.602533809840679169e-02 -6.223620730452239513e-04 2.251986297778785229e-04 -2.358597330749034882e-02 6.261027418076992035e-03 3.058927250094711781e-04 9.278900106437504292e-04 -1.170909854408819228e-06 2.302797883749008179e-02 -1.474763359874486923e-02 3.214753791689872742e-02 -1.657692156732082367e-02 -1.331547833979129791e-02 -6.324789137579500675e-04 5.836935015395283699e-04 3.386972530279308558e-04 1.268369960598647594e-04 -6.853326922282576561e-04 2.964160637930035591e-03 2.139870449900627136e-02 -9.959989693015813828e-04 1.425835117697715759e-02 3.424564420129172504e-05 -5.390764400362968445e-02 5.691935257345903665e-06 4.072673991322517395e-02 -7.272287039086222649e-04 -9.372539818286895752e-03 -1.188892474601743743e-05 4.519601911306381226e-02 1.846715458668768406e-04 4.751256201416254044e-04 -1.811386086046695709e-02 -1.830473920563235879e-04 -1.435353071428835392e-03 -3.001783229410648346e-02 -3.781224135309457779e-03 2.473973482847213745e-02 -1.628527231514453888e-02 9.280708618462085724e-03 -4.166967794299125671e-02 7.300215307623147964e-03 -8.012514561414718628e-03 -1.881226152181625366e-02 4.853728169109672308e-04 -7.028348743915557861e-02 2.590912336017936468e-04 1.809154404327273369e-03 -3.172015422023832798e-04 3.743888519238680601e-04 -5.101764947175979614e-02 -1.938924379646778107e-02 1.972190663218498230e-02 1.151374820619821548e-02 -8.973822928965091705e-03 -8.007415453903377056e-04 1.518728584051132202e-02 1.017182134091854095e-03 -6.126308441162109375e-02 -2.654985873959958553e-04 1.239756867289543152e-02 -5.055462568998336792e-02 -5.173633340746164322e-03 -2.072501729344367050e-06 1.998481107875704765e-03 1.122327148914337158e-02 3.369795449543744326e-04 6.283662514761090279e-04 -6.376127246767282486e-03 5.297766532748937607e-03 -4.400676116347312927e-02 3.620982461143285036e-04 -3.110227116849273443e-04 2.087568136630579829e-04 -1.439728122204542160e-02 -2.205221541225910187e-02 6.992519367486238480e-03 4.294435959309339523e-03 1.657158863963559270e-04 6.786698213545605540e-05 -2.629192895255982876e-04 -4.693630617111921310e-04 3.113812208175659180e-02 -8.899837732315063477e-03 6.218167254701256752e-04 2.283439226448535919e-02 3.096766583621501923e-02 -8.001109235920011997e-04 1.062962505966424942e-02 2.134923561243340373e-04 2.090700715780258179e-02 9.003414772450923920e-03 -3.619506955146789551e-03 2.118689008057117462e-02 -6.677543744444847107e-03 8.598082698881626129e-03 -6.386528839357197285e-04 -1.868718490004539490e-02 -6.067274603992700577e-03 -4.618759080767631531e-02 7.869654335081577301e-03 -3.752048360183835030e-04 -1.602938937139697373e-06 -1.332857832312583923e-02 2.424779115244746208e-03 2.504441363271325827e-04 -1.355620188405737281e-04 -2.982246130704879761e-02 -2.543992013670504093e-04 9.307825006544589996e-03 -7.639575051143765450e-04 -3.828229755163192749e-02 -9.567731176503002644e-04 3.351445775479078293e-04 1.379742659628391266e-02 -3.918963950127363205e-03 -1.330308266915380955e-03 1.553470268845558167e-02 -4.465398669708520174e-04 2.414092159597203135e-04 9.164205752313137054e-03 -4.397237498778849840e-04 1.486635953187942505e-02 4.455378744751214981e-03 -2.691357024013996124e-02 4.467535018920898438e-02 -1.875041052699089050e-02 2.061236184090375900e-03 -4.959550872445106506e-02 1.864411315182223916e-04 1.601643860340118408e-02 -6.485027819871902466e-02 -2.567977207945659757e-05 2.078172005712985992e-02 5.586909828707575798e-04 -3.214504197239875793e-02 -2.866680733859539032e-04 -1.770260743796825409e-02 5.927009508013725281e-03 6.393717229366302490e-02 -7.310931105166673660e-03 -6.193141918629407883e-03 -2.191089588450267911e-04 -1.008525118231773376e-02 4.853436723351478577e-02 3.346137527842074633e-04 -2.889350615441799164e-02 1.878659613430500031e-02 3.714406862854957581e-02 1.107440609484910965e-02 -1.246408745646476746e-02 -4.703305661678314209e-02 9.352982742711901665e-04 -2.998332493007183075e-02 -1.332833059132099152e-02 -4.012204008176922798e-04 3.193125303369015455e-04 9.409784106537699699e-04 -5.726988893002271652e-04 -1.339559536427259445e-02 1.149725820869207382e-02 2.085292711853981018e-02 -5.817551165819168091e-02 -4.941831156611442566e-02 -1.880899071693420410e-03 -1.499441172927618027e-02 -3.214543452486395836e-03 5.629177205264568329e-03 -2.841393090784549713e-02 2.394695533439517021e-03 -2.266803785460069776e-04 -5.685262731276452541e-04 1.930085818457882851e-05 3.144161030650138855e-02 2.986751729622483253e-03 -6.357781239785254002e-04 9.590238914825022221e-04 -4.487620294094085693e-02 6.519222515635192394e-04 -1.244697440415620804e-02 -9.029095061123371124e-03 1.996717648580670357e-03 1.149311754852533340e-02 2.439705713186413050e-04 6.314950063824653625e-03 -7.620985270477831364e-04 6.231659092009067535e-03 -6.001514848321676254e-03 -1.694980822503566742e-02 9.779624640941619873e-03 -1.369830803014338017e-03 -1.531944690214004368e-05 2.432072069495916367e-03 2.485723607242107391e-02 -8.062521374085918069e-05 4.082105681300163269e-02 7.282667211256921291e-04 -3.092547412961721420e-04 2.328506298363208771e-02 -8.992083603516221046e-04 2.441355900373309851e-04 -2.244330756366252899e-02 3.842456499114632607e-04 -6.514845788478851318e-02 -4.703168943524360657e-02 3.084713406860828400e-02 -2.190176164731383324e-03 3.569642826914787292e-02 1.831521652638912201e-02 -5.551603389903903008e-04 5.144804599694907665e-04 9.602081775665283203e-02 -1.403060555458068848e-02 -2.568616159260272980e-02 3.215566650032997131e-02 -6.596783641725778580e-04 -4.452944546937942505e-02 6.627030670642852783e-02 -1.553323119878768921e-02 4.578114673495292664e-02 5.272262205835431814e-05 2.082908904412761331e-04 -2.035100199282169342e-02 2.084683813154697418e-02 -3.199936449527740479e-02 -1.420580036938190460e-02 1.941102818818762898e-04 -6.192076019942760468e-03 5.275434814393520355e-04 1.561598852276802063e-02 -2.100162394344806671e-02 6.732312031090259552e-03 2.409251965582370758e-02
-5.439520627260208130e-02 -4.546960070729255676e-02 2.949437312781810760e-02 1.856547663919627666e-03 3.311955556273460388e-02 -2.827714011073112488e-02 -5.615567788481712341e-03 -5.520336329936981201e-02 1.086396723985671997e-02 1.773699186742305756e-02 -2.093265205621719360e-02 -2.007915452122688293e-02 -1.486791204661130905e-02 -2.978744544088840485e-02 2.089191228151321411e-03 -2.923065423965454102e-02 1.884750463068485260e-02 -7.223259308375418186e-04 1.517053169663995504e-04 -2.715585380792617798e-02 3.154165344312787056e-03 -4.724420068669132888e-05 -8.313379250466823578e-03 3.732695803046226501e-02 -7.210746844066306949e-05 1.123881665989756584e-03 -1.473946776241064072e-02 1.191673707216978073e-02 -4.531791091721970588e-06 -3.445184265729039907e-04 6.503209588117897511e-04 -2.385596185922622681e-02 -3.792554885149002075e-02 3.731908649206161499e-02 3.121082112193107605e-02 1.000265404582023621e-02 3.191584348678588867e-02 -1.509537833044305444e-05 4.398553573992103338e-04 -3.227202978450804949e-04 2.887775772251188755e-04 -1.681332127191126347e-03 4.117216542363166809e-02 -1.045055338181555271e-03 2.416942454874515533e-02 1.088522258214652538e-03 9.662845171988010406e-03 -1.751896459609270096e-03 3.780695842579007149e-03 1.760176673997193575e-04 3.661854937672615051e-02 2.514461812097579241e-04 -8.735561743378639221e-03 -4.749906074721366167e-04 -4.374543495941907167e-04 2.050893567502498627e-02 1.216046803165227175e-04 -2.748965844511985779e-02 3.799002617597579956e-02 1.662685163319110870e-02 -1.791712455451488495e-02 -4.395036026835441589e-02 -2.970423549413681030e-02 -2.769372239708900452e-02 4.197939112782478333e-02 9.049481712281703949e-03 -3.005040064454078674e-02 -3.258238430134952068e-04 -3.403799235820770264e-02 -4.140466917306184769e-04 3.797750547528266907e-02 -4.603069683071225882e-04 2.651196155056823045e-05 -1.879994384944438934e-02 1.591760851442813873e-02 -2.980797737836837769e-02 -3.847486525774002075e-02 7.971390150487422943e-03 1.466029207222163677e-04 1.821175566874444485e-03 2.204874617746099830e-04 3.811438754200935364e-02 -7.537113851867616177e-04 -1.558911055326461792e-02 -2.241508848965167999e-02 -5.103846546262502670e-03 -4.063305095769464970e-04 -7.481026841560378671e-05 5.672872997820377350e-03 -6.103285122662782669e-04 3.859651915263384581e-04 -2.056579105556011200e-03 -7.397654931992292404e-03 4.005090519785881042e-02 -1.030669300234876573e-04 -6.248409627005457878e-04 -6.867670454084873199e-04 2.325575053691864014e-02 7.930366322398185730e-03 -2.828836673870682716e-03 -5.494715645909309387e-03 6.687419954687356949e-04 -9.370488114655017853e-04 -3.086848882958292961e-04 5.673097330145537853e-04 -1.750807836651802063e-02 2.226367592811584473e-02 1.492406590841710567e-04 -1.452141208574175835e-03 -5.168824456632137299e-03 -1.422489294782280922e-04 4.622395150363445282e-03 -3.358999267220497131e-02 -1.893800497055053711e-02 2.320680022239685059e-02 4.595256596803665161e-02 -8.870046585798263550e-03 2.064575068652629852e-02 3.606449067592620850e-02 -2.825423434842377901e-04 -9.930993430316448212e-03 2.818378992378711700e-02 -2.528580464422702789e-02 -5.024997889995574951e-02 5.276066064834594727e-02 1.329097547568380833e-03 1.428176742047071457e-02 1.460970006883144379e-02 -5.441398243419826031e-04 -5.057156668044626713e-04 6.033400818705558777e-02 4.733636742457747459e-04 2.574337832629680634e-02 -3.701973182614892721e-04 -5.318111181259155273e-02 -3.172621945850551128e-04 1.454067882150411606e-03 -1.116640400141477585e-03 7.113977801054716110e-03 -1.486490853130817413e-02 -1.830376870930194855e-02 7.755761616863310337e-04 -2.306992391822859645e-04 -2.806408330798149109e-02 -2.760679053608328104e-04 4.773509688675403595e-03 -1.118617504835128784e-02 -8.199337124824523926e-02 1.946797221899032593e-02 3.379259258508682251e-02 2.504895441234111786e-03 1.213523745536804199e-02 6.491977837868034840e-04 -1.620462909340858459e-02 -4.488002508878707886e-02 3.692538302857428789e-04 -3.711307421326637268e-02 -5.933084175921976566e-04 2.536630071699619293e-02 -5.939361290074884892e-04 -2.140205912292003632e-02 1.581683009862899780e-02 4.452556371688842773e-02 3.161892667412757874e-02 -8.027737960219383240e-03 1.205463893711566925e-03 -5.604103952646255493e-02 2.297131530940532684e-02 4.329245071858167648e-03 2.664427459239959717e-02 -4.169466719031333923e-02 -4.939218051731586456e-04 -1.337978988885879517e-02 -2.341948915272951126e-03 -2.857125923037528992e-02 -6.022861343808472157e-04 -3.814953938126564026e-02 -2.520516328513622284e-02 2.177603309974074364e-04 -7.873621070757508278e-04 4.383202758617699146e-04 1.168612216133624315e-04 -1.021463889628648758e-03 -2.355075255036354065e-02 2.383250929415225983e-02 -2.775402553379535675e-02 2.528332732617855072e-02 1.291498774662613869e-03 2.574637718498706818e-02 -6.388340843841433525e-04 4.834650456905364990e-02 5.573635920882225037e-03 -4.677380621433258057e-02 9.600920020602643490e-05 -5.322047509253025055e-04 3.540499019436538219e-04 -2.389632724225521088e-02 -1.792396418750286102e-02 7.076970068737864494e-04 1.982858811970800161e-04 2.043187990784645081e-02 8.086483576335012913e-04 3.191807493567466736e-02 1.955328695476055145e-02 1.964125409722328186e-02 -4.885635804384946823e-03 -9.411739301867783070e-05 -1.695312932133674622e-02 5.221523315412923694e-05 -2.016073092818260193e-03 -5.072998628020286560e-02 -1.196227269247174263e-03 6.768880877643823624e-03 -2.650985843501985073e-04 -1.238181162625551224e-02 1.281863544136285782e-02 4.073611646890640259e-02 -1.050941995345056057e-03 -6.404764484614133835e-03 -4.874914011452347040e-04 6.264145486056804657e-04 1.336118113249540329e-02 -2.014353376580402255e-04 -5.518578109331429005e-04 2.313807420432567596e-02 6.997058517299592495e-04 -9.501246735453605652e-03 5.773092154413461685e-03 -5.170514062047004700e-02 -2.611111290752887726e-02 3.117919340729713440e-02 1.190998475067317486e-03 8.893971971701830626e-05 1.417560997651889920e-04 1.110880449414253235e-02 1.706793345510959625e-02 4.632045701146125793e-02 1.341633033007383347e-02 3.034600231330841780e-04 1.486295182257890701e-02 -1.654689200222492218e-02 3.123685531318187714e-02 -1.657398231327533722e-02 -1.156933838501572609e-03 1.930062280735000968e-04 -1.419960428029298782e-02 4.330330993980169296e-03 -3.341783583164215088e-02 2.632003463804721832e-02 1.452446822077035904e-02 2.463860809803009033e-02 2.679988683667033911e-04 1.311695948243141174e-02 -5.779997631907463074e-02 -2.904267795383930206e-02 1.564300619065761566e-02
3.948387876152992249e-02 1.408311352133750916e-02 -3.731571882963180542e-02 6.507484707981348038e-03 -3.311907872557640076e-02 9.406188130378723145e-02 -7.431766018271446228e-03 -2.315994910895824432e-02 4.277937859296798706e-02 1.075205672532320023e-02 -3.192475438117980957e-02 1.091510206460952759e-01 2.926067821681499481e-02 -4.344181716442108154e-02 -8.726824889890849590e-04 2.637420967221260071e-02 4.002090543508529663e-02 -4.473245644476264715e-04 8.255254942923784256e-05 -1.965600997209548950e-02 -2.460920586599968374e-05 9.461031877435743809e-04 1.166950460174120963e-04 5.333733744919300079e-03 4.635635414160788059e-04 5.506335874088108540e-04 -5.067154299467802048e-03 -2.411635965108871460e-02 4.093295719940215349e-04 1.124145928770303726e-03 -8.721648482605814934e-04 -5.077911540865898132e-02 2.457949332892894745e-02 7.604948244988918304e-03 -1.087795011699199677e-02 1.491431053727865219e-02 -3.438665298745036125e-03 -6.967709050513803959e-04 -1.877530012279748917e-04 1.398578984662890434e-03 1.036626053974032402e-03 -5.567139945924282074e-03 -4.489784687757492065e-02 -2.087571047013625503e-04 1.614221185445785522e-02 -2.848822041414678097e-04 3.493436379358172417e-03 3.418368869461119175e-04 3.919576108455657959e-02 3.736969083547592163e-04 2.297229506075382233e-02 5.820529186166822910e-04 -2.917467430233955383e-02 4.672950890380889177e-04 -4.101461672689765692e-04 -9.659806266427040100e-03 3.042402968276292086e-04 -5.628309445455670357e-04 3.075947752222418785e-03 -1.233684364706277847e-02 5.312423454597592354e-04 -1.412792690098285675e-02 2.962253801524639130e-02 3.081237897276878357e-03 -4.740995063912123442e-05 -1.107681263238191605e-02 -1.714042574167251587e-02 -8.423544932156801224e-04 1.262136921286582947e-02 -4.193828499410301447e-05 -8.723227679729461670e-02 -1.961677335202693939e-04 -7.876149611547589302e-04 2.171783894300460815e-02 4.099928587675094604e-02 -2.820821106433868408e-02 -2.630360051989555359e-02 -2.523759845644235611e-03 1.954925828613340855e-04 -1.429327181540429592e-03 4.624325083568692207e-05 3.138934075832366943e-02 1.737745333230122924e-04 -4.344853013753890991e-02 -6.511963158845901489e-02 -1.476047374308109283e-02 5.613618995994329453e-04 3.783144347835332155e-04 -4.972597584128379822e-03 1.489429734647274017e-03 -1.630245387786999345e-04 -7.000521291047334671e-03 2.702165581285953522e-02 1.030371263623237610e-01 -4.034088487969711423e-05 4.900797503069043159e-04 -4.111543821636587381e-04 -2.620227402076125145e-03 -2.697304263710975647e-02 -1.005943678319454193e-02 -1.164589077234268188e-03 -4.654670192394405603e-04 1.121888984926044941e-03 1.888439437607303262e-04 1.485085813328623772e-04 3.989934548735618591e-02 -5.373208224773406982e-02 -1.051469080266542733e-04 -4.784769844263792038e-03 -9.180888533592224121e-03 -1.890021303552202880e-05 -1.758575439453125000e-02 5.434327572584152222e-02 3.127175942063331604e-02 3.284833952784538269e-02 5.892837047576904297e-02 -4.462056234478950500e-02 3.253883495926856995e-02 2.216847147792577744e-03 5.160330329090356827e-04 2.434823848307132721e-02 2.210492081940174103e-02 -2.810745034366846085e-03 -4.112784564495086670e-02 6.455776095390319824e-02 9.885533945634961128e-04 8.486567437648773193e-02 3.656303137540817261e-02 1.152060460299253464e-03 -1.137226819992065430e-03 -2.877457067370414734e-02 -6.097831064835190773e-04 -4.011350497603416443e-02 8.217265130952000618e-04 -3.283203393220901489e-02 3.342263225931674242e-04 2.211942482972517610e-04 6.320750806480646133e-03 9.506884962320327759e-03 5.108807981014251709e-02 7.841311395168304443e-03 -6.431913352571427822e-04 -1.173730241134762764e-03 1.210134755820035934e-02 -4.252993676345795393e-04 -1.951950043439865112e-02 -2.924154512584209442e-02 2.763371728360652924e-02 1.381343696266412735e-02 1.717657782137393951e-02 -1.125024352222681046e-02 -1.890505664050579071e-02 4.419203032739460468e-04 8.527200669050216675e-03 3.651012480258941650e-02 7.876438321545720100e-04 1.026551797986030579e-02 3.925082273781299591e-04 1.432795915752649307e-02 5.309379776008427143e-04 5.785542353987693787e-02 1.708731241524219513e-02 2.140202000737190247e-02 -1.546333171427249908e-02 1.342588383704423904e-02 2.326658723177388310e-04 -1.679151318967342377e-02 3.887834772467613220e-02 -1.837548241019248962e-02 -7.504059467464685440e-03 -1.359932310879230499e-02 -3.194083273410797119e-02 1.449927967041730881e-02 5.516796372830867767e-03 -7.505910098552703857e-02 -4.243551666149869561e-05 -5.693599209189414978e-02 -1.832523010671138763e-02 -1.711175536911468953e-05 2.544714661780744791e-04 1.858145114965736866e-04 -3.069006779696792364e-04 3.994993865489959717e-02 -9.042694233357906342e-03 -2.595104044303297997e-03 1.788342557847499847e-02 6.786391139030456543e-02 -1.057931594550609589e-02 3.807013109326362610e-02 6.950072478502988815e-03 -1.237816456705331802e-02 -2.159261330962181091e-02 -4.724203050136566162e-02 2.955315576400607824e-04 1.002138451440259814e-04 -9.365470614284276962e-04 2.197927562519907951e-03 -5.794832110404968262e-02 2.020507672568783164e-04 4.034382436657324433e-05 -3.125046193599700928e-02 -8.759452612139284611e-04 2.938930876553058624e-02 4.119142889976501465e-02 1.255187112838029861e-02 1.461092103272676468e-02 7.680845446884632111e-04 1.257230527698993683e-02 1.159380655735731125e-03 3.901620162650942802e-03 -3.985029458999633789e-02 -3.726156800985336304e-02 -1.282730256207287312e-03 -3.093095729127526283e-04 -3.326635807752609253e-02 6.217998638749122620e-02 -4.615283757448196411e-02 1.203823630930855870e-04 1.799942925572395325e-03 6.668018177151679993e-04 6.395303644239902496e-04 8.012313395738601685e-03 -1.221008860738947988e-04 -7.801035826560109854e-05 -9.127931669354438782e-03 -9.282091195927932858e-05 -3.205018863081932068e-02 -2.612689277157187462e-03 1.829393766820430756e-02 2.012222632765769958e-02 -1.430517900735139847e-02 -5.876655224710702896e-03 -1.760234590619802475e-04 9.787308954400941730e-05 1.101558655500411987e-01 4.728203639388084412e-03 1.410981756635010242e-03 4.878338426351547241e-03 5.972078070044517517e-04 -6.811668630689382553e-03 2.835703082382678986e-02 -1.133225392550230026e-02 6.412541866302490234e-02 3.118935564998537302e-04 5.753753794124349952e-05 -1.976785250008106232e-03 -1.180850621312856674e-02 -3.271200880408287048e-02 -3.817601874470710754e-02 -7.272936403751373291e-03 -5.263933911919593811e-03 1.300503034144639969e-03 1.813873648643493652e-02 -2.651263400912284851e-02 -6.344543071463704109e-04 3.083038702607154846e-02
-4.361147806048393250e-02 1.064927224069833755e-02 -7.257904391735792160e-03 2.384326048195362091e-02 3.236955776810646057e-02 1.495841983705759048e-02 4.768189042806625366e-03 2.337545342743396759e-02 4.351299256086349487e-03 1.469282247126102448e-02 -1.865000813268125057e-03 -5.322381108999252319e-02 3.268127096816897392e-03 -9.926759637892246246e-03 3.543408238328993320e-04 -5.826713889837265015e-02 -3.533633193001151085e-03 -6.223997916094958782e-04 7.145579438656568527e-04 -5.040113255381584167e-02 3.242293000221252441e-02 -2.893193450290709734e-04 5.657725036144256592e-03 -3.844917938113212585e-02 1.071986276656389236e-03 2.744263292697723955e-05 7.115449290722608566e-03 -1.101389527320861816e-02 -1.285983016714453697e-03 -2.560724969953298569e-04 -3.155985323246568441e-04 5.410980433225631714e-02 1.794432173483073711e-03 2.661778591573238373e-02 -2.572526782751083374e-02 7.455420680344104767e-03 -2.539873123168945312e-02 2.749519480857998133e-04 -8.798147318884730339e-04 4.432758723851293325e-04 1.298026472795754671e-04 -1.397353317588567734e-02 -1.908787153661251068e-02 -2.346855035284534097e-04 1.259581185877323151e-02 -1.181436819024384022e-03 -4.258952289819717407e-02 5.566936451941728592e-04 -5.891913082450628281e-03 9.711755410535261035e-05 -7.627995684742927551e-03 1.003976911306381226e-03 7.191684562712907791e-03 -6.409910274669528008e-04 1.050465274602174759e-03 7.979173213243484497e-03 -7.506672991439700127e-04 -1.063953526318073273e-02 -1.029575895518064499e-02 3.309905901551246643e-02 2.189103979617357254e-03 2.536172280088067055e-03 2.666963264346122742e-02 -4.948022216558456421e-02 2.269636280834674835e-02 -9.877991862595081329e-03 -1.996121741831302643e-02 -3.075370041187852621e-04 -1.025936659425497055e-02 -8.487208397127687931e-04 -3.303385525941848755e-02 -2.035393990809097886e-04 -1.808111555874347687e-04 -5.884959828108549118e-03 -8.516379632055759430e-03 -1.740870438516139984e-02 5.850195419043302536e-03 -5.783820524811744690e-03 4.454790905583649874e-04 -9.766708128154277802e-03 4.346528439782559872e-04 -1.126664970070123672e-02 -8.083793800324201584e-04 -2.588008716702461243e-02 2.706137672066688538e-02 -1.584444008767604828e-02 -8.234444521804107353e-07 -5.285613005980849266e-04 5.330142565071582794e-03 1.465525710955262184e-03 -4.570041201077401638e-04 -1.506237545982003212e-03 -3.883812204003334045e-02 1.654484122991561890e-02 4.314559628255665302e-04 3.567598178051412106e-04 9.867862099781632423e-04 -9.015061892569065094e-03 -9.709792211651802063e-03 6.968582049012184143e-03 1.154084573499858379e-03 6.060505402274429798e-04 -4.031711432617157698e-05 -1.065373537130653858e-03 6.875258404761552811e-04 -5.048191174864768982e-03 -2.801520377397537231e-02 -3.650394501164555550e-05 -1.358543895184993744e-02 1.903477869927883148e-02 -7.382149342447519302e-04 -1.164144370704889297e-02 -2.320189587771892548e-02 1.808685995638370514e-02 9.025095961987972260e-03 8.739205077290534973e-04 -1.290293224155902863e-02 -2.678255178034305573e-02 7.449554279446601868e-03 -5.118413828313350677e-04 -1.419954840093851089e-02 7.417169399559497833e-03 3.332654014229774475e-02 -4.664203524589538574e-02 1.570393703877925873e-02 -1.240335172042250633e-03 -1.950237085111439228e-03 1.496309880167245865e-03 6.524337222799658775e-04 -5.570229041040875018e-05 4.676504991948604584e-03 -4.876021121162921190e-04 5.810472648590803146e-03 -5.529492045752704144e-04 -1.490079425275325775e-02 -3.833099035546183586e-04 6.151074194349348545e-04 -2.621929161250591278e-02 3.545203432440757751e-02 1.011528540402650833e-02 -1.951439044205471873e-04 -1.936581829795613885e-04 -6.358957616612315178e-04 5.510727874934673309e-03 2.049815975624369457e-06 -2.289369143545627594e-02 -4.220135882496833801e-02 -8.772180229425430298e-02 -1.339989807456731796e-02 3.761614859104156494e-02 -3.654344473034143448e-03 -1.491983328014612198e-02 6.363561842590570450e-04 3.715184284374117851e-03 -4.535102285444736481e-03 1.307454425841569901e-03 1.197427976876497269e-02 8.398710633628070354e-05 3.056166134774684906e-02 9.153329301625490189e-05 2.139594638720154762e-03 3.849364817142486572e-02 2.367680659517645836e-03 8.129109628498554230e-03 -2.653222344815731049e-02 -7.669700607948470861e-06 -2.745969966053962708e-02 3.397930786013603210e-02 3.694207593798637390e-02 2.604565769433975220e-02 3.701614588499069214e-02 1.651502400636672974e-02 -3.485634922981262207e-02 -9.333972819149494171e-03 1.305940374732017517e-02 -1.809188252082094550e-04 -5.559042468667030334e-02 -2.154534868896007538e-02 2.109570195898413658e-04 -2.301940694451332092e-04 -4.224076983518898487e-04 -4.095425829291343689e-04 3.734820336103439331e-02 -2.628077007830142975e-02 -3.698968514800071716e-02 1.025569625198841095e-02 7.576446048915386200e-03 3.138007968664169312e-02 -1.544680166989564896e-02 -1.237343717366456985e-02 -4.533293470740318298e-02 4.291127994656562805e-02 1.304461248219013214e-02 5.775140016339719296e-04 -1.077738939784467220e-03 -4.336873826105147600e-04 -5.075383931398391724e-02 -1.574586145579814911e-02 1.516168704256415367e-04 -3.648539495770819485e-05 1.885939389467239380e-02 1.912678126245737076e-04 -1.404027547687292099e-02 -1.738933846354484558e-02 4.684973880648612976e-02 1.025365293025970459e-02 -1.627982856007292867e-04 7.416805718094110489e-03 3.892697859555482864e-04 -2.140541188418865204e-02 6.239069998264312744e-02 -2.007625438272953033e-02 -2.883171662688255310e-03 -5.299042677506804466e-04 -1.051418762654066086e-02 1.664830371737480164e-02 -2.244567126035690308e-02 -4.844529939873609692e-06 3.401255235075950623e-02 -3.048747021239250898e-04 -1.188492169603705406e-03 1.529329642653465271e-02 1.840221229940652847e-04 4.794521082658320665e-04 7.658649701625108719e-03 -5.970418569631874561e-04 -7.092809770256280899e-03 -3.898559138178825378e-02 -4.435130103956907988e-04 -1.321887597441673279e-02 -3.823054209351539612e-02 7.029983215034008026e-03 1.179972095997072756e-04 4.863869689870625734e-04 -5.962659604847431183e-03 1.483859959989786148e-02 -1.007511746138334274e-02 2.129182964563369751e-02 -3.595183079596608877e-04 3.269495815038681030e-02 -3.520880639553070068e-02 1.223518420010805130e-02 -3.069210983812808990e-02 -3.937085566576570272e-04 1.642712973989546299e-03 -1.219276636838912964e-01 1.435706112533807755e-02 5.001276731491088867e-02 -2.147567830979824066e-02 -1.395554747432470322e-02 7.064194884151220322e-03 -1.015798188745975494e-03 2.062547393143177032e-02 -5.292452988214790821e-04 8.493538945913314819e-03 1.242570299655199051e-02
5.588675383478403091e-03 -3.446048498153686523e-02 3.550819819793105125e-03 4.914647433906793594e-03 -3.127343719825148582e-03 -1.121921092271804810e-02 1.842279359698295593e-02 -1.266550272703170776e-02 2.542737685143947601e-02 8.857313543558120728e-03 -5.258098244667053223e-02 3.732648910954594612e-04 1.369985751807689667e-03 2.434103190898895264e-02 1.358921581413596869e-04 -4.854963347315788269e-02 1.174046285450458527e-02 1.534290204290300608e-04 -2.214128326158970594e-04 5.450495518743991852e-03 5.155316088348627090e-03 9.242291562259197235e-04 -1.214680355042219162e-02 1.243425346910953522e-02 5.110484780743718147e-04 -5.978395929560065269e-04 2.232092199847102165e-03 -7.629936560988426208e-03 3.226617991458624601e-05 -5.724232178181409836e-04 8.043009438551962376e-05 -4.330746829509735107e-02 1.436917018145322800e-02 -2.902800031006336212e-02 -7.008471060544252396e-03 1.245149318128824234e-02 2.942079911008477211e-03 -6.605513044632971287e-05 1.317856822424801067e-05 1.109546865336596966e-04 -2.776402689050883055e-04 2.556684613227844238e-02 8.849888108670711517e-03 6.309841410256922245e-04 -1.370687596499919891e-02 9.354635258205235004e-04 -9.981031529605388641e-03 2.457652299199253321e-04 -1.326081901788711548e-02 1.874016452347859740e-04 -7.678583264350891113e-03 6.108479574322700500e-04 2.238468825817108154e-02 -6.673656753264367580e-04 7.589423912577331066e-04 -8.658855222165584564e-03 -6.369417533278465271e-04 -8.549029007554054260e-03 1.932094432413578033e-02 -2.700952813029289246e-03 -2.927851304411888123e-02 -3.676362568512558937e-03 2.306856401264667511e-02 2.727352082729339600e-03 1.224985625594854355e-02 -1.222922094166278839e-02 -1.233277376741170883e-02 -2.785254619084298611e-04 -1.138228736817836761e-02 3.965314317611046135e-05 -9.140606969594955444e-03 -6.852830993011593819e-04 1.221635611727833748e-03 1.312218420207500458e-02 -2.454790659248828888e-02 2.361455559730529785e-02 2.231340110301971436e-02 -1.063753385096788406e-02 1.590390747878700495e-04 3.562880679965019226e-02 1.108523341827094555e-03 -1.289237756282091141e-02 -1.077132066711783409e-03 1.385943870991468430e-02 -1.209269557148218155e-02 2.783343940973281860e-02 2.763390366453677416e-04 -5.150074721314013004e-04 1.578424498438835144e-02 2.940428676083683968e-04 6.243994575925171375e-04 4.325912892818450928e-02 4.557434935122728348e-03 -1.397416368126869202e-02 -2.939091937150806189e-04 1.386599033139646053e-04 1.071758801117539406e-03 -1.031288120429962873e-04 -3.299367427825927734e-02 1.311400160193443298e-02 -1.220585429109632969e-03 1.352421240881085396e-04 9.224523091688752174e-05 -5.928608006797730923e-04 7.421932423312682658e-06 8.500131778419017792e-03 -2.919455617666244507e-02 8.800143259577453136e-04 -5.303331185132265091e-03 2.854904532432556152e-02 -1.047044526785612106e-03 2.217186056077480316e-02 -1.113103050738573074e-02 2.050049602985382080e-02 -1.337322127074003220e-02 -4.304650053381919861e-02 3.905616758856922388e-04 -2.722449041903018951e-02 2.960535325109958649e-02 3.868878993671387434e-04 2.196694537997245789e-02 1.533524505794048309e-02 3.965963143855333328e-03 9.263525716960430145e-03 -3.085723333060741425e-02 1.380206900648772717e-03 -1.578815281391143799e-02 9.300318546593189240e-03 -1.002712087938562036e-04 -6.674174801446497440e-04 1.287576556205749512e-02 -3.637769841589033604e-04 3.202835563570261002e-03 1.284025842323899269e-03 -1.747129485011100769e-02 -1.713946840027347207e-04 4.012160061392933130e-04 1.443532109260559082e-02 1.478332467377185822e-02 1.416471321135759354e-02 1.938914880156517029e-02 4.396612348500639200e-04 3.592589928302913904e-04 9.824666194617748260e-03 8.808681741356849670e-04 -1.445958111435174942e-02 -5.572234466671943665e-02 -1.140036340802907944e-02 -7.299188524484634399e-02 9.913867339491844177e-03 2.022922039031982422e-02 2.458047121763229370e-02 9.647459955886006355e-04 1.664193905889987946e-02 -1.472126320004463196e-02 -5.564959719777107239e-04 3.449970856308937073e-02 -3.804650623351335526e-04 1.476656459271907806e-02 1.731838565319776535e-03 -2.241758257150650024e-02 -1.278064679354429245e-03 -1.270834635943174362e-02 3.570248838514089584e-03 -1.671452261507511139e-02 -3.556733872756012715e-06 2.702970430254936218e-02 1.600548438727855682e-02 5.065293982625007629e-03 -4.614743404090404510e-03 3.089040331542491913e-02 4.821082577109336853e-02 -3.362963721156120300e-02 3.649684041738510132e-02 -6.394310388714075089e-03 1.766831883287522942e-05 -1.639546826481819153e-02 -2.682246081531047821e-02 1.478239137213677168e-04 -4.995508352294564247e-04 6.431960500776767731e-04 2.166767226299270988e-04 -1.377157750539481640e-03 -1.534632127732038498e-02 -1.773824915289878845e-02 1.570768840610980988e-02 9.968880563974380493e-03 8.800101466476917267e-03 -1.298960018903017044e-02 2.998630143702030182e-02 -2.297567389905452728e-02 1.263263076543807983e-02 -3.680420666933059692e-02 2.407148858765140176e-04 8.132102666422724724e-04 9.735084022395312786e-04 -3.020814619958400726e-02 2.912801876664161682e-02 -1.728244096739217639e-04 -5.414083134382963181e-04 -5.609259475022554398e-03 1.168450689874589443e-03 -1.480653882026672363e-02 4.047427326440811157e-03 -1.447328366339206696e-02 1.085106842219829559e-02 -1.456680620322003961e-04 1.828361302614212036e-02 1.556006318423897028e-04 -8.569368161261081696e-03 -2.010113187134265900e-02 5.025791749358177185e-02 -1.163370348513126373e-02 -1.171824871562421322e-03 1.392271835356950760e-03 -2.439131028950214386e-03 -1.876952685415744781e-02 5.237346049398183823e-04 -3.481558756902813911e-03 4.609227180480957031e-04 -1.138812396675348282e-03 -7.985094562172889709e-03 -2.879828389268368483e-04 1.467454712837934494e-04 2.523233927786350250e-02 8.701597107574343681e-05 -2.970168367028236389e-03 1.226459164172410965e-02 -4.616734106093645096e-03 3.362477943301200867e-02 9.322820231318473816e-03 2.782045630738139153e-03 3.242706225137226284e-05 -1.745782356010749936e-04 -5.309724365361034870e-04 -2.110820449888706207e-02 1.294349133968353271e-02 6.777855567634105682e-03 -9.714878979139029980e-05 2.596625871956348419e-02 6.610538810491561890e-03 1.275908574461936951e-02 1.264134235680103302e-02 -1.149055315181612968e-03 -1.510846195742487907e-03 1.671244390308856964e-02 5.835246667265892029e-02 -5.300461780279874802e-04 7.347781211137771606e-03 1.472540781833231449e-03 -1.408624835312366486e-02 7.920377538539469242e-04 3.382133087143301964e-03 -2.523982152342796326e-02 -1.952609606087207794e-02 -6.491851992905139923e-03
-1.051856949925422668e-02 -7.377426605671644211e-03 5.428932141512632370e-03 4.478758946061134338e-02 -5.872223153710365295e-02 8.045159280300140381e-02 2.369445981457829475e-03 7.180947344750165939e-03 -3.707941155880689621e-03 -5.889919400215148926e-02 -3.299188613891601562e-02 2.393815852701663971e-02 -7.884569466114044189e-03 1.356419548392295837e-02 -7.298512500710785389e-04 2.841602265834808350e-02 -9.326359140686690807e-04 -8.290717960335314274e-04 -8.308276883326470852e-04 7.049243431538343430e-03 5.799232050776481628e-03 1.039582770317792892e-03 1.308514270931482315e-02 4.368476103991270065e-03 1.127386232838034630e-03 -4.038478655274957418e-04 -5.610748007893562317e-02 5.031082034111022949e-02 -9.939260780811309814e-04 1.246893225470557809e-04 7.117353379726409912e-04 1.652902550995349884e-02 -1.851790351793169975e-03 1.625714451074600220e-02 -3.796210139989852905e-02 4.622233100235462189e-03 -5.331885069608688354e-02 -3.492727119009941816e-04 8.794314344413578510e-04 1.474302698625251651e-04 5.457720253616571426e-04 -1.040735002607107162e-02 3.786236792802810669e-02 -2.188226353609934449e-04 2.434862405061721802e-02 4.033246368635445833e-04 1.377535611391067505e-02 3.397161890461575240e-06 3.058777563273906708e-02 -3.173472578055225313e-05 1.233611814677715302e-02 -1.238034572452306747e-03 -5.049362778663635254e-03 -2.783745230772183277e-06 2.318138431292027235e-04 -6.070191040635108948e-03 -1.314732216997072101e-04 -1.381926040266989730e-06 -7.890060544013977051e-02 -5.259705707430839539e-03 -2.884506806731224060e-02 -2.282434329390525818e-02 -4.399644210934638977e-03 2.179268561303615570e-02 2.553487010300159454e-02 1.887822058051824570e-03 5.242151767015457153e-02 1.760840968927368522e-04 -1.219866424798965454e-02 -5.718913744203746319e-04 -1.763743930496275425e-03 -3.864185127895325422e-04 5.077040405012667179e-04 1.448720414191484451e-02 6.855926010757684708e-03 -1.274619717150926590e-02 3.115319274365901947e-02 -8.499101735651493073e-03 8.250317187048494816e-04 1.120520196855068207e-02 -9.955443674698472023e-04 -2.834182046353816986e-02 -1.102740992791950703e-03 -4.097627103328704834e-02 2.501913905143737793e-02 -1.030913647264242172e-02 -1.232833485119044781e-03 -3.485085326246917248e-04 1.970752701163291931e-02 2.423728001303970814e-04 -4.882604698650538921e-04 -6.485254969447851181e-03 -1.922170259058475494e-02 1.552619319409132004e-02 7.345168269239366055e-04 3.793801297433674335e-04 -1.548888249089941382e-04 -1.101743057370185852e-02 4.754731804132461548e-02 -7.119485642760992050e-03 -5.838466342538595200e-03 -2.329352428205311298e-04 -1.578659139340743423e-04 2.541135763749480247e-04 -6.236180779524147511e-04 -4.221937060356140137e-02 -4.320974647998809814e-02 -2.727600513026118279e-04 -1.003207173198461533e-03 -1.616870798170566559e-02 -3.859568387269973755e-04 -2.357725985348224640e-02 -8.799603208899497986e-03 -1.617583073675632477e-02 1.939037628471851349e-02 3.148395568132400513e-02 -9.963512420654296875e-03 -6.012762431055307388e-03 -1.199991349130868912e-02 -8.189304498955607414e-04 -2.820249414071440697e-03 -2.254301123321056366e-02 9.596685878932476044e-03 2.693316899240016937e-02 -1.731767132878303528e-02 -4.536427150014787912e-04 -9.656699374318122864e-03 1.266797445714473724e-02 2.679928547877352685e-05 1.630091428523883224e-04 -5.017422139644622803e-02 7.587847649119794369e-04 -4.868229478597640991e-02 1.598829403519630432e-04 1.760815037414431572e-03 -1.259395154193043709e-03 -6.034478428773581982e-04 4.158530384302139282e-03 -1.718818023800849915e-02 -2.821625769138336182e-02 -5.119538982398808002e-04 5.685947689926251769e-05 8.647333015687763691e-04 4.525069613009691238e-03 7.036733441054821014e-04 -3.280541673302650452e-02 -3.838508576154708862e-02 3.281875327229499817e-02 -4.084367770701646805e-03 -2.674703672528266907e-02 -1.072565913200378418e-01 -1.245156023651361465e-02 9.454763494431972504e-04 8.634674362838268280e-03 4.523278772830963135e-02 -7.976323831826448441e-05 -1.988747343420982361e-02 1.109580553020350635e-04 -1.039941981434822083e-02 -8.691023103892803192e-04 8.614492602646350861e-03 2.382317371666431427e-02 2.124353311955928802e-03 -4.874281957745552063e-02 3.714550286531448364e-02 5.292606874718330801e-05 2.785623632371425629e-02 -4.239647649228572845e-03 -1.401160471141338348e-02 -2.932259254157543182e-02 -6.087521836161613464e-02 1.624666969291865826e-03 3.704020380973815918e-02 1.607305556535720825e-02 1.041606068611145020e-02 1.139676314778625965e-03 3.304265439510345459e-02 -1.819193735718727112e-02 -1.299901778111234307e-04 3.252918249927461147e-04 6.048725917935371399e-04 1.870076957857236266e-04 6.360264960676431656e-03 2.113728411495685577e-02 -1.675429381430149078e-02 -9.778833016753196716e-03 -4.029836878180503845e-02 -1.343972049653530121e-02 -3.911881893873214722e-02 -4.757259041070938110e-03 -2.961160987615585327e-02 2.008199505507946014e-02 2.044278371613472700e-04 -6.625739042647182941e-04 -2.200954331783577800e-04 -6.715016206726431847e-04 6.972289178520441055e-03 -4.545944277197122574e-03 -7.640097755938768387e-04 -8.295994484797120094e-04 -2.989434450864791870e-02 -3.404392336960881948e-04 -1.800947450101375580e-02 3.955691680312156677e-02 -3.806909918785095215e-02 5.629444960504770279e-03 -1.229245448485016823e-03 1.206194749101996422e-03 3.796034725382924080e-04 -8.578430861234664917e-03 2.143470570445060730e-02 -3.863109648227691650e-02 2.628137357532978058e-02 4.013828583993017673e-04 8.010676130652427673e-03 8.280903566628694534e-04 -1.074813422746956348e-03 -4.962050006724894047e-04 5.794061813503503799e-03 -2.060131082544103265e-04 -2.149789361283183098e-04 -1.181606110185384750e-02 8.650916424812749028e-05 4.856922532781027257e-05 5.384503304958343506e-02 -1.241970858245622367e-05 -1.534872204065322876e-01 -6.499964743852615356e-02 2.176566980779170990e-02 2.150415815412998199e-02 8.180370554327964783e-03 -1.873606815934181213e-02 -8.866144344210624695e-05 7.038388866931200027e-04 1.750219427049160004e-02 5.593579262495040894e-03 2.156242914497852325e-02 -1.676171086728572845e-02 1.031048159347847104e-04 9.231895208358764648e-03 3.246922791004180908e-02 -8.734641596674919128e-03 2.954015694558620453e-02 6.019954453222453594e-04 -7.354094414040446281e-04 9.957247413694858551e-03 -2.464341698214411736e-03 4.563520662486553192e-03 -2.397932112216949463e-02 -3.127194941043853760e-02 -5.445883050560951233e-02 -3.945157222915440798e-04 2.022390812635421753e-02 -1.046688109636306763e-02 -8.839570218697190285e-04 -1.314512919634580612e-02
-8.491837419569492340e-03 1.023785956203937531e-02 1.808441802859306335e-02 -3.202292695641517639e-02 3.901347890496253967e-02 4.552084207534790039e-02 9.965164586901664734e-03 -6.654104217886924744e-03 -3.998821228742599487e-02 -2.289222180843353271e-02 -2.075945213437080383e-02 -5.332584492862224579e-03 -1.144389342516660690e-02 1.057670358568429947e-02 5.076937377452850342e-04 -1.561677176505327225e-02 2.894831262528896332e-02 -1.152132244897074997e-04 -7.044208468869328499e-04 -2.402371913194656372e-02 -1.578423753380775452e-02 3.468079376034438610e-04 4.450664389878511429e-03 2.196135930716991425e-03 1.962072710739448667e-04 -8.661730098538100719e-04 6.742266006767749786e-03 2.419198118150234222e-02 2.687431115191429853e-04 3.273933252785354853e-04 -1.143698929809033871e-03 5.797805730253458023e-03 1.768570952117443085e-02 -4.495964851230382919e-03 1.156180165708065033e-02 -1.266866177320480347e-02 1.363923680037260056e-02 -1.298256334848701954e-03 -6.927086506038904190e-04 2.359075297135859728e-04 -4.014906880911439657e-04 -1.253922563046216965e-02 3.878767788410186768e-02 8.054222562350332737e-04 -3.745870664715766907e-03 3.958819143008440733e-04 2.594682201743125916e-02 8.797218324616551399e-04 -2.396721020340919495e-02 -5.264174542389810085e-04 7.958742207847535610e-04 2.334621676709502935e-04 4.726569354534149170e-02 1.749393559293821454e-04 4.841732516069896519e-05 5.877347290515899658e-02 6.626151152886450291e-04 1.625721342861652374e-02 -2.097356878221035004e-02 -1.675985258771106601e-04 -2.548311837017536163e-03 2.955752052366733551e-02 -1.437982171773910522e-02 6.014982704073190689e-03 -2.056410536170005798e-02 2.062749303877353668e-02 -2.576135098934173584e-02 -2.627981011755764484e-04 -5.643352866172790527e-02 -3.518235171213746071e-04 -5.240093544125556946e-02 -4.027651739306747913e-04 -1.827953528845682740e-04 7.437236607074737549e-02 -2.860469371080398560e-02 -2.561620622873306274e-02 1.883463189005851746e-02 5.118103697896003723e-03 -7.544255640823394060e-05 2.803947404026985168e-02 1.509183348389342427e-04 5.958771333098411560e-02 3.637987538240849972e-04 6.935857236385345459e-03 -2.644095383584499359e-02 3.529851557686924934e-03 -3.245050611440092325e-04 -4.662338760681450367e-04 -2.127746678888797760e-02 -6.150932313175871968e-05 9.316334617324173450e-04 -2.615442266687750816e-03 -2.818385325372219086e-02 2.123431675136089325e-02 3.566747182048857212e-04 1.300909207202494144e-04 -4.089198482688516378e-04 2.465075114741921425e-03 -6.234297994524240494e-03 -1.634387858211994171e-02 6.919591221958398819e-03 -1.213703872053883970e-04 3.098940651398152113e-04 3.167902177665382624e-04 8.189930813387036324e-04 -3.239177912473678589e-02 -3.438370302319526672e-02 1.967030257219448686e-04 -2.039932087063789368e-02 3.730924567207694054e-03 -4.102594393771141768e-04 -2.092542871832847595e-02 4.605033993721008301e-02 -1.984320208430290222e-02 -2.533425576984882355e-02 -7.922293618321418762e-03 -3.037402406334877014e-02 -2.416356699541211128e-03 -3.310039406642317772e-03 9.447208140045404434e-05 -5.858263932168483734e-03 -2.262146025896072388e-02 -3.428130596876144409e-02 6.617058068513870239e-03 -4.599786177277565002e-02 3.346891899127513170e-04 -9.212871082127094269e-03 -3.327777609229087830e-02 -1.082918606698513031e-03 -1.517102238722145557e-03 1.937417127192020416e-02 1.113899983465671539e-03 5.140139535069465637e-02 3.215959295630455017e-04 -7.247141748666763306e-02 2.038477221503853798e-03 2.509471378289163113e-04 -1.490478776395320892e-02 -9.630472399294376373e-03 6.863205344416201115e-04 4.892670083791017532e-03 1.010752399452030659e-03 2.613058859424199909e-05 -3.321277908980846405e-03 -1.414881437085568905e-03 -1.114195585250854492e-02 4.194737598299980164e-02 2.753356099128723145e-02 -1.616190746426582336e-02 2.977145276963710785e-02 -3.590432927012443542e-03 -3.194382414221763611e-02 1.537337084300816059e-03 8.200594224035739899e-03 -3.956788405776023865e-02 1.306827907683327794e-04 3.190298005938529968e-02 -6.932670949026942253e-04 6.585483904927968979e-03 -8.278902532765641809e-05 2.174458280205726624e-02 -6.152240093797445297e-03 -6.610026210546493530e-02 1.025410182774066925e-02 -1.437494251877069473e-02 3.499898884911090136e-04 -3.973713889718055725e-02 -4.968770220875740051e-02 -1.970548741519451141e-02 2.016400545835494995e-02 -8.274647407233715057e-03 -1.626807451248168945e-02 1.395246828906238079e-03 1.546531915664672852e-03 -4.500916600227355957e-02 7.923827797640115023e-05 -1.353356707841157913e-02 1.166071183979511261e-02 7.734412793070077896e-04 -4.685263556893914938e-04 -1.319841481745243073e-03 1.123910533351590857e-05 -6.197549030184745789e-02 3.291635587811470032e-02 1.163825299590826035e-02 5.647770315408706665e-02 3.130321390926837921e-03 -9.605656960047781467e-04 -2.020914480090141296e-02 3.334440698381513357e-04 -6.224823300726711750e-04 -1.927974820137023926e-02 1.392910443246364594e-02 -7.474268932128325105e-05 1.598194474354386330e-03 -1.127469113271217793e-05 -1.439039036631584167e-02 -2.166418358683586121e-02 -2.119720011251047254e-05 -2.143298333976417780e-04 4.038620367646217346e-02 -4.637449164874851704e-04 -2.250109100714325905e-03 6.993053853511810303e-02 -2.310278639197349548e-02 1.592032611370086670e-03 -3.277355790487490594e-05 1.666445098817348480e-02 2.722480276133865118e-04 1.217592391185462475e-03 2.796209789812564850e-02 1.652604155242443085e-02 -5.240759812295436859e-03 2.769702696241438389e-04 1.384593732655048370e-02 1.857910491526126862e-02 9.523887187242507935e-03 1.711513759801164269e-04 -6.302143633365631104e-02 -2.277962485095486045e-04 -6.806911551393568516e-04 -3.127798065543174744e-02 9.914285037666559219e-04 -3.304471320006996393e-04 3.160890191793441772e-02 -7.749695214442908764e-05 3.441399708390235901e-02 -1.362998411059379578e-02 -4.545285832136869431e-03 7.625062949955463409e-03 -2.982784062623977661e-02 -4.067024216055870056e-02 9.031307999975979328e-04 -1.051823724992573261e-03 -3.831763984635472298e-03 -2.675192663446068764e-03 2.579254657030105591e-02 -4.499651119112968445e-02 -8.265180440503172576e-06 -2.201856113970279694e-02 -8.946640416979789734e-03 -2.020543441176414490e-03 1.837139390408992767e-02 -3.347058955114334822e-04 1.741121086524799466e-04 7.433434948325157166e-03 -2.484389208257198334e-02 4.152902588248252869e-02 3.446069778874516487e-03 9.267222136259078979e-03 9.826457127928733826e-03 -1.766534260241314769e-04 1.203114006784744561e-04 -9.271924383938312531e-03 1.442881207913160324e-02 2.249703556299209595e-02
2.256038039922714233e-02 -3.868791833519935608e-02 -2.202991396188735962e-02 -1.902732625603675842e-02 2.243280783295631409e-02 -1.175035163760185242e-02 -4.499154165387153625e-02 -4.936152696609497070e-02 3.793289139866828918e-02 2.091804752126336098e-03 -1.888457685708999634e-03 2.006252110004425049e-02 1.014632266014814377e-02 3.611832484602928162e-02 -6.142267957329750061e-04 -1.607767626410350204e-04 2.320916391909122467e-02 2.378570934524759650e-04 -1.001624041236937046e-03 4.789921641349792480e-02 7.205229718238115311e-03 9.360264521092176437e-04 -8.141356520354747772e-03 1.260476093739271164e-02 4.753654866362921894e-05 4.018521285615861416e-04 -1.878375746309757233e-02 -9.913282468914985657e-03 -6.019678548909723759e-04 5.916264490224421024e-05 4.767454811371862888e-04 1.538510341197252274e-02 6.185554713010787964e-02 -3.836215008050203323e-03 -2.503464464098215103e-03 6.347532849758863449e-03 -1.991356909275054932e-02 -6.320379907265305519e-04 6.091828108765184879e-04 -8.801665389910340309e-04 8.245450444519519806e-04 -1.268803700804710388e-02 -4.004412889480590820e-02 4.932390293106436729e-04 1.510898210108280182e-02 -1.171520096249878407e-03 -2.306698076426982880e-02 -2.534982049837708473e-04 -1.770955137908458710e-02 9.541974577587097883e-06 -2.720330655574798584e-02 2.288315590703859925e-04 -1.710692979395389557e-02 2.010407915804535151e-04 -9.891847730614244938e-05 -1.512935571372509003e-02 -1.619499671505764127e-04 2.408266067504882812e-03 -6.191936787217855453e-03 4.431840963661670685e-03 1.061103679239749908e-02 -3.739139437675476074e-02 -3.880202397704124451e-02 1.545202080160379410e-02 -1.754673011600971222e-02 -1.361980941146612167e-02 -2.011772431433200836e-02 -9.753093036124482751e-05 1.807033084332942963e-02 -1.294332178076729178e-04 -4.257822781801223755e-02 -2.761070500127971172e-04 -3.252037568017840385e-04 4.159506782889366150e-02 -1.106893736869096756e-02 3.230239823460578918e-02 5.175373703241348267e-02 5.740152671933174133e-03 -4.351322713773697615e-04 -4.657360911369323730e-02 -7.739099091850221157e-04 -2.371211163699626923e-02 -2.975647221319377422e-04 2.998065017163753510e-02 -3.245972841978073120e-02 1.251842826604843140e-03 9.875611867755651474e-04 -5.613925750367343426e-04 -3.015721216797828674e-03 -7.619844400323927402e-04 -1.821711193770170212e-04 -3.266286337748169899e-03 8.842226117849349976e-03 9.816598147153854370e-03 2.172284875996410847e-04 2.496998931746929884e-04 -5.083248106529936194e-05 -1.850580796599388123e-02 -2.358457859372720122e-04 -8.456001058220863342e-03 2.493698848411440849e-04 1.705064059933647513e-04 4.576484789140522480e-04 -7.751668454147875309e-04 -2.086130189127288759e-05 2.890434116125106812e-02 9.408427402377128601e-03 7.816779543645679951e-04 1.697444170713424683e-02 -5.647818371653556824e-02 5.297586903907358646e-04 -2.536681666970252991e-02 5.413571372628211975e-02 -5.395171046257019043e-02 -3.770935814827680588e-03 -1.807303540408611298e-02 7.638760842382907867e-03 -3.338916972279548645e-02 7.518121507018804550e-03 -5.790876457467675209e-04 -3.945339936763048172e-03 -2.060323255136609077e-03 -9.333897382020950317e-03 4.477407038211822510e-02 -2.078794874250888824e-02 2.043056883849203587e-04 -2.036307239904999733e-03 1.080535259097814560e-02 -1.506041968241333961e-03 7.034456939436495304e-04 -2.168335951864719391e-02 5.934578948654234409e-04 1.395872514694929123e-02 -1.345742959529161453e-03 1.773056690581142902e-03 1.153545221313834190e-03 1.342077302979305387e-04 -1.577001437544822693e-02 -6.377242039889097214e-03 3.270702436566352844e-02 -4.142747446894645691e-02 1.916455803439021111e-04 -2.857587242033332586e-05 4.923405498266220093e-02 1.179821556434035301e-03 -4.523498471826314926e-03 2.004760317504405975e-02 2.783233672380447388e-02 -8.921728469431400299e-03 -6.787170190364122391e-03 4.706360027194023132e-02 7.038577314233407378e-05 7.373245898634195328e-04 -4.668127000331878662e-02 -2.683533169329166412e-02 2.650052774697542191e-04 -1.355634070932865143e-02 7.343278266489505768e-04 8.596421219408512115e-03 1.676056708674877882e-04 -4.608510527759790421e-03 2.436333801597356796e-03 -2.531382441520690918e-02 -9.157890453934669495e-03 1.532099791802465916e-03 -8.537721441825851798e-05 1.805458031594753265e-02 1.803028024733066559e-02 -2.831457415595650673e-03 1.714503392577171326e-02 4.623838886618614197e-02 3.503336384892463684e-02 -1.109782233834266663e-02 2.761452225968241692e-03 -2.889123372733592987e-02 5.161352455615997314e-04 -1.781526580452919006e-02 -4.790760949254035950e-02 7.084598182700574398e-04 -7.672104984521865845e-04 1.623371848836541176e-03 -2.290268166689202189e-04 -2.235416322946548462e-03 3.381795436143875122e-02 -3.783745924010872841e-03 2.596446126699447632e-02 3.075502254068851471e-02 7.801141589879989624e-03 -2.215185947716236115e-02 -9.156382642686367035e-03 -1.549843698740005493e-02 -1.629419974051415920e-03 9.713224135339260101e-03 3.548467648215591908e-04 8.546881144866347313e-05 -7.230968913063406944e-04 -1.201531104743480682e-02 5.995255894958972931e-03 -3.152002755086869001e-04 -7.411941769532859325e-04 5.996694671921432018e-04 -6.847006734460592270e-04 -1.401593349874019623e-02 4.900866746902465820e-02 1.576967909932136536e-02 -5.182356759905815125e-02 4.388215311337262392e-04 -3.997166454792022705e-02 2.843178481271024793e-05 1.304604858160018921e-02 -5.811544600874185562e-03 1.039185188710689545e-02 -1.549007371068000793e-02 -6.726217106916010380e-04 2.792448364198207855e-02 4.308681469410657883e-03 3.634937852621078491e-02 -1.034201977745397016e-05 3.425607457756996155e-02 8.983726147562265396e-04 9.741424582898616791e-04 -1.445369701832532883e-02 4.532506281975656748e-04 -8.139520068652927876e-04 -4.887545481324195862e-02 7.739962311461567879e-04 2.206511236727237701e-02 -6.189220771193504333e-02 -1.886721886694431305e-02 -5.969939380884170532e-02 4.982509184628725052e-03 6.242328789085149765e-03 -5.127091426402330399e-04 1.415514270775020123e-04 1.203966233879327774e-02 -1.924438215792179108e-02 -7.825791835784912109e-03 -2.969115599989891052e-02 9.552323026582598686e-04 -9.623399935662746429e-03 4.518265649676322937e-02 -2.520348131656646729e-02 5.361289530992507935e-02 1.572727342136204243e-04 -4.976986474503064528e-06 2.180431224405765533e-02 -6.727810483425855637e-03 -4.553535021841526031e-03 -2.563662081956863403e-02 -1.435697171837091446e-02 1.698094606399536133e-02 3.580519478418864310e-05 6.738594733178615570e-03 -4.079811275005340576e-02 -2.225929871201515198e-03 4.059794358909130096e-03
-9.104102849960327148e-03 -1.665571331977844238e-02 -8.249958977103233337e-03 3.068787232041358948e-02 7.737711071968078613e-02 4.786318168044090271e-02 1.207641512155532837e-02 -1.429871376603841782e-02 -2.980587305501103401e-04 -8.072483353316783905e-03 -3.458288311958312988e-02 2.222447656095027924e-03 4.209627956151962280e-02 -3.059940785169601440e-02 -1.429933472536504269e-03 1.698413491249084473e-02 5.181203782558441162e-02 -9.238575148629024625e-05 4.018090839963406324e-04 6.188121158629655838e-03 -3.639061376452445984e-02 4.955672775395214558e-04 2.966593950986862183e-02 2.490739338099956512e-02 -2.571488148532807827e-04 -3.995406732428818941e-04 -7.971367985010147095e-02 2.067311201244592667e-03 -2.980706631205976009e-04 -4.548456636257469654e-04 1.082358881831169128e-03 -1.497027091681957245e-02 -3.974171122536063194e-04 -4.407382104545831680e-03 -2.518125576898455620e-03 7.015855051577091217e-03 -7.426534593105316162e-02 7.839057361707091331e-04 7.487644325010478497e-04 -1.006419886834919453e-03 -2.454899076838046312e-04 2.031776867806911469e-02 -3.277767822146415710e-02 -4.971152156940661371e-05 -2.626534085720777512e-03 3.679622022900730371e-04 -1.716471463441848755e-02 -7.433273276546970010e-05 -3.708902746438980103e-02 4.307294439058750868e-04 -4.571231547743082047e-04 -5.647294456139206886e-04 -1.584398746490478516e-02 -4.483862721826881170e-05 -4.762394528370350599e-04 -5.430246517062187195e-02 6.305370479822158813e-04 -1.223335787653923035e-02 -5.695564672350883484e-02 -1.662926981225609779e-03 9.286351501941680908e-03 -2.132459357380867004e-02 2.048313617706298828e-03 2.034811489284038544e-02 2.237626118585467339e-03 2.158238552510738373e-02 -3.500304371118545532e-02 -1.698241394478827715e-04 -5.741924978792667389e-03 -1.595779322087764740e-04 7.421627640724182129e-02 6.727078580297529697e-04 3.148943651467561722e-04 -1.677019638009369373e-03 3.484911099076271057e-02 -1.310853566974401474e-02 3.673784062266349792e-02 -3.996319603174924850e-03 -1.868325853138230741e-05 1.318578608334064484e-02 -1.294448389671742916e-03 -1.411518361419439316e-02 5.928298342041671276e-04 -1.299646962434053421e-02 2.944423072040081024e-02 3.499456914141774178e-03 1.978495565708726645e-04 1.033838954754173756e-03 -4.666756838560104370e-03 1.696577819529920816e-04 -1.300760428421199322e-03 6.438795011490583420e-03 -4.230383411049842834e-02 -4.705748334527015686e-02 -8.620083681307733059e-04 7.489707786589860916e-04 2.644133346620947123e-04 6.589774508029222488e-03 7.947385311126708984e-02 -4.192495252937078476e-03 -4.533417057245969772e-03 -5.441831308417022228e-04 4.542258975561708212e-04 5.460051470436155796e-04 -1.008586725220084190e-03 2.220930717885494232e-02 8.904655463993549347e-03 5.759759806096553802e-04 3.169541480019688606e-03 -3.031026571989059448e-02 -6.930199451744556427e-04 5.415390431880950928e-02 2.655854262411594391e-02 -2.496975846588611603e-02 1.270246575586497784e-03 1.223719585686922073e-02 1.389888860285282135e-02 -8.878406137228012085e-03 -4.184615612030029297e-02 2.589739160612225533e-04 2.520827390253543854e-02 -3.218050673604011536e-02 1.336780097335577011e-02 7.338736206293106079e-03 2.384158596396446228e-02 -7.711920770816504955e-04 -2.439866401255130768e-02 2.226002328097820282e-02 9.414242813363671303e-04 2.257135056424885988e-04 3.966487944126129150e-02 1.327498583123087883e-03 -3.219381347298622131e-02 -2.023466950049623847e-04 -2.330401679500937462e-03 -2.788194105960428715e-04 2.177346468670293689e-04 1.369768194854259491e-02 -1.698327809572219849e-02 -3.457197546958923340e-02 8.222426287829875946e-03 -1.764680200722068548e-04 1.429042895324528217e-04 -1.784268394112586975e-02 -1.642408751649782062e-04 5.114596337080001831e-02 5.988856311887502670e-03 -3.762961551547050476e-02 -1.604205742478370667e-02 8.108770102262496948e-02 -2.274217270314693451e-02 -5.009109526872634888e-02 -8.069733739830553532e-04 -8.896770887076854706e-03 -2.426180057227611542e-02 -2.965350577142089605e-04 1.066741719841957092e-02 -1.144119421951472759e-03 -2.558782137930393219e-02 2.547792973928153515e-04 -1.076147798448801041e-02 1.620449684560298920e-02 -2.433608844876289368e-02 3.214491531252861023e-02 6.897855550050735474e-02 -6.055117701180279255e-04 -5.049356818199157715e-02 -1.931582204997539520e-02 -2.874852856621146202e-03 1.440482772886753082e-02 -1.038669142872095108e-02 -5.625887215137481689e-02 3.387789055705070496e-02 -8.438210934400558472e-03 8.111362345516681671e-03 -9.877124830381944776e-05 -2.550263889133930206e-02 -2.338697947561740875e-02 -1.001116979750804603e-04 -3.708688745973631740e-05 5.509679904207587242e-04 -1.691993238637223840e-04 -1.245197490788996220e-03 9.275777637958526611e-02 -4.205283243209123611e-03 7.533640135079622269e-03 -4.538013041019439697e-02 1.128714159131050110e-02 -2.537076361477375031e-02 3.488738322630524635e-03 3.032437758520245552e-03 -4.340129345655441284e-02 -2.872422337532043457e-03 1.366499054711312056e-04 -2.179166622227057815e-04 -4.186591831967234612e-04 1.452488824725151062e-02 2.424855716526508331e-02 1.603876444278284907e-04 7.228593458421528339e-04 6.438761949539184570e-02 1.317325863055884838e-03 -4.875662922859191895e-02 1.630257815122604370e-02 -4.349654074758291245e-03 -5.379955284297466278e-03 4.081758088432252407e-04 6.286887219175696373e-04 -8.098094986053183675e-05 1.014270726591348648e-02 -2.390603721141815186e-02 4.172455519437789917e-02 2.570047974586486816e-02 -2.249757671961560845e-04 2.845759689807891846e-02 -4.378484934568405151e-02 9.990850090980529785e-02 -1.775527634890750051e-04 -1.841878890991210938e-02 1.096234191209077835e-04 3.906158381141722202e-04 -1.859308034181594849e-02 -3.527149674482643604e-04 -3.183248336426913738e-04 -1.779559254646301270e-02 2.256622974527999759e-05 1.760015264153480530e-02 -5.029858089983463287e-03 2.614286169409751892e-02 1.252141222357749939e-02 -3.816082328557968140e-02 -4.499624483287334442e-04 -6.949024973437190056e-04 -4.655841621570289135e-04 -3.551802784204483032e-02 -3.758592531085014343e-02 -3.766199573874473572e-02 -8.516798261553049088e-04 2.164982142858207226e-04 -3.173298761248588562e-02 1.503934990614652634e-02 7.470747455954551697e-03 7.968146353960037231e-03 8.389130816794931889e-04 -1.288648345507681370e-04 1.571143232285976410e-02 3.460427280515432358e-03 4.866157472133636475e-02 8.482675068080425262e-03 1.109890453517436981e-02 -4.268180206418037415e-02 2.272839046781882644e-04 -2.892009681090712547e-03 -1.798553392291069031e-02 2.789945155382156372e-02 6.755062937736511230e-02
-6.738645583391189575e-02 7.325226441025733948e-03 -8.940793573856353760e-03 2.176968194544315338e-02 1.289186184294521809e-03 -1.918684877455234528e-02 3.880226984620094299e-03 -2.063044346868991852e-02 -1.962225884199142456e-02 -1.025040913373231888e-02 4.803855344653129578e-02 -1.385946199297904968e-02 3.877869993448257446e-02 2.961970120668411255e-02 -1.492001611040905118e-04 -4.394228756427764893e-02 4.164136480540037155e-03 8.388681453652679920e-04 -1.794568961486220360e-03 -2.799579128623008728e-02 7.315654656849801540e-04 2.533983206376433372e-04 5.873510241508483887e-02 1.071604192256927490e-01 -4.590812750393524766e-05 -1.208808389492332935e-03 1.928972452878952026e-02 2.255043014883995056e-02 -1.372521728626452386e-05 2.352988522034138441e-04 1.846645318437367678e-04 -4.798042029142379761e-02 1.144600380212068558e-02 2.468581125140190125e-02 9.569634683430194855e-03 1.916186884045600891e-02 -2.034521475434303284e-02 -1.060431677615270019e-04 1.165316825790796429e-05 9.531978284940123558e-04 -3.665357944555580616e-04 2.411752706393599510e-03 1.553195179440081120e-03 -7.351531530730426311e-04 8.599008433520793915e-03 5.601905868388712406e-04 -1.006677746772766113e-02 -7.344224140979349613e-04 1.030700281262397766e-02 -5.970037891529500484e-04 1.116177998483181000e-02 -9.464863687753677368e-04 3.205022541806101799e-03 -1.743726170388981700e-04 1.009579937090165913e-04 -1.125916931778192520e-02 3.418505657464265823e-04 6.126686558127403259e-02 -6.799491588026285172e-03 -2.681363373994827271e-02 2.905638143420219421e-02 -6.707170396111905575e-04 9.364086203277111053e-03 -5.079979449510574341e-02 -1.058884151279926300e-02 -1.061841758200898767e-04 -4.082169011235237122e-02 6.302641704678535461e-04 -1.488667447119951248e-02 6.344142020680010319e-04 -2.841604687273502350e-02 -4.268606062396429479e-05 3.570246335584670305e-04 5.071110557764768600e-03 1.368660293519496918e-02 8.033593185245990753e-03 -4.008123651146888733e-02 -4.536762833595275879e-03 4.398333840072154999e-04 -6.146128755062818527e-03 -1.743469183566048741e-04 -2.847481332719326019e-02 8.485561702400445938e-04 1.278163306415081024e-02 2.356756478548049927e-02 1.252042688429355621e-02 -8.627717761555686593e-05 -5.990644567646086216e-04 1.753259263932704926e-02 -1.150947413407266140e-03 3.495210257824510336e-04 8.831652812659740448e-03 8.084386587142944336e-03 5.341705866158008575e-03 -1.715047837933525443e-04 -2.221401882707141340e-05 6.833451334387063980e-04 -1.529483590275049210e-02 1.621624454855918884e-02 -3.175993217155337334e-03 -2.616020152345299721e-03 8.740989869693294168e-06 7.682116702198982239e-04 -4.976243144483305514e-05 -7.392572006210684776e-04 7.946923375129699707e-03 2.707370370626449585e-02 -1.628453028388321400e-04 -1.224408671259880066e-02 1.346332952380180359e-02 -2.946749154943972826e-04 7.918938994407653809e-03 -6.534347683191299438e-02 6.326115224510431290e-03 7.594924420118331909e-03 3.028556238859891891e-03 1.870587281882762909e-02 1.402165926992893219e-02 1.241871248930692673e-02 -1.085728406906127930e-03 -4.190140403807163239e-03 -1.860743574798107147e-02 2.920098975300788879e-02 -1.017252914607524872e-02 -3.564325394108891487e-03 6.468974752351641655e-04 2.137462608516216278e-02 -1.516876462846994400e-02 -1.510128058725968003e-04 -6.439492572098970413e-04 -2.613680250942707062e-02 8.325412636622786522e-04 -1.589616946876049042e-02 -2.926383749581873417e-04 8.097374811768531799e-03 2.909076574724167585e-04 -2.480032562743872404e-04 1.938007958233356476e-02 -2.731901407241821289e-02 -7.805561646819114685e-03 9.352806955575942993e-03 -7.196416263468563557e-04 7.512750016758218408e-05 9.861248545348644257e-03 6.225396064110100269e-04 1.897001266479492188e-02 2.364753745496273041e-02 -5.738345440477132797e-03 -1.207364373840391636e-03 9.721617680042982101e-04 2.558012306690216064e-02 -2.109205815941095352e-03 -1.466596964746713638e-03 1.408141106367111206e-04 9.445352479815483093e-03 3.361356502864509821e-04 -2.383220009505748749e-02 1.239039011124987155e-05 5.537190008908510208e-03 -1.237029355252161622e-04 3.098142705857753754e-02 4.002753645181655884e-02 1.463960297405719757e-02 -1.585327088832855225e-02 -6.562842987477779388e-03 3.316726360935717821e-05 -7.032527029514312744e-02 -5.859207361936569214e-03 -4.586053639650344849e-02 -1.121974363923072815e-02 2.566632628440856934e-02 2.321234904229640961e-02 2.843993948772549629e-03 2.007362060248851776e-02 4.038309305906295776e-02 4.641500709112733603e-04 -4.068003222346305847e-02 -2.876303344964981079e-02 -7.978831999935209751e-04 -2.388249267823994160e-04 1.004262943752110004e-03 -6.646778783760964870e-04 -8.467395789921283722e-03 8.539048954844474792e-03 -2.489646337926387787e-02 -2.871406637132167816e-02 2.912566997110843658e-02 -2.365606836974620819e-02 -6.710626184940338135e-03 1.547954324632883072e-02 1.575422100722789764e-02 5.541669577360153198e-02 4.158783704042434692e-02 7.218689424917101860e-04 -5.149774951860308647e-04 3.977554442826658487e-04 -8.671153336763381958e-02 6.362016778439283371e-03 7.732182275503873825e-04 -1.286992803215980530e-03 -1.140097971074283123e-03 -3.953722771257162094e-04 4.817945882678031921e-03 -1.608149893581867218e-02 -3.689472377300262451e-02 1.820010365918278694e-03 -4.566470306599512696e-05 -6.753424182534217834e-03 9.628477855585515499e-04 -1.649533584713935852e-02 1.194997876882553101e-02 -7.564603351056575775e-03 3.474849835038185120e-02 9.932947577908635139e-04 -3.325408324599266052e-02 3.664409369230270386e-02 1.982210017740726471e-02 7.187143201008439064e-04 1.218257844448089600e-02 -2.362248051213100553e-04 -3.286594001110643148e-04 -4.057775251567363739e-03 6.603464134968817234e-04 -1.942414673976600170e-04 -5.558840464800596237e-03 -8.631930686533451080e-04 -1.287048123776912689e-02 6.619029492139816284e-02 -8.709282614290714264e-03 2.353128232061862946e-02 2.784158661961555481e-02 -2.369997464120388031e-02 -3.376537060830742121e-04 1.630864426260814071e-04 3.259021788835525513e-02 7.176838070154190063e-02 7.302738260477781296e-03 7.643735152669250965e-04 -5.074061919003725052e-04 1.113817561417818069e-02 -3.633213788270950317e-02 -2.065999992191791534e-02 -2.931651100516319275e-02 -5.369865684770047665e-04 1.503804960520938039e-04 -7.010833942331373692e-04 7.103525102138519287e-03 5.497472733259201050e-02 -3.848487511277198792e-03 -5.678341723978519440e-03 -5.111264437437057495e-02 4.583895788528025150e-04 -5.932176019996404648e-03 -8.987153880298137665e-03 4.092664271593093872e-02 1.410717330873012543e-02
-2.014988660812377930e-02 4.896702617406845093e-02 -1.144339237362146378e-02 -2.506464254111051559e-03 -2.182342484593391418e-02 -1.500149816274642944e-02 2.836773637682199478e-03 4.108943417668342590e-02 -6.858146935701370239e-02 -2.307001128792762756e-02 -6.458063423633575439e-02 -3.448200225830078125e-02 7.656313944607973099e-03 -8.575601503252983093e-03 -8.100220584310591221e-04 2.166326530277729034e-02 1.104997936636209488e-02 1.005767917376942933e-04 -6.160883349366486073e-04 -3.606930747628211975e-02 -3.987389802932739258e-02 -5.376775879994966090e-05 -2.587636932730674744e-02 -7.711168844252824783e-03 1.583049743203446269e-05 -7.586341816931962967e-04 -4.384061321616172791e-02 -1.994709856808185577e-02 -6.052873141015879810e-05 2.836551575455814600e-04 5.065613077022135258e-04 -3.088888712227344513e-02 -3.630228340625762939e-03 1.238239463418722153e-02 1.700121536850929260e-02 2.749804407358169556e-02 6.938813626766204834e-02 8.486989536322653294e-04 6.803038559155538678e-05 -1.165129651781171560e-04 -5.832951283082365990e-04 3.210032731294631958e-02 -1.989071443676948547e-02 -3.571499837562441826e-04 2.943632565438747406e-02 -7.440769695676863194e-04 1.988665014505386353e-02 6.605545640923082829e-04 -3.951198887079954147e-03 3.029585932381451130e-04 4.973692353814840317e-03 -5.512702628038823605e-04 3.112939372658729553e-02 2.245748146378900856e-05 -6.736962823197245598e-04 -6.038063671439886093e-03 1.023202436044812202e-03 -2.939818426966667175e-02 -6.120596546679735184e-03 8.136213570833206177e-02 -4.562032967805862427e-02 4.462879523634910583e-02 -4.228337202221155167e-03 1.491287630051374435e-02 -2.778847236186265945e-03 -2.052876166999340057e-03 2.924285456538200378e-02 -8.376488112844526768e-04 -4.488302022218704224e-02 6.122775957919657230e-04 3.479243814945220947e-02 -4.463719233172014356e-05 2.206740318797528744e-04 3.206993266940116882e-02 1.313458941876888275e-02 -1.804732345044612885e-02 -1.195529475808143616e-02 -4.532351158559322357e-04 2.897591184591874480e-05 -1.015579141676425934e-02 1.851271255873143673e-03 1.246864441782236099e-02 -1.040875067701563239e-04 -4.023184254765510559e-02 8.804840035736560822e-03 1.524559967219829559e-02 -4.974472103640437126e-04 -4.153360205236822367e-04 3.385796397924423218e-02 1.902628428069874644e-04 -5.643789190798997879e-04 4.431965947151184082e-02 6.388396956026554108e-03 2.789390087127685547e-02 5.341630821931175888e-05 -6.857534172013401985e-04 -4.045137902721762657e-04 2.903634309768676758e-02 -1.364934630692005157e-02 -6.272797286510467529e-02 -3.455314319580793381e-03 -2.726271341089159250e-04 6.744083948433399200e-04 6.682325620204210281e-04 1.687068870523944497e-04 -1.374816242605447769e-02 7.327611558139324188e-03 3.069142694585025311e-04 8.867887780070304871e-03 -2.155640721321105957e-02 -5.983699811622500420e-04 3.504288941621780396e-02 -2.546706423163414001e-02 -1.414429582655429840e-02 4.724249243736267090e-02 -3.144173650071024895e-03 -1.811777055263519287e-02 -2.724765241146087646e-02 7.719174027442932129e-02 3.926817589672282338e-05 2.317606471478939056e-02 8.624013513326644897e-02 1.574041880667209625e-02 -1.137034688144922256e-02 3.108490491285920143e-03 1.044189593812916428e-05 3.045767731964588165e-02 -8.475804701447486877e-03 -7.404546486213803291e-04 -2.573445999587420374e-05 3.984164819121360779e-02 2.966216707136482000e-04 9.084340184926986694e-03 -7.618407380505232140e-07 8.170564658939838409e-03 -9.427860495634377003e-04 -3.401955764275044203e-04 -1.775746420025825500e-02 5.456084385514259338e-02 -2.597454935312271118e-03 1.321918331086635590e-02 -1.671362988417968154e-04 8.249265956692397594e-04 9.452614001929759979e-03 -8.204032201319932938e-04 -3.208088874816894531e-02 6.975454743951559067e-03 2.974423579871654510e-02 -1.856538350693881512e-03 -2.262085303664207458e-02 4.098252393305301666e-03 -5.655484274029731750e-02 1.543570106150582433e-04 -7.457321509718894958e-03 -6.703204661607742310e-02 -1.029344042763113976e-03 -1.658012531697750092e-02 -1.236938172951340675e-03 1.908312737941741943e-02 5.985921015962958336e-04 -2.826426550745964050e-02 1.522848941385746002e-02 2.535033226013183594e-02 5.461464077234268188e-02 1.453612186014652252e-02 3.468789873295463622e-05 1.177725475281476974e-02 -2.370520681142807007e-02 3.749165683984756470e-02 1.269432157278060913e-01 8.303766138851642609e-03 6.897390633821487427e-02 -4.623503983020782471e-02 -7.844279520213603973e-03 2.188173681497573853e-02 4.822463379241526127e-04 -1.403297297656536102e-02 4.843156784772872925e-02 1.100909546948969364e-03 5.277132731862366199e-04 -2.026777656283229589e-04 -1.030518673360347748e-03 7.616156246513128281e-03 -2.098385430872440338e-02 -2.678941935300827026e-02 -4.952836316078901291e-03 1.273577008396387100e-02 6.566234678030014038e-02 8.044644258916378021e-03 3.356594219803810120e-02 -1.549565605819225311e-02 -3.046890720725059509e-02 4.184743762016296387e-02 -5.646958015859127045e-04 -1.215348951518535614e-03 -1.042842282913625240e-03 -8.131307549774646759e-03 1.364712603390216827e-03 -1.387313241139054298e-03 -1.273997768294066191e-04 7.374621462076902390e-03 6.189824489410966635e-05 -7.180788088589906693e-05 -2.258003503084182739e-02 3.620490059256553650e-02 -1.916722580790519714e-02 -2.972995280288159847e-04 -1.155550312250852585e-02 8.148758206516504288e-04 5.260158702731132507e-02 -2.876114472746849060e-02 4.155167192220687866e-02 -1.831624284386634827e-02 -1.950738660525530577e-04 5.180728435516357422e-02 4.215015098452568054e-02 1.281303167343139648e-02 -4.023276560474187136e-04 8.591972291469573975e-03 -2.811642843880690634e-05 6.436947151087224483e-04 8.618445135653018951e-03 -1.708517433144152164e-03 1.077000852092169225e-04 -3.037740662693977356e-02 2.168898063246160746e-04 -4.236786812543869019e-02 -2.072355896234512329e-02 4.939752072095870972e-02 -2.608279697597026825e-02 1.502898056060075760e-02 -2.689041383564472198e-02 -1.991523604374378920e-04 -7.236441597342491150e-04 3.414048254489898682e-02 -1.746146567165851593e-02 -1.515459362417459488e-02 -2.986352704465389252e-02 5.081254639662802219e-04 -9.153378754854202271e-02 -2.079438976943492889e-02 -1.090933289378881454e-02 -1.411417871713638306e-02 2.818939537974074483e-05 -1.313235843554139137e-04 -4.876991361379623413e-02 -1.361758448183536530e-02 1.538803242146968842e-02 5.264093168079853058e-03 4.196573421359062195e-02 -2.744211815297603607e-02 -5.614099791273474693e-04 -1.615520752966403961e-02 5.562159419059753418e-02 -1.438881643116474152e-02 1.579219289124011993e-02
