8.198948577046394348e-03 -1.409322861582040787e-02 7.830365211702883244e-04 -2.429935336112976074e-02 5.037375912070274353e-02 -3.230456635355949402e-02 8.947302587330341339e-03 -2.111646719276905060e-02 -1.168280025012791157e-03 -2.657118067145347595e-02 -9.851736016571521759e-03 -1.884715072810649872e-02 -1.459467504173517227e-02 1.961002312600612640e-02 1.065558171831071377e-03 1.457536034286022186e-02 -1.820457167923450470e-02 -4.991686728317290545e-05 2.556670270860195160e-02 4.295814316719770432e-03 -2.146487822756171227e-03 -5.958590656518936157e-03 -1.105569675564765930e-02 2.601263695396482944e-04 5.236351862549781799e-04 -1.368039380759000778e-02 6.359516084194183350e-02 -3.764679655432701111e-02 -6.643644883297383785e-04 1.387429703027009964e-02 1.961456611752510071e-02 -3.090173006057739258e-02 -3.857972624246031046e-04 -2.544468035921454430e-03 -1.665519736707210541e-02 4.657550714910030365e-03 1.076992833986878395e-03 -8.954180404543876648e-03 9.795522782951593399e-05 6.355951074510812759e-03 -7.319264113903045654e-03 5.450049880892038345e-03 5.407569184899330139e-02 -1.110741123557090759e-02 -2.518087858334183693e-03 -1.563600823283195496e-02 -2.860660664737224579e-02 -1.354883890599012375e-02 1.608666032552719116e-02 1.068732608109712601e-02 7.799682207405567169e-04 -7.346400059759616852e-03 6.778505048714578152e-04 2.456545643508434296e-02 -2.277475036680698395e-02 2.883054688572883606e-02 1.224974170327186584e-02 -1.118142995983362198e-02 -9.069293737411499023e-03 -9.453502134419977665e-04 -9.119245805777609348e-04 -8.963442523963749409e-04 -1.039854716509580612e-02 5.594078451395034790e-03 7.441662717610597610e-03 1.160511560738086700e-02 -1.054984517395496368e-02 -3.399700298905372620e-02 1.915217726491391659e-04 7.673858664929866791e-03 -1.505453512072563171e-02 1.510257180780172348e-02 -9.689423313830047846e-05 -4.841414839029312134e-02 1.153511740267276764e-02 3.696930798469111323e-05 -4.871315881609916687e-02 -3.088734811171889305e-03 -2.218269370496273041e-02 5.687583237886428833e-02 1.687061041593551636e-02 2.062514610588550568e-02 1.166555937379598618e-02 -8.286450058221817017e-03 -5.962440278381109238e-03 1.562156528234481812e-02 -8.122000843286514282e-03 -1.651365455472841859e-04 -1.611281745135784149e-02 -9.370517916977405548e-03 8.252388797700405121e-03 1.248665526509284973e-02 1.482701482018455863e-04 4.640723392367362976e-02 1.007274142466485500e-03 1.650586724281311035e-02 -7.794253062456846237e-03 7.630892214365303516e-04 -9.028830565512180328e-03 2.226767688989639282e-02 -1.917629688978195190e-02 1.956906728446483612e-02 -1.013437751680612564e-03 -1.464866194874048233e-02 3.100407123565673828e-02 -1.353713683784008026e-02 -1.311857905238866806e-02 1.640741713345050812e-02 -5.849801469594240189e-03 1.267845509573817253e-03 1.429618860129266977e-04 -4.096883349120616913e-03 1.152661442756652832e-02 3.135007619857788086e-02 -5.635721608996391296e-03 -1.981639117002487183e-02 2.862654440104961395e-02 -1.140600536018610001e-02 7.727819611318409443e-04 -6.992880720645189285e-03 5.582520365715026855e-02 1.382964383810758591e-02 -5.380486603826284409e-03 -3.517821198329329491e-03 -2.023494162131100893e-04 1.698482409119606018e-02 -1.442402042448520660e-02 -3.387756587471812963e-04 -1.252379734069108963e-04 -1.387303113006055355e-03 2.208718506153672934e-04 4.320998210459947586e-03 3.708470379933714867e-03 -2.578361192718148232e-03 -1.218797660840209574e-05 3.657869994640350342e-02 -1.097238739021122456e-03 1.361041562631726265e-03 -2.829699951689690351e-04 2.864024974405765533e-02 1.105499081313610077e-02 -5.662278854288160801e-04 -3.791774506680667400e-04 -1.075903652235865593e-03 1.096451003104448318e-02 3.185316547751426697e-02 -3.279988095164299011e-02 3.315731510519981384e-02 -1.171851065009832382e-02 -1.168018206954002380e-03 -5.332869011908769608e-03 -7.812145631760358810e-04 2.457008138298988342e-02 7.037151139229536057e-03 1.426794566214084625e-02 1.284041441977024078e-02 9.889088105410337448e-04 -5.046984879299998283e-04 -6.718745455145835876e-03 1.025062799453735352e-02 -5.450471490621566772e-02 9.725654497742652893e-03 -2.687741070985794067e-02 -2.171277068555355072e-02 -4.888843279331922531e-03 -6.770465988665819168e-03 3.598044859245419502e-03 -1.490557286888360977e-02 -1.561446767300367355e-02 1.274636387825012207e-02 -1.433130260556936264e-02 2.506940625607967377e-03 -1.437783008441329002e-03 1.576819084584712982e-02 1.176904048770666122e-02 6.159917451441287994e-03 -5.868424195796251297e-03 7.284935563802719116e-03 2.446380443871021271e-02 1.355884410440921783e-02 4.353936389088630676e-02 2.052834443747997284e-02 2.404981059953570366e-03 -3.685201751068234444e-03 6.653120508417487144e-04 2.515100687742233276e-02 3.478132130112498999e-04 2.291364036500453949e-02 -1.280075870454311371e-03 -1.723981462419033051e-02 -8.001021924428641796e-04 -1.121689751744270325e-02 -2.753309672698378563e-03 -3.823337377980351448e-03 -2.609192579984664917e-02 -1.444991957396268845e-02 -8.660218678414821625e-03 -1.365420757792890072e-03 2.994351834058761597e-02 -1.652710698544979095e-02 -8.393166936002671719e-04 9.586514788679778576e-04 -8.012635516934096813e-04 -1.616066135466098785e-02 9.221035055816173553e-03 -1.190154626965522766e-02 1.285685691982507706e-02 7.133992039598524570e-04 2.080704830586910248e-02 -1.246820949018001556e-02 -3.096354892477393150e-03 -2.068386785686016083e-02 4.228366015013307333e-05 -1.641256239963695407e-04 4.944656975567340851e-03 2.376394695602357388e-05 -2.896084217354655266e-03 2.633520925883203745e-04 -2.071531303226947784e-02 -1.053903065621852875e-02 -5.722322035580873489e-03 1.781840249896049500e-02 -2.266323566436767578e-02 -1.371733524138107896e-04 -1.280390284955501556e-02 2.723947400227189064e-03 2.112943213433027267e-03 -3.614237532019615173e-03 -1.349574699997901917e-02 -1.307835988700389862e-02 -3.196790115907788277e-03 -2.479459345340728760e-02 2.590593416243791580e-03 3.529856912791728973e-04 -8.798930794000625610e-03 6.337232887744903564e-03 3.059962391853332520e-02 1.259511057287454605e-02 -8.001064998097717762e-04 1.284533925354480743e-02 4.787232610397040844e-04 4.135902971029281616e-02 9.624649770557880402e-03 3.669765137601643801e-04 3.682658134493976831e-04 3.841837495565414429e-02 -2.298007346689701080e-02 1.039658393710851669e-02 1.592396385967731476e-02 2.634599222801625729e-04 5.065180826932191849e-03 1.733253523707389832e-02 1.089256023988127708e-03 3.047474659979343414e-02 -1.366060227155685425e-02 9.969878941774368286e-03
-1.906310766935348511e-02 1.684371195733547211e-02 -3.593400178942829370e-04 3.075164370238780975e-02 1.445550005882978439e-03 -2.696631290018558502e-02 4.924924671649932861e-02 3.972919285297393799e-02 -2.046300942311063409e-04 -5.507165100425481796e-03 -1.714166067540645599e-02 3.480922803282737732e-02 -4.915249533951282501e-03 1.549263764172792435e-02 7.218342216219753027e-05 -1.286407746374607086e-02 -5.931124556809663773e-03 -4.745712794829159975e-04 1.246623788028955460e-02 -2.101104333996772766e-02 1.580979675054550171e-02 9.335017763078212738e-03 9.854475036263465881e-03 -9.913580724969506264e-04 5.224489141255617142e-04 1.045301463454961777e-02 1.168553344905376434e-02 4.011549055576324463e-02 -2.283875085413455963e-02 -1.472554448992013931e-02 1.102761551737785339e-02 3.105087205767631531e-02 9.210278221871703863e-05 -1.333711785264313221e-03 1.041686013340950012e-01 2.365136332809925079e-02 -1.164442114531993866e-02 -1.264935592189431190e-03 -1.216526725329458714e-04 2.760931663215160370e-02 4.664198029786348343e-03 3.267707303166389465e-02 -1.821633055806159973e-02 2.524568513035774231e-02 6.217174232006072998e-03 -3.723389701917767525e-03 4.861369729042053223e-02 5.783983040601015091e-03 -2.131215855479240417e-02 9.858190082013607025e-03 4.651232738979160786e-04 1.013492979109287262e-02 -6.633193697780370712e-04 -4.461443517357110977e-03 -3.846981748938560486e-02 6.179228425025939941e-03 -1.909835147671401501e-03 -8.200902491807937622e-03 3.336904919706285000e-04 4.824356874451041222e-04 5.303759500384330750e-02 1.605167053639888763e-02 -2.408438548445701599e-02 -2.940869331359863281e-02 -1.267911028116941452e-02 -3.051994368433952332e-02 -1.266943942755460739e-02 -1.450793072581291199e-02 -2.875189820770174265e-04 5.487322807312011719e-03 -2.715930342674255371e-02 -4.177825152873992920e-02 -4.781894385814666748e-04 -1.148140430450439453e-02 2.142702043056488037e-02 6.631921278312802315e-04 -6.752727180719375610e-02 7.012213114649057388e-03 1.094446331262588501e-02 -2.419694513082504272e-02 -1.107951533049345016e-02 -1.262473687529563904e-02 -2.819183841347694397e-02 -9.011739864945411682e-03 9.408839978277683258e-03 -8.774903602898120880e-03 -1.589525677263736725e-02 -4.215963417664170265e-04 1.206342317163944244e-02 -4.797006025910377502e-02 1.685202307999134064e-02 3.784998878836631775e-02 -2.550620771944522858e-02 -1.134899631142616272e-02 -1.245134160853922367e-03 -4.585515242069959641e-03 -2.121983468532562256e-02 4.592101904563605785e-04 2.642886340618133545e-02 2.695043571293354034e-02 6.207650993019342422e-03 3.164136037230491638e-02 4.462200740817934275e-04 -1.431517419405281544e-03 -1.924294233322143555e-02 6.366045679897069931e-03 5.634308792650699615e-03 -1.729398034512996674e-02 7.904816418886184692e-02 1.096541411243379116e-03 7.938038907013833523e-04 -5.693622864782810211e-03 2.042341046035289764e-02 4.459974542260169983e-02 4.322533681988716125e-02 -5.196138285100460052e-03 2.209520712494850159e-02 -5.427829455584287643e-03 1.311022089794278145e-03 3.667718917131423950e-02 1.850335672497749329e-02 -1.518801972270011902e-02 4.566250368952751160e-03 1.091877929866313934e-02 -3.313841007184237242e-04 -1.901350729167461395e-02 7.450453471392393112e-03 -3.291536704637110233e-04 6.274969200603663921e-04 -5.016532377339899540e-04 -7.493476732634007931e-04 -5.598169751465320587e-03 9.895238094031810760e-03 1.831928826868534088e-02 2.000309323193505406e-04 -1.570686884224414825e-02 -6.382884457707405090e-04 -1.182185858488082886e-02 -1.099719200283288956e-02 -9.780953638255596161e-03 2.073930576443672180e-02 -1.152322161942720413e-03 8.035301230847835541e-03 -1.748755201697349548e-02 -2.347271516919136047e-02 -1.266463473439216614e-02 1.286689843982458115e-02 7.645027711987495422e-03 -6.336202844977378845e-03 -2.396336989477276802e-03 -1.335457339882850647e-02 -2.862471155822277069e-04 -1.512665953487157822e-02 -5.262863263487815857e-02 3.486684709787368774e-02 -3.440259769558906555e-02 6.335289217531681061e-04 -1.889826817205175757e-04 1.852983236312866211e-02 -1.603388413786888123e-02 -3.773534670472145081e-02 -9.390418417751789093e-03 -2.201591804623603821e-02 -5.762460455298423767e-02 1.689370535314083099e-02 -2.127612009644508362e-02 5.952115729451179504e-02 2.578031271696090698e-02 6.579317152500152588e-02 -2.338296361267566681e-02 3.464164212346076965e-02 -3.501937910914421082e-02 5.322506240190705284e-06 -2.380146645009517670e-02 -3.697629645466804504e-02 8.233696222305297852e-03 -3.102533752098679543e-03 9.184551425278186798e-03 7.526097819209098816e-03 -8.576498366892337799e-03 -3.446184843778610229e-02 5.080117285251617432e-02 -1.406024303287267685e-02 -4.036929924041032791e-03 1.052741659805178642e-03 -1.770597696304321289e-02 2.604210749268531799e-04 -3.021636605262756348e-02 -2.168157952837646008e-04 1.252216659486293793e-02 5.437128618359565735e-02 3.662779554724693298e-02 4.087467864155769348e-02 1.205393020063638687e-02 4.903106018900871277e-03 2.489930193405598402e-04 -3.268449008464813232e-02 3.797520324587821960e-02 -3.001587092876434326e-02 6.714751571416854858e-02 3.195870667695999146e-04 -2.058772183954715729e-02 -2.128308080136775970e-02 7.050587981939315796e-02 3.436533967033028603e-03 -2.716675167903304100e-03 -2.677433949429541826e-04 1.710628857836127281e-04 -1.544599421322345734e-02 -1.044028345495462418e-02 2.496728114783763885e-02 -5.200800951570272446e-03 -6.772336200810968876e-05 -1.706787006696686149e-04 9.577889926731586456e-03 -1.248555839993059635e-03 7.667715847492218018e-02 -5.876064300537109375e-03 -3.042114526033401489e-02 -4.128868225961923599e-03 -1.823864132165908813e-02 -2.336329780519008636e-02 -6.790290120989084244e-03 -4.135401395615190268e-04 9.170057624578475952e-02 4.581267945468425751e-03 1.807530410587787628e-02 -2.050909912213683128e-03 5.786850582808256149e-03 2.842737920582294464e-02 9.523875080049037933e-03 -2.257428690791130066e-02 5.359516944736242294e-03 -7.557875942438840866e-04 9.074841439723968506e-02 -2.068374864757061005e-02 2.317569218575954437e-02 -4.472979344427585602e-03 -1.033927197568118572e-03 4.190100356936454773e-02 -8.493919740431010723e-04 4.892955534160137177e-03 -3.679223731160163879e-02 -1.017338508972898126e-04 -5.811362643726170063e-04 8.369656279683113098e-03 -2.120942622423171997e-02 -9.035472758114337921e-03 -2.089541964232921600e-02 -3.685044357553124428e-04 -4.723878949880599976e-02 -3.426345530897378922e-03 1.302895718254148960e-03 -1.185895595699548721e-02 -5.784780252724885941e-03 -8.673598058521747589e-03
1.165998168289661407e-02 6.440130528062582016e-03 3.720294625964015722e-04 -6.081607192754745483e-02 -3.408956574276089668e-03 -1.058740075677633286e-02 -6.822697352617979050e-03 3.404741734266281128e-02 -1.191673101857304573e-03 -3.483235603198409081e-03 -1.690030843019485474e-02 2.585507743060588837e-02 -2.475192770361900330e-02 -8.254165202379226685e-02 -1.075035310350358486e-03 1.753122359514236450e-02 -1.890089176595211029e-02 -2.216558204963803291e-04 9.798798710107803345e-03 -1.043513137847185135e-02 -2.420249581336975098e-02 -3.426248731557279825e-04 -8.580554276704788208e-03 5.842255777679383755e-04 3.602486976888030767e-04 6.178431212902069092e-02 -4.205488041043281555e-02 -1.124057080596685410e-02 5.876057315617799759e-03 -5.753885954618453979e-02 -3.734626516234129667e-04 -3.221525344997644424e-03 7.163845584727823734e-04 -6.400188431143760681e-03 -2.657826617360115051e-02 7.678303867578506470e-03 -8.061003871262073517e-03 9.042983874678611755e-03 3.694100014399737120e-04 4.492524894885718822e-04 -7.941949181258678436e-03 2.647873712703585625e-03 2.256072685122489929e-02 -1.618503406643867493e-02 3.722495457623153925e-04 2.217770554125308990e-02 -4.109315201640129089e-02 4.839538782835006714e-02 -1.617122255265712738e-02 -1.642324030399322510e-02 -3.009898960590362549e-02 -7.265815511345863342e-03 -5.423947586677968502e-04 5.956500768661499023e-03 2.095612138509750366e-02 3.563541918992996216e-03 -4.610941186547279358e-02 4.461602494120597839e-02 1.067923903465270996e-01 6.321449181996285915e-04 3.396208165213465691e-03 1.983263529837131500e-02 -1.742033660411834717e-02 -1.233782805502414703e-02 -1.060823537409305573e-02 5.049636238254606724e-04 -2.548962831497192383e-02 2.144709601998329163e-02 -2.634126867633312941e-04 -1.909614540636539459e-03 -1.150376163423061371e-02 -6.068378221243619919e-03 6.911693344591185451e-05 2.070305403321981430e-03 2.737152017652988434e-02 3.435279650148004293e-04 3.460296243429183960e-02 -2.358452044427394867e-02 1.282994542270898819e-02 2.645283006131649017e-02 6.041659042239189148e-03 -2.194897271692752838e-02 6.325170397758483887e-03 6.473417393863201141e-03 2.424929849803447723e-02 2.181539684534072876e-02 -1.507121603935956955e-03 2.895536599680781364e-04 -3.530597314238548279e-03 1.250726543366909027e-02 2.540623769164085388e-03 -5.158651620149612427e-03 2.652519941329956055e-02 -1.389167737215757370e-02 4.657934186980128288e-04 4.767802078276872635e-03 3.458946570754051208e-02 -8.512189378961920738e-05 4.229096695780754089e-02 6.253701448440551758e-02 1.063029468059539795e-02 -1.838392205536365509e-02 5.663880729116499424e-04 -1.901647262275218964e-02 -5.593390204012393951e-03 7.063370198011398315e-03 -1.472778338938951492e-02 2.838813699781894684e-02 -9.615849703550338745e-03 6.610039854422211647e-04 1.018112307065166533e-04 -1.001900434494018555e-02 -8.702635765075683594e-03 1.433915179222822189e-02 1.052709389477968216e-02 -2.290249988436698914e-02 4.180506803095340729e-03 -8.256010711193084717e-03 -4.106998071074485779e-02 2.854654192924499512e-02 4.524617269635200500e-02 -1.356402318924665451e-02 1.594073511660099030e-02 -6.354777142405509949e-03 5.370834842324256897e-04 9.788469411432743073e-03 -9.643824771046638489e-03 -9.099341696128249168e-04 5.544542218558490276e-04 -1.241442863829433918e-03 -8.352330769412219524e-05 7.667622528970241547e-03 5.307723768055438995e-03 -8.368982002139091492e-03 -7.808282971382141113e-04 2.288440614938735962e-02 1.207197899930179119e-03 2.880664775148034096e-03 2.308690361678600311e-02 -3.551925998181104660e-03 1.793055050075054169e-02 4.179042007308453321e-04 7.155706640332937241e-03 -1.472954824566841125e-02 1.369817554950714111e-02 -4.548195749521255493e-02 1.242567040026187897e-02 -1.143691781908273697e-02 -6.519602029584348202e-04 1.482960674911737442e-02 -2.876334358006715775e-03 -1.521154190413653851e-04 -4.800837486982345581e-03 6.471268832683563232e-02 -8.227918297052383423e-03 5.082940682768821716e-02 7.178927189670503139e-04 1.082377508282661438e-03 7.007350213825702667e-04 1.427743770182132721e-02 -3.021432273089885712e-02 -4.046529158949851990e-02 -7.304157596081495285e-03 -8.865737356245517731e-03 -1.803351379930973053e-02 -5.161861423403024673e-03 -2.778851427137851715e-02 4.944211617112159729e-02 -6.229295395314693451e-03 5.188049282878637314e-03 8.389432914555072784e-04 1.267277915030717850e-02 -8.983901352621614933e-04 -3.704972798004746437e-03 1.204242091625928879e-02 -8.588105440139770508e-03 -2.560489624738693237e-02 6.265385076403617859e-03 -4.671357944607734680e-02 -1.447547320276498795e-02 -3.034515865147113800e-02 4.055814817547798157e-03 -1.020922604948282242e-02 -1.528029609471559525e-02 -3.808928013313561678e-04 -4.555835202336311340e-02 7.550451755378162488e-06 3.450720384716987610e-02 7.764342590235173702e-04 -3.943754732608795166e-02 1.506500411778688431e-02 1.129741501063108444e-02 1.758373156189918518e-02 2.625815570354461670e-02 1.624055765569210052e-02 -2.130459994077682495e-02 -7.219847291707992554e-03 4.472850414458662271e-04 -1.214961754158139229e-03 1.779680885374546051e-02 -9.892744710668921471e-04 -1.321281399577856064e-02 -1.508815679699182510e-02 5.351772066205739975e-03 6.287951953709125519e-03 -6.829520687460899353e-03 1.621002331376075745e-02 -1.211850554682314396e-03 6.542572285979986191e-03 -6.697645876556634903e-03 -5.009623244404792786e-03 -6.565351039171218872e-03 3.034734800166916102e-05 1.837825693655759096e-04 1.320377737283706665e-02 5.345800891518592834e-04 -1.189271174371242523e-02 -3.848237171769142151e-02 -1.693213358521461487e-02 -1.634597033262252808e-02 -4.284050688147544861e-02 -2.400331385433673859e-02 -2.405333518981933594e-02 -3.439644060563296080e-04 -1.691267639398574829e-02 -4.995727539062500000e-02 -6.346690002828836441e-03 -2.208964526653289795e-02 6.652239710092544556e-02 7.352679967880249023e-03 -5.417728796601295471e-03 -9.954357519745826721e-03 -7.806427031755447388e-02 -1.105174189433455467e-03 -1.940018683671951294e-02 1.785796321928501129e-02 5.994468927383422852e-03 1.392009574919939041e-02 -2.496107481420040131e-04 2.727596461772918701e-02 -5.433591431938111782e-04 -1.575427502393722534e-02 2.489260956645011902e-02 7.437698659487068653e-04 -1.186773588415235281e-04 -1.420618034899234772e-02 -7.921781390905380249e-03 -5.917822569608688354e-02 -1.794487237930297852e-02 -6.957556470297276974e-04 1.512963231652975082e-02 -4.719497635960578918e-03 1.511632092297077179e-02 2.023346722126007080e-02 9.000644087791442871e-03 1.345212478190660477e-02
2.900660410523414612e-02 2.280839253216981888e-03 -1.655585074331611395e-04 -1.658782176673412323e-02 5.752330645918846130e-03 -7.000320125371217728e-03 -5.215304344892501831e-02 3.897874848917126656e-03 1.479289639974012971e-04 1.503026578575372696e-03 1.493298914283514023e-02 2.179283462464809418e-02 5.156496167182922363e-02 -3.238138183951377869e-02 -1.717735904094297439e-05 -8.124407380819320679e-02 1.442528236657381058e-02 -3.775799414142966270e-04 9.275076910853385925e-03 1.402354985475540161e-02 -4.191836807876825333e-03 -1.496435143053531647e-02 4.489891603589057922e-02 1.211306243931176141e-05 -2.010484895436093211e-04 3.073668666183948517e-02 -1.863232813775539398e-02 -3.764825314283370972e-02 2.694123610854148865e-02 -2.909671515226364136e-02 3.231628099456429482e-03 -3.335212916135787964e-02 -7.424536743201315403e-04 -1.393411494791507721e-02 -1.545105502009391785e-02 -9.570294991135597229e-03 1.093488652259111404e-02 -1.975546590983867645e-02 2.257879823446273804e-04 -8.007548749446868896e-03 -1.318978052586317062e-02 3.301517292857170105e-02 3.796034678816795349e-02 1.767767593264579773e-02 -1.717223040759563446e-02 -6.291560130193829536e-04 -4.032020643353462219e-02 1.553133595734834671e-02 -1.126999687403440475e-02 -6.860139314085245132e-03 2.022190764546394348e-02 -2.079788967967033386e-02 -7.246151217259466648e-04 -6.726239342242479324e-03 1.997245661914348602e-02 6.988053210079669952e-03 -3.832395747303962708e-02 -2.311164513230323792e-02 7.484162691980600357e-03 7.203346467576920986e-04 -2.151618525385856628e-02 -5.013907793909311295e-04 1.330557372421026230e-02 5.040691699832677841e-03 1.749317906796932220e-02 4.689101502299308777e-02 -2.935481630265712738e-02 -2.698235772550106049e-02 1.594319357536733150e-03 -7.896865718066692352e-03 4.320290405303239822e-03 -2.772214263677597046e-02 -3.544573264662176371e-04 -4.000214487314224243e-02 -3.651098534464836121e-02 2.297183527844026685e-05 -3.097586147487163544e-02 -1.673864899203181267e-03 -3.601863514631986618e-03 4.293164238333702087e-02 3.548209741711616516e-02 1.101904641836881638e-02 1.391284167766571045e-02 -1.237434428185224533e-02 2.509736269712448120e-02 -2.872413396835327148e-02 9.051855653524398804e-03 -6.216242327354848385e-04 -1.189061067998409271e-02 5.309161543846130371e-02 -1.101927645504474640e-02 -7.477254606783390045e-03 -2.214660681784152985e-02 1.973798312246799469e-02 -1.320432056672871113e-03 1.180873718112707138e-03 -7.128205150365829468e-02 5.997344851493835449e-04 3.185837063938379288e-03 9.289671666920185089e-03 9.391526691615581512e-03 7.740158587694168091e-03 2.531606296543031931e-04 -1.508951280266046524e-02 -2.205744013190269470e-02 -3.196861594915390015e-02 1.963291689753532410e-02 1.548767834901809692e-02 -3.313203575089573860e-03 1.985349263122770935e-05 9.746873402036726475e-04 4.524955060333013535e-03 7.771293167024850845e-03 -6.523960735648870468e-03 1.175532396882772446e-02 -7.039790041744709015e-03 -2.977177128195762634e-02 2.179293148219585419e-02 -2.662190236151218414e-03 1.936177350580692291e-02 1.031061261892318726e-02 -1.815352216362953186e-02 2.518954686820507050e-03 -1.682626828551292419e-02 6.875747931189835072e-04 -1.014993246644735336e-02 -1.122029591351747513e-02 7.785533671267330647e-04 2.917096389865037054e-05 7.267846376635134220e-04 5.124359740875661373e-04 -8.202968165278434753e-03 -2.014940418303012848e-02 -1.645739935338497162e-02 -3.345828445162624121e-04 -2.116602659225463867e-02 9.511835523881018162e-04 2.289781346917152405e-03 7.095130160450935364e-03 1.226566452533006668e-02 -2.180911105824634433e-04 3.858342824969440699e-04 -1.504906639456748962e-02 -5.567682906985282898e-03 1.211338490247726440e-02 -1.828079298138618469e-02 2.673385292291641235e-02 -2.487571444362401962e-03 2.779795974493026733e-02 -2.228145673871040344e-02 -1.213621068745851517e-02 8.860080270096659660e-04 5.010686442255973816e-02 3.369059995748102665e-04 7.864629849791526794e-03 1.245374325662851334e-02 -3.712001780513674021e-04 -5.774215678684413433e-04 -6.823756732046604156e-03 1.012489199638366699e-02 -2.047677710652351379e-02 2.055115438997745514e-02 1.805685646831989288e-02 -1.296277344226837158e-02 5.764219909906387329e-03 -1.966273412108421326e-02 -7.608177140355110168e-03 2.732947282493114471e-02 -8.080568164587020874e-03 1.369997300207614899e-02 -2.188571356236934662e-02 -6.958338432013988495e-03 -2.389160654274746776e-04 1.099307183176279068e-02 -1.481839176267385483e-02 -2.051385119557380676e-02 -4.700365534517914057e-04 -2.383477054536342621e-02 -1.366006303578615189e-02 2.015076950192451477e-02 -3.896613419055938721e-02 -1.838648808188736439e-03 5.325383972376585007e-03 1.892273547127842903e-03 -1.185029686894267797e-04 1.179034356027841568e-02 -5.364932003431022167e-04 -4.538187757134437561e-02 -2.214424312114715576e-04 -2.368219662457704544e-03 4.805793240666389465e-02 7.979674264788627625e-03 1.654798910021781921e-02 -4.904767498373985291e-02 -8.541314862668514252e-03 -3.191062062978744507e-02 -2.260173857212066650e-02 2.497335709631443024e-02 -4.749563708901405334e-02 -2.256019040942192078e-02 2.659251040313392878e-04 -1.622846908867359161e-02 2.529193274676799774e-02 -1.970672234892845154e-02 9.416083805263042450e-03 4.539879783987998962e-02 -2.354000322520732880e-02 2.203451440436765552e-04 7.442064583301544189e-03 -1.545737613923847675e-04 -9.925747290253639221e-03 1.897085271775722504e-02 3.072751569561660290e-04 -3.012043307535350323e-04 -3.594478219747543335e-02 -7.698880508542060852e-04 -2.940902858972549438e-02 4.083596635609865189e-03 -1.163289230316877365e-02 5.643789842724800110e-02 -9.915136732161045074e-03 6.833460647612810135e-03 -1.821811194531619549e-03 -6.732020847266539931e-05 -3.368913894519209862e-03 1.016503386199474335e-02 -1.697450876235961914e-02 5.159208551049232483e-03 -1.803264394402503967e-02 2.230414561927318573e-02 -1.311734691262245178e-02 -8.336396887898445129e-03 -1.337282638996839523e-02 4.652869247365742922e-04 6.932229548692703247e-02 2.300485223531723022e-02 -7.029685191810131073e-03 1.031336653977632523e-02 -6.810490158386528492e-04 -1.022808253765106201e-02 -7.349919760599732399e-04 -3.839278127998113632e-03 3.797114267945289612e-02 -1.452657626941800117e-03 -6.094905547797679901e-04 1.456970348954200745e-02 1.596780307590961456e-02 -2.381565421819686890e-02 2.450148575007915497e-02 2.958242839667946100e-04 1.848865300416946411e-02 2.444952260702848434e-03 3.763931244611740112e-02 3.949697688221931458e-02 -8.636511862277984619e-03 2.488282322883605957e-02
1.060822308063507080e-01 6.058290228247642517e-02 -1.036693807691335678e-03 -4.104956239461898804e-02 3.376182913780212402e-02 1.097509823739528656e-02 -2.828136086463928223e-02 -1.422338187694549561e-02 5.171215161681175232e-04 1.228681113570928574e-02 -1.717815734446048737e-02 1.129398494958877563e-02 -2.755212970077991486e-02 1.653595827519893646e-02 -4.416836600285023451e-04 -8.823317289352416992e-02 -3.839928423985838890e-03 3.455015248619019985e-04 5.649473983794450760e-03 -2.422002702951431274e-02 4.149609711021184921e-03 5.787422880530357361e-03 1.244940049946308136e-02 -4.522647941485047340e-04 5.432115867733955383e-04 2.332747541368007660e-02 -3.379728645086288452e-02 -3.616776689887046814e-02 -3.172783181071281433e-03 1.923237578012049198e-03 5.102987051941454411e-04 1.186154410243034363e-02 -9.035767288878560066e-05 -1.469406113028526306e-02 -7.920660078525543213e-02 9.867439977824687958e-03 -2.210880257189273834e-02 -6.114508491009473801e-03 3.885125915985554457e-04 1.781522668898105621e-02 3.267592564225196838e-02 2.951213857159018517e-03 -6.944982707500457764e-02 8.197424933314323425e-03 -6.461557000875473022e-03 -2.866512164473533630e-03 -5.227915570139884949e-02 -4.407792165875434875e-02 -1.538463495671749115e-02 1.683683693408966064e-02 -2.396738342940807343e-02 1.050654146820306778e-02 -8.575005922466516495e-04 1.949471421539783478e-03 5.458210036158561707e-02 -2.059046179056167603e-02 -1.697080908343195915e-03 -3.044515848159790039e-02 4.060723586007952690e-04 -7.116128108464181423e-04 3.159224614500999451e-02 -4.227210592944175005e-05 2.307687886059284210e-02 -1.989517733454704285e-02 9.040245786309242249e-03 8.772667497396469116e-02 -4.089712724089622498e-02 -3.337344853207468987e-03 6.059886654838919640e-04 -3.365416778251528740e-03 -9.908241219818592072e-03 4.487116634845733643e-02 1.091681653633713722e-03 -1.183200534433126450e-02 -3.830591682344675064e-03 -5.344818346202373505e-04 7.659479044377803802e-03 -2.617235109210014343e-02 1.640791632235050201e-02 6.572337448596954346e-02 4.611003771424293518e-02 6.874087848700582981e-04 -3.021933080162853003e-04 -3.202359005808830261e-02 -9.008268825709819794e-03 1.780834607779979706e-02 1.791526004672050476e-02 1.242339640157297254e-04 4.812191706150770187e-03 -1.573036797344684601e-02 -3.074087668210268021e-03 1.489962544292211533e-02 5.450106784701347351e-02 -3.352634608745574951e-02 -7.242707652039825916e-04 -3.689767559990286827e-03 -1.356687843799591064e-01 4.782682226505130529e-04 -2.207268960773944855e-02 -9.755469858646392822e-03 -1.846314966678619385e-02 -1.219197642058134079e-03 2.213262177974684164e-06 5.073266848921775818e-02 -3.876721858978271484e-02 3.559344261884689331e-02 9.591789916157722473e-03 2.359065227210521698e-02 -3.336809203028678894e-02 7.833666750229895115e-04 -5.631842068396508694e-04 7.297072093933820724e-03 -1.586735248565673828e-03 2.085457555949687958e-02 5.642222706228494644e-03 1.942597329616546631e-02 -9.303146041929721832e-03 4.595461767166852951e-03 9.386809542775154114e-03 -6.691657006740570068e-03 -1.562364771962165833e-02 -2.144721709191799164e-02 -1.173285674303770065e-02 7.357443217188119888e-03 1.275982824154198170e-03 8.550247550010681152e-02 3.420747350901365280e-03 5.091563070891425014e-05 -3.736272337846457958e-04 1.146717579104006290e-03 -6.072096875868737698e-04 -2.960775513201951981e-03 -3.104450879618525505e-03 -4.411826375871896744e-03 -8.502192795276641846e-04 -3.923423960804939270e-02 1.322278985753655434e-03 -2.223855629563331604e-02 -1.031492836773395538e-02 -2.046072296798229218e-02 1.852318271994590759e-02 9.153219871222972870e-04 -3.803111612796783447e-03 -6.504579447209835052e-03 -1.347256172448396683e-02 -2.566043101251125336e-02 -1.098724827170372009e-02 2.448591776192188263e-02 -1.487417891621589661e-02 -7.370277773588895798e-03 1.891006715595722198e-02 -3.185545501764863729e-04 -4.323654249310493469e-02 -4.602981265634298325e-03 5.292519927024841309e-02 -1.179757062345743179e-02 -2.695875009521842003e-04 2.978605916723608971e-04 1.004128949716687202e-03 2.828095480799674988e-02 4.647116363048553467e-02 -1.415229961276054382e-02 6.343457847833633423e-02 -1.808743178844451904e-02 1.566210389137268066e-02 1.989267021417617798e-02 -4.095721244812011719e-02 1.013105083256959915e-02 -3.763047233223915100e-02 -1.517173275351524353e-02 2.261380851268768311e-02 -7.438283413648605347e-03 8.592746453359723091e-04 -1.835126802325248718e-02 8.494565635919570923e-02 3.595556132495403290e-03 -4.221159964799880981e-02 4.235529049765318632e-04 1.123215537518262863e-03 -8.291462436318397522e-03 1.419257093220949173e-02 1.037206780165433884e-02 1.372171659022569656e-02 -6.502825301140546799e-03 2.430832973914220929e-04 -3.334441781044006348e-02 6.918671715538948774e-05 -4.174330085515975952e-02 7.118746871128678322e-04 -1.712082885205745697e-02 -1.063234545290470123e-02 -2.079871948808431625e-03 -2.942032413557171822e-03 -2.282884716987609863e-02 1.924383267760276794e-02 -7.968705892562866211e-02 6.525203585624694824e-02 4.369499627500772476e-03 -1.212566718459129333e-02 1.239131297916173935e-02 9.139951434917747974e-04 2.040169760584831238e-02 -1.106313150376081467e-02 1.659196428954601288e-02 -6.838181056082248688e-03 1.216844655573368073e-02 -1.173668541014194489e-02 4.951104056090116501e-04 1.261840667575597763e-02 3.727634903043508530e-04 6.243140622973442078e-02 3.275539726018905640e-03 -4.687142791226506233e-04 5.918407696299254894e-04 -1.714177615940570831e-02 -8.704501669853925705e-04 -3.055281750857830048e-02 1.317539066076278687e-02 -2.406258136034011841e-02 1.199615653604269028e-02 -3.731973469257354736e-02 4.666644148528575897e-03 -2.309470251202583313e-02 5.990134668536484241e-04 -4.351263120770454407e-02 4.088642820715904236e-02 -1.245056395418941975e-03 -5.559527780860662460e-03 -3.226787969470024109e-02 6.260329857468605042e-03 5.138739012181758881e-03 -1.485557388514280319e-02 -1.454003620892763138e-02 1.665863674134016037e-04 -1.625198125839233398e-02 -1.345055270940065384e-02 7.373095722869038582e-04 -7.453487254679203033e-03 2.810231526382267475e-04 1.422119420021772385e-02 1.797526347218081355e-04 9.625305421650409698e-03 1.684777624905109406e-02 1.147399671026505530e-04 -7.771114178467541933e-05 4.055782407522201538e-02 6.202471256256103516e-02 7.455059792846441269e-03 -7.211177609860897064e-03 -2.939446421805769205e-04 -5.269444081932306290e-03 1.854541525244712830e-02 2.221263945102691650e-02 7.594192773103713989e-02 -5.865300539880990982e-03 4.218068346381187439e-02
-2.049282379448413849e-02 4.372176248580217361e-03 2.870565185730811208e-05 4.282446578145027161e-02 -3.046902641654014587e-02 9.377884678542613983e-03 -4.727185890078544617e-02 5.175787955522537231e-02 -6.129434332251548767e-04 -7.574186311103403568e-04 -1.194001175463199615e-02 5.877446383237838745e-03 1.700030639767646790e-02 1.666271500289440155e-02 4.328102222643792629e-04 -2.178433723747730255e-02 -3.909807186573743820e-03 -9.235281613655388355e-04 9.816260077059268951e-03 -1.282342337071895599e-02 -3.701803833246231079e-02 1.919652218930423260e-03 7.032419089227914810e-03 -5.834297626279294491e-04 -7.512835436500608921e-04 -5.032331682741641998e-03 3.848935663700103760e-02 -4.145997017621994019e-02 -1.556590665131807327e-02 5.796606186777353287e-03 1.913237851113080978e-03 4.573161900043487549e-02 -6.094726268202066422e-05 -2.390168607234954834e-03 -1.343777030706405640e-01 4.387846589088439941e-02 -4.908879287540912628e-03 4.936260171234607697e-03 4.888231051154434681e-04 2.944075502455234528e-02 -4.329065233469009399e-02 1.887600310146808624e-02 -4.455999936908483505e-03 -2.003011852502822876e-02 3.301801392808556557e-03 5.608137580566108227e-04 1.361789833754301071e-02 -1.886181347072124481e-02 9.697911329567432404e-03 6.499804556369781494e-02 3.064041025936603546e-02 2.471552230417728424e-03 -5.522322026081383228e-04 1.564542204141616821e-02 6.597636640071868896e-02 -4.710116423666477203e-03 5.651162937283515930e-02 -2.722907578572630882e-03 -2.053570188581943512e-02 6.324961432255804539e-04 -1.339422166347503662e-01 2.568878419697284698e-02 1.092500053346157074e-03 -1.109002274461090565e-03 7.514601573348045349e-03 2.978591248393058777e-02 -1.584568805992603302e-02 -1.522163394838571548e-03 -8.824773249216377735e-04 -3.444307483732700348e-03 -1.564958319067955017e-02 1.820940710604190826e-02 -5.536944372579455376e-04 7.339190691709518433e-02 -2.852732548490166664e-03 2.181090967496857047e-04 2.597466111183166504e-02 2.533305902034044266e-03 -3.265698999166488647e-02 -3.015668317675590515e-02 -1.306015765294432640e-03 -3.456922248005867004e-02 1.056095678359270096e-02 2.993609383702278137e-02 -1.521298289299011230e-02 2.412837557494640350e-02 7.589202374219894409e-03 -1.046708202920854092e-03 5.761534441262483597e-03 -6.420505698770284653e-03 1.073763053864240646e-02 -7.966272532939910889e-04 -5.986316129565238953e-02 7.109962403774261475e-03 -1.233464136021211743e-04 -6.502708420157432556e-03 -1.010495820082724094e-03 -2.742095675785094500e-04 5.378758651204407215e-04 1.617128401994705200e-02 -9.571652859449386597e-03 4.616962280124425888e-03 5.209365917835384607e-05 6.818488705903291702e-03 6.896029692143201828e-03 1.591270603239536285e-02 -2.033491618931293488e-02 -5.037458147853612900e-03 -2.301292493939399719e-03 1.118113686970900744e-05 -5.779922357760369778e-04 -1.113125123083591461e-03 1.370439305901527405e-02 1.605544239282608032e-02 2.567445859313011169e-02 -1.669819839298725128e-02 5.806867498904466629e-03 -2.224270999431610107e-02 -8.331674151122570038e-03 1.588230580091476440e-02 4.265448078513145447e-02 6.265715509653091431e-02 4.899395629763603210e-03 1.881722593680024147e-03 7.162546971812844276e-04 1.009582821279764175e-02 2.479698974639177322e-03 -1.095706611522473395e-04 -5.911234184168279171e-04 1.552571309730410576e-03 -2.234950079582631588e-04 -2.777234185487031937e-03 -4.189004190266132355e-03 -3.410077840089797974e-02 -2.004314737860113382e-04 -2.428105287253856659e-02 3.558229655027389526e-04 -6.060470826923847198e-03 5.886371713131666183e-03 -4.495517909526824951e-02 3.228068724274635315e-02 1.253311173059046268e-03 -5.089015699923038483e-03 -3.104546049144119024e-04 -1.093766535632312298e-03 -1.927940361201763153e-02 -1.339632365852594376e-02 -5.266973376274108887e-02 -1.555527374148368835e-02 1.498366612941026688e-02 6.421502679586410522e-03 -5.825867410749197006e-04 3.643088042736053467e-02 -9.625533595681190491e-03 -6.471876055002212524e-02 1.633216440677642822e-02 5.520991981029510498e-04 -9.738383232615888119e-04 1.038187183439731598e-02 -1.615576632320880890e-02 3.432885557413101196e-02 -1.674075238406658173e-02 -3.929492831230163574e-02 -2.064683474600315094e-02 2.593030408024787903e-02 2.353254891932010651e-02 2.107592672109603882e-02 7.259795069694519043e-02 -9.000279009342193604e-02 -6.326488684862852097e-03 -2.785060554742813110e-02 3.214214742183685303e-02 -2.383209794061258435e-04 -2.284497022628784180e-02 -5.351311340928077698e-02 -6.828086916357278824e-03 8.887338452041149139e-03 -6.292810430750250816e-04 9.501695632934570312e-03 -8.091589435935020447e-03 1.561372261494398117e-02 2.682475745677947998e-02 1.290659327059984207e-02 4.071012604981660843e-03 -5.436202627606689930e-04 1.768000051379203796e-02 -1.031171341310255229e-04 5.334450863301753998e-03 -1.953932951437309384e-06 8.838855661451816559e-03 3.473575040698051453e-02 1.679164543747901917e-02 1.689133793115615845e-02 -1.874007098376750946e-02 1.672575064003467560e-02 2.179100923240184784e-02 -4.321902990341186523e-02 1.790282130241394043e-02 1.114328671246767044e-02 5.791275575757026672e-02 -8.849184378050267696e-04 1.357164140790700912e-02 -9.510552510619163513e-03 4.530609771609306335e-02 -7.333957590162754059e-03 4.979251883924007416e-03 -1.096928585320711136e-02 -1.752380048856139183e-04 -3.000802593305706978e-03 7.596743851900100708e-02 -5.689141154289245605e-02 -8.014805614948272705e-03 1.365126663586124778e-04 1.022483571432530880e-03 -9.205908514559268951e-03 -1.276027876883745193e-03 -6.910069286823272705e-02 -1.590161398053169250e-02 1.071666087955236435e-02 -1.305675413459539413e-02 2.077448414638638496e-03 -6.098580081015825272e-03 -8.200503885746002197e-03 -3.723437839653342962e-04 -1.473377365618944168e-02 -6.037607789039611816e-03 8.947057649493217468e-03 8.141024038195610046e-03 -9.505439549684524536e-03 4.560430999845266342e-03 6.711030844599008560e-03 -2.170394547283649445e-02 -1.900945045053958893e-02 9.032616617332678288e-06 1.087057497352361679e-02 1.828044769354164600e-03 -1.881492882966995239e-02 -8.195364847779273987e-03 -4.537389613687992096e-04 6.635519093833863735e-04 -1.894225570140406489e-04 2.522835507988929749e-03 8.915509097278118134e-03 -6.948442896828055382e-04 1.738691644277423620e-04 -2.089235233142971992e-03 -3.223576024174690247e-02 4.790958948433399200e-03 -8.896072395145893097e-03 1.629488251637667418e-04 -1.511258259415626526e-02 -6.290072202682495117e-02 9.504185989499092102e-03 3.684491291642189026e-02 5.345031619071960449e-03 6.922897417098283768e-03
-9.566395310685038567e-04 1.940097101032733917e-02 -4.601580149028450251e-04 3.386918827891349792e-02 -3.547128662467002869e-02 -9.474700316786766052e-03 1.898466795682907104e-02 5.830406676977872849e-03 -8.960981358541175723e-05 -1.570290699601173401e-02 1.254021376371383667e-02 2.308241324499249458e-03 2.913618832826614380e-02 1.156133948825299740e-03 2.004748967010527849e-04 -2.765055373311042786e-02 1.866202056407928467e-02 1.577725051902234554e-04 1.404077466577291489e-02 2.460236893966794014e-03 -3.628526581451296806e-03 -3.029729705303907394e-04 1.367743499577045441e-02 6.067806971259415150e-04 -4.232115461491048336e-04 -1.480540912598371506e-02 1.474749948829412460e-02 5.468646995723247528e-03 -2.748142182826995850e-02 3.697269596159458160e-03 1.021176483482122421e-02 2.685648156329989433e-03 5.022775731049478054e-04 2.159601636230945587e-02 -2.115625143051147461e-02 -3.451346652582287788e-03 1.850495114922523499e-02 -6.735661532729864120e-03 -3.975458821514621377e-05 -2.816481981426477432e-03 1.485859043896198273e-02 -1.103234663605690002e-02 -7.450401782989501953e-02 2.394011244177818298e-03 -3.689601144287735224e-04 -6.460304837673902512e-03 4.838486667722463608e-03 1.854803971946239471e-02 1.592146605253219604e-02 -2.018049918115139008e-02 2.195243723690509796e-02 2.493728650733828545e-03 6.149211549200117588e-04 1.337634772062301636e-02 -6.770046893507242203e-03 -6.147016771137714386e-03 -5.441021639853715897e-03 1.848503574728965759e-02 5.016466137021780014e-03 5.174217512831091881e-04 4.026372916996479034e-03 -3.686154959723353386e-03 2.127744257450103760e-02 1.847525872290134430e-02 2.552148140966892242e-02 -1.121990010142326355e-02 9.902082383632659912e-03 9.608726948499679565e-03 1.007153536193072796e-03 -1.030385773628950119e-02 4.664162115659564734e-04 1.503597758710384369e-02 3.471664967946708202e-04 2.845179289579391479e-02 5.797909107059240341e-03 -9.804376168176531792e-05 2.267956733703613281e-02 3.306438215076923370e-03 -5.747099872678518295e-03 -2.486986853182315826e-02 2.013313211500644684e-02 -5.294138938188552856e-02 1.336714997887611389e-02 -2.812505699694156647e-03 5.883697886019945145e-03 8.596550673246383667e-03 1.902956701815128326e-02 4.060002975165843964e-04 -1.275123911909759045e-03 -1.330749969929456711e-02 1.002177316695451736e-02 3.190064802765846252e-02 3.241372294723987579e-03 1.447399333119392395e-02 -2.748463302850723267e-04 1.175528671592473984e-02 -4.774605389684438705e-03 -2.755656314548105001e-04 9.181312634609639645e-04 -3.647050121799111366e-03 1.380446832627058029e-02 -3.518859669566154480e-02 1.041999057633802295e-04 4.984125262126326561e-04 -5.284682847559452057e-03 -1.621025055646896362e-02 -8.680376224219799042e-03 1.352461799979209900e-02 7.343057659454643726e-04 2.352611481910571456e-04 6.048515788279473782e-04 -1.443992648273706436e-02 -7.854193449020385742e-03 -2.679134719073772430e-02 3.393847262486815453e-03 -2.700737444683909416e-03 -2.767165564000606537e-02 -2.067439025267958641e-03 3.017227724194526672e-02 -2.566564641892910004e-02 7.496465928852558136e-03 -2.226307429373264313e-02 4.041134379804134369e-03 -3.311378415673971176e-03 -1.838268508436158299e-04 -3.053792985156178474e-03 3.238978562876582146e-03 -7.800785824656486511e-04 -3.591451095417141914e-04 -1.246984233148396015e-03 2.064719737973064184e-04 -2.083756262436509132e-03 -6.323364563286304474e-03 1.537295710295438766e-02 3.537522279657423496e-04 -4.425155743956565857e-02 8.506166050210595131e-04 1.343244407325983047e-02 -9.271727874875068665e-03 -3.395894076675176620e-03 -4.215520340949296951e-03 2.450409228913486004e-04 6.895979866385459900e-03 -1.397435786202549934e-03 1.913663558661937714e-02 -2.518077148124575615e-03 -2.516910666599869728e-03 -6.086818873882293701e-03 -1.334585342556238174e-02 3.289137501269578934e-03 -2.628805302083492279e-02 -8.103952495730482042e-06 -4.994067549705505371e-02 2.348974230699241161e-04 -5.294523667544126511e-03 -2.653261274099349976e-02 2.655820389918517321e-05 1.286627026274800301e-03 1.246308721601963043e-02 7.764020469039678574e-03 6.872047204524278641e-03 5.227913614362478256e-03 -3.605431120377033949e-04 -3.478097543120384216e-02 -3.747442038729786873e-03 6.412771064788103104e-03 -3.091368998866528273e-04 9.091584011912345886e-03 2.786611206829547882e-03 -3.672869410365819931e-03 5.591003689914941788e-03 -7.611084263771772385e-03 -8.283242350444197655e-04 1.564935781061649323e-02 -3.689672565087676048e-03 8.281709742732346058e-04 1.490423455834388733e-02 2.417224226519465446e-03 9.647770784795284271e-03 -5.929482728242874146e-02 -3.666501864790916443e-02 -1.082641351968050003e-02 -3.950453922152519226e-02 -5.398699548095464706e-03 5.860178862349130213e-05 -3.857581317424774170e-02 -8.178168791346251965e-04 -1.909895800054073334e-02 1.830212539061903954e-03 1.214346848428249359e-02 3.358680987730622292e-03 3.560704179108142853e-03 8.815913461148738861e-03 -4.335732385516166687e-02 -3.013211116194725037e-02 4.249708261340856552e-03 -2.858867635950446129e-03 -1.269070897251367569e-02 -3.136734291911125183e-02 -2.278642030432820320e-03 -2.679744793567806482e-04 1.881075277924537659e-02 2.324930205941200256e-02 2.998694544658064842e-03 -4.742701072245836258e-03 4.386281128972768784e-03 -1.280946773476898670e-03 -6.778716342523694038e-04 9.427784010767936707e-03 2.356437966227531433e-02 2.730875508859753609e-03 -1.426280848681926727e-02 -5.786171532236039639e-04 -2.418634830974042416e-04 7.897789590060710907e-03 1.093158614821732044e-03 -2.201683633029460907e-02 -3.457241877913475037e-02 1.721991784870624542e-02 -1.931639760732650757e-02 2.625931613147258759e-02 -2.623411081731319427e-02 -1.922682486474514008e-02 -9.571794653311371803e-04 1.278167869895696640e-02 -2.524935454130172729e-02 9.461062960326671600e-03 -5.368440970778465271e-02 1.483789179474115372e-02 -1.519296038895845413e-02 1.076083537191152573e-02 -2.307845093309879303e-02 3.274031728506088257e-02 -6.507547223009169102e-04 -1.286776270717382431e-03 1.194169279187917709e-02 3.083850629627704620e-02 4.473432432860136032e-03 2.644640335347503424e-04 3.017058409750461578e-02 1.161819091066718102e-04 -2.102698013186454773e-02 1.789821125566959381e-02 -3.889875733875669539e-05 -5.865432322025299072e-04 1.107999868690967560e-02 6.377091631293296814e-03 1.157149765640497208e-02 1.260973233729600906e-02 -5.701929912902414799e-04 -9.157638065516948700e-03 -6.158630829304456711e-03 1.195590756833553314e-02 1.802756078541278839e-02 -4.770214110612869263e-02 1.874325610697269440e-02
2.263700589537620544e-02 -1.823436468839645386e-02 -3.390880301594734192e-04 1.012498605996370316e-02 -3.149914322420954704e-03 2.840456552803516388e-02 -1.172607019543647766e-02 -1.238648500293493271e-02 4.465394595172256231e-04 -3.504394367337226868e-02 4.381732083857059479e-03 1.610919460654258728e-02 -1.035523712635040283e-01 2.688253531232476234e-03 -1.669359044171869755e-03 2.534960396587848663e-02 2.011093683540821075e-02 -1.499961363151669502e-03 1.401632186025381088e-02 3.084423393011093140e-02 9.643462486565113068e-03 -1.043971534818410873e-02 1.219585305079817772e-03 3.767584712477400899e-05 2.667508670128881931e-04 -2.996597439050674438e-02 1.180653739720582962e-02 -2.773167565464973450e-02 -3.277136012911796570e-02 2.893812209367752075e-02 -3.797898814082145691e-02 -2.574095688760280609e-02 -3.928844816982746124e-04 -1.176900230348110199e-02 -2.016955800354480743e-02 1.791826635599136353e-02 2.395690232515335083e-02 -1.413333509117364883e-02 -1.970691955648362637e-04 1.077041495591402054e-02 -1.335917972028255463e-02 -2.837396413087844849e-02 3.162836283445358276e-02 1.631125994026660919e-02 -9.470674209296703339e-03 -4.812926054000854492e-02 2.208712045103311539e-03 -1.677838526666164398e-02 3.248475259169936180e-03 -8.953142911195755005e-03 -3.692821040749549866e-02 -1.134371850639581680e-02 7.206813847915327642e-07 -1.832934096455574036e-03 3.577794879674911499e-02 -7.301921490579843521e-03 1.672523841261863708e-02 -3.517780452966690063e-02 -1.755794696509838104e-02 -2.005766145884990692e-04 -1.494910847395658493e-02 8.334336802363395691e-03 -3.964110463857650757e-02 -1.176897808909416199e-02 -1.577124372124671936e-02 3.651722893118858337e-02 2.798865549266338348e-03 -4.151374101638793945e-02 -1.582757104188203812e-04 -6.469966843724250793e-03 3.113083355128765106e-02 3.160120919346809387e-02 -1.515696203568950295e-04 -2.539244294166564941e-02 1.059967093169689178e-02 -2.301377680851146579e-04 5.007625743746757507e-02 -1.273995265364646912e-02 4.160210490226745605e-02 -2.216714993119239807e-02 -2.164901793003082275e-02 4.445921629667282104e-03 2.605850063264369965e-02 -3.921092487871646881e-03 -1.606628671288490295e-02 -1.213460788130760193e-02 -4.584150388836860657e-02 2.395152987446635962e-04 -5.109406542032957077e-03 1.971156895160675049e-02 -1.050895731896162033e-02 -7.542651891708374023e-02 2.684726007282733917e-02 2.647647168487310410e-03 -1.232580143550876528e-05 -3.526732698082923889e-02 2.681574970483779907e-02 -5.578315540333278477e-05 -8.316560648381710052e-03 -4.418756347149610519e-03 3.725352510809898376e-02 -2.796449884772300720e-02 3.315845096949487925e-04 4.206812009215354919e-03 7.576615083962678909e-03 6.603505462408065796e-03 2.447401639074087143e-03 3.236910793930292130e-03 -4.492962267249822617e-03 9.866924956440925598e-04 -3.115170984528958797e-04 -3.346804156899452209e-02 -5.166825279593467712e-02 -2.388500841334462166e-03 6.151035893708467484e-03 -5.326823145151138306e-02 -2.066120319068431854e-02 -1.441629976034164429e-02 1.197002641856670380e-02 3.094440512359142303e-02 1.759902201592922211e-02 2.617148123681545258e-02 -1.773256459273397923e-03 -1.231890823692083359e-02 3.298091469332575798e-04 -1.268606726080179214e-02 -2.203429583460092545e-03 1.152518554590642452e-03 -3.936465145670808852e-05 2.012984361499547958e-03 -7.457686006091535091e-04 -7.951759733259677887e-03 -1.229403447359800339e-02 7.793531753122806549e-03 -1.404518698109313846e-04 1.355570089071989059e-02 1.288389903493225574e-03 -2.362682111561298370e-02 8.890969678759574890e-03 6.156751420348882675e-03 1.956431008875370026e-02 -5.124306189827620983e-04 -1.189731620252132416e-02 -1.872630044817924500e-02 3.385761380195617676e-02 1.165723334997892380e-02 4.975274577736854553e-02 -1.664862036705017090e-02 -1.905642636120319366e-02 -8.024279028177261353e-03 -6.913015153259038925e-03 -3.537601442076265812e-04 1.857788860797882080e-02 4.118777811527252197e-02 -2.774957939982414246e-02 3.384778276085853577e-02 3.506704815663397312e-04 -4.137642390560358763e-04 -1.717936946079134941e-03 -6.013868376612663269e-02 3.065769560635089874e-02 -2.234514802694320679e-02 3.488391265273094177e-02 2.881390973925590515e-02 -3.565426170825958252e-02 6.551380502060055733e-04 2.109526284039020538e-02 1.322381664067506790e-02 -9.009345434606075287e-03 -9.365600533783435822e-03 2.441806718707084656e-02 2.640685811638832092e-02 -5.436668870970606804e-04 -1.487597543746232986e-02 1.885360851883888245e-02 -9.400321170687675476e-03 -2.299560979008674622e-02 -1.343829371035099030e-02 -2.490109531208872795e-03 1.562294922769069672e-02 1.821436733007431030e-02 -3.680098056793212891e-02 1.571066305041313171e-02 -2.495475299656391144e-02 1.376193249598145485e-03 6.950252223759889603e-03 -1.398771128151565790e-04 1.356526743620634079e-02 -1.111875870265066624e-03 -1.437749993056058884e-02 1.066629309207201004e-02 2.423714287579059601e-02 5.641189403831958771e-03 -6.431923247873783112e-03 -8.625905960798263550e-03 -6.706742104142904282e-03 2.019363082945346832e-02 -2.458103001117706299e-02 1.081171445548534393e-03 -9.630308486521244049e-03 8.612911187810823321e-06 -3.108306787908077240e-02 3.730474971234798431e-03 -1.559379510581493378e-02 -3.141443803906440735e-02 1.745442976243793964e-03 2.059272862970829010e-02 -2.875143254641443491e-04 2.262029238045215607e-02 1.458203233778476715e-02 2.101586945354938507e-02 -2.845497988164424896e-02 -9.930437954608350992e-05 3.866927581839263439e-04 1.251536188647150993e-03 1.736755366437137127e-04 -1.172976288944482803e-02 -2.538796514272689819e-03 -3.106045722961425781e-02 7.212120108306407928e-03 -2.837688662111759186e-02 1.174627803266048431e-02 -1.679833605885505676e-02 -1.827976957429200411e-04 1.138118840754032135e-02 5.840832600370049477e-04 -1.251998636871576309e-02 -6.013366952538490295e-02 -2.590339817106723785e-02 -5.649677291512489319e-02 -1.093605346977710724e-02 -6.471445783972740173e-03 -4.106498509645462036e-02 4.384657222544774413e-05 -5.504546314477920532e-02 -2.088737860321998596e-02 -5.138088017702102661e-03 -2.946408465504646301e-02 -3.616328467614948750e-04 1.614830456674098969e-02 -3.578470495995134115e-04 1.093117403797805309e-03 -2.327792719006538391e-02 2.215571657870896161e-05 -3.313336055725812912e-04 1.318031921982765198e-02 3.427575528621673584e-02 3.067030385136604309e-02 -6.722720805555582047e-03 -2.542948641348630190e-04 3.663704916834831238e-02 -9.553469717502593994e-03 1.592119224369525909e-02 2.503105998039245605e-02 -2.943194936960935593e-03 -1.625533215701580048e-02
1.952315494418144226e-02 3.095730394124984741e-02 4.805315984413027763e-04 -1.996241882443428040e-02 1.892294175922870636e-02 -1.592644304037094116e-02 -2.719249017536640167e-02 5.637104623019695282e-03 -5.588828935287892818e-04 -1.761603518389165401e-03 2.766092540696263313e-03 -3.376851603388786316e-02 1.956223510205745697e-02 8.670718967914581299e-02 -6.210775463841855526e-04 -4.165400285273790359e-03 2.148826979100704193e-02 1.535898190923035145e-03 -1.526100211776793003e-03 1.442583650350570679e-02 -5.131012946367263794e-02 -3.341477829962968826e-03 1.631713286042213440e-02 1.729741343297064304e-04 1.002940116450190544e-03 -5.295293405652046204e-02 5.238965526223182678e-02 -3.825041279196739197e-02 3.113063983619213104e-03 5.157933384180068970e-02 4.204133525490760803e-03 -3.904322534799575806e-02 8.990386850200593472e-04 -3.015184774994850159e-02 2.051377086900174618e-04 2.413250505924224854e-03 -2.559895161539316177e-03 -2.008392289280891418e-02 -7.421608897857367992e-04 1.206655986607074738e-02 -2.936149574816226959e-02 1.324036438018083572e-02 -2.828933112323284149e-02 -4.878437891602516174e-02 -4.357870784588158131e-04 1.674601435661315918e-02 -1.638917252421379089e-02 6.222581490874290466e-02 1.398923341184854507e-02 1.039671432226896286e-02 -8.467839099466800690e-03 5.719889421015977859e-03 -1.076207729056477547e-03 -1.122904382646083832e-02 -2.444764971733093262e-02 4.032469820231199265e-03 4.136683046817779541e-02 2.827760577201843262e-02 3.528700023889541626e-02 -6.951531977392733097e-04 1.837048493325710297e-02 7.620867341756820679e-03 -1.658845692873001099e-02 -5.512109491974115372e-03 -1.187044009566307068e-02 1.773932017385959625e-02 -3.676140680909156799e-02 1.188418921083211899e-02 2.076656528515741229e-05 -5.291063338518142700e-03 1.356996875256299973e-02 -8.390522561967372894e-03 -4.486261459533125162e-04 -2.276343666017055511e-02 1.774941803887486458e-03 -2.834896440617740154e-04 -2.852190099656581879e-02 -1.290677022188901901e-02 -2.828614553436636925e-03 2.733916230499744415e-02 9.395951637998223305e-04 2.417380735278129578e-02 -2.434629201889038086e-02 -1.265870640054345131e-03 3.170882165431976318e-02 -1.467395666986703873e-02 -4.553284030407667160e-03 -8.569096826249733567e-05 4.483268596231937408e-03 -1.714195311069488525e-02 -6.910628173500299454e-03 4.184079356491565704e-03 -3.450941992923617363e-03 1.470408961176872253e-02 -1.791086833691224456e-04 -2.968656830489635468e-03 3.390705958008766174e-02 -1.524511935713235289e-05 3.504259139299392700e-02 -3.528131917119026184e-02 -5.948234349489212036e-02 2.407017722725868225e-02 -4.303424211684614420e-04 -2.327665500342845917e-02 -1.385774696245789528e-03 -1.956586726009845734e-02 9.708411991596221924e-03 2.974558994174003601e-02 7.264644838869571686e-03 -1.854129513958469033e-04 7.440347108058631420e-04 8.878570050001144409e-03 -3.031056607142090797e-03 -1.715838164091110229e-02 1.344698946923017502e-03 -7.693918887525796890e-03 1.263658050447702408e-02 4.666951484978199005e-03 5.176759138703346252e-02 -1.665426604449748993e-02 -2.743170596659183502e-02 9.198118932545185089e-03 -2.264429628849029541e-02 3.618018934503197670e-03 -6.500544841401278973e-04 6.441406439989805222e-03 3.447275608777999878e-03 -2.426353021292015910e-04 6.795053486712276936e-04 -1.896683359518647194e-03 5.342563381418585777e-04 -1.027075946331024170e-02 -7.242385298013687134e-03 -3.732865303754806519e-02 8.233389817178249359e-04 -2.692224644124507904e-02 -1.170526138594141230e-05 -7.297939620912075043e-03 -1.360701397061347961e-02 -1.643908210098743439e-02 1.001000963151454926e-02 -3.635959583334624767e-04 -5.582547280937433243e-03 2.251119440188631415e-04 -2.958564274013042450e-02 2.855735132470726967e-03 2.275165403261780739e-03 1.660018600523471832e-02 -1.123980246484279633e-02 -3.208542987704277039e-02 -3.997790161520242691e-03 4.077739431522786617e-04 -5.138748511672019958e-02 4.313083831220865250e-03 -1.650314964354038239e-02 -3.634761646389961243e-02 -5.196398706175386906e-04 3.404668241273611784e-04 1.055733487010002136e-02 -2.583309821784496307e-02 2.665375359356403351e-03 3.205907065421342850e-03 7.095054257661104202e-03 -1.915906555950641632e-02 -1.484025828540325165e-02 -1.946526765823364258e-02 3.596295416355133057e-02 -5.226800963282585144e-02 -2.036118879914283752e-02 -5.889205262064933777e-03 -2.136529050767421722e-02 -2.967087784782052040e-03 -3.460975131019949913e-04 -5.472598131746053696e-03 5.198666825890541077e-03 5.165582988411188126e-03 -1.746298931539058685e-02 -3.504041349515318871e-03 4.327184706926345825e-02 2.528541907668113708e-02 2.587117813527584076e-02 3.552828729152679443e-02 -1.127964630722999573e-02 -1.278833672404289246e-02 -1.832824083976447582e-03 -3.151165321469306946e-02 -2.500773116480559111e-04 -3.924750164151191711e-02 -1.233820803463459015e-03 -1.388669479638338089e-02 -2.827936084941029549e-03 -2.861992269754409790e-02 -5.046437960118055344e-03 -2.142453938722610474e-02 -2.292668633162975311e-02 -4.160474985837936401e-03 1.514802314341068268e-02 1.170292403548955917e-02 -1.452580746263265610e-02 -2.192293293774127960e-02 4.474956076592206955e-04 -1.421259343624114990e-02 3.026379272341728210e-02 -1.563563384115695953e-02 -5.601070821285247803e-03 2.070518955588340759e-02 -3.208632348105311394e-03 6.023093592375516891e-04 -1.430499646812677383e-02 5.141552537679672241e-02 5.047741811722517014e-03 8.054494857788085938e-03 4.695675452239811420e-04 -1.309285948991600890e-06 1.301832846365869045e-03 4.761847085319459438e-04 -2.243351750075817108e-02 2.607899717986583710e-02 -2.342893928289413452e-02 -2.520427666604518890e-02 -3.461084142327308655e-02 -2.762724761851131916e-04 -2.780956029891967773e-02 2.575412217993289232e-04 3.409785404801368713e-02 1.450828369706869125e-02 5.821649450808763504e-03 -8.467474021017551422e-03 5.673046410083770752e-02 1.213664188981056213e-02 6.955144461244344711e-03 2.800097921863198280e-03 5.272244289517402649e-02 -7.870439440011978149e-04 -2.740078233182430267e-02 -1.971921883523464203e-02 3.287995466962456703e-03 -2.383759012445807457e-03 -1.287436578422784805e-03 -2.039533667266368866e-02 2.605373738333582878e-04 1.164287328720092773e-02 -2.845192886888980865e-02 -3.955641004722565413e-04 1.049837097525596619e-03 3.699783002957701683e-03 2.763502066954970360e-03 5.318412929773330688e-02 -1.164187584072351456e-02 1.124771079048514366e-03 -3.546688333153724670e-02 -3.452334320172667503e-03 -2.419557608664035797e-02 -3.275933489203453064e-02 -2.458105608820915222e-02 -2.408954873681068420e-02
-4.992058500647544861e-03 1.936038397252559662e-02 1.220930716954171658e-03 6.137830205261707306e-03 4.864715505391359329e-03 1.161258900538086891e-03 3.219677880406379700e-02 -1.577898114919662476e-02 -6.850299541838467121e-04 6.959032616578042507e-04 -2.499007992446422577e-02 -1.880950853228569031e-02 -2.147286944091320038e-02 1.208335533738136292e-02 -1.163564622402191162e-03 1.236379053443670273e-02 -1.834325492382049561e-02 -3.180996573064476252e-04 5.748867988586425781e-03 -2.787196077406406403e-02 1.020274218171834946e-02 -3.373729810118675232e-02 4.722036793828010559e-02 1.201410486828535795e-04 5.896239890716969967e-04 -6.115677300840616226e-03 -3.077675215899944305e-02 2.681664563715457916e-02 -1.726612076163291931e-02 8.747721090912818909e-03 1.655865460634231567e-02 2.634352631866931915e-02 -7.144301198422908783e-04 -1.485841348767280579e-03 -1.102079171687364578e-02 1.417929306626319885e-02 -1.956003531813621521e-02 -1.769756339490413666e-02 3.174215453327633440e-05 2.177688293159008026e-02 7.328954990953207016e-03 -1.428501307964324951e-02 1.053966768085956573e-02 -1.791252568364143372e-02 -3.121297061443328857e-02 6.312390789389610291e-03 2.893334440886974335e-02 -9.732849895954132080e-03 1.798442378640174866e-02 2.595756435766816139e-03 -2.555672265589237213e-02 -3.405743092298507690e-02 6.195366731844842434e-04 7.155991625040769577e-03 4.631737712770700455e-03 -3.570967167615890503e-02 2.161744982004165649e-02 3.538687527179718018e-02 3.121293336153030396e-02 -3.447494527790695429e-04 4.535797517746686935e-03 7.895668968558311462e-03 -9.898747317492961884e-03 4.035068210214376450e-03 -9.431122802197933197e-03 -1.755154691636562347e-02 -4.391097463667392731e-03 2.928896062076091766e-02 1.935414184117689729e-04 -3.763689473271369934e-02 -3.520725667476654053e-02 1.472972147166728973e-02 4.961590748280286789e-04 2.944412641227245331e-02 -2.782544866204261780e-02 -4.735104739665985107e-04 2.031668461859226227e-02 -5.539634730666875839e-03 9.536970406770706177e-03 -2.187981968745589256e-03 -2.427620440721511841e-02 -1.339622586965560913e-02 -5.713317543268203735e-03 -1.352072320878505707e-02 -1.274722628295421600e-02 1.961815543472766876e-02 -1.071089971810579300e-02 -8.390348521061241627e-04 -4.321298003196716309e-02 -1.707397401332855225e-02 -2.867350727319717407e-02 2.193278074264526367e-02 3.124711476266384125e-02 1.198360323905944824e-02 -9.371030319016426802e-05 7.650357205420732498e-03 -3.956275060772895813e-02 -1.843037753133103251e-04 -9.458381682634353638e-03 -2.077148295938968658e-02 -1.415629312396049500e-02 1.405702251940965652e-02 -3.383097937330603600e-04 2.365676872432231903e-02 -6.928604561835527420e-03 3.920761123299598694e-02 -2.682148665189743042e-02 -4.299864917993545532e-02 2.785240858793258667e-02 6.095414864830672741e-04 1.004589488729834557e-03 2.652678173035383224e-03 -1.177056599408388138e-02 1.619637943804264069e-02 -8.282181806862354279e-03 1.166435610502958298e-02 -8.221918717026710510e-03 -2.676437422633171082e-02 -5.419269669800996780e-03 -8.648335002362728119e-03 6.715813651680946350e-04 -1.948023401200771332e-02 -3.160074725747108459e-02 -4.003784805536270142e-02 -4.197141388431191444e-04 -8.657193742692470551e-03 -2.953533455729484558e-02 3.385256859473884106e-04 7.696384564042091370e-04 1.751090167090296745e-03 2.819921646732836962e-04 1.215182524174451828e-02 -2.752937003970146179e-02 1.358625479042530060e-02 -1.955460465978831053e-04 2.886324375867843628e-02 3.200730425305664539e-04 5.451125092804431915e-03 -6.606568396091461182e-02 9.095524437725543976e-03 -2.041487768292427063e-02 5.856651114299893379e-04 -3.103735297918319702e-02 1.771797239780426025e-02 8.146433974616229534e-04 3.308246657252311707e-02 -2.386591397225856781e-02 1.261474005877971649e-02 -2.654617093503475189e-02 -1.380054559558629990e-02 1.324056764133274555e-03 7.249430636875331402e-04 2.438289113342761993e-02 -8.507123216986656189e-03 1.736496202647686005e-02 -2.115709334611892700e-02 6.517823785543441772e-04 1.692209974862635136e-03 -3.218283876776695251e-02 -1.184528600424528122e-02 3.359971940517425537e-02 -5.676499754190444946e-02 1.233483850955963135e-02 2.026950567960739136e-02 -1.088930480182170868e-02 1.579900272190570831e-02 3.999260440468788147e-02 -4.502210300415754318e-03 1.672237366437911987e-02 1.268916763365268707e-02 2.072199247777462006e-02 -1.000623963773250580e-02 -4.334946279413998127e-04 6.048353388905525208e-03 2.271211519837379456e-02 -3.179228305816650391e-02 -2.368242107331752777e-02 -2.256238274276256561e-02 1.939549110829830170e-03 -5.310025531798601151e-03 -4.430403932929039001e-03 9.106346406042575836e-03 4.291489254683256149e-03 -1.767957210540771484e-02 -8.545624441467225552e-04 1.082132384181022644e-02 -2.932079369202256203e-04 2.765294350683689117e-02 1.915340981213375926e-04 -1.151950191706418991e-02 -2.567894756793975830e-02 -7.457679137587547302e-03 -1.047007739543914795e-02 2.128051407635211945e-02 2.561194263398647308e-02 3.025298938155174255e-02 1.005945913493633270e-02 -3.663755487650632858e-03 4.327967297285795212e-03 2.658955566585063934e-02 5.369990685721859336e-05 1.484760548919439316e-02 -4.486568272113800049e-02 3.434694558382034302e-02 3.369805170223116875e-03 5.640982463955879211e-02 -2.368317730724811554e-02 8.323051588376984000e-05 -9.519709274172782898e-03 -1.073329150676727295e-02 2.263644151389598846e-02 -1.976379379630088806e-02 -2.813312166836112738e-04 -2.283562789671123028e-04 -3.502422571182250977e-02 -5.406153286457993090e-05 2.928373031318187714e-02 5.146400071680545807e-04 -1.149360556155443192e-02 -3.781322762370109558e-02 -1.135449763387441635e-02 1.256412453949451447e-02 2.074477076530456543e-02 -5.934975342825055122e-04 2.940650656819343567e-02 -1.348119345493614674e-03 -2.790285460650920868e-02 3.766330424696207047e-03 2.102041803300380707e-02 -3.296804614365100861e-03 -3.415606543421745300e-02 4.849845543503761292e-03 2.041050978004932404e-02 5.335591849870979786e-04 -2.915511280298233032e-02 1.313820667564868927e-02 -3.073617350310087204e-03 6.915519014000892639e-03 4.024076915811747313e-04 -4.332308890298008919e-04 1.651116908760741353e-04 -2.406620047986507416e-02 -5.729961395263671875e-02 1.577454968355596066e-04 2.327893162146210670e-04 -3.535723080858588219e-03 1.135746482759714127e-02 3.584561403840780258e-03 5.064602941274642944e-03 -8.534642256563529372e-05 -3.444350138306617737e-02 1.032650354318320751e-03 -6.343579292297363281e-02 6.381902378052473068e-03 2.219293080270290375e-02 -2.356783114373683929e-02
-3.887665271759033203e-02 5.600084364414215088e-02 -4.785415949299931526e-04 -6.048125401139259338e-02 -1.705633848905563354e-02 2.810711041092872620e-02 -3.178506717085838318e-02 6.546159740537405014e-03 4.828610399272292852e-04 2.096142061054706573e-02 2.123717404901981354e-02 8.817861787974834442e-03 -3.840153105556964874e-03 -2.469323202967643738e-02 -2.188298676628619432e-04 2.042774856090545654e-02 4.518779367208480835e-02 -3.922824689652770758e-04 7.626765873283147812e-03 1.367133576422929764e-02 -3.996497020125389099e-02 7.661657407879829407e-03 2.428298071026802063e-02 1.877541799331083894e-04 -8.053486235439777374e-04 2.459530904889106750e-02 -2.469149045646190643e-02 -2.972715534269809723e-02 2.085157111287117004e-02 -3.865422913804650307e-03 2.324543520808219910e-02 -1.863177493214607239e-02 1.014110399410128593e-03 -3.827923163771629333e-02 -2.886546216905117035e-02 4.276086692698299885e-04 2.391308732330799103e-02 1.945259608328342438e-02 -1.316033594775944948e-04 -1.145349815487861633e-02 -5.166295450180768967e-03 1.396488165482878685e-03 -2.976567670702934265e-02 -2.033691853284835815e-02 5.346972495317459106e-03 7.778336759656667709e-03 1.367512997239828110e-02 -2.274299599230289459e-02 3.527496382594108582e-02 -3.239057213068008423e-02 -2.881856262683868408e-02 -4.309178038965910673e-04 -5.542776198126375675e-04 1.313378103077411652e-02 -1.017051003873348236e-02 8.331360295414924622e-03 -2.568787708878517151e-02 -8.491149172186851501e-03 2.421054989099502563e-02 6.104125059209764004e-04 -1.811388507485389709e-02 -1.395419519394636154e-02 1.978801004588603973e-02 4.163946211338043213e-02 3.112389333546161652e-02 -3.773778676986694336e-02 -6.817077845335006714e-02 3.429998643696308136e-03 2.609314396977424622e-04 -4.230947699397802353e-03 3.626484656706452370e-03 2.458967966958880424e-03 -8.434149785898625851e-04 4.697039257735013962e-03 -5.341753363609313965e-03 8.986967150121927261e-04 1.115059666335582733e-02 -6.492091715335845947e-02 -2.240858785808086395e-02 -5.487629398703575134e-02 -9.456304460763931274e-02 -7.630236912518739700e-03 3.799213841557502747e-02 -4.432477429509162903e-02 9.182468056678771973e-04 1.574562047608196735e-03 2.139134891331195831e-02 6.781584816053509712e-04 1.061658002436161041e-02 7.418978493660688400e-03 -6.871627410873770714e-04 1.711452566087245941e-02 -2.220509201288223267e-02 1.514795515686273575e-02 3.197096229996532202e-04 3.189849480986595154e-02 -2.948682988062500954e-03 -1.362063339911401272e-04 1.555254030972719193e-02 -1.013486646115779877e-02 -1.109810546040534973e-02 1.893028430640697479e-02 -1.829054963309317827e-04 1.504856068640947342e-02 9.099811315536499023e-03 3.804235020652413368e-03 2.036951109766960144e-02 -8.638585358858108521e-02 5.014459788799285889e-02 -3.462392487563192844e-04 1.323242468060925603e-04 -8.302620612084865570e-03 -3.418331965804100037e-02 -3.925146535038948059e-02 1.290487870573997498e-02 5.984968040138483047e-03 -9.503667242825031281e-03 2.459563128650188446e-02 -5.148951709270477295e-02 1.084731519222259521e-02 3.726030467078089714e-03 -1.042976882308721542e-02 6.540855858474969864e-03 -6.027973722666501999e-03 -7.568995933979749680e-04 -2.545563504099845886e-02 7.422999478876590729e-03 5.434540798887610435e-05 -1.154574332758784294e-03 -2.143825637176632881e-03 7.117137429304420948e-04 8.314336091279983521e-02 -1.637851586565375328e-03 -3.296734765172004700e-02 -5.113508086651563644e-04 -1.791464723646640778e-02 4.610751057043671608e-04 3.639452531933784485e-02 -2.336097322404384613e-02 1.895729335956275463e-03 -6.172025110572576523e-03 -6.920032319612801075e-05 4.554471466690301895e-03 4.786902666091918945e-02 2.839678712189197540e-02 2.622254751622676849e-02 -1.911829970777034760e-02 -1.752696186304092407e-02 2.220395579934120178e-02 1.283325254917144775e-02 1.987699943128973246e-04 -1.105510047636926174e-03 -3.319200500845909119e-02 1.824264228343963623e-02 -3.036459349095821381e-02 7.317692507058382034e-03 1.897466863738372922e-04 2.519229310564696789e-04 -9.840921498835086823e-03 -1.368424668908119202e-02 2.132610790431499481e-02 -3.775731101632118225e-02 3.157946839928627014e-02 2.699013100937008858e-03 -2.721416763961315155e-02 2.003915049135684967e-02 5.027810856699943542e-02 -4.438784962985664606e-04 -3.038549609482288361e-02 6.405086070299148560e-02 -1.928058080375194550e-02 9.695199318230152130e-03 -4.311834927648305893e-04 2.332777343690395355e-02 -2.396946959197521210e-02 6.598887033760547638e-03 -5.130793899297714233e-02 6.765722762793302536e-03 6.774979992769658566e-04 -8.967123576439917088e-04 -3.172585740685462952e-02 -8.576971478760242462e-03 3.357680514454841614e-02 -4.111373797059059143e-02 -3.797509998548775911e-04 -1.484380662441253662e-02 -2.341060171602293849e-04 2.221732214093208313e-02 -2.752607688307762146e-04 -4.691277816891670227e-02 1.381474826484918594e-02 1.913514547049999237e-02 8.536153472959995270e-03 1.238878723233938217e-02 2.399689331650733948e-02 3.719149902462959290e-02 -1.839718036353588104e-02 1.318765711039304733e-02 -2.283706562593579292e-03 -1.413256861269474030e-02 1.448412804165855050e-04 2.627427875995635986e-02 3.113853931427001953e-02 -1.580757554620504379e-03 2.326724864542484283e-02 2.156053483486175537e-02 5.690823774784803391e-03 4.235275846440345049e-04 2.883806265890598297e-02 1.115607446990907192e-03 -8.278068853542208672e-04 1.886107027530670166e-02 -6.212066182342823595e-06 8.514797082170844078e-04 -3.770382329821586609e-02 1.462700543925166130e-03 2.339864522218704224e-02 1.796728698536753654e-03 -2.979200892150402069e-02 -3.479349240660667419e-02 -5.287747830152511597e-02 7.878237217664718628e-02 7.581267040222883224e-03 -2.604637120384722948e-04 4.552284628152847290e-02 2.090176567435264587e-02 8.856809698045253754e-03 9.437580592930316925e-03 -1.714267767965793610e-02 8.043179288506507874e-03 5.131335929036140442e-03 2.220937982201576233e-02 2.000074647367000580e-02 -9.224701207131147385e-04 2.555332146584987640e-02 6.633953005075454712e-02 -3.720318898558616638e-03 2.114900015294551849e-02 -5.064613069407641888e-04 3.159364219754934311e-03 -3.928786900360137224e-04 -3.785305470228195190e-02 -7.459144294261932373e-02 1.003045355901122093e-03 -7.592917972942814231e-05 1.743621192872524261e-02 3.023342601954936981e-02 1.075803302228450775e-03 3.332589194178581238e-02 -8.183598984032869339e-04 -6.277491897344589233e-02 -1.754117943346500397e-02 -5.490647628903388977e-02 -1.571412570774555206e-02 2.840732224285602570e-02 -5.631805956363677979e-02
-1.882382086478173733e-03 -5.206902977079153061e-03 -9.255971526727080345e-04 -1.291737891733646393e-02 2.249567583203315735e-02 5.260468926280736923e-03 1.517538260668516159e-02 -3.492844849824905396e-02 -3.883136669173836708e-04 8.015514351427555084e-03 1.130250003188848495e-02 1.232916139997541904e-03 -4.549310356378555298e-02 -7.372925523668527603e-03 -5.480326944962143898e-04 1.218164153397083282e-02 -1.130303740501403809e-02 -1.194932381622493267e-03 -5.275296978652477264e-03 1.822223141789436340e-02 -3.334057331085205078e-02 -1.167801558040082455e-03 1.531968638300895691e-02 -8.471462642773985863e-04 2.743995864875614643e-04 -7.698047440499067307e-03 1.557315792888402939e-02 2.132674120366573334e-02 -1.778122782707214355e-02 2.997599076479673386e-03 -1.264872401952743530e-02 -2.133251167833805084e-02 3.899312287103384733e-04 -3.496482223272323608e-02 1.560002472251653671e-02 3.255365043878555298e-02 7.373023778200149536e-03 6.663495209068059921e-03 1.000747550278902054e-03 3.246463835239410400e-02 -6.293109804391860962e-02 -1.106714271008968353e-02 9.186545386910438538e-03 -5.143225565552711487e-02 6.869910284876823425e-03 1.460638269782066345e-02 2.195079065859317780e-02 -2.208762988448143005e-02 -9.160727262496948242e-03 -5.348517745733261108e-02 5.597708746790885925e-02 -2.762853866443037987e-03 4.764450713992118835e-04 1.454622577875852585e-02 1.867312379181385040e-02 1.401456631720066071e-02 3.728482173755764961e-03 7.098749047145247459e-04 -7.418077439069747925e-03 -4.394132993184030056e-04 2.127989195287227631e-02 5.923296138644218445e-02 8.068162947893142700e-03 2.303339168429374695e-02 2.095949091017246246e-02 3.715060185641050339e-03 -2.296823635697364807e-02 1.257757656276226044e-02 5.134906386956572533e-04 -5.906447768211364746e-03 -1.606988348066806793e-02 1.659977249801158905e-02 -6.038458086550235748e-04 -1.526674721390008926e-03 3.495253250002861023e-02 -1.449580449843779206e-04 1.644335687160491943e-02 1.042093709111213684e-02 -1.140453107655048370e-02 -7.866175146773457527e-04 -1.507021952420473099e-03 -1.026027463376522064e-02 -7.691756356507539749e-03 -3.504699096083641052e-02 3.226606920361518860e-02 2.812177874147891998e-02 3.470707684755325317e-02 1.754786499077454209e-04 -3.976321313530206680e-03 2.730222418904304504e-02 2.653311705216765404e-03 6.145193707197904587e-03 3.528873203322291374e-03 1.636695675551891327e-02 7.576579228043556213e-04 7.622622651979327202e-04 -5.608158186078071594e-03 -5.705432267859578133e-04 -1.897569745779037476e-02 -4.876842349767684937e-02 -1.591387204825878143e-02 -3.454154729843139648e-02 -3.504269116092473269e-04 -7.017375435680150986e-03 -2.820455003529787064e-03 2.496968209743499756e-02 -2.659706026315689087e-02 5.611410364508628845e-03 1.163338124752044678e-02 4.185674770269542933e-04 6.745787104591727257e-04 -5.581633746623992920e-02 -1.449510827660560608e-02 5.260324105620384216e-02 9.226123802363872528e-03 -5.540429055690765381e-02 -7.754463003948330879e-04 -9.804259985685348511e-03 8.792858570814132690e-03 1.584807597100734711e-02 1.596530899405479431e-02 -6.813054438680410385e-03 -3.620201488956809044e-03 -1.325427088886499405e-03 -4.785586497746407986e-04 1.924485550262033939e-03 -2.878148108720779419e-03 -8.268714882433414459e-04 9.073165711015462875e-05 -2.270279655931517482e-04 5.263041239231824875e-04 2.989593520760536194e-02 -3.004103200510144234e-04 -4.668442904949188232e-02 7.101341616362333298e-04 -1.895250752568244934e-02 -1.409359683748334646e-04 -1.734629739075899124e-03 3.567219246178865433e-03 3.402080014348030090e-02 5.634493008255958557e-02 -9.132135164691135287e-05 1.493785995990037918e-03 -8.595936000347137451e-03 -4.750062711536884308e-03 -2.246781252324581146e-02 -9.965341538190841675e-03 5.898985639214515686e-02 -2.890620380640029907e-02 -5.557426251471042633e-03 -2.395341545343399048e-02 1.111803576350212097e-04 -4.935106635093688965e-02 1.890664175152778625e-02 4.335972666740417480e-02 6.401186110451817513e-04 -4.174328933004289865e-05 1.687281182967126369e-04 9.875906398519873619e-04 6.026912108063697815e-02 -2.040870749624446034e-04 7.729868590831756592e-02 -2.200281061232089996e-02 -4.702738951891660690e-03 -3.137582167983055115e-02 8.129392750561237335e-03 2.897844417020678520e-03 1.405009068548679352e-02 1.053609140217304230e-02 -3.308458626270294189e-02 -1.024247519671916962e-02 8.016034960746765137e-03 -9.793229401111602783e-04 -6.646844558417797089e-03 -6.480274721980094910e-03 -4.749173298478126526e-03 1.471438445150852203e-02 -1.202273415401577950e-03 -2.065090276300907135e-02 -3.841378539800643921e-02 2.136446069926023483e-03 -2.243499830365180969e-02 -6.399358971975743771e-04 -1.688317023217678070e-02 -6.080358434701338410e-05 1.408625207841396332e-02 5.987023469060659409e-04 4.595698323100805283e-03 -1.055069267749786377e-03 4.189553856849670410e-02 1.086253859102725983e-02 1.225297618657350540e-02 1.337829884141683578e-02 -3.314314875751733780e-03 2.402966655790805817e-02 -9.914984693750739098e-04 -7.059869356453418732e-03 -2.579832682386040688e-03 3.440399887040257454e-03 1.053707860410213470e-02 -1.733317003527190536e-05 2.567117661237716675e-02 6.139613687992095947e-02 9.820660576224327087e-03 -2.855493500828742981e-02 4.691048059612512589e-03 1.125583425164222717e-02 3.176706668455153704e-04 1.208435464650392532e-02 -4.259992763400077820e-02 -8.844675496220588684e-03 -4.255849868059158325e-03 4.649860493373125792e-04 -6.526600918732583523e-04 -3.382057324051856995e-02 -9.594268049113452435e-04 3.112111426889896393e-02 -3.766447678208351135e-02 -1.692572236061096191e-02 2.820052392780780792e-02 3.706976398825645447e-02 -2.361911535263061523e-02 2.447482012212276459e-02 -2.057486999547109008e-04 1.144833490252494812e-02 -4.158714320510625839e-03 4.674714989960193634e-03 -1.562055107206106186e-02 -8.920287713408470154e-03 -1.370340120047330856e-02 4.807379096746444702e-03 9.906438179314136505e-03 -4.633311927318572998e-02 -9.546988439979031682e-05 -2.214212343096733093e-02 -3.016589768230915070e-02 2.047178335487842560e-03 -2.361651696264743805e-02 -1.601767580723389983e-04 -3.100791014730930328e-03 -1.042282601702027023e-04 -1.839266903698444366e-02 6.009070668369531631e-03 1.022090582409873605e-04 5.751099524786695838e-05 1.219355780631303787e-02 -2.630264684557914734e-02 1.033549755811691284e-02 -5.060869734734296799e-03 -4.764269979204982519e-04 -4.753896594047546387e-02 4.763893410563468933e-02 -6.720165908336639404e-02 1.521255914121866226e-02 1.127807796001434326e-02 -4.533261805772781372e-02
-1.630701473914086819e-03 1.458291430026292801e-02 -4.863840295001864433e-04 -5.117422901093959808e-03 9.329094551503658295e-03 1.372292055748403072e-03 2.252898411825299263e-03 -2.085895277559757233e-02 -8.969419286586344242e-04 1.825807383283972740e-03 -1.825439929962158203e-02 1.048091705888509750e-02 2.687244862318038940e-02 -1.000397559255361557e-02 -7.097038906067609787e-04 -3.226822987198829651e-02 -2.340984903275966644e-02 -3.545861982274800539e-04 -7.163028232753276825e-03 -7.584960758686065674e-02 3.974579740315675735e-03 1.738747768104076385e-02 -8.956917561590671539e-03 1.092353486455976963e-03 -1.488055801019072533e-03 -6.420955061912536621e-02 -4.314097389578819275e-02 -5.077365413308143616e-02 1.750961318612098694e-02 2.882996760308742523e-02 7.561962120234966278e-03 1.867966167628765106e-02 -3.418235573917627335e-04 3.085585497319698334e-02 -4.258169978857040405e-02 5.588441342115402222e-02 -2.174773998558521271e-02 2.504085190594196320e-02 1.100313747883774340e-04 3.706540167331695557e-02 3.481416776776313782e-02 -1.423598849214613438e-03 -1.234607305377721786e-02 1.406251359730958939e-02 9.741146117448806763e-03 3.539569443091750145e-03 -2.627239562571048737e-02 -3.398201987147331238e-02 -7.329978980123996735e-03 -9.050929918885231018e-03 3.944636508822441101e-02 1.021950412541627884e-02 8.357376209460198879e-04 1.842983439564704895e-02 -5.905090831220149994e-03 4.819904640316963196e-02 -4.541119933128356934e-02 -3.271996229887008667e-02 3.600905835628509521e-02 -1.966521522263064981e-04 -3.304982557892799377e-02 -3.383408486843109131e-02 8.165653795003890991e-03 -8.777031674981117249e-03 -3.687339834868907928e-03 -6.780934054404497147e-03 1.106921117752790451e-02 -2.398141846060752869e-02 3.315430949442088604e-04 1.629852876067161560e-02 -1.864672265946865082e-02 1.622057706117630005e-02 -7.373460684902966022e-04 -9.195812046527862549e-03 8.690090849995613098e-03 5.684259813278913498e-04 -1.148776989430189133e-02 2.886388683691620827e-03 -3.011407516896724701e-02 1.832413487136363983e-02 -3.539001941680908203e-02 -3.959971014410257339e-03 4.555027931928634644e-03 1.257978193461894989e-02 -1.004999279975891113e-01 2.652079798281192780e-03 -8.867154829204082489e-03 -6.260058144107460976e-04 3.257231414318084717e-02 7.836299389600753784e-02 3.252319991588592529e-03 1.691041514277458191e-02 -4.147056117653846741e-02 -7.215168792754411697e-03 -2.020894753513857722e-04 5.666591227054595947e-03 1.880045607686042786e-02 -1.183644199045374990e-04 2.930890070274472237e-03 -3.515430167317390442e-02 -2.243305183947086334e-02 3.606802783906459808e-03 -8.745333179831504822e-04 2.407852793112397194e-03 -6.821048259735107422e-02 9.284711442887783051e-03 -9.833765216171741486e-03 -7.377646397799253464e-03 1.891053281724452972e-02 -3.579244366846978664e-04 -1.263497746549546719e-03 2.253898978233337402e-02 4.153879359364509583e-03 -6.466221064329147339e-03 2.050601504743099213e-02 3.508683294057846069e-02 2.501858398318290710e-02 -4.792732186615467072e-03 7.020181976258754730e-03 5.056853406131267548e-03 -1.938435062766075134e-02 -6.390658766031265259e-02 -1.648159697651863098e-02 2.484281547367572784e-02 -5.562551086768507957e-04 2.811563573777675629e-02 -1.532511319965124130e-03 -6.971130496822297573e-04 -9.078484436031430960e-05 -3.013674868270754814e-04 2.430632885079830885e-04 -2.592636272311210632e-02 7.621726952493190765e-03 1.399789471179246902e-02 2.495138323865830898e-04 -4.876588657498359680e-02 -2.736147434916347265e-04 3.023221157491207123e-03 -1.910610310733318329e-02 5.522089451551437378e-02 2.086242288351058960e-02 -4.046048852615058422e-04 5.221248138695955276e-03 -1.663975045084953308e-02 5.434568971395492554e-03 1.269005611538887024e-02 -4.150804504752159119e-02 1.950223557651042938e-02 2.309506200253963470e-02 -1.173899322748184204e-02 -1.029745675623416901e-03 2.000737149501219392e-04 -1.537377759814262390e-02 3.963925316929817200e-02 -5.041549727320671082e-02 6.846764683723449707e-02 -2.464538847561925650e-04 -3.796751843765377998e-05 -1.029595732688903809e-03 -4.097348079085350037e-02 -1.679788529872894287e-02 -1.231048349291086197e-02 5.660605616867542267e-03 1.515339314937591553e-02 1.043360866606235504e-02 -2.202232740819454193e-02 2.301038615405559540e-02 1.333675626665353775e-02 -5.639875680208206177e-02 2.462879521772265434e-03 8.879605680704116821e-03 6.424940377473831177e-02 6.068814400350674987e-05 2.986086905002593994e-02 -2.521589770913124084e-02 2.283434569835662842e-02 1.276962365955114365e-02 1.216619368642568588e-02 -5.999026447534561157e-02 -3.461120650172233582e-02 -1.892423257231712341e-02 -3.353412076830863953e-02 -1.483242772519588470e-02 7.404049392789602280e-03 -1.236240612342953682e-03 -5.336635932326316833e-02 -5.847479333169758320e-04 -6.612005829811096191e-02 -2.659840902197174728e-05 9.734281338751316071e-03 1.225929521024227142e-02 1.632506772875785828e-02 2.667035348713397980e-02 7.019703090190887451e-02 -1.443162281066179276e-02 6.074013654142618179e-03 -8.640289306640625000e-03 -5.547949578613042831e-03 -2.581665851175785065e-02 9.678862988948822021e-03 6.472819368354976177e-04 1.566439750604331493e-03 -4.761980473995208740e-02 1.929680071771144867e-02 2.155575715005397797e-02 -4.296446684747934341e-03 -1.841587014496326447e-02 7.118372595869004726e-04 1.602520421147346497e-02 -1.625804044306278229e-02 -3.257309319451451302e-03 8.901263354346156120e-04 7.375842542387545109e-04 6.297173677012324333e-04 3.610986843705177307e-02 3.353205975145101547e-04 -1.371469628065824509e-02 -1.599069312214851379e-02 6.086902692914009094e-03 2.447174862027168274e-02 9.464507922530174255e-03 -1.143054477870464325e-02 -4.432565998286008835e-03 4.153237387072294950e-04 -1.066836062818765640e-02 -3.340835683047771454e-03 -1.159379445016384125e-02 -3.615621710196137428e-03 -1.944194547832012177e-02 1.971421204507350922e-02 -1.803772756829857826e-03 -4.144640173763036728e-03 -1.318023353815078735e-02 -3.008912608493119478e-04 2.354645356535911560e-02 1.963199675083160400e-02 -2.387999370694160461e-02 3.686722135171294212e-03 -6.065904744900763035e-04 3.525326400995254517e-02 1.014230540022253990e-03 -4.574098438024520874e-02 -2.283171564340591431e-02 -9.709023288451135159e-04 2.371736918576061726e-04 2.386780828237533569e-02 7.210712879896163940e-03 3.281392157077789307e-02 2.621428284328430891e-04 -1.261971890926361084e-03 -9.013594686985015869e-02 2.159926295280456543e-02 -2.964595332741737366e-02 -2.295620273798704147e-03 2.569575980305671692e-02 -3.060182370245456696e-02
