1.577358722686767578e+00 3.401079773902893066e-01 1.533922106027603149e-01 -1.412684321403503418e-01 -4.454137086868286133e-01 -3.841150701045989990e-01 5.003653764724731445e-01 2.553829550743103027e-01 -4.156545102596282959e-01 -2.390807867050170898e-01 3.761288523674011230e-01 8.241178095340728760e-02 1.319396048784255981e-01 4.226164147257804871e-02 1.826272308826446533e-01 -6.296584755182266235e-02 5.966705083847045898e-01 1.803023815155029297e-01 3.606790304183959961e-01 5.098306760191917419e-02 1.521744281053543091e-01 1.857279390096664429e-01 3.600621819496154785e-01 6.282929182052612305e-01 5.431413054466247559e-01 -2.111845910549163818e-01 8.945666253566741943e-02 -5.081589221954345703e-01 -3.500211536884307861e-01 1.480905771255493164e+00 -4.099637153558433056e-04 -8.026030063629150391e-01 -1.605581998825073242e+00 2.110303640365600586e+00 2.063324451446533203e+00 -1.005199670791625977e+00 -2.662526965141296387e-01 1.582258462905883789e+00 2.759477198123931885e-01 9.502813220024108887e-02 -1.330460757017135620e-01 -4.110153317451477051e-01 -3.531822264194488525e-01 4.691458344459533691e-01 2.589012682437896729e-01 -3.787740468978881836e-01 -2.501813471317291260e-01 3.719900548458099365e-01 1.284769773483276367e-01 1.380909532308578491e-01 1.109790615737438202e-02 2.299753576517105103e-01 -1.547453850507736206e-01 4.485169053077697754e-01 5.133480951189994812e-02 3.686580359935760498e-01 1.208579912781715393e-01 2.318702340126037598e-01 1.148658022284507751e-01 3.234847486019134521e-01 5.147809386253356934e-01 4.814814627170562744e-01 -2.429605722427368164e-01 4.373614862561225891e-02 -4.614411890506744385e-01 -2.471531629562377930e-01 1.482350945472717285e+00 7.147912401705980301e-05 -8.479415774345397949e-01 -5.504745841026306152e-01 2.311590671539306641e+00 2.361438035964965820e+00 -8.801261782646179199e-01 -2.697805762290954590e-01 1.572849035263061523e+00 2.226914763450622559e-01 3.458999097347259521e-02 -1.242402717471122742e-01 -3.799123466014862061e-01 -3.338937461376190186e-01 4.456859827041625977e-01 2.620609700679779053e-01 -3.300180733203887939e-01 -2.495165765285491943e-01 3.579306304454803467e-01 1.698271781206130981e-01 1.457305699586868286e-01 -2.039664797484874725e-02 2.748879194259643555e-01 -1.237643286585807800e-01 4.571263492107391357e-01 -9.912965446710586548e-02 3.233975470066070557e-01 1.485227942466735840e-01 2.126261591911315918e-01 8.120270073413848877e-02 3.065817952156066895e-01 4.330582916736602783e-01 4.518595933914184570e-01 -2.891730368137359619e-01 4.914293810725212097e-02 -4.178910851478576660e-01 -1.430125683546066284e-01 1.482626676559448242e+00 1.919050118885934353e-04 -9.490638971328735352e-01 6.795963644981384277e-01 2.247001171112060547e+00 2.012249231338500977e+00 -5.950083136558532715e-01 -2.788954079151153564e-01 1.538007616996765137e+00 1.801268011331558228e-01 -3.798474371433258057e-02 -1.131233721971511841e-01 -3.494834303855895996e-01 -3.235026597976684570e-01 4.326179921627044678e-01 2.628727853298187256e-01 -2.783522903919219971e-01 -2.306150197982788086e-01 3.439791500568389893e-01 2.058917284011840820e-01 1.559036225080490112e-01 -5.573929473757743835e-02 3.177493512630462646e-01 -6.101166084408760071e-02 4.208726584911346436e-01 -1.774179041385650635e-01 3.456670045852661133e-01 1.669317036867141724e-01 2.139746546745300293e-01 4.518901556730270386e-02 3.188396692276000977e-01 3.912267386913299561e-01 3.989308476448059082e-01 -3.018524646759033203e-01 1.348001137375831604e-02 -3.737554848194122314e-01 -3.933608159422874451e-02 1.482597351074218750e+00 5.524937878362834454e-04 -1.148530721664428711e+00 2.052492856979370117e+00 2.110567808151245117e+00 1.458637833595275879e+00 -4.221909344196319580e-01 -3.265991210937500000e-01 1.471765160560607910e+00 1.407317221164703369e-01 -1.195062547922134399e-01 -9.818552434444427490e-02 -3.234341442584991455e-01 -3.202784657478332520e-01 4.221737384796142578e-01 2.555594146251678467e-01 -2.232934981584548950e-01 -1.977084428071975708e-01 3.287550210952758789e-01 2.365490347146987915e-01 1.669403761625289917e-01 -9.344515949487686157e-02 3.616722226142883301e-01 -2.597186341881752014e-02 3.641831576824188232e-01 -2.418993711471557617e-01 3.355282247066497803e-01 7.719465345144271851e-02 1.615777611732482910e-01 5.065954849123954773e-02 3.252258598804473877e-01 3.881627917289733887e-01 3.040224015712738037e-01 -2.961212694644927979e-01 4.129163175821304321e-02 -3.273946642875671387e-01 6.011022627353668213e-02 1.484484434127807617e+00 -3.451908996794372797e-04 -1.300388097763061523e+00 3.575233221054077148e+00 1.869501709938049316e+00 7.670178413391113281e-01 -2.585810720920562744e-01 -4.102928042411804199e-01 1.367277145385742188e+00 1.089531853795051575e-01 -2.077846676111221313e-01 -7.713396102190017700e-02 -3.057578206062316895e-01 -3.213610947132110596e-01 4.130065739154815674e-01 2.411037087440490723e-01 -1.733534932136535645e-01 -1.550220549106597900e-01 3.034124970436096191e-01 2.604984641075134277e-01 1.797884702682495117e-01 -1.281561404466629028e-01 4.057653248310089111e-01 -2.683339826762676239e-02 3.011068701744079590e-01 -3.420239686965942383e-01 2.911534607410430908e-01 1.165669690817594528e-02 6.918410211801528931e-02 7.034573704004287720e-02 2.981137931346893311e-01 3.962529599666595459e-01 2.220287322998046875e-01 -2.972076237201690674e-01 2.785853482782840729e-02 -2.819393873214721680e-01 1.530795842409133911e-01 1.484536290168762207e+00 8.927633170969784260e-04 -1.465832591056823730e+00 5.027645587921142578e+00 1.570313692092895508e+00 5.026199668645858765e-02 -1.800929456949234009e-01 -4.076271355152130127e-01 1.226756334304809570e+00 8.807205408811569214e-02 -2.953183650970458984e-01 -4.585958272218704224e-02 -2.957253456115722656e-01 -3.295504748821258545e-01 4.051244854927062988e-01 2.200254052877426147e-01 -1.273742616176605225e-01 -1.082822307944297791e-01 2.630609869956970215e-01 2.761961519718170166e-01 1.927694678306579590e-01 -1.580632627010345459e-01 4.427011311054229736e-01 -2.936261147260665894e-02 1.630143821239471436e-01 -4.647858738899230957e-01 1.328002214431762695e-01 -1.173779070377349854e-01 -1.185852736234664917e-01 6.157014518976211548e-02 2.758861184120178223e-01 3.548534810543060303e-01 1.682723611593246460e-01 -2.572730183601379395e-01 -2.262429893016815186e-02 -2.340894639492034912e-01 2.403645813465118408e-01 1.485529661178588867e+00 -4.740944132208824158e-04 -1.551186323165893555e+00 6.308688163757324219e+00 1.616399407386779785e+00 -5.052199363708496094e-01 -8.789442479610443115e-02 -4.451231658458709717e-01 1.045505523681640625e+00 8.455086499452590942e-02 -3.853138089179992676e-01 -8.414781652390956879e-03 -2.993934750556945801e-01 -3.412505388259887695e-01 3.908402919769287109e-01 1.916173547506332397e-01 -9.378290176391601562e-02 -6.026826426386833191e-02 1.995937973260879517e-01 2.876206934452056885e-01 2.100333720445632935e-01 -1.722975224256515503e-01 4.690707921981811523e-01 3.817700967192649841e-02 6.954939570277929306e-03 -5.630478262901306152e-01 -2.645933032035827637e-01 -3.669395744800567627e-01 -2.981418967247009277e-01 7.005462795495986938e-02 3.242980539798736572e-01 3.083675205707550049e-01 1.894055306911468506e-01 -1.821170449256896973e-01 -1.258916109800338745e-01 -1.862452179193496704e-01 3.179403245449066162e-01 1.485697150230407715e+00 9.112764964811503887e-04 -1.418822884559631348e+00 7.333208560943603516e+00 1.636472344398498535e+00 -9.118813276290893555e-01 1.621501594781875610e-01 -4.893363118171691895e-01 8.340907692909240723e-01 9.986098855733871460e-02 -4.714410901069641113e-01 3.410877659916877747e-02 -3.114169239997863770e-01 -3.525348007678985596e-01 3.612882792949676514e-01 1.564553827047348022e-01 -7.650227099657058716e-02 -8.719053119421005249e-03 1.102752313017845154e-01 2.913499176502227783e-01 2.434621155261993408e-01 -1.673123836517333984e-01 4.847719073295593262e-01 1.769994758069515228e-02 -1.534615308046340942e-01 -6.553668379783630371e-01 -8.347125649452209473e-01 -5.768155455589294434e-01 -3.118824064731597900e-01 6.354015320539474487e-02 3.866159915924072266e-01 1.601679623126983643e-01 3.864627778530120850e-01 -9.464444220066070557e-02 -4.286952689290046692e-02 -1.357818841934204102e-01 3.821914494037628174e-01 1.488182306289672852e+00 -2.584911417216062546e-04 -1.121044516563415527e+00 7.873394012451171875e+00 2.011493444442749023e+00 -1.049802899360656738e+00 4.201205968856811523e-01 -7.990903854370117188e-01 6.012427210807800293e-01 1.231920793652534485e-01 -5.653036236763000488e-01 8.557514101266860962e-02 -3.498010635375976562e-01 -3.319481313228607178e-01 3.210778236389160156e-01 1.290744245052337646e-01 -3.732794523239135742e-02 2.674797363579273224e-02 1.366670895367860794e-02 3.156553208827972412e-01 3.152824342250823975e-01 -1.370940059423446655e-01 4.694475531578063965e-01 -2.029442191123962402e-01 -4.872221052646636963e-01 -1.034037232398986816e+00 -1.350676298141479492e+00 -4.682876169681549072e-01 9.968575835227966309e-01 1.368180215358734131e-01 2.401900142431259155e-01 -2.156107574701309204e-01 1.096942186355590820e+00 -9.872797131538391113e-02 4.076430797576904297e-01 -7.656369358301162720e-02 4.696734249591827393e-01 1.469531655311584473e+00 -3.915748384315520525e-04 -1.164963006973266602e+00 8.135962486267089844e+00 2.891787767410278320e+00 -1.799273133277893066e+00 8.160426020622253418e-01 -9.467928409576416016e-01 2.146816700696945190e-01 -8.453885912895202637e-01 1.021268248558044434e+00 8.681550025939941406e-01 -4.017536044120788574e-01 3.420231044292449951e-01 -1.159785129129886627e-02 2.272871494293212891e+00 1.084080100059509277e+00 3.496122732758522034e-02 -1.223044514656066895e+00 3.755515813827514648e-01 -1.727384805679321289e+00 3.433374166488647461e-01 -6.983085274696350098e-01 1.023377180099487305e+00 9.274169802665710449e-01 -4.766149222850799561e-01 2.478162199258804321e-02 6.061001420021057129e-01 2.445210933685302734e+00 1.218473553657531738e+00 6.310768425464630127e-03 -1.110024809837341309e+00 7.104725837707519531e-01 -1.585345387458801270e+00 5.799235701560974121e-01 -6.532219648361206055e-01 1.145632863044738770e+00 1.006482005119323730e+00 -4.597309827804565430e-01 -2.506330907344818115e-01 6.118481755256652832e-01 2.806218862533569336e+00 1.187908053398132324e+00 -1.877766288816928864e-02 -9.364515542984008789e-01 9.633973240852355957e-01 -1.390565276145935059e+00 6.024180054664611816e-01 -6.379911303520202637e-01 1.278752684593200684e+00 9.978680610656738281e-01 -4.020957648754119873e-01 -5.764114856719970703e-01 5.459887385368347168e-01 2.860390186309814453e+00 1.003944754600524902e+00 -2.237905859947204590e-01 -7.294460535049438477e-01 1.057164788246154785e+00 -1.451169133186340332e+00 6.983635425567626953e-01 -6.382057666778564453e-01 1.382785677909851074e+00 1.018376827239990234e+00 -3.208299577236175537e-01 -8.828572630882263184e-01 3.025001287460327148e-01 3.016399145126342773e+00 9.745037555694580078e-01 -3.425872325897216797e-01 -4.122626483440399170e-01 1.291676521301269531e+00 -1.491317510604858398e+00 6.337221264839172363e-01 -6.360646486282348633e-01 1.444622159004211426e+00 1.015472292900085449e+00 -2.562556266784667969e-01 -1.167184114456176758e+00 6.760785579681396484e-01 2.902204751968383789e+00 1.096151590347290039e+00 -4.004303216934204102e-01 -1.126563996076583862e-01 1.298050165176391602e+00 -1.685732722282409668e+00 7.777673006057739258e-01 -6.944197416305541992e-01 1.537283301353454590e+00 1.027708292007446289e+00 -1.548020094633102417e-01 -1.412999868392944336e+00 4.450554549694061279e-01 2.995615005493164062e+00 1.040025353431701660e+00 -2.818346023559570312e-01 9.151282161474227905e-02 1.323758006095886230e+00 -1.964630484580993652e+00 9.360675811767578125e-01 -6.975331902503967285e-01 1.639658927917480469e+00 9.315518736839294434e-01 1.683305390179157257e-02 -1.599862694740295410e+00 2.980669140815734863e-01 2.777885437011718750e+00 8.224785923957824707e-01 -1.703574657440185547e-01 3.167605102062225342e-01 1.457806468009948730e+00 -2.340507268905639648e+00 9.503976702690124512e-01 -6.712204217910766602e-01 1.392413735389709473e+00 8.000636100769042969e-01 2.641514837741851807e-01 -1.843464970588684082e+00 4.913256168365478516e-01 2.561281681060791016e+00 1.822480708360671997e-01 1.987218260765075684e-01 3.131045997142791748e-01 1.674454927444458008e+00 -2.752495765686035156e+00
-7.296988964080810547e-01 7.717918157577514648e-01 -8.358017206192016602e-01 1.543421000242233276e-01 -1.740588247776031494e-01 -1.648714393377304077e-01 1.144960820674896240e-01 2.188809961080551147e-01 7.445310708135366440e-03 -1.071603968739509583e-01 4.514949321746826172e-01 -2.801818251609802246e-01 3.293558359146118164e-01 1.360093951225280762e-01 1.932019144296646118e-01 2.364999800920486450e-02 6.470858305692672729e-02 1.164125725626945496e-01 3.443858921527862549e-01 -1.108920872211456299e-01 1.475718021392822266e-01 7.410575449466705322e-02 -5.092419311404228210e-02 -3.688497235998511314e-03 -2.204497754573822021e-01 -1.392296701669692993e-01 3.592885658144950867e-02 1.179175376892089844e-01 2.781923413276672363e-01 7.497948408126831055e-01 -3.766150330193340778e-04 8.978201746940612793e-01 2.154922246932983398e+00 -8.745107650756835938e-01 1.989155560731887817e-01 -5.921019911766052246e-01 -7.849029451608657837e-02 -6.349680423736572266e-01 7.102982401847839355e-01 -7.326149344444274902e-01 1.706831604242324829e-01 -1.641005873680114746e-01 -1.359777897596359253e-01 1.237250864505767822e-01 2.093502432107925415e-01 3.022313304245471954e-02 -1.208698600530624390e-01 4.268938302993774414e-01 -2.642196714878082275e-01 3.103023767471313477e-01 1.353038698434829712e-01 1.670361906290054321e-01 5.215178243815898895e-03 4.881365597248077393e-02 1.030145362019538879e-01 3.399284780025482178e-01 -7.105330377817153931e-02 4.069744795560836792e-02 5.153175443410873413e-03 2.265717275440692902e-02 -9.528374671936035156e-02 -2.039283066987991333e-01 -2.746677771210670471e-02 6.988734751939773560e-02 1.308333724737167358e-01 3.271350562572479248e-01 7.503976821899414062e-01 1.220720696437638253e-05 5.702233910560607910e-01 2.154923200607299805e+00 -9.938749074935913086e-01 -8.279979228973388672e-02 -3.364624381065368652e-01 -5.424581840634346008e-02 -5.390382409095764160e-01 6.544570326805114746e-01 -6.593179702758789062e-01 1.903574019670486450e-01 -1.648609042167663574e-01 -1.078195124864578247e-01 1.330927610397338867e-01 1.999198198318481445e-01 4.852449893951416016e-02 -1.333016306161880493e-01 4.128822386264801025e-01 -2.542036175727844238e-01 2.929540276527404785e-01 1.465527713298797607e-01 1.470520198345184326e-01 2.573581412434577942e-02 -3.376013040542602539e-02 1.780071407556533813e-01 3.486374914646148682e-01 -2.887016534805297852e-02 2.101873047649860382e-02 3.009655140340328217e-02 6.607801467180252075e-02 -1.430617123842239380e-01 -2.093862295150756836e-01 5.135807394981384277e-02 1.194742843508720398e-01 1.502634882926940918e-01 3.811777234077453613e-01 7.510312795639038086e-01 1.777154539013281465e-04 1.799920946359634399e-01 2.138254880905151367e+00 -9.195300936698913574e-01 -1.525720655918121338e-01 -2.044746726751327515e-01 -1.387949287891387939e-01 -4.463903009891510010e-01 5.904765129089355469e-01 -6.153388023376464844e-01 2.120852023363113403e-01 -1.834318339824676514e-01 -7.839480042457580566e-02 1.439336389303207397e-01 1.921368539333343506e-01 6.453174352645874023e-02 -1.437946707010269165e-01 4.050367176532745361e-01 -2.440618574619293213e-01 2.846473753452301025e-01 1.564362496137619019e-01 1.273861378431320190e-01 5.005110427737236023e-02 -1.366168707609176636e-01 2.667812108993530273e-01 3.563615083694458008e-01 3.266808018088340759e-02 -3.703837469220161438e-02 4.206001758575439453e-02 1.004482731223106384e-01 -1.466022282838821411e-01 -1.939680576324462891e-01 5.799376964569091797e-02 1.182756498456001282e-01 1.744665950536727905e-01 4.427106678485870361e-01 7.514445185661315918e-01 -1.444238878320902586e-04 -2.799698114395141602e-01 1.941719293594360352e+00 -6.444003582000732422e-01 -3.781251609325408936e-01 -2.734193205833435059e-01 -2.844001948833465576e-01 -3.599476516246795654e-01 5.095636248588562012e-01 -5.743390321731567383e-01 2.283612340688705444e-01 -2.153922915458679199e-01 -4.338977858424186707e-02 1.553077399730682373e-01 1.862174570560455322e-01 8.383802324533462524e-02 -1.598215103149414062e-01 4.105367958545684814e-01 -2.290713340044021606e-01 2.881014049053192139e-01 1.655954122543334961e-01 1.115445047616958618e-01 6.120312958955764771e-02 -1.876409947872161865e-01 3.825386762619018555e-01 3.732843101024627686e-01 7.358185946941375732e-02 -1.848387718200683594e-02 3.770167753100395203e-02 7.346528023481369019e-02 -1.293577253818511963e-01 -1.706706285476684570e-01 1.025211066007614136e-01 1.257041543722152710e-01 2.029790729284286499e-01 5.111609697341918945e-01 7.516837120056152344e-01 4.406653752084821463e-04 -8.341174125671386719e-01 1.446371793746948242e+00 -7.155692577362060547e-02 -5.288240909576416016e-01 -4.264238476753234863e-01 -3.689085841178894043e-01 -2.780122458934783936e-01 4.093253910541534424e-01 -5.252166390419006348e-01 2.340233027935028076e-01 -2.527528405189514160e-01 -8.758672047406435013e-04 1.722598522901535034e-01 1.794136315584182739e-01 9.955739229917526245e-02 -1.878084093332290649e-01 4.326041340827941895e-01 -2.095606029033660889e-01 3.022337853908538818e-01 1.754917353391647339e-01 9.580112248659133911e-02 4.020069539546966553e-02 -1.920198649168014526e-01 4.295533597469329834e-01 3.750462234020233154e-01 4.322894662618637085e-02 -1.658639125525951385e-02 2.621359564363956451e-02 6.522940099239349365e-02 -9.946420043706893921e-02 -9.909168630838394165e-02 1.155671849846839905e-01 1.355183869600296021e-01 2.331461608409881592e-01 5.854532718658447266e-01 7.522827982902526855e-01 1.666454045334830880e-04 -1.615287661552429199e+00 3.839634954929351807e-01 5.973212122917175293e-01 -5.309259295463562012e-01 -6.167690157890319824e-01 -3.273386061191558838e-01 -1.784687042236328125e-01 2.848402261734008789e-01 -4.324221909046173096e-01 2.306077033281326294e-01 -2.898460328578948975e-01 4.095441848039627075e-02 1.920446008443832397e-01 1.703042834997177124e-01 1.134590506553649902e-01 -2.293339669704437256e-01 4.890629351139068604e-01 -1.878513395786285400e-01 3.305751085281372070e-01 1.820874214172363281e-01 7.988023012876510620e-02 5.054669827222824097e-02 -1.733531206846237183e-01 5.255796909332275391e-01 3.795050382614135742e-01 -9.306953288614749908e-03 -1.680543273687362671e-02 1.259563025087118149e-02 4.963523522019386292e-02 -1.141396164894104004e-01 -3.185334801673889160e-02 9.210312366485595703e-02 1.560051590204238892e-01 2.749012410640716553e-01 6.614658236503601074e-01 7.533009648323059082e-01 3.682756869238801301e-05 -2.821460008621215820e+00 -1.553384542465209961e+00 1.437047362327575684e+00 -1.132596209645271301e-01 -9.175083041191101074e-01 -3.305595219135284424e-01 -1.453660055994987488e-02 1.312695145606994629e-01 -2.556702196598052979e-01 2.109281271696090698e-01 -3.052739799022674561e-01 6.781251728534698486e-02 2.072712332010269165e-01 1.600688099861145020e-01 1.232315078377723694e-01 -3.031108379364013672e-01 5.996831655502319336e-01 -1.745701730251312256e-01 3.673027455806732178e-01 1.795040965080261230e-01 6.770402938127517700e-02 4.591945558786392212e-02 -1.522133648395538330e-01 4.594333171844482422e-01 3.775850236415863037e-01 1.192170288413763046e-02 -2.499322593212127686e-02 2.450908999890089035e-03 1.029548421502113342e-01 -1.494313925504684448e-01 -1.058608386665582657e-02 4.383663460612297058e-02 2.026081532239913940e-01 3.384443521499633789e-01 7.339692711830139160e-01 7.549904584884643555e-01 -4.047378315590322018e-04 -4.543051719665527344e+00 -4.603295803070068359e+00 2.194238424301147461e+00 1.088105797767639160e+00 -1.402152657508850098e+00 -2.367671728134155273e-01 2.592687308788299561e-01 -5.290571600198745728e-02 3.378910943865776062e-02 1.673301160335540771e-01 -2.609615623950958252e-01 4.989655315876007080e-02 2.073019891977310181e-01 1.592455655336380005e-01 1.297960579395294189e-01 -4.213023781776428223e-01 8.089332580566406250e-01 -1.966650038957595825e-01 3.909962177276611328e-01 1.700434535741806030e-01 6.160802021622657776e-02 3.869457170367240906e-02 1.846455223858356476e-02 1.758223772048950195e-01 3.193224370479583740e-01 8.501407504081726074e-02 -2.976299263536930084e-02 -1.588918454945087433e-02 3.237304389476776123e-01 -3.958026170730590820e-01 -1.583998054265975952e-01 4.625319316983222961e-02 2.634551227092742920e-01 4.238385856151580811e-01 8.041831851005554199e-01 7.577417492866516113e-01 -1.065194828697713092e-05 -6.678459644317626953e+00 -8.966644287109375000e+00 2.553126573562622070e+00 2.869032621383666992e+00 -1.914219379425048828e+00 -4.502112865447998047e-01 6.526693701744079590e-01 -2.628528773784637451e-01 4.683586657047271729e-01 8.902447670698165894e-02 -7.770995795726776123e-02 -4.217473790049552917e-02 1.705699563026428223e-01 1.653963625431060791e-01 1.539864093065261841e-01 -6.234205961227416992e-01 1.233664631843566895e+00 -2.715871930122375488e-01 3.453137576580047607e-01 1.468017399311065674e-01 3.791326284408569336e-02 -5.041724070906639099e-02 7.076763510704040527e-01 -7.121381759643554688e-01 8.325298875570297241e-02 2.982418239116668701e-01 9.168239682912826538e-02 -2.837332487106323242e-01 1.034154653549194336e+00 -1.159250855445861816e+00 -7.330693602561950684e-01 -1.899297535419464111e-01 4.303024709224700928e-01 5.380633473396301270e-01 9.070069193840026855e-01 7.414203286170959473e-01 2.413499605609104037e-04 -9.111932754516601562e+00 -1.453414630889892578e+01 2.499277353286743164e+00 3.323305606842041016e+00 -1.836593151092529297e+00 -1.138738274574279785e+00 -2.376256138086318970e-01 5.546785593032836914e-01 -2.540372014045715332e-01 2.279642373323440552e-01 -1.597994416952133179e-01 6.321334838867187500e-01 -2.751305997371673584e-01 4.102419912815093994e-01 -1.304848641157150269e-01 6.256661564111709595e-02 -5.558884143829345703e-01 -4.527010023593902588e-01 -9.159246683120727539e-01 -2.524070441722869873e-01 4.416710436344146729e-01 -1.323941349983215332e-01 2.539171576499938965e-01 -1.500785797834396362e-01 7.309787869453430176e-01 -5.949891358613967896e-02 4.153141975402832031e-01 -2.328555285930633545e-02 -8.944213390350341797e-03 -4.419379830360412598e-01 -2.755271196365356445e-01 -7.416754961013793945e-01 -3.199100792407989502e-01 4.198054969310760498e-01 -1.467746794223785400e-01 1.541642546653747559e-01 -1.123107671737670898e-01 7.633793950080871582e-01 -1.511575579643249512e-01 4.794286489486694336e-01 -3.012588713318109512e-03 -9.885222464799880981e-02 -2.942965030670166016e-01 -1.306945383548736572e-01 -7.277328968048095703e-01 -1.455646306276321411e-01 3.745034039020538330e-01 -1.824051737785339355e-01 1.733926385641098022e-01 -4.810794815421104431e-02 7.508604526519775391e-01 7.966165244579315186e-02 4.552942514419555664e-01 -8.501857519149780273e-02 -1.345845907926559448e-01 -1.853878498077392578e-01 -7.690235972404479980e-02 -8.519986271858215332e-01 1.413550823926925659e-01 3.148050308227539062e-01 -8.756779134273529053e-02 1.622553914785385132e-01 -4.541375488042831421e-02 7.434179782867431641e-01 2.926900684833526611e-01 3.643364608287811279e-01 -5.919805541634559631e-02 -9.140374511480331421e-02 -3.160531818866729736e-02 3.736775368452072144e-02 -9.160457253456115723e-01 1.937930434942245483e-01 8.239558339118957520e-02 2.590538933873176575e-02 1.549211591482162476e-01 7.648115046322345734e-03 7.028714418411254883e-01 3.823309242725372314e-01 1.671094894409179688e-01 -1.091276705265045166e-01 -7.604140322655439377e-03 1.836494356393814087e-01 1.609046906232833862e-01 -1.087752699851989746e+00 2.209850400686264038e-01 -3.216587603092193604e-01 2.080566585063934326e-01 2.015791386365890503e-01 2.073153704404830933e-01 5.840047001838684082e-01 9.249920845031738281e-01 -9.041017293930053711e-02 -1.360066235065460205e-01 1.354609578847885132e-01 3.852163851261138916e-01 2.581855654716491699e-01 -1.279389739036560059e+00 2.418454587459564209e-01 -8.863096237182617188e-01 4.739221334457397461e-01 2.596135139465332031e-01 4.195287227630615234e-01 4.682193398475646973e-01 1.277711033821105957e+00 -3.443068265914916992e-01 -2.925714850425720215e-01 2.743269503116607666e-01 5.365946888923645020e-01 3.161026835441589355e-01 -1.520920753479003906e+00 5.218906402587890625e-01 -1.000072956085205078e+00 3.892193734645843506e-01 3.908717334270477295e-01 7.813931703567504883e-01 4.007549285888671875e-01 1.612957358360290527e+00 -2.849135696887969971e-01 -4.573900699615478516e-01 2.600402832031250000e-01 6.550914645195007324e-01 4.122502803802490234e-01 -1.928242087364196777e+00
1.346676588058471680e+00 -3.771286010742187500e-01 6.773434579372406006e-02 -6.820780783891677856e-02 2.994700074195861816e-01 4.980968311429023743e-02 -7.985060662031173706e-02 -4.796622693538665771e-02 5.235573053359985352e-01 -1.506553590297698975e-01 1.114242434501647949e+00 -4.235848486423492432e-01 -2.101144492626190186e-01 2.048270106315612793e-01 7.196642756462097168e-01 -6.737408041954040527e-02 6.464918702840805054e-02 -1.197278033941984177e-02 -1.324773430824279785e-01 -1.197624951601028442e-02 3.413005918264389038e-02 -1.173206493258476257e-01 1.755157113075256348e-02 -6.241374835371971130e-02 -4.583238065242767334e-02 -2.870643138885498047e-01 1.206693518906831741e-02 -1.650723218917846680e-01 1.886907592415809631e-02 2.767447710037231445e+00 -4.838231834582984447e-04 -1.709165424108505249e-02 -8.507669568061828613e-01 -1.058098196983337402e+00 1.263835668563842773e+00 -9.183394908905029297e-01 5.382193326950073242e-01 1.394547462463378906e+00 -4.326162040233612061e-01 7.327254861593246460e-02 -4.439716413617134094e-02 3.028849363327026367e-01 4.040221124887466431e-02 -7.994513213634490967e-02 -4.858778044581413269e-02 4.425080120563507080e-01 -1.557787656784057617e-01 1.091020822525024414e+00 -4.011818468570709229e-01 -2.577286064624786377e-01 2.086087614297866821e-01 6.881525516510009766e-01 1.039391197264194489e-02 5.971363931894302368e-02 -1.261696964502334595e-01 -2.343648970127105713e-01 -3.212930751033127308e-04 9.113453328609466553e-03 -4.677334800362586975e-02 6.197270005941390991e-02 -1.555210649967193604e-01 -1.052240505814552307e-01 -1.877140849828720093e-01 3.738269209861755371e-02 -5.426773056387901306e-02 2.433417364954948425e-02 2.768898248672485352e+00 9.694303298601880670e-05 2.175423875451087952e-02 -9.900712370872497559e-01 -9.129818081855773926e-01 8.574597239494323730e-01 -7.941723465919494629e-01 2.082043290138244629e-01 1.428633093833923340e+00 -4.734886288642883301e-01 3.634370490908622742e-02 -2.486682683229446411e-02 3.034981489181518555e-01 3.037680685520172119e-02 -7.773960381746292114e-02 -4.873894155025482178e-02 3.530812263488769531e-01 -1.557100862264633179e-01 1.074046373367309570e+00 -3.814834952354431152e-01 -3.014701008796691895e-01 2.092449814081192017e-01 6.548671126365661621e-01 -1.645420119166374207e-02 4.236502572894096375e-02 -1.870604902505874634e-01 -1.992148607969284058e-01 5.938822776079177856e-02 1.595152355730533600e-02 1.759898848831653595e-02 5.625282600522041321e-02 -1.976016610860824585e-01 -1.401250064373016357e-01 -1.990381628274917603e-01 8.912512660026550293e-02 4.861757531762123108e-02 -5.916688591241836548e-03 2.769765853881835938e+00 -2.240673347841948271e-04 -1.100290045142173767e-01 -1.144379138946533203e+00 -9.214111566543579102e-01 8.627810478210449219e-01 -8.234577178955078125e-01 1.828517913818359375e-01 1.455596446990966797e+00 -5.078966021537780762e-01 -3.319342434406280518e-02 -1.110164076089859009e-02 2.846376299858093262e-01 1.777001284062862396e-02 -7.453123480081558228e-02 -4.569053277373313904e-02 2.582201063632965088e-01 -1.479627192020416260e-01 1.055460453033447266e+00 -3.642877936363220215e-01 -3.412224054336547852e-01 2.016378343105316162e-01 6.302240490913391113e-01 -3.015433438122272491e-02 1.525038853287696838e-02 -1.835673451423645020e-01 -3.095405101776123047e-01 6.732257455587387085e-02 2.742713503539562225e-02 1.780612207949161530e-02 9.025332331657409668e-02 -2.452049106359481812e-01 -1.858981102705001831e-01 -1.660352498292922974e-01 8.180719614028930664e-02 1.490651816129684448e-01 -7.186823338270187378e-02 2.769919395446777344e+00 5.723109934478998184e-04 -1.888530552387237549e-01 -1.326412796974182129e+00 -9.093661308288574219e-01 8.707936406135559082e-01 -9.370774030685424805e-01 2.332688421010971069e-01 1.480719923973083496e+00 -5.474020838737487793e-01 -1.039649322628974915e-01 -1.070261374115943909e-02 2.505315542221069336e-01 7.319146767258644104e-03 -6.839825958013534546e-02 -3.795931860804557800e-02 1.605886965990066528e-01 -1.407024264335632324e-01 1.041501283645629883e+00 -3.451206088066101074e-01 -3.808629214763641357e-01 1.865569502115249634e-01 6.207582950592041016e-01 -2.204502746462821960e-02 -2.528783865272998810e-03 -1.851175874471664429e-01 -2.938295006752014160e-01 6.253537535667419434e-02 6.442335993051528931e-02 4.202681779861450195e-02 1.190572082996368408e-01 -2.920034825801849365e-01 -1.792086213827133179e-01 -1.389635950326919556e-01 5.821137502789497375e-02 2.433250099420547485e-01 -1.677119731903076172e-01 2.770908117294311523e+00 4.843387287110090256e-04 -3.922481834888458252e-01 -1.637876987457275391e+00 -8.492282032966613770e-01 8.141696453094482422e-01 -9.698966741561889648e-01 2.456756085157394409e-01 1.507197618484497070e+00 -5.895431637763977051e-01 -1.815761923789978027e-01 -2.671921811997890472e-02 1.977939307689666748e-01 -2.700151875615119934e-03 -6.473670899868011475e-02 -2.668603695929050446e-02 6.484401226043701172e-02 -1.286377459764480591e-01 1.034659504890441895e+00 -3.302953243255615234e-01 -4.154478311538696289e-01 1.694905608892440796e-01 6.260213255882263184e-01 -1.973240263760089874e-02 -5.683601275086402893e-02 -1.856517642736434937e-01 -3.532799482345581055e-01 4.812304675579071045e-02 5.705658718943595886e-02 5.756843462586402893e-02 1.719468533992767334e-01 -3.846613466739654541e-01 -1.179718747735023499e-01 -5.288534238934516907e-02 3.930067643523216248e-02 3.239305615425109863e-01 -2.810885310173034668e-01 2.771002531051635742e+00 7.856930023990571499e-04 -6.158292889595031738e-01 -2.285596847534179688e+00 -8.242357969284057617e-01 6.871507763862609863e-01 -1.042819857597351074e+00 1.662356853485107422e-01 1.537394165992736816e+00 -6.372696757316589355e-01 -2.498272657394409180e-01 -3.887072578072547913e-02 1.302429735660552979e-01 -6.472469307482242584e-03 -6.259972602128982544e-02 -1.684557832777500153e-02 -3.753204271197319031e-02 -1.210240647196769714e-01 1.042736530303955078e+00 -3.164591193199157715e-01 -4.442445337772369385e-01 1.514302194118499756e-01 6.425303220748901367e-01 -2.928757295012474060e-02 -1.182157844305038452e-01 -1.403620094060897827e-01 -3.584828972816467285e-01 -3.355494700372219086e-03 2.112613432109355927e-02 6.418425589799880981e-02 2.454522997140884399e-01 -4.640306234359741211e-01 1.846189238131046295e-02 -2.010174654424190521e-02 2.252469956874847412e-02 3.947327435016632080e-01 -4.174871444702148438e-01 2.771276235580444336e+00 9.734145351103506982e-06 -7.468687295913696289e-01 -3.371550321578979492e+00 -6.757548451423645020e-01 5.827320814132690430e-01 -9.425292015075683594e-01 4.496718943119049072e-02 1.579607605934143066e+00 -6.840254664421081543e-01 -2.896355390548706055e-01 -5.549955368041992188e-02 5.715925619006156921e-02 -9.858810342848300934e-03 -6.879291683435440063e-02 -1.074588019400835037e-02 -1.263461261987686157e-01 -1.234252750873565674e-01 1.076065897941589355e+00 -3.051334619522094727e-01 -4.717285335063934326e-01 1.308363527059555054e-01 6.720244288444519043e-01 5.404551047831773758e-03 -2.252608686685562134e-01 -1.541842892765998840e-02 -2.280016392469406128e-01 -5.248828604817390442e-02 7.574301213026046753e-03 7.549048215150833130e-02 3.098135888576507568e-01 -4.648886024951934814e-01 7.660334557294845581e-02 -2.139590866863727570e-02 7.334663067013025284e-03 4.539218544960021973e-01 -5.687104463577270508e-01 2.772566318511962891e+00 4.857376552536152303e-05 -9.483337998390197754e-01 -5.046351909637451172e+00 -5.774532556533813477e-01 7.059406042098999023e-01 -6.460362672805786133e-01 -8.182793855667114258e-03 1.650977849960327148e+00 -7.192779183387756348e-01 -2.656209468841552734e-01 -8.456319570541381836e-02 -1.194008346647024155e-02 -1.059769466519355774e-02 -8.705367892980575562e-02 -1.330147217959165573e-02 -1.917330920696258545e-01 -1.380391269922256470e-01 1.154368400573730469e+00 -2.932532429695129395e-01 -5.161902904510498047e-01 1.065994203090667725e-01 7.099468708038330078e-01 -2.260817959904670715e-02 -3.199682235717773438e-01 1.306490153074264526e-01 -2.928537782281637192e-03 -1.163934841752052307e-01 8.171460591256618500e-03 9.459639340639114380e-02 4.546107947826385498e-01 -3.073852658271789551e-01 -2.490075826644897461e-01 3.732021152973175049e-02 5.540775600820779800e-03 5.003356337547302246e-01 -7.270298600196838379e-01 2.774582386016845703e+00 2.304735098732635379e-04 -1.326346039772033691e+00 -7.778403282165527344e+00 -8.006872534751892090e-01 1.361213564872741699e+00 -1.097099035978317261e-01 -6.278476864099502563e-02 1.777545213699340820e+00 -7.465583086013793945e-01 -1.463855803012847900e-01 -1.345459371805191040e-01 -6.390144675970077515e-02 -2.001406392082571983e-03 -1.114743053913116455e-01 -3.963846340775489807e-02 -2.196354866027832031e-01 -1.774455010890960693e-01 1.341644883155822754e+00 -2.407262921333312988e-01 -6.377834081649780273e-01 7.493344694375991821e-02 7.639272809028625488e-01 -9.292027354240417480e-02 -6.317094434052705765e-03 -1.008528843522071838e-01 6.850317120552062988e-01 -3.779553472995758057e-01 -6.477142870426177979e-02 1.066995412111282349e-01 1.019374608993530273e+00 1.381088048219680786e-01 -1.705049395561218262e+00 -1.645925045013427734e-01 5.722813010215759277e-01 5.371159911155700684e-01 -8.392306566238403320e-01 2.758758783340454102e+00 3.608959377743303776e-04 -1.798255681991577148e+00 -1.162134742736816406e+01 -1.284254670143127441e+00 2.166006088256835938e+00 2.495349384844303131e-02 3.510707020759582520e-01 -4.430869221687316895e-01 -6.084855198860168457e-01 3.933977782726287842e-01 9.671787917613983154e-02 3.816184401512145996e-01 2.643989399075508118e-02 9.803191060200333595e-04 -3.899721801280975342e-01 3.055480718612670898e-01 -1.551934927701950073e-01 2.776909172534942627e-01 -2.510151863098144531e-01 1.856778264045715332e-01 -4.812519848346710205e-01 -5.446344017982482910e-01 4.244603812694549561e-01 -1.738886386156082153e-01 4.356299042701721191e-01 2.769785523414611816e-01 -1.036135256290435791e-01 -3.616960644721984863e-01 4.588407874107360840e-01 -1.262094378471374512e-01 1.722771674394607544e-01 -1.751631051301956177e-01 1.197194904088973999e-01 -3.788566887378692627e-01 -3.424061834812164307e-01 4.761952161788940430e-01 -4.136260151863098145e-01 5.163936614990234375e-01 5.078585147857666016e-01 -2.893134951591491699e-01 -1.880224496126174927e-01 5.551912188529968262e-01 -1.012425199151039124e-01 1.835888773202896118e-01 -1.346426755189895630e-01 4.456593841314315796e-02 -4.840739071369171143e-01 -1.169101446866989136e-01 3.944096863269805908e-01 -5.728794336318969727e-01 5.660437941551208496e-01 7.481578588485717773e-01 -2.832711338996887207e-01 -4.368339106440544128e-02 6.763738393783569336e-01 2.075462043285369873e-02 2.717634141445159912e-01 3.109563607722520828e-03 5.170178785920143127e-02 -5.481153130531311035e-01 2.015720307826995850e-02 4.132843613624572754e-01 -6.621801257133483887e-01 5.263221859931945801e-01 9.581200480461120605e-01 -2.270432412624359131e-01 1.272706538438796997e-01 7.042091488838195801e-01 2.034164667129516602e-01 3.744136691093444824e-01 1.129644215106964111e-01 8.702190965414047241e-02 -6.279924511909484863e-01 6.525208801031112671e-02 4.716357588768005371e-01 -7.727378606796264648e-01 4.556706249713897705e-01 1.060662150382995605e+00 -2.010233402252197266e-01 2.368609160184860229e-01 7.115599513053894043e-01 3.714302480220794678e-01 3.841725289821624756e-01 8.511926233768463135e-02 1.091955229640007019e-01 -6.692093610763549805e-01 -5.487577058374881744e-03 5.947600007057189941e-01 -8.216471672058105469e-01 4.295471012592315674e-01 1.109781384468078613e+00 3.565378114581108093e-02 2.355502396821975708e-01 7.110698819160461426e-01 5.321925282478332520e-01 4.525651633739471436e-01 4.125062376260757446e-02 1.240664646029472351e-01 -6.482950448989868164e-01 -1.287588328123092651e-01 7.640259265899658203e-01 -7.646829485893249512e-01 3.029192984104156494e-01 1.158568620681762695e+00 3.787018656730651855e-01 1.401490122079849243e-01 7.247254848480224609e-01 6.687867045402526855e-01 6.475354433059692383e-01 1.813065027818083763e-03 1.142291873693466187e-01 -9.336076378822326660e-01 -4.191499575972557068e-02 7.976265549659729004e-01 -4.415748417377471924e-01 1.884605735540390015e-01 1.135896325111389160e+00 7.093408107757568359e-01 1.117166578769683838e-01 8.230662941932678223e-01 5.555970072746276855e-01 7.741404771804809570e-01 -5.028663203120231628e-02 9.249882400035858154e-02
-3.301504254341125488e-01 1.037912845611572266e+00 -2.957256324589252472e-02 2.932384908199310303e-01 -2.626713216304779053e-01 8.287543803453445435e-02 1.884294003248214722e-01 4.499770104885101318e-01 -1.281601190567016602e-01 -1.185257453471422195e-02 3.232164084911346436e-01 1.343778669834136963e-01 4.657837748527526855e-01 4.172069728374481201e-01 -9.303743392229080200e-02 8.284967392683029175e-02 -1.129222288727760315e-01 1.541978716850280762e-01 4.297454953193664551e-01 -3.033857345581054688e-01 1.829880774021148682e-01 2.625278569757938385e-02 2.517479658126831055e-01 5.556429028511047363e-01 9.628319144248962402e-01 1.305601447820663452e-01 -1.723930090665817261e-01 8.046756982803344727e-01 -1.083707809448242188e-02 1.436450839042663574e+00 6.560765177709981799e-05 1.918930053710937500e+00 4.121373891830444336e-01 2.211057245731353760e-01 1.108056545257568359e+00 -4.165171384811401367e-01 -1.042620658874511719e+00 -3.009030520915985107e-01 9.872003793716430664e-01 -3.771855309605598450e-02 2.941254973411560059e-01 -2.718997895717620850e-01 9.670984745025634766e-02 1.598179340362548828e-01 4.391079246997833252e-01 -1.419476121664047241e-01 -5.636924412101507187e-03 3.484666049480438232e-01 1.695647388696670532e-01 5.100885629653930664e-01 4.237570762634277344e-01 -6.924843043088912964e-02 1.031766086816787720e-01 -1.226216182112693787e-01 -2.065319009125232697e-02 2.803234755992889404e-01 -2.485442347824573517e-02 7.709352672100067139e-02 -2.070188336074352264e-02 3.100397288799285889e-01 3.722097575664520264e-01 7.600344419479370117e-01 -1.570816524326801300e-02 1.815978437662124634e-02 7.748680710792541504e-01 -6.287506967782974243e-02 1.436992168426513672e+00 6.387800385709851980e-05 7.512454986572265625e-01 2.330347001552581787e-01 5.843430757522583008e-01 8.447164297103881836e-01 -3.306654989719390869e-01 -8.401302099227905273e-01 -2.784092128276824951e-01 9.262316823005676270e-01 -4.054754972457885742e-02 2.805245816707611084e-01 -2.938144207000732422e-01 9.908232837915420532e-02 1.289618760347366333e-01 4.297324419021606445e-01 -1.641585528850555420e-01 -6.473986431956291199e-03 3.748478889465332031e-01 1.995337903499603271e-01 5.528243184089660645e-01 4.271929562091827393e-01 -3.388526290655136108e-02 5.765368044376373291e-02 -1.716349422931671143e-01 1.943703182041645050e-02 1.713904738426208496e-01 9.742347896099090576e-02 -7.591242901980876923e-03 -6.428380310535430908e-02 3.745571970939636230e-01 3.731696605682373047e-01 6.018297076225280762e-01 -5.066252872347831726e-02 9.749908745288848877e-02 7.424886226654052734e-01 -1.207044646143913269e-01 1.437336683273315430e+00 -1.786686771083623171e-04 -5.060690641403198242e-01 2.132729068398475647e-02 9.249283671379089355e-01 8.159888982772827148e-01 -6.795071363449096680e-01 -7.777279615402221680e-01 -2.489589601755142212e-01 8.464939594268798828e-01 -5.760482698678970337e-02 2.668577432632446289e-01 -3.184083402156829834e-01 9.964233636856079102e-02 9.300544112920761108e-02 4.232921600341796875e-01 -1.915156990289688110e-01 -1.531704794615507126e-02 4.003746807575225830e-01 2.263226211071014404e-01 5.950834751129150391e-01 4.336988627910614014e-01 6.503271404653787613e-03 2.459833770990371704e-02 -1.839467585086822510e-01 1.346165090799331665e-01 9.353487938642501831e-02 1.676671802997589111e-01 -7.473021745681762695e-02 -9.906385093927383423e-02 4.203684628009796143e-01 3.496291935443878174e-01 4.110136032104492188e-01 -6.638191640377044678e-02 7.685402035713195801e-02 7.056831717491149902e-01 -1.518379598855972290e-01 1.438869953155517578e+00 -4.777215945068746805e-04 -1.857007741928100586e+00 -2.167571932077407837e-01 1.302123665809631348e+00 8.941150307655334473e-01 -1.154067397117614746e+00 -7.824785113334655762e-01 -2.170206010341644287e-01 7.474423646926879883e-01 -5.584574118256568909e-02 2.658544778823852539e-01 -3.428145349025726318e-01 1.008073240518569946e-01 5.459835380315780640e-02 4.203962385654449463e-01 -2.074553519487380981e-01 -2.574893273413181305e-02 4.251790642738342285e-01 2.507615983486175537e-01 6.345823407173156738e-01 4.406748712062835693e-01 4.831640049815177917e-02 2.951327478513121605e-04 -1.670657247304916382e-01 2.742614448070526123e-01 -7.328338176012039185e-02 1.237048432230949402e-01 -6.081815809011459351e-02 -9.180951118469238281e-02 4.595887362957000732e-01 2.619551122188568115e-01 1.838265508413314819e-01 -4.700123146176338196e-02 1.079968437552452087e-01 6.674466133117675781e-01 -2.166798114776611328e-01 1.439119100570678711e+00 5.588994245044887066e-04 -3.375948667526245117e+00 -4.733207523822784424e-01 1.827401399612426758e+00 9.556718468666076660e-01 -1.710937976837158203e+00 -5.634371042251586914e-01 -1.769379824399948120e-01 6.279684305191040039e-01 -2.227397449314594269e-02 2.699206471443176270e-01 -3.667710125446319580e-01 9.523688256740570068e-02 1.299746707081794739e-02 4.307456910610198975e-01 -2.039909809827804565e-01 -3.934803977608680725e-02 4.486787319183349609e-01 2.631610035896301270e-01 6.658059954643249512e-01 4.483307600021362305e-01 8.730175346136093140e-02 -5.932486429810523987e-02 -1.349314153194427490e-01 2.729665338993072510e-01 -1.816523969173431396e-01 1.557497233152389526e-01 -3.735173866152763367e-02 -8.023743331432342529e-02 4.995636641979217529e-01 6.254395842552185059e-02 -7.564384490251541138e-02 -1.934918574988842010e-02 4.891273379325866699e-02 6.271439790725708008e-01 -2.899104058742523193e-01 1.439267039299011230e+00 7.328063657041639090e-05 -5.004793643951416016e+00 -8.222150802612304688e-01 2.336581707000732422e+00 9.862607121467590332e-01 -2.231256484985351562e+00 -3.377733826637268066e-01 -1.254556179046630859e-01 4.722862541675567627e-01 3.091460652649402618e-02 2.688860297203063965e-01 -3.888730704784393311e-01 7.856503874063491821e-02 -3.031687438488006592e-02 4.490479528903961182e-01 -1.936917752027511597e-01 -5.761500447988510132e-02 4.747417271137237549e-01 2.570620179176330566e-01 6.873794198036193848e-01 4.556412994861602783e-01 1.290543526411056519e-01 -6.986010819673538208e-02 -5.842367187142372131e-02 1.628508716821670532e-01 -2.411103695631027222e-01 2.662742435932159424e-01 1.398852467536926270e-02 -6.483705341815948486e-02 5.001649856567382812e-01 -2.980003952980041504e-01 -3.295662403106689453e-01 6.157729029655456543e-02 3.622340783476829529e-02 5.825921893119812012e-01 -3.700333237648010254e-01 1.440458059310913086e+00 5.282314959913492203e-04 -6.627963066101074219e+00 -1.310352206230163574e+00 3.057249784469604492e+00 1.074878811836242676e+00 -2.622019052505493164e+00 1.004407107830047607e-01 -5.899417772889137268e-02 2.810383439064025879e-01 7.251088321208953857e-02 2.644542157649993896e-01 -4.002954661846160889e-01 4.621974378824234009e-02 -7.992409914731979370e-02 4.756453335285186768e-01 -1.795675456523895264e-01 -8.050707727670669556e-02 5.008435845375061035e-01 2.240952849388122559e-01 6.901104450225830078e-01 4.630258977413177490e-01 1.735769659280776978e-01 -2.567634917795658112e-02 8.025761693716049194e-02 -1.111442148685455322e-01 -2.480987757444381714e-01 4.772265255451202393e-01 1.194027718156576157e-02 -8.190441876649856567e-02 4.974081218242645264e-01 -7.442991733551025391e-01 -5.368958115577697754e-01 3.030568361282348633e-01 3.374876827001571655e-02 5.287595391273498535e-01 -4.615486860275268555e-01 1.442229390144348145e+00 4.325108602643013000e-04 -8.005657196044921875e+00 -1.794135093688964844e+00 3.793172359466552734e+00 1.067378044128417969e+00 -2.932425737380981445e+00 5.179889798164367676e-01 1.973143778741359711e-02 8.214715123176574707e-02 1.005762293934822083e-01 2.505657970905303955e-01 -3.973987400531768799e-01 -6.635551340878009796e-03 -1.470454633235931396e-01 5.045000910758972168e-01 -1.535057276487350464e-01 -9.876081347465515137e-02 5.210731625556945801e-01 1.486515998840332031e-01 6.653447747230529785e-01 4.774902462959289551e-01 2.210554927587509155e-01 -2.857567556202411652e-02 3.273253142833709717e-01 -4.090362191200256348e-01 -3.318152129650115967e-01 6.176917552947998047e-01 7.831780612468719482e-02 -8.508668094873428345e-02 4.842376708984375000e-01 -1.141801953315734863e+00 -7.133944034576416016e-01 5.782552957534790039e-01 3.525810688734054565e-02 4.737494587898254395e-01 -5.642640590667724609e-01 1.444370746612548828e+00 4.203877469990402460e-04 -8.989931106567382812e+00 -2.233197689056396484e+00 4.679656028747558594e+00 1.147555708885192871e+00 -2.957375288009643555e+00 7.511392235755920410e-01 1.081615984439849854e-01 -1.241080090403556824e-01 1.652999222278594971e-01 2.168729752302169800e-01 -3.920528590679168701e-01 -8.896052837371826172e-02 -2.559170722961425781e-01 5.216234922409057617e-01 -7.498367130756378174e-02 -1.230505779385566711e-01 5.457402467727661133e-01 4.144126176834106445e-02 5.881364345550537109e-01 4.806187450885772705e-01 2.654895782470703125e-01 -7.915476709604263306e-02 4.765727818012237549e-01 -1.117155075073242188e+00 -4.530604183673858643e-01 5.776143670082092285e-01 1.887391209602355957e-01 -1.360539346933364868e-01 3.696931600570678711e-01 -1.243405699729919434e+00 -1.037524461746215820e+00 5.416945219039916992e-01 -9.358281642198562622e-02 4.199104309082031250e-01 -6.375871896743774414e-01 1.430036783218383789e+00 -5.874114576727151871e-04 -9.683576583862304688e+00 -2.654601812362670898e+00 5.472231388092041016e+00 1.539281129837036133e+00 -3.298958778381347656e+00 6.289349794387817383e-01 9.261912107467651367e-01 -1.235512971878051758e+00 7.558001279830932617e-01 -3.234463334083557129e-01 -8.225946426391601562e-01 4.541754722595214844e-01 3.965760767459869385e-01 1.400076597929000854e-01 2.882359623908996582e-01 -6.012009456753730774e-02 1.262665390968322754e+00 1.240530371665954590e+00 -1.659060239791870117e+00 1.083575010299682617e+00 -1.385223627090454102e+00 1.433365345001220703e+00 -3.043195009231567383e-01 -1.062477707862854004e+00 5.222308039665222168e-01 4.181714951992034912e-01 7.855499535799026489e-02 5.754073858261108398e-01 -1.368337571620941162e-01 8.638107776641845703e-01 1.126052856445312500e+00 -1.241228818893432617e+00 1.574952363967895508e+00 -1.362107753753662109e+00 2.053647994995117188e+00 -1.908648014068603516e-01 -1.099059700965881348e+00 6.382631659507751465e-01 5.359508991241455078e-01 -2.485086396336555481e-02 8.454293608665466309e-01 -2.132564634084701538e-01 3.601619303226470947e-01 1.004847288131713867e+00 -9.307336807250976562e-01 1.858286738395690918e+00 -1.472706794738769531e+00 2.628679037094116211e+00 -1.520604789257049561e-01 -1.008488297462463379e+00 6.925576329231262207e-01 6.274828910827636719e-01 -5.883381143212318420e-02 9.638917446136474609e-01 -3.114380538463592529e-01 -2.950016781687736511e-02 9.689177274703979492e-01 -6.499819159507751465e-01 1.805635452270507812e+00 -1.427619695663452148e+00 2.883703231811523438e+00 3.371717035770416260e-02 -1.085436105728149414e+00 7.296242117881774902e-01 6.415567398071289062e-01 -1.507623344659805298e-01 9.800616502761840820e-01 -4.053325951099395752e-01 -3.462814986705780029e-01 9.019847512245178223e-01 -3.156022727489471436e-01 1.691044688224792480e+00 -1.421666026115417480e+00 3.006931543350219727e+00 -3.741344437003135681e-02 -9.934394955635070801e-01 8.199496865272521973e-01 8.475975990295410156e-01 -2.509212791919708252e-01 8.944025635719299316e-01 -4.303041696548461914e-01 -6.378073692321777344e-01 9.388617873191833496e-01 -2.874111058190464973e-03 1.615567564964294434e+00 -1.214499115943908691e+00 2.945048093795776367e+00 -9.490749239921569824e-02 -9.332037568092346191e-01 8.737391829490661621e-01 9.284304976463317871e-01 -3.237391114234924316e-01 7.001951336860656738e-01 -4.582858681678771973e-01 -8.574317097663879395e-01 8.899819254875183105e-01 2.107755541801452637e-01 1.401536345481872559e+00 -9.423425793647766113e-01 2.554361581802368164e+00 -2.830481529235839844e-01 -9.650391340255737305e-01 1.008599877357482910e+00 8.729727864265441895e-01 -2.785986661911010742e-01 4.180029630661010742e-01 -4.572514891624450684e-01 -1.025137066841125488e+00 9.090253114700317383e-01 3.534300625324249268e-01 1.263153553009033203e+00 -6.059516072273254395e-01 2.075109243392944336e+00 -4.456231296062469482e-01 -1.018976807594299316e+00 1.309550881385803223e+00 6.427370905876159668e-01 -2.141023278236389160e-01 1.689180135726928711e-01 -3.951388895511627197e-01 -1.432878017425537109e+00 1.019823074340820312e+00 4.677932262420654297e-01
1.233964204788208008e+00 9.488077163696289062e-01 -7.618018388748168945e-01 -2.766257524490356445e-01 1.280094236135482788e-01 4.924344420433044434e-01 3.750137388706207275e-01 -1.820608526468276978e-01 1.085922643542289734e-01 -2.533143162727355957e-01 2.823738455772399902e-01 1.159749925136566162e-01 6.504806876182556152e-02 5.261290073394775391e-02 1.552307158708572388e-01 1.619173027575016022e-02 -1.272473782300949097e-01 -3.028190433979034424e-01 9.854967147111892700e-02 5.364182218909263611e-02 1.233452111482620239e-01 2.356024645268917084e-02 -1.949079781770706177e-01 -8.777358382940292358e-02 3.735350072383880615e-01 -2.077021300792694092e-01 -2.597202733159065247e-02 1.554179098457098007e-02 -8.370925188064575195e-01 1.679485440254211426e+00 7.455971790477633476e-04 1.280295699834823608e-01 -1.124673247337341309e+00 6.507525444030761719e-01 8.990600109100341797e-01 -6.259485334157943726e-02 5.674922466278076172e-01 1.284349918365478516e+00 9.269396066665649414e-01 -7.498801946640014648e-01 -2.485396862030029297e-01 1.094652265310287476e-01 4.861458539962768555e-01 3.447146713733673096e-01 -1.894845664501190186e-01 1.385328918695449829e-01 -2.379220128059387207e-01 2.803617417812347412e-01 1.187373846769332886e-01 8.139338344335556030e-02 4.486094415187835693e-02 1.867073625326156616e-01 2.018662542104721069e-02 6.816262612119317055e-04 -2.323781251907348633e-01 3.305825218558311462e-02 6.081467121839523315e-02 2.155859209597110748e-02 5.806215479969978333e-02 -5.951540661044418812e-04 -7.173032313585281372e-02 2.621503174304962158e-01 -1.979370564222335815e-01 -2.947987616062164307e-02 -3.578481078147888184e-02 -8.050267100334167480e-01 1.680586457252502441e+00 5.331102292984724045e-04 7.640758752822875977e-01 -1.479775786399841309e+00 3.794588148593902588e-01 3.262962400913238525e-01 2.618244150653481483e-03 4.090515673160552979e-01 1.325920820236206055e+00 9.146972298622131348e-01 -7.516666054725646973e-01 -2.187333852052688599e-01 8.842960000038146973e-02 4.822400510311126709e-01 3.094444870948791504e-01 -1.994893550872802734e-01 1.611711382865905762e-01 -2.206939458847045898e-01 2.772216200828552246e-01 1.249078139662742615e-01 8.960959315299987793e-02 3.618156537413597107e-02 2.185361236333847046e-01 1.974237896502017975e-02 4.211575537919998169e-02 -2.145454436540603638e-01 3.382132202386856079e-02 1.062334999442100525e-01 1.798868551850318909e-02 2.582353167235851288e-02 5.986691266298294067e-02 -5.769938603043556213e-02 2.093209773302078247e-01 -1.685152202844619751e-01 -3.074434399604797363e-02 -8.710075169801712036e-02 -7.760756015777587891e-01 1.681797862052917480e+00 -4.293496313039213419e-04 1.301666140556335449e+00 -1.895777583122253418e+00 1.771803349256515503e-01 2.800471484661102295e-01 2.038025707006454468e-01 2.349382340908050537e-01 1.369766235351562500e+00 9.132081866264343262e-01 -7.502343058586120605e-01 -1.892868280410766602e-01 6.139078363776206970e-02 4.762223958969116211e-01 2.768369615077972412e-01 -2.104702293872833252e-01 1.779293417930603027e-01 -2.056149542331695557e-01 2.736109197139739990e-01 1.344481408596038818e-01 9.806381165981292725e-02 2.640640363097190857e-02 2.534542679786682129e-01 2.847304008901119232e-02 1.786209456622600555e-02 -2.409566193819046021e-01 8.129403740167617798e-02 7.633643597364425659e-02 7.221476733684539795e-02 -2.534560300409793854e-02 6.758168339729309082e-02 -3.649942344054579735e-03 2.590278983116149902e-01 -1.960903704166412354e-01 -8.351527154445648193e-02 -1.381061077117919922e-01 -7.472715377807617188e-01 1.683557271957397461e+00 -1.101863090298138559e-04 1.825575113296508789e+00 -2.417106628417968750e+00 -4.533651471138000488e-02 4.623809456825256348e-01 4.303026199340820312e-01 1.022106930613517761e-01 1.415255308151245117e+00 9.261951446533203125e-01 -7.405145764350891113e-01 -1.664170324802398682e-01 2.543173544108867645e-02 4.697932600975036621e-01 2.438193559646606445e-01 -2.224836647510528564e-01 1.858130991458892822e-01 -1.902520209550857544e-01 2.708185017108917236e-01 1.483922600746154785e-01 1.041861325502395630e-01 1.515568327158689499e-02 2.811402082443237305e-01 1.187606155872344971e-02 1.418410800397396088e-02 -2.660045623779296875e-01 7.826233655214309692e-02 1.074395924806594849e-01 7.656586170196533203e-02 -3.646844998002052307e-02 4.569529742002487183e-02 1.050444543361663818e-01 2.034573107957839966e-01 -2.413579672574996948e-01 -1.320323497056961060e-01 -1.938694715499877930e-01 -7.162045836448669434e-01 1.682681441307067871e+00 2.633078838698565960e-04 2.419322967529296875e+00 -3.094383001327514648e+00 -3.150307834148406982e-01 9.174795746803283691e-01 6.943352818489074707e-01 -1.107987239956855774e-01 1.475346803665161133e+00 9.534131288528442383e-01 -7.307026982307434082e-01 -1.532694101333618164e-01 -1.658521965146064758e-02 4.675271809101104736e-01 2.086989730596542358e-01 -2.336332350969314575e-01 1.868854612112045288e-01 -1.743037998676300049e-01 2.710655629634857178e-01 1.706085950136184692e-01 1.056920215487480164e-01 8.901687338948249817e-03 3.072174787521362305e-01 2.398447878658771515e-02 3.577987477183341980e-02 -2.498217672109603882e-01 1.545479055494070053e-02 1.189299374818801880e-01 8.309497684240341187e-02 -2.304989099502563477e-02 2.574728801846504211e-02 2.208452820777893066e-01 1.680869758129119873e-01 -2.032362222671508789e-01 -1.437863409519195557e-01 -2.625896930694580078e-01 -6.789249777793884277e-01 1.683258533477783203e+00 -4.053852171637117863e-04 3.089680671691894531e+00 -3.893199205398559570e+00 -7.688280940055847168e-01 1.666362762451171875e+00 9.755376577377319336e-01 -3.215117156505584717e-01 1.551452040672302246e+00 9.978883862495422363e-01 -7.131946682929992676e-01 -1.485203951597213745e-01 -6.479674577713012695e-02 4.676645696163177490e-01 1.761685907840728760e-01 -2.416184991598129272e-01 1.757223606109619141e-01 -1.589876264333724976e-01 2.785258889198303223e-01 1.986807733774185181e-01 1.087164282798767090e-01 4.681787453591823578e-03 3.306932151317596436e-01 -1.004691049456596375e-02 3.436166793107986450e-02 -8.542056381702423096e-02 -5.015804246068000793e-02 1.320838779211044312e-01 7.003746926784515381e-02 -1.309808716177940369e-02 9.951490908861160278e-02 3.648090660572052002e-01 2.356614023447036743e-01 -1.049365177750587463e-01 -6.340224295854568481e-02 -3.397147953510284424e-01 -6.340202689170837402e-01 1.684456944465637207e+00 -5.519200349226593971e-04 3.765360593795776367e+00 -4.789649486541748047e+00 -1.248623371124267578e+00 2.507458686828613281e+00 1.409212708473205566e+00 -4.911986291408538818e-01 1.646700859069824219e+00 1.059342741966247559e+00 -6.968147158622741699e-01 -1.461234241724014282e-01 -1.196712478995323181e-01 4.783710837364196777e-01 1.360015869140625000e-01 -2.520199418067932129e-01 1.682712435722351074e-01 -1.459320336580276489e-01 3.006897568702697754e-01 2.338230609893798828e-01 1.212859675288200378e-01 3.283169120550155640e-03 3.549112975597381592e-01 1.010691048577427864e-03 9.048447757959365845e-02 2.289368659257888794e-01 -2.003367990255355835e-01 -7.751535624265670776e-02 1.026834473013877869e-01 2.609342802315950394e-03 3.269453048706054688e-01 5.059705972671508789e-01 4.626180529594421387e-01 -2.005447745323181152e-01 2.742782421410083771e-02 -4.168991744518280029e-01 -5.787678360939025879e-01 1.685335397720336914e+00 -9.811048221308737993e-05 4.544353961944580078e+00 -5.579639434814453125e+00 -1.540775895118713379e+00 3.222710847854614258e+00 1.854374527931213379e+00 -8.293955326080322266e-01 1.753445982933044434e+00 1.128051638603210449e+00 -7.123281359672546387e-01 -1.420200467109680176e-01 -1.765120178461074829e-01 5.090085864067077637e-01 7.807034254074096680e-02 -2.733036577701568604e-01 1.598264276981353760e-01 -1.335876882076263428e-01 3.478288352489471436e-01 2.774061560630798340e-01 1.513632237911224365e-01 -8.502725511789321899e-03 3.760543167591094971e-01 5.806542932987213135e-03 7.740868628025054932e-02 7.129108905792236328e-01 -4.505558311939239502e-01 -4.894648790359497070e-01 5.785036366432905197e-03 -1.079311128705739975e-02 7.658789157867431641e-01 7.044714093208312988e-01 8.732853531837463379e-01 -5.010309219360351562e-01 6.236362457275390625e-02 -4.939993023872375488e-01 -5.036274194717407227e-01 1.686551213264465332e+00 4.132589965593069792e-04 5.224757671356201172e+00 -6.243535518646240234e+00 -1.736176252365112305e+00 3.472151756286621094e+00 1.961819052696228027e+00 -1.286777019500732422e+00 1.857658267021179199e+00 1.185648679733276367e+00 -7.774406671524047852e-01 -1.531727164983749390e-01 -2.525756359100341797e-01 5.986034274101257324e-01 -1.246772799640893936e-02 -3.205121159553527832e-01 1.675863862037658691e-01 -1.278176754713058472e-01 4.468107223510742188e-01 3.550524115562438965e-01 1.946131736040115356e-01 -2.230596542358398438e-02 3.952075242996215820e-01 -2.056217342615127563e-01 -6.483403593301773071e-02 1.512998938560485840e+00 -7.329672574996948242e-01 -1.356342315673828125e+00 1.981725096702575684e-01 -5.964022874832153320e-02 1.231023788452148438e+00 7.550385594367980957e-01 1.433466196060180664e+00 -4.121877253055572510e-01 6.103391647338867188e-01 -5.647870302200317383e-01 -3.734604120254516602e-01 1.675143480300903320e+00 -1.128485309891402721e-03 5.733242511749267578e+00 -6.735280036926269531e+00 -2.377383708953857422e+00 3.099752426147460938e+00 1.394207000732421875e+00 -1.645135283470153809e+00 9.897745251655578613e-01 -4.524518549442291260e-01 -9.916575253009796143e-02 6.240468472242355347e-02 -3.414955139160156250e-01 3.068569302558898926e-01 -4.178589582443237305e-02 -1.321383833885192871e+00 1.676179617643356323e-01 9.056546539068222046e-02 -3.573538959026336670e-01 1.239018917083740234e+00 -2.283964306116104126e-01 1.087256908416748047e+00 -6.547622084617614746e-01 -1.719461828470230103e-01 2.081245332956314087e-01 -1.180164515972137451e-01 3.916407525539398193e-01 -2.856163680553436279e-01 -1.344574570655822754e+00 -1.133119240403175354e-01 2.767847478389739990e-01 -3.533247411251068115e-01 1.234236240386962891e+00 -1.817874163389205933e-01 1.025540351867675781e+00 -9.347092509269714355e-01 -6.299453228712081909e-02 1.901170611381530762e-01 1.315451115369796753e-01 2.973391413688659668e-01 -3.806372880935668945e-01 -1.353301405906677246e+00 -5.018289685249328613e-01 3.387471139430999756e-01 -2.611072957515716553e-01 1.279114723205566406e+00 -2.119766622781753540e-01 1.068762421607971191e+00 -1.252101063728332520e+00 6.508751958608627319e-02 2.157619446516036987e-01 2.650982439517974854e-01 1.275235563516616821e-01 -3.480904698371887207e-01 -1.332472443580627441e+00 -9.092611074447631836e-01 4.126620888710021973e-01 -2.797753512859344482e-01 1.128697395324707031e+00 -2.409784942865371704e-01 1.065777063369750977e+00 -1.556464314460754395e+00 8.963439613580703735e-02 3.109767436981201172e-01 3.900940418243408203e-01 -8.331483602523803711e-02 -2.421517819166183472e-01 -1.443250775337219238e+00 -1.376078486442565918e+00 4.323222041130065918e-01 -2.611750364303588867e-01 9.894752502441406250e-01 -3.307384848594665527e-01 6.307293176651000977e-01 -1.900780677795410156e+00 2.188386172056198120e-01 5.216615200042724609e-01 5.735033750534057617e-01 -3.502334952354431152e-01 -1.335421502590179443e-01 -1.536220669746398926e+00 -1.721314549446105957e+00 5.442441701889038086e-01 -1.804254800081253052e-01 8.386510610580444336e-01 -3.873773813247680664e-01 3.486273288726806641e-01 -2.171690464019775391e+00 6.580200791358947754e-01 9.575498700141906738e-01 7.274745106697082520e-01 -6.729866266250610352e-01 1.376410126686096191e-01 -1.603974342346191406e+00 -1.980147480964660645e+00 5.673405528068542480e-01 -1.607639193534851074e-01 8.440464138984680176e-01 -3.829825520515441895e-01 2.425691634416580200e-01 -2.217567443847656250e+00 1.120956182479858398e+00 1.264466524124145508e+00 7.651079297065734863e-01 -7.793495655059814453e-01 2.676295042037963867e-01 -1.726797223091125488e+00 -2.018589258193969727e+00 7.431110739707946777e-01 -1.303330212831497192e-01 9.425674080848693848e-01 -3.655576705932617188e-01 -2.036491036415100098e-02 -2.178058385848999023e+00 1.980126857757568359e+00 1.575689554214477539e+00 6.702118515968322754e-01 -5.962074995040893555e-01 6.603807210922241211e-01 -1.753524184226989746e+00 -1.823534250259399414e+00 8.614864945411682129e-01 -1.532925665378570557e-01 1.168773889541625977e+00 -1.860509961843490601e-01
9.326913356781005859e-01 -7.753930687904357910e-01 -6.019660830497741699e-01 3.763039708137512207e-01 -6.855667233467102051e-01 -2.301004379987716675e-01 1.723216623067855835e-01 8.879550546407699585e-02 -6.025184318423271179e-02 -4.194520115852355957e-01 1.028519153594970703e+00 -2.959643304347991943e-01 -5.704609751701354980e-01 -1.113446056842803955e-01 -1.259844601154327393e-01 -6.819991767406463623e-02 -2.552003599703311920e-02 -1.774509698152542114e-01 -2.171820551156997681e-01 2.426511347293853760e-01 1.076304838061332703e-01 -1.891201548278331757e-02 -1.954990327358245850e-01 1.529129892587661743e-01 -5.661865323781967163e-02 1.486236006021499634e-01 1.390794850885868073e-02 -3.063776791095733643e-01 5.170428156852722168e-01 3.236841678619384766e+00 -3.275599738117307425e-04 -5.703263282775878906e-01 -1.026852011680603027e+00 -1.946001052856445312e-01 5.084056258201599121e-01 -6.389798521995544434e-01 2.325575947761535645e-01 9.753660559654235840e-01 -7.907167077064514160e-01 -6.109852194786071777e-01 3.951606154441833496e-01 -6.784663796424865723e-01 -2.325814515352249146e-01 1.661527007818222046e-01 9.192483127117156982e-02 -4.469942301511764526e-02 -4.101414978504180908e-01 9.823440313339233398e-01 -2.800770998001098633e-01 -5.775000452995300293e-01 -1.125479266047477722e-01 -1.213604211807250977e-01 7.425641641020774841e-03 2.988742664456367493e-02 -2.843046486377716064e-01 -4.622049629688262939e-02 1.870896816253662109e-01 7.370097190141677856e-02 -8.062299340963363647e-02 -1.068859398365020752e-01 9.739796072244644165e-02 -8.841508626937866211e-02 1.620414406061172485e-01 5.892946198582649231e-02 -2.316274195909500122e-01 4.632687866687774658e-01 3.238225460052490234e+00 -1.541308010928332806e-04 -6.562101244926452637e-01 -1.186155676841735840e+00 1.492740809917449951e-01 3.297509551048278809e-01 -4.983196258544921875e-01 1.052262112498283386e-01 1.014604091644287109e+00 -8.001545071601867676e-01 -6.405587196350097656e-01 4.199751615524291992e-01 -6.698618531227111816e-01 -2.393538951873779297e-01 1.660821437835693359e-01 9.040262550115585327e-02 -3.691894561052322388e-02 -4.016668200492858887e-01 9.434947371482849121e-01 -2.659322321414947510e-01 -5.788161158561706543e-01 -1.100949347019195557e-01 -1.171489581465721130e-01 1.385362260043621063e-02 1.467310637235641479e-02 -3.347761034965515137e-01 4.582769051194190979e-02 1.439987123012542725e-01 4.119617491960525513e-02 -1.039078459143638611e-01 -5.472325533628463745e-02 5.684566870331764221e-02 -4.231935739517211914e-02 1.713375151157379150e-01 8.505684137344360352e-02 -1.759513020515441895e-01 3.937299251556396484e-01 3.238661289215087891e+00 -5.956202512606978416e-04 -7.792356610298156738e-01 -1.333130002021789551e+00 2.874261736869812012e-01 3.671670854091644287e-01 -5.661708712577819824e-01 -1.405136734247207642e-01 1.055797338485717773e+00 -8.088399171829223633e-01 -6.834756731986999512e-01 4.447616338729858398e-01 -6.675617694854736328e-01 -2.473048269748687744e-01 1.677632033824920654e-01 8.888369053602218628e-02 -3.622286021709442139e-02 -3.911184668540954590e-01 9.091279506683349609e-01 -2.523861229419708252e-01 -5.796854496002197266e-01 -1.073850318789482117e-01 -1.104919388890266418e-01 9.253606200218200684e-03 -3.452498838305473328e-02 -3.457902967929840088e-01 8.050179481506347656e-02 1.198276504874229431e-01 -9.972446598112583160e-03 -1.130535155534744263e-01 7.674341555684804916e-03 1.511078327894210815e-02 1.949020288884639740e-02 1.392363905906677246e-01 1.201518028974533081e-01 -1.414433270692825317e-01 3.096984326839447021e-01 3.238158941268920898e+00 -4.815269203390926123e-04 -8.963272571563720703e-01 -1.491131305694580078e+00 2.468722164630889893e-01 3.944032192230224609e-01 -7.503101229667663574e-01 -3.160064220428466797e-01 1.095964670181274414e+00 -8.158964514732360840e-01 -7.305594682693481445e-01 4.656940400600433350e-01 -6.739831566810607910e-01 -2.534818947315216064e-01 1.679451912641525269e-01 8.583263307809829712e-02 -4.079242423176765442e-02 -3.803890049457550049e-01 8.825655579566955566e-01 -2.386613041162490845e-01 -5.773506164550781250e-01 -1.070693209767341614e-01 -9.977394342422485352e-02 -1.594565063714981079e-02 -9.323462098836898804e-02 -3.239188790321350098e-01 1.116982102394104004e-01 1.245427280664443970e-01 -2.333742007613182068e-02 -7.969171553850173950e-02 3.536307439208030701e-02 -2.397173084318637848e-02 7.124526798725128174e-02 9.684394299983978271e-02 1.441855281591415405e-01 -1.201863959431648254e-01 2.201692610979080200e-01 3.239797592163085938e+00 -4.055828685523010790e-05 -1.015053272247314453e+00 -1.704063653945922852e+00 6.821517646312713623e-02 3.819565176963806152e-01 -9.490769505500793457e-01 -4.440905153751373291e-01 1.132308959960937500e+00 -8.215743303298950195e-01 -7.785859107971191406e-01 4.813443720340728760e-01 -6.876949667930603027e-01 -2.605457007884979248e-01 1.680864542722702026e-01 8.123859763145446777e-02 -4.186974465847015381e-02 -3.739577531814575195e-01 8.618828058242797852e-01 -2.267575860023498535e-01 -5.722863674163818359e-01 -1.072511672973632812e-01 -8.466523885726928711e-02 -1.669614389538764954e-02 -2.101350426673889160e-01 -2.489252090454101562e-01 1.443736255168914795e-01 8.043307811021804810e-02 -2.352535538375377655e-02 -2.076382189989089966e-02 3.590612858533859253e-02 -1.465241312980651855e-01 1.258889585733413696e-01 1.514835376292467117e-02 1.430521011352539062e-01 -1.136073842644691467e-01 1.330898702144622803e-01 3.241087675094604492e+00 -6.799038965255022049e-04 -1.054877161979675293e+00 -2.084455490112304688e+00 -5.316277965903282166e-02 3.370811343193054199e-01 -1.115902900695800781e+00 -5.820684432983398438e-01 1.172091245651245117e+00 -8.263853788375854492e-01 -8.149313926696777344e-01 4.885042607784271240e-01 -7.067820429801940918e-01 -2.641612887382507324e-01 1.681897193193435669e-01 7.470496743917465210e-02 -4.253917559981346130e-02 -3.706841170787811279e-01 8.511450290679931641e-01 -2.151302099227905273e-01 -5.654284358024597168e-01 -1.080340221524238586e-01 -6.953005492687225342e-02 -1.124249957501888275e-02 -3.379419147968292236e-01 -1.581507027149200439e-01 2.290456295013427734e-01 1.221667416393756866e-02 -1.180995348840951920e-02 4.152927547693252563e-03 5.754105374217033386e-02 -3.090232908725738525e-01 2.723132073879241943e-01 1.231805514544248581e-02 1.530976444482803345e-01 -1.124708950519561768e-01 5.622094124555587769e-02 3.240555047988891602e+00 -5.818394711241126060e-04 -1.056289792060852051e+00 -2.781251907348632812e+00 -2.783553004264831543e-01 4.303176701068878174e-01 -1.236702203750610352e+00 -7.077999711036682129e-01 1.216813325881958008e+00 -8.232537508010864258e-01 -8.238165974617004395e-01 4.821273982524871826e-01 -7.224373221397399902e-01 -2.684134542942047119e-01 1.638594269752502441e-01 6.319713592529296875e-02 -3.768023476004600525e-02 -3.732963800430297852e-01 8.626992702484130859e-01 -2.062464356422424316e-01 -5.543839335441589355e-01 -1.139202192425727844e-01 -5.578781664371490479e-02 -5.842420738190412521e-03 -4.180457592010498047e-01 -4.744042083621025085e-02 3.012347519397735596e-01 -6.183570623397827148e-02 -1.940016821026802063e-02 5.719048436731100082e-03 9.190914779901504517e-02 -4.273865222930908203e-01 2.679724395275115967e-01 -5.178329348564147949e-02 2.118816077709197998e-01 -1.166721209883689880e-01 -2.959975507110357285e-03 3.242393970489501953e+00 1.226272142957895994e-04 -9.647840261459350586e-01 -4.043069839477539062e+00 -7.261825203895568848e-01 6.990497112274169922e-01 -1.166077494621276855e+00 -8.145756721496582031e-01 1.284595012664794922e+00 -8.067186474800109863e-01 -8.092482089996337891e-01 4.557376205921173096e-01 -7.171171903610229492e-01 -2.709878683090209961e-01 1.576833426952362061e-01 4.992920532822608948e-02 -2.315001934766769409e-02 -3.820770382881164551e-01 9.150511622428894043e-01 -1.925100535154342651e-01 -5.542155504226684570e-01 -1.296533942222595215e-01 -3.552974388003349304e-02 -7.356509566307067871e-02 -4.095158278942108154e-01 5.268813297152519226e-02 5.404351949691772461e-01 -8.963651955127716064e-02 -6.193865090608596802e-02 -1.608703657984733582e-02 3.388680815696716309e-01 -4.033426940441131592e-01 1.723798923194408417e-02 -1.930601298809051514e-01 2.263710945844650269e-01 -1.221061423420906067e-01 -4.309439286589622498e-02 3.245391845703125000e+00 8.329106494784355164e-04 -7.648516297340393066e-01 -6.085504055023193359e+00 -1.258804440498352051e+00 1.580979824066162109e+00 -9.674106836318969727e-01 -1.331688880920410156e+00 1.399961471557617188e+00 -7.835182547569274902e-01 -7.886533141136169434e-01 4.107271432876586914e-01 -6.677013039588928223e-01 -2.513639032840728760e-01 1.519445925951004028e-01 2.214704826474189758e-02 2.595748007297515869e-02 -4.207930266857147217e-01 1.072258949279785156e+00 -1.307589858770370483e-01 -6.063733696937561035e-01 -1.803043931722640991e-01 -2.056815288960933685e-02 -1.238595321774482727e-01 -1.533396542072296143e-01 4.106199368834495544e-02 1.113324522972106934e+00 -4.779468476772308350e-02 3.654584288597106934e-02 -2.152275592088699341e-01 1.082506418228149414e+00 1.079937294125556946e-01 -8.908570408821105957e-01 -1.066454529762268066e+00 4.359421133995056152e-01 -1.163715571165084839e-01 -2.120805159211158752e-02 3.230321168899536133e+00 3.807004832196980715e-04 -3.704594671726226807e-01 -9.225200653076171875e+00 -2.066551685333251953e+00 2.963648319244384766e+00 -9.810880422592163086e-01 -2.872335433959960938e+00 3.268155157566070557e-01 -2.945118546485900879e-01 -1.305469155311584473e+00 -4.194113239645957947e-02 -1.307117193937301636e-01 3.878117799758911133e-01 5.780565738677978516e-01 -7.123340964317321777e-01 6.751375794410705566e-01 -8.577053993940353394e-02 -2.016177326440811157e-01 1.293179243803024292e-01 5.745208859443664551e-01 3.122053444385528564e-01 -2.418721765279769897e-01 -1.093832135200500488e+00 -9.757559746503829956e-02 -3.637830913066864014e-02 4.592849612236022949e-01 7.018681168556213379e-01 -6.667675971984863281e-01 9.170928001403808594e-01 3.046041913330554962e-02 -1.601743847131729126e-01 2.200714498758316040e-01 5.393308997154235840e-01 1.755011230707168579e-01 -1.581332981586456299e-01 -9.573339819908142090e-01 -4.465856403112411499e-02 9.374240040779113770e-02 4.418911933898925781e-01 7.371720075607299805e-01 -6.296876072883605957e-01 1.017140626907348633e+00 1.691934466361999512e-01 -1.437815874814987183e-01 2.899548709392547607e-01 4.718295931816101074e-01 3.581077456474304199e-01 -2.398006431758403778e-02 -7.948963642120361328e-01 1.027713939547538757e-01 3.235046565532684326e-01 5.850292444229125977e-01 6.548119783401489258e-01 -5.800670981407165527e-01 1.089003205299377441e+00 1.901523917913436890e-01 -1.378344595432281494e-01 4.179414510726928711e-01 5.570371747016906738e-01 2.613037526607513428e-01 -5.318079143762588501e-02 -5.971629023551940918e-01 4.309577047824859619e-01 4.498759210109710693e-01 8.253697156906127930e-01 8.889738321304321289e-01 -6.094972491264343262e-01 1.148200392723083496e+00 2.987025976181030273e-01 -1.245038956403732300e-01 5.829144716262817383e-01 6.293174028396606445e-01 5.943882465362548828e-02 -8.663905411958694458e-02 -3.691499829292297363e-01 7.468855977058410645e-01 6.371579766273498535e-01 1.100435495376586914e+00 1.275085568428039551e+00 -6.984985470771789551e-01 1.090244770050048828e+00 4.429233670234680176e-01 -4.952228441834449768e-02 6.974785923957824707e-01 7.656257748603820801e-01 1.001128703355789185e-01 -1.653977036476135254e-01 -1.779952645301818848e-01 1.228426337242126465e+00 9.165608882904052734e-01 1.242010712623596191e+00 1.778794050216674805e+00 -7.526667714118957520e-01 1.004659056663513184e+00 6.467626094818115234e-01 8.524894714355468750e-02 6.698645949363708496e-01 9.203013777732849121e-01 2.852483093738555908e-01 -3.049965202808380127e-01 1.192271262407302856e-01 1.771219968795776367e+00 1.273190379142761230e+00 1.317120075225830078e+00 2.402674436569213867e+00 -9.344683885574340820e-01 9.759809374809265137e-01 8.784776329994201660e-01 1.675076037645339966e-01 5.666491985321044922e-01 1.059556603431701660e+00 3.717020750045776367e-01 -2.765813767910003662e-01 5.713039040565490723e-01 2.348724126815795898e+00 1.678866267204284668e+00 1.368790626525878906e+00 3.223862648010253906e+00 -1.144958257675170898e+00 9.474663734436035156e-01 1.094683885574340820e+00 2.587121129035949707e-01 7.052530050277709961e-01 1.211051464080810547e+00
-6.519288420677185059e-01 1.211841821670532227e+00 2.272907793521881104e-01 3.561736643314361572e-02 3.462098538875579834e-01 8.330161571502685547e-01 7.485949993133544922e-01 6.552249789237976074e-01 1.702229827642440796e-01 -7.390370965003967285e-02 1.186456158757209778e-01 -1.023326963186264038e-01 3.895972073078155518e-01 -1.453886628150939941e-01 1.742817834019660950e-02 -1.050556823611259460e-02 -2.169591188430786133e-01 -1.498921662569046021e-01 1.497920900583267212e-01 2.145074009895324707e-01 3.042217716574668884e-02 4.665525257587432861e-02 9.324782341718673706e-02 -2.567740082740783691e-01 4.275329709053039551e-01 4.547863006591796875e-01 -6.719042360782623291e-02 9.077487513422966003e-03 -6.200107932090759277e-02 3.274572372436523438e+00 -3.317219961900264025e-04 -1.919679790735244751e-01 7.927559018135070801e-01 -3.459993302822113037e-01 -6.757340431213378906e-01 -5.599886178970336914e-01 1.779108941555023193e-01 -6.576737165451049805e-01 1.238441348075866699e+00 2.073091417551040649e-01 3.135444223880767822e-02 3.293584883213043213e-01 8.434766530990600586e-01 7.357146143913269043e-01 6.086705327033996582e-01 1.313465833663940430e-01 -7.061575353145599365e-02 1.295061409473419189e-01 -8.781284838914871216e-02 3.748048245906829834e-01 -7.370812445878982544e-02 9.024881757795810699e-03 4.751435294747352600e-02 -1.886646747589111328e-01 2.327102050185203552e-02 5.485459417104721069e-02 1.721193790435791016e-01 6.055990979075431824e-02 6.256195902824401855e-02 4.414796084165573120e-02 -1.496340632438659668e-01 9.268546849489212036e-02 3.175474703311920166e-01 6.426459550857543945e-02 1.112117990851402283e-01 -1.349783390760421753e-01 3.274406671524047852e+00 1.166098663816228509e-04 -1.209694966673851013e-01 8.064058423042297363e-01 2.674788050353527069e-02 -4.426164329051971436e-01 -2.175727486610412598e-01 -6.450816243886947632e-02 -6.605365276336669922e-01 1.281568765640258789e+00 1.998892128467559814e-01 2.628054283559322357e-02 3.198979198932647705e-01 8.553619980812072754e-01 7.244610786437988281e-01 5.664110779762268066e-01 9.179701656103134155e-02 -6.889876723289489746e-02 1.394039690494537354e-01 -7.320636510848999023e-02 3.424737751483917236e-01 -1.052750088274478912e-02 1.752320677042007446e-03 3.113194368779659271e-02 -1.190342605113983154e-01 1.290462613105773926e-01 1.196804344654083252e-01 1.872142106294631958e-01 6.084815412759780884e-02 2.540845237672328949e-02 5.105656012892723083e-02 -5.479526892304420471e-02 -5.555172450840473175e-03 1.571484059095382690e-01 6.433871388435363770e-02 2.111792862415313721e-01 -2.491575628519058228e-01 3.275192975997924805e+00 2.503215800970792770e-04 -2.291428297758102417e-02 8.274776339530944824e-01 1.378547102212905884e-01 -4.557456076145172119e-01 -1.093304809182882309e-02 -2.849600464105606079e-02 -6.630203127861022949e-01 1.337728500366210938e+00 2.080847471952438354e-01 1.638979092240333557e-02 3.170719742774963379e-01 8.670723438262939453e-01 7.224549055099487305e-01 5.321265459060668945e-01 5.579806491732597351e-02 -6.948540359735488892e-02 1.537019312381744385e-01 -6.030664592981338501e-02 3.045819997787475586e-01 4.457242414355278015e-02 -1.375410053879022598e-02 -6.587956566363573074e-03 -8.482927829027175903e-02 2.699355185031890869e-01 2.114240080118179321e-01 2.401617914438247681e-01 5.271633341908454895e-02 4.792713560163974762e-03 -1.252245437353849411e-02 -1.573535519128199667e-05 -1.099334061145782471e-01 1.813953183591365814e-02 4.266659915447235107e-02 3.026108741760253906e-01 -3.989856243133544922e-01 3.276097774505615234e+00 6.639448110945522785e-05 6.433101743459701538e-02 8.790176510810852051e-01 2.518600225448608398e-01 -4.543396532535552979e-01 2.415042966604232788e-01 -7.670847699046134949e-03 -6.654977202415466309e-01 1.407769203186035156e+00 2.321472615003585815e-01 5.259039811789989471e-03 3.158003389835357666e-01 8.786392211914062500e-01 7.322417497634887695e-01 5.054571628570556641e-01 2.732373215258121490e-02 -6.442892551422119141e-02 1.711626797914505005e-01 -5.079223215579986572e-02 2.646654546260833740e-01 9.293525665998458862e-02 -3.094338998198509216e-02 -4.556541889905929565e-02 -8.103981614112854004e-02 3.593941330909729004e-01 3.461828529834747314e-01 3.474190235137939453e-01 6.264541298151016235e-02 -8.345383219420909882e-03 -3.274307399988174438e-02 -1.891647279262542725e-02 -1.339343786239624023e-01 -1.177298426628112793e-01 3.690645843744277954e-02 3.787645101547241211e-01 -5.762948393821716309e-01 3.276529073715209961e+00 1.713749225018545985e-04 1.691069155931472778e-01 9.539026021957397461e-01 2.821181714534759521e-01 -4.579797685146331787e-01 5.047039985656738281e-01 2.997128665447235107e-02 -6.679136753082275391e-01 1.490173220634460449e+00 2.853343486785888672e-01 -2.908029593527317047e-03 3.170413672924041748e-01 8.932959437370300293e-01 7.465820908546447754e-01 4.805299639701843262e-01 -2.703780774027109146e-03 -5.518759787082672119e-02 1.933012157678604126e-01 -4.269516840577125549e-02 2.266039401292800903e-01 1.321142464876174927e-01 -4.674085974693298340e-02 -5.178978666663169861e-02 -2.706787176430225372e-02 4.826800823211669922e-01 4.658919274806976318e-01 3.726925551891326904e-01 7.270970940589904785e-02 -9.535878896713256836e-03 5.879298597574234009e-02 -6.002273410558700562e-03 -2.357227057218551636e-01 -1.452957391738891602e-01 6.140846759080886841e-02 4.345884621143341064e-01 -7.711911797523498535e-01 3.278019666671752930e+00 -7.638311362825334072e-04 3.000154793262481689e-01 1.118842005729675293e+00 3.565519452095031738e-01 -4.681012034416198730e-01 7.919638156890869141e-01 1.034808158874511719e-01 -6.685152649879455566e-01 1.590273618698120117e+00 3.443358242511749268e-01 -8.173425681889057159e-03 3.159756660461425781e-01 9.108361005783081055e-01 7.646043896675109863e-01 4.482271969318389893e-01 -3.091478720307350159e-02 -3.830680623650550842e-02 2.152974903583526611e-01 -3.778084367513656616e-02 1.951022297143936157e-01 1.622367501258850098e-01 -6.560154259204864502e-02 -4.125905781984329224e-02 1.741259731352329254e-02 5.544587373733520508e-01 6.745005249977111816e-01 2.797142863273620605e-01 8.659131824970245361e-02 -1.488533057272434235e-02 1.073119342327117920e-01 1.713985949754714966e-02 -3.113817572593688965e-01 -1.198100969195365906e-01 6.786508113145828247e-02 4.694426059722900391e-01 -9.807378649711608887e-01 3.278117895126342773e+00 -2.851726603694260120e-04 5.021097064018249512e-01 1.332252860069274902e+00 4.279766380786895752e-01 -4.648678600788116455e-01 1.139075040817260742e+00 2.684909403324127197e-01 -6.731165051460266113e-01 1.714341878890991211e+00 3.962209820747375488e-01 -9.115905500948429108e-03 3.074367940425872803e-01 9.341764450073242188e-01 7.910894751548767090e-01 4.152425527572631836e-01 -6.400272995233535767e-02 -1.564832590520381927e-02 2.294409573078155518e-01 -3.206338360905647278e-02 1.696285903453826904e-01 1.921832561492919922e-01 -9.126061201095581055e-02 -2.871882170438766479e-02 1.406248509883880615e-01 5.965486168861389160e-01 9.012435674667358398e-01 2.466401755809783936e-01 7.482938468456268311e-02 -1.432219520211219788e-02 6.590390205383300781e-02 1.772087626159191132e-02 -4.222742021083831787e-01 -8.548204600811004639e-02 -2.695547044277191162e-02 4.748805165290832520e-01 -1.192364454269409180e+00 3.278983831405639648e+00 1.487064000684767962e-04 7.979203462600708008e-01 1.633553624153137207e+00 3.471561968326568604e-01 -5.823723077774047852e-01 1.694247961044311523e+00 4.890798330307006836e-01 -6.939418911933898926e-01 1.884119272232055664e+00 4.109225869178771973e-01 -3.675364656373858452e-03 3.000042438507080078e-01 9.669501185417175293e-01 8.332357406616210938e-01 3.810304105281829834e-01 -1.049586236476898193e-01 1.689655892550945282e-02 2.256789654493331909e-01 -2.008167468011379242e-02 1.557187587022781372e-01 2.286787033081054688e-01 -1.272329986095428467e-01 -3.578879311680793762e-02 5.418781042098999023e-01 6.997859477996826172e-01 1.251158237457275391e+00 4.776950478553771973e-01 5.796416103839874268e-02 -7.678882777690887451e-02 -7.679888606071472168e-02 2.265346795320510864e-02 -4.859737753868103027e-01 -1.162429302930831909e-01 -1.381687372922897339e-01 4.518393278121948242e-01 -1.395818471908569336e+00 3.281044960021972656e+00 3.270457964390516281e-04 1.212530255317687988e+00 2.069808006286621094e+00 -7.450207322835922241e-02 -8.911176323890686035e-01 2.471446752548217773e+00 7.205360531806945801e-01 -7.479287385940551758e-01 2.121522426605224609e+00 3.270549774169921875e-01 9.971661493182182312e-03 2.836002409458160400e-01 1.034675478935241699e+00 9.042431712150573730e-01 3.823539614677429199e-01 -1.281301677227020264e-01 4.622809216380119324e-02 1.963188946247100830e-01 2.772936783730983734e-02 1.470500975847244263e-01 2.694444060325622559e-01 -1.799929887056350708e-01 3.175533562898635864e-02 1.333894014358520508e+00 9.209510684013366699e-01 2.102695703506469727e+00 1.472765803337097168e+00 2.400653362274169922e-01 -1.506106704473495483e-01 -2.777873873710632324e-01 1.100434362888336182e-01 -4.264366030693054199e-01 -3.133017122745513916e-01 -2.798424065113067627e-01 3.932590186595916748e-01 -1.551497220993041992e+00 3.269225120544433594e+00 2.856663486454635859e-04 1.971374392509460449e+00 2.585990905761718750e+00 -9.361708760261535645e-01 -1.074032664299011230e+00 3.642674922943115234e+00 1.575144767761230469e+00 -1.486994385719299316e+00 -1.248245537281036377e-01 5.109717249870300293e-01 -6.418423354625701904e-02 -4.825357198715209961e-01 -1.636769622564315796e-02 -1.671072393655776978e-01 -3.685466200113296509e-02 -6.595901250839233398e-01 8.009263873100280762e-01 6.105303764343261719e-01 -4.234048724174499512e-02 -1.029965639114379883e+00 -1.351652145385742188e+00 -5.325031653046607971e-02 3.617998659610748291e-01 1.469008624553680420e-01 -3.355667889118194580e-01 -1.273263841867446899e-01 -3.443934321403503418e-01 1.401106361299753189e-03 -6.647267341613769531e-01 9.651095867156982422e-01 7.530306577682495117e-01 -3.170861899852752686e-01 -9.399083256721496582e-01 -1.162235379219055176e+00 -1.319749653339385986e-01 3.992903828620910645e-01 2.486994564533233643e-01 -3.600436151027679443e-01 -1.609284579753875732e-01 -3.557409346103668213e-01 -1.501865386962890625e-01 -5.440695285797119141e-01 1.124101758003234863e+00 9.516811370849609375e-01 -4.462336301803588867e-01 -6.743336319923400879e-01 -1.122561931610107422e+00 -2.279588878154754639e-01 2.540600299835205078e-01 9.894865006208419800e-02 -2.579102814197540283e-01 -1.449095904827117920e-01 -3.373389840126037598e-01 -1.725999861955642700e-01 -4.496843814849853516e-01 1.271218061447143555e+00 1.105518579483032227e+00 -4.293746054172515869e-01 -5.903025865554809570e-01 -9.746865034103393555e-01 -3.951775729656219482e-01 8.218252658843994141e-02 1.997828632593154907e-01 -1.861169338226318359e-01 -1.604912877082824707e-01 -5.342041850090026855e-01 -2.788038551807403564e-01 -2.839221060276031494e-01 1.455816268920898438e+00 1.276198625564575195e+00 -4.055806100368499756e-01 -3.814020156860351562e-01 -8.822402954101562500e-01 -4.874665737152099609e-01 -6.163941696286201477e-03 4.379088282585144043e-01 -9.146249853074550629e-03 -4.374613240361213684e-02 -6.756991147994995117e-01 -2.737776041030883789e-01 -3.221832811832427979e-01 1.383855223655700684e+00 1.483581185340881348e+00 -3.315330147743225098e-01 -4.483864009380340576e-01 -7.432215809822082520e-01 -5.255699157714843750e-01 5.177615210413932800e-03 9.504244923591613770e-01 2.577145099639892578e-01 -6.327209621667861938e-02 -9.303002953529357910e-01 -2.590126991271972656e-01 -3.625793457031250000e-01 1.433118343353271484e+00 1.789089322090148926e+00 -3.593301773071289062e-01 -4.532543122768402100e-01 -6.413121223449707031e-01 -5.476485490798950195e-01 -6.164525821805000305e-02 1.568470001220703125e+00 5.742309689521789551e-01 1.347853243350982666e-01 -8.857942223548889160e-01 -9.774275124073028564e-03 -3.873900175094604492e-01 1.379942297935485840e+00 1.873685359954833984e+00 -1.610046625137329102e-01 -4.049007296562194824e-01 -6.785488128662109375e-01 -4.283652007579803467e-01 -1.574606895446777344e-01 2.312310695648193359e+00 1.064878940582275391e+00 5.350943207740783691e-01 -1.188766956329345703e+00 5.370035767555236816e-01 -7.432930469512939453e-01 1.249038338661193848e+00 1.795134186744689941e+00 1.222110390663146973e-01 -7.801160812377929688e-01
1.513285934925079346e-01 -9.410131722688674927e-02 1.624035835266113281e-02 1.721902936697006226e-01 -2.720927298069000244e-01 -3.205703198909759521e-01 2.667914330959320068e-01 2.612211108207702637e-01 -1.208180747926235199e-02 4.430109858512878418e-01 1.728051602840423584e-01 -4.525407254695892334e-01 -1.920875757932662964e-01 2.994222640991210938e-01 4.062008261680603027e-01 5.083797499537467957e-02 -4.738976657390594482e-01 7.561592012643814087e-02 2.520867288112640381e-01 -5.614868551492691040e-02 3.248931467533111572e-01 2.190071344375610352e-02 2.371594309806823730e-01 -7.724406570196151733e-02 -1.877592504024505615e-01 -2.193570882081985474e-01 7.626611739397048950e-02 2.743326425552368164e-01 -1.196103245019912720e-01 1.388625621795654297e+00 1.119763546739704907e-04 -3.263886690139770508e+00 5.400817990303039551e-01 -1.369653940200805664e-01 -5.938813835382461548e-02 -1.983374238014221191e+00 -7.875432968139648438e-01 1.229300722479820251e-01 -1.196298897266387939e-01 -1.577221788465976715e-02 1.842799931764602661e-01 -2.899145483970642090e-01 -3.117540478706359863e-01 2.505016624927520752e-01 2.422770112752914429e-01 -1.083382405340671539e-02 4.019404947757720947e-01 1.742479205131530762e-01 -4.319540858268737793e-01 -2.093295454978942871e-01 2.590148150920867920e-01 4.064361155033111572e-01 4.108454659581184387e-02 -3.100860714912414551e-01 5.314314365386962891e-02 1.296586990356445312e-01 1.811638101935386658e-02 1.678720265626907349e-01 2.480570226907730103e-02 1.757793724536895752e-01 -1.803530603647232056e-01 -1.556988656520843506e-01 -1.438467651605606079e-01 2.170422673225402832e-01 2.246555835008621216e-01 -1.504353582859039307e-01 1.390708565711975098e+00 -2.762162766885012388e-04 -3.143929481506347656e+00 4.733793735504150391e-01 2.507951557636260986e-01 2.288659214973449707e-01 -1.495355129241943359e+00 -5.857218503952026367e-01 1.017589718103408813e-01 -1.257494091987609863e-01 -1.634070836007595062e-02 2.014902383089065552e-01 -2.931773960590362549e-01 -3.034459054470062256e-01 2.220204174518585205e-01 2.397332787513732910e-01 -8.131052367389202118e-03 3.492647111415863037e-01 1.731657087802886963e-01 -4.168042540550231934e-01 -2.258034348487854004e-01 2.225046455860137939e-01 4.134037494659423828e-01 7.533956319093704224e-02 -2.382526099681854248e-01 2.121624164283275604e-02 7.130835950374603271e-02 8.173306286334991455e-02 1.002076044678688049e-01 3.882019594311714172e-02 3.944168239831924438e-02 -2.779438793659210205e-01 -1.532311737537384033e-01 -1.027966365218162537e-01 2.697018682956695557e-01 1.707455813884735107e-01 -1.759225726127624512e-01 1.390399932861328125e+00 -3.309183230157941580e-04 -3.076015233993530273e+00 3.701913654804229736e-01 4.911626279354095459e-01 4.718351364135742188e-01 -1.191552042961120605e+00 -5.210043787956237793e-01 8.878208696842193604e-02 -1.320262253284454346e-01 1.799337938427925110e-02 2.210153192281723022e-01 -2.881724834442138672e-01 -2.999846637248992920e-01 1.889639347791671753e-01 2.467560619115829468e-01 -4.301872104406356812e-03 2.959777116775512695e-01 1.681928336620330811e-01 -4.111514389514923096e-01 -2.410636097192764282e-01 1.726509779691696167e-01 4.315223395824432373e-01 4.329742491245269775e-02 -1.208406016230583191e-01 -6.620175391435623169e-02 1.432382017374038696e-01 9.501466900110244751e-02 1.416529715061187744e-01 7.563592493534088135e-02 -7.954523898661136627e-03 -3.963868021965026855e-01 -1.465343832969665527e-01 -1.377982795238494873e-01 2.788670063018798828e-01 1.121470108628273010e-01 -1.962867081165313721e-01 1.391144990921020508e+00 5.751674179919064045e-04 -2.934098720550537109e+00 3.014095127582550049e-01 9.541009068489074707e-01 7.053594589233398438e-01 -9.768635034561157227e-01 -5.824066996574401855e-01 7.557567954063415527e-02 -1.288448572158813477e-01 8.627539128065109253e-02 2.303333729505538940e-01 -2.706450223922729492e-01 -3.002927899360656738e-01 1.475689262151718140e-01 2.632991373538970947e-01 -3.808610606938600540e-03 2.462228536605834961e-01 1.691064685583114624e-01 -4.154177606105804443e-01 -2.533328831195831299e-01 1.050249636173248291e-01 4.560279250144958496e-01 -2.530537080019712448e-03 -6.118065118789672852e-02 -1.287393569946289062e-01 1.751470565795898438e-01 1.625457108020782471e-01 1.187349259853363037e-01 5.687500815838575363e-03 -2.542537078261375427e-02 -4.445748925209045410e-01 -2.075920552015304565e-01 -1.383630037307739258e-01 3.016121983528137207e-01 5.530993267893791199e-02 -2.106859982013702393e-01 1.391790151596069336e+00 -2.346588735235854983e-04 -2.615729570388793945e+00 1.088996678590774536e-01 1.425127863883972168e+00 1.004635810852050781e+00 -9.339157342910766602e-01 -4.475956857204437256e-01 5.828445404767990112e-02 -1.104256436228752136e-01 1.353696882724761963e-01 2.286560386419296265e-01 -2.434876263141632080e-01 -3.012588024139404297e-01 9.383654594421386719e-02 2.900612652301788330e-01 -5.068903323262929916e-03 2.160193920135498047e-01 1.697139889001846313e-01 -4.281410276889801025e-01 -2.646526098251342773e-01 3.842010349035263062e-02 4.786053299903869629e-01 -3.842873871326446533e-02 1.138174533843994141e-02 -1.444830894470214844e-01 2.238994836807250977e-01 1.798423975706100464e-01 5.435733869671821594e-02 -4.415851458907127380e-02 2.907589823007583618e-02 -3.885102570056915283e-01 -3.332261145114898682e-01 -9.665071964263916016e-02 3.652996718883514404e-01 4.598265048116445541e-03 -2.166622579097747803e-01 1.392599225044250488e+00 2.600300358608365059e-04 -1.905804395675659180e+00 -1.835132092237472534e-01 1.829043626785278320e+00 1.145944356918334961e+00 -7.972592115402221680e-01 -4.383921027183532715e-01 5.552020296454429626e-02 -5.631997436285018921e-02 1.262895762920379639e-01 2.194659113883972168e-01 -2.202545255422592163e-01 -3.012403845787048340e-01 4.245948791503906250e-02 3.151991367340087891e-01 -9.377456270158290863e-03 1.977489888668060303e-01 1.733779013156890869e-01 -4.427146911621093750e-01 -2.580969929695129395e-01 -2.846152149140834808e-02 4.976184368133544922e-01 -9.210997074842453003e-02 4.748419299721717834e-02 -6.894290447235107422e-02 2.983741760253906250e-01 7.921219617128372192e-02 5.028096958994865417e-02 -8.917129039764404297e-02 1.381013542413711548e-01 -4.235332608222961426e-01 -3.295669257640838623e-01 -8.091221749782562256e-02 3.843956589698791504e-01 -4.326442629098892212e-02 -2.123623192310333252e-01 1.393769979476928711e+00 -2.303316141478717327e-04 -6.603155136108398438e-01 -6.819553971290588379e-01 2.045066595077514648e+00 1.168965816497802734e+00 -5.075245499610900879e-01 -4.997006952762603760e-01 8.883902430534362793e-02 9.352006018161773682e-02 1.069466676563024521e-02 2.084096372127532959e-01 -2.236420661211013794e-01 -3.015047311782836914e-01 1.066259387880563736e-02 3.491318523883819580e-01 -1.120900828391313553e-02 1.995329260826110840e-01 1.963297873735427856e-01 -4.480623900890350342e-01 -2.337185293436050415e-01 -9.666966646909713745e-02 5.093566179275512695e-01 -7.363263517618179321e-02 -3.450028970837593079e-02 -7.798224687576293945e-02 4.556730389595031738e-01 -1.253299862146377563e-01 6.945596635341644287e-02 -1.024201884865760803e-01 2.189714312553405762e-01 -3.069286942481994629e-01 -3.267046809196472168e-01 -1.758305579423904419e-01 2.240269184112548828e-01 -8.284808695316314697e-02 -2.051570713520050049e-01 1.394735813140869141e+00 -8.702932973392307758e-04 1.497610449790954590e+00 -1.660179138183593750e+00 1.929487347602844238e+00 1.422534704208374023e+00 1.752053946256637573e-01 -7.149001359939575195e-01 1.937797963619232178e-01 4.588494002819061279e-01 -2.378702610731124878e-01 2.041667550802230835e-01 -2.448622435331344604e-01 -2.911854386329650879e-01 1.722908345982432365e-03 3.780148327350616455e-01 -1.929229311645030975e-02 2.134555429220199585e-01 2.533351182937622070e-01 -4.084291160106658936e-01 -1.813681125640869141e-01 -1.796421706676483154e-01 5.050806999206542969e-01 -8.567081764340400696e-03 -2.061942033469676971e-02 -1.386803537607192993e-01 8.153549432754516602e-01 -2.956822514533996582e-01 -4.052342101931571960e-02 -2.113883197307586670e-01 2.494121193885803223e-01 2.304878681898117065e-01 -3.002019822597503662e-01 -7.799290865659713745e-02 2.134777046740055084e-02 -1.075829118490219116e-01 -1.966696232557296753e-01 1.395664453506469727e+00 -8.883361588232219219e-04 4.990593433380126953e+00 -3.505713701248168945e+00 1.825254678726196289e+00 1.975719451904296875e+00 1.716155767440795898e+00 -1.047513604164123535e+00 3.828577697277069092e-01 1.137495756149291992e+00 -6.335211396217346191e-01 1.985290646553039551e-01 -2.579638063907623291e-01 -2.018519192934036255e-01 3.076387383043766022e-02 3.673892319202423096e-01 -2.360335737466812134e-02 2.154521048069000244e-01 4.119434356689453125e-01 -2.184888571500778198e-01 -1.145906075835227966e-01 -3.451835811138153076e-01 4.647856056690216064e-01 1.058071944862604141e-02 4.076811969280242920e-01 5.698115006089210510e-02 1.478372216224670410e+00 -7.205128073692321777e-01 -2.880253084003925323e-02 -3.771602809429168701e-01 6.152094602584838867e-01 1.568653345108032227e+00 -5.001350641250610352e-01 -2.176626324653625488e-01 4.416480660438537598e-01 -1.206003278493881226e-01 -1.446409821510314941e-01 1.382795810699462891e+00 -1.787482178770005703e-04 9.906021118164062500e+00 -6.356310844421386719e+00 1.819948673248291016e+00 2.408982276916503906e+00 4.142587661743164062e+00 -1.603611350059509277e+00 7.877719998359680176e-01 -5.982313752174377441e-01 -1.198738738894462585e-01 -6.053054928779602051e-01 -9.648424386978149414e-01 4.966399371623992920e-01 -3.097773492336273193e-01 6.306770443916320801e-01 4.248978495597839355e-01 3.258515149354934692e-02 -7.673292756080627441e-01 -5.277130007743835449e-01 -1.827782511711120605e+00 8.631663322448730469e-01 -7.373937368392944336e-01 -2.365883141756057739e-01 -3.986634314060211182e-01 -7.182393074035644531e-01 7.740293741226196289e-01 6.569995731115341187e-02 7.052969932556152344e-01 3.829441964626312256e-01 -7.700179517269134521e-02 -7.531490325927734375e-01 -3.082212805747985840e-01 -1.651352405548095703e+00 6.771121025085449219e-01 -7.912943363189697266e-01 -1.586086899042129517e-01 -1.141278520226478577e-01 -4.560807645320892334e-01 9.853006601333618164e-01 2.530677616596221924e-01 6.270852684974670410e-01 2.904328703880310059e-01 -3.519493341445922852e-02 -7.911424040794372559e-01 8.640295267105102539e-02 -1.502249956130981445e+00 4.096022546291351318e-01 -9.344330430030822754e-01 -2.581102550029754639e-01 3.344923257827758789e-02 -1.813519597053527832e-01 1.079734444618225098e+00 4.798735678195953369e-01 5.593947768211364746e-01 2.955683767795562744e-01 -2.306621372699737549e-01 -6.386519670486450195e-01 4.545075595378875732e-01 -1.278285026550292969e+00 2.148941904306411743e-01 -1.113696813583374023e+00 -1.029304601252079010e-02 4.907673001289367676e-01 1.337951570749282837e-01 1.375851392745971680e+00 7.080593705177307129e-01 4.258233308792114258e-01 3.563755452632904053e-01 -3.637711405754089355e-01 -5.893526077270507812e-01 7.216312885284423828e-01 -1.161667227745056152e+00 4.508440196514129639e-01 -1.169253945350646973e+00 7.681810110807418823e-02 9.861527681350708008e-01 4.114860594272613525e-01 1.671577215194702148e+00 6.839743852615356445e-01 3.908414840698242188e-01 3.435976207256317139e-01 -2.749366760253906250e-01 -5.455845594406127930e-01 1.090094685554504395e+00 -1.081815958023071289e+00 2.686123251914978027e-01 -1.429455399513244629e+00 1.153469309210777283e-01 1.620353579521179199e+00 6.428549289703369141e-01 2.215915203094482422e+00 9.957357645034790039e-01 3.641154468059539795e-01 2.408187687397003174e-01 -2.446305453777313232e-01 -4.614368379116058350e-01 1.529359936714172363e+00 -8.961674571037292480e-01 3.499831259250640869e-01 -1.659572243690490723e+00 -3.058274090290069580e-01 2.121521949768066406e+00 6.963022351264953613e-01 2.585399150848388672e+00 1.165583014488220215e+00 2.807554900646209717e-01 2.670742869377136230e-01 -9.043586254119873047e-02 -4.575354158878326416e-01 1.995183110237121582e+00 -9.672281742095947266e-01 1.012662529945373535e+00 -1.787392258644104004e+00 -5.462827086448669434e-01 2.560794591903686523e+00 6.419697403907775879e-01 3.206829786300659180e+00 1.299972176551818848e+00 3.491270244121551514e-01 2.358133532106876373e-02 -3.346739411354064941e-01 -4.415340423583984375e-01 2.707041501998901367e+00 -9.259128570556640625e-01
